~o
<STREAMINFO> 1 39
<VECSIZE> 39<NULLD><MFCC_D_A_0><DIAGC>
~h "san"
<BEGINHMM>
<NUMSTATES> 8
<STATE> 2
<MEAN> 39
 -2.211589e+01 4.631347e+00 -6.276227e+00 4.700053e+00 1.693095e+00 -6.381775e-01 1.505202e+00 6.159792e-01 1.057874e+00 -1.303279e+00 8.821920e-01 3.111542e+00 5.789085e+01 -7.784086e-01 7.106000e-03 -4.064014e-01 1.108878e-01 -3.068931e-01 9.450592e-02 2.441733e-02 7.583819e-02 2.183910e-01 -3.685460e-02 8.295783e-02 -1.324634e-02 7.986796e-01 2.519888e-01 -1.967302e-01 -2.736338e-04 -1.477479e-01 -5.741790e-02 1.346402e-02 -3.543525e-02 6.380321e-03 -2.371287e-02 -2.775644e-02 4.990511e-03 -2.774766e-03 2.023877e-02
<VARIANCE> 39
 1.849919e+01 9.837990e+00 1.725556e+01 4.039977e+01 1.583001e+01 4.926029e+01 1.407278e+01 2.781009e+01 2.583115e+01 2.052484e+01 2.615236e+01 2.029146e+01 3.499103e+01 1.263473e+00 6.423731e-01 7.729234e-01 1.006400e+00 9.104530e-01 1.468777e+00 1.233328e+00 1.472972e+00 1.710598e+00 1.123812e+00 1.103285e+00 1.207814e+00 5.020512e-01 1.984293e-01 1.110126e-01 1.428906e-01 1.797907e-01 2.164375e-01 3.613671e-01 2.531161e-01 2.663377e-01 3.274539e-01 2.096521e-01 2.224362e-01 2.992560e-01 1.053310e-01
<GCONST> 9.247734e+01
<STATE> 3
<MEAN> 39
 -1.984743e+01 -5.918204e-01 -7.001322e+00 3.173866e-01 9.222454e-02 -1.324759e-01 6.469643e-01 4.044843e+00 2.386585e+00 -1.836185e+00 3.694651e+00 2.941991e+00 6.686070e+01 2.818477e+00 -1.168798e+00 -9.650283e-02 -1.120291e+00 4.894597e-01 -9.411972e-01 -8.556801e-03 -3.590597e-01 3.652222e-02 -1.297827e+00 -1.348117e+00 -2.626705e-01 1.725503e+00 6.813807e-01 -1.100727e-01 1.669330e-01 -1.124132e-01 5.294442e-01 1.146041e-02 1.475648e-01 -5.588622e-01 8.322011e-02 -3.488076e-01 -5.739425e-01 -4.849221e-01 1.287000e-01
<VARIANCE> 39
 1.979813e+01 1.413940e+01 2.822665e+01 2.338980e+01 1.591223e+01 3.123811e+01 2.119528e+01 4.627006e+01 2.231578e+01 2.870341e+01 3.069800e+01 1.963274e+01 3.287053e+01 3.612399e+00 1.373885e+00 1.657226e+00 1.667771e+00 3.170661e+00 1.803897e+00 3.277263e+00 3.097401e+00 2.036700e+00 4.314925e+00 2.757613e+00 3.206141e+00 1.916217e+00 4.233463e-01 2.806377e-01 2.217864e-01 1.663134e-01 4.301541e-01 3.463583e-01 6.161343e-01 5.371171e-01 5.426888e-01 7.251717e-01 3.773187e-01 6.430309e-01 2.567772e-01
<GCONST> 1.127927e+02
<STATE> 4
<MEAN> 39
 -4.919977e+00 -6.762173e+00 -6.577524e+00 -6.246140e+00 7.589176e+00 -3.418340e+00 2.741426e+00 -5.163693e+00 4.027818e+00 -9.607661e+00 -7.084814e+00 -4.093938e+00 7.398716e+01 1.861995e+00 -2.077998e+00 1.016996e-01 -2.048929e+00 2.460064e+00 1.165492e-01 6.968043e-01 -2.358657e+00 4.748564e-01 -3.474530e-01 -1.011549e+00 -1.762186e+00 1.613869e+00 -8.554318e-01 1.551432e-01 -1.231691e-01 1.017105e-01 -1.073372e-01 2.582429e-01 -9.642188e-02 2.187688e-01 -1.304253e-01 6.562092e-01 6.593796e-01 4.045009e-01 -4.663797e-01
<VARIANCE> 39
 8.498621e+00 3.418900e+01 2.518818e+01 3.170769e+01 4.396801e+01 1.578898e+01 5.003581e+01 5.917456e+01 3.086203e+01 7.385805e+01 2.289701e+01 3.182455e+01 1.266753e+01 2.902879e+00 2.741773e+00 1.698925e+00 1.442759e+00 1.964544e+00 2.015750e+00 3.267096e+00 1.419927e+00 4.114303e+00 4.041759e+00 4.459277e+00 4.404896e+00 2.117703e+00 2.363259e-01 3.750310e-01 1.523838e-01 3.635274e-01 5.890861e-01 2.658243e-01 5.181911e-01 3.516148e-01 5.468736e-01 5.823820e-01 3.848119e-01 4.990534e-01 2.832118e-01
<GCONST> 1.149217e+02
<STATE> 5
<MEAN> 39
 -2.313828e+00 -1.037178e+01 -6.312171e+00 -1.204363e+01 1.446752e+01 -2.435341e+00 2.641057e+00 -1.021418e+01 2.928604e+00 -5.394270e+00 -5.949748e+00 -7.372379e+00 7.516007e+01 3.301708e-01 2.055392e-01 -8.875639e-02 4.624271e-02 -1.101016e-01 1.128110e-01 -5.118892e-01 7.169966e-02 -1.580178e-01 1.721904e-01 1.013769e-01 -3.374060e-01 -3.885813e-01 -4.092519e-02 2.269424e-01 8.886449e-02 2.080147e-01 -2.879852e-01 -2.836904e-02 -5.850730e-02 2.050304e-01 -4.887398e-02 -1.697253e-02 -2.297023e-02 7.789005e-02 -1.225523e-01
<VARIANCE> 39
 1.448917e+01 2.401332e+01 2.626292e+01 2.544578e+01 2.574871e+01 2.397997e+01 4.805847e+01 5.245619e+01 2.704986e+01 6.001608e+01 3.273075e+01 3.170619e+01 6.699232e+00 1.647653e-01 5.271012e-01 6.426021e-01 7.062020e-01 8.126104e-01 6.108011e-01 7.049265e-01 1.646901e+00 1.178747e+00 8.646404e-01 6.332139e-01 8.014759e-01 1.625334e-01 2.065288e-02 9.222194e-02 9.474058e-02 1.008994e-01 9.327472e-02 8.939398e-02 1.660217e-01 2.646059e-01 1.809372e-01 1.987596e-01 9.222823e-02 9.980117e-02 2.695900e-02
<GCONST> 7.781746e+01
<STATE> 6
<MEAN> 39
 5.018966e-02 -4.105958e+00 -2.809903e+00 -3.473671e+00 4.921353e+00 -2.492215e-01 -1.750462e+00 -6.421327e+00 -1.631455e+00 -1.850173e+00 -6.596780e+00 -7.498731e+00 6.730991e+01 -2.108798e-01 9.342167e-01 1.182864e+00 1.009623e+00 -1.124990e+00 8.834084e-02 -1.942022e-01 -2.081341e-01 -5.518198e-01 6.164150e-01 4.514442e-02 5.298708e-01 -1.211937e+00 -9.850495e-02 -6.412826e-02 -7.282537e-03 1.192795e-02 8.425435e-02 -6.440148e-02 1.879811e-02 -1.143173e-01 1.099553e-01 -1.236824e-02 1.211974e-01 -2.459891e-02 -6.168142e-02
<VARIANCE> 39
 2.150487e+01 1.253121e+01 3.867794e+01 3.837653e+01 5.702159e+01 2.096121e+01 4.370609e+01 8.857156e+01 3.665127e+01 8.972291e+01 5.464285e+01 3.084451e+01 1.665295e+01 2.777973e-01 7.280539e-01 1.297530e+00 1.191381e+00 1.484303e+00 1.078434e+00 1.626526e+00 1.842435e+00 1.311424e+00 1.986232e+00 3.392742e+00 2.629583e+00 3.032741e-01 3.458756e-02 1.155854e-01 2.669584e-01 2.485999e-01 1.867090e-01 1.727821e-01 3.031096e-01 4.152174e-01 2.597593e-01 2.702608e-01 4.138341e-01 4.443183e-01 4.042614e-02
<GCONST> 9.932313e+01
<STATE> 7
<MEAN> 39
 -5.402851e+00 4.112104e-01 2.136698e+00 -6.861941e-01 2.704869e-01 -2.062243e+00 -4.037523e+00 -1.061864e+01 8.138438e-01 -1.131914e+00 -2.793345e+00 -3.890536e+00 5.807548e+01 -1.028619e+00 3.313498e-01 -5.015886e-01 5.413262e-01 -9.102958e-02 3.025932e-01 3.127629e-01 9.774111e-01 1.661199e-01 2.715389e-01 8.797297e-01 5.180626e-01 -1.549284e+00 -2.349855e-02 -1.157919e-01 -2.540957e-01 -1.045788e-01 1.935578e-01 1.782912e-01 2.073257e-01 3.025943e-01 -5.099006e-03 -6.236042e-02 3.018526e-02 1.721035e-01 3.571055e-02
<VARIANCE> 39
 2.517639e+01 1.143399e+01 3.104915e+01 3.403897e+01 5.234788e+01 3.262293e+01 1.972736e+01 6.790187e+01 5.117433e+01 4.112190e+01 1.997883e+01 2.428560e+01 2.283671e+01 9.428030e-01 7.381130e-01 1.994136e+00 6.549726e-01 1.408459e+00 1.848172e+00 2.406435e+00 2.337843e+00 2.585237e+00 1.856268e+00 1.926672e+00 2.024567e+00 9.055791e-01 1.135613e-01 1.345917e-01 2.721266e-01 9.670939e-02 1.790105e-01 2.808928e-01 3.144003e-01 3.169503e-01 3.364925e-01 3.743328e-01 4.144812e-01 3.910332e-01 1.339872e-01
<GCONST> 1.023132e+02
<TRANSP> 8
 0.000000e+00 1.000000e+00 0.000000e+00 0.000000e+00 0.000000e+00 0.000000e+00 0.000000e+00 0.000000e+00
 0.000000e+00 9.018843e-01 9.811576e-02 0.000000e+00 0.000000e+00 0.000000e+00 0.000000e+00 0.000000e+00
 0.000000e+00 0.000000e+00 7.709565e-01 2.290435e-01 0.000000e+00 0.000000e+00 0.000000e+00 0.000000e+00
 0.000000e+00 0.000000e+00 0.000000e+00 7.447338e-01 2.552663e-01 0.000000e+00 0.000000e+00 0.000000e+00
 0.000000e+00 0.000000e+00 0.000000e+00 0.000000e+00 8.987228e-01 1.012772e-01 0.000000e+00 0.000000e+00
 0.000000e+00 0.000000e+00 0.000000e+00 0.000000e+00 0.000000e+00 8.756064e-01 1.243936e-01 0.000000e+00
 0.000000e+00 0.000000e+00 0.000000e+00 0.000000e+00 0.000000e+00 0.000000e+00 8.279316e-01 1.720684e-01
 0.000000e+00 0.000000e+00 0.000000e+00 0.000000e+00 0.000000e+00 0.000000e+00 0.000000e+00 0.000000e+00
<ENDHMM>
