~o
<STREAMINFO> 1 39
<VECSIZE> 39<NULLD><MFCC_D_A_0><DIAGC>
~h "seven"
<BEGINHMM>
<NUMSTATES> 9
<STATE> 2
<MEAN> 39
 -3.654573e+00 1.564617e+00 4.139480e+00 -1.391245e+00 -1.984263e+00 -5.791105e+00 -4.651820e+00 -4.056199e+00 4.471903e+00 -8.568603e+00 -4.403979e+00 5.606840e-01 6.432211e+01 4.589529e-01 -1.856812e+00 -9.747204e-01 -1.821750e+00 5.500357e-01 -9.417940e-01 -3.765680e-01 1.109186e+00 1.299339e+00 -1.806036e+00 -1.081199e+00 -4.471685e-01 3.187024e+00 -2.715436e-01 -4.523734e-01 -5.323163e-01 -2.252297e-01 5.680683e-01 3.918855e-01 2.863831e-01 1.106226e-01 -1.469629e-02 5.377836e-02 1.559013e-01 -2.726341e-01 -2.704340e-02
<VARIANCE> 39
 1.006345e+01 3.057462e+01 3.060300e+01 4.940672e+01 5.211028e+01 3.487152e+01 4.972565e+01 9.312068e+01 8.628272e+01 6.971380e+01 2.530137e+01 1.673808e+01 5.276713e+01 1.643275e+00 3.767472e+00 5.053509e+00 3.007076e+00 5.566416e+00 4.883300e+00 3.837258e+00 8.102686e+00 4.673475e+00 3.176969e+00 1.565285e+00 2.338981e+00 1.417454e+00 2.026002e-01 5.013309e-01 4.453970e-01 5.892590e-01 5.048913e-01 8.463327e-01 4.535934e-01 1.879457e+00 7.933068e-01 6.898663e-01 4.452491e-01 3.898608e-01 4.105470e-01
<GCONST> 1.271388e+02
<STATE> 3
<MEAN> 39
 -4.341848e+00 -9.625715e+00 -5.979603e+00 -1.102409e+01 9.249278e+00 -4.923467e+00 -1.330658e+00 -1.933213e+00 7.865073e+00 -1.242127e+01 -7.949162e+00 -5.570615e+00 7.755577e+01 7.496399e-02 9.606142e-02 -1.468502e-01 4.199329e-02 9.935044e-02 -2.123259e-01 -3.645353e-01 -5.659611e-01 1.027274e-01 4.258088e-01 -6.937210e-02 -1.698557e-01 3.258779e-02 6.935508e-02 5.846421e-01 5.920815e-01 5.193276e-01 -5.462276e-01 -2.087560e-01 -1.934712e-01 -3.000821e-01 -4.797582e-02 3.146127e-01 1.409678e-02 3.416883e-01 -5.499993e-01
<VARIANCE> 39
 8.876600e+00 1.350215e+01 1.482096e+01 2.912001e+01 7.033873e+01 2.516566e+01 4.607653e+01 9.655543e+01 4.158200e+01 3.518138e+01 1.734768e+01 2.116351e+01 1.313363e+01 1.649225e-01 1.772317e+00 1.965279e+00 1.437262e+00 2.569560e+00 2.167310e+00 1.889464e+00 2.855697e+00 9.990185e-01 1.922708e+00 8.326820e-01 2.953142e+00 1.179817e+00 5.294553e-02 1.259324e-01 1.609139e-01 1.571166e-01 2.416058e-01 3.557714e-01 3.548366e-01 9.608376e-01 2.237715e-01 3.191921e-01 1.979020e-01 3.285310e-01 9.971432e-02
<GCONST> 9.921260e+01
<STATE> 4
<MEAN> 39
 -2.440444e+00 -5.621013e-01 1.558869e+00 -2.020800e+00 -6.349245e-01 -7.917402e+00 -8.118015e+00 -8.636239e+00 7.099297e+00 -1.128927e+01 -7.086785e+00 -2.698833e+00 6.907178e+01 3.091460e-01 1.538496e+00 1.781173e+00 1.577062e+00 -1.289822e+00 -9.532524e-02 -3.803402e-01 -2.023303e+00 -2.097944e-01 5.694970e-01 6.021813e-02 2.244512e-01 -1.492651e+00 -1.088867e-01 -5.159415e-01 -6.373334e-01 -5.025335e-01 5.560914e-01 2.355119e-01 1.501345e-01 6.504414e-01 -8.263420e-02 -1.103989e-01 -3.988074e-02 -2.543546e-01 4.575234e-01
<VARIANCE> 39
 9.279698e+00 1.717512e+01 5.029085e+01 3.874563e+01 5.057535e+01 3.418922e+01 3.819479e+01 1.082712e+02 8.313192e+01 1.201801e+02 1.966393e+01 1.805326e+01 1.903126e+01 2.924519e-01 1.743674e+00 1.964954e+00 1.882842e+00 1.118668e+00 1.576161e+00 2.393133e+00 4.259848e+00 1.803865e+00 3.015406e+00 1.761147e+00 1.069402e+00 1.316403e+00 3.538393e-02 3.242817e-01 5.481886e-01 4.367590e-01 2.780530e-01 3.178737e-01 4.658360e-01 1.220439e+00 3.845839e-01 6.636739e-01 3.084756e-01 2.704629e-01 2.789471e-01
<GCONST> 1.102451e+02
<STATE> 5
<MEAN> 39
 -1.931990e+00 -1.753290e+00 -4.649967e-02 -3.833773e+00 2.118762e+00 -7.755850e+00 -8.043095e+00 -5.971162e+00 5.754425e+00 -6.923574e+00 -8.213560e+00 -4.251060e+00 7.001075e+01 -2.352141e-01 -2.274146e+00 -2.985081e+00 -2.366290e+00 2.594666e+00 9.445684e-01 1.407198e-01 3.260515e+00 -1.688307e-01 -7.119991e-01 1.027924e-01 -1.085742e+00 1.957280e+00 -5.021074e-02 -4.853981e-01 -3.092109e-01 -3.717159e-01 4.608986e-01 3.282790e-01 2.814316e-01 6.354614e-02 7.405871e-03 -4.004735e-01 1.791658e-01 -2.486744e-01 2.747384e-01
<VARIANCE> 39
 1.154284e+01 1.964559e+01 5.050959e+01 4.213991e+01 7.351930e+01 2.655325e+01 4.143074e+01 1.071495e+02 6.273466e+01 6.976822e+01 1.501974e+01 1.536577e+01 3.384496e+01 2.625634e-01 1.782056e+00 1.495249e+00 1.191069e+00 1.676023e+00 1.715903e+00 2.292331e+00 1.759501e+00 3.476362e+00 4.726329e+00 1.843082e+00 2.120066e+00 7.840446e-01 4.425441e-02 4.840961e-01 9.476878e-01 7.252148e-01 4.431986e-01 2.671551e-01 3.494960e-01 1.852564e+00 4.646100e-01 5.983847e-01 2.697650e-01 3.363786e-01 4.967285e-01
<GCONST> 1.131078e+02
<STATE> 6
<MEAN> 39
 -2.564700e+00 -1.009002e+01 -8.450791e+00 -1.001425e+01 1.195054e+01 -2.373258e+00 -5.662051e+00 1.503368e-01 4.181762e+00 -1.103242e+01 -5.968395e+00 -9.111728e+00 7.573936e+01 1.094596e-01 -1.120013e+00 -4.660156e-01 -8.410260e-01 1.475235e+00 1.264179e+00 1.005529e+00 -1.759979e+00 -7.572161e-02 3.631108e-01 6.307026e-01 -7.373945e-01 4.983625e-03 1.197367e-01 6.059408e-01 5.244626e-01 3.540400e-01 -5.488343e-01 -8.452914e-02 2.307913e-03 -7.464684e-01 6.511300e-02 4.841729e-01 7.130739e-02 3.430714e-01 -5.668834e-01
<VARIANCE> 39
 6.862731e+00 1.259169e+01 1.491701e+01 1.629349e+01 6.267254e+01 1.927038e+01 4.884008e+01 5.988823e+01 7.294005e+01 2.377191e+01 2.022164e+01 2.693813e+01 1.867875e+01 2.910843e-01 9.372568e-01 6.880271e-01 9.065369e-01 1.650982e+00 9.001111e-01 1.150556e+00 3.180555e+00 1.577072e+00 2.243365e+00 4.641591e-01 1.378276e+00 5.356968e-01 4.276187e-02 1.314568e-01 1.819014e-01 1.534130e-01 1.325997e-01 1.594707e-01 1.941582e-01 1.138437e+00 3.737839e-01 4.088825e-01 1.666941e-01 2.832527e-01 1.066291e-01
<GCONST> 9.221243e+01
<STATE> 7
<MEAN> 39
 -2.467603e+00 -9.282562e+00 -8.593893e+00 -1.262678e+01 1.469271e+01 2.710667e+00 -1.721361e+00 -7.088573e+00 3.703029e+00 -6.301453e+00 -3.058602e+00 -9.340713e+00 7.063923e+01 -8.143923e-02 6.124178e-01 -2.665440e-01 2.558799e-01 5.214800e-02 7.218344e-01 1.395466e-01 6.012285e-02 -3.064418e-01 7.012125e-01 2.602792e-01 1.396377e-01 -1.194262e+00 -1.229719e-01 1.649456e-01 2.702947e-02 2.324445e-01 -1.600758e-01 -5.325418e-02 -7.109392e-02 2.594784e-01 -2.493462e-02 3.513256e-03 -1.194937e-01 5.122501e-02 -1.965245e-01
<VARIANCE> 39
 1.517728e+01 1.532178e+01 1.355055e+01 2.676242e+01 3.050580e+01 2.971912e+01 5.307843e+01 5.461615e+01 4.962851e+01 1.813409e+01 1.753687e+01 1.153080e+01 2.205949e+01 3.527240e-01 5.566717e-01 5.396198e-01 8.207086e-01 7.998652e-01 6.576933e-01 9.118119e-01 1.110676e+00 1.226981e+00 1.042949e+00 6.549293e-01 6.665684e-01 4.302388e-01 5.935417e-02 1.035142e-01 1.139707e-01 1.137429e-01 1.628476e-01 1.328807e-01 1.759428e-01 2.613710e-01 2.151490e-01 2.002737e-01 9.598517e-02 1.318029e-01 5.453929e-02
<GCONST> 8.173542e+01
<STATE> 8
<MEAN> 39
 -6.075199e+00 -3.264643e+00 -7.905600e+00 -3.565402e+00 9.821209e+00 6.456037e+00 -3.138684e-01 -1.890114e+00 3.006736e-01 -7.959076e-01 -3.145573e+00 -6.336019e+00 5.864015e+01 -9.840889e-01 6.583195e-01 7.944341e-01 1.483700e+00 -1.115584e+00 1.490081e-02 5.848348e-01 5.422521e-01 -1.366954e-01 6.448690e-01 5.510474e-01 9.282765e-01 -1.727354e+00 3.797660e-02 -1.216171e-01 5.056405e-02 -6.469574e-02 -5.627568e-03 -1.441039e-01 -5.627897e-03 -7.428829e-02 3.009129e-02 -9.945577e-02 1.789093e-01 1.226597e-01 1.872359e-01
<VARIANCE> 39
 1.273307e+01 1.925772e+01 2.308291e+01 3.455225e+01 2.349100e+01 2.547140e+01 3.056516e+01 3.351647e+01 2.650846e+01 2.089937e+01 1.264671e+01 1.509827e+01 3.430180e+01 7.045681e-01 6.799012e-01 9.709329e-01 1.360368e+00 2.087127e+00 2.141531e+00 1.813577e+00 2.291902e+00 1.363834e+00 1.744279e+00 1.586200e+00 1.359419e+00 1.260571e+00 1.225237e-01 8.382383e-02 1.672781e-01 2.972932e-01 3.589639e-01 3.138097e-01 2.856302e-01 2.845673e-01 2.705954e-01 3.575031e-01 1.830755e-01 2.181445e-01 1.384665e-01
<GCONST> 9.681591e+01
<TRANSP> 9
 0.000000e+00 1.000000e+00 0.000000e+00 0.000000e+00 0.000000e+00 0.000000e+00 0.000000e+00 0.000000e+00 0.000000e+00
 0.000000e+00 8.208711e-01 1.791290e-01 0.000000e+00 0.000000e+00 0.000000e+00 0.000000e+00 0.000000e+00 0.000000e+00
 0.000000e+00 0.000000e+00 8.674839e-01 1.325161e-01 0.000000e+00 0.000000e+00 0.000000e+00 0.000000e+00 0.000000e+00
 0.000000e+00 0.000000e+00 0.000000e+00 7.947889e-01 2.052111e-01 0.000000e+00 0.000000e+00 0.000000e+00 0.000000e+00
 0.000000e+00 0.000000e+00 0.000000e+00 0.000000e+00 7.367712e-01 2.632288e-01 0.000000e+00 0.000000e+00 0.000000e+00
 0.000000e+00 0.000000e+00 0.000000e+00 0.000000e+00 0.000000e+00 7.246377e-01 2.753623e-01 0.000000e+00 0.000000e+00
 0.000000e+00 0.000000e+00 0.000000e+00 0.000000e+00 0.000000e+00 0.000000e+00 8.773535e-01 1.226465e-01 0.000000e+00
 0.000000e+00 0.000000e+00 0.000000e+00 0.000000e+00 0.000000e+00 0.000000e+00 0.000000e+00 8.440922e-01 1.559078e-01
 0.000000e+00 0.000000e+00 0.000000e+00 0.000000e+00 0.000000e+00 0.000000e+00 0.000000e+00 0.000000e+00 0.000000e+00
<ENDHMM>
