~o
<STREAMINFO> 1 39
<VECSIZE> 39<NULLD><MFCC_D_A_0><DIAGC>
~h "sil"
<BEGINHMM>
<NUMSTATES> 5
<STATE> 2
<MEAN> 39
 -9.892969e+00 -9.391755e-01 -2.747018e+00 2.635944e+00 2.494510e+00 2.728718e+00 3.097713e-01 -1.904007e+00 -8.548002e-01 -5.282463e-01 2.260033e+00 1.939338e+00 5.096507e+01 -1.129096e-01 -3.506050e-02 -7.134517e-02 2.255343e-01 1.732045e-01 1.739140e-01 2.040774e-01 1.629957e-01 5.837030e-02 2.495793e-02 1.459810e-02 9.218094e-02 -1.895881e-01 2.502551e-02 7.149392e-03 3.963361e-02 -6.498647e-02 -3.678782e-02 -3.243463e-02 -2.950535e-02 -2.266188e-02 2.426655e-03 -8.333114e-03 -2.735725e-02 -2.407215e-02 7.025352e-02
<VARIANCE> 39
 5.166715e+00 1.241642e+01 9.852104e+00 2.538192e+01 1.795729e+01 1.964332e+01 1.462938e+01 2.354691e+01 2.165384e+01 1.719672e+01 1.542464e+01 1.370018e+01 2.259381e+01 3.278423e-01 3.504210e-01 7.000697e-01 1.013848e+00 1.154046e+00 1.246264e+00 1.394952e+00 1.602674e+00 1.408969e+00 1.412974e+00 1.404734e+00 1.276242e+00 2.799008e-01 5.137360e-02 6.265631e-02 1.236755e-01 1.652152e-01 1.972777e-01 2.229467e-01 2.442936e-01 3.007309e-01 2.597447e-01 2.725040e-01 2.654030e-01 2.441860e-01 4.924435e-02
<GCONST> 8.235953e+01
<STATE> 3
<MEAN> 39
 -1.128036e+01 1.110831e+00 -1.375605e+00 1.917296e+00 1.700605e+00 2.380383e+00 1.857088e+00 1.216337e+00 1.446815e+00 8.558886e-01 1.490545e+00 1.304706e+00 4.936819e+01 -7.428271e-03 -9.050335e-03 -3.450171e-03 2.200619e-03 -7.268024e-04 4.229363e-03 -9.767939e-04 -8.190849e-04 -1.226106e-03 3.983505e-03 7.767865e-03 5.489040e-03 -5.911380e-03 1.471894e-03 1.571967e-03 3.299228e-03 -5.647276e-03 -2.348356e-03 -4.817065e-03 -9.348736e-03 -8.222068e-03 -6.167072e-03 -2.221331e-03 7.238690e-05 -3.816386e-03 7.027681e-03
<VARIANCE> 39
 8.316001e+00 5.378039e+00 4.408487e+00 9.608947e+00 9.807348e+00 1.006654e+01 9.688305e+00 1.450791e+01 1.364573e+01 1.281513e+01 1.107939e+01 9.212483e+00 4.683316e+01 7.692811e-02 1.765461e-01 3.051038e-01 4.604316e-01 6.016217e-01 8.077488e-01 8.533607e-01 1.011630e+00 1.065108e+00 1.007998e+00 9.824829e-01 9.004367e-01 2.637550e-02 1.641891e-02 3.762173e-02 6.417438e-02 9.574704e-02 1.249202e-01 1.672001e-01 1.755672e-01 2.086471e-01 2.198871e-01 2.074694e-01 2.023059e-01 1.873089e-01 5.741718e-03
<GCONST> 6.040344e+01
<STATE> 4
<MEAN> 39
 -1.056303e+01 1.157551e+00 -3.654678e-01 1.836223e+00 1.719189e+00 1.827472e+00 4.528685e-02 -5.887830e-01 3.068472e-01 -7.319474e-01 1.105608e+00 9.132811e-01 5.195006e+01 1.160790e-01 2.628616e-01 4.511726e-01 -4.859167e-01 -3.811827e-01 -4.294300e-01 -7.251354e-01 -4.601263e-01 -1.089658e-01 -5.975164e-01 -1.443221e-01 -2.772546e-01 1.195949e+00 3.323706e-02 2.930322e-02 6.990197e-02 -1.483250e-01 -1.588639e-01 -1.131648e-01 -1.442399e-01 -1.126123e-01 -6.799873e-03 -9.673574e-02 1.104561e-02 -3.487913e-02 3.111727e-01
<VARIANCE> 39
 1.910782e+01 1.932650e+01 2.565367e+01 2.556389e+01 1.827341e+01 2.039854e+01 2.103355e+01 2.407100e+01 2.452011e+01 2.732616e+01 1.617633e+01 1.277139e+01 4.970153e+01 2.134332e+00 1.945047e+00 3.829662e+00 2.724654e+00 2.503502e+00 2.270395e+00 2.867539e+00 2.639008e+00 2.622509e+00 2.537302e+00 1.907017e+00 1.617322e+00 2.451345e+00 2.606152e-01 2.911330e-01 5.281766e-01 3.519853e-01 3.647190e-01 3.627450e-01 4.258989e-01 4.119726e-01 4.218963e-01 3.836639e-01 3.105128e-01 2.555990e-01 2.827849e-01
<GCONST> 1.097731e+02
<TRANSP> 5
 0.000000e+00 1.000000e+00 0.000000e+00 0.000000e+00 0.000000e+00
 0.000000e+00 8.781582e-01 1.218418e-01 0.000000e+00 0.000000e+00
 0.000000e+00 0.000000e+00 9.685213e-01 3.147873e-02 0.000000e+00
 0.000000e+00 0.000000e+00 0.000000e+00 7.319638e-01 2.680362e-01
 0.000000e+00 0.000000e+00 0.000000e+00 0.000000e+00 0.000000e+00
<ENDHMM>
