~o
<STREAMINFO> 1 39
<VECSIZE> 39<NULLD><MFCC_D_A_0><DIAGC>
~h "zero"
<BEGINHMM>
<NUMSTATES> 9
<STATE> 2
<MEAN> 39
 -1.751080e+01 4.834160e+00 -3.146560e+00 3.375316e+00 -5.227206e-01 -2.317907e+00 9.483744e-01 -4.847207e-01 -6.000538e-01 -1.779679e+00 1.201417e+00 8.740940e-01 6.196782e+01 2.979740e-01 6.688426e-01 7.715875e-01 2.337230e-01 -7.399272e-01 -1.553723e+00 -9.073438e-03 -3.890308e-01 -5.283980e-01 -6.904576e-01 -2.566636e-01 2.507912e-01 1.693729e+00 8.374135e-01 -1.820541e-01 4.257731e-01 -1.497087e-01 -3.064909e-01 -3.066997e-01 -2.114245e-01 -1.210400e-01 6.590325e-02 -1.286808e-01 -3.153880e-02 7.056107e-02 -1.242964e-01
<VARIANCE> 39
 2.744480e+01 3.034522e+01 2.690478e+01 2.396787e+01 1.955526e+01 3.704533e+01 2.949713e+01 4.920525e+01 3.581358e+01 3.602303e+01 1.778148e+01 1.552632e+01 5.356400e+01 7.293975e+00 1.592357e+00 2.941296e+00 1.539675e+00 3.412149e+00 3.984042e+00 2.568658e+00 2.215829e+00 2.379446e+00 3.120906e+00 1.358185e+00 1.477815e+00 1.768867e+00 6.799434e-01 3.588249e-01 4.210688e-01 3.699698e-01 6.077967e-01 5.691167e-01 5.492138e-01 5.093139e-01 4.165357e-01 5.706357e-01 2.795640e-01 3.708567e-01 2.483567e-01
<GCONST> 1.163825e+02
<STATE> 3
<MEAN> 39
 -5.874922e+00 2.142909e+00 4.792578e+00 8.752497e-01 -1.221520e+01 -1.315539e+01 -5.419446e+00 -1.657577e+00 -3.481776e+00 -6.177567e+00 2.017361e+00 2.623166e+00 7.092722e+01 2.354553e+00 -1.926275e+00 8.422982e-01 -2.188621e+00 -2.439085e+00 -1.224957e+00 -1.056993e+00 3.699355e-01 7.688555e-01 -3.142349e-01 9.469000e-01 -8.248758e-01 1.649055e+00 -8.077097e-01 -2.253465e-01 -6.220692e-01 -2.223530e-01 7.110900e-01 8.356513e-01 5.110185e-01 4.008759e-01 4.145246e-01 3.360257e-01 6.311577e-02 -4.096382e-01 -2.580206e-01
<VARIANCE> 39
 2.049502e+01 1.750729e+01 1.163960e+01 6.026036e+01 6.519941e+01 2.412637e+01 4.531770e+01 3.082743e+01 5.191005e+01 4.299706e+01 2.259250e+01 3.005884e+01 1.294418e+01 3.086475e+00 1.116420e+00 1.536175e+00 1.025679e+00 4.009981e+00 2.710660e+00 2.858337e+00 2.365164e+00 1.627702e+00 2.131305e+00 2.496732e+00 2.758699e+00 5.048755e-01 2.404617e-01 4.343084e-01 1.721584e-01 3.700854e-01 5.481694e-01 2.565547e-01 2.214842e-01 3.259566e-01 2.694251e-01 3.589218e-01 3.484567e-01 3.334025e-01 1.094596e-01
<GCONST> 1.076836e+02
<STATE> 4
<MEAN> 39
 -5.202442e+00 -3.787998e+00 3.652841e+00 -5.142093e+00 -1.232419e+01 -1.200264e+01 -4.159526e+00 3.036668e+00 1.346668e+00 -7.531058e+00 4.299044e+00 -3.809538e+00 7.535301e+01 1.579763e-01 -5.980747e-01 -2.366725e-01 1.964795e-01 1.125543e-01 3.134959e-01 -4.220859e-01 4.928640e-01 4.388357e-01 -3.408500e-01 -3.760787e-01 -1.597651e-01 -1.145043e-01 9.606147e-03 1.338852e-01 -1.490488e-02 5.243182e-01 1.237013e-01 4.808629e-02 -2.238767e-01 -2.026976e-01 -5.064456e-02 1.159276e-02 -1.711986e-01 3.372919e-01 -3.026704e-01
<VARIANCE> 39
 1.438726e+01 1.302985e+01 1.150030e+01 3.694510e+01 5.307868e+01 2.167736e+01 5.579601e+01 5.136786e+01 4.389022e+01 3.762796e+01 4.073350e+01 2.069843e+01 8.077518e+00 4.652191e-01 4.619322e-01 6.786655e-01 2.052290e+00 6.599786e-01 8.730299e-01 1.470366e+00 1.064554e+00 9.381078e-01 8.121342e-01 1.394494e+00 2.214230e+00 7.298259e-01 9.208521e-02 1.042037e-01 1.166695e-01 1.869199e-01 1.854347e-01 1.338011e-01 1.601974e-01 2.564677e-01 1.939046e-01 2.211483e-01 2.241452e-01 2.209828e-01 7.837268e-02
<GCONST> 8.937680e+01
<STATE> 5
<MEAN> 39
 -4.711880e-01 -7.007131e+00 1.715676e-01 2.183455e+00 -1.021656e+01 -8.680614e+00 -1.161289e+01 2.758344e-01 5.849565e+00 -5.859811e+00 -2.431285e+00 4.895889e-01 6.970270e+01 9.171727e-01 -1.070529e-01 -1.787557e+00 3.364200e-01 9.176973e-01 1.663499e+00 -1.223874e+00 -1.521820e+00 7.911227e-01 1.389582e+00 -1.782295e-01 -3.138103e-01 -2.657535e-01 -5.495615e-02 2.788047e-01 -2.852801e-01 -1.119427e+00 2.456617e-02 5.287999e-01 3.262823e-01 -2.782857e-01 -2.385542e-01 4.062491e-01 5.198103e-01 -4.750242e-01 3.302540e-01
<VARIANCE> 39
 1.984135e+01 1.394558e+01 3.699752e+01 7.525349e+01 3.689790e+01 3.178529e+01 4.451740e+01 2.111741e+01 4.149562e+01 3.985346e+01 2.468577e+01 3.405544e+01 1.395920e+01 4.837776e-01 1.195351e+00 2.252577e+00 7.986176e+00 3.331520e+00 4.305152e+00 2.256506e+00 2.130795e+00 4.504725e+00 2.729033e+00 4.065400e+00 5.026401e+00 2.410215e+00 1.268996e-01 2.896040e-01 4.969953e-01 7.615466e-01 6.226630e-01 6.227970e-01 5.352712e-01 2.358646e-01 1.006849e+00 3.941556e-01 5.270085e-01 7.290435e-01 3.930444e-01
<GCONST> 1.188013e+02
<STATE> 6
<MEAN> 39
 1.351417e+00 -3.286186e+00 -7.924108e+00 -8.187405e+00 -6.282659e+00 4.192194e+00 -1.094195e+01 -8.074637e+00 3.424500e+00 2.450651e+00 3.172681e+00 -4.967338e+00 7.135750e+01 -2.310645e-01 1.878469e+00 -4.503911e-01 -3.816447e+00 7.413028e-01 2.441240e+00 1.465784e+00 -1.183200e+00 -1.994659e+00 3.171819e-01 1.237731e+00 6.914132e-01 -5.521598e-01 -1.581888e-01 1.290401e-01 5.837252e-01 2.167802e-01 -1.103291e-01 -6.183524e-01 4.053312e-01 6.687880e-01 -1.817057e-01 -9.257340e-01 -4.047205e-01 7.528996e-01 -3.381280e-01
<VARIANCE> 39
 1.304663e+01 2.066881e+01 2.334043e+01 1.064402e+02 2.813704e+01 5.062846e+01 3.594543e+01 1.690257e+01 5.530150e+01 2.039332e+01 2.266976e+01 3.697497e+01 1.497574e+01 2.542731e-01 3.008768e-01 9.290948e-01 3.317800e+00 1.453668e+00 3.267210e+00 4.011054e+00 1.578020e+00 1.959993e+00 2.904924e+00 2.071737e+00 3.113874e+00 4.312097e-01 9.786099e-02 1.988601e-01 1.505798e-01 5.845635e-01 3.323947e-01 4.432781e-01 9.007099e-01 1.974188e-01 8.699013e-01 4.177710e-01 5.460477e-01 3.547715e-01 7.379548e-02
<GCONST> 1.046785e+02
<STATE> 7
<MEAN> 39
 4.535208e-01 3.266273e+00 -6.111406e+00 -1.897856e+01 -5.691513e+00 7.361638e+00 -4.807503e+00 -4.571479e+00 -3.030618e+00 -2.405009e+00 2.192649e+00 1.484243e+00 6.658760e+01 -2.813972e-01 6.678667e-01 3.458376e-01 -6.376045e-01 -2.649607e-01 -4.235068e-01 9.838240e-01 1.104643e+00 -2.553560e-01 -3.070180e-01 -2.879258e-01 6.877645e-01 -1.152536e+00 -1.404202e-01 -2.214563e-01 -4.656612e-02 6.528613e-01 2.877244e-02 -3.671703e-01 -1.414085e-01 1.227141e-01 3.316882e-01 3.575996e-01 4.971975e-02 -2.088601e-01 -8.412683e-02
<VARIANCE> 39
 1.251824e+01 1.264493e+01 1.277736e+01 6.628255e+01 3.526081e+01 7.084016e+01 1.234073e+01 2.769747e+01 3.378858e+01 6.321580e+01 1.880037e+01 3.173125e+01 2.257361e+01 7.485651e-01 5.005012e-01 9.402965e-01 1.950884e+00 7.360448e-01 1.933000e+00 1.610243e+00 1.104275e+00 1.516720e+00 3.558118e+00 2.398010e+00 8.648283e-01 4.578188e-01 1.158975e-01 9.486122e-02 2.250514e-01 2.230378e-01 2.184205e-01 3.336812e-01 2.937119e-01 2.544776e-01 1.369015e-01 5.085320e-01 4.967127e-01 1.686575e-01 4.109275e-02
<GCONST> 9.545130e+01
<STATE> 8
<MEAN> 39
 -4.152771e+00 4.070609e+00 -4.668826e+00 -1.245508e+01 -3.656942e+00 3.945394e-01 -7.261837e-01 5.497793e-02 -9.185641e-02 2.976332e-02 3.398812e+00 3.385391e+00 5.840369e+01 -1.167137e+00 -5.120530e-01 2.011685e-01 2.335355e+00 9.418387e-01 -4.394557e-01 4.177766e-01 4.250215e-01 5.678884e-01 3.071172e-01 2.104103e-01 1.333480e-02 -1.489570e+00 -5.536065e-03 -1.054290e-01 1.661767e-02 8.514265e-02 9.048115e-02 2.409917e-01 -4.871831e-02 -1.481767e-01 -9.078037e-02 -9.348062e-02 -1.152498e-01 -3.857052e-02 8.826375e-02
<VARIANCE> 39
 1.500101e+01 9.616179e+00 1.246644e+01 1.334303e+02 3.107602e+01 4.238870e+01 1.208577e+01 1.889034e+01 2.178831e+01 2.372745e+01 1.834929e+01 1.480313e+01 2.676271e+01 8.729295e-01 5.399510e-01 1.025650e+00 2.477114e+00 1.810509e+00 2.675207e+00 1.092449e+00 1.998372e+00 1.492175e+00 2.070353e+00 1.685520e+00 1.354630e+00 8.637726e-01 9.284144e-02 6.185408e-02 1.516593e-01 3.976555e-01 2.749572e-01 2.364671e-01 1.986524e-01 3.402544e-01 2.283955e-01 3.105808e-01 2.951793e-01 2.209664e-01 1.124042e-01
<GCONST> 9.520756e+01
<TRANSP> 9
 0.000000e+00 1.000000e+00 0.000000e+00 0.000000e+00 0.000000e+00 0.000000e+00 0.000000e+00 0.000000e+00 0.000000e+00
 0.000000e+00 8.304577e-01 1.695424e-01 0.000000e+00 0.000000e+00 0.000000e+00 0.000000e+00 0.000000e+00 0.000000e+00
 0.000000e+00 0.000000e+00 7.207788e-01 2.792212e-01 0.000000e+00 0.000000e+00 0.000000e+00 0.000000e+00 0.000000e+00
 0.000000e+00 0.000000e+00 0.000000e+00 8.712839e-01 1.287161e-01 0.000000e+00 0.000000e+00 0.000000e+00 0.000000e+00
 0.000000e+00 0.000000e+00 0.000000e+00 0.000000e+00 8.068851e-01 1.931150e-01 0.000000e+00 0.000000e+00 0.000000e+00
 0.000000e+00 0.000000e+00 0.000000e+00 0.000000e+00 0.000000e+00 7.308256e-01 2.691744e-01 0.000000e+00 0.000000e+00
 0.000000e+00 0.000000e+00 0.000000e+00 0.000000e+00 0.000000e+00 0.000000e+00 8.389218e-01 1.610782e-01 0.000000e+00
 0.000000e+00 0.000000e+00 0.000000e+00 0.000000e+00 0.000000e+00 0.000000e+00 0.000000e+00 8.230086e-01 1.769915e-01
 0.000000e+00 0.000000e+00 0.000000e+00 0.000000e+00 0.000000e+00 0.000000e+00 0.000000e+00 0.000000e+00 0.000000e+00
<ENDHMM>
