~o
<STREAMINFO> 1 39
<VECSIZE> 39<NULLD><MFCC_D_A_0><DIAGC>
~h "ni"
<BEGINHMM>
<NUMSTATES> 5
<STATE> 2
<NUMMIXES> 2
<MIXTURE> 1 3.804146e-01
<MEAN> 39
 -6.777539e+00 9.023844e+00 1.211387e+01 -1.298341e+01 -3.022799e+00 7.750534e-01 -9.392760e+00 -1.018690e+01 -1.533342e+00 -2.407376e+00 -1.660493e-01 -4.123504e+00 6.801639e+01 -1.051899e+00 -3.657185e-01 1.593325e+00 -3.347598e+00 -6.015088e-03 1.610461e+00 -1.887733e+00 1.813185e-01 -6.915256e-02 -4.781277e-01 4.216943e-01 -9.580516e-01 1.692844e+00 2.288762e-01 -2.822197e-01 -2.620029e-01 7.889155e-01 -2.169444e-01 9.337372e-03 2.919356e-01 2.105691e-01 -3.349921e-02 -7.311387e-02 8.482994e-02 9.142234e-03 -4.090050e-01
<VARIANCE> 39
 1.267405e+01 1.782724e+01 3.110088e+01 5.902865e+01 4.442380e+01 3.073955e+01 3.401812e+01 4.269207e+01 4.546003e+01 5.987319e+01 1.342355e+01 2.535193e+01 2.113851e+01 8.578120e-01 6.218117e-01 5.503806e-01 3.623319e+00 1.711196e+00 1.619401e+00 5.665317e-01 1.719280e+00 2.122999e+00 6.311958e-01 1.017877e+00 2.113855e+00 4.703310e-01 9.230357e-02 1.310168e-01 1.569461e-01 5.048442e-01 2.760171e-01 2.959420e-01 2.606149e-01 4.645920e-01 3.790361e-01 1.212783e-01 2.754971e-01 3.442965e-01 3.692608e-02
<GCONST> 9.696160e+01
<MIXTURE> 2 6.195854e-01
<MEAN> 39
 -1.328331e+00 8.462831e+00 5.893113e+00 2.637415e+00 -4.843047e+00 -2.389286e+00 -2.952164e+00 -1.069891e+01 -3.397671e+00 -1.955781e+00 1.104875e-01 -2.451477e+00 5.792122e+01 4.045836e-01 6.962887e-01 1.087063e+00 -1.592065e+00 -9.088086e-01 -4.658483e-01 -1.039072e+00 -1.185628e+00 -1.394539e-01 9.399089e-02 -1.141759e-01 -3.735444e-01 2.012223e+00 -5.559883e-01 -2.440442e-01 1.380493e-02 -6.669138e-01 2.684944e-01 3.606132e-01 -1.326385e-01 3.946693e-01 1.545464e-01 3.915677e-02 2.360800e-02 3.762790e-03 3.036786e-02
<VARIANCE> 39
 1.374861e+01 7.131801e+00 2.343826e+01 2.132899e+01 5.194475e+01 2.528212e+01 1.990992e+01 5.664999e+01 9.847700e+01 5.381456e+01 2.702636e+01 2.954475e+01 2.652183e+01 2.658485e+00 1.139008e+00 1.722739e+00 4.287971e+00 2.587627e+00 1.794126e+00 2.961910e+00 4.753135e+00 3.682331e+00 1.798217e+00 2.747780e+00 1.821305e+00 6.587441e-01 1.576279e-01 1.912507e-01 2.370928e-01 5.255499e-01 3.483053e-01 4.299994e-01 4.440840e-01 7.143009e-01 6.152596e-01 3.830402e-01 4.898070e-01 4.050024e-01 1.039210e-01
<GCONST> 1.116342e+02
<STATE> 3
<NUMMIXES> 2
<MIXTURE> 1 5.845973e-01
<MEAN> 39
 -8.464483e+00 9.467245e+00 9.855644e+00 -1.228449e+01 -1.544768e-01 2.540176e+00 -1.423524e+01 -6.126293e+00 -2.789841e+00 -7.834269e+00 -3.336057e+00 -7.160704e+00 6.969365e+01 1.658005e-02 -1.083927e-01 -1.895244e-01 3.970728e-02 1.670687e-02 -5.069822e-02 6.296094e-02 3.432610e-01 4.270954e-02 -2.567219e-01 -6.438328e-02 2.508351e-01 -5.272416e-01 -4.417414e-04 -7.310294e-02 -1.207729e-01 3.473950e-01 3.989498e-02 -5.008716e-02 2.393585e-01 4.685977e-02 -2.545226e-02 1.005836e-01 2.434826e-02 1.397213e-01 -2.306100e-01
<VARIANCE> 39
 4.780481e+00 9.278216e+00 1.391541e+01 9.786086e+00 1.270830e+01 5.242521e+01 1.187586e+01 1.200745e+01 1.145681e+01 8.286705e+01 2.024075e+01 2.611436e+01 1.642585e+01 2.929084e-01 3.779769e-01 5.844153e-01 1.236954e+00 4.720181e-01 1.155250e+00 1.025278e+00 1.149770e+00 7.465321e-01 1.956289e+00 1.043455e+00 1.065470e+00 8.090328e-01 6.211921e-02 1.002281e-01 1.621153e-01 1.280133e-01 8.709363e-02 1.804633e-01 1.701264e-01 2.271330e-01 1.475987e-01 2.847565e-01 1.670528e-01 1.807048e-01 4.481054e-02
<GCONST> 7.893994e+01
<MIXTURE> 2 4.154027e-01
<MEAN> 39
 -9.174450e+00 5.182431e+00 1.917918e+01 -2.233522e+01 -6.410995e+00 -1.355971e+00 -1.379801e+01 -1.114082e+01 8.898988e-01 -5.959888e+00 7.271783e+00 -3.538374e+00 6.848245e+01 -3.214614e-02 -1.374609e-01 9.672025e-02 -1.307771e-01 -2.249895e-01 -2.881998e-01 -7.781492e-02 -9.282893e-02 -1.629076e-01 7.245670e-02 1.991575e-01 -2.000769e-01 -1.946793e-01 1.715216e-02 3.929226e-02 -1.245768e-01 4.307986e-02 9.744197e-02 -1.163363e-01 5.366063e-02 -5.075354e-03 1.414102e-02 5.900458e-02 -7.880949e-02 2.649766e-04 -1.353048e-01
<VARIANCE> 39
 2.176270e+01 1.023915e+01 4.197465e+00 8.782433e+00 7.048696e+01 4.050596e+01 3.320934e+01 4.973681e+01 7.107278e+01 2.449306e+01 2.446842e+01 1.072555e+01 1.310934e+01 9.432252e-02 5.423024e-01 3.962836e-01 2.545657e-01 3.627206e-01 6.958052e-01 1.073908e+00 5.749735e-01 4.562663e-01 4.425291e-01 5.743549e-01 4.943299e-01 2.693177e-01 1.918633e-02 8.252680e-02 6.122394e-02 7.145659e-02 5.848329e-02 1.260316e-01 1.513194e-01 1.443284e-01 9.173495e-02 9.244589e-02 1.215739e-01 1.135021e-01 2.084097e-02
<GCONST> 6.682784e+01
<STATE> 4
<NUMMIXES> 2
<MIXTURE> 1 6.931733e-01
<MEAN> 39
 -9.895926e+00 4.676936e+00 5.285785e+00 -4.674505e+00 3.457152e-01 1.573717e+00 -7.178557e+00 -2.244314e+00 -2.969547e+00 -3.918023e+00 7.363278e-01 -2.393063e+00 5.540695e+01 -1.620104e-01 -8.371986e-01 -1.566353e+00 2.326738e+00 7.519293e-01 3.956475e-01 1.786718e+00 8.156450e-01 4.000384e-01 5.866984e-01 3.589846e-01 8.370137e-01 -1.532154e+00 3.560363e-02 5.199372e-02 7.479885e-02 -2.589439e-01 -8.989071e-02 4.583867e-02 -5.543066e-02 -1.553817e-01 1.396939e-01 -9.823111e-03 1.268174e-02 -5.181771e-02 3.228349e-01
<VARIANCE> 39
 3.244741e+00 8.811434e+00 1.337961e+01 3.606585e+01 2.052451e+01 1.569689e+01 2.348542e+01 2.528089e+01 1.642121e+01 3.126917e+01 3.955529e+01 1.195124e+01 4.087959e+01 3.737010e-01 6.858353e-01 2.385548e+00 1.737028e+00 1.343341e+00 2.535570e+00 1.735610e+00 1.894484e+00 2.693025e+00 2.328320e+00 1.739627e+00 1.814844e+00 7.935929e-01 5.097603e-02 9.537170e-02 3.341228e-01 2.928481e-01 1.858510e-01 3.711114e-01 2.705654e-01 3.455848e-01 3.718742e-01 3.721130e-01 3.507284e-01 2.731741e-01 6.446568e-02
<GCONST> 9.495232e+01
<MIXTURE> 2 3.068267e-01
<MEAN> 39
 -7.590704e+00 2.447374e+00 1.687398e+01 -2.347212e+01 -1.260614e+01 -4.719079e-01 -1.451615e+01 -1.284962e+01 -5.819876e+00 1.720597e+00 6.525023e+00 -7.068221e+00 5.957030e+01 -8.023614e-01 -6.254569e-02 -1.229943e+00 1.170304e+00 8.734253e-01 -8.616076e-02 -7.676948e-02 1.372379e+00 -5.665767e-02 3.768468e-01 2.482425e-01 3.302958e-01 -2.139654e+00 -2.424346e-02 1.208296e-04 -4.149658e-01 6.602532e-01 2.376277e-01 1.899374e-01 4.300392e-01 4.086595e-01 1.339624e-01 -1.325692e-01 -3.837141e-02 2.931512e-01 -3.228909e-01
<VARIANCE> 39
 2.270208e+01 6.371399e+00 7.304097e+00 1.348776e+01 5.656962e+01 6.526322e+01 2.507439e+01 3.656660e+01 7.878691e+01 5.527535e+01 2.256694e+01 1.835977e+01 1.900279e+01 9.666721e-01 3.722439e-01 1.665479e+00 4.406746e+00 2.043510e+00 1.449845e+00 2.067806e+00 1.842232e+00 1.950877e+00 1.234200e+00 2.853676e+00 1.218859e+00 7.064202e-01 1.442741e-01 5.510784e-02 3.385127e-01 4.773942e-01 2.539552e-01 4.836507e-01 2.837316e-01 2.144314e-01 2.424108e-01 2.793320e-01 4.060432e-01 2.297259e-01 5.935722e-02
<GCONST> 9.935692e+01
<TRANSP> 5
 0.000000e+00 1.000000e+00 0.000000e+00 0.000000e+00 0.000000e+00
 0.000000e+00 8.709507e-01 1.290493e-01 0.000000e+00 0.000000e+00
 0.000000e+00 0.000000e+00 9.235601e-01 7.643992e-02 0.000000e+00
 0.000000e+00 0.000000e+00 0.000000e+00 8.617922e-01 1.382078e-01
 0.000000e+00 0.000000e+00 0.000000e+00 0.000000e+00 0.000000e+00
<ENDHMM>
