~o
<STREAMINFO> 1 39
<VECSIZE> 39<NULLD><MFCC_D_A_0><DIAGC>
~h "roku"
<BEGINHMM>
<NUMSTATES> 9
<STATE> 2
<NUMMIXES> 2
<MIXTURE> 1 4.220577e-01
<MEAN> 39
 -9.793997e-01 -3.118632e-01 -2.733032e+00 -4.848062e+00 -4.965163e+00 -1.384903e+00 -1.086784e+01 -9.908742e+00 5.881845e+00 1.790315e+00 3.801115e+00 -6.880172e+00 7.059459e+01 5.987127e-02 1.746506e+00 -1.793463e+00 -4.946688e+00 4.819550e-01 2.172166e+00 3.813901e-01 -2.195812e+00 -8.977585e-01 1.457411e+00 1.467660e+00 -6.759798e-01 1.757533e+00 -1.265652e-01 3.696373e-01 1.712200e-02 2.553281e-01 5.715403e-01 2.222018e-01 5.784239e-01 4.803376e-01 -8.213257e-01 -9.828710e-01 4.336962e-02 8.163049e-01 -7.344992e-01
<VARIANCE> 39
 1.128781e+01 1.899898e+01 2.647800e+01 8.023190e+01 5.070335e+01 2.193875e+01 3.671753e+01 5.421765e+01 3.713523e+01 1.714259e+01 3.482723e+01 4.004481e+01 1.664991e+01 2.408039e+00 7.179294e-01 2.272074e+00 5.502790e+00 3.088254e+00 7.955949e+00 7.799635e+00 4.153865e+00 4.639060e+00 4.170077e+00 2.468021e+00 3.718652e+00 1.129405e+00 2.109597e-01 2.513755e-01 3.165928e-01 8.242893e-01 4.656869e-01 5.217496e-01 8.248310e-01 6.778773e-01 4.846104e-01 1.202070e+00 3.919815e-01 3.478366e-01 7.242329e-02
<GCONST> 1.194453e+02
<MIXTURE> 2 5.779423e-01
<MEAN> 39
 7.055513e-01 -1.566619e+00 4.229770e-01 1.014268e+01 8.155038e-01 -9.599150e+00 -1.506400e+01 -7.460888e+00 3.573894e+00 -1.061744e+01 -6.553978e-01 -1.608839e+00 6.117365e+01 1.068567e+00 -9.118527e-01 -5.337720e-01 -1.009013e+00 -1.182808e+00 -2.597035e-01 -1.461907e+00 -1.510842e+00 1.301937e+00 9.236969e-02 1.150669e+00 -8.752093e-01 2.983927e+00 -6.527203e-01 1.719910e-01 -4.161770e-01 -1.486917e+00 -1.348773e-01 1.167594e+00 9.566881e-01 -1.745293e-01 -4.782828e-02 1.037148e+00 4.788965e-01 -7.853698e-03 -5.469551e-02
<VARIANCE> 39
 7.204485e+00 2.047166e+01 3.546778e+01 7.264953e+01 3.929548e+01 4.905253e+01 4.320109e+01 4.245914e+01 6.681470e+01 3.874592e+01 3.134452e+01 2.736455e+01 2.643597e+01 2.156595e+00 1.476527e+00 1.847571e+00 9.114421e+00 4.445764e+00 8.366397e+00 8.381444e+00 3.121534e+00 4.851073e+00 7.614420e+00 2.884349e+00 1.706223e+00 1.052275e+00 1.779020e-01 5.104156e-01 4.432679e-01 8.176149e-01 6.117656e-01 1.277108e+00 1.088311e+00 5.103620e-01 1.033643e+00 7.319748e-01 3.800295e-01 3.589708e-01 2.036939e-01
<GCONST> 1.254970e+02
<STATE> 3
<NUMMIXES> 2
<MIXTURE> 1 6.932138e-01
<MEAN> 39
 -6.767010e-01 2.869410e+00 -6.811682e+00 -2.128243e+01 -6.272298e+00 5.103406e+00 -6.117518e+00 -1.611485e+01 3.828939e+00 -8.580885e+00 9.740617e+00 1.341797e+00 7.204551e+01 3.881781e-01 1.056210e+00 -2.519999e-02 -1.377351e+00 -4.601784e-01 8.196462e-01 1.309702e+00 8.196696e-01 -1.133237e+00 -1.882218e+00 -3.513525e-01 9.070649e-01 -6.133982e-01 1.426660e-01 -1.146969e-01 2.569365e-01 1.077342e+00 1.840397e-01 -5.168300e-01 -2.355682e-02 4.197852e-01 -2.269590e-01 1.921763e-01 -5.421647e-01 -1.624496e-01 -6.043549e-01
<VARIANCE> 39
 1.645643e+01 1.469928e+01 1.238759e+01 4.596762e+01 5.809677e+01 6.319413e+01 6.412356e+01 2.080595e+01 3.486076e+01 5.393451e+01 2.120823e+01 4.840678e+01 8.467113e+00 5.572327e-01 4.712440e-01 1.032848e+00 4.159997e+00 1.914181e+00 2.674215e+00 3.187104e+00 2.114974e+00 1.988050e+00 3.859937e+00 2.711692e+00 2.632466e+00 8.955007e-01 1.364345e-01 1.036315e-01 2.048926e-01 3.675757e-01 5.469517e-01 4.741499e-01 8.678813e-01 3.341193e-01 2.181073e-01 1.567726e+00 3.868676e-01 6.519195e-01 1.177662e-01
<GCONST> 1.090566e+02
<MIXTURE> 2 3.067863e-01
<MEAN> 39
 -8.979225e-01 7.863983e+00 -7.019938e+00 -1.034032e+01 2.280417e+00 4.033274e+00 -5.602609e+00 -4.914773e+00 -8.036501e+00 1.330470e+00 6.416930e+00 -5.664940e+00 7.037719e+01 -5.870825e-01 4.301887e-01 4.403477e-01 4.566699e-01 1.156309e-01 3.647960e-01 8.434448e-01 5.823657e-01 -2.725192e+00 -1.412932e+00 -1.184006e-02 1.920700e+00 -1.541066e+00 -4.716360e-01 -6.331379e-01 5.594339e-01 1.214229e+00 -1.050984e-01 -4.391129e-01 1.680296e-01 3.228492e-01 8.360606e-01 -2.453873e-01 -5.943192e-01 1.650768e-01 -6.047717e-01
<VARIANCE> 39
 2.512447e+00 4.559260e+00 2.007337e+00 4.791328e+00 2.590835e+01 2.457960e+01 1.111527e+01 4.859736e+01 3.198346e+01 1.659322e+01 1.659796e+01 3.378234e+01 1.909783e+01 5.414405e-01 1.404479e+00 1.150723e+00 4.212877e+00 8.383110e-01 2.622192e+00 2.013345e+00 2.750500e+00 2.778516e+00 1.208160e+00 1.717795e+00 2.461386e+00 2.177597e+00 1.540233e-01 7.931940e-02 1.584125e-01 1.522206e-01 3.196075e-01 4.019093e-01 3.986776e-01 1.419223e+00 7.308012e-01 3.453146e-01 1.552120e-01 9.891312e-01 1.399564e-01
<GCONST> 9.594671e+01
<STATE> 4
<NUMMIXES> 2
<MIXTURE> 1 2.665033e-01
<MEAN> 39
 1.062090e+00 7.359160e+00 -4.939748e+00 -1.597304e+01 -4.020294e+00 5.471972e+00 -3.939067e-01 -8.027944e+00 -4.913176e+00 -1.012046e+01 3.177244e+00 3.018786e+00 6.281888e+01 -7.010382e-01 -3.759943e-02 2.598100e-01 2.926085e+00 2.177439e+00 -1.960358e-01 1.571014e+00 1.543798e+00 -1.237967e+00 1.990940e+00 -1.442684e+00 7.151802e-01 -3.349256e+00 -6.084896e-01 -4.534290e-01 -1.025598e-01 2.000894e-01 7.471109e-02 -2.780894e-01 -3.294137e-01 -3.819363e-01 6.335124e-01 5.396996e-01 3.958937e-01 2.097021e-01 -6.279349e-02
<VARIANCE> 39
 1.463818e+01 6.008446e+00 6.860603e+00 5.056410e+01 4.437416e+01 7.153190e+01 4.173368e+01 1.347598e+01 2.774622e+01 2.895201e+01 1.790783e+01 2.360464e+01 2.394545e+01 9.763328e-01 1.173632e+00 1.135449e+00 6.813489e-01 2.979713e+00 1.782018e+00 4.112786e+00 1.426638e+00 2.441089e+00 2.974070e+00 1.519990e+00 6.516202e+00 1.140065e+00 6.404863e-02 1.110710e-01 1.565715e-01 4.095888e-01 7.914439e-01 3.715799e-01 3.929493e-01 2.129954e-01 7.491931e-01 9.559753e-01 2.345461e-01 7.301865e-01 2.872097e-01
<GCONST> 1.052913e+02
<MIXTURE> 2 7.334967e-01
<MEAN> 39
 -6.578485e+00 3.832000e+00 -3.655329e+00 -3.341999e+00 1.864168e+00 7.437838e-01 3.236240e-01 -5.165032e+00 -4.324855e+00 -2.641991e+00 1.724370e+00 3.201958e+00 5.545160e+01 -1.219132e+00 -7.530647e-01 1.597970e-01 1.315266e+00 1.165801e-01 -6.832739e-01 3.585778e-01 4.727869e-01 1.206959e+00 9.365466e-01 -1.211838e-01 9.959409e-02 -1.203905e+00 1.928858e-01 -5.853574e-02 -2.311251e-01 -4.259384e-01 -1.567206e-01 1.532187e-01 -2.439965e-01 -2.524285e-02 2.395247e-02 -5.497792e-04 1.336154e-01 -2.837485e-01 5.560627e-01
<VARIANCE> 39
 1.639375e+01 9.487820e+00 1.252734e+01 3.991877e+01 2.226723e+01 5.357833e+01 1.937137e+01 1.549001e+01 2.766569e+01 4.689002e+01 2.114734e+01 2.916850e+01 2.534350e+01 9.422141e-01 5.112534e-01 9.354351e-01 1.754983e+00 2.057854e+00 4.334451e+00 1.115035e+00 1.894240e+00 2.202697e+00 3.666364e+00 2.106607e+00 1.823614e+00 8.259611e-01 1.817795e-01 2.118768e-01 2.230674e-01 2.311082e-01 5.694350e-01 7.326513e-01 3.509855e-01 3.558213e-01 5.862527e-01 6.660056e-01 4.079268e-01 4.719714e-01 1.246285e-01
<GCONST> 1.046503e+02
<STATE> 5
<NUMMIXES> 2
<MIXTURE> 1 4.847074e-01
<MEAN> 39
 -8.618252e+00 -4.315084e+00 -1.284487e+01 -3.069949e+00 5.727581e+00 -4.183255e+00 -7.736031e+00 -5.798649e+00 -2.699865e+00 4.589965e+00 -7.839624e-01 -2.610255e+00 6.820139e+01 1.000618e+00 9.291060e-01 6.851907e-01 9.766872e-01 -2.130014e-02 -2.281486e+00 -2.779449e+00 -1.446316e+00 -8.179971e-01 -3.462244e-01 -9.059489e-01 -1.917772e+00 2.953663e+00 3.347863e-01 9.703162e-01 1.420669e+00 4.560561e-01 -9.802834e-01 -2.139645e-02 5.207929e-02 -1.288656e-01 -2.863622e-02 -5.452933e-01 3.550639e-01 8.822436e-02 -8.510169e-01
<VARIANCE> 39
 4.496899e+00 2.431845e+01 2.763217e+01 2.848731e+01 9.794238e+00 6.570334e+01 3.872189e+01 1.260962e+01 4.102090e+01 5.434037e+01 4.210560e+01 1.673150e+01 3.833497e+01 1.230580e+00 6.454771e+00 7.710339e+00 2.722207e+00 4.279902e+00 1.840957e+00 2.389353e+00 2.269700e+00 2.524231e+00 2.978411e+00 4.508310e+00 2.386264e+00 6.070494e+00 1.660794e-01 7.900383e-01 5.663409e-01 3.526437e-01 9.562021e-01 6.414117e-01 4.161967e-01 3.237089e-01 8.170197e-01 4.686823e-01 1.019420e+00 4.474008e-01 4.003249e-01
<GCONST> 1.198832e+02
<MIXTURE> 2 5.152925e-01
<MEAN> 39
 -9.516840e+00 6.382066e-01 -3.760744e+00 -6.368643e-01 1.190915e+00 7.358297e-01 2.900101e-01 -2.323233e+00 -5.052544e-01 7.762737e-01 1.870195e+00 2.080761e+00 5.295287e+01 -3.206206e-01 -1.945234e+00 -2.245483e+00 -4.994354e-01 1.043303e+00 -6.507322e-01 -1.820540e+00 -7.201132e-01 9.049016e-02 9.472538e-01 -4.488285e-01 -8.360128e-01 2.582200e+00 2.019829e-01 -1.582419e-01 -5.408170e-01 -1.869581e-01 3.623591e-01 -5.361558e-01 -6.537796e-01 -5.129628e-01 -1.359821e-01 -1.443166e-02 -3.157414e-01 -1.853764e-01 1.262543e+00
<VARIANCE> 39
 7.643673e+00 5.759601e+00 9.514449e+00 1.190723e+01 1.813189e+01 1.786751e+01 1.197198e+01 1.623854e+01 9.939048e+00 2.310999e+01 2.421817e+01 1.324722e+01 2.957432e+01 1.701469e+00 2.485874e+00 2.655803e+00 1.927381e+00 4.520592e+00 2.719610e+00 3.153827e+00 2.214098e+00 2.617579e+00 2.000146e+00 3.087395e+00 3.965645e+00 3.806727e+00 1.763519e-01 3.453560e-01 3.191311e-01 2.624803e-01 5.672183e-01 2.571178e-01 3.762476e-01 2.585340e-01 4.798670e-01 3.584634e-01 4.487975e-01 4.396866e-01 3.362421e-01
<GCONST> 1.048553e+02
<STATE> 6
<NUMMIXES> 2
<MIXTURE> 1 5.692921e-01
<MEAN> 39
 -3.279890e+00 4.302416e+00 -2.553478e+00 2.826615e+00 -3.952569e+00 -8.348793e+00 -1.723456e+01 -1.124727e+01 -5.980916e+00 -1.026617e+00 1.639284e+00 -8.518537e+00 7.082194e+01 1.072986e+00 3.578136e-01 1.669275e+00 1.902276e-01 -3.219158e+00 -6.789429e-01 -1.984774e+00 -7.672721e-01 4.629841e-01 -1.398442e+00 1.073774e+00 -6.734885e-01 6.782314e-01 -4.189538e-01 -9.274751e-01 -7.265351e-01 -6.226145e-01 2.201332e-01 4.249231e-01 6.130038e-01 5.499806e-01 5.975918e-01 1.407604e-01 8.356789e-02 5.915400e-01 -1.698637e-01
<VARIANCE> 39
 1.147996e+01 1.942531e+01 1.192239e+01 3.275343e+01 3.588643e+01 3.423454e+01 4.406152e+01 2.767608e+01 2.818278e+01 2.303025e+01 1.257917e+01 2.335265e+01 1.877377e+01 7.856545e-01 3.512219e+00 2.769029e+00 1.634647e+00 3.662523e+00 2.504158e+00 8.624555e-01 2.164243e+00 5.050885e+00 2.207757e+00 2.976755e+00 3.242714e+00 3.969392e-01 1.111490e-01 2.287223e-01 1.747633e-01 1.680837e-01 7.424883e-01 2.282835e-01 1.848549e-01 2.999458e-01 4.295200e-01 4.631815e-01 4.492376e-01 4.356595e-01 1.987147e-01
<GCONST> 1.047535e+02
<MIXTURE> 2 4.307079e-01
<MEAN> 39
 -1.353563e+01 -8.696073e+00 -1.111634e+01 -4.365820e+00 7.728992e+00 -1.378516e+01 -6.226985e+00 -7.979406e+00 6.008062e+00 5.101860e+00 -5.278707e+00 5.828168e+00 6.343148e+01 -7.751718e-01 -3.836022e-01 8.506036e-01 6.974530e-01 -2.504622e-01 -1.361771e+00 -2.588821e-01 5.759857e-01 1.002234e+00 3.362425e-01 -5.845998e-02 2.194712e-01 4.151168e-01 -4.736817e-03 2.925052e-01 5.875991e-01 3.061117e-01 -3.220302e-01 2.671157e-01 2.435158e-01 3.215236e-01 -2.133045e-01 -1.711694e-01 1.638752e-01 -2.073324e-01 -5.989688e-01
<VARIANCE> 39
 5.839404e+00 6.532256e+00 2.387616e+01 9.395360e+00 1.268560e+01 1.870405e+01 1.497185e+01 1.570790e+01 1.820323e+01 6.069146e+00 1.029946e+01 1.627010e+01 6.247707e+00 4.946977e-01 1.436723e+00 5.637247e+00 1.863617e+00 2.015604e+00 1.746244e+00 2.687365e+00 1.133010e+00 1.784938e+00 1.703998e+00 1.838991e+00 1.772749e+00 3.244927e+00 1.138433e-01 4.767599e-01 1.011796e+00 2.788715e-01 7.149510e-01 2.898978e-01 5.790668e-01 4.066421e-01 2.059942e-01 3.174801e-01 4.375564e-01 3.189237e-01 6.985074e-01
<GCONST> 9.891887e+01
<STATE> 7
<NUMMIXES> 2
<MIXTURE> 1 7.040034e-01
<MEAN> 39
 -2.908830e+00 8.190219e-01 -1.372626e-01 4.567183e-01 -9.736845e+00 -1.115307e+01 -1.761933e+01 -6.695672e+00 -1.503855e+00 -3.236289e+00 2.822677e+00 -6.903554e+00 7.240923e+01 -3.059980e-01 -1.379585e-01 3.055833e-01 -4.841087e-01 -3.618731e-01 -4.649397e-01 -9.494928e-04 4.858546e-01 1.712327e-01 1.573299e-01 1.779316e-01 6.565105e-01 -5.175767e-01 -1.046057e-01 9.639562e-02 -8.525374e-03 5.025069e-02 2.882408e-01 9.014403e-03 2.036172e-01 1.070992e-02 -1.438511e-01 2.247701e-01 -4.357980e-02 1.098643e-01 -2.839354e-01
<VARIANCE> 39
 9.519421e+00 3.131915e+01 1.650231e+01 2.666073e+01 1.799031e+01 2.761795e+01 3.324721e+01 5.128569e+01 3.267946e+01 5.913760e+01 2.166238e+01 3.389174e+01 1.707915e+01 4.891944e-01 7.645499e-01 3.869873e-01 4.886527e-01 8.820504e-01 6.160269e-01 6.884844e-01 1.132087e+00 1.542682e+00 1.751882e+00 1.011736e+00 8.261514e-01 8.328262e-01 7.716899e-02 1.455874e-01 9.841955e-02 9.858698e-02 2.077196e-01 1.629338e-01 1.600577e-01 2.638791e-01 3.110741e-01 2.603560e-01 2.599142e-01 2.111677e-01 5.844935e-02
<GCONST> 8.730816e+01
<MIXTURE> 2 2.959967e-01
<MEAN> 39
 -1.554405e+01 -9.623093e+00 -1.723244e+00 2.110233e+00 4.393666e+00 -1.636596e+01 -4.670160e+00 -2.586732e+00 8.191110e+00 5.952168e+00 -4.633594e+00 4.366793e+00 5.956377e+01 4.492881e-01 1.607756e-01 4.909757e-01 4.117613e-01 -4.085084e-01 2.503975e-01 2.067089e-01 2.975028e-01 1.348384e-02 -1.571845e-01 3.692828e-02 -1.993356e-01 -8.889392e-01 1.902149e-01 1.337108e-01 -1.637416e-01 -7.134189e-02 -7.275531e-02 2.118066e-01 -3.866780e-02 -1.467444e-02 -6.591541e-02 -1.138819e-01 -1.289828e-02 -1.252899e-02 -1.612597e-01
<VARIANCE> 39
 3.945939e+00 5.101535e+00 7.508288e+00 4.914551e+00 2.722579e+01 1.364690e+01 1.947765e+01 1.971780e+01 1.657850e+01 1.074725e+01 1.371049e+01 6.454685e+00 9.890589e+00 3.737381e-01 3.860106e-01 3.460070e-01 3.354554e-01 5.837510e-01 9.620843e-01 1.582729e+00 9.749844e-01 7.348854e-01 9.222111e-01 5.133660e-01 9.235767e-01 4.211270e-01 3.232068e-02 7.245796e-02 9.014712e-02 1.030799e-01 1.184453e-01 2.301316e-01 3.079100e-01 1.586782e-01 1.287605e-01 2.102839e-01 1.088802e-01 1.956409e-01 7.674509e-03
<GCONST> 6.619602e+01
<STATE> 8
<NUMMIXES> 2
<MIXTURE> 1 7.871975e-01
<MEAN> 39
 -7.186730e+00 1.707134e+00 1.160913e+00 -3.398709e-01 -6.801665e+00 -9.363779e+00 -1.310953e+01 -5.994532e+00 -2.399948e+00 -2.960261e-01 4.670357e+00 -2.234588e-01 6.091847e+01 -5.784518e-01 3.367569e-02 5.764896e-02 8.057607e-01 1.377488e+00 1.614978e+00 2.039998e+00 3.303210e-01 6.005425e-02 3.809261e-01 1.172450e-01 8.854469e-01 -2.170548e+00 3.676115e-02 -4.614994e-02 -1.628714e-01 1.126420e-01 1.620135e-01 3.456322e-01 1.692961e-01 8.722078e-02 1.246118e-01 -1.740423e-01 -6.050224e-02 -2.336551e-02 1.108753e-01
<VARIANCE> 39
 6.217161e+00 1.237372e+01 7.427305e+00 1.376056e+01 1.710239e+01 3.479394e+01 4.892393e+01 2.773088e+01 3.281748e+01 4.195301e+01 2.816712e+01 2.921006e+01 4.148487e+01 7.015726e-01 7.702289e-01 7.088852e-01 7.783218e-01 7.713650e-01 1.788095e+00 1.762685e+00 2.480011e+00 1.674558e+00 2.375132e+00 1.621643e+00 2.030814e+00 8.997704e-01 1.142649e-01 1.030504e-01 5.815098e-02 1.779568e-01 1.724787e-01 3.757259e-01 3.791685e-01 2.504903e-01 2.436654e-01 2.683326e-01 2.104624e-01 3.099314e-01 2.150907e-01
<GCONST> 9.387017e+01
<MIXTURE> 2 2.128026e-01
<MEAN> 39
 -7.874080e+00 -3.056089e+00 -1.817019e+00 3.189555e+00 2.342157e+00 -7.924215e+00 -5.604162e+00 -2.232693e+00 6.339566e+00 -1.798557e-01 -7.294293e+00 9.318051e-01 5.258728e+01 8.521425e-01 1.291876e+00 -6.336955e-01 -8.846295e-01 -1.076751e+00 2.469952e+00 1.030082e+00 5.571335e-01 -6.169795e-01 -7.718607e-01 5.819217e-01 -6.011941e-01 -1.168955e+00 -2.658110e-01 8.530154e-02 1.306558e-01 -2.944742e-01 -1.028607e-01 -5.885513e-02 3.667421e-01 2.595761e-02 -3.313581e-01 1.000183e-01 4.601140e-01 1.068858e-01 2.073378e-01
<VARIANCE> 39
 3.255744e+00 1.182203e+01 5.762991e+00 1.187168e+01 1.701982e+01 2.351505e+01 1.003112e+01 1.390404e+01 1.057037e+01 2.548448e+01 5.562295e+00 9.887799e+00 2.149043e+01 5.157558e-01 1.646131e+00 3.218146e-01 2.293689e+00 1.295930e+00 1.851524e+00 1.118110e+00 1.061963e+00 1.465413e+00 4.820616e+00 1.963534e+00 8.251939e-01 2.622804e-01 3.428185e-02 1.942610e-01 7.072141e-02 4.186939e-01 2.912142e-01 4.470665e-01 1.799710e-01 2.440507e-01 2.503105e-01 9.542376e-01 1.697804e-01 1.487989e-01 6.518266e-02
<GCONST> 8.329688e+01
<TRANSP> 9
 0.000000e+00 1.000000e+00 0.000000e+00 0.000000e+00 0.000000e+00 0.000000e+00 0.000000e+00 0.000000e+00 0.000000e+00
 0.000000e+00 8.332879e-01 1.667121e-01 0.000000e+00 0.000000e+00 0.000000e+00 0.000000e+00 0.000000e+00 0.000000e+00
 0.000000e+00 0.000000e+00 8.142744e-01 1.857256e-01 0.000000e+00 0.000000e+00 0.000000e+00 0.000000e+00 0.000000e+00
 0.000000e+00 0.000000e+00 0.000000e+00 8.716431e-01 1.283569e-01 0.000000e+00 0.000000e+00 0.000000e+00 0.000000e+00
 0.000000e+00 0.000000e+00 0.000000e+00 0.000000e+00 8.086779e-01 1.913222e-01 0.000000e+00 0.000000e+00 0.000000e+00
 0.000000e+00 0.000000e+00 0.000000e+00 0.000000e+00 0.000000e+00 7.415068e-01 2.584932e-01 0.000000e+00 0.000000e+00
 0.000000e+00 0.000000e+00 0.000000e+00 0.000000e+00 0.000000e+00 0.000000e+00 8.889156e-01 1.110844e-01 0.000000e+00
 0.000000e+00 0.000000e+00 0.000000e+00 0.000000e+00 0.000000e+00 0.000000e+00 0.000000e+00 8.123516e-01 1.876484e-01
 0.000000e+00 0.000000e+00 0.000000e+00 0.000000e+00 0.000000e+00 0.000000e+00 0.000000e+00 0.000000e+00 0.000000e+00
<ENDHMM>
