~o
<STREAMINFO> 1 39
<VECSIZE> 39<NULLD><MFCC_D_A_0><DIAGC>
~h "san"
<BEGINHMM>
<NUMSTATES> 8
<STATE> 2
<NUMMIXES> 2
<MIXTURE> 1 3.379634e-01
<MEAN> 39
 -2.036275e+01 2.036025e+00 -4.366556e+00 1.364562e+00 9.751494e-01 2.976001e+00 3.094068e-01 5.575982e+00 2.514984e+00 1.012535e+00 7.091238e+00 -1.041162e+00 6.512661e+01 -9.585277e-01 -1.740562e-01 -2.461503e-01 6.457726e-02 -3.320238e-01 -8.707332e-03 5.558958e-02 5.731077e-01 3.818983e-01 -6.694111e-02 4.011614e-01 -5.437887e-02 1.051171e+00 3.188572e-01 -2.389766e-01 -4.576962e-02 -3.004385e-02 -2.467586e-03 -7.873990e-02 1.534140e-01 -6.163135e-02 2.543558e-02 -4.994464e-02 -1.424841e-01 2.231496e-01 -2.339687e-02
<VARIANCE> 39
 1.979031e+01 5.148537e+00 2.922085e+01 1.192560e+01 1.656700e+01 1.808268e+01 1.617767e+01 1.316631e+01 1.348905e+01 1.187131e+01 1.745630e+01 1.206893e+01 1.184789e+01 1.522418e+00 1.437350e+00 8.315322e-01 5.019152e-01 1.815084e+00 1.920692e+00 2.400789e+00 1.377023e+00 1.277893e+00 1.300865e+00 1.241572e+00 2.015133e+00 3.728293e-01 2.636858e-01 2.087081e-01 1.586773e-01 1.274027e-01 3.995473e-01 3.002307e-01 4.693002e-01 2.571889e-01 3.005015e-01 3.572133e-01 3.362639e-01 4.875786e-01 9.931900e-02
<GCONST> 9.152385e+01
<MIXTURE> 2 6.620366e-01
<MEAN> 39
 -2.276287e+01 5.438170e+00 -6.544136e+00 5.502291e+00 2.054068e+00 -2.262763e+00 1.723020e+00 -1.194553e+00 5.687519e-01 -2.201484e+00 -9.800199e-01 4.393151e+00 5.539746e+01 -6.941785e-01 1.346421e-01 -3.531979e-01 3.958594e-01 -2.721230e-01 2.516653e-02 8.853035e-02 -1.871209e-01 1.001332e-01 3.942021e-02 -6.419967e-02 8.121838e-02 6.187266e-01 1.931006e-01 -1.335143e-01 1.183550e-02 -1.146793e-01 -5.471127e-02 9.918065e-02 -2.968748e-02 3.393930e-02 5.801513e-03 1.003123e-02 2.974270e-02 -4.730463e-02 -4.162286e-02
<VARIANCE> 39
 1.589249e+01 9.792523e+00 1.188999e+01 4.371518e+01 1.698996e+01 5.496417e+01 1.350283e+01 2.113251e+01 2.761492e+01 2.048780e+01 1.702296e+01 1.440139e+01 2.489441e+01 1.177091e+00 4.859428e-01 6.816632e-01 6.368318e-01 7.741778e-01 1.281902e+00 9.217249e-01 1.211588e+00 1.891065e+00 1.080135e+00 9.824154e-01 9.942290e-01 4.983543e-01 1.376396e-01 8.982810e-02 1.284444e-01 1.455763e-01 1.906521e-01 3.250049e-01 1.940471e-01 2.648326e-01 3.732682e-01 2.141823e-01 2.313705e-01 2.141606e-01 7.152686e-02
<GCONST> 8.693914e+01
<STATE> 3
<NUMMIXES> 2
<MIXTURE> 1 5.934834e-01
<MEAN> 39
 -1.604209e+01 -1.727867e+00 -5.693151e+00 -8.853205e-01 1.331294e+00 -1.582205e+00 2.102929e+00 4.531807e+00 2.948757e+00 -3.129303e+00 1.995672e+00 3.685835e+00 6.892283e+01 3.785969e+00 -1.080916e+00 1.814312e-01 -9.323514e-01 1.393335e+00 -7.227138e-01 4.081696e-01 -1.032883e+00 6.011042e-02 -1.768686e+00 -2.357073e+00 -6.813514e-01 1.609327e+00 2.986197e-01 -1.261706e-01 1.157803e-01 -1.595073e-01 6.504157e-01 1.056502e-01 7.181372e-02 -7.729469e-01 -4.610009e-02 -1.732370e-01 -4.536782e-01 -7.056881e-01 8.338189e-03
<VARIANCE> 39
 2.262399e+01 1.605919e+01 1.756447e+01 2.285664e+01 2.699377e+01 2.003588e+01 2.040190e+01 4.302846e+01 2.212090e+01 3.990458e+01 3.080972e+01 1.682413e+01 2.648069e+01 2.080788e+00 1.350657e+00 2.249278e+00 1.604908e+00 4.196572e+00 1.898746e+00 4.158290e+00 4.018558e+00 2.669789e+00 4.800762e+00 2.585206e+00 4.217041e+00 2.715035e+00 4.388086e-01 3.276116e-01 1.385748e-01 2.193457e-01 4.141893e-01 3.434914e-01 6.438506e-01 3.122029e-01 5.722751e-01 1.073243e+00 6.174466e-01 4.998273e-01 2.478263e-01
<GCONST> 1.140497e+02
<MIXTURE> 2 4.065166e-01
<MEAN> 39
 -2.404375e+01 3.172400e+00 -9.827533e+00 5.283850e+00 6.269898e-01 1.259122e+00 8.749213e-01 5.771841e-01 5.603703e-01 -2.092471e+00 -3.003777e-01 4.225233e+00 5.945432e+01 8.530141e-01 -1.022016e+00 -6.618394e-01 -1.886274e+00 -3.660958e-01 -6.190411e-01 -5.651447e-01 1.693857e-01 -2.580105e-02 -5.742969e-01 -1.517689e-01 -1.065520e-01 1.679933e+00 9.424297e-01 -2.180971e-01 1.627507e-01 -4.294310e-01 -1.282803e-02 -2.824613e-01 -1.453937e-01 -1.100932e-01 7.817140e-02 -2.958989e-01 -2.394783e-01 -2.435977e-01 5.179862e-01
<VARIANCE> 39
 3.630688e+00 1.235075e+01 1.993919e+01 4.138249e+01 1.257666e+01 4.329168e+01 1.920693e+01 3.945071e+01 2.971932e+01 2.281636e+01 1.667747e+01 1.803131e+01 2.677282e+01 1.773994e+00 3.557743e-01 1.112131e+00 8.826441e-01 6.753725e-01 2.166996e+00 1.024166e+00 1.856250e+00 1.482198e+00 1.081447e+00 7.783150e-01 3.865032e-01 9.186285e-01 3.860459e-01 7.695144e-02 3.465559e-01 2.211660e-01 1.199882e-01 3.876536e-01 2.796061e-01 5.750081e-01 3.013090e-01 2.948439e-01 1.473386e-01 2.807815e-01 8.682647e-02
<GCONST> 9.133842e+01
<STATE> 4
<NUMMIXES> 2
<MIXTURE> 1 5.177458e-01
<MEAN> 39
 -4.236340e+00 -8.382359e+00 -3.020627e+00 -1.217042e+01 1.279960e+01 -3.594713e+00 1.008827e+01 -8.644294e+00 4.655065e+00 -3.399897e+00 -8.814448e+00 -1.046196e+00 7.632411e+01 8.461218e-01 -1.556986e+00 2.842706e-01 -1.775158e+00 1.703467e+00 1.808800e-01 5.170900e-01 -1.528636e+00 -4.516591e-01 4.199515e-01 -5.541792e-01 -3.689656e-01 6.976706e-01 -4.779511e-01 4.636308e-01 -3.091117e-01 3.859386e-01 -5.922964e-01 4.778804e-02 -7.326744e-01 4.331007e-01 -1.193166e-01 2.469048e-01 4.589480e-01 7.708324e-02 -4.993718e-01
<VARIANCE> 39
 1.255245e+01 3.741702e+01 1.795125e+01 1.357632e+01 3.708952e+01 8.620517e+00 1.151656e+01 7.145727e+01 1.353874e+01 3.849572e+01 2.562465e+01 6.533525e+00 4.279025e+00 8.452329e-01 1.603237e+00 1.519711e+00 1.132149e+00 9.480551e-01 1.159183e+00 1.831622e+00 2.016650e+00 1.086089e+00 1.406148e+00 1.629222e+00 8.541598e-01 8.042470e-01 2.356799e-01 2.343195e-01 1.455219e-01 3.448396e-01 2.394830e-01 1.473728e-01 1.434240e-01 2.494943e-01 2.632896e-01 4.780239e-01 3.054480e-01 1.257042e-01 2.038894e-01
<GCONST> 9.193412e+01
<MIXTURE> 2 4.822542e-01
<MEAN> 39
 -4.208687e+00 -6.263291e+00 -9.324601e+00 -3.800422e+00 3.654854e+00 -4.703104e+00 -2.191710e+00 -5.194719e+00 2.784440e+00 -1.285623e+01 -7.445037e+00 -6.460640e+00 7.288727e+01 2.304998e+00 -2.639321e+00 -4.825631e-01 -2.386538e+00 2.480799e+00 1.103120e-01 3.113230e-01 -2.633264e+00 1.326517e+00 -7.394535e-01 -8.029845e-01 -2.957943e+00 2.383054e+00 -1.141227e+00 -6.798065e-02 -1.779121e-02 1.159870e-01 3.791021e-01 5.304622e-01 4.512346e-01 2.322636e-01 5.966063e-03 7.407073e-01 8.725082e-01 6.683514e-01 -4.891726e-01
<VARIANCE> 39
 4.119206e+00 2.759864e+01 1.283237e+01 1.874422e+01 2.491401e+01 1.577442e+01 2.861608e+01 2.974738e+01 3.930553e+01 6.303917e+01 1.616382e+01 2.686330e+01 1.100976e+01 3.327376e+00 3.253870e+00 9.770508e-01 1.494810e+00 2.003306e+00 2.342422e+00 3.897769e+00 1.206730e+00 5.313998e+00 5.849656e+00 5.014123e+00 4.852099e+00 1.637292e+00 1.528268e-01 3.262813e-01 1.003225e-01 2.302528e-01 4.551453e-01 2.366737e-01 2.173460e-01 2.515011e-01 6.527731e-01 5.244424e-01 2.724849e-01 5.680832e-01 2.623630e-01
<GCONST> 1.077012e+02
<STATE> 5
<NUMMIXES> 2
<MIXTURE> 1 5.053030e-01
<MEAN> 39
 -1.105530e+00 -9.917888e+00 -5.013223e+00 -1.385866e+01 1.605017e+01 -3.991186e+00 7.053194e+00 -1.003863e+01 2.513051e+00 -1.151571e+00 -9.304354e+00 -4.245612e+00 7.588251e+01 4.356565e-01 7.383125e-02 -2.828317e-01 2.776797e-01 -1.636432e-01 -1.419941e-01 -6.158015e-01 6.827540e-02 1.727909e-01 1.722070e-01 -1.509881e-01 -4.903017e-01 -3.747209e-01 -5.411562e-02 1.526585e-01 1.079066e-01 1.345258e-01 -2.281106e-01 1.345796e-02 -3.013165e-02 1.249380e-01 6.872775e-02 1.526091e-03 1.559552e-02 1.158707e-02 -8.203374e-02
<VARIANCE> 39
 1.950385e+01 2.692740e+01 2.125994e+01 5.402834e+00 3.429083e+01 1.237712e+01 1.285613e+01 6.373159e+01 1.659731e+01 2.165876e+01 1.827370e+01 1.071253e+01 5.866783e+00 1.536436e-01 4.173552e-01 7.031602e-01 6.280755e-01 5.822008e-01 6.558424e-01 7.671981e-01 1.202412e+00 6.602209e-01 5.648760e-01 4.447076e-01 7.460712e-01 1.991900e-01 1.665951e-02 5.356116e-02 1.070921e-01 8.910694e-02 6.078598e-02 9.630574e-02 1.715222e-01 2.430938e-01 1.140499e-01 1.199391e-01 6.514350e-02 7.850270e-02 1.550113e-02
<GCONST> 6.633782e+01
<MIXTURE> 2 4.946969e-01
<MEAN> 39
 -3.728089e+00 -1.087674e+01 -8.961254e+00 -8.826736e+00 1.242371e+01 2.291759e-02 -4.595772e+00 -1.003098e+01 2.788597e+00 -1.173714e+01 -8.998340e-01 -1.270124e+01 7.382287e+01 1.714622e-01 4.836935e-01 1.561499e-01 -1.895001e-02 -1.503486e-01 4.148761e-01 -2.560256e-01 2.041429e-01 -5.033021e-01 1.109894e-01 4.494539e-01 -1.033387e-01 -4.714008e-01 -2.313173e-02 2.824694e-01 1.764198e-01 2.335553e-01 -3.517421e-01 -8.293534e-02 -7.510056e-03 2.296771e-01 -1.945707e-01 -1.548726e-02 -1.497180e-01 2.930610e-01 -1.588451e-01
<VARIANCE> 39
 3.295934e+00 1.809324e+01 2.199721e+01 4.537553e+01 6.207693e+00 3.331463e+01 1.553945e+01 3.816297e+01 4.722554e+01 5.648506e+01 1.172594e+01 1.592108e+01 7.873971e+00 9.596372e-02 6.847838e-01 3.777439e-01 6.712040e-01 1.299450e+00 5.071951e-01 7.109455e-01 2.004837e+00 1.849347e+00 1.448889e+00 6.082999e-01 8.729490e-01 1.326861e-01 1.714922e-02 1.229832e-01 6.866524e-02 1.070104e-01 1.121531e-01 9.417195e-02 1.259408e-01 3.180625e-01 2.993734e-01 2.853670e-01 1.046933e-01 2.217396e-01 4.783054e-02
<GCONST> 7.564007e+01
<STATE> 6
<NUMMIXES> 2
<MIXTURE> 1 5.057961e-01
<MEAN> 39
 -1.590447e-01 -4.141811e+00 -4.174589e+00 -3.278409e+00 8.947150e+00 8.592238e-01 -2.155466e+00 -5.578776e-01 -4.126689e+00 -4.553101e+00 -7.659389e+00 -9.325898e+00 7.002594e+01 -2.231152e-01 9.683631e-01 1.645557e+00 9.981188e-01 -1.070492e+00 2.198278e-02 4.577827e-02 -2.046591e-01 -7.649443e-01 1.319336e+00 -1.187852e+00 9.033504e-01 -1.197821e+00 -1.659006e-01 -8.339407e-02 8.259921e-02 -4.424562e-02 1.269299e-01 4.649653e-02 2.791155e-02 -1.830672e-01 1.326315e-01 3.093079e-02 6.312637e-02 1.782577e-01 -7.934878e-02
<VARIANCE> 39
 4.948671e+00 6.445919e+00 2.034311e+01 1.497259e+01 2.564029e+01 2.023995e+01 7.624047e+01 1.073683e+01 1.604835e+01 9.560381e+01 5.907182e+01 2.387570e+01 1.118491e+01 2.055176e-01 5.873857e-01 1.565141e+00 1.458865e+00 1.022262e+00 1.074921e+00 2.003100e+00 8.514819e-01 5.297850e-01 1.895788e+00 1.808022e+00 3.505585e+00 1.100105e-01 2.079664e-02 8.523243e-02 3.353193e-01 2.743944e-01 1.155832e-01 1.510361e-01 3.432418e-01 2.496542e-01 1.056179e-01 2.863626e-01 4.752242e-01 3.283662e-01 1.609110e-02
<GCONST> 8.509172e+01
<MIXTURE> 2 4.942039e-01
<MEAN> 39
 3.792650e+00 -5.112379e+00 -3.526598e+00 -6.255697e+00 -2.292183e+00 -2.877886e+00 -1.130061e+00 -1.748717e+01 4.347881e+00 1.896930e+00 -4.369069e+00 -4.918780e+00 6.451600e+01 -1.029502e-01 9.464742e-01 1.098882e+00 8.898504e-01 -1.634697e+00 1.601004e-01 -7.220916e-01 -3.295230e-01 -5.254551e-01 2.953926e-01 1.194866e+00 -6.596533e-02 -1.140154e+00 -1.579296e-01 -9.948899e-02 4.856216e-02 5.686155e-02 8.189642e-02 -1.296472e-01 -2.184478e-02 -1.490815e-02 -4.890081e-02 1.040217e-01 1.027079e-01 -2.157306e-01 -3.923615e-02
<VARIANCE> 39
 2.716154e+01 1.257562e+01 4.201889e+01 5.504662e+01 7.348035e+01 1.083347e+01 8.295355e+00 4.104611e+01 2.109346e+01 5.499153e+01 4.998713e+01 2.344113e+01 1.987459e+01 2.761740e-01 8.981614e-01 8.723502e-01 1.025604e+00 1.722345e+00 1.323990e+00 1.163586e+00 3.160264e+00 1.767607e+00 9.351996e-01 2.574281e+00 2.489142e+00 5.350105e-01 4.436565e-02 1.220545e-01 1.311635e-01 1.742892e-01 2.765794e-01 1.312247e-01 2.375942e-01 6.138387e-01 4.067620e-01 1.986446e-01 4.253819e-01 2.828981e-01 7.217818e-02
<GCONST> 9.573466e+01
<STATE> 7
<NUMMIXES> 2
<MIXTURE> 1 6.257235e-01
<MEAN> 39
 -5.385990e+00 4.764470e-01 1.846115e+00 2.661896e+00 5.016044e+00 1.334425e+00 -1.500760e+00 -2.562207e+00 -4.621670e+00 -8.091140e-01 -7.049109e+00 -4.536151e+00 6.173619e+01 -8.415347e-01 2.163998e-01 -1.171857e-01 6.909531e-01 -2.058513e-01 2.990301e-01 4.518616e-01 1.421093e-01 7.290939e-01 1.789753e-01 1.090273e+00 6.939439e-01 -1.236640e+00 1.209761e-02 -1.432806e-01 -2.961235e-01 -1.024655e-01 1.101680e-01 -1.288783e-02 7.216998e-02 1.242010e-01 1.291923e-01 -1.272710e-01 1.813156e-01 -4.724097e-02 7.957727e-02
<VARIANCE> 39
 9.377993e+00 1.271840e+01 1.634585e+01 1.728739e+01 9.185431e+00 2.232555e+01 3.040049e+01 2.427168e+01 1.630243e+01 3.792006e+01 2.726718e+01 2.444738e+01 1.545671e+01 2.400808e-01 7.051679e-01 1.703515e+00 1.025112e+00 6.603467e-01 1.413428e+00 1.554799e+00 1.253924e+00 1.242528e+00 1.572287e+00 2.493800e+00 1.553640e+00 3.952320e-01 4.975177e-02 1.623896e-01 1.869424e-01 1.924958e-01 1.264598e-01 2.749020e-01 2.623463e-01 2.273028e-01 2.483340e-01 2.548017e-01 3.805390e-01 4.119350e-01 5.406231e-02
<GCONST> 8.831982e+01
<MIXTURE> 2 3.742765e-01
<MEAN> 39
 -5.925805e+00 -2.873264e-01 4.081537e+00 -5.099446e+00 -2.544103e+00 -5.805612e+00 -5.570800e+00 -1.623271e+01 5.539131e+00 -1.022292e+00 -6.459063e-01 -3.959908e+00 5.630851e+01 -1.114787e+00 7.105966e-01 -6.320450e-01 6.740879e-01 7.824961e-02 2.137538e-01 3.321578e-02 1.712208e+00 -7.428985e-01 2.924954e-01 2.445114e-01 4.439510e-01 -2.066569e+00 1.225079e-02 -6.997223e-03 -3.311083e-01 -6.008513e-02 2.917649e-01 3.347951e-01 3.462516e-01 3.863839e-01 -6.709611e-02 -9.431519e-02 1.288164e-02 2.800261e-01 -8.845689e-02
<VARIANCE> 39
 2.633675e+01 1.008895e+01 3.952531e+01 1.526660e+01 6.342531e+01 1.625531e+01 1.470677e+01 4.266555e+01 4.620775e+01 5.950728e+01 1.281820e+01 2.706811e+01 3.203728e+01 1.837451e+00 6.273078e-01 2.188199e+00 4.517640e-01 2.242744e+00 1.976088e+00 3.000940e+00 2.623459e+00 2.448810e+00 2.423826e+00 1.406849e+00 1.999482e+00 9.236513e-01 1.575259e-01 1.055548e-01 3.387128e-01 5.446179e-02 2.380792e-01 2.313050e-01 4.075439e-01 4.877324e-01 4.349623e-01 5.322521e-01 3.708447e-01 4.610777e-01 2.031568e-01
<GCONST> 1.032687e+02
<TRANSP> 8
 0.000000e+00 1.000000e+00 0.000000e+00 0.000000e+00 0.000000e+00 0.000000e+00 0.000000e+00 0.000000e+00
 0.000000e+00 8.978218e-01 1.021782e-01 0.000000e+00 0.000000e+00 0.000000e+00 0.000000e+00 0.000000e+00
 0.000000e+00 0.000000e+00 8.106596e-01 1.893404e-01 0.000000e+00 0.000000e+00 0.000000e+00 0.000000e+00
 0.000000e+00 0.000000e+00 0.000000e+00 7.416669e-01 2.583331e-01 0.000000e+00 0.000000e+00 0.000000e+00
 0.000000e+00 0.000000e+00 0.000000e+00 0.000000e+00 8.980336e-01 1.019664e-01 0.000000e+00 0.000000e+00
 0.000000e+00 0.000000e+00 0.000000e+00 0.000000e+00 0.000000e+00 8.417862e-01 1.582138e-01 0.000000e+00
 0.000000e+00 0.000000e+00 0.000000e+00 0.000000e+00 0.000000e+00 0.000000e+00 8.598063e-01 1.401937e-01
 0.000000e+00 0.000000e+00 0.000000e+00 0.000000e+00 0.000000e+00 0.000000e+00 0.000000e+00 0.000000e+00
<ENDHMM>
