~o
<STREAMINFO> 1 39
<VECSIZE> 39<NULLD><MFCC_D_A_0><DIAGC>
~h "sil"
<BEGINHMM>
<NUMSTATES> 5
<STATE> 2
<NUMMIXES> 2
<MIXTURE> 1 8.329327e-01
<MEAN> 39
 -1.001532e+01 -1.973740e+00 -3.139870e+00 3.879745e+00 3.733903e+00 3.101638e+00 4.178058e-01 -1.054879e+00 -7.200886e-01 -3.246075e-01 2.874673e+00 2.681937e+00 5.263068e+01 -2.262610e-02 -1.623296e-02 -1.691682e-02 2.164768e-02 3.046632e-02 3.336526e-02 1.231965e-02 7.060043e-03 2.457918e-02 1.932369e-02 1.302352e-02 9.198528e-03 -2.222636e-02 4.188587e-03 4.849992e-03 5.514411e-03 -9.137723e-03 -9.622319e-03 -7.837796e-03 -7.289749e-03 -4.427909e-03 -7.854238e-04 -2.846659e-03 -9.155452e-03 -1.356807e-02 9.065057e-03
<VARIANCE> 39
 1.575735e+00 6.792305e+00 4.584135e+00 1.287783e+01 8.537979e+00 1.376840e+01 9.382518e+00 1.590583e+01 1.799629e+01 1.384028e+01 1.262134e+01 1.024574e+01 1.240400e+01 9.090836e-02 1.922398e-01 3.596109e-01 5.269039e-01 6.944286e-01 9.553573e-01 9.620508e-01 1.135357e+00 1.110467e+00 1.141926e+00 1.144601e+00 1.055492e+00 2.991711e-02 1.773867e-02 3.840607e-02 7.126313e-02 1.031170e-01 1.368484e-01 1.894314e-01 1.894640e-01 2.295117e-01 2.215997e-01 2.315589e-01 2.293443e-01 2.143218e-01 5.734432e-03
<GCONST> 6.154439e+01
<MIXTURE> 2 1.670674e-01
<MEAN> 39
 -9.653436e+00 8.462696e-01 -1.617937e+00 -2.399482e-01 4.392276e-01 8.101466e-01 -2.358658e-01 -1.293983e+00 3.683555e-01 4.035156e-01 1.841133e+00 8.932898e-01 4.996267e+01 -2.954932e-01 -7.995033e-02 -2.176238e-01 6.300205e-01 4.420186e-01 4.235869e-01 5.315537e-01 4.226323e-01 1.021568e-01 2.697136e-02 8.886411e-02 3.189309e-01 -5.410514e-01 5.776254e-02 -8.817827e-03 9.020713e-02 -1.657063e-01 -6.513135e-02 -4.464964e-02 -5.620862e-02 -6.704605e-02 -8.992612e-03 -2.307598e-02 -5.361791e-02 -4.740846e-02 1.960578e-01
<VARIANCE> 39
 9.477972e+00 9.496331e+00 1.595196e+01 3.775010e+01 2.308515e+01 2.193190e+01 2.284595e+01 3.136720e+01 2.544258e+01 2.391028e+01 1.745361e+01 1.645668e+01 3.352747e+01 7.582749e-01 6.376810e-01 1.270948e+00 1.848585e+00 1.763088e+00 1.685805e+00 1.916193e+00 2.382999e+00 1.888723e+00 1.843163e+00 1.775950e+00 1.608261e+00 6.441949e-01 1.169086e-01 1.079057e-01 2.107755e-01 2.874876e-01 2.798313e-01 2.942561e-01 3.136004e-01 4.329866e-01 3.284645e-01 3.344084e-01 3.222439e-01 3.098707e-01 1.193407e-01
<GCONST> 9.724689e+01
<STATE> 3
<NUMMIXES> 2
<MIXTURE> 1 2.816572e-01
<MEAN> 39
 -1.309960e+01 2.833389e+00 4.579215e-01 3.346390e+00 2.737129e+00 4.007707e+00 3.448045e+00 3.367493e+00 2.968209e+00 2.290831e+00 1.716288e+00 1.220491e+00 5.920090e+01 -1.589773e-02 -1.325766e-02 -5.101187e-03 3.383425e-03 8.835231e-03 7.339762e-03 2.337575e-02 2.337657e-02 2.490279e-02 3.627128e-02 2.894419e-02 2.310009e-02 -9.941686e-03 6.940854e-03 7.084828e-04 6.790298e-03 -9.512767e-03 -8.852296e-03 -1.361902e-02 -2.165609e-02 -1.727461e-02 -1.698133e-02 -1.014618e-02 2.459367e-04 6.192584e-04 9.508701e-03
<VARIANCE> 39
 6.403965e-01 1.343589e+00 2.338375e+00 3.943056e+00 4.922815e+00 6.767607e+00 7.563087e+00 8.224862e+00 9.103317e+00 9.219612e+00 8.950907e+00 8.131421e+00 2.050026e-01 7.529531e-02 1.606351e-01 2.547897e-01 4.430103e-01 5.687003e-01 7.693702e-01 8.748360e-01 9.309951e-01 1.109578e+00 1.049383e+00 9.911655e-01 9.607571e-01 2.567802e-02 1.595427e-02 3.424020e-02 5.220246e-02 9.166328e-02 1.206379e-01 1.616089e-01 1.804760e-01 1.913295e-01 2.302134e-01 2.111825e-01 2.049072e-01 2.036677e-01 5.587716e-03
<GCONST> 4.578489e+01
<MIXTURE> 2 7.183428e-01
<MEAN> 39
 -1.101715e+01 1.581163e+00 -1.444172e+00 7.859298e-01 5.485275e-01 1.775141e+00 1.719255e+00 9.737602e-01 1.333162e+00 5.362017e-01 8.065703e-01 7.904225e-01 4.420435e+01 -7.081266e-03 -3.416517e-03 -1.123277e-03 9.309842e-03 -5.183649e-03 5.248813e-03 4.796712e-03 7.641006e-03 -6.387481e-03 -1.270254e-02 -1.712181e-02 -7.467345e-03 -1.032916e-02 -1.043448e-04 3.048149e-03 2.463586e-03 -8.068771e-03 -3.221450e-03 -7.532401e-03 -6.833858e-03 -3.431402e-03 1.280295e-03 9.614778e-04 4.432658e-04 -3.110698e-04 7.515504e-03
<VARIANCE> 39
 1.219864e+01 2.478253e+00 3.278454e+00 8.058046e+00 9.740240e+00 9.157197e+00 9.126361e+00 1.465328e+01 1.276556e+01 1.268486e+01 1.036911e+01 8.642359e+00 9.617439e+00 7.464801e-02 1.751996e-01 3.101892e-01 4.624905e-01 6.056224e-01 7.926047e-01 8.437095e-01 1.000977e+00 1.029003e+00 9.559476e-01 9.422882e-01 8.434028e-01 2.615688e-02 1.538243e-02 3.673150e-02 6.534305e-02 9.718519e-02 1.244872e-01 1.632275e-01 1.750479e-01 2.048995e-01 2.107196e-01 1.987447e-01 1.931253e-01 1.722038e-01 5.591072e-03
<GCONST> 5.699674e+01
<STATE> 4
<NUMMIXES> 2
<MIXTURE> 1 3.838879e-01
<MEAN> 39
 -1.003394e+01 1.607720e+00 5.777310e-01 1.555245e+00 1.617108e+00 1.385758e+00 -1.079690e+00 -1.583510e+00 -2.928615e-01 -1.831570e+00 5.146134e-01 2.466299e-01 5.343222e+01 2.833009e-01 4.607527e-01 7.532650e-01 -8.789034e-01 -7.418501e-01 -7.916123e-01 -1.303418e+00 -8.563286e-01 -2.832764e-01 -1.071166e+00 -1.702390e-01 -4.803280e-01 2.054458e+00 6.195316e-02 8.630010e-03 3.336382e-02 -2.327044e-01 -2.700228e-01 -1.340742e-01 -1.429764e-01 -1.051249e-01 1.352315e-02 -1.118032e-01 8.863807e-02 8.330987e-03 3.945401e-01
<VARIANCE> 39
 2.549710e+01 2.794869e+01 4.061813e+01 3.731008e+01 2.526293e+01 2.778809e+01 2.844070e+01 2.841415e+01 3.130960e+01 3.514552e+01 2.055836e+01 1.434727e+01 5.220230e+01 3.568252e+00 3.076601e+00 6.495368e+00 4.117576e+00 3.608850e+00 3.089769e+00 3.715280e+00 3.448859e+00 3.476244e+00 3.203874e+00 2.613309e+00 1.951704e+00 2.783747e+00 3.676256e-01 4.161695e-01 8.688432e-01 5.194579e-01 4.984921e-01 4.856640e-01 5.848738e-01 5.617830e-01 5.297687e-01 5.032421e-01 3.999274e-01 3.061279e-01 4.412721e-01
<GCONST> 1.217267e+02
<MIXTURE> 2 6.161121e-01
<MEAN> 39
 -1.109552e+01 9.467394e-01 -1.782564e+00 1.355753e+00 1.298766e+00 1.576903e+00 1.838098e+00 -1.496525e-01 1.479851e+00 5.145710e-01 1.497883e+00 1.337779e+00 4.856763e+01 -3.013067e-02 4.125904e-03 7.710028e-02 -2.025625e-02 2.650661e-02 1.907150e-03 -3.029607e-02 -2.070591e-02 3.036034e-03 -2.130174e-02 -2.936142e-02 -1.030955e-02 1.218457e-01 6.123661e-03 3.298783e-02 7.934325e-02 -2.874267e-02 -1.325422e-02 -4.641730e-02 -9.434722e-02 -8.297542e-02 -3.232975e-02 -4.182350e-02 -4.124156e-02 -5.950745e-02 1.246228e-01
<VARIANCE> 39
 1.053037e+01 9.511519e+00 6.511201e+00 1.082942e+01 1.199719e+01 1.307435e+01 1.095739e+01 2.308387e+01 1.543900e+01 1.628873e+01 1.148642e+01 9.798051e+00 3.605657e+01 3.191351e-01 4.520296e-01 5.614086e-01 6.030390e-01 9.459893e-01 9.376917e-01 1.056119e+00 1.372863e+00 1.533397e+00 1.226374e+00 1.130286e+00 1.014765e+00 1.866730e-01 9.530909e-02 1.165887e-01 1.339263e-01 1.193296e-01 1.915426e-01 1.976842e-01 2.273542e-01 2.730549e-01 3.026321e-01 2.514848e-01 2.150221e-01 1.921190e-01 6.753102e-02
<GCONST> 7.814017e+01
<TRANSP> 5
 0.000000e+00 1.000000e+00 0.000000e+00 0.000000e+00 0.000000e+00
 0.000000e+00 9.295673e-01 7.043274e-02 0.000000e+00 0.000000e+00
 0.000000e+00 0.000000e+00 9.588197e-01 4.118032e-02 0.000000e+00
 0.000000e+00 0.000000e+00 0.000000e+00 8.085866e-01 1.914134e-01
 0.000000e+00 0.000000e+00 0.000000e+00 0.000000e+00 0.000000e+00
<ENDHMM>
