~o
<STREAMINFO> 1 39
<VECSIZE> 39<NULLD><MFCC_D_A_0><DIAGC>
~h "yon"
<BEGINHMM>
<NUMSTATES> 8
<STATE> 2
<NUMMIXES> 2
<MIXTURE> 1 3.977735e-01
<MEAN> 39
 -3.386844e+00 -3.412311e+00 8.543777e+00 -2.951431e+00 -1.412210e+01 -9.160900e+00 -8.096359e+00 -1.576219e+00 -2.309118e+00 -6.673251e+00 4.680832e+00 -2.222820e+00 7.246052e+01 1.184714e+00 -2.361614e+00 -4.927430e+00 -5.722577e-01 3.254188e+00 -1.236702e+00 -9.931145e-01 1.468730e+00 3.383665e+00 5.286397e-01 -1.591174e+00 -1.561286e+00 1.724028e+00 -1.175683e-01 4.865663e-01 -5.473140e-01 -5.653406e-01 1.368674e+00 1.378592e+00 -2.336029e-01 -8.504768e-01 5.928192e-01 3.288541e-01 -4.050019e-01 -6.230772e-01 -5.583431e-01
<VARIANCE> 39
 1.164848e+01 1.635031e+01 3.871602e+01 4.073443e+01 5.162099e+01 1.222395e+01 4.357648e+01 3.906349e+01 6.607913e+01 5.342545e+01 2.576599e+01 1.962875e+01 1.337636e+01 1.935437e-01 5.606270e-01 1.004875e+00 1.998531e+00 2.494853e+00 2.981878e+00 2.100841e+00 2.130303e+00 2.637522e+00 3.430435e+00 1.607568e+00 1.664495e+00 3.714902e-01 2.815625e-02 1.910692e-01 5.787112e-01 3.102882e-01 7.731728e-01 5.374146e-01 3.552876e-01 6.480917e-01 9.963454e-01 3.881268e-01 4.360229e-01 2.617135e-01 4.517594e-02
<GCONST> 1.038370e+02
<MIXTURE> 2 6.022265e-01
<MEAN> 39
 -7.419188e+00 5.299340e+00 1.803828e+01 -3.004232e+00 -1.243951e+01 2.309979e-01 -9.572253e+00 -7.715541e+00 -4.706921e+00 -8.222748e+00 5.033142e+00 -2.426116e+00 6.393178e+01 1.164096e+00 -9.896460e-01 1.053545e+00 -8.010064e-01 -3.577477e+00 -2.034481e+00 -8.470356e-01 -3.111332e-01 -9.420556e-01 -1.741059e-01 6.623993e-01 -2.655104e-01 3.360346e+00 3.890551e-02 -8.880739e-01 -1.931485e+00 2.294946e-01 1.044063e+00 -3.129104e-01 5.837778e-01 8.637286e-01 6.950330e-01 5.491785e-01 -3.620777e-01 1.415045e-01 -2.184868e-01
<VARIANCE> 39
 5.562428e+00 1.335534e+01 5.627790e+01 7.629308e+01 9.062466e+01 2.679229e+01 3.512511e+01 3.062554e+01 6.576823e+01 8.159006e+01 3.397579e+01 2.291135e+01 2.727539e+01 5.504323e-01 3.253580e+00 1.170779e+01 3.079364e+00 5.771877e+00 1.668204e+00 5.243686e+00 3.591683e+00 2.650005e+00 3.916380e+00 2.719637e+00 1.506652e+00 1.267609e+00 7.469591e-02 2.566353e-01 7.872646e-01 7.670156e-01 1.876748e+00 4.116561e-01 6.831776e-01 3.002105e-01 9.677502e-01 8.005343e-01 5.868958e-01 3.630779e-01 2.597356e-01
<GCONST> 1.215815e+02
<STATE> 3
<NUMMIXES> 2
<MIXTURE> 1 2.889532e-01
<MEAN> 39
 1.182328e+00 -3.933663e+00 -6.158648e+00 -7.755969e+00 3.530235e+00 -2.979852e-01 -2.345327e+00 9.309202e-01 3.684691e+00 6.197506e+00 -5.115268e+00 -6.995267e+00 8.058731e+01 4.007155e-01 6.845992e-01 -2.866891e+00 -1.643619e+00 2.089481e+00 2.446388e+00 -1.020483e-02 -1.618886e+00 -2.138650e-01 3.903590e-01 3.756690e-01 -2.903183e-01 9.906721e-02 -1.371166e-01 2.580703e-01 7.692319e-01 3.917703e-02 -8.169218e-01 2.281225e-01 5.652250e-01 1.426234e-01 -1.132295e+00 -4.681575e-01 4.957277e-01 5.497370e-01 -2.903082e-01
<VARIANCE> 39
 6.863912e-01 4.519127e+00 2.337131e+01 9.640128e+00 2.132715e+01 2.441741e+01 7.624227e+00 1.493879e+01 6.561460e+00 1.031137e+01 1.118546e+01 6.566556e+00 1.938842e-01 9.409115e-02 2.609392e-01 1.580217e+00 3.157533e-01 3.510586e+00 1.784514e+00 1.633662e+00 1.495063e+00 5.794031e+00 1.748891e+00 2.661851e+00 2.001014e+00 2.074829e-01 1.448381e-02 2.157945e-01 5.369475e-02 1.127749e-01 2.756459e-01 5.920981e-01 7.530989e-02 6.738204e-01 3.806080e-01 2.503303e-01 4.442155e-01 1.412034e-01 2.967841e-02
<GCONST> 7.252341e+01
<MIXTURE> 2 7.110468e-01
<MEAN> 39
 -1.564544e+00 -5.466458e+00 -6.514332e+00 -8.968601e+00 -2.801064e+00 -2.909564e+00 -1.543489e+01 -8.065339e+00 6.730134e+00 -4.434677e+00 6.533115e-01 -1.080928e+01 7.314695e+01 5.775528e-01 -8.845046e-02 -2.910632e+00 -2.586102e+00 2.573669e+00 3.075976e+00 4.277554e-01 -2.209713e+00 1.711476e-01 6.094973e-01 -5.279277e-02 -8.119635e-01 3.071114e-01 -1.727122e-01 4.829461e-01 1.064830e+00 -1.258706e-01 -8.419420e-01 2.866275e-01 8.258818e-01 -1.381866e-01 -1.321984e+00 -7.260544e-01 6.695329e-01 1.008537e+00 -3.204511e-01
<VARIANCE> 39
 1.783889e+01 1.956671e+01 2.298754e+01 3.184190e+01 4.730877e+01 3.880968e+01 5.129708e+01 3.643911e+01 3.883752e+01 3.193761e+01 2.052579e+01 1.435838e+01 5.759779e+00 1.658949e-01 4.150103e-01 2.079058e+00 2.259923e+00 2.317435e+00 2.734630e+00 3.223990e+00 2.035315e+00 6.707913e+00 3.192023e+00 2.282820e+00 4.464206e+00 1.378940e-01 3.651672e-02 9.028596e-02 1.119377e-01 2.704825e-01 2.314977e-01 8.119006e-01 4.587774e-01 8.607327e-01 2.854232e-01 9.041050e-01 2.567105e-01 4.273438e-01 2.975966e-02
<GCONST> 1.008482e+02
<STATE> 4
<NUMMIXES> 2
<MIXTURE> 1 5.627114e-01
<MEAN> 39
 -7.805885e-01 -9.198985e-01 -8.383582e+00 -1.288752e+01 4.416159e+00 -1.520630e+00 6.494152e-01 -5.787906e+00 -8.320284e+00 -3.339648e+00 -3.883346e-01 -7.958146e+00 7.349267e+01 1.076439e-01 2.387637e-01 2.581280e-01 7.936109e-02 -6.612341e-01 1.181627e-01 7.927713e-01 1.037705e+00 -1.060741e+00 -3.181168e-01 -9.405837e-01 2.592697e-01 -4.349450e-01 -6.780321e-02 -1.205959e-03 2.184226e-01 2.986658e-01 -1.440577e-01 -8.803279e-02 -2.515862e-01 1.381482e-01 4.319805e-01 9.077744e-02 -3.327502e-01 -2.339433e-02 -1.002884e-01
<VARIANCE> 39
 6.346830e+00 4.722904e+00 1.005641e+01 4.458290e+01 9.568353e+00 4.531282e+01 3.712142e+01 2.518506e+01 1.166582e+01 4.333569e+01 3.576234e+01 7.221939e+00 1.550832e+01 8.784848e-02 1.955000e-01 1.872138e-01 6.061653e-01 8.565215e-01 7.431620e-01 8.855689e-01 4.616860e-01 2.104056e+00 1.317308e+00 1.342035e+00 2.540298e-01 1.061209e-01 1.372656e-02 3.675319e-02 8.411334e-02 9.906960e-02 1.548425e-01 1.284677e-01 9.808704e-02 1.521859e-01 1.469193e-01 2.002360e-01 2.629999e-01 1.092317e-01 8.269628e-03
<GCONST> 6.635764e+01
<MIXTURE> 2 4.372886e-01
<MEAN> 39
 1.101602e-01 -5.409175e+00 -9.333805e+00 -1.992568e+01 -3.484837e+00 9.269381e+00 -9.993633e+00 -1.162601e+01 3.286225e+00 -1.410142e+01 5.092792e+00 -3.220645e+00 7.323099e+01 3.611524e-01 4.803030e-01 3.019115e-01 -1.160540e+00 -4.747432e-01 7.494178e-01 2.111160e+00 5.203663e-01 -1.229577e+00 -1.967013e+00 2.475057e-01 1.006324e+00 -5.922247e-01 3.737525e-02 8.062837e-02 3.857822e-01 8.633046e-01 -4.742465e-01 -8.131431e-01 -1.830837e-01 7.029141e-01 9.385328e-02 5.890900e-01 -3.394624e-01 -6.420479e-01 -1.938199e-01
<VARIANCE> 39
 2.005392e+01 2.433698e+01 2.086331e+01 1.554840e+01 2.041588e+01 2.554770e+01 4.594127e+01 3.783250e+01 2.526337e+01 6.793862e+01 2.379781e+01 2.136142e+01 5.656954e+00 2.483897e-01 3.398149e-01 9.691807e-01 3.154762e+00 7.770486e-01 1.955817e+00 2.892205e+00 2.502480e+00 1.709136e+00 3.174820e+00 2.715487e+00 3.517547e+00 1.469949e-01 3.041377e-02 4.543957e-02 2.085626e-01 1.169829e-01 1.180415e-01 1.039776e-01 7.291414e-01 4.502063e-01 2.567860e-01 1.022567e+00 3.404968e-01 4.761898e-01 1.427755e-02
<GCONST> 9.263572e+01
<STATE> 5
<NUMMIXES> 2
<MIXTURE> 1 2.672747e-01
<MEAN> 39
 2.450527e+00 -4.986357e-02 -5.453610e+00 -9.592147e+00 1.100609e+00 9.729283e+00 6.711949e+00 5.172524e+00 -9.692643e+00 1.571577e+00 -1.523030e+01 -6.269812e+00 7.408909e+01 -4.472839e-01 7.397562e-01 1.456693e+00 1.354105e+00 2.403243e-01 -7.028417e-01 -1.072023e-01 3.434098e-01 -5.456434e-02 -3.110411e-01 -1.858774e+00 -6.873119e-01 -1.265624e+00 -1.301373e-01 1.205506e-01 1.554095e-01 1.977091e-01 3.797967e-01 -3.772269e-01 -3.223460e-01 -2.752576e-01 2.105852e-01 -6.701244e-02 4.985585e-01 -4.391688e-02 -1.045006e-01
<VARIANCE> 39
 2.533426e+00 3.204705e+00 1.174568e+01 6.524461e+00 3.028858e+00 7.183537e+00 6.815441e+00 4.803890e+00 2.591547e+00 3.968912e+00 2.580433e+01 6.025899e+00 6.165471e+00 1.940752e-01 4.263984e-01 5.543132e-01 3.624160e-01 1.355328e+00 2.078825e+00 1.392771e+00 6.918440e-01 3.119048e-01 3.882055e-01 2.555390e+00 3.696456e-01 1.880846e-01 5.411720e-02 8.582594e-02 1.228295e-01 4.430756e-02 1.123432e-01 2.408777e-01 2.343150e-01 6.727239e-02 6.095757e-02 8.041447e-02 3.883218e-01 1.018751e-01 2.781265e-02
<GCONST> 5.646242e+01
<MIXTURE> 2 7.327253e-01
<MEAN> 39
 -9.057316e-01 -1.562524e-01 -3.955433e+00 -1.362011e+01 -4.534931e+00 3.300253e+00 -4.684412e+00 -5.138897e+00 2.535760e-01 -1.034035e+01 -2.280880e+00 -5.305180e+00 6.952720e+01 -9.300136e-02 7.275276e-01 8.838226e-01 1.648672e+00 9.081339e-02 -6.064535e-01 -3.993337e-01 -4.699323e-02 -4.684343e-01 1.372024e+00 -7.294362e-01 8.507593e-02 -9.307387e-01 -1.140093e-01 3.794940e-02 1.057282e-01 1.611973e-01 2.660689e-01 -5.605311e-02 -1.118858e-01 -5.264836e-01 -1.677934e-01 -1.965281e-03 2.245677e-02 2.394125e-01 -4.986097e-02
<VARIANCE> 39
 8.978826e+00 7.348249e+00 1.941887e+01 4.704511e+01 1.610179e+01 4.069783e+01 2.637447e+01 4.817487e+01 5.822370e+01 3.706631e+01 2.271269e+01 7.973809e+00 7.912589e+00 1.780862e-01 4.900828e-01 7.370335e-01 1.510731e+00 1.461069e+00 1.120157e+00 1.195591e+00 2.500250e+00 1.181208e+00 2.578263e+00 8.080584e-01 1.807171e+00 2.112391e-01 2.507234e-02 8.756790e-02 1.503356e-01 2.662342e-01 1.601094e-01 1.112547e-01 2.703274e-01 2.332863e-01 2.071656e-01 4.153067e-01 2.212577e-01 1.226665e-01 1.939378e-02
<GCONST> 8.432127e+01
<STATE> 6
<NUMMIXES> 2
<MIXTURE> 1 7.086519e-01
<MEAN> 39
 -4.023279e+00 4.655289e+00 1.980127e+00 -1.515064e+00 2.231391e+00 -9.033574e-01 -3.534676e+00 -5.956528e+00 -6.536309e+00 -5.640245e+00 -9.104925e+00 -2.863065e+00 6.407571e+01 -7.049671e-01 1.431144e-01 1.023504e+00 8.401108e-01 4.957365e-01 -1.822357e-01 3.136179e-01 -1.536968e-01 1.861280e-01 4.024015e-01 7.857753e-02 4.532562e-01 -9.106638e-01 -6.045526e-02 -2.213870e-01 -1.897220e-01 -2.076313e-01 -8.463069e-02 1.542871e-01 2.938608e-01 2.996994e-01 2.639729e-01 1.991609e-01 2.419698e-01 4.262992e-02 2.330958e-02
<VARIANCE> 39
 8.098921e+00 5.945673e+00 1.029764e+01 3.238371e+01 1.247298e+01 1.765536e+01 1.815534e+01 5.384518e+01 3.320058e+01 3.588701e+01 2.875937e+01 2.159410e+01 5.095809e+00 2.883981e-01 5.956442e-01 4.723503e-01 8.792331e-01 7.032239e-01 1.382900e+00 2.041266e+00 1.656805e+00 1.786340e+00 2.669786e+00 1.519855e+00 1.581965e+00 2.656179e-01 4.320446e-02 7.364522e-02 1.186941e-01 8.202669e-02 1.497988e-01 2.452229e-01 2.421253e-01 2.589397e-01 3.308419e-01 3.542205e-01 3.581773e-01 3.357797e-01 3.966888e-02
<GCONST> 8.450274e+01
<MIXTURE> 2 2.913481e-01
<MEAN> 39
 4.649736e+00 -2.334358e+00 8.633663e-01 -4.738493e+00 -1.233071e+01 1.590477e+00 -5.859986e+00 -1.570064e+01 -5.919261e+00 3.264362e+00 4.176692e+00 -1.043125e+01 6.072671e+01 -4.977051e-01 2.297607e-01 1.379042e+00 1.702918e+00 4.130394e-02 -7.062761e-01 2.471027e-01 -9.233242e-01 -6.922628e-01 1.835525e+00 -4.045637e-01 -3.509330e-01 -1.011235e+00 -1.454359e-01 -8.004408e-02 -2.104653e-01 -2.324429e-01 2.257236e-01 1.246161e-01 -1.718999e-02 5.312456e-02 1.249194e-01 -6.405903e-02 7.330247e-02 1.766773e-01 -7.298822e-05
<VARIANCE> 39
 3.411104e+00 1.167206e+01 2.060130e+01 1.730830e+01 1.476012e+01 1.392097e+01 8.689871e+00 2.380738e+01 1.291459e+01 4.152858e+01 1.026223e+01 9.265264e+00 1.042350e+01 4.783545e-01 1.279417e+00 1.057315e+00 1.427354e+00 1.418813e+00 8.687743e-01 7.365273e-01 1.774451e+00 7.230262e-01 9.181413e-01 9.978791e-01 1.081384e+00 2.426148e-01 4.945828e-02 2.936282e-01 2.014337e-01 1.574480e-01 2.666707e-01 1.106521e-01 1.014477e-01 3.892285e-01 1.742395e-01 1.589061e-01 1.257023e-01 3.412855e-01 8.269481e-02
<GCONST> 8.006036e+01
<STATE> 7
<NUMMIXES> 2
<MIXTURE> 1 8.313319e-01
<MEAN> 39
 -7.188151e+00 1.858386e+00 3.085858e+00 6.758655e-01 4.474717e+00 -5.960678e-01 1.320009e+00 -2.160546e+00 -1.902191e+00 6.016438e-01 -6.069530e+00 -1.501809e-01 5.802920e+01 -5.160666e-01 -3.355738e-01 -8.462316e-01 4.813835e-01 -2.020684e-01 3.961000e-01 3.540636e-01 6.971017e-01 8.193537e-01 -1.573775e-01 1.304595e+00 6.188895e-01 -1.231661e+00 1.099440e-01 3.593323e-02 -1.346704e-01 1.154934e-02 -1.544034e-01 7.813983e-02 -2.248422e-01 -5.740573e-02 -1.621356e-01 -2.401447e-01 -5.932341e-03 -1.278706e-01 7.662435e-02
<VARIANCE> 39
 5.539450e+00 9.580575e+00 1.611060e+01 2.297611e+01 1.889195e+01 1.971009e+01 1.421678e+01 3.895472e+01 1.167607e+01 3.196719e+01 3.053654e+01 1.224405e+01 1.915341e+01 4.449839e-01 6.767070e-01 7.183130e-01 8.075033e-01 1.270163e+00 8.782024e-01 1.278083e+00 2.485227e+00 1.475127e+00 2.417832e+00 1.509962e+00 1.373049e+00 6.425423e-01 5.704586e-02 1.505493e-01 2.570811e-01 1.567464e-01 1.889103e-01 1.842689e-01 2.288954e-01 2.556989e-01 2.445503e-01 3.457743e-01 2.984274e-01 2.573192e-01 1.010232e-01
<GCONST> 8.818240e+01
<MIXTURE> 2 1.686681e-01
<MEAN> 39
 -1.827304e+00 4.134683e-01 4.157554e+00 3.427784e+00 -6.568574e+00 -1.061893e+00 -3.476943e+00 -2.006319e+01 -8.373368e+00 1.195531e+01 3.682920e+00 -1.071754e+01 5.264696e+01 -1.839769e+00 1.083226e+00 -1.298918e+00 1.003096e-02 1.502547e+00 1.660576e-01 1.010762e+00 1.827408e+00 1.020917e+00 -7.904273e-01 -5.504831e-01 1.559700e+00 -2.269302e+00 -2.444984e-01 2.689767e-02 -2.873449e-01 -4.850767e-01 1.226614e-01 1.428890e-01 1.889228e-01 1.184913e+00 4.608967e-01 -9.065626e-01 -1.814457e-01 4.698401e-01 -2.220073e-01
<VARIANCE> 39
 4.977427e+00 1.213311e+01 7.417658e+00 8.866764e+00 2.630827e+01 2.229076e+01 3.006453e+01 1.878885e+01 6.792014e+00 1.740795e+01 1.657979e+01 5.573623e+00 9.161056e+00 7.380900e-01 7.485210e-01 7.163298e-01 9.707276e-01 1.261650e+00 9.385075e-01 1.097981e+00 6.298532e+00 7.654033e-01 3.172246e+00 8.340763e-01 2.996490e+00 6.492273e-01 7.763992e-02 2.851160e-01 1.912650e-01 8.408646e-02 4.150214e-01 1.470786e-01 2.555027e-01 3.139313e-01 3.934804e-02 1.720598e-01 1.742811e-01 2.481667e-01 1.054651e-01
<GCONST> 8.306079e+01
<TRANSP> 8
 0.000000e+00 1.000000e+00 0.000000e+00 0.000000e+00 0.000000e+00 0.000000e+00 0.000000e+00 0.000000e+00
 0.000000e+00 8.409100e-01 1.590900e-01 0.000000e+00 0.000000e+00 0.000000e+00 0.000000e+00 0.000000e+00
 0.000000e+00 0.000000e+00 7.304075e-01 2.695926e-01 0.000000e+00 0.000000e+00 0.000000e+00 0.000000e+00
 0.000000e+00 0.000000e+00 0.000000e+00 8.225136e-01 1.774864e-01 0.000000e+00 0.000000e+00 0.000000e+00
 0.000000e+00 0.000000e+00 0.000000e+00 0.000000e+00 8.029553e-01 1.970447e-01 0.000000e+00 0.000000e+00
 0.000000e+00 0.000000e+00 0.000000e+00 0.000000e+00 0.000000e+00 8.494480e-01 1.505520e-01 0.000000e+00
 0.000000e+00 0.000000e+00 0.000000e+00 0.000000e+00 0.000000e+00 0.000000e+00 8.032276e-01 1.967724e-01
 0.000000e+00 0.000000e+00 0.000000e+00 0.000000e+00 0.000000e+00 0.000000e+00 0.000000e+00 0.000000e+00
<ENDHMM>
