~o
<STREAMINFO> 1 39
<VECSIZE> 39<NULLD><MFCC_D_A_0><DIAGC>
~h "zero"
<BEGINHMM>
<NUMSTATES> 9
<STATE> 2
<NUMMIXES> 2
<MIXTURE> 1 2.747996e-01
<MEAN> 39
 -9.896102e+00 6.509573e+00 3.591147e+00 4.869296e+00 -6.779027e+00 -1.168695e+01 -2.345484e+00 -2.805426e+00 -4.801043e+00 -6.297426e+00 -1.406190e+00 3.251425e+00 6.835185e+01 3.973141e+00 -1.188501e+00 2.196669e+00 -1.334942e+00 -3.588657e+00 -2.995411e+00 -2.074466e+00 -5.219082e-01 -3.775364e-01 -1.220140e+00 2.878641e-01 2.169292e-01 1.838708e+00 -2.710593e-01 -8.816427e-01 -5.547349e-01 -7.505524e-01 -6.873138e-02 7.832530e-01 -2.833512e-02 6.138195e-01 6.087970e-01 5.310981e-01 5.407811e-01 -4.471411e-01 -1.336065e-01
<VARIANCE> 39
 2.971541e+01 1.131497e+01 1.902105e+01 4.458013e+01 4.041522e+01 2.114660e+01 5.207778e+01 3.690661e+01 5.072916e+01 4.337712e+01 1.189514e+01 1.735798e+01 1.366774e+01 1.289643e+00 2.137588e+00 1.143397e+00 2.059842e+00 3.771546e+00 2.028004e+00 2.689967e+00 2.412440e+00 2.094639e+00 1.503902e+00 2.038745e+00 3.130903e+00 1.127311e+00 5.518639e-01 1.351402e-01 2.076726e-01 1.238146e-01 4.727752e-01 2.742911e-01 3.662882e-01 1.650703e-01 2.658693e-01 4.270310e-01 2.223405e-01 3.005174e-01 1.191993e-01
<GCONST> 1.049741e+02
<MIXTURE> 2 7.252005e-01
<MEAN> 39
 -1.783613e+01 4.351281e+00 -3.801358e+00 2.955479e+00 -3.620586e-01 -1.437284e+00 7.911169e-01 4.210752e-02 -2.501357e-01 -1.251581e+00 1.510850e+00 7.174817e-01 6.138464e+01 -1.217376e-01 7.699711e-01 5.370362e-01 3.119073e-01 -5.229885e-01 -1.332609e+00 2.241107e-01 -3.301356e-01 -4.842776e-01 -5.549690e-01 -2.373190e-01 2.497460e-01 1.724428e+00 8.907233e-01 -9.169940e-02 5.039313e-01 -7.426888e-02 -2.723088e-01 -3.839650e-01 -1.618389e-01 -2.181794e-01 9.581991e-03 -1.776342e-01 -9.964039e-02 1.197655e-01 -1.380456e-01
<VARIANCE> 39
 2.753774e+01 3.052907e+01 2.385323e+01 2.280550e+01 2.079673e+01 3.166467e+01 2.822078e+01 4.709051e+01 3.235641e+01 3.325776e+01 1.750988e+01 1.602287e+01 5.561586e+01 6.348709e+00 1.424499e+00 2.642144e+00 1.448556e+00 2.976098e+00 3.723696e+00 2.084917e+00 2.294243e+00 2.328761e+00 3.175065e+00 1.362048e+00 1.357018e+00 1.771264e+00 6.962647e-01 3.124168e-01 3.986744e-01 3.490881e-01 6.303407e-01 5.662940e-01 5.619369e-01 4.622251e-01 3.914450e-01 5.773779e-01 2.370603e-01 3.299754e-01 2.715148e-01
<GCONST> 1.145154e+02
<STATE> 3
<NUMMIXES> 2
<MIXTURE> 1 5.135546e-01
<MEAN> 39
 -4.217376e+00 -2.072019e+00 4.849828e+00 -5.801337e+00 -6.719687e+00 -1.378189e+01 4.280086e+00 3.532223e+00 1.249852e+00 -2.570796e+00 1.284615e+00 -6.645108e+00 7.654147e+01 2.854480e-01 -9.151778e-01 -2.698343e-01 3.908333e-02 -2.460929e-02 6.694902e-02 -3.305960e-01 7.787247e-01 3.337320e-02 -3.989836e-01 -1.046967e-01 -2.177681e-01 2.233903e-01 -1.730210e-01 3.058264e-02 3.999021e-03 5.640076e-01 -4.236118e-02 2.231293e-01 -3.603204e-01 -1.231784e-01 -7.357461e-02 -1.101364e-03 1.520203e-01 4.146756e-01 -2.519314e-01
<VARIANCE> 39
 7.431872e+00 1.540094e+01 1.048693e+01 5.761740e+00 4.158096e+01 2.009317e+01 2.774254e+01 4.664085e+01 8.088022e+00 1.041161e+01 6.659904e+01 1.281898e+01 1.039235e+01 2.265868e-01 2.334353e-01 6.520014e-01 1.342271e+00 6.202495e-01 5.506743e-01 1.361379e+00 8.737864e-01 5.024770e-01 1.237338e+00 1.329414e+00 1.436863e+00 2.083773e-01 1.130596e-01 9.396598e-02 1.683424e-01 1.759217e-01 2.263870e-01 1.439984e-01 1.483150e-01 2.519122e-01 1.417538e-01 3.105134e-01 2.515692e-01 1.993264e-01 7.619907e-02
<GCONST> 7.910117e+01
<MIXTURE> 2 4.864453e-01
<MEAN> 39
 -4.753727e+00 -1.602808e-01 5.139664e+00 -9.435706e-01 -1.473662e+01 -1.366022e+01 -6.598406e+00 -1.756836e+00 -2.497823e+00 -6.327788e+00 4.430531e+00 2.202407e+00 7.204359e+01 1.243869e+00 -2.100315e+00 1.567310e-01 -2.460705e+00 -1.362397e+00 -2.086633e-01 -4.164854e-01 8.170331e-01 1.316679e+00 1.783761e-01 1.189728e+00 -1.408436e+00 1.408411e+00 -9.343331e-01 2.029522e-01 -5.530549e-01 1.255860e-01 1.087852e+00 7.416164e-01 6.664776e-01 2.769345e-01 2.376336e-01 1.306168e-01 -2.687152e-01 -3.762659e-01 -3.099883e-01
<VARIANCE> 39
 1.824552e+01 1.184994e+01 7.711246e+00 5.607164e+01 6.426437e+01 2.583558e+01 4.014069e+01 3.076427e+01 5.091525e+01 4.018959e+01 1.577365e+01 3.297465e+01 8.414015e+00 1.475257e+00 8.285843e-01 6.724880e-01 4.942465e-01 1.948203e+00 8.477448e-01 1.612300e+00 1.562369e+00 8.081815e-01 2.004275e+00 2.536281e+00 1.261660e+00 2.058114e-01 1.193152e-01 1.940164e-01 1.640364e-01 2.667846e-01 2.962268e-01 2.482331e-01 1.810142e-01 3.942021e-01 2.842231e-01 2.158618e-01 1.765614e-01 3.818969e-01 7.987017e-02
<GCONST> 9.409354e+01
<STATE> 4
<NUMMIXES> 2
<MIXTURE> 1 4.127551e-01
<MEAN> 39
 -7.511483e+00 -3.407956e+00 5.994509e-01 1.996949e+00 -1.756060e+01 -8.584089e+00 -1.134414e+01 9.045632e+00 -3.994445e+00 -1.364479e+01 7.368908e+00 -4.489063e+00 7.692065e+01 -6.573416e-02 -1.898576e-01 -3.146467e-01 1.250918e-01 4.452927e-02 -1.575747e-01 7.742520e-02 1.947240e-01 7.279424e-01 -3.036083e-01 -5.230844e-01 -1.214955e-01 -1.071763e-01 2.024903e-01 4.645715e-02 -7.364048e-02 4.814237e-01 1.839639e-01 -1.172413e-01 -8.163264e-02 -2.883547e-01 3.101407e-02 -7.209740e-02 -2.978888e-01 5.238246e-01 -2.480870e-01
<VARIANCE> 39
 2.664606e+00 1.820270e+00 2.770875e+00 1.253043e+00 1.907775e+00 3.218636e+00 4.324677e+00 8.607662e+00 9.248540e+00 5.956287e+00 1.184938e+01 1.955004e+01 6.201932e-01 9.539407e-01 1.737153e-01 2.126845e-01 1.751625e+00 9.747125e-02 7.617295e-01 7.258276e-01 9.736652e-01 6.588384e-01 4.411369e-01 1.402170e+00 4.792178e+00 4.949004e-01 5.296890e-02 3.988919e-02 2.387541e-02 1.783584e-01 1.404724e-01 7.776876e-02 1.108896e-01 1.618155e-01 9.687838e-02 1.244091e-01 1.686822e-01 1.550723e-01 3.150022e-02
<GCONST> 5.146718e+01
<MIXTURE> 2 5.872449e-01
<MEAN> 39
 -3.489039e+00 -5.775707e+00 4.317538e+00 -1.075245e+01 -1.318678e+01 -1.234003e+01 -5.108996e+00 -1.282495e+00 6.603426e+00 -6.787154e+00 2.751919e+00 -1.338447e+00 7.354481e+01 3.103472e-01 -4.638941e-01 -1.859403e-01 5.669100e-01 3.504922e-01 7.944022e-01 -9.842082e-01 1.563156e-01 7.302892e-01 -4.164388e-01 -6.255083e-01 2.242500e-01 -5.122538e-01 -2.082559e-02 2.348466e-01 8.450482e-02 6.047548e-01 1.553964e-01 -3.071105e-02 -1.921460e-01 -1.415533e-01 -2.233430e-01 1.199960e-01 -1.886860e-01 1.849082e-01 -3.999323e-01
<VARIANCE> 39
 2.649336e+01 1.736549e+01 1.212910e+01 1.832592e+01 6.106448e+01 3.055960e+01 2.486562e+01 4.040470e+01 5.040633e+01 3.761980e+01 3.280617e+01 1.189264e+01 4.228871e+00 1.798902e-01 4.781706e-01 9.929176e-01 3.172546e+00 1.082487e+00 6.027693e-01 1.757249e+00 1.625211e+00 1.254273e+00 8.336664e-01 1.294091e+00 1.329694e+00 1.188404e+00 3.996904e-02 1.178545e-01 1.050028e-01 1.374506e-01 1.133649e-01 1.841794e-01 2.119391e-01 2.848536e-01 3.268082e-01 3.021466e-01 1.847690e-01 1.748159e-01 9.337556e-02
<GCONST> 8.829787e+01
<STATE> 5
<NUMMIXES> 2
<MIXTURE> 1 4.112668e-01
<MEAN> 39
 2.551828e+00 -7.726923e+00 -5.983230e+00 1.513087e-01 -8.788588e+00 -1.404028e+00 -1.291839e+01 -3.717521e+00 8.868743e+00 2.833581e-01 -1.478748e+00 -4.614093e+00 7.217660e+01 4.511665e-01 8.386964e-01 -1.820011e+00 -3.532613e+00 4.404810e-01 3.927747e+00 -4.344146e-01 -2.209716e+00 -3.278674e-01 2.146123e+00 1.738955e+00 -1.856563e+00 5.097808e-01 -3.906779e-01 6.052929e-01 5.964726e-01 -9.799873e-01 1.342499e-01 1.257673e-01 7.417294e-01 7.523298e-02 -9.995300e-01 -3.268200e-01 4.023772e-01 5.031467e-01 -2.992905e-01
<VARIANCE> 39
 1.462452e+01 1.759536e+01 2.560335e+01 6.861848e+01 4.025641e+01 5.337897e+01 5.755059e+01 2.059693e+01 3.844034e+01 2.678390e+01 1.877437e+01 3.379293e+01 1.152416e+01 8.960621e-01 1.322823e+00 1.433431e+00 2.180897e+00 2.573584e+00 1.076678e+00 3.818417e+00 1.197566e+00 6.501767e+00 1.713962e+00 2.082125e+00 2.063107e+00 6.187249e-01 2.864772e-02 1.517611e-01 1.722026e-01 6.582654e-01 4.540145e-01 6.219048e-01 5.599197e-01 3.826593e-01 4.189184e-01 3.642220e-01 3.954040e-01 6.177822e-01 1.108897e-01
<GCONST> 1.066117e+02
<MIXTURE> 2 5.887333e-01
<MEAN> 39
 -2.437057e+00 -5.889881e+00 2.616101e+00 3.339490e+00 -9.841532e+00 -1.099464e+01 -1.034882e+01 9.209447e-01 3.224667e+00 -7.834183e+00 -1.019910e+00 1.514801e+00 6.895027e+01 8.141446e-01 -3.404846e-01 -1.523835e+00 1.581858e+00 1.160461e+00 7.980247e-01 -1.159809e+00 -9.914650e-01 6.133476e-01 1.016991e+00 -8.844795e-01 2.009180e-01 -6.237092e-01 1.115710e-01 1.253798e-01 -6.564776e-01 -1.082402e+00 -3.962068e-02 6.305963e-01 7.840943e-02 -3.263144e-01 1.690997e-01 5.705838e-01 3.751740e-01 -7.062939e-01 5.657725e-01
<VARIANCE> 39
 1.541795e+01 1.177876e+01 2.757987e+01 6.549191e+01 2.613063e+01 1.409959e+01 2.969969e+01 2.071067e+01 3.896735e+01 3.135138e+01 3.547598e+01 3.445783e+01 1.396456e+01 5.299022e-01 1.295815e+00 2.501639e+00 3.421076e+00 3.428476e+00 2.814579e+00 1.832604e+00 2.581343e+00 3.821934e+00 2.330727e+00 2.386125e+00 3.725235e+00 2.378316e+00 1.047184e-01 2.747031e-01 2.366593e-01 6.371229e-01 6.751748e-01 4.876920e-01 3.688790e-01 2.386957e-01 8.454327e-01 2.687557e-01 7.006118e-01 6.484926e-01 2.974947e-01
<GCONST> 1.119280e+02
<STATE> 6
<NUMMIXES> 2
<MIXTURE> 1 5.442386e-01
<MEAN> 39
 -1.543967e+00 1.193963e+00 -1.066936e+01 -5.872700e+00 -5.313859e+00 4.540346e+00 -8.956242e+00 -1.023032e+01 -2.169553e+00 -1.192301e+00 3.924337e+00 3.538121e-01 7.158277e+01 -1.213850e-01 1.423271e+00 4.062674e-01 -3.789917e+00 2.698337e-01 2.279752e+00 1.032281e+00 -5.730087e-02 -1.568693e+00 -1.211601e+00 6.632857e-01 1.371181e+00 -6.540785e-01 1.433692e-01 -2.002812e-01 5.054683e-01 4.247052e-01 -1.030302e-01 -8.473217e-01 -6.200742e-02 9.401518e-01 2.225832e-01 -8.855698e-01 -5.289372e-01 2.082338e-01 -2.372108e-01
<VARIANCE> 39
 3.413933e+00 6.952776e+00 1.790059e+01 4.501628e+01 1.384085e+01 4.797525e+01 1.932099e+01 1.025850e+01 3.493751e+01 4.541077e+01 1.169253e+01 6.176621e+01 1.142180e+01 4.845976e-01 4.400007e-01 1.383409e+00 4.733662e+00 8.489895e-01 1.335463e+00 2.931747e+00 2.769712e+00 2.390215e+00 5.833816e+00 1.713187e+00 2.112770e+00 2.246939e-01 1.061534e-01 3.856613e-02 2.034468e-01 4.953915e-01 2.718621e-01 2.150355e-01 5.942402e-01 1.304125e-01 5.370960e-01 1.022719e+00 3.198887e-01 6.428149e-01 7.073025e-02
<GCONST> 9.667335e+01
<MIXTURE> 2 4.557615e-01
<MEAN> 39
 4.425574e+00 -4.403337e+00 -6.560543e+00 -2.162088e+01 -8.307648e+00 7.339745e+00 -1.284061e+01 -9.329536e+00 3.501018e+00 3.580371e+00 7.077497e+00 -4.214394e+00 6.720833e+01 6.856240e-03 1.915884e+00 -8.215065e-02 -3.455747e+00 6.468176e-01 1.057559e+00 2.756315e+00 -5.254100e-01 -1.821896e+00 -8.456537e-01 8.643680e-01 1.824986e+00 -1.286981e+00 -2.450965e-01 -3.480190e-02 4.470725e-01 8.859982e-01 -3.072827e-01 -8.096841e-01 5.468056e-01 5.758190e-01 3.446779e-01 -7.097281e-01 -9.292288e-01 5.042800e-01 -3.021969e-01
<VARIANCE> 39
 1.234709e+01 1.020516e+01 1.688704e+01 1.710678e+01 3.003369e+01 4.188761e+01 3.733430e+01 1.127210e+01 5.596074e+01 2.501285e+01 1.808216e+01 2.489857e+01 5.991926e+00 1.611206e-01 6.623851e-01 6.843116e-01 2.736149e+00 1.282140e+00 3.418706e+00 3.266659e+00 1.055110e+00 1.384759e+00 1.229506e+00 4.099201e+00 1.182566e+00 2.008556e-01 8.174452e-02 2.987423e-01 1.207662e-01 2.792849e-01 1.843032e-01 3.182584e-01 1.127801e+00 1.643159e-01 5.111210e-01 2.981552e-01 5.189357e-01 5.401405e-01 9.115620e-02
<GCONST> 9.494176e+01
<STATE> 7
<NUMMIXES> 2
<MIXTURE> 1 4.104605e-01
<MEAN> 39
 -1.910346e+00 4.976646e+00 -5.986643e+00 -1.298725e+01 -1.037384e+00 1.059166e+01 -4.866231e+00 -7.746954e-01 -3.289482e+00 3.271078e+00 2.000022e+00 -3.626344e+00 7.032411e+01 -4.353070e-01 6.811398e-01 2.032741e-02 -2.274798e-01 1.134665e-01 -3.607683e-01 7.451548e-01 6.821597e-01 -8.854142e-01 -2.137271e-01 4.224469e-01 9.598236e-01 -9.535662e-01 -9.133333e-03 -3.372795e-01 9.518140e-02 4.881486e-01 -7.724623e-02 -2.494888e-01 8.634408e-03 -1.082883e-02 3.342607e-01 -1.121462e-01 -9.178096e-02 4.475039e-02 -1.035708e-01
<VARIANCE> 39
 4.505275e+00 6.203288e+00 3.220809e+00 2.544770e+01 8.380750e+00 3.380968e+01 6.859008e+00 2.577284e+01 2.052482e+01 9.454648e+00 1.365341e+01 1.123371e+01 1.703379e+01 2.693620e-01 9.419194e-01 5.333583e-01 1.941328e+00 7.281239e-01 1.816372e+00 6.734021e-01 6.338894e-01 1.412106e+00 4.455937e-01 7.489297e-01 6.972396e-01 3.413523e-01 5.928219e-02 2.382199e-02 1.316269e-01 1.163898e-01 1.673753e-01 2.837548e-01 1.308836e-01 1.039164e-01 1.064470e-01 1.239611e-01 1.799958e-01 1.398969e-01 1.978929e-02
<GCONST> 6.925717e+01
<MIXTURE> 2 5.895395e-01
<MEAN> 39
 1.002109e+00 4.044697e+00 -4.970608e+00 -2.402450e+01 -6.773600e+00 1.647356e+00 -2.807220e+00 -4.252358e+00 -2.378194e+00 -4.983431e+00 9.913929e-01 5.090144e+00 6.394354e+01 -1.755941e-01 5.218534e-01 3.763699e-01 -1.759558e-01 -3.317397e-01 -7.939667e-01 9.947527e-01 9.202812e-01 4.210872e-01 1.122791e-01 -5.919898e-01 2.000311e-02 -1.093553e+00 -2.055999e-01 -1.338048e-01 -1.057343e-01 5.849037e-01 8.246610e-02 -1.827435e-01 -2.536093e-01 -3.428635e-02 1.554472e-01 4.170309e-01 2.495656e-01 -2.215930e-01 -5.112594e-02
<VARIANCE> 39
 9.105863e+00 1.064800e+01 1.612855e+01 6.995092e+01 3.472220e+01 7.569793e+01 1.619298e+01 2.076487e+01 4.477858e+01 6.971201e+01 1.748641e+01 1.507212e+01 7.522157e+00 5.647854e-01 5.095518e-01 7.382387e-01 1.321743e+00 8.096790e-01 1.017058e+00 1.662569e+00 1.420612e+00 1.389721e+00 3.485818e+00 2.767637e+00 6.265225e-01 3.968019e-01 6.748335e-02 8.841987e-02 1.629612e-01 1.564684e-01 2.284872e-01 2.702509e-01 3.594121e-01 3.167454e-01 1.913529e-01 6.498671e-01 4.623464e-01 1.563612e-01 3.964074e-02
<GCONST> 9.152132e+01
<STATE> 8
<NUMMIXES> 2
<MIXTURE> 1 6.716950e-01
<MEAN> 39
 -5.225827e+00 3.343102e+00 -4.476909e+00 -4.683664e+00 -2.752185e+00 1.415002e+00 -1.482165e+00 1.527944e-02 -5.199825e-01 -2.583070e-01 3.155060e+00 3.400242e+00 5.840924e+01 -1.257935e+00 -8.442393e-01 5.486405e-01 2.047467e+00 1.071257e+00 -7.009387e-02 5.074764e-01 4.507941e-02 5.041034e-01 -8.739794e-02 1.107931e-02 -3.134595e-03 -1.177423e+00 -5.255137e-03 -2.911610e-02 -6.758306e-02 -2.035272e-01 5.193654e-02 2.414960e-01 3.851316e-02 -4.160109e-02 -1.417717e-01 -5.292162e-02 -7.068829e-02 4.460162e-02 1.614620e-01
<VARIANCE> 39
 1.729883e+01 7.698267e+00 8.733684e+00 2.409389e+01 3.189169e+01 1.851629e+01 9.975668e+00 1.918632e+01 9.916358e+00 9.951326e+00 1.518161e+01 1.210662e+01 1.498041e+01 3.029682e-01 3.273072e-01 6.881623e-01 1.003977e+00 1.069209e+00 1.887637e+00 1.045075e+00 1.989400e+00 1.780877e+00 1.114910e+00 2.054296e+00 1.509316e+00 2.548153e-01 8.403254e-02 6.117552e-02 1.095581e-01 1.792803e-01 2.421481e-01 2.640576e-01 1.788868e-01 2.942903e-01 2.559820e-01 2.623370e-01 3.046288e-01 2.347482e-01 3.526636e-02
<GCONST> 8.169131e+01
<MIXTURE> 2 3.283050e-01
<MEAN> 39
 -2.323171e+00 2.036786e+00 -5.520672e+00 -2.218011e+01 -7.634040e+00 2.945744e+00 -5.611227e-01 -1.330894e+00 1.854994e+00 3.139147e-01 5.303610e+00 1.836762e+00 5.479085e+01 -1.738084e+00 1.113878e-01 -6.138245e-01 3.428237e+00 9.334416e-01 -1.044474e+00 3.151164e-01 1.759260e+00 3.498903e-01 1.563287e+00 5.771681e-01 4.574271e-01 -2.642039e+00 -7.310840e-02 -1.094787e-01 3.382167e-02 6.324455e-01 3.411576e-01 7.834948e-02 -8.811028e-02 -1.756786e-01 1.341832e-01 2.071120e-01 -1.580296e-01 -2.289672e-01 -2.751982e-02
<VARIANCE> 39
 1.684666e+01 1.911395e+01 1.751688e+01 6.229094e+01 3.453968e+01 1.152106e+02 2.194735e+01 2.208678e+01 2.627606e+01 2.965971e+01 2.575399e+01 1.516470e+01 3.104766e+01 1.920251e+00 5.552057e-01 1.587396e+00 4.221413e+00 3.802619e+00 5.130981e+00 1.723336e+00 7.856942e-01 1.073993e+00 2.396989e+00 1.435420e+00 1.033502e+00 8.596492e-01 2.216866e-01 7.512794e-02 4.416975e-01 7.323611e-01 3.747870e-01 6.801980e-01 2.599818e-01 4.512324e-01 1.980337e-01 6.609961e-01 3.764625e-01 1.478811e-01 3.204346e-01
<GCONST> 1.066169e+02
<TRANSP> 9
 0.000000e+00 1.000000e+00 0.000000e+00 0.000000e+00 0.000000e+00 0.000000e+00 0.000000e+00 0.000000e+00 0.000000e+00
 0.000000e+00 8.623343e-01 1.376658e-01 0.000000e+00 0.000000e+00 0.000000e+00 0.000000e+00 0.000000e+00 0.000000e+00
 0.000000e+00 0.000000e+00 7.857270e-01 2.142730e-01 0.000000e+00 0.000000e+00 0.000000e+00 0.000000e+00 0.000000e+00
 0.000000e+00 0.000000e+00 0.000000e+00 8.123693e-01 1.876307e-01 0.000000e+00 0.000000e+00 0.000000e+00 0.000000e+00
 0.000000e+00 0.000000e+00 0.000000e+00 0.000000e+00 8.422548e-01 1.577452e-01 0.000000e+00 0.000000e+00 0.000000e+00
 0.000000e+00 0.000000e+00 0.000000e+00 0.000000e+00 0.000000e+00 6.746341e-01 3.253659e-01 0.000000e+00 0.000000e+00
 0.000000e+00 0.000000e+00 0.000000e+00 0.000000e+00 0.000000e+00 0.000000e+00 8.458947e-01 1.541053e-01 0.000000e+00
 0.000000e+00 0.000000e+00 0.000000e+00 0.000000e+00 0.000000e+00 0.000000e+00 0.000000e+00 7.932758e-01 2.067242e-01
 0.000000e+00 0.000000e+00 0.000000e+00 0.000000e+00 0.000000e+00 0.000000e+00 0.000000e+00 0.000000e+00 0.000000e+00
<ENDHMM>
