~o
<STREAMINFO> 1 39
<VECSIZE> 39<NULLD><MFCC_D_A_0><DIAGC>
~h "go"
<BEGINHMM>
<NUMSTATES> 5
<STATE> 2
<MEAN> 39
 -1.176755e+00 5.203892e+00 -9.215421e+00 -1.513633e+01 -3.675198e+00 2.585337e+00 -1.174690e+00 -3.051028e+00 -4.995661e+00 -5.867137e+00 1.482912e+00 -4.907228e-01 6.621656e+01 1.062154e+00 7.598320e-01 5.656652e-01 -2.509579e+00 -1.278948e+00 4.607686e-01 -6.832911e-01 -9.756359e-01 3.920800e-01 -1.144447e+00 7.664374e-01 -3.622099e-01 1.998662e+00 -1.783819e-01 -5.019926e-02 5.311015e-01 2.839484e-01 1.279952e-01 -5.447180e-02 2.335355e-02 1.583085e-02 4.378679e-01 1.338953e-01 -3.817905e-02 5.518594e-02 -3.931869e-01
<VARIANCE> 39
 1.316516e+01 2.413796e+01 4.537918e+01 4.103670e+01 5.377509e+01 5.525762e+01 4.149424e+01 4.605946e+01 2.949852e+01 8.496223e+01 2.880503e+01 2.610273e+01 3.357174e+01 1.145821e+00 2.260448e+00 6.965279e+00 4.239836e+00 5.019452e+00 2.652633e+00 2.417839e+00 3.310200e+00 5.978747e+00 3.102779e+00 3.358754e+00 2.163151e+00 2.281933e+00 1.573988e-01 6.263784e-01 2.194639e+00 7.102845e-01 9.737402e-01 4.692188e-01 3.731541e-01 5.502577e-01 8.582529e-01 6.330872e-01 8.988820e-01 4.563440e-01 2.783830e-01
<GCONST> 1.261986e+02
<STATE> 3
<MEAN> 39
 7.084959e-01 5.850781e+00 -5.725255e+00 -2.529691e+01 -7.312501e+00 2.281366e+00 -2.055640e+00 -4.986213e+00 4.134515e-01 -7.342634e+00 1.326950e+00 3.673761e-01 7.122542e+01 -2.881970e-02 -1.236151e-01 -6.449033e-02 -3.913173e-01 -2.286233e-01 -2.654877e-01 3.235337e-02 2.473387e-01 1.109005e-01 1.448372e-01 -3.332438e-01 2.857698e-01 -3.227647e-01 -7.832509e-02 -1.936876e-02 -1.524709e-02 2.660649e-01 -5.542953e-03 -3.566159e-02 6.256498e-02 7.746533e-02 -9.161964e-02 8.627577e-02 1.992338e-02 1.934147e-03 -2.463729e-01
<VARIANCE> 39
 1.496730e+01 1.171600e+01 1.432711e+01 4.595783e+01 4.951801e+01 5.283195e+01 4.877307e+01 6.356433e+01 4.109103e+01 5.707812e+01 2.330421e+01 1.795905e+01 1.684338e+01 1.826963e-01 5.275089e-01 3.752489e-01 1.011576e+00 7.862560e-01 9.187027e-01 7.077429e-01 9.561799e-01 7.892178e-01 1.023004e+00 6.837867e-01 1.030937e+00 7.895740e-01 4.477789e-02 1.053732e-01 9.854177e-02 1.888471e-01 1.410747e-01 1.246569e-01 1.580620e-01 1.786036e-01 1.680056e-01 1.348252e-01 1.169978e-01 1.869701e-01 5.645486e-02
<GCONST> 8.360706e+01
<STATE> 4
<MEAN> 39
 -4.839470e+00 3.518865e+00 -4.074899e+00 -1.179374e+01 -7.326385e+00 -8.288745e-01 -7.112220e-02 -8.385481e-02 1.081574e+00 -2.832256e+00 1.878755e-02 1.759358e+00 5.455842e+01 -7.767912e-01 -3.501272e-01 2.378105e-01 2.148988e+00 5.659359e-01 -1.125684e-01 4.406857e-01 4.292822e-01 1.447758e-01 6.529656e-01 1.628035e-01 -1.955546e-02 -1.332450e+00 -1.545649e-02 7.771026e-03 5.078538e-02 7.884012e-02 1.351791e-01 4.275576e-02 -8.617712e-02 -9.826657e-02 4.484908e-02 5.995464e-03 9.384058e-02 -5.125112e-03 1.444389e-01
<VARIANCE> 39
 1.209189e+01 4.832049e+00 1.097772e+01 1.201908e+02 4.942883e+01 1.913696e+01 3.343078e+01 2.214172e+01 3.345135e+01 1.777503e+01 1.582211e+01 1.846556e+01 4.790416e+01 6.060264e-01 4.409278e-01 8.434485e-01 3.979791e+00 1.791837e+00 1.459765e+00 1.535984e+00 2.110129e+00 1.735239e+00 1.934494e+00 1.339901e+00 1.345193e+00 1.816968e+00 5.041018e-02 5.860774e-02 1.248123e-01 5.825520e-01 2.380070e-01 2.499502e-01 2.227378e-01 2.297645e-01 2.889197e-01 3.210730e-01 2.710141e-01 2.648454e-01 1.164348e-01
<GCONST> 9.534701e+01
<TRANSP> 5
 0.000000e+00 1.000000e+00 0.000000e+00 0.000000e+00 0.000000e+00
 0.000000e+00 8.166487e-01 1.833513e-01 0.000000e+00 0.000000e+00
 0.000000e+00 0.000000e+00 9.193737e-01 8.062631e-02 0.000000e+00
 0.000000e+00 0.000000e+00 0.000000e+00 8.942454e-01 1.057547e-01
 0.000000e+00 0.000000e+00 0.000000e+00 0.000000e+00 0.000000e+00
<ENDHMM>
~o
<STREAMINFO> 1 39
<VECSIZE> 39<NULLD><MFCC_D_A_0><DIAGC>
~h "hachi"
<BEGINHMM>
<NUMSTATES> 5
<STATE> 2
<MEAN> 39
 -8.509544e+00 -8.433809e+00 -5.067735e+00 -5.687356e+00 7.931405e+00 -8.897241e-01 9.063813e-01 -5.595890e+00 7.066579e+00 -7.195770e+00 -2.569118e+00 -1.994443e+00 6.784558e+01 3.014689e-01 2.211070e-01 -8.229624e-02 -1.296090e-01 -3.416025e-01 -3.504913e-01 2.466280e-01 -9.296847e-02 8.794565e-02 -2.242073e-01 -3.668267e-01 -2.634582e-02 3.220312e-01 9.549929e-03 1.665902e-01 -1.903387e-02 7.686644e-02 -5.671163e-02 1.032257e-01 4.666800e-02 8.589796e-02 -8.362382e-02 1.032234e-01 2.768898e-02 -9.898906e-03 -2.493373e-01
<VARIANCE> 39
 3.976954e+01 2.529982e+01 5.179385e+01 6.466469e+01 5.081915e+01 5.911695e+01 6.641944e+01 5.776235e+01 5.407140e+01 4.248274e+01 3.360608e+01 2.302149e+01 5.836627e+01 2.582981e+00 2.605096e+00 2.729541e+00 2.924379e+00 3.052374e+00 3.833146e+00 3.652935e+00 3.587061e+00 2.334598e+00 2.547096e+00 1.693643e+00 1.834712e+00 5.556130e+00 4.282789e-01 4.594101e-01 4.841672e-01 4.425372e-01 5.101938e-01 6.967531e-01 6.338733e-01 5.498950e-01 4.016808e-01 3.200106e-01 3.213746e-01 3.368545e-01 3.887413e-01
<GCONST> 1.245984e+02
<STATE> 3
<MEAN> 39
 -1.544000e+01 2.606795e+00 -2.660676e+00 -7.904971e-01 2.739765e+00 -2.420429e+00 1.871267e+00 -1.216748e+00 2.192936e-01 -1.899513e+00 -5.327511e-02 4.223668e-01 6.052626e+01 -1.036575e+00 6.263503e-01 5.421348e-01 -2.270903e-01 -1.612113e-01 -3.636488e-01 -1.068954e-01 -2.567528e-01 -7.788785e-01 1.742284e-04 3.402466e-01 -3.999783e-02 5.729606e-01 8.049303e-02 -1.137544e-01 1.044128e-01 -7.755080e-02 -6.689068e-02 -8.817390e-02 -2.321330e-02 -9.188226e-02 2.454361e-02 -6.199963e-02 -2.767588e-02 -1.859823e-02 2.001382e-01
<VARIANCE> 39
 7.289970e+01 2.250835e+01 3.561793e+01 2.080160e+01 2.572493e+01 3.615934e+01 1.751892e+01 2.352111e+01 3.829650e+01 4.095890e+01 2.474364e+01 1.560593e+01 5.250299e+01 6.194654e+00 1.675955e+00 2.421712e+00 1.354459e+00 3.864173e+00 3.928627e+00 1.861683e+00 1.718627e+00 2.757430e+00 2.781798e+00 2.349878e+00 1.598791e+00 3.822721e+00 8.545530e-01 2.975503e-01 3.330692e-01 2.224219e-01 7.232876e-01 6.450576e-01 3.198849e-01 3.093994e-01 4.919317e-01 4.688410e-01 3.810513e-01 3.183277e-01 4.238205e-01
<GCONST> 1.164505e+02
<STATE> 4
<MEAN> 39
 -1.854404e+01 3.684910e+00 4.397513e+00 -7.609025e+00 -6.388983e-01 -4.293869e+00 -1.178438e+00 -3.639200e+00 -8.063903e-01 -1.413795e+00 2.946066e+00 -1.125571e+00 6.465822e+01 4.591007e-01 -2.516255e-01 -8.298548e-02 2.816501e-01 1.372545e-02 4.362260e-01 -4.549784e-02 1.508370e-01 1.949018e-01 1.832126e-01 1.420444e-01 4.227521e-02 -8.235935e-01 -7.833479e-03 1.071961e-02 -1.273750e-01 9.838706e-02 8.479668e-02 3.268439e-02 5.092977e-02 5.547468e-02 6.304664e-02 1.195866e-02 -2.996138e-02 4.656591e-02 -6.949928e-02
<VARIANCE> 39
 9.519884e+01 1.141886e+01 5.421777e+01 2.833233e+01 5.370411e+01 1.888178e+01 3.733210e+01 4.678630e+01 5.769371e+01 5.461573e+01 1.722590e+01 2.047331e+01 5.091909e+01 8.067867e-01 4.261834e-01 1.608736e+00 1.404256e+00 1.811466e+00 1.031272e+00 2.117448e+00 1.560006e+00 1.468111e+00 1.615901e+00 1.364854e+00 1.175722e+00 7.626888e-01 9.731524e-02 8.107368e-02 1.717653e-01 1.755810e-01 2.994084e-01 1.801759e-01 3.359870e-01 2.154621e-01 2.750436e-01 3.039339e-01 2.191147e-01 1.703671e-01 8.148340e-02
<GCONST> 9.871093e+01
<TRANSP> 5
 0.000000e+00 1.000000e+00 0.000000e+00 0.000000e+00 0.000000e+00
 0.000000e+00 9.420516e-01 5.794841e-02 0.000000e+00 0.000000e+00
 0.000000e+00 0.000000e+00 9.258471e-01 7.415293e-02 0.000000e+00
 0.000000e+00 0.000000e+00 0.000000e+00 9.500185e-01 4.998149e-02
 0.000000e+00 0.000000e+00 0.000000e+00 0.000000e+00 0.000000e+00
<ENDHMM>
~o
<STREAMINFO> 1 39
<VECSIZE> 39<NULLD><MFCC_D_A_0><DIAGC>
~h "ichi"
<BEGINHMM>
<NUMSTATES> 5
<STATE> 2
<MEAN> 39
 -9.778956e+00 9.527733e+00 1.457722e+01 -6.217139e+00 -4.608099e+00 -1.765951e+00 -9.989478e+00 -7.465437e+00 -2.496868e+00 -8.031057e+00 9.375650e-01 -3.102243e+00 6.396588e+01 1.437672e-01 1.497316e-01 -1.068532e-01 3.432209e-01 1.492135e-01 -9.321989e-02 1.049363e-01 -6.022812e-02 -2.424502e-01 -3.850783e-03 -2.021496e-01 -1.211967e-01 -1.593911e-01 -4.569614e-02 -2.836573e-01 -4.599146e-01 2.842839e-01 2.123522e-01 1.130607e-01 3.172618e-01 2.260392e-01 9.254613e-02 2.288219e-01 2.199396e-02 1.461741e-01 -3.927169e-01
<VARIANCE> 39
 8.743090e+00 2.634515e+01 4.287694e+01 6.668791e+01 5.193342e+01 5.472784e+01 3.743967e+01 3.302406e+01 4.055551e+01 5.247029e+01 5.653726e+01 2.720979e+01 4.129273e+01 7.803730e-01 2.529139e+00 5.201318e+00 3.848289e+00 3.336987e+00 2.755005e+00 3.951628e+00 2.581177e+00 2.534395e+00 2.562373e+00 2.197145e+00 1.760824e+00 6.054688e+00 1.280322e-01 2.676384e-01 3.433416e-01 5.249640e-01 3.682848e-01 4.209622e-01 5.270576e-01 3.710512e-01 4.889383e-01 3.522364e-01 3.330935e-01 3.298682e-01 3.791649e-01
<GCONST> 1.185913e+02
<STATE> 3
<MEAN> 39
 -2.186439e+01 3.906409e+00 -6.350975e-01 -2.523696e+00 3.385253e+00 -1.648443e+00 1.049993e+00 -1.685333e+00 1.754505e+00 -8.046652e-02 2.024384e+00 7.891428e-01 6.212326e+01 -3.718523e-01 -1.037186e-01 -1.315247e-01 -1.983863e-01 8.431649e-02 -1.366189e-01 1.982444e-01 3.938214e-02 7.429498e-02 9.842051e-02 -5.239898e-02 3.393789e-02 3.160279e-01 1.070039e-01 7.788946e-02 1.302562e-01 -3.196677e-02 -6.308611e-02 -4.577434e-02 -7.839467e-02 -8.555533e-02 -7.247908e-02 -4.742225e-02 -5.728571e-02 -5.734028e-02 5.990095e-02
<VARIANCE> 39
 7.522604e+01 1.309772e+01 2.394261e+01 4.289075e+01 1.435658e+01 2.150810e+01 2.065126e+01 1.896739e+01 1.565325e+01 2.647048e+01 1.460749e+01 1.088186e+01 7.032684e+01 2.870276e+00 1.067744e+00 1.551695e+00 9.905282e-01 1.173595e+00 1.586116e+00 1.529847e+00 1.620139e+00 1.555699e+00 1.480665e+00 1.353800e+00 9.998887e-01 1.979847e+00 3.743373e-01 1.564729e-01 2.285106e-01 1.567827e-01 2.796466e-01 3.118501e-01 2.940147e-01 2.851504e-01 2.663114e-01 2.566489e-01 2.054801e-01 1.765596e-01 2.133164e-01
<GCONST> 9.882568e+01
<STATE> 4
<MEAN> 39
 -1.168979e+01 3.350316e+00 9.655586e+00 -5.541350e+00 -6.068916e+00 -4.642951e+00 -6.642798e+00 -8.043096e+00 -6.413289e+00 -2.709750e+00 -6.737797e-01 -3.389434e+00 6.227909e+01 7.058076e-01 -2.404250e-01 -3.917255e-02 2.781864e-01 -3.135214e-01 2.086172e-01 -2.125270e-01 1.122876e-01 4.602928e-02 2.353521e-01 3.712758e-01 1.781248e-01 -9.266769e-01 -1.779820e-01 -5.814107e-02 -2.156267e-01 1.036570e-01 1.430019e-01 1.035797e-01 1.723136e-01 1.471334e-01 1.645191e-01 7.976017e-02 1.087647e-01 1.111146e-01 -4.594555e-02
<VARIANCE> 39
 1.503356e+01 1.593424e+01 5.199571e+01 4.355697e+01 7.193301e+01 1.637078e+01 5.221592e+01 3.725752e+01 3.392139e+01 4.168802e+01 2.256057e+01 1.809062e+01 6.299233e+01 1.930064e+00 5.036166e-01 3.529877e+00 2.697832e+00 4.129898e+00 1.630139e+00 3.406749e+00 2.095782e+00 2.039422e+00 1.871707e+00 1.727244e+00 2.056491e+00 1.316161e+00 1.386592e-01 1.029179e-01 2.682059e-01 2.961149e-01 4.315598e-01 3.126402e-01 3.864217e-01 2.684845e-01 3.417012e-01 3.346910e-01 3.713357e-01 3.544776e-01 1.179734e-01
<GCONST> 1.085294e+02
<TRANSP> 5
 0.000000e+00 1.000000e+00 0.000000e+00 0.000000e+00 0.000000e+00
 0.000000e+00 9.219831e-01 7.801685e-02 0.000000e+00 0.000000e+00
 0.000000e+00 0.000000e+00 9.622816e-01 3.771839e-02 0.000000e+00
 0.000000e+00 0.000000e+00 0.000000e+00 9.143072e-01 8.569282e-02
 0.000000e+00 0.000000e+00 0.000000e+00 0.000000e+00 0.000000e+00
<ENDHMM>
~o
<STREAMINFO> 1 39
<VECSIZE> 39<NULLD><MFCC_D_A_0><DIAGC>
~h "kyuu"
<BEGINHMM>
<NUMSTATES> 5
<STATE> 2
<MEAN> 39
 -1.732938e+01 -1.136965e+00 8.209000e+00 -3.197678e+00 -9.829312e+00 -2.019741e+00 -2.317859e+00 -9.333368e+00 1.379645e+00 -3.629044e+00 5.384403e-01 2.582160e-01 6.743488e+01 9.119039e-01 1.478099e-01 1.113490e+00 3.585421e-02 -1.836732e+00 -1.510750e+00 -4.602946e-01 -8.913418e-01 -1.135165e+00 -5.723352e-01 2.018167e-01 -5.113863e-01 1.276191e+00 3.312917e-01 -2.104764e-02 -1.439353e-01 1.893876e-01 8.262967e-02 -1.345228e-01 3.059427e-02 2.344997e-01 -1.401269e-01 -3.631455e-02 1.625790e-01 -2.764435e-02 -2.747184e-01
<VARIANCE> 39
 4.037381e+01 2.531926e+01 3.969937e+01 1.988569e+01 6.172543e+01 4.705353e+01 3.183253e+01 4.685429e+01 6.814561e+01 4.010568e+01 2.378679e+01 2.841242e+01 3.501846e+01 5.573719e+00 1.854013e+00 2.032603e+00 2.308605e+00 3.643186e+00 3.836376e+00 2.410107e+00 3.712173e+00 4.847428e+00 3.106967e+00 4.136942e+00 2.814219e+00 1.852134e+00 9.176859e-01 4.107163e-01 4.590921e-01 4.269789e-01 6.878744e-01 7.020540e-01 4.624636e-01 7.416285e-01 9.214407e-01 4.881285e-01 5.567486e-01 5.769401e-01 3.873063e-01
<GCONST> 1.257515e+02
<STATE> 3
<MEAN> 39
 -6.029143e+00 -2.175701e+00 9.160139e+00 -1.389854e-01 -1.520238e+01 -1.536088e+01 -1.023724e+01 -6.381280e+00 -5.555319e+00 -1.075311e+01 5.480628e+00 2.485404e-01 7.285291e+01 3.805389e-01 5.081818e-02 -5.218970e-01 1.497262e-01 7.410383e-01 -4.209897e-01 -5.295877e-01 5.711486e-01 4.069056e-01 -9.221871e-03 -7.706740e-02 6.530137e-01 -3.091412e-01 -4.626668e-02 1.193592e-01 -1.605843e-02 1.124420e-02 1.126296e-01 1.328505e-01 3.784194e-02 -1.014362e-01 1.829607e-02 1.284413e-01 -1.431784e-01 3.903235e-02 -1.376600e-01
<VARIANCE> 39
 1.516486e+01 2.992325e+01 1.845246e+01 1.518589e+01 6.237068e+01 1.978640e+01 4.687600e+01 2.947157e+01 6.388533e+01 8.148127e+01 3.973246e+01 2.732517e+01 1.679459e+01 1.424765e-01 5.030062e-01 3.891894e-01 6.230162e-01 5.759049e-01 1.005098e+00 1.117148e+00 1.096053e+00 9.413164e-01 1.433543e+00 1.712039e+00 1.644686e+00 3.357769e-01 4.426492e-02 5.861253e-02 7.846065e-02 9.739977e-02 2.262554e-01 2.077318e-01 2.147763e-01 1.781656e-01 2.024930e-01 2.617703e-01 3.385840e-01 2.979793e-01 3.233994e-02
<GCONST> 8.618290e+01
<STATE> 4
<MEAN> 39
 -4.476368e+00 1.606064e+00 4.316047e+00 1.511142e+00 -5.442727e+00 -1.312934e+01 -9.712620e+00 -4.044057e+00 -2.437133e+00 -3.919164e+00 3.014856e+00 2.874716e+00 6.149394e+01 -4.406243e-01 1.306514e-01 -4.359154e-01 2.200695e-01 8.457326e-01 1.252583e+00 8.023678e-01 1.509789e-01 -2.387042e-02 5.775998e-01 -1.291865e-01 -2.400886e-01 -1.269252e+00 -7.223002e-02 -8.027110e-02 -1.683551e-02 -6.515103e-03 1.273880e-02 1.457208e-01 1.116123e-01 6.713948e-02 3.794003e-02 -5.579360e-02 -2.105591e-02 -5.455075e-02 3.033541e-02
<VARIANCE> 39
 1.181783e+01 1.155879e+01 1.720926e+01 2.464493e+01 4.190770e+01 4.595859e+01 6.601189e+01 1.789665e+01 2.591353e+01 3.066172e+01 2.771857e+01 2.349108e+01 4.193118e+01 4.476381e-01 1.026169e+00 6.703858e-01 7.245720e-01 1.270661e+00 2.068876e+00 1.800418e+00 1.608261e+00 9.925449e-01 1.188895e+00 1.506039e+00 1.177322e+00 7.406180e-01 5.871397e-02 1.693814e-01 1.061582e-01 1.523092e-01 1.929952e-01 3.615763e-01 2.685534e-01 2.648464e-01 1.662915e-01 2.347967e-01 2.504330e-01 2.069919e-01 1.136218e-01
<GCONST> 9.272359e+01
<TRANSP> 5
 0.000000e+00 1.000000e+00 0.000000e+00 0.000000e+00 0.000000e+00
 0.000000e+00 8.992094e-01 1.007905e-01 0.000000e+00 0.000000e+00
 0.000000e+00 0.000000e+00 9.217839e-01 7.821614e-02 0.000000e+00
 0.000000e+00 0.000000e+00 0.000000e+00 9.173097e-01 8.269027e-02
 0.000000e+00 0.000000e+00 0.000000e+00 0.000000e+00 0.000000e+00
<ENDHMM>
~o
<STREAMINFO> 1 39
<VECSIZE> 39<NULLD><MFCC_D_A_0><DIAGC>
~h "ni"
<BEGINHMM>
<NUMSTATES> 5
<STATE> 2
<MEAN> 39
 -3.245507e+00 8.812760e+00 7.974677e+00 -2.805821e+00 -4.273705e+00 -1.303336e+00 -5.206695e+00 -1.061690e+01 -2.877272e+00 -2.172251e+00 -2.079439e-01 -3.011865e+00 6.147707e+01 -1.350600e-01 3.212160e-01 1.265721e+00 -2.304635e+00 -5.564150e-01 2.730938e-01 -1.329737e+00 -6.954939e-01 -7.127561e-02 -1.196747e-01 6.938631e-02 -5.744234e-01 1.905580e+00 -2.760358e-01 -2.764005e-01 -8.879653e-02 -1.386844e-01 9.960818e-02 2.607141e-01 2.824491e-02 3.518840e-01 8.598349e-02 -7.031498e-04 7.545567e-02 -1.606926e-03 -1.335773e-01
<VARIANCE> 39
 1.942044e+01 1.097973e+01 3.339878e+01 8.396616e+01 4.944351e+01 2.997808e+01 3.233056e+01 5.066602e+01 7.766174e+01 5.495101e+01 2.188642e+01 2.696588e+01 4.571593e+01 2.520556e+00 1.189708e+00 1.375852e+00 4.749933e+00 2.472633e+00 2.742392e+00 2.279429e+00 4.066116e+00 3.188349e+00 1.482688e+00 2.168275e+00 2.042129e+00 6.120115e-01 2.755804e-01 1.648949e-01 2.304731e-01 9.868154e-01 3.782315e-01 3.928879e-01 4.282618e-01 6.409031e-01 5.400317e-01 2.976341e-01 4.252543e-01 3.855871e-01 1.263674e-01
<GCONST> 1.144329e+02
<STATE> 3
<MEAN> 39
 -8.683456e+00 6.985328e+00 1.478268e+01 -1.772737e+01 -3.829256e+00 6.139703e-01 -1.408084e+01 -9.017135e+00 -1.558609e+00 -6.635887e+00 1.858631e+00 -5.549252e+00 6.914806e+01 -4.967088e-02 -9.622730e-02 -2.416301e-03 -2.209166e-01 -9.812004e-02 -1.814063e-02 -2.118971e-01 1.030260e-01 -8.285660e-02 -1.287384e-01 1.501929e-01 -1.233892e-01 -2.151034e-01 2.389297e-02 2.372194e-02 -1.311818e-01 1.961611e-01 2.635504e-02 -9.880526e-02 1.047256e-01 1.589534e-02 9.253930e-03 9.155342e-02 -7.509392e-03 8.707211e-02 -2.019862e-01
<VARIANCE> 39
 1.422892e+01 1.545769e+01 2.655489e+01 3.395300e+01 5.761539e+01 4.937002e+01 2.247918e+01 3.769583e+01 4.792006e+01 5.903418e+01 4.957367e+01 2.162206e+01 1.688241e+01 1.364631e-01 3.929423e-01 4.721640e-01 6.140817e-01 4.237602e-01 7.753184e-01 1.071958e+00 7.258406e-01 6.057605e-01 9.758503e-01 9.041042e-01 6.585587e-01 3.518276e-01 4.005359e-02 6.575003e-02 8.743793e-02 1.364318e-01 7.061449e-02 1.487103e-01 1.466348e-01 1.696977e-01 1.213506e-01 1.944545e-01 1.677660e-01 1.486313e-01 3.351691e-02
<GCONST> 7.925264e+01
<STATE> 4
<MEAN> 39
 -9.303534e+00 5.374773e+00 8.050277e+00 -9.543084e+00 -1.837434e+00 1.472839e+00 -9.992023e+00 -4.567633e+00 -2.937030e+00 -3.281932e+00 1.347935e+00 -4.236420e+00 5.841612e+01 -2.626793e-01 -5.966992e-01 -1.358586e+00 2.012426e+00 6.875526e-01 5.974274e-02 1.335029e+00 9.870178e-01 2.429463e-01 4.529991e-01 1.545806e-01 8.520451e-01 -1.789580e+00 3.564055e-03 -3.320738e-02 -6.975313e-02 1.021448e-01 5.833066e-02 7.484434e-02 1.854519e-01 1.232055e-02 9.169515e-02 -4.776971e-02 -4.645537e-02 5.518433e-02 1.002852e-01
<VARIANCE> 39
 6.934873e+00 1.365220e+01 3.214241e+01 7.717697e+01 4.607236e+01 3.537780e+01 3.422298e+01 3.735740e+01 2.953239e+01 5.593587e+01 4.197219e+01 2.326131e+01 5.415896e+01 7.388346e-01 7.467117e-01 2.144070e+00 2.188241e+00 1.543919e+00 2.541979e+00 1.879780e+00 2.068486e+00 2.276106e+00 2.470080e+00 1.930887e+00 1.598791e+00 7.694201e-01 7.982594e-02 1.271333e-01 3.976315e-01 5.136705e-01 2.215951e-01 3.949058e-01 3.338364e-01 3.662543e-01 3.207699e-01 3.348880e-01 3.009915e-01 2.819663e-01 1.441936e-01
<GCONST> 1.057966e+02
<TRANSP> 5
 0.000000e+00 1.000000e+00 0.000000e+00 0.000000e+00 0.000000e+00
 0.000000e+00 8.686337e-01 1.313663e-01 0.000000e+00 0.000000e+00
 0.000000e+00 0.000000e+00 9.181045e-01 8.189552e-02 0.000000e+00
 0.000000e+00 0.000000e+00 0.000000e+00 8.786957e-01 1.213043e-01
 0.000000e+00 0.000000e+00 0.000000e+00 0.000000e+00 0.000000e+00
<ENDHMM>
~o
<STREAMINFO> 1 39
<VECSIZE> 39<NULLD><MFCC_D_A_0><DIAGC>
~h "roku"
<BEGINHMM>
<NUMSTATES> 5
<STATE> 2
<MEAN> 39
 -3.783616e-02 1.917022e+00 -3.827945e+00 -7.565372e+00 -3.181998e+00 -3.114350e-01 -9.133964e+00 -1.060497e+01 2.215896e+00 -6.303334e+00 4.663309e+00 -1.975018e+00 6.784268e+01 3.542809e-01 5.450066e-01 -4.665013e-01 -1.413664e+00 -8.978263e-02 7.062258e-01 3.946891e-01 -3.363624e-01 -7.044485e-01 -1.554500e-01 3.602144e-01 1.444974e-01 5.357380e-01 -2.916552e-01 -2.851013e-02 2.495515e-02 1.491697e-01 1.674638e-01 1.534955e-01 3.762243e-01 2.030866e-01 -1.331871e-01 1.868902e-01 -5.277197e-02 2.130017e-01 -4.555354e-01
<VARIANCE> 39
 1.209512e+01 2.592624e+01 2.950797e+01 2.131579e+02 5.771875e+01 8.709323e+01 6.476358e+01 5.004504e+01 5.944867e+01 6.534777e+01 4.222898e+01 4.904015e+01 3.818309e+01 1.650891e+00 1.892054e+00 2.044190e+00 1.009612e+01 3.998766e+00 5.910316e+00 7.070040e+00 4.888392e+00 5.299261e+00 6.604010e+00 3.433703e+00 3.942503e+00 5.318372e+00 2.758589e-01 3.470542e-01 3.941803e-01 1.715098e+00 6.094326e-01 1.154668e+00 1.026027e+00 6.575081e-01 8.147783e-01 1.591968e+00 5.544427e-01 6.733011e-01 2.175604e-01
<GCONST> 1.352914e+02
<STATE> 3
<MEAN> 39
 -7.368320e+00 1.140848e+00 -6.023382e+00 -3.017695e+00 2.597814e+00 -1.957615e+00 -3.094203e+00 -5.529974e+00 -2.914264e+00 6.394978e-02 7.138978e-01 1.210582e+00 5.970082e+01 -3.776837e-01 -4.841345e-01 9.645751e-02 9.246849e-01 -5.686494e-02 -1.090236e+00 -8.937885e-01 -2.209922e-01 4.225156e-01 4.191618e-01 -2.750655e-01 -4.409190e-01 3.788942e-01 1.005985e-01 2.395340e-02 6.635279e-02 -1.462925e-01 -2.435830e-01 -1.104908e-02 -1.655517e-01 -8.641464e-02 1.104523e-01 -1.014884e-01 1.149318e-01 -1.314000e-01 2.216595e-01
<VARIANCE> 39
 1.960502e+01 3.291681e+01 3.089153e+01 4.056050e+01 2.719643e+01 6.689926e+01 5.001951e+01 2.219840e+01 3.822569e+01 4.620665e+01 2.751604e+01 3.738275e+01 6.576255e+01 2.070496e+00 3.301755e+00 4.753962e+00 2.664068e+00 4.799416e+00 3.429697e+00 3.709552e+00 2.730344e+00 3.209167e+00 3.735182e+00 3.089471e+00 3.492956e+00 6.618015e+00 2.205643e-01 6.581798e-01 8.845935e-01 4.307110e-01 8.176557e-01 6.295570e-01 4.917509e-01 4.355453e-01 7.024733e-01 5.883276e-01 5.680314e-01 5.421747e-01 8.359551e-01
<GCONST> 1.273870e+02
<STATE> 4
<MEAN> 39
 -6.887837e+00 -1.081947e+00 -4.688701e-01 7.905743e-01 -5.132726e+00 -1.128895e+01 -1.318216e+01 -5.720561e+00 4.338524e-01 -4.626721e-01 1.109196e+00 -2.453718e+00 6.542898e+01 -1.541010e-01 1.974498e-02 2.322800e-01 1.593876e-02 -5.458752e-02 4.630132e-01 5.944548e-01 3.923697e-01 1.222057e-01 2.365814e-02 2.187945e-01 4.492114e-01 -9.993414e-01 -4.473965e-02 8.433565e-03 -1.181908e-01 -9.270841e-03 1.858485e-01 1.545652e-01 1.995305e-01 6.362578e-02 -4.169487e-02 5.269882e-02 -1.406837e-02 7.569312e-02 -9.792072e-02
<VARIANCE> 39
 2.843448e+01 3.836908e+01 1.339616e+01 1.935637e+01 5.110123e+01 3.438969e+01 6.110938e+01 3.956312e+01 4.722347e+01 5.221469e+01 3.697683e+01 4.612429e+01 6.827356e+01 7.278432e-01 9.539770e-01 5.996446e-01 1.075814e+00 1.829424e+00 2.149173e+00 2.137440e+00 1.459438e+00 1.636926e+00 2.219487e+00 1.284300e+00 1.526201e+00 1.339413e+00 1.027599e-01 1.677625e-01 1.222407e-01 1.699677e-01 2.473706e-01 2.794932e-01 2.707073e-01 2.612377e-01 2.785412e-01 3.402020e-01 2.406783e-01 2.426328e-01 1.251379e-01
<GCONST> 1.023961e+02
<TRANSP> 5
 0.000000e+00 1.000000e+00 0.000000e+00 0.000000e+00 0.000000e+00
 0.000000e+00 9.192855e-01 8.071452e-02 0.000000e+00 0.000000e+00
 0.000000e+00 0.000000e+00 9.318425e-01 6.815752e-02 0.000000e+00
 0.000000e+00 0.000000e+00 0.000000e+00 9.356447e-01 6.435535e-02
 0.000000e+00 0.000000e+00 0.000000e+00 0.000000e+00 0.000000e+00
<ENDHMM>
~o
<STREAMINFO> 1 39
<VECSIZE> 39<NULLD><MFCC_D_A_0><DIAGC>
~h "san"
<BEGINHMM>
<NUMSTATES> 5
<STATE> 2
<MEAN> 39
 -1.858098e+01 1.535603e+00 -6.506122e+00 1.887604e+00 2.124223e+00 -1.042236e+00 1.468261e+00 6.412253e-01 1.823171e+00 -2.938033e+00 1.774646e-01 1.903223e+00 6.283054e+01 6.396954e-01 -6.807653e-01 -2.308868e-01 -5.994492e-01 4.007776e-01 -1.878103e-01 1.571224e-01 -5.010828e-01 2.350548e-01 -4.620862e-01 -5.230163e-01 -4.430999e-01 1.232007e+00 1.405245e-01 -1.382667e-01 1.855213e-02 -1.173650e-01 1.023871e-01 6.352703e-02 1.692801e-02 -1.132977e-01 -5.103069e-03 3.243903e-02 -8.979663e-03 -5.426066e-02 -2.748585e-02
<VARIANCE> 39
 5.619533e+01 2.976712e+01 2.115913e+01 4.809671e+01 2.505849e+01 4.037617e+01 2.195016e+01 4.417469e+01 2.687235e+01 4.091045e+01 3.855305e+01 2.812503e+01 6.830070e+01 4.911309e+00 2.030336e+00 1.212978e+00 2.050771e+00 2.840706e+00 1.869056e+00 2.277865e+00 2.798340e+00 2.333467e+00 2.733655e+00 2.671162e+00 2.915925e+00 1.384944e+00 5.565735e-01 1.919308e-01 1.740552e-01 2.078806e-01 4.003381e-01 3.541844e-01 3.958140e-01 4.160611e-01 4.209607e-01 5.294423e-01 4.572422e-01 5.090526e-01 2.097544e-01
<GCONST> 1.151668e+02
<STATE> 3
<MEAN> 39
 -2.052331e+00 -1.000744e+01 -6.493194e+00 -1.142059e+01 1.390369e+01 -2.381240e+00 2.434037e+00 -9.515846e+00 2.813005e+00 -5.300402e+00 -6.330896e+00 -7.509008e+00 7.480621e+01 3.174350e-01 2.104740e-01 4.692502e-03 5.625901e-02 -1.385624e-01 1.783912e-01 -4.276818e-01 1.544874e-04 -2.390316e-01 3.384601e-01 4.938250e-02 -3.080084e-01 -4.249659e-01 -6.748258e-02 2.452173e-01 1.062910e-01 2.340749e-01 -3.020302e-01 -8.988382e-03 -7.009739e-02 1.651383e-01 -7.618520e-02 1.583402e-02 7.248280e-03 1.225346e-01 -1.674912e-01
<VARIANCE> 39
 1.557442e+01 2.469165e+01 2.631388e+01 2.784182e+01 2.618547e+01 2.380211e+01 4.880419e+01 5.667793e+01 2.985318e+01 6.846306e+01 3.574400e+01 3.215475e+01 8.288830e+00 1.795560e-01 8.053682e-01 7.503518e-01 9.785647e-01 1.286014e+00 6.939956e-01 9.280365e-01 1.745845e+00 1.292197e+00 1.125608e+00 7.182537e-01 9.194499e-01 2.501595e-01 2.960447e-02 1.160686e-01 1.106689e-01 1.342751e-01 1.138444e-01 1.093819e-01 2.039847e-01 3.012631e-01 2.106007e-01 2.253344e-01 1.586666e-01 1.468941e-01 5.363255e-02
<GCONST> 8.528052e+01
<STATE> 4
<MEAN> 39
 -2.600108e+00 -1.607363e+00 1.087833e-01 -1.613188e+00 1.955573e+00 -8.946403e-01 -3.096191e+00 -8.561511e+00 -7.312499e-01 -1.384213e+00 -4.578634e+00 -5.600728e+00 6.241418e+01 -6.417244e-01 6.277100e-01 4.516564e-01 7.966569e-01 -5.996652e-01 1.646430e-01 4.790740e-02 2.857547e-01 -1.634931e-01 3.936729e-01 4.948360e-01 5.947734e-01 -1.390231e+00 -6.464952e-02 -1.117285e-01 -1.653294e-01 -6.824662e-02 1.738238e-01 3.448549e-02 1.005733e-01 1.078236e-01 8.127654e-02 -5.111310e-02 9.087835e-02 3.831043e-02 -2.195074e-03
<VARIANCE> 39
 3.082604e+01 1.418377e+01 3.727397e+01 3.482075e+01 5.573529e+01 2.652898e+01 3.267524e+01 8.507999e+01 4.456058e+01 6.610622e+01 4.151443e+01 2.997212e+01 3.431134e+01 7.251900e-01 8.368514e-01 2.484760e+00 1.066101e+00 1.755482e+00 1.467175e+00 2.012183e+00 2.510017e+00 2.018787e+00 1.941552e+00 3.104492e+00 2.439795e+00 6.230475e-01 7.567436e-02 1.278967e-01 2.767606e-01 1.678402e-01 1.719210e-01 2.395368e-01 3.214397e-01 4.139694e-01 3.037385e-01 3.238834e-01 4.235354e-01 4.468856e-01 8.713458e-02
<GCONST> 1.054254e+02
<TRANSP> 5
 0.000000e+00 1.000000e+00 0.000000e+00 0.000000e+00 0.000000e+00
 0.000000e+00 9.433588e-01 5.664127e-02 0.000000e+00 0.000000e+00
 0.000000e+00 0.000000e+00 9.180928e-01 8.190718e-02 0.000000e+00
 0.000000e+00 0.000000e+00 0.000000e+00 9.189376e-01 8.106236e-02
 0.000000e+00 0.000000e+00 0.000000e+00 0.000000e+00 0.000000e+00
<ENDHMM>
~o
<STREAMINFO> 1 39
<VECSIZE> 39<NULLD><MFCC_D_A_0><DIAGC>
~h "seven"
<BEGINHMM>
<NUMSTATES> 5
<STATE> 2
<MEAN> 39
 -2.924170e+00 4.050369e-01 2.085165e+00 -1.158259e+00 -2.973780e+00 -7.445333e+00 -6.478641e+00 -3.175471e+00 1.993404e+00 -9.536131e+00 -5.117097e+00 -1.348961e+00 6.566470e+01 3.804277e-01 -1.046933e+00 -5.250509e-01 -1.013067e+00 2.776531e-01 -8.324230e-01 -5.224980e-01 6.576037e-01 9.037817e-01 -1.011764e+00 -7.898965e-01 -2.391121e-01 1.998266e+00 -2.136509e-01 -3.763952e-01 -4.054983e-01 -2.182207e-01 4.697617e-01 3.107236e-01 2.426380e-01 1.926149e-01 -1.239793e-02 4.143638e-02 9.028440e-02 -1.598462e-01 3.055380e-02
<VARIANCE> 39
 1.023491e+01 4.248691e+01 3.299754e+01 4.409587e+01 3.655764e+01 3.525371e+01 3.780625e+01 7.424203e+01 7.901067e+01 5.568423e+01 2.870544e+01 2.454057e+01 4.336373e+01 1.187454e+00 5.354891e+00 4.099049e+00 4.463401e+00 5.167035e+00 3.968820e+00 2.440513e+00 7.565101e+00 4.118517e+00 4.018089e+00 2.269722e+00 2.131058e+00 4.370595e+00 1.652208e-01 7.281531e-01 4.865381e-01 6.672219e-01 6.594283e-01 7.076572e-01 4.260535e-01 1.553971e+00 6.907448e-01 6.964772e-01 4.495860e-01 4.240480e-01 4.666694e-01
<GCONST> 1.278346e+02
<STATE> 3
<MEAN> 39
 -3.356041e+00 -6.490943e+00 -3.413734e+00 -8.320473e+00 7.367932e+00 -5.034888e+00 -4.082887e+00 -4.559887e+00 8.579040e+00 -1.071296e+01 -7.738247e+00 -5.028989e+00 7.446894e+01 4.856211e-02 -3.526551e-01 -3.819449e-01 -3.242413e-01 6.095976e-01 4.187632e-01 1.034928e-01 -3.835912e-01 -8.329769e-02 1.474943e-01 1.522237e-01 -4.410387e-01 1.073800e-01 3.007965e-02 1.569202e-01 1.419895e-01 1.083056e-01 -1.291256e-01 1.437689e-02 -1.933860e-03 -1.591834e-01 -3.848048e-02 1.217662e-01 5.669139e-02 7.190491e-02 -1.935565e-01
<VARIANCE> 39
 1.039032e+01 2.748788e+01 5.047079e+01 4.312989e+01 8.098736e+01 2.878878e+01 5.797362e+01 1.192291e+02 4.760650e+01 7.321164e+01 1.529601e+01 2.465874e+01 3.272886e+01 2.674766e-01 3.144104e+00 4.650984e+00 3.058456e+00 3.677975e+00 1.944515e+00 2.633596e+00 6.929585e+00 1.782898e+00 3.193261e+00 9.308239e-01 2.379559e+00 2.442487e+00 4.930127e-02 4.290091e-01 7.478499e-01 4.984907e-01 4.733489e-01 3.409328e-01 3.966810e-01 1.562915e+00 3.141800e-01 5.675842e-01 2.089707e-01 3.928572e-01 4.147688e-01
<GCONST> 1.177220e+02
<STATE> 4
<MEAN> 39
 -4.028809e+00 -6.769156e+00 -8.398917e+00 -8.599634e+00 1.274081e+01 4.167820e+00 -1.399107e+00 -4.591508e+00 1.921264e+00 -4.127769e+00 -3.051713e+00 -8.178671e+00 6.574055e+01 -4.511685e-01 5.914161e-01 1.807839e-01 7.421083e-01 -4.254420e-01 4.502424e-01 3.307390e-01 1.948615e-01 -2.258475e-01 6.846187e-01 4.045959e-01 4.588752e-01 -1.391000e+00 -5.065652e-02 5.381319e-02 4.462399e-02 1.047025e-01 -1.047351e-01 -9.796587e-02 -4.313495e-02 1.152645e-01 9.942197e-03 -4.001040e-02 1.349390e-02 9.649208e-02 -3.485835e-02
<VARIANCE> 39
 1.673182e+01 2.585081e+01 1.763841e+01 4.862260e+01 3.221460e+01 3.083377e+01 4.542577e+01 5.091514e+01 4.279635e+01 2.804748e+01 1.540837e+01 1.598729e+01 6.518171e+01 7.216020e-01 6.443735e-01 1.000782e+00 1.507844e+00 1.722745e+00 1.456913e+00 1.311318e+00 1.839972e+00 1.282945e+00 1.367168e+00 1.062472e+00 1.151815e+00 8.775978e-01 9.100124e-02 1.185194e-01 1.345571e-01 2.100152e-01 2.550694e-01 2.125855e-01 2.205336e-01 2.949668e-01 2.452520e-01 2.669446e-01 1.556394e-01 1.762675e-01 1.256942e-01
<GCONST> 9.586337e+01
<TRANSP> 5
 0.000000e+00 1.000000e+00 0.000000e+00 0.000000e+00 0.000000e+00
 0.000000e+00 8.795701e-01 1.204299e-01 0.000000e+00 0.000000e+00
 0.000000e+00 0.000000e+00 9.398196e-01 6.018037e-02 0.000000e+00
 0.000000e+00 0.000000e+00 0.000000e+00 9.336861e-01 6.631383e-02
 0.000000e+00 0.000000e+00 0.000000e+00 0.000000e+00 0.000000e+00
<ENDHMM>
~o
<STREAMINFO> 1 39
<VECSIZE> 39<NULLD><MFCC_D_A_0><DIAGC>
~h "sil"
<BEGINHMM>
<NUMSTATES> 5
<STATE> 2
<MEAN> 39
 -9.892969e+00 -9.391755e-01 -2.747018e+00 2.635944e+00 2.494510e+00 2.728718e+00 3.097713e-01 -1.904007e+00 -8.548002e-01 -5.282463e-01 2.260033e+00 1.939338e+00 5.096507e+01 -1.129096e-01 -3.506050e-02 -7.134517e-02 2.255343e-01 1.732045e-01 1.739140e-01 2.040774e-01 1.629957e-01 5.837030e-02 2.495793e-02 1.459810e-02 9.218094e-02 -1.895881e-01 2.502551e-02 7.149392e-03 3.963361e-02 -6.498647e-02 -3.678782e-02 -3.243463e-02 -2.950535e-02 -2.266188e-02 2.426655e-03 -8.333114e-03 -2.735725e-02 -2.407215e-02 7.025352e-02
<VARIANCE> 39
 5.166715e+00 1.241642e+01 9.852104e+00 2.538192e+01 1.795729e+01 1.964332e+01 1.462938e+01 2.354691e+01 2.165384e+01 1.719672e+01 1.542464e+01 1.370018e+01 2.259381e+01 3.278423e-01 3.504210e-01 7.000697e-01 1.013848e+00 1.154046e+00 1.246264e+00 1.394952e+00 1.602674e+00 1.408969e+00 1.412974e+00 1.404734e+00 1.276242e+00 2.799008e-01 5.137360e-02 6.265631e-02 1.236755e-01 1.652152e-01 1.972777e-01 2.229467e-01 2.442936e-01 3.007309e-01 2.597447e-01 2.725040e-01 2.654030e-01 2.441860e-01 4.924435e-02
<GCONST> 8.235953e+01
<STATE> 3
<MEAN> 39
 -1.128036e+01 1.110831e+00 -1.375605e+00 1.917296e+00 1.700605e+00 2.380383e+00 1.857088e+00 1.216337e+00 1.446815e+00 8.558886e-01 1.490545e+00 1.304706e+00 4.936819e+01 -7.428271e-03 -9.050335e-03 -3.450171e-03 2.200619e-03 -7.268024e-04 4.229363e-03 -9.767939e-04 -8.190849e-04 -1.226106e-03 3.983505e-03 7.767865e-03 5.489040e-03 -5.911380e-03 1.471894e-03 1.571967e-03 3.299228e-03 -5.647276e-03 -2.348356e-03 -4.817065e-03 -9.348736e-03 -8.222068e-03 -6.167072e-03 -2.221331e-03 7.238690e-05 -3.816386e-03 7.027681e-03
<VARIANCE> 39
 8.316001e+00 5.378039e+00 4.408487e+00 9.608947e+00 9.807348e+00 1.006654e+01 9.688305e+00 1.450791e+01 1.364573e+01 1.281513e+01 1.107939e+01 9.212483e+00 4.683316e+01 7.692811e-02 1.765461e-01 3.051038e-01 4.604316e-01 6.016217e-01 8.077488e-01 8.533607e-01 1.011630e+00 1.065108e+00 1.007998e+00 9.824829e-01 9.004367e-01 2.637550e-02 1.641891e-02 3.762173e-02 6.417438e-02 9.574704e-02 1.249202e-01 1.672001e-01 1.755672e-01 2.086471e-01 2.198871e-01 2.074694e-01 2.023059e-01 1.873089e-01 5.741718e-03
<GCONST> 6.040344e+01
<STATE> 4
<MEAN> 39
 -1.056303e+01 1.157551e+00 -3.654678e-01 1.836223e+00 1.719189e+00 1.827472e+00 4.528685e-02 -5.887830e-01 3.068472e-01 -7.319474e-01 1.105608e+00 9.132811e-01 5.195006e+01 1.160790e-01 2.628616e-01 4.511726e-01 -4.859167e-01 -3.811827e-01 -4.294300e-01 -7.251354e-01 -4.601263e-01 -1.089658e-01 -5.975164e-01 -1.443221e-01 -2.772546e-01 1.195949e+00 3.323706e-02 2.930322e-02 6.990197e-02 -1.483250e-01 -1.588639e-01 -1.131648e-01 -1.442399e-01 -1.126123e-01 -6.799873e-03 -9.673574e-02 1.104561e-02 -3.487913e-02 3.111727e-01
<VARIANCE> 39
 1.910782e+01 1.932650e+01 2.565367e+01 2.556389e+01 1.827341e+01 2.039854e+01 2.103355e+01 2.407100e+01 2.452011e+01 2.732616e+01 1.617633e+01 1.277139e+01 4.970153e+01 2.134332e+00 1.945047e+00 3.829662e+00 2.724654e+00 2.503502e+00 2.270395e+00 2.867539e+00 2.639008e+00 2.622509e+00 2.537302e+00 1.907017e+00 1.617322e+00 2.451345e+00 2.606152e-01 2.911330e-01 5.281766e-01 3.519853e-01 3.647190e-01 3.627450e-01 4.258989e-01 4.119726e-01 4.218963e-01 3.836639e-01 3.105128e-01 2.555990e-01 2.827849e-01
<GCONST> 1.097731e+02
<TRANSP> 5
 0.000000e+00 1.000000e+00 0.000000e+00 0.000000e+00 0.000000e+00
 0.000000e+00 8.781582e-01 1.218418e-01 0.000000e+00 0.000000e+00
 0.000000e+00 0.000000e+00 9.685213e-01 3.147873e-02 0.000000e+00
 0.000000e+00 0.000000e+00 0.000000e+00 7.319638e-01 2.680362e-01
 0.000000e+00 0.000000e+00 0.000000e+00 0.000000e+00 0.000000e+00
<ENDHMM>
~o
<STREAMINFO> 1 39
<VECSIZE> 39<NULLD><MFCC_D_A_0><DIAGC>
~h "yon"
<BEGINHMM>
<NUMSTATES> 5
<STATE> 2
<MEAN> 39
 -4.858255e+00 4.311435e-02 9.839292e+00 -3.916446e+00 -1.076957e+01 -3.891091e+00 -1.029318e+01 -4.913426e+00 -1.205850e+00 -6.658017e+00 3.496908e+00 -4.088309e+00 6.914622e+01 1.043985e+00 -1.213212e+00 -1.935552e+00 -1.188014e+00 1.882300e-01 -5.807962e-01 -8.106652e-01 -2.817962e-01 9.921165e-01 4.245571e-01 -3.853329e-01 -1.028649e+00 2.175681e+00 -6.500470e-02 -8.927216e-02 -8.284392e-01 -1.493361e-01 7.173288e-01 4.768174e-01 4.125475e-01 -3.556151e-02 1.295539e-01 2.244830e-01 -9.512618e-02 9.300300e-02 -3.695700e-01
<VARIANCE> 39
 1.523882e+01 3.881271e+01 1.199705e+02 5.546663e+01 8.547354e+01 3.751217e+01 5.314010e+01 4.275977e+01 7.947997e+01 6.861160e+01 3.586467e+01 2.975384e+01 4.309610e+01 3.975810e-01 2.426445e+00 1.349691e+01 3.274583e+00 1.567170e+01 6.470670e+00 3.669233e+00 4.799548e+00 6.633872e+00 3.536689e+00 3.223311e+00 2.254736e+00 2.097672e+00 6.032072e-02 7.274608e-01 1.873571e+00 6.149311e-01 1.820691e+00 1.016121e+00 7.197735e-01 1.100555e+00 1.659030e+00 9.072258e-01 6.861607e-01 6.628802e-01 1.580362e-01
<GCONST> 1.342980e+02
<STATE> 3
<MEAN> 39
 3.145668e-01 -2.550277e+00 -7.240113e+00 -1.427829e+01 -1.363968e+00 4.002075e+00 -4.262153e+00 -6.714736e+00 -1.286474e+00 -6.561909e+00 -2.821990e-01 -6.411344e+00 7.261002e+01 1.510598e-01 4.690354e-01 2.390487e-01 1.224244e-01 -1.269776e-01 3.293386e-01 8.040500e-01 1.545606e-01 -9.786859e-01 -3.272062e-02 -4.980876e-01 2.712898e-01 -6.148670e-01 -7.726242e-02 6.016205e-02 3.347057e-01 3.431040e-01 -1.495098e-01 -3.081433e-01 -7.247385e-02 1.253479e-01 -1.688099e-02 5.226142e-02 -9.207164e-02 4.845924e-02 -1.183922e-01
<VARIANCE> 39
 1.284834e+01 1.424664e+01 2.018874e+01 4.015207e+01 4.067234e+01 4.924022e+01 5.885929e+01 5.300932e+01 5.663825e+01 7.595766e+01 4.727605e+01 1.676045e+01 1.734743e+01 1.952144e-01 3.573312e-01 1.464368e+00 3.249694e+00 1.429801e+00 2.659477e+00 2.142977e+00 2.497269e+00 1.818399e+00 3.910259e+00 2.265572e+00 1.832855e+00 2.439369e-01 2.921164e-02 5.898300e-02 2.337941e-01 2.262422e-01 3.612015e-01 2.395405e-01 3.800571e-01 5.002493e-01 3.918279e-01 6.056814e-01 3.754560e-01 4.301980e-01 1.750918e-02
<GCONST> 1.002956e+02
<STATE> 4
<MEAN> 39
 -3.822053e+00 2.559517e+00 2.111156e+00 -1.075389e+00 7.667248e-01 -5.110894e-01 -1.636595e+00 -6.262528e+00 -5.254569e+00 -7.330660e-01 -6.000570e+00 -3.724896e+00 6.109288e+01 -7.229962e-01 1.328055e-01 3.059538e-01 8.143317e-01 3.100216e-01 -4.392952e-02 2.462752e-01 1.872689e-01 3.374746e-01 2.021540e-01 3.994509e-01 4.919779e-01 -1.156987e+00 -2.679608e-02 -8.868004e-02 -1.636065e-01 -1.231494e-01 -4.301069e-02 1.120016e-01 2.499753e-02 1.519016e-01 8.099479e-02 -1.085029e-01 1.433840e-01 3.754546e-02 1.693387e-02
<VARIANCE> 39
 1.782424e+01 1.145083e+01 1.585369e+01 2.971035e+01 4.067825e+01 2.110115e+01 2.645692e+01 7.748794e+01 2.665293e+01 5.800676e+01 5.014065e+01 2.897397e+01 2.808102e+01 4.534867e-01 9.489262e-01 1.757278e+00 1.126676e+00 1.317908e+00 1.352983e+00 1.673454e+00 2.644892e+00 1.668500e+00 2.627452e+00 1.843089e+00 1.776297e+00 5.349195e-01 6.385530e-02 1.628880e-01 1.888860e-01 1.518378e-01 2.144987e-01 1.924571e-01 2.811645e-01 3.946369e-01 3.032104e-01 3.920881e-01 3.174249e-01 3.145186e-01 7.818954e-02
<GCONST> 9.894941e+01
<TRANSP> 5
 0.000000e+00 1.000000e+00 0.000000e+00 0.000000e+00 0.000000e+00
 0.000000e+00 8.794110e-01 1.205890e-01 0.000000e+00 0.000000e+00
 0.000000e+00 0.000000e+00 9.155837e-01 8.441634e-02 0.000000e+00
 0.000000e+00 0.000000e+00 0.000000e+00 9.186320e-01 8.136795e-02
 0.000000e+00 0.000000e+00 0.000000e+00 0.000000e+00 0.000000e+00
<ENDHMM>
~o
<STREAMINFO> 1 39
<VECSIZE> 39<NULLD><MFCC_D_A_0><DIAGC>
~h "zero"
<BEGINHMM>
<NUMSTATES> 5
<STATE> 2
<MEAN> 39
 -1.015906e+01 9.134977e-01 1.476096e+00 -1.268329e-02 -7.488105e+00 -8.924782e+00 -2.352080e+00 7.840094e-01 -6.796149e-01 -5.433971e+00 2.880686e+00 -8.016179e-01 6.969512e+01 6.704749e-01 -4.475256e-01 4.029489e-01 -2.822599e-01 -7.925144e-01 -7.337093e-01 -4.049632e-01 1.483590e-01 1.190820e-01 -4.375400e-01 2.206122e-02 -1.431190e-01 9.370676e-01 1.430018e-01 -6.599465e-02 -1.065168e-02 6.954657e-02 9.339441e-02 9.820166e-02 -6.871739e-02 -2.534869e-02 1.186001e-01 4.971900e-02 -6.428472e-02 5.162421e-02 -2.105665e-01
<VARIANCE> 39
 4.859619e+01 3.138716e+01 2.912596e+01 4.258154e+01 6.687287e+01 5.215791e+01 5.297455e+01 5.257674e+01 4.604296e+01 4.543737e+01 3.128312e+01 3.014593e+01 6.231959e+01 4.310928e+00 1.948831e+00 1.878295e+00 2.696093e+00 3.325037e+00 3.067593e+00 2.284417e+00 1.979636e+00 1.800936e+00 1.954317e+00 1.842462e+00 2.332894e+00 1.718231e+00 7.169928e-01 2.999145e-01 4.007910e-01 4.001407e-01 5.570625e-01 4.988457e-01 4.046792e-01 4.071019e-01 3.320072e-01 3.989018e-01 2.758365e-01 3.849287e-01 1.530636e-01
<GCONST> 1.190942e+02
<STATE> 3
<MEAN> 39
 5.248424e-01 -6.616415e+00 -1.899918e+00 -2.696305e+00 -1.052822e+01 -5.009468e+00 -1.145928e+01 -1.985473e+00 5.719282e+00 -2.935732e+00 -5.725042e-01 -1.871784e+00 7.060567e+01 5.356896e-01 4.731287e-01 -1.400419e+00 -1.048961e+00 8.911015e-01 1.989761e+00 -3.790736e-01 -1.343671e+00 -6.957761e-02 1.051999e+00 2.013037e-01 -1.579742e-01 -3.343289e-01 -1.359544e-01 2.834550e-01 6.280264e-02 -5.127813e-01 1.081054e-02 1.369545e-01 3.808655e-01 -3.025114e-02 -3.392489e-01 -7.063815e-02 1.826375e-01 9.986194e-02 7.178559e-03
<VARIANCE> 39
 1.717347e+01 1.568779e+01 4.569941e+01 1.151167e+02 5.039292e+01 6.754568e+01 3.846940e+01 3.303354e+01 3.868002e+01 4.748293e+01 2.933945e+01 3.765760e+01 1.396405e+01 6.321460e-01 1.691679e+00 1.823783e+00 9.569051e+00 2.365391e+00 3.780896e+00 4.040506e+00 2.073189e+00 5.535425e+00 2.666664e+00 3.879972e+00 3.983162e+00 1.827366e+00 9.802005e-02 2.172005e-01 5.050312e-01 1.219329e+00 5.046005e-01 7.708789e-01 6.523100e-01 4.098175e-01 7.944211e-01 7.514351e-01 7.078176e-01 9.538063e-01 4.027887e-01
<GCONST> 1.231409e+02
<STATE> 4
<MEAN> 39
 -1.614304e+00 3.400668e+00 -5.688377e+00 -1.551003e+01 -4.695517e+00 4.193769e+00 -3.314110e+00 -2.896438e+00 -1.573482e+00 -9.733341e-01 2.897934e+00 2.067783e+00 6.335699e+01 -6.702139e-01 2.555231e-01 2.807982e-01 4.325501e-01 3.256462e-01 -2.927924e-01 8.027686e-01 7.013463e-01 6.436219e-04 -1.238310e-01 -5.896393e-03 4.861977e-01 -1.271550e+00 -6.322341e-02 -1.752178e-01 2.267504e-02 4.056590e-01 3.732701e-02 -1.327559e-01 -9.995778e-02 6.132348e-02 1.635997e-01 5.326857e-02 -7.544853e-02 -1.020708e-01 -1.468401e-02
<VARIANCE> 39
 1.832565e+01 1.168321e+01 1.476911e+01 1.070744e+02 3.338573e+01 6.783928e+01 1.847351e+01 3.128708e+01 3.209553e+01 4.419926e+01 1.931052e+01 2.710004e+01 4.421806e+01 9.459890e-01 1.073493e+00 9.526468e-01 5.705643e+00 1.544406e+00 2.568180e+00 1.771791e+00 1.630414e+00 1.800810e+00 2.977238e+00 2.167744e+00 1.410200e+00 6.548790e-01 1.089270e-01 8.049110e-02 1.978651e-01 3.767863e-01 2.528903e-01 4.088666e-01 2.683319e-01 3.546631e-01 2.637676e-01 5.473539e-01 4.174386e-01 2.090991e-01 8.122677e-02
<GCONST> 1.034830e+02
<TRANSP> 5
 0.000000e+00 1.000000e+00 0.000000e+00 0.000000e+00 0.000000e+00
 0.000000e+00 9.389774e-01 6.102268e-02 0.000000e+00 0.000000e+00
 0.000000e+00 0.000000e+00 8.847631e-01 1.152370e-01 0.000000e+00
 0.000000e+00 0.000000e+00 0.000000e+00 9.226888e-01 7.731120e-02
 0.000000e+00 0.000000e+00 0.000000e+00 0.000000e+00 0.000000e+00
<ENDHMM>
