~o
<STREAMINFO> 1 39
<VECSIZE> 39<NULLD><MFCC_D_A_0><DIAGC>
~h "go"
<BEGINHMM>
<NUMSTATES> 5
<STATE> 2
<NUMMIXES> 3
<MIXTURE> 1 4.743893e-01
<MEAN> 39
 -2.361155e+00 3.288253e+00 -1.260947e+01 -1.556742e+01 -1.546116e+00 1.107837e+00 -4.895970e-02 -1.234375e+00 -7.717373e+00 -3.565900e+00 3.250033e-01 1.756290e-01 6.722157e+01 1.499216e+00 1.078934e+00 7.280120e-01 -2.720444e+00 -1.813105e+00 5.230094e-01 -1.185364e+00 -1.020221e+00 -2.710071e-01 -1.842465e+00 1.074276e+00 -7.414357e-01 2.216463e+00 -1.126240e-01 2.718940e-01 1.317984e+00 6.579949e-01 -1.295227e-01 1.574649e-01 -1.762684e-01 -2.393248e-01 8.720053e-01 -6.950120e-02 2.368989e-01 -1.496550e-01 -5.935066e-01
<VARIANCE> 39
 9.133035e+00 2.299026e+01 3.731998e+01 2.414878e+01 1.864228e+01 3.189951e+01 2.970170e+01 5.097032e+01 1.837525e+01 4.972285e+01 2.417788e+01 2.007253e+01 1.369165e+01 1.088743e+00 2.447130e+00 7.683816e+00 5.075630e+00 2.671214e+00 2.562618e+00 1.723661e+00 2.886008e+00 5.588975e+00 2.819105e+00 3.817420e+00 1.802460e+00 2.912679e+00 1.692225e-01 6.663116e-01 1.541561e+00 6.080866e-01 4.326914e-01 3.749952e-01 3.157316e-01 6.262692e-01 6.200519e-01 5.112802e-01 6.861103e-01 2.777829e-01 2.429978e-01
<GCONST> 1.171762e+02
<MIXTURE> 2 2.551163e-01
<MEAN> 39
 -4.677192e+00 5.171957e+00 -3.235041e+00 -6.551591e+00 1.073585e-01 -4.942723e+00 6.039211e-01 -6.051588e+00 -1.992430e+00 -5.347624e-01 -1.934972e+00 1.365098e+00 5.384107e+01 2.565145e-02 -8.327167e-02 -6.482772e-01 -9.057185e-01 8.924935e-01 -2.790630e-01 4.187780e-01 -5.331173e-01 -4.455753e-01 1.576256e-01 1.309924e-01 1.946906e-01 1.271280e+00 -7.068828e-02 -1.304964e-01 4.626139e-02 -3.486838e-01 -2.975566e-01 8.816868e-02 4.016373e-02 8.479147e-02 1.047888e-01 -5.372569e-02 3.058011e-01 -6.506858e-02 8.815626e-02
<VARIANCE> 39
 1.458905e+01 1.470837e+01 2.341129e+01 2.874953e+01 4.586177e+01 1.768385e+01 2.117169e+01 1.585073e+01 1.606219e+01 1.631034e+01 1.768716e+01 1.495788e+01 3.544656e+01 5.729006e-01 1.096664e+00 2.670637e+00 4.793264e+00 5.404484e+00 2.935375e+00 1.379957e+00 2.649400e+00 2.169280e+00 1.612365e+00 2.242424e+00 1.394815e+00 2.501897e+00 1.312019e-01 2.077022e-01 7.136549e-01 5.222741e-01 1.310504e+00 5.691822e-01 3.477188e-01 2.414335e-01 5.547874e-01 3.538651e-01 5.498012e-01 2.110536e-01 7.733761e-02
<GCONST> 1.065393e+02
<MIXTURE> 3 2.704945e-01
<MEAN> 39
 1.990160e+00 8.628031e+00 -4.593704e+00 -2.074279e+01 -1.132821e+01 1.119900e+01 -6.102160e+00 -3.353676e+00 -1.835235e-01 -1.504255e+01 5.787169e+00 -4.086843e+00 7.079104e+01 5.782298e-01 2.284360e-01 1.039739e+00 -2.331022e+00 -1.310002e+00 7.047949e-01 -3.042921e-01 -3.517025e-01 2.238856e+00 -3.581426e-01 -6.671421e-02 -1.161346e-01 1.179372e+00 -3.140779e-01 -5.830469e-01 -9.184651e-01 1.691596e-01 8.811517e-01 -5.650033e-01 4.541233e-01 4.779758e-01 -3.728672e-01 7.296436e-01 -8.229911e-01 5.360152e-01 -3.128619e-01
<VARIANCE> 39
 1.011779e+01 8.885420e+00 9.704529e+00 3.060160e+01 2.712890e+01 4.189470e+00 5.591367e+01 3.601092e+01 2.536032e+01 7.767933e+01 1.211225e+01 2.479029e+01 1.095485e+01 3.203253e-01 1.502041e+00 4.189122e+00 2.194293e+00 3.239566e+00 1.713115e+00 2.285498e+00 4.470382e+00 2.429703e+00 1.565973e+00 2.125516e+00 2.456484e+00 2.847688e-01 7.319029e-02 1.288627e-01 3.663882e-01 4.348904e-01 2.538373e-01 2.496741e-01 1.311275e-01 1.812894e-01 4.176781e-01 3.293836e-01 2.703882e-01 5.429049e-01 1.193275e-01
<GCONST> 9.812556e+01
<STATE> 3
<NUMMIXES> 3
<MIXTURE> 1 4.865248e-01
<MEAN> 39
 -2.351726e+00 4.792636e+00 -3.856901e+00 -2.516594e+01 -2.512296e+00 -3.741613e+00 -9.440720e-01 -8.992187e+00 1.419347e-01 -6.213953e+00 4.203194e+00 8.992642e-01 7.089445e+01 -5.901888e-02 -1.049565e-01 6.400922e-02 -4.334103e-01 -7.407220e-02 1.983708e-01 1.526845e-04 1.602893e-01 3.045870e-01 -1.469251e-01 -1.845186e-02 -1.035191e-01 8.058220e-02 8.826590e-03 3.340047e-02 -6.803775e-02 1.703896e-01 -4.516952e-02 9.300338e-03 7.415843e-02 8.804716e-02 -1.093166e-01 5.758137e-02 -1.004065e-01 3.494058e-02 -1.706717e-01
<VARIANCE> 39
 4.754455e+00 1.131962e+01 1.256318e+01 5.449421e+01 2.557647e+01 1.758899e+01 4.026060e+01 2.616654e+01 3.158562e+01 3.711204e+01 2.225521e+01 1.528618e+01 9.153620e+00 8.590230e-02 1.635585e-01 1.803108e-01 7.110903e-01 2.506799e-01 4.121261e-01 4.652673e-01 5.423779e-01 5.333278e-01 6.021047e-01 4.342108e-01 8.840333e-01 2.052425e-01 2.048071e-02 3.200168e-02 3.372801e-02 1.198647e-01 5.314361e-02 7.464617e-02 1.074749e-01 1.053301e-01 8.313361e-02 1.048806e-01 1.124577e-01 1.422286e-01 4.669746e-02
<GCONST> 6.193394e+01
<MIXTURE> 2 2.855676e-01
<MEAN> 39
 3.918950e+00 6.790650e+00 -5.117763e+00 -3.006912e+01 -1.574000e+01 6.835841e+00 -4.555068e+00 -5.639168e+00 6.242239e+00 -1.440775e+01 -1.810704e+00 2.493804e+00 7.017738e+01 6.388035e-02 -2.890016e-01 -4.761209e-02 -7.434317e-01 -5.578247e-01 -9.238963e-01 4.943956e-02 2.989317e-01 2.119910e-01 5.281522e-01 -6.454906e-01 7.589390e-01 -4.009137e-01 -8.052780e-02 -6.954106e-02 1.753091e-02 2.347406e-01 -9.155463e-02 -8.314832e-02 -4.157181e-02 4.636883e-03 -1.338659e-01 1.940096e-01 1.947421e-01 2.421939e-02 -3.391274e-01
<VARIANCE> 39
 1.339864e+01 1.273001e+01 5.765413e+00 4.973161e+00 2.030626e+01 1.660836e+01 8.230709e+01 1.145018e+02 2.485388e+01 4.992964e+01 1.187557e+01 8.640866e+00 4.756606e+00 1.624652e-01 5.845259e-01 6.102081e-01 6.648696e-01 1.150833e+00 5.792090e-01 7.646570e-01 1.140697e+00 8.120045e-01 9.274117e-01 8.344835e-01 1.359699e+00 5.503080e-01 4.144072e-02 1.598044e-01 1.709076e-01 1.703491e-01 2.263809e-01 1.073505e-01 1.987801e-01 3.441624e-01 1.416704e-01 1.664577e-01 1.312263e-01 2.690953e-01 4.053988e-02
<GCONST> 7.865559e+01
<MIXTURE> 3 2.279077e-01
<MEAN> 39
 -7.514127e+00 2.742862e+00 -2.433391e+00 -1.633980e+00 -2.161565e+00 -5.881702e-01 2.399697e+00 -2.882111e+00 3.977970e-01 -1.207608e+00 -5.382231e-02 -1.061519e-01 4.746247e+01 -1.384302e-02 -2.941178e-02 -4.400398e-02 -6.306290e-03 9.365737e-03 -3.215276e-02 4.492398e-02 -1.872523e-01 1.355462e-02 -1.076473e-01 8.095079e-02 5.932967e-02 1.156968e-02 -1.364644e-02 3.145108e-03 3.151245e-02 -2.451084e-02 -2.962564e-02 -6.955680e-02 -1.274533e-02 -1.498369e-02 9.480691e-03 -6.142016e-02 -2.256538e-02 5.966122e-03 8.735906e-03
<VARIANCE> 39
 5.464112e-01 1.384494e+00 2.433809e+00 4.661436e+00 3.774416e+00 4.733633e+00 9.673199e+00 4.185484e+00 6.486334e+00 7.931977e+00 7.864861e+00 9.865650e+00 1.347280e-01 6.474002e-02 1.061159e-01 3.673831e-01 5.853303e-01 5.345063e-01 6.408706e-01 8.059661e-01 7.061565e-01 7.530560e-01 9.141694e-01 1.216041e+00 1.081720e+00 1.145514e-02 1.333258e-02 1.632726e-02 6.500109e-02 1.139002e-01 1.014532e-01 1.380576e-01 1.382240e-01 1.333773e-01 1.470910e-01 1.866765e-01 2.792536e-01 2.091252e-01 3.471183e-03
<GCONST> 4.027868e+01
<STATE> 4
<NUMMIXES> 3
<MIXTURE> 1 3.922267e-01
<MEAN> 39
 1.560985e+00 6.262014e+00 -9.529085e+00 -1.940922e+01 -6.541537e+00 6.891036e+00 -4.054089e-01 1.317883e+00 -5.387062e+00 -1.533409e+00 -4.168650e-01 -2.288315e+00 7.231052e+01 -3.908569e-01 1.628907e-02 6.235816e-02 6.137804e-01 8.746607e-02 -1.666256e-01 4.807811e-01 2.541503e-01 -1.120864e-01 -1.033051e-01 -4.329636e-01 3.375516e-01 -8.060735e-01 -1.401124e-01 -3.466455e-02 1.393418e-01 3.391767e-01 1.556435e-01 -7.105228e-02 5.244489e-02 1.222914e-03 7.199609e-02 -1.440015e-02 4.565383e-02 -3.323068e-02 -1.889751e-01
<VARIANCE> 39
 9.895986e+00 8.440660e+00 4.967122e+00 1.731764e+01 7.726379e+00 3.057524e+01 1.071521e+01 1.951961e+01 8.867718e+00 6.868357e+00 1.090685e+01 1.278176e+01 2.636865e+01 4.661733e-01 8.931144e-01 5.809329e-01 2.025245e+00 8.372974e-01 9.604982e-01 1.049337e+00 6.986843e-01 1.017521e+00 8.192035e-01 5.018123e-01 5.153717e-01 6.156455e-01 4.809059e-02 1.390577e-01 9.220334e-02 2.682221e-01 1.480717e-01 1.561743e-01 1.097345e-01 1.438144e-01 2.169169e-01 1.160431e-01 6.918740e-02 1.300307e-01 3.152163e-02
<GCONST> 7.194929e+01
<MIXTURE> 2 2.310965e-01
<MEAN> 39
 2.232364e-02 4.846367e+00 -5.115848e+00 -3.125699e+01 -1.354945e+01 -1.827787e+00 -2.154528e+00 -2.613867e+00 4.674062e+00 -8.289892e+00 -5.828777e-01 4.789132e+00 6.185961e+01 -9.157761e-01 -3.611757e-01 -2.456311e-01 2.365954e+00 -3.388352e-01 -6.484559e-01 4.636155e-01 1.682088e+00 -4.657654e-01 1.665842e+00 2.803496e-03 7.967889e-02 -3.280370e+00 -2.721693e-01 -1.245112e-02 1.374073e-01 1.069268e+00 3.495290e-01 1.644327e-01 1.634723e-01 1.461972e-01 4.623897e-02 1.173562e-01 1.549900e-01 -3.229506e-01 -1.774148e-01
<VARIANCE> 39
 9.453380e+00 6.401988e+00 1.237064e+01 1.975372e+01 7.588816e+01 3.190787e+01 7.451633e+01 4.113559e+01 4.074380e+01 2.613529e+01 2.094822e+01 1.639070e+01 3.690062e+01 1.181282e+00 8.107365e-01 6.245244e-01 4.477622e+00 3.273763e+00 1.546227e+00 2.623266e+00 2.747647e+00 2.322061e+00 1.919935e+00 1.208783e+00 1.384323e+00 5.029753e-01 6.049662e-02 8.797768e-02 1.031671e-01 2.076858e-01 3.311718e-01 2.920208e-01 3.622637e-01 2.236069e-01 4.023481e-01 2.462239e-01 1.628277e-01 2.653779e-01 2.773443e-01
<GCONST> 9.875646e+01
<MIXTURE> 3 3.766769e-01
<MEAN> 39
 -5.156805e+00 3.092834e+00 -3.778796e+00 -9.923340e+00 -8.139233e+00 -1.179091e+00 -8.154053e-01 2.370668e+00 1.888992e+00 -2.232776e+00 1.080633e+00 2.386607e+00 5.502950e+01 -9.629437e-01 -5.489173e-01 4.333190e-01 3.102900e+00 1.157066e+00 -7.046173e-02 2.776635e-01 6.377885e-02 4.790572e-01 9.615608e-01 4.103900e-01 5.346325e-02 -1.281326e+00 1.044194e-01 4.471012e-02 -2.677715e-02 -4.186578e-01 7.682449e-02 7.273754e-02 -2.711626e-01 -2.292929e-01 -2.499232e-02 -2.043592e-02 1.426289e-01 1.404703e-01 3.741842e-01
<VARIANCE> 39
 7.141289e+00 4.275160e+00 7.214049e+00 4.138049e+01 3.605074e+01 1.793122e+01 3.328354e+01 1.511829e+01 3.321087e+01 1.675735e+01 1.838084e+01 1.705715e+01 2.504105e+01 3.027001e-01 3.026594e-01 9.420563e-01 2.194921e+00 1.141332e+00 1.765067e+00 1.310219e+00 1.782942e+00 1.496532e+00 1.676086e+00 1.466195e+00 1.559743e+00 5.848223e-01 2.603998e-02 6.041997e-02 1.323133e-01 1.695026e-01 2.218972e-01 1.895591e-01 1.934082e-01 2.443831e-01 2.897308e-01 4.738611e-01 3.231055e-01 2.588130e-01 6.976817e-02
<GCONST> 8.627058e+01
<TRANSP> 5
 0.000000e+00 1.000000e+00 0.000000e+00 0.000000e+00 0.000000e+00
 0.000000e+00 8.505729e-01 1.494271e-01 0.000000e+00 0.000000e+00
 0.000000e+00 0.000000e+00 9.014408e-01 9.855923e-02 0.000000e+00
 0.000000e+00 0.000000e+00 0.000000e+00 9.045261e-01 9.547392e-02
 0.000000e+00 0.000000e+00 0.000000e+00 0.000000e+00 0.000000e+00
<ENDHMM>
~o
<STREAMINFO> 1 39
<VECSIZE> 39<NULLD><MFCC_D_A_0><DIAGC>
~h "hachi"
<BEGINHMM>
<NUMSTATES> 9
<STATE> 2
<NUMMIXES> 3
<MIXTURE> 1 1.948805e-01
<MEAN> 39
 -9.895349e+00 -7.835503e+00 -7.242438e-01 -4.225754e+00 1.324010e+01 6.036285e-01 1.050448e+01 -8.664559e+00 7.130904e+00 -4.760838e+00 -1.498607e+00 -2.243276e+00 7.044707e+01 2.520551e+00 1.856082e+00 -2.456105e-01 -2.026066e+00 7.446518e-01 -6.374484e-01 1.731888e+00 -9.811605e-01 3.987511e-01 -1.074613e+00 -1.209198e+00 -3.864004e-01 2.138821e+00 1.200705e-01 -2.481942e-01 -4.591172e-01 -5.707129e-01 -3.605735e-01 -7.186197e-01 -6.455401e-01 -8.651357e-02 3.296407e-02 4.266365e-02 -1.267160e-01 1.082831e-01 2.067618e-02
<VARIANCE> 39
 2.291595e+01 1.902465e+01 8.185719e+00 1.584356e+01 1.731624e+01 9.735200e+00 2.435405e+01 2.774298e+01 1.353189e+01 2.548896e+01 2.771375e+01 1.580717e+01 2.572855e+01 9.718196e-01 1.050009e+00 2.266667e+00 2.994662e+00 4.723332e-01 2.499168e+00 2.321921e+00 1.683103e+00 1.524998e+00 1.207714e+00 1.667411e+00 7.540969e-01 3.730523e-01 5.161957e-01 7.204816e-01 1.113927e-01 2.415660e-01 9.198715e-02 2.038180e-01 2.946217e-01 1.811556e-01 3.637113e-01 2.214221e-01 2.525848e-01 1.513471e-01 8.756937e-02
<GCONST> 9.302418e+01
<MIXTURE> 2 6.726571e-01
<MEAN> 39
 -1.488808e+01 -1.048637e+01 -4.917997e+00 -2.419796e+00 1.116323e+01 3.777582e+00 -3.680695e+00 1.001258e+00 2.895326e+00 -3.409693e+00 6.913242e-01 -1.396267e-01 6.247165e+01 -5.796757e-01 -9.011038e-01 -1.276106e-01 -2.609370e-01 4.260569e-01 1.066780e-02 5.230184e-01 -3.798792e-01 -7.515613e-02 -8.754548e-01 -3.607036e-01 2.514906e-01 1.643641e+00 3.106951e-01 4.161748e-01 1.259818e-01 1.434036e-01 -2.068558e-01 -2.953482e-02 3.769487e-01 -1.301318e-01 -3.190263e-02 -3.192209e-02 -6.893692e-02 -1.183825e-01 -5.411946e-02
<VARIANCE> 39
 1.794008e+01 1.512604e+01 1.432720e+01 3.455435e+01 1.780184e+01 1.730043e+01 2.623063e+01 2.250578e+01 4.722226e+01 5.577502e+01 1.939989e+01 1.460086e+01 2.177744e+01 6.862780e-01 1.338024e+00 1.198385e+00 1.768381e+00 1.591780e+00 1.074850e+00 2.377634e+00 1.707486e+00 1.276853e+00 1.899053e+00 1.114653e+00 1.472906e+00 8.285366e-01 2.535295e-01 1.873011e-01 2.567606e-01 2.210497e-01 2.668795e-01 2.326743e-01 4.355287e-01 3.386092e-01 2.341896e-01 3.381455e-01 2.745746e-01 3.505972e-01 6.593765e-02
<GCONST> 9.779179e+01
<MIXTURE> 3 1.324623e-01
<MEAN> 39
 -1.297664e+01 -8.870436e+00 6.851326e+00 -4.323211e+00 3.179535e+00 -6.966918e+00 -3.253101e+00 -1.259243e+01 7.505698e+00 -7.652169e+00 5.759759e+00 -7.670689e-01 6.204263e+01 -4.932120e-01 -6.478440e-01 8.601295e-01 -4.796991e-01 2.807848e-01 -1.038035e-01 9.747186e-01 -9.882004e-01 9.306460e-01 -1.102242e+00 6.052661e-01 -5.514297e-01 2.504650e+00 7.131585e-01 6.757831e-01 -8.886600e-01 -2.473076e-02 1.407185e-01 4.917059e-01 4.667310e-01 7.296945e-01 -1.917217e-01 2.057714e-01 -6.437555e-01 -2.615458e-01 -3.176936e-01
<VARIANCE> 39
 5.380149e+00 8.993273e+01 1.472940e+02 6.216223e+01 6.124263e+01 8.169188e+00 5.065429e+01 6.686868e+00 1.541839e+01 2.128697e+01 1.410594e+01 1.332211e+01 1.751450e+01 1.724238e+00 2.984437e+00 8.897286e+00 8.339632e-01 2.967544e+00 2.272366e+00 3.840691e+00 4.304543e+00 2.092651e+00 1.365883e+00 3.610189e+00 6.856127e-01 9.565890e-01 2.342520e-01 8.909110e-01 1.416232e+00 4.815783e-01 4.883976e-01 2.401342e-01 4.166655e-01 2.006903e-01 2.651291e-01 3.268492e-01 3.508543e-01 1.561556e-01 7.951523e-02
<GCONST> 1.087266e+02
<STATE> 3
<NUMMIXES> 3
<MIXTURE> 1 5.758883e-01
<MEAN> 39
 -3.222634e+00 -7.929827e+00 -8.818581e+00 -1.502004e+01 8.182751e+00 -9.036808e-03 4.601922e+00 -1.382953e+01 1.064913e+01 -1.120870e+01 -3.523393e+00 -5.538607e+00 7.495033e+01 3.925952e-01 -4.848408e-01 -1.205048e-04 -5.485856e-01 -1.237412e+00 -1.171570e+00 4.221742e-01 -1.185260e-01 9.970672e-01 -4.117530e-01 -9.040307e-01 -2.348643e-01 9.520792e-01 -4.525235e-01 1.052243e-01 4.740924e-01 4.800166e-01 -3.171987e-01 -1.435205e-01 -4.324389e-01 6.873956e-01 -2.086775e-02 2.631809e-01 1.414241e-01 2.315691e-01 -5.178072e-01
<VARIANCE> 39
 1.155909e+01 3.346645e+01 4.387184e+01 4.353337e+01 4.227870e+01 4.294524e+01 5.900285e+01 2.000002e+01 3.600997e+01 1.675983e+01 1.731449e+01 1.256831e+01 9.764379e+00 1.890767e+00 1.599131e+00 1.546010e+00 2.089308e+00 1.988984e+00 3.149971e+00 3.032594e+00 3.325351e+00 2.303371e+00 1.425474e+00 1.128798e+00 1.097599e+00 1.569003e+00 3.834383e-01 4.731412e-01 3.177101e-01 2.047626e-01 3.538549e-01 4.130768e-01 3.756314e-01 4.895562e-01 3.282913e-01 2.510460e-01 1.730184e-01 2.090146e-01 1.842711e-01
<GCONST> 1.065475e+02
<MIXTURE> 2 1.447359e-01
<MEAN> 39
 -5.045998e+00 -1.067769e-01 -1.520236e-01 -9.961107e+00 9.288714e+00 -1.002532e+01 7.317028e+00 -6.736892e-02 7.269924e+00 -5.766211e+00 -9.048022e+00 1.748892e+00 7.792513e+01 -2.551700e-01 7.852551e-01 -1.015381e+00 1.416619e+00 -7.290036e-01 -1.507028e-01 -1.062675e+00 1.559977e+00 -3.521819e-01 5.541166e-02 -9.205939e-02 9.175952e-02 -1.555728e+00 -2.947617e-01 -3.784816e-02 3.575633e-02 4.711004e-01 1.030166e-01 1.014664e+00 -1.758372e-01 -3.875517e-01 -4.475370e-01 2.205427e-03 6.590605e-01 -1.810723e-01 -1.000046e+00
<VARIANCE> 39
 3.637576e+00 9.134446e+00 2.651815e+01 1.587614e+01 5.507369e+01 2.580381e+01 1.086923e+02 1.877434e+01 4.233892e+01 1.036239e+01 2.621021e+01 2.514702e+01 1.034886e+01 9.308456e-01 1.411285e+00 5.431856e+00 3.272289e+00 6.161613e+00 4.081081e+00 2.577186e+00 2.145808e+00 3.968589e+00 4.931825e-01 2.441273e+00 2.331698e+00 4.944371e+00 1.082437e-01 3.348096e-01 1.435231e-01 9.564230e-01 4.496402e-01 3.168336e-01 4.421477e-01 6.437557e-01 6.406017e-01 8.116136e-02 1.418466e-01 2.172903e-01 2.903824e-01
<GCONST> 1.069281e+02
<MIXTURE> 3 2.793757e-01
<MEAN> 39
 -1.074086e+01 -5.925858e+00 -2.803128e+00 2.111536e-01 5.398375e+00 4.726591e-01 -2.046312e+00 4.186217e-02 -9.219758e-01 -8.628113e+00 -6.575637e-01 -2.076461e+00 6.671392e+01 2.192029e+00 2.077685e+00 -2.564339e-01 -8.542738e-01 -8.240435e-01 -1.042490e+00 3.695610e-01 -1.871001e+00 -6.837859e-01 -8.860630e-01 -6.008100e-01 -1.472107e+00 8.676599e-01 1.175226e-01 -1.973318e-02 -2.519534e-01 -7.971981e-02 1.812201e-01 1.534331e-01 1.884253e-01 -3.092334e-01 3.171298e-01 1.273019e-01 -1.258969e-01 1.152092e-01 -3.130837e-02
<VARIANCE> 39
 2.500813e+01 3.440400e+01 3.976913e+01 9.082550e+01 7.683962e+01 8.254890e+01 3.289640e+01 1.925297e+01 4.175149e+01 2.874630e+01 2.919001e+01 2.017312e+01 1.282214e+01 4.726238e+00 1.001420e+00 4.893813e+00 1.425026e+00 3.136972e+00 4.680598e+00 4.254603e+00 4.127776e+00 1.958891e+00 1.578449e+00 1.535152e+00 2.319967e+00 2.122964e+00 6.553293e-01 7.069173e-01 4.240915e-01 6.159472e-01 7.759152e-01 1.133712e+00 6.935725e-01 5.817017e-01 4.730277e-01 2.062350e-01 2.647789e-01 6.899568e-01 3.002399e-01
<GCONST> 1.216750e+02
<STATE> 4
<NUMMIXES> 3
<MIXTURE> 1 2.118260e-01
<MEAN> 39
 -3.636126e+00 -9.304745e+00 -5.950346e+00 -9.197351e+00 1.106056e+00 -9.549837e+00 1.267971e+00 -9.307463e+00 1.418707e+01 -1.146050e+01 -5.918723e+00 -3.585441e+00 7.523581e+01 3.111507e-01 1.806097e+00 1.327729e+00 2.246080e+00 -9.609855e-01 -9.395823e-01 -1.518790e+00 1.251904e+00 -4.213435e-01 1.528120e+00 4.005266e-01 1.382884e+00 -2.805801e+00 -5.478435e-03 2.048482e-01 -3.353680e-01 1.084032e-01 6.984887e-01 1.145678e+00 7.160319e-02 -3.006089e-02 -6.733724e-01 5.051769e-01 1.248073e-01 -1.738665e-02 -1.160797e+00
<VARIANCE> 39
 1.012924e+01 1.522186e+01 3.509704e+01 5.858206e+01 7.585099e+01 3.399055e+01 7.830916e+01 2.412174e+01 3.476083e+01 1.449722e+01 2.251404e+01 2.964697e+01 9.487043e+00 2.906823e-01 6.689319e-01 1.260801e+00 1.002066e+00 4.461597e+00 6.124548e+00 2.644688e+00 1.729659e+00 2.330064e+00 1.756272e+00 9.633311e-01 1.152795e+00 2.651694e+00 1.043538e-01 2.351506e-01 3.670691e-01 4.238886e-01 9.711335e-01 6.558957e-01 8.246810e-01 2.179856e-01 3.500239e-01 4.377268e-01 3.806568e-01 3.288369e-01 1.644369e-01
<GCONST> 1.071377e+02
<MIXTURE> 2 3.183026e-01
<MEAN> 39
 -9.611914e+00 1.867624e+00 -8.565657e-01 8.696695e-01 2.989505e+00 8.687480e-01 2.448310e+00 -6.170754e-01 1.843212e-02 -1.242896e+00 5.926670e-01 1.189661e+00 5.602326e+01 -2.826653e-01 -3.682663e-01 -6.692038e-02 3.539980e-01 -4.510748e-01 4.608293e-01 1.009621e-01 3.998225e-01 1.089653e-01 1.067687e+00 1.393255e+00 4.475363e-01 -4.179016e-01 -1.785193e-01 -9.628724e-02 -1.225936e-02 -1.631449e-01 -1.898333e-01 -4.799939e-01 -5.731075e-02 1.963588e-02 2.165909e-01 -4.645282e-02 -1.247454e-01 -2.847631e-01 5.559747e-01
<VARIANCE> 39
 3.757692e+00 6.772919e+00 6.990962e+00 1.678078e+01 8.368291e+00 6.824815e+00 8.675963e+00 2.129335e+01 1.398501e+01 1.204905e+01 1.393568e+01 1.053944e+01 2.038097e+01 2.947925e-01 9.553851e-01 5.092133e-01 1.155355e+00 9.509861e-01 1.268049e+00 1.053707e+00 7.984142e-01 2.901763e+00 1.555552e+00 2.062751e+00 1.744601e+00 9.137591e-01 1.337357e-01 1.664481e-01 1.191946e-01 1.127185e-01 2.378966e-01 2.196434e-01 2.046775e-01 1.505045e-01 4.026773e-01 1.723642e-01 3.433281e-01 2.740284e-01 6.786410e-02
<GCONST> 8.072007e+01
<MIXTURE> 3 4.698715e-01
<MEAN> 39
 -5.277888e+00 -3.603280e+00 -6.244681e+00 -1.915815e+00 3.665674e+00 -1.732666e+00 1.679736e+00 -3.472152e+00 6.313771e+00 -6.027488e+00 -6.750977e+00 -1.129256e+00 5.957426e+01 -5.452059e-01 3.262248e-01 -5.749283e-01 4.411363e-01 5.138253e-02 1.943681e+00 -1.162766e-01 7.287386e-01 -7.521684e-01 1.131388e+00 3.764519e-01 7.728318e-02 -2.828155e+00 -1.060702e-01 -2.047879e-01 -7.430173e-02 -2.087872e-01 9.180779e-02 -9.975013e-02 2.364269e-01 -1.550762e-01 6.226665e-02 -5.615953e-02 2.507658e-01 -3.092629e-02 5.278815e-01
<VARIANCE> 39
 1.137148e+01 2.125444e+01 3.900030e+01 3.145591e+01 1.330068e+01 5.183979e+01 2.912373e+01 2.744139e+01 3.626316e+01 2.962095e+01 1.040738e+01 1.920197e+01 2.271637e+01 4.242926e-01 7.208338e-01 7.585261e-01 1.038986e+00 2.384472e+00 2.707424e+00 2.529804e+00 1.540071e+00 1.728127e+00 1.397418e+00 1.883752e+00 9.629793e-01 2.710074e+00 1.404218e-01 1.872164e-01 2.358773e-01 2.607150e-01 2.863127e-01 5.500661e-01 4.340766e-01 3.763587e-01 4.319131e-01 2.740807e-01 2.640349e-01 3.384371e-01 1.714171e-01
<GCONST> 1.007727e+02
<STATE> 5
<NUMMIXES> 3
<MIXTURE> 1 3.470398e-01
<MEAN> 39
 -2.256223e+01 2.751771e+00 -7.178892e+00 8.861098e-02 1.049918e+00 -3.826057e+00 1.388356e+00 4.646677e-01 6.533412e-01 7.877414e-01 3.897450e+00 6.333149e-01 6.751696e+01 -2.845717e+00 1.593289e+00 -4.096042e-02 -5.941498e-01 8.945163e-01 -1.025947e+00 2.246889e-01 -2.826105e-01 -4.622381e-01 -1.591056e-01 1.848016e-01 1.188908e-01 1.817004e+00 5.555234e-01 6.105259e-02 6.665725e-01 -6.708415e-02 4.486449e-01 4.170553e-01 1.201810e-01 -2.813126e-03 -1.806825e-01 -2.266771e-01 -3.422709e-01 6.590979e-03 -4.991218e-01
<VARIANCE> 39
 2.721722e+01 1.982376e+01 2.467825e+01 1.730841e+01 1.893899e+01 1.703577e+01 1.111544e+01 8.810627e+00 5.323289e+00 4.673409e+01 1.980618e+01 1.072195e+01 1.187805e+01 1.535075e+00 1.535894e+00 2.249313e+00 4.387493e-01 1.959459e+00 2.892992e+00 1.480864e+00 1.384508e+00 1.268027e+00 2.224158e+00 1.435430e+00 1.112992e+00 1.270943e+00 3.645808e-01 5.091159e-01 2.385475e-01 1.487002e-01 2.799373e-01 3.631914e-01 2.518854e-01 2.695336e-01 2.262832e-01 8.120518e-01 2.988371e-01 2.070248e-01 7.330627e-02
<GCONST> 9.568898e+01
<MIXTURE> 2 4.476702e-01
<MEAN> 39
 -9.803833e+00 -1.733687e+00 -6.471598e+00 -4.037166e-01 2.021563e+00 2.222249e+00 1.869670e+00 8.976092e-02 3.489145e+00 9.768514e-01 -7.056801e-01 -2.274432e-02 5.251524e+01 -2.965382e+00 1.106828e+00 1.801991e-01 1.003661e-01 2.868425e-01 -9.171805e-01 2.292845e-01 -1.891092e-01 -4.511552e-01 -1.054342e-01 7.131025e-01 1.226925e-01 1.319627e+00 -8.112442e-01 3.479302e-01 -2.425514e-02 -1.495715e-01 1.107614e-01 -5.874212e-01 -3.869550e-02 -3.254409e-01 8.005371e-02 -3.818902e-01 -8.853743e-02 3.133585e-01 9.357820e-01
<VARIANCE> 39
 2.020145e+01 1.293714e+01 2.141132e+01 1.743699e+01 1.290991e+01 1.719066e+01 8.665656e+00 2.053724e+01 2.401325e+01 3.324219e+01 1.570638e+01 1.445481e+01 1.944465e+01 2.313020e+00 6.245553e-01 1.452822e+00 1.190589e+00 1.494270e+00 2.229178e+00 1.892800e+00 2.302670e+00 2.466496e+00 2.015819e+00 1.227270e+00 2.135134e+00 2.803347e+00 3.498914e-01 8.101369e-02 2.730682e-01 2.675788e-01 3.654581e-01 3.247446e-01 1.938023e-01 3.485081e-01 3.962411e-01 2.022944e-01 2.987281e-01 2.435595e-01 1.411944e-01
<GCONST> 9.790582e+01
<MIXTURE> 3 2.052900e-01
<MEAN> 39
 -2.723768e+01 7.160766e+00 -2.492698e+00 -4.478407e+00 5.593567e+00 -5.910694e+00 4.291523e+00 -6.415143e+00 5.454802e+00 -2.031459e+00 -2.658728e-01 1.393839e+00 6.018648e+01 -3.504326e+00 1.185056e+00 3.011974e-01 -8.430194e-01 8.428343e-01 -1.413861e+00 6.089594e-01 -1.785624e-01 -2.969650e-01 -2.747691e-01 -2.941716e-01 1.041979e-01 2.709587e+00 9.346396e-01 -3.742211e-01 1.787733e-02 -1.091229e-01 -2.182290e-01 1.528932e-01 -2.230858e-01 4.010680e-01 -4.042549e-01 4.225789e-01 -8.391618e-02 -2.309806e-01 -3.797200e-01
<VARIANCE> 39
 1.909483e+01 1.359096e+01 1.080065e+01 1.450208e+01 7.953192e+00 1.535945e+01 7.101471e+00 5.720411e+00 1.121236e+01 2.562700e+01 8.884863e+00 7.077100e+00 1.064949e+01 3.121356e+00 7.145435e-01 4.445253e-01 9.228240e-01 8.110857e-01 1.831159e+00 1.314004e+00 1.126045e+00 2.146818e+00 2.085949e+00 4.691630e-01 7.065428e-01 1.122169e+00 3.636265e-01 1.912816e-01 9.582530e-02 2.899322e-01 1.598009e-01 3.641013e-01 1.504186e-01 9.875534e-02 3.524610e-01 2.729665e-01 1.578621e-01 1.500966e-01 1.595841e-01
<GCONST> 8.295423e+01
<STATE> 6
<NUMMIXES> 3
<MIXTURE> 1 2.176903e-01
<MEAN> 39
 -1.349081e+01 7.980610e+00 7.633061e+00 -4.358278e+00 -3.307608e+00 -1.092051e+01 -4.055371e+00 -6.380913e+00 -9.773196e+00 -4.599641e+00 -1.695764e+00 -3.002611e+00 6.871448e+01 3.163369e+00 -2.318011e-01 2.435756e+00 -1.135202e+00 -3.767430e+00 -1.501049e+00 -1.174326e+00 -1.139618e+00 -1.554448e+00 -3.904554e-01 -3.370977e-01 -5.778378e-01 7.152877e-01 -5.088746e-01 -6.168357e-01 -5.097926e-01 1.586174e-01 2.375625e-01 8.420464e-01 5.846921e-01 2.261085e-01 7.536132e-01 3.342867e-01 6.658643e-01 2.346195e-01 -2.179103e-01
<VARIANCE> 39
 1.469722e+01 5.165528e+00 9.389854e+00 2.517118e+01 3.294186e+01 2.450321e+01 1.896879e+01 2.359136e+01 2.727067e+01 3.744611e+01 2.080140e+01 1.542478e+01 3.445512e+00 1.691814e+00 1.207893e+00 2.121818e+00 1.151852e+00 2.437077e+00 2.561944e+00 1.651725e+00 1.990419e+00 3.071503e+00 4.390665e+00 2.534154e+00 1.368962e+00 8.250467e-01 2.649422e-01 7.376191e-02 1.083854e-01 1.549713e-01 7.021054e-01 3.235311e-01 5.764982e-02 1.390904e-01 5.264574e-01 5.418401e-01 3.767765e-01 1.959746e-01 3.748492e-02
<GCONST> 9.501560e+01
<MIXTURE> 2 5.150345e-01
<MEAN> 39
 -2.759723e+01 3.907959e+00 -4.350560e+00 -6.969689e+00 5.262658e+00 -4.928274e+00 3.741041e+00 3.689542e+00 3.097425e+00 4.851484e+00 3.876655e+00 2.351587e+00 7.416784e+01 3.537477e-01 -4.067657e-01 2.770993e-01 -2.666055e-01 -1.093118e-01 1.734039e-01 -2.679892e-01 1.726119e-01 1.201624e-01 1.552671e-01 2.078922e-01 1.699694e-01 -7.571252e-02 7.989926e-02 -1.058344e-02 -4.041305e-02 3.149591e-02 -5.246370e-02 -3.754018e-02 -2.704892e-02 5.169117e-03 2.403125e-03 -2.551026e-02 7.060612e-02 1.322298e-02 -8.463727e-02
<VARIANCE> 39
 3.978707e+00 5.949206e+00 2.623244e+00 7.877448e+00 5.651348e+00 5.498031e+00 1.816270e+01 9.730082e+00 7.185709e+00 1.538702e+01 7.829494e+00 6.697307e+00 2.065536e+00 1.003577e-01 1.431706e-01 4.586270e-01 3.618015e-01 4.832989e-01 4.514908e-01 1.279955e+00 1.177135e+00 5.445145e-01 1.599053e+00 8.301938e-01 1.025428e+00 2.374936e-01 4.216827e-02 3.499469e-02 9.713372e-02 6.332631e-02 9.508248e-02 1.037674e-01 2.156897e-01 2.172391e-01 1.241511e-01 2.868090e-01 1.721702e-01 1.825272e-01 1.101366e-02
<GCONST> 5.638996e+01
<MIXTURE> 3 2.672752e-01
<MEAN> 39
 -2.732272e+01 6.076605e+00 -2.122998e+00 -1.103938e+00 8.485463e+00 -3.602741e+00 3.759459e+00 -9.042039e-01 -1.003953e+00 -1.786254e+00 2.350885e+00 2.120388e+00 6.548504e+01 1.210885e+00 7.650272e-01 2.410311e+00 -9.863951e-01 -2.501403e-01 -1.426061e+00 -1.272198e+00 -9.205986e-01 -1.983471e+00 -7.544088e-01 -9.891995e-01 -7.089982e-01 8.999191e-01 1.489471e+00 -3.370018e-01 5.149339e-01 -3.770049e-02 -1.434973e+00 -3.438814e-01 -5.989096e-01 -2.655712e-01 -3.830840e-01 -2.669678e-01 -2.209530e-01 -3.443379e-01 -7.705218e-02
<VARIANCE> 39
 1.261903e+01 8.936427e+00 2.653037e+01 1.906252e+01 2.324837e+01 3.091746e+01 2.296367e+01 2.625345e+01 1.952174e+01 4.256658e+01 2.853228e+01 2.346641e+01 1.813141e+00 4.351928e+00 9.400713e-01 1.673605e+00 8.943408e-01 5.511339e+00 2.691440e+00 2.071204e+00 2.035565e+00 1.971724e+00 3.432232e+00 1.910738e+00 1.152897e+00 4.187432e-01 3.080686e-01 1.673325e-01 3.420216e-01 1.827940e-01 4.475063e-01 6.398749e-01 3.890226e-01 3.196896e-01 3.518960e-01 5.858933e-01 2.924148e-01 1.928129e-01 1.210767e-01
<GCONST> 1.015729e+02
<STATE> 7
<NUMMIXES> 3
<MIXTURE> 1 1.000775e-01
<MEAN> 39
 -1.236107e+01 3.267166e+00 1.019162e+01 -5.155858e-01 -5.444512e+00 -7.295497e+00 -5.392283e+00 -3.665395e+00 -1.896461e+01 -2.134830e+01 -1.146039e-01 -1.306705e+00 7.227407e+01 5.795671e-01 -6.913674e-01 1.131186e+00 -6.953865e-02 -8.846453e-01 1.128606e+00 -1.358663e+00 -1.473373e+00 -1.142202e+00 -8.982698e-01 1.111661e+00 -1.086166e+00 -1.842538e-01 -2.815953e-01 3.007329e-01 -4.104998e-01 -8.486506e-02 4.036064e-01 2.055992e-02 -3.657750e-01 -1.296558e-01 7.880847e-01 8.600991e-01 2.991197e-01 1.954327e-04 -4.295546e-01
<VARIANCE> 39
 3.850448e-01 7.060074e-01 4.344113e+00 1.640649e+00 3.325114e+00 7.628982e+00 7.855206e+00 1.151723e+01 1.230491e+01 5.774107e+00 7.716918e+00 1.102876e+01 5.682633e-01 3.298253e-01 8.031778e-01 5.059078e-01 4.001056e-01 1.512419e+00 7.103941e-01 1.578685e+00 4.619979e-01 2.703625e+00 3.296635e+00 1.096696e+00 3.399081e-01 2.073077e-01 4.033057e-01 5.523841e-02 1.343966e-01 7.732419e-02 8.996780e-01 5.574493e-01 1.613730e-01 1.568913e-01 1.915765e-01 1.123970e-01 1.680186e-01 6.923082e-02 3.150648e-02
<GCONST> 6.018981e+01
<MIXTURE> 2 5.675272e-01
<MEAN> 39
 -2.913230e+01 5.950710e+00 3.765768e+00 -9.064372e+00 4.333424e+00 -3.048746e+00 1.877524e+00 -2.956726e+00 3.037118e+00 -1.921970e+00 1.424577e+00 -5.564023e-02 6.251322e+01 5.502089e-01 -2.079431e-01 2.426205e-01 -8.926763e-02 -1.432398e-01 3.367324e-01 -2.055684e-01 1.399559e-01 1.356279e-01 -7.733966e-02 2.249950e-01 8.357765e-03 -5.086852e-01 1.299039e-01 -1.984716e-02 -9.009488e-02 1.710024e-02 2.508616e-02 2.303377e-03 -1.404455e-02 -1.165992e-02 9.148788e-03 -1.190531e-02 -4.218614e-02 8.760498e-03 -9.710363e-02
<VARIANCE> 39
 9.971057e+00 4.262463e+00 1.049873e+01 3.800531e+00 1.929446e+01 2.120878e+01 9.718521e+00 1.546379e+01 1.098435e+01 2.825703e+01 1.138418e+01 7.198799e+00 1.784912e+01 4.777240e-01 3.770073e-01 6.862114e-01 5.835406e-01 1.106871e+00 7.953036e-01 7.786198e-01 7.037810e-01 9.367962e-01 1.206024e+00 1.240052e+00 7.073209e-01 2.219222e-01 5.100842e-02 6.472591e-02 1.175116e-01 1.204633e-01 2.028779e-01 1.337365e-01 1.420702e-01 1.211752e-01 1.876716e-01 2.048841e-01 2.011780e-01 1.330877e-01 3.523776e-02
<GCONST> 7.042857e+01
<MIXTURE> 3 3.323953e-01
<MEAN> 39
 -7.454497e+00 4.527097e+00 1.239479e+01 -9.445859e+00 -1.066711e+01 -8.293210e+00 -5.859787e+00 -1.207117e+01 -4.143784e+00 3.529074e-01 2.514750e+00 -4.667899e+00 6.572103e+01 1.640571e-01 -1.421295e-01 3.469290e-01 1.203594e-01 -3.096581e-01 5.213853e-01 -6.691274e-01 -1.569837e-01 3.284455e-01 -8.762005e-02 3.858053e-01 -1.984158e-02 -7.896429e-01 -2.472745e-01 4.545839e-02 -2.088665e-01 2.304428e-01 3.118817e-01 1.474379e-01 1.301571e-01 2.515001e-01 -2.781785e-02 -1.113402e-01 -1.351425e-01 4.337723e-02 -1.685264e-01
<VARIANCE> 39
 9.237185e+00 1.094494e+01 3.209728e+01 1.337686e+01 1.321848e+01 1.305995e+01 1.443067e+01 1.699211e+01 3.576057e+01 1.046496e+01 1.029268e+01 1.147249e+01 8.173992e+00 2.381154e-01 8.658338e-01 9.949626e-01 2.129230e+00 1.417203e+00 1.269919e+00 1.463314e+00 1.493573e+00 1.160608e+00 7.915249e-01 1.266970e+00 1.454288e+00 4.735673e-01 5.357803e-02 1.597145e-01 8.961492e-02 2.083288e-01 2.732307e-01 1.384154e-01 3.453006e-01 3.228681e-01 1.751121e-01 1.894211e-01 1.434589e-01 1.403348e-01 4.362823e-02
<GCONST> 8.147189e+01
<STATE> 8
<NUMMIXES> 3
<MIXTURE> 1 1.329777e-01
<MEAN> 39
 -8.601468e+00 2.831832e+00 1.234342e+01 -2.002840e+00 -1.107359e+01 -6.497413e+00 -1.366556e+01 -9.833694e+00 -1.529146e+01 -1.668824e+01 6.828726e+00 -5.569353e+00 6.687819e+01 5.689071e-01 -3.626776e-01 -5.129055e-01 4.112477e-01 -3.462476e-01 -1.474508e-01 6.100324e-02 -7.449631e-01 1.201133e+00 2.038555e+00 9.428838e-01 2.160950e-01 -2.350637e+00 -2.694461e-01 -2.040441e-01 -4.557690e-01 4.903492e-01 8.824816e-01 2.898489e-01 8.203638e-01 1.014386e-01 -2.233114e-01 2.570515e-01 -3.416815e-01 5.023748e-01 -3.609846e-01
<VARIANCE> 39
 2.905809e+00 7.072069e-01 1.034007e+00 1.013402e+00 9.481354e+00 2.084809e+00 2.781998e+00 4.609074e+00 9.660810e+00 5.981725e+00 2.656708e+00 5.970474e+00 1.260227e+01 7.230629e-01 2.480949e-01 8.660913e-01 8.265162e-01 4.009325e+00 6.344714e-01 2.574958e+00 2.490402e-01 1.087762e+00 8.109804e-01 5.959350e-01 9.895796e-01 5.516907e-01 8.319309e-02 2.372032e-02 4.509829e-02 5.338618e-02 4.810442e-01 2.184051e-01 1.260195e-01 6.128871e-02 2.231989e-01 1.501001e-01 6.996766e-02 5.936488e-02 9.820675e-02
<GCONST> 5.394822e+01
<MIXTURE> 2 5.519798e-01
<MEAN> 39
 -1.571883e+01 4.007861e-01 4.440712e-01 -6.780278e+00 2.111929e+00 -2.664649e+00 -3.910065e-01 1.625221e+00 2.430542e+00 5.035872e-01 4.960239e+00 1.685730e+00 5.993774e+01 1.301947e+00 -3.417775e-01 -4.055335e-01 7.128565e-01 -1.107510e-01 5.141362e-01 2.930453e-01 2.612750e-01 -3.000091e-01 -1.053686e-02 -1.693969e-01 -3.340870e-01 -1.283138e+00 -6.368390e-02 9.563617e-02 -4.185445e-03 1.883100e-01 -2.623391e-02 5.786965e-02 2.380819e-02 -8.351000e-02 7.760624e-03 -7.034973e-03 -6.315394e-02 -1.450179e-02 2.390524e-02
<VARIANCE> 39
 1.859751e+01 1.057408e+01 6.186552e+00 2.135768e+01 9.794020e+00 2.068509e+01 1.434634e+01 2.110071e+01 1.549314e+01 1.754772e+01 2.163144e+01 1.335732e+01 4.662824e+01 1.074000e+00 2.447466e-01 4.541433e-01 1.066421e+00 1.220172e+00 1.258364e+00 1.930913e+00 1.500736e+00 1.601805e+00 1.541165e+00 1.308716e+00 1.045597e+00 5.474210e-01 8.780763e-02 3.664437e-02 7.724006e-02 1.835872e-01 2.223483e-01 2.140006e-01 4.070525e-01 1.815760e-01 2.778183e-01 3.456655e-01 2.622750e-01 2.256110e-01 1.225917e-01
<GCONST> 8.511202e+01
<MIXTURE> 3 3.150426e-01
<MEAN> 39
 -1.005718e+01 2.077373e+00 1.132433e+01 -3.552567e+00 -6.764134e+00 -2.189439e+00 -6.489127e+00 -7.392641e+00 -6.576789e+00 7.607417e-02 3.837956e+00 -4.895169e+00 5.574997e+01 -6.181073e-01 -2.919279e-01 -2.241564e+00 1.837324e+00 2.102625e+00 1.125715e+00 1.851768e+00 1.462195e+00 9.932129e-01 7.995508e-01 -6.725789e-01 1.044583e+00 -1.804720e+00 8.374733e-02 7.510744e-03 -2.797320e-01 -8.751936e-02 -5.159047e-03 -3.372037e-02 2.040448e-01 1.965564e-01 2.250280e-01 -1.421158e-01 -3.210421e-02 9.483291e-02 2.321269e-01
<VARIANCE> 39
 8.903625e+00 1.397852e+01 7.044436e+01 5.512934e+01 2.895061e+01 1.422441e+01 2.686780e+01 3.377111e+01 5.076762e+01 3.318548e+01 2.586349e+01 3.699889e+01 3.088281e+01 9.375567e-01 7.320510e-01 3.515466e+00 1.529416e+00 2.151462e+00 1.387749e+00 2.419780e+00 2.466646e+00 2.767976e+00 2.470165e+00 1.682310e+00 1.179209e+00 7.411132e-01 1.488188e-01 1.012260e-01 6.762317e-01 3.972807e-01 5.655025e-01 2.672675e-01 6.623194e-01 3.604981e-01 5.046060e-01 4.955170e-01 3.320773e-01 2.147268e-01 1.555408e-01
<GCONST> 1.070946e+02
<TRANSP> 9
 0.000000e+00 1.000000e+00 0.000000e+00 0.000000e+00 0.000000e+00 0.000000e+00 0.000000e+00 0.000000e+00 0.000000e+00
 0.000000e+00 8.579729e-01 1.420272e-01 0.000000e+00 0.000000e+00 0.000000e+00 0.000000e+00 0.000000e+00 0.000000e+00
 0.000000e+00 0.000000e+00 8.548382e-01 1.451618e-01 0.000000e+00 0.000000e+00 0.000000e+00 0.000000e+00 0.000000e+00
 0.000000e+00 0.000000e+00 0.000000e+00 8.819721e-01 1.180280e-01 0.000000e+00 0.000000e+00 0.000000e+00 0.000000e+00
 0.000000e+00 0.000000e+00 0.000000e+00 0.000000e+00 8.356259e-01 1.643741e-01 0.000000e+00 0.000000e+00 0.000000e+00
 0.000000e+00 0.000000e+00 0.000000e+00 0.000000e+00 0.000000e+00 8.416802e-01 1.583198e-01 0.000000e+00 0.000000e+00
 0.000000e+00 0.000000e+00 0.000000e+00 0.000000e+00 0.000000e+00 0.000000e+00 8.932498e-01 1.067502e-01 0.000000e+00
 0.000000e+00 0.000000e+00 0.000000e+00 0.000000e+00 0.000000e+00 0.000000e+00 0.000000e+00 8.480248e-01 1.519752e-01
 0.000000e+00 0.000000e+00 0.000000e+00 0.000000e+00 0.000000e+00 0.000000e+00 0.000000e+00 0.000000e+00 0.000000e+00
<ENDHMM>
~o
<STREAMINFO> 1 39
<VECSIZE> 39<NULLD><MFCC_D_A_0><DIAGC>
~h "ichi"
<BEGINHMM>
<NUMSTATES> 7
<STATE> 2
<NUMMIXES> 3
<MIXTURE> 1 2.391659e-01
<MEAN> 39
 -1.241412e+01 6.754294e+00 2.141443e+01 -1.674011e+01 -2.006100e+00 -1.494135e+01 -9.921951e+00 -8.498313e+00 2.448049e+00 -1.533035e+01 1.344962e+01 -2.015822e+00 6.756897e+01 -7.840344e-02 5.305367e-01 5.957868e-01 7.429600e-02 4.148208e-01 -6.806285e-01 1.786495e-01 -4.122050e-02 -4.102057e-01 -1.646104e-01 -2.545229e-01 1.234455e-01 4.402478e-01 1.602528e-01 -1.118799e-01 -7.253742e-01 4.721910e-01 1.350605e-01 5.842075e-01 3.647133e-01 2.691824e-01 -1.817642e-01 4.338289e-01 -4.786975e-01 4.997604e-02 -7.566018e-01
<VARIANCE> 39
 3.242328e+00 1.622678e+01 7.883139e+00 9.550186e+00 1.216846e+01 1.957826e+01 1.471844e+01 5.087492e+01 5.225698e+01 2.288420e+01 5.198533e+01 3.524545e+01 1.881510e+01 5.556774e-01 1.186649e+00 3.629263e+00 3.151515e+00 1.536320e+00 3.626359e+00 2.732921e+00 1.917028e+00 1.626206e+00 3.345037e+00 6.243109e+00 1.402739e+00 5.243752e+00 1.229663e-01 2.236606e-01 3.556508e-01 5.766613e-01 2.174391e-01 2.780009e-01 4.073712e-01 3.499412e-01 4.100370e-01 3.396347e-01 6.451553e-01 1.870011e-01 2.118019e-01
<GCONST> 1.049325e+02
<MIXTURE> 2 2.391392e-01
<MEAN> 39
 -6.769478e+00 5.109725e+00 2.159378e+01 -1.181897e+01 -1.648325e+01 1.290096e+00 -1.865301e+01 -1.398855e+01 -9.797859e+00 -5.538921e+00 1.492495e+00 -1.073276e+01 6.205362e+01 5.606494e-01 3.463259e-01 6.368804e-01 -1.419650e-01 -9.243463e-01 5.176587e-02 6.746329e-02 -5.179841e-01 3.802922e-01 3.012534e-01 -2.388746e-01 -6.679210e-02 1.061628e+00 -1.075990e-01 -8.499776e-03 -7.514566e-01 6.489756e-01 5.173081e-01 -7.534273e-02 7.147450e-01 4.751389e-01 5.287182e-01 3.664468e-01 -5.890376e-02 4.595009e-01 -7.225010e-01
<VARIANCE> 39
 5.343965e+00 1.238523e+01 5.364134e+00 1.134423e+01 1.930829e+01 3.956520e+00 1.483045e+01 1.217958e+01 2.021408e+01 1.468889e+01 5.620039e+00 1.301526e+01 1.414905e+01 6.097671e-01 8.674149e-01 6.746927e+00 5.619286e+00 3.007625e+00 9.500412e-01 6.417411e+00 3.574806e+00 5.020796e+00 2.251056e+00 9.587371e-01 3.537416e+00 5.374747e+00 7.753743e-02 1.162558e-01 5.573564e-01 4.467872e-01 3.125195e-01 1.572307e-01 5.731378e-01 2.756934e-01 6.185828e-01 3.766162e-01 1.622652e-01 6.918447e-01 3.363314e-01
<GCONST> 9.896439e+01
<MIXTURE> 3 5.216950e-01
<MEAN> 39
 -1.032269e+01 1.169499e+01 1.226671e+01 -4.353476e+00 -3.807764e+00 2.046566e+00 -1.012008e+01 -4.828107e+00 -1.061583e+00 -7.191823e+00 -2.778724e+00 -7.078707e-01 6.729295e+01 1.918135e-01 1.112714e+00 1.097173e+00 -5.312083e-01 -6.064296e-01 -8.277826e-01 -7.549831e-01 -6.182528e-01 -5.730866e-01 -6.954311e-01 -7.236685e-01 -5.084181e-01 1.263917e+00 -7.575379e-02 -3.920249e-01 -5.173774e-01 5.043931e-01 3.804408e-01 4.918779e-02 5.333410e-01 1.653364e-01 -2.992706e-03 3.025664e-01 1.312098e-01 7.517089e-02 -4.886370e-01
<VARIANCE> 39
 7.190279e+00 2.402075e+01 2.464268e+01 2.831678e+01 2.069892e+01 2.441470e+01 2.229202e+01 2.173853e+01 1.724247e+01 6.419117e+01 1.645725e+01 1.144471e+01 2.127682e+01 6.826926e-01 2.230825e+00 2.957146e+00 2.708923e+00 3.342698e+00 2.448211e+00 3.959523e+00 1.974631e+00 1.712423e+00 2.243235e+00 1.193372e+00 1.242115e+00 2.654138e+00 1.315757e-01 3.599268e-01 2.028549e-01 3.465198e-01 4.097743e-01 6.318414e-01 3.963971e-01 4.033623e-01 3.194862e-01 3.193074e-01 2.455446e-01 2.671350e-01 1.985980e-01
<GCONST> 1.049531e+02
<STATE> 3
<NUMMIXES> 3
<MIXTURE> 1 3.808929e-01
<MEAN> 39
 -9.495914e+00 1.092494e+01 1.050498e+01 -4.821829e-01 -1.115503e+00 -1.104381e+00 -5.616724e+00 -6.569932e+00 -2.516246e+00 -6.118624e+00 -1.558248e+00 -2.348593e+00 5.939001e+01 -3.841256e-02 -1.154777e+00 -2.240643e+00 1.695753e+00 1.415552e+00 8.455148e-01 9.142246e-01 6.408150e-01 -1.450612e-01 5.969541e-01 3.781996e-01 1.454602e-01 -2.663232e+00 -5.898017e-02 -4.495342e-01 -1.371751e-01 -2.405695e-01 -1.076280e-01 8.373407e-02 -1.637187e-01 1.105138e-01 6.786858e-02 -5.334769e-02 1.907081e-01 9.408476e-02 5.793674e-02
<VARIANCE> 39
 7.234450e+00 1.926791e+01 2.372383e+01 5.130790e+01 3.214148e+01 2.089574e+01 1.940431e+01 1.569614e+01 2.907089e+01 4.526653e+01 2.666362e+01 9.971002e+00 5.332984e+01 1.024144e+00 1.430234e+00 1.478536e+00 1.749518e+00 1.644175e+00 1.875865e+00 1.740950e+00 1.736931e+00 2.181607e+00 1.619740e+00 1.155151e+00 1.437060e+00 1.336439e+00 1.419093e-01 1.262430e-01 1.750340e-01 3.400398e-01 3.050571e-01 2.405199e-01 3.582023e-01 3.451434e-01 4.896397e-01 2.836354e-01 1.880527e-01 2.203099e-01 3.672671e-01
<GCONST> 1.006075e+02
<MIXTURE> 2 4.226545e-01
<MEAN> 39
 -9.578763e+00 2.776736e+00 9.762341e-01 2.694777e+00 2.487864e+00 1.689673e+00 -2.634887e+00 -2.831154e+00 -1.952166e+00 -2.833645e+00 1.671928e+00 -5.538655e-01 5.079209e+01 -3.623506e-01 -6.598197e-01 -1.154052e+00 3.792812e-01 -1.107543e-01 4.686893e-01 7.468229e-01 6.397822e-01 4.772469e-01 7.398720e-01 -2.101102e-01 3.345937e-01 -4.412999e-01 -2.995869e-01 3.651856e-01 1.296668e-01 -9.101745e-02 -1.479877e-01 -1.374971e-01 2.906862e-03 -6.471244e-02 1.133347e-01 -3.411564e-02 -2.907385e-02 -1.060891e-02 4.918036e-01
<VARIANCE> 39
 1.919400e+00 8.270539e+00 8.107891e+00 4.045954e+01 1.747034e+01 1.535553e+01 1.169218e+01 1.479616e+01 1.333968e+01 1.423353e+01 1.658047e+01 1.434135e+01 2.234841e+01 5.133631e-01 9.520897e-01 9.903389e-01 9.529275e-01 8.553099e-01 1.378601e+00 1.247656e+00 1.528805e+00 1.279829e+00 1.121220e+00 1.081756e+00 8.614007e-01 3.650231e-01 1.626609e-01 8.050292e-02 2.163190e-01 1.275547e-01 2.094102e-01 2.594248e-01 2.380314e-01 1.887900e-01 2.410889e-01 2.672026e-01 1.910620e-01 1.914016e-01 1.062524e-01
<GCONST> 8.189049e+01
<MIXTURE> 3 1.964526e-01
<MEAN> 39
 -1.245712e+01 2.740852e+00 1.191515e+00 4.767551e+00 2.927162e+00 8.017731e-01 1.365587e-01 1.120708e+00 1.369477e+00 -2.839537e-01 -1.240791e-01 9.218709e-01 5.926772e+01 4.998763e-03 -1.035254e+00 -3.775043e-01 -2.694316e-01 -4.845499e-03 4.870642e-02 3.064153e-01 2.410739e-01 5.861605e-01 3.856755e-01 9.810763e-01 6.158177e-01 -2.152078e-01 3.502085e-02 8.460396e-02 3.432281e-01 -2.778358e-01 -8.601615e-02 -3.166391e-02 -2.565245e-01 -3.935177e-01 -3.045845e-01 -9.035949e-02 -4.296479e-02 -1.335677e-01 3.100187e-01
<VARIANCE> 39
 4.304552e+00 5.685148e+00 7.973585e+00 6.123392e+00 3.446673e+00 1.203110e+01 1.663173e+01 1.446783e+01 8.824619e+00 1.265828e+01 1.254913e+01 7.844362e+00 8.858325e-01 8.177297e-01 7.081831e-01 1.210335e+00 6.210805e-01 4.175468e-01 1.019035e+00 1.027353e+00 2.407457e+00 1.627210e+00 1.895695e+00 8.713760e-01 8.304912e-01 9.267153e-01 1.915027e-01 1.338226e-01 2.249543e-01 9.933102e-02 1.024828e-01 3.445334e-01 1.434195e-01 4.124797e-01 1.920898e-01 2.414614e-01 1.736355e-01 1.469386e-01 1.209698e-01
<GCONST> 7.461349e+01
<STATE> 4
<NUMMIXES> 3
<MIXTURE> 1 4.762185e-01
<MEAN> 39
 -2.788290e+01 5.907543e+00 -4.368948e+00 -2.564611e+00 3.989621e+00 -3.327427e+00 1.963776e+00 -2.393557e+00 3.752136e+00 -1.576370e+00 1.443518e+00 4.785632e-01 6.533195e+01 -1.782051e+00 5.447532e-01 1.710963e-01 -9.664867e-01 6.208847e-01 -6.292849e-01 7.068635e-01 -2.306768e-01 4.101796e-02 -1.165001e-02 -3.568496e-01 -8.429206e-02 1.646299e+00 9.196903e-01 -1.412298e-01 4.366625e-01 1.353589e-01 -1.204748e-01 2.604387e-01 -1.448403e-01 -8.872560e-02 -4.153911e-01 2.877825e-02 -1.512830e-01 -2.676945e-02 -5.103900e-01
<VARIANCE> 39
 1.771436e+01 1.676324e+01 2.666909e+01 3.079475e+01 1.116685e+01 1.770553e+01 1.895777e+01 1.955724e+01 9.196991e+00 2.497024e+01 1.138807e+01 1.009326e+01 1.428377e+01 2.542875e+00 1.769238e+00 1.086036e+00 8.345072e-01 1.147243e+00 1.754877e+00 1.532512e+00 1.297268e+00 1.432673e+00 1.270321e+00 1.640839e+00 8.693382e-01 1.470636e+00 2.508002e-01 2.663357e-01 3.674919e-01 1.899339e-01 3.590000e-01 2.793661e-01 4.006751e-01 3.238640e-01 2.842676e-01 3.117392e-01 2.945464e-01 2.111489e-01 7.903708e-02
<GCONST> 9.480751e+01
<MIXTURE> 2 1.884738e-01
<MEAN> 39
 -2.017340e+01 7.316383e+00 3.830206e+00 -1.299022e+00 2.873858e+00 -5.542834e+00 -9.247461e-02 -5.453278e+00 -5.405711e+00 -4.924564e+00 -4.392755e+00 -3.164577e+00 6.729711e+01 3.371108e+00 8.824227e-01 3.253254e+00 -1.153521e+00 -2.580179e+00 -1.459459e+00 -2.345258e+00 -2.093665e+00 -2.223196e+00 -8.890691e-01 -9.750342e-01 -1.182589e+00 9.090103e-01 2.676142e-01 -4.044371e-01 6.392257e-02 -1.675114e-01 -8.894897e-01 1.006212e-01 -4.241498e-01 3.599712e-02 3.656387e-01 1.460582e-01 6.570632e-01 2.622001e-01 -9.850679e-02
<VARIANCE> 39
 3.315713e+01 1.496905e+01 4.201259e+01 2.444761e+01 2.859539e+01 2.788717e+01 3.379450e+01 3.010164e+01 3.072211e+01 5.035227e+01 1.805913e+01 1.587983e+01 8.551594e+00 1.283191e+00 9.850420e-01 1.993428e+00 6.917924e-01 2.859793e+00 1.479200e+00 1.967371e+00 1.219977e+00 1.948939e+00 1.748373e+00 2.537963e+00 1.977377e+00 3.856776e-01 8.833563e-01 1.864955e-01 4.795713e-01 1.304484e-01 5.905964e-01 4.905376e-01 6.590056e-01 4.156124e-01 4.249883e-01 3.071497e-01 2.927459e-01 3.003287e-01 2.477289e-02
<GCONST> 1.030595e+02
<MIXTURE> 3 3.353077e-01
<MEAN> 39
 -1.523250e+01 2.233672e+00 -2.166178e+00 2.521191e+00 9.894653e-01 2.103071e+00 -3.741738e-01 -1.461755e+00 2.787165e-01 -8.575299e-01 2.137096e+00 1.414125e+00 5.386058e+01 -3.189875e+00 6.048080e-01 -9.320938e-01 -6.899225e-01 3.026586e-01 -1.097754e+00 3.891971e-01 -1.137868e-01 7.478574e-01 -2.664322e-01 3.133173e-01 1.883067e-02 2.692525e+00 -5.944455e-01 2.927219e-01 1.024619e-01 -3.053915e-01 2.464555e-01 -5.262946e-01 1.340276e-01 -5.400287e-02 1.871927e-01 -1.168851e-01 -9.166288e-02 -1.309462e-01 5.583532e-01
<VARIANCE> 39
 2.217472e+01 1.726483e+01 1.608784e+01 2.787942e+01 1.873578e+01 2.050533e+01 1.221804e+01 1.799615e+01 1.366869e+01 2.014841e+01 1.649191e+01 1.005906e+01 4.624078e+01 1.309100e+00 8.789637e-01 1.873440e+00 1.165432e+00 2.338085e+00 2.129649e+00 2.339066e+00 2.369719e+00 8.448514e-01 1.808315e+00 1.180267e+00 9.015417e-01 1.316061e+00 3.512549e-01 2.497734e-01 2.176949e-01 1.470548e-01 2.343213e-01 4.118446e-01 3.680855e-01 4.599128e-01 2.163934e-01 2.297600e-01 2.468556e-01 1.068736e-01 3.274307e-01
<GCONST> 9.689568e+01
<STATE> 5
<NUMMIXES> 3
<MIXTURE> 1 2.310325e-01
<MEAN> 39
 -1.196712e+01 5.616140e+00 1.147992e+01 -6.207920e+00 -1.067358e+01 -6.609064e+00 -9.768633e+00 -8.699895e+00 -8.309214e+00 -7.801063e+00 -1.733835e+00 -4.589431e+00 7.034486e+01 5.658029e-01 -5.397890e-01 5.614048e-01 -6.047322e-01 -1.429644e+00 9.017175e-04 -8.416090e-01 -2.477285e-01 3.639898e-01 4.542721e-01 6.565728e-01 1.829381e-01 -1.381856e-01 -2.775267e-01 4.500508e-02 -4.084500e-01 3.097925e-01 4.732762e-01 1.255020e-01 3.339846e-01 1.248593e-01 1.288105e-01 8.109040e-02 -1.064268e-01 1.203755e-01 -2.561539e-01
<VARIANCE> 39
 3.636564e+00 4.956502e+00 4.082894e+00 1.574418e+01 2.273590e+01 6.505346e+00 1.244336e+01 5.063148e+00 2.352166e+01 3.060621e+01 2.054496e+01 6.991758e+00 9.547050e+00 4.254508e-01 3.112077e-01 1.195557e+00 7.716814e-01 1.309234e+00 7.301205e-01 1.171589e+00 8.705138e-01 1.592703e+00 1.041913e+00 1.054001e+00 7.560624e-01 3.201084e-01 1.437192e-01 1.074621e-01 1.436685e-01 1.616018e-01 2.028537e-01 2.128751e-01 2.443884e-01 2.309191e-01 4.092369e-01 2.058835e-01 2.801325e-01 1.773428e-01 3.043045e-02
<GCONST> 7.576839e+01
<MIXTURE> 2 6.830946e-01
<MEAN> 39
 -2.978482e+01 5.013386e+00 -1.590590e+00 -7.430184e+00 4.060250e+00 -4.271807e+00 2.062706e+00 -1.141576e+00 3.057555e+00 1.912962e+00 3.277074e+00 1.481493e+00 6.997038e+01 2.992549e-01 -2.719856e-01 2.822812e-01 -1.530763e-01 -1.319183e-01 -5.601210e-02 -1.557719e-01 4.053660e-02 -1.895127e-01 5.741525e-02 8.159178e-02 -6.580421e-03 -1.748155e-01 7.327899e-02 1.040061e-02 -1.908344e-02 2.219788e-02 -3.120705e-02 -3.351200e-03 -2.750049e-02 -4.547422e-03 -2.200068e-03 -3.876686e-02 -4.174760e-02 -3.560621e-02 -6.049244e-02
<VARIANCE> 39
 8.512083e+00 8.901864e+00 1.954164e+01 9.837156e+00 8.381314e+00 8.226730e+00 1.227387e+01 2.113722e+01 1.247874e+01 2.856502e+01 1.258705e+01 8.983410e+00 1.193206e+01 1.487097e-01 2.537514e-01 4.409807e-01 6.011513e-01 9.761072e-01 9.362719e-01 8.017451e-01 1.068440e+00 1.090601e+00 1.347857e+00 1.001958e+00 8.716408e-01 1.572141e-01 2.926621e-02 4.951588e-02 7.800344e-02 1.094645e-01 1.874339e-01 2.081969e-01 1.660576e-01 2.076074e-01 2.231244e-01 2.349849e-01 1.483241e-01 1.626836e-01 9.851445e-03
<GCONST> 6.848534e+01
<MIXTURE> 3 8.587293e-02
<MEAN> 39
 -4.754798e+00 -2.966959e-01 2.144547e+01 -1.175873e+01 -1.177004e+01 -7.408034e+00 -1.035708e+01 -1.719830e+01 -1.107073e+01 2.138066e+00 -1.449319e+00 -4.724783e+00 6.438030e+01 5.372645e-01 -6.067937e-01 5.188619e-01 -7.703647e-01 -9.781880e-01 6.568868e-01 -1.230383e+00 -1.331754e-01 -8.862116e-01 -4.687380e-01 -4.979380e-01 -3.852969e-01 -3.845786e-01 -2.934392e-01 2.018092e-01 -2.055188e-01 -2.222348e-01 4.223800e-02 -2.050662e-02 -4.826188e-05 2.590765e-01 1.979614e-01 -5.690056e-02 -1.230952e-02 8.969637e-03 -1.031016e-01
<VARIANCE> 39
 2.890076e+00 4.487585e+00 2.055602e+00 4.885537e+00 1.181051e+01 9.431609e+00 1.857726e+01 7.258155e+00 1.788503e+01 1.463370e+01 5.773245e+00 1.377204e+01 1.266855e+00 2.626290e-01 4.450321e-01 3.149504e-01 1.188770e+00 5.285302e-01 8.920768e-01 6.492543e-01 8.991875e-01 1.199845e+00 6.593682e-01 4.384090e-01 1.167769e+00 2.466818e-02 2.924983e-02 3.958594e-02 7.635970e-02 1.503975e-01 2.052719e-01 2.260462e-01 1.155336e-01 5.551017e-02 2.047916e-01 2.542050e-01 2.673111e-01 2.616277e-01 2.477137e-02
<GCONST> 5.865696e+01
<STATE> 6
<NUMMIXES> 3
<MIXTURE> 1 6.229529e-01
<MEAN> 39
 -1.832710e+01 1.504997e+00 3.316031e+00 -5.627493e+00 3.863372e+00 -2.371484e+00 2.174113e+00 -1.965399e+00 1.571619e+00 1.435789e+00 1.532284e+00 -2.908357e-01 5.995213e+01 1.216992e+00 -1.670668e-01 -6.047618e-02 4.996632e-01 -1.123289e-02 3.535973e-01 -1.060839e-01 3.262537e-01 -5.683851e-04 3.569703e-02 -9.884583e-02 -7.685482e-02 -1.047595e+00 -9.753620e-03 1.452637e-02 -8.540073e-02 1.127070e-01 6.453092e-02 4.869756e-02 2.204942e-02 3.402460e-03 -8.933811e-03 2.971752e-03 3.434442e-02 2.381397e-02 -6.151134e-03
<VARIANCE> 39
 2.926526e+01 1.334568e+01 1.710116e+01 1.947540e+01 2.591540e+01 1.879648e+01 3.490682e+01 2.019811e+01 1.452232e+01 2.339497e+01 1.672637e+01 1.741625e+01 3.555653e+01 9.458058e-01 4.819473e-01 1.105622e+00 1.084940e+00 1.035858e+00 1.083077e+00 1.455163e+00 1.661489e+00 1.369727e+00 1.366016e+00 1.553187e+00 1.526209e+00 6.448629e-01 1.282208e-01 8.044325e-02 1.646226e-01 1.626444e-01 1.909137e-01 2.309044e-01 3.230000e-01 2.994269e-01 2.641418e-01 2.851171e-01 2.984478e-01 2.967657e-01 9.581372e-02
<GCONST> 9.171104e+01
<MIXTURE> 2 2.859766e-01
<MEAN> 39
 -1.067113e+01 4.214669e+00 7.637211e+00 -2.645984e-01 -7.558023e+00 -2.862339e+00 -6.584095e+00 -9.709262e+00 -7.617577e+00 -4.087163e+00 6.610450e-01 -1.435766e+00 5.861421e+01 1.112542e-01 -2.590028e-01 -1.262680e+00 1.584043e+00 1.767249e+00 8.578028e-01 1.489525e+00 5.296540e-01 4.104798e-01 7.207905e-01 6.202461e-01 9.149228e-01 -1.741666e+00 -4.575237e-02 -1.078594e-01 5.667497e-02 -1.103787e-01 2.322697e-02 9.456522e-02 -5.315032e-03 1.855645e-01 1.006653e-01 1.029679e-01 8.039387e-02 -1.060684e-01 1.202744e-01
<VARIANCE> 39
 3.070122e+00 5.044231e+00 1.237618e+01 2.748125e+01 3.617335e+01 1.959497e+01 2.573501e+01 2.101299e+01 2.043369e+01 2.399129e+01 2.576964e+01 1.519019e+01 5.376369e+01 2.802109e-01 3.905314e-01 2.051969e+00 2.235781e+00 1.406615e+00 1.877013e+00 3.322932e+00 2.283440e+00 1.820466e+00 2.695595e+00 2.108296e+00 1.468247e+00 6.904259e-01 3.831006e-02 4.933622e-02 3.218307e-01 3.803765e-01 4.858252e-01 4.716851e-01 6.087655e-01 3.434183e-01 3.148149e-01 4.945276e-01 3.589427e-01 3.570812e-01 1.405627e-01
<GCONST> 9.662457e+01
<MIXTURE> 3 9.107051e-02
<MEAN> 39
 -9.608475e+00 -1.594486e-01 2.211554e+01 -1.879472e+01 -1.723947e+01 -2.968648e+00 -1.934568e+01 -1.152405e+01 -1.022044e+01 1.932367e+00 4.401176e-01 -8.364543e+00 5.598971e+01 -1.412471e+00 3.301476e-01 -1.401150e+00 8.704467e-01 9.559984e-01 2.592781e-01 3.231764e-01 1.182626e+00 8.911383e-01 1.814643e-01 9.767748e-01 1.865397e-01 -2.298945e+00 8.255509e-02 -4.152307e-02 -6.954030e-01 8.532444e-01 6.446173e-01 -8.471642e-02 6.882882e-01 5.693543e-02 1.229274e-01 -2.578324e-02 2.209570e-02 3.992811e-01 -1.858053e-01
<VARIANCE> 39
 1.898507e+01 1.095772e+00 8.327394e+00 6.155651e+00 1.817723e+01 6.937702e+00 5.181252e+00 1.122085e+01 6.281892e+00 1.037314e+01 4.334179e+00 9.388609e+00 2.751760e+01 1.011079e+00 1.708073e-01 5.035860e+00 4.247098e+00 6.025047e+00 9.400508e-01 3.385652e+00 2.754563e-01 1.101485e+00 1.343847e+00 3.534409e-01 4.242178e+00 4.269419e-01 3.338897e-01 3.273783e-02 4.418915e-01 4.562600e-02 4.825062e-01 2.552328e-01 1.453349e-01 4.686129e-02 2.419541e-01 3.297965e-01 9.302685e-02 7.125911e-01 1.322158e-01
<GCONST> 7.889492e+01
<TRANSP> 7
 0.000000e+00 1.000000e+00 0.000000e+00 0.000000e+00 0.000000e+00 0.000000e+00 0.000000e+00
 0.000000e+00 8.842847e-01 1.157153e-01 0.000000e+00 0.000000e+00 0.000000e+00 0.000000e+00
 0.000000e+00 0.000000e+00 9.078053e-01 9.219471e-02 0.000000e+00 0.000000e+00 0.000000e+00
 0.000000e+00 0.000000e+00 0.000000e+00 8.869119e-01 1.130881e-01 0.000000e+00 0.000000e+00
 0.000000e+00 0.000000e+00 0.000000e+00 0.000000e+00 9.194900e-01 8.050999e-02 0.000000e+00
 0.000000e+00 0.000000e+00 0.000000e+00 0.000000e+00 0.000000e+00 9.024148e-01 9.758520e-02
 0.000000e+00 0.000000e+00 0.000000e+00 0.000000e+00 0.000000e+00 0.000000e+00 0.000000e+00
<ENDHMM>
~o
<STREAMINFO> 1 39
<VECSIZE> 39<NULLD><MFCC_D_A_0><DIAGC>
~h "kyuu"
<BEGINHMM>
<NUMSTATES> 5
<STATE> 2
<NUMMIXES> 3
<MIXTURE> 1 1.503146e-01
<MEAN> 39
 -9.908857e+00 2.173576e+00 1.530882e+01 8.368101e-01 -1.097645e+01 -1.031055e+01 -1.261793e+00 -9.328953e+00 -1.247754e+00 -2.618895e+00 1.610949e+00 3.011337e+00 7.287769e+01 2.706259e+00 -4.587409e-01 2.233765e-01 6.036201e-01 -4.777487e-01 -3.627322e+00 -8.333632e-01 8.419167e-01 -1.936140e+00 -1.583465e+00 1.132712e+00 2.932180e-02 1.711920e+00 -7.674329e-01 -4.753665e-01 -6.294757e-01 -3.820544e-01 2.150678e-01 2.211249e-01 9.360249e-02 1.963889e-01 6.554253e-01 -3.791428e-01 4.979162e-02 -6.276911e-02 -9.842187e-02
<VARIANCE> 39
 1.875893e+01 1.128910e+01 3.421366e+00 5.171855e+00 9.744036e+00 5.843316e+01 1.410551e+01 2.885360e+01 5.122834e+01 6.804499e+01 3.807828e+01 4.814692e+00 2.104871e+01 3.141521e+00 1.298512e+00 1.404450e+00 1.203878e+00 1.443318e+00 1.103410e+00 2.229143e+00 6.561945e-01 6.887474e+00 5.158417e+00 5.528092e+00 1.301963e+00 3.494140e-01 2.860052e-01 1.193015e-01 2.001920e-01 6.027569e-02 1.488380e-01 7.901821e-01 3.395659e-01 7.098916e-02 5.622372e-01 5.627317e-01 5.329887e-01 1.244207e-01 1.602600e-01
<GCONST> 9.658736e+01
<MIXTURE> 2 6.536085e-01
<MEAN> 39
 -2.099841e+01 -2.258856e+00 5.547418e+00 -4.240344e+00 -6.296284e+00 1.301114e+00 -9.464734e-01 -7.173662e+00 5.097654e+00 -2.562633e+00 4.042909e-01 1.938887e+00 6.542054e+01 8.706032e-02 4.180100e-01 1.414275e+00 -7.216650e-02 -1.572945e+00 -6.846998e-01 -9.935344e-02 -1.367088e+00 -9.071836e-01 -8.607617e-02 -5.365416e-01 -3.791888e-01 1.275706e+00 8.502036e-01 1.966213e-01 1.135156e-01 3.928579e-01 -1.383812e-01 -3.816991e-01 -5.197903e-02 -3.073524e-02 -5.943303e-01 -6.155841e-02 6.620844e-02 -2.960806e-01 -3.074045e-01
<VARIANCE> 39
 1.217198e+01 2.331959e+01 3.005468e+01 2.044259e+01 2.966429e+01 2.080919e+01 2.808422e+01 3.468493e+01 3.529713e+01 2.821822e+01 1.935819e+01 1.613069e+01 3.257515e+01 5.029759e+00 1.960270e+00 1.896505e+00 2.750252e+00 2.475839e+00 2.683664e+00 2.085269e+00 3.445403e+00 4.666470e+00 1.823484e+00 1.570575e+00 3.001908e+00 2.461899e+00 4.412869e-01 4.108918e-01 4.029424e-01 4.294983e-01 6.196116e-01 5.983467e-01 5.356964e-01 6.690162e-01 5.196258e-01 4.487797e-01 5.063898e-01 4.533036e-01 5.034997e-01
<GCONST> 1.164893e+02
<MIXTURE> 3 1.960768e-01
<MEAN> 39
 -9.244575e+00 -4.297554e-01 1.273924e+01 -2.294203e+00 -2.217819e+01 -8.466051e+00 -8.261387e+00 -1.718748e+01 -1.018035e+01 -8.892170e+00 1.347863e+00 -7.968894e+00 7.061191e+01 2.238382e+00 -4.255162e-01 5.446248e-01 -2.633878e-02 -3.526688e+00 -2.640220e+00 -1.447441e+00 -3.408082e-01 -9.827737e-01 -1.603688e+00 2.173565e+00 -1.289978e+00 8.293638e-01 -6.931545e-01 -3.601390e-01 -6.773574e-01 -1.197609e-01 8.534996e-01 5.610787e-01 2.897955e-01 1.173501e+00 8.929070e-01 3.931766e-01 4.346950e-01 9.245465e-01 -3.200135e-01
<VARIANCE> 39
 1.072952e+01 3.236417e+01 2.038368e+01 1.382297e+01 3.392228e+01 1.326145e+01 1.759763e+01 2.402577e+01 1.101787e+01 3.837215e+01 3.865660e+01 9.537689e+00 7.814586e+00 2.022022e+00 9.735152e-01 1.911774e+00 1.086688e+00 4.616620e+00 2.397233e+00 1.979350e+00 3.759150e+00 3.280769e+00 3.278506e+00 5.178431e+00 2.349010e+00 4.982727e-01 1.365538e-01 1.644699e-01 1.142943e-01 2.073740e-01 6.552393e-01 2.907342e-01 1.706511e-01 2.888958e-01 3.032933e-01 3.363589e-01 7.542313e-01 1.558231e-01 9.809420e-02
<GCONST> 1.003819e+02
<STATE> 3
<NUMMIXES> 3
<MIXTURE> 1 2.149168e-01
<MEAN> 39
 -3.875290e+00 -7.482658e-01 1.148143e+01 2.000282e-01 -9.407966e+00 -1.667297e+01 2.139257e+00 7.000542e-01 -9.918490e+00 3.348407e+00 -3.578581e+00 4.551348e+00 7.877164e+01 2.294533e-01 -6.019313e-02 -4.922231e-01 -2.856882e-01 6.522972e-01 -8.390077e-01 1.159097e-02 2.251970e-01 4.995741e-01 -2.145177e-01 -4.630795e-02 5.291490e-01 -3.108413e-01 -5.527316e-02 1.857653e-01 3.949888e-02 -5.513380e-02 6.763837e-02 1.473870e-01 1.132509e-02 -1.585717e-01 1.838815e-01 1.224415e-02 -3.106611e-02 5.672441e-02 -1.737206e-01
<VARIANCE> 39
 2.861705e+00 3.287981e+00 8.916989e+00 7.427044e+00 8.251882e+00 1.381666e+01 3.713266e+00 3.474041e+00 7.787872e+00 3.683596e+00 2.564193e+00 8.634912e+00 1.959522e+00 1.042941e-01 5.708891e-01 3.286310e-01 2.121419e-01 3.057728e-01 5.060189e-01 5.997476e-01 5.243716e-01 5.423353e-01 4.613947e-01 1.892150e-01 4.553478e-01 2.681183e-01 4.087033e-02 3.641262e-02 5.213653e-02 5.223995e-02 1.174068e-01 1.342395e-01 1.589842e-01 8.560206e-02 1.319716e-01 7.664797e-02 5.660108e-02 1.241811e-01 1.776458e-02
<GCONST> 4.442634e+01
<MIXTURE> 2 4.418067e-01
<MEAN> 39
 -1.012572e+01 6.755007e-01 6.675466e+00 2.130898e+00 -1.502245e+01 -1.486593e+01 -1.293921e+01 -6.610620e+00 -6.080445e+00 -1.746325e+01 7.300058e+00 8.397217e-01 7.461282e+01 3.396174e-01 -8.396669e-02 -3.326859e-01 2.348613e-01 8.383491e-01 -1.759921e-01 -5.709144e-01 6.180936e-01 2.096061e-01 9.878542e-02 -1.456559e-01 4.951985e-01 -2.432695e-01 1.032746e-02 5.446600e-02 -3.055098e-02 1.929258e-02 1.282219e-01 1.085021e-01 -3.538922e-02 -9.218941e-02 9.425614e-03 1.834988e-01 -1.625303e-01 1.514739e-02 -1.464116e-01
<VARIANCE> 39
 4.977901e+00 1.466758e+01 1.352949e+01 1.438227e+01 6.107032e+01 3.307352e+01 1.328358e+01 2.209045e+01 1.057593e+02 8.183798e+00 2.026215e+01 2.409158e+01 3.152617e+00 1.428886e-01 1.565206e-01 4.818860e-01 6.144340e-01 7.095897e-01 1.209353e+00 1.193637e+00 1.138472e+00 9.357774e-01 1.184715e+00 2.382765e+00 1.738196e+00 3.601810e-01 3.310120e-02 3.561474e-02 1.025364e-01 1.155506e-01 2.665911e-01 3.027256e-01 2.616450e-01 2.305982e-01 1.824821e-01 2.769904e-01 5.606658e-01 3.472965e-01 4.216463e-02
<GCONST> 7.998190e+01
<MIXTURE> 3 3.432765e-01
<MEAN> 39
 -3.257077e+00 -6.910386e+00 1.133379e+01 -3.041302e+00 -2.145646e+01 -1.402305e+01 -1.184229e+01 -9.650887e+00 -5.208082e+00 -1.099709e+01 7.799563e+00 -4.099311e+00 6.941254e+01 4.026129e-01 9.691893e-02 -7.452512e-01 2.436817e-01 8.690397e-01 -5.235422e-01 -5.408713e-01 1.050008e+00 8.566975e-01 -1.432249e-01 -1.076827e-01 7.718934e-01 -2.110509e-01 -4.165482e-02 1.957892e-01 -1.611506e-02 5.634460e-02 1.120703e-01 1.000257e-01 2.060745e-02 -1.591004e-01 -2.651392e-02 1.488959e-01 -1.600747e-01 1.638420e-01 -1.173818e-01
<VARIANCE> 39
 5.220555e+00 3.470560e+01 1.282101e+01 6.587994e+00 2.475626e+01 5.126599e+00 1.504122e+01 1.927787e+01 1.966154e+01 6.153981e+01 4.426266e+01 1.118932e+01 9.668826e-01 8.815691e-02 6.676155e-01 3.039727e-01 6.027722e-01 6.244997e-01 9.593195e-01 1.227360e+00 9.626410e-01 9.019673e-01 9.528037e-01 1.933921e+00 2.054423e+00 1.738858e-01 3.177017e-02 8.132597e-02 5.138603e-02 1.088805e-01 2.337029e-01 1.187024e-01 2.275349e-01 1.551777e-01 1.855129e-01 2.787485e-01 2.775704e-01 3.201292e-01 2.186607e-02
<GCONST> 7.242097e+01
<STATE> 4
<NUMMIXES> 3
<MIXTURE> 1 3.670428e-01
<MEAN> 39
 -4.729054e+00 3.231785e+00 3.717024e+00 2.315921e+00 -7.579186e+00 -1.621007e+01 -8.963092e+00 -4.772526e+00 -5.862061e+00 -3.900318e+00 1.495611e+00 7.112031e+00 6.701774e+01 -2.442312e-01 4.813069e-02 -3.115720e-01 1.527249e-01 7.321092e-01 8.324106e-01 4.034635e-01 -5.573103e-02 1.570585e-01 4.129661e-01 1.578536e-02 1.241144e-01 -1.159339e+00 -1.218098e-01 -8.710790e-02 1.931460e-02 1.099169e-02 1.149224e-01 3.531510e-01 1.071851e-01 2.607338e-02 -2.390366e-02 5.378687e-02 7.357810e-02 -2.574464e-01 -6.235841e-02
<VARIANCE> 39
 3.728702e+00 4.774994e+00 1.407525e+01 2.152972e+01 9.099910e+00 2.206854e+01 7.135210e+01 2.350879e+01 1.550916e+01 4.115998e+01 3.293021e+01 9.008290e+00 1.467255e+01 3.729734e-01 4.814842e-01 4.130683e-01 7.935542e-01 8.891842e-01 1.447325e+00 1.488350e+00 1.377787e+00 9.664117e-01 1.422366e+00 1.451893e+00 1.814823e+00 5.962197e-01 3.377271e-02 6.654704e-02 9.092202e-02 1.630448e-01 1.581254e-01 2.216700e-01 2.558071e-01 2.713970e-01 1.860472e-01 2.564653e-01 2.636773e-01 2.130445e-01 4.522708e-02
<GCONST> 8.139738e+01
<MIXTURE> 2 3.659831e-01
<MEAN> 39
 -1.619499e+00 -1.704441e+00 7.666981e+00 -6.147292e-01 -7.673315e+00 -1.678544e+01 -1.636514e+01 -4.607071e+00 2.703605e+00 -8.331314e+00 6.447808e+00 -2.522863e-01 6.198021e+01 -1.352020e-01 5.740713e-01 -4.012386e-01 2.005797e-01 7.263868e-01 2.636878e-01 6.703283e-02 -3.188788e-02 -4.748539e-01 1.069752e+00 -7.561629e-02 -9.128939e-02 -1.148221e+00 -1.437756e-01 1.517666e-02 -5.356259e-02 9.553595e-03 2.036583e-02 1.248199e-01 2.509299e-01 1.165239e-02 -1.070378e-01 -5.997146e-02 -9.674399e-02 -3.198027e-02 -8.917174e-02
<VARIANCE> 39
 9.005642e+00 1.203416e+01 9.236809e+00 2.495178e+01 7.034659e+01 1.515264e+01 1.378690e+01 1.012077e+01 1.445794e+01 2.137696e+01 8.203731e+00 5.739872e+00 2.085213e+01 6.394675e-01 1.303042e+00 7.140059e-01 7.395583e-01 6.484895e-01 7.957388e-01 1.209821e+00 8.365823e-01 6.354591e-01 1.175390e+00 6.747425e-01 6.599036e-01 5.122725e-01 6.455110e-02 2.774629e-01 1.324527e-01 9.868905e-02 1.438562e-01 2.165182e-01 1.587906e-01 1.448542e-01 1.527968e-01 2.161436e-01 1.396743e-01 1.273787e-01 8.934854e-02
<GCONST> 7.763997e+01
<MIXTURE> 3 2.669741e-01
<MEAN> 39
 -7.557697e+00 2.571848e+00 1.762716e+00 2.289091e+00 -1.024045e+00 -6.126160e+00 -4.860559e+00 -3.625728e+00 -2.953206e+00 -9.512342e-01 2.263205e+00 1.340560e+00 5.584106e+01 -6.470726e-01 -1.321694e-01 -7.210907e-01 3.794131e-01 9.872901e-01 2.564200e+00 1.513627e+00 4.983464e-01 2.361436e-01 1.345044e-01 -4.205792e-01 -3.319466e-01 -1.396726e+00 7.878556e-02 -1.570688e-01 3.397284e-03 -3.466497e-02 -1.561345e-01 -1.190563e-01 6.548848e-03 1.671249e-01 2.064914e-01 -1.691228e-01 -8.049811e-02 1.172671e-01 2.805763e-01
<VARIANCE> 39
 4.217104e+00 9.259951e+00 1.130028e+01 1.797139e+01 2.085724e+01 3.425217e+01 3.415678e+01 1.820935e+01 1.992035e+01 1.706026e+01 2.063697e+01 2.415206e+01 2.893347e+01 4.707066e-01 9.456010e-01 6.669077e-01 7.172682e-01 2.191184e+00 1.513700e+00 2.628653e+00 2.432858e+00 9.443238e-01 1.320695e+00 2.334383e+00 1.861552e+00 1.087984e+00 3.825564e-02 9.931483e-02 7.248359e-02 1.642062e-01 1.959688e-01 5.121106e-01 3.220991e-01 3.602373e-01 1.463560e-01 2.451164e-01 2.963534e-01 2.487915e-01 1.112754e-01
<GCONST> 8.975932e+01
<TRANSP> 5
 0.000000e+00 1.000000e+00 0.000000e+00 0.000000e+00 0.000000e+00
 0.000000e+00 9.019610e-01 9.803896e-02 0.000000e+00 0.000000e+00
 0.000000e+00 0.000000e+00 9.078774e-01 9.212262e-02 0.000000e+00
 0.000000e+00 0.000000e+00 0.000000e+00 9.272456e-01 7.275448e-02
 0.000000e+00 0.000000e+00 0.000000e+00 0.000000e+00 0.000000e+00
<ENDHMM>
~o
<STREAMINFO> 1 39
<VECSIZE> 39<NULLD><MFCC_D_A_0><DIAGC>
~h "ni"
<BEGINHMM>
<NUMSTATES> 5
<STATE> 2
<NUMMIXES> 3
<MIXTURE> 1 3.211974e-01
<MEAN> 39
 -8.615337e+00 8.541613e+00 1.230292e+01 -1.261931e+01 7.825322e-01 2.106362e+00 -1.248617e+01 -7.475924e+00 -7.060912e-01 -2.888811e+00 -6.330393e-01 -6.139859e+00 7.162955e+01 -7.200822e-01 -3.774934e-01 1.306612e+00 -2.657368e+00 -2.439237e-02 1.520767e+00 -1.625752e+00 -9.330059e-02 1.576673e-01 -3.462984e-01 3.132055e-01 -1.144736e+00 1.360942e+00 2.081771e-01 -1.090364e-01 -4.568017e-01 8.321273e-01 -7.803629e-02 -9.022527e-02 4.924465e-01 2.236715e-01 8.920580e-02 -7.486945e-02 -1.110256e-02 2.701098e-01 -4.958758e-01
<VARIANCE> 39
 5.103864e+00 2.037739e+01 2.413654e+01 4.303138e+01 6.723094e+00 3.372448e+01 1.473484e+01 2.276143e+01 3.396923e+01 6.938187e+01 1.212594e+01 3.633572e+01 8.818098e+00 6.755477e-01 3.391974e-01 6.543297e-01 2.774633e+00 1.074089e+00 1.481494e+00 8.280950e-01 1.210923e+00 1.124766e+00 5.746883e-01 1.053580e+00 1.374876e+00 6.018604e-01 1.124806e-01 1.694599e-01 7.732550e-02 3.099617e-01 1.880136e-01 2.174630e-01 1.228777e-01 4.153365e-01 2.837096e-01 1.853508e-01 2.065104e-01 1.924769e-01 1.721875e-02
<GCONST> 8.545749e+01
<MIXTURE> 2 4.648087e-01
<MEAN> 39
 -2.909079e+00 9.122615e+00 4.320611e+00 2.538074e+00 -1.611140e+00 -3.174556e+00 -3.757143e+00 -8.227325e+00 -1.499150e+00 -5.311953e+00 -2.451014e+00 -3.392117e-01 5.994265e+01 1.583871e-01 9.429840e-01 1.294088e+00 -1.711747e+00 -5.654855e-01 -4.209043e-01 -1.668790e+00 -1.117172e+00 -1.814241e-01 4.830475e-02 -9.495362e-03 -5.573177e-01 2.265005e+00 -4.734975e-01 -3.209037e-01 6.643914e-02 -6.207765e-01 1.125140e-01 4.228336e-01 -1.963619e-01 2.522877e-01 6.075429e-02 1.753628e-01 2.344525e-01 -1.524694e-01 5.156547e-02
<VARIANCE> 39
 1.403624e+01 1.097473e+01 2.321102e+01 2.936635e+01 2.515185e+01 3.206855e+01 2.362441e+01 4.709069e+01 1.168586e+02 3.373124e+01 9.595657e+00 1.968637e+01 3.022780e+01 3.551536e+00 1.101572e+00 1.983669e+00 5.076264e+00 2.417280e+00 2.258011e+00 2.239165e+00 5.022503e+00 4.644615e+00 1.874445e+00 2.011687e+00 1.555067e+00 5.484501e-01 2.165562e-01 1.930481e-01 2.279056e-01 5.280945e-01 3.259884e-01 4.900680e-01 3.776028e-01 5.519303e-01 6.969395e-01 3.217261e-01 2.544909e-01 3.107004e-01 9.199855e-02
<GCONST> 1.092572e+02
<MIXTURE> 3 2.139939e-01
<MEAN> 39
 8.999432e-01 7.805079e+00 1.192764e+01 -4.560238e+00 -1.360149e+01 7.128423e-01 -1.828680e+00 -1.841780e+01 -7.195843e+00 5.796247e+00 5.439894e+00 -7.067615e+00 5.597812e+01 1.699504e-03 -1.383818e-01 9.046500e-01 -2.725103e+00 -9.757183e-01 4.245864e-01 -1.013589e-01 -4.632071e-01 -1.164536e-02 -2.401065e-01 -9.410658e-02 8.206363e-02 1.410064e+00 -3.526342e-01 -1.519537e-01 -9.991410e-02 -1.318618e-01 2.887321e-01 1.097231e-01 -3.087740e-02 6.553022e-01 9.062324e-02 -3.006333e-01 -2.713538e-01 9.975991e-02 -1.440671e-01
<VARIANCE> 39
 3.726052e+00 1.538464e+00 8.158104e+00 8.772247e+01 1.089268e+01 1.309236e+01 9.266695e+00 6.695379e+00 9.680017e+00 7.051818e+00 1.400455e+01 1.130569e+01 1.148673e+01 1.359516e+00 2.608612e-01 7.394899e-01 4.418160e+00 3.239397e+00 1.736723e+00 1.895333e+00 3.599885e+00 1.425356e+00 1.415360e+00 3.622182e+00 2.631648e+00 2.698577e-01 2.204990e-01 1.150884e-01 2.004421e-01 1.171795e+00 5.626561e-01 2.775635e-01 4.578938e-01 7.882584e-01 4.059928e-01 2.123485e-01 7.566183e-01 6.220435e-01 9.415163e-02
<GCONST> 9.268944e+01
<STATE> 3
<NUMMIXES> 3
<MIXTURE> 1 5.358152e-01
<MEAN> 39
 -8.431697e+00 9.633371e+00 9.492118e+00 -1.226783e+01 -1.712395e-01 2.525506e+00 -1.444190e+01 -6.160556e+00 -2.787742e+00 -8.848544e+00 -3.620791e+00 -6.937679e+00 6.935361e+01 3.147651e-02 -6.790587e-02 -2.770302e-01 1.467830e-01 1.333043e-02 -1.958745e-01 1.146383e-01 3.610313e-01 3.000366e-02 -2.507522e-01 1.668804e-02 3.447447e-01 -6.389198e-01 -2.002096e-02 -9.329417e-02 -5.694805e-02 2.846926e-01 3.320193e-02 -5.751768e-02 2.147898e-01 3.684479e-02 -2.823113e-02 1.336076e-01 3.487561e-02 1.166323e-01 -2.010428e-01
<VARIANCE> 39
 4.786228e+00 8.127288e+00 1.209243e+01 1.032580e+01 1.315693e+01 5.111747e+01 1.281801e+01 1.254831e+01 1.203702e+01 7.935602e+01 2.118430e+01 2.549377e+01 1.523647e+01 3.037405e-01 3.830258e-01 5.241657e-01 8.682585e-01 4.849558e-01 1.068041e+00 1.036950e+00 1.225254e+00 7.514575e-01 2.147494e+00 9.440429e-01 1.011105e+00 7.321814e-01 5.718732e-02 9.570733e-02 1.399940e-01 1.070689e-01 7.803188e-02 1.628947e-01 1.786585e-01 2.258985e-01 1.562290e-01 2.855948e-01 1.506168e-01 1.798049e-01 4.208589e-02
<GCONST> 7.752753e+01
<MIXTURE> 2 2.828577e-01
<MEAN> 39
 -1.192705e+01 6.192972e+00 1.924453e+01 -2.293455e+01 -1.174676e+00 -3.402332e+00 -1.601405e+01 -1.030104e+01 5.648985e+00 -8.739244e+00 8.174693e+00 -2.506465e+00 7.054885e+01 -2.788086e-02 1.829685e-01 1.140689e-01 -3.542970e-02 -1.559520e-01 -4.757307e-01 3.004312e-01 -1.165742e-01 -4.473670e-02 8.176960e-03 3.193397e-01 -1.417275e-01 -3.645404e-01 2.883792e-02 -2.310147e-02 -4.102419e-02 2.940407e-02 1.310684e-02 -1.165472e-01 5.566301e-02 3.356696e-02 5.168833e-03 1.859345e-02 -6.698425e-02 3.764960e-02 -1.039008e-01
<VARIANCE> 39
 1.213218e+00 4.615352e+00 4.440048e+00 9.751222e+00 3.781661e+00 2.295045e+01 2.893061e+01 4.943132e+01 2.837235e+01 5.273694e+00 1.850015e+01 7.159762e+00 5.584069e+00 8.857419e-02 3.101640e-01 2.190507e-01 2.786185e-01 1.418594e-01 7.857105e-01 7.924013e-01 5.448193e-01 4.083592e-01 2.650717e-01 4.626359e-01 4.581147e-01 2.113168e-01 1.678769e-02 6.661698e-02 3.869644e-02 6.880106e-02 2.440825e-02 1.483402e-01 1.848474e-01 1.303361e-01 7.223451e-02 5.736564e-02 1.144239e-01 1.022324e-01 1.346604e-02
<GCONST> 4.944353e+01
<MIXTURE> 3 1.813272e-01
<MEAN> 39
 -1.794608e+00 2.077874e+00 1.842551e+01 -2.193301e+01 -1.893229e+01 4.947992e+00 -9.293620e+00 -1.555973e+01 -1.057198e+01 1.752544e+00 2.749972e+00 -7.288686e+00 6.398314e+01 -8.752879e-02 -5.371807e-01 2.919275e-02 -4.247551e-01 -3.469919e-01 -4.534051e-02 -1.088767e+00 7.742396e-02 -4.869455e-01 2.028220e-01 2.394686e-01 -3.059669e-01 -5.601493e-02 -7.391188e-02 1.026984e-01 -7.963797e-02 8.362502e-02 1.102592e-01 -2.195346e-02 -1.208017e-02 -5.730776e-02 1.236588e-01 1.782499e-01 1.395526e-01 1.145178e-02 -2.399491e-01
<VARIANCE> 39
 9.915813e-01 7.204443e+00 6.391179e+00 5.617388e+00 7.783547e+00 7.791259e+00 1.732654e+01 8.243628e+00 1.032003e+01 5.242870e+00 5.424214e+00 5.386097e+00 2.984717e+00 1.045550e-01 7.792664e-01 8.695730e-01 2.927915e-01 9.888797e-01 3.775756e-01 4.077409e-01 8.645466e-01 7.088102e-01 9.465633e-01 1.148844e+00 5.270378e-01 5.550115e-01 5.686102e-02 7.968239e-02 1.441031e-01 1.444103e-01 1.484855e-01 1.092717e-01 7.081092e-02 1.999655e-01 1.153154e-01 1.432613e-01 1.887979e-01 1.347203e-01 1.090879e-02
<GCONST> 5.741647e+01
<STATE> 4
<NUMMIXES> 3
<MIXTURE> 1 6.769704e-01
<MEAN> 39
 -9.871758e+00 4.748082e+00 5.158209e+00 -4.462043e+00 6.399499e-01 1.636359e+00 -6.923360e+00 -2.161188e+00 -2.883058e+00 -4.136105e+00 3.920597e-01 -2.397740e+00 5.563758e+01 -1.361308e-01 -8.722220e-01 -1.479064e+00 2.232296e+00 7.033761e-01 4.614300e-01 1.735191e+00 7.549697e-01 3.428728e-01 6.145642e-01 3.713241e-01 7.859974e-01 -1.487782e+00 3.139044e-02 5.643999e-02 7.421473e-02 -2.585210e-01 -9.708019e-02 4.294731e-02 -7.205023e-02 -1.575956e-01 1.254081e-01 -1.088339e-02 2.531753e-02 -5.671254e-02 3.182248e-01
<VARIANCE> 39
 3.266453e+00 8.964391e+00 1.296129e+01 3.517900e+01 1.798010e+01 1.574104e+01 2.119214e+01 2.572580e+01 1.583731e+01 2.976619e+01 3.635799e+01 1.189275e+01 4.058942e+01 3.547335e-01 6.640375e-01 2.174075e+00 1.471888e+00 1.231478e+00 2.440793e+00 1.656494e+00 1.777590e+00 2.612371e+00 2.352394e+00 1.783332e+00 1.754718e+00 7.358935e-01 5.084454e-02 9.789790e-02 3.447501e-01 3.015434e-01 1.861839e-01 3.794311e-01 2.654466e-01 3.460483e-01 3.714529e-01 3.813332e-01 3.540484e-01 2.732199e-01 6.587736e-02
<GCONST> 9.398510e+01
<MIXTURE> 2 1.751797e-01
<MEAN> 39
 -1.217095e+01 6.789919e+00 1.672382e+01 -2.011595e+01 -3.541753e+00 -1.100746e+01 -1.222367e+01 -5.954933e+00 2.403685e+00 -6.629715e+00 8.524201e+00 -1.930977e+00 6.292503e+01 7.478715e-02 -6.194168e-01 -1.063297e+00 1.153940e+00 -8.865280e-03 3.616788e-01 4.058340e-01 9.295404e-01 -1.019863e+00 2.971190e-01 -1.168496e+00 3.005298e-01 -1.562842e+00 1.154122e-01 -4.440236e-02 -4.993165e-01 4.609660e-01 2.390163e-01 6.255530e-01 2.518397e-01 2.404361e-01 -2.683395e-01 -7.090353e-02 -1.587743e-01 -1.748274e-02 -2.976449e-01
<VARIANCE> 39
 2.370904e+00 1.017401e+01 1.142786e+01 2.445903e+01 7.170210e+00 1.112710e+01 2.370818e+01 6.676801e+01 4.173098e+01 1.338303e+01 5.320730e+01 1.088460e+01 9.575661e+00 2.449237e-01 3.178901e-01 1.263138e+00 1.973433e+00 1.007101e+00 1.489217e+00 5.750265e-01 1.217394e+00 8.088903e-01 5.589883e-01 2.034248e+00 6.163086e-01 1.074188e+00 6.040901e-02 1.023126e-01 8.963782e-02 2.514546e-01 1.783217e-01 3.145289e-01 7.701755e-02 2.745540e-01 1.607042e-01 1.810832e-01 4.514212e-01 1.606834e-01 8.664850e-02
<GCONST> 8.087637e+01
<MIXTURE> 3 1.478498e-01
<MEAN> 39
 -7.808785e+00 1.415382e+00 1.572121e+01 -2.264532e+01 -1.538141e+01 4.623897e+00 -1.773377e+01 -1.184005e+01 -1.018617e+01 7.651917e+00 9.509365e+00 -8.614889e+00 5.506774e+01 -1.715418e+00 1.744920e-02 -1.675120e+00 2.566531e+00 1.934608e+00 -4.392705e-01 9.067365e-01 2.317713e+00 1.336858e+00 2.211168e-01 8.257983e-01 8.433296e-01 -2.719823e+00 2.844947e-02 -2.250576e-02 -6.854268e-01 1.007432e+00 4.413958e-01 -3.315279e-01 8.855552e-01 4.255325e-01 4.720247e-01 -4.178559e-01 -4.984923e-01 5.191169e-01 -1.773123e-01
<VARIANCE> 39
 1.194993e+01 1.070979e+00 8.934609e+00 2.762934e+01 2.281633e+01 7.075402e+00 7.144389e+00 1.791148e+01 7.156009e+00 1.288335e+01 8.142789e+00 1.128686e+01 2.109086e+01 2.567874e-01 2.299153e-01 3.622974e+00 6.299038e+00 1.920165e+00 1.667744e+00 3.791971e+00 1.335401e+00 9.742758e-01 1.501470e+00 1.050388e+00 2.233497e+00 3.572600e-01 1.407374e-01 5.032467e-02 2.641827e-01 4.091306e-01 2.329588e-01 2.059974e-01 1.345753e-01 2.159348e-01 8.902683e-02 1.712355e-01 7.501145e-02 2.302455e-01 1.248542e-01
<GCONST> 8.097963e+01
<TRANSP> 5
 0.000000e+00 1.000000e+00 0.000000e+00 0.000000e+00 0.000000e+00
 0.000000e+00 8.802695e-01 1.197305e-01 0.000000e+00 0.000000e+00
 0.000000e+00 0.000000e+00 9.200019e-01 7.999813e-02 0.000000e+00
 0.000000e+00 0.000000e+00 0.000000e+00 8.613883e-01 1.386118e-01
 0.000000e+00 0.000000e+00 0.000000e+00 0.000000e+00 0.000000e+00
<ENDHMM>
~o
<STREAMINFO> 1 39
<VECSIZE> 39<NULLD><MFCC_D_A_0><DIAGC>
~h "roku"
<BEGINHMM>
<NUMSTATES> 9
<STATE> 2
<NUMMIXES> 3
<MIXTURE> 1 4.013905e-01
<MEAN> 39
 -3.562116e-01 1.073338e+00 -3.439301e+00 -7.422277e+00 -4.106758e+00 -2.471838e-01 -1.053386e+01 -1.037124e+01 4.971209e+00 2.582998e+00 5.130615e+00 -8.640962e+00 7.117622e+01 -1.023726e-01 1.652845e+00 -1.821186e+00 -4.536245e+00 7.498246e-01 2.369003e+00 9.425101e-01 -1.642859e+00 -1.426028e+00 1.032530e+00 1.555910e+00 -9.480925e-02 1.322320e+00 -1.860393e-01 1.978808e-01 1.627899e-01 5.473352e-01 3.731303e-01 6.522226e-02 5.670609e-01 6.503488e-01 -6.895198e-01 -9.816845e-01 -1.306871e-01 9.410734e-01 -7.757404e-01
<VARIANCE> 39
 7.510599e+00 1.992106e+01 2.828642e+01 6.473267e+01 6.133360e+01 2.388576e+01 3.643610e+01 4.430042e+01 3.978194e+01 1.556598e+01 3.179532e+01 3.055018e+01 1.677713e+01 1.510093e+00 7.494899e-01 2.318324e+00 5.385332e+00 2.454093e+00 5.399657e+00 5.027689e+00 4.252379e+00 5.410614e+00 4.528898e+00 1.699056e+00 3.472550e+00 1.221705e+00 2.867133e-01 2.759040e-01 3.411440e-01 7.022355e-01 5.649194e-01 4.589239e-01 9.175171e-01 5.268587e-01 5.668439e-01 1.066827e+00 3.698178e-01 4.012396e-01 4.811684e-02
<GCONST> 1.169824e+02
<MIXTURE> 2 1.951885e-01
<MEAN> 39
 2.714529e+00 -5.772295e+00 -2.405188e+00 1.928455e+01 2.023618e-01 -1.306812e+01 -1.576746e+01 -7.582316e+00 -2.965047e+00 -1.492291e+01 -5.576455e+00 4.144690e+00 6.410387e+01 5.333782e-01 -7.249817e-01 -9.891427e-01 -8.339466e-01 -1.324290e+00 3.459918e-01 -1.028947e+00 -1.596738e+00 9.818976e-01 9.180778e-01 7.781479e-01 -2.593255e-01 2.750311e+00 -7.530488e-01 5.211164e-01 -1.347192e-01 -1.713892e+00 -4.345803e-02 1.810561e+00 5.874055e-01 -8.810160e-02 1.244276e-02 1.070426e+00 8.825067e-01 -1.531637e-02 -1.969317e-01
<VARIANCE> 39
 2.152744e+00 7.048066e+00 1.575187e+01 1.801937e+01 1.034021e+01 1.643588e+01 5.710399e+00 2.244199e+01 8.099421e+00 3.544910e+01 9.062528e+00 1.259869e+01 2.002983e+01 2.363909e+00 2.703316e+00 8.452345e-01 1.459755e+01 1.497189e+00 1.255339e+01 3.613241e+00 2.662569e+00 1.200038e+00 1.345164e+01 2.347257e+00 1.084124e+00 5.907593e-01 1.355034e-01 3.426335e-01 1.364832e-01 7.561225e-01 2.250209e-01 5.315052e-01 8.163311e-01 6.555849e-01 2.116610e-01 1.856491e+00 2.245459e-01 1.857077e-01 1.044408e-01
<GCONST> 1.017226e+02
<MIXTURE> 3 4.034211e-01
<MEAN> 39
 -1.007685e+00 4.135805e-01 1.414476e+00 4.762729e+00 2.793300e-01 -7.023382e+00 -1.357422e+01 -6.995185e+00 6.832981e+00 -7.148028e+00 1.805933e+00 -4.075388e+00 6.084686e+01 1.363180e+00 -5.868372e-01 -3.549018e-01 -1.610241e+00 -1.094588e+00 -3.810532e-01 -1.863011e+00 -1.715805e+00 1.138451e+00 -1.238326e-01 1.246117e+00 -1.334587e+00 3.022621e+00 -5.098579e-01 7.449520e-02 -5.241178e-01 -1.242594e+00 -3.632341e-02 8.093165e-01 1.017558e+00 -1.955344e-01 -2.037049e-01 7.644818e-01 2.913543e-01 5.441856e-02 -5.573096e-02
<VARIANCE> 39
 9.605103e+00 1.501518e+01 3.710854e+01 2.975837e+01 5.188625e+01 5.166541e+01 6.591473e+01 6.015089e+01 5.937677e+01 2.686456e+01 2.241909e+01 1.195853e+01 3.107016e+01 2.172942e+00 1.677732e+00 1.956794e+00 7.615314e+00 5.369499e+00 7.416682e+00 1.042535e+01 3.801887e+00 6.903411e+00 4.211400e+00 3.397832e+00 2.109822e+00 1.294480e+00 2.096227e-01 5.011533e-01 5.085580e-01 8.049719e-01 8.390257e-01 1.155143e+00 1.169195e+00 5.805533e-01 1.414930e+00 6.128971e-01 3.015615e-01 4.306712e-01 2.556873e-01
<GCONST> 1.260811e+02
<STATE> 3
<NUMMIXES> 3
<MIXTURE> 1 4.396952e-01
<MEAN> 39
 -3.350555e+00 3.215560e+00 -7.117918e+00 -1.947339e+01 -9.224798e-01 2.418034e+00 -7.300137e+00 -1.501375e+01 3.864248e+00 -1.031432e+01 1.052125e+01 4.321929e+00 7.418585e+01 3.673595e-01 1.354617e+00 -1.261350e-01 -2.365160e+00 -6.600479e-01 8.452570e-01 1.881996e+00 8.333170e-01 -5.120367e-01 -2.516631e+00 -4.920642e-01 1.516190e+00 -3.331767e-01 3.680933e-01 -1.557697e-01 2.687598e-01 1.246672e+00 -7.523189e-02 -6.030591e-01 1.311352e-01 2.029992e-01 -9.834922e-02 -1.186477e-02 -7.310232e-01 -3.359646e-01 -6.626272e-01
<VARIANCE> 39
 7.398520e+00 7.418480e+00 5.079838e+00 6.427031e+01 1.626352e+01 6.535023e+01 9.104099e+01 1.590820e+01 3.569767e+01 4.032550e+01 1.896387e+01 3.909761e+01 1.186727e+00 6.005234e-01 2.801449e-01 4.806969e-01 4.350943e+00 1.251089e+00 2.710660e+00 1.292574e+00 4.102283e-01 1.002087e+00 4.073717e+00 2.741289e+00 1.624087e+00 6.400033e-01 7.761141e-02 5.333583e-02 6.992067e-02 3.649983e-01 3.076370e-01 4.570204e-01 5.757062e-01 1.621317e-01 1.097207e-01 2.007016e+00 2.540099e-01 5.516405e-01 6.334373e-02
<GCONST> 9.203916e+01
<MIXTURE> 2 3.328117e-01
<MEAN> 39
 -1.529797e+00 8.061687e+00 -6.599299e+00 -9.842721e+00 1.881576e+00 4.526185e+00 -5.150806e+00 -4.655482e+00 -1.077604e+01 4.185292e-02 5.935689e+00 -3.378215e+00 6.868076e+01 -9.184622e-01 -7.443675e-02 9.680409e-01 1.570232e+00 6.839617e-02 -3.184835e-01 8.907430e-01 3.779628e-01 -1.779849e+00 -1.651444e+00 -6.371254e-01 1.958349e+00 -2.151561e+00 -3.950602e-01 -6.463306e-01 4.371392e-01 1.131015e+00 7.735597e-02 -5.432015e-01 4.594263e-02 1.284568e-01 1.201766e+00 -6.413893e-02 -5.782849e-01 -2.983489e-01 -4.188362e-01
<VARIANCE> 39
 2.072174e+00 4.703703e+00 2.214442e+00 6.511201e+00 2.736122e+01 2.141052e+01 6.535118e+00 4.800189e+01 2.067128e+01 1.813857e+01 1.941369e+01 2.857600e+01 2.046526e+01 4.411629e-01 1.716564e+00 5.481350e-01 3.329107e+00 9.394650e-01 2.870706e+00 2.210643e+00 3.891519e+00 4.452420e+00 1.086337e+00 1.339789e+00 2.556279e+00 1.773325e+00 1.190927e-01 9.633223e-02 1.884115e-01 2.589138e-01 3.828255e-01 3.543080e-01 2.146367e-01 1.302050e+00 3.524168e-01 3.349546e-01 1.752428e-01 6.579154e-01 2.792076e-01
<GCONST> 9.452242e+01
<MIXTURE> 3 2.274930e-01
<MEAN> 39
 3.933475e+00 2.554692e-01 -8.189133e+00 -2.296178e+01 -1.438805e+01 9.713650e+00 -5.365316e+00 -2.067194e+01 5.881785e+00 -2.172393e+00 9.350618e+00 -4.068272e+00 6.959988e+01 2.071190e-01 4.878162e-01 -1.262385e-02 -1.120897e+00 -8.150560e-01 1.487990e+00 3.818254e-01 2.485679e-01 -1.426554e+00 -1.904638e+00 6.816832e-01 3.801563e-01 -2.095752e-01 -9.022192e-02 -3.741047e-02 5.205224e-01 6.338697e-01 1.500290e-01 -5.856037e-01 -4.887899e-01 9.545739e-01 -4.396736e-01 -1.030990e-01 -3.051463e-01 -1.516214e-01 -2.991693e-01
<VARIANCE> 39
 1.869410e+00 1.153966e+01 2.006974e+01 1.248959e+01 1.516643e+01 1.330858e+01 1.775643e+01 7.523385e+00 3.065173e+01 1.024064e+01 1.658720e+01 1.259977e+01 5.123228e+00 5.232422e-01 5.510690e-01 1.893568e+00 2.766423e-01 1.267833e+00 1.114002e+00 5.703429e+00 4.361148e+00 1.668789e+00 2.098979e+00 1.983707e+00 2.710142e+00 2.116485e-01 3.365585e-02 7.787576e-02 3.420664e-01 3.013622e-01 7.031416e-01 4.815689e-01 9.166464e-01 3.673233e-01 3.235958e-01 3.477960e-01 5.393316e-01 3.841781e-01 7.866115e-02
<GCONST> 8.956280e+01
<STATE> 4
<NUMMIXES> 3
<MIXTURE> 1 2.055883e-01
<MEAN> 39
 1.324149e+00 6.237053e+00 -5.249183e+00 -2.097381e+01 -7.678825e+00 6.075406e+00 -3.408368e+00 -1.137729e+01 -1.494686e+00 -1.324245e+01 6.392144e+00 2.533725e+00 6.802281e+01 3.197698e-01 7.962674e-01 3.469476e-01 1.990616e+00 1.499405e+00 -2.076138e-01 1.467169e+00 1.849630e+00 -2.101972e+00 1.288207e+00 -1.688043e+00 1.140399e-01 -2.787346e+00 -4.532036e-01 -3.408186e-01 -9.091763e-02 8.505598e-01 7.732574e-01 -1.460597e-01 7.737628e-02 -3.852991e-02 6.141012e-02 1.049437e+00 -7.411860e-03 3.335237e-01 -5.845479e-01
<VARIANCE> 39
 1.531411e+01 1.436160e+01 8.292926e+00 4.525975e+01 5.323195e+01 7.311800e+01 5.253578e+01 6.745856e+00 2.872544e+01 3.549439e+01 2.380315e+01 3.671588e+01 1.172092e+01 4.114522e-01 8.440294e-01 7.883245e-01 1.138069e+00 4.081946e+00 1.670864e+00 3.910637e+00 1.389259e+00 1.940461e+00 3.166846e+00 9.126075e-01 5.743466e+00 1.075914e+00 1.048250e-01 2.137941e-01 1.485015e-01 2.481621e-01 5.126386e-01 3.483119e-01 7.354755e-01 1.218330e-01 6.658511e-01 5.599259e-01 3.634613e-01 8.493426e-01 2.238252e-01
<GCONST> 1.043956e+02
<MIXTURE> 2 5.418805e-01
<MEAN> 39
 -8.048857e+00 3.928833e+00 -3.161607e+00 -2.224722e+00 2.246136e+00 -1.353471e+00 3.078911e-01 -4.637023e+00 -3.148319e+00 -1.437255e+00 1.383621e+00 1.905038e+00 5.523590e+01 -1.050372e+00 -6.949032e-01 3.233719e-01 1.293218e+00 8.962840e-02 -1.779042e-01 4.888833e-01 6.311809e-01 1.351481e+00 6.430079e-01 -2.748582e-01 -7.964513e-02 -9.487758e-01 2.531111e-01 -1.016977e-01 -2.849806e-01 -4.441961e-01 -1.915231e-02 2.919854e-01 -2.630657e-01 -3.753813e-02 -1.610232e-01 1.002030e-02 1.223499e-01 -1.675079e-01 5.743969e-01
<VARIANCE> 39
 9.476400e+00 1.001822e+01 1.437993e+01 3.735433e+01 2.542279e+01 3.555130e+01 2.082355e+01 1.794192e+01 2.182308e+01 4.071638e+01 2.055879e+01 2.696063e+01 2.757895e+01 8.424158e-01 4.469307e-01 8.401667e-01 1.845204e+00 2.163366e+00 3.757212e+00 1.119178e+00 1.934788e+00 1.965733e+00 2.841403e+00 2.366614e+00 1.058340e+00 5.372304e-01 2.011715e-01 2.363241e-01 2.279625e-01 2.223277e-01 5.843147e-01 7.078789e-01 3.757794e-01 4.210694e-01 4.746600e-01 7.175822e-01 4.046926e-01 4.337989e-01 1.201037e-01
<GCONST> 1.023263e+02
<MIXTURE> 3 2.525312e-01
<MEAN> 39
 -4.518960e-01 5.344573e+00 -4.926884e+00 -1.039395e+01 -5.112293e-01 6.860956e+00 1.619971e+00 -6.306315e+00 -6.645905e+00 -7.628404e+00 1.971487e+00 5.946404e+00 5.700938e+01 -1.618077e+00 -7.478315e-01 -3.058662e-01 2.028297e+00 1.084231e+00 -1.484522e+00 5.567065e-01 6.757807e-01 -4.096188e-02 2.201260e+00 -1.220082e-01 8.672181e-01 -2.610390e+00 -3.137776e-01 -1.398388e-01 -1.168399e-01 -3.249783e-01 -6.210637e-01 -4.399664e-01 -3.891108e-01 -3.215975e-01 7.334707e-01 7.724537e-02 3.830003e-01 -2.760303e-01 3.952993e-01
<VARIANCE> 39
 9.153315e+00 1.181129e+01 3.449180e+00 4.486864e+01 1.546364e+01 6.698928e+01 1.587877e+01 6.385447e+00 2.557086e+01 3.247511e+01 1.616541e+01 1.921167e+01 1.863963e+01 7.504464e-01 4.563985e-01 9.097620e-01 1.838005e+00 3.287485e+00 2.919732e+00 2.749245e+00 1.185054e+00 2.727499e+00 3.389330e+00 1.738692e+00 4.973460e+00 1.647298e+00 1.378308e-01 1.760971e-01 1.848080e-01 2.717020e-01 2.478712e-01 4.389459e-01 2.900776e-01 2.861715e-01 4.342994e-01 8.374739e-01 3.338887e-01 6.577479e-01 1.794992e-01
<GCONST> 1.004539e+02
<STATE> 5
<NUMMIXES> 3
<MIXTURE> 1 1.466218e-01
<MEAN> 39
 -5.037182e+00 6.790510e-01 -9.430561e+00 5.812717e+00 2.282904e+00 -1.440377e+01 -3.469984e+00 -4.849043e+00 4.188000e+00 -2.721556e-01 -1.627050e+00 -4.258474e+00 7.693446e+01 1.816946e+00 2.263434e+00 3.115137e+00 1.905560e+00 -1.036381e+00 -1.826224e+00 -2.087081e+00 2.879192e-01 -1.180052e+00 -4.987964e-01 1.093230e+00 -1.627774e+00 1.890988e+00 -4.599328e-02 -9.292600e-02 8.493305e-01 -2.278133e-01 -4.718706e-01 8.365699e-01 -1.456164e-01 4.263537e-01 -6.660149e-01 7.392032e-02 5.567953e-01 -6.023389e-02 -1.110387e+00
<VARIANCE> 39
 1.155809e+01 3.272626e+01 6.129133e+01 1.688300e+01 1.160219e+01 9.522655e+00 1.277870e+01 8.916242e+00 1.642784e+01 9.691940e+00 1.556314e+01 9.342164e+00 3.599466e+00 3.386897e-01 1.177280e+00 4.516615e+00 7.653504e-01 1.546107e+00 4.244621e+00 1.073315e+00 1.624543e+00 2.884140e+00 4.222890e-01 3.214654e+00 4.106859e-01 4.750028e+00 2.845975e-01 1.158525e+00 2.267503e+00 4.198149e-01 2.340458e-01 3.465549e-01 3.877404e-01 1.563068e-01 3.689734e-01 1.256846e-01 7.218745e-01 1.796195e-01 4.125699e-01
<GCONST> 9.764382e+01
<MIXTURE> 2 4.744071e-01
<MEAN> 39
 -9.575969e+00 5.691756e-01 -3.826802e+00 -6.189141e-01 1.294109e+00 7.979575e-01 2.824437e-01 -2.385974e+00 -5.794017e-01 9.202259e-01 1.884470e+00 2.169703e+00 5.302205e+01 -3.150180e-01 -1.997263e+00 -2.331141e+00 -5.340360e-01 1.103674e+00 -6.678482e-01 -1.920953e+00 -7.626252e-01 5.932723e-02 9.732594e-01 -4.494855e-01 -8.427399e-01 2.697188e+00 2.205267e-01 -1.451645e-01 -5.278651e-01 -1.823678e-01 3.324991e-01 -5.235398e-01 -6.481195e-01 -4.978772e-01 -1.460293e-01 -4.062905e-02 -3.206978e-01 -2.066838e-01 1.273912e+00
<VARIANCE> 39
 7.675529e+00 5.693478e+00 9.672446e+00 1.205130e+01 1.812096e+01 1.800463e+01 1.234574e+01 1.652098e+01 1.001552e+01 2.347172e+01 2.508588e+01 1.349809e+01 2.952193e+01 1.768661e+00 2.515004e+00 2.556765e+00 1.950497e+00 4.579426e+00 2.760708e+00 2.984795e+00 2.197515e+00 2.678837e+00 2.044925e+00 3.154071e+00 4.087925e+00 3.619779e+00 1.686350e-01 3.500834e-01 3.256913e-01 2.682784e-01 5.439357e-01 2.558225e-01 3.813560e-01 2.531845e-01 4.893543e-01 3.526374e-01 4.644648e-01 4.385446e-01 3.456163e-01
<GCONST> 1.050622e+02
<MIXTURE> 3 3.789711e-01
<MEAN> 39
 -8.814219e+00 -4.526244e+00 -1.236334e+01 -4.511060e+00 6.156038e+00 -1.998905e+00 -9.196823e+00 -5.848982e+00 -4.862873e+00 5.566712e+00 7.334026e-02 -2.589668e+00 6.602258e+01 7.824189e-01 5.301218e-01 2.604259e-01 6.679525e-01 6.339484e-02 -2.137773e+00 -2.984210e+00 -1.762435e+00 -9.636095e-01 -3.077195e-01 -1.198553e+00 -2.031707e+00 2.920085e+00 3.288517e-01 1.029619e+00 1.287587e+00 5.110542e-01 -1.062076e+00 -2.091864e-01 1.618708e-01 -2.889629e-01 2.037113e-01 -6.536504e-01 1.629957e-01 1.714656e-01 -6.861928e-01
<VARIANCE> 39
 4.961558e+00 2.608228e+01 2.575021e+01 2.087526e+01 9.282296e+00 5.184364e+01 3.403804e+01 1.264590e+01 2.268670e+01 5.826701e+01 4.640891e+01 1.948995e+01 2.084947e+01 1.163364e+00 6.859542e+00 7.061745e+00 2.692066e+00 4.955235e+00 1.389772e+00 2.352109e+00 1.725967e+00 2.432608e+00 3.584913e+00 4.144795e+00 2.777909e+00 6.422425e+00 1.861288e-01 8.513466e-01 4.891512e-01 3.592631e-01 1.065143e+00 4.997120e-01 3.784489e-01 2.253113e-01 6.791044e-01 4.761322e-01 1.030962e+00 4.851508e-01 3.278584e-01
<GCONST> 1.173110e+02
<STATE> 6
<NUMMIXES> 3
<MIXTURE> 1 4.303292e-01
<MEAN> 39
 -1.567520e+00 3.943059e+00 1.284709e+00 5.029315e+00 -5.964261e+00 -1.461213e+01 -1.157967e+01 1.191638e+00 -1.874223e+00 4.212798e-01 6.812593e-01 -5.968191e+00 7.642670e+01 -2.319926e-01 1.058094e-01 4.655196e-01 -6.566057e-01 -6.451014e-01 2.766792e-02 -3.066793e-01 2.414536e-01 -3.118885e-01 1.511031e-01 -3.532848e-01 5.522112e-01 -3.715658e-01 -1.774717e-01 -9.885880e-02 -1.605343e-01 -8.709114e-02 1.950605e-01 -4.953256e-02 1.899831e-01 -1.304155e-01 9.739589e-02 7.495692e-02 -7.414019e-02 2.131838e-01 -9.889128e-02
<VARIANCE> 39
 1.027794e+00 6.122025e+00 4.399467e+00 1.089570e+01 7.631744e+00 5.933903e+00 6.329553e+00 8.703900e+00 7.862113e+00 1.203250e+01 5.354104e+00 1.111684e+01 5.483335e+00 3.722706e-01 7.781976e-01 3.288476e-01 5.893143e-01 9.786775e-01 5.086576e-01 7.075441e-01 1.065323e+00 9.205300e-01 7.438390e-01 4.875310e-01 6.526387e-01 4.001192e-01 4.588642e-02 2.267985e-01 1.963075e-01 1.225180e-01 2.272847e-01 1.159753e-01 1.512244e-01 1.516430e-01 2.292742e-01 1.684858e-01 2.250104e-01 1.366147e-01 3.410912e-02
<GCONST> 6.342799e+01
<MIXTURE> 2 2.906382e-01
<MEAN> 39
 -1.353461e+01 -8.695831e+00 -1.111685e+01 -4.366395e+00 7.727897e+00 -1.378496e+01 -6.226485e+00 -7.978555e+00 6.007675e+00 5.101166e+00 -5.278596e+00 5.827829e+00 6.343162e+01 -7.753217e-01 -3.836138e-01 8.506981e-01 6.975383e-01 -2.504996e-01 -1.361743e+00 -2.585720e-01 5.759277e-01 1.002264e+00 3.362622e-01 -5.837943e-02 2.195660e-01 4.150445e-01 -4.804575e-03 2.925040e-01 5.876735e-01 3.061723e-01 -3.219658e-01 2.671962e-01 2.434917e-01 3.215129e-01 -2.133751e-01 -1.711107e-01 1.638138e-01 -2.073939e-01 -5.990764e-01
<VARIANCE> 39
 5.834926e+00 6.533182e+00 2.387687e+01 9.393457e+00 1.268227e+01 1.870607e+01 1.497202e+01 1.570737e+01 1.820691e+01 6.067149e+00 1.030103e+01 1.627356e+01 6.248933e+00 4.946438e-01 1.436853e+00 5.637580e+00 1.863711e+00 2.015932e+00 1.746585e+00 2.687344e+00 1.133029e+00 1.785198e+00 1.704217e+00 1.839192e+00 1.772855e+00 3.245284e+00 1.138335e-01 4.768797e-01 1.011907e+00 2.788693e-01 7.150496e-01 2.899148e-01 5.791417e-01 4.067013e-01 2.060080e-01 3.175294e-01 4.376152e-01 3.189355e-01 6.985981e-01
<GCONST> 9.892061e+01
<MIXTURE> 3 2.790325e-01
<MEAN> 39
 -3.535400e+00 3.750932e+00 -2.760972e+00 3.540666e-01 -4.622008e+00 -6.679873e+00 -1.961732e+01 -1.420381e+01 -7.272014e+00 2.230138e-01 1.038933e+00 -8.529377e+00 6.856503e+01 1.098582e+00 2.994930e-01 1.428483e+00 1.186931e-01 -3.790584e+00 -9.955403e-01 -1.963126e+00 -1.305765e+00 1.324212e+00 -1.555279e+00 9.509612e-01 -5.677598e-01 7.409449e-01 -3.704841e-01 -8.848356e-01 -6.439804e-01 -5.792003e-01 2.470983e-01 3.801523e-01 6.541785e-01 7.476799e-01 7.488638e-01 1.003289e-01 3.214866e-01 6.187257e-01 -1.324115e-01
<VARIANCE> 39
 1.329569e+01 2.456998e+01 1.394243e+01 2.889797e+01 4.102618e+01 2.139746e+01 1.339651e+01 8.690058e+00 2.465074e+01 2.216855e+01 1.511546e+01 3.035673e+01 8.107472e+00 8.448085e-01 3.984106e+00 2.134724e+00 1.807039e+00 3.455945e+00 2.670264e+00 1.046893e+00 1.753246e+00 4.018167e+00 2.499642e+00 3.506497e+00 3.217119e+00 4.290559e-01 1.363118e-01 2.788970e-01 1.709161e-01 2.248730e-01 8.895987e-01 1.938769e-01 1.762649e-01 2.587906e-01 4.007222e-01 5.621503e-01 3.424580e-01 5.869268e-01 2.205768e-01
<GCONST> 1.028217e+02
<STATE> 7
<NUMMIXES> 3
<MIXTURE> 1 2.522212e-01
<MEAN> 39
 -7.354749e+00 3.895612e+00 -4.419459e+00 2.813460e+00 -1.066381e+01 -4.105493e+00 -2.371546e+01 -1.055488e+01 -8.781205e+00 -1.317631e+01 5.387580e+00 -5.466740e+00 7.333881e+01 1.072831e-01 -6.845327e-01 2.790160e-01 -5.093639e-01 1.346938e-01 -7.070363e-01 4.037065e-01 5.925499e-01 2.217313e-01 -4.565259e-02 5.714005e-01 8.188242e-01 -7.705156e-01 8.089738e-02 -1.228352e-02 4.825222e-02 9.307815e-02 3.241131e-01 2.474557e-02 3.665305e-01 4.537603e-03 4.417132e-02 5.316789e-01 -8.718550e-02 -5.570494e-02 -4.662358e-01
<VARIANCE> 39
 3.730201e+00 5.960498e+00 1.375519e+01 6.554451e+00 4.039792e+00 2.694594e+01 3.408236e+01 2.715438e+01 7.294930e+00 3.522095e+01 2.046585e+01 1.535016e+01 5.391447e+00 8.697346e-01 3.554893e-01 3.562622e-01 3.344147e-01 4.916953e-01 6.008893e-01 8.256647e-01 1.664928e+00 7.847259e-01 4.138629e+00 7.578455e-01 1.089425e+00 1.614481e+00 1.328779e-01 1.019905e-01 1.043139e-01 1.317442e-01 2.607479e-01 1.556103e-01 1.722602e-01 5.269025e-01 2.263703e-01 3.245912e-01 1.121962e-01 1.857313e-01 6.987944e-02
<GCONST> 7.771199e+01
<MIXTURE> 2 3.648029e-01
<MEAN> 39
 -1.562965e+01 -9.650591e+00 -1.810853e+00 2.084848e+00 4.614432e+00 -1.638652e+01 -4.830616e+00 -2.695357e+00 8.317444e+00 5.924106e+00 -4.766397e+00 4.389639e+00 5.974016e+01 4.545467e-01 1.443045e-01 5.141738e-01 3.853308e-01 -4.065088e-01 2.380306e-01 1.995107e-01 2.838243e-01 2.046119e-02 -1.121826e-01 2.168125e-02 -2.461293e-01 -8.567466e-01 1.984788e-01 1.353352e-01 -1.607742e-01 -7.669150e-02 -8.007055e-02 2.067908e-01 -2.740017e-02 -3.469720e-02 -7.264538e-02 -1.028675e-01 -1.157189e-02 -1.751325e-02 -1.659283e-01
<VARIANCE> 39
 3.724422e+00 5.189280e+00 7.356245e+00 5.003152e+00 2.574847e+01 1.394804e+01 1.880357e+01 1.968131e+01 1.626587e+01 1.096436e+01 1.324721e+01 6.583556e+00 8.777017e+00 3.808105e-01 3.832780e-01 3.308290e-01 3.128489e-01 5.971147e-01 9.780421e-01 1.618137e+00 9.896979e-01 7.499152e-01 8.557310e-01 5.148945e-01 8.495814e-01 3.865297e-01 3.012697e-02 7.404228e-02 9.187628e-02 1.042424e-01 1.189641e-01 2.344585e-01 3.096224e-01 1.445026e-01 1.296508e-01 2.097469e-01 1.114134e-01 1.991101e-01 6.900568e-03
<GCONST> 6.555607e+01
<MIXTURE> 3 3.829760e-01
<MEAN> 39
 -1.730778e+00 -3.400768e+00 1.015525e+00 -4.974827e+00 -1.190143e+01 -1.265841e+01 -1.963715e+01 -1.144586e+01 3.357308e+00 -1.145760e-01 3.492353e+00 -7.935623e+00 6.817302e+01 -5.782318e-01 5.678470e-02 2.392062e-01 -1.993019e-01 -4.626290e-01 -4.747637e-01 9.213654e-02 7.986407e-01 3.636688e-01 1.695816e-01 4.385645e-01 5.511874e-01 -5.246879e-01 -2.010265e-01 2.688280e-01 -1.409089e-02 1.494469e-01 3.912804e-01 1.780396e-01 2.910930e-01 1.440609e-01 -4.077580e-01 7.472780e-02 -6.709298e-02 1.653689e-01 -3.336330e-01
<VARIANCE> 39
 5.110576e+00 3.297347e+01 1.250445e+01 3.379885e+00 1.789980e+01 6.692633e+00 5.195961e+00 7.557067e+00 2.284844e+01 3.492306e+01 3.216742e+01 6.931670e+01 3.381851e+00 2.577515e-01 8.105251e-01 4.109867e-01 4.157048e-01 8.965356e-01 7.115831e-01 1.019670e+00 7.475082e-01 2.250255e+00 1.216549e+00 1.367308e+00 1.251133e+00 9.350237e-01 3.552525e-02 8.984751e-02 8.240300e-02 8.314859e-02 1.310815e-01 2.661276e-01 2.399635e-01 1.413421e-01 3.171316e-01 2.606339e-01 4.122881e-01 2.953022e-01 2.223774e-02
<GCONST> 7.616257e+01
<STATE> 8
<NUMMIXES> 3
<MIXTURE> 1 3.472917e-01
<MEAN> 39
 -7.235911e+00 4.057655e+00 2.547866e+00 -9.324692e-01 -5.172447e+00 -1.118222e+01 -9.116929e+00 -2.858068e+00 -5.625582e-01 3.319788e+00 1.664755e+00 3.200399e+00 6.411086e+01 -5.713673e-01 -1.999349e-01 -7.299073e-02 9.609698e-01 1.689940e+00 2.283632e+00 2.266894e+00 5.247840e-01 -1.556359e-01 -7.215115e-01 3.967819e-01 5.018252e-01 -1.994306e+00 9.643617e-02 -1.042923e-01 -1.952049e-01 1.066633e-01 1.253755e-01 3.453895e-01 1.320102e-01 2.195835e-02 2.380966e-01 -1.308514e-01 -5.819089e-02 -3.057966e-01 7.026573e-02
<VARIANCE> 39
 4.622925e+00 5.655607e+00 5.740078e+00 1.018339e+01 1.092943e+01 2.446949e+01 1.632363e+01 1.264945e+01 1.880869e+01 9.810545e+00 1.692690e+01 8.231808e+00 2.360747e+01 6.280478e-01 9.433365e-01 6.372409e-01 9.417416e-01 3.285574e-01 1.234035e+00 1.474119e+00 2.668526e+00 1.862386e+00 1.655648e+00 1.438418e+00 1.038817e+00 1.098186e+00 1.121254e-01 1.663243e-01 5.212354e-02 2.122523e-01 1.475055e-01 2.565258e-01 1.957967e-01 1.685544e-01 2.345583e-01 3.187501e-01 2.118204e-01 9.495557e-02 3.181430e-01
<GCONST> 8.148184e+01
<MIXTURE> 2 2.787934e-01
<MEAN> 39
 -8.322151e+00 -3.401104e+00 -1.234113e+00 2.965145e+00 1.248250e+00 -8.279144e+00 -4.327437e+00 -1.840531e+00 5.203258e+00 1.012421e-01 -6.098304e+00 1.087191e+00 5.282911e+01 6.556455e-01 1.099436e+00 -5.858312e-01 -4.375709e-01 -7.987060e-01 2.330182e+00 9.809610e-01 5.159807e-01 -6.190192e-01 -7.824041e-01 8.252708e-01 -3.501206e-01 -1.328168e+00 -2.225115e-01 1.094494e-01 8.083332e-02 -2.122703e-01 -3.514915e-02 -4.679050e-02 2.240055e-01 8.301579e-02 -2.055928e-01 1.139319e-01 3.958181e-01 1.350802e-01 1.807443e-01
<VARIANCE> 39
 4.661092e+00 1.269480e+01 6.569171e+00 1.093180e+01 2.270936e+01 2.369650e+01 1.648005e+01 1.357569e+01 1.723869e+01 2.369424e+01 1.144597e+01 1.233008e+01 2.055477e+01 6.217495e-01 1.562735e+00 2.911220e-01 2.752575e+00 1.521381e+00 1.655566e+00 9.480362e-01 1.151488e+00 1.394891e+00 4.168937e+00 2.146832e+00 1.139347e+00 3.369800e-01 3.778074e-02 1.626731e-01 7.175943e-02 3.903133e-01 2.636151e-01 3.874213e-01 2.403964e-01 2.385420e-01 2.974616e-01 8.207635e-01 1.887058e-01 1.644989e-01 6.377554e-02
<GCONST> 8.660160e+01
<MIXTURE> 3 3.739149e-01
<MEAN> 39
 -7.175946e+00 -1.132872e-02 3.896462e-01 7.791151e-01 -8.333636e+00 -7.267096e+00 -1.632031e+01 -8.505424e+00 -4.780475e+00 -3.589856e+00 8.062887e+00 -3.858734e+00 5.705906e+01 -6.841905e-01 9.209697e-02 8.826651e-02 6.552937e-01 1.415496e+00 1.160403e+00 2.031543e+00 -9.401307e-02 4.787571e-01 1.470201e+00 -3.855902e-01 1.416515e+00 -2.440405e+00 2.096676e-02 -7.808944e-02 -1.849925e-01 2.788851e-02 1.504117e-01 2.997342e-01 7.341869e-02 1.208758e-01 3.973481e-02 -2.383943e-01 -8.160830e-02 2.285429e-01 2.746925e-01
<VARIANCE> 39
 7.162746e+00 9.392653e+00 6.468274e+00 1.483313e+01 1.860037e+01 3.842539e+01 2.294230e+01 2.521680e+01 2.500619e+01 3.800368e+01 1.151431e+01 2.426613e+01 2.714989e+01 6.728095e-01 5.386279e-01 8.623742e-01 6.998866e-01 8.665230e-01 1.892014e+00 2.156713e+00 2.180057e+00 1.328531e+00 1.081158e+00 1.004077e+00 2.627044e+00 7.688313e-01 1.296100e-01 4.263461e-02 6.297386e-02 1.311634e-01 2.230505e-01 4.853663e-01 4.498711e-01 3.100033e-01 2.276968e-01 1.891098e-01 2.042717e-01 3.603052e-01 7.132447e-02
<GCONST> 8.818193e+01
<TRANSP> 9
 0.000000e+00 1.000000e+00 0.000000e+00 0.000000e+00 0.000000e+00 0.000000e+00 0.000000e+00 0.000000e+00 0.000000e+00
 0.000000e+00 8.454081e-01 1.545919e-01 0.000000e+00 0.000000e+00 0.000000e+00 0.000000e+00 0.000000e+00 0.000000e+00
 0.000000e+00 0.000000e+00 7.725238e-01 2.274762e-01 0.000000e+00 0.000000e+00 0.000000e+00 0.000000e+00 0.000000e+00
 0.000000e+00 0.000000e+00 0.000000e+00 8.811477e-01 1.188523e-01 0.000000e+00 0.000000e+00 0.000000e+00 0.000000e+00
 0.000000e+00 0.000000e+00 0.000000e+00 0.000000e+00 8.167129e-01 1.832871e-01 0.000000e+00 0.000000e+00 0.000000e+00
 0.000000e+00 0.000000e+00 0.000000e+00 0.000000e+00 0.000000e+00 8.255438e-01 1.744562e-01 0.000000e+00 0.000000e+00
 0.000000e+00 0.000000e+00 0.000000e+00 0.000000e+00 0.000000e+00 0.000000e+00 8.598855e-01 1.401145e-01 0.000000e+00
 0.000000e+00 0.000000e+00 0.000000e+00 0.000000e+00 0.000000e+00 0.000000e+00 0.000000e+00 7.998660e-01 2.001340e-01
 0.000000e+00 0.000000e+00 0.000000e+00 0.000000e+00 0.000000e+00 0.000000e+00 0.000000e+00 0.000000e+00 0.000000e+00
<ENDHMM>
~o
<STREAMINFO> 1 39
<VECSIZE> 39<NULLD><MFCC_D_A_0><DIAGC>
~h "san"
<BEGINHMM>
<NUMSTATES> 8
<STATE> 2
<NUMMIXES> 3
<MIXTURE> 1 3.223423e-01
<MEAN> 39
 -2.000339e+01 2.454725e+00 -4.303904e+00 1.656428e+00 1.127298e+00 2.976524e+00 7.991797e-01 5.227169e+00 2.932771e+00 9.897478e-01 6.509045e+00 -9.293652e-01 6.342118e+01 -1.272923e+00 -1.165993e-01 -3.949072e-01 1.729841e-01 -4.464167e-01 1.401796e-01 -1.781894e-01 5.625191e-01 3.526419e-01 -5.702712e-02 3.826752e-01 -1.375199e-01 1.059098e+00 2.600241e-01 -2.880742e-01 -4.463151e-02 -2.128303e-02 -4.664071e-02 -5.232377e-02 2.280767e-02 -9.667301e-02 -9.585646e-02 -5.899109e-02 -1.081320e-01 2.114254e-01 -3.680024e-02
<VARIANCE> 39
 1.895352e+01 3.796532e+00 2.574906e+01 1.336509e+01 1.788266e+01 1.598385e+01 1.484988e+01 1.566277e+01 1.412894e+01 1.139590e+01 1.585311e+01 1.284093e+01 2.641624e+01 9.869614e-01 1.112583e+00 8.032494e-01 4.844359e-01 1.488310e+00 1.820679e+00 2.109771e+00 1.432145e+00 1.368679e+00 1.312203e+00 1.391519e+00 2.040926e+00 3.391742e-01 2.340997e-01 1.684810e-01 1.490412e-01 1.337667e-01 3.500249e-01 3.188509e-01 4.147211e-01 2.986232e-01 2.791297e-01 2.168404e-01 2.730216e-01 5.588540e-01 7.334866e-02
<GCONST> 8.964399e+01
<MIXTURE> 2 2.807354e-01
<MEAN> 39
 -2.488513e+01 6.191676e+00 -5.363156e+00 1.488013e+00 1.994692e+00 -9.945098e+00 4.597816e+00 -4.766238e+00 3.753161e+00 -4.312818e+00 -2.873013e+00 3.100373e+00 5.975136e+01 -1.007675e+00 2.129034e-01 -3.949273e-01 4.793744e-01 -3.877252e-01 -7.361011e-02 3.235661e-01 -5.182002e-01 5.080154e-01 3.621117e-02 2.232326e-01 8.802468e-02 8.776725e-01 3.101649e-01 -1.661102e-01 -5.354617e-02 -1.091931e-01 -1.343185e-01 1.862019e-01 -8.932409e-02 -1.296855e-02 -8.443283e-03 8.861042e-02 -2.862833e-03 -7.707746e-02 -9.025586e-02
<VARIANCE> 39
