~o
<STREAMINFO> 1 39
<VECSIZE> 39<NULLD><MFCC_D_A_0><DIAGC>
~h "hachi"
<BEGINHMM>
<NUMSTATES> 5
<STATE> 2
<MEAN> 39
 -2.139271e+00 -7.197654e+00 -4.460117e+00 -8.529480e-01 6.690389e+00 4.396732e+00 -4.418978e+00 -3.255922e+00 -2.794309e+00 1.122104e+00 -1.799360e+00 -4.853461e+00 7.384969e+01 1.975417e-01 -5.619466e-01 -4.142269e-01 -3.793941e-01 -2.072628e-01 -4.804254e-01 7.918934e-03 1.984166e-01 2.114088e-01 4.404449e-01 8.000606e-03 9.457297e-02 5.283029e-01 -6.745762e-02 1.720437e-01 6.677996e-02 1.165817e-01 5.196872e-03 1.288940e-01 1.043416e-01 6.505492e-02 8.191427e-02 -7.061695e-02 -3.658458e-02 -2.808751e-02 -1.638077e-01
<VARIANCE> 39
 1.120552e+01 3.994900e+01 1.866224e+01 4.138939e+01 1.580391e+01 3.138095e+01 1.335181e+01 1.254214e+01 1.133107e+01 2.557938e+01 1.015719e+01 1.358165e+01 2.987765e+01 1.221641e+00 2.918126e+00 1.776545e+00 3.280447e+00 1.540925e+00 2.270035e+00 2.072987e+00 1.461841e+00 1.424387e+00 2.019333e+00 1.050272e+00 9.339216e-01 2.023010e+00 2.234885e-01 4.716370e-01 3.836407e-01 4.925223e-01 2.717233e-01 4.787610e-01 3.302312e-01 2.723830e-01 2.701530e-01 3.785839e-01 1.751892e-01 1.983040e-01 2.673363e-01
<GCONST> 1.015643e+02
<STATE> 3
<MEAN> 39
 -3.734496e+00 -1.504698e+00 -2.648349e+00 1.958135e+00 4.203455e+00 5.362642e+00 7.766607e-01 -8.004755e-02 -1.069913e+00 -1.416140e+00 -3.505365e+00 -5.615281e+00 6.934904e+01 -7.104012e-01 9.935340e-01 7.956659e-01 6.130001e-01 1.716997e-01 6.123865e-01 3.814293e-01 -1.616790e-01 -7.442335e-01 -5.116265e-01 1.354680e-01 -2.675345e-01 -5.746178e-01 -1.608387e-01 -1.232020e-01 1.815017e-02 -2.276804e-01 4.652096e-02 -2.502311e-01 -2.574342e-02 -1.764692e-02 -2.384542e-01 1.875643e-01 9.977886e-02 8.212553e-02 3.381037e-01
<VARIANCE> 39
 2.479041e+00 1.225501e+01 7.177245e+00 7.791194e+00 7.199874e+00 9.527611e+00 1.212789e+01 9.017056e+00 2.009482e+01 1.050094e+01 7.736173e+00 1.139595e+01 4.851369e+00 5.047106e-01 7.912397e-01 2.430585e-01 5.471039e-01 1.040973e+00 1.710957e+00 1.143743e+00 8.710777e-01 2.087638e+00 1.265191e+00 7.683174e-01 1.288109e+00 1.027217e+00 9.412511e-02 1.260271e-01 4.984190e-02 8.682695e-02 2.352523e-01 2.126572e-01 2.141082e-01 1.680734e-01 3.665305e-01 2.153436e-01 1.441045e-01 2.253857e-01 2.874409e-02
<GCONST> 7.236129e+01
<STATE> 4
<MEAN> 39
 -1.403242e+01 3.110544e+00 5.603476e+00 -8.871604e-01 8.062933e+00 6.161954e+00 9.946895e-01 9.916850e-01 -8.069469e+00 -5.587310e-01 -1.499235e+00 -5.658507e+00 7.245507e+01 1.168686e-01 1.868598e-02 2.561513e-03 -3.066478e-02 4.539550e-02 1.136847e-01 -1.090053e-01 -2.272977e-02 1.601636e-01 -8.084971e-03 -3.641235e-02 3.421586e-02 -9.644450e-02 9.959147e-02 -4.327451e-02 -5.360193e-02 4.410307e-02 -3.885318e-02 3.548303e-02 -8.712985e-03 -1.615447e-03 7.252283e-02 -5.220037e-02 -2.615959e-02 -1.459633e-03 -5.400961e-02
<VARIANCE> 39
 3.212906e+01 9.302557e+00 1.363416e+01 1.128088e+01 7.962579e+00 1.125475e+01 1.158168e+01 2.445195e+01 2.323951e+01 1.532178e+01 1.523381e+01 1.336048e+01 1.178610e+01 1.763343e+00 6.809409e-01 1.037793e+00 9.033872e-01 9.663111e-01 8.521976e-01 1.063162e+00 1.336141e+00 1.576927e+00 1.252288e+00 1.185535e+00 1.013355e+00 5.715399e-01 8.139124e-02 1.095363e-01 1.332077e-01 1.487655e-01 1.777369e-01 1.678636e-01 2.251761e-01 2.624002e-01 3.210301e-01 2.373759e-01 2.467546e-01 2.020854e-01 2.593883e-02
<GCONST> 8.258545e+01
<TRANSP> 5
 0.000000e+00 1.000000e+00 0.000000e+00 0.000000e+00 0.000000e+00
 0.000000e+00 9.338566e-01 6.614339e-02 0.000000e+00 0.000000e+00
 0.000000e+00 0.000000e+00 8.947949e-01 1.052051e-01 0.000000e+00
 0.000000e+00 0.000000e+00 0.000000e+00 9.604195e-01 3.958045e-02
 0.000000e+00 0.000000e+00 0.000000e+00 0.000000e+00 0.000000e+00
<ENDHMM>
