~o
<STREAMINFO> 1 39
<VECSIZE> 39<NULLD><MFCC_D_A_0><DIAGC>
~h "ichi"
<BEGINHMM>
<NUMSTATES> 5
<STATE> 2
<MEAN> 39
 -4.450346e+00 1.979231e+00 6.350279e+00 -2.705379e+00 -1.173286e+00 2.889793e+00 -4.465932e+00 -1.176900e+00 -6.105577e+00 -3.843234e-01 4.733154e+00 -3.083688e+00 6.968148e+01 -1.440525e-01 -1.175631e-01 6.019652e-02 -3.333465e-02 4.850938e-02 -2.627567e-01 6.601733e-03 -5.000030e-02 -1.858211e-01 1.093881e-01 3.269283e-02 3.850906e-02 1.615423e-01 -9.991571e-02 -2.691462e-02 -4.039388e-03 -1.073612e-02 7.665115e-02 -7.613280e-02 5.452500e-02 3.458021e-02 1.856328e-02 5.633546e-02 -1.426027e-03 3.050985e-02 5.704344e-02
<VARIANCE> 39
 2.965389e+00 9.976553e+00 4.906380e+01 3.021321e+01 5.103211e+01 2.539421e+01 3.310183e+01 2.099702e+01 3.561090e+01 1.393070e+01 2.727461e+01 2.321355e+01 2.125771e+01 6.095266e-01 1.159299e+00 3.872371e+00 2.143920e+00 4.190349e+00 2.810742e+00 2.420922e+00 2.077493e+00 3.124259e+00 1.472398e+00 2.372359e+00 1.596236e+00 1.484262e+00 1.093550e-01 1.725137e-01 5.186958e-01 3.114935e-01 6.513783e-01 5.327686e-01 3.855563e-01 3.689967e-01 4.703763e-01 2.946334e-01 4.092326e-01 2.908023e-01 2.148941e-01
<GCONST> 1.064502e+02
<STATE> 3
<MEAN> 39
 -1.448173e+01 1.576568e+00 6.117974e+00 -3.641075e+00 1.094440e+00 -2.287246e+00 1.992715e-01 -2.674754e+00 -6.589889e+00 3.093170e+00 4.142166e+00 3.010338e-01 7.550057e+01 -2.303487e-01 -2.664758e-02 1.126618e+00 -6.934705e-01 -1.234844e+00 -4.396345e-01 -6.639608e-01 -3.098553e-01 -4.752590e-01 -1.601010e-01 3.363562e-01 -3.399905e-01 8.016531e-01 2.192385e-01 -5.933435e-02 3.290642e-02 5.227680e-03 -1.499297e-01 2.387509e-01 -8.752359e-02 7.949456e-03 7.144817e-02 -1.211005e-01 -2.926972e-02 -6.032030e-02 -1.498669e-01
<VARIANCE> 39
 3.707213e+01 1.494609e+01 3.103429e+01 2.177064e+01 8.250095e+01 2.121752e+01 3.255027e+01 2.444555e+01 1.587566e+01 2.818389e+01 1.243580e+01 1.963647e+01 8.026618e+00 6.039645e+00 2.171937e+00 1.592022e+00 1.210531e+00 5.072032e+00 2.493804e+00 2.869663e+00 1.848456e+00 1.541368e+00 1.981712e+00 1.288677e+00 1.617822e+00 8.173958e-01 5.792710e-01 3.237101e-01 2.630051e-01 2.397803e-01 6.386384e-01 5.310656e-01 4.454228e-01 3.818429e-01 3.383220e-01 3.675182e-01 2.549210e-01 2.963202e-01 1.151919e-01
<GCONST> 1.073078e+02
<STATE> 4
<MEAN> 39
 -7.284148e+00 -8.031033e-01 8.901225e+00 -4.839714e+00 -4.845242e+00 1.336345e+00 -5.284671e+00 -4.322463e+00 -5.595895e+00 9.097179e-01 3.561081e+00 -1.405863e+00 7.235717e+01 3.115740e-01 1.010249e-01 -8.046708e-01 4.482155e-01 6.560582e-01 4.798892e-01 2.902148e-01 1.337936e-01 4.871318e-01 -4.480212e-02 -3.081231e-01 1.268702e-01 -6.416474e-01 -2.014289e-02 5.331697e-02 -8.021726e-02 5.898628e-02 7.134634e-02 -3.354284e-02 4.343389e-02 -1.685798e-02 3.310039e-03 -1.708352e-02 -1.421820e-03 2.837971e-02 -1.188640e-02
<VARIANCE> 39
 3.399337e+01 2.170674e+01 5.614138e+01 3.182069e+01 9.877386e+01 1.597120e+01 2.843659e+01 1.642926e+01 2.275737e+01 1.327363e+01 1.619871e+01 1.012331e+01 2.523915e+01 4.213124e-01 5.275194e-01 1.323669e+00 1.084033e+00 2.111469e+00 7.741610e-01 1.508568e+00 1.429775e+00 1.313392e+00 9.045618e-01 7.929593e-01 8.343017e-01 2.866420e-01 3.545726e-02 1.085591e-01 1.591142e-01 1.612726e-01 2.765490e-01 1.323428e-01 2.395643e-01 2.379973e-01 2.827609e-01 1.620539e-01 1.695095e-01 1.680647e-01 3.595534e-02
<GCONST> 8.658352e+01
<TRANSP> 5
 0.000000e+00 1.000000e+00 0.000000e+00 0.000000e+00 0.000000e+00
 0.000000e+00 9.529143e-01 4.708572e-02 0.000000e+00 0.000000e+00
 0.000000e+00 0.000000e+00 9.115763e-01 8.842371e-02 0.000000e+00
 0.000000e+00 0.000000e+00 0.000000e+00 9.452146e-01 5.478538e-02
 0.000000e+00 0.000000e+00 0.000000e+00 0.000000e+00 0.000000e+00
<ENDHMM>
