~o
<STREAMINFO> 1 39
<VECSIZE> 39<NULLD><MFCC_D_A_0><DIAGC>
~h "ni"
<BEGINHMM>
<NUMSTATES> 5
<STATE> 2
<MEAN> 39
 5.352088e-01 -1.520500e+00 8.507797e-01 2.536100e+00 -1.419735e+00 -6.945493e-01 -3.280927e+00 -9.284672e+00 -1.151428e+01 -4.109743e-01 7.223051e+00 -3.436441e-01 7.140367e+01 5.949976e-01 -1.210653e+00 7.532721e-01 -8.229575e-01 -1.249093e+00 -4.665926e-01 -5.341013e-01 -7.976227e-01 -1.928316e+00 7.495514e-01 1.767712e+00 -1.073599e-01 1.450438e+00 -2.745501e-01 -2.287648e-01 2.444580e-01 -4.056489e-01 3.520325e-02 5.028704e-01 -5.888767e-03 3.416530e-01 1.416366e-01 9.054344e-02 -9.497780e-02 -1.347178e-01 3.595569e-02
<VARIANCE> 39
 8.460529e+00 1.514653e+01 8.810658e+00 1.085024e+01 2.401811e+01 1.840871e+01 4.146981e+01 1.815914e+01 3.026072e+01 2.276981e+01 4.615943e+01 1.372235e+01 1.236287e+01 1.138077e+00 1.131341e+00 1.801691e+00 2.395878e+00 1.542172e+00 4.303294e+00 2.149513e+00 2.836409e+00 2.445409e+00 1.643552e+00 2.900046e+00 1.419260e+00 4.397143e-01 1.644660e-01 2.176793e-01 3.108324e-01 3.227788e-01 2.639913e-01 5.814500e-01 4.954181e-01 5.041847e-01 3.939155e-01 2.989495e-01 6.780100e-01 2.223026e-01 1.047762e-01
<GCONST> 1.015296e+02
<STATE> 3
<MEAN> 39
 -8.712168e-01 -8.656632e+00 9.830429e+00 -9.891059e+00 -1.007256e+01 4.718310e+00 -9.662965e+00 -9.357406e+00 -1.721925e+01 2.292277e+00 1.403255e+01 -2.767641e+00 7.792260e+01 -2.380513e-01 1.833879e-01 1.943216e-01 -4.502839e-01 -1.969169e-01 3.829607e-01 -3.981656e-01 -2.409820e-01 4.484473e-01 -1.768156e-01 -1.185608e-01 9.245863e-02 -2.468224e-01 2.167584e-02 1.939341e-01 -2.143283e-01 3.052585e-01 1.630934e-01 -1.333060e-01 1.139648e-01 1.084020e-03 2.201915e-01 -6.016277e-02 -1.842614e-01 6.250989e-02 -1.858754e-01
<VARIANCE> 39
 2.367068e+00 5.987349e+00 7.901937e+00 2.070465e+01 1.721010e+01 1.496206e+01 2.685526e+01 1.387699e+01 1.950594e+01 1.797018e+01 8.053400e+00 1.236242e+01 6.388366e+00 1.696898e-01 8.674681e-01 1.385058e+00 2.057136e+00 1.056100e+00 9.908277e-01 8.875176e-01 7.912005e-01 1.263189e+00 7.129753e-01 1.308263e+00 5.917302e-01 5.978212e-01 2.810592e-02 6.391582e-02 1.588928e-01 2.023121e-01 1.424275e-01 1.735690e-01 9.600759e-02 1.451032e-01 2.042328e-01 1.174785e-01 2.352932e-01 1.143257e-01 2.681451e-02
<GCONST> 7.246254e+01
<STATE> 4
<MEAN> 39
 -3.928970e+00 -6.877195e-01 2.065022e+00 -1.690135e+00 -1.358567e+00 5.658612e+00 -4.502546e+00 -6.442212e+00 -4.786955e+00 -6.776848e-01 3.293941e+00 -1.323967e+00 6.803909e+01 -2.516895e-01 4.679031e-01 -9.352941e-01 1.047725e+00 1.150109e+00 -3.685432e-02 9.704846e-01 1.179230e+00 9.869837e-01 -2.505629e-01 -1.084525e+00 1.287034e-02 -7.425724e-01 2.847508e-02 -1.365091e-01 8.136711e-02 -1.797489e-01 -1.190859e-01 1.621875e-02 -7.790098e-03 1.830474e-02 -1.970133e-01 -1.779123e-03 1.735166e-01 -1.254971e-02 1.242887e-01
<VARIANCE> 39
 1.706057e+00 7.178303e+00 1.890240e+01 1.317723e+01 2.622162e+01 8.286851e+00 2.065365e+01 3.095932e+01 1.956562e+01 9.273434e+00 2.076106e+01 1.217445e+01 8.890629e+00 1.161159e-01 4.690324e-01 6.249936e-01 1.090914e+00 1.319657e+00 6.839170e-01 1.300658e+00 1.340122e+00 1.626443e+00 1.048901e+00 1.712702e+00 9.227896e-01 3.172054e-01 1.629295e-02 5.901704e-02 8.453798e-02 1.022103e-01 1.802515e-01 1.062868e-01 2.181228e-01 2.782565e-01 1.747612e-01 1.922527e-01 2.719310e-01 1.749285e-01 1.763840e-02
<GCONST> 7.253220e+01
<TRANSP> 5
 0.000000e+00 1.000000e+00 0.000000e+00 0.000000e+00 0.000000e+00
 0.000000e+00 8.469288e-01 1.530712e-01 0.000000e+00 0.000000e+00
 0.000000e+00 0.000000e+00 9.290851e-01 7.091496e-02 0.000000e+00
 0.000000e+00 0.000000e+00 0.000000e+00 8.954593e-01 1.045407e-01
 0.000000e+00 0.000000e+00 0.000000e+00 0.000000e+00 0.000000e+00
<ENDHMM>
