~o
<STREAMINFO> 1 39
<VECSIZE> 39<NULLD><MFCC_D_A_0><DIAGC>
~h "sil"
<BEGINHMM>
<NUMSTATES> 5
<STATE> 2
<MEAN> 39
 -1.252997e+01 -1.424678e+00 -2.766043e+00 3.369926e-01 1.020315e+00 3.753211e+00 1.286261e+00 1.250279e+00 5.777742e-01 -3.381869e-01 5.157669e-01 6.719923e-01 4.552297e+01 8.327792e-01 6.596602e-02 2.378367e-01 2.929735e-01 5.966606e-01 6.561900e-01 4.171327e-01 3.544639e-01 2.996388e-01 1.420764e-01 2.375858e-01 8.441199e-02 1.974441e+00 2.318381e-02 1.448674e-02 -1.623483e-02 -4.887947e-02 -1.145723e-01 -6.625225e-02 -5.725415e-02 -1.937770e-02 -9.922205e-03 3.111419e-02 -3.292263e-02 -3.391390e-02 -1.167968e-02
<VARIANCE> 39
 6.636623e+01 6.899681e+00 1.121245e+01 8.212154e+00 1.753550e+01 2.456765e+01 1.631896e+01 1.644959e+01 1.415412e+01 1.019512e+01 1.356598e+01 7.528031e+00 5.516958e+02 2.476863e+00 4.415278e-01 1.165868e+00 7.488196e-01 1.109220e+00 1.559458e+00 1.010504e+00 9.020407e-01 9.519872e-01 1.002143e+00 1.400754e+00 9.397651e-01 3.999099e+01 4.016901e-01 7.696268e-02 2.624285e-01 1.616799e-01 2.267216e-01 3.204618e-01 1.913015e-01 1.762660e-01 1.851582e-01 1.944909e-01 2.993997e-01 1.902634e-01 8.136711e+00
<GCONST> 9.748044e+01
<STATE> 3
<MEAN> 39
 -4.683069e+00 -7.463780e-01 -9.114394e-01 2.688690e+00 4.901780e+00 9.417019e+00 3.972594e+00 2.680128e+00 1.706141e+00 7.152932e-01 2.468136e+00 7.420035e-01 6.422688e+01 -6.018413e-03 -8.074630e-03 -8.839773e-03 -1.426829e-02 -1.254802e-02 -2.450168e-02 -1.918969e-02 -2.848150e-02 -2.821751e-02 -2.040143e-02 -1.767047e-02 -1.684515e-02 5.535234e-02 5.883083e-03 4.551687e-03 4.432874e-03 -4.955579e-03 -8.761438e-03 -1.368542e-02 -1.048612e-02 -1.166125e-02 -8.506872e-03 2.517484e-03 1.726689e-03 3.581096e-03 1.227629e-02
<VARIANCE> 39
 1.663514e+00 8.227941e+00 7.239088e+00 7.812314e+00 9.333067e+00 1.180615e+01 1.513908e+01 1.513019e+01 1.443015e+01 1.488892e+01 1.368032e+01 1.397188e+01 1.142229e+01 8.864900e-02 1.905359e-01 3.467162e-01 5.163217e-01 6.243206e-01 8.192304e-01 8.614696e-01 9.613139e-01 1.053544e+00 9.903554e-01 9.357894e-01 8.491634e-01 5.212315e-02 1.910661e-02 4.006152e-02 7.315140e-02 1.086533e-01 1.326146e-01 1.704783e-01 1.765098e-01 1.946308e-01 2.215882e-01 2.074749e-01 1.979843e-01 1.749452e-01 1.107688e-02
<GCONST> 6.160588e+01
<STATE> 4
<MEAN> 39
 -4.306336e+00 3.704224e+00 -1.838624e-01 2.076534e+00 3.936788e+00 5.682842e+00 -3.289071e+00 -5.029032e+00 -3.562437e+00 -3.284116e+00 -1.337976e+00 -2.164652e+00 6.641730e+01 1.819172e-03 4.479020e-04 1.793830e-03 -1.513247e-03 -5.409943e-03 -7.251794e-03 -5.706768e-03 -7.285272e-03 -6.835648e-03 -1.624948e-03 -6.043302e-04 -9.411463e-04 6.053161e-03 2.051072e-04 -1.451177e-03 7.551708e-04 -8.520986e-04 -1.113299e-03 -8.785413e-04 -9.429806e-04 5.283180e-04 -4.648013e-04 2.055465e-03 1.853830e-03 9.353459e-04 1.937164e-03
<VARIANCE> 39
 9.284170e-01 2.285332e+00 3.729559e+00 6.107689e+00 9.683211e+00 1.565644e+01 1.823218e+01 1.430562e+01 1.211975e+01 1.009669e+01 8.810669e+00 8.976054e+00 3.106741e-01 7.122911e-02 1.721499e-01 3.851698e-01 5.077989e-01 5.580581e-01 7.043844e-01 7.828679e-01 9.999755e-01 1.088998e+00 8.906586e-01 8.568533e-01 8.249897e-01 3.064759e-02 1.385830e-02 3.872264e-02 8.663595e-02 1.120190e-01 1.150681e-01 1.489248e-01 1.620866e-01 2.175127e-01 2.427703e-01 1.887558e-01 1.834641e-01 1.751332e-01 5.584520e-03
<GCONST> 5.178920e+01
<TRANSP> 5
 0.000000e+00 1.000000e+00 0.000000e+00 0.000000e+00 0.000000e+00
 0.000000e+00 8.093741e-01 1.906259e-01 0.000000e+00 0.000000e+00
 0.000000e+00 0.000000e+00 9.762440e-01 2.375597e-02 0.000000e+00
 0.000000e+00 0.000000e+00 0.000000e+00 9.908798e-01 9.120172e-03
 0.000000e+00 0.000000e+00 0.000000e+00 0.000000e+00 0.000000e+00
<ENDHMM>
