~o
<STREAMINFO> 1 39
<VECSIZE> 39<NULLD><MFCC_D_A_0><DIAGC>
~h "yon"
<BEGINHMM>
<NUMSTATES> 5
<STATE> 2
<MEAN> 39
 -1.038726e+00 -5.359576e+00 5.355281e+00 -5.775409e+00 -7.692406e+00 -1.066392e+00 -7.035312e+00 -1.485628e+00 -7.859992e+00 4.256407e+00 4.172298e+00 -2.413696e+00 7.598217e+01 5.491897e-01 -1.297876e+00 -3.888428e-01 -1.102701e+00 -3.188277e-01 -3.376281e-01 -1.557362e+00 -1.161742e-01 -2.460005e-01 4.806368e-01 2.920036e-01 -1.875518e-01 1.373011e+00 -3.201094e-02 -8.156085e-03 -2.542798e-01 -8.842529e-02 3.497881e-01 3.209075e-01 7.783047e-02 6.625323e-02 1.981200e-02 -1.326664e-01 1.848100e-01 8.500971e-02 -1.154381e-01
<VARIANCE> 39
 4.515181e+00 5.321841e+01 4.125723e+01 2.343891e+01 7.220678e+01 3.253834e+01 3.472638e+01 2.411183e+01 4.752010e+01 1.829047e+01 1.887336e+01 1.860146e+01 3.605162e+01 3.904369e-01 1.985203e+00 7.216030e+00 2.729701e+00 1.407638e+01 5.840415e+00 2.321718e+00 3.480960e+00 5.270366e+00 1.399960e+00 3.630557e+00 1.125970e+00 1.023493e+00 7.541742e-02 4.387908e-01 9.065703e-01 5.742162e-01 1.869288e+00 6.840131e-01 5.931522e-01 7.159597e-01 1.045565e+00 2.867138e-01 8.733457e-01 2.602351e-01 1.718954e-01
<GCONST> 1.182742e+02
<STATE> 3
<MEAN> 39
 3.006271e+00 -8.978066e+00 -5.780635e+00 -1.252797e+01 2.365758e+00 3.251187e+00 -1.264603e+01 -4.009940e-01 -1.068991e+01 6.730673e-01 1.257468e+01 -5.562593e-01 7.794882e+01 1.013219e-01 8.543062e-01 -9.583599e-03 4.375777e-01 2.735549e-01 -2.296124e-01 6.152636e-01 -9.032972e-02 -1.808638e-01 -2.686743e-01 4.062034e-01 4.054746e-01 -6.768042e-01 -8.869008e-02 7.923234e-02 1.919998e-01 2.972515e-01 -1.235519e-01 -1.688626e-01 1.104423e-01 -3.483547e-02 1.566248e-01 1.039733e-01 -3.163534e-01 -4.441973e-02 -6.833155e-02
<VARIANCE> 39
 2.359867e+00 1.375685e+01 4.084601e+00 2.635340e+01 7.240741e+00 1.481991e+01 1.898137e+01 1.537783e+01 2.064366e+01 1.570854e+01 1.278107e+01 1.523915e+01 6.645561e+00 1.693196e-01 3.427959e-01 5.979663e-01 1.921398e+00 6.777965e-01 1.817183e+00 1.049078e+00 1.396842e+00 2.682612e+00 1.938111e+00 2.683451e+00 7.172337e-01 1.131824e-01 2.809758e-02 6.187680e-02 1.177275e-01 1.739290e-01 1.981205e-01 4.187464e-01 2.913380e-01 2.852353e-01 2.679949e-01 2.644266e-01 2.113832e-01 1.351019e-01 1.449393e-02
<GCONST> 7.548583e+01
<STATE> 4
<MEAN> 39
 -1.089934e+00 7.329413e-01 -8.400299e-01 8.687275e-01 3.826293e+00 3.055217e+00 -4.396495e+00 -3.963735e+00 -5.313784e+00 -9.082848e-01 4.222225e+00 7.019419e-01 6.861836e+01 -7.094232e-01 3.187911e-01 3.478312e-01 8.753396e-01 5.171524e-02 7.127312e-01 8.547906e-01 3.306378e-02 4.995402e-01 -4.582832e-01 -9.506786e-01 -3.587941e-01 -6.891882e-01 2.266374e-02 -1.676760e-01 -1.262823e-01 -2.070673e-01 -8.777015e-03 7.382264e-02 2.123353e-02 1.571440e-01 1.496172e-03 5.235013e-02 1.305371e-01 -5.969650e-02 8.796652e-02
<VARIANCE> 39
 8.145069e+00 3.914316e+00 5.275592e+00 1.365752e+01 8.561054e+00 1.656068e+01 2.062494e+01 1.059254e+01 1.822686e+01 1.716527e+01 1.720988e+01 8.899056e+00 5.836926e+00 1.623375e-01 6.314528e-01 4.921680e-01 1.446637e+00 7.962702e-01 1.206808e+00 1.297952e+00 1.425295e+00 1.331213e+00 1.671642e+00 1.175831e+00 7.800784e-01 1.848322e-01 3.029085e-02 7.688549e-02 5.879337e-02 1.313915e-01 1.655085e-01 2.457694e-01 2.681873e-01 2.324304e-01 2.609701e-01 3.513873e-01 2.090169e-01 1.524640e-01 1.516254e-02
<GCONST> 7.235471e+01
<TRANSP> 5
 0.000000e+00 1.000000e+00 0.000000e+00 0.000000e+00 0.000000e+00
 0.000000e+00 9.133725e-01 8.662755e-02 0.000000e+00 0.000000e+00
 0.000000e+00 0.000000e+00 9.224664e-01 7.753359e-02 0.000000e+00
 0.000000e+00 0.000000e+00 0.000000e+00 9.015607e-01 9.843927e-02
 0.000000e+00 0.000000e+00 0.000000e+00 0.000000e+00 0.000000e+00
<ENDHMM>
