~o
<STREAMINFO> 1 39
<VECSIZE> 39<NULLD><MFCC_D_A_0><DIAGC>
~h "ni"
<BEGINHMM>
<NUMSTATES> 5
<STATE> 2
<MEAN> 39
 -3.278290e+00 8.812572e+00 8.010803e+00 -2.853674e+00 -4.269732e+00 -1.326973e+00 -5.268987e+00 -1.063758e+01 -2.866585e+00 -2.226522e+00 -2.582252e-01 -2.982652e+00 6.150706e+01 -1.328755e-01 3.194557e-01 1.254045e+00 -2.297634e+00 -5.547825e-01 2.695075e-01 -1.319309e+00 -6.847149e-01 -7.640024e-02 -1.267846e-01 6.976364e-02 -5.648309e-01 1.895035e+00 -2.744574e-01 -2.772035e-01 -9.414893e-02 -1.312727e-01 1.001395e-01 2.608098e-01 3.396437e-02 3.557265e-01 8.425327e-02 5.116489e-04 8.226373e-02 -3.484779e-03 -1.366827e-01
<VARIANCE> 39
 1.944910e+01 1.093120e+01 3.338741e+01 8.394128e+01 4.930079e+01 2.991058e+01 3.271779e+01 5.037999e+01 7.709035e+01 5.484647e+01 2.225640e+01 2.685799e+01 4.549968e+01 2.506410e+00 1.181541e+00 1.382427e+00 4.721839e+00 2.462261e+00 2.720546e+00 2.275808e+00 4.063821e+00 3.195188e+00 1.490785e+00 2.153316e+00 2.039790e+00 6.244852e-01 2.746018e-01 1.639089e-01 2.322276e-01 9.866902e-01 3.758186e-01 3.920557e-01 4.296019e-01 6.411133e-01 5.376216e-01 2.962910e-01 4.320059e-01 3.857196e-01 1.269248e-01
<GCONST> 1.144252e+02
<STATE> 3
<MEAN> 39
 -8.681653e+00 6.986180e+00 1.477479e+01 -1.769666e+01 -3.781124e+00 7.039440e-01 -1.406235e+01 -8.999076e+00 -1.546817e+00 -6.581859e+00 1.836385e+00 -5.638598e+00 6.923835e+01 -4.325042e-02 -9.107005e-02 -6.211539e-03 -2.099503e-01 -9.878338e-02 -2.428488e-02 -2.126245e-01 9.367032e-02 -7.938658e-02 -1.359202e-01 1.430480e-01 -1.273052e-01 -2.154913e-01 2.533843e-02 2.609411e-02 -1.254781e-01 1.870537e-01 2.668921e-02 -1.046276e-01 1.001323e-01 1.472259e-02 1.029791e-02 8.709645e-02 -1.111719e-02 9.104399e-02 -1.998550e-01
<VARIANCE> 39
 1.421414e+01 1.547407e+01 2.661089e+01 3.329887e+01 5.745269e+01 4.933917e+01 2.234859e+01 3.740164e+01 4.788210e+01 6.005133e+01 4.866556e+01 2.204486e+01 1.675515e+01 1.317515e-01 4.062514e-01 4.839619e-01 6.207632e-01 4.206078e-01 7.861798e-01 1.068573e+00 7.197237e-01 5.908855e-01 9.570246e-01 8.809294e-01 6.557581e-01 3.475262e-01 3.950777e-02 6.459551e-02 8.544245e-02 1.310086e-01 7.117168e-02 1.485758e-01 1.441131e-01 1.667689e-01 1.194317e-01 1.984674e-01 1.611812e-01 1.468084e-01 3.266203e-02
<GCONST> 7.897280e+01
<STATE> 4
<MEAN> 39
 -9.309895e+00 5.366238e+00 8.091805e+00 -9.664575e+00 -1.914181e+00 1.372864e+00 -1.003130e+01 -4.576433e+00 -2.951768e+00 -3.349698e+00 1.442267e+00 -4.152753e+00 5.833619e+01 -2.729747e-01 -6.039924e-01 -1.346768e+00 1.997348e+00 6.878498e-01 6.995815e-02 1.329489e+00 9.935483e-01 2.416284e-01 4.684565e-01 1.652351e-01 8.491608e-01 -1.788813e+00 2.008637e-03 -3.381252e-02 -7.360974e-02 1.111026e-01 5.677458e-02 8.045682e-02 1.871712e-01 8.278398e-03 9.103873e-02 -4.135938e-02 -4.790875e-02 5.177090e-02 9.874734e-02
<VARIANCE> 39
 7.041267e+00 1.365158e+01 3.259098e+01 7.935370e+01 4.681516e+01 3.569246e+01 3.473323e+01 3.791492e+01 2.993706e+01 5.530497e+01 4.302994e+01 2.227737e+01 5.223520e+01 7.371069e-01 7.206572e-01 2.153604e+00 2.224432e+00 1.539343e+00 2.528089e+00 1.901723e+00 2.051604e+00 2.270566e+00 2.463563e+00 1.967329e+00 1.602931e+00 7.685698e-01 8.008711e-02 1.277925e-01 3.979142e-01 5.203739e-01 2.205577e-01 3.905577e-01 3.343382e-01 3.635100e-01 3.228061e-01 3.309892e-01 3.010563e-01 2.819701e-01 1.450337e-01
<GCONST> 1.058497e+02
<TRANSP> 5
 0.000000e+00 1.000000e+00 0.000000e+00 0.000000e+00 0.000000e+00
 0.000000e+00 8.695652e-01 1.304348e-01 0.000000e+00 0.000000e+00
 0.000000e+00 0.000000e+00 9.175824e-01 8.241758e-02 0.000000e+00
 0.000000e+00 0.000000e+00 0.000000e+00 8.790323e-01 1.209677e-01
 0.000000e+00 0.000000e+00 0.000000e+00 0.000000e+00 0.000000e+00
<ENDHMM>
