~o
<STREAMINFO> 1 39
<VECSIZE> 39<NULLD><MFCC_D_A_0><DIAGC>
~h "roku"
<BEGINHMM>
<NUMSTATES> 9
<STATE> 2
<MEAN> 39
 9.216961e-02 -1.451495e+00 -2.022226e-01 5.974991e+00 -1.778616e+00 -7.002481e+00 -1.420251e+01 -8.110096e+00 4.135682e+00 -6.580080e+00 3.272470e-01 -2.962224e+00 6.401733e+01 7.963718e-01 -1.810948e-02 -9.611036e-01 -2.424187e+00 -7.566980e-01 6.998761e-01 -1.076502e+00 -1.878501e+00 6.772305e-01 6.189278e-01 1.212508e+00 -8.673287e-01 2.648377e+00 -4.890817e-01 2.685270e-01 -3.240244e-01 -9.688753e-01 1.689023e-01 8.682849e-01 9.171284e-01 1.717193e-02 -3.088241e-01 3.530216e-01 3.897464e-01 2.550953e-01 -2.679969e-01
<VARIANCE> 39
 9.258950e+00 2.017391e+01 3.211449e+01 1.020336e+02 5.317328e+01 5.187018e+01 4.213802e+01 4.788457e+01 5.939812e+01 6.148148e+01 3.257148e+01 3.648862e+01 3.854098e+01 2.521333e+00 2.794410e+00 2.303777e+00 1.194584e+01 4.256197e+00 1.063184e+01 8.570046e+00 3.953568e+00 5.624282e+00 7.091911e+00 2.955897e+00 2.382174e+00 1.241751e+00 2.323340e-01 4.338054e-01 3.856038e-01 1.326572e+00 7.006426e-01 1.206340e+00 9.586227e-01 6.918457e-01 9.831545e-01 1.876145e+00 3.808306e-01 4.717375e-01 2.481132e-01
<GCONST> 1.318836e+02
<STATE> 3
<MEAN> 39
 -4.191848e-01 4.413033e+00 -6.536577e+00 -1.778153e+01 -3.865840e+00 4.405525e+00 -5.633243e+00 -1.252364e+01 7.975410e-01 -5.592992e+00 8.277733e+00 -1.403516e+00 7.119976e+01 5.750282e-02 1.022504e+00 -1.210635e-01 -8.358603e-01 2.216629e-01 6.845951e-01 1.374712e+00 7.283298e-01 -1.726503e+00 -9.228240e-01 -2.190613e-01 9.632080e-01 -9.494649e-01 -1.129297e-01 -2.487118e-01 3.010103e-01 1.042364e+00 1.688392e-01 -4.031399e-01 6.668540e-03 3.706289e-01 8.724634e-03 5.122996e-02 -4.476539e-01 1.080250e-01 -6.338207e-01
<VARIANCE> 39
 1.353976e+01 1.660199e+01 1.071265e+01 5.947237e+01 6.172386e+01 5.432023e+01 4.781996e+01 4.754603e+01 5.787848e+01 6.975378e+01 2.333519e+01 5.858668e+01 1.439211e+01 7.539042e-01 7.462426e-01 1.532260e+00 6.915210e+00 2.773716e+00 2.494808e+00 3.216323e+00 2.607235e+00 2.645875e+00 5.233985e+00 2.875583e+00 3.785187e+00 2.470262e+00 2.448638e-01 1.799518e-01 2.391623e-01 3.326768e-01 5.515180e-01 4.720168e-01 6.961247e-01 5.899535e-01 7.026925e-01 1.313683e+00 3.734060e-01 8.066525e-01 1.172104e-01
<GCONST> 1.180397e+02
<STATE> 4
<MEAN> 39
 -5.568664e+00 4.284835e+00 -3.817787e+00 -4.591918e+00 1.183904e+00 1.431971e+00 4.465711e-01 -4.819197e+00 -4.369108e+00 -3.410205e+00 1.663079e+00 3.003649e+00 5.605719e+01 -1.177857e+00 -7.726214e-01 1.536893e-01 1.520169e+00 4.609383e-01 -6.130720e-01 4.335513e-01 5.295680e-01 8.432220e-01 1.023304e+00 -2.964850e-01 2.305896e-01 -1.418571e+00 3.884653e-02 -1.594504e-01 -2.718789e-01 -3.631760e-01 -9.690943e-02 1.190922e-02 -3.087164e-01 -1.958630e-01 1.631472e-01 5.925759e-02 1.520365e-01 -1.980640e-01 5.658555e-01
<VARIANCE> 39
 2.246530e+01 1.093614e+01 1.108907e+01 4.914301e+01 2.446574e+01 5.497616e+01 1.911883e+01 1.571198e+01 2.929461e+01 4.309726e+01 1.807813e+01 2.562473e+01 2.872201e+01 8.443694e-01 4.768522e-01 1.059873e+00 2.127931e+00 2.775500e+00 3.753702e+00 1.778169e+00 1.942250e+00 2.578739e+00 3.572855e+00 2.071651e+00 2.387750e+00 1.885412e+00 2.420452e-01 2.143021e-01 2.566196e-01 2.538289e-01 6.096134e-01 6.960195e-01 3.518835e-01 4.048548e-01 6.720676e-01 7.067332e-01 3.924525e-01 5.582289e-01 1.892897e-01
<GCONST> 1.085446e+02
<STATE> 5
<MEAN> 39
 -1.021634e+01 -4.129741e+00 -1.024413e+01 -3.053643e+00 4.562757e+00 -3.791297e+00 -4.136203e+00 -5.103439e+00 3.252656e-01 3.876171e+00 -3.706304e-01 1.495152e+00 6.166917e+01 9.179887e-02 -7.149995e-01 -9.117892e-01 1.422250e-01 5.881521e-01 -1.605495e+00 -2.021544e+00 -7.685500e-01 -6.639949e-02 3.349730e-01 -7.588325e-01 -1.114529e+00 2.775935e+00 2.420779e-01 5.784877e-01 7.365313e-01 2.940845e-01 -3.873311e-01 -2.306682e-01 -1.926857e-01 -1.165253e-01 -2.026356e-01 -3.652943e-01 3.158453e-02 -1.707548e-01 -8.105960e-02
<VARIANCE> 39
 8.474390e+00 2.358758e+01 3.616663e+01 2.066656e+01 2.151283e+01 6.031625e+01 3.551918e+01 1.963810e+01 3.104515e+01 3.764285e+01 3.771337e+01 2.757784e+01 7.625441e+01 1.657227e+00 5.771194e+00 7.272714e+00 2.751110e+00 3.974607e+00 2.748243e+00 3.495719e+00 2.102875e+00 3.059264e+00 2.743420e+00 3.594770e+00 4.099142e+00 5.433343e+00 1.838363e-01 7.527281e-01 1.224744e+00 3.924056e-01 1.017675e+00 4.315148e-01 6.366738e-01 3.938650e-01 4.852638e-01 4.508824e-01 8.013285e-01 4.331351e-01 1.548792e+00
<GCONST> 1.247452e+02
<STATE> 6
<MEAN> 39
 -4.444996e+00 2.604657e+00 -3.058226e+00 1.551466e+00 -2.235361e+00 -9.048792e+00 -1.605937e+01 -1.104774e+01 -4.737841e+00 -2.169720e-01 2.918343e-01 -7.165896e+00 6.944248e+01 8.771107e-01 4.157271e-01 1.794476e+00 4.041286e-01 -2.723652e+00 -8.647233e-01 -1.835065e+00 -7.321963e-01 4.586345e-01 -1.090267e+00 9.392986e-01 -7.457359e-01 5.488954e-01 -3.014522e-01 -6.942695e-01 -4.929009e-01 -4.524990e-01 7.168406e-02 4.231949e-01 5.138007e-01 4.644145e-01 5.022603e-01 1.591910e-01 1.635629e-01 4.923588e-01 -2.125343e-01
<VARIANCE> 39
 2.106528e+01 3.152646e+01 1.526588e+01 3.220964e+01 5.794692e+01 4.124643e+01 4.784130e+01 2.689209e+01 3.803534e+01 2.531488e+01 2.590570e+01 3.338042e+01 2.379022e+01 1.344774e+00 3.635272e+00 2.937494e+00 2.167324e+00 3.644687e+00 2.092159e+00 1.598463e+00 2.903297e+00 4.549706e+00 2.558918e+00 2.588468e+00 2.812722e+00 5.172765e-01 1.458710e-01 3.874566e-01 2.986921e-01 1.985230e-01 1.047186e+00 3.100577e-01 1.908359e-01 3.260682e-01 5.022085e-01 3.542375e-01 5.352025e-01 4.333443e-01 2.119842e-01
<GCONST> 1.125596e+02
<STATE> 7
<MEAN> 39
 -6.716793e+00 -1.884465e+00 -7.195817e-01 7.413548e-01 -5.540745e+00 -1.288677e+01 -1.429300e+01 -5.450799e+00 1.081784e+00 -8.535482e-01 7.300858e-01 -3.106980e+00 6.910860e+01 -1.394382e-01 -4.138527e-02 4.046816e-01 -1.818643e-01 -2.254628e-01 -2.165155e-01 1.369855e-01 4.509690e-01 5.581430e-02 1.762121e-01 1.361869e-01 5.014588e-01 -7.109591e-01 7.803413e-03 1.111863e-01 -5.202533e-02 3.683057e-02 1.670487e-01 1.054499e-01 1.614109e-01 -2.677343e-02 -1.096755e-01 1.098823e-01 -2.894591e-02 3.416916e-02 -2.623052e-01
<VARIANCE> 39
 3.934225e+01 4.350931e+01 1.448296e+01 2.058800e+01 6.153027e+01 3.024161e+01 5.986156e+01 4.053468e+01 5.140220e+01 6.504153e+01 3.254816e+01 5.151595e+01 4.195508e+01 6.172716e-01 6.535798e-01 3.849152e-01 6.164957e-01 7.706604e-01 8.482698e-01 9.874831e-01 1.197440e+00 1.148017e+00 1.507976e+00 9.423774e-01 8.301430e-01 7.615576e-01 9.289557e-02 1.117638e-01 1.044106e-01 1.140234e-01 1.614287e-01 2.033023e-01 2.403925e-01 2.223213e-01 2.714727e-01 2.573100e-01 2.034447e-01 1.905103e-01 6.498201e-02
<GCONST> 9.285657e+01
<STATE> 8
<MEAN> 39
 -7.926226e+00 -3.201215e-01 6.797524e-01 9.672865e-01 -4.183732e+00 -9.093105e+00 -9.782008e+00 -4.495240e+00 3.842318e-01 5.456045e-01 1.658570e+00 1.115287e-01 5.763026e+01 -2.195035e-01 3.570206e-01 -1.347587e-01 5.082862e-01 7.584170e-01 1.877705e+00 1.837757e+00 3.733057e-01 -9.902783e-02 -1.085820e-02 1.930885e-01 4.556744e-01 -1.946010e+00 -3.084656e-02 -3.156717e-02 -1.288680e-01 -2.150065e-02 8.132838e-02 2.227194e-01 1.442744e-01 8.990420e-02 1.062889e-02 -1.139011e-01 4.229114e-02 6.399053e-02 1.873827e-01
<VARIANCE> 39
 7.551806e+00 2.446496e+01 7.615120e+00 1.425284e+01 3.263424e+01 3.157848e+01 4.524133e+01 2.761756e+01 3.955229e+01 3.283996e+01 4.574954e+01 2.486725e+01 3.623576e+01 1.035199e+00 1.170528e+00 7.200401e-01 1.589207e+00 2.168517e+00 1.791607e+00 1.912134e+00 2.093467e+00 1.706486e+00 3.076172e+00 1.710779e+00 2.340941e+00 8.992980e-01 8.577917e-02 1.251237e-01 7.843884e-02 2.395449e-01 2.206468e-01 4.126590e-01 3.128945e-01 2.377419e-01 2.770714e-01 4.584395e-01 2.440272e-01 2.893695e-01 1.242528e-01
<GCONST> 9.915517e+01
<TRANSP> 9
 0.000000e+00 1.000000e+00 0.000000e+00 0.000000e+00 0.000000e+00 0.000000e+00 0.000000e+00 0.000000e+00 0.000000e+00
 0.000000e+00 8.101266e-01 1.898734e-01 0.000000e+00 0.000000e+00 0.000000e+00 0.000000e+00 0.000000e+00 0.000000e+00
 0.000000e+00 0.000000e+00 8.543689e-01 1.456311e-01 0.000000e+00 0.000000e+00 0.000000e+00 0.000000e+00 0.000000e+00
 0.000000e+00 0.000000e+00 0.000000e+00 8.706897e-01 1.293103e-01 0.000000e+00 0.000000e+00 0.000000e+00 0.000000e+00
 0.000000e+00 0.000000e+00 0.000000e+00 0.000000e+00 8.125000e-01 1.875000e-01 0.000000e+00 0.000000e+00 0.000000e+00
 0.000000e+00 0.000000e+00 0.000000e+00 0.000000e+00 0.000000e+00 6.938776e-01 3.061225e-01 0.000000e+00 0.000000e+00
 0.000000e+00 0.000000e+00 0.000000e+00 0.000000e+00 0.000000e+00 0.000000e+00 8.888889e-01 1.111111e-01 0.000000e+00
 0.000000e+00 0.000000e+00 0.000000e+00 0.000000e+00 0.000000e+00 0.000000e+00 0.000000e+00 8.051948e-01 1.948052e-01
 0.000000e+00 0.000000e+00 0.000000e+00 0.000000e+00 0.000000e+00 0.000000e+00 0.000000e+00 0.000000e+00 0.000000e+00
<ENDHMM>
