~o
<STREAMINFO> 1 39
<VECSIZE> 39<NULLD><MFCC_D_A_0><DIAGC>
~h "yon"
<BEGINHMM>
<NUMSTATES> 8
<STATE> 2
<MEAN> 39
 -6.287953e+00 2.851368e+00 1.541550e+01 -2.709634e+00 -1.356078e+01 -2.525883e+00 -9.133949e+00 -5.944211e+00 -4.704936e+00 -7.728581e+00 5.216696e+00 -2.240299e+00 6.662078e+01 1.194048e+00 -1.539097e+00 -8.725531e-01 -6.723340e-01 -1.467473e+00 -1.966188e+00 -9.045187e-01 4.744755e-01 4.500803e-01 6.286833e-02 -4.588407e-02 -5.681167e-01 2.885367e+00 -7.908952e-03 -4.780618e-01 -1.568647e+00 -1.272054e-02 1.275090e+00 1.952792e-01 2.924913e-01 3.872497e-01 7.931489e-01 4.638571e-01 -4.298647e-01 -1.315607e-01 -3.366628e-01
<VARIANCE> 39
 9.442451e+00 2.504897e+01 6.432459e+01 6.691665e+01 7.688944e+01 3.696044e+01 3.942934e+01 3.928281e+01 6.326173e+01 7.557378e+01 3.083694e+01 2.201998e+01 3.759264e+01 4.351054e-01 2.901957e+00 1.577078e+01 2.800405e+00 1.370073e+01 1.914957e+00 4.311903e+00 4.054937e+00 6.716179e+00 3.659571e+00 3.354877e+00 1.536410e+00 1.415916e+00 6.452738e-02 5.739930e-01 9.323438e-01 7.504771e-01 1.517230e+00 9.503773e-01 7.671475e-01 8.176245e-01 8.657323e-01 6.917059e-01 5.421059e-01 4.912440e-01 2.208283e-01
<GCONST> 1.276675e+02
<STATE> 3
<MEAN> 39
 -1.082609e+00 -5.608476e+00 -4.729104e+00 -8.416399e+00 -2.865855e+00 -3.491017e+00 -1.187231e+01 -4.730444e+00 5.978035e+00 -2.954956e+00 -2.688216e-01 -8.713250e+00 7.486224e+01 5.842852e-01 -1.135075e-01 -3.302049e+00 -2.252001e+00 2.807462e+00 2.598886e+00 1.630200e-01 -1.901310e+00 7.270494e-01 4.014891e-01 -2.565662e-01 -8.139524e-01 3.926347e-01 -1.585204e-01 5.057214e-01 8.671294e-01 -1.595345e-01 -6.661330e-01 4.952575e-01 6.661265e-01 -3.230053e-01 -1.202591e+00 -5.119132e-01 5.872484e-01 6.993834e-01 -3.535961e-01
<VARIANCE> 39
 1.587155e+01 1.667439e+01 3.592090e+01 2.878195e+01 5.190095e+01 4.684644e+01 6.657431e+01 5.127755e+01 3.056488e+01 5.081872e+01 2.544858e+01 2.133812e+01 1.399482e+01 1.778795e-01 8.062702e-01 2.361286e+00 1.985045e+00 2.723632e+00 2.901818e+00 3.022175e+00 2.059460e+00 6.859640e+00 4.045907e+00 2.780674e+00 4.983689e+00 2.576811e-01 3.358968e-02 1.280439e-01 1.868657e-01 2.997038e-01 3.746333e-01 1.050561e+00 4.252081e-01 1.011653e+00 3.385347e-01 8.437907e-01 2.912749e-01 5.594205e-01 2.847892e-02
<GCONST> 1.077739e+02
<STATE> 4
<MEAN> 39
 -3.205893e-01 -2.805490e+00 -7.925242e+00 -1.656211e+01 2.782814e-01 4.154194e+00 -3.518567e+00 -8.972844e+00 -1.482929e+00 -8.220332e+00 1.948077e+00 -5.424749e+00 7.380581e+01 2.418499e-01 3.636741e-01 2.628306e-01 -4.310011e-01 -5.829152e-01 2.686073e-01 1.284809e+00 8.891987e-01 -1.271251e+00 -8.345616e-01 -4.170713e-01 4.082184e-01 -4.673765e-01 -1.540054e-02 -4.154461e-03 2.698308e-01 5.071248e-01 -2.656041e-01 -4.151710e-01 -2.411492e-01 3.812213e-01 2.853126e-01 3.410973e-01 -3.624044e-01 -3.090601e-01 -1.269888e-01
<VARIANCE> 39
 1.171407e+01 1.511934e+01 2.305564e+01 3.928407e+01 3.644541e+01 5.650806e+01 5.852959e+01 4.194725e+01 5.368808e+01 8.421249e+01 3.697990e+01 1.798056e+01 1.124486e+01 1.754441e-01 2.649581e-01 5.246580e-01 1.727299e+00 8.101418e-01 1.516279e+00 2.112178e+00 1.084977e+00 1.706802e+00 2.553103e+00 2.057572e+00 1.520805e+00 1.312068e-01 2.187578e-02 4.566009e-02 1.698311e-01 2.029307e-01 1.839595e-01 2.280649e-01 3.438437e-01 3.797694e-01 2.004520e-01 5.741516e-01 2.561633e-01 3.295746e-01 1.231647e-02
<GCONST> 9.037018e+01
<STATE> 5
<MEAN> 39
 6.083590e-01 -4.080625e-01 -5.016502e+00 -1.087409e+01 -3.065618e+00 3.537159e+00 -2.310077e+00 -2.446180e+00 -4.678308e+00 -5.545050e+00 -4.763119e+00 -6.572932e+00 6.948063e+01 -1.844981e-01 6.938353e-01 1.162336e+00 1.828925e+00 1.043969e-01 -5.859606e-01 -2.955069e-01 -3.039328e-01 -3.127690e-01 1.041855e+00 -9.499117e-01 -3.690377e-02 -1.096795e+00 -1.223164e-01 7.517758e-02 1.349627e-01 1.072415e-01 2.851651e-01 -7.843889e-02 -1.244375e-01 -4.439800e-01 -4.969001e-02 -5.136764e-02 1.244917e-01 2.145691e-01 -5.379029e-02
<VARIANCE> 39
 1.162780e+01 8.330781e+00 1.434047e+01 3.451005e+01 3.228255e+01 4.705166e+01 4.797451e+01 4.674169e+01 4.424228e+01 5.199229e+01 6.279147e+01 8.743488e+00 1.320644e+01 2.092995e-01 5.280120e-01 7.716829e-01 9.677915e-01 1.382661e+00 1.231332e+00 1.260994e+00 2.423211e+00 1.143629e+00 2.724236e+00 1.776175e+00 1.465551e+00 1.752692e-01 3.040748e-02 8.739718e-02 1.392332e-01 2.071238e-01 1.657683e-01 1.531944e-01 2.457526e-01 2.184010e-01 1.986850e-01 2.645068e-01 2.980886e-01 1.374450e-01 2.300957e-02
<GCONST> 8.764469e+01
<STATE> 6
<MEAN> 39
 -2.199562e+00 3.368330e+00 2.428496e+00 -1.506988e+00 -9.040480e-01 -5.015296e-01 -3.920639e+00 -8.755807e+00 -6.545162e+00 -3.069050e+00 -6.378183e+00 -4.646998e+00 6.284744e+01 -7.439655e-01 1.149049e-01 1.055363e+00 9.388502e-01 4.681480e-01 -2.958374e-01 3.017946e-01 -1.644733e-01 5.708136e-03 7.012737e-01 -2.693705e-02 2.010903e-01 -8.922975e-01 -8.823608e-02 -1.830920e-01 -2.322049e-01 -2.089247e-01 -3.221145e-02 1.430082e-01 2.283606e-01 2.926230e-01 2.447179e-01 1.357935e-01 2.256173e-01 5.329373e-02 5.240481e-03
<VARIANCE> 39
 1.869107e+01 1.351024e+01 1.047913e+01 2.692961e+01 4.655527e+01 1.641002e+01 1.757303e+01 7.351602e+01 2.977616e+01 6.110486e+01 5.206751e+01 3.079186e+01 9.769595e+00 2.891686e-01 7.948679e-01 5.986806e-01 8.733478e-01 9.592350e-01 1.334325e+00 1.609265e+00 1.458371e+00 1.698321e+00 2.474830e+00 1.413853e+00 1.635777e+00 2.370698e-01 4.775058e-02 1.557477e-01 1.394448e-01 1.138239e-01 1.963121e-01 2.231442e-01 2.318554e-01 2.708906e-01 2.990170e-01 3.351606e-01 3.104365e-01 3.549472e-01 6.309938e-02
<GCONST> 9.142592e+01
<STATE> 7
<MEAN> 39
 -6.321968e+00 1.726433e+00 3.179163e+00 9.661989e-01 2.702860e+00 -7.053820e-01 6.555183e-01 -4.960176e+00 -3.028546e+00 2.429807e+00 -4.670975e+00 -1.809690e+00 5.715610e+01 -7.326963e-01 -8.779819e-02 -9.232527e-01 3.525260e-01 4.739510e-02 3.842611e-01 4.963299e-01 9.215153e-01 8.663477e-01 -2.951066e-01 1.017943e+00 7.955022e-01 -1.427420e+00 4.707023e-02 1.687826e-02 -1.541085e-01 -6.308373e-02 -1.059526e-01 1.029607e-01 -1.658776e-01 1.552328e-01 -5.844074e-02 -3.557452e-01 -1.654071e-02 -2.739451e-02 3.584302e-02
<VARIANCE> 39
 9.142119e+00 9.953367e+00 1.470345e+01 2.255722e+01 3.670950e+01 1.993704e+01 1.788888e+01 7.622176e+01 1.700017e+01 4.681262e+01 4.015451e+01 2.571276e+01 2.166074e+01 7.436637e-01 9.798826e-01 7.444139e-01 8.571446e-01 1.626862e+00 8.900356e-01 1.398493e+00 3.247441e+00 1.341202e+00 2.497303e+00 1.838528e+00 1.747666e+00 8.033448e-01 8.003009e-02 1.694568e-01 2.416894e-01 1.731512e-01 2.383185e-01 1.790865e-01 2.388800e-01 4.873929e-01 2.640518e-01 3.827084e-01 2.867725e-01 3.069803e-01 1.077569e-01
<GCONST> 9.604613e+01
<TRANSP> 8
 0.000000e+00 1.000000e+00 0.000000e+00 0.000000e+00 0.000000e+00 0.000000e+00 0.000000e+00 0.000000e+00
 0.000000e+00 8.227848e-01 1.772152e-01 0.000000e+00 0.000000e+00 0.000000e+00 0.000000e+00 0.000000e+00
 0.000000e+00 0.000000e+00 7.666667e-01 2.333333e-01 0.000000e+00 0.000000e+00 0.000000e+00 0.000000e+00
 0.000000e+00 0.000000e+00 0.000000e+00 8.313253e-01 1.686747e-01 0.000000e+00 0.000000e+00 0.000000e+00
 0.000000e+00 0.000000e+00 0.000000e+00 0.000000e+00 8.227848e-01 1.772152e-01 0.000000e+00 0.000000e+00
 0.000000e+00 0.000000e+00 0.000000e+00 0.000000e+00 0.000000e+00 8.292683e-01 1.707317e-01 0.000000e+00
 0.000000e+00 0.000000e+00 0.000000e+00 0.000000e+00 0.000000e+00 0.000000e+00 8.028169e-01 1.971831e-01
 0.000000e+00 0.000000e+00 0.000000e+00 0.000000e+00 0.000000e+00 0.000000e+00 0.000000e+00 0.000000e+00
<ENDHMM>
