~o
<STREAMINFO> 1 26
<VECSIZE> 26<NULLD><MFCC_E_D_Z><DIAGC>
~h "kyuu"
<BEGINHMM>
<NUMSTATES> 5
<STATE> 2
<MEAN> 26
 -8.114471e+00 -1.166328e+00 7.125156e+00 -4.383509e+00 -7.421163e+00 1.055260e-01 -7.545281e-01 -7.481516e+00 2.205386e+00 -1.465640e+00 -1.569179e+00 -4.643397e-01 6.637678e-01 9.438012e-01 2.455396e-01 1.226379e+00 4.820968e-02 -1.887549e+00 -1.486927e+00 -4.676199e-01 -1.063980e+00 -1.216363e+00 -5.326161e-01 7.560218e-02 -5.435673e-01 5.322770e-02
<VARIANCE> 26
 4.232594e+01 3.178127e+01 3.230207e+01 2.148932e+01 4.997987e+01 3.680867e+01 2.573179e+01 5.393927e+01 5.493041e+01 1.979285e+01 2.189615e+01 2.182517e+01 3.434946e-02 5.982471e+00 1.839284e+00 1.999466e+00 2.447345e+00 3.744447e+00 4.043272e+00 2.478380e+00 3.560206e+00 4.995510e+00 3.108603e+00 4.000093e+00 2.980913e+00 1.000000e-02
<GCONST> 9.557124e+01
<STATE> 3
<MEAN> 26
 4.262092e+00 -1.421386e+00 8.636545e+00 -1.865136e+00 -1.385232e+01 -1.454421e+01 -8.994249e+00 -4.838345e+00 -4.482152e+00 -8.531552e+00 3.114078e+00 -1.044626e+00 9.401878e-01 3.778308e-01 7.381450e-02 -5.142525e-01 1.447219e-01 6.360896e-01 -4.550395e-01 -4.789879e-01 5.582821e-01 3.179395e-01 -6.382520e-05 6.051486e-03 5.984172e-01 -6.025783e-03
<VARIANCE> 26
 1.993317e+01 3.640105e+01 1.384009e+01 1.157638e+01 6.238111e+01 1.155922e+01 3.539384e+01 3.772085e+01 4.224673e+01 4.157771e+01 4.117178e+01 3.037490e+01 1.000000e-02 1.505273e-01 7.083602e-01 3.971098e-01 6.231605e-01 7.820665e-01 1.101148e+00 1.128233e+00 1.084318e+00 1.085392e+00 1.655951e+00 1.847860e+00 1.535599e+00 1.000000e-02
<GCONST> 7.666443e+01
<STATE> 4
<MEAN> 26
 5.055087e+00 1.659437e+00 3.381054e+00 4.002165e-01 -3.117639e+00 -1.131117e+01 -8.290298e+00 -2.232128e+00 -2.265721e+00 -2.021552e+00 1.199751e+00 1.441848e+00 6.169282e-01 -5.213766e-01 3.217345e-02 -4.235636e-01 2.167629e-01 8.716851e-01 1.395127e+00 8.949152e-01 1.700287e-01 1.448148e-02 5.604128e-01 -1.223808e-01 -3.169662e-01 -4.625397e-02
<VARIANCE> 26
 1.001782e+01 9.141091e+00 1.547492e+01 1.098065e+01 3.551030e+01 3.772323e+01 5.513866e+01 1.419705e+01 1.279183e+01 1.766145e+01 2.802516e+01 1.612079e+01 3.620373e-02 4.119063e-01 8.914582e-01 6.812285e-01 7.343697e-01 1.384987e+00 2.011037e+00 1.833369e+00 1.708971e+00 9.190270e-01 1.085695e+00 1.618420e+00 1.177472e+00 1.000000e-02
<GCONST> 7.602445e+01
<TRANSP> 5
 0.000000e+00 1.000000e+00 0.000000e+00 0.000000e+00 0.000000e+00
 0.000000e+00 8.913044e-01 1.086957e-01 0.000000e+00 0.000000e+00
 0.000000e+00 0.000000e+00 9.321267e-01 6.787331e-02 0.000000e+00
 0.000000e+00 0.000000e+00 0.000000e+00 9.079754e-01 9.202454e-02
 0.000000e+00 0.000000e+00 0.000000e+00 0.000000e+00 0.000000e+00
<ENDHMM>
