~o
<STREAMINFO> 1 26
<VECSIZE> 26<NULLD><MFCC_E_D_Z><DIAGC>
~h "seven"
<BEGINHMM>
<NUMSTATES> 9
<STATE> 2
<MEAN> 26
 4.430730e+00 3.461546e+00 6.755764e+00 -3.536448e-01 -5.530534e+00 -7.173417e+00 -4.413319e+00 -1.911147e+00 2.459203e+00 -5.782779e+00 -3.924485e+00 1.445630e+00 7.436704e-01 4.476055e-01 -1.842789e+00 -9.859143e-01 -1.817064e+00 5.854314e-01 -9.467332e-01 -3.900932e-01 1.118221e+00 1.349565e+00 -1.872968e+00 -1.046672e+00 -4.577943e-01 6.671583e-02
<VARIANCE> 26
 1.610523e+01 2.966870e+01 2.602764e+01 3.931168e+01 3.853807e+01 2.900736e+01 3.496690e+01 6.465154e+01 6.729514e+01 4.320465e+01 2.833275e+01 1.761989e+01 1.978428e-02 1.629353e+00 3.727525e+00 5.036913e+00 2.994090e+00 5.573564e+00 4.633843e+00 3.778877e+00 7.829644e+00 4.540538e+00 3.201192e+00 1.615231e+00 2.316482e+00 1.000000e-02
<GCONST> 9.643959e+01
<STATE> 3
<MEAN> 26
 3.262836e+00 -8.318613e+00 -3.187195e+00 -1.019762e+01 5.432678e+00 -5.253745e+00 -8.499009e-01 -9.482098e-01 6.390827e+00 -1.030208e+01 -7.189358e+00 -4.975377e+00 9.713957e-01 -1.018146e-02 -2.154690e-01 -5.305539e-01 -2.787077e-01 4.485486e-01 6.054991e-02 -1.697979e-01 -4.527456e-01 7.723734e-03 3.091385e-01 -9.414053e-02 -3.662905e-01 8.320806e-03
<VARIANCE> 26
 1.757308e+01 1.748266e+01 7.698750e+00 1.491991e+01 5.605610e+01 1.906340e+01 2.802530e+01 6.279987e+01 2.172234e+01 2.005417e+01 1.070770e+01 1.885527e+01 1.000000e-02 1.317754e-01 1.386841e+00 9.626598e-01 8.841941e-01 1.968046e+00 2.102725e+00 1.675534e+00 2.765572e+00 8.536762e-01 1.106277e+00 8.308750e-01 2.794014e+00 1.000000e-02
<GCONST> 7.675540e+01
<STATE> 4
<MEAN> 26
 5.769109e+00 -2.314781e-01 2.853282e+00 -3.140943e+00 -3.564199e+00 -9.497521e+00 -7.185483e+00 -5.385174e+00 5.106750e+00 -8.578339e+00 -6.719388e+00 -2.223420e+00 8.874251e-01 3.523895e-01 1.571041e+00 1.794816e+00 1.607442e+00 -1.396456e+00 -3.807769e-01 -5.616345e-01 -1.870266e+00 -1.121192e-01 7.502354e-01 4.088278e-02 3.555902e-01 -1.593271e-02
<VARIANCE> 26
 1.712336e+01 2.639415e+01 4.264997e+01 2.564806e+01 4.767209e+01 2.103375e+01 3.354022e+01 8.415659e+01 6.396180e+01 6.629722e+01 1.814699e+01 1.949897e+01 1.000000e-02 2.576070e-01 1.526694e+00 1.959462e+00 1.626883e+00 1.117067e+00 1.850090e+00 2.455762e+00 4.149173e+00 1.746958e+00 3.126101e+00 1.565968e+00 1.449226e+00 1.000000e-02
<GCONST> 8.655334e+01
<STATE> 5
<MEAN> 26
 6.472069e+00 -6.209552e-01 1.895917e+00 -3.684434e+00 -1.763338e+00 -8.719981e+00 -8.277292e+00 -3.925386e+00 3.831966e+00 -5.518442e+00 -7.538921e+00 -3.797636e+00 8.739274e-01 -2.495029e-01 -2.297368e+00 -2.847299e+00 -2.287100e+00 2.609878e+00 1.010729e+00 2.449859e-01 2.976465e+00 -1.402324e-01 -7.700835e-01 1.421049e-01 -1.088596e+00 1.446481e-02
<VARIANCE> 26
 2.261281e+01 2.381751e+01 4.716757e+01 2.813087e+01 5.626267e+01 2.193077e+01 2.655821e+01 8.910882e+01 4.802672e+01 4.700958e+01 1.337024e+01 1.805820e+01 1.000000e-02 2.509870e-01 1.702957e+00 1.550954e+00 1.182518e+00 1.737851e+00 1.767038e+00 2.262135e+00 2.591593e+00 3.349057e+00 4.442149e+00 1.712397e+00 2.127719e+00 1.000000e-02
<GCONST> 8.678966e+01
<STATE> 6
<MEAN> 26
 6.261087e+00 -8.482741e+00 -6.071477e+00 -1.030339e+01 9.567388e+00 -3.405858e+00 -3.845895e+00 -1.890818e+00 1.364234e+00 -7.033387e+00 -5.031423e+00 -8.568542e+00 9.211696e-01 2.001117e-01 -3.351373e-01 -3.215787e-01 -4.779896e-01 8.270019e-01 9.789863e-01 8.173043e-01 -1.452607e+00 -1.548838e-01 6.429830e-01 6.006156e-01 -4.619427e-01 -9.295415e-03
<VARIANCE> 26
 1.243013e+01 1.435603e+01 1.109694e+01 1.017240e+01 2.311908e+01 1.055414e+01 3.347086e+01 3.688097e+01 4.600709e+01 1.311230e+01 1.665234e+01 1.646333e+01 1.000000e-02 2.859561e-01 1.020335e+00 5.546092e-01 9.425676e-01 1.499269e+00 7.904304e-01 1.019236e+00 2.130793e+00 1.324730e+00 1.486814e+00 5.081183e-01 1.151192e+00 1.000000e-02
<GCONST> 7.232321e+01
<STATE> 7
<MEAN> 26
 5.227300e+00 -6.328764e+00 -6.311022e+00 -1.079982e+01 9.661733e+00 3.870738e+00 -2.311045e+00 -5.841451e+00 1.734069e+00 -2.706364e+00 -2.057390e+00 -8.125663e+00 7.297904e-01 -4.447306e-01 7.752362e-01 4.318739e-03 6.960914e-01 -2.439796e-01 7.557431e-01 1.758790e-01 4.019359e-01 -2.917092e-01 6.848038e-01 -4.187833e-02 2.591091e-01 -4.344626e-02
<VARIANCE> 26
 1.778105e+01 1.483054e+01 1.182040e+01 2.664446e+01 2.281031e+01 2.125579e+01 3.303792e+01 3.818953e+01 3.026804e+01 1.414325e+01 1.311195e+01 1.060308e+01 1.102629e-02 5.622360e-01 5.979642e-01 9.470976e-01 1.034317e+00 1.047630e+00 8.450831e-01 1.169482e+00 1.272665e+00 1.215279e+00 1.213242e+00 8.698372e-01 7.400980e-01 1.000000e-02
<GCONST> 7.343053e+01
<STATE> 8
<MEAN> 26
 8.144276e-01 -3.713630e-01 -3.444474e+00 -1.954391e+00 3.621285e+00 4.887576e+00 1.318853e+00 -6.073432e-02 -7.033631e-01 2.685366e+00 -2.335679e+00 -4.699932e+00 3.930602e-01 -9.335057e-01 5.138564e-01 7.999020e-01 1.474720e+00 -1.188427e+00 -2.945212e-01 4.360672e-01 6.339255e-01 -1.406448e-01 6.318303e-01 9.924489e-01 1.222563e+00 -4.556111e-02
<VARIANCE> 26
 7.177381e+00 9.529552e+00 1.468673e+01 1.657366e+01 1.866144e+01 1.630987e+01 1.384354e+01 2.510193e+01 1.846405e+01 1.709805e+01 1.516989e+01 1.655420e+01 2.201233e-02 6.804761e-01 6.824636e-01 8.141729e-01 1.469456e+00 2.282005e+00 2.085716e+00 1.904029e+00 2.259959e+00 1.525581e+00 1.831036e+00 1.063322e+00 1.016490e+00 1.000000e-02
<GCONST> 7.547012e+01
<TRANSP> 9
 0.000000e+00 1.000000e+00 0.000000e+00 0.000000e+00 0.000000e+00 0.000000e+00 0.000000e+00 0.000000e+00 0.000000e+00
 0.000000e+00 8.235294e-01 1.764706e-01 0.000000e+00 0.000000e+00 0.000000e+00 0.000000e+00 0.000000e+00 0.000000e+00
 0.000000e+00 0.000000e+00 8.387097e-01 1.612903e-01 0.000000e+00 0.000000e+00 0.000000e+00 0.000000e+00 0.000000e+00
 0.000000e+00 0.000000e+00 0.000000e+00 8.369565e-01 1.630435e-01 0.000000e+00 0.000000e+00 0.000000e+00 0.000000e+00
 0.000000e+00 0.000000e+00 0.000000e+00 0.000000e+00 7.619048e-01 2.380952e-01 0.000000e+00 0.000000e+00 0.000000e+00
 0.000000e+00 0.000000e+00 0.000000e+00 0.000000e+00 0.000000e+00 8.275862e-01 1.724138e-01 0.000000e+00 0.000000e+00
 0.000000e+00 0.000000e+00 0.000000e+00 0.000000e+00 0.000000e+00 0.000000e+00 8.648649e-01 1.351351e-01 0.000000e+00
 0.000000e+00 0.000000e+00 0.000000e+00 0.000000e+00 0.000000e+00 0.000000e+00 0.000000e+00 7.826087e-01 2.173913e-01
 0.000000e+00 0.000000e+00 0.000000e+00 0.000000e+00 0.000000e+00 0.000000e+00 0.000000e+00 0.000000e+00 0.000000e+00
<ENDHMM>
