~o
<STREAMINFO> 1 26
<VECSIZE> 26<NULLD><MFCC_E_D_Z><DIAGC>
~h "zero"
<BEGINHMM>
<NUMSTATES> 9
<STATE> 2
<MEAN> 26
 -8.979034e+00 3.707448e+00 -1.326373e+00 4.732079e+00 5.992529e-01 -1.825786e+00 1.340322e+00 1.089615e+00 -1.343816e+00 -4.074509e-01 -3.018727e-01 -2.258566e-01 5.218810e-01 1.309724e-01 6.682469e-01 6.603280e-01 2.995815e-01 -5.990894e-01 -1.475259e+00 1.036116e-01 -3.446473e-01 -5.270183e-01 -6.374289e-01 -2.397346e-01 2.698058e-01 5.700568e-02
<VARIANCE> 26
 2.596855e+01 2.456287e+01 1.596533e+01 2.531509e+01 2.280688e+01 2.442064e+01 2.262069e+01 2.934504e+01 2.795369e+01 2.179778e+01 1.678389e+01 1.236877e+01 3.494659e-02 6.772790e+00 1.651956e+00 2.707154e+00 1.479143e+00 3.007344e+00 3.957726e+00 2.266258e+00 2.184461e+00 2.358712e+00 3.130143e+00 1.390115e+00 1.485031e+00 1.000000e-02
<GCONST> 8.745656e+01
<STATE> 3
<MEAN> 26
 2.510308e+00 2.388903e+00 6.658725e+00 2.798682e+00 -9.797666e+00 -1.332667e+01 -4.456761e+00 -1.899603e+00 -5.526020e+00 -5.525444e+00 -5.495421e-01 1.743253e+00 8.639693e-01 3.018975e+00 -1.811140e+00 1.322077e+00 -2.122322e+00 -3.125710e+00 -1.769993e+00 -1.596378e+00 1.181222e-01 4.648737e-01 -5.376461e-01 1.023081e+00 -5.421674e-01 7.146388e-02
<VARIANCE> 26
 3.044185e+01 1.433352e+01 6.506978e+00 3.307183e+01 5.201015e+01 1.545516e+01 3.134529e+01 2.770202e+01 3.584800e+01 2.149560e+01 1.839837e+01 1.867235e+01 1.000000e-02 2.701352e+00 1.739341e+00 1.791694e+00 1.199146e+00 3.400442e+00 2.685238e+00 2.736355e+00 2.762136e+00 1.868197e+00 2.228691e+00 2.616804e+00 2.816965e+00 1.000000e-02
<GCONST> 8.593717e+01
<STATE> 4
<MEAN> 26
 3.572633e+00 -4.184280e+00 6.188886e+00 -4.622530e+00 -1.142296e+01 -1.254726e+01 -3.582533e+00 2.683450e+00 2.453277e-01 -6.207621e+00 2.877939e+00 -4.922139e+00 9.642468e-01 1.443642e-01 -7.205258e-01 -2.295744e-01 -1.333153e-01 1.061647e-01 3.287109e-01 -2.890523e-01 6.296536e-01 4.756943e-01 -2.847929e-01 -2.641333e-01 -4.128920e-01 -2.661658e-03
<VARIANCE> 26
 1.915337e+01 1.491593e+01 6.510571e+00 1.596804e+01 4.728260e+01 9.847434e+00 4.725843e+01 4.072575e+01 3.327935e+01 1.666970e+01 3.482117e+01 2.255262e+01 1.000000e-02 4.288442e-01 5.316973e-01 7.121815e-01 2.200693e+00 6.775463e-01 7.891199e-01 1.398128e+00 9.821008e-01 9.204288e-01 9.050584e-01 1.414942e+00 2.079062e+00 1.000000e-02
<GCONST> 7.512215e+01
<STATE> 5
<MEAN> 26
 9.124846e+00 -7.559034e+00 1.924543e+00 2.055452e+00 -9.478528e+00 -9.103946e+00 -1.105756e+01 8.733979e-01 5.144019e+00 -5.314327e+00 -4.311021e+00 -9.045702e-01 8.659032e-01 9.388781e-01 -7.491488e-02 -1.717745e+00 4.160673e-01 8.260689e-01 1.588904e+00 -1.264044e+00 -1.616928e+00 8.427859e-01 1.303868e+00 -2.444979e-01 -1.805749e-01 -7.617290e-04
<VARIANCE> 26
 2.599473e+01 8.557378e+00 2.753569e+01 5.289134e+01 3.845266e+01 3.251252e+01 4.517988e+01 2.262944e+01 2.756208e+01 2.326652e+01 2.137370e+01 2.441601e+01 1.000000e-02 4.677384e-01 1.134109e+00 2.169283e+00 7.921098e+00 3.265651e+00 4.474960e+00 2.156560e+00 1.716667e+00 4.411310e+00 2.894149e+00 3.971443e+00 5.177705e+00 1.000000e-02
<GCONST> 8.981583e+01
<STATE> 6
<MEAN> 26
 1.079401e+01 -2.548685e+00 -5.931292e+00 -1.004987e+01 -5.273119e+00 4.538176e+00 -9.689291e+00 -8.295850e+00 1.083053e+00 2.452724e+00 1.565782e+00 -5.367279e+00 9.085028e-01 -2.744354e-01 1.807842e+00 -2.006050e-01 -3.387301e+00 6.160200e-01 1.953687e+00 1.597429e+00 -7.083243e-01 -1.907955e+00 -1.384932e-01 8.425168e-01 9.347536e-01 -1.213872e-02
<VARIANCE> 26
 1.978611e+01 1.939768e+01 1.632309e+01 7.443349e+01 2.580279e+01 4.813480e+01 3.773672e+01 2.158461e+01 3.505876e+01 1.662783e+01 2.045873e+01 3.249188e+01 1.000000e-02 2.673898e-01 3.032645e-01 9.769247e-01 3.690791e+00 1.393516e+00 4.049726e+00 3.670451e+00 2.001890e+00 1.887736e+00 3.115248e+00 2.549368e+00 2.578867e+00 1.000000e-02
<GCONST> 8.447175e+01
<STATE> 7
<MEAN> 26
 8.815621e+00 3.499924e+00 -3.773233e+00 -1.895200e+01 -4.590094e+00 5.984686e+00 -3.595975e+00 -3.879706e+00 -4.373037e+00 -1.885137e+00 3.961176e-01 9.809815e-01 7.893133e-01 -2.757248e-01 4.458636e-01 3.602284e-01 -1.868761e-01 -3.308565e-01 -6.171160e-01 8.006271e-01 1.120038e+00 1.181471e-01 -1.025304e-01 -1.760283e-01 4.616406e-01 -3.201513e-02
<VARIANCE> 26
 1.450079e+01 1.339252e+01 7.867311e+00 3.894499e+01 2.729465e+01 5.082050e+01 1.060774e+01 2.263989e+01 2.418284e+01 5.023323e+01 1.796627e+01 2.164128e+01 1.000000e-02 7.952136e-01 4.411715e-01 9.569947e-01 2.128940e+00 6.202688e-01 1.321041e+00 1.138138e+00 1.292063e+00 1.280135e+00 3.530774e+00 2.445529e+00 8.601360e-01 1.000000e-02
<GCONST> 7.745268e+01
<STATE> 8
<MEAN> 26
 4.640983e+00 3.167169e+00 -2.524437e+00 -1.161399e+01 -3.065793e+00 1.971171e-01 -5.740680e-03 4.184974e-01 -1.417993e-01 7.535555e-01 1.648866e+00 2.207072e+00 5.333210e-01 -1.244264e+00 -5.494325e-01 1.339543e-01 2.378805e+00 1.027413e+00 -3.946532e-01 4.035254e-01 4.090635e-01 4.976326e-01 3.833760e-01 1.833356e-01 2.573675e-02 -5.850649e-02
<VARIANCE> 26
 1.591219e+01 5.184397e+00 9.281925e+00 9.097831e+01 2.775221e+01 2.676650e+01 9.998612e+00 1.526243e+01 1.589514e+01 1.645776e+01 1.835546e+01 1.202677e+01 3.008277e-02 8.597237e-01 5.285066e-01 1.070915e+00 2.521249e+00 1.859862e+00 2.923835e+00 1.140020e+00 1.968569e+00 1.485485e+00 1.935504e+00 1.748451e+00 1.307519e+00 1.000000e-02
<GCONST> 7.801859e+01
<TRANSP> 9
 0.000000e+00 1.000000e+00 0.000000e+00 0.000000e+00 0.000000e+00 0.000000e+00 0.000000e+00 0.000000e+00 0.000000e+00
 0.000000e+00 8.235294e-01 1.764706e-01 0.000000e+00 0.000000e+00 0.000000e+00 0.000000e+00 0.000000e+00 0.000000e+00
 0.000000e+00 0.000000e+00 6.666667e-01 3.333333e-01 0.000000e+00 0.000000e+00 0.000000e+00 0.000000e+00 0.000000e+00
 0.000000e+00 0.000000e+00 0.000000e+00 8.800000e-01 1.200000e-01 0.000000e+00 0.000000e+00 0.000000e+00 0.000000e+00
 0.000000e+00 0.000000e+00 0.000000e+00 0.000000e+00 8.192771e-01 1.807229e-01 0.000000e+00 0.000000e+00 0.000000e+00
 0.000000e+00 0.000000e+00 0.000000e+00 0.000000e+00 0.000000e+00 7.857143e-01 2.142857e-01 0.000000e+00 0.000000e+00
 0.000000e+00 0.000000e+00 0.000000e+00 0.000000e+00 0.000000e+00 0.000000e+00 8.235294e-01 1.764706e-01 0.000000e+00
 0.000000e+00 0.000000e+00 0.000000e+00 0.000000e+00 0.000000e+00 0.000000e+00 0.000000e+00 8.051948e-01 1.948052e-01
 0.000000e+00 0.000000e+00 0.000000e+00 0.000000e+00 0.000000e+00 0.000000e+00 0.000000e+00 0.000000e+00 0.000000e+00
<ENDHMM>
