~o
<STREAMINFO> 1 26
<VECSIZE> 26<NULLD><MFCC_E_D_Z><DIAGC>
~h "kyuu"
<BEGINHMM>
<NUMSTATES> 5
<STATE> 2
<MEAN> 26
 -7.565984e+00 -2.233128e+00 7.861758e+00 -4.308153e+00 -7.797544e+00 -4.718091e-01 -2.980410e-01 -8.877209e+00 1.932062e+00 -9.711379e-01 -1.068309e+00 -4.404793e-01 6.775818e-01 9.794533e-01 7.342325e-02 1.141059e+00 1.884545e-01 -1.594212e+00 -1.359710e+00 -4.388367e-01 -9.675196e-01 -1.232971e+00 -5.028465e-01 1.521401e-01 -2.598663e-01 4.821908e-02
<VARIANCE> 26
 4.574613e+01 2.865737e+01 3.086418e+01 2.197431e+01 4.832814e+01 3.530228e+01 2.694036e+01 4.635741e+01 6.163758e+01 2.118959e+01 2.198925e+01 1.884537e+01 3.405939e-02 5.716558e+00 1.971646e+00 1.970583e+00 2.261626e+00 3.025957e+00 3.670250e+00 2.584022e+00 3.751462e+00 5.017716e+00 3.357975e+00 4.039309e+00 2.349277e+00 1.000000e-02
<GCONST> 9.494169e+01
<STATE> 3
<MEAN> 26
 5.992871e+00 -3.851857e+00 8.744778e+00 -1.912496e+00 -1.199175e+01 -1.501995e+01 -9.192450e+00 -6.216773e+00 -3.882058e+00 -7.788213e+00 3.617248e+00 8.583321e-02 9.445575e-01 3.688319e-01 1.504693e-01 -5.957938e-01 3.415363e-02 6.593564e-01 -4.172656e-01 -5.407768e-01 5.933152e-01 4.087946e-01 2.174248e-02 -2.119121e-02 5.089302e-01 -7.451877e-03
<VARIANCE> 26
 1.295322e+01 2.090510e+01 1.642062e+01 1.182791e+01 6.279395e+01 1.152690e+01 4.587965e+01 3.350798e+01 4.974403e+01 4.776687e+01 4.572020e+01 2.631951e+01 1.000000e-02 1.561979e-01 8.000933e-01 3.311697e-01 5.997106e-01 4.718882e-01 9.285754e-01 1.052719e+00 9.863265e-01 9.651672e-01 1.641851e+00 1.309093e+00 1.471390e+00 1.000000e-02
<GCONST> 7.486552e+01
<STATE> 4
<MEAN> 26
 5.221956e+00 1.376841e+00 3.422781e+00 4.963115e-02 -2.529975e+00 -1.126929e+01 -8.166327e+00 -2.402848e+00 -2.176900e+00 -1.769457e+00 8.101450e-01 9.977320e-01 6.211196e-01 -6.475344e-01 1.440108e-01 -4.511718e-01 2.992972e-01 8.092485e-01 1.365495e+00 9.165937e-01 3.222851e-01 -8.462777e-03 4.430297e-01 -2.095884e-01 -3.219837e-01 -4.533876e-02
<VARIANCE> 26
 1.132867e+01 8.421487e+00 1.769610e+01 1.101580e+01 3.777183e+01 3.666462e+01 5.940805e+01 1.303189e+01 1.352456e+01 1.671680e+01 3.008170e+01 1.668771e+01 3.553255e-02 3.591015e-01 9.593541e-01 7.213904e-01 7.061685e-01 1.603775e+00 2.036742e+00 1.910916e+00 1.620764e+00 9.704856e-01 1.073688e+00 1.478697e+00 1.231111e+00 1.000000e-02
<GCONST> 7.641212e+01
<TRANSP> 5
 0.000000e+00 1.000000e+00 0.000000e+00 0.000000e+00 0.000000e+00
 0.000000e+00 8.991597e-01 1.008403e-01 0.000000e+00 0.000000e+00
 0.000000e+00 0.000000e+00 9.298246e-01 7.017544e-02 0.000000e+00
 0.000000e+00 0.000000e+00 0.000000e+00 9.104478e-01 8.955224e-02
 0.000000e+00 0.000000e+00 0.000000e+00 0.000000e+00 0.000000e+00
<ENDHMM>
