~o
<STREAMINFO> 1 26
<VECSIZE> 26<NULLD><MFCC_E_D_Z><DIAGC>
~h "san"
<BEGINHMM>
<NUMSTATES> 8
<STATE> 2
<MEAN> 26
 -1.073945e+01 3.630682e+00 -2.539081e+00 3.004566e+00 -1.888308e+00 -1.186818e+00 1.275435e+00 1.198515e+00 9.251825e-01 -4.536339e-01 1.488819e+00 1.414302e+00 5.010844e-01 -7.823645e-01 5.157617e-03 -2.683563e-01 2.033514e-01 -3.315567e-01 -1.363121e-01 6.551291e-02 4.593371e-02 1.318160e-01 -8.338435e-02 7.121402e-02 -2.725608e-02 1.361576e-02
<VARIANCE> 26
 3.018354e+01 5.016482e+00 8.395554e+00 1.161785e+01 1.928838e+01 3.148728e+01 1.991817e+01 1.520894e+01 1.680810e+01 1.153376e+01 2.285864e+01 1.132077e+01 4.895988e-02 1.261513e+00 5.917565e-01 6.854984e-01 6.219221e-01 1.218424e+00 1.392136e+00 1.281286e+00 1.320161e+00 1.934793e+00 1.109895e+00 9.593825e-01 1.115981e+00 1.000000e-02
<GCONST> 7.345052e+01
<STATE> 3
<MEAN> 26
 -7.445757e+00 -3.861456e-01 -2.965591e+00 5.800492e-02 -2.709141e+00 -2.525059e+00 1.268571e+00 2.009290e+00 2.060039e+00 -2.009694e+00 2.203984e+00 2.414238e+00 6.795679e-01 3.030756e+00 -1.269202e+00 -9.085095e-02 -1.273917e+00 9.360829e-01 -6.922867e-01 -1.347644e-01 -6.824900e-01 -3.961041e-02 -1.071252e+00 -1.744362e+00 -2.723317e-01 5.238399e-02
<VARIANCE> 26
 3.679687e+01 2.108098e+01 1.751066e+01 1.792286e+01 1.805791e+01 2.037962e+01 2.330842e+01 3.110970e+01 1.882766e+01 2.578259e+01 3.364043e+01 1.502432e+01 3.463411e-02 2.555159e+00 1.615235e+00 2.019229e+00 1.604693e+00 3.878177e+00 1.544613e+00 6.432576e+00 3.129346e+00 2.116400e+00 3.900908e+00 3.058950e+00 2.434845e+00 1.000000e-02
<GCONST> 8.862873e+01
<STATE> 4
<MEAN> 26
 6.495831e+00 -6.764383e+00 -1.944624e+00 -8.672369e+00 6.869033e+00 -5.445401e+00 1.951513e+00 -5.440176e+00 9.860914e-01 -5.735318e+00 -8.063223e+00 -1.446838e+00 9.232228e-01 1.298251e+00 -1.845135e+00 -1.604969e-01 -1.981463e+00 1.730144e+00 -1.248017e-01 -3.989923e-01 -1.313555e+00 -1.690539e-01 2.734567e-01 -5.736561e-01 -6.290214e-01 3.417542e-02
<VARIANCE> 26
 1.124482e+01 4.128570e+01 1.954745e+01 2.124561e+01 5.256093e+01 2.265929e+01 8.176205e+01 2.807001e+01 2.353252e+01 2.367822e+01 2.122970e+01 1.192086e+01 1.000000e-02 1.952867e+00 2.919998e+00 1.611755e+00 1.582981e+00 1.469842e+00 1.598999e+00 4.898507e+00 2.759341e+00 1.323750e+00 2.373344e+00 3.032926e+00 1.875686e+00 1.000000e-02
<GCONST> 8.644083e+01
<STATE> 5
<MEAN> 26
 8.286045e+00 -1.087882e+01 -4.488656e+00 -9.834889e+00 9.430997e+00 -5.673326e+00 -4.328362e+00 -7.159780e+00 -8.151903e-01 -1.638199e+00 -3.992600e+00 -4.244034e+00 9.089454e-01 2.854830e-01 3.628912e-01 -2.551904e-01 3.262495e-01 -4.930495e-02 2.217961e-02 -2.820408e-01 7.652432e-03 -8.230130e-03 2.488615e-01 2.758322e-01 -3.236445e-01 -7.439298e-03
<VARIANCE> 26
 1.864713e+01 2.051589e+01 1.885190e+01 1.527719e+01 2.118412e+01 3.259853e+01 1.001217e+02 3.192406e+01 1.547867e+01 1.651961e+01 5.347442e+01 3.758160e+01 1.000000e-02 1.435634e-01 4.405321e-01 4.236368e-01 6.916347e-01 7.372255e-01 6.289957e-01 9.966370e-01 1.004247e+00 1.200744e+00 8.245172e-01 9.347530e-01 6.976254e-01 1.000000e-02
<GCONST> 7.274782e+01
<STATE> 6
<MEAN> 26
 1.102319e+01 -3.621422e+00 -1.311545e+00 -4.335840e+00 1.381361e+00 -3.880086e+00 -2.677766e+00 -9.948789e+00 -1.165980e+00 -1.038041e+00 -4.749233e+00 -5.993762e+00 8.232374e-01 -2.183587e-01 1.095639e+00 1.344084e+00 1.074636e+00 -1.479753e+00 1.627917e-01 -2.697848e-01 -3.470403e-01 -3.526977e-01 2.889642e-01 9.205309e-02 8.009747e-02 -1.960219e-02
<VARIANCE> 26
 3.342487e+01 1.320048e+01 3.465892e+01 3.222429e+01 5.928584e+01 1.296956e+01 3.889491e+01 6.088477e+01 4.553634e+01 3.748901e+01 5.463678e+01 3.095485e+01 1.000000e-02 1.974377e-01 6.810024e-01 8.372836e-01 9.954895e-01 1.269554e+00 1.039226e+00 1.681861e+00 1.961856e+00 1.288702e+00 1.275456e+00 2.699598e+00 2.780522e+00 1.000000e-02
<GCONST> 8.276789e+01
<STATE> 7
<MEAN> 26
 4.733325e+00 1.390649e+00 4.837742e+00 4.584684e-01 -1.563993e+00 -3.008296e+00 -4.734674e+00 -6.491620e+00 -1.705982e+00 4.096998e-01 -3.167160e+00 -3.997763e+00 5.886099e-01 -1.054904e+00 3.585102e-01 -8.473594e-02 4.169182e-01 -7.486384e-02 4.835982e-01 4.786569e-01 9.658597e-01 -9.027020e-03 4.338240e-02 6.190462e-01 5.307146e-01 -4.689429e-02
<VARIANCE> 26
 2.328607e+01 6.600461e+00 2.251487e+01 1.439138e+01 3.275378e+01 1.981854e+01 2.792386e+01 4.912782e+01 3.842206e+01 2.398344e+01 3.489625e+01 2.866714e+01 3.086511e-02 8.544227e-01 7.629782e-01 1.847668e+00 9.020559e-01 1.425002e+00 1.470045e+00 2.384299e+00 2.291301e+00 1.948824e+00 1.825006e+00 1.954032e+00 1.580972e+00 1.000000e-02
<GCONST> 8.286819e+01
<TRANSP> 8
 0.000000e+00 1.000000e+00 0.000000e+00 0.000000e+00 0.000000e+00 0.000000e+00 0.000000e+00 0.000000e+00
 0.000000e+00 8.965517e-01 1.034483e-01 0.000000e+00 0.000000e+00 0.000000e+00 0.000000e+00 0.000000e+00
 0.000000e+00 0.000000e+00 7.794118e-01 2.205883e-01 0.000000e+00 0.000000e+00 0.000000e+00 0.000000e+00
 0.000000e+00 0.000000e+00 0.000000e+00 7.580645e-01 2.419355e-01 0.000000e+00 0.000000e+00 0.000000e+00
 0.000000e+00 0.000000e+00 0.000000e+00 0.000000e+00 9.000000e-01 9.999999e-02 0.000000e+00 0.000000e+00
 0.000000e+00 0.000000e+00 0.000000e+00 0.000000e+00 0.000000e+00 8.453608e-01 1.546392e-01 0.000000e+00
 0.000000e+00 0.000000e+00 0.000000e+00 0.000000e+00 0.000000e+00 0.000000e+00 8.484849e-01 1.515152e-01
 0.000000e+00 0.000000e+00 0.000000e+00 0.000000e+00 0.000000e+00 0.000000e+00 0.000000e+00 0.000000e+00
<ENDHMM>
