~o
<STREAMINFO> 1 26
<VECSIZE> 26<NULLD><MFCC_E_D_Z><DIAGC>
~h "seven"
<BEGINHMM>
<NUMSTATES> 9
<STATE> 2
<MEAN> 26
 4.585291e+00 1.349187e+00 5.756633e+00 -1.363017e+00 -4.350419e+00 -8.619475e+00 -5.704920e+00 -3.111124e+00 1.212146e+00 -4.309227e+00 -2.983486e+00 1.698856e-02 7.575809e-01 6.588715e-01 -1.931145e+00 -7.786736e-01 -1.739838e+00 8.847597e-01 -7.884278e-01 -6.144637e-01 6.326481e-01 8.768677e-01 -1.379153e+00 -6.961534e-01 -1.060588e-01 6.321813e-02
<VARIANCE> 26
 1.775391e+01 3.944306e+01 2.921600e+01 4.131114e+01 4.669519e+01 3.311388e+01 5.365108e+01 5.251126e+01 7.212403e+01 3.877354e+01 3.176008e+01 1.601138e+01 2.084253e-02 1.434296e+00 3.950546e+00 4.900120e+00 3.092187e+00 5.334222e+00 4.612017e+00 5.096757e+00 7.580772e+00 4.508191e+00 3.935358e+00 2.299587e+00 2.370559e+00 1.000000e-02
<GCONST> 9.829240e+01
<STATE> 3
<MEAN> 26
 4.582233e+00 -9.366676e+00 -1.911791e+00 -1.029482e+01 6.195203e+00 -6.363682e+00 -3.826966e+00 -1.971694e+00 4.556003e+00 -8.235191e+00 -5.773748e+00 -2.407757e+00 9.474031e-01 6.266370e-02 -1.237580e-01 -3.514526e-01 -3.155984e-01 4.351763e-01 -7.997591e-02 -2.983489e-01 -2.907409e-01 5.952518e-02 1.881781e-01 -5.268109e-02 -1.424248e-01 6.473873e-03
<VARIANCE> 26
 1.672263e+01 1.894331e+01 5.034863e+00 1.541348e+01 4.924945e+01 3.896615e+01 7.836271e+01 4.773095e+01 3.482241e+01 2.148914e+01 2.113481e+01 2.137176e+01 1.000000e-02 8.372051e-02 7.364388e-01 5.338700e-01 4.342341e-01 1.353840e+00 1.671679e+00 1.068752e+00 2.584913e+00 8.800899e-01 1.033044e+00 8.799514e-01 9.718965e-01 1.000000e-02
<GCONST> 7.453500e+01
<STATE> 4
<MEAN> 26
 6.623696e+00 -2.357596e+00 3.090867e+00 -4.343021e+00 -1.784876e+00 -1.103729e+01 -8.592390e+00 -6.140698e+00 2.373302e+00 -5.285275e+00 -5.590634e+00 -8.917099e-01 8.896289e-01 2.683190e-01 1.591252e+00 1.581371e+00 1.766589e+00 -1.492642e+00 -4.955087e-01 -4.669769e-01 -1.803107e+00 -2.692766e-01 9.763247e-01 4.646654e-02 2.608272e-01 -1.283405e-02
<VARIANCE> 26
 1.741452e+01 2.790463e+01 3.953683e+01 2.801231e+01 5.282727e+01 1.638496e+01 5.210619e+01 7.137643e+01 6.397990e+01 3.932346e+01 2.953993e+01 2.456472e+01 1.000000e-02 1.827697e-01 1.531813e+00 2.252060e+00 1.486622e+00 1.338420e+00 1.427930e+00 2.829050e+00 3.313096e+00 1.819965e+00 2.368232e+00 1.687364e+00 1.362720e+00 1.000000e-02
<GCONST> 8.628695e+01
<STATE> 5
<MEAN> 26
 7.172762e+00 -1.807044e+00 2.528123e+00 -3.710414e+00 -4.660945e-01 -1.002904e+01 -9.245841e+00 -5.048932e+00 1.560746e+00 -4.017359e+00 -6.337183e+00 -2.121830e+00 8.703354e-01 -1.725563e-01 -2.042899e+00 -2.493635e+00 -2.304362e+00 2.578214e+00 1.153138e+00 2.866265e-01 2.955888e+00 8.930428e-02 -1.166026e+00 -8.811769e-02 -7.780271e-01 9.135500e-03
<VARIANCE> 26
 2.192004e+01 2.099584e+01 4.020315e+01 2.840565e+01 5.745351e+01 1.974201e+01 3.851456e+01 7.085480e+01 5.263297e+01 4.171934e+01 3.294737e+01 1.825328e+01 1.000000e-02 2.046330e-01 1.816891e+00 2.376876e+00 1.239724e+00 1.557539e+00 1.301851e+00 1.968731e+00 1.601271e+00 3.060571e+00 3.235703e+00 1.932503e+00 2.003921e+00 1.000000e-02
<GCONST> 8.637879e+01
<STATE> 6
<MEAN> 26
 6.757303e+00 -8.303734e+00 -5.573294e+00 -9.555632e+00 9.255074e+00 -3.455728e+00 -4.581245e+00 -2.498610e+00 3.005928e-01 -6.868455e+00 -4.830063e+00 -6.587529e+00 9.028950e-01 4.643403e-02 -1.913835e-03 -5.265616e-01 -1.485436e-01 5.081357e-01 1.225947e+00 7.844915e-01 -1.366115e+00 7.280362e-02 4.889088e-01 5.477710e-01 -4.963812e-01 -1.132711e-02
<VARIANCE> 26
 1.287104e+01 1.544934e+01 1.282969e+01 8.242742e+00 3.147785e+01 1.356987e+01 4.665305e+01 3.199217e+01 4.884576e+01 1.428780e+01 2.069969e+01 1.714816e+01 1.000000e-02 2.056592e-01 1.188128e+00 5.735440e-01 5.877557e-01 1.907892e+00 1.179578e+00 1.194017e+00 1.629588e+00 1.742603e+00 1.692115e+00 6.459699e-01 8.465014e-01 1.000000e-02
<GCONST> 7.377155e+01
<STATE> 7
<MEAN> 26
 5.076883e+00 -5.624542e+00 -6.187328e+00 -9.055722e+00 8.176774e+00 3.099565e+00 -2.779415e+00 -7.648439e+00 2.070481e+00 -2.383742e+00 -7.988419e-01 -5.260810e+00 7.365380e-01 -5.323505e-01 6.676052e-01 -1.111129e-02 5.778596e-01 -1.427113e-01 6.260235e-01 3.363624e-01 3.163054e-01 -1.858526e-01 6.042475e-01 1.198850e-01 2.222804e-01 -3.217911e-02
<VARIANCE> 26
 1.825843e+01 1.295985e+01 1.101269e+01 2.484531e+01 3.443758e+01 2.350644e+01 4.183500e+01 2.229219e+01 2.540736e+01 1.420574e+01 1.682324e+01 2.308305e+01 1.000000e-02 5.100080e-01 5.490609e-01 1.071851e+00 7.130012e-01 1.101044e+00 8.218847e-01 1.091608e+00 1.292944e+00 9.108914e-01 1.345098e+00 8.401833e-01 8.448671e-01 1.000000e-02
<GCONST> 7.360094e+01
<STATE> 8
<MEAN> 26
 6.853224e-01 1.505036e-01 -2.373704e+00 -1.580665e+00 4.005639e+00 4.219687e+00 7.771226e-01 -9.116315e-02 -8.978160e-01 1.726741e+00 -1.851432e+00 -4.152029e+00 5.052800e-01 -8.716638e-01 4.982392e-01 8.827609e-01 1.245542e+00 -1.190281e+00 -1.466743e-01 4.609335e-01 9.660334e-01 -1.650525e-01 5.935078e-01 5.514818e-01 6.963947e-01 -4.120005e-02
<VARIANCE> 26
 7.392986e+00 8.725357e+00 1.334158e+01 1.824776e+01 2.197607e+01 1.837177e+01 1.339410e+01 2.649787e+01 2.085145e+01 1.434124e+01 1.507006e+01 1.820881e+01 3.779918e-02 7.535269e-01 7.056358e-01 7.942927e-01 1.494773e+00 1.954594e+00 2.262287e+00 2.256351e+00 2.115551e+00 1.500609e+00 1.921184e+00 1.420820e+00 1.425254e+00 1.000000e-02
<GCONST> 7.710772e+01
<TRANSP> 9
 0.000000e+00 1.000000e+00 0.000000e+00 0.000000e+00 0.000000e+00 0.000000e+00 0.000000e+00 0.000000e+00 0.000000e+00
 0.000000e+00 8.295454e-01 1.704545e-01 0.000000e+00 0.000000e+00 0.000000e+00 0.000000e+00 0.000000e+00 0.000000e+00
 0.000000e+00 0.000000e+00 8.235294e-01 1.764706e-01 0.000000e+00 0.000000e+00 0.000000e+00 0.000000e+00 0.000000e+00
 0.000000e+00 0.000000e+00 0.000000e+00 8.275862e-01 1.724138e-01 0.000000e+00 0.000000e+00 0.000000e+00 0.000000e+00
 0.000000e+00 0.000000e+00 0.000000e+00 0.000000e+00 7.457627e-01 2.542373e-01 0.000000e+00 0.000000e+00 0.000000e+00
 0.000000e+00 0.000000e+00 0.000000e+00 0.000000e+00 0.000000e+00 8.255814e-01 1.744186e-01 0.000000e+00 0.000000e+00
 0.000000e+00 0.000000e+00 0.000000e+00 0.000000e+00 0.000000e+00 0.000000e+00 8.514851e-01 1.485149e-01 0.000000e+00
 0.000000e+00 0.000000e+00 0.000000e+00 0.000000e+00 0.000000e+00 0.000000e+00 0.000000e+00 7.857143e-01 2.142857e-01
 0.000000e+00 0.000000e+00 0.000000e+00 0.000000e+00 0.000000e+00 0.000000e+00 0.000000e+00 0.000000e+00 0.000000e+00
<ENDHMM>
