~o
<STREAMINFO> 1 26
<VECSIZE> 26<NULLD><MFCC_E_D_Z><DIAGC>
~h "ni"
<BEGINHMM>
<NUMSTATES> 5
<STATE> 2
<MEAN> 26
 7.021124e+00 5.611695e+00 5.845643e+00 -1.597824e+00 -5.653965e+00 -4.694915e+00 -3.775012e+00 -8.936152e+00 -3.986264e+00 -5.498012e-01 -2.784809e-01 -3.175289e+00 8.179355e-01 -6.289370e-02 8.862098e-02 1.253920e+00 -2.165638e+00 -6.971260e-01 1.820120e-01 -1.240548e+00 -6.372539e-01 -4.814379e-01 2.325660e-01 4.219169e-01 -5.956730e-01 4.378409e-02
<VARIANCE> 26
 2.707089e+01 1.462564e+01 2.480518e+01 6.516132e+01 4.120398e+01 2.610616e+01 2.478882e+01 4.753360e+01 7.732330e+01 2.398860e+01 2.688350e+01 2.661339e+01 1.255803e-02 2.632519e+00 1.440333e+00 1.285997e+00 4.690302e+00 2.660985e+00 3.121912e+00 2.000694e+00 4.119442e+00 3.939096e+00 1.829635e+00 2.817627e+00 1.918494e+00 1.000000e-02
<GCONST> 9.134113e+01
<STATE> 3
<MEAN> 26
 1.995381e+00 1.694705e+00 1.336848e+01 -1.629189e+01 -7.562096e+00 -5.579450e-01 -1.302444e+01 -8.195205e+00 -4.941366e+00 -1.938563e+00 3.965806e+00 -5.387439e+00 9.226103e-01 -7.944158e-02 -9.483387e-02 8.600213e-03 -3.186854e-01 -2.003358e-01 1.067199e-01 -3.732586e-01 -9.346025e-02 3.307810e-02 -1.083956e-01 1.841506e-01 4.095635e-02 -9.584507e-03
<VARIANCE> 26
 3.065328e+01 3.023670e+01 1.701315e+01 2.166541e+01 6.792460e+01 3.143798e+01 1.736136e+01 3.086862e+01 8.071600e+01 3.963213e+01 4.352320e+01 1.945619e+01 1.000000e-02 2.616280e-01 4.447646e-01 6.168039e-01 4.945189e-01 4.992382e-01 9.789063e-01 8.434000e-01 8.055015e-01 7.390921e-01 9.774595e-01 9.308599e-01 6.285766e-01 1.000000e-02
<GCONST> 7.477632e+01
<STATE> 4
<MEAN> 26
 6.483930e-01 2.138340e+00 6.260035e+00 -8.789125e+00 -4.014114e+00 -1.630175e+00 -8.831364e+00 -4.780767e+00 -2.937104e+00 -6.688233e-01 2.150010e+00 -2.390746e+00 5.650300e-01 -2.892576e-01 -3.403507e-01 -1.401013e+00 2.123674e+00 1.022234e+00 -6.203695e-02 1.504977e+00 1.143435e+00 5.059416e-01 8.942926e-02 -2.737677e-01 7.160040e-01 -5.152273e-02
<VARIANCE> 26
 7.608407e+00 1.510048e+01 2.597727e+01 4.897564e+01 3.570337e+01 2.046502e+01 3.221606e+01 4.268282e+01 2.464588e+01 2.011161e+01 3.046396e+01 2.691986e+01 4.003224e-02 6.247150e-01 1.144757e+00 2.047460e+00 1.760997e+00 1.513078e+00 2.196864e+00 1.609474e+00 2.400397e+00 2.419822e+00 1.932060e+00 1.844139e+00 1.729301e+00 1.000000e-02
<GCONST> 8.479157e+01
<TRANSP> 5
 0.000000e+00 1.000000e+00 0.000000e+00 0.000000e+00 0.000000e+00
 0.000000e+00 8.760331e-01 1.239669e-01 0.000000e+00 0.000000e+00
 0.000000e+00 0.000000e+00 9.214660e-01 7.853402e-02 0.000000e+00
 0.000000e+00 0.000000e+00 0.000000e+00 8.739496e-01 1.260504e-01
 0.000000e+00 0.000000e+00 0.000000e+00 0.000000e+00 0.000000e+00
<ENDHMM>
