~o
<STREAMINFO> 1 26
<VECSIZE> 26<NULLD><MFCC_E_D_Z><DIAGC>
~h "yon"
<BEGINHMM>
<NUMSTATES> 8
<STATE> 2
<MEAN> 26
 2.347678e+00 2.412498e+00 1.562453e+01 -2.557204e+00 -1.401524e+01 -5.386245e+00 -7.735842e+00 -3.931180e+00 -5.029713e+00 -5.221286e+00 4.313381e+00 -2.038980e+00 7.841259e-01 1.154575e+00 -1.475695e+00 -4.369996e-01 -6.808890e-01 -1.966366e+00 -2.088391e+00 -8.540239e-01 4.838953e-01 1.349709e-01 1.527780e-01 -6.546061e-02 -4.619204e-01 6.631071e-02
<VARIANCE> 26
 1.542890e+01 2.452699e+01 6.158263e+01 3.761788e+01 8.303636e+01 4.723882e+01 3.225858e+01 2.894934e+01 4.836097e+01 5.512156e+01 2.451229e+01 2.109948e+01 1.545205e-02 4.879348e-01 3.041347e+00 1.519899e+01 2.630710e+00 1.271583e+01 2.482488e+00 3.929988e+00 3.913451e+00 6.733368e+00 3.270520e+00 3.160714e+00 1.554366e+00 1.000000e-02
<GCONST> 9.689625e+01
<STATE> 3
<MEAN> 26
 7.461808e+00 -6.958757e+00 -1.618809e+00 -7.593226e+00 -6.186971e+00 -7.694715e+00 -1.192585e+01 -1.742717e+00 5.406289e+00 -3.421327e-01 -9.275301e-01 -7.666929e+00 9.472450e-01 6.578483e-01 -3.708029e-01 -3.589260e+00 -2.466794e+00 3.371274e+00 3.038387e+00 -8.852156e-01 -1.957353e+00 1.556062e+00 7.595826e-01 -2.879710e-01 -1.070137e+00 9.679690e-03
<VARIANCE> 26
 2.085485e+01 1.549652e+01 2.574168e+01 2.279191e+01 4.622503e+01 3.332686e+01 5.806467e+01 3.469341e+01 3.109249e+01 3.347836e+01 2.349693e+01 2.656779e+01 1.000000e-02 1.710383e-01 1.004401e+00 1.764173e+00 1.933875e+00 1.835609e+00 2.577931e+00 3.760022e+00 1.975218e+00 5.646167e+00 2.411996e+00 3.819004e+00 3.727236e+00 1.000000e-02
<GCONST> 8.735189e+01
<STATE> 4
<MEAN> 26
 9.224642e+00 -4.570623e+00 -7.784084e+00 -1.818121e+01 -2.131859e+00 4.979483e+00 -8.156161e+00 -7.099618e+00 1.657727e+00 -7.681187e+00 3.239799e+00 -4.003578e+00 9.553923e-01 3.064433e-01 5.539153e-01 1.071365e-01 -7.555068e-01 -2.951753e-01 8.077266e-01 1.354612e+00 7.713519e-01 -1.518604e+00 -1.316677e+00 5.524409e-01 7.468078e-01 -7.592261e-03
<VARIANCE> 26
 2.247981e+01 1.987563e+01 1.165670e+01 2.532242e+01 2.659648e+01 1.822067e+01 7.148042e+01 3.305418e+01 2.735437e+01 6.096729e+01 2.686898e+01 1.615746e+01 1.000000e-02 1.770096e-01 3.279631e-01 1.059790e+00 3.277262e+00 1.118571e+00 2.478364e+00 2.809139e+00 2.351702e+00 1.912672e+00 3.591807e+00 3.482832e+00 3.033956e+00 1.000000e-02
<GCONST> 8.339883e+01
<STATE> 5
<MEAN> 26
 8.623755e+00 -1.543405e+00 -3.711669e+00 -1.293970e+01 -2.408367e+00 7.410493e-01 -3.437212e+00 -8.779408e-01 -5.084205e+00 -3.770555e+00 3.189198e-01 -3.386078e+00 8.632443e-01 -2.534387e-02 6.481571e-01 7.532994e-01 1.368068e+00 1.169463e-02 -7.540452e-01 3.263982e-01 -2.036200e-01 -3.648579e-01 9.034284e-01 -1.189289e+00 -2.693896e-02 -1.994760e-02
<VARIANCE> 26
 1.538279e+01 8.372428e+00 1.152138e+01 1.376093e+01 2.448378e+01 3.848442e+01 6.688825e+01 2.846847e+01 5.520685e+01 1.451945e+01 9.248667e+01 2.873511e+01 1.000000e-02 1.770948e-01 4.961549e-01 9.524777e-01 1.326976e+00 9.237490e-01 8.505514e-01 1.337462e+00 1.818369e+00 1.081561e+00 1.831518e+00 1.345427e+00 7.698539e-01 1.000000e-02
<GCONST> 7.663905e+01
<STATE> 6
<MEAN> 26
 8.746090e+00 2.004117e+00 2.588963e+00 -1.906631e+00 -2.277939e+00 -3.163811e+00 -4.013615e+00 -7.560464e+00 -7.563539e+00 2.079569e+00 -4.344395e+00 -5.309800e+00 6.932919e-01 -8.469599e-01 1.813514e-01 1.019529e+00 1.348760e+00 5.806217e-01 -3.811505e-01 1.677829e-01 -5.859919e-01 1.300969e-01 6.464923e-01 -3.259274e-01 1.857618e-01 -3.094074e-02
<VARIANCE> 26
 1.920994e+01 1.109803e+01 1.129935e+01 1.637951e+01 3.755598e+01 2.213295e+01 2.346382e+01 7.556696e+01 1.519922e+01 2.349088e+01 7.709391e+01 3.427765e+01 1.000000e-02 3.252572e-01 8.681000e-01 8.568258e-01 1.053121e+00 1.094314e+00 1.606245e+00 1.900801e+00 1.510884e+00 1.468215e+00 2.271899e+00 1.513851e+00 1.356997e+00 1.000000e-02
<GCONST> 7.929443e+01
<STATE> 7
<MEAN> 26
 1.739327e+00 1.893526e+00 3.887421e+00 4.543523e-01 1.872397e+00 -2.215686e+00 1.053574e-01 -4.413882e+00 -1.483826e+00 3.808224e-01 -5.919243e+00 -2.034849e-01 5.162206e-01 -6.920811e-01 -1.467212e-01 -6.550280e-01 3.337947e-01 1.688585e-02 4.979714e-01 4.960049e-01 7.366331e-01 6.283085e-01 -4.291759e-01 6.610946e-01 5.551652e-01 -4.367097e-02
<VARIANCE> 26
 9.290627e+00 4.914834e+00 1.183279e+01 2.507405e+01 1.908830e+01 9.214903e+00 1.516331e+01 4.902204e+01 1.650327e+01 4.042331e+01 2.285486e+01 1.665865e+01 2.544441e-02 6.298877e-01 7.319380e-01 9.934767e-01 7.823478e-01 1.418672e+00 8.282616e-01 1.382991e+00 2.722651e+00 1.287065e+00 2.291992e+00 1.927511e+00 1.756974e+00 1.000000e-02
<GCONST> 7.601096e+01
<TRANSP> 8
 0.000000e+00 1.000000e+00 0.000000e+00 0.000000e+00 0.000000e+00 0.000000e+00 0.000000e+00 0.000000e+00
 0.000000e+00 8.333333e-01 1.666667e-01 0.000000e+00 0.000000e+00 0.000000e+00 0.000000e+00 0.000000e+00
 0.000000e+00 0.000000e+00 7.307692e-01 2.692308e-01 0.000000e+00 0.000000e+00 0.000000e+00 0.000000e+00
 0.000000e+00 0.000000e+00 0.000000e+00 8.055556e-01 1.944444e-01 0.000000e+00 0.000000e+00 0.000000e+00
 0.000000e+00 0.000000e+00 0.000000e+00 0.000000e+00 8.541667e-01 1.458333e-01 0.000000e+00 0.000000e+00
 0.000000e+00 0.000000e+00 0.000000e+00 0.000000e+00 0.000000e+00 8.108108e-01 1.891892e-01 0.000000e+00
 0.000000e+00 0.000000e+00 0.000000e+00 0.000000e+00 0.000000e+00 0.000000e+00 8.250000e-01 1.750000e-01
 0.000000e+00 0.000000e+00 0.000000e+00 0.000000e+00 0.000000e+00 0.000000e+00 0.000000e+00 0.000000e+00
<ENDHMM>
