~o
<STREAMINFO> 1 26
<VECSIZE> 26<NULLD><MFCC_E_D_Z><DIAGC>
~h "zero"
<BEGINHMM>
<NUMSTATES> 9
<STATE> 2
<MEAN> 26
 -7.605379e+00 3.709890e+00 -1.292704e+00 3.876588e+00 9.651183e-01 -2.500416e+00 2.293391e+00 6.266905e-02 -9.176127e-01 2.181661e-01 -7.110450e-01 7.803674e-01 5.549184e-01 5.903701e-02 5.148900e-01 4.301319e-01 2.693688e-01 -4.867170e-01 -1.390204e+00 2.134791e-01 -3.632695e-01 -2.949094e-01 -2.538244e-01 -1.765840e-01 4.018277e-01 4.440205e-02
<VARIANCE> 26
 2.866316e+01 1.922446e+01 1.482628e+01 2.459406e+01 2.088380e+01 3.657101e+01 2.230529e+01 2.901961e+01 2.463001e+01 2.473262e+01 1.424006e+01 1.573673e+01 3.232855e-02 5.826696e+00 1.423824e+00 2.573784e+00 1.406191e+00 2.640510e+00 3.590000e+00 2.166884e+00 1.847070e+00 1.869504e+00 2.794444e+00 1.467680e+00 1.592954e+00 1.000000e-02
<GCONST> 8.643435e+01
<STATE> 3
<MEAN> 26
 2.811148e+00 8.496947e-01 6.690346e+00 2.985378e+00 -1.059171e+01 -1.481980e+01 -3.312598e+00 -4.805611e-01 -5.561704e+00 -3.185491e+00 3.884960e-01 2.705616e+00 8.483286e-01 2.731654e+00 -2.396535e+00 1.502044e+00 -1.928723e+00 -3.281315e+00 -1.501940e+00 -1.601377e+00 9.360409e-01 -5.914437e-02 -9.008967e-02 1.493622e+00 -5.265881e-01 6.356491e-02
<VARIANCE> 26
 3.127409e+01 2.766070e+01 8.840494e+00 3.104415e+01 6.267719e+01 2.636525e+01 4.118897e+01 1.729311e+01 3.560229e+01 3.943067e+01 2.825847e+01 1.434515e+01 1.000000e-02 2.811774e+00 1.401240e+00 1.943691e+00 1.424761e+00 3.344821e+00 2.775574e+00 2.737793e+00 1.633144e+00 2.720108e+00 2.299867e+00 2.233419e+00 2.580100e+00 1.000000e-02
<GCONST> 8.788289e+01
<STATE> 4
<MEAN> 26
 3.648897e+00 -5.614036e+00 7.664019e+00 -4.390399e+00 -1.350819e+01 -1.406482e+01 -3.543637e+00 4.906575e+00 -4.767364e-01 -2.838339e+00 4.374032e+00 -3.279387e+00 9.431151e-01 9.756724e-02 -4.589333e-01 -1.983386e-01 -1.717191e-01 5.805055e-02 2.909414e-01 -2.766319e-01 4.521626e-01 6.492288e-01 -2.947465e-01 -2.233665e-01 -3.513936e-01 -5.061494e-03
<VARIANCE> 26
 1.786423e+01 2.293939e+01 1.137863e+01 1.320196e+01 7.623179e+01 1.866809e+01 4.726055e+01 2.060521e+01 4.090281e+01 6.049738e+01 3.784394e+01 2.645261e+01 1.000000e-02 3.617498e-01 7.428682e-01 6.467035e-01 1.892390e+00 7.896299e-01 7.429137e-01 1.440402e+00 7.956787e-01 1.047502e+00 1.673124e+00 1.037485e+00 1.912280e+00 1.000000e-02
<GCONST> 7.820379e+01
<STATE> 5
<MEAN> 26
 9.232650e+00 -7.790614e+00 2.457978e+00 1.228982e+00 -1.099382e+01 -9.131088e+00 -1.058636e+01 1.176621e+00 5.046969e+00 -3.705489e+00 -2.920754e+00 -5.766192e-01 8.466293e-01 9.332405e-01 -1.983687e-01 -1.693579e+00 2.851215e-01 8.012347e-01 1.829433e+00 -1.207575e+00 -1.623713e+00 7.418382e-01 1.201034e+00 -1.697714e-01 -3.555363e-01 -7.998488e-04
<VARIANCE> 26
 2.488594e+01 7.898611e+00 2.743285e+01 5.862832e+01 4.191287e+01 3.269182e+01 4.380850e+01 2.084408e+01 2.320796e+01 3.772616e+01 3.569743e+01 2.094464e+01 1.073992e-02 4.587480e-01 8.651224e-01 2.148001e+00 8.080153e+00 2.897725e+00 4.376508e+00 2.455955e+00 1.603734e+00 3.774745e+00 2.952934e+00 3.628040e+00 5.263172e+00 1.000000e-02
<GCONST> 8.994262e+01
<STATE> 6
<MEAN> 26
 1.127773e+01 -3.215958e+00 -5.482784e+00 -1.098143e+01 -6.308578e+00 5.796674e+00 -9.619118e+00 -8.019289e+00 2.047940e+00 3.449361e+00 2.872548e+00 -4.476538e+00 8.930190e-01 -2.836816e-01 1.832021e+00 -6.434672e-02 -3.503707e+00 6.288117e-01 1.811388e+00 1.546211e+00 -5.446216e-01 -1.740668e+00 -4.126271e-01 8.274956e-01 1.107854e+00 -1.197072e-02
<VARIANCE> 26
 2.052650e+01 1.876210e+01 1.660567e+01 7.594283e+01 2.286015e+01 3.685958e+01 3.869666e+01 2.209814e+01 3.349642e+01 2.547938e+01 2.326476e+01 3.518513e+01 1.000000e-02 2.683026e-01 4.081553e-01 8.629313e-01 3.621386e+00 1.504504e+00 4.242803e+00 3.846022e+00 2.216226e+00 1.980539e+00 3.133192e+00 2.452463e+00 2.299248e+00 1.000000e-02
<GCONST> 8.509168e+01
<STATE> 7
<MEAN> 26
 8.922304e+00 3.489103e+00 -2.826061e+00 -2.026476e+01 -5.498827e+00 4.993552e+00 -3.128037e+00 -2.188345e+00 -2.474292e+00 -8.948770e-01 9.984418e-01 2.124549e+00 7.704597e-01 -3.391420e-01 5.324856e-01 1.212161e-01 -3.815828e-02 -1.651545e-01 -7.664376e-01 8.311310e-01 1.083428e+00 2.253567e-01 -9.178173e-02 -2.294149e-01 3.324327e-01 -3.287676e-02
<VARIANCE> 26
 1.345283e+01 1.317340e+01 5.509360e+00 3.228717e+01 3.065760e+01 5.515226e+01 1.149258e+01 1.593409e+01 2.862660e+01 5.285370e+01 2.468353e+01 2.286636e+01 1.093352e-02 7.617334e-01 4.776523e-01 9.123213e-01 1.762358e+00 7.413541e-01 1.106688e+00 9.883008e-01 1.298595e+00 1.171119e+00 3.120100e+00 2.408742e+00 1.043990e+00 1.000000e-02
<GCONST> 7.705650e+01
<STATE> 8
<MEAN> 26
 3.544371e+00 2.236815e+00 -2.504095e+00 -7.716846e+00 -2.730925e+00 2.280555e-01 -5.060458e-01 3.655803e-01 3.723562e-01 1.185732e+00 2.311639e+00 1.885879e+00 5.132493e-01 -1.020010e+00 -4.742804e-01 1.625088e-01 2.069294e+00 9.399840e-01 -2.862554e-01 2.303360e-01 1.063665e-01 9.087162e-02 1.451475e-01 -1.054868e-03 -1.529023e-01 -4.351564e-02
<VARIANCE> 26
 1.309845e+01 5.094471e+00 8.214879e+00 6.607533e+01 2.500833e+01 2.297462e+01 1.102536e+01 1.295326e+01 1.159946e+01 1.137811e+01 1.757162e+01 1.191282e+01 1.942896e-02 9.550307e-01 4.657111e-01 8.146185e-01 2.719522e+00 1.927460e+00 2.431614e+00 1.090685e+00 1.619466e+00 1.515014e+00 1.810054e+00 1.744316e+00 1.393221e+00 1.000000e-02
<GCONST> 7.527338e+01
<TRANSP> 9
 0.000000e+00 1.000000e+00 0.000000e+00 0.000000e+00 0.000000e+00 0.000000e+00 0.000000e+00 0.000000e+00 0.000000e+00
 0.000000e+00 8.611111e-01 1.388889e-01 0.000000e+00 0.000000e+00 0.000000e+00 0.000000e+00 0.000000e+00 0.000000e+00
 0.000000e+00 0.000000e+00 7.000000e-01 3.000000e-01 0.000000e+00 0.000000e+00 0.000000e+00 0.000000e+00 0.000000e+00
 0.000000e+00 0.000000e+00 0.000000e+00 8.800000e-01 1.200000e-01 0.000000e+00 0.000000e+00 0.000000e+00 0.000000e+00
 0.000000e+00 0.000000e+00 0.000000e+00 0.000000e+00 8.351648e-01 1.648352e-01 0.000000e+00 0.000000e+00 0.000000e+00
 0.000000e+00 0.000000e+00 0.000000e+00 0.000000e+00 0.000000e+00 7.826087e-01 2.173913e-01 0.000000e+00 0.000000e+00
 0.000000e+00 0.000000e+00 0.000000e+00 0.000000e+00 0.000000e+00 0.000000e+00 8.351648e-01 1.648352e-01 0.000000e+00
 0.000000e+00 0.000000e+00 0.000000e+00 0.000000e+00 0.000000e+00 0.000000e+00 0.000000e+00 8.351648e-01 1.648352e-01
 0.000000e+00 0.000000e+00 0.000000e+00 0.000000e+00 0.000000e+00 0.000000e+00 0.000000e+00 0.000000e+00 0.000000e+00
<ENDHMM>
