~o
<STREAMINFO> 1 26
<VECSIZE> 26<NULLD><MFCC_E_D_Z><DIAGC>
~h "ichi"
<BEGINHMM>
<NUMSTATES> 7
<STATE> 2
<MEAN> 26
 2.833474e+00 5.997648e+00 1.209936e+01 -7.183621e+00 -6.072403e+00 -4.177632e+00 -1.031514e+01 -5.602679e+00 -2.645975e+00 -7.661419e+00 2.501862e-01 -3.970815e+00 8.322505e-01 2.727954e-01 4.297740e-01 2.153332e-01 1.911540e-01 -1.363406e-02 -2.782394e-01 2.638293e-02 -1.665106e-01 -1.903535e-01 -8.832005e-02 -3.524965e-01 -2.546428e-01 3.470372e-03
<VARIANCE> 26
 1.369337e+01 2.685946e+01 4.768872e+01 3.051509e+01 5.269919e+01 3.999815e+01 4.017331e+01 4.018186e+01 5.263816e+01 3.434142e+01 5.926446e+01 2.876238e+01 1.805158e-02 7.639810e-01 1.711353e+00 4.891106e+00 4.007787e+00 4.008586e+00 3.421318e+00 4.913578e+00 2.498149e+00 2.787928e+00 2.965116e+00 2.679648e+00 1.914902e+00 4.892099e-03
<GCONST> 9.373883e+01
<STATE> 3
<MEAN> 26
 2.288861e+00 1.154171e+00 3.938557e-02 1.822199e+00 7.156423e-01 4.724839e-01 -1.224550e+00 -5.769083e-01 -9.247179e-01 -1.233147e+00 -9.559833e-01 -1.456798e+00 4.398689e-01 -7.387903e-01 -8.220631e-01 -1.189047e+00 3.066060e-01 1.772612e-01 2.784569e-01 5.406212e-01 3.654000e-01 3.326414e-01 6.044202e-01 2.901629e-01 5.262187e-01 -2.262322e-02
<VARIANCE> 26
 4.652559e+00 1.076124e+01 1.393300e+01 1.216701e+01 1.325462e+01 9.051423e+00 1.210463e+01 1.697095e+01 1.209003e+01 1.559995e+01 1.809352e+01 1.217379e+01 3.882550e-02 1.073996e+00 1.240309e+00 1.269137e+00 9.924086e-01 1.594092e+00 1.903651e+00 1.562903e+00 2.189726e+00 1.832345e+00 1.462265e+00 1.463629e+00 9.748024e-01 2.210120e-03
<GCONST> 7.241348e+01
<STATE> 4
<MEAN> 26
 -1.272088e+01 1.846381e+00 -5.915150e-01 -3.004481e+00 4.224598e+00 -3.860101e+00 2.675707e+00 -1.426781e+00 1.198486e+00 4.862952e-01 -5.482156e-01 4.238976e-01 6.980457e-01 -2.247604e-01 3.058576e-01 6.767807e-01 -5.094656e-01 -1.063193e-01 -4.788270e-01 -3.449591e-02 -3.018055e-01 -3.535320e-01 -1.090610e-01 -2.100816e-01 -2.381192e-01 1.750620e-02
<VARIANCE> 26
 4.187713e+01 1.090394e+01 2.519914e+01 1.239335e+01 1.797625e+01 2.001743e+01 1.943558e+01 2.167824e+01 2.210463e+01 2.102750e+01 1.746665e+01 1.183769e+01 2.594860e-02 5.467022e+00 9.095438e-01 2.296727e+00 9.145401e-01 2.760335e+00 1.898203e+00 2.253272e+00 2.048867e+00 1.769024e+00 1.459383e+00 1.549939e+00 1.108050e+00 2.564063e-03
<GCONST> 8.045836e+01
<STATE> 5
<MEAN> 26
 2.382555e+00 -1.986214e-01 1.306650e+01 -1.100634e+01 -1.462751e+01 -8.879764e+00 -1.027882e+01 -9.131174e+00 -7.898048e+00 -1.559085e+00 -1.716443e+00 -4.878814e+00 8.626645e-01 5.543075e-01 -3.454514e-01 3.428165e-01 -2.873282e-01 -7.677922e-01 2.011725e-01 -7.686251e-01 -2.750316e-01 -6.063935e-02 1.193442e-02 1.419133e-01 -2.514426e-02 -9.800209e-03
<VARIANCE> 26
 1.666364e+01 1.457502e+01 2.440712e+01 1.523070e+01 4.784719e+01 1.308113e+01 2.234241e+01 1.990087e+01 1.420187e+01 2.564243e+01 2.053757e+01 9.754846e+00 1.683356e-02 1.613258e+00 1.137051e+00 1.736573e+00 1.674284e+00 4.383370e+00 1.477814e+00 1.834349e+00 1.450086e+00 1.529434e+00 1.222768e+00 1.236544e+00 1.128616e+00 1.577591e-03
<GCONST> 7.787337e+01
<STATE> 6
<MEAN> 26
 6.613156e-01 -3.992745e-01 4.676412e+00 -3.419193e+00 -4.826495e+00 -2.263531e+00 -3.997962e+00 -5.208404e+00 -2.530705e+00 6.087984e-01 -2.507150e-01 -1.101983e+00 5.089731e-01 2.731978e-01 -2.284373e-01 -1.664411e+00 1.492320e+00 1.541334e+00 8.322772e-01 1.256214e+00 1.090617e+00 8.947499e-01 5.216635e-01 4.990826e-01 6.066373e-01 -3.416760e-02
<VARIANCE> 26
 7.356549e+00 2.822084e+00 2.571309e+01 1.835518e+01 3.000267e+01 1.792546e+01 3.694698e+01 2.835739e+01 2.465885e+01 1.874931e+01 1.489896e+01 1.755842e+01 3.458259e-02 1.085467e+00 2.853830e-01 1.979691e+00 1.843381e+00 1.737762e+00 1.546238e+00 3.053422e+00 1.435316e+00 1.873178e+00 1.924689e+00 1.953442e+00 1.762210e+00 1.346846e-03
<GCONST> 7.705265e+01
<TRANSP> 7
 0.000000e+00 1.000000e+00 0.000000e+00 0.000000e+00 0.000000e+00 0.000000e+00 0.000000e+00
 0.000000e+00 9.093127e-01 9.068730e-02 0.000000e+00 0.000000e+00 0.000000e+00 0.000000e+00
 0.000000e+00 0.000000e+00 8.826317e-01 1.173684e-01 0.000000e+00 0.000000e+00 0.000000e+00
 0.000000e+00 0.000000e+00 0.000000e+00 9.259259e-01 7.407414e-02 0.000000e+00 0.000000e+00
 0.000000e+00 0.000000e+00 0.000000e+00 0.000000e+00 8.913925e-01 1.086074e-01 0.000000e+00
 0.000000e+00 0.000000e+00 0.000000e+00 0.000000e+00 0.000000e+00 8.031020e-01 1.968980e-01
 0.000000e+00 0.000000e+00 0.000000e+00 0.000000e+00 0.000000e+00 0.000000e+00 0.000000e+00
<ENDHMM>
