~o
<STREAMINFO> 1 26
<VECSIZE> 26<NULLD><MFCC_E_D_Z><DIAGC>
~h "ni"
<BEGINHMM>
<NUMSTATES> 5
<STATE> 2
<MEAN> 26
 7.476360e+00 5.054266e+00 5.259460e+00 -1.215464e+00 -6.584949e+00 -5.856386e+00 -4.306338e+00 -1.015170e+01 -3.833253e+00 -2.022703e+00 -4.420816e-01 -2.801304e+00 8.069537e-01 -1.031187e-02 1.383502e-01 1.150768e+00 -2.248890e+00 -6.990993e-01 -5.271442e-02 -1.201338e+00 -6.688472e-01 -2.964877e-01 9.625265e-02 4.185090e-01 -3.465798e-01 4.619556e-02
<VARIANCE> 26
 2.637661e+01 1.239107e+01 2.325503e+01 5.818113e+01 3.213721e+01 2.131021e+01 2.580447e+01 4.229917e+01 8.148972e+01 2.050307e+01 3.061921e+01 2.664724e+01 1.263822e-02 2.849154e+00 1.016729e+00 1.198095e+00 5.436725e+00 2.794836e+00 3.441127e+00 2.243222e+00 4.182525e+00 4.206032e+00 2.118823e+00 3.379744e+00 1.852227e+00 1.102185e-03
<GCONST> 8.871423e+01
<STATE> 3
<MEAN> 26
 2.500337e+00 1.829377e+00 1.201764e+01 -1.581577e+01 -7.271338e+00 -2.672899e+00 -1.321735e+01 -8.201227e+00 -4.986580e+00 -4.184755e+00 2.766804e+00 -4.207254e+00 9.231538e-01 -9.429788e-02 -1.275392e-01 9.160988e-02 -3.238597e-01 -1.675571e-01 1.600886e-01 -2.742002e-01 5.754059e-02 6.039948e-03 -1.625047e-01 1.531871e-01 -9.814736e-03 -5.825152e-03
<VARIANCE> 26
 2.881943e+01 2.744785e+01 2.121689e+01 2.136602e+01 5.972741e+01 3.040926e+01 1.910417e+01 2.975593e+01 7.492090e+01 3.914763e+01 5.250689e+01 1.303147e+01 5.124433e-03 1.554289e-01 4.129969e-01 4.793463e-01 6.141476e-01 4.940093e-01 9.011585e-01 1.032784e+00 8.712320e-01 8.694077e-01 9.884447e-01 8.969111e-01 7.070748e-01 3.359020e-04
<GCONST> 7.017131e+01
<STATE> 4
<MEAN> 26
 7.480423e-01 1.463570e+00 5.883626e+00 -9.239659e+00 -5.022915e+00 -1.382263e+00 -8.720678e+00 -4.977621e+00 -2.924994e+00 -1.887209e+00 2.035629e+00 -2.307217e+00 5.774187e-01 -3.221702e-01 -2.873051e-01 -1.312831e+00 2.021328e+00 9.438102e-01 1.604377e-01 1.433024e+00 1.065779e+00 5.046211e-01 6.171230e-01 -9.547842e-02 5.094237e-01 -5.151762e-02
<VARIANCE> 26
 8.411347e+00 9.087501e+00 2.771815e+01 6.126855e+01 3.379667e+01 2.319815e+01 3.731591e+01 4.272224e+01 2.821399e+01 3.342519e+01 3.375857e+01 2.273860e+01 3.958996e-02 6.201383e-01 7.545738e-01 1.793580e+00 2.015730e+00 1.536531e+00 2.171444e+00 1.714411e+00 2.243664e+00 2.618584e+00 1.994755e+00 2.368447e+00 1.533051e+00 1.432303e-03
<GCONST> 8.333253e+01
<TRANSP> 5
 0.000000e+00 1.000000e+00 0.000000e+00 0.000000e+00 0.000000e+00
 0.000000e+00 8.558154e-01 1.441847e-01 0.000000e+00 0.000000e+00
 0.000000e+00 0.000000e+00 9.288972e-01 7.110278e-02 0.000000e+00
 0.000000e+00 0.000000e+00 0.000000e+00 8.790375e-01 1.209625e-01
 0.000000e+00 0.000000e+00 0.000000e+00 0.000000e+00 0.000000e+00
<ENDHMM>
