~o
<STREAMINFO> 1 26
<VECSIZE> 26<NULLD><MFCC_E_D_Z><DIAGC>
~h "roku"
<BEGINHMM>
<NUMSTATES> 9
<STATE> 2
<MEAN> 26
 7.821235e+00 -1.497622e+00 1.423813e+00 4.114886e+00 -1.777826e+00 -7.193184e+00 -1.095166e+01 -5.463225e+00 3.452448e+00 -4.601139e+00 -1.017735e-01 -2.506160e+00 7.588319e-01 6.547905e-01 -6.273360e-02 -7.763659e-01 -2.323007e+00 -8.307536e-01 5.691072e-01 -9.098780e-01 -1.830483e+00 5.160773e-01 6.490963e-01 1.188494e+00 -4.671701e-01 5.724558e-02
<VARIANCE> 26
 1.722296e+01 1.383046e+01 2.056611e+01 7.407466e+01 4.942756e+01 5.840982e+01 4.826825e+01 4.538347e+01 4.030283e+01 5.168053e+01 4.982967e+01 3.126658e+01 2.034121e-02 2.289671e+00 2.529401e+00 1.894534e+00 1.185392e+01 3.533136e+00 1.045102e+01 8.108429e+00 3.925961e+00 5.168065e+00 7.208494e+00 3.179521e+00 1.661540e+00 1.740755e-03
<GCONST> 9.821033e+01
<STATE> 3
<MEAN> 26
 9.060183e+00 3.640816e+00 -4.406982e+00 -1.903655e+01 -6.403160e+00 3.991781e+00 -4.041737e+00 -1.170232e+01 1.761774e-01 -6.380041e+00 6.579940e+00 -1.750549e-01 9.221319e-01 1.727567e-01 9.378904e-01 -9.201405e-02 -5.384274e-01 2.199160e-01 7.090693e-01 1.661390e+00 8.037409e-01 -1.386971e+00 -1.064130e+00 -5.416749e-01 7.987935e-01 -1.948379e-02
<VARIANCE> 26
 2.418519e+01 1.334029e+01 1.136199e+01 2.978572e+01 4.390759e+01 3.921264e+01 4.406958e+01 3.471413e+01 4.762882e+01 3.814218e+01 2.941950e+01 3.593341e+01 4.714838e-03 7.136186e-01 6.368482e-01 1.506337e+00 6.454860e+00 3.063723e+00 2.483498e+00 3.119760e+00 2.669078e+00 1.849641e+00 5.206573e+00 2.756142e+00 3.202710e+00 1.836446e-03
<GCONST> 8.705817e+01
<STATE> 4
<MEAN> 26
 3.271059e+00 3.656446e+00 -1.239781e+00 -5.539999e+00 -6.232705e-01 1.316287e+00 2.827041e+00 -2.129287e+00 -3.845650e+00 -2.452590e+00 -4.650409e-01 2.228157e+00 4.829310e-01 -1.211407e+00 -6.830573e-01 1.437181e-01 1.433871e+00 5.331212e-01 -4.406414e-01 2.908547e-01 7.456034e-01 5.763395e-01 1.092134e+00 -2.185820e-01 1.286028e-01 -5.522637e-02
<VARIANCE> 26
 1.749219e+01 8.772927e+00 9.179954e+00 4.194328e+01 1.181338e+01 3.248832e+01 1.843660e+01 1.417959e+01 2.511801e+01 3.050506e+01 1.622911e+01 2.502393e+01 4.405410e-02 8.804595e-01 3.657915e-01 1.160866e+00 2.047045e+00 2.082681e+00 3.661838e+00 1.770417e+00 1.388587e+00 2.594832e+00 3.572505e+00 1.935090e+00 2.274271e+00 2.256430e-03
<GCONST> 8.009193e+01
<STATE> 5
<MEAN> 26
 -1.092239e+00 -4.859796e+00 -7.623278e+00 -3.656003e+00 4.412497e+00 -3.660087e+00 -2.739021e+00 -2.813544e+00 -1.570467e+00 5.013878e+00 -1.863956e+00 1.750449e+00 4.802249e-01 -9.763933e-02 -1.114572e+00 -1.026698e+00 -6.096599e-02 8.363268e-01 -1.567896e+00 -2.152201e+00 -7.348293e-01 -2.363074e-01 6.488090e-01 -6.504877e-01 -7.860769e-01 5.552127e-02
<VARIANCE> 26
 1.388061e+01 2.900763e+01 2.874175e+01 1.995716e+01 2.596164e+01 4.261969e+01 3.318193e+01 1.529662e+01 2.593033e+01 2.278606e+01 3.147751e+01 2.647156e+01 4.063985e-02 1.443175e+00 4.801025e+00 5.624318e+00 2.304738e+00 3.529920e+00 2.659779e+00 3.258013e+00 2.206237e+00 3.164680e+00 2.934324e+00 3.500353e+00 5.052288e+00 3.707164e-03
<GCONST> 9.149068e+01
<STATE> 6
<MEAN> 26
 4.401774e+00 2.927622e-01 -1.913403e+00 -2.052215e+00 -3.339303e+00 -1.069035e+01 -1.416798e+01 -8.513601e+00 -6.278155e+00 1.438137e+00 -1.649642e+00 -5.862588e+00 8.156412e-01 9.649482e-01 5.074741e-01 1.893638e+00 3.348564e-01 -3.022188e+00 -1.367663e+00 -1.875270e+00 -7.885867e-01 4.410205e-01 -1.212353e+00 1.035076e+00 -8.546498e-01 5.329496e-02
<VARIANCE> 26
 3.156815e+01 3.419527e+01 1.836281e+01 1.277451e+01 6.115610e+01 4.584090e+01 2.799033e+01 4.029442e+01 2.587629e+01 1.252404e+01 3.210661e+01 5.065852e+01 2.615157e-02 1.355028e+00 4.186101e+00 2.131544e+00 2.195881e+00 3.535420e+00 2.327811e+00 1.622257e+00 3.407928e+00 4.146986e+00 2.866294e+00 3.483974e+00 3.060864e+00 1.278110e-03
<GCONST> 9.000140e+01
<STATE> 7
<MEAN> 26
 1.195713e+00 -5.235747e+00 9.070895e-01 -1.172272e+00 -6.371687e+00 -1.338848e+01 -1.317613e+01 -4.750297e+00 1.027300e+00 -8.657995e-02 -7.699111e-02 -2.946593e+00 7.437054e-01 -4.230034e-02 -7.295132e-02 3.433018e-01 -8.751606e-02 -3.172010e-01 -1.755859e-01 2.055989e-01 5.661358e-01 1.645269e-01 -3.396324e-02 2.004172e-01 3.321235e-01 -2.220234e-02
<VARIANCE> 26
 5.409295e+01 3.687372e+01 1.139226e+01 2.848694e+01 9.164905e+01 3.201013e+01 5.556726e+01 3.677354e+01 4.256742e+01 5.530136e+01 3.539180e+01 5.765813e+01 7.681886e-02 6.300935e-01 5.980555e-01 4.503416e-01 6.296204e-01 8.390209e-01 9.798460e-01 1.154101e+00 1.041186e+00 1.189947e+00 1.663438e+00 1.008928e+00 9.395303e-01 8.206285e-04
<GCONST> 8.086569e+01
<STATE> 8
<MEAN> 26
 1.655689e+00 -1.011118e+00 2.387274e+00 -8.983582e-01 -6.568989e+00 -9.730131e+00 -8.498425e+00 -2.254919e+00 -4.273244e-01 4.341449e-01 1.349067e+00 -7.510872e-01 4.935724e-01 -3.774575e-01 5.886134e-01 -6.796317e-02 6.027772e-01 9.932640e-01 1.975877e+00 1.843323e+00 3.640162e-01 1.557355e-01 1.541266e-01 -6.304263e-02 4.923085e-01 -4.918822e-02
<VARIANCE> 26
 5.237324e+00 1.782171e+01 5.432249e+00 2.425119e+01 3.830850e+01 4.294810e+01 3.820135e+01 1.970908e+01 2.303114e+01 2.029201e+01 2.944263e+01 2.544289e+01 5.370642e-02 8.959491e-01 9.886311e-01 7.413645e-01 1.421600e+00 2.271071e+00 2.459106e+00 1.687548e+00 2.050634e+00 1.924626e+00 3.180296e+00 1.668758e+00 2.417899e+00 2.015802e-03
<GCONST> 8.096582e+01
<TRANSP> 9
 0.000000e+00 1.000000e+00 0.000000e+00 0.000000e+00 0.000000e+00 0.000000e+00 0.000000e+00 0.000000e+00 0.000000e+00
 0.000000e+00 8.373284e-01 1.626716e-01 0.000000e+00 0.000000e+00 0.000000e+00 0.000000e+00 0.000000e+00 0.000000e+00
 0.000000e+00 0.000000e+00 8.454552e-01 1.545449e-01 0.000000e+00 0.000000e+00 0.000000e+00 0.000000e+00 0.000000e+00
 0.000000e+00 0.000000e+00 0.000000e+00 8.680309e-01 1.319691e-01 0.000000e+00 0.000000e+00 0.000000e+00 0.000000e+00
 0.000000e+00 0.000000e+00 0.000000e+00 0.000000e+00 8.047623e-01 1.952377e-01 0.000000e+00 0.000000e+00 0.000000e+00
 0.000000e+00 0.000000e+00 0.000000e+00 0.000000e+00 0.000000e+00 7.165979e-01 2.834022e-01 0.000000e+00 0.000000e+00
 0.000000e+00 0.000000e+00 0.000000e+00 0.000000e+00 0.000000e+00 0.000000e+00 8.713549e-01 1.286451e-01 0.000000e+00
 0.000000e+00 0.000000e+00 0.000000e+00 0.000000e+00 0.000000e+00 0.000000e+00 0.000000e+00 8.212653e-01 1.787347e-01
 0.000000e+00 0.000000e+00 0.000000e+00 0.000000e+00 0.000000e+00 0.000000e+00 0.000000e+00 0.000000e+00 0.000000e+00
<ENDHMM>
