~o
<STREAMINFO> 1 26
<VECSIZE> 26<NULLD><MFCC_E_D_Z><DIAGC>
~h "san"
<BEGINHMM>
<NUMSTATES> 8
<STATE> 2
<MEAN> 26
 -1.062584e+01 4.784431e+00 -2.803738e+00 4.778183e+00 -1.040400e+00 -2.397270e+00 2.014676e+00 1.712097e+00 4.656694e-02 9.620147e-04 -1.220052e-01 2.910640e+00 4.466360e-01 -5.416368e-01 -7.143885e-02 -3.379017e-01 3.071344e-02 -3.359149e-01 -2.131341e-01 2.003912e-02 3.099964e-02 2.188028e-02 -5.092924e-02 -4.113717e-02 1.112367e-02 1.307714e-02
<VARIANCE> 26
 2.506598e+01 8.328341e+00 9.575694e+00 1.699604e+01 1.291598e+01 2.384337e+01 1.351139e+01 1.868195e+01 1.661590e+01 1.178118e+01 1.636350e+01 1.314423e+01 5.238247e-02 1.100673e+00 6.561717e-01 6.756245e-01 1.232784e+00 9.084080e-01 1.205709e+00 9.930826e-01 1.365941e+00 1.661491e+00 1.078750e+00 9.581221e-01 7.887038e-01 7.914980e-04
<GCONST> 7.022741e+01
<STATE> 3
<MEAN> 26
 -5.866374e+00 -1.703252e+00 -3.404363e+00 -4.643993e-01 -2.568693e+00 -4.093241e+00 6.688504e-01 2.996916e+00 8.715770e-01 -2.363849e+00 7.173817e-01 2.951617e+00 6.102588e-01 3.713090e+00 -1.860561e+00 -3.290113e-01 -1.556183e+00 3.570407e-01 -1.009573e+00 -1.022242e+00 -1.250449e+00 1.273208e-01 -1.800857e+00 -1.924877e+00 -8.516550e-01 6.260873e-02
<VARIANCE> 26
 2.854036e+01 1.969676e+01 1.883669e+01 1.546065e+01 1.357636e+01 2.022269e+01 2.343418e+01 3.481952e+01 2.171229e+01 2.792885e+01 4.134259e+01 1.648771e+01 2.588555e-02 2.323793e+00 1.235596e+00 1.332872e+00 1.915447e+00 2.293350e+00 2.509926e+00 6.284340e+00 2.589457e+00 2.491231e+00 3.589642e+00 2.702208e+00 3.852672e+00 2.707167e-03
<GCONST> 8.654181e+01
<STATE> 4
<MEAN> 26
 7.060388e+00 -1.013322e+01 -5.421321e+00 -8.848892e+00 2.016925e+00 -6.733191e+00 -2.453869e+00 -5.579910e+00 2.832469e+00 -8.441772e+00 -7.931225e+00 -5.098539e+00 9.034382e-01 1.470117e+00 -2.762921e+00 -2.544135e-01 -2.239347e+00 2.188121e+00 3.472262e-01 -1.942073e-01 -1.724680e+00 5.917919e-01 -1.601734e-01 -2.023738e-01 -1.399680e+00 6.062166e-02
<VARIANCE> 26
 1.040008e+01 2.434830e+01 8.035648e+00 2.019781e+01 3.535124e+01 2.091177e+01 6.152197e+01 2.520673e+01 4.296504e+01 4.497746e+01 2.485569e+01 3.616346e+01 5.350803e-03 2.630839e+00 2.726381e+00 1.371729e+00 1.538419e+00 1.472738e+00 2.057574e+00 5.240102e+00 2.818272e+00 3.770680e+00 3.587330e+00 3.675723e+00 5.386955e+00 1.717234e-03
<GCONST> 8.723944e+01
<STATE> 5
<MEAN> 26
 7.915464e+00 -1.271375e+01 -5.342339e+00 -1.049464e+01 8.133677e+00 -5.084825e+00 -5.517062e+00 -8.066697e+00 1.137646e+00 -3.545886e+00 -2.649871e+00 -5.747434e+00 9.113709e-01 2.677740e-01 4.876999e-01 -8.616717e-02 1.104575e-01 1.238112e-03 1.273638e-01 -3.771954e-01 3.079499e-02 -1.138621e-01 2.511586e-01 4.376289e-01 -1.560052e-01 -9.810482e-03
<VARIANCE> 26
 1.991799e+01 1.011321e+01 1.922433e+01 1.941788e+01 1.334879e+01 3.832961e+01 8.706635e+01 3.168865e+01 3.236357e+01 4.003181e+01 4.936477e+01 5.084141e+01 8.039619e-03 1.399816e-01 4.706641e-01 4.791075e-01 6.979178e-01 8.758857e-01 6.982602e-01 1.012415e+00 1.372535e+00 1.493299e+00 8.972304e-01 8.812495e-01 6.966039e-01 1.298406e-04
<GCONST> 7.022155e+01
<STATE> 6
<MEAN> 26
 1.072141e+01 -4.278480e+00 -9.834536e-01 -5.089606e+00 -7.011786e-01 -2.982302e+00 -5.976130e+00 -9.293037e+00 -7.791719e-01 -3.726525e+00 -2.414079e+00 -5.732664e+00 7.900454e-01 -1.330674e-01 1.141041e+00 1.390636e+00 1.214022e+00 -1.300809e+00 -6.071776e-02 -2.174428e-01 -3.995400e-01 -5.279481e-01 4.597676e-01 -1.839830e-01 4.935521e-01 -2.253993e-02
<VARIANCE> 26
 3.110671e+01 1.212909e+01 3.744668e+01 3.927088e+01 3.912988e+01 1.867066e+01 2.670852e+01 6.289364e+01 4.240610e+01 4.362667e+01 3.576002e+01 3.297110e+01 8.322286e-03 1.985017e-01 7.955294e-01 9.963418e-01 1.349496e+00 1.552522e+00 1.007326e+00 1.607837e+00 2.065546e+00 1.639899e+00 1.868451e+00 3.377475e+00 2.995954e+00 2.338412e-04
<GCONST> 8.000919e+01
<STATE> 7
<MEAN> 26
 5.306935e+00 4.800741e-01 3.702890e+00 -9.597390e-01 -2.282164e+00 -3.559688e+00 -5.954894e+00 -7.836657e+00 -6.521398e-01 1.362453e-01 -2.546332e+00 -2.574710e+00 5.422309e-01 -1.082591e+00 4.165367e-01 -3.254073e-01 3.968471e-01 1.187930e-01 6.123804e-01 8.717024e-01 1.114906e+00 7.331246e-02 3.921437e-01 4.660394e-01 3.634475e-01 -4.946130e-02
<VARIANCE> 26
 2.734067e+01 9.032679e+00 2.158494e+01 1.615384e+01 3.229041e+01 1.749723e+01 1.825020e+01 3.965816e+01 3.817757e+01 2.187586e+01 2.836720e+01 2.562191e+01 3.385960e-02 9.288000e-01 7.138593e-01 1.950377e+00 6.963325e-01 1.338740e+00 1.731200e+00 2.261938e+00 2.235609e+00 2.355434e+00 1.881222e+00 2.051707e+00 1.825937e+00 1.060576e-03
<GCONST> 8.031715e+01
<TRANSP> 8
 0.000000e+00 1.000000e+00 0.000000e+00 0.000000e+00 0.000000e+00 0.000000e+00 0.000000e+00 0.000000e+00
 0.000000e+00 9.082335e-01 9.176651e-02 0.000000e+00 0.000000e+00 0.000000e+00 0.000000e+00 0.000000e+00
 0.000000e+00 0.000000e+00 7.103729e-01 2.896272e-01 0.000000e+00 0.000000e+00 0.000000e+00 0.000000e+00
 0.000000e+00 0.000000e+00 0.000000e+00 7.068682e-01 2.931317e-01 0.000000e+00 0.000000e+00 0.000000e+00
 0.000000e+00 0.000000e+00 0.000000e+00 0.000000e+00 8.991080e-01 1.008920e-01 0.000000e+00 0.000000e+00
 0.000000e+00 0.000000e+00 0.000000e+00 0.000000e+00 0.000000e+00 8.510907e-01 1.489093e-01 0.000000e+00
 0.000000e+00 0.000000e+00 0.000000e+00 0.000000e+00 0.000000e+00 0.000000e+00 8.354753e-01 1.645247e-01
 0.000000e+00 0.000000e+00 0.000000e+00 0.000000e+00 0.000000e+00 0.000000e+00 0.000000e+00 0.000000e+00
<ENDHMM>
