~o
<STREAMINFO> 1 39
<VECSIZE> 39<NULLD><MFCC_D_A_0><DIAGC>
~h "hachi"
<BEGINHMM>
<NUMSTATES> 9
<STATE> 2
<NUMMIXES> 3
<MIXTURE> 1 2.283465e-01
<MEAN> 39
 -7.447589e+00 -6.569223e+00 -2.650747e+00 -7.994703e+00 1.395663e+01 5.055654e-01 9.568370e+00 -1.021512e+01 8.487456e+00 -6.255020e+00 -2.058133e+00 -2.137544e+00 7.144984e+01 1.996782e+00 9.924563e-01 -2.033673e-01 -1.963861e+00 2.453538e-01 -8.097478e-01 1.087980e+00 -1.250271e+00 7.642573e-01 -8.137689e-01 -1.208876e+00 -5.627366e-01 2.327028e+00 -2.145745e-01 -4.281240e-01 -1.617992e-01 -1.132597e-01 -4.902879e-01 -5.256606e-01 -4.835755e-01 1.635996e-01 8.257813e-03 2.089404e-01 -2.661464e-02 1.770402e-02 -1.095197e-01
<VARIANCE> 39
 1.510147e+01 1.250074e+01 1.553903e+01 3.461977e+01 1.145000e+01 2.259407e+01 3.414680e+01 3.940665e+01 1.181738e+01 2.712854e+01 2.020181e+01 1.679020e+01 2.386419e+01 2.364087e+00 2.726590e+00 1.821507e+00 3.881352e+00 1.692459e+00 2.225064e+00 2.784857e+00 2.238756e+00 1.681088e+00 1.505478e+00 1.607521e+00 9.057482e-01 3.466485e-01 4.383694e-01 6.152590e-01 2.392388e-01 5.176702e-01 7.154252e-02 2.345082e-01 3.213867e-01 2.233123e-01 3.891653e-01 2.183280e-01 2.127912e-01 1.808336e-01 1.483394e-01
<GCONST> 1.002026e+02
<MIXTURE> 2 6.377953e-01
<MEAN> 39
 -1.499029e+01 -1.065227e+01 -4.794063e+00 -2.227613e+00 1.078881e+01 3.859053e+00 -3.346558e+00 1.056360e+00 3.055042e+00 -3.309721e+00 6.277660e-01 4.641913e-02 6.262951e+01 -3.879588e-01 -7.243709e-01 -1.085565e-01 -2.482400e-01 2.687982e-01 -9.951843e-02 4.667431e-01 -4.507855e-01 -1.498622e-01 -9.893195e-01 -4.445124e-01 1.485260e-01 1.609375e+00 3.538983e-01 4.460669e-01 1.085119e-01 1.086249e-01 -2.135449e-01 -6.734064e-02 3.082181e-01 -1.759943e-01 -3.092260e-02 -3.397722e-02 -8.095538e-02 -1.502376e-01 -4.639616e-02
<VARIANCE> 39
 1.804640e+01 1.525504e+01 1.513141e+01 4.555987e+01 1.870475e+01 1.824396e+01 2.731518e+01 2.061061e+01 4.613278e+01 5.322601e+01 2.044067e+01 1.509581e+01 2.152139e+01 1.223771e+00 1.748401e+00 1.292871e+00 1.702901e+00 1.903736e+00 1.348288e+00 2.303964e+00 1.757779e+00 1.215515e+00 1.861984e+00 1.193486e+00 1.567871e+00 8.292136e-01 2.796274e-01 2.065315e-01 2.832524e-01 2.824120e-01 2.737115e-01 2.507341e-01 5.211394e-01 3.750578e-01 2.345441e-01 3.184691e-01 2.514252e-01 3.813257e-01 6.440612e-02
<GCONST> 1.003806e+02
<MIXTURE> 3 1.338583e-01
<MEAN> 39
 -1.318141e+01 -9.514688e+00 6.305342e+00 -3.511480e+00 3.828237e+00 -6.082880e+00 -2.066687e+00 -1.273468e+01 6.839049e+00 -7.638831e+00 5.745593e+00 -1.337895e+00 6.209923e+01 -1.706976e-01 -2.230795e-01 8.507379e-01 -6.361717e-01 3.056555e-01 4.612859e-02 1.125059e+00 -8.644086e-01 8.142874e-01 -1.031745e+00 3.999607e-01 -4.736685e-01 2.392463e+00 7.567298e-01 6.864893e-01 -8.510249e-01 -1.553902e-01 1.342159e-01 3.578104e-01 3.492250e-01 6.002553e-01 -8.220058e-02 1.734590e-01 -6.434644e-01 -2.127480e-01 -2.693457e-01
<VARIANCE> 39
 6.034690e+00 8.236398e+01 1.337297e+02 6.098699e+01 5.741071e+01 1.288160e+01 5.593922e+01 6.345170e+00 1.820607e+01 1.883973e+01 1.244178e+01 1.427355e+01 1.570653e+01 2.282423e+00 3.975021e+00 7.818490e+00 9.557558e-01 2.617521e+00 2.170405e+00 3.617796e+00 3.894197e+00 1.937575e+00 1.394091e+00 3.488212e+00 6.497525e-01 9.470968e-01 2.309530e-01 7.962791e-01 1.280398e+00 5.661858e-01 4.330114e-01 3.425547e-01 4.691052e-01 3.077912e-01 3.202808e-01 2.976906e-01 3.149253e-01 1.557512e-01 8.762627e-02
<GCONST> 1.098397e+02
<STATE> 3
<NUMMIXES> 3
<MIXTURE> 1 5.157894e-01
<MEAN> 39
 -3.034430e+00 -9.429927e+00 -9.982282e+00 -1.448497e+01 7.974220e+00 1.977341e-01 3.325778e+00 -1.401334e+01 1.164654e+01 -1.134033e+01 -3.445546e+00 -6.107686e+00 7.553186e+01 4.055181e-01 -4.844179e-01 -1.787251e-01 -4.935473e-01 -1.199650e+00 -1.273902e+00 7.198095e-01 -6.671447e-02 9.820229e-01 -5.069728e-01 -8.223156e-01 -2.331315e-01 8.608478e-01 -4.687598e-01 2.326938e-01 5.582421e-01 4.464614e-01 -3.316322e-01 -1.598943e-01 -4.588149e-01 8.075078e-01 -8.261247e-02 2.390170e-01 1.245706e-01 3.216107e-01 -5.598845e-01
<VARIANCE> 39
 1.467453e+01 2.231052e+01 4.473862e+01 4.278088e+01 4.107630e+01 5.099588e+01 6.965121e+01 1.781273e+01 3.860709e+01 1.809004e+01 2.071819e+01 1.271370e+01 6.447639e+00 1.993919e+00 1.650067e+00 2.102031e+00 1.233810e+00 2.412550e+00 3.444877e+00 3.821682e+00 3.978697e+00 2.729630e+00 1.510381e+00 1.058567e+00 1.139861e+00 1.334457e+00 4.191404e-01 4.264117e-01 3.838658e-01 2.881418e-01 4.435664e-01 4.960893e-01 4.601271e-01 5.023800e-01 3.819330e-01 2.939865e-01 1.917698e-01 2.376392e-01 1.742133e-01
<GCONST> 1.087332e+02
<MIXTURE> 2 2.105263e-01
<MEAN> 39
 -5.345330e+00 6.361831e-01 -4.714602e-02 -8.331031e+00 9.061017e+00 -9.249149e+00 7.229392e+00 1.113032e-01 5.648227e+00 -5.836982e+00 -8.999585e+00 1.310237e+00 7.502682e+01 -3.395898e-01 4.753429e-01 -8.985542e-01 1.448968e+00 -5.323357e-01 5.328020e-01 -1.237008e+00 1.180748e+00 -5.381410e-01 -1.067556e-01 4.578076e-02 -1.063712e-01 -2.155543e+00 -2.087213e-01 -1.710423e-01 -4.379383e-02 2.599268e-01 1.271641e-01 7.899572e-01 -6.991967e-02 -4.392356e-01 -1.767852e-01 9.621640e-02 6.333415e-01 -1.883809e-01 -6.297282e-01
<VARIANCE> 39
 3.941407e+00 9.752208e+00 2.130689e+01 2.374073e+01 4.800219e+01 2.890667e+01 1.000480e+02 1.751764e+01 4.488882e+01 8.479179e+00 2.150885e+01 2.177254e+01 4.291382e+01 7.825120e-01 1.712072e+00 4.486686e+00 2.755807e+00 5.204577e+00 5.371404e+00 2.330276e+00 2.407448e+00 3.509140e+00 5.641395e-01 2.066540e+00 2.212203e+00 5.537711e+00 1.247140e-01 3.552832e-01 1.453923e-01 9.481071e-01 4.582121e-01 5.670514e-01 5.422679e-01 5.667082e-01 8.092653e-01 1.178844e-01 1.231438e-01 2.188762e-01 8.040431e-01
<GCONST> 1.100763e+02
<MIXTURE> 3 2.736842e-01
<MEAN> 39
 -1.000133e+01 -3.798278e+00 -1.567695e+00 1.994813e+00 4.341429e+00 -5.741040e-01 -2.028904e+00 2.074676e-01 -4.145268e+00 -1.021979e+01 -1.687519e+00 -3.126751e+00 6.662698e+01 1.928374e+00 2.174629e+00 -3.273231e-01 -9.215840e-01 -3.661238e-01 -4.787399e-01 3.742219e-01 -1.609315e+00 -6.778806e-01 -3.864368e-01 -5.885882e-01 -1.309579e+00 4.906842e-01 -6.651613e-02 -2.926219e-01 -4.166743e-01 -3.326468e-02 3.669249e-01 2.681926e-01 3.370613e-01 -1.779858e-01 4.970043e-01 2.180762e-01 -5.209817e-02 2.893009e-01 -2.696851e-02
<VARIANCE> 39
 2.353199e+01 3.830087e+01 3.722727e+01 3.659991e+01 8.629838e+01 7.759848e+01 3.211180e+01 1.998063e+01 1.957982e+01 2.372870e+01 3.384623e+01 1.298628e+01 1.079300e+01 6.048521e+00 9.326344e-01 4.550013e+00 1.500230e+00 3.477921e+00 7.005510e+00 4.237064e+00 4.156794e+00 1.999788e+00 1.883684e+00 1.488994e+00 2.804274e+00 2.735040e+00 5.837303e-01 5.226767e-01 2.301443e-01 4.302895e-01 6.495472e-01 1.278343e+00 5.014815e-01 5.812704e-01 3.269565e-01 2.584077e-01 4.158482e-01 5.095978e-01 3.518681e-01
<GCONST> 1.190662e+02
<STATE> 4
<NUMMIXES> 3
<MIXTURE> 1 2.666667e-01
<MEAN> 39
 -4.112568e+00 -7.351308e+00 -5.710700e+00 -1.298266e+01 1.905202e+00 -7.469652e+00 3.669426e+00 -9.647762e+00 1.258796e+01 -1.167025e+01 -5.802876e+00 -4.676627e+00 7.514398e+01 1.780954e-01 1.414689e+00 1.337716e+00 1.925627e+00 -1.363769e+00 -1.358912e+00 -1.496848e+00 1.086096e+00 -1.500746e-01 1.172152e+00 1.774126e-01 1.012839e+00 -1.979626e+00 4.374452e-02 2.602337e-01 -1.242995e-01 2.805480e-01 4.951769e-01 8.274129e-01 -1.876904e-01 -9.301273e-02 -5.758014e-01 4.521875e-01 2.206322e-01 9.491770e-02 -1.022031e+00
<VARIANCE> 39
 7.740091e+00 3.836799e+01 3.607262e+01 6.116992e+01 6.416140e+01 3.929194e+01 5.852459e+01 1.840255e+01 4.632056e+01 1.195189e+01 1.903073e+01 1.873456e+01 9.482669e+00 1.948713e-01 1.019012e+00 9.209362e-01 1.161415e+00 2.558495e+00 3.928869e+00 2.186876e+00 1.723146e+00 2.321835e+00 1.604980e+00 1.243228e+00 1.483706e+00 2.715254e+00 8.713516e-02 2.110649e-01 2.561268e-01 2.166111e-01 8.724645e-01 7.053774e-01 5.796606e-01 1.356768e-01 3.868816e-01 3.930046e-01 3.119111e-01 2.001379e-01 3.040231e-01
<GCONST> 1.035746e+02
<MIXTURE> 2 4.166667e-01
<MEAN> 39
 -9.405089e+00 1.782396e+00 -1.355152e+00 6.401415e-01 3.290422e+00 6.839343e-01 2.393606e+00 -2.134597e-01 3.517523e-02 -1.698999e+00 -1.337709e-01 1.069556e+00 5.661040e+01 -3.176071e-01 -3.849090e-01 -1.107247e-01 3.627535e-01 -4.230828e-01 6.416391e-01 2.299029e-02 3.283009e-01 3.936137e-02 1.083001e+00 1.397158e+00 4.017266e-01 -7.065002e-01 -1.269411e-01 -1.027563e-01 4.179947e-02 -1.637053e-01 -1.552104e-01 -4.950840e-01 5.426675e-03 -1.202044e-02 2.128196e-01 1.373582e-02 -8.283543e-02 -1.795334e-01 5.879117e-01
<VARIANCE> 39
 4.144272e+00 8.399784e+00 9.545638e+00 1.542162e+01 9.663320e+00 8.048343e+00 8.438057e+00 2.184263e+01 1.286660e+01 1.380594e+01 1.947791e+01 1.435632e+01 2.435121e+01 3.236549e-01 8.822383e-01 4.908049e-01 1.073689e+00 1.049507e+00 1.408357e+00 1.242683e+00 7.597651e-01 2.840730e+00 1.434560e+00 1.984241e+00 1.566514e+00 1.649810e+00 1.445786e-01 1.769508e-01 1.553868e-01 1.244408e-01 2.454596e-01 2.107288e-01 2.162392e-01 1.576660e-01 3.684110e-01 1.976493e-01 4.102155e-01 3.488975e-01 1.007872e-01
<GCONST> 8.446352e+01
<MIXTURE> 3 3.166667e-01
<MEAN> 39
 -4.288501e+00 -4.443286e+00 -4.816166e+00 -4.010348e+00 2.121089e+00 -5.466123e+00 -7.341200e-01 -5.927125e+00 9.905957e+00 -5.055249e+00 -5.841267e+00 -1.133787e+00 6.046971e+01 -2.822066e-01 6.603814e-01 -7.660635e-01 6.872052e-01 2.347495e-01 2.470981e+00 3.443149e-01 1.126552e+00 -1.123410e+00 1.386674e+00 4.325025e-01 5.184420e-01 -3.667223e+00 -2.328998e-01 -2.723582e-01 -2.986533e-01 -3.560319e-01 2.015257e-01 2.458846e-01 4.038869e-01 -1.611327e-01 -3.084475e-02 -2.094544e-01 1.710025e-01 -2.234118e-01 4.596461e-01
<VARIANCE> 39
 1.583487e+01 1.020645e+01 2.951887e+01 3.719192e+01 1.934914e+01 4.791669e+01 3.605011e+01 2.730144e+01 1.638716e+01 3.888419e+01 9.373467e+00 2.810246e+01 4.434063e+01 6.121644e-01 6.736156e-01 1.057654e+00 1.457662e+00 3.708768e+00 1.969871e+00 2.360570e+00 1.592717e+00 1.599598e+00 1.814255e+00 2.214212e+00 1.170900e+00 2.163031e+00 1.152412e-01 1.462969e-01 3.398248e-01 3.342384e-01 4.493777e-01 8.085802e-01 4.950009e-01 4.046589e-01 4.786569e-01 2.284609e-01 2.527484e-01 3.581617e-01 3.315246e-01
<GCONST> 1.043622e+02
<STATE> 5
<NUMMIXES> 3
<MIXTURE> 1 2.982456e-01
<MEAN> 39
 -2.260971e+01 2.787932e+00 -7.173216e+00 5.872760e-02 1.093386e+00 -3.836716e+00 1.392450e+00 4.555728e-01 6.384233e-01 8.133644e-01 3.907226e+00 6.280821e-01 6.754924e+01 -2.833062e+00 1.583046e+00 -2.770767e-02 -5.913656e-01 8.958230e-01 -1.008595e+00 2.361232e-01 -2.761861e-01 -4.569306e-01 -1.570304e-01 1.873607e-01 1.268458e-01 1.807865e+00 5.556817e-01 5.711895e-02 6.618169e-01 -6.520399e-02 4.429328e-01 4.158989e-01 1.200010e-01 1.371691e-03 -1.782289e-01 -2.313059e-01 -3.425040e-01 1.126089e-02 -4.973931e-01
<VARIANCE> 39
 2.740841e+01 1.989765e+01 2.457218e+01 1.734651e+01 1.912048e+01 1.696228e+01 1.105137e+01 8.774063e+00 5.323721e+00 4.652729e+01 1.970780e+01 1.066127e+01 1.193108e+01 1.549690e+00 1.544608e+00 2.262488e+00 4.373773e-01 1.948269e+00 2.917527e+00 1.492760e+00 1.381831e+00 1.263932e+00 2.211894e+00 1.427353e+00 1.117777e+00 1.274562e+00 3.622971e-01 5.086084e-01 2.405260e-01 1.483095e-01 2.830269e-01 3.612682e-01 2.505775e-01 2.706238e-01 2.259020e-01 8.108204e-01 2.972289e-01 2.093004e-01 7.331157e-02
<GCONST> 9.570692e+01
<MIXTURE> 2 5.263158e-01
<MEAN> 39
 -8.378336e+00 -3.335199e+00 -8.336969e+00 3.322554e-01 2.760655e+00 2.972315e+00 2.404940e+00 -6.662440e-01 4.117521e+00 -1.704027e+00 -2.829283e+00 -1.449807e-01 5.422851e+01 -2.345304e+00 8.961502e-01 1.237765e-01 5.748066e-02 1.123654e-01 -5.733138e-01 2.892427e-02 1.696923e-02 -3.242973e-01 2.068015e-01 5.239275e-01 1.014938e-02 6.280268e-01 -5.931284e-01 2.813520e-01 1.888600e-02 -1.098406e-01 9.663364e-02 -5.004838e-01 -2.535394e-02 -2.362218e-01 2.496324e-02 -3.038111e-01 -4.080980e-03 2.324680e-01 7.494888e-01
<VARIANCE> 39
 2.064395e+01 1.763661e+01 2.564118e+01 1.548815e+01 1.283740e+01 1.940096e+01 1.193941e+01 1.850169e+01 1.990957e+01 4.552032e+01 2.281907e+01 9.524050e+00 2.209593e+01 2.780855e+00 6.866209e-01 1.202645e+00 1.038278e+00 1.321777e+00 2.318210e+00 1.964812e+00 2.122290e+00 2.075133e+00 1.847904e+00 1.165293e+00 1.767584e+00 3.327383e+00 4.190689e-01 8.973455e-02 2.091997e-01 2.359865e-01 2.995442e-01 3.806852e-01 2.616120e-01 3.884511e-01 3.568282e-01 2.197017e-01 2.583041e-01 2.508785e-01 1.905783e-01
<GCONST> 9.875893e+01
<MIXTURE> 3 1.754386e-01
<MEAN> 39
 -2.724412e+01 7.161741e+00 -2.485330e+00 -4.482572e+00 5.590787e+00 -5.911720e+00 4.292522e+00 -6.418286e+00 5.454281e+00 -2.036932e+00 -2.632299e-01 1.390166e+00 6.018703e+01 -3.502933e+00 1.183424e+00 3.004439e-01 -8.442456e-01 8.417566e-01 -1.412868e+00 6.077392e-01 -1.774045e-01 -2.961974e-01 -2.748248e-01 -2.931674e-01 1.035891e-01 2.708912e+00 9.353338e-01 -3.740931e-01 1.785451e-02 -1.092186e-01 -2.181173e-01 1.527050e-01 -2.227830e-01 4.012694e-01 -4.037021e-01 4.225616e-01 -8.416332e-02 -2.311097e-01 -3.805419e-01
<VARIANCE> 39
 1.913539e+01 1.358444e+01 1.079544e+01 1.450636e+01 7.949788e+00 1.534861e+01 7.098146e+00 5.695424e+00 1.120103e+01 2.561554e+01 8.879792e+00 7.075793e+00 1.059967e+01 3.121138e+00 7.169189e-01 4.421073e-01 9.216350e-01 8.102877e-01 1.831239e+00 1.314505e+00 1.126455e+00 2.145849e+00 2.084759e+00 4.698480e-01 7.063572e-01 1.121250e+00 3.637578e-01 1.911225e-01 9.573603e-02 2.897848e-01 1.596885e-01 3.638179e-01 1.503163e-01 9.864718e-02 3.525138e-01 2.727828e-01 1.575969e-01 1.498790e-01 1.597612e-01
<GCONST> 8.293076e+01
<STATE> 6
<NUMMIXES> 3
<MIXTURE> 1 2.444444e-01
<MEAN> 39
 -1.349076e+01 7.979728e+00 7.632842e+00 -4.358524e+00 -3.307031e+00 -1.092088e+01 -4.054295e+00 -6.381568e+00 -9.771407e+00 -4.601439e+00 -1.695372e+00 -3.004100e+00 6.871474e+01 3.163563e+00 -2.320032e-01 2.436586e+00 -1.135240e+00 -3.767763e+00 -1.500812e+00 -1.175433e+00 -1.139478e+00 -1.554861e+00 -3.901784e-01 -3.369463e-01 -5.778648e-01 7.151214e-01 -5.088454e-01 -6.167666e-01 -5.097938e-01 1.586576e-01 2.374179e-01 8.421837e-01 5.843028e-01 2.264157e-01 7.532585e-01 3.346992e-01 6.657621e-01 2.348048e-01 -2.179247e-01
<VARIANCE> 39
 1.470023e+01 5.169786e+00 9.390222e+00 2.518014e+01 3.294043e+01 2.449503e+01 1.896835e+01 2.359790e+01 2.733223e+01 3.745237e+01 2.080178e+01 1.543106e+01 3.444440e+00 1.690773e+00 1.207418e+00 2.119542e+00 1.151663e+00 2.435199e+00 2.562420e+00 1.655735e+00 1.991212e+00 3.071162e+00 4.392039e+00 2.534410e+00 1.368956e+00 8.255476e-01 2.649589e-01 7.385544e-02 1.083877e-01 1.549452e-01 7.020960e-01 3.232153e-01 5.745537e-02 1.388885e-01 5.270047e-01 5.414568e-01 3.769013e-01 1.958585e-01 3.746806e-02
<GCONST> 9.501530e+01
<MIXTURE> 2 4.555556e-01
<MEAN> 39
 -2.818442e+01 4.670847e+00 -4.513913e+00 -6.130714e+00 5.867031e+00 -4.959142e+00 4.986232e+00 4.160812e+00 3.051414e+00 5.024220e+00 3.583775e+00 2.351988e+00 7.467244e+01 3.176858e-01 -4.363405e-01 1.343485e-01 -4.029168e-01 -1.718280e-01 1.219862e-01 -2.956936e-01 1.938788e-01 2.074300e-01 1.895328e-01 1.606334e-01 -2.836759e-02 3.361411e-02 6.679759e-02 -1.570196e-02 -8.180467e-02 -1.921601e-02 -1.134079e-01 -4.861059e-02 -1.139097e-01 -1.127294e-01 -3.559707e-02 -4.621939e-02 1.533744e-02 -2.516157e-02 -9.442013e-02
<VARIANCE> 39
 3.088592e+00 3.949216e+00 2.152221e+00 5.988556e+00 4.552590e+00 5.421144e+00 1.319743e+01 9.639532e+00 6.652082e+00 1.465519e+01 7.836199e+00 7.408794e+00 1.223186e+00 8.958995e-02 1.004002e-01 3.957406e-01 2.888006e-01 4.775895e-01 4.687635e-01 1.238320e+00 1.108171e+00 4.264349e-01 1.786260e+00 8.451311e-01 9.806384e-01 2.370435e-01 4.932298e-02 2.112482e-02 1.003940e-01 4.470884e-02 7.475656e-02 7.706270e-02 2.011378e-01 1.750271e-01 9.223522e-02 2.718275e-01 1.799462e-01 1.847693e-01 1.198473e-02
<GCONST> 5.137946e+01
<MIXTURE> 3 3.000000e-01
<MEAN> 39
 -2.732351e+01 6.077903e+00 -2.127459e+00 -1.106200e+00 8.489574e+00 -3.607514e+00 3.756774e+00 -9.035218e-01 -1.006632e+00 -1.786501e+00 2.347896e+00 2.124585e+00 6.548584e+01 1.214122e+00 7.638327e-01 2.410755e+00 -9.862550e-01 -2.519544e-01 -1.426603e+00 -1.273122e+00 -9.202012e-01 -1.984212e+00 -7.539087e-01 -9.899787e-01 -7.089449e-01 8.996937e-01 1.489088e+00 -3.370048e-01 5.152167e-01 -3.739021e-02 -1.435451e+00 -3.438736e-01 -5.987346e-01 -2.659343e-01 -3.831536e-01 -2.668259e-01 -2.205931e-01 -3.444747e-01 -7.665373e-02
<VARIANCE> 39
 1.259997e+01 8.943754e+00 2.651225e+01 1.908967e+01 2.322434e+01 3.092581e+01 2.297047e+01 2.622897e+01 1.951134e+01 4.254580e+01 2.854142e+01 2.346113e+01 1.815600e+00 4.340956e+00 9.389225e-01 1.673815e+00 8.946605e-01 5.510091e+00 2.690867e+00 2.069546e+00 2.038613e+00 1.971328e+00 3.433168e+00 1.910068e+00 1.153020e+00 4.184070e-01 3.085031e-01 1.672542e-01 3.420080e-01 1.829142e-01 4.469670e-01 6.400259e-01 3.893343e-01 3.193618e-01 3.520057e-01 5.858995e-01 2.924086e-01 1.928362e-01 1.207344e-01
<GCONST> 1.015659e+02
<STATE> 7
<NUMMIXES> 3
<MIXTURE> 1 9.146342e-02
<MEAN> 39
 -1.236108e+01 3.267186e+00 1.019158e+01 -5.155962e-01 -5.444525e+00 -7.295519e+00 -5.392236e+00 -3.665309e+00 -1.896457e+01 -2.134820e+01 -1.146706e-01 -1.306580e+00 7.227408e+01 5.795794e-01 -6.913812e-01 1.131195e+00 -6.952542e-02 -8.846672e-01 1.128591e+00 -1.358647e+00 -1.473384e+00 -1.142189e+00 -8.982890e-01 1.111628e+00 -1.086152e+00 -1.842494e-01 -2.816042e-01 3.007291e-01 -4.104953e-01 -8.486239e-02 4.036223e-01 2.057000e-02 -3.657776e-01 -1.296628e-01 7.880843e-01 8.600929e-01 2.991244e-01 1.914057e-04 -4.295577e-01
<VARIANCE> 39
 3.850416e-01 7.060120e-01 4.344310e+00 1.640641e+00 3.325100e+00 7.628859e+00 7.855217e+00 1.151759e+01 1.230483e+01 5.774423e+00 7.716759e+00 1.102873e+01 5.682811e-01 3.298472e-01 8.032045e-01 5.058948e-01 4.001034e-01 1.512505e+00 7.103771e-01 1.578729e+00 4.619912e-01 2.703564e+00 3.296621e+00 1.096720e+00 3.399196e-01 2.073167e-01 4.033173e-01 5.523902e-02 1.343895e-01 7.732344e-02 8.996981e-01 5.574436e-01 1.613724e-01 1.568962e-01 1.915714e-01 1.123949e-01 1.680143e-01 6.923051e-02 3.150715e-02
<GCONST> 6.019004e+01
<MIXTURE> 2 6.158537e-01
<MEAN> 39
 -2.841289e+01 5.001915e+00 2.700114e+00 -9.159595e+00 4.230358e+00 -3.272553e+00 1.470257e+00 -1.948167e+00 3.163537e+00 -9.643521e-01 2.397273e+00 5.728849e-01 6.408186e+01 5.492646e-01 -2.422107e-01 3.049262e-01 -8.451995e-02 -1.418989e-01 2.687927e-01 -1.935012e-01 1.576153e-01 1.097707e-01 -1.173588e-01 2.796518e-01 1.177101e-01 -5.324585e-01 1.289865e-01 -1.012932e-02 -7.329030e-02 2.668004e-02 2.637484e-02 -8.683766e-03 8.982505e-03 2.182745e-02 2.437803e-02 -4.312033e-03 -4.325662e-02 2.961123e-03 -9.631067e-02
<VARIANCE> 39
 1.155892e+01 8.297038e+00 1.552932e+01 3.743017e+00 1.686224e+01 1.880632e+01 1.025407e+01 1.990909e+01 1.193155e+01 3.088493e+01 1.639852e+01 9.504904e+00 2.591835e+01 3.929271e-01 3.687329e-01 6.507670e-01 5.710743e-01 9.436182e-01 8.339434e-01 8.392324e-01 7.671095e-01 9.536393e-01 1.209259e+00 1.145841e+00 7.678712e-01 2.003396e-01 4.737062e-02 6.736472e-02 1.122889e-01 1.216077e-01 1.904594e-01 1.423047e-01 1.580028e-01 1.456558e-01 2.029143e-01 2.173268e-01 2.122203e-01 1.441809e-01 3.165934e-02
<GCONST> 7.291821e+01
<MIXTURE> 3 2.926829e-01
<MEAN> 39
 -7.654358e+00 4.396078e+00 1.230432e+01 -9.446685e+00 -1.055147e+01 -8.411515e+00 -5.863614e+00 -1.197645e+01 -4.088738e+00 4.268582e-01 2.370282e+00 -4.545304e+00 6.606453e+01 1.953201e-01 -1.112178e-01 3.191954e-01 3.647225e-02 -2.887871e-01 5.156170e-01 -6.672375e-01 -2.320512e-01 3.259384e-01 -7.668608e-02 4.132088e-01 4.792434e-03 -7.314891e-01 -2.361052e-01 6.683694e-02 -2.104750e-01 2.365298e-01 3.146114e-01 1.670051e-01 1.307634e-01 2.527544e-01 -3.894475e-02 -1.151163e-01 -1.284524e-01 2.900594e-02 -1.792168e-01
<VARIANCE> 39
 8.751480e+00 1.080122e+01 3.001282e+01 1.402885e+01 1.353753e+01 1.315680e+01 1.497763e+01 1.654991e+01 3.522643e+01 1.052133e+01 1.004300e+01 1.148871e+01 5.417576e+00 2.200546e-01 8.582816e-01 9.935113e-01 1.996603e+00 1.477501e+00 1.277070e+00 1.538200e+00 1.343119e+00 1.178523e+00 8.069823e-01 1.265785e+00 1.491632e+00 3.510686e-01 5.269885e-02 1.521829e-01 9.300932e-02 2.152831e-01 2.701059e-01 1.341186e-01 3.558879e-01 3.386419e-01 1.628901e-01 1.933247e-01 1.483027e-01 1.399133e-01 4.205615e-02
<GCONST> 8.056194e+01
<STATE> 8
<NUMMIXES> 3
<MIXTURE> 1 1.372549e-01
<MEAN> 39
 -8.601461e+00 2.831840e+00 1.234343e+01 -2.002820e+00 -1.107357e+01 -6.497416e+00 -1.366557e+01 -9.833715e+00 -1.529141e+01 -1.668824e+01 6.828694e+00 -5.569305e+00 6.687816e+01 5.689052e-01 -3.626765e-01 -5.129089e-01 4.112490e-01 -3.462384e-01 -1.474483e-01 6.100829e-02 -7.449658e-01 1.201129e+00 2.038538e+00 9.428884e-01 2.160925e-01 -2.350635e+00 -2.694471e-01 -2.040438e-01 -4.557690e-01 4.903469e-01 8.824798e-01 2.898447e-01 8.203638e-01 1.014435e-01 -2.233109e-01 2.570560e-01 -3.416805e-01 5.023726e-01 -3.609804e-01
<VARIANCE> 39
 2.905831e+00 7.072070e-01 1.034000e+00 1.013388e+00 9.481334e+00 2.084828e+00 2.782004e+00 4.609068e+00 9.660771e+00 5.981693e+00 2.656731e+00 5.970420e+00 1.260234e+01 7.230771e-01 2.480958e-01 8.660907e-01 8.265171e-01 4.009343e+00 6.344702e-01 2.574989e+00 2.490344e-01 1.087789e+00 8.109832e-01 5.959410e-01 9.895867e-01 5.516831e-01 8.319443e-02 2.372066e-02 4.509873e-02 5.338683e-02 4.810459e-01 2.184032e-01 1.260220e-01 6.128687e-02 2.232011e-01 1.501004e-01 6.996853e-02 5.936468e-02 9.820623e-02
<GCONST> 5.394827e+01
<MIXTURE> 2 5.490196e-01
<MEAN> 39
 -1.472882e+01 9.364754e-01 7.401568e-01 -6.276589e+00 1.495958e+00 -2.602378e+00 -3.549534e-01 6.850879e-01 2.228263e+00 1.413562e-01 3.928470e+00 1.176435e+00 5.860973e+01 1.256192e+00 -3.377914e-01 -5.455785e-01 8.400873e-01 2.076557e-02 7.045743e-01 3.970545e-01 3.092911e-01 -3.178133e-01 8.947102e-02 -2.227130e-01 -3.112240e-01 -1.291024e+00 -7.336179e-02 9.061728e-02 2.881513e-02 1.975389e-01 -5.177961e-03 8.424292e-02 1.122222e-02 -5.738470e-02 4.500069e-04 -1.445388e-03 3.003141e-02 7.093088e-03 5.739052e-02
<VARIANCE> 39
 1.544141e+01 1.303456e+01 6.192291e+00 2.382287e+01 1.090188e+01 2.257571e+01 1.545341e+01 2.485605e+01 1.299056e+01 1.668231e+01 1.917841e+01 1.082673e+01 3.734604e+01 1.354179e+00 2.446643e-01 5.026949e-01 9.796509e-01 1.481508e+00 1.086232e+00 2.057971e+00 1.911465e+00 1.592191e+00 1.432944e+00 1.326635e+00 1.133190e+00 5.662700e-01 8.561844e-02 3.257107e-02 7.697998e-02 1.841513e-01 2.229656e-01 2.210018e-01 4.291344e-01 1.883178e-01 2.699513e-01 3.441944e-01 2.439986e-01 2.135555e-01 1.243537e-01
<GCONST> 8.538390e+01
<MIXTURE> 3 3.137255e-01
<MEAN> 39
 -9.642257e+00 2.040882e+00 1.233121e+01 -4.182923e+00 -7.421691e+00 -2.243385e+00 -7.111890e+00 -7.772839e+00 -7.391304e+00 1.404243e-02 4.370645e+00 -5.668342e+00 5.568729e+01 -6.096982e-01 -2.757973e-01 -2.095514e+00 1.976141e+00 1.996315e+00 1.067158e+00 1.709025e+00 1.453683e+00 1.003723e+00 8.057008e-01 -7.903562e-01 9.366582e-01 -1.915300e+00 4.712399e-02 -2.061775e-02 -3.263347e-01 -5.510167e-02 1.607915e-02 -6.527135e-02 2.772818e-01 2.132948e-01 2.570328e-01 -1.527351e-01 -9.621068e-02 1.463220e-01 2.212150e-01
<VARIANCE> 39
 1.171850e+01 1.500909e+01 7.019553e+01 5.698590e+01 3.104869e+01 1.297145e+01 2.141600e+01 3.636124e+01 4.605497e+01 3.449576e+01 2.499368e+01 3.409195e+01 2.978059e+01 9.191419e-01 7.706650e-01 4.224511e+00 1.303009e+00 2.590978e+00 1.396273e+00 2.816277e+00 2.177958e+00 2.838814e+00 2.544733e+00 1.527450e+00 1.307977e+00 7.699611e-01 1.688984e-01 1.208930e-01 6.672314e-01 4.055032e-01 6.073234e-01 2.509030e-01 6.036221e-01 3.436881e-01 5.074534e-01 5.101472e-01 3.156208e-01 2.116699e-01 1.609398e-01
<GCONST> 1.076409e+02
<TRANSP> 9
 0.000000e+00 1.000000e+00 0.000000e+00 0.000000e+00 0.000000e+00 0.000000e+00 0.000000e+00 0.000000e+00 0.000000e+00
 0.000000e+00 8.740157e-01 1.259843e-01 0.000000e+00 0.000000e+00 0.000000e+00 0.000000e+00 0.000000e+00 0.000000e+00
 0.000000e+00 0.000000e+00 8.315790e-01 1.684211e-01 0.000000e+00 0.000000e+00 0.000000e+00 0.000000e+00 0.000000e+00
 0.000000e+00 0.000000e+00 0.000000e+00 8.666667e-01 1.333333e-01 0.000000e+00 0.000000e+00 0.000000e+00 0.000000e+00
 0.000000e+00 0.000000e+00 0.000000e+00 0.000000e+00 8.596491e-01 1.403509e-01 0.000000e+00 0.000000e+00 0.000000e+00
 0.000000e+00 0.000000e+00 0.000000e+00 0.000000e+00 0.000000e+00 8.222222e-01 1.777778e-01 0.000000e+00 0.000000e+00
 0.000000e+00 0.000000e+00 0.000000e+00 0.000000e+00 0.000000e+00 0.000000e+00 9.024390e-01 9.756098e-02 0.000000e+00
 0.000000e+00 0.000000e+00 0.000000e+00 0.000000e+00 0.000000e+00 0.000000e+00 0.000000e+00 8.431373e-01 1.568628e-01
 0.000000e+00 0.000000e+00 0.000000e+00 0.000000e+00 0.000000e+00 0.000000e+00 0.000000e+00 0.000000e+00 0.000000e+00
<ENDHMM>
