~o
<STREAMINFO> 1 39
<VECSIZE> 39<NULLD><MFCC_D_A_0><DIAGC>
~h "seven"
<BEGINHMM>
<NUMSTATES> 9
<STATE> 2
<NUMMIXES> 3
<MIXTURE> 1 1.313131e-01
<MEAN> 39
 -2.237661e+00 -2.451849e+00 -1.153028e+00 -5.142344e+00 1.293115e+01 -8.881538e+00 6.570651e+00 8.736754e+00 -1.711911e-02 -7.163470e-01 -1.194764e+01 1.174171e+00 7.632494e+01 3.092086e-01 -1.892115e+00 -1.762241e+00 -2.598081e+00 1.855551e+00 1.533834e-01 -7.823425e-01 8.759421e-01 1.416635e+00 -2.598889e+00 -1.096981e+00 -5.131007e-01 3.347249e+00 -2.816463e-01 1.012796e-01 4.663785e-02 2.528860e-01 3.708437e-02 5.136518e-01 -1.325209e-01 -9.223945e-01 8.117092e-02 -1.543678e-01 5.499292e-01 3.777077e-02 -6.297295e-01
<VARIANCE> 39
 3.224124e-01 1.467563e+01 1.658628e+01 2.240309e+01 2.471907e+01 1.104872e+01 7.065313e+00 1.930002e+01 1.250448e+01 2.131416e+01 1.567903e+01 1.920120e+00 2.892746e+01 4.764392e-01 1.079512e+00 1.808232e+00 1.338175e+00 1.176049e+00 1.782773e+00 3.494896e-01 5.940290e+00 1.156416e+00 1.240236e+00 3.319771e+00 7.647114e-01 2.593595e+00 6.008079e-02 4.717966e-01 3.657185e-01 5.678909e-01 3.952851e-01 2.887816e-01 1.324296e-01 5.885007e-01 2.827945e-01 3.881982e-01 2.956667e-01 1.304873e-01 3.613908e-01
<GCONST> 8.962512e+01
<MIXTURE> 2 5.252525e-01
<MEAN> 39
 -4.017793e+00 4.995716e+00 6.903613e+00 1.405512e+00 -3.052192e+00 -4.627850e+00 -5.582565e+00 -9.634103e+00 4.456203e+00 -7.512351e+00 -1.919766e+00 1.600539e+00 5.999852e+01 6.021842e-01 -1.080954e+00 6.989673e-02 -1.185267e+00 -3.058970e-01 -1.767160e+00 -5.404593e-01 6.571218e-01 1.533236e+00 -1.310699e+00 -1.091328e+00 2.229947e-01 2.950662e+00 -3.227744e-01 -8.447620e-01 -8.236566e-01 -5.583078e-01 6.447828e-01 1.889946e-01 3.486352e-01 8.890613e-01 1.086290e-01 -1.857478e-01 -1.705202e-01 -2.995316e-01 3.206635e-01
<VARIANCE> 39
 1.310283e+01 8.757979e+00 1.648003e+01 3.008907e+01 2.498096e+01 3.354329e+01 4.416570e+01 3.559654e+01 1.011477e+02 5.358982e+01 1.388407e+01 1.694524e+01 2.607055e+01 1.492284e+00 3.832287e+00 4.518460e+00 2.590731e+00 5.336383e+00 2.772864e+00 3.715131e+00 8.030997e+00 5.141106e+00 3.046149e+00 1.411342e+00 1.624833e+00 1.294785e+00 2.169773e-01 2.335507e-01 3.235442e-01 3.686766e-01 4.507428e-01 8.040582e-01 5.069323e-01 7.300990e-01 8.077848e-01 3.581696e-01 2.763503e-01 4.681101e-01 2.022773e-01
<GCONST> 1.161695e+02
<MIXTURE> 3 3.434343e-01
<MEAN> 39
 -4.068677e+00 -6.202116e+00 -2.075572e+00 -7.188203e+00 -7.619283e-01 -7.163493e+00 -6.128915e+00 3.779651e+00 5.558931e+00 -1.560099e+01 -6.685862e+00 -2.724364e+00 7.189294e+01 -2.724012e-02 -2.949089e+00 -2.479821e+00 -2.359355e+00 1.958948e+00 6.734769e-01 4.046143e-01 1.179084e+00 5.111059e-01 -1.726300e+00 -2.530988e-01 -2.140960e+00 2.799087e+00 -8.992169e-02 5.343373e-01 2.340623e-01 5.703642e-01 9.808567e-02 6.190510e-01 2.028589e-01 -1.218003e+00 -1.961634e-01 8.433586e-01 5.631632e-01 -1.872344e-01 -7.460660e-01
<VARIANCE> 39
 6.102010e+00 1.183654e+01 2.303596e+01 4.351551e+01 7.637450e+01 2.795282e+01 2.487099e+01 5.955845e+01 6.987899e+01 4.181174e+01 1.382858e+01 1.437890e+01 1.450123e+01 1.655310e+00 1.522587e+00 1.592584e+00 2.274398e+00 2.748410e+00 5.223315e+00 4.991583e+00 7.139769e+00 3.435264e+00 4.131501e+00 1.625721e+00 1.487954e+00 1.637726e+00 1.856730e-01 1.902706e-01 3.159722e-01 2.963481e-01 8.784807e-01 7.458881e-01 3.765963e-01 1.125336e+00 6.880645e-01 7.166101e-01 3.027261e-01 2.561568e-01 1.289558e-01
<GCONST> 1.139542e+02
<STATE> 3
<NUMMIXES> 3
<MIXTURE> 1 6.703297e-01
<MEAN> 39
 -5.641472e+00 -9.757266e+00 -6.736406e+00 -1.046606e+01 1.305606e+01 -5.399549e+00 3.766637e-01 -2.845434e+00 7.918530e+00 -1.257396e+01 -7.638447e+00 -6.297205e+00 7.916800e+01 2.444231e-02 1.055785e-01 -3.511861e-01 -5.012124e-02 1.415145e-01 2.754625e-02 -1.873083e-01 -4.087926e-01 -4.003485e-03 4.599724e-01 -2.745117e-01 -1.557072e-01 6.966455e-02 1.116876e-01 4.992055e-01 4.523858e-01 3.846455e-01 -4.807826e-01 -2.981681e-01 -1.645251e-01 -3.991035e-02 -5.234104e-02 2.198642e-01 -9.826043e-02 5.104014e-01 -4.411671e-01
<VARIANCE> 39
 5.277644e+00 1.108943e+01 1.630076e+01 2.258346e+01 2.567726e+01 1.027877e+01 3.768904e+01 1.055624e+02 2.090734e+01 3.404281e+01 1.433397e+01 2.268385e+01 6.846411e+00 7.256065e-02 6.787235e-01 3.142675e-01 5.142185e-01 8.019968e-01 1.391648e+00 7.908728e-01 1.846542e+00 7.067727e-01 1.046948e+00 4.863485e-01 2.431311e+00 2.335002e-01 2.256955e-02 1.148379e-01 1.504627e-01 1.063134e-01 1.411551e-01 1.780176e-01 2.851241e-01 5.497448e-01 1.833755e-01 2.619554e-01 8.297850e-02 3.945735e-01 7.211167e-02
<GCONST> 7.914993e+01
<MIXTURE> 2 1.648352e-01
<MEAN> 39
 4.139769e-01 -1.366601e+01 -4.246790e+00 -1.712639e+01 -4.398032e+00 3.375737e+00 -6.040545e+00 -7.052822e+00 1.451765e+01 -1.343455e+01 -8.708994e+00 -7.435015e+00 7.337831e+01 6.033023e-02 -4.566086e-01 -9.427245e-01 -2.283783e-01 9.442360e-01 -5.366277e-01 -7.732786e-01 -4.205066e-01 -5.510429e-02 -1.278132e-02 1.518885e-01 -2.455720e-01 4.767088e-01 -3.874492e-02 6.998982e-01 5.751318e-01 4.975681e-01 -6.885145e-01 -9.482085e-01 -4.603589e-01 7.877145e-01 -3.084358e-01 4.621572e-01 -1.987301e-02 3.820893e-01 -4.661060e-01
<VARIANCE> 39
 2.545070e+00 2.512739e+00 5.660782e+00 6.548341e+00 1.630539e+01 3.072217e+01 1.303936e+01 1.995579e+01 4.514417e+01 4.161911e+00 9.190439e+00 1.374104e+01 2.956134e+00 1.609912e-01 1.067855e+00 1.006951e+00 6.155640e-01 3.961828e+00 3.259797e+00 2.103439e+00 6.732421e+00 7.821054e-01 4.053817e-01 1.374334e+00 8.844982e-01 2.770870e-01 5.802545e-02 4.936476e-02 9.819532e-02 2.918412e-01 6.184294e-01 3.374358e-01 2.736832e-01 6.934893e-01 1.943715e-01 1.659481e-01 1.791596e-01 1.006612e-01 6.202197e-02
<GCONST> 7.794842e+01
<MIXTURE> 3 1.648352e-01
<MEAN> 39
 -3.173950e+00 7.019230e-01 -1.387177e+00 1.887605e-01 -2.998662e+00 -1.153331e+01 -9.338281e+00 3.595878e-01 -4.829572e+00 -1.110926e+01 -2.978150e+00 -6.620896e+00 6.826240e+01 2.279467e-01 2.209293e+00 1.183384e+00 9.978213e-01 -1.569604e+00 -7.754631e-01 4.485450e-01 -1.953824e+00 -6.840143e-01 4.654405e-01 -1.488119e+00 9.470605e-01 -9.531000e-01 -7.116473e-02 -1.196065e-01 -1.351044e-02 9.892000e-03 2.066496e-02 7.611369e-02 1.167302e-01 1.693701e-01 -4.575593e-02 -4.655735e-01 -3.364144e-01 1.591416e-01 3.655373e-02
<VARIANCE> 39
 4.494455e-01 2.160618e+01 6.382101e+00 8.117260e+00 9.590900e+00 7.676849e+00 8.322744e+00 3.555580e+01 5.652870e+00 6.935174e+00 1.917111e+01 2.116664e+01 3.734051e+00 6.921545e-02 7.406825e-01 2.008444e-01 1.167353e-01 3.662001e-01 9.582408e-01 9.249941e-01 2.268986e+00 6.453516e-01 2.483700e+00 1.693583e+00 7.594906e-01 1.421190e-01 1.229471e-02 6.694707e-01 2.031878e-01 1.252556e-01 3.690602e-01 1.599359e-01 3.815756e-01 1.026317e+00 1.549597e-01 2.631809e-01 5.367368e-01 2.950828e-01 1.454618e-01
<GCONST> 7.141373e+01
<STATE> 4
<NUMMIXES> 3
<MIXTURE> 1 2.461538e-01
<MEAN> 39
 -3.878288e+00 -5.987365e+00 -2.401927e+00 -1.246827e+01 1.388038e+01 -9.116385e+00 4.932983e+00 -7.556747e+00 7.939352e+00 -3.486010e+00 -1.116590e+01 -2.454610e+00 7.765816e+01 2.539239e-01 1.555349e+00 3.261163e+00 1.840202e+00 -2.113258e+00 -9.740858e-01 -1.321894e+00 -2.604996e+00 6.077681e-01 1.790988e+00 1.256391e-01 6.700642e-01 -1.876373e+00 -8.230586e-02 1.861697e-01 8.480951e-01 6.267803e-01 -3.563863e-01 1.588923e-01 -7.580320e-01 -8.038920e-01 2.671549e-01 -1.369140e-01 3.312118e-01 4.809698e-03 -3.008357e-01
<VARIANCE> 39
 4.202722e+00 1.139756e+01 7.593047e+00 2.341487e+01 1.168486e+01 5.487869e+00 8.606923e+00 9.340852e+01 2.110765e+01 2.077602e+01 4.595047e+00 8.471653e+00 8.949780e+00 8.885892e-02 9.676275e-01 1.657892e+00 1.380339e+00 5.839064e-01 9.273555e-01 3.457559e+00 2.476119e+00 2.189192e+00 3.647083e+00 1.151293e+00 2.386518e+00 2.703720e-01 1.685983e-02 1.173146e-01 2.424592e-01 1.003137e-01 2.668193e-01 8.229887e-02 1.960874e-01 2.963646e-01 1.300730e-01 2.337474e-01 1.168264e-01 2.450921e-01 8.459981e-02
<GCONST> 7.908017e+01
<MIXTURE> 2 2.769231e-01
<MEAN> 39
 -1.857046e+00 -8.609735e+00 -8.064928e+00 -7.246005e+00 -2.024323e+00 -6.862046e+00 -1.268429e+01 3.752535e+00 9.932528e+00 -1.548818e+01 -8.797956e+00 -3.305705e+00 7.399203e+01 1.021478e+00 2.600031e+00 1.836705e+00 2.823114e+00 -1.763207e+00 -1.058156e+00 -7.642258e-01 -2.109373e+00 -6.796389e-01 8.603516e-01 4.215558e-01 1.053372e+00 -2.601780e+00 1.639567e-01 3.191856e-01 5.019050e-01 2.650466e-01 -4.602319e-02 7.330093e-01 6.578543e-01 -1.345962e+00 -1.884531e-01 9.639809e-02 2.793890e-01 -5.802538e-01 -5.411112e-01
<VARIANCE> 39
 1.380144e+01 1.685539e+01 2.784452e+01 4.671281e+01 4.262778e+01 2.231746e+01 2.778959e+01 2.984368e+01 2.218705e+01 4.212268e+01 1.418370e+01 1.245919e+01 1.701593e+01 2.189217e-01 1.056185e+00 6.532985e-01 1.269266e+00 9.036018e-01 2.859455e+00 1.773936e+00 6.606514e+00 1.571590e+00 2.869762e+00 5.769002e-01 1.431496e+00 1.187546e+00 6.506961e-02 2.860866e-01 1.528212e-01 3.573461e-01 3.462257e-01 1.475864e-01 2.940333e-01 3.729497e-01 1.683420e-01 3.758918e-01 1.475939e-01 2.220892e-01 2.384569e-01
<GCONST> 9.628289e+01
<MIXTURE> 3 4.769231e-01
<MEAN> 39
 -2.288775e+00 2.008971e+00 -1.981055e+00 3.313387e+00 -3.853662e+00 -4.161085e+00 -1.064056e+01 -4.122787e+00 4.247735e+00 -2.125927e+01 -6.276959e+00 -3.955299e+00 6.765625e+01 8.807908e-02 -5.403935e-01 -3.622708e-01 -3.842688e-01 6.219388e-01 3.437672e-01 -8.154593e-01 7.800094e-01 5.611193e-03 4.163081e-01 2.941428e-01 -5.768440e-01 3.420885e-01 -1.535166e-01 -8.128256e-01 -8.145579e-01 -5.724458e-01 9.238821e-01 2.616634e-02 -2.175623e-01 9.325095e-01 -1.758235e-01 3.612091e-01 2.742013e-01 -3.966120e-01 6.502790e-01
<VARIANCE> 39
 1.003602e+00 8.082259e+00 1.050913e+01 1.860142e+00 1.028606e+01 5.280126e+01 1.036473e+01 1.283617e+01 6.225926e+01 4.201871e+01 1.132209e+01 9.617597e+00 2.331684e+00 3.160726e-01 2.693118e+00 4.005129e+00 1.401193e+00 4.648974e+00 1.758214e+00 1.042418e+00 6.601431e+00 1.777260e+00 4.184693e+00 1.385879e+00 8.754431e-01 2.279919e+00 4.438967e-02 1.628484e-01 1.586715e-01 5.751973e-02 2.747540e-01 4.023069e-01 2.050248e-01 3.616932e-01 2.648153e-01 5.822533e-01 3.583911e-01 1.237459e-01 4.723854e-02
<GCONST> 8.748727e+01
<STATE> 5
<NUMMIXES> 3
<MIXTURE> 1 4.337350e-01
<MEAN> 39
 -3.043672e+00 -7.044203e+00 -8.268894e+00 -6.245966e+00 1.177512e+01 -5.817647e+00 -8.162306e+00 5.950280e+00 1.419325e-01 -1.192702e+01 -5.973891e+00 -7.538986e+00 7.706702e+01 -8.711755e-02 -2.054828e+00 -1.874418e+00 -1.801727e+00 2.704854e+00 1.355449e+00 2.916484e-01 9.915336e-01 -3.633348e-01 -4.860345e-01 7.998344e-01 -1.188772e+00 1.134971e+00 1.068550e-01 3.593016e-01 6.414298e-01 3.914302e-01 -3.838651e-01 2.010218e-02 3.187519e-01 -1.249698e+00 4.060371e-02 4.311646e-01 -4.296537e-02 8.062097e-02 -5.470158e-01
<VARIANCE> 39
 2.613986e+00 1.341895e+01 1.953101e+01 1.462351e+01 3.229309e+01 1.856048e+01 6.683273e+01 1.586041e+01 2.627600e+01 4.181541e+01 2.192949e+01 2.088609e+01 1.401950e+01 2.609946e-01 1.687664e+00 2.262012e+00 1.460930e+00 1.613539e+00 9.531044e-01 9.689176e-01 6.789098e+00 1.001101e+00 3.908113e+00 1.139171e+00 1.433909e+00 1.131867e+00 5.932391e-02 2.718040e-01 1.404586e-01 2.263643e-01 2.158206e-01 1.650005e-01 1.772497e-01 5.054289e-01 2.320693e-01 4.923915e-01 1.673836e-01 2.231995e-01 9.330702e-02
<GCONST> 9.353712e+01
<MIXTURE> 2 2.409639e-01
<MEAN> 39
 -6.068206e+00 4.475829e-01 1.109017e+01 -8.508532e+00 2.742612e+00 -7.967271e+00 -8.222312e+00 -2.523316e+01 1.952778e+01 -7.870973e+00 -5.746740e+00 1.784983e+00 6.759259e+01 -8.013144e-03 3.430274e-01 -4.583632e-02 4.152953e-01 -3.462950e-01 5.708979e-01 -6.816401e-01 1.452946e-01 -1.442276e-01 1.556447e-01 1.689482e-01 -6.941346e-02 -5.340323e-01 -1.484448e-03 -6.919869e-01 -1.177295e+00 -5.598899e-01 7.990186e-01 1.172037e-01 7.786524e-01 8.430579e-01 -6.720471e-01 8.892979e-02 -3.437838e-01 -5.661588e-01 4.915062e-01
<VARIANCE> 39
 1.743573e+00 2.575416e+00 6.119683e+00 3.878652e+00 5.831227e+00 6.003539e+00 5.382010e+00 1.015843e+01 4.665379e+00 1.027486e+01 1.208285e+01 6.996122e+00 6.786763e+00 1.318483e-01 2.062371e+00 8.996962e+00 2.097667e+00 4.270425e+00 5.094183e-01 3.141576e+00 4.663056e+00 2.530249e+00 5.310768e-01 2.031056e+00 2.103251e+00 1.262971e+00 2.110908e-02 4.115545e-02 1.608176e-01 1.348082e-01 1.478696e-01 1.223598e-01 6.734250e-02 1.746734e-01 5.942786e-02 7.533669e-02 2.595585e-01 3.517384e-01 3.476899e-02
<GCONST> 7.070685e+01
<MIXTURE> 3 3.253012e-01
<MEAN> 39
 1.105134e+00 -5.113000e-01 6.169009e+00 5.798677e-02 -2.327704e-01 -1.082101e+01 -5.250418e+00 -1.152584e+01 3.485647e+00 3.106722e+00 -9.971363e+00 -4.379875e+00 6.727682e+01 -6.299766e-02 -1.405977e-01 -1.963786e-01 -2.496301e-01 3.263681e-01 1.564822e-01 2.318823e-01 4.031794e-01 2.784309e-01 7.719327e-02 -1.527039e-01 -3.168972e-01 1.805626e-01 -1.765162e-01 -8.720905e-01 -1.234157e+00 -1.394906e+00 6.923580e-01 5.749691e-01 1.721094e-01 1.567831e+00 6.534431e-01 -1.208402e+00 -5.293193e-02 5.400764e-02 1.064667e+00
<VARIANCE> 39
 9.154879e+00 5.804143e+00 1.803570e+01 1.975800e+01 1.210986e+02 2.326603e+01 3.768063e+01 1.373844e+01 1.283117e+01 2.606641e+01 1.328130e+01 1.444939e+01 4.739348e+01 1.717197e-01 4.303692e+00 6.081287e+00 7.497675e+00 1.677090e+00 1.727338e+00 2.244620e+00 1.266609e+01 3.027664e+00 4.541549e+00 6.122434e-01 1.068753e+00 4.286652e+00 3.892248e-02 4.968447e-01 4.333740e-01 4.896934e-01 1.443468e-01 2.527807e-01 3.129384e-01 8.755631e-01 2.702278e-01 2.415413e-01 1.401481e-01 1.757060e-01 2.749604e-01
<GCONST> 1.044023e+02
<STATE> 6
<NUMMIXES> 3
<MIXTURE> 1 6.896552e-01
<MEAN> 39
 -1.750437e+00 -1.023034e+01 -1.053272e+01 -9.675908e+00 1.756472e+01 -4.411554e-02 -5.170648e+00 -8.034109e-01 -6.075470e-01 -8.101391e+00 -2.709517e+00 -1.084024e+01 7.531420e+01 3.085756e-01 1.778740e-01 -1.708179e-01 -2.021213e-01 2.108150e-01 9.508942e-01 3.297046e-01 -8.803080e-01 -1.109119e-01 7.121589e-01 3.621382e-01 -1.193093e-01 -8.081389e-01 -3.871720e-02 2.805547e-01 5.072194e-02 2.140372e-01 -3.049365e-01 -3.125732e-02 -1.346478e-01 2.614790e-01 -1.417397e-02 -2.492021e-02 -1.167199e-01 1.739952e-01 -1.783344e-01
<VARIANCE> 39
 7.797377e+00 1.540241e+01 7.546327e+00 1.151567e+01 1.009179e+01 1.738156e+01 5.140870e+01 1.307364e+01 3.220699e+01 1.261814e+01 2.259494e+01 1.514015e+01 1.387590e+01 3.304038e-01 8.527753e-01 4.791452e-01 9.741539e-01 9.222000e-01 6.839746e-01 5.133353e-01 1.659751e+00 1.255234e+00 6.967632e-01 6.402195e-01 9.340870e-01 2.100020e-01 4.364636e-02 1.074759e-01 8.691814e-02 7.996764e-02 1.204959e-01 1.323663e-01 8.471694e-02 2.628031e-01 2.171367e-01 1.325935e-01 1.093150e-01 1.801403e-01 1.928488e-02
<GCONST> 7.252419e+01
<MIXTURE> 2 1.724138e-01
<MEAN> 39
 1.372953e+00 -1.145686e+01 -5.758434e+00 -1.229555e+01 -2.269967e+00 -8.193287e-01 -5.130664e+00 -3.117145e+00 1.551906e+01 -8.861069e+00 -9.461602e+00 -5.848695e+00 7.149041e+01 -3.770499e-01 -1.608605e+00 -9.232330e-01 -1.196264e+00 2.013987e+00 1.713981e+00 2.289268e+00 -1.660025e+00 9.273849e-01 -6.161770e-01 2.902986e-01 -9.327086e-02 8.192039e-01 1.280048e-01 6.876525e-01 4.331484e-01 5.137170e-01 -1.139591e-01 -2.396820e-01 2.765196e-01 -1.119516e+00 -6.503383e-01 8.129591e-01 1.322673e-01 2.629176e-02 -7.800432e-01
<VARIANCE> 39
 3.675361e+00 9.276264e+00 5.683928e+00 3.292056e+00 1.845272e+01 3.569239e+01 3.918354e+01 3.083176e+01 2.706419e+01 1.895746e+01 1.228370e+01 1.872927e+01 9.479440e+00 2.416047e-01 2.231480e+00 1.557231e+00 3.000329e+00 1.193586e+00 1.925171e+00 9.620273e-01 8.995178e+00 3.778403e+00 5.221334e+00 8.073563e-01 9.752396e-01 3.038874e+00 4.199990e-02 8.542623e-02 1.709489e-01 2.065522e-01 9.820820e-02 3.030845e-01 3.500860e-01 1.596230e+00 4.510505e-01 4.832610e-01 1.150492e-01 1.490982e-01 1.248577e-01
<GCONST> 9.267897e+01
<MIXTURE> 3 1.379310e-01
<MEAN> 39
 -6.223367e+00 -7.111280e+00 -3.962151e+00 -1.508660e+01 1.240683e+01 -3.674856e+00 -1.938233e+00 -1.373741e+01 1.015529e+01 -6.854091e+00 -9.506022e+00 -7.115841e+00 7.169537e+01 -9.846073e-02 -1.920719e+00 -2.201458e+00 -1.441276e+00 1.911516e+00 9.589472e-01 1.403906e+00 1.258621e+00 -1.459098e+00 -8.707621e-01 1.904612e-01 -2.316289e+00 9.241118e-01 -6.896782e-03 4.664755e-01 9.877465e-01 3.787937e-01 -6.893048e-01 1.884527e-01 -3.991128e-01 -1.027770e+00 6.620724e-01 -2.488467e-01 6.306185e-01 5.247599e-01 -3.899564e-01
<VARIANCE> 39
 1.115458e+00 1.466849e+01 1.230161e+01 1.084861e+01 9.782216e+00 2.045921e+00 5.200504e+00 1.178280e+01 6.726879e+00 9.607490e+00 4.485962e+00 1.194537e+01 8.845339e+00 1.447984e-01 1.253402e+00 4.235016e+00 1.043875e+00 2.246602e+00 3.879813e-01 1.261951e+00 5.339536e+00 2.112501e+00 6.076798e-01 1.144617e+00 2.400797e+00 7.746202e-01 1.413554e-02 2.543832e-01 1.938090e-01 8.721564e-02 2.502216e-01 5.858424e-02 2.162061e-01 2.682759e-01 1.703085e-01 1.699620e-01 7.191587e-02 5.490150e-01 9.216375e-02
<GCONST> 7.342648e+01
<STATE> 7
<NUMMIXES> 3
<MIXTURE> 1 4.791667e-01
<MEAN> 39
 -2.238713e+00 -6.226989e+00 -1.135303e+01 -7.009992e+00 1.508883e+01 5.728920e+00 -5.612681e+00 -1.623181e+00 -1.096391e+00 -3.724220e+00 -3.258824e+00 -9.874813e+00 6.706853e+01 -7.316788e-01 1.127162e+00 3.686725e-01 1.210328e+00 -8.085925e-01 6.382508e-01 7.870703e-01 -2.896087e-02 -2.254844e-01 1.057983e+00 -6.204265e-01 4.110780e-01 -1.783672e+00 -1.530969e-01 -6.430424e-02 2.500055e-01 1.672956e-01 -1.774760e-01 -8.684647e-02 3.422854e-01 7.109737e-02 -2.247745e-02 -4.634242e-02 3.291269e-03 7.964343e-02 -3.421823e-02
<VARIANCE> 39
 9.898665e+00 2.535294e+01 7.244480e+00 2.888483e+01 1.307903e+01 3.195125e+01 4.207742e+01 2.136554e+01 8.548513e+00 1.658929e+01 9.144181e+00 9.261079e+00 1.951279e+01 2.389094e-01 3.945459e-01 1.292981e+00 1.376719e+00 1.106012e+00 8.955156e-01 1.625690e+00 1.232057e+00 1.119792e+00 9.653414e-01 6.428493e-01 1.153136e+00 2.642387e-01 5.546158e-02 1.041803e-01 1.298897e-01 2.640103e-01 1.843435e-01 2.019940e-01 1.549683e-01 1.993663e-01 2.621851e-01 2.281900e-01 1.723565e-01 2.476098e-01 6.439693e-02
<GCONST> 8.108747e+01
<MIXTURE> 2 4.687500e-01
<MEAN> 39
 -4.754038e+00 -9.536524e+00 -5.795948e+00 -1.652469e+01 1.292327e+01 2.541534e+00 2.391290e+00 -1.460936e+01 8.110717e+00 -6.911280e+00 -3.869369e+00 -7.875991e+00 6.875888e+01 -8.914743e-03 3.965160e-01 -3.407015e-01 7.873791e-02 3.461980e-01 5.755270e-01 1.661828e-01 4.026466e-02 -3.668848e-01 3.826676e-01 4.918589e-01 1.811779e-01 -1.008165e+00 -5.932834e-02 1.491131e-01 -1.129013e-02 1.305936e-01 -9.665649e-02 -5.735382e-02 -2.120350e-01 3.003761e-01 -1.361226e-02 -5.112920e-02 -6.459270e-02 5.164393e-02 -1.789859e-01
<VARIANCE> 39
 1.497981e+01 7.709136e+00 7.925092e+00 1.831857e+01 1.152341e+01 1.752710e+01 2.495611e+01 6.649986e+00 8.905874e+00 2.264520e+01 1.757727e+01 1.166427e+01 1.211551e+01 1.435120e-01 3.502500e-01 4.510223e-01 8.301138e-01 6.489004e-01 6.294163e-01 1.084670e+00 1.063157e+00 7.643535e-01 1.410338e+00 5.822620e-01 2.794718e-01 3.951935e-01 4.783364e-02 6.216770e-02 7.091529e-02 7.323036e-02 1.412005e-01 7.029756e-02 2.014410e-01 2.123425e-01 1.313310e-01 2.527527e-01 7.501984e-02 9.868034e-02 6.206426e-02
<GCONST> 6.762003e+01
<MIXTURE> 3 5.208333e-02
<MEAN> 39
 1.670922e+00 -7.410557e+00 -2.749822e+00 -1.471098e+01 -5.141680e+00 1.606582e+01 -2.594012e+00 -1.559866e+01 2.285963e+01 -3.827872e+00 -4.454400e+00 -9.407265e+00 6.255604e+01 -4.537920e-01 3.081768e-01 2.602513e-02 6.196269e-01 1.765612e-01 1.377811e+00 7.506613e-01 6.576858e-01 -1.911497e+00 1.807184e+00 1.160219e-01 1.011527e+00 -1.590646e+00 -2.063966e-01 -8.817577e-02 -5.597803e-01 4.831016e-01 3.550291e-01 -4.550087e-01 -2.006717e-01 1.133589e+00 -4.327228e-01 3.862118e-01 -3.438427e-02 6.747085e-02 -2.623489e-01
<VARIANCE> 39
 5.574687e-01 3.961221e+00 1.299829e+00 3.197880e+00 2.189050e+00 5.360973e+00 3.596660e+00 1.038813e+01 1.173172e+01 5.686526e+00 1.069303e+00 3.385961e+00 5.220313e+00 6.753747e-02 7.457141e-01 1.454737e+00 7.440913e-01 1.263924e+00 1.004194e-01 6.877204e-01 2.038560e+00 9.228624e-01 7.812914e-02 1.698263e-02 2.244610e-01 1.000000e-02 7.663244e-02 1.787862e-01 6.214505e-02 2.552128e-02 2.557473e-01 1.598804e-01 1.415285e-01 3.492938e-01 7.192823e-01 4.620051e-02 4.664953e-02 8.112125e-02 3.886709e-02
<GCONST> 4.050740e+01
<STATE> 8
<NUMMIXES> 3
<MIXTURE> 1 1.645570e-01
<MEAN> 39
 -3.539056e+00 -7.317194e-01 -6.013005e+00 -5.702902e+00 1.406000e+01 4.827337e+00 5.705588e+00 6.260553e+00 -1.669073e+00 2.562256e+00 -7.158822e+00 -9.316208e+00 6.370739e+01 -6.567380e-01 -2.788980e-02 9.406885e-01 1.615956e+00 -1.704630e+00 2.124833e-01 -6.665447e-02 5.168822e-01 2.539378e-01 -1.864171e-01 4.953393e-01 1.009223e+00 -1.521535e+00 -8.533338e-02 -2.148115e-01 3.695051e-02 8.805001e-02 -2.297785e-01 -3.838072e-01 -3.174487e-01 -4.771624e-01 1.039027e-01 -8.463200e-02 4.331420e-01 5.186166e-01 5.677765e-02
<VARIANCE> 39
 1.128335e+01 4.556341e+00 1.414185e+01 4.451684e+00 1.197552e+01 4.828969e+00 1.288588e+01 2.233266e+01 1.306555e+01 1.772335e+01 5.898771e+00 1.010312e+01 6.184811e+00 4.912224e-01 7.531341e-01 1.928282e-01 6.741511e-01 3.042926e+00 1.265753e+00 1.422764e+00 1.988145e+00 1.161645e+00 2.199321e+00 7.519338e-01 9.988483e-01 1.002373e+00 1.183163e-01 1.561446e-01 7.355119e-02 1.579605e-01 7.108186e-01 8.467492e-02 1.889386e-01 3.953690e-01 1.880657e-01 6.591279e-01 4.575643e-02 1.451448e-01 2.002036e-01
<GCONST> 7.827968e+01
<MIXTURE> 2 6.075949e-01
<MEAN> 39
 -8.092195e+00 -2.337048e+00 -6.137503e+00 -5.816830e-01 6.897200e+00 6.451770e+00 2.501992e-01 -2.008964e+00 4.915239e-02 -1.806999e-01 -1.450835e+00 -4.257754e+00 5.530232e+01 -8.841211e-01 4.672767e-01 7.582748e-01 1.252831e+00 -9.742483e-01 -4.593863e-01 5.468023e-01 5.266513e-01 -1.039237e-01 6.560947e-01 1.160668e+00 1.315661e+00 -1.185269e+00 1.554846e-01 -1.160365e-01 -1.511731e-01 -2.782435e-01 2.564213e-01 8.557039e-03 -1.521748e-01 -1.445189e-01 7.140075e-02 -2.219842e-01 9.736876e-02 -3.895986e-04 3.287762e-01
<VARIANCE> 39
 7.195349e+00 1.768552e+01 2.076914e+01 1.898854e+01 1.111787e+01 2.430837e+01 1.232415e+01 1.790707e+01 2.708725e+01 1.820381e+01 1.112805e+01 1.139417e+01 2.302451e+01 5.434660e-01 3.743609e-01 8.818448e-01 1.535143e+00 1.938116e+00 2.100597e+00 1.509187e+00 2.078626e+00 1.683897e+00 1.595886e+00 1.104828e+00 9.249814e-01 7.201801e-01 9.836859e-02 4.146770e-02 1.079143e-01 2.443718e-01 2.567979e-01 3.734438e-01 3.063880e-01 2.363024e-01 3.188910e-01 2.638438e-01 2.522413e-01 1.869382e-01 9.393421e-02
<GCONST> 8.761424e+01
<MIXTURE> 3 2.278481e-01
<MEAN> 39
 -4.469566e+00 -7.427303e+00 -9.954824e+00 -1.246161e+01 1.154755e+01 5.531229e+00 2.611137e+00 -9.443014e+00 6.519672e+00 -2.858510e+00 -4.129242e+00 -5.683620e+00 5.884806e+01 -1.519205e+00 1.277907e+00 8.420552e-02 1.492376e+00 -7.172707e-01 5.526809e-01 -5.767297e-01 2.117221e+00 -2.392453e-01 1.089628e+00 8.899406e-01 -9.490997e-03 -3.325384e+00 -1.824547e-01 1.622953e-01 3.798739e-01 4.233851e-01 -4.797108e-01 -2.587878e-01 1.198334e-01 2.076050e-01 1.011190e-02 4.011064e-01 1.907944e-01 8.235690e-02 -2.821697e-01
<VARIANCE> 39
 1.749010e+01 1.576630e+01 1.676032e+01 3.595902e+01 2.733883e+01 3.803553e+01 2.219650e+01 1.702317e+01 2.284220e+01 2.046834e+01 7.804052e+00 4.054223e+00 2.680812e+01 1.528082e+00 7.193069e-01 1.336046e+00 1.111972e+00 2.228507e+00 2.498219e+00 1.311984e+00 7.611983e-01 7.934667e-01 1.774655e+00 3.654518e-01 1.230529e+00 6.363451e-01 2.303156e-01 1.241972e-01 1.339152e-01 1.711584e-01 1.306384e-01 3.586668e-01 5.870289e-02 1.393060e-01 1.916330e-01 2.245958e-01 3.906648e-02 1.638799e-01 2.663906e-01
<GCONST> 8.605061e+01
<TRANSP> 9
 0.000000e+00 1.000000e+00 0.000000e+00 0.000000e+00 0.000000e+00 0.000000e+00 0.000000e+00 0.000000e+00 0.000000e+00
 0.000000e+00 8.484849e-01 1.515152e-01 0.000000e+00 0.000000e+00 0.000000e+00 0.000000e+00 0.000000e+00 0.000000e+00
 0.000000e+00 0.000000e+00 8.351648e-01 1.648352e-01 0.000000e+00 0.000000e+00 0.000000e+00 0.000000e+00 0.000000e+00
 0.000000e+00 0.000000e+00 0.000000e+00 7.692308e-01 2.307692e-01 0.000000e+00 0.000000e+00 0.000000e+00 0.000000e+00
 0.000000e+00 0.000000e+00 0.000000e+00 0.000000e+00 8.192771e-01 1.807229e-01 0.000000e+00 0.000000e+00 0.000000e+00
 0.000000e+00 0.000000e+00 0.000000e+00 0.000000e+00 0.000000e+00 8.275862e-01 1.724138e-01 0.000000e+00 0.000000e+00
 0.000000e+00 0.000000e+00 0.000000e+00 0.000000e+00 0.000000e+00 0.000000e+00 8.437500e-01 1.562500e-01 0.000000e+00
 0.000000e+00 0.000000e+00 0.000000e+00 0.000000e+00 0.000000e+00 0.000000e+00 0.000000e+00 8.101266e-01 1.898734e-01
 0.000000e+00 0.000000e+00 0.000000e+00 0.000000e+00 0.000000e+00 0.000000e+00 0.000000e+00 0.000000e+00 0.000000e+00
<ENDHMM>
