~o
<STREAMINFO> 1 39
<VECSIZE> 39<NULLD><MFCC_D_A_0><DIAGC>
~h "yon"
<BEGINHMM>
<NUMSTATES> 8
<STATE> 2
<NUMMIXES> 3
<MIXTURE> 1 5.121951e-01
<MEAN> 39
 -4.581047e+00 -2.912929e-01 1.111600e+01 -1.465804e+00 -1.346303e+01 -4.987234e+00 -5.939724e+00 -2.070195e+00 -5.255882e+00 -3.513435e+00 3.589935e+00 -1.055364e+00 7.103164e+01 1.260483e+00 -2.088319e+00 -3.203054e+00 -5.800872e-01 1.045248e+00 -1.819728e+00 -5.069787e-01 1.637230e+00 1.997712e+00 3.698725e-01 -1.130860e+00 -9.935498e-01 2.317621e+00 -7.495688e-02 1.595078e-02 -1.068279e+00 -3.538775e-01 1.522928e+00 7.304373e-01 -1.847425e-01 -2.221646e-01 7.985596e-01 1.649687e-01 -4.239860e-01 -5.106447e-01 -4.411384e-01
<VARIANCE> 39
 1.028625e+01 1.945666e+01 4.302869e+01 3.712856e+01 6.944109e+01 3.875269e+01 5.038713e+01 3.522050e+01 4.738932e+01 6.560280e+01 2.910597e+01 2.611015e+01 2.309755e+01 2.211208e-01 2.332384e+00 9.875089e+00 1.891541e+00 1.260157e+01 2.506385e+00 2.513993e+00 1.557768e+00 6.946686e+00 2.551676e+00 1.674581e+00 1.274759e+00 9.084853e-01 4.040009e-02 5.688922e-01 8.295662e-01 4.613600e-01 1.467530e+00 1.150453e+00 4.134677e-01 7.790933e-01 9.787525e-01 4.765344e-01 4.128296e-01 2.795386e-01 1.853571e-01
<GCONST> 1.182169e+02
<MIXTURE> 2 1.219512e-01
<MEAN> 39
 -9.203328e+00 2.941415e+00 2.154331e+01 -1.777478e+01 -6.542669e+00 -6.744290e+00 -1.172508e+01 -1.086996e+01 6.980731e+00 -1.420836e+01 7.767497e+00 9.072796e-01 6.604300e+01 6.467738e-01 -1.738643e+00 2.561693e-01 2.026233e-01 -1.342046e+00 -1.609504e+00 -1.112644e-01 -3.965143e-01 4.244770e-01 2.825772e-01 -8.251015e-01 7.045327e-01 2.614466e+00 2.679582e-01 -5.499206e-01 -1.632083e+00 1.077279e+00 3.197001e-01 1.753965e-01 7.432063e-01 8.767028e-01 7.610452e-02 5.909519e-01 -5.066864e-01 -2.121291e-01 -4.774465e-01
<VARIANCE> 39
 1.221780e+00 2.154391e+01 7.490155e+00 1.116531e+01 1.267605e+01 1.407475e+01 7.401183e+00 3.309130e+01 4.847371e+01 6.218065e+00 2.821208e+01 1.062016e+01 9.758888e+00 3.419906e-01 1.321939e+00 8.406830e+00 6.921559e+00 6.620587e-01 9.937450e-01 4.330892e+00 5.690251e+00 1.672007e+00 2.786541e+00 1.583542e+00 7.105164e-01 1.438594e+00 6.135542e-02 2.143704e-01 2.664590e-01 9.601905e-01 3.381433e-01 2.453779e-01 9.363041e-01 3.001971e-01 6.020454e-01 6.443831e-01 5.621292e-01 5.191051e-01 1.010769e-01
<GCONST> 9.790115e+01
<MIXTURE> 3 3.658537e-01
<MEAN> 39
 -7.262104e+00 6.430289e+00 1.829820e+01 6.092412e-01 -1.506324e+01 1.550228e+00 -1.195710e+01 -8.755635e+00 -7.341015e+00 -1.081458e+01 5.826964e+00 -4.934537e+00 6.159568e+01 1.253519e+00 -6.572753e-01 1.586004e+00 -1.131059e+00 -4.373612e+00 -2.042722e+00 -1.817649e+00 -9.040089e-01 -1.368340e+00 -5.306215e-01 1.517105e+00 -5.212897e-01 3.602993e+00 -2.670565e-02 -1.009717e+00 -2.106622e+00 5.904360e-02 1.152121e+00 -4.117618e-01 7.618908e-01 9.189656e-01 8.935419e-01 8.467990e-01 -3.668193e-01 4.222398e-01 -1.602589e-01
<VARIANCE> 39
 5.116227e+00 1.175733e+01 7.246823e+01 3.190251e+01 9.190352e+01 1.347892e+01 1.585197e+01 2.273226e+01 3.408624e+01 6.106147e+01 3.186938e+01 6.585358e+00 2.146503e+01 6.216388e-01 2.760439e+00 1.267262e+01 2.055829e+00 5.219223e+00 1.772049e+00 5.233896e+00 2.631195e+00 2.099393e+00 5.122405e+00 2.167172e+00 1.680905e+00 1.270490e+00 6.748244e-02 2.050165e-01 7.705415e-01 4.753099e-01 1.530323e+00 2.695619e-01 5.558326e-01 3.667438e-01 7.559474e-01 7.052641e-01 6.868663e-01 2.200761e-01 2.404773e-01
<GCONST> 1.134328e+02
<STATE> 3
<NUMMIXES> 3
<MIXTURE> 1 2.307692e-01
<MEAN> 39
 1.182438e+00 -3.935606e+00 -6.155981e+00 -7.752906e+00 3.527508e+00 -3.004127e-01 -2.344536e+00 9.309801e-01 3.686719e+00 6.197726e+00 -5.116240e+00 -6.996139e+00 8.058755e+01 4.008226e-01 6.847320e-01 -2.868121e+00 -1.643911e+00 2.090477e+00 2.446617e+00 -1.119317e-02 -1.619594e+00 -2.129747e-01 3.916817e-01 3.755183e-01 -2.910635e-01 9.932484e-02 -1.372342e-01 2.583496e-01 7.692633e-01 3.891923e-02 -8.169056e-01 2.283783e-01 5.652650e-01 1.424318e-01 -1.132634e+00 -4.684312e-01 4.963624e-01 5.501162e-01 -2.903669e-01
<VARIANCE> 39
 6.866833e-01 4.513293e+00 2.336654e+01 9.621928e+00 2.131909e+01 2.441359e+01 7.627032e+00 1.494563e+01 6.554618e+00 1.031526e+01 1.118742e+01 6.567282e+00 1.938355e-01 9.410074e-02 2.610307e-01 1.577343e+00 3.156797e-01 3.509764e+00 1.785104e+00 1.632057e+00 1.494588e+00 5.794835e+00 1.745540e+00 2.662870e+00 2.000802e+00 2.074218e-01 1.445680e-02 2.157122e-01 5.371450e-02 1.126790e-01 2.757618e-01 5.921919e-01 7.533943e-02 6.740274e-01 3.805114e-01 2.502495e-01 4.433736e-01 1.409316e-01 2.968272e-02
<GCONST> 7.250979e+01
<MIXTURE> 2 5.076923e-01
<MEAN> 39
 -4.287144e+00 -2.669888e+00 -8.036326e+00 -8.527383e+00 1.192782e+00 -1.947557e+00 -1.490173e+01 -8.303833e+00 3.069695e+00 -7.544346e+00 2.046877e+00 -9.211834e+00 7.415791e+01 5.123916e-01 9.046285e-02 -2.223563e+00 -2.553998e+00 1.900098e+00 2.248043e+00 1.393444e+00 -1.647035e+00 -9.126563e-01 -2.189521e-02 2.167234e-01 4.800288e-02 1.688605e-01 -6.384995e-02 3.385326e-01 9.320462e-01 2.310201e-02 -8.715303e-01 -2.392529e-02 8.787802e-01 1.745303e-01 -9.927952e-01 -5.513054e-01 2.671874e-01 6.944836e-01 -3.081140e-01
<VARIANCE> 39
 2.790071e+00 4.650639e+00 1.965902e+01 3.404055e+01 2.503837e+01 3.846077e+01 8.728502e+01 4.236273e+01 3.107593e+01 2.386072e+01 3.752876e+01 1.449651e+01 6.276450e+00 1.236996e-01 4.026546e-01 2.457943e+00 2.470974e+00 3.227830e+00 1.974360e+00 4.553504e+00 1.956374e+00 7.101061e+00 4.582757e+00 1.773564e+00 4.809617e+00 2.148710e-01 3.959572e-02 1.157855e-01 8.054651e-02 2.518251e-01 2.279444e-01 5.939441e-01 5.791885e-01 9.350305e-01 7.155717e-01 8.748302e-01 5.052300e-01 4.239843e-01 2.771900e-02
<GCONST> 1.000174e+02
<MIXTURE> 3 2.615385e-01
<MEAN> 39
 1.493907e+00 -1.001453e+01 -9.445747e-01 -1.101657e+01 -1.080686e+01 -6.657235e+00 -1.234487e+01 -6.654236e+00 1.036041e+01 -3.158620e+00 1.938974e+00 -9.565108e+00 7.213266e+01 8.702463e-01 -7.249642e-01 -4.117608e+00 -2.159333e+00 3.341938e+00 3.052626e+00 -2.793292e-01 -2.202730e+00 2.204449e+00 9.627977e-01 -1.121545e+00 -2.049408e+00 5.542572e-01 -2.547529e-01 6.775357e-01 9.777586e-01 -4.386128e-01 -2.866129e-01 1.092194e+00 2.375855e-01 -8.393490e-01 -1.037321e+00 -5.982774e-01 5.606175e-01 7.189148e-01 -3.787807e-01
<VARIANCE> 39
 1.584788e+01 8.759560e+00 3.805912e+01 2.207938e+01 3.267714e+01 5.316876e+01 7.584600e+00 3.972547e+01 2.653942e+01 5.144386e+01 8.506866e+00 3.648587e+01 2.071097e+00 1.646650e-01 9.134393e-01 2.424170e+00 2.246063e+00 1.403598e+00 4.720049e+00 9.343845e-01 2.558134e+00 3.001855e+00 4.080031e+00 2.296214e+00 3.966191e+00 3.076164e-01 2.110627e-02 7.415516e-02 2.650254e-01 3.890573e-01 2.121263e-01 1.290576e+00 1.371361e-01 1.239327e+00 2.775769e-01 8.549981e-01 3.236681e-01 1.119557e+00 2.929441e-02
<GCONST> 9.851229e+01
<STATE> 4
<NUMMIXES> 3
<MIXTURE> 1 5.238096e-01
<MEAN> 39
 -3.561109e-01 -8.795577e-01 -8.275036e+00 -1.327704e+01 4.062732e+00 -3.153100e-01 1.503424e+00 -4.953435e+00 -8.394348e+00 -3.095323e+00 -6.145530e-01 -7.498831e+00 7.396426e+01 1.041087e-01 2.600991e-01 3.188262e-01 6.903058e-02 -7.396804e-01 1.524474e-01 7.734811e-01 1.038996e+00 -1.054119e+00 -3.879682e-01 -1.157909e+00 2.172682e-01 -4.589253e-01 -7.338244e-02 -1.258004e-02 1.901024e-01 2.830884e-01 -9.167943e-02 -1.051892e-01 -2.361573e-01 1.146532e-01 4.493392e-01 1.015031e-01 -3.482069e-01 -7.728241e-02 -9.448878e-02
<VARIANCE> 39
 7.294225e+00 4.106123e+00 9.886471e+00 4.203155e+01 1.046512e+01 5.341435e+01 3.341041e+01 3.039995e+01 1.145419e+01 4.228137e+01 3.846451e+01 7.386083e+00 1.530185e+01 7.324126e-02 1.709559e-01 1.486644e-01 5.378177e-01 7.264546e-01 7.336859e-01 7.690012e-01 4.136398e-01 1.433625e+00 1.161896e+00 1.169016e+00 2.267174e-01 1.074490e-01 1.496677e-02 3.554362e-02 6.714092e-02 1.000276e-01 1.530386e-01 1.303859e-01 1.199467e-01 1.609100e-01 1.351968e-01 1.886746e-01 2.560757e-01 8.180537e-02 1.000000e-02
<GCONST> 6.464235e+01
<MIXTURE> 2 2.738095e-01
<MEAN> 39
 -2.579297e+00 -1.202957e+00 -6.961777e+00 -1.940904e+01 -4.257079e+00 9.440629e+00 -5.062181e+00 -9.262540e+00 3.144628e+00 -2.026864e+01 9.135944e-01 -9.861215e-01 7.400014e+01 4.879069e-01 2.789051e-01 9.931846e-01 -3.013017e-01 -8.545891e-01 9.695036e-03 1.197783e+00 1.769915e+00 6.908728e-02 -2.991183e-01 -1.175762e+00 -2.831826e-01 -6.655243e-01 -2.310975e-02 -3.311713e-02 2.194008e-01 7.608656e-01 -4.568311e-02 -5.215243e-01 -7.655032e-01 3.109978e-01 1.673322e-01 1.033663e+00 -9.722041e-02 -5.989056e-01 -7.011730e-02
<VARIANCE> 39
 3.041927e+00 2.731952e+00 4.188850e+01 5.368733e+00 8.293092e+00 1.143983e+01 2.181521e+01 6.069688e+01 2.823854e+01 4.029243e+01 1.063751e+01 1.138537e+01 1.572711e+00 2.943427e-01 3.351502e-01 6.560032e-01 2.678655e+00 6.321297e-01 8.858218e-01 4.790702e+00 1.463928e+00 9.378201e-01 6.471447e+00 1.024949e+00 2.757863e+00 2.020581e-01 3.613486e-02 6.360985e-02 1.598317e-01 2.763005e-01 1.739352e-01 8.827496e-02 4.250590e-01 5.902056e-01 3.256647e-01 5.972072e-01 2.745755e-01 4.712650e-01 1.659173e-02
<GCONST> 8.156060e+01
<MIXTURE> 3 2.023810e-01
<MEAN> 39
 4.967636e+00 -1.005032e+01 -8.675391e+00 -2.200184e+01 -6.707178e+00 1.034848e+01 -1.253077e+01 -1.291666e+01 6.447223e+00 -7.649466e+00 5.388626e+00 -5.951943e+00 7.085026e+01 -1.997399e-02 6.600992e-01 -1.721523e-02 -3.172733e-01 -2.459537e-01 6.671959e-01 8.256851e-01 4.764250e-01 -1.739430e+00 -1.751996e+00 1.474420e+00 9.405485e-01 -4.725654e-01 -4.429947e-03 2.207713e-01 2.367996e-01 8.389630e-01 -5.232246e-01 -9.401571e-01 2.469030e-01 3.872916e-01 -2.627131e-01 4.877616e-01 -8.268231e-02 -5.015339e-01 -2.039517e-01
<VARIANCE> 39
 3.233435e-01 7.972320e+00 5.856339e+00 5.833190e+00 6.870518e+00 1.981709e+01 8.061367e+00 1.899112e+01 1.231165e+01 1.738718e+01 2.378327e+01 1.138413e+01 7.441191e-01 9.946869e-02 3.084273e-01 5.843144e-01 2.483104e+00 1.283133e+00 3.527178e+00 1.182360e+00 1.634812e+00 2.566771e-01 1.922232e+00 1.087266e+00 3.574813e+00 1.847446e-01 3.125051e-02 1.741848e-02 2.357313e-01 3.605938e-02 2.014130e-01 1.494638e-01 1.455636e-01 4.023224e-01 1.167925e-01 5.175629e-01 4.785423e-01 4.196988e-01 1.134578e-02
<GCONST> 6.727674e+01
<STATE> 5
<NUMMIXES> 3
<MIXTURE> 1 2.428571e-01
<MEAN> 39
 2.168738e+00 3.368304e-01 -4.467778e+00 -8.817475e+00 1.460542e+00 8.905809e+00 6.870419e+00 5.292899e+00 -9.844750e+00 1.531770e+00 -1.661386e+01 -6.907616e+00 7.329332e+01 -4.500188e-01 8.316557e-01 1.526036e+00 1.556477e+00 4.726727e-01 -1.049114e+00 -2.924006e-01 2.399615e-01 8.638729e-02 -4.048087e-01 -1.605530e+00 -8.080640e-01 -1.392109e+00 -1.133163e-01 1.190977e-01 9.548772e-02 1.683635e-01 3.642020e-01 -3.240819e-01 -3.865973e-01 -2.321272e-01 1.902638e-01 -5.154233e-02 6.214266e-01 3.781329e-02 -1.016947e-01
<VARIANCE> 39
 2.611115e+00 4.033983e+00 1.281044e+01 7.664236e+00 3.191169e+00 1.188255e+01 7.251766e+00 5.044011e+00 2.790552e+00 2.501114e+00 1.707469e+01 6.148696e+00 6.595040e+00 2.446919e-01 3.974407e-01 5.769442e-01 4.474654e-01 1.303815e+00 1.857504e+00 1.624010e+00 6.638749e-01 3.550755e-01 3.423631e-01 3.374456e+00 3.796724e-01 1.683257e-01 5.844077e-02 1.069522e-01 1.524245e-01 6.968375e-02 1.125514e-01 3.436905e-01 1.803056e-01 5.452792e-02 6.291178e-02 7.833566e-02 3.186036e-01 1.590658e-01 3.271638e-02
<GCONST> 5.876097e+01
<MIXTURE> 2 5.571429e-01
<MEAN> 39
 -1.894265e+00 1.033331e+00 -3.411671e+00 -1.046190e+01 -2.506182e+00 4.183470e-01 -4.719563e+00 -3.470309e+00 -2.325804e+00 -7.864562e+00 -4.654215e+00 -5.629357e+00 6.856314e+01 -2.352500e-01 6.857711e-01 9.511464e-01 1.678808e+00 3.588562e-01 -3.771739e-01 -5.557588e-01 -7.350612e-01 -3.230728e-01 1.054628e+00 -4.417257e-01 5.888618e-01 -9.212393e-01 -1.116689e-01 8.200929e-02 3.498107e-02 5.421034e-02 2.846006e-01 -8.092452e-03 5.653987e-02 -5.183269e-01 -2.019026e-01 -2.943336e-01 7.583522e-02 3.277495e-01 -4.388105e-02
<VARIANCE> 39
 3.472349e+00 3.835130e+00 1.439668e+01 4.584133e+01 1.766176e+01 4.460352e+01 2.992017e+01 3.213109e+01 6.588625e+01 3.300134e+01 5.644635e+00 9.050934e+00 5.126966e+00 1.111849e-01 5.122215e-01 6.517330e-01 1.027482e+00 1.130154e+00 9.517934e-01 1.111154e+00 1.652221e+00 1.439223e+00 2.970435e+00 9.265280e-01 1.205398e+00 8.700058e-02 1.337197e-02 7.961170e-02 8.755665e-02 1.501249e-01 1.827767e-01 9.355529e-02 1.911487e-01 2.419005e-01 2.191886e-01 2.244490e-01 2.498109e-01 1.185969e-01 1.971672e-02
<GCONST> 7.530706e+01
<MIXTURE> 3 2.000000e-01
<MEAN> 39
 5.650323e+00 -4.424732e+00 -6.698677e+00 -1.326800e+01 -1.041890e+01 5.438190e+00 -6.954902e+00 -1.159166e+01 -2.878544e+00 -5.110786e+00 7.551769e+00 -8.581674e+00 6.527811e+01 7.759539e-02 1.044891e+00 1.511966e+00 3.020546e+00 -4.561266e-01 -1.090925e+00 5.564524e-01 -1.404816e+00 -1.176982e+00 2.043601e+00 -5.833886e-01 -4.192496e-01 -1.451706e+00 -1.081298e-01 -1.495968e-01 4.481583e-01 1.460589e-02 7.776251e-02 1.992293e-01 -2.824082e-01 -5.067517e-01 2.765529e-01 2.458213e-01 -2.450408e-01 2.259934e-01 3.610065e-03
<VARIANCE> 39
 1.410006e+00 7.407110e+00 1.345840e+01 2.634345e+01 2.156193e+01 6.225602e+00 5.451622e+00 2.122375e+01 1.353664e+01 1.464808e+01 5.270674e+00 3.909380e+00 6.874046e+00 2.923858e-01 6.362571e-01 1.598301e+00 8.666917e-01 9.477364e-01 7.129654e-01 1.027991e+00 2.064382e+00 8.428617e-01 6.864012e-01 5.905711e-01 1.062606e+00 2.120421e-01 4.765766e-02 1.213781e-01 1.984441e-01 3.660311e-01 1.780035e-01 3.681486e-02 2.064321e-01 3.643696e-01 8.029041e-02 1.078200e-01 9.943144e-02 1.635421e-01 4.305733e-02
<GCONST> 6.882438e+01
<STATE> 6
<NUMMIXES> 3
<MIXTURE> 1 3.536585e-01
<MEAN> 39
 -1.929158e+00 2.722253e+00 2.239486e+00 -2.027143e+00 4.108706e+00 1.516471e+00 -2.464764e+00 7.968543e-01 -7.032543e+00 -7.104876e-01 -1.385776e+01 -5.007767e+00 6.507354e+01 -8.148534e-01 -2.122239e-01 1.137394e+00 6.783808e-01 6.356678e-01 -1.028033e+00 7.102241e-01 -3.415804e-01 2.952735e-01 1.235364e+00 4.224426e-02 1.104383e+00 -1.182409e+00 -5.679413e-02 -1.753021e-01 -2.575781e-01 -2.158278e-01 -2.843067e-01 2.734623e-01 4.588122e-01 2.049970e-01 3.148988e-01 -2.670214e-02 3.770383e-01 1.687473e-01 -1.623211e-02
<VARIANCE> 39
 5.253744e+00 3.591644e+00 1.691914e+01 6.788150e+00 1.994915e+01 9.045362e+00 3.582841e+01 1.741707e+01 6.677327e+00 1.375603e+01 1.806464e+01 1.428892e+01 5.587509e+00 4.036317e-01 5.702790e-01 7.478296e-01 4.682182e-01 9.599944e-01 8.583661e-01 2.381895e+00 5.394406e-01 1.562225e+00 1.121320e+00 1.482448e+00 7.780747e-01 2.184138e-01 7.363182e-02 1.468504e-01 2.889239e-01 1.513150e-01 1.955756e-01 2.290232e-01 2.656912e-01 1.119333e-01 1.909057e-01 3.114878e-01 2.115478e-01 1.830532e-01 5.085222e-02
<GCONST> 7.617456e+01
<MIXTURE> 2 2.439024e-01
<MEAN> 39
 4.039393e+00 -1.771795e+00 3.254492e+00 -2.156672e+00 -1.209129e+01 4.141967e-01 -5.560629e+00 -1.723927e+01 -6.363166e+00 6.003897e+00 3.326105e+00 -1.083055e+01 5.925651e+01 -7.290792e-01 6.955415e-04 1.050247e+00 1.256990e+00 3.405807e-01 -6.738022e-01 1.610656e-01 -4.307666e-01 -5.908442e-01 1.694068e+00 -3.879717e-01 -4.287280e-01 -8.618465e-01 -1.758895e-01 8.056645e-03 -4.182248e-01 -1.893354e-01 2.709312e-01 6.427143e-02 6.894702e-02 2.107558e-01 8.051386e-02 -1.702550e-01 1.491659e-01 1.281831e-01 -7.615092e-02
<VARIANCE> 39
 4.531055e+00 1.115010e+01 1.044052e+01 8.120685e+00 1.334137e+01 1.301797e+01 1.170499e+01 1.870223e+01 1.503830e+01 3.100933e+01 1.012519e+01 1.026571e+01 5.873533e+00 3.242390e-01 1.298453e+00 8.634781e-01 8.070800e-01 1.638570e+00 9.978340e-01 6.951964e-01 1.095913e+00 6.092108e-01 8.308638e-01 1.147036e+00 1.064309e+00 1.656196e-01 4.995895e-02 3.509836e-01 1.680509e-01 1.926701e-01 2.615832e-01 1.463871e-01 1.501410e-01 2.915120e-01 2.119730e-01 2.023419e-01 1.197001e-01 3.597321e-01 1.075518e-01
<GCONST> 7.746957e+01
<MIXTURE> 3 4.024390e-01
<MEAN> 39
 -5.677422e+00 6.029366e+00 2.297287e+00 -5.623204e-01 1.045421e+00 -2.910303e+00 -4.053047e+00 -1.073264e+01 -5.869507e+00 -9.396224e+00 -5.800163e+00 -5.356765e-01 6.345325e+01 -6.890263e-01 2.997969e-01 8.515477e-01 9.483771e-01 5.605770e-01 3.098470e-01 1.077959e-01 1.743338e-01 1.301968e-01 -2.413018e-01 -5.978303e-02 2.172529e-02 -6.407753e-01 -3.957512e-02 -2.201384e-01 -1.489249e-01 -2.274478e-01 2.204500e-03 9.551784e-02 1.255203e-01 3.570677e-01 2.127843e-01 3.873082e-01 7.333086e-02 -2.180955e-01 3.275444e-02
<VARIANCE> 39
 2.343446e+00 4.683361e+00 7.657697e+00 4.753981e+01 8.712902e+00 1.442136e+01 8.834114e+00 3.345398e+01 5.344917e+01 2.491254e+01 1.397036e+01 1.541664e+01 2.193134e+00 1.504010e-01 4.665541e-01 2.017905e-01 8.384877e-01 6.830974e-01 1.089979e+00 1.188721e+00 2.024500e+00 2.090672e+00 2.585191e+00 1.722277e+00 1.845146e+00 9.730183e-02 2.898887e-02 2.890407e-02 4.238463e-02 5.269044e-02 1.103934e-01 2.011236e-01 2.180033e-01 3.689374e-01 4.215327e-01 3.414127e-01 4.361693e-01 3.385505e-01 2.279532e-02
<GCONST> 7.335817e+01
<STATE> 7
<NUMMIXES> 3
<MIXTURE> 1 6.478873e-01
<MEAN> 39
 -7.361896e+00 2.113181e+00 3.493289e+00 2.332243e+00 5.469329e+00 -1.047223e+00 1.697273e+00 -1.876844e+00 -2.824362e+00 1.552672e+00 -6.318818e+00 -1.346061e+00 5.922671e+01 -4.795930e-01 -3.139645e-01 -7.583780e-01 3.180603e-01 -2.426663e-01 4.226514e-01 4.016529e-01 4.037073e-01 8.701164e-01 4.105181e-02 1.481540e+00 5.275276e-01 -1.016039e+00 9.013449e-02 -2.590276e-04 -2.113675e-01 -8.213944e-02 -1.362447e-01 1.250015e-01 -1.994777e-01 3.882860e-02 -1.187460e-01 -2.848549e-01 7.724871e-02 3.953470e-02 5.693007e-02
<VARIANCE> 39
 7.434572e+00 1.146591e+01 6.954130e+00 1.307381e+01 1.255795e+01 1.746032e+01 1.045455e+01 3.027413e+01 1.033975e+01 2.220659e+01 2.211879e+01 1.185062e+01 6.408036e+00 3.541547e-01 7.705145e-01 6.870001e-01 7.245890e-01 8.023161e-01 7.938493e-01 1.498709e+00 1.506011e+00 1.665479e+00 2.628261e+00 1.538224e+00 9.287221e-01 4.477962e-01 6.046620e-02 1.634357e-01 1.389882e-01 9.754637e-02 1.310431e-01 1.626083e-01 1.789041e-01 1.780531e-01 2.851183e-01 3.724362e-01 2.942327e-01 2.752360e-01 3.902228e-02
<GCONST> 7.982672e+01
<MIXTURE> 2 1.549296e-01
<MEAN> 39
 -1.976276e+00 8.114655e-01 3.949094e+00 3.279140e+00 -6.853864e+00 -1.560030e+00 -2.662117e+00 -1.981537e+01 -8.571412e+00 1.221057e+01 3.358250e+00 -1.072626e+01 5.221889e+01 -1.942881e+00 1.176274e+00 -1.364074e+00 -1.925409e-01 1.446934e+00 2.430406e-01 1.028520e+00 2.102134e+00 1.109564e+00 -1.086383e+00 -5.299385e-01 1.758797e+00 -2.389076e+00 -2.502186e-01 -4.027560e-02 -2.176435e-01 -4.626067e-01 1.460871e-01 1.932144e-01 1.030732e-01 1.235062e+00 4.599608e-01 -9.088644e-01 -1.421693e-01 4.733723e-01 -1.840971e-01
<VARIANCE> 39
 5.163697e+00 1.133704e+01 7.570790e+00 9.407835e+00 2.772225e+01 2.134174e+01 2.483106e+01 1.975618e+01 6.935498e+00 1.820960e+01 1.682284e+01 6.078121e+00 7.796264e+00 6.776748e-01 7.127550e-01 7.305243e-01 5.667083e-01 1.339308e+00 9.528128e-01 1.194023e+00 5.965752e+00 7.407547e-01 2.410162e+00 9.047212e-01 2.793309e+00 5.361682e-01 8.430780e-02 2.569353e-01 1.503524e-01 8.567625e-02 4.461847e-01 1.300823e-01 1.902625e-01 3.122756e-01 4.289535e-02 1.876394e-01 1.716080e-01 2.705879e-01 9.781449e-02
<GCONST> 8.152128e+01
<MIXTURE> 3 1.971831e-01
<MEAN> 39
 -6.963502e+00 2.447767e+00 8.355607e-01 -5.449790e+00 -4.589721e-01 1.603266e+00 -1.828667e+00 -6.548936e+00 1.137931e+00 -5.290207e+00 -3.368153e+00 3.310233e+00 5.339345e+01 -5.865529e-01 -2.265954e-01 -1.044652e+00 7.752801e-01 -2.692832e-01 7.965011e-01 2.531696e-01 1.739947e+00 5.980061e-01 -4.373763e-01 6.929831e-01 5.703735e-01 -1.954992e+00 1.073894e-01 -9.399807e-04 2.011924e-01 2.731596e-01 -1.243118e-01 -1.686363e-01 -1.810079e-01 -1.912456e-01 -2.350871e-01 6.337143e-03 -2.151825e-01 -3.835597e-01 1.708340e-01
<VARIANCE> 39
 1.318700e+00 5.403232e+00 3.483860e+01 2.865195e+01 6.522652e+00 2.322951e+01 1.610651e+01 5.554630e+01 1.148837e+01 4.511081e+01 2.069081e+01 6.870895e+00 2.531958e+01 7.055721e-01 4.081237e-01 8.389447e-01 1.101794e+00 2.244908e+00 5.431026e-01 9.498057e-01 4.334469e+00 6.939403e-01 2.867420e+00 9.260294e-01 2.593379e+00 7.271736e-01 4.407155e-02 1.229000e-01 3.565224e-01 2.709081e-01 2.977867e-01 2.371009e-01 3.628279e-01 5.976128e-01 1.795215e-01 2.534694e-01 3.425823e-01 2.748129e-01 3.088774e-01
<GCONST> 8.997560e+01
<TRANSP> 8
 0.000000e+00 1.000000e+00 0.000000e+00 0.000000e+00 0.000000e+00 0.000000e+00 0.000000e+00 0.000000e+00
 0.000000e+00 8.292683e-01 1.707317e-01 0.000000e+00 0.000000e+00 0.000000e+00 0.000000e+00 0.000000e+00
 0.000000e+00 0.000000e+00 7.846154e-01 2.153846e-01 0.000000e+00 0.000000e+00 0.000000e+00 0.000000e+00
 0.000000e+00 0.000000e+00 0.000000e+00 8.333333e-01 1.666667e-01 0.000000e+00 0.000000e+00 0.000000e+00
 0.000000e+00 0.000000e+00 0.000000e+00 0.000000e+00 8.000000e-01 2.000000e-01 0.000000e+00 0.000000e+00
 0.000000e+00 0.000000e+00 0.000000e+00 0.000000e+00 0.000000e+00 8.292683e-01 1.707317e-01 0.000000e+00
 0.000000e+00 0.000000e+00 0.000000e+00 0.000000e+00 0.000000e+00 0.000000e+00 8.028169e-01 1.971831e-01
 0.000000e+00 0.000000e+00 0.000000e+00 0.000000e+00 0.000000e+00 0.000000e+00 0.000000e+00 0.000000e+00
<ENDHMM>
