~o
<STREAMINFO> 1 26
<VECSIZE> 26<NULLD><MFCC_E_D_Z><DIAGC>
~h "go"
<BEGINHMM>
<NUMSTATES> 5
<STATE> 2
<MEAN> 26
 6.783061e+00 2.920272e+00 -6.752899e+00 -1.128100e+01 -2.591798e+00 1.676819e-01 -1.550853e+00 -2.924550e+00 -5.928051e+00 -4.536037e+00 -1.678629e-01 -1.504151e+00 7.295933e-01 1.101425e+00 8.556758e-01 6.098695e-01 -2.522902e+00 -1.326512e+00 4.600714e-01 -6.852379e-01 -1.069996e+00 3.158093e-01 -1.252465e+00 8.704758e-01 -3.716113e-01 7.364295e-02
<VARIANCE> 26
 2.035748e+01 2.841459e+01 4.056111e+01 5.150993e+01 5.293980e+01 3.526283e+01 2.800453e+01 3.548748e+01 3.019173e+01 6.683865e+01 2.779118e+01 2.628547e+01 2.184379e-02 1.182437e+00 2.194879e+00 7.333016e+00 4.465569e+00 5.272162e+00 2.763098e+00 2.524199e+00 3.145952e+00 6.208820e+00 3.052269e+00 3.327134e+00 2.214492e+00 1.334764e-03
<GCONST> 9.411632e+01
<STATE> 3
<MEAN> 26
 8.765875e+00 3.751683e+00 -2.871771e+00 -2.163132e+01 -6.788208e+00 6.874454e-01 -2.967853e+00 -4.847822e+00 -2.154577e-02 -6.833653e+00 1.660261e-01 -7.769114e-01 9.553246e-01 2.207280e-04 -1.423887e-01 -7.841403e-02 -4.593607e-01 -2.517867e-01 -2.332497e-01 1.623457e-02 2.400770e-01 1.532906e-01 1.686615e-01 -3.427044e-01 2.681142e-01 -5.638774e-03
<VARIANCE> 26
 2.351640e+01 1.389177e+01 1.014964e+01 4.261039e+01 5.021310e+01 3.555467e+01 3.763959e+01 5.650898e+01 3.354893e+01 3.726748e+01 2.524033e+01 1.617657e+01 4.952623e-03 1.635540e-01 5.380014e-01 3.691918e-01 1.080351e+00 7.708109e-01 9.314570e-01 7.134103e-01 9.889309e-01 8.451000e-01 1.004417e+00 7.080626e-01 1.054183e+00 5.632391e-04
<GCONST> 7.066047e+01
<STATE> 4
<MEAN> 26
 2.854754e+00 1.019500e+00 -1.636147e+00 -7.687742e+00 -6.056200e+00 -1.298308e+00 -5.322430e-01 1.230663e+00 5.020652e-01 -1.260795e+00 -7.866231e-01 3.136643e-01 4.222327e-01 -7.846470e-01 -3.436237e-01 2.464282e-01 2.123328e+00 5.709187e-01 -1.337093e-01 4.310625e-01 4.456937e-01 1.388500e-01 6.274836e-01 1.449184e-01 -6.269708e-03 -5.363958e-02
<VARIANCE> 26
 1.843868e+01 6.741978e+00 1.091956e+01 1.450486e+02 4.978341e+01 1.871337e+01 2.160956e+01 1.517095e+01 3.054710e+01 2.010977e+01 1.727157e+01 1.380804e+01 5.368544e-02 6.012295e-01 4.515337e-01 8.333529e-01 3.918496e+00 1.752754e+00 1.450987e+00 1.529188e+00 2.120994e+00 1.708670e+00 1.952167e+00 1.321686e+00 1.330415e+00 2.613240e-03
<GCONST> 7.938631e+01
<TRANSP> 5
 0.000000e+00 1.000000e+00 0.000000e+00 0.000000e+00 0.000000e+00
 0.000000e+00 8.055285e-01 1.944715e-01 0.000000e+00 0.000000e+00
 0.000000e+00 0.000000e+00 9.200956e-01 7.990446e-02 0.000000e+00
 0.000000e+00 0.000000e+00 0.000000e+00 8.964314e-01 1.035686e-01
 0.000000e+00 0.000000e+00 0.000000e+00 0.000000e+00 0.000000e+00
<ENDHMM>
~o
<STREAMINFO> 1 26
<VECSIZE> 26<NULLD><MFCC_E_D_Z><DIAGC>
~h "hachi"
<BEGINHMM>
<NUMSTATES> 9
<STATE> 2
<MEAN> 26
 -1.984367e+00 -9.511929e+00 -2.030908e+00 -2.421504e+00 8.238088e+00 2.134584e+00 -2.072207e+00 -7.792302e-01 2.765213e+00 -2.898650e+00 -2.281535e-01 -8.577418e-01 5.356092e-01 5.244702e-01 -7.387162e-03 -1.264768e-01 -5.580398e-01 2.502042e-01 -2.817272e-01 8.401211e-01 -1.017078e+00 6.464116e-02 -1.070106e+00 -4.342372e-01 -2.353690e-01 5.437432e-02
<VARIANCE> 26
 2.606912e+01 2.346264e+01 1.831038e+01 4.346461e+01 1.481913e+01 1.722505e+01 3.697628e+01 5.086130e+01 2.422630e+01 2.411649e+01 2.575506e+01 1.441327e+01 3.027006e-02 4.075388e+00 2.951943e+00 2.769983e+00 2.235602e+00 2.154314e+00 1.950902e+00 3.036533e+00 2.834631e+00 1.559238e+00 1.688839e+00 1.721839e+00 1.955229e+00 1.128639e-03
<GCONST> 8.604613e+01
<STATE> 3
<MEAN> 26
 7.015465e+00 -6.562156e+00 -3.035835e+00 -1.009848e+01 3.263836e+00 -4.467566e+00 2.520144e+00 -8.240806e+00 8.335279e+00 -8.433242e+00 -4.643596e+00 -4.056504e+00 9.496472e-01 3.348266e-01 4.374519e-01 2.286387e-01 1.640965e-01 -1.011157e+00 -1.145390e+00 -3.469469e-01 4.360834e-01 3.223756e-01 1.940444e-01 -4.588250e-01 1.076324e-01 3.660182e-03
<VARIANCE> 26
 2.180831e+01 2.997064e+01 6.693786e+01 3.133390e+01 7.017091e+01 4.473736e+01 8.298029e+01 3.304675e+01 4.158094e+01 1.134791e+01 3.359289e+01 1.900210e+01 2.600027e-03 1.180424e+00 2.717706e+00 3.061057e+00 3.667101e+00 3.184266e+00 3.492679e+00 3.686655e+00 3.067624e+00 3.049454e+00 1.963365e+00 1.616373e+00 1.808567e+00 2.878077e-03
<GCONST> 8.997739e+01
<STATE> 4
<MEAN> 26
 4.924044e+00 -1.164785e+00 -2.329633e+00 -3.876523e-01 2.674878e-01 -1.189825e+00 7.791103e-01 -6.526208e-01 2.754153e+00 -1.626749e+00 -4.378995e+00 -4.607862e-01 4.869196e-01 -6.598395e-01 2.194401e-01 -2.759021e-01 4.206868e-01 -1.213361e-01 1.179384e+00 -5.983204e-03 5.123097e-01 -4.942371e-01 1.008778e+00 7.299501e-01 9.081835e-02 -5.139779e-02
<VARIANCE> 26
 9.261956e+00 1.225754e+01 2.300352e+01 1.301346e+01 9.655080e+00 3.147729e+01 2.540535e+01 1.604997e+01 4.242954e+01 2.310190e+01 2.701691e+01 1.694832e+01 5.087597e-02 7.757335e-01 9.452658e-01 8.913865e-01 1.141306e+00 1.844112e+00 2.819974e+00 2.100866e+00 1.474962e+00 2.315293e+00 1.406904e+00 2.053360e+00 1.572484e+00 2.875213e-03
<GCONST> 7.897005e+01
<STATE> 5
<MEAN> 26
 -8.548374e+00 3.607422e+00 -3.662536e+00 -7.854227e-02 4.577613e-01 -3.143837e+00 1.325956e+00 -4.556256e-01 7.229726e-01 1.180527e+00 7.244323e-01 7.704183e-01 5.125456e-01 -3.313583e+00 1.508673e+00 2.108744e-01 -5.220093e-01 8.695544e-01 -1.342893e+00 3.765206e-01 -3.064644e-01 -3.756081e-01 -3.673943e-01 2.199802e-01 3.501489e-01 7.022737e-02
<VARIANCE> 26
 5.672958e+01 2.074392e+01 1.345078e+01 8.767748e+00 1.635156e+01 2.255044e+01 1.347913e+01 2.181779e+01 1.345196e+01 2.115565e+01 1.600920e+01 8.964959e+00 5.124775e-02 2.240137e+00 9.882925e-01 1.586465e+00 1.021043e+00 1.643610e+00 2.424884e+00 1.332708e+00 1.588640e+00 1.989654e+00 2.266115e+00 1.233539e+00 1.075501e+00 1.560249e-03
<GCONST> 7.760149e+01
<STATE> 6
<MEAN> 26
 -1.483834e+01 4.613376e+00 2.711736e+00 -4.932421e+00 2.215826e+00 -3.381775e+00 5.970772e-01 8.738929e-01 1.795171e-01 1.157147e+00 1.883762e+00 9.904572e-01 6.766466e-01 6.065066e-01 -2.491129e-01 3.755051e-01 -1.868951e-01 -1.015551e-01 1.284137e-01 -2.743519e-01 6.498455e-02 -6.270181e-02 -1.083455e-01 8.394707e-02 -3.651308e-02 -1.653743e-02
<VARIANCE> 26
 2.188460e+01 7.971748e+00 1.479358e+01 6.883738e+00 1.244277e+01 1.376143e+01 1.461769e+01 1.160732e+01 1.257981e+01 1.714485e+01 1.234667e+01 8.413910e+00 3.125774e-02 7.080899e-01 3.861125e-01 9.171645e-01 5.691735e-01 9.726409e-01 8.486475e-01 1.064723e+00 9.848903e-01 1.181398e+00 1.423305e+00 1.195300e+00 9.183215e-01 5.775064e-04
<GCONST> 6.546318e+01
<STATE> 7
<MEAN> 26
 -1.206614e+00 5.310744e+00 1.050342e+01 -6.496515e+00 -7.567212e+00 -9.665084e+00 -4.745624e+00 -5.752135e+00 -9.777862e+00 -4.600094e+00 2.598165e-01 -2.837154e+00 7.652063e-01 1.730491e+00 -3.167054e-01 1.387947e+00 -5.970636e-01 -1.909187e+00 -3.390206e-01 -1.095160e+00 -1.017299e+00 -7.571660e-01 -3.081936e-01 2.612211e-01 -6.962180e-01 7.875689e-03
<VARIANCE> 26
 3.208520e+01 1.451231e+01 3.875016e+01 1.304178e+01 4.880190e+01 2.482091e+01 2.536279e+01 4.608952e+01 3.640200e+01 4.056691e+01 1.825141e+01 1.617264e+01 3.140017e-02 2.308059e+00 9.828148e-01 2.221202e+00 1.124121e+00 3.267560e+00 3.113285e+00 1.665704e+00 1.090062e+00 3.635864e+00 2.996606e+00 2.514614e+00 1.082127e+00 8.635658e-04
<GCONST> 8.482628e+01
<STATE> 8
<MEAN> 26
 1.831771e+00 2.082331e+00 8.939845e+00 -5.290922e+00 -7.895463e+00 -4.239516e+00 -6.660521e+00 -6.007801e+00 -4.957423e+00 -9.544101e-02 3.009152e+00 -3.419558e+00 5.729693e-01 -2.548598e-02 -1.568349e-01 -1.177482e+00 1.361777e+00 1.032591e+00 9.870262e-01 8.758909e-01 7.770965e-01 4.766429e-01 4.865932e-01 -2.883611e-01 4.348333e-01 -4.690104e-02
<VARIANCE> 26
 5.638415e+00 7.957244e+00 5.745566e+01 3.267173e+01 3.854722e+01 2.275874e+01 2.870348e+01 4.353914e+01 3.226357e+01 1.909185e+01 1.880026e+01 2.315946e+01 7.185809e-02 1.056947e+00 5.439062e-01 2.379255e+00 1.610742e+00 2.418023e+00 1.175073e+00 2.946103e+00 2.540397e+00 1.980992e+00 2.164650e+00 1.438498e+00 1.510330e+00 1.322379e-03
<GCONST> 8.235037e+01
<TRANSP> 9
 0.000000e+00 1.000000e+00 0.000000e+00 0.000000e+00 0.000000e+00 0.000000e+00 0.000000e+00 0.000000e+00 0.000000e+00
 0.000000e+00 8.726048e-01 1.273953e-01 0.000000e+00 0.000000e+00 0.000000e+00 0.000000e+00 0.000000e+00 0.000000e+00
 0.000000e+00 0.000000e+00 8.680798e-01 1.319202e-01 0.000000e+00 0.000000e+00 0.000000e+00 0.000000e+00 0.000000e+00
 0.000000e+00 0.000000e+00 0.000000e+00 8.828482e-01 1.171518e-01 0.000000e+00 0.000000e+00 0.000000e+00 0.000000e+00
 0.000000e+00 0.000000e+00 0.000000e+00 0.000000e+00 7.957304e-01 2.042697e-01 0.000000e+00 0.000000e+00 0.000000e+00
 0.000000e+00 0.000000e+00 0.000000e+00 0.000000e+00 0.000000e+00 9.096426e-01 9.035745e-02 0.000000e+00 0.000000e+00
 0.000000e+00 0.000000e+00 0.000000e+00 0.000000e+00 0.000000e+00 0.000000e+00 8.085365e-01 1.914634e-01 0.000000e+00
 0.000000e+00 0.000000e+00 0.000000e+00 0.000000e+00 0.000000e+00 0.000000e+00 0.000000e+00 8.213789e-01 1.786211e-01
 0.000000e+00 0.000000e+00 0.000000e+00 0.000000e+00 0.000000e+00 0.000000e+00 0.000000e+00 0.000000e+00 0.000000e+00
<ENDHMM>
~o
<STREAMINFO> 1 26
<VECSIZE> 26<NULLD><MFCC_E_D_Z><DIAGC>
~h "ichi"
<BEGINHMM>
<NUMSTATES> 7
<STATE> 2
<MEAN> 26
 3.582669e+00 7.056490e+00 1.376299e+01 -6.736104e+00 -6.335017e+00 -2.628200e+00 -1.017855e+01 -5.947837e+00 -2.466493e+00 -7.497840e+00 -7.537345e-01 -3.793317e+00 8.580742e-01 1.919555e-01 3.252411e-01 7.696710e-02 3.052374e-01 3.135645e-02 -1.901919e-01 5.585946e-02 -1.662347e-01 -2.394736e-01 -3.474120e-02 -2.821904e-01 -1.994937e-01 3.266342e-03
<VARIANCE> 26
 1.408004e+01 2.706232e+01 3.825958e+01 3.250039e+01 4.539109e+01 4.259429e+01 3.808166e+01 3.438742e+01 4.877335e+01 3.114632e+01 5.867759e+01 2.714552e+01 1.584631e-02 7.516514e-01 2.264942e+00 5.171799e+00 4.121615e+00 3.283308e+00 2.749915e+00 4.142198e+00 2.521781e+00 2.513703e+00 2.615888e+00 2.177840e+00 1.723093e+00 5.601379e-03
<GCONST> 9.231136e+01
<STATE> 3
<MEAN> 26
 5.889423e-01 6.719947e-01 -1.066247e+00 2.467933e+00 8.020048e-01 4.984680e-01 -9.756799e-01 -3.406990e-01 -2.926148e-01 -1.192636e+00 -4.115518e-01 -5.018215e-01 4.420160e-01 -1.319235e+00 -2.851483e-01 -1.012251e+00 -1.146540e-01 2.471893e-01 -1.445465e-01 5.301421e-01 3.056056e-01 5.194235e-01 2.430064e-01 2.125585e-01 2.982334e-01 1.375119e-03
<VARIANCE> 26
 2.658701e+01 1.061989e+01 2.066705e+01 1.353847e+01 1.163549e+01 1.186392e+01 1.377151e+01 1.962025e+01 1.226227e+01 1.566416e+01 1.467553e+01 1.135176e+01 2.992133e-02 2.968126e+00 1.874518e+00 1.555539e+00 1.258900e+00 1.513669e+00 2.087088e+00 1.605079e+00 1.963332e+00 1.401297e+00 1.702044e+00 1.299706e+00 1.008839e+00 4.136773e-03
<GCONST> 7.679182e+01
<STATE> 4
<MEAN> 26
 -1.433726e+01 2.974253e+00 -1.839299e+00 -4.060723e+00 3.184653e+00 -3.383430e+00 3.152778e+00 -6.563510e-01 2.173517e+00 1.404647e+00 6.315904e-01 8.140281e-01 7.752622e-01 2.171021e-01 -5.957936e-02 4.262774e-01 -2.563373e-01 5.600496e-02 -1.027918e-01 -2.157913e-02 -1.281565e-01 -3.376403e-01 4.191218e-02 -1.476735e-01 -1.001535e-01 9.093866e-04
<VARIANCE> 26
 2.030069e+01 1.163796e+01 1.805688e+01 9.952498e+00 1.545732e+01 1.265186e+01 1.611135e+01 1.611337e+01 1.212710e+01 1.571296e+01 1.431577e+01 1.002521e+01 1.679665e-02 1.342017e+00 6.571151e-01 8.740879e-01 7.435106e-01 1.109484e+00 1.315217e+00 1.425081e+00 1.364434e+00 1.408616e+00 1.351510e+00 1.389322e+00 9.922930e-01 1.311818e-03
<GCONST> 7.022073e+01
<STATE> 5
<MEAN> 26
 8.664802e-01 1.601295e+00 1.043754e+01 -9.603146e+00 -9.962326e+00 -8.326817e+00 -8.149685e+00 -8.242354e+00 -7.209742e+00 -4.142897e+00 -3.949867e+00 -5.301689e+00 8.771324e-01 8.905522e-01 -1.713904e-01 8.070912e-01 -3.536336e-01 -9.867898e-01 7.459431e-02 -8.672139e-01 -4.395863e-01 -3.056538e-01 -4.059044e-02 1.554975e-01 -3.082379e-01 -1.060814e-02
<VARIANCE> 26
 2.810185e+01 9.760615e+00 3.362879e+01 2.163505e+01 6.064917e+01 1.109385e+01 3.725753e+01 2.601504e+01 1.876650e+01 1.980078e+01 1.698598e+01 9.944468e+00 1.972695e-02 2.618035e+00 6.960393e-01 2.599944e+00 1.977873e+00 4.057524e+00 1.520831e+00 2.149457e+00 1.669985e+00 2.005485e+00 1.592058e+00 1.519291e+00 1.597435e+00 2.171829e-03
<GCONST> 8.174896e+01
<STATE> 6
<MEAN> 26
 4.942482e-01 -1.131731e+00 3.901958e+00 -3.589247e+00 -1.958710e+00 -2.001349e+00 -1.932343e+00 -2.491998e+00 -2.487673e+00 8.159729e-01 -4.916927e-02 -2.400458e+00 4.438251e-01 7.077187e-01 -3.498840e-01 -1.110635e+00 1.141935e+00 6.201712e-01 4.464958e-01 6.665587e-01 8.780102e-01 5.643868e-01 4.465510e-01 3.858775e-01 6.944696e-01 -3.679002e-02
<VARIANCE> 26
 9.574620e+00 4.947975e+00 2.114241e+01 1.745533e+01 3.161311e+01 1.282369e+01 3.693889e+01 3.006598e+01 2.171192e+01 1.644045e+01 1.753039e+01 2.089014e+01 2.377290e-02 1.010808e+00 2.343353e-01 2.214353e+00 2.067857e+00 2.095086e+00 1.487616e+00 3.096908e+00 1.514760e+00 1.660396e+00 1.938815e+00 2.031378e+00 1.850498e+00 1.355773e-03
<GCONST> 7.726653e+01
<TRANSP> 7
 0.000000e+00 1.000000e+00 0.000000e+00 0.000000e+00 0.000000e+00 0.000000e+00 0.000000e+00
 0.000000e+00 9.148152e-01 8.518473e-02 0.000000e+00 0.000000e+00 0.000000e+00 0.000000e+00
 0.000000e+00 0.000000e+00 9.155157e-01 8.448429e-02 0.000000e+00 0.000000e+00 0.000000e+00
 0.000000e+00 0.000000e+00 0.000000e+00 9.313405e-01 6.865951e-02 0.000000e+00 0.000000e+00
 0.000000e+00 0.000000e+00 0.000000e+00 0.000000e+00 8.614162e-01 1.385838e-01 0.000000e+00
 0.000000e+00 0.000000e+00 0.000000e+00 0.000000e+00 0.000000e+00 8.228177e-01 1.771823e-01
 0.000000e+00 0.000000e+00 0.000000e+00 0.000000e+00 0.000000e+00 0.000000e+00 0.000000e+00
<ENDHMM>
~o
<STREAMINFO> 1 26
<VECSIZE> 26<NULLD><MFCC_E_D_Z><DIAGC>
~h "kyuu"
<BEGINHMM>
<NUMSTATES> 5
<STATE> 2
<MEAN> 26
 -8.085653e+00 -1.177125e+00 7.151158e+00 -4.379965e+00 -7.458927e+00 7.251484e-02 -7.730139e-01 -7.504317e+00 2.171914e+00 -1.484252e+00 -1.552353e+00 -4.787126e-01 6.645275e-01 9.430823e-01 2.396355e-01 1.224169e+00 4.794650e-02 -1.887219e+00 -1.489111e+00 -4.708474e-01 -1.057039e+00 -1.215619e+00 -5.368276e-01 8.242314e-02 -5.406151e-01 5.319025e-02
<VARIANCE> 26
 4.253002e+01 3.189925e+01 3.249378e+01 2.145226e+01 5.068035e+01 3.715030e+01 2.588294e+01 5.417728e+01 5.536542e+01 2.004675e+01 2.204245e+01 2.202835e+01 3.447578e-02 5.967313e+00 1.848165e+00 1.994880e+00 2.441487e+00 3.739123e+00 4.038039e+00 2.473986e+00 3.569636e+00 4.986144e+00 3.112736e+00 4.022431e+00 2.977548e+00 1.347685e-03
<GCONST> 9.365303e+01
<STATE> 3
<MEAN> 26
 4.173913e+00 -1.510352e+00 8.683979e+00 -1.935751e+00 -1.385119e+01 -1.450230e+01 -8.978333e+00 -4.897644e+00 -4.508789e+00 -8.576385e+00 3.202186e+00 -1.156396e+00 9.432156e-01 3.779288e-01 5.520409e-02 -5.142136e-01 1.506760e-01 6.371809e-01 -4.683271e-01 -4.899626e-01 5.673069e-01 3.378765e-01 -8.304154e-03 1.657196e-02 6.034628e-01 -5.471865e-03
<VARIANCE> 26
 1.950420e+01 3.661992e+01 1.372104e+01 1.128465e+01 6.339878e+01 1.155364e+01 3.571088e+01 3.755439e+01 4.265568e+01 4.201713e+01 4.132988e+01 3.016444e+01 2.794037e-03 1.493865e-01 6.707743e-01 3.919965e-01 6.176741e-01 7.847649e-01 1.092663e+00 1.133755e+00 1.086796e+00 1.057283e+00 1.652254e+00 1.846041e+00 1.567551e+00 2.591867e-04
<GCONST> 7.163393e+01
<STATE> 4
<MEAN> 26
 5.147580e+00 1.688939e+00 3.460986e+00 4.248659e-01 -3.426751e+00 -1.146758e+01 -8.334817e+00 -2.210166e+00 -2.285824e+00 -2.161007e+00 1.140949e+00 1.520538e+00 6.227970e-01 -4.949679e-01 6.177701e-02 -4.283468e-01 2.073813e-01 8.684198e-01 1.360300e+00 8.700963e-01 1.680226e-01 8.301817e-04 5.586785e-01 -1.377487e-01 -2.956998e-01 -4.584760e-02
<VARIANCE> 26
 1.071618e+01 9.122867e+00 1.543478e+01 1.110855e+01 3.783222e+01 3.759665e+01 5.417868e+01 1.445099e+01 1.298007e+01 1.827828e+01 2.787431e+01 1.608611e+01 3.624925e-02 4.274876e-01 9.269748e-01 6.797798e-01 7.398575e-01 1.348548e+00 2.010265e+00 1.816069e+00 1.680243e+00 9.442744e-01 1.089127e+00 1.598974e+00 1.162825e+00 5.933710e-04
<GCONST> 7.341077e+01
<TRANSP> 5
 0.000000e+00 1.000000e+00 0.000000e+00 0.000000e+00 0.000000e+00
 0.000000e+00 8.915933e-01 1.084067e-01 0.000000e+00 0.000000e+00
 0.000000e+00 0.000000e+00 9.304109e-01 6.958911e-02 0.000000e+00
 0.000000e+00 0.000000e+00 0.000000e+00 9.107566e-01 8.924340e-02
 0.000000e+00 0.000000e+00 0.000000e+00 0.000000e+00 0.000000e+00
<ENDHMM>
~o
<STREAMINFO> 1 26
<VECSIZE> 26<NULLD><MFCC_E_D_Z><DIAGC>
~h "ni"
<BEGINHMM>
<NUMSTATES> 5
<STATE> 2
<MEAN> 26
 7.079484e+00 6.222871e+00 6.360469e+00 -1.740703e+00 -5.352984e+00 -3.937095e+00 -3.489081e+00 -9.203053e+00 -2.704014e+00 -1.078434e+00 -1.572407e+00 -3.240422e+00 8.265789e-01 -1.165286e-01 3.320306e-01 1.316839e+00 -2.312948e+00 -5.735475e-01 2.123108e-01 -1.346628e+00 -7.328915e-01 -1.012461e-01 -9.399156e-02 5.034488e-02 -5.716773e-01 4.867597e-02
<VARIANCE> 26
 2.801737e+01 9.234867e+00 2.473852e+01 6.836181e+01 4.321642e+01 1.802694e+01 2.633434e+01 5.081025e+01 6.582252e+01 2.539375e+01 1.566996e+01 2.838722e+01 1.307779e-02 2.611440e+00 1.257757e+00 1.382747e+00 4.965759e+00 2.586405e+00 2.719696e+00 2.349998e+00 4.227109e+00 3.298130e+00 1.485454e+00 2.225878e+00 2.039919e+00 1.176366e-03
<GCONST> 8.753260e+01
<STATE> 3
<MEAN> 26
 1.513106e+00 4.272548e+00 1.257152e+01 -1.602732e+01 -4.581187e+00 -5.546607e-01 -1.267976e+01 -7.981443e+00 -2.163243e+00 -4.905645e+00 5.452203e-01 -5.733211e+00 9.487170e-01 -6.559043e-02 -4.805312e-02 -5.860266e-03 -2.381856e-01 -9.314734e-02 -1.880329e-02 -2.559355e-01 1.246813e-01 -3.635611e-02 -1.612096e-01 1.757661e-01 -9.393617e-02 -8.197843e-03
<VARIANCE> 26
 2.652942e+01 1.236092e+01 2.183511e+01 2.194524e+01 5.101431e+01 3.213040e+01 1.842728e+01 3.080915e+01 4.189320e+01 3.553969e+01 3.699968e+01 1.979004e+01 3.460548e-03 1.901593e-01 3.966897e-01 4.818843e-01 7.399681e-01 3.996151e-01 9.510853e-01 1.034079e+00 7.175265e-01 6.334040e-01 1.038819e+00 9.270184e-01 7.507233e-01 4.042171e-04
<GCONST> 6.825259e+01
<STATE> 4
<MEAN> 26
 2.748951e-01 2.632206e+00 6.322076e+00 -8.792802e+00 -3.062763e+00 -1.318700e+00 -8.113684e+00 -2.749606e+00 -2.664500e+00 -2.463617e+00 4.501885e-01 -3.761212e+00 5.607437e-01 -2.684369e-01 -6.946814e-01 -1.416682e+00 2.075813e+00 7.166675e-01 1.339980e-01 1.456466e+00 9.977632e-01 2.114484e-01 5.138553e-01 1.266665e-01 8.324765e-01 -6.017224e-02
<VARIANCE> 26
 7.341997e+00 1.229396e+01 2.917160e+01 6.421803e+01 3.330169e+01 2.430551e+01 3.610442e+01 2.815164e+01 2.533987e+01 3.401858e+01 3.548255e+01 1.873199e+01 4.093772e-02 7.029636e-01 6.311586e-01 2.131182e+00 2.171857e+00 1.605884e+00 2.466664e+00 1.722685e+00 2.140043e+00 2.349477e+00 2.404308e+00 1.943699e+00 1.655183e+00 1.154008e-03
<GCONST> 8.304252e+01
<TRANSP> 5
 0.000000e+00 1.000000e+00 0.000000e+00 0.000000e+00 0.000000e+00
 0.000000e+00 8.625022e-01 1.374978e-01 0.000000e+00 0.000000e+00
 0.000000e+00 0.000000e+00 9.228502e-01 7.714983e-02 0.000000e+00
 0.000000e+00 0.000000e+00 0.000000e+00 8.723191e-01 1.276809e-01
 0.000000e+00 0.000000e+00 0.000000e+00 0.000000e+00 0.000000e+00
<ENDHMM>
~o
<STREAMINFO> 1 26
<VECSIZE> 26<NULLD><MFCC_E_D_Z><DIAGC>
~h "roku"
<BEGINHMM>
<NUMSTATES> 9
<STATE> 2
<MEAN> 26
 8.755567e+00 -1.609295e+00 2.088318e+00 4.839736e+00 -2.244003e+00 -6.850355e+00 -1.140745e+01 -5.315135e+00 4.256583e+00 -5.523405e+00 -1.384755e+00 -3.816183e+00 7.470191e-01 7.784317e-01 1.172406e-02 -9.648047e-01 -2.488225e+00 -7.425095e-01 7.002636e-01 -1.043983e+00 -1.846931e+00 6.529394e-01 6.412283e-01 1.239889e+00 -8.724803e-01 7.144106e-02
<VARIANCE> 26
 1.191478e+01 1.468442e+01 2.587735e+01 7.773785e+01 5.022412e+01 6.969588e+01 4.351228e+01 4.376655e+01 4.392772e+01 4.266137e+01 4.528180e+01 3.127980e+01 1.924356e-02 2.549788e+00 2.812456e+00 2.340953e+00 1.202105e+01 4.284764e+00 1.045214e+01 8.589285e+00 3.915992e+00 5.589988e+00 7.016375e+00 2.937084e+00 2.370837e+00 1.352080e-03
<GCONST> 9.873828e+01
<STATE> 3
<MEAN> 26
 8.639854e+00 4.091903e+00 -4.349040e+00 -1.816256e+01 -4.861240e+00 4.987682e+00 -3.621361e+00 -1.045628e+01 3.684784e-01 -5.348062e+00 6.446105e+00 -1.932610e+00 9.313603e-01 8.440287e-02 1.062683e+00 -1.261736e-01 -8.580115e-01 2.392160e-01 7.668566e-01 1.451833e+00 7.818444e-01 -1.732446e+00 -9.423911e-01 -2.492175e-01 9.232245e-01 -1.564414e-02
<VARIANCE> 26
 2.239737e+01 1.355378e+01 9.852887e+00 3.676990e+01 5.333125e+01 3.882489e+01 3.918723e+01 4.655005e+01 4.773151e+01 4.361066e+01 2.734510e+01 4.933348e+01 3.364350e-03 7.080711e-01 6.317292e-01 1.497313e+00 6.456195e+00 2.824217e+00 2.392911e+00 3.185552e+00 2.604223e+00 2.689983e+00 5.241249e+00 2.880694e+00 3.832322e+00 1.609367e-03
<GCONST> 8.779723e+01
<STATE> 4
<MEAN> 26
 3.120998e+00 4.040009e+00 -1.492360e+00 -5.635189e+00 6.742737e-01 1.981525e+00 2.758872e+00 -2.342808e+00 -5.096482e+00 -2.815414e+00 4.557039e-02 2.449719e+00 4.568450e-01 -1.180126e+00 -7.574124e-01 1.866229e-01 1.571846e+00 4.073839e-01 -6.663473e-01 4.188887e-01 5.251653e-01 7.805979e-01 9.627053e-01 -2.907943e-01 3.156744e-01 -6.402751e-02
<VARIANCE> 26
 1.990252e+01 1.002946e+01 9.989544e+00 4.410724e+01 2.340080e+01 3.876558e+01 1.958823e+01 1.579444e+01 3.202834e+01 3.095314e+01 1.817198e+01 2.369806e+01 4.086083e-02 8.400458e-01 4.983488e-01 1.025591e+00 2.085581e+00 2.653964e+00 3.723029e+00 1.715090e+00 1.990864e+00 2.732817e+00 3.780337e+00 2.011369e+00 2.484582e+00 2.143956e-03
<GCONST> 8.268815e+01
<STATE> 5
<MEAN> 26
 -8.166513e-01 -3.102334e+00 -6.025098e+00 -3.176901e+00 2.887856e+00 -5.691379e-01 -5.513136e-01 -2.314854e+00 -1.648349e+00 3.433913e+00 -7.046176e-01 1.461974e+00 4.164083e-01 -7.602018e-02 -1.969772e+00 -2.512360e+00 -5.813414e-01 1.272043e+00 -1.274659e+00 -2.300464e+00 -9.851564e-01 8.204558e-02 9.868569e-01 -7.977345e-01 -9.345342e-01 8.432744e-02
<VARIANCE> 26
 1.150834e+01 2.341655e+01 3.392981e+01 1.780018e+01 2.784685e+01 2.522510e+01 2.854093e+01 1.965176e+01 1.801363e+01 2.192949e+01 3.093384e+01 1.945500e+01 4.431884e-02 1.658527e+00 3.002100e+00 2.182530e+00 2.120068e+00 3.943292e+00 2.885611e+00 2.991832e+00 1.525063e+00 3.327614e+00 2.271501e+00 4.341416e+00 4.918544e+00 2.186136e-03
<GCONST> 8.797660e+01
<STATE> 6
<MEAN> 26
 8.762725e-01 -2.653031e+00 -5.745919e+00 -9.946858e-01 2.343683e+00 -9.219543e+00 -8.683650e+00 -6.136150e+00 -1.934317e+00 2.807059e+00 -4.043425e+00 -3.485107e+00 7.285525e-01 7.962438e-01 1.242464e+00 2.308496e+00 1.180755e+00 -1.952351e+00 -1.502293e+00 -1.837049e+00 -7.256582e-01 -1.062905e-01 -1.048027e+00 3.171319e-01 -1.219723e+00 5.188838e-02
<VARIANCE> 26
 3.827473e+01 4.912574e+01 3.936149e+01 2.550541e+01 4.795400e+01 2.746955e+01 4.352593e+01 2.485322e+01 5.114129e+01 2.316645e+01 2.490294e+01 5.544127e+01 3.297006e-02 1.660699e+00 3.145252e+00 2.272750e+00 1.565696e+00 4.739578e+00 2.613075e+00 2.672632e+00 3.199085e+00 3.502811e+00 1.927298e+00 3.387393e+00 2.190747e+00 3.085495e-03
<GCONST> 9.301859e+01
<STATE> 7
<MEAN> 26
 2.553764e+00 -1.671056e+00 1.308354e+00 2.136763e-02 -6.519485e+00 -1.197136e+01 -1.267068e+01 -4.208357e+00 2.767392e-01 -9.311248e-01 -9.032507e-01 -4.181091e+00 8.072184e-01 -9.913775e-02 -9.930617e-02 3.546171e-01 -2.464879e-01 -4.007480e-01 -2.154657e-01 6.337076e-02 4.386877e-01 1.678341e-01 7.630163e-02 1.526894e-01 4.688585e-01 -2.023819e-02
<VARIANCE> 26
 4.196677e+01 4.692558e+01 1.193107e+01 2.748558e+01 5.649911e+01 1.549832e+01 4.811848e+01 4.158854e+01 2.929386e+01 4.124805e+01 2.341731e+01 4.676441e+01 6.233743e-02 5.901124e-01 6.979302e-01 3.792792e-01 6.089890e-01 9.393906e-01 8.309181e-01 1.038343e+00 1.166288e+00 1.556828e+00 1.691036e+00 9.567924e-01 1.045291e+00 8.457753e-04
<GCONST> 7.834394e+01
<STATE> 8
<MEAN> 26
 9.999515e-01 -3.196514e-01 3.112523e+00 -4.441755e-02 -5.191462e+00 -8.822784e+00 -7.367704e+00 -2.186759e+00 -4.090337e-01 7.454918e-01 -4.051128e-01 -4.722941e-01 4.353489e-01 -2.565410e-01 2.944951e-01 -1.239693e-01 4.896168e-01 8.392500e-01 1.883083e+00 1.859076e+00 3.411176e-01 -5.569293e-02 2.007172e-02 2.132195e-01 4.886414e-01 -5.988285e-02
<VARIANCE> 26
 4.414728e+00 2.050826e+01 6.864789e+00 2.208427e+01 3.063816e+01 2.673336e+01 3.700473e+01 1.977629e+01 2.152897e+01 1.912216e+01 3.250187e+01 2.419467e+01 4.168363e-02 9.825053e-01 1.229227e+00 7.192844e-01 1.645420e+00 2.013882e+00 1.813331e+00 1.776594e+00 2.091886e+00 1.691951e+00 3.094821e+00 1.706812e+00 2.325664e+00 1.676133e-03
<GCONST> 7.973380e+01
<TRANSP> 9
 0.000000e+00 1.000000e+00 0.000000e+00 0.000000e+00 0.000000e+00 0.000000e+00 0.000000e+00 0.000000e+00 0.000000e+00
 0.000000e+00 8.133748e-01 1.866253e-01 0.000000e+00 0.000000e+00 0.000000e+00 0.000000e+00 0.000000e+00 0.000000e+00
 0.000000e+00 0.000000e+00 8.480434e-01 1.519566e-01 0.000000e+00 0.000000e+00 0.000000e+00 0.000000e+00 0.000000e+00
 0.000000e+00 0.000000e+00 0.000000e+00 8.712583e-01 1.287417e-01 0.000000e+00 0.000000e+00 0.000000e+00 0.000000e+00
 0.000000e+00 0.000000e+00 0.000000e+00 0.000000e+00 7.231855e-01 2.768145e-01 0.000000e+00 0.000000e+00 0.000000e+00
 0.000000e+00 0.000000e+00 0.000000e+00 0.000000e+00 0.000000e+00 7.691821e-01 2.308178e-01 0.000000e+00 0.000000e+00
 0.000000e+00 0.000000e+00 0.000000e+00 0.000000e+00 0.000000e+00 0.000000e+00 8.986710e-01 1.013290e-01 0.000000e+00
 0.000000e+00 0.000000e+00 0.000000e+00 0.000000e+00 0.000000e+00 0.000000e+00 0.000000e+00 8.031332e-01 1.968667e-01
 0.000000e+00 0.000000e+00 0.000000e+00 0.000000e+00 0.000000e+00 0.000000e+00 0.000000e+00 0.000000e+00 0.000000e+00
<ENDHMM>
~o
<STREAMINFO> 1 26
<VECSIZE> 26<NULLD><MFCC_E_D_Z><DIAGC>
~h "san"
<BEGINHMM>
<NUMSTATES> 8
<STATE> 2
<MEAN> 26
 -1.210232e+01 4.821060e+00 -3.363466e+00 4.190953e+00 -1.894962e+00 -1.148383e+00 3.064377e-01 2.607478e+00 3.447275e-01 -1.361682e-01 1.194590e+00 2.794060e+00 4.224360e-01 -6.695977e-01 -5.873118e-02 -4.126027e-01 -6.737063e-03 -2.695004e-01 1.140198e-02 -3.216584e-02 6.925270e-02 1.668340e-01 -9.963891e-02 7.569881e-02 -5.198589e-03 1.961291e-02
<VARIANCE> 26
 2.000986e+01 8.631491e+00 1.058245e+01 1.842746e+01 1.874450e+01 3.119407e+01 1.562364e+01 1.576918e+01 1.726193e+01 1.229965e+01 2.293976e+01 1.532489e+01 4.535419e-02 1.360550e+00 7.034492e-01 7.842377e-01 1.225592e+00 9.896508e-01 1.481109e+00 1.342577e+00 1.525125e+00 1.716640e+00 1.157954e+00 1.066745e+00 1.193763e+00 6.663356e-04
<GCONST> 7.284521e+01
<STATE> 3
<MEAN> 26
 -7.102886e+00 -5.387740e-01 -3.652371e+00 -1.095003e+00 -2.828971e+00 -2.352346e+00 2.429203e-01 4.411579e+00 1.788192e+00 -1.942695e+00 2.271796e+00 3.211377e+00 6.672621e-01 3.450211e+00 -1.293547e+00 1.552560e-01 -1.115877e+00 9.105667e-01 -8.275047e-01 3.150534e-01 -6.575350e-01 1.995869e-01 -1.429526e+00 -1.871841e+00 -5.174729e-01 6.178733e-02
<VARIANCE> 26
 3.028189e+01 2.061244e+01 1.926799e+01 1.359254e+01 2.053850e+01 1.992534e+01 2.003975e+01 2.955917e+01 1.790018e+01 2.397405e+01 3.634575e+01 1.698289e+01 3.776745e-02 2.663122e+00 1.554586e+00 1.977003e+00 1.725849e+00 4.441651e+00 2.001144e+00 3.730684e+00 3.295314e+00 2.342097e+00 4.791610e+00 2.841009e+00 3.976348e+00 2.705181e-03
<GCONST> 8.767006e+01
<STATE> 4
<MEAN> 26
 5.978419e+00 -7.428928e+00 -3.896927e+00 -7.578600e+00 4.572367e+00 -4.846989e+00 1.896000e+00 -4.988265e+00 3.453973e+00 -9.182432e+00 -7.268449e+00 -4.941719e+00 9.236877e-01 1.588585e+00 -2.190552e+00 -3.023472e-02 -2.142722e+00 2.347366e+00 1.503278e-01 5.957934e-01 -2.425372e+00 4.837918e-01 -2.368353e-01 -7.058676e-01 -1.781873e+00 5.694032e-02
<VARIANCE> 26
 1.206880e+01 3.378284e+01 2.007675e+01 2.542281e+01 4.027457e+01 1.132274e+01 3.967051e+01 3.028615e+01 3.951052e+01 4.456396e+01 2.399232e+01 3.963651e+01 4.425342e-03 2.384336e+00 2.763120e+00 1.410958e+00 1.291236e+00 1.513510e+00 2.269175e+00 3.048959e+00 1.472473e+00 4.225401e+00 3.941375e+00 4.152964e+00 4.502721e+00 1.990597e-03
<GCONST> 8.689755e+01
<STATE> 5
<MEAN> 26
 7.760320e+00 -9.907591e+00 -3.838833e+00 -1.129431e+01 1.136257e+01 -2.966093e+00 1.358477e+00 -8.750453e+00 1.171255e+00 -4.267364e+00 -6.054914e+00 -6.836310e+00 9.622374e-01 3.483085e-01 1.035210e-01 -1.923751e-01 2.522375e-03 3.882197e-02 1.109781e-01 -4.740808e-01 -2.157292e-02 -1.313145e-01 2.026051e-01 9.357227e-02 -4.333403e-01 -6.580472e-03
<VARIANCE> 26
 1.929913e+01 3.048420e+01 2.336772e+01 1.418817e+01 1.503613e+01 1.823537e+01 4.057300e+01 2.364887e+01 2.891516e+01 3.232890e+01 3.226840e+01 3.076070e+01 1.371787e-03 1.589749e-01 4.315639e-01 5.409951e-01 6.948680e-01 6.510679e-01 6.174377e-01 6.841660e-01 1.398037e+00 1.019051e+00 8.899471e-01 6.045950e-01 6.105599e-01 1.162419e-04
<GCONST> 6.482742e+01
<STATE> 6
<MEAN> 26
 1.085111e+01 -4.686379e+00 -1.386219e+00 -5.748863e+00 1.604034e+00 -2.089261e+00 -3.245262e+00 -8.045834e+00 -6.773647e-01 -3.393605e+00 -5.072668e+00 -7.771363e+00 8.227353e-01 -9.771979e-02 1.027482e+00 1.284727e+00 1.007591e+00 -1.305764e+00 3.730975e-02 -4.045810e-01 -9.154464e-02 -6.272012e-01 6.085505e-01 -1.195827e-01 4.431687e-01 -2.344184e-02
<VARIANCE> 26
 2.901582e+01 1.778855e+01 3.233438e+01 4.162654e+01 4.928108e+01 1.281105e+01 3.019788e+01 6.683550e+01 4.340753e+01 5.245713e+01 4.923976e+01 3.278977e+01 7.786072e-03 1.961290e-01 7.091892e-01 1.147928e+00 1.151071e+00 1.280247e+00 1.071924e+00 1.568030e+00 2.222987e+00 1.557255e+00 1.724680e+00 3.090522e+00 2.900608e+00 2.114332e-04
<GCONST> 8.014680e+01
<STATE> 7
<MEAN> 26
 5.220374e+00 3.110423e-01 5.459079e+00 -1.139690e+00 -1.501738e+00 -1.974403e+00 -3.808782e+00 -6.254145e+00 -1.223483e+00 9.167049e-01 -4.875843e+00 -4.389462e+00 5.462393e-01 -9.938418e-01 3.679489e-01 -3.827568e-01 5.530730e-01 -1.100290e-01 3.269770e-01 3.959044e-01 8.159689e-01 1.489512e-01 2.664277e-01 9.505662e-01 6.381307e-01 -5.509904e-02
<VARIANCE> 26
 2.531298e+01 9.076478e+00 2.317038e+01 1.704794e+01 3.258615e+01 1.934767e+01 2.447413e+01 5.310280e+01 3.980383e+01 2.419018e+01 3.698502e+01 2.627024e+01 3.358534e-02 8.680203e-01 6.929181e-01 1.943971e+00 7.313794e-01 1.365594e+00 1.642515e+00 2.132445e+00 2.312666e+00 2.224984e+00 2.063604e+00 1.948004e+00 1.697755e+00 7.213555e-04
<GCONST> 8.090517e+01
<TRANSP> 8
 0.000000e+00 1.000000e+00 0.000000e+00 0.000000e+00 0.000000e+00 0.000000e+00 0.000000e+00 0.000000e+00
 0.000000e+00 9.096553e-01 9.034473e-02 0.000000e+00 0.000000e+00 0.000000e+00 0.000000e+00 0.000000e+00
 0.000000e+00 0.000000e+00 7.485005e-01 2.514995e-01 0.000000e+00 0.000000e+00 0.000000e+00 0.000000e+00
 0.000000e+00 0.000000e+00 0.000000e+00 7.030713e-01 2.969287e-01 0.000000e+00 0.000000e+00 0.000000e+00
 0.000000e+00 0.000000e+00 0.000000e+00 0.000000e+00 8.905900e-01 1.094100e-01 0.000000e+00 0.000000e+00
 0.000000e+00 0.000000e+00 0.000000e+00 0.000000e+00 0.000000e+00 8.714241e-01 1.285759e-01 0.000000e+00
 0.000000e+00 0.000000e+00 0.000000e+00 0.000000e+00 0.000000e+00 0.000000e+00 8.544370e-01 1.455631e-01
 0.000000e+00 0.000000e+00 0.000000e+00 0.000000e+00 0.000000e+00 0.000000e+00 0.000000e+00 0.000000e+00
<ENDHMM>
~o
<STREAMINFO> 1 26
<VECSIZE> 26<NULLD><MFCC_E_D_Z><DIAGC>
~h "seven"
<BEGINHMM>
<NUMSTATES> 9
<STATE> 2
<MEAN> 26
 4.317629e+00 2.897485e+00 6.419542e+00 -8.487971e-01 -5.189187e+00 -7.216695e+00 -4.243366e+00 -1.664370e+00 2.674916e+00 -6.104654e+00 -3.981185e+00 1.334002e+00 7.513661e-01 3.977275e-01 -1.880348e+00 -1.072490e+00 -1.838829e+00 6.925030e-01 -8.240231e-01 -2.518993e-01 1.028011e+00 1.264447e+00 -1.815350e+00 -9.901388e-01 -5.440815e-01 6.527442e-02
<VARIANCE> 26
 1.612881e+01 3.516928e+01 2.778875e+01 4.313329e+01 4.409341e+01 2.818550e+01 3.472266e+01 6.422725e+01 6.597041e+01 4.368716e+01 2.742142e+01 1.719605e+01 2.015302e-02 1.625820e+00 3.616516e+00 4.982628e+00 2.869956e+00 5.563509e+00 4.824920e+00 4.086722e+00 7.860010e+00 4.495317e+00 3.134092e+00 1.616311e+00 2.437531e+00 9.343877e-04
<GCONST> 9.449955e+01
<STATE> 3
<MEAN> 26
 3.366949e+00 -8.384691e+00 -3.283235e+00 -1.018059e+01 5.457245e+00 -5.028116e+00 -9.202520e-01 -1.161051e+00 6.376533e+00 -1.027879e+01 -7.203852e+00 -5.220049e+00 9.737657e-01 1.487050e-02 -1.449794e-01 -4.719739e-01 -2.086584e-01 3.793909e-01 -6.972744e-03 -2.860860e-01 -4.506649e-01 3.574703e-02 3.320608e-01 -9.402315e-02 -2.960016e-01 8.027249e-03
<VARIANCE> 26
 1.816012e+01 1.788751e+01 7.071315e+00 1.536804e+01 5.346867e+01 1.911390e+01 2.874130e+01 6.410324e+01 2.248956e+01 2.025511e+01 1.082973e+01 1.883076e+01 1.136007e-03 1.003269e-01 1.068617e+00 6.305178e-01 7.127550e-01 1.706056e+00 1.990171e+00 1.263409e+00 2.694679e+00 8.131711e-01 1.032550e+00 8.692294e-01 2.645913e+00 2.504006e-04
<GCONST> 6.914417e+01
<STATE> 4
<MEAN> 26
 5.671112e+00 -3.388880e-01 2.685697e+00 -3.282538e+00 -3.221919e+00 -9.480626e+00 -6.977817e+00 -5.276980e+00 5.117456e+00 -8.531543e+00 -6.804936e+00 -2.237292e+00 8.898166e-01 3.479949e-01 1.570177e+00 1.787661e+00 1.585699e+00 -1.396416e+00 -3.804604e-01 -5.662451e-01 -1.821495e+00 -1.127677e-01 7.592510e-01 2.569391e-02 3.595702e-01 -1.626447e-02
<VARIANCE> 26
 1.714652e+01 2.651045e+01 4.299636e+01 2.588396e+01 5.165236e+01 2.063541e+01 3.488956e+01 8.358288e+01 6.239641e+01 6.509804e+01 1.791097e+01 1.934826e+01 4.592268e-03 2.531183e-01 1.510860e+00 1.928086e+00 1.619553e+00 1.107307e+00 1.835934e+00 2.451753e+00 4.175266e+00 1.775582e+00 3.133300e+00 1.540270e+00 1.478573e+00 4.564769e-04
<GCONST> 8.270268e+01
<STATE> 5
<MEAN> 26
 6.313876e+00 -3.664961e-01 2.077563e+00 -3.419326e+00 -1.594091e+00 -8.935936e+00 -8.338756e+00 -4.083148e+00 3.640575e+00 -5.320698e+00 -7.512634e+00 -3.642473e+00 8.724272e-01 -2.527305e-01 -2.300728e+00 -2.895519e+00 -2.340619e+00 2.655460e+00 9.348431e-01 1.844909e-01 3.133658e+00 -2.056432e-01 -7.055441e-01 1.284102e-01 -1.105595e+00 1.462958e-02
<VARIANCE> 26
 2.237903e+01 2.255164e+01 4.764240e+01 2.685296e+01 5.656166e+01 2.109780e+01 2.670714e+01 9.138006e+01 4.831263e+01 4.631849e+01 1.375328e+01 1.768881e+01 5.742115e-03 2.568713e-01 1.754223e+00 1.535095e+00 1.132165e+00 1.665062e+00 1.625873e+00 2.212055e+00 1.924653e+00 3.299715e+00 4.466770e+00 1.756834e+00 2.143787e+00 4.001188e-04
<GCONST> 8.248780e+01
<STATE> 6
<MEAN> 26
 6.327363e+00 -8.638269e+00 -5.866851e+00 -1.007413e+01 8.514291e+00 -3.868097e+00 -4.701410e+00 -8.097715e-01 1.795023e+00 -7.817845e+00 -5.432813e+00 -8.308166e+00 9.314257e-01 1.550209e-01 -6.116946e-01 -3.927458e-01 -6.299297e-01 1.187895e+00 1.081088e+00 1.001115e+00 -1.751655e+00 -3.847119e-02 6.043679e-01 6.533150e-01 -5.927873e-01 -4.895037e-03
<VARIANCE> 26
 1.329851e+01 1.314351e+01 1.143173e+01 7.230622e+00 3.422218e+01 1.074197e+01 3.218908e+01 3.590107e+01 5.386337e+01 1.501080e+01 1.781711e+01 1.910730e+01 2.534162e-03 2.963477e-01 1.063187e+00 5.762541e-01 8.788243e-01 1.250253e+00 9.601262e-01 9.990240e-01 2.159700e+00 1.486076e+00 1.993997e+00 4.581255e-01 1.124715e+00 2.014197e-04
<GCONST> 6.789948e+01
<STATE> 7
<MEAN> 26
 5.530860e+00 -7.439885e+00 -6.211354e+00 -1.144521e+01 1.033467e+01 2.586576e+00 -1.868039e+00 -6.291862e+00 2.094412e+00 -3.648979e+00 -2.088532e+00 -8.358772e+00 7.786035e-01 -1.936012e-01 6.875397e-01 -2.300554e-01 3.846450e-01 -1.456392e-01 8.335048e-01 -1.771191e-02 2.736317e-01 -2.916846e-01 6.070783e-01 1.619955e-01 2.594653e-01 -3.666485e-02
<VARIANCE> 26
 1.947760e+01 1.196432e+01 1.201224e+01 2.247340e+01 2.101874e+01 2.334469e+01 3.497406e+01 3.430485e+01 2.932860e+01 9.504818e+00 1.432370e+01 9.853685e+00 9.987235e-03 4.962932e-01 6.176271e-01 5.639741e-01 7.716579e-01 7.734434e-01 7.917583e-01 8.774312e-01 1.118332e+00 1.227179e+00 1.067613e+00 7.359340e-01 7.218876e-01 5.009756e-04
<GCONST> 6.760855e+01
<STATE> 8
<MEAN> 26
 1.755869e+00 -7.359579e-01 -4.266277e+00 -3.285826e+00 4.587601e+00 4.950120e+00 1.741877e-01 -7.054169e-01 -8.109930e-01 2.116023e+00 -2.682264e+00 -5.495135e+00 4.463754e-01 -9.571918e-01 5.962593e-01 8.582982e-01 1.520957e+00 -1.111795e+00 -1.227946e-01 6.480288e-01 5.420977e-01 -1.887545e-01 6.824595e-01 6.064761e-01 9.315036e-01 -4.855749e-02
<VARIANCE> 26
 9.245798e+00 9.851561e+00 1.547633e+01 2.545998e+01 2.041911e+01 1.628410e+01 1.866761e+01 2.837648e+01 1.848608e+01 1.881766e+01 1.321167e+01 1.744433e+01 2.817517e-02 6.317679e-01 6.285505e-01 9.224715e-01 1.410268e+00 2.163722e+00 1.901685e+00 1.803863e+00 2.239175e+00 1.409318e+00 1.762508e+00 1.524508e+00 1.324139e+00 1.318852e-03
<GCONST> 7.520603e+01
<TRANSP> 9
 0.000000e+00 1.000000e+00 0.000000e+00 0.000000e+00 0.000000e+00 0.000000e+00 0.000000e+00 0.000000e+00 0.000000e+00
 0.000000e+00 8.316329e-01 1.683671e-01 0.000000e+00 0.000000e+00 0.000000e+00 0.000000e+00 0.000000e+00 0.000000e+00
 0.000000e+00 0.000000e+00 8.269714e-01 1.730287e-01 0.000000e+00 0.000000e+00 0.000000e+00 0.000000e+00 0.000000e+00
 0.000000e+00 0.000000e+00 0.000000e+00 8.408017e-01 1.591984e-01 0.000000e+00 0.000000e+00 0.000000e+00 0.000000e+00
 0.000000e+00 0.000000e+00 0.000000e+00 0.000000e+00 7.535829e-01 2.464171e-01 0.000000e+00 0.000000e+00 0.000000e+00
 0.000000e+00 0.000000e+00 0.000000e+00 0.000000e+00 0.000000e+00 7.814474e-01 2.185526e-01 0.000000e+00 0.000000e+00
 0.000000e+00 0.000000e+00 0.000000e+00 0.000000e+00 0.000000e+00 0.000000e+00 8.645728e-01 1.354272e-01 0.000000e+00
 0.000000e+00 0.000000e+00 0.000000e+00 0.000000e+00 0.000000e+00 0.000000e+00 0.000000e+00 8.328345e-01 1.671655e-01
 0.000000e+00 0.000000e+00 0.000000e+00 0.000000e+00 0.000000e+00 0.000000e+00 0.000000e+00 0.000000e+00 0.000000e+00
<ENDHMM>
~o
<STREAMINFO> 1 26
<VECSIZE> 26<NULLD><MFCC_E_D_Z><DIAGC>
~h "sil"
<BEGINHMM>
<NUMSTATES> 5
<STATE> 2
<MEAN> 26
 9.220964e-01 -1.034667e-01 -1.279884e+00 2.511237e+00 -5.066986e-01 1.770031e+00 9.056636e-01 1.455994e+00 -8.754790e-01 1.462710e+00 3.003621e-01 6.063763e-01 2.440220e-01 -4.691064e-02 -2.174871e-02 -4.992735e-02 9.152114e-02 7.147923e-02 7.760017e-02 7.815185e-02 6.194497e-02 3.077623e-02 7.068256e-03 8.736657e-04 4.229041e-02 -2.619124e-03
<VARIANCE> 26
 5.030787e+00 4.761700e+00 7.040498e+00 7.718849e+00 1.215672e+01 1.046562e+01 1.147257e+01 1.307322e+01 1.242417e+01 1.062134e+01 1.162625e+01 8.872892e+00 9.117500e-03 1.949429e-01 2.487191e-01 4.719075e-01 6.685072e-01 8.149878e-01 9.395923e-01 1.004407e+00 1.195315e+00 1.148295e+00 1.027545e+00 1.050406e+00 9.304584e-01 4.910663e-04
<GCONST> 5.789343e+01
<STATE> 3
<MEAN> 26
 -2.116556e+00 -3.723977e-02 -3.322768e-01 2.479616e+00 2.089698e+00 1.384983e+00 2.330272e+00 1.806259e+00 1.000857e+00 1.433019e+00 6.564208e-01 1.356512e+00 2.818396e-01 -1.642014e-02 -7.514973e-03 1.009773e-02 1.263561e-02 1.033624e-02 9.319194e-03 1.030478e-02 1.345280e-02 1.005202e-03 -1.321900e-05 7.351669e-03 5.245769e-03 -7.982767e-05
<VARIANCE> 26
 2.149566e+00 3.733898e+00 5.999082e+00 6.642840e+00 8.921436e+00 9.655895e+00 1.038459e+01 1.213801e+01 1.142260e+01 1.203491e+01 1.139118e+01 9.744365e+00 5.930729e-02 9.377744e-02 1.969499e-01 3.367112e-01 5.066444e-01 6.565037e-01 8.783598e-01 9.507998e-01 1.095680e+00 1.136469e+00 1.145143e+00 1.087743e+00 1.012404e+00 5.736815e-04
<GCONST> 5.628001e+01
<STATE> 4
<MEAN> 26
 -5.471721e-01 7.313330e-01 9.081774e-01 1.995219e+00 9.742858e-01 7.127194e-01 9.867069e-03 9.048627e-02 -6.810726e-01 -1.074534e-01 -2.368865e-01 6.239975e-04 3.458922e-01 1.515536e-01 3.229595e-01 5.351075e-01 -5.838291e-01 -4.966974e-01 -5.285107e-01 -8.878160e-01 -5.985775e-01 -1.705058e-01 -6.866852e-01 -1.242129e-01 -3.171802e-01 4.307745e-02
<VARIANCE> 26
 1.931058e+01 1.828364e+01 2.751427e+01 2.872670e+01 1.773752e+01 2.120066e+01 2.265461e+01 2.122824e+01 2.243709e+01 2.105083e+01 1.706152e+01 1.311674e+01 4.726144e-02 2.606201e+00 2.321154e+00 4.662334e+00 3.386034e+00 2.901211e+00 2.573117e+00 3.235099e+00 2.966671e+00 2.939480e+00 2.827495e+00 2.099151e+00 1.780656e+00 2.886877e-03
<GCONST> 8.736514e+01
<TRANSP> 5
 0.000000e+00 1.000000e+00 0.000000e+00 0.000000e+00 0.000000e+00
 0.000000e+00 9.395820e-01 6.041794e-02 0.000000e+00 0.000000e+00
 0.000000e+00 0.000000e+00 9.587130e-01 4.128702e-02 0.000000e+00
 0.000000e+00 0.000000e+00 0.000000e+00 6.591281e-01 3.408719e-01
 0.000000e+00 0.000000e+00 0.000000e+00 0.000000e+00 0.000000e+00
<ENDHMM>
~o
<STREAMINFO> 1 26
<VECSIZE> 26<NULLD><MFCC_E_D_Z><DIAGC>
~h "yon"
<BEGINHMM>
<NUMSTATES> 8
<STATE> 2
<MEAN> 26
 2.453621e+00 2.530608e+00 1.649786e+01 -2.590168e+00 -1.435011e+01 -4.345763e+00 -8.799189e+00 -5.058221e+00 -4.350777e+00 -6.808017e+00 4.534917e+00 -2.093700e+00 8.050112e-01 1.191575e+00 -1.538425e+00 -8.067294e-01 -6.462792e-01 -1.548405e+00 -2.003535e+00 -8.758469e-01 4.731386e-01 3.582419e-01 3.153322e-02 -4.178696e-04 -5.463538e-01 7.107867e-02
<VARIANCE> 26
 1.548797e+01 2.556786e+01 5.362521e+01 3.898131e+01 6.906064e+01 3.348543e+01 3.034601e+01 3.187269e+01 4.738817e+01 4.323981e+01 2.473560e+01 2.312656e+01 1.599321e-02 4.379650e-01 2.945264e+00 1.571878e+01 2.772250e+00 1.346361e+01 1.843579e+00 4.289286e+00 4.115767e+00 6.219369e+00 3.624617e+00 3.257260e+00 1.527881e+00 2.088491e-03
<GCONST> 9.453120e+01
<STATE> 3
<MEAN> 26
 7.523717e+00 -5.856853e+00 -3.877804e+00 -8.588269e+00 -3.912128e+00 -5.445432e+00 -1.206760e+01 -3.899990e+00 6.145825e+00 -2.825130e+00 -5.623273e-01 -8.476221e+00 9.609834e-01 6.050746e-01 -1.351331e-01 -3.238732e+00 -2.307353e+00 2.770369e+00 2.543186e+00 2.564040e-01 -1.841403e+00 7.762672e-01 2.853990e-01 -3.535452e-01 -7.016048e-01 1.037329e-02
<VARIANCE> 26
 2.272020e+01 1.690917e+01 3.250705e+01 2.951562e+01 3.995428e+01 4.025234e+01 5.258870e+01 4.399873e+01 2.258743e+01 2.727251e+01 2.356191e+01 2.027570e+01 8.095475e-04 1.843523e-01 8.134086e-01 2.697730e+00 1.990188e+00 2.769925e+00 2.890526e+00 3.819760e+00 2.110524e+00 7.398215e+00 4.704394e+00 2.784219e+00 5.430342e+00 1.172469e-04
<GCONST> 8.237021e+01
<STATE> 4
<MEAN> 26
 8.171401e+00 -3.216326e+00 -7.146225e+00 -1.502809e+01 -1.601287e-01 2.225030e+00 -2.273282e+00 -6.958704e+00 -2.115962e+00 -6.319345e+00 5.707766e-01 -5.339069e+00 9.788782e-01 2.167584e-01 3.549658e-01 3.065003e-01 -3.242654e-01 -6.212233e-01 3.276205e-01 1.101008e+00 9.037480e-01 -1.104622e+00 -7.417629e-01 -5.616311e-01 3.502868e-01 -5.528962e-03
<VARIANCE> 26
 1.649488e+01 1.370390e+01 1.620210e+01 3.225477e+01 2.334371e+01 4.612510e+01 4.435477e+01 3.306220e+01 5.003304e+01 4.969352e+01 3.293837e+01 1.091696e+01 3.704352e-04 1.650832e-01 2.841811e-01 5.544985e-01 1.248148e+00 8.150145e-01 1.294734e+00 1.760146e+00 8.905362e-01 1.765195e+00 2.094097e+00 2.317388e+00 1.105760e+00 1.221082e-04
<GCONST> 6.985282e+01
<STATE> 5
<MEAN> 26
 9.558125e+00 -5.586841e-01 -3.125579e+00 -1.001332e+01 -4.463162e+00 1.439062e+00 -3.099971e+00 -2.966263e+00 -3.913522e+00 -4.865437e+00 -5.187715e+00 -6.230642e+00 8.479742e-01 -2.451886e-01 7.730268e-01 1.210420e+00 1.884612e+00 2.610820e-01 -8.169596e-01 -3.545865e-01 -4.779621e-01 -3.759313e-01 1.020249e+00 -7.827660e-01 -4.924431e-02 -2.626220e-02
<VARIANCE> 26
 1.883666e+01 1.370229e+01 1.355368e+01 3.717719e+01 2.546132e+01 3.005170e+01 3.440343e+01 5.125213e+01 4.319816e+01 3.087434e+01 5.425905e+01 8.877971e+00 3.893883e-03 2.282571e-01 5.013980e-01 8.073676e-01 1.055824e+00 1.245580e+00 1.168616e+00 1.428616e+00 2.418086e+00 1.268145e+00 2.852324e+00 1.720363e+00 1.545215e+00 1.878310e-04
<GCONST> 7.447148e+01
<STATE> 6
<MEAN> 26
 6.388356e+00 2.575574e+00 4.122163e+00 -9.154591e-01 -1.369326e+00 -2.771323e+00 -3.564029e+00 -8.294076e+00 -6.418636e+00 -1.521110e+00 -6.426074e+00 -4.465638e+00 7.028682e-01 -8.177278e-01 -1.159954e-02 8.837593e-01 8.033895e-01 4.542187e-01 -1.385740e-01 4.808829e-01 2.082127e-02 9.387229e-02 7.734545e-01 1.477261e-01 2.226806e-01 -3.467092e-02
<VARIANCE> 26
 2.352657e+01 8.599519e+00 7.057988e+00 1.985360e+01 3.227595e+01 1.543501e+01 1.575114e+01 5.997084e+01 2.668968e+01 6.020064e+01 4.273662e+01 3.154054e+01 9.828449e-03 2.659721e-01 7.962019e-01 6.748629e-01 6.818562e-01 9.914330e-01 1.180135e+00 1.391201e+00 1.282555e+00 1.784819e+00 2.294088e+00 1.137657e+00 1.731411e+00 2.327134e-04
<GCONST> 7.319418e+01
<STATE> 7
<MEAN> 26
 1.572635e+00 1.523912e+00 3.972992e+00 1.254065e+00 1.835413e+00 -2.444624e+00 8.115982e-01 -3.219069e+00 -1.830612e+00 2.653590e+00 -5.577133e+00 -1.321225e+00 4.660443e-01 -7.216133e-01 -1.544906e-01 -9.644942e-01 3.492166e-01 -7.038247e-04 4.385494e-01 5.043541e-01 9.833844e-01 8.795525e-01 -3.288274e-01 1.079883e+00 8.241779e-01 -5.404365e-02
<VARIANCE> 26
 1.154910e+01 5.609250e+00 1.260448e+01 2.386676e+01 2.533446e+01 1.015047e+01 1.480615e+01 5.213850e+01 1.459726e+01 2.337902e+01 2.753138e+01 1.933591e+01 1.802646e-02 7.937773e-01 8.783789e-01 7.552904e-01 9.133001e-01 1.677126e+00 8.595427e-01 1.439230e+00 3.421790e+00 1.360394e+00 2.548335e+00 1.836036e+00 1.791875e+00 1.179448e-03
<GCONST> 7.487446e+01
<TRANSP> 8
 0.000000e+00 1.000000e+00 0.000000e+00 0.000000e+00 0.000000e+00 0.000000e+00 0.000000e+00 0.000000e+00
 0.000000e+00 8.200960e-01 1.799040e-01 0.000000e+00 0.000000e+00 0.000000e+00 0.000000e+00 0.000000e+00
 0.000000e+00 0.000000e+00 7.767268e-01 2.232732e-01 0.000000e+00 0.000000e+00 0.000000e+00 0.000000e+00
 0.000000e+00 0.000000e+00 0.000000e+00 8.409553e-01 1.590447e-01 0.000000e+00 0.000000e+00 0.000000e+00
 0.000000e+00 0.000000e+00 0.000000e+00 0.000000e+00 8.401872e-01 1.598128e-01 0.000000e+00 0.000000e+00
 0.000000e+00 0.000000e+00 0.000000e+00 0.000000e+00 0.000000e+00 8.059911e-01 1.940089e-01 0.000000e+00
 0.000000e+00 0.000000e+00 0.000000e+00 0.000000e+00 0.000000e+00 0.000000e+00 7.868723e-01 2.131278e-01
 0.000000e+00 0.000000e+00 0.000000e+00 0.000000e+00 0.000000e+00 0.000000e+00 0.000000e+00 0.000000e+00
<ENDHMM>
~o
<STREAMINFO> 1 26
<VECSIZE> 26<NULLD><MFCC_E_D_Z><DIAGC>
~h "zero"
<BEGINHMM>
<NUMSTATES> 9
<STATE> 2
<MEAN> 26
 -8.917832e+00 3.494936e+00 -1.502589e+00 4.576518e+00 5.955337e-01 -1.514268e+00 1.150737e+00 1.246740e+00 -1.474465e+00 -3.332871e-01 -2.792198e-01 -3.534575e-01 5.148236e-01 4.431764e-02 7.346542e-01 6.363996e-01 3.346555e-01 -5.439167e-01 -1.421143e+00 1.674627e-01 -3.674293e-01 -5.036905e-01 -6.158471e-01 -2.693039e-01 2.159310e-01 5.767014e-02
<VARIANCE> 26
 2.659044e+01 2.385987e+01 1.543059e+01 2.482588e+01 2.351865e+01 2.200104e+01 2.172957e+01 2.928175e+01 2.823590e+01 2.212568e+01 1.661978e+01 1.207098e+01 3.445248e-02 6.743162e+00 1.541238e+00 2.773731e+00 1.481025e+00 2.995728e+00 3.984476e+00 2.199337e+00 2.235149e+00 2.410360e+00 3.166667e+00 1.393629e+00 1.423070e+00 1.868236e-03
<GCONST> 8.552139e+01
<STATE> 3
<MEAN> 26
 1.574204e+00 2.991103e+00 6.532473e+00 3.037068e+00 -8.912569e+00 -1.338900e+01 -3.557297e+00 -2.275491e+00 -4.909456e+00 -5.277718e+00 -7.641335e-01 1.726338e+00 8.511599e-01 3.152193e+00 -1.801875e+00 1.381985e+00 -2.009057e+00 -3.185594e+00 -1.905596e+00 -1.691101e+00 8.328954e-02 3.161744e-01 -6.499382e-01 9.527164e-01 -3.064385e-01 7.197621e-02
<VARIANCE> 26
 3.918574e+01 1.704500e+01 6.799435e+00 3.517440e+01 5.486945e+01 1.488698e+01 3.655442e+01 2.626646e+01 3.836458e+01 2.105661e+01 1.792831e+01 1.813532e+01 8.537250e-03 2.174458e+00 1.750707e+00 1.697654e+00 1.243911e+00 3.155453e+00 2.675976e+00 2.557606e+00 2.647451e+00 1.949223e+00 2.179500e+00 2.513994e+00 2.901167e+00 1.714137e-03
<GCONST> 8.424903e+01
<STATE> 4
<MEAN> 26
 3.602620e+00 -3.845589e+00 6.186009e+00 -4.497711e+00 -1.143383e+01 -1.261137e+01 -3.514318e+00 2.720374e+00 2.571231e-01 -6.205787e+00 2.811259e+00 -4.663171e+00 9.686758e-01 1.184297e-01 -7.516199e-01 -1.982194e-01 -2.568037e-01 5.121666e-02 3.145863e-01 -2.335652e-01 6.546410e-01 4.999287e-01 -2.787790e-01 -1.526756e-01 -4.583669e-01 -1.163600e-03
<VARIANCE> 26
 1.889306e+01 1.337342e+01 5.966308e+00 1.744873e+01 4.822213e+01 9.741840e+00 4.840791e+01 4.096056e+01 3.351307e+01 1.710699e+01 3.397639e+01 2.425180e+01 1.192202e-03 4.320863e-01 5.305783e-01 6.850130e-01 2.155753e+00 6.034755e-01 7.518113e-01 1.321336e+00 9.758070e-01 9.185565e-01 9.418297e-01 1.407210e+00 2.123253e+00 4.057550e-04
<GCONST> 6.956106e+01
<STATE> 5
<MEAN> 26
 8.761330e+00 -7.751456e+00 2.317391e+00 1.634683e+00 -9.770668e+00 -9.175400e+00 -1.075547e+01 1.050075e+00 4.532303e+00 -5.407207e+00 -3.699252e+00 -1.327926e+00 8.669590e-01 9.223207e-01 -1.100979e-01 -1.640988e+00 5.116913e-01 8.432714e-01 1.485373e+00 -1.291217e+00 -1.469933e+00 8.460146e-01 1.188983e+00 -3.598321e-01 -1.781774e-01 -2.620363e-03
<VARIANCE> 26
 2.762822e+01 8.991316e+00 2.719566e+01 5.266573e+01 3.776358e+01 3.102341e+01 4.457368e+01 2.237974e+01 3.233121e+01 2.253007e+01 2.781028e+01 2.561762e+01 7.260329e-03 4.643662e-01 1.085659e+00 2.148134e+00 7.598879e+00 3.123522e+00 4.402092e+00 2.011210e+00 1.902597e+00 4.097698e+00 2.787483e+00 3.911802e+00 5.019727e+00 1.634616e-03
<GCONST> 8.783984e+01
<STATE> 6
<MEAN> 26
 1.024115e+01 -2.624286e+00 -5.753488e+00 -8.977812e+00 -4.840199e+00 3.904102e+00 -9.944863e+00 -8.004549e+00 1.281672e+00 2.579431e+00 1.283979e+00 -5.379488e+00 9.125500e-01 -2.598379e-01 1.854428e+00 -3.169268e-01 -3.528800e+00 6.594382e-01 2.027906e+00 1.599938e+00 -8.649718e-01 -1.962815e+00 4.114544e-02 9.218056e-01 8.497036e-01 -8.848185e-03
<VARIANCE> 26
 1.565799e+01 2.000462e+01 1.589337e+01 7.105286e+01 2.407838e+01 4.959928e+01 3.930241e+01 2.097978e+01 3.712650e+01 1.717919e+01 2.114256e+01 3.453850e+01 2.245903e-03 2.625733e-01 2.770171e-01 9.677514e-01 3.551817e+00 1.420726e+00 4.115516e+00 3.887198e+00 1.897506e+00 1.977188e+00 3.202898e+00 2.538825e+00 2.672922e+00 1.802901e-04
<GCONST> 7.883155e+01
<STATE> 7
<MEAN> 26
 9.128096e+00 3.129465e+00 -3.741338e+00 -2.011542e+01 -4.559960e+00 5.519424e+00 -3.420820e+00 -3.923800e+00 -3.365874e+00 -1.959890e+00 4.657348e-01 1.045217e+00 7.997453e-01 -2.504659e-01 4.903766e-01 3.181459e-01 -4.015561e-01 -3.318693e-01 -4.394666e-01 8.463521e-01 1.017589e+00 -8.256767e-03 -2.459426e-01 -1.826563e-01 4.855300e-01 -3.090390e-02
<VARIANCE> 26
 1.927123e+01 1.293906e+01 1.014244e+01 3.989322e+01 2.906519e+01 5.480544e+01 1.227091e+01 2.511774e+01 2.616241e+01 4.794507e+01 1.771015e+01 2.252795e+01 7.342855e-03 6.678619e-01 3.967131e-01 8.208266e-01 1.452751e+00 6.970069e-01 1.395880e+00 1.125593e+00 1.254363e+00 1.286422e+00 3.333996e+00 2.301127e+00 9.047335e-01 4.540583e-04
<GCONST> 7.427731e+01
<STATE> 8
<MEAN> 26
 4.825940e+00 3.284692e+00 -2.855595e+00 -1.037962e+01 -3.477597e+00 9.955516e-01 -3.794587e-01 -2.463386e-03 -1.031802e+00 9.229433e-01 1.805976e+00 1.837741e+00 5.229030e-01 -1.287696e+00 -5.702341e-01 2.194329e-01 2.585953e+00 1.045380e+00 -4.964129e-01 3.903880e-01 5.217488e-01 5.632590e-01 4.457995e-01 1.945119e-01 7.709020e-02 -6.135248e-02
<VARIANCE> 26
 1.729613e+01 6.795310e+00 9.127034e+00 6.818970e+01 2.832667e+01 2.986704e+01 1.086491e+01 1.928376e+01 1.970193e+01 1.547889e+01 1.864963e+01 1.239242e+01 2.639261e-02 9.001381e-01 5.457496e-01 1.260987e+00 2.142993e+00 1.773019e+00 3.066204e+00 1.172058e+00 2.117027e+00 1.463582e+00 2.111349e+00 1.833013e+00 1.391776e+00 1.071149e-03
<GCONST> 7.670978e+01
<TRANSP> 9
 0.000000e+00 1.000000e+00 0.000000e+00 0.000000e+00 0.000000e+00 0.000000e+00 0.000000e+00 0.000000e+00 0.000000e+00
 0.000000e+00 8.178830e-01 1.821170e-01 0.000000e+00 0.000000e+00 0.000000e+00 0.000000e+00 0.000000e+00 0.000000e+00
 0.000000e+00 0.000000e+00 6.706401e-01 3.293599e-01 0.000000e+00 0.000000e+00 0.000000e+00 0.000000e+00 0.000000e+00
 0.000000e+00 0.000000e+00 0.000000e+00 8.760980e-01 1.239020e-01 0.000000e+00 0.000000e+00 0.000000e+00 0.000000e+00
 0.000000e+00 0.000000e+00 0.000000e+00 0.000000e+00 8.297748e-01 1.702252e-01 0.000000e+00 0.000000e+00 0.000000e+00
 0.000000e+00 0.000000e+00 0.000000e+00 0.000000e+00 0.000000e+00 7.735183e-01 2.264818e-01 0.000000e+00 0.000000e+00
 0.000000e+00 0.000000e+00 0.000000e+00 0.000000e+00 0.000000e+00 0.000000e+00 8.336432e-01 1.663568e-01 0.000000e+00
 0.000000e+00 0.000000e+00 0.000000e+00 0.000000e+00 0.000000e+00 0.000000e+00 0.000000e+00 8.039535e-01 1.960466e-01
 0.000000e+00 0.000000e+00 0.000000e+00 0.000000e+00 0.000000e+00 0.000000e+00 0.000000e+00 0.000000e+00 0.000000e+00
<ENDHMM>
