~o
<STREAMINFO> 1 39
<VECSIZE> 39<NULLD><MFCC_D_A_0><DIAGC>
~h "hachi"
<BEGINHMM>
<NUMSTATES> 9
<STATE> 2
<NUMMIXES> 2
<MIXTURE> 1 2.382521e-01
<MEAN> 39
 -9.062700e+00 -4.654324e+00 3.669889e+00 -8.425055e+00 7.901045e+00 -1.916751e+00 1.610354e+00 -9.011399e+00 9.296527e+00 -7.770188e+00 1.751161e+00 -1.540304e+00 6.864333e+01 1.947497e+00 1.091184e+00 -4.991618e-01 -1.310934e+00 4.314419e-01 -2.883525e-01 8.296373e-01 -9.549901e-01 9.811575e-01 -8.456738e-01 -6.336266e-01 -9.404346e-01 2.280116e+00 1.082892e-01 -2.150824e-01 -6.318984e-01 -3.357331e-01 -1.649389e-01 -1.946598e-01 -1.533557e-01 -1.375995e-02 -8.577362e-02 1.945754e-01 -1.833314e-01 -6.487761e-02 -1.081443e-01
<VARIANCE> 39
 1.031862e+01 2.774537e+01 1.229173e+02 6.207561e+01 9.033341e+01 5.658321e+01 1.254948e+02 2.915653e+01 2.524146e+01 2.202960e+01 1.990531e+01 1.457893e+01 2.579499e+01 1.511810e+00 3.144597e+00 9.762405e+00 4.005285e+00 4.004063e+00 1.702157e+00 3.499378e+00 3.847763e+00 2.109504e+00 1.737437e+00 3.018863e+00 8.778152e-01 1.078293e+00 3.321919e-01 6.691309e-01 1.093249e+00 7.632006e-01 5.589086e-01 3.870659e-01 8.434984e-01 6.920891e-01 5.798178e-01 2.717104e-01 4.555002e-01 2.132452e-01 1.432990e-01
<GCONST> 1.204765e+02
<MIXTURE> 2 7.617479e-01
<MEAN> 39
 -1.468432e+01 -1.103455e+01 -4.515197e+00 -1.735393e+00 1.067667e+01 2.624511e+00 -2.507113e+00 -5.290624e-01 3.314978e+00 -3.636595e+00 1.193001e+00 -1.423510e-01 6.234969e+01 -5.399987e-01 -7.715648e-01 3.780198e-02 -2.463184e-01 4.076432e-01 -2.229336e-02 7.094151e-01 -5.331142e-01 -5.350073e-02 -9.546067e-01 -2.697313e-01 1.088516e-01 1.673994e+00 3.926628e-01 5.495445e-01 1.042916e-01 4.937601e-02 -2.236159e-01 1.432427e-02 2.989889e-01 -6.938077e-02 -6.499763e-02 -2.499395e-02 -1.199689e-01 -1.671655e-01 -6.639412e-02
<VARIANCE> 39
 1.628527e+01 1.596807e+01 1.359999e+01 3.647691e+01 1.783862e+01 2.459144e+01 3.296158e+01 3.800261e+01 4.378646e+01 4.958302e+01 2.058362e+01 1.584797e+01 2.057423e+01 9.224605e-01 1.626792e+00 1.269282e+00 1.587055e+00 1.866192e+00 1.460851e+00 2.617493e+00 1.939010e+00 1.295334e+00 1.825804e+00 1.390024e+00 1.537733e+00 7.949914e-01 2.844303e-01 2.830395e-01 2.361240e-01 2.609619e-01 2.403663e-01 2.879487e-01 4.959690e-01 3.627648e-01 2.523640e-01 3.062009e-01 2.688911e-01 3.575021e-01 5.987313e-02
<GCONST> 1.008707e+02
<STATE> 3
<NUMMIXES> 2
<MIXTURE> 1 7.415648e-01
<MEAN> 39
 -3.435458e+00 -7.650098e+00 -8.163826e+00 -1.473284e+01 8.432200e+00 -5.537106e-01 5.426787e+00 -1.333376e+01 1.046676e+01 -1.088268e+01 -3.897760e+00 -5.357111e+00 7.538828e+01 3.646895e-01 -3.363596e-01 2.434335e-02 -6.068702e-01 -1.149901e+00 -1.383867e+00 3.419642e-01 4.614079e-02 8.730154e-01 -3.476495e-01 -9.059010e-01 -1.583204e-01 8.634531e-01 -4.295470e-01 1.221185e-01 4.300242e-01 4.938956e-01 -2.991130e-01 -1.431241e-01 -4.882328e-01 6.453004e-01 -7.061387e-02 2.718652e-01 1.563485e-01 2.568432e-01 -5.504453e-01
<VARIANCE> 39
 1.123154e+01 3.409548e+01 4.507456e+01 4.182662e+01 4.305825e+01 4.023183e+01 5.884079e+01 2.391204e+01 3.707742e+01 2.011800e+01 1.782679e+01 1.431389e+01 1.014268e+01 1.575822e+00 1.778949e+00 1.503227e+00 2.278606e+00 1.771315e+00 3.321493e+00 2.932824e+00 2.949629e+00 2.405848e+00 1.329572e+00 1.236533e+00 9.889255e-01 1.550681e+00 3.721388e-01 4.289328e-01 3.190685e-01 2.081741e-01 3.343065e-01 3.992735e-01 3.498133e-01 4.755319e-01 3.454115e-01 2.452347e-01 1.941320e-01 1.953408e-01 2.036991e-01
<GCONST> 1.066550e+02
<MIXTURE> 2 2.584352e-01
<MEAN> 39
 -1.199153e+01 -7.178366e+00 -2.567709e+00 6.330196e-01 6.373393e+00 1.621275e+00 -2.221062e+00 -4.567396e-01 -1.134583e+00 -8.201184e+00 -2.227693e+00 -2.991671e+00 6.789859e+01 3.018341e+00 2.198289e+00 -7.118623e-01 -1.120904e+00 -7.600800e-01 -1.455975e+00 6.419268e-01 -2.202636e+00 -6.243905e-01 -9.481747e-01 -6.609328e-01 -1.603943e+00 1.168180e+00 1.747458e-01 -1.972320e-01 -4.400187e-01 -1.872348e-01 2.647497e-01 -1.017956e-01 3.509822e-01 -3.589325e-01 3.926159e-01 4.414147e-02 -6.826758e-02 2.444286e-01 3.004960e-02
<VARIANCE> 39
 3.301950e+01 3.753056e+01 3.297705e+01 4.447986e+01 7.653161e+01 6.470630e+01 3.336763e+01 2.802407e+01 4.213404e+01 3.749252e+01 3.561827e+01 1.384290e+01 1.098636e+01 3.954121e+00 9.644530e-01 5.271091e+00 1.041866e+00 2.470477e+00 3.749218e+00 5.045848e+00 3.878592e+00 1.723843e+00 1.311120e+00 1.418841e+00 2.194034e+00 1.494351e+00 7.597391e-01 5.821481e-01 2.701988e-01 3.051237e-01 5.940899e-01 1.273239e+00 5.306005e-01 6.051875e-01 3.316936e-01 2.265370e-01 3.092936e-01 4.929816e-01 3.226187e-01
<GCONST> 1.176683e+02
<STATE> 4
<NUMMIXES> 2
<MIXTURE> 1 4.387634e-01
<MEAN> 39
 -3.918639e+00 -5.120783e+00 -3.792029e+00 -7.487807e+00 3.422770e+00 -9.985989e+00 2.573471e+00 -6.010027e+00 1.050451e+01 -8.596956e+00 -7.069823e+00 -1.601848e+00 7.282999e+01 -9.331854e-02 1.518243e+00 6.453581e-01 1.880176e+00 -8.711822e-01 1.817918e-01 -1.418727e+00 1.324956e+00 -8.793797e-01 1.189884e+00 1.467912e-01 1.076798e+00 -3.281284e+00 -1.695026e-01 -9.734784e-02 -3.412907e-01 5.250148e-02 4.784624e-01 1.141362e+00 2.002327e-01 -8.052675e-02 -3.520986e-01 2.480650e-01 1.961887e-01 -1.698429e-01 -8.055193e-01
<VARIANCE> 39
 8.319890e+00 3.144179e+01 3.110027e+01 4.829609e+01 7.241914e+01 3.265981e+01 7.127426e+01 4.159179e+01 4.500833e+01 2.227859e+01 2.285954e+01 3.831896e+01 4.073824e+01 5.290135e-01 7.105625e-01 1.648545e+00 1.607575e+00 4.626709e+00 5.395406e+00 2.932620e+00 1.527636e+00 2.501028e+00 2.255267e+00 1.582225e+00 1.160897e+00 3.247281e+00 1.252524e-01 3.036809e-01 2.930324e-01 7.032301e-01 8.235407e-01 5.124526e-01 6.472607e-01 2.807446e-01 5.377086e-01 3.904329e-01 3.686900e-01 3.589436e-01 5.460106e-01
<GCONST> 1.143384e+02
<MIXTURE> 2 5.612366e-01
<MEAN> 39
 -9.219012e+00 1.568313e+00 -8.584050e-01 -9.758378e-01 2.934262e+00 -1.207851e+00 2.231286e+00 -1.009824e+00 1.164984e+00 -2.346645e+00 -1.793157e+00 -3.256184e-01 5.704241e+01 -3.426102e-01 -1.198151e-01 -2.608120e-01 5.582621e-01 -2.373725e-01 1.287636e+00 8.775011e-02 4.151634e-01 -1.925457e-01 1.009665e+00 1.106122e+00 4.189683e-01 -1.203945e+00 -5.662253e-02 -1.599375e-01 -1.317579e-02 -1.119362e-01 -1.823724e-02 -3.455728e-01 6.789102e-02 -9.010414e-02 1.989870e-01 8.249803e-03 1.037300e-01 -6.073789e-02 5.492209e-01
<VARIANCE> 39
 3.636249e+00 8.497561e+00 8.747916e+00 3.072262e+01 1.101866e+01 2.113249e+01 1.384590e+01 2.419896e+01 3.388900e+01 1.656194e+01 2.348322e+01 1.563020e+01 2.353515e+01 3.381813e-01 1.151605e+00 5.261547e-01 9.590876e-01 1.424953e+00 2.466685e+00 1.315212e+00 1.047092e+00 2.896258e+00 1.385817e+00 2.069326e+00 1.586354e+00 2.182814e+00 1.183888e-01 1.874589e-01 1.454034e-01 1.541665e-01 3.114878e-01 3.135123e-01 2.555519e-01 2.270257e-01 5.194572e-01 2.290880e-01 3.820904e-01 3.661482e-01 9.646998e-02
<GCONST> 9.145650e+01
<STATE> 5
<NUMMIXES> 2
<MIXTURE> 1 4.046721e-01
<MEAN> 39
 -2.140532e+01 2.170380e+00 -4.702973e+00 1.102313e+00 2.712913e+00 -1.385610e+00 2.112389e+00 -4.728502e-01 1.502979e+00 -4.982362e-01 4.399956e+00 1.095606e+00 6.360275e+01 -2.680177e+00 1.691270e+00 3.552521e-01 -7.147076e-01 5.736388e-01 -1.698719e+00 -2.296517e-01 -9.127397e-01 -6.758620e-01 -8.210342e-01 -2.161438e-01 1.477879e-01 2.087569e+00 6.536682e-01 1.357129e-01 4.545119e-01 -2.671925e-01 -5.953834e-02 -1.219301e-01 -1.286463e-01 -1.144097e-01 -3.674714e-01 -7.533282e-02 -5.356604e-01 -1.716683e-01 -2.366454e-01
<VARIANCE> 39
 1.669452e+01 1.524912e+01 3.025705e+01 1.641353e+01 2.676476e+01 2.246995e+01 1.209672e+01 2.036842e+01 1.527469e+01 6.272213e+01 2.383278e+01 1.367490e+01 2.060829e+01 6.150974e+00 1.073130e+00 3.226239e+00 6.183878e-01 2.878968e+00 3.254236e+00 2.314316e+00 1.512695e+00 2.395522e+00 2.527828e+00 2.047654e+00 1.439321e+00 1.825593e+00 6.303567e-01 3.709267e-01 3.648325e-01 1.798076e-01 9.872070e-01 6.939990e-01 3.705671e-01 3.511265e-01 2.510606e-01 8.299274e-01 2.070988e-01 1.816401e-01 1.630750e-01
<GCONST> 1.073029e+02
<MIXTURE> 2 5.953279e-01
<MEAN> 39
 -6.417242e+00 -4.109754e+00 -8.624653e+00 2.267320e-01 2.660656e+00 2.718070e+00 2.015181e+00 -1.483470e+00 4.651894e+00 -2.759856e+00 -3.647024e+00 -8.464689e-02 5.492816e+01 -1.848355e+00 6.001875e-01 -8.347397e-02 1.186947e-02 2.104119e-01 1.908606e-01 2.017663e-01 3.208521e-01 -4.344366e-01 5.028550e-01 6.073941e-01 -1.396684e-01 -3.078556e-01 -6.117882e-01 1.836057e-01 1.649962e-02 -1.211044e-01 3.672807e-02 -5.034910e-01 -2.047355e-02 -1.994954e-01 3.867565e-02 -2.967756e-01 1.075492e-02 1.415479e-01 8.226072e-01
<VARIANCE> 39
 1.851475e+01 1.755437e+01 2.500102e+01 1.456946e+01 1.144763e+01 1.848386e+01 2.083326e+01 1.973028e+01 2.419893e+01 4.855755e+01 2.140462e+01 1.068390e+01 2.807304e+01 2.295431e+00 6.220616e-01 1.276575e+00 1.049975e+00 1.554526e+00 3.275078e+00 2.004855e+00 2.202775e+00 1.832082e+00 1.831389e+00 1.551027e+00 1.471555e+00 4.807699e+00 3.577455e-01 1.416436e-01 2.506042e-01 2.432044e-01 2.994441e-01 3.805399e-01 2.916996e-01 3.799980e-01 3.330279e-01 2.173675e-01 2.715406e-01 2.847535e-01 1.823121e-01
<GCONST> 1.008972e+02
<STATE> 6
<NUMMIXES> 2
<MIXTURE> 1 3.664416e-01
<MEAN> 39
 -1.443560e+01 7.523282e+00 7.408106e+00 -3.981987e+00 -2.348377e+00 -1.029654e+01 -3.493209e+00 -4.961475e+00 -9.748463e+00 -5.696276e+00 -1.752339e+00 -2.231331e+00 6.888757e+01 3.059999e+00 -3.221851e-01 2.353824e+00 -1.008601e+00 -3.635174e+00 -1.426673e+00 -1.082519e+00 -1.180672e+00 -1.804266e+00 -9.551899e-01 -4.957938e-01 -6.710889e-01 7.608572e-01 -4.285339e-01 -5.194279e-01 -4.714159e-01 1.412985e-01 1.952419e-01 7.422218e-01 4.743893e-01 1.086152e-01 6.043917e-01 3.039587e-01 5.748934e-01 1.626854e-01 -2.441717e-01
<VARIANCE> 39
 2.110283e+01 5.423371e+00 9.715007e+00 2.019338e+01 4.084020e+01 2.412252e+01 1.755872e+01 3.328383e+01 2.491376e+01 5.568106e+01 1.872383e+01 1.579200e+01 5.077776e+00 1.975301e+00 1.565793e+00 1.901892e+00 1.317209e+00 2.473260e+00 3.200395e+00 1.516456e+00 1.716986e+00 2.938839e+00 4.681825e+00 2.879365e+00 1.224572e+00 6.763750e-01 4.864826e-01 1.135223e-01 1.437693e-01 1.410771e-01 1.155477e+00 4.613323e-01 1.310395e-01 2.596351e-01 5.325321e-01 5.253384e-01 3.391839e-01 1.852466e-01 6.418399e-02
<GCONST> 1.004819e+02
<MIXTURE> 2 6.335585e-01
<MEAN> 39
 -3.004933e+01 7.542457e+00 -4.018592e+00 -5.495846e+00 7.425423e+00 -6.707394e+00 4.275413e+00 -2.374036e+00 1.832927e+00 -1.044461e-01 6.650925e-02 1.792615e+00 6.575108e+01 -8.001676e-01 5.000025e-01 1.159971e+00 -6.266480e-01 6.252648e-01 -2.782549e-01 9.317458e-02 1.981395e-01 -7.463488e-01 3.126077e-01 -7.149237e-02 -1.338436e-01 1.170340e+00 9.813411e-01 -3.958677e-01 2.970842e-01 1.557132e-01 -4.220113e-01 3.093586e-01 -2.290297e-01 1.022872e-01 -7.487376e-02 -3.245124e-02 9.121198e-02 -8.525746e-02 -3.410349e-01
<VARIANCE> 39
 5.955468e+00 6.145517e+00 1.703307e+01 1.324965e+01 1.718830e+01 1.428343e+01 1.547152e+01 1.497458e+01 1.397733e+01 1.806040e+01 8.179690e+00 1.199619e+01 1.804376e+01 4.106663e+00 1.083913e+00 1.799192e+00 1.008388e+00 1.562454e+00 1.824201e+00 1.816488e+00 8.361135e-01 1.696012e+00 1.512836e+00 5.394485e-01 9.908389e-01 9.808784e-01 3.919542e-01 1.322764e-01 2.988572e-01 1.306973e-01 6.103673e-01 2.531496e-01 3.347612e-01 1.948367e-01 3.464870e-01 3.671499e-01 1.258629e-01 2.268953e-01 1.281193e-01
<GCONST> 9.003394e+01
<STATE> 7
<NUMMIXES> 2
<MIXTURE> 1 3.343537e-01
<MEAN> 39
 -8.874404e+00 3.845533e+00 1.171380e+01 -6.312577e+00 -9.329958e+00 -7.950889e+00 -6.443974e+00 -9.824566e+00 -9.261129e+00 -6.729686e+00 2.437727e+00 -4.197669e+00 6.813090e+01 4.581665e-01 -2.227159e-01 5.023007e-01 -1.411449e-01 -7.035142e-01 3.240810e-01 -9.260841e-01 -7.856808e-01 3.218853e-01 1.471383e-01 8.150373e-01 -2.589647e-01 -7.684243e-01 -1.982157e-01 1.447478e-01 -2.680207e-01 1.618200e-01 2.951534e-01 5.581303e-02 3.289264e-02 1.045163e-01 1.482722e-01 9.157337e-02 -7.696041e-02 8.904898e-02 -2.935206e-01
<VARIANCE> 39
 9.553221e+00 6.440133e+00 1.923050e+01 2.140512e+01 1.371047e+01 1.190094e+01 1.915317e+01 1.832688e+01 7.497069e+01 1.084952e+02 1.139017e+01 9.961611e+00 7.925058e+00 2.605615e-01 6.592280e-01 6.735922e-01 1.140520e+00 1.139475e+00 1.074791e+00 1.321189e+00 7.895202e-01 1.985925e+00 1.515282e+00 1.132955e+00 1.028350e+00 5.574141e-01 1.045083e-01 1.029956e-01 7.987660e-02 2.012171e-01 3.910163e-01 1.967938e-01 3.755870e-01 1.942012e-01 3.308393e-01 3.239039e-01 1.975396e-01 1.552481e-01 4.891329e-02
<GCONST> 8.488676e+01
<MIXTURE> 2 6.656464e-01
<MEAN> 39
 -2.841556e+01 4.690151e+00 4.178134e-01 -8.131790e+00 4.555506e+00 -3.840966e+00 2.577935e+00 8.328139e-02 3.081044e+00 1.100273e+00 3.030231e+00 1.180791e+00 6.811294e+01 3.834673e-01 -3.104562e-01 2.594460e-01 -1.471057e-01 -2.436743e-01 1.841964e-01 -1.992401e-01 1.418865e-01 1.298688e-01 -9.607828e-02 2.369058e-01 1.739444e-02 -3.948917e-01 5.595982e-02 1.073415e-02 -7.462124e-02 -1.255128e-03 -9.167022e-03 -5.546985e-02 -2.492797e-02 -2.597989e-02 6.414220e-03 -5.110501e-02 -1.730990e-02 -1.165671e-02 -8.718833e-02
<VARIANCE> 39
 7.828424e+00 6.830784e+00 2.210692e+01 5.946227e+00 1.140601e+01 1.357065e+01 1.276698e+01 2.604770e+01 1.025714e+01 3.449981e+01 1.318489e+01 9.972947e+00 3.722180e+01 1.338892e-01 2.538300e-01 3.601933e-01 4.334262e-01 6.381235e-01 6.177024e-01 8.770698e-01 9.726530e-01 8.567588e-01 1.389080e+00 1.077333e+00 8.070955e-01 2.290520e-01 3.151140e-02 4.436917e-02 8.652630e-02 9.361017e-02 1.477413e-01 1.132174e-01 1.713226e-01 1.752606e-01 1.636464e-01 2.510529e-01 1.922067e-01 1.614106e-01 2.222236e-02
<GCONST> 6.852347e+01
<STATE> 8
<NUMMIXES> 2
<MIXTURE> 1 4.007810e-01
<MEAN> 39
 -9.033535e+00 2.566459e+00 1.286289e+01 -5.087833e+00 -8.984698e+00 -3.756318e+00 -8.466296e+00 -9.403988e+00 -7.550485e+00 -1.656987e+00 4.614997e+00 -5.550213e+00 5.794134e+01 -5.385665e-01 -2.358897e-01 -1.696846e+00 1.642501e+00 1.783346e+00 1.109887e+00 1.252183e+00 1.073849e+00 7.999253e-01 7.656943e-01 -5.668677e-01 7.370199e-01 -1.920277e+00 -5.137676e-02 -1.037935e-01 -3.285700e-01 1.116699e-01 2.582518e-01 8.612778e-02 4.063713e-01 3.111921e-01 1.129811e-01 -8.517227e-03 -1.371528e-01 1.840519e-01 1.349832e-01
<VARIANCE> 39
 1.044788e+01 1.529893e+01 5.606545e+01 5.236506e+01 2.959718e+01 1.439224e+01 2.136998e+01 3.626775e+01 4.355125e+01 4.886326e+01 2.105088e+01 2.854146e+01 3.510873e+01 7.014692e-01 7.222253e-01 3.763493e+00 1.928047e+00 2.461937e+00 1.320160e+00 3.360180e+00 2.487202e+00 2.278320e+00 2.582488e+00 1.514934e+00 1.896256e+00 7.829554e-01 1.544028e-01 1.440684e-01 5.032257e-01 3.687119e-01 6.745484e-01 2.569380e-01 5.322234e-01 3.830801e-01 4.424918e-01 4.827800e-01 2.469373e-01 1.825770e-01 1.398048e-01
<GCONST> 1.068064e+02
<MIXTURE> 2 5.992190e-01
<MEAN> 39
 -1.635567e+01 1.628433e+00 1.452305e+00 -6.729119e+00 1.559016e+00 -2.220049e+00 -4.599021e-01 2.510585e-01 2.721217e+00 -4.710947e-01 3.698828e+00 1.107133e+00 5.864086e+01 1.324587e+00 -3.247428e-01 -5.616472e-01 6.293985e-01 5.753476e-02 6.020519e-01 2.233367e-01 3.219290e-01 -2.025007e-01 1.342305e-01 -9.945053e-02 -1.622422e-01 -1.205670e+00 1.253005e-02 4.053428e-02 -2.592864e-03 1.613986e-01 -2.476540e-03 7.360699e-02 1.773319e-03 -5.507588e-02 -3.254562e-02 1.174697e-02 -1.696462e-02 -6.716842e-03 3.828564e-02
<VARIANCE> 39
 2.628734e+01 1.453020e+01 1.033545e+01 2.266012e+01 1.148276e+01 2.126641e+01 1.455355e+01 2.493507e+01 1.441436e+01 2.045851e+01 2.014468e+01 1.081394e+01 3.574462e+01 1.210146e+00 3.001382e-01 5.523640e-01 1.117883e+00 1.473096e+00 1.132242e+00 2.116415e+00 1.665872e+00 1.479409e+00 1.449889e+00 1.416364e+00 1.160600e+00 5.344133e-01 1.117291e-01 5.841193e-02 9.227923e-02 1.763420e-01 2.312081e-01 2.042873e-01 3.779052e-01 1.662841e-01 2.584757e-01 3.105832e-01 2.771384e-01 2.010543e-01 1.093634e-01
<GCONST> 8.743516e+01
<TRANSP> 9
 0.000000e+00 1.000000e+00 0.000000e+00 0.000000e+00 0.000000e+00 0.000000e+00 0.000000e+00 0.000000e+00 0.000000e+00
 0.000000e+00 8.642360e-01 1.357640e-01 0.000000e+00 0.000000e+00 0.000000e+00 0.000000e+00 0.000000e+00 0.000000e+00
 0.000000e+00 0.000000e+00 8.289835e-01 1.710165e-01 0.000000e+00 0.000000e+00 0.000000e+00 0.000000e+00 0.000000e+00
 0.000000e+00 0.000000e+00 0.000000e+00 8.632382e-01 1.367619e-01 0.000000e+00 0.000000e+00 0.000000e+00 0.000000e+00
 0.000000e+00 0.000000e+00 0.000000e+00 0.000000e+00 8.631114e-01 1.368886e-01 0.000000e+00 0.000000e+00 0.000000e+00
 0.000000e+00 0.000000e+00 0.000000e+00 0.000000e+00 0.000000e+00 7.903916e-01 2.096085e-01 0.000000e+00 0.000000e+00
 0.000000e+00 0.000000e+00 0.000000e+00 0.000000e+00 0.000000e+00 0.000000e+00 9.095545e-01 9.044547e-02 0.000000e+00
 0.000000e+00 0.000000e+00 0.000000e+00 0.000000e+00 0.000000e+00 0.000000e+00 0.000000e+00 8.590055e-01 1.409945e-01
 0.000000e+00 0.000000e+00 0.000000e+00 0.000000e+00 0.000000e+00 0.000000e+00 0.000000e+00 0.000000e+00 0.000000e+00
<ENDHMM>
