~o
<STREAMINFO> 1 39
<VECSIZE> 39<NULLD><MFCC_D_A_0><DIAGC>
~h "ichi"
<BEGINHMM>
<NUMSTATES> 7
<STATE> 2
<NUMMIXES> 2
<MIXTURE> 1 6.928834e-01
<MEAN> 39
 -1.131503e+01 1.080887e+01 1.409108e+01 -6.896977e+00 -2.083425e+00 -4.089066e+00 -9.276890e+00 -6.557403e+00 -2.811923e-01 -1.079813e+01 1.955651e+00 -1.133742e+00 6.620642e+01 1.641993e-01 6.387392e-01 2.913657e-01 1.688043e-01 -5.319485e-02 -3.376382e-01 -8.386531e-02 -2.363449e-01 -4.081746e-01 -2.552359e-01 -4.266428e-01 -2.972002e-01 2.182629e-01 5.696036e-02 -3.894345e-01 -4.998083e-01 3.361973e-01 1.468677e-01 2.716138e-01 3.654464e-01 2.168989e-01 -1.521536e-02 3.262521e-01 1.179696e-02 5.302441e-02 -5.007972e-01
<VARIANCE> 39
 5.912948e+00 2.903088e+01 3.581149e+01 6.490430e+01 1.643532e+01 7.452628e+01 2.309846e+01 3.034173e+01 3.521103e+01 5.470268e+01 8.478117e+01 1.844843e+01 1.982138e+01 7.952343e-01 2.443648e+00 4.844449e+00 3.856771e+00 2.641101e+00 3.489541e+00 3.961473e+00 2.087502e+00 1.769988e+00 3.003063e+00 2.871345e+00 1.418122e+00 5.550232e+00 1.367245e-01 2.965513e-01 2.488152e-01 4.317709e-01 2.762902e-01 5.397345e-01 4.843484e-01 3.885162e-01 3.915744e-01 3.337375e-01 4.608026e-01 2.557579e-01 2.359177e-01
<GCONST> 1.142289e+02
<MIXTURE> 2 3.071167e-01
<MEAN> 39
 -7.103159e+00 6.841257e+00 2.030015e+01 -1.031872e+01 -1.381909e+01 1.974488e+00 -1.566024e+01 -1.019882e+01 -7.301125e+00 -3.122371e+00 1.066762e-01 -7.527456e+00 6.481762e+01 2.940522e-01 2.801288e-01 3.100714e-01 2.111588e-01 -3.094725e-01 -2.631588e-01 1.414653e-02 -2.990239e-01 1.653933e-01 2.489171e-01 -2.270817e-01 -8.446881e-02 5.211090e-01 -1.590402e-01 -1.065397e-01 -7.243682e-01 6.497360e-01 6.598278e-01 -1.012866e-01 5.354692e-01 2.585362e-01 3.005614e-01 1.921754e-01 5.851093e-03 2.979792e-01 -7.326893e-01
<VARIANCE> 39
 4.567129e+00 1.416386e+01 8.773188e+00 1.408583e+01 3.032550e+01 6.871363e+00 2.946502e+01 3.854190e+01 2.741636e+01 2.142441e+01 8.220318e+00 2.855245e+01 3.560073e+01 5.946671e-01 7.119847e-01 5.655752e+00 5.112547e+00 4.096154e+00 9.958906e-01 5.152730e+00 3.177607e+00 3.924701e+00 1.772885e+00 7.992315e-01 2.497203e+00 6.157776e+00 6.979100e-02 1.882254e-01 4.301873e-01 3.503976e-01 3.485678e-01 1.560471e-01 5.450490e-01 3.448852e-01 5.990575e-01 3.639300e-01 1.503714e-01 5.215465e-01 2.346317e-01
<GCONST> 1.032735e+02
<STATE> 3
<NUMMIXES> 2
<MIXTURE> 1 3.846501e-01
<MEAN> 39
 -1.070129e+01 4.853801e+00 2.555156e+00 4.781880e+00 2.892497e+00 1.224884e+00 -1.682774e+00 -2.156411e+00 -7.674748e-01 -3.144464e+00 -1.100309e+00 -5.428547e-01 5.889033e+01 4.063922e-02 -1.413743e+00 -8.745735e-01 2.190907e-01 5.254505e-01 5.396739e-01 6.787914e-01 5.236105e-01 3.156937e-01 5.149171e-01 7.872507e-01 3.915327e-01 -9.174591e-01 -1.056934e-01 4.242862e-02 1.922905e-01 -3.110866e-01 -1.195279e-01 -3.713925e-02 -1.878083e-01 -5.242198e-02 -4.289097e-02 4.162039e-02 -6.240735e-03 1.348255e-02 3.124745e-01
<VARIANCE> 39
 6.673782e+00 2.914809e+01 9.893532e+00 7.998230e+00 5.565190e+00 1.065943e+01 1.565765e+01 2.882408e+01 2.034773e+01 2.304035e+01 1.630911e+01 1.246502e+01 5.529161e+00 5.820456e-01 1.043873e+00 1.526036e+00 1.196432e+00 9.197543e-01 1.004297e+00 1.318909e+00 2.761573e+00 2.327172e+00 1.808760e+00 1.029552e+00 9.243097e-01 1.687070e+00 1.811498e-01 1.607224e-01 1.994724e-01 2.075577e-01 1.045804e-01 2.712017e-01 1.872219e-01 4.654370e-01 3.890240e-01 2.513800e-01 1.253805e-01 2.078688e-01 9.064847e-02
<GCONST> 8.681985e+01
<MIXTURE> 2 6.153499e-01
<MEAN> 39
 -1.043654e+01 3.597323e+00 1.609567e+00 1.802566e+00 1.049309e+00 1.667945e+00 -2.171552e+00 -2.806192e+00 -1.230756e+00 -1.983005e+00 1.878999e+00 -2.702569e-01 4.965816e+01 -1.135451e+00 -3.332304e-01 -1.446111e+00 3.325578e-01 1.899857e-01 1.131915e-01 5.271945e-01 4.285547e-01 4.067711e-01 3.610169e-01 -2.419810e-02 3.917464e-01 1.476730e-02 -4.352620e-01 2.239754e-01 1.143888e-01 -2.042486e-01 -7.695447e-02 -3.156311e-01 -3.364319e-02 -1.192420e-01 1.106115e-01 -1.770200e-01 -5.920851e-03 -3.102843e-02 6.587238e-01
<VARIANCE> 39
 8.371532e+00 1.085190e+01 2.942434e+01 4.798743e+01 2.627563e+01 1.983559e+01 1.406310e+01 1.501964e+01 1.517798e+01 1.921702e+01 1.615334e+01 1.496447e+01 1.743883e+01 1.929120e+00 1.123846e+00 1.305092e+00 1.290495e+00 2.182096e+00 1.994866e+00 1.675788e+00 1.462249e+00 1.294564e+00 1.550062e+00 1.142995e+00 1.098274e+00 3.525021e+00 2.755730e-01 1.704652e-01 2.225921e-01 1.864241e-01 3.270841e-01 3.655660e-01 2.716576e-01 2.140342e-01 2.599536e-01 2.443540e-01 2.336912e-01 1.686557e-01 1.485892e-01
<GCONST> 9.581075e+01
<STATE> 4
<NUMMIXES> 2
<MIXTURE> 1 4.942496e-01
<MEAN> 39
 -2.941689e+01 6.152482e+00 -3.930519e+00 -4.494537e+00 4.496111e+00 -4.266514e+00 3.845777e+00 -2.339988e+00 4.791831e+00 8.436503e-01 2.565469e+00 9.619817e-01 6.746206e+01 -6.047571e-01 6.617276e-02 3.250672e-01 -6.026443e-01 3.793964e-01 -1.828936e-02 5.188143e-01 1.235335e-01 4.851473e-02 4.340767e-01 1.080355e-01 3.648541e-01 9.073241e-01 5.431103e-01 -1.207303e-01 2.169976e-01 1.556942e-01 -5.610054e-02 1.689562e-01 -1.402162e-01 -2.426860e-02 -2.540742e-01 -5.457592e-02 -9.360436e-02 -4.846293e-03 -3.441507e-01
<VARIANCE> 39
 1.144991e+01 1.885455e+01 1.665648e+01 1.684039e+01 7.762252e+00 1.236101e+01 1.602312e+01 2.216993e+01 5.986451e+00 2.119476e+01 1.628262e+01 7.452396e+00 2.108679e+01 1.492359e+00 1.207618e+00 6.216167e-01 1.040495e+00 9.196789e-01 1.146633e+00 1.091941e+00 1.299351e+00 8.368224e-01 1.186064e+00 1.119694e+00 7.338328e-01 6.803368e-01 2.303940e-01 2.207862e-01 1.862399e-01 2.031470e-01 1.629238e-01 2.227755e-01 2.333841e-01 2.932018e-01 2.319369e-01 2.422853e-01 2.321383e-01 1.537865e-01 9.857460e-02
<GCONST> 8.500317e+01
<MIXTURE> 2 5.057505e-01
<MEAN> 39
 -2.202119e+01 4.709376e+00 -1.201079e+00 1.854634e-01 3.525154e+00 -2.692543e+00 7.270727e-01 -2.648615e+00 -1.928855e-01 -2.898743e+00 -4.215842e-01 -5.577675e-02 6.382394e+01 -6.857519e-01 1.073460e+00 1.130806e+00 -9.750234e-01 -2.900246e-01 -1.383817e+00 -4.367103e-01 -1.043447e+00 -5.482761e-01 -5.478535e-01 -7.256940e-01 -6.957263e-01 1.936879e+00 4.488419e-01 -3.972197e-02 3.068394e-01 -1.073041e-01 -3.511773e-01 7.262859e-02 -1.377801e-01 -1.000652e-01 -1.110590e-01 8.409364e-02 7.804249e-02 -3.480165e-02 -2.342971e-01
<VARIANCE> 39
 2.661534e+01 1.933855e+01 5.035333e+01 2.803016e+01 1.726715e+01 2.486914e+01 2.335303e+01 3.271136e+01 2.853928e+01 4.068991e+01 2.187201e+01 1.515815e+01 2.075818e+01 1.163102e+01 9.749196e-01 4.847791e+00 8.544346e-01 4.381726e+00 1.811015e+00 3.699873e+00 2.458663e+00 3.428836e+00 1.382922e+00 2.109322e+00 1.298185e+00 2.167117e+00 7.415081e-01 3.625562e-01 4.691716e-01 1.450822e-01 6.749977e-01 3.493710e-01 6.547917e-01 5.420302e-01 4.035485e-01 2.848124e-01 4.434493e-01 2.520797e-01 1.167241e-01
<GCONST> 1.122499e+02
<STATE> 5
<NUMMIXES> 2
<MIXTURE> 1 3.830648e-01
<MEAN> 39
 -9.807938e+00 3.984768e+00 1.442554e+01 -8.310173e+00 -1.075668e+01 -6.763979e+00 -1.019067e+01 -1.129605e+01 -9.317379e+00 -4.574082e+00 -1.832225e+00 -4.819889e+00 6.828271e+01 5.426879e-01 -5.041554e-01 6.526199e-01 -7.885392e-01 -1.485447e+00 4.591836e-02 -1.104387e+00 -1.575652e-01 4.293311e-02 1.474817e-01 4.458209e-01 -9.851191e-02 -2.036296e-01 -3.270799e-01 4.311199e-02 -3.534940e-01 1.760099e-01 3.247479e-01 1.153898e-01 2.716984e-01 2.186812e-01 2.096519e-01 5.595834e-02 -2.692948e-02 7.909650e-02 -2.243773e-01
<VARIANCE> 39
 1.529506e+01 1.358133e+01 2.724743e+01 2.730174e+01 2.134504e+01 7.336583e+00 1.760716e+01 2.072130e+01 2.206457e+01 4.650031e+01 1.628865e+01 8.522653e+00 1.566739e+01 7.054576e-01 4.526331e-01 8.566643e-01 1.007943e+00 1.285303e+00 9.843187e-01 9.567958e-01 9.690743e-01 1.918217e+00 1.235159e+00 1.204766e+00 9.624116e-01 2.966382e-01 1.142247e-01 1.042685e-01 1.448732e-01 2.219481e-01 2.069481e-01 2.398477e-01 2.514463e-01 1.794908e-01 3.555886e-01 2.294653e-01 2.974122e-01 2.605003e-01 3.890133e-02
<GCONST> 8.558401e+01
<MIXTURE> 2 6.169352e-01
<MEAN> 39
 -2.958995e+01 4.791536e+00 -8.599359e-01 -8.033207e+00 4.047710e+00 -4.396344e+00 1.417112e+00 -1.447692e+00 2.514932e+00 1.717672e+00 2.997919e+00 1.344294e+00 6.991753e+01 2.885132e-01 -3.136638e-01 2.186575e-01 -1.088254e-01 -2.627690e-01 -1.015453e-01 -2.070297e-01 -7.080895e-02 -2.653735e-01 -9.981617e-02 2.402052e-02 -1.640113e-01 -3.086541e-01 4.953843e-02 -8.842514e-03 -3.426354e-02 6.860537e-03 -4.254421e-02 3.079948e-03 5.205032e-04 2.231913e-02 3.736601e-02 -1.110003e-02 -2.505020e-02 -1.571899e-02 -4.647182e-02
<VARIANCE> 39
 1.046750e+01 7.032765e+00 1.841504e+01 8.243851e+00 9.519501e+00 8.461597e+00 9.867730e+00 1.905021e+01 1.207045e+01 2.938065e+01 1.078125e+01 9.260818e+00 1.044128e+01 1.592088e-01 2.114134e-01 3.995283e-01 5.519572e-01 9.247052e-01 1.002578e+00 8.563741e-01 9.481713e-01 1.040759e+00 1.288696e+00 9.531300e-01 8.033487e-01 6.571096e-02 1.607494e-02 4.415929e-02 8.775236e-02 8.764448e-02 1.975896e-01 2.275339e-01 1.747237e-01 1.725644e-01 2.271963e-01 2.478316e-01 1.364164e-01 1.610465e-01 8.126272e-03
<GCONST> 6.533189e+01
<STATE> 6
<NUMMIXES> 2
<MIXTURE> 1 5.729570e-01
<MEAN> 39
 -1.832907e+01 1.397292e+00 3.622334e+00 -5.939806e+00 3.088376e+00 -2.018162e+00 1.989259e+00 -1.099360e+00 1.824064e+00 1.252893e+00 1.916866e+00 -7.743488e-03 5.935388e+01 1.236751e+00 -2.318049e-01 -2.054767e-01 3.802555e-01 -8.103796e-02 2.805894e-01 -1.863053e-01 3.408236e-01 1.176113e-02 6.055116e-02 -2.405965e-02 8.179351e-03 -1.120726e+00 4.577524e-02 3.429424e-02 -9.732185e-02 1.444143e-01 1.236672e-01 7.426331e-02 -2.031775e-02 -7.865929e-02 -5.198646e-02 -8.176101e-03 1.217321e-02 -4.539845e-02 3.945831e-02
<VARIANCE> 39
 3.350840e+01 1.312005e+01 1.554860e+01 1.962391e+01 2.509999e+01 1.802960e+01 3.599316e+01 1.513486e+01 1.373652e+01 2.489084e+01 1.626428e+01 1.390184e+01 3.162370e+01 8.874361e-01 3.005001e-01 9.685024e-01 9.440038e-01 9.087378e-01 1.105047e+00 1.438692e+00 1.220723e+00 1.419337e+00 1.253100e+00 1.574021e+00 1.174752e+00 4.864711e-01 1.095782e-01 5.236345e-02 1.332439e-01 1.494985e-01 1.607330e-01 2.280454e-01 3.059435e-01 1.510615e-01 2.573320e-01 2.887069e-01 3.280933e-01 2.221283e-01 5.815585e-02
<GCONST> 8.671378e+01
<MIXTURE> 2 4.270430e-01
<MEAN> 39
 -1.143986e+01 3.291807e+00 9.430618e+00 -3.864906e+00 -8.059368e+00 -2.846381e+00 -8.443540e+00 -9.458344e+00 -7.525680e+00 -2.700347e+00 6.009954e-01 -3.426414e+00 5.880745e+01 -1.421565e-02 -1.882081e-01 -1.217672e+00 1.551138e+00 1.621357e+00 7.858383e-01 1.278336e+00 6.643011e-01 4.156313e-01 5.224882e-01 4.861452e-01 6.598232e-01 -1.840834e+00 -1.039383e-02 -7.038282e-02 -1.265655e-01 5.798375e-02 1.298004e-01 2.324917e-03 1.817551e-01 1.977679e-01 1.264650e-01 7.761776e-02 6.551047e-02 1.546231e-01 2.346839e-02
<VARIANCE> 39
 7.640579e+00 7.428970e+00 5.009247e+01 6.628682e+01 7.283894e+01 1.691420e+01 4.961605e+01 1.830145e+01 1.904766e+01 2.955540e+01 2.175088e+01 2.573614e+01 6.241775e+01 1.100945e+00 3.757138e-01 2.874385e+00 2.359705e+00 2.100318e+00 1.678272e+00 3.070720e+00 2.243065e+00 1.668994e+00 2.602850e+00 1.893491e+00 2.850149e+00 8.095496e-01 1.091924e-01 4.908507e-02 4.395784e-01 4.636316e-01 6.291795e-01 4.331346e-01 5.646388e-01 3.909881e-01 3.392890e-01 4.653443e-01 2.948048e-01 5.535834e-01 1.906627e-01
<GCONST> 1.067647e+02
<TRANSP> 7
 0.000000e+00 1.000000e+00 0.000000e+00 0.000000e+00 0.000000e+00 0.000000e+00 0.000000e+00
 0.000000e+00 9.056690e-01 9.433106e-02 0.000000e+00 0.000000e+00 0.000000e+00 0.000000e+00
 0.000000e+00 0.000000e+00 9.063475e-01 9.365251e-02 0.000000e+00 0.000000e+00 0.000000e+00
 0.000000e+00 0.000000e+00 0.000000e+00 8.876857e-01 1.123144e-01 0.000000e+00 0.000000e+00
 0.000000e+00 0.000000e+00 0.000000e+00 0.000000e+00 9.101677e-01 8.983234e-02 0.000000e+00
 0.000000e+00 0.000000e+00 0.000000e+00 0.000000e+00 0.000000e+00 8.967540e-01 1.032460e-01
 0.000000e+00 0.000000e+00 0.000000e+00 0.000000e+00 0.000000e+00 0.000000e+00 0.000000e+00
<ENDHMM>
