~o
<STREAMINFO> 1 39
<VECSIZE> 39<NULLD><MFCC_D_A_0><DIAGC>
~h "ni"
<BEGINHMM>
<NUMSTATES> 5
<STATE> 2
<NUMMIXES> 2
<MIXTURE> 1 3.804149e-01
<MEAN> 39
 -6.777505e+00 9.023841e+00 1.211393e+01 -1.298350e+01 -3.022844e+00 7.751522e-01 -9.392814e+00 -1.018690e+01 -1.533372e+00 -2.407310e+00 -1.659946e-01 -4.123553e+00 6.801638e+01 -1.051888e+00 -3.657143e-01 1.593309e+00 -3.347575e+00 -6.025277e-03 1.610457e+00 -1.887724e+00 1.813155e-01 -6.916577e-02 -4.781199e-01 4.216943e-01 -9.580373e-01 1.692830e+00 2.288729e-01 -2.822175e-01 -2.620049e-01 7.889227e-01 -2.169454e-01 9.331661e-03 2.919389e-01 2.105691e-01 -3.349570e-02 -7.311144e-02 8.482824e-02 9.140264e-03 -4.090029e-01
<VARIANCE> 39
 1.267418e+01 1.782707e+01 3.110068e+01 5.902877e+01 4.442411e+01 3.073896e+01 3.401879e+01 4.269204e+01 4.545983e+01 5.987302e+01 1.342359e+01 2.535168e+01 2.113874e+01 8.578140e-01 6.218125e-01 5.503937e-01 3.623388e+00 1.711210e+00 1.619407e+00 5.665318e-01 1.719299e+00 2.123014e+00 6.312020e-01 1.017878e+00 2.113864e+00 4.703294e-01 9.230325e-02 1.310170e-01 1.569464e-01 5.048409e-01 2.760187e-01 2.959410e-01 2.606191e-01 4.646007e-01 3.790352e-01 1.212777e-01 2.754961e-01 3.442987e-01 3.692607e-02
<GCONST> 9.696172e+01
<MIXTURE> 2 6.195851e-01
<MEAN> 39
 -1.328314e+00 8.462836e+00 5.893168e+00 2.637415e+00 -4.843088e+00 -2.389211e+00 -2.952174e+00 -1.069891e+01 -3.397658e+00 -1.955668e+00 1.105340e-01 -2.451562e+00 5.792118e+01 4.045925e-01 6.962841e-01 1.087071e+00 -1.592066e+00 -9.088153e-01 -4.658324e-01 -1.039071e+00 -1.185628e+00 -1.394736e-01 9.400032e-02 -1.141700e-01 -3.735465e-01 2.012214e+00 -5.559834e-01 -2.440414e-01 1.380248e-02 -6.669134e-01 2.684906e-01 3.606096e-01 -1.326373e-01 3.946621e-01 1.545424e-01 3.915104e-02 2.360432e-02 3.767034e-03 3.036709e-02
<VARIANCE> 39
 1.374868e+01 7.131843e+00 2.343828e+01 2.132892e+01 5.194548e+01 2.528191e+01 1.991005e+01 5.665101e+01 9.847717e+01 5.381429e+01 2.702654e+01 2.954406e+01 2.652188e+01 2.658476e+00 1.139015e+00 1.722763e+00 4.287991e+00 2.587635e+00 1.794091e+00 2.961928e+00 4.753166e+00 3.682266e+00 1.798204e+00 2.747800e+00 1.821298e+00 6.587382e-01 1.576275e-01 1.912517e-01 2.370956e-01 5.255530e-01 3.483099e-01 4.299900e-01 4.440890e-01 7.143109e-01 6.152498e-01 3.830357e-01 4.898103e-01 4.050004e-01 1.039199e-01
<GCONST> 1.116342e+02
<STATE> 3
<NUMMIXES> 2
<MIXTURE> 1 5.843257e-01
<MEAN> 39
 -8.464471e+00 9.467242e+00 9.855672e+00 -1.228450e+01 -1.544828e-01 2.540218e+00 -1.423522e+01 -6.126320e+00 -2.789808e+00 -7.834249e+00 -3.336052e+00 -7.160694e+00 6.969366e+01 1.658024e-02 -1.083865e-01 -1.895237e-01 3.970612e-02 1.670605e-02 -5.070245e-02 6.296577e-02 3.432578e-01 4.270956e-02 -2.567201e-01 -6.438548e-02 2.508307e-01 -5.272411e-01 -4.424977e-04 -7.310204e-02 -1.207718e-01 3.473936e-01 3.989661e-02 -5.008897e-02 2.393569e-01 4.685884e-02 -2.545141e-02 1.005843e-01 2.434720e-02 1.397211e-01 -2.306094e-01
<VARIANCE> 39
 4.780483e+00 9.278284e+00 1.391532e+01 9.786012e+00 1.270834e+01 5.242538e+01 1.187574e+01 1.200739e+01 1.145684e+01 8.286703e+01 2.024076e+01 2.611440e+01 1.642588e+01 2.929104e-01 3.779705e-01 5.844117e-01 1.236938e+00 4.720190e-01 1.155247e+00 1.025271e+00 1.149760e+00 7.465338e-01 1.956270e+00 1.043448e+00 1.065472e+00 8.090248e-01 6.211939e-02 1.002273e-01 1.621152e-01 1.280117e-01 8.709414e-02 1.804617e-01 1.701258e-01 2.271303e-01 1.475980e-01 2.847532e-01 1.670524e-01 1.807042e-01 4.481032e-02
<GCONST> 7.893982e+01
<MIXTURE> 2 4.156744e-01
<MEAN> 39
 -9.165784e+00 5.175721e+00 1.917894e+01 -2.233484e+01 -6.426943e+00 -1.348434e+00 -1.379677e+01 -1.114586e+01 8.775129e-01 -5.948647e+00 7.264704e+00 -3.543705e+00 6.847881e+01 -3.177043e-02 -1.369928e-01 9.477095e-02 -1.304893e-01 -2.241063e-01 -2.887259e-01 -7.818410e-02 -9.320710e-02 -1.630068e-01 7.293102e-02 1.982419e-01 -2.009473e-01 -1.952840e-01 1.688735e-02 3.956535e-02 -1.245087e-01 4.281111e-02 9.736951e-02 -1.163976e-01 5.356779e-02 -4.889023e-03 1.379605e-02 5.893129e-02 -7.811168e-02 5.354248e-04 -1.355608e-01
<VARIANCE> 39
 2.180507e+01 1.026972e+01 4.193921e+00 8.776756e+00 7.063474e+01 4.051122e+01 3.317595e+01 4.970794e+01 7.112399e+01 2.457542e+01 2.448900e+01 1.074085e+01 1.310686e+01 9.439498e-02 5.419388e-01 3.993853e-01 2.546608e-01 3.631741e-01 6.953934e-01 1.073062e+00 5.750258e-01 4.559121e-01 4.427140e-01 5.745618e-01 4.948178e-01 2.694065e-01 1.924847e-02 8.251041e-02 6.118713e-02 7.149734e-02 5.843498e-02 1.259285e-01 1.511584e-01 1.442590e-01 9.175602e-02 9.253751e-02 1.219287e-01 1.134909e-01 2.087765e-02
<GCONST> 6.685324e+01
<STATE> 4
<NUMMIXES> 2
<MIXTURE> 1 6.937155e-01
<MEAN> 39
 -9.895825e+00 4.677237e+00 5.285220e+00 -4.673546e+00 3.458394e-01 1.574316e+00 -7.178815e+00 -2.244050e+00 -2.970550e+00 -3.917997e+00 7.355884e-01 -2.393415e+00 5.540689e+01 -1.620324e-01 -8.372086e-01 -1.566345e+00 2.326687e+00 7.521399e-01 3.957323e-01 1.786850e+00 8.157126e-01 4.002061e-01 5.866621e-01 3.591076e-01 8.370162e-01 -1.532123e+00 3.559510e-02 5.197719e-02 7.483345e-02 -2.589656e-01 -8.990286e-02 4.580345e-02 -5.542445e-02 -1.553614e-01 1.397178e-01 -9.778929e-03 1.270374e-02 -5.179748e-02 3.228569e-01
<VARIANCE> 39
 3.244793e+00 8.810929e+00 1.337568e+01 3.605524e+01 2.052579e+01 1.569260e+01 2.348553e+01 2.528153e+01 1.640679e+01 3.127209e+01 3.955175e+01 1.195035e+01 4.088292e+01 3.737215e-01 6.858875e-01 2.385698e+00 1.737115e+00 1.342781e+00 2.535518e+00 1.735466e+00 1.894501e+00 2.692852e+00 2.328493e+00 1.739504e+00 1.814975e+00 7.936305e-01 5.097826e-02 9.537695e-02 3.341300e-01 2.928647e-01 1.858595e-01 3.710992e-01 2.705781e-01 3.456008e-01 3.718913e-01 3.721116e-01 3.507426e-01 2.731858e-01 6.446344e-02
<GCONST> 9.495081e+01
<MIXTURE> 2 3.062846e-01
<MEAN> 39
 -7.607799e+00 2.455918e+00 1.686769e+01 -2.347542e+01 -1.258318e+01 -4.882076e-01 -1.451975e+01 -1.284077e+01 -5.806408e+00 1.714322e+00 6.540912e+00 -7.063954e+00 5.955369e+01 -8.053077e-01 -6.361798e-02 -1.228928e+00 1.173528e+00 8.738404e-01 -8.448249e-02 -7.588437e-02 1.377172e+00 -5.638834e-02 3.766162e-01 2.503570e-01 3.340146e-01 -2.143560e+00 -2.367773e-02 -6.140557e-04 -4.159447e-01 6.625333e-01 2.381784e-01 1.910039e-01 4.312297e-01 4.092235e-01 1.350920e-01 -1.330072e-01 -4.001039e-02 2.931983e-01 -3.227374e-01
<VARIANCE> 39
 2.265989e+01 6.355002e+00 7.309690e+00 1.351085e+01 5.655351e+01 6.534332e+01 2.514345e+01 3.663673e+01 7.898957e+01 5.540526e+01 2.253446e+01 1.840912e+01 1.895762e+01 9.658193e-01 3.728555e-01 1.668997e+00 4.415108e+00 2.049801e+00 1.452249e+00 2.072319e+00 1.837043e+00 1.956059e+00 1.236312e+00 2.859311e+00 1.216471e+00 7.025758e-01 1.445059e-01 5.501740e-02 3.389921e-01 4.765332e-01 2.544729e-01 4.844976e-01 2.839232e-01 2.147755e-01 2.425271e-01 2.795956e-01 4.060421e-01 2.302654e-01 5.951766e-02
<GCONST> 9.938421e+01
<TRANSP> 5
 0.000000e+00 1.000000e+00 0.000000e+00 0.000000e+00 0.000000e+00
 0.000000e+00 8.709515e-01 1.290485e-01 0.000000e+00 0.000000e+00
 0.000000e+00 0.000000e+00 9.235954e-01 7.640461e-02 0.000000e+00
 0.000000e+00 0.000000e+00 0.000000e+00 8.616747e-01 1.383253e-01
 0.000000e+00 0.000000e+00 0.000000e+00 0.000000e+00 0.000000e+00
<ENDHMM>
