~o
<STREAMINFO> 1 39
<VECSIZE> 39<NULLD><MFCC_D_A_0><DIAGC>
~h "sil"
<BEGINHMM>
<NUMSTATES> 5
<STATE> 2
<NUMMIXES> 2
<MIXTURE> 1 8.329316e-01
<MEAN> 39
 -1.001531e+01 -1.973751e+00 -3.139875e+00 3.879757e+00 3.733911e+00 3.101650e+00 4.177956e-01 -1.054894e+00 -7.201042e-01 -3.246125e-01 2.874678e+00 2.681941e+00 5.263068e+01 -2.262632e-02 -1.623277e-02 -1.691622e-02 2.164846e-02 3.046694e-02 3.336538e-02 1.231985e-02 7.060659e-03 2.457849e-02 1.932370e-02 1.302356e-02 9.198993e-03 -2.222656e-02 4.188656e-03 4.849783e-03 5.514101e-03 -9.138026e-03 -9.622529e-03 -7.838137e-03 -7.290052e-03 -4.428193e-03 -7.852913e-04 -2.846462e-03 -9.155388e-03 -1.356799e-02 9.065095e-03
<VARIANCE> 39
 1.575725e+00 6.792254e+00 4.584117e+00 1.287781e+01 8.537934e+00 1.376839e+01 9.382489e+00 1.590579e+01 1.799622e+01 1.384021e+01 1.262129e+01 1.024572e+01 1.240393e+01 9.090833e-02 1.922394e-01 3.596092e-01 5.269022e-01 6.944262e-01 9.553573e-01 9.620451e-01 1.135356e+00 1.110460e+00 1.141925e+00 1.144598e+00 1.055490e+00 2.991709e-02 1.773858e-02 3.840594e-02 7.126287e-02 1.031168e-01 1.368479e-01 1.894311e-01 1.894626e-01 2.295114e-01 2.215981e-01 2.315580e-01 2.293435e-01 2.143215e-01 5.734411e-03
<GCONST> 6.154427e+01
<MIXTURE> 2 1.670683e-01
<MEAN> 39
 -9.653428e+00 8.462967e-01 -1.617973e+00 -2.399827e-01 4.392312e-01 8.100844e-01 -2.358431e-01 -1.293998e+00 3.683824e-01 4.034996e-01 1.841130e+00 8.932872e-01 4.996266e+01 -2.954915e-01 -7.995077e-02 -2.176180e-01 6.300212e-01 4.420170e-01 4.235787e-01 5.315515e-01 4.226270e-01 1.021532e-01 2.697220e-02 8.885911e-02 3.189278e-01 -5.410484e-01 5.776094e-02 -8.816876e-03 9.020736e-02 -1.657050e-01 -6.512912e-02 -4.464495e-02 -5.620735e-02 -6.704543e-02 -8.993273e-03 -2.307639e-02 -5.361645e-02 -4.740672e-02 1.960560e-01
<VARIANCE> 39
 9.478056e+00 9.496441e+00 1.595159e+01 3.775097e+01 2.308512e+01 2.193213e+01 2.284598e+01 3.136732e+01 2.544255e+01 2.391043e+01 1.745362e+01 1.645673e+01 3.352723e+01 7.582803e-01 6.376845e-01 1.270933e+00 1.848572e+00 1.763075e+00 1.685812e+00 1.916198e+00 2.383018e+00 1.888723e+00 1.843179e+00 1.775957e+00 1.608262e+00 6.441939e-01 1.169106e-01 1.079067e-01 2.107727e-01 2.874851e-01 2.798303e-01 2.942548e-01 3.136024e-01 4.329902e-01 3.284632e-01 3.344117e-01 3.222457e-01 3.098694e-01 1.193413e-01
<GCONST> 9.724696e+01
<STATE> 3
<NUMMIXES> 2
<MIXTURE> 1 2.816538e-01
<MEAN> 39
 -1.309959e+01 2.833391e+00 4.579209e-01 3.346392e+00 2.737127e+00 4.007700e+00 3.448042e+00 3.367491e+00 2.968214e+00 2.290833e+00 1.716293e+00 1.220495e+00 5.920090e+01 -1.589756e-02 -1.325744e-02 -5.100889e-03 3.382955e-03 8.835046e-03 7.339672e-03 2.337458e-02 2.337531e-02 2.490241e-02 3.627224e-02 2.894453e-02 2.310028e-02 -9.941519e-03 6.940934e-03 7.085510e-04 6.790161e-03 -9.513194e-03 -8.852229e-03 -1.361914e-02 -2.165601e-02 -1.727443e-02 -1.698084e-02 -1.014624e-02 2.454422e-04 6.189102e-04 9.508664e-03
<VARIANCE> 39
 6.403926e-01 1.343580e+00 2.338370e+00 3.943049e+00 4.922774e+00 6.767575e+00 7.563043e+00 8.224803e+00 9.103308e+00 9.219596e+00 8.950913e+00 8.131375e+00 2.050017e-01 7.529468e-02 1.606342e-01 2.547900e-01 4.430091e-01 5.686936e-01 7.693680e-01 8.748310e-01 9.309924e-01 1.109579e+00 1.049377e+00 9.911668e-01 9.607522e-01 2.567803e-02 1.595416e-02 3.423999e-02 5.220241e-02 9.166303e-02 1.206365e-01 1.616083e-01 1.804750e-01 1.913293e-01 2.302135e-01 2.111814e-01 2.049078e-01 2.036667e-01 5.587664e-03
<GCONST> 4.578473e+01
<MIXTURE> 2 7.183463e-01
<MEAN> 39
 -1.101714e+01 1.581166e+00 -1.444174e+00 7.859288e-01 5.485327e-01 1.775152e+00 1.719273e+00 9.737606e-01 1.333171e+00 5.362025e-01 8.065744e-01 7.904269e-01 4.420436e+01 -7.081148e-03 -3.416396e-03 -1.124032e-03 9.308812e-03 -5.183597e-03 5.249391e-03 4.796970e-03 7.640247e-03 -6.387560e-03 -1.270278e-02 -1.712132e-02 -7.466910e-03 -1.032914e-02 -1.042985e-04 3.048274e-03 2.463352e-03 -8.068786e-03 -3.221786e-03 -7.532694e-03 -6.833486e-03 -3.431495e-03 1.280465e-03 9.615945e-04 4.427703e-04 -3.113117e-04 7.515568e-03
<VARIANCE> 39
 1.219851e+01 2.478243e+00 3.278433e+00 8.058030e+00 9.740131e+00 9.157143e+00 9.126335e+00 1.465324e+01 1.276540e+01 1.268472e+01 1.036903e+01 8.642271e+00 9.617379e+00 7.464779e-02 1.751992e-01 3.101871e-01 4.624870e-01 6.056152e-01 7.926008e-01 8.437029e-01 1.000965e+00 1.028990e+00 9.559401e-01 9.422854e-01 8.433941e-01 2.615660e-02 1.538240e-02 3.673143e-02 6.534263e-02 9.718444e-02 1.244853e-01 1.632262e-01 1.750463e-01 2.048971e-01 2.107169e-01 1.987430e-01 1.931244e-01 1.722021e-01 5.591010e-03
<GCONST> 5.699641e+01
<STATE> 4
<NUMMIXES> 2
<MIXTURE> 1 3.838812e-01
<MEAN> 39
 -1.003395e+01 1.607675e+00 5.776929e-01 1.555240e+00 1.617103e+00 1.385753e+00 -1.079644e+00 -1.583557e+00 -2.928339e-01 -1.831532e+00 5.145931e-01 2.466438e-01 5.343216e+01 2.832894e-01 4.607549e-01 7.532411e-01 -8.788974e-01 -7.418338e-01 -7.915958e-01 -1.303382e+00 -8.563277e-01 -2.832529e-01 -1.071159e+00 -1.702398e-01 -4.803241e-01 2.054441e+00 6.195347e-02 8.635445e-03 3.335989e-02 -2.327055e-01 -2.700191e-01 -1.340716e-01 -1.429774e-01 -1.051234e-01 1.352470e-02 -1.118081e-01 8.863604e-02 8.332860e-03 3.945358e-01
<VARIANCE> 39
 2.549741e+01 2.794839e+01 4.061800e+01 3.730980e+01 2.526307e+01 2.778802e+01 2.844034e+01 2.841437e+01 3.130959e+01 3.514614e+01 2.055825e+01 1.434729e+01 5.220187e+01 3.568206e+00 3.076564e+00 6.495316e+00 4.117517e+00 3.608843e+00 3.089731e+00 3.715232e+00 3.448861e+00 3.476231e+00 3.203856e+00 2.613261e+00 1.951705e+00 2.783755e+00 3.676246e-01 4.161617e-01 8.688350e-01 5.194486e-01 4.984928e-01 4.856591e-01 5.848600e-01 5.617867e-01 5.297656e-01 5.032410e-01 3.999200e-01 3.061277e-01 4.412689e-01
<GCONST> 1.217265e+02
<MIXTURE> 2 6.161188e-01
<MEAN> 39
 -1.109553e+01 9.467961e-01 -1.782591e+00 1.355682e+00 1.298701e+00 1.576867e+00 1.838127e+00 -1.496832e-01 1.479875e+00 5.145625e-01 1.497843e+00 1.337762e+00 4.856743e+01 -3.013019e-02 4.124830e-03 7.709948e-02 -2.025811e-02 2.650479e-02 1.907349e-03 -3.029760e-02 -2.070850e-02 3.039605e-03 -2.129859e-02 -2.936400e-02 -1.031001e-02 1.218447e-01 6.122535e-03 3.298483e-02 7.934191e-02 -2.874216e-02 -1.325466e-02 -4.641517e-02 -9.434383e-02 -8.297464e-02 -3.232874e-02 -4.181878e-02 -4.123934e-02 -5.950608e-02 1.246188e-01
<VARIANCE> 39
 1.053054e+01 9.511380e+00 6.511052e+00 1.082933e+01 1.199723e+01 1.307427e+01 1.095737e+01 2.308416e+01 1.543892e+01 1.628883e+01 1.148641e+01 9.797976e+00 3.605569e+01 3.191350e-01 4.520241e-01 5.614048e-01 6.030349e-01 9.459851e-01 9.376817e-01 1.056110e+00 1.372868e+00 1.533399e+00 1.226379e+00 1.130279e+00 1.014753e+00 1.866715e-01 9.530695e-02 1.165862e-01 1.339251e-01 1.193280e-01 1.915418e-01 1.976806e-01 2.273498e-01 2.730544e-01 3.026326e-01 2.514866e-01 2.150222e-01 1.921183e-01 6.752952e-02
<GCONST> 7.813995e+01
<TRANSP> 5
 0.000000e+00 1.000000e+00 0.000000e+00 0.000000e+00 0.000000e+00
 0.000000e+00 9.295672e-01 7.043282e-02 0.000000e+00 0.000000e+00
 0.000000e+00 0.000000e+00 9.588196e-01 4.118043e-02 0.000000e+00
 0.000000e+00 0.000000e+00 0.000000e+00 8.085909e-01 1.914091e-01
 0.000000e+00 0.000000e+00 0.000000e+00 0.000000e+00 0.000000e+00
<ENDHMM>
