~o
<STREAMINFO> 1 39
<VECSIZE> 39<NULLD><MFCC_D_A_0><DIAGC>
~h "yon"
<BEGINHMM>
<NUMSTATES> 8
<STATE> 2
<NUMMIXES> 2
<MIXTURE> 1 3.977839e-01
<MEAN> 39
 -3.386802e+00 -3.412342e+00 8.543393e+00 -2.951394e+00 -1.412189e+01 -9.160716e+00 -8.096712e+00 -1.575958e+00 -2.309030e+00 -6.673281e+00 4.680622e+00 -2.222887e+00 7.246067e+01 1.184705e+00 -2.361577e+00 -4.927391e+00 -5.724049e-01 3.254212e+00 -1.236542e+00 -9.931629e-01 1.468683e+00 3.383731e+00 5.286819e-01 -1.591143e+00 -1.561318e+00 1.724007e+00 -1.175795e-01 4.865848e-01 -5.472588e-01 -5.653374e-01 1.368615e+00 1.378602e+00 -2.335859e-01 -8.504884e-01 5.927614e-01 3.288046e-01 -4.049497e-01 -6.230318e-01 -5.583405e-01
<VARIANCE> 39
 1.164808e+01 1.634976e+01 3.872199e+01 4.073274e+01 5.162029e+01 1.222430e+01 4.358524e+01 3.906405e+01 6.607690e+01 5.342395e+01 2.576508e+01 1.962981e+01 1.337623e+01 1.935336e-01 5.606448e-01 1.004854e+00 1.999055e+00 2.494774e+00 2.982419e+00 2.100885e+00 2.130308e+00 2.637642e+00 3.430451e+00 1.607526e+00 1.664451e+00 3.714911e-01 2.815799e-02 1.910673e-01 5.787497e-01 3.102696e-01 7.732090e-01 5.373911e-01 3.552972e-01 6.480716e-01 9.964405e-01 3.881621e-01 4.360566e-01 2.617696e-01 4.517361e-02
<GCONST> 1.038381e+02
<MIXTURE> 2 6.022161e-01
<MEAN> 39
 -7.419135e+00 5.299265e+00 1.803843e+01 -3.004342e+00 -1.243953e+01 2.309942e-01 -9.572171e+00 -7.715518e+00 -4.706776e+00 -8.222621e+00 5.032974e+00 -2.425963e+00 6.393181e+01 1.164105e+00 -9.896564e-01 1.053567e+00 -8.010130e-01 -3.577494e+00 -2.034487e+00 -8.470061e-01 -3.111235e-01 -9.420486e-01 -1.740850e-01 6.623804e-01 -2.654973e-01 3.360349e+00 3.890243e-02 -8.880720e-01 -1.931491e+00 2.294954e-01 1.044062e+00 -3.129159e-01 5.837864e-01 8.637314e-01 6.950113e-01 5.491692e-01 -3.620633e-01 1.414965e-01 -2.184883e-01
<VARIANCE> 39
 5.562450e+00 1.335532e+01 5.627710e+01 7.629338e+01 9.062463e+01 2.679218e+01 3.512598e+01 3.062611e+01 6.576868e+01 8.158939e+01 3.397599e+01 2.291242e+01 2.727572e+01 5.504452e-01 3.253520e+00 1.170786e+01 3.079402e+00 5.771945e+00 1.668183e+00 5.243726e+00 3.591722e+00 2.649976e+00 3.916297e+00 2.719627e+00 1.506646e+00 1.267604e+00 7.469594e-02 2.566303e-01 7.872558e-01 7.670277e-01 1.876744e+00 4.116576e-01 6.831795e-01 3.002091e-01 9.677454e-01 8.005248e-01 5.868946e-01 3.630828e-01 2.597343e-01
<GCONST> 1.215816e+02
<STATE> 3
<NUMMIXES> 2
<MIXTURE> 1 2.780705e-01
<MEAN> 39
 1.182378e+00 -3.934931e+00 -6.156910e+00 -7.753983e+00 3.528417e+00 -2.994595e-01 -2.344805e+00 9.309821e-01 3.686056e+00 6.197525e+00 -5.115910e+00 -6.995686e+00 8.058747e+01 4.007732e-01 6.846818e-01 -2.867661e+00 -1.643808e+00 2.090090e+00 2.446595e+00 -1.083937e-02 -1.619377e+00 -2.133177e-01 3.912186e-01 3.756067e-01 -2.908313e-01 9.924003e-02 -1.371872e-01 2.582456e-01 7.692475e-01 3.901785e-02 -8.169106e-01 2.282737e-01 5.652525e-01 1.425076e-01 -1.132526e+00 -4.683135e-01 4.961266e-01 5.499793e-01 -2.903464e-01
<VARIANCE> 39
 6.865179e-01 4.515655e+00 2.336825e+01 9.628862e+00 2.132190e+01 2.441579e+01 7.625652e+00 1.494289e+01 6.557261e+00 1.031352e+01 1.118616e+01 6.567074e+00 1.938487e-01 9.409626e-02 2.609952e-01 1.578422e+00 3.157010e-01 3.509933e+00 1.784851e+00 1.632662e+00 1.494800e+00 5.794528e+00 1.746764e+00 2.662381e+00 2.000898e+00 2.074435e-01 1.446751e-02 2.157417e-01 5.370551e-02 1.127167e-01 2.757220e-01 5.921699e-01 7.532573e-02 6.739511e-01 3.805432e-01 2.502853e-01 4.436745e-01 1.410378e-01 2.967947e-02
<GCONST> 7.251460e+01
<MIXTURE> 2 7.219296e-01
<MEAN> 39
 -1.484520e+00 -5.608162e+00 -6.711972e+00 -9.419518e+00 -2.919367e+00 -2.449801e+00 -1.552255e+01 -8.441653e+00 6.635236e+00 -4.551500e+00 7.408828e-01 -1.058159e+01 7.322246e+01 5.556115e-01 -5.845553e-02 -2.822922e+00 -2.616803e+00 2.491750e+00 3.029142e+00 5.362988e-01 -2.236467e+00 1.032203e-01 4.060540e-01 -3.195175e-02 -5.843669e-01 2.791489e-01 -1.701509e-01 4.681969e-01 1.052091e+00 -8.153036e-02 -8.462827e-01 2.307709e-01 8.266559e-01 -8.277290e-02 -1.287698e+00 -7.492564e-01 6.404976e-01 9.839369e-01 -3.163465e-01
<VARIANCE> 39
 1.904023e+01 2.078380e+01 2.318328e+01 3.478638e+01 4.543972e+01 4.072511e+01 5.064399e+01 3.724388e+01 3.918332e+01 3.233106e+01 2.021180e+01 1.490764e+01 5.981313e+00 1.669444e-01 4.197759e-01 2.130011e+00 2.204289e+00 2.332235e+00 2.659966e+00 3.351397e+00 1.997087e+00 6.445204e+00 3.787908e+00 2.179256e+00 5.178799e+00 1.453490e-01 3.727574e-02 8.992695e-02 1.096900e-01 2.923005e-01 2.205665e-01 8.266876e-01 4.713705e-01 8.734928e-01 2.939298e-01 8.796452e-01 2.820324e-01 4.183266e-01 2.912310e-02
<GCONST> 1.016083e+02
<STATE> 4
<NUMMIXES> 2
<MIXTURE> 1 5.425670e-01
<MEAN> 39
 -7.295908e-01 -1.000847e+00 -8.368725e+00 -1.317740e+01 4.453922e+00 -1.314652e+00 7.608286e-01 -5.810930e+00 -8.231464e+00 -3.277831e+00 -1.474988e-01 -7.956670e+00 7.368234e+01 1.385773e-01 2.518766e-01 2.481831e-01 8.947444e-03 -6.930827e-01 1.351766e-01 8.718807e-01 9.956306e-01 -1.216174e+00 -3.761233e-01 -9.726955e-01 2.721104e-01 -4.244092e-01 -6.996638e-02 -6.983321e-03 2.123884e-01 2.983361e-01 -1.522374e-01 -1.086546e-01 -2.456445e-01 1.696842e-01 4.539721e-01 8.492899e-02 -3.521432e-01 -3.383820e-02 -9.874274e-02
<VARIANCE> 39
 6.443216e+00 4.518745e+00 1.038241e+01 4.365226e+01 9.765938e+00 4.571874e+01 3.813979e+01 2.596299e+01 1.165424e+01 4.143466e+01 3.574405e+01 7.424217e+00 1.513473e+01 7.842894e-02 1.729934e-01 1.882531e-01 5.211525e-01 7.957711e-01 7.730325e-01 8.774723e-01 4.863292e-01 1.806137e+00 1.243529e+00 1.353522e+00 2.747948e-01 1.066380e-01 1.427003e-02 3.622629e-02 8.559747e-02 1.014092e-01 1.542837e-01 1.350342e-01 1.005497e-01 1.408988e-01 1.409185e-01 2.088062e-01 2.593219e-01 1.078409e-01 8.381635e-03
<GCONST> 6.593801e+01
<MIXTURE> 2 4.574330e-01
<MEAN> 39
 -1.268831e-01 -4.858904e+00 -8.279514e+00 -2.016348e+01 -3.935926e+00 9.378304e+00 -8.527160e+00 -1.186509e+01 3.905511e+00 -1.480334e+01 4.733518e+00 -3.041389e+00 7.324813e+01 3.131487e-01 5.246925e-01 3.831875e-01 -8.957199e-01 -6.377121e-01 6.039435e-01 1.792985e+00 8.396941e-01 -1.052068e+00 -1.725274e+00 7.585812e-02 6.926193e-01 -5.753359e-01 4.149725e-02 4.403559e-02 3.276400e-01 8.141170e-01 -3.538121e-01 -7.697774e-01 -2.842266e-01 6.123431e-01 1.100966e-01 7.214419e-01 -3.159181e-01 -6.449177e-01 -1.739620e-01
<VARIANCE> 39
 1.782740e+01 2.221686e+01 2.713381e+01 1.265782e+01 1.962610e+01 2.342055e+01 4.691584e+01 4.121086e+01 2.404089e+01 5.807618e+01 2.434425e+01 1.888535e+01 4.987026e+00 2.891719e-01 3.496037e-01 7.997476e-01 2.916925e+00 7.106710e-01 1.767549e+00 3.268270e+00 1.760226e+00 1.751519e+00 3.266826e+00 2.704048e+00 3.246139e+00 1.661433e-01 2.630116e-02 5.252026e-02 1.966119e-01 1.704401e-01 1.618466e-01 1.207540e-01 6.318204e-01 4.729047e-01 2.193385e-01 7.564800e-01 3.148427e-01 4.134096e-01 1.534708e-02
<GCONST> 9.169342e+01
<STATE> 5
<NUMMIXES> 2
<MIXTURE> 1 2.667035e-01
<MEAN> 39
 2.450425e+00 -4.983017e-02 -5.453087e+00 -9.591864e+00 1.100445e+00 9.729643e+00 6.711923e+00 5.172669e+00 -9.692439e+00 1.571001e+00 -1.523068e+01 -6.270119e+00 7.408881e+01 -4.473568e-01 7.397591e-01 1.456809e+00 1.354199e+00 2.403885e-01 -7.029580e-01 -1.072087e-01 3.433348e-01 -5.451148e-02 -3.110459e-01 -1.858772e+00 -6.873501e-01 -1.265655e+00 -1.301085e-01 1.205548e-01 1.553895e-01 1.977125e-01 3.798469e-01 -3.773263e-01 -3.222938e-01 -2.752874e-01 2.105468e-01 -6.696109e-02 4.985910e-01 -4.391094e-02 -1.045184e-01
<VARIANCE> 39
 2.533713e+00 3.204886e+00 1.174551e+01 6.523899e+00 3.029029e+00 7.183780e+00 6.816343e+00 4.803358e+00 2.591606e+00 3.966668e+00 2.580522e+01 6.024726e+00 6.165307e+00 1.940463e-01 4.264305e-01 5.542957e-01 3.623680e-01 1.355405e+00 2.079009e+00 1.392951e+00 6.918868e-01 3.119332e-01 3.882398e-01 2.555535e+00 3.696346e-01 1.881009e-01 5.412028e-02 8.583020e-02 1.228389e-01 4.431014e-02 1.123195e-01 2.408252e-01 2.343396e-01 6.727063e-02 6.095691e-02 8.040128e-02 3.883395e-01 1.018766e-01 2.781402e-02
<GCONST> 5.646209e+01
<MIXTURE> 2 7.332965e-01
<MEAN> 39
 -6.471319e-01 -1.723077e-01 -4.537393e+00 -1.260665e+01 -4.349716e+00 2.608064e+00 -5.149808e+00 -4.453301e+00 -1.010257e+00 -9.457459e+00 -2.247606e+00 -5.682809e+00 6.899152e+01 -9.748445e-02 6.867155e-01 9.496365e-01 1.806286e+00 1.493102e-01 -6.942362e-01 -3.778177e-01 -1.849606e-01 -4.217164e-01 1.502080e+00 -6.207199e-01 8.767350e-02 -9.866935e-01 -1.110833e-01 4.168584e-02 1.290199e-01 1.339686e-01 2.519522e-01 3.100371e-03 -8.123047e-02 -5.849877e-01 -1.536291e-01 -5.282327e-02 1.670018e-02 2.728771e-01 -4.976165e-02
<VARIANCE> 39
 1.031097e+01 8.072425e+00 1.931775e+01 4.689145e+01 2.246622e+01 4.259709e+01 2.543419e+01 3.648334e+01 5.544679e+01 3.967437e+01 2.607236e+01 8.952275e+00 6.359740e+00 1.671903e-01 5.322558e-01 7.444243e-01 1.333574e+00 1.386828e+00 1.105174e+00 1.262577e+00 2.461658e+00 1.395301e+00 2.377792e+00 9.402725e-01 1.829360e+00 1.607238e-01 2.692727e-02 8.924249e-02 1.579731e-01 2.514173e-01 1.733332e-01 1.005481e-01 2.503597e-01 2.133835e-01 2.246441e-01 3.712219e-01 2.199667e-01 1.235994e-01 2.064122e-02
<GCONST> 8.444566e+01
<STATE> 6
<NUMMIXES> 2
<MIXTURE> 1 7.148433e-01
<MEAN> 39
 -4.020457e+00 4.691499e+00 2.039037e+00 -1.511665e+00 2.232435e+00 -8.592742e-01 -3.477973e+00 -5.970468e+00 -6.546976e+00 -5.694595e+00 -9.157368e+00 -2.859708e+00 6.405378e+01 -7.064183e-01 1.372166e-01 1.015768e+00 8.322415e-01 4.996156e-01 -1.835631e-01 3.318190e-01 -1.370558e-01 1.905502e-01 4.165680e-01 7.210527e-02 4.409709e-01 -9.092498e-01 -6.113199e-02 -2.229175e-01 -1.909994e-01 -2.097369e-01 -8.576454e-02 1.545139e-01 2.904711e-01 3.054866e-01 2.730820e-01 2.033326e-01 2.417967e-01 4.302533e-02 2.280458e-02
<VARIANCE> 39
 8.156189e+00 5.833958e+00 1.001840e+01 3.272396e+01 1.258441e+01 1.746432e+01 1.793564e+01 5.437676e+01 3.360725e+01 3.582136e+01 2.867142e+01 2.176130e+01 5.075515e+00 2.907214e-01 5.934144e-01 4.693970e-01 8.767139e-01 7.039023e-01 1.391822e+00 2.019970e+00 1.638151e+00 1.802153e+00 2.658578e+00 1.517472e+00 1.577163e+00 2.677402e-01 4.354612e-02 7.396191e-02 1.191740e-01 8.181673e-02 1.498732e-01 2.474215e-01 2.426732e-01 2.579974e-01 3.219267e-01 3.557772e-01 3.612165e-01 3.383608e-01 3.983115e-02
<GCONST> 8.448804e+01
<MIXTURE> 2 2.851567e-01
<MEAN> 39
 4.415825e+00 -2.201692e+00 1.738146e+00 -3.862629e+00 -1.181460e+01 1.390637e+00 -5.994764e+00 -1.656615e+01 -6.023083e+00 4.226176e+00 4.034703e+00 -1.047475e+01 6.014975e+01 -5.622182e-01 1.947405e-01 1.308650e+00 1.645375e+00 2.051583e-01 -6.206711e-01 2.220882e-01 -9.179854e-01 -6.889566e-01 1.839974e+00 -4.454373e-01 -2.694911e-01 -9.988956e-01 -1.614141e-01 -2.408521e-02 -2.944925e-01 -2.456340e-01 1.998324e-01 8.498363e-02 4.389960e-02 1.526018e-01 1.119033e-01 -1.229807e-01 6.703524e-02 1.538223e-01 -2.557478e-02
<VARIANCE> 39
 4.125252e+00 1.160378e+01 1.579373e+01 1.662222e+01 1.710184e+01 1.349593e+01 1.012229e+01 2.108232e+01 1.320860e+01 3.632889e+01 9.799026e+00 9.560825e+00 8.229667e+00 4.506474e-01 1.287784e+00 1.152603e+00 1.404690e+00 1.494186e+00 7.935295e-01 7.337204e-01 1.798393e+00 6.772235e-01 8.927910e-01 9.752842e-01 1.008289e+00 2.490727e-01 4.368892e-02 3.210529e-01 1.897530e-01 1.713318e-01 2.734797e-01 1.186058e-01 1.302251e-01 3.194169e-01 1.724019e-01 1.721343e-01 1.433919e-01 3.372512e-01 9.956521e-02
<GCONST> 8.006261e+01
<STATE> 7
<NUMMIXES> 2
<MIXTURE> 1 8.428359e-01
<MEAN> 39
 -7.188357e+00 1.857846e+00 3.085171e+00 6.768384e-01 4.474710e+00 -5.961340e-01 1.320840e+00 -2.159265e+00 -1.901705e+00 6.027241e-01 -6.068621e+00 -1.498028e-01 5.802817e+01 -5.159974e-01 -3.355435e-01 -8.465260e-01 4.814985e-01 -2.020638e-01 3.961811e-01 3.539938e-01 6.971896e-01 8.191464e-01 -1.578096e-01 1.304576e+00 6.187971e-01 -1.231754e+00 1.099319e-01 3.595127e-02 -1.345900e-01 1.152860e-02 -1.543823e-01 7.808427e-02 -2.249361e-01 -5.752436e-02 -1.622608e-01 -2.401272e-01 -6.011434e-03 -1.279576e-01 7.670064e-02
<VARIANCE> 39
 5.538784e+00 9.581177e+00 1.610915e+01 2.296627e+01 1.889261e+01 1.971258e+01 1.421470e+01 3.894422e+01 1.167006e+01 3.195582e+01 3.053327e+01 1.224247e+01 1.915163e+01 4.450080e-01 6.768009e-01 7.179976e-01 8.075013e-01 1.270364e+00 8.780906e-01 1.278028e+00 2.485579e+00 1.474617e+00 2.417205e+00 1.510117e+00 1.373156e+00 6.425476e-01 5.704526e-02 1.505713e-01 2.570971e-01 1.567684e-01 1.889495e-01 1.842620e-01 2.288900e-01 2.556574e-01 2.445301e-01 3.457966e-01 2.984546e-01 2.573058e-01 1.009968e-01
<GCONST> 8.817987e+01
<MIXTURE> 2 1.571641e-01
<MEAN> 39
 -1.971949e+00 7.999940e-01 3.955167e+00 3.283476e+00 -6.845555e+00 -1.545623e+00 -2.685619e+00 -1.982251e+01 -8.565719e+00 1.220325e+01 3.367714e+00 -1.072603e+01 5.223128e+01 -1.939887e+00 1.173576e+00 -1.362175e+00 -1.866705e-01 1.448530e+00 2.408154e-01 1.027993e+00 2.094168e+00 1.107006e+00 -1.077825e+00 -5.305330e-01 1.753018e+00 -2.385597e+00 -2.500562e-01 -3.833507e-02 -2.196609e-01 -4.632558e-01 1.454042e-01 1.917593e-01 1.055533e-01 1.233606e+00 4.599878e-01 -9.087968e-01 -1.433124e-01 4.732681e-01 -1.851951e-01
<VARIANCE> 39
 5.158863e+00 1.136460e+01 7.567518e+00 9.392658e+00 2.768311e+01 2.137608e+01 2.500128e+01 1.972990e+01 6.932436e+00 1.818824e+01 1.681868e+01 6.063460e+00 7.840868e+00 6.797261e-01 7.140388e-01 7.302354e-01 5.795545e-01 1.337138e+00 9.525790e-01 1.191251e+00 5.977465e+00 7.416834e-01 2.434693e+00 9.026948e-01 2.800296e+00 5.398395e-01 8.411512e-02 2.578795e-01 1.516713e-01 8.564385e-02 4.452941e-01 1.306470e-01 1.923572e-01 3.123917e-01 4.279229e-02 1.871894e-01 1.717286e-01 2.699388e-01 9.807474e-02
<GCONST> 8.159045e+01
<TRANSP> 8
 0.000000e+00 1.000000e+00 0.000000e+00 0.000000e+00 0.000000e+00 0.000000e+00 0.000000e+00 0.000000e+00
 0.000000e+00 8.409133e-01 1.590867e-01 0.000000e+00 0.000000e+00 0.000000e+00 0.000000e+00 0.000000e+00
 0.000000e+00 0.000000e+00 7.405045e-01 2.594955e-01 0.000000e+00 0.000000e+00 0.000000e+00 0.000000e+00
 0.000000e+00 0.000000e+00 0.000000e+00 8.234750e-01 1.765250e-01 0.000000e+00 0.000000e+00 0.000000e+00
 0.000000e+00 0.000000e+00 0.000000e+00 0.000000e+00 8.033658e-01 1.966342e-01 0.000000e+00 0.000000e+00
 0.000000e+00 0.000000e+00 0.000000e+00 0.000000e+00 0.000000e+00 8.467922e-01 1.532079e-01 0.000000e+00
 0.000000e+00 0.000000e+00 0.000000e+00 0.000000e+00 0.000000e+00 0.000000e+00 8.004607e-01 1.995393e-01
 0.000000e+00 0.000000e+00 0.000000e+00 0.000000e+00 0.000000e+00 0.000000e+00 0.000000e+00 0.000000e+00
<ENDHMM>
