~o
<STREAMINFO> 1 26
<VECSIZE> 26<NULLD><MFCC_E_D_Z><DIAGC>
~h "kyuu"
<BEGINHMM>
<NUMSTATES> 5
<STATE> 2
<NUMMIXES> 3
<MIXTURE> 1 5.111776e-01
<MEAN> 26
 -1.138384e+01 -2.505579e+00 4.378474e+00 -5.489019e+00 -4.677835e+00 2.723679e+00 3.008643e-01 -5.241919e+00 6.267433e+00 -5.874115e-01 -8.636451e-01 1.284257e+00 5.703457e-01 -2.433262e-01 3.333519e-01 1.315159e+00 -1.472329e-01 -1.397123e+00 -4.010530e-01 4.850941e-02 -1.119876e+00 -6.476251e-01 7.194411e-02 -5.325328e-01 -7.392450e-02 4.418624e-02
<VARIANCE> 26
 1.712365e+01 2.724640e+01 2.155289e+01 1.985284e+01 2.914591e+01 1.533011e+01 2.742989e+01 4.182320e+01 1.613853e+01 1.883307e+01 1.563232e+01 1.089270e+01 2.020449e-02 4.243754e+00 2.017647e+00 1.867838e+00 2.784058e+00 2.170688e+00 1.871735e+00 1.933861e+00 2.974489e+00 4.147371e+00 1.629161e+00 1.336308e+00 2.100532e+00 1.477276e-03
<GCONST> 8.346134e+01
<MIXTURE> 2 2.539573e-01
<MEAN> 26
 -1.982669e+00 1.571860e+00 1.249562e+01 -1.984210e+00 -1.256842e+01 -4.976622e+00 -2.621206e+00 -1.167927e+01 -5.623304e+00 -3.163406e+00 -2.919159e+00 -3.603166e+00 8.406653e-01 3.307454e+00 1.100563e-01 1.090818e+00 4.643477e-01 -2.867091e+00 -3.629814e+00 -1.501484e+00 -9.749827e-01 -2.460460e+00 -1.823911e+00 1.289674e+00 -1.446933e+00 7.185000e-02
<VARIANCE> 26
 2.966075e+01 3.067745e+01 1.032277e+01 1.645618e+01 4.799923e+01 4.075816e+01 1.558230e+01 4.968230e+01 3.707192e+01 1.785184e+01 3.221103e+01 2.448033e+01 1.160587e-02 1.246134e+00 1.442806e+00 2.240240e+00 1.571265e+00 5.594717e+00 1.535180e+00 2.048118e+00 4.828548e+00 4.388968e+00 3.589188e+00 7.277822e+00 3.545147e+00 6.247006e-04
<GCONST> 8.758897e+01
<MIXTURE> 3 2.348651e-01
<MEAN> 26
 1.858610e+00 6.307730e-01 1.010282e+01 -5.839523e+00 -2.259528e+01 -1.269422e+01 -7.942935e+00 -8.873677e+00 -8.073826e+00 -7.049516e+00 1.969004e+00 -9.595872e+00 9.459491e-01 3.081501e-01 -3.617942e-01 -3.648691e-01 5.403678e-01 3.077814e-01 -1.355101e+00 -8.138007e-01 9.388257e-01 4.778562e-02 -2.313596e-02 1.393898e+00 8.882623e-01 1.021715e-02
<VARIANCE> 26
 1.695136e+01 3.635979e+01 9.435816e+00 4.169820e+00 2.302807e+01 1.243728e+01 8.472657e+00 4.115512e+01 1.266461e+01 2.553931e+01 3.349242e+01 6.748965e+00 1.594708e-03 2.394026e-01 3.590553e-01 3.389298e-01 6.665913e-01 2.313788e+00 7.276730e-01 1.202720e+00 1.140998e+00 1.059782e+00 1.325824e+00 1.162924e+00 1.782685e+00 1.912296e-04
<GCONST> 6.355444e+01
<STATE> 3
<NUMMIXES> 3
<MIXTURE> 1 2.034143e-01
<MEAN> 26
 5.359452e+00 6.176717e-01 1.079140e+01 5.110911e-01 -9.465396e+00 -1.244462e+01 9.343937e-01 5.395830e-02 -1.085235e+01 1.343343e+00 -5.095628e+00 1.291712e+00 9.701164e-01 2.195823e-01 -2.049016e-01 -5.282611e-01 -2.139752e-01 6.267645e-01 -1.050679e+00 -5.511289e-02 3.848884e-01 3.142292e-01 -2.140085e-01 -3.709828e-02 4.680363e-01 -6.258410e-03
<VARIANCE> 26
 2.883842e+00 4.033845e+00 7.241653e+00 5.031094e+00 7.109381e+00 1.279040e+01 3.941176e+00 4.242167e+00 4.367549e+00 4.061614e+00 2.463581e+00 6.552057e+00 8.939572e-04 1.073354e-01 5.755928e-01 3.074127e-01 1.793899e-01 3.524132e-01 7.751814e-01 6.164348e-01 3.849960e-01 6.762510e-01 4.937811e-01 2.033183e-01 6.424407e-01 5.114252e-05
<GCONST> 3.836707e+01
<MIXTURE> 2 2.281009e-01
<MEAN> 26
 9.043198e+00 -1.028466e+01 1.127151e+01 -4.086182e+00 -2.169455e+01 -1.364194e+01 -1.431578e+01 -9.312107e+00 -4.279634e+00 -1.489127e+01 9.431751e+00 -2.256902e+00 9.442266e-01 5.053153e-01 1.944476e-01 -6.359771e-01 1.753378e-01 5.177339e-01 -1.018974e-01 -1.921037e-01 8.812066e-01 1.102007e+00 3.169382e-02 -7.926874e-01 2.963333e-01 -1.043918e-02
<VARIANCE> 26
 3.257770e+00 4.558144e+00 7.348391e+00 6.812289e+00 5.562241e+00 3.186208e+00 5.894950e+00 2.175544e+01 2.481490e+01 1.015142e+01 2.458136e+01 7.648552e+00 3.168261e-03 1.112639e-01 1.162415e+00 3.019615e-01 8.798537e-01 6.034879e-01 6.819424e-01 1.302813e+00 1.002301e+00 8.160836e-01 2.388839e+00 1.450726e+00 1.567024e+00 2.685674e-04
<GCONST> 5.641034e+01
<MIXTURE> 3 5.684849e-01
<MEAN> 26
 2.190299e+00 3.495599e-01 6.592654e+00 -2.865222e-01 -8.789927e+00 -1.589507e+01 -1.071293e+01 -3.323289e+00 -1.295520e+00 -1.049298e+01 4.469224e+00 1.568467e+00 9.417588e-01 4.495665e-01 1.081465e-01 -5.350931e-01 7.733583e-02 8.004158e-01 -7.355288e-02 -6.774172e-01 3.801616e-01 2.403580e-01 -5.696934e-02 -2.469115e-01 6.361846e-01 -7.592516e-03
<VARIANCE> 26
 1.310956e+01 2.585729e+01 1.131320e+01 5.839622e+00 3.228093e+01 9.937421e+00 1.791191e+01 3.323993e+01 4.574422e+01 2.094787e+01 2.283846e+01 1.829016e+01 2.658175e-03 1.447571e-01 3.013850e-01 4.402917e-01 5.155799e-01 4.450913e-01 9.949854e-01 1.022100e+00 1.223555e+00 9.289733e-01 1.754770e+00 1.921162e+00 1.857530e+00 2.725818e-04
<GCONST> 6.527872e+01
<STATE> 4
<NUMMIXES> 3
<MIXTURE> 1 3.515058e-01
<MEAN> 26
 2.641025e+00 2.611023e+00 1.029484e+00 1.054456e+00 -1.267073e-01 -5.603537e+00 -3.944236e+00 -2.064107e+00 -2.725776e+00 4.716343e-03 5.636289e-01 7.234919e-01 4.476497e-01 -6.221476e-01 -2.123161e-01 -7.055503e-01 2.644018e-01 1.057167e+00 2.610625e+00 1.324795e+00 3.288048e-01 1.463794e-01 2.775141e-01 -2.731651e-01 -4.039078e-01 -4.887985e-02
<VARIANCE> 26
 2.795502e+00 4.126879e+00 9.446945e+00 8.671955e+00 1.952944e+01 2.877421e+01 2.455482e+01 1.342460e+01 1.077922e+01 1.892007e+01 1.824486e+01 1.897806e+01 2.173681e-02 4.275852e-01 8.666297e-01 6.203486e-01 8.213118e-01 2.006597e+00 1.385519e+00 2.638480e+00 2.532655e+00 9.688011e-01 1.520298e+00 2.270218e+00 1.711535e+00 8.885459e-04
<GCONST> 7.007526e+01
<MIXTURE> 2 4.538538e-01
<MEAN> 26
 7.554538e+00 -3.517940e-01 4.411199e+00 -1.756493e-01 -5.509911e+00 -1.448476e+01 -1.483920e+01 -3.901980e+00 -7.145012e-01 -4.427792e+00 4.274234e+00 1.238490e+00 7.227453e-01 -3.940418e-01 4.774246e-01 -3.267009e-01 1.893097e-01 7.562974e-01 4.864773e-01 5.474251e-01 1.564539e-01 -3.082037e-01 8.273168e-01 -1.932535e-01 -3.287671e-01 -3.889782e-02
<VARIANCE> 26
 1.268966e+01 1.011149e+01 1.498253e+01 1.371964e+01 5.707224e+01 9.794547e+00 1.089747e+01 1.174517e+01 1.388075e+01 1.241541e+01 1.009958e+01 1.430198e+01 1.724049e-02 3.951568e-01 1.198954e+00 7.196134e-01 5.943639e-01 7.965098e-01 7.709578e-01 1.117195e+00 8.984353e-01 9.376224e-01 9.890768e-01 7.847078e-01 8.716570e-01 3.407741e-04
<GCONST> 6.468519e+01
<MIXTURE> 3 1.946404e-01
<MEAN> 26
 5.540415e+00 3.712258e+00 6.355003e+00 -1.139830e-01 -6.533075e+00 -1.672776e+01 -1.570126e+00 6.148164e-01 -4.472162e+00 -1.649175e+00 -5.554824e+00 3.964809e+00 7.667840e-01 -3.006898e-01 -1.835375e-02 -1.311469e-01 1.533870e-01 6.697509e-01 6.905170e-01 5.720522e-01 -1.261343e-01 3.962708e-01 6.486515e-01 3.148916e-01 1.446350e-01 -5.015841e-02
<VARIANCE> 26
 3.626370e+00 3.822651e+00 5.359014e+00 9.583570e+00 8.852142e+00 8.724428e+00 3.187810e+01 8.867317e+00 8.347687e+00 1.276539e+01 1.965430e+01 6.581775e+00 1.235231e-02 4.833314e-01 4.992734e-01 4.298966e-01 9.391807e-01 1.066605e+00 1.314687e+00 1.193426e+00 1.541262e+00 7.300791e-01 5.971009e-01 1.617823e+00 6.265294e-01 5.036765e-04
<GCONST> 5.968987e+01
<TRANSP> 5
 0.000000e+00 1.000000e+00 0.000000e+00 0.000000e+00 0.000000e+00
 0.000000e+00 9.158692e-01 8.413082e-02 0.000000e+00 0.000000e+00
 0.000000e+00 0.000000e+00 9.098546e-01 9.014542e-02 0.000000e+00
 0.000000e+00 0.000000e+00 0.000000e+00 9.154021e-01 8.459789e-02
 0.000000e+00 0.000000e+00 0.000000e+00 0.000000e+00 0.000000e+00
<ENDHMM>
