~o
<STREAMINFO> 1 26
<VECSIZE> 26<NULLD><MFCC_E_D_Z><DIAGC>
~h "ni"
<BEGINHMM>
<NUMSTATES> 5
<STATE> 2
<NUMMIXES> 3
<MIXTURE> 1 4.369186e-01
<MEAN> 26
 7.234477e+00 5.749166e+00 2.817940e+00 4.406856e+00 -3.345669e+00 -5.196444e+00 -6.008312e-01 -5.921055e+00 -2.625104e-01 -2.868321e+00 -3.427999e+00 -1.178268e-01 7.648283e-01 4.617172e-01 9.545748e-01 1.104863e+00 -1.004207e+00 -7.639013e-01 -6.847326e-01 -1.346126e+00 -1.175416e+00 -1.667002e-01 1.157999e-01 -8.230830e-02 -3.411250e-01 6.898426e-02
<VARIANCE> 26
 1.440173e+01 8.190616e+00 1.329810e+01 7.495679e+00 2.857321e+01 1.615542e+01 1.884572e+01 3.725275e+01 8.775732e+01 1.321319e+01 8.403735e+00 2.131978e+01 1.462364e-02 3.339075e+00 1.212302e+00 2.114185e+00 2.967195e+00 2.247552e+00 1.844151e+00 1.914959e+00 4.719321e+00 4.635872e+00 1.916889e+00 2.243327e+00 1.485040e+00 1.467056e-03
<GCONST> 8.158598e+01
<MIXTURE> 2 3.440817e-01
<MEAN> 26
 1.066530e+00 7.228282e+00 8.635932e+00 -8.158226e+00 -1.301892e+00 -2.701657e+00 -8.893713e+00 -6.259270e+00 -5.794648e-01 -1.621027e+00 -2.375926e+00 -4.316711e+00 9.270944e-01 -9.829682e-01 -8.394255e-02 1.856765e+00 -3.820262e+00 1.349459e-01 1.426480e+00 -2.301138e+00 -3.214661e-01 3.547589e-02 -3.156649e-01 3.246403e-01 -1.430111e+00 3.268560e-02
<VARIANCE> 26
 5.524833e+00 1.622606e+01 2.083966e+01 3.191302e+01 1.455394e+01 2.461433e+01 1.329229e+01 1.435300e+01 3.299252e+01 4.241907e+01 8.266640e+00 2.527397e+01 2.619778e-03 1.193499e+00 8.017803e-01 3.589985e-01 2.532094e+00 1.573451e+00 2.050072e+00 9.925032e-01 2.974775e+00 2.372438e+00 8.648248e-01 1.110610e+00 1.273675e+00 4.628400e-04
<GCONST> 7.205583e+01
<MIXTURE> 3 2.189997e-01
<MEAN> 26
 1.360233e+01 5.985378e+00 9.252478e+00 -2.411701e+00 -1.290316e+01 -2.860452e+00 -2.254159e+00 -1.851300e+01 -8.609571e+00 2.992197e+00 2.993231e+00 -7.813216e+00 8.025457e-01 3.256920e-02 -8.521919e-02 9.354157e-01 -2.819962e+00 -9.706596e-01 3.804130e-01 8.058839e-02 -7.387426e-01 1.200292e-01 -1.641001e-01 -1.788862e-01 1.416450e-01 3.254978e-02
<VARIANCE> 26
 2.898770e+00 9.121412e-01 6.047160e+00 6.037103e+01 1.242533e+01 1.063860e+01 8.930101e+00 6.238860e+00 9.058850e+00 8.172678e+00 1.336438e+01 1.166530e+01 4.468023e-03 1.529963e+00 2.531411e-01 7.095243e-01 4.919752e+00 3.457404e+00 1.838767e+00 1.796087e+00 3.272916e+00 1.328153e+00 1.439821e+00 3.916517e+00 2.798690e+00 2.555833e-04
<GCONST> 6.619775e+01
<STATE> 3
<NUMMIXES> 3
<MIXTURE> 1 2.784883e-01
<MEAN> 26
 -3.790185e+00 2.862939e+00 1.614845e+01 -1.697052e+01 3.947763e-01 -1.300454e+00 -1.461284e+01 -5.655071e+00 3.974385e+00 -4.948285e+00 6.863986e+00 -2.376335e+00 9.477202e-01 -4.007419e-02 1.972332e-01 1.636128e-01 -4.120169e-02 -1.961237e-01 -3.339146e-01 9.913072e-02 -1.475874e-01 -1.008072e-01 6.195606e-02 4.394988e-01 -1.119189e-01 -6.150241e-03
<VARIANCE> 26
 1.184923e+00 4.548962e+00 5.431326e+00 9.119363e+00 3.776936e+00 1.792851e+01 1.293156e+01 2.176956e+01 1.285794e+01 4.816827e+00 1.283682e+01 5.205087e+00 3.623385e-03 1.251921e-01 3.082448e-01 2.230287e-01 3.186668e-01 1.887024e-01 1.241609e+00 7.266864e-01 4.899386e-01 3.749522e-01 2.357536e-01 4.204092e-01 4.894982e-01 2.347658e-04
<GCONST> 4.518865e+01
<MIXTURE> 2 1.955797e-01
<MEAN> 26
 1.053326e+01 8.713102e-01 1.619074e+01 -2.166579e+01 -1.783165e+01 2.061171e+00 -9.556721e+00 -1.576507e+01 -1.128923e+01 -1.063994e+00 -9.917134e-02 -7.548653e+00 9.646862e-01 -1.099734e-01 -5.392869e-01 8.703584e-02 -5.617639e-01 -3.861122e-01 2.296418e-02 -1.134908e+00 2.073525e-01 -5.262754e-01 1.155732e-01 2.702018e-01 -3.129109e-01 5.811944e-04
<VARIANCE> 26
 1.008800e+00 1.004950e+01 5.983891e+00 4.694634e+00 9.282362e+00 7.311956e+00 1.714530e+01 6.837354e+00 1.052970e+01 5.027103e+00 5.525249e+00 6.181912e+00 7.934076e-04 1.024150e-01 7.245587e-01 9.198012e-01 4.870141e-01 1.073652e+00 4.535235e-01 4.033190e-01 1.054386e+00 7.656108e-01 1.012625e+00 1.107017e+00 5.557196e-01 3.743669e-04
<GCONST> 4.916984e+01
<MIXTURE> 3 5.259320e-01
<MEAN> 26
 1.802685e+00 6.640214e+00 8.696411e+00 -1.312461e+01 -2.790683e+00 -5.171869e-01 -1.279815e+01 -6.067007e+00 -2.898815e+00 -6.566963e+00 -3.789099e+00 -7.437655e+00 9.526908e-01 3.021497e-02 -6.252600e-03 -2.221147e-01 -6.234774e-02 -9.369901e-04 -8.551042e-03 -4.110982e-02 3.174003e-01 7.919759e-02 -4.366746e-01 -2.112341e-02 1.570124e-01 -1.225168e-02
<VARIANCE> 26
 6.222637e+00 6.213171e+00 1.013797e+01 1.357095e+01 1.120704e+01 4.278952e+01 1.315602e+01 1.422326e+01 1.216086e+01 5.779850e+01 1.725145e+01 2.082339e+01 2.203205e-03 2.258069e-01 2.850522e-01 4.925926e-01 8.875860e-01 4.414801e-01 1.030623e+00 9.242068e-01 1.033961e+00 7.446455e-01 1.628151e+00 8.631658e-01 9.916238e-01 4.372642e-04
<GCONST> 6.198850e+01
<STATE> 4
<NUMMIXES> 3
<MIXTURE> 1 6.949825e-01
<MEAN> 26
 2.825095e-01 2.744212e+00 4.020204e+00 -5.467062e+00 -1.521697e+00 -6.348917e-01 -6.150690e+00 -1.078478e+00 -2.281197e+00 -3.156446e+00 -9.749657e-01 -2.803565e+00 5.203099e-01 -1.324062e-01 -8.690003e-01 -1.315082e+00 2.090065e+00 6.234853e-01 3.030229e-01 1.643333e+00 7.110589e-01 2.561535e-01 7.010648e-01 3.067175e-01 8.251249e-01 -5.086673e-02
<VARIANCE> 26
 2.913600e+00 1.171244e+01 1.512731e+01 3.435098e+01 1.872915e+01 1.448645e+01 2.380566e+01 1.571492e+01 1.295471e+01 2.665315e+01 2.653448e+01 1.256456e+01 3.871545e-02 4.304686e-01 6.348557e-01 2.170182e+00 1.577183e+00 1.198291e+00 2.481292e+00 1.569690e+00 1.865363e+00 2.377173e+00 2.447733e+00 1.833048e+00 1.659875e+00 7.869613e-04
<GCONST> 7.532168e+01
<MIXTURE> 2 1.741650e-01
<MEAN> 26
 -3.768262e+00 2.603819e+00 1.519334e+01 -1.684484e+01 -1.614479e+00 -9.512192e+00 -7.805999e+00 -6.992984e+00 3.943207e+00 -4.093070e+00 7.681724e+00 -1.205395e+00 7.123795e-01 -4.492265e-02 -5.380982e-01 -9.584228e-01 7.245436e-01 -4.454203e-02 1.876005e-01 4.870367e-01 8.743997e-01 -7.403937e-01 8.699608e-02 -9.291143e-01 1.054228e-01 -4.686281e-02
<VARIANCE> 26
 3.015355e+00 6.209165e+00 1.050813e+01 1.471436e+01 7.979807e+00 9.861187e+00 2.989042e+01 5.293530e+01 3.253198e+01 9.937790e+00 2.183505e+01 6.952664e+00 1.030363e-02 2.010119e-01 3.326580e-01 1.105369e+00 1.834503e+00 8.793408e-01 1.240035e+00 1.204986e+00 1.194769e+00 1.111149e+00 6.241620e-01 1.856357e+00 6.736201e-01 6.927397e-04
<GCONST> 6.474923e+01
<MIXTURE> 3 1.308527e-01
<MEAN> 26
 4.553322e+00 -3.011040e-01 1.364337e+01 -2.248973e+01 -1.471535e+01 1.697690e+00 -1.846280e+01 -1.187026e+01 -1.131739e+01 4.661207e+00 6.720186e+00 -9.117661e+00 6.191252e-01 -1.715402e+00 1.743473e-02 -1.675029e+00 2.566423e+00 1.934553e+00 -4.392526e-01 9.066706e-01 2.317689e+00 1.336847e+00 2.211799e-01 8.258357e-01 8.433016e-01 -1.140842e-01
<VARIANCE> 26
 1.176370e+01 1.022599e+00 8.866014e+00 2.801778e+01 2.267126e+01 6.903448e+00 6.601148e+00 1.801198e+01 6.997146e+00 1.374139e+01 6.909596e+00 1.210883e+01 4.253418e-02 2.567982e-01 2.299110e-01 3.623052e+00 6.299211e+00 1.920203e+00 1.667710e+00 3.792035e+00 1.335412e+00 9.742478e-01 1.501575e+00 1.050388e+00 2.233505e+00 5.587773e-04
<GCONST> 6.828158e+01
<TRANSP> 5
 0.000000e+00 1.000000e+00 0.000000e+00 0.000000e+00 0.000000e+00
 0.000000e+00 8.630767e-01 1.369233e-01 0.000000e+00 0.000000e+00
 0.000000e+00 0.000000e+00 9.207066e-01 7.929341e-02 0.000000e+00
 0.000000e+00 0.000000e+00 0.000000e+00 8.773301e-01 1.226699e-01
 0.000000e+00 0.000000e+00 0.000000e+00 0.000000e+00 0.000000e+00
<ENDHMM>
