~o
<STREAMINFO> 1 26
<VECSIZE> 26<NULLD><MFCC_E_D_Z><DIAGC>
~h "zero"
<BEGINHMM>
<NUMSTATES> 9
<STATE> 2
<NUMMIXES> 3
<MIXTURE> 1 2.188671e-01
<MEAN> 26
 -1.171636e+01 8.446392e+00 6.857787e-01 1.037667e+01 4.904492e+00 -5.503344e+00 4.703520e+00 -3.541499e+00 4.376490e+00 -2.645304e+00 -2.531888e+00 6.392727e-01 6.219576e-01 -8.129207e-01 2.019937e-02 3.406393e-01 4.731679e-02 -4.862070e-01 -1.607503e+00 5.306456e-01 -2.059260e-01 3.000815e-01 -1.482806e-01 2.252406e-01 6.199014e-01 4.074756e-02
<VARIANCE> 26
 1.816817e+01 1.274668e+01 4.214009e+00 5.624379e+00 1.020916e+01 1.301486e+01 8.895518e+00 5.628651e+00 1.114419e+01 2.332718e+01 4.984496e+00 7.930680e+00 9.912906e-03 7.368126e+00 2.770972e+00 1.263078e+00 1.422506e+00 1.760780e+00 3.188781e+00 1.687575e+00 9.998979e-01 1.935608e+00 2.604772e+00 1.432213e+00 1.523072e+00 2.846879e-04
<GCONST> 6.990628e+01
<MIXTURE> 2 1.904200e-01
<MEAN> 26
 1.285378e+00 4.908334e+00 5.619071e+00 4.551971e+00 -8.095654e+00 -1.216047e+01 -5.672626e+00 -2.667346e+00 -1.011535e+01 -7.342670e+00 -3.343991e+00 5.290915e-01 7.917216e-01 4.302070e+00 -7.567545e-01 2.586516e+00 -1.015071e+00 -4.526423e+00 -3.061942e+00 -2.838315e+00 -1.418532e+00 -4.240567e-01 -1.487569e+00 4.219264e-01 2.005158e-01 1.083228e-01
<VARIANCE> 26
 2.742419e+01 9.231470e+00 1.391674e+01 3.792984e+01 4.226506e+01 2.350125e+01 1.201576e+01 3.827409e+01 8.275553e+00 8.730980e+00 1.892211e+01 1.875130e+01 7.861998e-03 1.261945e+00 1.524879e+00 1.198136e+00 2.769115e+00 1.796175e+00 1.679846e+00 1.137267e+00 1.961746e+00 2.325031e+00 1.619096e+00 9.999284e-01 2.980762e+00 1.830880e-03
<GCONST> 7.780119e+01
<MIXTURE> 3 5.907130e-01
<MEAN> 26
 -7.760836e+00 1.785012e+00 -1.798980e+00 2.333467e+00 -1.230729e+00 -7.473845e-01 3.454663e-01 2.405512e+00 -3.158812e+00 8.636938e-01 8.777795e-01 -4.524321e-01 4.906214e-01 5.002279e-01 8.085686e-01 7.092399e-01 2.072130e-01 -6.357849e-01 -1.401742e+00 5.133068e-02 -2.906006e-01 -8.096420e-01 -6.607574e-01 -4.158783e-01 8.937336e-02 6.069282e-02
<VARIANCE> 26
 2.644221e+01 1.581528e+01 2.144934e+01 1.337178e+01 1.787300e+01 2.538028e+01 2.207297e+01 2.829627e+01 1.721376e+01 1.593036e+01 1.571098e+01 1.363776e+01 4.275818e-02 6.256225e+00 1.445736e+00 2.968515e+00 1.661062e+00 3.394691e+00 4.161250e+00 2.066223e+00 2.669065e+00 2.027958e+00 3.049508e+00 1.439557e+00 1.538857e+00 2.126880e-03
<GCONST> 8.448035e+01
<STATE> 3
<NUMMIXES> 3
<MIXTURE> 1 6.669659e-02
<MEAN> 26
 -6.788565e+00 4.477188e+00 5.605247e+00 6.707890e+00 5.365698e-01 -1.629362e+01 1.302559e+00 -1.999027e+00 3.010374e+00 -2.655545e+00 1.945421e-01 5.915491e+00 7.924044e-01 2.885117e+00 -3.243770e+00 7.942786e-01 -2.846548e+00 -1.260117e+00 -1.947157e+00 -3.330504e+00 1.295366e+00 5.797393e-01 -1.858714e+00 2.266922e+00 1.302531e-01 4.499362e-02
<VARIANCE> 26
 2.348920e+00 7.454926e+00 3.179468e-03 3.299787e+00 8.852620e-02 2.109989e-01 7.346859e+00 4.690489e+00 1.215518e+00 5.817177e-01 8.477615e-01 3.498743e-01 1.390837e-03 5.880212e-02 1.266420e-03 9.191126e-02 2.235575e-01 1.133000e-01 5.194089e-01 3.479093e-03 3.525477e-02 4.671477e-01 6.250677e-06 2.631217e-01 4.628634e-01 8.274101e-05
<GCONST> -1.196815e+01
<MIXTURE> 2 4.647900e-01
<MEAN> 26
 7.587512e+00 -2.620284e+00 7.059623e+00 -2.339089e+00 -1.860463e+01 -1.269016e+01 -9.172185e+00 -9.849241e-01 -5.493299e+00 -5.747161e+00 2.255807e+00 1.473083e-01 9.597047e-01 6.659444e-01 -1.961120e+00 -3.532498e-02 -2.426888e+00 -1.339528e+00 2.278433e-01 -2.561567e-01 1.060242e+00 1.449206e+00 6.930498e-01 1.122402e+00 -1.462426e+00 3.451020e-02
<VARIANCE> 26
 1.259531e+01 8.674714e+00 3.589053e+00 5.231503e+01 1.310755e+01 1.096091e+01 5.538118e+00 3.894352e+01 1.365071e+01 1.872677e+01 1.398865e+01 2.457099e+01 1.786838e-03 1.341450e+00 7.181005e-01 8.320459e-01 4.927283e-01 3.251154e+00 7.356863e-01 4.618935e-01 9.866479e-01 5.566508e-01 8.588744e-01 2.105304e+00 1.365992e+00 6.495771e-04
<GCONST> 6.524760e+01
<MIXTURE> 3 4.685135e-01
<MEAN> 26
 2.282742e+00 2.075760e-01 6.758803e+00 -1.983400e+00 -4.304204e+00 -1.392704e+01 4.526749e+00 2.428317e+00 1.792400e+00 -3.270690e+00 1.144200e+00 -3.446051e+00 9.505351e-01 9.798714e-01 -1.314069e+00 4.416495e-02 -1.239866e+00 -2.934244e-01 -3.858243e-01 3.650948e-01 8.407221e-01 6.048861e-01 -8.919838e-01 3.134489e-01 -1.139321e+00 2.244946e-02
<VARIANCE> 26
 1.029463e+01 2.217377e+01 3.570517e+00 7.950675e+00 7.512616e+00 1.168579e+01 2.592068e+01 1.050595e+01 1.011040e+01 1.326636e+01 5.549963e+01 2.163947e+01 2.321543e-03 1.157305e+00 7.553195e-01 7.298155e-01 1.115251e+00 7.245437e-01 1.264196e+00 1.423533e+00 9.101191e-01 9.232575e-01 1.028967e+00 2.088232e+00 1.446098e+00 4.092838e-04
<GCONST> 6.565099e+01
<STATE> 4
<NUMMIXES> 3
<MIXTURE> 1 2.071007e-01
<MEAN> 26
 7.079692e+00 -2.296738e+00 4.336637e+00 3.490378e-01 -4.731091e+00 -1.109137e+01 5.510828e+00 7.175507e+00 -2.929363e-02 -2.420006e+00 -5.472516e+00 -4.049091e+00 9.658166e-01 6.686910e-01 -1.120414e+00 -2.241367e-01 2.137768e+00 -1.317002e+00 7.796908e-01 -1.695011e+00 -6.278114e-01 7.441090e-01 -7.667357e-02 -1.296614e-01 8.810398e-01 -1.232151e-02
<VARIANCE> 26
 1.269135e+00 1.159722e+01 4.596728e+00 2.950540e+01 1.495493e+01 6.956317e+00 1.657213e+01 1.284127e+01 6.012558e+00 8.485764e+00 6.546515e+00 6.547423e+00 1.291426e-03 1.028852e-01 4.906304e-01 8.091881e-01 1.708893e+00 1.450412e+00 1.370368e+00 5.190792e-01 1.529001e+00 2.508975e+00 1.802809e+00 8.930564e-01 4.492888e-01 1.317741e-04
<GCONST> 5.588251e+01
<MIXTURE> 2 5.850599e-01
<MEAN> 26
 4.040868e+00 -4.979908e+00 5.219814e+00 -5.333600e+00 -1.673640e+01 -1.124422e+01 -7.535512e+00 4.387215e+00 -1.936998e+00 -7.087325e+00 3.163964e+00 -7.397861e+00 9.636208e-01 -2.546034e-02 -3.336785e-01 -5.601690e-01 7.097745e-02 3.313942e-01 2.871511e-01 4.752798e-02 4.583670e-01 7.206787e-01 -6.484659e-01 -6.934840e-01 -7.661076e-02 -6.992389e-03
<VARIANCE> 26
 2.427664e+01 6.257952e+00 5.567655e+00 2.233391e+01 5.542041e+00 1.003632e+01 6.621411e+00 5.642350e+01 6.822229e+00 1.197593e+01 1.837330e+01 1.884738e+01 7.868878e-04 4.727038e-01 2.717200e-01 5.483280e-01 6.619039e-01 3.263913e-01 7.637167e-01 6.936585e-01 7.718595e-01 7.437952e-01 5.164399e-01 1.623559e+00 2.370529e+00 1.217859e-04
<GCONST> 5.697392e+01
<MIXTURE> 3 2.078394e-01
<MEAN> 26
 -1.551064e+00 -5.741075e+00 8.405323e+00 -5.884552e+00 -4.434794e+00 -1.540426e+01 -1.491991e+00 -4.674198e-01 1.057146e+01 -1.017997e+01 6.570754e+00 -7.293594e-01 9.904758e-01 1.069167e-01 -6.128139e-01 4.676518e-01 -8.430437e-01 -2.538181e-01 4.391617e-01 -7.899824e-01 4.403148e-01 2.802593e-01 1.232851e-01 -3.024955e-01 -3.396521e-01 3.291991e-03
<VARIANCE> 26
 5.541970e-01 4.278639e+00 2.357474e+00 2.706075e+00 5.029769e+00 9.028893e-01 3.355700e+00 4.586901e+00 1.116893e+01 9.142144e+00 1.400016e+01 1.527668e+01 5.302109e-05 2.004737e-01 4.920196e-02 1.358303e-01 3.102209e-01 1.029003e-02 7.606208e-02 1.508886e+00 4.739825e-01 2.698497e-01 5.191480e-01 4.130972e-02 1.528711e-01 1.398173e-04
<GCONST> 2.371582e+01
<STATE> 5
<NUMMIXES> 3
<MIXTURE> 1 1.106442e-01
<MEAN> 26
 1.124429e+01 -4.826583e+00 -2.285102e+00 -1.780588e+00 -7.351909e+00 7.915276e+00 -4.178880e+00 -5.670610e+00 8.339344e+00 1.596899e+00 -2.876531e+00 -9.794817e+00 9.754589e-01 -5.746651e-01 1.920126e+00 -7.348600e-01 -3.542759e+00 1.245430e+00 3.600484e+00 -1.253785e+00 -9.958648e-01 -1.561471e+00 1.148785e+00 8.715051e-01 -1.019478e+00 -1.323759e-03
<VARIANCE> 26
 1.817629e+00 5.211259e+00 1.489269e+00 1.974837e+01 8.837381e+00 2.315824e+01 5.792239e+00 6.440051e+00 7.211227e+00 5.085291e+00 1.342327e+01 4.964753e+00 3.073499e-04 1.757013e-01 4.014359e-01 7.656641e-01 2.501082e-01 1.282925e+00 1.346619e+00 2.110279e-01 1.574490e+00 6.341237e-01 5.583340e-01 8.337458e-01 2.306297e+00 7.288256e-05
<GCONST> 4.729793e+01
<MIXTURE> 2 5.923852e-01
<MEAN> 26
 6.384026e+00 -7.350938e+00 5.158009e+00 -3.871453e-01 -1.074271e+01 -1.094385e+01 -1.040430e+01 1.424211e+00 2.646780e+00 -7.980840e+00 -1.520265e+00 -6.074006e-01 8.497719e-01 6.862342e-01 -2.183153e-01 -9.291798e-01 2.075353e+00 1.454246e+00 3.722558e-01 -1.245395e+00 -6.707134e-01 2.978141e-01 5.580108e-01 -1.151969e+00 8.578551e-01 -2.660730e-02
<VARIANCE> 26
 2.614100e+01 9.095393e+00 1.687980e+01 5.161015e+01 3.220855e+01 1.393803e+01 1.303594e+01 2.555100e+01 3.741114e+01 1.087304e+01 4.361374e+01 2.638623e+01 9.007441e-03 5.637904e-01 8.974155e-01 2.037952e+00 2.298721e+00 1.896770e+00 2.356452e+00 1.707216e+00 2.813139e+00 3.269118e+00 1.760897e+00 2.186386e+00 3.098562e+00 1.072136e-03
<GCONST> 8.104281e+01
<MIXTURE> 3 2.969705e-01
<MEAN> 26
 1.140384e+01 -8.992856e+00 -2.066807e+00 2.483728e+00 -8.061738e+00 -6.748960e+00 -1.434938e+01 -9.902584e-01 6.299339e+00 -7.545501e-01 -3.927279e+00 -3.298839e+00 8.969232e-01 1.179995e+00 1.010684e-01 -2.563026e+00 -2.568974e+00 1.841404e-01 3.287312e+00 -1.424993e+00 -1.962386e+00 1.018220e+00 2.362121e+00 1.368874e+00 -2.334522e+00 3.576010e-02
<VARIANCE> 26
 2.347243e+01 8.457220e+00 1.573541e+01 4.142725e+01 3.867056e+01 4.885878e+01 5.820655e+01 1.373248e+01 2.896444e+01 2.926258e+01 1.884664e+01 1.951990e+01 2.120513e-03 4.497951e-01 1.354084e+00 1.306754e+00 3.602996e+00 2.368692e+00 2.397074e+00 2.445493e+00 1.609240e+00 5.771174e+00 2.036028e+00 3.067504e+00 2.212005e+00 5.442182e-04
<GCONST> 8.129988e+01
<STATE> 6
<NUMMIXES> 3
<MIXTURE> 1 3.137753e-02
<MEAN> 26
 8.760123e+00 -4.435105e+00 -6.168890e+00 1.193049e+01 -7.356720e-01 -1.423420e+01 -1.273910e+01 -3.498339e+00 1.273562e+01 -9.712669e+00 -8.912593e+00 6.736714e+00 8.621466e-01 3.061952e-01 1.232750e+00 -3.409777e+00 -1.442494e+00 -4.232902e-01 3.183265e+00 2.667324e+00 -3.066515e+00 -2.620157e+00 3.681593e+00 1.449435e+00 -3.679092e-01 1.052548e-02
<VARIANCE> 26
 5.585423e-01 2.247086e+00 8.010118e+00 3.863263e-01 5.777877e+00 1.132244e+01 5.025803e+00 6.461650e+00 3.628559e+00 7.755202e+00 3.134953e+00 2.333569e+00 4.877898e-04 2.989824e-02 1.500281e-01 9.469750e-02 1.599012e+00 2.661960e+00 1.409641e-01 3.490150e-01 4.403725e-02 1.059279e+00 6.456219e-01 1.472352e-01 5.233049e-03 3.446130e-05
<GCONST> 2.423029e+01
<MIXTURE> 2 5.914879e-01
<MEAN> 26
 8.063798e+00 6.267223e-01 -5.033459e+00 -1.326439e+01 -1.767068e+00 4.169340e+00 -8.358483e+00 -7.383675e+00 -3.127601e+00 2.667819e+00 2.297644e+00 -1.851413e+00 8.887843e-01 -2.771506e-01 1.731813e+00 2.303841e-01 -2.682119e+00 4.326004e-01 3.983944e-01 2.269849e+00 -7.127811e-02 -1.502460e+00 -1.211556e+00 -2.037048e-01 1.591364e+00 -1.193050e-02
<VARIANCE> 26
 1.645175e+00 1.219183e+01 1.659271e+01 4.271245e+01 1.249599e+01 4.176647e+01 3.133590e+01 1.853225e+01 2.217263e+01 2.112852e+01 1.805375e+01 3.135936e+01 2.322688e-03 1.978749e-01 4.891338e-01 4.429284e-01 4.192107e+00 7.578486e-01 3.352690e+00 3.796377e+00 9.844291e-01 1.467521e+00 1.547636e+00 1.942718e+00 1.433410e+00 7.017270e-05
<GCONST> 6.920632e+01
<MIXTURE> 3 3.771345e-01
<MEAN> 26
 1.286515e+01 -5.287291e+00 -7.865108e+00 -7.860810e+00 -7.743879e+00 1.387960e+00 -1.291963e+01 -9.829549e+00 4.206526e+00 1.346661e+00 8.543094e-01 -7.155921e+00 9.103267e-01 -1.019440e-01 1.808812e+00 -8.477360e-01 -4.106022e+00 6.187791e-01 3.254159e+00 1.977503e+00 -1.760283e+00 -2.301879e+00 1.008877e+00 2.201118e+00 3.630597e-01 -9.290444e-03
<VARIANCE> 26
 2.593610e+01 1.177414e+01 1.141996e+01 1.026162e+02 2.527795e+01 4.421718e+01 3.899111e+01 2.274695e+01 2.286955e+01 8.127721e+00 2.162796e+01 2.876112e+01 1.655013e-03 2.531155e-01 1.375038e-01 8.855699e-01 3.151213e+00 2.162990e+00 1.333478e+00 8.434759e-01 1.428930e+00 2.884601e+00 2.467716e+00 9.427542e-01 2.513896e+00 3.046863e-04
<GCONST> 7.327724e+01
<STATE> 7
<NUMMIXES> 3
<MIXTURE> 1 3.883364e-01
<MEAN> 26
 6.125805e+00 6.616849e+00 -4.533660e+00 -1.292135e+01 -2.333424e+00 8.335633e+00 -3.733940e+00 -2.831941e+00 -6.650067e+00 1.545122e+00 1.343268e+00 -2.375396e+00 7.792675e-01 -4.603513e-01 1.645128e-01 2.281992e-01 4.580167e-01 -1.153639e-01 -7.762772e-01 7.466542e-01 7.366571e-01 -1.745770e-01 -1.722247e-01 3.168426e-01 8.460670e-01 -3.383569e-02
<VARIANCE> 26
 2.102687e+00 6.656765e+00 4.936927e+00 1.578823e+01 5.845074e+00 3.083108e+01 6.287271e+00 2.653783e+01 1.292170e+01 1.232677e+01 7.805142e+00 8.792767e+00 8.926482e-03 3.356870e-01 4.881556e-01 7.531486e-01 1.706848e+00 5.696406e-01 1.048693e+00 5.709103e-01 8.035350e-01 6.768523e-01 6.239622e-01 9.089167e-01 9.116296e-01 2.214215e-04
<GCONST> 5.735410e+01
<MIXTURE> 2 2.912486e-01
<MEAN> 26
 1.349921e+01 -3.876218e-02 -5.086502e+00 -2.158959e+01 -9.750211e+00 1.115413e+01 -5.416356e+00 -7.066174e+00 -1.233944e+00 -7.950591e+00 2.570596e+00 8.513214e-01 7.941760e-01 7.516899e-02 4.065945e-01 9.676372e-01 -1.064693e+00 -5.149489e-01 2.080100e-01 4.705428e-01 1.880907e+00 -4.070049e-01 -1.400418e+00 -1.120427e+00 5.120565e-01 -4.294869e-02
<VARIANCE> 26
 2.362854e+01 1.052509e+01 9.601192e+00 1.057243e+01 1.710793e+01 1.907343e+01 8.920158e+00 2.392192e+01 1.748769e+01 2.118935e+01 1.567083e+01 2.760484e+01 1.197521e-02 1.410287e+00 4.829041e-01 1.123687e+00 2.290671e+00 6.720000e-01 1.982343e+00 1.121125e+00 1.270357e+00 7.785620e-01 3.933297e+00 3.692219e+00 1.028855e+00 7.630068e-04
<GCONST> 7.310931e+01
<MIXTURE> 3 3.204149e-01
<MEAN> 26
 7.875766e+00 3.271892e+00 -1.448245e+00 -2.577157e+01 -2.778745e+00 -2.067682e+00 -2.798905e-01 -4.577791e-01 -2.150176e+00 6.565677e-03 -2.409032e+00 4.649939e+00 7.962069e-01 -2.836430e-01 5.118631e-01 -2.124674e-02 -5.981626e-02 -3.041799e-01 -7.460099e-01 8.566387e-01 6.471062e-01 8.528156e-01 7.918743e-01 1.411035e-01 -1.136649e-01 -2.169419e-02
<VARIANCE> 26
 8.323131e+00 2.231601e+00 7.008804e+00 1.230072e+01 2.948182e+01 1.422878e+01 7.425873e+00 8.398920e+00 3.308724e+01 6.371330e+01 1.852728e+01 6.154514e+00 2.818618e-03 1.679794e-01 2.121522e-01 2.703954e-01 6.380724e-01 1.019066e+00 5.501015e-01 9.185097e-01 8.131414e-01 1.163358e+00 3.512228e+00 1.157854e+00 4.941401e-01 1.898284e-04
<GCONST> 5.817162e+01
<STATE> 8
<NUMMIXES> 3
<MIXTURE> 1 4.254816e-01
<MEAN> 26
 1.429267e+00 2.692004e+00 -1.448358e+00 -3.034372e+00 5.512115e-01 1.873185e+00 4.558027e-01 -1.435661e-01 -2.018845e+00 -7.647782e-03 1.005101e+00 1.906135e+00 5.028914e-01 -1.286296e+00 -9.888545e-01 5.417639e-01 1.891612e+00 1.228248e+00 1.327781e-01 5.873712e-01 1.677054e-01 8.211212e-01 -1.706141e-01 -4.888303e-01 3.602057e-01 -4.197877e-02
<VARIANCE> 26
 5.912655e+00 4.026335e+00 3.890173e+00 1.643022e+01 9.006752e+00 1.489563e+01 8.764203e+00 1.283663e+01 8.788102e+00 9.603116e+00 1.367087e+01 9.735084e+00 1.707864e-02 3.026572e-01 3.194397e-01 7.506955e-01 1.066925e+00 9.873039e-01 1.658654e+00 7.313856e-01 2.146414e+00 1.719885e+00 9.253539e-01 1.570585e+00 6.415997e-01 3.514703e-04
<GCONST> 6.089576e+01
<MIXTURE> 2 4.183856e-01
<MEAN> 26
 6.685333e+00 3.987452e+00 -2.479084e+00 -1.484100e+01 -6.020278e+00 -3.207105e+00 -3.943643e-01 1.118906e+00 7.087750e-01 2.362348e+00 1.138260e+00 3.078441e+00 5.659917e-01 -8.903657e-01 -4.657760e-01 3.944947e-01 2.890085e+00 3.935696e-01 -1.119551e-02 -1.117836e-01 4.053379e-01 1.466580e-01 6.336715e-01 8.437914e-01 -4.388022e-01 -6.642392e-02
<VARIANCE> 26
 1.096193e+01 2.829087e+00 4.813132e+00 4.520507e+01 2.054362e+01 1.317994e+01 8.951603e+00 2.006854e+01 1.745183e+01 1.393394e+01 1.271257e+01 1.368548e+01 2.245724e-02 4.033861e-01 2.549193e-01 6.042213e-01 2.647725e+00 1.158121e+00 2.717628e+00 1.431921e+00 2.145617e+00 1.542168e+00 1.719580e+00 1.340258e+00 1.734042e+00 7.142252e-04
<GCONST> 6.928903e+01
<MIXTURE> 3 1.561328e-01
<MEAN> 26
 9.543597e+00 -2.368344e-01 -7.108670e+00 -1.800869e+01 -8.999175e+00 7.649522e+00 -2.298582e+00 -3.214801e+00 1.269577e+00 -1.411838e+00 6.010430e+00 1.160284e-01 3.634171e-01 -3.027719e+00 4.636583e-01 -1.516811e+00 3.702440e+00 2.719685e+00 -3.081523e+00 1.057849e+00 1.873363e+00 9.853577e-01 2.561880e+00 7.043847e-01 5.115467e-01 -1.137899e-01
<VARIANCE> 26
 2.065835e+01 3.647448e+00 1.190645e+01 4.341058e+01 2.680933e+01 2.654258e+01 2.075463e+01 1.506053e+01 1.600714e+01 2.575039e+01 3.477206e+01 6.953381e+00 2.819498e-02 3.246154e-01 6.602338e-01 1.292838e+00 2.092023e+00 1.634570e+00 6.725485e-01 8.093159e-01 5.548963e-01 4.101168e-01 5.772774e-01 2.172441e+00 1.269548e+00 4.374999e-04
<GCONST> 6.919618e+01
<TRANSP> 9
 0.000000e+00 1.000000e+00 0.000000e+00 0.000000e+00 0.000000e+00 0.000000e+00 0.000000e+00 0.000000e+00 0.000000e+00
 0.000000e+00 8.571432e-01 1.428568e-01 0.000000e+00 0.000000e+00 0.000000e+00 0.000000e+00 0.000000e+00 0.000000e+00
 0.000000e+00 0.000000e+00 7.498988e-01 2.501012e-01 0.000000e+00 0.000000e+00 0.000000e+00 0.000000e+00 0.000000e+00
 0.000000e+00 0.000000e+00 0.000000e+00 8.163334e-01 1.836666e-01 0.000000e+00 0.000000e+00 0.000000e+00 0.000000e+00
 0.000000e+00 0.000000e+00 0.000000e+00 0.000000e+00 8.491091e-01 1.508909e-01 0.000000e+00 0.000000e+00 0.000000e+00
 0.000000e+00 0.000000e+00 0.000000e+00 0.000000e+00 0.000000e+00 7.646835e-01 2.353165e-01 0.000000e+00 0.000000e+00
 0.000000e+00 0.000000e+00 0.000000e+00 0.000000e+00 0.000000e+00 0.000000e+00 8.333558e-01 1.666442e-01 0.000000e+00
 0.000000e+00 0.000000e+00 0.000000e+00 0.000000e+00 0.000000e+00 0.000000e+00 0.000000e+00 7.862903e-01 2.137097e-01
 0.000000e+00 0.000000e+00 0.000000e+00 0.000000e+00 0.000000e+00 0.000000e+00 0.000000e+00 0.000000e+00 0.000000e+00
<ENDHMM>
