~o
<STREAMINFO> 1 26
<VECSIZE> 26<NULLD><MFCC_E_D_Z><DIAGC>
~h "seven"
<BEGINHMM>
<NUMSTATES> 9
<STATE> 2
<NUMMIXES> 3
<MIXTURE> 1 4.808777e-01
<MEAN> 26
 3.721509e+00 7.341975e+00 9.866008e+00 3.367118e+00 -6.303728e+00 -5.079018e+00 -4.524355e+00 -6.749161e+00 1.996055e+00 -3.612999e+00 -9.914274e-01 2.590083e+00 6.682290e-01 7.195684e-01 -7.781348e-01 3.170139e-01 -1.025845e+00 -3.824941e-01 -1.731914e+00 -4.838361e-01 2.544405e-01 1.501076e+00 -9.968474e-01 -1.045651e+00 4.476423e-01 7.474174e-02
<VARIANCE> 26
 1.817642e+01 7.012570e+00 9.951002e+00 1.070322e+01 1.856160e+01 1.887654e+01 3.818906e+01 2.218243e+01 8.423018e+01 2.909537e+01 1.776340e+01 1.854684e+01 1.852778e-02 1.110139e+00 3.397716e+00 4.294775e+00 2.398498e+00 4.637523e+00 2.221569e+00 3.472164e+00 6.136787e+00 4.391823e+00 1.629751e+00 1.636092e+00 1.203032e+00 1.200476e-03
<GCONST> 8.448640e+01
<MIXTURE> 2 2.117063e-01
<MEAN> 26
 1.877788e+00 -4.140135e+00 -1.010455e+00 -6.504325e+00 6.064124e+00 -9.911868e+00 9.943069e-01 6.185294e+00 4.764923e+00 -8.567070e+00 -8.806865e+00 2.072073e-01 9.214085e-01 -4.289111e-01 -2.465172e+00 -2.403586e+00 -2.382407e+00 2.694175e+00 8.548133e-01 1.317492e+00 1.427250e-01 1.590524e-01 -1.391937e+00 -1.422978e-01 -1.860849e+00 3.552087e-02
<VARIANCE> 26
 3.210122e+00 1.459275e+01 5.536885e+00 7.281517e+00 2.790764e+01 8.926661e+00 1.417846e+01 5.057023e+01 3.013325e+01 3.018755e+01 1.516237e+01 5.413020e+00 1.670916e-03 2.660230e-01 1.719498e+00 1.897306e+00 1.151967e+00 2.024236e+00 9.201511e-01 4.162825e+00 3.450731e+00 1.437124e+00 1.829273e+00 1.105386e+00 2.829767e+00 1.663631e-04
<GCONST> 6.893987e+01
<MIXTURE> 3 3.074161e-01
<MEAN> 26
 6.320310e+00 -1.336836e+00 4.085258e+00 -5.302476e+00 -8.046122e+00 -9.026453e+00 -5.883510e+00 2.907967e+00 2.935239e+00 -9.425944e+00 -6.545499e+00 -4.732809e-01 8.143184e-01 3.143698e-01 -3.140508e+00 -2.413209e+00 -2.638476e+00 1.261998e+00 1.068247e-03 -7.098625e-01 2.232968e+00 1.363797e+00 -3.110434e+00 -1.156654e+00 -1.592667e+00 6.173358e-02
<VARIANCE> 26
 1.147204e+01 2.274927e+01 2.018374e+01 5.074216e+01 3.464849e+01 3.564031e+01 2.417331e+01 4.664101e+01 4.959546e+01 4.922663e+01 1.500653e+01 1.551745e+01 5.597332e-03 2.421747e+00 9.275786e-01 1.089854e+00 2.351744e+00 3.712220e+00 7.956164e+00 2.955185e+00 1.034406e+01 5.309944e+00 3.414117e+00 1.692967e+00 9.989915e-01 4.044361e-04
<GCONST> 8.665868e+01
<STATE> 3
<NUMMIXES> 3
<MIXTURE> 1 4.407522e-01
<MEAN> 26
 1.520398e+00 -7.946508e+00 -2.085785e+00 -9.084079e+00 1.145029e+01 -5.005280e+00 3.031222e+00 -4.422136e+00 6.713285e+00 -7.019114e+00 -7.581504e+00 -3.052399e+00 9.870167e-01 6.875952e-02 1.336926e-01 -1.046933e-02 -1.843465e-01 -2.271276e-03 -4.796505e-02 -2.907861e-02 -5.744495e-01 -8.118694e-02 7.493899e-01 -2.930817e-01 -1.190145e-02 1.054487e-03
<VARIANCE> 26
 3.935695e+00 2.316857e+01 1.366073e+00 7.357142e+00 5.476291e+00 6.834284e+00 8.718659e+00 3.101303e+01 8.658899e+00 1.010466e+01 9.941964e+00 9.758976e+00 2.315620e-04 6.627007e-02 5.030380e-01 2.753128e-01 2.641916e-01 5.274019e-01 1.271106e+00 5.888473e-01 1.371984e+00 8.352200e-01 9.316456e-01 3.889957e-01 1.044424e+00 1.513815e-04
<GCONST> 4.792087e+01
<MIXTURE> 2 1.525773e-01
<MEAN> 26
 7.714886e+00 3.685602e-01 3.031994e-01 -1.478709e+00 -7.414343e+00 -1.409018e+01 -9.284088e+00 -2.186581e+00 -5.519864e+00 -1.022959e+01 -4.600261e+00 -5.027417e+00 9.306472e-01 1.807961e-01 2.145554e+00 1.239091e+00 1.035867e+00 -1.654416e+00 -7.396700e-01 4.870381e-01 -1.897131e+00 -7.643397e-01 2.524424e-01 -1.661001e+00 9.702880e-01 1.401452e-02
<VARIANCE> 26
 6.521145e-01 2.098600e+01 5.653903e+00 5.933204e+00 8.898376e+00 4.372857e+00 8.313647e+00 2.763366e+01 4.551953e+00 9.705035e+00 1.942134e+01 2.090242e+01 1.088765e-03 8.630248e-02 9.694037e-01 1.329639e-01 8.960270e-02 2.682594e-01 9.604938e-01 7.880083e-01 2.514817e+00 5.025551e-01 2.975279e+00 1.328130e+00 7.261118e-01 2.780232e-05
<GCONST> 4.827642e+01
<MIXTURE> 3 4.066705e-01
<MEAN> 26
 5.829306e+00 -9.120461e+00 -4.923969e+00 -1.135833e+01 -1.679139e+00 -4.893919e+00 -6.327872e+00 1.640297e+00 5.446273e+00 -1.397857e+01 -6.091189e+00 -8.336048e+00 9.595768e-01 2.172781e-02 -6.843688e-02 -6.998102e-01 1.203087e-01 3.672631e-01 -3.731602e-01 -7.954502e-01 -6.385820e-02 1.102467e-01 2.281896e-01 7.928194e-02 -2.823267e-01 1.087959e-02
<VARIANCE> 26
 2.508887e+01 1.014242e+01 8.287861e+00 2.353618e+01 1.718155e+01 3.427007e+01 9.627271e+00 7.265515e+01 4.140067e+01 6.904697e+00 1.394967e+01 1.266023e+01 1.960861e-03 1.298371e-01 1.134645e+00 6.066836e-01 9.130852e-01 2.747306e+00 2.463716e+00 1.104855e+00 4.030346e+00 7.282702e-01 8.931643e-01 1.226040e+00 3.471435e+00 2.455548e-04
<GCONST> 6.972710e+01
<STATE> 4
<NUMMIXES> 3
<MIXTURE> 1 3.115200e-01
<MEAN> 26
 3.027822e+00 -2.147876e+00 4.894214e+00 -5.347394e+00 6.469925e+00 -9.055145e+00 4.472422e-01 -8.216723e+00 5.886393e+00 3.446290e-01 -9.966489e+00 -6.183661e-01 9.171863e-01 1.051702e-01 1.518008e+00 3.649667e+00 2.309805e+00 -2.037918e+00 -8.024453e-01 -1.773081e+00 -3.226449e+00 7.025100e-01 1.519119e+00 3.500605e-01 5.742549e-01 -2.255300e-02
<VARIANCE> 26
 1.889851e+00 1.635416e+01 3.861742e+01 3.403801e+01 1.269652e+01 1.050166e+01 2.103163e+01 5.254235e+01 3.701360e+01 2.635591e+01 2.336467e+00 1.210223e+01 1.835153e-03 1.193426e-01 1.148037e+00 9.141983e-01 9.564906e-01 8.476270e-01 1.000374e+00 2.628813e+00 1.212337e+00 2.136015e+00 3.357828e+00 9.430525e-01 1.614792e+00 1.205684e-04
<GCONST> 6.646162e+01
<MIXTURE> 2 5.077139e-01
<MEAN> 26
 7.976261e+00 -5.886332e-01 -1.341748e+00 -4.001825e+00 -7.804708e+00 -8.004862e+00 -1.049374e+01 -1.204572e+00 7.472915e+00 -1.334925e+01 -7.280205e+00 -3.509376e+00 8.649880e-01 7.913954e-01 2.185632e+00 1.716067e+00 2.024730e+00 -1.454538e+00 -5.278317e-02 7.139054e-03 -2.179855e+00 -3.556768e-01 6.208768e-01 3.907917e-01 2.692498e-01 -3.408134e-02
<VARIANCE> 26
 2.601543e+01 3.861472e+01 1.858964e+01 3.227709e+01 1.920810e+01 2.598389e+01 2.541333e+01 7.370049e+01 2.341228e+01 3.897644e+01 1.443841e+01 1.376780e+01 5.729832e-03 2.128316e-01 1.277325e+00 6.125324e-01 2.350716e+00 7.145280e-01 3.123028e+00 2.267321e+00 5.634187e+00 2.246601e+00 3.481707e+00 6.613611e-01 1.755173e+00 2.421354e-04
<GCONST> 7.808079e+01
<MIXTURE> 3 1.807662e-01
<MEAN> 26
 8.116618e+00 2.003433e+00 1.511478e+00 2.450996e-01 -8.334010e+00 -1.529958e+01 -1.082647e+01 -3.531355e+00 -6.752389e+00 -1.289848e+01 -1.000244e+01 -2.411729e+00 9.734824e-01 2.085568e-01 -2.568700e+00 -1.865136e+00 -1.256681e+00 2.786923e+00 9.083596e-01 -1.303988e+00 1.543039e+00 3.966439e-01 -4.034068e-01 8.125130e-01 -8.267298e-01 -1.055418e-03
<VARIANCE> 26
 9.438155e-01 1.745095e+01 1.287974e+01 5.316583e+00 1.903629e+01 7.297001e+00 4.454417e+00 1.146213e+01 5.077236e+00 1.152792e+01 6.848247e+00 1.126286e+01 6.113980e-04 1.628249e-01 2.450471e+00 1.998227e+00 1.653838e+00 3.408631e+00 1.888113e+00 4.622372e-01 1.280794e+00 6.104817e-01 1.600427e+00 3.466566e+00 1.419216e+00 2.859478e-04
<GCONST> 5.971947e+01
<STATE> 5
<NUMMIXES> 3
<MIXTURE> 1 4.635321e-01
<MEAN> 26
 2.853436e+00 2.125571e+00 1.061699e+01 -1.633638e-01 -1.525348e+00 -8.308082e+00 -6.337631e+00 -1.336094e+01 1.037436e+01 -3.960295e+00 -5.585871e+00 2.442256e-01 8.427985e-01 -7.534046e-02 -2.141660e-01 -1.244258e+00 -6.209098e-01 5.095236e-01 3.762645e-01 -3.776032e-01 1.476828e+00 -4.803764e-01 2.294889e-01 1.425105e-01 -4.746428e-01 -1.993140e-03
<VARIANCE> 26
 4.898157e+00 8.707373e+00 2.394235e+01 1.211920e+01 2.645337e+01 1.513508e+01 1.140037e+01 5.214196e+01 4.467778e+01 7.426884e+01 1.516899e+01 1.807327e+01 3.424258e-03 1.069099e-01 1.154541e+00 5.883212e+00 2.662431e+00 2.764272e+00 1.193660e+00 2.116110e+00 4.620049e+00 1.372506e+00 4.180662e+00 1.293390e+00 1.341819e+00 2.173171e-04
<GCONST> 7.562958e+01
<MIXTURE> 2 4.158603e-01
<MEAN> 26
 4.576553e+00 -3.445469e+00 -3.967530e+00 -7.639382e+00 3.442761e+00 -6.345957e+00 -8.096951e+00 3.772659e+00 3.961372e+00 -7.602787e+00 -6.212787e+00 -6.117085e+00 8.935603e-01 -2.762652e-01 -2.663756e+00 -2.662701e+00 -2.399859e+00 3.139300e+00 1.085487e+00 7.597666e-01 2.343024e+00 -7.624649e-01 -8.443818e-01 2.603357e-01 -1.731175e+00 2.214802e-02
<VARIANCE> 26
 1.355193e+01 2.080257e+01 1.795707e+01 7.939013e+00 3.322201e+01 9.748125e+00 3.478513e+01 6.316894e+01 2.751900e+01 2.798230e+01 1.539504e+01 1.837723e+01 4.308971e-03 2.991021e-01 8.135285e-01 2.307623e+00 6.699954e-01 7.654305e-01 1.226485e+00 2.004910e+00 6.049063e+00 2.332711e+00 4.020127e+00 1.193718e+00 2.237222e+00 2.584007e-04
<GCONST> 7.512040e+01
<MIXTURE> 3 1.206077e-01
<MEAN> 26
 1.462861e+01 6.059858e-01 3.234731e+00 -2.924661e+00 -1.090619e+01 -9.844632e+00 -1.160373e+01 -1.024972e+01 2.546945e+00 -1.384555e+00 -8.205840e+00 -6.310006e+00 8.056289e-01 -5.437508e-01 -2.504755e+00 -1.632238e+00 -2.934190e+00 1.829534e+00 3.941447e-01 2.120581e-01 3.696423e+00 2.342580e+00 -8.850166e-01 -6.938739e-01 2.443975e-01 2.665267e-02
<VARIANCE> 26
 1.993343e+00 1.738768e+01 6.785643e+00 3.473474e+01 1.281969e+01 7.178060e+00 2.426142e+00 2.961716e+01 2.367343e+01 6.050833e+00 8.345024e+00 8.156348e+00 1.497041e-03 2.291647e-01 1.528146e+00 9.373804e-01 2.010533e+00 5.256591e-01 2.045970e+00 1.283757e+00 1.250611e+00 1.928418e+00 2.734056e+00 7.938657e-01 8.132527e-01 2.148240e-04
<GCONST> 6.118026e+01
<STATE> 6
<NUMMIXES> 3
<MIXTURE> 1 2.888472e-01
<MEAN> 26
 5.482935e+00 -4.005068e+00 -3.142279e+00 -8.973194e+00 1.251094e+01 -3.216795e+00 4.226962e-01 4.946760e-01 1.111170e+00 -6.060247e+00 -7.813818e+00 -6.447993e+00 9.541442e-01 4.344945e-01 1.761071e-02 -5.774463e-01 7.141936e-02 8.286957e-02 8.988951e-01 2.559990e-01 -6.117669e-01 -2.714608e-01 2.668614e-01 6.596370e-01 -7.476758e-01 -1.015202e-02
<VARIANCE> 26
 3.847867e+00 6.459168e+00 3.850589e+00 1.944565e+00 5.512093e+00 1.229717e+01 3.440728e+00 1.318974e+01 6.055908e+00 6.665501e+00 6.025501e+00 1.190308e+01 1.248929e-03 1.084674e-01 1.163866e+00 3.248194e-01 2.768791e-01 1.120514e+00 5.171124e-01 1.834998e-01 7.550852e-01 4.906298e-01 4.165592e-01 5.006239e-01 7.063313e-01 2.328201e-04
<GCONST> 4.433482e+01
<MIXTURE> 2 5.106378e-01
<MEAN> 26
 6.337618e+00 -9.806995e+00 -8.605266e+00 -1.071074e+01 1.073313e+01 -2.373384e+00 -9.056849e+00 -1.273136e+00 -2.599822e+00 -6.264729e+00 -5.358325e-01 -1.124137e+01 9.027403e-01 1.585567e-01 3.354534e-02 -5.200895e-02 -3.469231e-01 5.424249e-01 1.127825e+00 3.428134e-01 -1.007645e+00 -1.018583e-01 9.292180e-01 2.132081e-01 7.349108e-02 -1.609143e-02
<VARIANCE> 26
 3.305714e+00 3.939045e+00 5.527492e+00 2.092277e+01 6.478780e+00 1.264659e+01 1.304978e+01 1.501846e+01 4.478244e+01 1.216974e+01 8.918781e+00 8.041253e+00 3.317947e-03 4.140629e-01 8.993127e-01 4.522602e-01 1.238720e+00 1.068989e+00 7.789768e-01 7.610256e-01 2.131042e+00 1.611711e+00 8.792334e-01 6.135427e-01 7.991920e-01 1.707269e-04
<GCONST> 5.934472e+01
<MIXTURE> 3 2.005150e-01
<MEAN> 26
 8.532087e+00 -1.108177e+01 -4.768050e+00 -1.196669e+01 3.432508e+00 -2.016396e+00 -1.980261e+00 -6.569001e+00 8.620896e+00 -8.073034e+00 -8.222529e+00 -7.030726e+00 8.806025e-01 -1.125920e-01 -7.980326e-01 -4.212392e-01 -5.482014e-01 1.517155e+00 1.280129e+00 1.684721e+00 -2.495197e+00 2.376274e-01 -1.790218e-01 7.855527e-01 -4.717848e-01 -6.833264e-03
<VARIANCE> 26
 2.741978e+01 6.303058e+00 4.497275e+00 5.667261e+00 5.941421e+01 1.723933e+01 2.210279e+01 2.217110e+01 2.102459e+01 1.969737e+01 6.000252e+00 8.589829e+00 1.430786e-03 1.106378e-01 1.007809e+00 8.669737e-01 6.393875e-01 1.289178e+00 1.473814e+00 1.598327e+00 2.593442e+00 2.882102e+00 3.138435e+00 5.143552e-01 1.350075e+00 2.327573e-04
<GCONST> 6.547269e+01
<STATE> 7
<NUMMIXES> 3
<MIXTURE> 1 4.893104e-01
<MEAN> 26
 5.624263e+00 -2.808438e+00 -7.322038e+00 -7.653137e+00 8.670246e+00 3.695951e+00 -3.921110e+00 -1.799945e+00 -1.132486e+00 -4.626620e-01 -3.598256e+00 -8.924613e+00 6.854995e-01 -8.048927e-01 1.013445e+00 4.193542e-01 1.236875e+00 -8.168216e-01 6.798317e-01 9.203198e-01 1.169450e-01 -1.179390e-01 1.046450e+00 -5.779658e-01 3.931946e-01 -5.421964e-02
<VARIANCE> 26
 4.456248e+00 1.088244e+01 6.615978e+00 2.859866e+01 8.289536e+00 1.401851e+01 2.175400e+01 2.859665e+01 1.196468e+01 1.545678e+01 6.938741e+00 8.969108e+00 1.436747e-02 2.029962e-01 4.514415e-01 1.322176e+00 1.406374e+00 1.121267e+00 9.276817e-01 1.553578e+00 1.184007e+00 1.163037e+00 1.076542e+00 6.769825e-01 1.103500e+00 3.287221e-04
<GCONST> 6.399782e+01
<MIXTURE> 2 3.507062e-01
<MEAN> 26
 2.163984e-01 -8.559856e+00 -3.392020e+00 -1.251231e+01 1.243639e+01 5.495755e+00 -2.185468e-01 -8.926210e+00 5.374909e+00 -4.884102e+00 -5.777176e-02 -7.427675e+00 7.335248e-01 -4.803988e-02 3.827310e-01 -1.375704e-01 1.785362e-01 1.046994e-01 6.173245e-01 -4.160024e-02 3.094966e-01 -2.432169e-01 1.173729e-01 5.268479e-01 2.347368e-01 -2.546165e-02
<VARIANCE> 26
 1.350961e+00 3.393921e+00 6.512255e+00 1.022469e+01 5.573066e+00 8.716479e+00 5.085054e+00 8.857143e+00 6.406994e+00 9.883288e+00 8.491377e+00 6.154115e+00 1.024771e-02 1.013805e-01 3.964196e-01 3.997418e-01 7.444610e-01 5.127926e-01 6.799414e-01 7.039173e-01 6.585396e-01 6.377302e-01 1.132001e+00 5.922280e-01 3.057193e-01 2.086229e-04
<GCONST> 4.796206e+01
<MIXTURE> 3 1.599834e-01
<MEAN> 26
 1.239170e+01 -1.000488e+01 -6.055145e+00 -1.319844e+01 3.487962e+00 1.431083e+00 4.847575e+00 -1.471762e+01 6.266573e+00 -2.593867e+00 -7.172684e+00 -5.084871e+00 7.595967e-01 -1.421912e-01 5.451459e-01 -7.182020e-01 3.141721e-01 4.976615e-01 7.448043e-01 5.180635e-01 3.273944e-01 -1.356586e+00 1.086307e+00 2.376871e-01 2.725815e-01 -3.887083e-02
<VARIANCE> 26
 8.683023e-01 6.781712e+00 1.267177e+01 1.981489e+01 4.744793e+01 6.106031e+01 2.988387e+01 6.847071e+00 5.159554e+01 1.047637e+01 4.621671e+00 9.303190e+00 5.270438e-03 3.183135e-01 5.564461e-01 8.774635e-01 6.895091e-01 7.524869e-01 6.463089e-01 1.919253e+00 1.788065e+00 7.929138e-01 1.863618e+00 2.895645e-01 6.329544e-01 2.563926e-04
<GCONST> 6.188805e+01
<STATE> 8
<NUMMIXES> 3
<MIXTURE> 1 7.006634e-01
<MEAN> 26
 4.643621e-01 6.997873e-01 -2.447924e+00 -8.753396e-01 2.112451e+00 4.355896e+00 2.098868e+00 1.107767e+00 -1.642564e+00 3.255021e+00 -2.335903e+00 -4.062928e+00 3.965397e-01 -8.079520e-01 2.078615e-01 8.079459e-01 1.044964e+00 -1.065173e+00 -3.684604e-01 3.112904e-01 2.850827e-01 1.485078e-02 2.898746e-01 1.125913e+00 1.451659e+00 -2.806876e-02
<VARIANCE> 26
 6.982605e+00 5.442842e+00 1.163472e+01 1.005816e+01 1.444499e+01 1.502702e+01 9.547924e+00 2.429316e+01 1.347320e+01 1.457410e+01 1.313602e+01 1.858751e+01 2.125310e-02 5.054604e-01 3.252987e-01 7.358900e-01 9.917523e-01 2.284894e+00 1.768166e+00 1.544118e+00 1.960547e+00 1.573471e+00 1.837708e+00 9.848303e-01 7.526612e-01 4.842370e-04
<GCONST> 6.745130e+01
<MIXTURE> 2 1.568536e-01
<MEAN> 26
 2.667034e-02 -3.093015e+00 -4.946189e+00 -5.391861e+00 9.950335e+00 6.087953e+00 -2.337835e+00 -2.893487e+00 2.999959e+00 -1.124438e+00 1.197508e+00 -3.894917e+00 3.804189e-01 -5.857894e-01 1.913957e+00 1.070666e+00 2.322475e+00 -2.165633e+00 -4.334873e-01 -5.124708e-01 1.483307e+00 -8.283890e-01 1.450400e+00 1.218659e+00 1.010042e+00 -8.993264e-02
<VARIANCE> 26
 1.196899e+00 1.123829e+01 1.453825e+01 1.689920e+01 1.379578e+01 6.309334e+00 8.295568e+00 6.751150e+00 7.219012e+00 1.277566e+01 1.164441e+01 3.184130e+00 2.375377e-02 4.676145e-01 3.172907e-01 6.158687e-01 1.043107e+00 1.130121e+00 7.289938e-01 1.049097e+00 6.430542e-01 3.362411e-01 6.638944e-01 6.791284e-01 1.214955e+00 3.125494e-04
<GCONST> 5.607652e+01
<MIXTURE> 3 1.424830e-01
<MEAN> 26
 6.832268e+00 -6.818595e+00 -9.520840e+00 -1.060162e+01 6.759948e+00 5.289950e+00 4.119336e+00 -7.400500e+00 2.255829e+00 1.180586e+00 -4.304419e+00 -6.069221e+00 4.660393e-01 -2.592741e+00 8.272997e-01 -3.951971e-01 2.077574e+00 -9.249980e-03 4.605755e-01 1.016268e-01 2.880772e+00 1.861467e-01 1.490783e+00 9.035482e-01 -6.042886e-01 -1.121769e-01
<VARIANCE> 26
 1.933433e+01 6.852047e+00 1.505810e+01 4.709880e+01 2.178696e+01 5.042102e+01 1.060445e+01 1.946555e+01 3.828006e+01 2.415949e+01 3.760714e+00 1.289891e+00 3.229212e-02 3.570594e-01 4.179984e-01 6.322972e-01 1.582896e+00 2.047662e+00 5.430236e+00 1.531892e+00 4.523822e-01 1.063077e+00 1.592796e+00 2.809743e-01 2.528645e-01 1.294898e-03
<GCONST> 6.791651e+01
<TRANSP> 9
 0.000000e+00 1.000000e+00 0.000000e+00 0.000000e+00 0.000000e+00 0.000000e+00 0.000000e+00 0.000000e+00 0.000000e+00
 0.000000e+00 8.448625e-01 1.551375e-01 0.000000e+00 0.000000e+00 0.000000e+00 0.000000e+00 0.000000e+00 0.000000e+00
 0.000000e+00 0.000000e+00 8.474232e-01 1.525768e-01 0.000000e+00 0.000000e+00 0.000000e+00 0.000000e+00 0.000000e+00
 0.000000e+00 0.000000e+00 0.000000e+00 7.740134e-01 2.259866e-01 0.000000e+00 0.000000e+00 0.000000e+00 0.000000e+00
 0.000000e+00 0.000000e+00 0.000000e+00 0.000000e+00 7.990678e-01 2.009322e-01 0.000000e+00 0.000000e+00 0.000000e+00
 0.000000e+00 0.000000e+00 0.000000e+00 0.000000e+00 0.000000e+00 8.394937e-01 1.605063e-01 0.000000e+00 0.000000e+00
 0.000000e+00 0.000000e+00 0.000000e+00 0.000000e+00 0.000000e+00 0.000000e+00 8.504869e-01 1.495130e-01 0.000000e+00
 0.000000e+00 0.000000e+00 0.000000e+00 0.000000e+00 0.000000e+00 0.000000e+00 0.000000e+00 7.862999e-01 2.137001e-01
 0.000000e+00 0.000000e+00 0.000000e+00 0.000000e+00 0.000000e+00 0.000000e+00 0.000000e+00 0.000000e+00 0.000000e+00
<ENDHMM>
