~o
<STREAMINFO> 1 26
<VECSIZE> 26<NULLD><MFCC_E_D_Z><DIAGC>
~h "yon"
<BEGINHMM>
<NUMSTATES> 8
<STATE> 2
<NUMMIXES> 3
<MIXTURE> 1 1.936882e-01
<MEAN> 26
 -7.909400e-01 4.620356e+00 1.818836e+01 -3.051235e+00 -7.428070e+00 -3.556406e-01 -4.469739e+00 -4.400360e+00 -1.171345e-01 -2.147161e+00 3.037676e+00 2.846566e+00 7.696432e-01 1.247077e+00 -9.276933e-01 9.911922e-01 -1.335729e-01 -3.394482e+00 -1.648961e+00 7.822760e-01 9.226464e-01 -1.232922e+00 6.242139e-01 -7.742437e-01 -1.087674e-01 7.734641e-02
<VARIANCE> 26
 4.363382e+00 1.821286e+01 2.872948e+01 5.675455e+01 6.290333e+01 3.108628e+01 2.826184e+01 1.713623e+01 4.405439e+01 3.287510e+01 2.597258e+01 1.277560e+01 1.544980e-02 2.687681e-01 4.802634e+00 7.501335e+00 2.745643e+00 4.601549e+00 1.760201e+00 9.123623e-01 1.713766e+00 2.177130e+00 6.929592e-01 8.011939e-01 1.347538e+00 1.408372e-03
<GCONST> 8.197216e+01
<MIXTURE> 2 3.522678e-01
<MEAN> 26
 2.375411e+00 5.344693e+00 1.959169e+01 -2.118605e+00 -1.584005e+01 -2.121456e+00 -1.193122e+01 -7.607425e+00 -6.597582e+00 -1.107563e+01 5.102617e+00 -4.750794e+00 7.365694e-01 1.141878e+00 -8.964679e-01 1.293937e+00 -1.266979e+00 -3.906578e+00 -2.201048e+00 -1.805125e+00 -1.050213e+00 -9.637207e-01 -6.693107e-01 1.451771e+00 -3.300181e-01 1.012259e-01
<VARIANCE> 26
 1.257685e+01 1.111451e+01 5.763533e+01 4.121163e+01 6.627861e+01 1.524415e+01 9.551767e+00 2.513023e+01 3.984220e+01 1.927932e+01 3.059482e+01 8.444180e+00 1.351347e-02 7.231103e-01 2.299165e+00 1.383273e+01 2.678271e+00 5.703483e+00 1.572465e+00 5.464309e+00 3.303194e+00 2.430918e+00 5.076660e+00 2.123442e+00 1.598451e+00 1.721721e-03
<GCONST> 8.736879e+01
<MIXTURE> 3 4.540439e-01
<MEAN> 26
 5.465348e+00 -3.738205e+00 8.340448e+00 -3.096976e+00 -1.365120e+01 -1.043842e+01 -8.316493e+00 -1.082848e+00 -1.167539e+00 -4.992700e+00 2.800936e+00 -2.797035e+00 9.242197e-01 1.113584e+00 -2.143961e+00 -4.740980e+00 -6.420704e-01 3.271847e+00 -9.635757e-01 -1.006626e+00 1.051105e+00 3.218680e+00 6.098899e-01 -1.528371e+00 -1.579070e+00 2.580529e-02
<VARIANCE> 26
 1.508992e+01 1.447948e+01 4.073761e+01 1.802819e+01 5.431722e+01 1.249577e+01 3.720425e+01 3.586321e+01 5.044868e+01 3.115132e+01 2.624777e+01 2.039810e+01 1.250447e-03 1.900752e-01 9.715644e-01 1.223263e+00 2.150483e+00 2.810809e+00 3.659362e+00 1.942870e+00 2.972176e+00 2.848941e+00 3.237223e+00 1.719515e+00 1.589551e+00 1.638124e-04
<GCONST> 7.831824e+01
<STATE> 3
<NUMMIXES> 3
<MIXTURE> 1 4.153322e-01
<MEAN> 26
 5.710080e+00 -4.768552e+00 -4.125770e+00 -8.269259e+00 3.187975e+00 -2.371924e+00 -3.290254e+00 -4.827353e+00 7.601241e+00 6.703311e-01 1.038339e+00 -8.252438e+00 9.859101e-01 3.882241e-01 7.207434e-01 -2.176569e+00 -1.730419e+00 1.499008e+00 2.613017e+00 1.192469e+00 -2.080949e+00 -1.361567e+00 2.004675e-01 1.087320e+00 -2.537529e-01 4.545521e-03
<VARIANCE> 26
 1.005919e+01 1.543958e+01 1.869212e+01 1.121217e+01 1.498984e+01 2.694049e+01 1.626668e+01 3.802791e+01 2.465201e+01 2.961108e+01 5.787263e+01 7.772683e+00 9.538720e-05 8.804114e-02 2.480225e-01 2.160922e+00 7.014945e-01 2.270772e+00 1.388325e+00 1.400117e+00 2.715829e+00 2.455148e+00 1.495736e+00 8.006853e-01 3.249777e+00 2.219394e-05
<GCONST> 6.466515e+01
<MIXTURE> 2 1.779855e-01
<MEAN> 26
 8.074093e+00 -4.894064e+00 -9.201154e+00 -9.330850e+00 3.854065e+00 -7.118950e+00 -1.264102e+01 -1.143974e+01 -1.273665e+00 -1.918154e+00 -3.213011e+00 -9.651459e+00 9.555452e-01 7.540832e-01 1.692137e-02 -1.919432e+00 -8.160808e-01 1.162715e+00 9.386661e-01 1.917177e+00 -1.340286e+00 -3.294481e+00 1.302124e+00 9.724494e-01 -9.778544e-01 1.476996e-02
<VARIANCE> 26
 5.795574e-01 3.366473e+00 3.363134e+00 4.798788e+00 1.848295e+00 4.712101e+00 5.752183e+00 1.461967e+01 1.333088e+01 5.691427e+00 8.593935e+00 6.616504e+00 1.031984e-03 2.662027e-02 2.155731e-02 9.322660e-01 3.191171e-01 1.596262e+00 1.377594e+00 7.312704e-01 1.306416e+00 1.205643e+00 6.335312e-01 6.969174e-01 1.454000e+00 3.276671e-05
<GCONST> 4.080871e+01
<MIXTURE> 3 4.066823e-01
<MEAN> 26
 8.814960e+00 -6.295987e+00 -6.383036e+00 -1.066202e+01 -7.854949e+00 -3.830106e+00 -1.833679e+01 -4.580537e+00 6.937205e+00 -2.475765e+00 -7.325557e-02 -1.190453e+01 9.614878e-01 5.413209e-01 -1.621066e-01 -3.194395e+00 -3.711109e+00 2.831041e+00 3.980492e+00 -1.409979e-01 -2.249200e+00 1.537037e+00 3.245265e-01 -7.900908e-01 -2.570227e-01 7.640313e-03
<VARIANCE> 26
 3.225451e+01 2.288970e+01 1.353387e+01 2.442464e+01 1.512252e+01 3.005065e+01 2.664295e+01 3.132640e+01 1.367844e+01 1.976393e+01 6.829171e+00 1.040023e+01 6.903929e-04 1.921004e-01 5.051357e-01 1.816048e+00 7.526860e-01 2.172131e+00 1.082704e+00 3.634789e+00 1.558444e+00 4.150044e+00 4.514882e+00 1.615181e+00 5.043441e+00 1.271571e-04
<GCONST> 7.224770e+01
<STATE> 4
<NUMMIXES> 3
<MIXTURE> 1 5.060010e-01
<MEAN> 26
 7.876209e+00 -2.105330e+00 -7.595979e+00 -1.240519e+01 2.287546e+00 -1.402546e+00 6.708999e-01 -4.983665e+00 -7.758801e+00 -3.398183e+00 -4.299459e-01 -6.777182e+00 9.797034e-01 1.252383e-01 3.575214e-01 3.647127e-01 6.421236e-02 -7.958298e-01 1.471191e-01 7.886106e-01 1.035768e+00 -1.107550e+00 -4.507259e-01 -1.181811e+00 2.610216e-01 -6.700906e-03
<VARIANCE> 26
 8.736818e+00 6.274405e+00 9.263949e+00 1.521698e+01 1.497160e+01 4.366978e+01 3.177802e+01 2.512200e+01 1.442882e+01 2.220371e+01 3.284230e+01 4.748286e+00 3.678739e-04 6.024244e-02 2.458764e-01 1.670265e-01 5.288981e-01 6.642521e-01 7.217457e-01 7.689129e-01 4.332289e-01 1.349054e+00 1.139792e+00 1.043847e+00 2.303991e-01 1.074545e-04
<GCONST> 5.420739e+01
<MIXTURE> 2 2.185284e-01
<MEAN> 26
 9.282712e+00 -7.017096e+00 -3.797596e+00 -1.733267e+01 -3.787321e+00 5.879512e+00 -5.637729e+00 -1.187540e+01 7.459435e+00 -6.606313e+00 4.582558e-01 -4.933171e+00 9.773747e-01 -1.035195e-01 3.587328e-01 1.054451e-01 -9.281676e-01 6.254772e-02 8.472610e-01 2.667156e-01 5.229590e-01 -7.749454e-01 -1.313155e+00 3.417774e-01 1.335784e+00 -5.098850e-03
<VARIANCE> 26
 3.881825e+01 1.623147e+01 2.690095e+01 1.572917e+01 3.722398e+00 1.781207e+01 4.931923e+01 1.551681e+01 1.477767e+00 7.516479e+00 1.202988e+01 1.009370e+01 2.199892e-04 5.792176e-02 3.066691e-01 4.279108e-01 7.584787e-01 1.128174e+00 2.900464e+00 4.769883e-01 1.074567e+00 7.982079e-01 2.912970e+00 2.581748e+00 1.942979e+00 2.677180e-05
<GCONST> 5.718732e+01
<MIXTURE> 3 2.754706e-01
<MEAN> 26
 8.716842e+00 -2.920069e+00 -9.149743e+00 -2.220878e+01 -5.676107e+00 7.568760e+00 -8.610292e+00 -5.875546e+00 2.844510e+00 -1.626019e+01 2.482239e+00 -2.523926e+00 9.663590e-01 6.236486e-01 3.403304e-01 6.944385e-01 -4.699823e-01 -8.593364e-01 1.168964e-01 2.060612e+00 1.305375e+00 -5.795591e-01 -1.178270e+00 -4.034363e-01 -2.709593e-02 -1.071243e-02
<VARIANCE> 26
 2.270387e+01 1.919148e+01 6.748864e+00 1.012623e+01 6.467239e+00 6.415400e+00 2.976344e+01 3.788146e+01 9.273497e+00 2.474750e+01 2.232371e+01 1.071749e+01 8.166366e-04 1.791102e-01 3.075885e-01 1.194317e+00 3.919734e+00 5.965325e-01 1.480942e+00 5.033535e+00 2.553851e+00 1.974074e+00 6.836879e+00 2.455369e+00 4.414775e+00 3.473387e-04
<GCONST> 7.073767e+01
<STATE> 5
<NUMMIXES> 3
<MIXTURE> 1 2.488217e-01
<MEAN> 26
 9.035297e+00 1.833746e+00 -3.267648e+00 -7.977223e+00 -1.239194e+00 7.695158e+00 5.693506e+00 4.232557e+00 -8.759336e+00 -7.975882e-01 -1.538774e+01 -6.884295e+00 8.912778e-01 -4.434428e-01 7.767293e-01 1.497081e+00 1.514763e+00 4.139090e-01 -9.627146e-01 -2.196891e-01 2.552096e-01 7.843765e-02 -3.708934e-01 -1.644454e+00 -7.856590e-01 -2.317149e-02
<VARIANCE> 26
 2.625800e+00 3.922552e+00 1.229873e+01 7.662398e+00 3.520569e+00 1.226884e+01 7.736674e+00 4.192511e+00 2.795291e+00 2.194712e+00 2.441306e+01 5.533204e+00 1.986661e-03 2.323251e-01 4.292981e-01 5.608165e-01 4.535734e-01 1.293853e+00 1.888713e+00 1.629752e+00 6.323038e-01 3.372878e-01 3.442861e-01 3.218194e+00 3.680602e-01 2.447625e-05
<GCONST> 4.705407e+01
<MIXTURE> 2 3.610359e-01
<MEAN> 26
 5.988563e+00 -8.906836e-01 -3.119896e+00 -7.506474e+00 -7.369729e-01 -4.573390e+00 -2.487592e+00 -5.064750e+00 -4.919307e+00 -3.864260e+00 -5.392196e+00 -3.971788e+00 8.586711e-01 -4.368003e-01 8.143042e-01 1.031375e+00 1.467227e+00 4.201448e-02 2.104115e-01 -6.271988e-01 -9.659857e-01 7.164229e-02 -8.752663e-02 1.201436e-01 1.123786e+00 -2.089806e-02
<VARIANCE> 26
 5.084467e+00 5.007411e+00 1.546857e+01 2.315619e+01 8.813682e+00 1.319426e+01 2.024035e+01 1.877559e+01 6.994986e+01 2.374666e+01 6.339854e+00 8.167787e+00 2.686595e-03 5.825748e-02 4.348692e-01 6.077590e-01 5.224488e-01 5.483695e-01 4.768073e-01 1.123618e+00 1.927643e+00 1.586823e+00 1.917583e+00 8.209886e-01 8.106587e-01 2.611510e-04
<GCONST> 6.010593e+01
<MIXTURE> 3 3.901424e-01
<MEAN> 26
 1.267979e+01 -2.349262e+00 -4.310319e+00 -1.396175e+01 -9.210298e+00 3.509132e+00 -7.396533e+00 -3.683675e+00 -8.868773e-01 -7.618741e+00 9.093210e-01 -7.469000e+00 8.364322e-01 2.381442e-02 8.312566e-01 1.209113e+00 2.773828e+00 1.377461e-01 -1.197720e+00 -4.063645e-02 -7.517329e-01 -1.122512e+00 2.441667e+00 -6.760913e-01 -4.741580e-01 -3.071908e-02
<VARIANCE> 26
 1.760335e+01 1.231235e+01 1.409403e+01 2.647094e+01 9.003670e+00 7.640982e+00 6.755615e+00 4.954708e+01 2.319116e+01 1.350770e+01 2.380300e+01 5.817073e+00 2.772613e-03 1.670931e-01 5.457940e-01 9.448082e-01 7.188984e-01 1.541385e+00 5.823306e-01 1.249692e+00 2.434203e+00 7.234550e-01 1.237871e+00 8.278648e-01 1.132591e+00 1.862802e-04
<GCONST> 6.337942e+01
<STATE> 6
<NUMMIXES> 3
<MIXTURE> 1 3.622775e-01
<MEAN> 26
 6.183743e+00 3.660212e+00 3.350080e+00 -3.639135e+00 5.811828e-01 -1.036500e+00 -3.226160e+00 6.103902e-01 -4.847529e+00 -1.826432e-01 -1.298431e+01 -6.539711e+00 7.261637e-01 -7.420262e-01 -1.753846e-01 1.164150e+00 6.702296e-01 6.461619e-01 -9.824111e-01 6.273745e-01 -4.664190e-01 1.229556e-01 1.445011e+00 -1.428253e-01 1.012168e+00 -4.102944e-02
<VARIANCE> 26
 4.606652e+00 4.989318e+00 9.079677e+00 2.347152e+01 1.838523e+01 1.390357e+01 2.066630e+01 9.144010e+00 1.033494e+01 1.131278e+01 1.247689e+01 1.065894e+01 3.670736e-03 4.146466e-01 5.621712e-01 8.035301e-01 4.921965e-01 9.604410e-01 8.612475e-01 2.388964e+00 5.483119e-01 1.645828e+00 1.372278e+00 1.635004e+00 7.144479e-01 1.056835e-04
<GCONST> 6.062249e+01
<MIXTURE> 2 3.876787e-01
<MEAN> 26
 3.091567e+00 3.802469e+00 3.053725e+00 -1.832668e-01 7.656285e-01 -3.656441e+00 -4.097775e+00 -9.529625e+00 -5.788161e+00 -8.732779e+00 -5.875631e+00 2.352582e-01 7.784151e-01 -7.308568e-01 1.665751e-01 7.808722e-01 8.193887e-01 6.091579e-01 3.730195e-01 1.683974e-01 4.145165e-01 2.794501e-01 1.793099e-02 -1.154126e-01 -1.603556e-01 -2.468728e-02
<VARIANCE> 26
 5.795939e+00 3.288855e+00 6.127915e+00 1.715037e+01 1.100550e+01 1.093863e+01 7.714213e+00 1.747029e+01 4.518970e+01 1.818444e+01 9.095151e+00 1.196673e+01 4.785085e-03 1.815106e-01 4.353637e-01 1.599715e-01 8.279184e-01 6.950892e-01 1.199000e+00 1.221925e+00 1.821744e+00 1.993542e+00 2.513067e+00 1.675895e+00 1.696964e+00 2.045311e-04
<GCONST> 6.136087e+01
<MIXTURE> 3 2.500437e-01
<MEAN> 26
 1.467036e+01 -1.259450e+00 3.323698e+00 -1.905102e+00 -1.001925e+01 -1.805361e+00 -5.277246e+00 -1.665084e+01 -8.022604e+00 4.578075e+00 5.791559e-01 -9.870378e+00 6.507316e-01 -7.720805e-01 9.989503e-02 1.115684e+00 1.331784e+00 3.086306e-01 -6.405512e-01 1.985438e-01 -4.620250e-01 -6.557387e-01 1.627781e+00 -3.478822e-01 -4.699149e-01 -3.259568e-02
<VARIANCE> 26
 3.775016e+00 1.219620e+01 1.069555e+01 8.090541e+00 1.023862e+01 1.320363e+01 1.250413e+01 1.883615e+01 1.342898e+01 2.059133e+01 7.980332e+00 1.032697e+01 5.090524e-03 3.031142e-01 1.390455e+00 1.057433e+00 9.890565e-01 1.715439e+00 9.998588e-01 6.755279e-01 1.237421e+00 6.200301e-01 8.041743e-01 1.069753e+00 1.042225e+00 2.393407e-04
<GCONST> 6.181335e+01
<STATE> 7
<NUMMIXES> 3
<MIXTURE> 1 4.558966e-01
<MEAN> 26
 1.697018e+00 1.159649e+00 4.768059e+00 -4.625965e-01 2.593001e+00 -1.754553e+00 3.395762e+00 1.427848e+00 -6.148931e-01 3.560827e+00 -8.660041e+00 -7.305452e-01 4.650566e-01 -7.196091e-01 -3.822637e-01 -9.759375e-01 6.267137e-01 2.461394e-01 5.718338e-01 5.218363e-01 2.313872e-01 8.703099e-01 -6.556274e-01 1.552078e+00 8.316332e-01 -5.008786e-02
<VARIANCE> 26
 8.852569e+00 5.551277e+00 1.896374e+01 3.033540e+01 1.986617e+01 9.072105e+00 7.682218e+00 7.996980e+00 9.572207e+00 1.643636e+01 2.864267e+01 7.722481e+00 1.566807e-02 4.186436e-01 8.927928e-01 9.695069e-01 8.536464e-01 1.248439e+00 1.140337e+00 1.825327e+00 1.381336e+00 1.211184e+00 1.954918e+00 1.168924e+00 1.321761e+00 3.907008e-04
<GCONST> 6.720195e+01
<MIXTURE> 2 1.688348e-01
<MEAN> 26
 8.283204e+00 1.026443e+00 3.371784e+00 3.360789e+00 -4.692236e+00 -3.523413e+00 -2.323833e+00 -1.758136e+01 -9.554365e+00 9.970946e+00 5.912840e-01 -9.128591e+00 3.715580e-01 -1.980409e+00 1.162263e+00 -1.304447e+00 -2.756150e-01 1.352489e+00 2.216935e-01 1.061645e+00 2.399503e+00 1.122060e+00 -1.277758e+00 -5.347991e-01 1.835266e+00 -9.679197e-02
<VARIANCE> 26
 6.319085e+00 1.206633e+01 1.157594e+01 8.928165e+00 2.292086e+01 1.951784e+01 2.162595e+01 3.049379e+01 8.965453e+00 1.422841e+01 1.428491e+01 1.207501e+01 1.613386e-02 6.366757e-01 6.555536e-01 7.087051e-01 5.954517e-01 1.326452e+00 8.786700e-01 1.106650e+00 6.439338e+00 6.805930e-01 2.609337e+00 8.297725e-01 2.623209e+00 1.567647e-03
<GCONST> 7.049818e+01
<MIXTURE> 3 3.752686e-01
<MEAN> 26
 -5.403264e-01 2.273451e+00 3.871527e+00 2.703005e+00 3.359048e+00 -2.893933e+00 -1.213970e+00 -4.759425e+00 -1.216130e+00 -4.693079e-01 -3.336403e+00 4.180892e-01 5.203439e-01 -1.855448e-01 -2.926412e-01 -6.841230e-01 3.065161e-01 -7.786907e-01 2.311802e-01 2.097100e-01 1.092265e+00 7.466867e-01 5.936911e-01 1.067243e+00 2.845680e-01 -3.802551e-02
<VARIANCE> 26
 9.018231e-01 2.359775e+00 3.944031e+00 1.515285e+01 9.390218e+00 9.293880e+00 5.594458e+00 2.275300e+01 7.506276e+00 2.012490e+01 8.459610e+00 1.359186e+01 1.307024e-02 1.852527e-01 3.803415e-01 3.635103e-01 7.143561e-01 7.233365e-01 5.084369e-01 7.825799e-01 2.481052e+00 1.748651e+00 1.741996e+00 1.666884e+00 1.118972e+00 6.562285e-04
<GCONST> 5.744141e+01
<TRANSP> 8
 0.000000e+00 1.000000e+00 0.000000e+00 0.000000e+00 0.000000e+00 0.000000e+00 0.000000e+00 0.000000e+00
 0.000000e+00 8.502102e-01 1.497898e-01 0.000000e+00 0.000000e+00 0.000000e+00 0.000000e+00 0.000000e+00
 0.000000e+00 0.000000e+00 7.233586e-01 2.766414e-01 0.000000e+00 0.000000e+00 0.000000e+00 0.000000e+00
 0.000000e+00 0.000000e+00 0.000000e+00 8.389104e-01 1.610896e-01 0.000000e+00 0.000000e+00 0.000000e+00
 0.000000e+00 0.000000e+00 0.000000e+00 0.000000e+00 8.061177e-01 1.938823e-01 0.000000e+00 0.000000e+00
 0.000000e+00 0.000000e+00 0.000000e+00 0.000000e+00 0.000000e+00 8.244210e-01 1.755790e-01 0.000000e+00
 0.000000e+00 0.000000e+00 0.000000e+00 0.000000e+00 0.000000e+00 0.000000e+00 8.030257e-01 1.969743e-01
 0.000000e+00 0.000000e+00 0.000000e+00 0.000000e+00 0.000000e+00 0.000000e+00 0.000000e+00 0.000000e+00
<ENDHMM>
