~o
<STREAMINFO> 1 39
<VECSIZE> 39<NULLD><MFCC_D_A_0><DIAGC>
~h "go"
<BEGINHMM>
<NUMSTATES> 5
<STATE> 2
<NUMMIXES> 3
<MIXTURE> 1 3.444971e-01
<MEAN> 39
 -2.276058e+00 6.546143e-01 -1.437796e+01 -1.295746e+01 -1.199768e-01 2.903286e+00 -7.726244e-01 -5.687208e-01 -8.067439e+00 -2.178985e+00 9.047427e-01 2.868581e+00 6.761176e+01 1.547193e+00 1.348589e+00 5.941756e-01 -2.646218e+00 -2.318702e+00 5.158492e-01 -1.245677e+00 -1.114114e+00 -6.795908e-01 -2.006748e+00 8.509579e-01 -6.007906e-01 2.111298e+00 3.192080e-02 6.069646e-01 1.837976e+00 6.289153e-01 -4.760363e-01 -2.226353e-02 -3.991740e-01 -2.853447e-01 1.029416e+00 -2.720343e-01 3.030012e-01 -3.924206e-01 -5.159482e-01
<VARIANCE> 39
 8.368600e+00 2.349291e+01 2.598285e+01 2.370160e+01 1.659160e+01 2.068930e+01 1.847619e+01 2.997546e+01 1.306301e+01 7.011246e+01 1.840591e+01 2.486667e+01 1.594821e+01 5.928271e-01 2.655727e+00 8.599320e+00 5.476826e+00 2.407375e+00 1.942555e+00 1.466696e+00 2.970631e+00 4.999665e+00 2.425376e+00 3.271748e+00 2.401837e+00 2.550712e+00 1.366767e-01 5.527322e-01 7.992278e-01 6.820313e-01 4.014200e-01 2.629558e-01 2.816572e-01 8.610371e-01 4.542888e-01 5.983087e-01 4.950253e-01 4.263991e-01 2.115490e-01
<GCONST> 1.127994e+02
<MIXTURE> 2 3.002168e-01
<MEAN> 39
 -4.903005e+00 4.441270e+00 -3.011357e+00 -6.355764e+00 -2.570319e-02 -4.169053e+00 1.240708e+00 -4.450867e+00 -1.234573e+00 4.930460e-01 -8.563030e-01 1.058075e+00 5.479630e+01 9.980572e-02 -5.718945e-02 -6.277670e-01 -1.030796e+00 6.492227e-01 -2.640579e-01 2.529613e-01 -1.539679e-01 -5.045846e-01 2.295514e-01 -1.108335e-01 2.062416e-01 9.539044e-01 -1.384451e-02 -6.332000e-02 -4.838016e-02 -3.195301e-01 -1.907500e-01 1.266372e-01 -2.339619e-02 -3.834485e-02 -3.512065e-02 -1.440300e-01 7.971653e-02 2.961096e-02 6.783509e-02
<VARIANCE> 39
 1.396955e+01 2.231242e+01 1.781686e+01 3.911900e+01 3.606447e+01 2.849677e+01 1.860160e+01 1.879800e+01 1.850203e+01 1.241701e+01 2.236877e+01 1.248059e+01 4.422745e+01 7.298789e-01 1.001649e+00 2.943868e+00 5.107135e+00 4.778192e+00 2.982771e+00 1.379167e+00 1.638983e+00 1.957547e+00 1.770525e+00 1.540785e+00 1.727752e+00 1.294292e+00 1.527096e-01 1.870307e-01 6.824692e-01 5.286435e-01 1.124378e+00 5.650242e-01 3.304858e-01 2.253663e-01 5.938910e-01 2.992538e-01 4.742627e-01 2.262449e-01 4.052997e-02
<GCONST> 1.051744e+02
<MIXTURE> 3 3.552862e-01
<MEAN> 39
 2.109312e+00 6.425165e+00 -5.270925e+00 -1.828662e+01 -8.533450e+00 5.523978e+00 -5.542890e+00 -4.272110e+00 -2.559347e+00 -8.192467e+00 5.670551e+00 -7.405769e-01 7.124905e+01 5.929451e-01 3.731068e-01 1.387432e+00 -2.425689e+00 -1.350636e+00 4.692871e-01 -8.928233e-01 -4.047599e-01 2.286286e+00 -6.213850e-01 5.526230e-01 1.144928e-01 1.211347e+00 -3.532750e-01 -6.323999e-01 -6.981868e-01 1.241299e-01 8.149773e-01 -8.912908e-02 4.561541e-01 3.850966e-01 -7.625718e-02 5.042145e-01 -4.575047e-01 4.122634e-01 -2.523021e-01
<VARIANCE> 39
 1.134856e+01 1.458552e+01 8.891774e+00 2.603413e+01 2.966537e+01 4.756900e+01 4.270744e+01 3.002514e+01 2.260872e+01 7.160477e+01 2.143829e+01 2.992540e+01 1.392817e+01 5.735502e-01 1.386752e+00 2.900338e+00 2.475955e+00 2.670898e+00 2.105725e+00 2.719434e+00 3.490674e+00 1.226009e+00 1.539973e+00 2.339748e+00 2.086453e+00 3.221543e-01 5.016705e-02 1.736445e-01 3.395977e-01 4.655197e-01 2.493754e-01 4.507713e-01 1.371977e-01 2.717721e-01 5.667576e-01 2.791170e-01 5.281838e-01 4.946085e-01 1.299296e-01
<GCONST> 1.026457e+02
<STATE> 3
<NUMMIXES> 3
<MIXTURE> 1 4.633493e-01
<MEAN> 39
 -7.611316e-01 4.851613e+00 -5.173397e+00 -2.352902e+01 -3.558878e+00 -2.765533e-01 -1.897285e+00 -5.505075e+00 -5.254964e-01 -3.785594e+00 3.917062e+00 9.877825e-01 7.273067e+01 1.345754e-02 -1.548561e-01 -9.658701e-02 -4.478499e-01 -8.926981e-02 1.863202e-01 -2.774503e-02 1.089051e-01 1.266644e-01 1.810642e-02 -1.983131e-01 1.298527e-01 6.091954e-02 2.795095e-02 8.170397e-02 -7.992979e-02 1.424443e-01 -3.114660e-02 -2.745796e-02 5.521356e-02 4.980382e-02 -1.550046e-01 -1.959451e-02 -9.329496e-02 -1.319163e-02 -1.691642e-01
<VARIANCE> 39
 1.328266e+01 1.299440e+01 8.879235e+00 4.770201e+01 3.087189e+01 5.437720e+01 4.924652e+01 2.032318e+01 8.523638e+00 3.003696e+01 2.562096e+01 2.537720e+01 1.981747e+01 1.219505e-01 2.641075e-01 2.065441e-01 6.049410e-01 4.621575e-01 5.715148e-01 6.895960e-01 6.195939e-01 5.117907e-01 8.328642e-01 6.973519e-01 9.153308e-01 1.966322e-01 2.355376e-02 4.712591e-02 3.864794e-02 1.270018e-01 1.099059e-01 9.505726e-02 1.589225e-01 1.107475e-01 8.718152e-02 1.168991e-01 1.333282e-01 1.638193e-01 3.456854e-02
<GCONST> 6.909881e+01
<MIXTURE> 2 2.290668e-01
<MEAN> 39
 -7.514127e+00 2.742862e+00 -2.433391e+00 -1.633980e+00 -2.161565e+00 -5.881698e-01 2.399698e+00 -2.882111e+00 3.977973e-01 -1.207609e+00 -5.382191e-02 -1.061502e-01 4.746247e+01 -1.384302e-02 -2.941170e-02 -4.400366e-02 -6.306165e-03 9.365647e-03 -3.215308e-02 4.492395e-02 -1.872519e-01 1.355464e-02 -1.076475e-01 8.095068e-02 5.932960e-02 1.156970e-02 -1.364638e-02 3.145144e-03 3.151244e-02 -2.451069e-02 -2.962574e-02 -6.955672e-02 -1.274528e-02 -1.498352e-02 9.480784e-03 -6.142006e-02 -2.256534e-02 5.966085e-03 8.735870e-03
<VARIANCE> 39
 5.464112e-01 1.384495e+00 2.433809e+00 4.661437e+00 3.774417e+00 4.733633e+00 9.673197e+00 4.185484e+00 6.486334e+00 7.931976e+00 7.864861e+00 9.865640e+00 1.347280e-01 6.474003e-02 1.061159e-01 3.673827e-01 5.853303e-01 5.345063e-01 6.408703e-01 8.059663e-01 7.061563e-01 7.530561e-01 9.141692e-01 1.216041e+00 1.081720e+00 1.145515e-02 1.333257e-02 1.632725e-02 6.500109e-02 1.139001e-01 1.014532e-01 1.380576e-01 1.382240e-01 1.333772e-01 1.470911e-01 1.866764e-01 2.792536e-01 2.091253e-01 3.471177e-03
<GCONST> 4.027868e+01
<MIXTURE> 3 3.075839e-01
<MEAN> 39
 3.880243e+00 4.415875e+00 -5.212655e+00 -2.896315e+01 -1.427769e+01 7.255011e+00 -7.920841e+00 -2.547628e+00 4.314106e+00 -1.333082e+01 7.861704e-01 5.083522e+00 7.113850e+01 7.125369e-02 -3.243865e-01 -1.935825e-01 -2.313503e-01 -5.251161e-01 -7.164077e-01 3.089925e-01 1.872546e-01 3.105190e-01 5.483697e-01 -3.515813e-01 5.408068e-01 -6.119583e-01 -1.182613e-01 -3.475499e-03 3.117156e-03 4.015730e-01 2.391370e-02 -1.102694e-01 1.425617e-01 3.541202e-02 -2.207183e-02 2.680140e-01 9.630536e-02 -7.521023e-02 -3.003596e-01
<VARIANCE> 39
 1.360475e+01 1.762794e+01 6.499180e+00 9.701528e+00 1.554536e+01 1.478670e+01 7.021661e+01 7.919310e+01 1.759603e+01 4.753034e+01 2.889619e+01 1.835844e+01 1.128771e+01 1.421281e-01 6.588942e-01 7.188049e-01 2.127856e+00 1.213914e+00 1.038200e+00 1.106438e+00 1.134785e+00 1.336519e+00 2.127132e+00 7.808864e-01 1.120194e+00 1.042964e+00 3.608731e-02 1.276342e-01 1.902805e-01 2.845051e-01 2.521021e-01 1.750162e-01 2.390147e-01 2.626964e-01 3.093568e-01 2.261006e-01 9.021264e-02 2.476364e-01 3.217761e-02
<GCONST> 8.617399e+01
<STATE> 4
<NUMMIXES> 3
<MIXTURE> 1 3.590091e-01
<MEAN> 39
 9.092876e-01 6.510398e+00 -9.156737e+00 -1.820852e+01 -7.075739e+00 4.499549e+00 -1.245238e+00 -3.793986e-02 -4.642951e+00 -2.909580e+00 3.412644e-02 1.052467e+00 6.961088e+01 -6.838145e-01 1.450176e-02 1.951263e-01 1.282807e+00 4.602014e-01 -2.945606e-01 9.196258e-01 5.269939e-01 -8.866864e-02 -7.878489e-02 -2.079618e-01 -3.352464e-02 -1.163906e+00 -2.082779e-01 -2.006101e-01 1.943299e-01 4.285809e-01 1.791908e-01 -4.750279e-02 4.487776e-02 1.988480e-02 2.320791e-01 1.324193e-01 5.389802e-02 -8.351579e-02 -1.220384e-01
<VARIANCE> 39
 9.614346e+00 1.452100e+01 4.379912e+00 1.892307e+01 8.732319e+00 2.004192e+01 1.023687e+01 1.325662e+01 1.457540e+01 1.233920e+01 1.276891e+01 1.902792e+01 1.625005e+01 3.969891e-01 1.312614e+00 5.383033e-01 1.925317e+00 6.081747e-01 5.631087e-01 9.950570e-01 5.432693e-01 1.538693e+00 1.910823e+00 6.087043e-01 7.061036e-01 5.682905e-01 4.168053e-02 1.383194e-01 8.938804e-02 1.864559e-01 1.332355e-01 1.420146e-01 8.456757e-02 1.073111e-01 3.191149e-01 2.437237e-01 1.341216e-01 1.299597e-01 3.670903e-02
<GCONST> 7.412001e+01
<MIXTURE> 2 1.941297e-01
<MEAN> 39
 -8.683591e-02 4.507421e+00 -6.050703e+00 -3.185638e+01 -1.281537e+01 -3.176195e+00 1.018202e+00 -4.458920e+00 5.027699e+00 -5.504838e+00 -1.160056e+00 4.989552e+00 6.013015e+01 -1.152394e+00 -2.104625e-02 -2.744505e-01 2.340690e+00 -2.822264e-01 -5.060612e-01 3.233223e-01 2.015660e+00 -8.070070e-01 1.142515e+00 4.724180e-02 -1.655997e-01 -3.256276e+00 -2.862278e-01 -6.541145e-02 1.729028e-01 1.040147e+00 3.110465e-01 1.632439e-01 7.128953e-02 2.030505e-01 -1.870035e-01 5.350884e-02 2.160964e-01 -2.516261e-01 -1.387331e-01
<VARIANCE> 39
 1.423331e+01 6.640144e+00 1.175576e+01 2.570069e+01 8.658443e+01 4.175240e+01 2.759143e+01 2.660688e+01 3.980243e+01 9.154270e+00 2.815941e+01 1.347157e+01 4.657073e+01 1.363830e+00 2.141281e-01 7.538713e-01 6.646377e+00 3.709120e+00 1.635611e+00 2.444392e+00 1.777307e+00 1.389531e+00 1.147940e+00 1.133997e+00 1.208364e+00 7.264630e-01 9.251519e-02 4.616062e-02 1.876573e-01 3.557550e-01 3.757171e-01 3.523676e-01 3.208913e-01 3.410992e-01 2.161916e-01 2.340789e-01 1.257305e-01 1.676223e-01 3.795869e-01
<GCONST> 9.631175e+01
<MIXTURE> 3 4.468612e-01
<MEAN> 39
 -4.665924e+00 1.933882e+00 -4.019194e+00 -8.881823e+00 -6.614380e+00 5.071210e-01 -2.317863e-01 3.120624e+00 2.401804e+00 -1.658433e+00 2.199449e+00 2.508188e+00 5.786674e+01 -9.685844e-01 -5.863090e-01 5.537830e-01 2.908437e+00 1.333503e+00 8.618267e-02 4.125101e-01 7.797171e-02 4.110139e-01 6.477729e-01 5.481844e-02 -3.382328e-01 -1.106976e+00 1.438747e-01 7.621601e-02 -6.717891e-02 -4.276679e-01 6.805872e-02 1.073603e-01 -2.867962e-01 -2.591271e-01 -1.116335e-01 -8.229280e-02 1.291321e-01 2.105811e-01 3.373452e-01
<VARIANCE> 39
 8.681234e+00 9.288973e+00 7.320708e+00 4.313571e+01 3.826644e+01 2.260676e+01 3.395674e+01 1.345031e+01 3.692037e+01 1.504456e+01 2.605624e+01 2.037017e+01 3.991374e+01 3.355621e-01 2.402702e-01 7.864428e-01 1.930367e+00 1.097217e+00 1.899244e+00 1.675494e+00 1.126131e+00 1.809452e+00 2.037967e+00 1.483697e+00 1.366899e+00 5.294665e-01 3.191458e-02 5.101021e-02 8.101442e-02 1.829946e-01 2.868096e-01 2.243994e-01 2.284978e-01 1.000439e-01 3.633793e-01 5.922946e-01 3.446743e-01 2.022651e-01 5.528485e-02
<GCONST> 8.738667e+01
<TRANSP> 5
 0.000000e+00 1.000000e+00 0.000000e+00 0.000000e+00 0.000000e+00
 0.000000e+00 8.555450e-01 1.444550e-01 0.000000e+00 0.000000e+00
 0.000000e+00 0.000000e+00 9.195104e-01 8.048956e-02 0.000000e+00
 0.000000e+00 0.000000e+00 0.000000e+00 8.844378e-01 1.155622e-01
 0.000000e+00 0.000000e+00 0.000000e+00 0.000000e+00 0.000000e+00
<ENDHMM>
~o
<STREAMINFO> 1 39
<VECSIZE> 39<NULLD><MFCC_D_A_0><DIAGC>
~h "hachi"
<BEGINHMM>
<NUMSTATES> 9
<STATE> 2
<NUMMIXES> 3
<MIXTURE> 1 2.566350e-01
<MEAN> 39
 -1.139278e+01 -8.356916e+00 -2.698498e+00 -3.139578e+00 1.248077e+01 3.185745e+00 3.535619e+00 -6.702134e+00 4.294724e+00 -5.511937e+00 -4.388779e-01 -2.387248e+00 6.891744e+01 3.002962e+00 1.688857e+00 -8.122854e-01 -1.545759e+00 5.520490e-01 -8.080348e-01 1.344258e+00 -1.536557e+00 2.005335e-02 -1.076433e+00 -1.010284e+00 -1.056694e+00 1.992060e+00 4.087906e-01 -3.019212e-01 -5.034113e-01 -5.307937e-01 -1.730617e-01 -6.493807e-01 -1.604382e-01 -1.161334e-01 2.600290e-01 -1.428946e-02 -2.342926e-01 -3.882553e-02 3.003685e-01
<VARIANCE> 39
 3.954240e+01 2.223438e+01 1.694036e+01 1.247003e+01 3.069937e+01 3.117910e+01 6.269097e+01 4.184671e+01 4.847665e+01 4.587236e+01 2.281857e+01 8.829778e+00 1.654183e+01 1.588470e+00 1.052603e+00 3.129737e+00 2.294279e+00 7.368159e-01 3.116946e+00 3.797137e+00 3.489762e+00 1.298798e+00 1.167977e+00 1.899775e+00 8.843482e-01 4.369393e-01 6.126098e-01 6.612750e-01 1.967529e-01 2.247844e-01 1.838576e-01 3.848871e-01 4.905212e-01 5.820644e-01 4.602518e-01 2.689449e-01 2.304824e-01 1.978330e-01 1.476080e-01
<GCONST> 1.053583e+02
<MIXTURE> 2 6.515104e-01
<MEAN> 39
 -1.369586e+01 -1.012228e+01 -4.875076e+00 -2.152689e+00 1.047425e+01 3.260705e+00 -2.001065e+00 -1.081600e+00 4.193743e+00 -2.906699e+00 1.472525e+00 -1.990531e-01 6.244014e+01 -5.068911e-01 -6.704956e-01 -1.565086e-01 -3.899783e-01 4.471952e-01 -2.025232e-02 5.816374e-01 -7.042260e-01 -1.644141e-01 -7.301021e-01 -1.150560e-01 2.296546e-01 1.555386e+00 3.416816e-01 4.817367e-01 1.471033e-01 9.966665e-02 -2.007954e-01 1.312027e-02 2.380932e-01 -1.071397e-01 -1.087976e-01 -6.313901e-02 -1.549790e-01 -1.794187e-01 -4.064977e-02
<VARIANCE> 39
 1.826801e+01 1.468605e+01 1.350712e+01 4.608051e+01 1.998716e+01 2.872744e+01 1.871600e+01 2.738010e+01 3.907240e+01 4.596471e+01 1.662859e+01 1.832882e+01 1.987962e+01 8.912241e-01 1.223209e+00 1.244586e+00 1.772975e+00 1.717226e+00 1.497976e+00 1.903644e+00 1.572223e+00 1.337420e+00 1.884138e+00 1.427136e+00 1.633067e+00 8.453285e-01 2.686418e-01 2.265065e-01 2.061042e-01 2.764516e-01 2.301189e-01 2.846182e-01 3.024592e-01 3.671044e-01 2.680165e-01 2.767996e-01 2.954447e-01 4.318063e-01 5.995961e-02
<GCONST> 9.895631e+01
<MIXTURE> 3 9.185471e-02
<MEAN> 39
 -7.370961e+00 5.076088e-01 7.012652e+00 -1.600389e+01 9.375424e-01 -6.347867e-01 -7.722579e+00 -1.194755e+01 8.814905e+00 -1.092074e+01 4.200050e+00 7.986534e-02 6.692770e+01 1.847186e+00 -6.246653e-01 7.425654e-01 -2.949753e-02 -2.393777e+00 -1.237689e+00 -5.238080e-01 -1.647298e+00 2.297379e+00 -1.286940e+00 -2.793449e-01 -1.245263e+00 3.277191e+00 -8.043316e-02 -6.984178e-01 -1.316167e+00 4.585216e-01 2.226685e-01 1.688213e-01 4.701860e-01 8.542826e-01 3.475894e-01 4.694026e-01 -4.929201e-01 -1.815389e-01 -4.213360e-01
<VARIANCE> 39
 2.770809e+01 2.225742e+01 3.557504e+02 2.080911e+01 1.105122e+02 9.622236e+01 3.869275e+01 1.306678e+01 1.554718e+01 5.790803e+00 2.236923e+01 8.620423e+00 1.424787e+01 3.799100e+00 2.422581e+00 1.475439e+01 2.428156e+00 2.804365e+00 3.358770e-01 2.762303e+00 9.226830e+00 9.816517e-01 1.971147e+00 4.432037e+00 8.471349e-01 1.396885e+00 4.576564e-01 1.527937e-01 1.866236e+00 3.713823e-01 1.002359e+00 1.364151e-01 6.114132e-01 4.200897e-01 2.912211e-01 2.441492e-01 6.097485e-01 1.723589e-01 1.477672e-01
<GCONST> 1.130368e+02
<STATE> 3
<NUMMIXES> 3
<MIXTURE> 1 5.854259e-01
<MEAN> 39
 -2.873144e+00 -7.328975e+00 -8.688904e+00 -1.552128e+01 7.152476e+00 2.161793e-02 3.492280e+00 -1.332867e+01 1.105293e+01 -1.048186e+01 -2.850807e+00 -6.049129e+00 7.502560e+01 2.469521e-01 -3.491051e-01 5.112593e-02 -4.717124e-01 -1.048826e+00 -1.287573e+00 6.248247e-02 3.741051e-01 6.891342e-01 -1.512877e-01 -8.022980e-01 -1.932348e-01 7.284924e-01 -3.572256e-01 1.460358e-01 4.467370e-01 5.132452e-01 -2.268784e-01 -1.819436e-01 -3.772783e-01 5.523893e-01 -4.492088e-02 2.551561e-01 9.022063e-02 2.761499e-01 -5.039213e-01
<VARIANCE> 39
 1.491580e+01 3.390311e+01 4.157980e+01 3.836592e+01 4.676304e+01 4.274507e+01 8.224557e+01 1.940095e+01 4.727656e+01 2.525850e+01 1.132263e+01 9.870821e+00 7.952232e+00 1.200535e+00 1.561007e+00 1.891642e+00 2.334474e+00 1.501160e+00 3.659223e+00 3.346454e+00 2.162189e+00 2.268616e+00 1.277551e+00 1.302745e+00 7.899706e-01 1.583604e+00 3.327257e-01 3.871929e-01 2.868725e-01 1.855187e-01 4.025114e-01 3.570608e-01 4.895304e-01 5.497227e-01 4.215825e-01 2.171576e-01 2.059212e-01 1.802186e-01 1.946851e-01
<GCONST> 1.059205e+02
<MIXTURE> 2 2.682909e-01
<MEAN> 39
 -1.993705e+00 -5.379270e+00 -3.805206e+00 -1.017785e+01 7.894990e+00 -8.300292e+00 -7.112715e-02 3.088903e-01 5.833743e+00 -2.208580e+00 -7.277176e+00 -2.842383e-01 7.821331e+01 -6.829471e-02 4.355578e-01 -6.958838e-01 7.849534e-01 -2.075894e-01 -5.488819e-01 1.439336e-01 8.426846e-01 2.745764e-01 5.626940e-02 -2.741116e-01 2.100612e-01 -6.047473e-01 -3.721282e-01 3.212816e-01 2.010180e-01 5.115733e-01 -1.897301e-02 9.053717e-01 4.974863e-02 -3.725820e-01 -3.469442e-01 -6.320404e-02 5.612578e-01 -5.342281e-02 -8.286855e-01
<VARIANCE> 39
 1.769719e+01 2.540939e+01 4.037694e+01 8.587391e+00 4.463994e+01 2.696014e+01 1.092306e+02 1.560106e+01 4.219354e+01 2.732505e+01 3.251345e+01 2.172346e+01 8.669778e+00 7.994637e-01 1.588887e+00 5.431407e+00 4.545691e+00 3.791000e+00 4.575244e+00 3.525013e+00 3.242734e+00 2.520489e+00 4.020990e-01 2.206474e+00 1.673700e+00 3.211837e+00 5.272754e-02 2.279410e-01 2.981350e-01 8.441238e-01 3.595711e-01 4.336959e-01 6.050845e-01 5.412814e-01 4.957570e-01 7.518783e-02 2.547851e-01 2.873585e-01 2.224706e-01
<GCONST> 1.089777e+02
<MIXTURE> 3 1.462832e-01
<MEAN> 39
 -7.529259e+00 -6.199558e-01 1.898573e+00 5.025500e+00 -2.293568e-01 -7.313792e+00 2.196286e+00 -1.068912e+00 -3.263963e+00 -9.832517e+00 -5.383714e+00 -2.658834e+00 6.528397e+01 1.696226e-01 1.863239e+00 4.432322e-01 -4.413167e-01 -4.896529e-01 6.877194e-01 -7.132838e-01 -7.062464e-01 -1.590642e+00 -5.041818e-02 -1.466373e-01 -1.047276e+00 -1.084945e+00 -3.059217e-01 -9.263001e-02 -3.384363e-01 -1.108153e-01 5.313371e-01 8.052258e-01 1.496074e-01 1.393379e-01 3.145917e-01 6.248549e-01 3.738005e-01 3.530549e-01 -1.609030e-01
<VARIANCE> 39
 6.563096e+00 1.958315e+01 6.862515e+00 2.186378e+01 4.250428e+01 2.723661e+01 9.699971e+00 1.311862e+01 1.964949e+01 1.501846e+01 2.418819e+01 1.364462e+01 5.936736e+00 1.547403e+00 1.311130e+00 1.259866e+00 2.365799e+00 4.547598e+00 8.287262e+00 1.890267e+00 8.187496e-01 7.579063e-01 2.212298e+00 1.649688e+00 3.678215e+00 3.761079e+00 1.358270e-01 3.792633e-01 1.448666e-01 4.724375e-01 6.314701e-01 6.641442e-01 4.807180e-01 3.358112e-01 4.074679e-01 9.530314e-02 3.708371e-01 5.394229e-01 3.684725e-01
<GCONST> 1.020260e+02
<STATE> 4
<NUMMIXES> 3
<MIXTURE> 1 2.919648e-01
<MEAN> 39
 -4.508544e+00 -5.490322e+00 -3.511975e+00 -6.969356e+00 1.613745e+00 -1.043358e+01 -5.163248e-01 -8.512918e+00 1.261623e+01 -8.224307e+00 -5.202330e+00 -3.166146e+00 6.915048e+01 5.229470e-02 1.448307e+00 4.362005e-01 1.780006e+00 -5.279003e-01 4.709584e-01 -1.178847e+00 1.211815e+00 -9.099671e-01 1.725633e+00 2.959788e-01 1.081878e+00 -3.496217e+00 -2.536179e-02 -9.582902e-02 -4.295829e-01 -2.620812e-01 5.639377e-01 1.110486e+00 4.652804e-01 -5.112303e-02 -2.302737e-01 2.023306e-01 1.084010e-01 -9.918395e-02 -4.924609e-01
<VARIANCE> 39
 1.165314e+01 1.978254e+01 3.017462e+01 4.673000e+01 5.173875e+01 3.351969e+01 6.227425e+01 3.344833e+01 2.296638e+01 1.981097e+01 1.506233e+01 3.069787e+01 5.973162e+01 4.533921e-01 8.199425e-01 2.336189e+00 1.739051e+00 5.305520e+00 5.961262e+00 3.342316e+00 1.827695e+00 1.881245e+00 1.500028e+00 1.553943e+00 1.383576e+00 2.192283e+00 1.028986e-01 2.359675e-01 3.075014e-01 4.980342e-01 8.613023e-01 7.033648e-01 6.197464e-01 3.200542e-01 4.159299e-01 3.693592e-01 4.076781e-01 4.346102e-01 6.722721e-01
<GCONST> 1.123650e+02
<MIXTURE> 2 5.733805e-01
<MEAN> 39
 -7.783527e+00 -4.123901e-01 -2.030715e+00 -2.286810e-01 3.359795e+00 9.300678e-01 1.747120e+00 5.062649e-02 1.192498e+00 -9.749911e-01 -1.120815e+00 9.059750e-02 6.044248e+01 -5.688874e-01 7.156147e-02 1.126369e-01 3.779315e-01 -1.587441e-01 8.421227e-01 3.130374e-01 4.277597e-01 -2.903543e-01 5.930283e-01 1.129895e+00 3.335925e-01 -7.374448e-01 -1.067923e-01 -9.678984e-02 -3.997665e-02 -1.963684e-01 -2.512837e-02 -4.582317e-01 -4.887025e-02 -2.233287e-02 1.088027e-01 3.541873e-02 -2.184608e-02 -4.757464e-02 5.088063e-01
<VARIANCE> 39
 9.250902e+00 1.591716e+01 7.874836e+00 1.586404e+01 9.580276e+00 1.226047e+01 8.923014e+00 2.419437e+01 2.744454e+01 1.078336e+01 1.826291e+01 1.131030e+01 5.596445e+01 6.148611e-01 8.571148e-01 6.542610e-01 1.100075e+00 1.322291e+00 2.531702e+00 1.006123e+00 1.080103e+00 2.712402e+00 1.344622e+00 1.675608e+00 1.292624e+00 1.696478e+00 1.384626e-01 1.270957e-01 1.163653e-01 1.510862e-01 2.651110e-01 2.120985e-01 1.920110e-01 2.499347e-01 4.180433e-01 2.076280e-01 3.101029e-01 2.617324e-01 7.052311e-02
<GCONST> 8.799747e+01
<MIXTURE> 3 1.346547e-01
<MEAN> 39
 -1.946127e+00 -6.062827e+00 -1.110843e+01 3.013905e+00 6.166224e+00 5.841040e+00 5.297731e+00 -4.390557e+00 4.752797e+00 -1.208129e+01 -6.766337e+00 3.791189e-01 6.141294e+01 -6.412457e-01 2.609876e-01 -4.517770e-01 1.829139e-01 -2.511165e-01 1.777132e+00 1.682902e-01 8.849632e-01 -2.525724e-01 8.778662e-01 -1.644827e-01 -2.421040e-01 -1.965316e+00 -2.986242e-01 -1.848050e-01 -6.183378e-02 -1.655849e-01 6.034724e-02 -6.295717e-01 -3.502690e-01 -2.124870e-01 8.910438e-02 8.305813e-02 5.553847e-02 -8.146276e-02 3.933097e-01
<VARIANCE> 39
 7.510211e+00 2.134065e+00 6.555234e+00 2.072397e+00 4.645709e+00 1.734103e+01 1.830718e+01 8.268171e+00 5.794560e+00 1.576867e+01 5.125354e+00 4.644042e+00 1.158111e+01 8.751065e-01 5.495912e-01 3.333912e-01 2.168013e-01 1.122917e+00 6.617492e+00 3.052632e+00 1.500205e+00 1.097133e+00 5.407528e-01 1.169147e+00 4.753046e-01 1.099723e+00 1.783294e-01 1.341563e-01 2.111764e-01 3.190883e-02 1.830339e-01 6.060330e-01 3.922007e-01 3.217292e-01 2.271071e-01 1.137687e-01 1.482618e-01 1.370151e-01 5.153675e-02
<GCONST> 7.223724e+01
<STATE> 5
<NUMMIXES> 3
<MIXTURE> 1 2.944159e-01
<MEAN> 39
 -1.703671e+01 7.237870e-01 -1.888331e+00 -8.883200e-01 2.664720e+00 9.178842e-01 1.022831e+00 2.428217e+00 7.066490e-01 3.208048e+00 5.706070e+00 -7.283093e-01 6.981452e+01 -1.597776e+00 9.584725e-01 3.935276e-01 -5.905151e-01 1.133225e-01 -6.160072e-01 -8.904029e-01 -4.083161e-01 -6.131197e-01 9.746829e-02 4.717480e-01 -4.091147e-01 1.221122e+00 3.766567e-01 2.574388e-01 4.063274e-01 -4.429522e-02 -9.938277e-02 -2.393750e-02 -2.701999e-02 -2.892560e-01 -3.730294e-01 -4.169389e-01 -4.628789e-01 -1.178565e-01 -2.641715e-01
<VARIANCE> 39
 2.048194e+01 1.146615e+01 1.383290e+01 3.303652e+01 3.768237e+01 1.805652e+01 1.549822e+01 2.832260e+01 1.322536e+01 4.958043e+01 2.112513e+01 1.221461e+01 1.830373e+01 2.847826e+00 1.006688e+00 2.744941e+00 8.262668e-01 2.749297e+00 3.290464e+00 2.652522e+00 1.756856e+00 2.021520e+00 4.274129e+00 2.692075e+00 1.372075e+00 1.539803e+00 3.474284e-01 2.638233e-01 2.426299e-01 1.775387e-01 7.110903e-01 8.094670e-01 5.498286e-01 2.672590e-01 2.218797e-01 8.164560e-01 3.074895e-01 1.579418e-01 8.289555e-02
<GCONST> 1.050942e+02
<MIXTURE> 2 3.865963e-01
<MEAN> 39
 -8.054069e+00 -2.470854e+00 -8.471543e+00 -7.659339e-01 2.907622e+00 2.239079e+00 5.501836e-01 -6.974035e-01 5.280430e+00 8.597760e-01 -2.398180e+00 -6.912889e-01 5.270123e+01 -2.674147e+00 7.935812e-01 -7.447205e-02 -1.745372e-01 3.890134e-01 -4.720850e-01 5.051486e-01 -3.252704e-01 -6.137632e-01 -2.441506e-02 7.361401e-01 7.776551e-02 4.959579e-01 -7.644756e-01 3.237116e-01 1.034868e-01 -6.080113e-02 3.678395e-02 -4.959388e-01 6.868096e-02 -2.225773e-01 -8.624505e-03 -5.071247e-01 6.509099e-02 2.229192e-01 9.505289e-01
<VARIANCE> 39
 1.891248e+01 1.205025e+01 1.829582e+01 1.359963e+01 1.286953e+01 1.516589e+01 2.592491e+01 1.901237e+01 3.321252e+01 3.703654e+01 1.427803e+01 1.029409e+01 1.249190e+01 2.599951e+00 8.849189e-01 1.559049e+00 1.202623e+00 1.646356e+00 2.416675e+00 2.237704e+00 2.610920e+00 2.217569e+00 2.596027e+00 7.704958e-01 2.525926e+00 5.052653e+00 3.444956e-01 1.080411e-01 2.132751e-01 3.335702e-01 4.164494e-01 3.912691e-01 2.696936e-01 4.122632e-01 3.552445e-01 1.588406e-01 1.895406e-01 4.258136e-01 1.476926e-01
<GCONST> 1.001221e+02
<MIXTURE> 3 3.189879e-01
<MEAN> 39
 -2.622473e+01 5.804823e+00 -5.976887e+00 -2.891399e+00 4.455187e+00 -6.009822e+00 3.391708e+00 -4.567172e+00 4.036429e+00 -1.602366e+00 1.126382e+00 1.339697e+00 6.304932e+01 -3.131581e+00 1.527052e+00 2.646911e-01 -8.363075e-01 9.453641e-01 -1.630766e+00 6.033727e-01 7.392327e-02 -6.241968e-01 1.969451e-01 -2.433539e-01 7.388747e-02 2.295467e+00 9.056602e-01 -3.376877e-01 3.323070e-01 -8.684481e-02 6.153981e-02 3.719535e-01 -8.315478e-02 3.323130e-01 -3.658512e-01 3.431130e-01 -1.606887e-01 -1.648748e-01 -4.418977e-01
<VARIANCE> 39
 1.424474e+01 1.468978e+01 1.914169e+01 1.596688e+01 1.055519e+01 1.293259e+01 1.305519e+01 1.272164e+01 1.669833e+01 3.339483e+01 1.149129e+01 1.023916e+01 2.602503e+01 2.760726e+00 1.191475e+00 9.118981e-01 8.119756e-01 8.146482e-01 1.860840e+00 1.409232e+00 1.210378e+00 1.878204e+00 2.077165e+00 4.962526e-01 1.116947e+00 1.020974e+00 3.097434e-01 2.359445e-01 2.511491e-01 2.613691e-01 2.479458e-01 4.820274e-01 2.888103e-01 1.441267e-01 2.896878e-01 3.647656e-01 2.457266e-01 2.568626e-01 1.176647e-01
<GCONST> 9.196159e+01
<STATE> 6
<NUMMIXES> 3
<MIXTURE> 1 6.493301e-01
<MEAN> 39
 -2.568924e+01 3.379501e+00 -2.492132e+00 -6.718871e+00 6.603966e+00 -2.057402e+00 3.905106e+00 5.026118e+00 1.318358e+00 5.131820e+00 4.023278e+00 1.371056e+00 7.465540e+01 1.544784e-01 -2.996580e-01 4.117306e-01 -1.657110e-01 -3.629275e-02 3.718956e-01 -1.142583e-01 2.735754e-01 1.753616e-01 -9.338225e-02 5.689733e-02 3.298295e-02 -2.599622e-02 1.478650e-01 -7.778130e-02 -4.368414e-02 3.471837e-02 -9.657428e-02 -9.246741e-02 -9.119670e-02 -1.196991e-02 6.832017e-02 -1.515886e-02 5.423205e-02 4.015473e-02 -9.000945e-02
<VARIANCE> 39
 1.219591e+01 5.815306e+00 1.548622e+01 6.451735e+00 1.278216e+01 2.161092e+01 1.501414e+01 1.713774e+01 1.761906e+01 1.068297e+01 7.461786e+00 8.636411e+00 3.092620e+00 2.946950e-01 2.129045e-01 4.123888e-01 3.544173e-01 4.803605e-01 7.609105e-01 1.571237e+00 1.188231e+00 6.271785e-01 1.204011e+00 1.027025e+00 7.959176e-01 1.813915e-01 5.037993e-02 7.674454e-02 6.967435e-02 7.945462e-02 9.807228e-02 1.363842e-01 2.488852e-01 2.537063e-01 1.705021e-01 2.406622e-01 2.063807e-01 1.260399e-01 8.018612e-03
<GCONST> 6.548644e+01
<MIXTURE> 2 1.824186e-01
<MEAN> 39
 -2.713932e+01 7.944656e+00 -3.596741e+00 -1.524013e+00 1.013896e+01 -6.403987e+00 2.427530e+00 -6.102387e-01 -4.177107e+00 -6.142675e+00 -1.178000e+00 3.180686e+00 6.563908e+01 1.670890e+00 4.966909e-01 2.651566e+00 -7.164609e-01 -1.136380e+00 -1.148983e+00 -1.119199e+00 -2.341986e-01 -1.845747e+00 -1.120333e+00 -5.899654e-01 -5.997860e-01 1.268299e+00 1.151623e+00 -5.321304e-01 5.060941e-01 7.661746e-02 -1.260300e+00 4.374051e-02 -3.395275e-01 -3.374669e-01 6.033132e-04 -4.311309e-01 1.325460e-01 -2.686810e-01 -5.997960e-02
<VARIANCE> 39
 2.558854e+01 9.335093e+00 2.140038e+01 1.935114e+01 2.072415e+01 2.162423e+01 3.920389e+01 2.226725e+01 3.024887e+01 3.855376e+01 6.469555e+00 9.070901e+00 4.197807e+00 6.233113e+00 1.377267e+00 2.040395e+00 8.268180e-01 9.300333e+00 2.685231e+00 7.103863e-01 1.372683e+00 8.971752e-01 2.512686e+00 1.090896e+00 6.171479e-01 4.651705e-01 7.613961e-01 2.119461e-01 4.454784e-01 1.805496e-01 6.466132e-01 5.154808e-01 5.186130e-01 1.862366e-01 1.510942e-01 3.223675e-01 2.787275e-01 1.895874e-01 1.287620e-01
<GCONST> 9.834947e+01
<MIXTURE> 3 1.682514e-01
<MEAN> 39
 -1.188346e+01 7.354918e+00 8.374244e+00 -4.508333e+00 -6.278722e+00 -8.752338e+00 -3.306002e+00 -1.046235e+01 -6.618013e+00 -1.259230e+00 3.172733e-01 -6.280691e+00 6.790334e+01 2.204329e+00 6.167278e-02 1.713205e+00 -1.026377e+00 -2.120765e+00 -1.094663e+00 -1.426014e+00 -1.510686e+00 -4.807209e-01 9.925478e-01 -2.890574e-01 -2.792537e-02 1.273839e-01 -4.647198e-01 -5.325024e-01 -6.020163e-01 -1.583285e-03 3.730397e-01 4.391482e-01 5.159065e-01 3.510377e-01 7.741070e-01 3.562724e-01 4.248100e-01 3.418253e-01 -1.244239e-01
<VARIANCE> 39
 1.464677e+01 5.171625e+00 5.722317e+00 2.416454e+01 2.243168e+01 2.397201e+01 2.523596e+01 1.624348e+01 2.872720e+01 2.024018e+01 1.865171e+01 1.160480e+01 6.848660e-01 2.021033e+00 1.275241e+00 2.747499e+00 1.574982e+00 3.242609e+00 2.571892e+00 2.290490e+00 1.586272e+00 3.269323e+00 2.556099e+00 2.174163e+00 1.891556e+00 3.106916e-01 2.392069e-01 6.677718e-02 8.580538e-02 1.463243e-01 6.079649e-01 2.463017e-01 8.597287e-02 1.575637e-01 5.513389e-01 5.951400e-01 3.124538e-01 2.768851e-01 2.486147e-02
<GCONST> 9.082139e+01
<STATE> 7
<NUMMIXES> 3
<MIXTURE> 1 1.238422e-01
<MEAN> 39
 -1.244168e+01 3.807375e+00 1.050381e+01 -8.542410e-01 -6.227272e+00 -8.120962e+00 -6.387919e+00 -3.527002e+00 -1.862668e+01 -2.088059e+01 1.660264e+00 -2.208349e+00 7.181311e+01 1.047459e+00 -7.226521e-01 1.271075e+00 -2.723716e-01 -1.685350e+00 5.542986e-01 -1.183727e+00 -1.095732e+00 -1.025123e+00 -5.107690e-01 1.213507e+00 -1.068375e+00 -9.728436e-02 -2.999283e-01 1.452110e-01 -4.573150e-01 5.205825e-02 4.234502e-01 1.922556e-01 -7.397636e-02 -2.383988e-02 5.627601e-01 6.424658e-01 1.054403e-01 4.600768e-02 -4.719519e-01
<VARIANCE> 39
 8.670142e-01 2.478669e+00 6.391472e+00 2.120023e+00 3.838450e+00 8.415143e+00 9.251491e+00 1.277616e+01 2.164071e+01 1.019751e+01 1.110283e+01 1.213447e+01 3.700174e-01 8.353367e-01 6.005372e-01 1.475750e+00 3.880407e-01 1.793250e+00 1.393099e+00 8.224961e-01 4.955728e-01 4.359117e+00 3.613116e+00 4.531416e-01 3.103321e-01 6.688755e-01 3.611416e-01 7.557189e-02 1.708040e-01 1.182814e-01 5.213483e-01 6.827143e-01 1.769207e-01 1.183498e-01 4.096272e-01 2.314197e-01 1.969587e-01 5.773570e-02 3.358169e-02
<GCONST> 6.913693e+01
<MIXTURE> 2 6.279653e-01
<MEAN> 39
 -2.860381e+01 5.738796e+00 3.862558e+00 -8.995444e+00 5.062274e+00 -2.007008e+00 1.504592e+00 -2.433870e+00 3.412850e+00 -1.457664e+00 1.359248e+00 -1.976147e-01 6.249871e+01 5.730469e-01 -2.689080e-01 2.187644e-01 -1.135979e-01 -1.746530e-01 3.248376e-01 -2.872101e-01 7.782447e-02 1.712182e-01 -8.525016e-02 2.284869e-01 2.527738e-02 -4.703304e-01 1.237692e-01 -3.026288e-02 -8.839286e-02 4.391058e-02 -7.231102e-03 1.629000e-02 1.365237e-02 -2.953020e-02 1.701611e-02 1.079015e-02 -5.891749e-02 2.814523e-02 -9.626996e-02
<VARIANCE> 39
 1.274301e+01 4.752626e+00 1.258333e+01 4.193141e+00 2.105836e+01 2.424494e+01 1.104256e+01 2.316588e+01 1.108638e+01 3.080159e+01 1.279213e+01 8.063695e+00 2.501348e+01 5.889888e-01 4.009990e-01 8.503875e-01 5.766015e-01 1.178849e+00 8.224764e-01 8.437301e-01 6.301395e-01 9.737436e-01 1.137109e+00 1.222227e+00 7.448775e-01 2.099874e-01 5.078044e-02 7.302555e-02 1.491801e-01 1.287218e-01 2.133511e-01 1.258245e-01 1.796347e-01 1.142188e-01 2.002674e-01 1.942603e-01 2.241919e-01 1.415093e-01 3.945862e-02
<GCONST> 7.386056e+01
<MIXTURE> 3 2.481926e-01
<MEAN> 39
 -7.812936e+00 5.405210e+00 9.347897e+00 -8.713107e+00 -8.756190e+00 -8.391660e+00 -5.831250e+00 -1.239249e+01 -1.467298e+00 4.068335e-01 2.286935e+00 -3.231423e+00 6.624993e+01 1.112252e-01 -1.144334e-01 2.100728e-01 8.560980e-02 -2.876050e-01 -9.328796e-03 -5.332955e-01 -4.503678e-01 -7.228041e-04 -1.401473e-01 2.965668e-01 2.813858e-01 -6.523089e-01 -1.303767e-01 5.288191e-02 -1.743913e-01 1.376250e-01 1.041570e-01 2.182092e-01 1.222301e-01 1.904779e-01 -5.063175e-02 -1.707752e-01 -9.428567e-02 -7.265399e-02 -1.759960e-01
<VARIANCE> 39
 9.655176e+00 1.005658e+01 1.464521e+01 1.251178e+01 8.236180e+00 1.560344e+01 1.009754e+01 1.757301e+01 3.496613e+01 1.541500e+01 1.006748e+01 6.832879e+00 2.527142e+00 8.804535e-02 7.757028e-01 8.947302e-01 2.361569e+00 1.233997e+00 8.395275e-01 1.973077e+00 9.197130e-01 1.115496e+00 8.361863e-01 1.044507e+00 7.662339e-01 3.222132e-01 2.409715e-02 9.800889e-02 9.471481e-02 2.597170e-01 2.210368e-01 1.343511e-01 4.652635e-01 4.281641e-01 1.749528e-01 1.860192e-01 1.713246e-01 7.588121e-02 4.986387e-02
<GCONST> 7.456692e+01
<STATE> 8
<NUMMIXES> 3
<MIXTURE> 1 3.910270e-01
<MEAN> 39
 -1.534160e+01 -2.141376e+00 2.233255e+00 -5.591345e+00 3.443876e+00 2.858378e-01 1.953997e+00 5.908095e+00 2.115940e+00 1.440484e+00 4.823260e+00 4.404660e-01 6.917578e+01 1.417410e+00 -3.667173e-01 -2.706175e-01 5.290293e-01 -3.270163e-01 2.902262e-01 2.430788e-01 -3.165811e-01 1.914506e-01 -2.436090e-01 -2.556492e-01 -1.062683e-01 -1.120081e+00 -3.102628e-04 5.672557e-02 -1.366985e-01 5.890236e-02 1.046214e-01 1.501867e-01 -4.835203e-02 -5.626166e-02 -9.730669e-02 5.998370e-02 -4.392976e-02 -5.234854e-03 -4.134555e-02
<VARIANCE> 39
 2.359579e+01 3.178844e+00 1.306140e+01 1.029873e+01 1.124075e+01 4.982196e+01 1.325993e+01 9.961697e+00 2.263083e+01 9.477139e+00 1.988502e+01 2.503531e+01 2.096645e+01 4.902842e-01 3.379148e-01 4.326384e-01 4.040221e-01 7.837124e-01 1.103651e+00 1.148164e+00 9.143218e-01 1.557450e+00 1.422977e+00 1.095696e+00 1.685542e+00 3.990915e-01 1.324481e-01 6.762923e-02 4.334849e-02 7.527092e-02 1.449133e-01 1.561602e-01 1.878557e-01 1.540452e-01 3.578810e-01 2.590399e-01 2.124183e-01 3.611695e-01 5.681701e-02
<GCONST> 7.799634e+01
<MIXTURE> 2 4.481832e-01
<MEAN> 39
 -1.185717e+01 2.189313e+00 4.192730e+00 -3.879709e+00 -1.276885e+00 -6.456003e-01 -3.336182e+00 -4.863771e+00 -1.795658e+00 -8.606866e-02 2.727556e+00 -9.772478e-01 5.470850e+01 4.380155e-01 -3.249396e-01 -1.503822e+00 1.494449e+00 8.054597e-01 9.487628e-01 1.272871e+00 1.055057e+00 3.991519e-01 2.213285e-01 -4.399266e-01 5.017160e-01 -1.466738e+00 -3.641090e-02 9.430183e-02 -4.888057e-03 -1.367884e-02 -1.590442e-01 -1.112643e-01 8.102573e-02 1.731891e-01 1.971263e-01 -1.691487e-01 1.141215e-01 -8.371386e-03 2.676983e-01
<VARIANCE> 39
 1.210246e+01 1.106948e+01 3.590643e+01 3.552504e+01 1.579397e+01 1.876882e+01 1.716944e+01 3.504022e+01 5.149519e+01 3.154618e+01 1.677801e+01 2.180349e+01 2.676743e+01 1.634680e+00 4.980899e-01 1.819498e+00 1.463349e+00 2.243892e+00 1.420818e+00 2.382998e+00 2.787401e+00 2.627116e+00 2.052654e+00 1.433623e+00 1.246824e+00 6.202293e-01 1.389253e-01 6.333049e-02 3.146886e-01 3.094516e-01 3.155259e-01 3.272103e-01 4.511700e-01 3.255244e-01 3.557006e-01 4.252206e-01 2.359917e-01 1.302084e-01 1.336525e-01
<GCONST> 9.937939e+01
<MIXTURE> 3 1.607898e-01
<MEAN> 39
 -7.861121e+00 1.135348e+00 1.497743e+01 -8.740579e+00 -1.431689e+01 -6.143981e+00 -1.320923e+01 -1.077452e+01 -1.251576e+01 -7.919413e+00 6.633307e+00 -8.661162e+00 6.303514e+01 -5.285358e-01 -2.056314e-01 -1.780853e-01 4.872871e-01 7.381690e-01 1.217352e+00 1.976144e-01 3.978289e-01 1.929855e-01 1.687250e+00 4.190119e-01 1.218064e-02 -2.650189e+00 -3.706100e-01 -8.461865e-02 -3.826866e-01 6.598084e-01 1.066761e+00 2.150728e-01 8.732339e-01 9.797542e-02 -9.146511e-02 2.711816e-01 -2.472412e-01 5.959584e-01 -2.289551e-01
<VARIANCE> 39
 4.940435e+00 1.228431e+01 2.580848e+01 6.987391e+01 9.232794e+00 5.129788e+00 5.066754e+00 1.827533e+01 2.623778e+01 7.184401e+01 3.761301e+00 1.330079e+01 1.511892e+01 1.156564e+00 1.713298e-01 4.898697e-01 2.387562e+00 4.878336e+00 1.944659e+00 3.142640e+00 2.917001e+00 1.436888e+00 1.502731e+00 6.876194e-01 2.192515e+00 3.649025e-01 9.310099e-02 5.362627e-02 8.273902e-02 1.311696e-01 1.804637e-01 1.587926e-01 2.168313e-01 1.619694e-01 4.095204e-01 3.471716e-01 5.241143e-02 4.154505e-02 1.086314e-01
<GCONST> 8.198772e+01
<TRANSP> 9
 0.000000e+00 1.000000e+00 0.000000e+00 0.000000e+00 0.000000e+00 0.000000e+00 0.000000e+00 0.000000e+00 0.000000e+00
 0.000000e+00 8.673611e-01 1.326390e-01 0.000000e+00 0.000000e+00 0.000000e+00 0.000000e+00 0.000000e+00 0.000000e+00
 0.000000e+00 0.000000e+00 8.537203e-01 1.462797e-01 0.000000e+00 0.000000e+00 0.000000e+00 0.000000e+00 0.000000e+00
 0.000000e+00 0.000000e+00 0.000000e+00 8.651452e-01 1.348548e-01 0.000000e+00 0.000000e+00 0.000000e+00 0.000000e+00
 0.000000e+00 0.000000e+00 0.000000e+00 0.000000e+00 8.465266e-01 1.534734e-01 0.000000e+00 0.000000e+00 0.000000e+00
 0.000000e+00 0.000000e+00 0.000000e+00 0.000000e+00 0.000000e+00 8.309802e-01 1.690198e-01 0.000000e+00 0.000000e+00
 0.000000e+00 0.000000e+00 0.000000e+00 0.000000e+00 0.000000e+00 0.000000e+00 8.849968e-01 1.150033e-01 0.000000e+00
 0.000000e+00 0.000000e+00 0.000000e+00 0.000000e+00 0.000000e+00 0.000000e+00 0.000000e+00 8.506768e-01 1.493232e-01
 0.000000e+00 0.000000e+00 0.000000e+00 0.000000e+00 0.000000e+00 0.000000e+00 0.000000e+00 0.000000e+00 0.000000e+00
<ENDHMM>
~o
<STREAMINFO> 1 39
<VECSIZE> 39<NULLD><MFCC_D_A_0><DIAGC>
~h "ichi"
<BEGINHMM>
<NUMSTATES> 7
<STATE> 2
<NUMMIXES> 3
<MIXTURE> 1 4.304262e-01
<MEAN> 39
 -9.865138e+00 8.063754e+00 9.407521e+00 -3.118177e+00 -1.763194e+00 4.249104e+00 -7.496716e+00 -3.861277e+00 -5.150863e-02 -5.140074e+00 -1.140251e+00 -6.052269e-01 6.608955e+01 5.483047e-01 1.493922e+00 2.022000e+00 -1.375677e+00 -1.653223e+00 -1.292131e+00 -1.871667e+00 -6.320491e-01 -6.515596e-01 -6.809369e-01 -6.577549e-01 -6.097510e-01 1.943194e+00 1.169832e-02 -2.844428e-01 -2.613329e-01 1.117876e-01 1.359061e-01 -2.085771e-01 3.777136e-01 2.553150e-01 -1.093652e-01 2.388383e-01 6.489453e-02 -2.848420e-02 -1.899495e-01
<VARIANCE> 39
 1.183140e+01 4.080670e+01 3.620881e+01 2.913333e+01 2.744805e+01 2.252254e+01 4.157959e+01 1.994540e+01 2.483390e+01 5.283023e+01 1.324561e+01 1.268455e+01 2.042514e+01 7.604034e-01 2.151216e+00 2.959165e+00 1.999130e+00 3.463813e+00 3.531756e+00 2.930671e+00 2.408519e+00 2.575686e+00 2.018898e+00 1.791789e+00 1.576714e+00 1.812976e+00 1.431596e-01 3.799219e-01 4.246894e-01 5.237977e-01 7.001753e-01 7.627570e-01 5.623023e-01 4.396239e-01 4.217189e-01 2.888766e-01 2.351852e-01 3.271187e-01 3.145762e-01
<GCONST> 1.110299e+02
<MIXTURE> 2 2.146077e-01
<MEAN> 39
 -1.160304e+01 8.861357e+00 1.982871e+01 -1.649021e+01 -1.302880e+00 -1.277544e+01 -1.132062e+01 -4.089417e+00 7.060860e-02 -1.386886e+01 1.720598e+01 -4.844209e+00 6.509626e+01 -2.353710e-01 7.080724e-01 5.925979e-01 1.306711e-01 5.519782e-01 -9.560061e-01 -6.086160e-02 -5.866298e-02 -7.226601e-01 -2.068863e-01 4.064647e-02 2.441918e-01 5.240855e-01 1.242921e-01 -2.012548e-01 -7.844468e-01 4.865248e-01 8.708707e-02 5.126972e-01 4.128376e-01 9.093815e-02 -2.107781e-01 4.126076e-01 -6.234024e-01 1.417826e-01 -7.085278e-01
<VARIANCE> 39
 2.158183e+00 1.051853e+01 4.727858e+00 1.233394e+01 1.565637e+01 1.489362e+01 8.052187e+00 2.286598e+01 6.226658e+01 2.859847e+01 3.396976e+01 3.162804e+01 8.414519e+00 3.520722e-01 1.368680e+00 3.970036e+00 3.311619e+00 1.628963e+00 2.946793e+00 2.582413e+00 7.072361e-01 1.725538e+00 4.457840e+00 9.040634e+00 1.996893e+00 4.272006e+00 6.191488e-02 2.663837e-01 2.053921e-01 7.005053e-01 2.857888e-01 2.873719e-01 4.017211e-01 2.592250e-01 4.777609e-01 3.508142e-01 7.924196e-01 2.590414e-01 1.939540e-01
<GCONST> 1.007150e+02
<MIXTURE> 3 3.549661e-01
<MEAN> 39
 -5.992749e+00 4.485805e+00 2.031505e+01 -1.186379e+01 -1.510149e+01 4.552504e-01 -1.645354e+01 -9.778450e+00 -7.666649e+00 -4.038846e+00 2.254103e+00 -8.335336e+00 6.714261e+01 2.759903e-01 3.285815e-01 5.820385e-01 -2.033006e-01 -3.954713e-01 -2.380517e-01 1.052278e-01 -3.299402e-01 3.551513e-01 2.846245e-01 -7.095168e-02 -1.844607e-01 8.337815e-01 -1.748628e-01 -4.602997e-02 -9.668478e-01 8.217586e-01 8.623918e-01 2.182049e-01 8.009444e-01 2.617666e-01 4.319370e-01 1.308630e-01 -2.299232e-01 4.031921e-01 -7.894990e-01
<VARIANCE> 39
 9.058063e+00 1.121455e+01 1.312056e+01 1.001891e+01 2.748896e+01 7.044842e+00 2.731390e+01 6.546179e+01 1.139131e+01 2.865646e+01 1.077648e+01 2.068317e+01 5.013096e+01 6.968160e-01 8.269167e-01 5.815813e+00 5.276419e+00 4.615534e+00 1.182015e+00 5.091864e+00 3.042897e+00 2.929279e+00 2.276136e+00 1.562651e+00 2.077918e+00 3.967466e+00 8.294268e-02 1.152699e-01 5.806652e-01 4.711326e-01 6.927510e-01 3.032285e-01 6.335971e-01 3.905481e-01 5.316606e-01 5.942590e-01 2.903587e-01 3.978192e-01 2.587348e-01
<GCONST> 1.072383e+02
<STATE> 3
<NUMMIXES> 3
<MIXTURE> 1 1.391228e-01
<MEAN> 39
 -1.405722e+01 -1.589182e+00 -1.091296e+00 1.016889e+00 4.001461e+00 -2.395601e+00 9.967324e-01 1.155435e-01 -1.241291e-01 5.424090e+00 2.435692e+00 1.913313e+00 6.895233e+01 -1.697980e+00 1.857714e-01 8.010823e-03 -9.580274e-01 1.871226e-01 -9.198819e-01 3.221233e-01 -8.752957e-01 -3.509620e-01 9.364184e-01 6.707426e-01 3.365461e-01 1.407429e+00 3.945407e-02 4.736741e-01 4.388040e-01 -1.894036e-01 -6.063211e-02 5.462503e-01 1.603704e-01 -8.072680e-02 -1.339275e-01 -4.105307e-01 -7.813965e-02 -1.476489e-01 -1.550116e-01
<VARIANCE> 39
 1.474884e+01 1.087330e+01 6.331537e+00 1.779175e+01 1.229317e+01 1.560050e+01 1.488604e+01 2.317969e+01 1.503627e+01 2.342005e+01 1.093254e+01 1.015158e+01 5.478095e+01 1.285821e+00 1.708071e+00 8.163589e-01 5.686119e-01 1.382257e+00 2.741541e+00 1.785619e+00 2.771649e+00 1.178374e+00 2.564132e+00 9.630892e-01 1.260134e+00 9.662727e-01 4.351215e-01 2.916298e-01 2.025755e-01 1.157068e-01 2.789609e-01 4.230983e-01 2.988104e-01 5.386113e-01 2.502843e-01 3.628243e-01 2.830685e-01 3.070401e-01 2.555611e-01
<GCONST> 9.538416e+01
<MIXTURE> 2 4.973572e-01
<MEAN> 39
 -9.754009e+00 2.398226e+00 1.110531e+00 2.877259e+00 2.391665e+00 1.658980e+00 -1.728987e+00 -1.240942e+00 -1.522653e+00 -1.888210e+00 1.747389e+00 -7.037565e-01 5.396344e+01 -2.741561e-01 -7.143851e-01 -9.805523e-01 2.689145e-01 -1.130968e-02 2.777194e-01 7.324039e-01 4.956336e-01 6.541913e-01 7.064080e-01 3.234854e-02 4.503651e-01 -3.835064e-01 -2.414024e-01 2.743393e-01 1.760735e-01 -1.722350e-01 -7.176964e-02 -2.136753e-01 -5.890453e-02 -1.695017e-01 1.434159e-02 -2.814805e-02 -6.776974e-02 1.920662e-02 5.077324e-01
<VARIANCE> 39
 4.936556e+00 7.253460e+00 7.073853e+00 3.212814e+01 1.602390e+01 1.517895e+01 1.663655e+01 1.689226e+01 1.189203e+01 1.272732e+01 1.626722e+01 1.324819e+01 5.408756e+01 5.226141e-01 8.768255e-01 9.695887e-01 8.006909e-01 8.753948e-01 1.617415e+00 1.168571e+00 1.758629e+00 1.354672e+00 1.247828e+00 1.450688e+00 9.284151e-01 5.592716e-01 1.455069e-01 1.068778e-01 2.276229e-01 1.328517e-01 2.240506e-01 3.285774e-01 2.433839e-01 3.432576e-01 2.904427e-01 2.468138e-01 2.079185e-01 1.923976e-01 1.157410e-01
<GCONST> 8.570920e+01
<MIXTURE> 3 3.635200e-01
<MEAN> 39
 -8.935190e+00 1.071188e+01 1.035303e+01 -2.183458e+00 -1.239812e+00 -9.526721e-01 -6.492647e+00 -5.304331e+00 -3.317079e+00 -6.422390e+00 -2.037189e+00 -2.480678e+00 6.319403e+01 -6.716955e-02 -9.416084e-01 -2.049286e+00 1.774657e+00 1.547188e+00 7.302558e-01 1.137739e+00 4.560524e-01 -2.477359e-01 2.082880e-01 7.564619e-02 1.678939e-01 -2.193639e+00 -3.296603e-02 -4.851536e-01 -1.615110e-01 -6.803308e-03 -1.308681e-01 1.444092e-01 -8.673228e-02 1.449720e-01 1.044223e-01 1.043489e-01 3.060781e-01 4.468081e-02 -1.211468e-01
<VARIANCE> 39
 9.159300e+00 2.494015e+01 1.774657e+01 4.734010e+01 2.917558e+01 2.363797e+01 2.079231e+01 1.993714e+01 2.469094e+01 3.678277e+01 3.389872e+01 9.607379e+00 6.634391e+01 6.189688e-01 1.689677e+00 1.855066e+00 1.742661e+00 2.144978e+00 2.190618e+00 1.870603e+00 1.685041e+00 1.781865e+00 1.443950e+00 1.586158e+00 1.225724e+00 1.919674e+00 1.014144e-01 1.351731e-01 1.989846e-01 5.148370e-01 4.120891e-01 3.594404e-01 4.440629e-01 3.442787e-01 3.828239e-01 2.187646e-01 2.105131e-01 2.371468e-01 3.532234e-01
<GCONST> 1.024993e+02
<STATE> 4
<NUMMIXES> 3
<MIXTURE> 1 3.265352e-01
<MEAN> 39
 -1.802884e+01 5.671626e+00 5.105587e+00 -3.167241e+00 1.130498e+00 -4.936951e+00 5.233822e-01 -4.351651e+00 -5.030748e+00 -1.472056e+00 -1.435531e+00 -2.626524e-01 7.207565e+01 2.653867e+00 3.771191e-01 3.153339e+00 -1.015645e+00 -2.971035e+00 -8.049561e-01 -1.750735e+00 -1.667915e+00 -1.173306e+00 -5.909507e-01 -5.514319e-01 -9.658120e-01 6.621997e-01 3.659748e-01 -5.201044e-01 3.108409e-02 -1.596351e-01 -6.369196e-01 9.310558e-02 -4.457274e-01 -6.585921e-03 1.344336e-01 1.094117e-01 3.799329e-01 -2.256244e-02 -6.326514e-02
<VARIANCE> 39
 4.588263e+01 1.157702e+01 4.943818e+01 2.583350e+01 5.513338e+01 2.811210e+01 3.441159e+01 3.011481e+01 2.796700e+01 6.106826e+01 2.814087e+01 1.517731e+01 3.148166e+01 3.153325e+00 1.908530e+00 1.031615e+00 1.056801e+00 4.652090e+00 2.048783e+00 2.625948e+00 1.639978e+00 2.431622e+00 1.865274e+00 2.099462e+00 1.567582e+00 4.263020e-01 1.224747e+00 1.560325e-01 5.539563e-01 1.864147e-01 8.011036e-01 5.591443e-01 5.465954e-01 5.880772e-01 5.774981e-01 2.738949e-01 2.711901e-01 3.463602e-01 6.217125e-02
<GCONST> 1.109394e+02
<MIXTURE> 2 3.352216e-01
<MEAN> 39
 -1.769819e+01 2.842021e+00 -4.604089e+00 2.819596e+00 2.780866e+00 1.878662e+00 -4.628921e-02 -1.290027e+00 5.743602e-01 -2.303407e+00 2.184591e+00 2.347230e+00 5.641231e+01 -3.453941e+00 9.599485e-01 -8.353018e-01 -9.354472e-01 6.399184e-01 -1.055470e+00 7.194034e-01 6.307444e-02 7.257224e-01 -6.662656e-01 -8.840950e-04 1.514885e-01 2.771269e+00 -2.210715e-01 1.772742e-01 3.015698e-01 -2.260048e-01 1.112608e-01 -5.374537e-01 7.294118e-02 1.374629e-02 -8.788500e-04 -2.761221e-02 -1.776294e-01 -2.500579e-01 3.110400e-01
<VARIANCE> 39
 3.872708e+01 1.229631e+01 2.158626e+01 2.430284e+01 9.973992e+00 1.949102e+01 1.602645e+01 2.108981e+01 1.381521e+01 3.057022e+01 1.592903e+01 8.650855e+00 5.173908e+01 1.247028e+00 1.009667e+00 2.489820e+00 1.111920e+00 1.825073e+00 1.527477e+00 3.242415e+00 2.029699e+00 1.573589e+00 1.401952e+00 1.927062e+00 8.075981e-01 1.611178e+00 1.009299e+00 1.739100e-01 4.572678e-01 1.518236e-01 2.515561e-01 2.664757e-01 4.466274e-01 5.061931e-01 3.169874e-01 2.150160e-01 2.245563e-01 1.085666e-01 5.292701e-01
<GCONST> 1.003520e+02
<MIXTURE> 3 3.382433e-01
<MEAN> 39
 -2.891716e+01 5.913431e+00 -3.690645e+00 -5.365220e+00 4.649868e+00 -4.955433e+00 3.551270e+00 -4.324002e+00 4.730788e+00 -9.211280e-01 7.606246e-01 -1.615745e-01 6.546370e+01 -1.519985e+00 1.394787e-01 6.848193e-02 -8.624015e-01 3.054850e-01 -5.262540e-01 3.017814e-01 -1.125935e-01 2.147106e-01 1.034454e-01 -4.066358e-02 1.652110e-01 1.609705e+00 8.201841e-01 -2.458079e-01 2.948514e-01 2.321121e-01 -1.421651e-01 3.540823e-01 -1.800461e-01 3.258958e-02 -2.259057e-01 1.247473e-01 7.434113e-02 1.695186e-01 -5.409971e-01
<VARIANCE> 39
 1.373814e+01 2.126796e+01 2.038202e+01 1.755762e+01 1.023248e+01 1.236665e+01 1.678734e+01 1.446507e+01 7.621635e+00 1.264104e+01 1.248986e+01 6.095747e+00 2.089523e+01 2.306840e+00 1.672057e+00 7.832977e-01 8.782791e-01 1.402666e+00 1.815993e+00 1.043239e+00 1.340130e+00 1.055562e+00 1.475413e+00 8.210714e-01 7.836808e-01 1.808655e+00 1.601184e-01 3.153997e-01 3.360708e-01 2.298189e-01 2.380729e-01 2.126286e-01 1.807807e-01 2.597688e-01 2.844334e-01 3.344475e-01 2.156711e-01 1.017433e-01 8.759146e-02
<GCONST> 8.815295e+01
<STATE> 5
<NUMMIXES> 3
<MIXTURE> 1 1.375327e-01
<MEAN> 39
 -2.304185e+00 -6.198403e+00 1.950023e+01 -1.370943e+01 -2.189498e+01 -1.791965e+00 -1.001814e+01 -7.012757e+00 -6.324132e+00 5.910525e+00 5.171032e+00 -3.310873e+00 8.080382e+01 3.258769e-01 -5.714781e-01 3.226851e-01 -4.034993e-01 -6.217930e-01 6.562862e-01 -4.464626e-01 -4.599759e-01 -1.217456e-01 -4.796009e-02 -2.509550e-01 4.879795e-02 -2.286027e-01 -2.698030e-01 3.536438e-01 -3.848145e-01 2.646548e-01 5.996330e-01 -4.168559e-02 2.426134e-01 -1.586728e-01 -1.071097e-01 -4.486554e-02 -1.547729e-01 1.770426e-01 -1.961588e-01
<VARIANCE> 39
 5.258856e-01 3.799754e+00 2.479776e+00 5.245003e+00 5.311771e+00 6.790680e+00 9.292152e+00 5.166649e+00 2.287576e+00 3.611514e+00 3.644899e+00 3.673894e+00 5.345858e-01 2.026647e-01 1.681171e+00 9.342662e-01 6.705475e-01 9.887279e-01 1.007455e+00 7.785317e-01 1.164482e+00 2.848733e-01 4.136360e-01 7.317849e-01 9.791157e-01 1.298340e-01 1.178241e-01 8.096948e-02 3.992721e-02 1.577041e-01 3.493291e-01 2.295111e-01 1.311618e-01 1.653259e-01 8.461226e-02 5.920200e-02 1.042037e-01 1.796354e-01 1.858636e-02
<GCONST> 5.097731e+01
<MIXTURE> 2 6.599366e-01
<MEAN> 39
 -2.965998e+01 5.009630e+00 -1.270369e+00 -7.179267e+00 3.537191e+00 -4.132979e+00 2.005116e+00 -8.413721e-01 3.698043e+00 2.572190e+00 3.766846e+00 2.160736e+00 6.995612e+01 2.546820e-01 -2.388470e-01 2.665218e-01 -1.212007e-01 -1.483810e-01 -1.054771e-01 -1.362436e-01 5.704312e-02 -1.779522e-01 3.167879e-02 8.957279e-02 -2.045199e-02 -1.835003e-01 6.641639e-02 3.409728e-03 -4.025581e-02 1.657546e-02 -1.074351e-02 -8.545106e-03 -1.384218e-02 -1.503436e-02 -3.854601e-02 -6.973390e-02 -6.877250e-02 -6.018665e-02 -4.570938e-02
<VARIANCE> 39
 7.902769e+00 7.841777e+00 1.829537e+01 9.229186e+00 7.565990e+00 9.001668e+00 1.288310e+01 2.289697e+01 1.269791e+01 3.122904e+01 1.241517e+01 8.231299e+00 1.205943e+01 1.244418e-01 2.500477e-01 4.954016e-01 6.738510e-01 9.672052e-01 9.579508e-01 8.430383e-01 1.070836e+00 1.063017e+00 1.298118e+00 9.018981e-01 8.101881e-01 1.319171e-01 2.975155e-02 4.597493e-02 8.920278e-02 1.201267e-01 1.870028e-01 2.124908e-01 1.673153e-01 1.969257e-01 2.005266e-01 2.120181e-01 1.101119e-01 1.339757e-01 9.091916e-03
<GCONST> 6.733383e+01
<MIXTURE> 3 2.025307e-01
<MEAN> 39
 -9.299689e+00 4.082199e+00 1.512767e+01 -8.745260e+00 -1.056930e+01 -7.150363e+00 -9.764980e+00 -1.249458e+01 -9.832288e+00 -6.018092e+00 -3.382516e+00 -4.525989e+00 6.858606e+01 5.333125e-01 -5.547052e-01 3.992052e-01 -7.140012e-01 -1.187061e+00 7.744609e-02 -1.135405e+00 -2.017256e-01 -4.243489e-01 1.289860e-01 2.565237e-01 -2.130830e-01 -1.834261e-01 -2.304768e-01 1.070499e-01 -3.094186e-01 2.034327e-01 2.299677e-01 -4.547060e-03 1.688299e-01 2.049100e-01 2.997921e-01 2.036584e-01 -5.193536e-02 1.484405e-01 -1.781530e-01
<VARIANCE> 39
 1.702044e+01 1.321281e+01 2.510678e+01 1.533888e+01 1.048930e+01 4.861438e+00 1.225772e+01 2.443620e+01 2.265497e+01 4.252721e+01 1.496129e+01 1.285144e+01 1.635672e+01 2.442874e-01 1.868748e-01 1.764026e-01 1.107636e+00 8.738048e-01 6.267672e-01 6.730703e-01 9.361566e-01 2.515673e+00 1.331863e+00 1.507587e+00 1.157152e+00 1.309780e-01 5.779553e-02 2.726401e-02 1.190288e-01 1.952107e-01 1.834968e-01 1.316461e-01 1.556518e-01 1.510593e-01 3.956369e-01 2.716875e-01 3.238847e-01 2.215224e-01 2.591005e-02
<GCONST> 7.534718e+01
<STATE> 6
<NUMMIXES> 3
<MIXTURE> 1 2.176759e-01
<MEAN> 39
 -8.227649e+00 1.223709e+00 1.437332e+01 -1.019570e+01 -1.632661e+01 -4.092146e+00 -1.344484e+01 -1.107827e+01 -8.646779e+00 -7.180902e-01 -1.054793e+00 -2.848018e+00 6.734659e+01 -4.914855e-01 2.820912e-01 -1.218361e+00 1.344431e+00 1.628817e+00 6.419945e-01 6.705498e-01 4.774322e-01 6.876407e-01 2.250875e-01 5.481762e-02 3.996215e-01 -1.837970e+00 -3.663119e-02 -1.333539e-01 -2.737990e-01 4.506582e-01 5.860713e-01 2.364427e-01 4.842466e-01 2.233849e-01 9.832807e-02 -1.700832e-01 8.383916e-02 -6.080765e-02 -2.106953e-01
<VARIANCE> 39
 2.050442e+01 1.645210e+01 3.807575e+01 3.923483e+01 2.023692e+01 1.491425e+01 2.532383e+01 1.019158e+01 1.213643e+01 3.225905e+01 1.453619e+01 1.355642e+01 6.307998e+01 8.606445e-01 3.408684e-01 2.343815e+00 1.746186e+00 4.050016e+00 1.393223e+00 1.419878e+00 1.729508e+00 1.766206e+00 1.336920e+00 1.646162e+00 1.642688e+00 3.621473e-01 1.378075e-01 7.468811e-02 3.691943e-01 1.700201e-01 3.655539e-01 2.705550e-01 1.893286e-01 4.163417e-01 3.400329e-01 2.633784e-01 3.004913e-01 3.058186e-01 6.298421e-02
<GCONST> 9.535480e+01
<MIXTURE> 2 6.402906e-01
<MEAN> 39
 -1.674782e+01 9.564521e-01 3.118805e+00 -4.521510e+00 3.554654e+00 -1.800523e+00 2.493126e+00 -2.452447e+00 1.410650e+00 2.143321e+00 1.642365e+00 -2.263834e-01 6.126765e+01 9.689151e-01 -1.185068e-01 -2.097839e-01 4.847415e-01 2.764713e-01 4.358412e-01 7.110410e-02 3.951736e-01 -1.668217e-02 -2.098349e-02 -9.632271e-02 -1.483279e-01 -9.248542e-01 7.537760e-03 2.006522e-02 -1.585460e-02 5.379521e-02 -7.557397e-03 4.125295e-02 -5.944113e-03 -1.989310e-02 -5.298728e-02 3.418903e-02 3.207402e-02 2.424195e-02 9.631223e-03
<VARIANCE> 39
 4.041952e+01 1.470457e+01 1.669567e+01 1.693174e+01 3.392685e+01 2.448940e+01 3.749236e+01 1.974524e+01 1.396282e+01 2.098153e+01 1.894048e+01 1.856251e+01 4.169556e+01 1.024531e+00 5.139951e-01 1.269497e+00 9.142347e-01 1.645621e+00 1.239039e+00 1.916123e+00 1.711333e+00 1.227389e+00 1.357005e+00 1.589611e+00 1.674937e+00 6.947824e-01 1.166843e-01 8.353141e-02 1.667557e-01 1.542280e-01 2.336604e-01 2.475962e-01 3.567681e-01 3.056264e-01 2.500372e-01 2.732444e-01 3.103936e-01 3.305123e-01 1.040634e-01
<GCONST> 9.426374e+01
<MIXTURE> 3 1.420335e-01
<MEAN> 39
 -1.085165e+01 2.604932e+00 6.451011e+00 1.967663e+00 -4.483687e+00 -1.318871e+00 -5.958461e+00 -9.892187e+00 -8.042192e+00 -2.510547e+00 1.107796e+00 -1.088152e+00 5.451543e+01 1.006709e-01 -5.988184e-01 -1.638892e+00 1.353876e+00 1.425852e+00 3.659058e-01 1.429931e+00 9.997841e-01 7.094579e-01 7.267676e-01 1.232115e+00 1.133285e+00 -1.537243e+00 1.369116e-02 1.729307e-02 5.180272e-03 -3.568612e-01 -2.265531e-01 8.488062e-03 -5.047106e-02 2.070807e-01 1.296781e-01 3.497257e-02 -1.051603e-01 4.567173e-02 3.243981e-01
<VARIANCE> 39
 3.107074e+00 3.340694e+00 9.177299e+00 1.352221e+01 1.118454e+01 8.980107e+00 1.779016e+01 2.870994e+01 2.132179e+01 1.122917e+01 2.142371e+01 2.081703e+01 2.393221e+01 3.791091e-01 1.713547e-01 1.608433e+00 2.553467e+00 1.605896e+00 1.398366e+00 3.072374e+00 2.927864e+00 5.313821e-01 1.143060e+00 1.011181e+00 1.749562e+00 6.773228e-01 4.634612e-02 3.578288e-02 1.667222e-01 2.412005e-01 3.932275e-01 3.310760e-01 3.887355e-01 3.939294e-01 1.216052e-01 2.675545e-01 2.200974e-01 5.255703e-01 3.526355e-02
<GCONST> 8.334616e+01
<TRANSP> 7
 0.000000e+00 1.000000e+00 0.000000e+00 0.000000e+00 0.000000e+00 0.000000e+00 0.000000e+00
 0.000000e+00 8.710698e-01 1.289302e-01 0.000000e+00 0.000000e+00 0.000000e+00 0.000000e+00
 0.000000e+00 0.000000e+00 9.231286e-01 7.687140e-02 0.000000e+00 0.000000e+00 0.000000e+00
 0.000000e+00 0.000000e+00 0.000000e+00 8.736355e-01 1.263645e-01 0.000000e+00 0.000000e+00
 0.000000e+00 0.000000e+00 0.000000e+00 0.000000e+00 9.131389e-01 8.686114e-02 0.000000e+00
 0.000000e+00 0.000000e+00 0.000000e+00 0.000000e+00 0.000000e+00 9.102513e-01 8.974878e-02
 0.000000e+00 0.000000e+00 0.000000e+00 0.000000e+00 0.000000e+00 0.000000e+00 0.000000e+00
<ENDHMM>
~o
<STREAMINFO> 1 39
<VECSIZE> 39<NULLD><MFCC_D_A_0><DIAGC>
~h "kyuu"
<BEGINHMM>
<NUMSTATES> 5
<STATE> 2
<NUMMIXES> 3
<MIXTURE> 1 5.641976e-01
<MEAN> 39
 -1.985817e+01 -2.814667e+00 5.516441e+00 -4.475773e+00 -6.068518e+00 1.273257e+00 -8.598474e-01 -6.041195e+00 6.015087e+00 -6.303437e-02 2.622235e+00 3.081244e+00 6.753376e+01 -1.127016e-01 3.798897e-01 1.112460e+00 -1.042313e-01 -1.305598e+00 -4.600582e-01 6.935564e-03 -1.064821e+00 -6.620632e-01 1.783455e-03 -6.708599e-01 -2.596485e-02 1.002045e+00 8.102686e-01 2.200516e-01 1.259210e-01 3.938018e-01 -6.592427e-02 -3.023908e-01 8.009067e-03 -3.901330e-02 -7.177901e-01 -1.658342e-01 -7.300733e-02 -3.752809e-01 -3.382481e-01
<VARIANCE> 39
 1.698612e+01 1.498662e+01 2.588025e+01 1.951762e+01 2.350246e+01 1.995747e+01 2.986595e+01 3.378298e+01 1.966208e+01 3.600636e+01 2.719044e+01 1.574584e+01 4.179649e+01 4.174271e+00 1.717418e+00 1.673421e+00 2.888284e+00 2.168030e+00 2.285275e+00 2.334932e+00 2.754159e+00 4.439089e+00 1.679256e+00 1.775863e+00 2.637790e+00 2.603905e+00 4.435585e-01 3.848035e-01 3.802533e-01 4.299908e-01 5.432293e-01 7.530860e-01 6.239793e-01 5.750473e-01 4.494954e-01 4.410389e-01 4.385736e-01 4.749259e-01 5.092948e-01
<GCONST> 1.150209e+02
<MIXTURE> 2 2.571051e-01
<MEAN> 39
 -1.029677e+01 1.518044e+00 1.297509e+01 -3.978646e-01 -1.260445e+01 -6.839437e+00 -2.956174e+00 -1.184540e+01 -6.097992e+00 -3.375831e+00 -1.064620e+00 -1.933469e+00 7.101586e+01 2.934722e+00 -9.265410e-02 9.663337e-01 3.263403e-01 -2.264703e+00 -3.776753e+00 -1.567144e+00 -4.538616e-01 -2.789117e+00 -1.876994e+00 1.057617e+00 -1.557662e+00 1.431579e+00 -4.404373e-01 -5.301397e-01 -4.932193e-01 -2.699642e-01 -2.413880e-03 6.096760e-02 -3.283589e-02 7.342526e-01 6.482099e-01 -1.213082e-01 7.073795e-01 3.005682e-01 -1.517395e-02
<VARIANCE> 39
 2.861774e+01 1.498583e+01 1.060714e+01 1.337030e+01 3.122719e+01 5.715283e+01 2.385771e+01 4.104832e+01 3.239413e+01 4.676951e+01 4.025743e+01 2.643654e+01 1.953177e+01 2.346080e+00 1.253948e+00 1.781661e+00 1.103216e+00 5.242031e+00 1.685140e+00 2.642651e+00 4.196429e+00 4.845671e+00 4.832605e+00 5.592029e+00 3.417441e+00 5.955889e-01 3.991436e-01 8.211127e-02 1.429484e-01 1.368278e-01 4.184183e-01 6.933880e-01 3.817261e-01 4.071640e-01 5.056179e-01 5.458701e-01 9.449233e-01 3.693234e-01 1.681870e-01
<GCONST> 1.116828e+02
<MIXTURE> 3 1.786973e-01
<MEAN> 39
 -8.294024e+00 -2.371141e+00 1.097880e+01 -2.696426e+00 -2.635734e+01 -1.149993e+01 -1.026294e+01 -1.191723e+01 -1.453854e+01 -1.292138e+01 7.895369e+00 -8.552162e+00 7.345033e+01 7.733789e-01 -8.681481e-01 1.931019e-01 -7.275340e-02 -1.128159e+00 -1.660470e+00 -8.316889e-01 1.606260e+00 -6.011297e-01 -4.534562e-01 2.529585e+00 4.832328e-01 2.715852e-01 -5.767539e-01 4.974874e-02 -3.799141e-01 2.311259e-01 1.235599e+00 6.119641e-01 1.897442e-01 4.119114e-01 7.705955e-01 5.032530e-01 -3.513818e-01 9.195262e-01 -3.000967e-01
<VARIANCE> 39
 1.844619e+01 4.109055e+01 3.045879e+01 8.186197e+00 1.982455e+01 1.875841e+01 1.369888e+01 4.916081e+01 1.030050e+01 1.772249e+01 2.163160e+01 6.689106e+00 1.109182e+01 7.557663e-01 5.670996e-01 8.207269e-01 5.039046e-01 5.852519e+00 1.510300e+00 1.486865e+00 1.875739e+00 1.986939e+00 1.221573e+00 3.291836e+00 2.042860e+00 3.839848e-01 1.287868e-01 1.118739e-01 2.251821e-01 1.113490e-01 2.738648e-01 4.531235e-01 3.612590e-01 3.938116e-01 3.070869e-01 3.378911e-01 3.852719e-01 1.998139e-01 1.227217e-01
<GCONST> 9.326522e+01
<STATE> 3
<NUMMIXES> 3
<MIXTURE> 1 2.696764e-01
<MEAN> 39
 -1.692779e+00 -4.099658e+00 1.179847e+01 1.124532e+00 -1.319382e+01 -1.702672e+01 -1.952363e+00 2.465265e+00 -1.123842e+01 -5.002818e-01 2.439519e+00 2.868986e+00 7.771316e+01 2.988638e-01 2.073611e-01 -6.907424e-01 6.718519e-02 7.171606e-01 -2.937222e-01 -1.687824e-01 1.611299e-01 8.061057e-01 -1.744506e-02 -1.754150e-01 6.177043e-01 -4.291825e-01 -7.063226e-02 2.749404e-01 -2.326977e-02 -5.515125e-02 1.906267e-01 2.511112e-01 1.398588e-02 -3.626781e-01 2.390254e-01 1.083906e-01 -1.465042e-01 -1.445386e-02 -1.584164e-01
<VARIANCE> 39
 1.311792e+01 2.263586e+01 1.055803e+01 6.697662e+00 2.548355e+01 1.317491e+01 2.662329e+01 1.293719e+01 1.567284e+01 3.426100e+01 4.627380e+01 1.028295e+01 2.554385e+00 5.693312e-02 8.970999e-01 3.270148e-01 4.676722e-01 8.855497e-01 1.324559e+00 9.603596e-01 1.586632e+00 1.155241e+00 8.861420e-01 3.500197e-01 7.623985e-01 2.329637e-01 2.925933e-02 5.279101e-02 6.130048e-02 5.266528e-02 1.535421e-01 1.956853e-01 2.125128e-01 2.262026e-01 2.346390e-01 1.223444e-01 1.453240e-01 1.657922e-01 1.423968e-02
<GCONST> 6.937343e+01
<MIXTURE> 2 1.703491e-01
<MEAN> 39
 -1.078992e+01 3.237411e+00 3.366915e+00 5.395101e+00 -1.698365e+01 -1.181051e+01 -1.524037e+01 -3.841112e+00 -1.288309e+01 -1.820217e+01 5.028832e+00 2.003451e+00 7.545445e+01 4.293441e-01 1.324284e-01 -4.777414e-01 6.653399e-01 1.052468e+00 2.978408e-02 -9.278026e-02 3.954829e-01 4.820731e-01 -6.079528e-02 -4.740400e-01 8.659928e-01 -3.475083e-01 7.820787e-02 -2.984996e-03 -4.735967e-02 -6.307392e-02 -9.144399e-02 8.021763e-02 1.626315e-01 -9.752794e-02 -4.995545e-03 1.002182e-01 -5.760775e-02 -1.783303e-01 -1.855248e-01
<VARIANCE> 39
 3.154155e+00 1.586323e+00 3.458565e+00 3.241953e+00 1.743821e+01 6.641730e+00 5.006517e+00 1.701519e+01 1.085384e+01 9.990813e+00 2.440429e+01 1.103081e+01 2.703974e+00 1.299011e-01 1.709682e-01 3.705091e-01 3.036069e-01 8.682043e-01 1.432857e+00 1.044931e+00 1.948587e+00 7.126346e-01 1.451759e+00 3.668720e+00 2.433690e+00 5.990762e-01 1.486738e-02 4.032351e-02 9.958035e-02 6.561130e-02 1.266608e-01 3.933662e-01 2.860422e-01 3.546143e-01 1.620857e-01 2.069494e-01 9.004188e-01 5.413157e-01 2.268910e-02
<GCONST> 6.718849e+01
<MIXTURE> 3 5.599746e-01
<MEAN> 39
 -4.080250e+00 -3.514196e+00 9.115088e+00 -2.545335e+00 -1.273819e+01 -1.626258e+01 -1.404380e+01 -7.071349e+00 -2.435551e+00 -1.084586e+01 8.202453e+00 -1.262733e-02 6.852264e+01 3.462048e-01 2.187980e-01 -6.127750e-01 7.806450e-02 7.315180e-01 -9.764905e-02 -6.252738e-01 4.633588e-01 5.373821e-01 1.586417e-02 -2.520799e-01 5.161066e-01 -3.975435e-01 -3.272430e-02 1.120735e-01 2.441461e-02 2.576697e-03 -2.389458e-02 8.152390e-02 1.012944e-01 -1.102121e-01 -2.691891e-02 1.729704e-01 -1.349241e-01 -4.327047e-02 -1.017739e-01
<VARIANCE> 39
 6.284945e+00 3.827556e+01 1.552085e+01 6.140893e+00 7.722311e+01 7.545037e+00 1.556996e+01 1.632607e+01 2.909067e+01 3.756949e+01 2.898591e+01 2.593177e+01 1.235502e+01 1.726810e-01 5.141624e-01 2.809684e-01 5.425893e-01 4.517286e-01 6.754953e-01 9.546916e-01 1.187967e+00 1.012635e+00 1.353567e+00 1.325388e+00 1.947735e+00 1.712284e-01 2.163389e-02 6.248143e-02 5.653428e-02 8.321007e-02 1.038844e-01 1.320201e-01 1.615715e-01 1.575486e-01 1.804410e-01 2.827776e-01 2.272761e-01 2.748750e-01 2.507781e-02
<GCONST> 7.453133e+01
<STATE> 4
<NUMMIXES> 3
<MIXTURE> 1 4.262001e-01
<MEAN> 39
 -3.670585e+00 2.054067e+00 5.153240e+00 1.498371e+00 -3.293015e+00 -9.473813e+00 -2.681727e+00 -1.293478e+00 -2.927799e+00 4.886390e-01 6.138800e-01 3.773437e+00 6.674724e+01 -6.163321e-01 2.628780e-02 -5.170817e-01 1.899019e-01 1.051036e+00 1.756980e+00 7.294251e-01 2.312161e-01 4.662061e-01 1.617759e-01 -8.713929e-02 -4.008397e-01 -9.665360e-01 -5.460218e-02 -1.880448e-01 -3.945360e-02 5.296526e-02 -1.871786e-02 4.288267e-02 2.562309e-02 1.345822e-01 -2.706081e-02 -5.888398e-02 8.921145e-02 2.261989e-02 5.652114e-02
<VARIANCE> 39
 1.805272e+01 6.716586e+00 1.047883e+01 7.879692e+00 1.905145e+01 6.856327e+01 4.183632e+01 1.240025e+01 1.260490e+01 1.624410e+01 2.424081e+01 1.471956e+01 2.529867e+01 2.095071e-01 6.685184e-01 4.696822e-01 7.185943e-01 8.772567e-01 1.757321e+00 2.045208e+00 2.261251e+00 1.067827e+00 1.300363e+00 1.310193e+00 9.635101e-01 4.757540e-01 3.881437e-02 5.993205e-02 5.197220e-02 1.457762e-01 1.831325e-01 3.567647e-01 3.501808e-01 3.379712e-01 2.165581e-01 2.535655e-01 2.068435e-01 2.176727e-01 4.803523e-02
<GCONST> 8.262874e+01
<MIXTURE> 2 2.543206e-01
<MEAN> 39
 -1.529042e+00 -1.464860e+00 6.822437e+00 -1.197935e+00 -8.912617e+00 -1.630155e+01 -1.569478e+01 -4.012266e+00 6.553544e-01 -5.365908e+00 6.262748e+00 -1.452704e+00 6.024495e+01 -4.221894e-01 5.615491e-01 -5.020798e-01 3.312674e-01 9.159836e-01 2.670665e-01 4.265863e-01 -8.994791e-02 -6.440818e-01 1.103696e+00 -1.496683e-02 -2.121153e-01 -1.276333e+00 -1.936532e-01 -4.393718e-02 -1.155939e-01 -3.210253e-02 7.916816e-02 1.762323e-01 2.900049e-01 1.643032e-02 -4.878977e-02 -1.566528e-01 -1.140905e-01 -7.190057e-02 -6.919184e-02
<VARIANCE> 39
 1.109374e+01 1.174152e+01 1.075430e+01 1.313297e+01 8.302555e+01 2.113302e+01 6.548597e+00 8.977984e+00 1.035946e+01 1.175165e+01 6.960879e+00 3.736457e+00 1.814368e+01 6.351625e-01 1.682113e+00 1.190429e+00 7.917635e-01 7.665245e-01 8.704571e-01 1.345560e+00 5.739787e-01 4.268727e-01 1.044486e+00 6.960109e-01 8.614489e-01 5.800611e-01 7.703132e-02 3.697657e-01 1.935175e-01 1.081477e-01 2.196156e-01 2.967830e-01 2.167175e-01 1.261076e-01 1.475139e-01 1.670506e-01 2.127030e-01 1.685994e-01 1.024875e-01
<GCONST> 7.841508e+01
<MIXTURE> 3 3.194793e-01
<MEAN> 39
 -6.214022e+00 2.608182e+00 1.768230e-01 3.597149e+00 -5.410674e+00 -9.572013e+00 -9.986917e+00 -5.716334e+00 -5.229792e+00 -5.117343e+00 4.797963e+00 3.444773e+00 5.787727e+01 -3.288715e-01 -1.847109e-01 -4.147615e-01 1.052673e-01 6.070707e-01 1.748823e+00 1.566094e+00 2.475502e-01 1.286789e-01 7.413278e-01 -6.200134e-01 -4.622009e-02 -1.395603e+00 5.426417e-03 -8.484881e-02 9.817919e-02 -2.385805e-02 7.902463e-03 1.993984e-01 -9.714297e-03 4.994391e-02 6.809402e-02 -1.503280e-01 -7.833493e-02 -5.911765e-02 1.502381e-01
<VARIANCE> 39
 1.807294e+00 7.833622e+00 6.745942e+00 3.126353e+01 2.589095e+01 3.793973e+01 2.614855e+01 1.480326e+01 2.271675e+01 3.371865e+01 1.796945e+01 3.447470e+01 5.606991e+01 5.325818e-01 6.416458e-01 6.885962e-01 8.673996e-01 2.036860e+00 1.952052e+00 1.768011e+00 2.095744e+00 7.404230e-01 8.852719e-01 2.303404e+00 1.775205e+00 8.752668e-01 4.313852e-02 1.013013e-01 9.542522e-02 1.657977e-01 1.780273e-01 4.313602e-01 2.793180e-01 3.218737e-01 1.265610e-01 1.397087e-01 3.554825e-01 2.596985e-01 1.210918e-01
<GCONST> 8.849370e+01
<TRANSP> 5
 0.000000e+00 1.000000e+00 0.000000e+00 0.000000e+00 0.000000e+00
 0.000000e+00 9.142979e-01 8.570204e-02 0.000000e+00 0.000000e+00
 0.000000e+00 0.000000e+00 9.148260e-01 8.517404e-02 0.000000e+00
 0.000000e+00 0.000000e+00 0.000000e+00 9.124680e-01 8.753206e-02
 0.000000e+00 0.000000e+00 0.000000e+00 0.000000e+00 0.000000e+00
<ENDHMM>
~o
<STREAMINFO> 1 39
<VECSIZE> 39<NULLD><MFCC_D_A_0><DIAGC>
~h "ni"
<BEGINHMM>
<NUMSTATES> 5
<STATE> 2
<NUMMIXES> 3
<MIXTURE> 1 1.248964e-01
<MEAN> 39
 -5.147710e-02 -8.068565e-01 8.241036e+00 -4.009438e+00 -5.474849e+00 -1.814649e+00 -8.192641e+00 -5.606436e+00 -1.287413e+01 5.394900e+00 8.709359e+00 -5.361822e+00 7.584651e+01 -5.900884e-01 -1.408100e+00 1.534637e+00 -2.618871e+00 -1.151307e+00 7.440139e-01 -9.833060e-01 6.861756e-02 -8.388951e-01 8.681559e-01 1.066140e+00 -1.077196e+00 1.900817e+00 -3.989409e-01 -1.019655e-01 -1.258419e-02 3.890657e-02 4.642066e-01 5.767804e-01 5.412446e-01 4.740085e-01 7.780799e-01 -3.969512e-01 -4.028188e-01 1.740564e-01 -4.346040e-01
<VARIANCE> 39
 1.513643e+01 4.246554e+01 1.880527e+01 1.758092e+01 3.336458e+01 4.122077e+01 5.588983e+00 8.879401e+00 4.034568e+01 1.299272e+01 7.741381e+01 1.371358e+01 1.419389e+01 8.991910e-01 5.951790e-01 3.866895e-01 1.009579e+00 5.124073e-01 2.512318e+00 1.149476e+00 5.495455e-01 2.080606e+00 1.026086e+00 1.176678e+00 1.039128e+00 6.343934e-01 1.845774e-01 2.425051e-01 1.404010e-01 4.777056e-01 5.694875e-02 4.792897e-01 1.941448e-01 2.732607e-01 1.901573e-01 1.817187e-01 5.191400e-01 1.498962e-01 3.935739e-02
<GCONST> 8.818939e+01
<MIXTURE> 2 5.909608e-01
<MEAN> 39
 -1.070578e+00 7.975376e+00 6.313032e+00 2.023119e+00 -5.000621e+00 -2.686282e+00 -3.301807e+00 -1.088068e+01 -2.938537e+00 -1.008875e+00 7.091184e-01 -2.537611e+00 5.905241e+01 4.059030e-01 5.658101e-01 1.160666e+00 -1.753622e+00 -9.587281e-01 -3.814149e-01 -1.239960e+00 -1.117592e+00 -6.535769e-01 2.790253e-01 2.497741e-01 -2.725705e-01 2.078892e+00 -5.174833e-01 -2.861031e-01 7.163943e-02 -7.372683e-01 1.917797e-01 4.554527e-01 -1.961423e-01 3.583947e-01 1.230994e-01 -2.362970e-02 1.208469e-01 -2.512728e-02 5.158708e-02
<VARIANCE> 39
 1.081128e+01 1.355848e+01 2.524532e+01 3.335464e+01 4.822827e+01 2.860002e+01 1.741225e+01 5.276094e+01 1.106336e+02 4.832624e+01 2.888311e+01 2.366998e+01 3.822507e+01 3.418853e+00 1.054456e+00 1.349287e+00 5.739984e+00 3.248095e+00 3.177694e+00 2.510035e+00 4.606694e+00 5.471208e+00 1.818929e+00 3.637268e+00 2.022735e+00 6.728667e-01 2.422746e-01 1.846186e-01 2.039075e-01 5.617464e-01 4.324631e-01 4.312272e-01 4.801516e-01 6.191273e-01 6.487245e-01 3.109824e-01 5.758147e-01 4.105203e-01 1.064784e-01
<GCONST> 1.147674e+02
<MIXTURE> 3 2.841429e-01
<MEAN> 39
 -8.692101e+00 1.052235e+01 1.227428e+01 -1.431101e+01 -2.883511e+00 8.734044e-01 -1.301586e+01 -1.053026e+01 -1.300188e+00 -6.960401e+00 -7.421404e-01 -3.170786e+00 6.779865e+01 -7.543330e-01 4.314379e-02 1.442973e+00 -3.275898e+00 -5.823152e-02 1.518475e+00 -2.016529e+00 -1.511988e-01 1.175137e-01 -8.465016e-01 1.274139e-01 -8.430061e-01 1.339251e+00 2.899896e-01 -2.518432e-01 -5.163762e-01 1.085964e+00 -2.788486e-01 -9.322771e-02 4.987457e-01 3.479434e-01 -7.013824e-02 5.827186e-02 1.355934e-01 5.138300e-02 -4.749248e-01
<VARIANCE> 39
 9.450733e+00 2.214297e+01 2.722353e+01 6.507262e+01 2.384904e+01 3.097811e+01 2.710631e+01 4.382494e+01 2.511643e+01 2.671317e+01 2.508301e+01 1.065602e+01 1.220933e+01 1.125777e+00 5.137513e-01 1.178140e+00 3.862651e+00 1.168205e+00 2.651267e+00 1.285967e+00 2.454594e+00 1.710401e+00 9.476383e-01 1.859572e+00 2.252728e+00 5.057910e-01 1.017501e-01 7.062265e-02 9.038623e-02 4.479758e-01 2.265271e-01 3.031279e-01 1.490919e-01 5.268562e-01 4.397699e-01 1.825552e-01 3.441061e-01 4.312446e-01 2.103740e-02
<GCONST> 9.560978e+01
<STATE> 3
<NUMMIXES> 3
<MIXTURE> 1 3.215249e-01
<MEAN> 39
 -8.527678e-01 -4.005807e+00 1.568191e+01 -1.685769e+01 -1.635541e+01 3.151240e+00 -1.137909e+01 -1.124938e+01 -1.299132e+01 2.835956e+00 8.743432e+00 -5.041077e+00 7.252055e+01 -6.349708e-02 -2.949218e-01 1.518713e-01 -5.058336e-01 -3.594649e-01 4.175086e-01 -8.516343e-01 -1.546657e-01 -1.919667e-01 -2.091823e-01 -3.231118e-02 9.230816e-02 -4.839546e-02 -1.282428e-02 1.282118e-01 -1.297463e-01 1.219159e-01 1.460294e-01 -3.223132e-02 2.425094e-02 -1.119658e-01 1.392286e-01 3.056963e-02 5.532074e-02 8.495218e-02 -1.847039e-01
<VARIANCE> 39
 2.101113e+00 4.052666e+01 1.555788e+01 3.934036e+01 9.168939e+00 1.417598e+01 1.354418e+01 3.370002e+01 2.278303e+01 8.148514e+00 3.013342e+01 1.059807e+01 8.025092e+01 8.026550e-02 4.126157e-01 6.370287e-01 2.897498e-01 7.540416e-01 7.633409e-01 5.606602e-01 9.444184e-01 1.078413e+00 8.391964e-01 9.603089e-01 5.359057e-01 2.727791e-01 3.121231e-02 3.790472e-02 7.910487e-02 1.188710e-01 1.184514e-01 1.299189e-01 8.322623e-02 1.332577e-01 2.503698e-01 1.652043e-01 1.833293e-01 9.015530e-02 1.165643e-02
<GCONST> 6.873380e+01
<MIXTURE> 2 1.357109e-01
<MEAN> 39
 -7.387146e+00 6.051130e+00 1.437336e+01 -1.292547e+01 3.810407e+00 7.695641e+00 -1.189063e+01 -5.492905e+00 -2.473294e+00 5.594662e+00 -5.487744e-01 -1.420752e+01 7.606678e+01 4.494836e-02 1.373938e-01 -3.244652e-01 -1.827004e-01 2.615931e-01 -3.636056e-02 -3.787744e-01 -2.073085e-01 3.506564e-01 -5.378138e-01 -6.440195e-02 -3.760509e-01 -1.755929e-01 1.656954e-01 1.454339e-01 -2.444199e-01 3.973023e-01 6.861201e-02 -3.149202e-01 1.137977e-01 1.456803e-01 -2.825184e-02 -1.683426e-01 -1.473718e-01 3.035625e-01 -4.103326e-01
<VARIANCE> 39
 5.848539e-01 1.102199e+00 4.326307e+00 4.258471e+00 3.425312e+00 3.445304e+00 3.312593e+00 2.184118e+00 7.038959e+00 9.253283e+00 1.662335e+00 4.980712e+00 1.405098e+00 3.468753e-01 5.120043e-01 9.047929e-01 1.861922e+00 4.341030e-01 6.829585e-01 2.276759e-01 2.405769e-01 3.577276e-01 5.249465e-01 5.328861e-01 6.466498e-01 1.210382e+00 2.749395e-02 5.391182e-02 6.736112e-02 1.027164e-01 1.113048e-01 8.971623e-02 3.751284e-02 1.362765e-01 9.338329e-02 1.495559e-01 4.693491e-02 7.234617e-02 2.459474e-02
<GCONST> 4.232331e+01
<MIXTURE> 3 5.427641e-01
<MEAN> 39
 -1.068643e+01 9.292214e+00 1.384722e+01 -1.638602e+01 -1.575037e+00 -1.128262e-01 -1.641187e+01 -6.890389e+00 -5.178361e-01 -1.131186e+01 1.531743e+00 -4.013819e+00 6.881268e+01 2.670771e-03 -3.543103e-02 -6.775676e-02 4.427884e-02 -7.784711e-02 -1.475504e-01 1.202821e-01 1.799577e-01 1.602285e-02 -1.580835e-01 2.026607e-01 -1.679725e-02 -2.966491e-01 2.820650e-02 -4.526605e-02 -7.089026e-02 1.197721e-01 2.201670e-02 -9.593111e-02 1.138791e-01 5.699034e-03 -1.613223e-02 1.320871e-01 -2.273897e-02 7.146612e-02 -1.267514e-01
<VARIANCE> 39
 3.613455e+00 1.014452e+01 2.841474e+01 3.714837e+01 7.389176e+00 4.934952e+01 1.794499e+01 2.648312e+01 2.678184e+01 3.140825e+01 9.200578e+01 1.041098e+01 6.242622e+00 1.239791e-01 3.235725e-01 2.222398e-01 3.638699e-01 2.603221e-01 8.068768e-01 8.932403e-01 6.115080e-01 5.767866e-01 1.227527e+00 7.878894e-01 6.211113e-01 2.093121e-01 2.896554e-02 5.202334e-02 4.363034e-02 6.525850e-02 4.135197e-02 1.390969e-01 1.416165e-01 1.245298e-01 1.026894e-01 2.203009e-01 1.759586e-01 1.571985e-01 2.456467e-02
<GCONST> 6.657620e+01
<STATE> 4
<NUMMIXES> 3
<MIXTURE> 1 6.882799e-01
<MEAN> 39
 -8.542473e+00 5.673907e+00 5.560092e+00 -5.256053e+00 5.055301e-01 2.419810e+00 -8.292374e+00 -2.775656e+00 -2.382863e+00 -5.485643e+00 -6.502898e-01 -2.705208e+00 5.939871e+01 -1.734746e-01 -7.336818e-01 -1.195419e+00 1.769870e+00 5.978290e-01 8.173384e-03 1.555549e+00 8.684171e-01 1.989573e-01 6.484601e-01 3.514751e-01 8.273472e-01 -1.459159e+00 -3.872285e-02 -4.737611e-02 9.669336e-02 -1.674748e-01 -1.013210e-01 9.779005e-02 2.916462e-02 -1.412584e-01 8.314838e-02 6.791985e-02 7.857019e-02 -7.373508e-02 2.142266e-01
<VARIANCE> 39
 6.125939e+00 1.864108e+01 1.373128e+01 3.745475e+01 2.317950e+01 2.277207e+01 3.183103e+01 2.607775e+01 1.251545e+01 4.208979e+01 3.558075e+01 2.063904e+01 5.760566e+01 4.292233e-01 6.641272e-01 1.916274e+00 1.635570e+00 1.170274e+00 2.162868e+00 1.654241e+00 1.883789e+00 2.155791e+00 2.615862e+00 1.415992e+00 1.629823e+00 6.404871e-01 6.402864e-02 1.452169e-01 3.324102e-01 3.304375e-01 1.326879e-01 2.040258e-01 3.267796e-01 2.801049e-01 3.463217e-01 3.502195e-01 2.726820e-01 2.321306e-01 8.258132e-02
<GCONST> 9.639030e+01
<MIXTURE> 2 2.051025e-01
<MEAN> 39
 -6.268272e+00 -6.826492e-01 1.210018e+01 -1.405957e+01 -7.389466e+00 -2.700296e-01 -1.283626e+01 -1.006438e+01 -5.274675e+00 -2.162964e+00 9.273930e+00 1.721168e-01 6.960550e+01 -3.572464e-01 4.046791e-01 -1.128447e+00 1.397791e+00 1.255363e+00 2.394591e-04 1.063557e+00 5.944358e-01 7.629502e-01 -7.107753e-02 -1.724153e+00 1.702809e-01 -1.637044e+00 9.766664e-02 -4.443788e-03 -2.852938e-01 4.915480e-01 1.753473e-01 2.169012e-01 2.670128e-01 5.581390e-01 -1.752617e-01 -3.438326e-02 -1.783992e-01 -7.125937e-02 -2.005275e-01
<VARIANCE> 39
 3.281304e+01 4.434637e+01 2.895409e+01 6.217392e+01 2.714710e+01 7.325562e+01 1.610608e+01 4.960914e+01 4.589047e+01 1.089086e+01 2.398017e+01 1.829860e+01 5.755221e+01 2.347868e-01 1.380582e+00 4.654305e-01 1.265623e+00 7.212220e-01 8.902580e-01 7.437031e-01 2.025003e+00 3.483595e+00 3.837607e-01 6.235281e-01 7.363394e-01 5.523274e-01 4.783833e-02 1.339796e-01 1.275216e-01 2.056621e-01 4.958190e-02 4.098836e-01 1.424664e-01 2.112347e-01 3.219650e-01 2.421203e-01 2.884791e-01 1.430470e-01 1.075127e-01
<GCONST> 9.025422e+01
<MIXTURE> 3 1.066176e-01
<MEAN> 39
 -6.557406e+00 2.057369e+00 1.600887e+01 -2.281302e+01 -1.502572e+01 4.193426e+00 -1.925796e+01 -1.230404e+01 -9.197247e+00 5.751146e+00 1.018278e+01 -7.466553e+00 5.523125e+01 -1.478622e+00 9.481086e-02 -1.883319e+00 2.697046e+00 1.416439e+00 -4.900609e-01 9.460961e-01 2.126359e+00 1.382865e+00 3.164068e-01 9.115487e-01 9.623092e-01 -2.619696e+00 -8.480815e-02 -3.131979e-02 -6.835452e-01 9.800345e-01 4.607767e-01 -2.470034e-01 8.972570e-01 3.919635e-01 4.656044e-01 -3.010137e-01 -4.744323e-01 4.338372e-01 -2.324152e-01
<VARIANCE> 39
 8.746778e+00 7.558948e-01 1.216070e+01 3.303057e+01 1.697708e+01 6.898696e+00 2.916412e+00 1.989613e+01 6.847517e+00 8.460929e+00 8.979302e+00 1.185484e+01 2.084677e+01 1.321629e-01 2.151046e-01 4.381314e+00 6.265848e+00 1.659747e+00 1.118355e+00 3.575249e+00 1.414217e+00 5.258973e-01 1.726242e+00 1.391176e+00 2.535372e+00 7.170080e-01 7.899031e-02 3.821900e-02 3.231791e-01 4.761406e-01 1.148602e-01 1.820738e-01 9.408359e-02 2.597450e-01 7.582013e-02 1.799099e-01 9.160362e-02 3.836704e-01 1.486894e-01
<GCONST> 7.817005e+01
<TRANSP> 5
 0.000000e+00 1.000000e+00 0.000000e+00 0.000000e+00 0.000000e+00
 0.000000e+00 8.636466e-01 1.363534e-01 0.000000e+00 0.000000e+00
 0.000000e+00 0.000000e+00 9.142895e-01 8.571053e-02 0.000000e+00
 0.000000e+00 0.000000e+00 0.000000e+00 8.834810e-01 1.165190e-01
 0.000000e+00 0.000000e+00 0.000000e+00 0.000000e+00 0.000000e+00
<ENDHMM>
~o
<STREAMINFO> 1 39
<VECSIZE> 39<NULLD><MFCC_D_A_0><DIAGC>
~h "roku"
<BEGINHMM>
<NUMSTATES> 9
<STATE> 2
<NUMMIXES> 3
<MIXTURE> 1 2.264144e-01
<MEAN> 39
 -1.875981e+00 -1.800376e+00 8.762476e-02 6.513992e+00 3.994531e+00 5.493361e+00 2.477436e+00 3.803516e+00 3.889074e+00 3.195510e+00 6.155680e+00 3.438315e+00 6.567753e+01 9.958255e-01 4.272304e-01 -2.624124e-01 -5.456470e-01 -9.126279e-01 -6.515695e-01 -1.136306e+00 -6.339477e-01 5.086965e-02 -2.242520e-01 -2.095640e-01 -3.790412e-01 1.084782e+00 -9.702337e-02 -3.573640e-02 -2.394822e-01 -3.698835e-01 1.654236e-02 -3.650456e-02 -9.213060e-04 -6.424268e-02 -8.569237e-02 7.708127e-02 7.510085e-02 -2.305878e-01 1.028584e-01
<VARIANCE> 39
 5.221519e+00 1.042858e+01 2.145038e+01 1.973389e+01 1.999818e+01 3.277784e+01 1.208748e+01 2.341101e+01 3.564976e+00 2.476036e+01 2.691019e+01 1.115588e+01 5.225778e+00 1.324351e+00 1.876214e+00 9.448630e-01 2.106850e+00 1.454277e+00 2.296212e+00 1.297900e+00 1.972373e+00 9.002216e-01 4.359846e+00 2.668641e+00 1.381388e+00 1.760857e+00 1.706906e-01 4.092331e-01 3.471666e-01 6.286579e-01 4.152654e-01 6.686549e-01 1.370628e-01 4.674733e-01 8.388358e-02 1.002113e+00 4.932485e-01 3.672254e-01 8.275288e-02
<GCONST> 9.778488e+01
<MIXTURE> 2 2.800159e-01
<MEAN> 39
 2.347359e+00 -3.549211e+00 1.680308e+00 1.499677e+01 -1.381057e+00 -1.460138e+01 -1.613370e+01 -5.412250e+00 -1.730105e+00 -1.394766e+01 -3.096259e+00 4.505074e-01 6.099477e+01 1.086674e+00 -1.190557e+00 -6.581329e-01 -9.821903e-01 -1.482535e+00 4.187847e-02 -1.524060e+00 -1.770941e+00 1.523998e+00 4.254406e-01 1.038456e+00 -5.296090e-01 3.037461e+00 -7.533967e-01 3.988394e-01 -6.500520e-01 -1.805572e+00 2.487758e-02 1.816783e+00 1.013643e+00 -2.972059e-01 2.329917e-01 1.332512e+00 5.196577e-01 1.361316e-01 -1.550953e-01
<VARIANCE> 39
 4.591910e+00 1.313366e+01 4.113785e+01 5.097469e+01 3.650378e+01 1.594100e+01 1.250241e+01 6.779369e+00 1.981699e+01 2.268934e+01 2.963579e+01 4.088202e+01 1.298248e+01 1.720616e+00 1.501765e+00 2.341267e+00 1.205954e+01 2.593404e+00 1.206684e+01 5.058528e+00 2.056895e+00 1.884927e+00 8.391979e+00 2.716198e+00 1.681310e+00 9.291274e-01 9.066945e-02 3.903567e-01 5.465519e-01 7.213009e-01 3.963709e-01 7.012571e-01 9.669025e-01 3.483446e-01 4.947946e-01 4.591589e-01 3.702066e-01 2.076986e-01 1.538054e-01
<GCONST> 1.117248e+02
<MIXTURE> 3 4.935698e-01
<MEAN> 39
 -7.797043e-01 2.751723e-01 -2.848255e+00 -3.125069e+00 -2.925123e+00 -1.982509e+00 -1.215633e+01 -1.012488e+01 6.917614e+00 -4.866275e-01 3.459694e+00 -5.778759e+00 6.863414e+01 9.396580e-02 9.697521e-01 -1.761225e+00 -3.960106e+00 4.069791e-01 1.525235e+00 2.806985e-01 -2.225334e+00 -5.556199e-01 1.284438e+00 1.461678e+00 -6.368539e-01 1.937367e+00 -2.506607e-01 2.668374e-01 5.350549e-02 -5.256276e-02 3.702599e-01 1.844151e-01 8.066128e-01 3.374326e-01 -7.194384e-01 -5.069389e-01 1.293550e-01 5.786407e-01 -5.190336e-01
<VARIANCE> 39
 1.014442e+01 1.982188e+01 2.291010e+01 6.819992e+01 4.957041e+01 2.586831e+01 3.098569e+01 4.527198e+01 3.484893e+01 3.535025e+01 2.962895e+01 2.969132e+01 3.085857e+01 1.753141e+00 2.039703e+00 2.477249e+00 7.263433e+00 3.261874e+00 6.925121e+00 8.001849e+00 3.665211e+00 5.355859e+00 4.052344e+00 2.162505e+00 2.966755e+00 1.341332e+00 1.873104e-01 3.131900e-01 3.298599e-01 1.135345e+00 6.013280e-01 5.215821e-01 8.177886e-01 7.115747e-01 4.632322e-01 1.391612e+00 3.484326e-01 4.754821e-01 1.825459e-01
<GCONST> 1.224965e+02
<STATE> 3
<NUMMIXES> 3
<MIXTURE> 1 3.204260e-01
<MEAN> 39
 -8.306803e-01 7.954972e+00 -6.643387e+00 -9.300004e+00 2.026871e+00 4.107919e+00 -4.549640e+00 -6.088891e+00 -7.743718e+00 2.147045e+00 7.027092e+00 -4.189529e+00 7.060486e+01 -6.471179e-01 3.559620e-01 6.765724e-01 4.540791e-01 5.039380e-01 2.012463e-01 9.330550e-01 9.798382e-01 -2.353454e+00 -1.603504e+00 -8.307046e-02 1.679901e+00 -1.490878e+00 -4.404535e-01 -7.289062e-01 6.108528e-01 1.264418e+00 -5.229688e-02 -3.433845e-01 4.673263e-02 5.106884e-01 8.745593e-01 -2.346747e-01 -6.240860e-01 1.480822e-02 -6.367477e-01
<VARIANCE> 39
 4.163995e+00 5.268041e+00 2.220674e+00 6.537163e+00 2.534421e+01 2.536056e+01 1.493438e+01 4.602095e+01 2.768811e+01 1.975903e+01 1.246848e+01 3.919677e+01 1.827036e+01 4.212031e-01 1.292034e+00 1.031651e+00 4.103881e+00 6.981450e-01 1.903549e+00 2.362600e+00 2.603569e+00 2.638969e+00 1.247602e+00 2.094871e+00 3.020149e+00 1.929660e+00 2.078371e-01 8.063009e-02 1.407668e-01 1.651196e-01 2.917730e-01 3.236636e-01 4.233001e-01 1.619613e+00 3.188674e-01 5.313104e-01 1.784181e-01 8.389168e-01 1.091186e-01
<GCONST> 9.599241e+01
<MIXTURE> 2 4.719088e-01
<MEAN> 39
 -3.039664e+00 4.843412e+00 -7.295575e+00 -2.026982e+01 -1.618603e-01 1.441625e+00 -5.030497e+00 -1.402299e+01 2.723361e+00 -1.106897e+01 8.510009e+00 5.757459e+00 7.315461e+01 5.178983e-01 1.255007e+00 1.719103e-01 -1.690477e+00 -6.841319e-01 6.003069e-01 1.312172e+00 1.032495e+00 -6.081737e-01 -1.867979e+00 -6.940551e-01 1.088340e+00 -7.524122e-01 2.472017e-01 -1.903925e-01 2.362584e-01 1.217146e+00 -4.029470e-02 -5.015451e-01 -2.729831e-02 2.430903e-01 -1.074614e-01 3.308764e-01 -5.296314e-01 -3.485728e-01 -6.659852e-01
<VARIANCE> 39
 9.591537e+00 9.539244e+00 3.573333e+00 4.289246e+01 1.875866e+01 7.836765e+01 8.837536e+01 1.440121e+01 2.516422e+01 5.779053e+01 2.290535e+01 3.142017e+01 2.055003e+00 5.335140e-01 3.046089e-01 5.912630e-01 5.663754e+00 1.746779e+00 2.934885e+00 1.850047e+00 3.854585e-01 1.594282e+00 5.523145e+00 2.462630e+00 2.293329e+00 1.089031e+00 1.251728e-01 5.282825e-02 1.052181e-01 3.021496e-01 4.045085e-01 5.603349e-01 5.843228e-01 1.572019e-01 1.527743e-01 2.144732e+00 3.507954e-01 4.459114e-01 6.021069e-02
<GCONST> 9.680880e+01
<MIXTURE> 3 2.076654e-01
<MEAN> 39
 4.473600e+00 -8.869849e-01 -1.000809e+01 -2.260981e+01 -1.367250e+01 8.194526e+00 -4.501563e+00 -2.140132e+01 7.063520e+00 -9.717494e-01 8.399017e+00 -3.267320e+00 7.045563e+01 4.398635e-02 3.433890e-01 -1.820901e-02 -1.218846e+00 -1.084749e+00 1.502893e+00 9.261882e-01 -4.257522e-01 -1.019331e+00 -1.297554e+00 6.947905e-01 5.078536e-01 1.313000e-02 -1.169820e-01 -2.763887e-02 7.078064e-01 3.959578e-01 -1.106390e-01 -3.070481e-01 -7.763671e-01 9.064270e-01 -3.808999e-01 -3.187521e-01 -1.101156e-01 -2.911021e-01 -1.655491e-01
<VARIANCE> 39
 7.459288e-01 5.934519e+00 9.183614e+00 1.314283e+01 1.655764e+01 8.905647e+00 1.777785e+01 7.656919e+00 2.389422e+01 6.473476e+00 1.844417e+01 1.346586e+01 1.026541e+00 2.449068e-01 4.644765e-01 1.912324e+00 1.256453e-01 1.108465e+00 6.644163e-01 5.827191e+00 3.333009e+00 8.407677e-01 1.042290e+00 2.299968e+00 2.421087e+00 2.909338e-02 2.369911e-02 8.116022e-02 3.167868e-01 1.772608e-01 6.524929e-01 8.652022e-02 6.317531e-01 3.842935e-01 3.579223e-01 1.935829e-01 5.859624e-01 4.371800e-01 2.070430e-02
<GCONST> 7.422431e+01
<STATE> 4
<NUMMIXES> 3
<MIXTURE> 1 9.589211e-02
<MEAN> 39
 3.934814e+00 2.700448e+00 -5.209510e+00 -2.308319e+01 -1.594459e+01 1.297745e+01 -1.024405e+01 -1.255641e+01 -2.899740e+00 -1.091981e+01 1.071409e+01 -3.648418e+00 6.869497e+01 -6.623177e-02 1.100502e+00 5.289115e-01 1.787610e+00 1.766340e+00 -1.819957e-01 1.138647e+00 2.350018e+00 -2.787429e+00 -1.702912e-02 -5.447665e-01 -1.980315e-02 -2.415340e+00 -2.902218e-01 -1.404075e-02 -2.316149e-01 9.469998e-01 1.197723e+00 -3.653389e-01 9.753917e-01 -1.016533e-01 -2.769509e-02 9.552470e-01 -5.745251e-01 1.149417e+00 -9.276482e-01
<VARIANCE> 39
 3.177470e+00 1.965587e+01 2.307646e+00 2.357715e+01 6.708871e+00 3.365422e+00 6.833097e+00 1.520021e+01 4.106965e+01 3.418775e+01 1.708791e+01 3.303186e+01 4.036059e+00 1.449452e-01 9.352886e-01 8.112890e-01 1.808421e+00 3.351621e+00 5.548365e-01 7.811497e+00 1.847984e+00 2.398298e+00 6.488704e+00 1.909033e+00 4.380327e+00 2.336339e+00 1.341537e-01 2.885022e-01 1.114341e-01 1.032732e-01 2.558288e-01 9.803044e-02 5.335115e-01 1.959777e-01 1.042621e+00 4.029875e-01 3.877681e-01 4.216549e-01 2.283674e-01
<GCONST> 9.212361e+01
<MIXTURE> 2 4.824370e-01
<MEAN> 39
 -7.220651e+00 2.563600e+00 -1.698208e+00 1.321823e+00 2.927119e+00 1.583873e+00 1.511072e+00 -2.079683e+00 -1.792062e+00 -1.870655e+00 1.539091e+00 7.674817e-01 5.855787e+01 -7.833756e-01 -6.397554e-01 1.053714e-01 8.485770e-01 3.427312e-01 9.424343e-02 4.369930e-01 6.067784e-01 1.190319e+00 5.963998e-01 -2.446238e-02 6.973334e-03 -5.435357e-01 1.377080e-01 -4.307220e-02 -4.179738e-01 -4.922054e-01 1.357546e-02 -6.470025e-02 -3.401344e-01 -2.358989e-01 -1.384466e-01 2.169392e-01 1.601213e-01 -1.317143e-02 4.492951e-01
<VARIANCE> 39
 1.127384e+01 1.092150e+01 9.198589e+00 1.471016e+01 1.868658e+01 3.367273e+01 1.867028e+01 2.186985e+01 2.810159e+01 1.806388e+01 1.388448e+01 1.106854e+01 3.463218e+01 5.114057e-01 4.710167e-01 1.081683e+00 1.648366e+00 9.707618e-01 2.591886e+00 1.398610e+00 1.513537e+00 2.173113e+00 1.898655e+00 1.176671e+00 7.215934e-01 3.368194e-01 1.239665e-01 2.031328e-01 1.637685e-01 1.552764e-01 4.036879e-01 5.335343e-01 3.133770e-01 3.787119e-01 5.214888e-01 3.475321e-01 2.312893e-01 1.395405e-01 1.049286e-01
<GCONST> 9.124081e+01
<MIXTURE> 3 4.216709e-01
<MEAN> 39
 -2.397351e+00 6.158569e+00 -5.659103e+00 -1.141359e+01 -1.043244e+00 2.686448e+00 4.683867e-01 -6.887445e+00 -5.125358e+00 -4.548062e+00 2.469369e+00 5.871106e+00 5.702102e+01 -1.447749e+00 -7.319072e-01 -3.169997e-02 2.157874e+00 6.264375e-01 -1.008550e+00 7.715493e-01 7.462221e-01 2.915333e-01 1.524902e+00 -7.245010e-01 4.070012e-01 -2.533366e+00 -1.179008e-01 -2.861165e-01 -4.150437e-02 -1.068565e-01 -2.448947e-01 3.466120e-02 -2.107389e-01 -9.710376e-02 4.715665e-01 -4.655048e-02 2.661804e-01 -3.517205e-01 4.340707e-01
<VARIANCE> 39
 2.558155e+01 1.120315e+01 6.615416e+00 3.248708e+01 2.428868e+01 9.379257e+01 1.745644e+01 1.112137e+01 3.505417e+01 7.594727e+01 1.450051e+01 2.846681e+01 3.329466e+01 1.220722e+00 8.116737e-01 1.105124e+00 1.076653e+00 3.816225e+00 3.645951e+00 2.376727e+00 2.019364e+00 3.010407e+00 4.571528e+00 2.094296e+00 5.705609e+00 1.783091e+00 3.576663e-01 2.430024e-01 1.698551e-01 1.722747e-01 5.836091e-01 6.532067e-01 3.207515e-01 2.370865e-01 7.305025e-01 9.997435e-01 2.412650e-01 9.292282e-01 2.161154e-01
<GCONST> 1.103108e+02
<STATE> 5
<NUMMIXES> 3
<MIXTURE> 1 1.031834e-01
<MEAN> 39
 -5.812446e+00 -6.173201e-02 -1.150037e+01 4.103482e+00 2.799900e+00 -1.310752e+01 -1.651228e+00 -5.036147e+00 5.340030e+00 1.407947e+00 -2.836399e+00 -3.199784e+00 7.675321e+01 2.132945e+00 2.904728e+00 3.515940e+00 2.604877e+00 -5.543442e-01 -2.129663e+00 -1.974112e+00 5.304755e-01 -6.721850e-01 -4.862900e-01 1.180706e+00 -1.640433e+00 1.760842e+00 4.130704e-02 2.254062e-01 1.350953e+00 6.419746e-03 -3.789736e-01 6.965837e-01 -5.171920e-01 3.022731e-01 -8.710726e-01 -6.959590e-02 9.343138e-01 -1.588790e-01 -1.385204e+00
<VARIANCE> 39
 7.939449e+00 3.701279e+01 4.289046e+01 1.864669e+01 4.654431e+00 1.211731e+01 1.251450e+01 1.384986e+01 1.684287e+01 6.498579e+00 1.213483e+01 4.643565e+00 6.240298e+00 1.468752e-01 4.439892e-01 4.382966e+00 3.545768e-01 4.695713e-01 3.288555e+00 2.082145e+00 1.008172e+00 2.283912e+00 6.356277e-01 3.599746e+00 5.940567e-01 4.310585e+00 1.855073e-01 1.023484e+00 1.462679e+00 5.400041e-01 2.255383e-01 2.710637e-01 2.991437e-01 8.860523e-02 1.755632e-01 1.741771e-01 3.171639e-01 1.339009e-01 2.274267e-01
<GCONST> 8.882129e+01
<MIXTURE> 2 4.497106e-01
<MEAN> 39
 -9.402831e+00 7.027609e-01 -4.365790e+00 -1.526157e+00 7.140065e-01 8.667459e-01 1.618854e-01 -2.884708e+00 -6.781116e-01 1.144514e+00 3.275886e+00 2.611356e+00 5.318718e+01 -2.189812e-01 -2.015234e+00 -2.001597e+00 -4.030434e-01 9.195457e-01 -7.469143e-01 -1.885684e+00 -8.180372e-01 -2.877909e-01 7.349097e-01 -6.127207e-01 -1.057294e+00 2.482462e+00 2.360538e-01 -2.390095e-01 -4.915172e-01 -1.627850e-01 3.599647e-01 -4.780234e-01 -5.559570e-01 -4.064186e-01 -1.641804e-01 -3.628996e-02 -5.440369e-01 -1.598634e-01 1.322738e+00
<VARIANCE> 39
 8.740314e+00 4.842816e+00 9.197668e+00 1.505261e+01 1.131115e+01 2.096315e+01 9.310962e+00 1.738599e+01 9.658341e+00 2.281034e+01 2.124074e+01 1.488007e+01 3.309394e+01 1.588603e+00 2.746864e+00 2.715507e+00 2.051277e+00 5.167415e+00 1.773355e+00 2.549732e+00 1.453144e+00 3.016297e+00 1.748875e+00 3.599445e+00 3.955217e+00 3.557221e+00 1.814469e-01 3.270268e-01 3.037272e-01 2.848857e-01 4.747436e-01 3.169878e-01 3.494600e-01 1.767339e-01 5.744514e-01 3.801132e-01 5.312517e-01 4.969460e-01 3.391105e-01
<GCONST> 1.039774e+02
<MIXTURE> 3 4.471060e-01
<MEAN> 39
 -8.563242e+00 -5.626266e+00 -1.221295e+01 -3.106493e+00 6.991827e+00 -2.408064e+00 -7.187274e+00 -4.963458e+00 -3.223608e+00 5.120674e+00 -8.561033e-01 -1.277795e+00 6.648508e+01 5.515423e-01 -1.240560e-01 -2.409445e-01 4.143232e-01 1.645677e-01 -2.648590e+00 -2.821934e+00 -1.787056e+00 -6.254267e-01 1.027635e-01 -1.276407e+00 -9.983098e-01 3.121516e+00 2.987810e-01 1.042817e+00 1.149711e+00 4.099157e-01 -1.063503e+00 -1.845968e-01 6.932092e-02 -1.855366e-01 2.086123e-01 -6.181805e-01 2.246866e-01 1.615076e-01 -6.315224e-01
<VARIANCE> 39
 5.475727e+00 2.981852e+01 2.025732e+01 2.372492e+01 1.097409e+01 4.517521e+01 4.028933e+01 2.302559e+01 3.579374e+01 5.918264e+01 3.600984e+01 2.415051e+01 3.174849e+01 1.173599e+00 7.505414e+00 7.484376e+00 2.905379e+00 5.649766e+00 1.379074e+00 2.160332e+00 2.060996e+00 3.700480e+00 4.345739e+00 3.816458e+00 4.676769e+00 6.062325e+00 1.491552e-01 7.974607e-01 5.102871e-01 4.431994e-01 8.395937e-01 4.741753e-01 3.451105e-01 3.150708e-01 7.908828e-01 5.807533e-01 8.162160e-01 5.130025e-01 3.371731e-01
<GCONST> 1.206429e+02
<STATE> 6
<NUMMIXES> 3
<MIXTURE> 1 3.862587e-01
<MEAN> 39
 -4.492512e-01 1.880152e+00 3.900008e-01 5.794044e+00 -4.579776e+00 -1.587014e+01 -1.051119e+01 7.838352e-01 -3.458412e+00 2.763430e+00 2.761522e+00 -6.732618e+00 7.705463e+01 1.054822e-01 -1.210663e-01 8.383663e-01 -5.699102e-01 -9.830528e-01 -5.136688e-01 -1.014172e+00 1.094489e+00 -7.151417e-01 3.676016e-01 2.111445e-01 -9.515257e-03 2.558393e-01 -2.633864e-01 -1.687332e-01 -3.216882e-01 -2.993000e-01 9.701614e-02 1.706751e-01 2.498781e-01 -1.601832e-01 2.655370e-01 -7.362969e-03 -2.997637e-01 3.170121e-01 -1.132727e-01
<VARIANCE> 39
 2.297004e+00 8.304528e+00 2.866223e+00 1.042472e+01 5.468811e+00 9.234342e+00 5.638518e+00 2.030220e+01 1.077304e+01 7.724933e+00 1.560390e+01 8.874057e+00 1.987755e+00 4.297957e-01 9.379241e-01 8.296809e-01 6.106270e-01 7.083734e-01 1.405911e+00 1.227946e+00 1.127270e+00 1.588737e+00 5.434437e-01 1.966589e+00 1.730888e+00 5.878720e-01 8.050939e-02 4.423845e-01 2.878083e-01 7.402541e-02 1.130160e-01 3.221830e-01 2.666193e-01 3.480526e-01 1.602901e-01 1.738296e-01 2.640466e-01 2.202816e-01 6.102875e-02
<GCONST> 7.390830e+01
<MIXTURE> 2 3.330587e-01
<MEAN> 39
 -1.224374e+01 -9.350471e+00 -1.071999e+01 -3.989381e+00 6.887877e+00 -1.413128e+01 -5.646382e+00 -7.126830e+00 4.821428e+00 5.552608e+00 -5.505128e+00 6.155013e+00 6.532709e+01 -5.825970e-01 1.748484e-01 1.227700e+00 5.149668e-01 -7.938113e-01 -1.001968e+00 -2.955884e-01 4.394197e-01 4.462862e-01 1.761452e-02 2.140271e-01 -8.795312e-02 1.146183e-01 -4.218531e-02 2.846236e-01 6.017026e-01 2.800823e-01 -3.110561e-01 3.286188e-01 1.619755e-01 4.167735e-01 -1.959750e-01 -6.783659e-02 4.160553e-01 -3.022994e-01 -5.452411e-01
<VARIANCE> 39
 1.648090e+01 6.842998e+00 2.290430e+01 9.044529e+00 1.913341e+01 1.259744e+01 1.727192e+01 1.986512e+01 1.629773e+01 6.919352e+00 1.158620e+01 1.639388e+01 9.803828e+00 1.092476e+00 2.392414e+00 3.599590e+00 1.538507e+00 2.680552e+00 1.455711e+00 2.819908e+00 7.905056e-01 1.563550e+00 1.523820e+00 1.618715e+00 1.600144e+00 2.818514e+00 1.117168e-01 5.514040e-01 7.441612e-01 2.526869e-01 7.988707e-01 3.016794e-01 6.986022e-01 3.200007e-01 2.295571e-01 2.855885e-01 5.691350e-01 3.971165e-01 8.031347e-01
<GCONST> 1.011952e+02
<MIXTURE> 3 2.806826e-01
<MEAN> 39
 -3.742949e+00 3.212765e+00 -2.524298e+00 1.502803e+00 -5.996929e+00 -6.430484e+00 -2.043383e+01 -1.444520e+01 -6.440919e+00 -1.108652e+00 8.075718e-01 -8.574673e+00 6.936354e+01 8.443601e-01 3.066988e-01 1.348628e+00 -6.562091e-02 -3.463606e+00 -1.237034e+00 -1.883976e+00 -1.222044e+00 1.904604e+00 -1.539931e+00 4.997183e-01 -4.673758e-01 7.614463e-01 -3.913293e-01 -7.451171e-01 -6.548321e-01 -7.035908e-01 5.074800e-01 3.238703e-01 8.424395e-01 8.070213e-01 7.164325e-01 1.248856e-01 8.929139e-02 6.145983e-01 -1.561109e-01
<VARIANCE> 39
 1.487264e+01 2.324603e+01 1.151231e+01 2.223316e+01 4.266588e+01 2.693842e+01 1.112942e+01 6.218719e+00 3.230135e+01 2.386742e+01 1.098821e+01 3.655351e+01 9.488065e+00 9.210057e-01 2.721912e+00 2.072335e+00 2.202053e+00 4.807603e+00 2.227087e+00 1.415161e+00 1.908771e+00 3.778811e+00 1.554603e+00 3.460303e+00 4.063855e+00 4.886255e-01 1.241908e-01 3.578229e-01 1.253901e-01 1.853949e-01 9.523507e-01 2.262118e-01 1.212492e-01 2.778529e-01 5.982872e-01 5.523239e-01 2.942933e-01 4.999213e-01 2.457993e-01
<GCONST> 1.025170e+02
<STATE> 7
<NUMMIXES> 3
<MIXTURE> 1 4.093401e-01
<MEAN> 39
 -3.383163e+00 1.512156e+00 1.943292e+00 -3.815689e+00 -8.934521e+00 -1.603137e+01 -1.436677e+01 -3.572126e+00 8.207160e-02 3.681114e+00 -4.615022e-01 -3.462807e-01 7.192777e+01 -5.460982e-01 -9.199655e-02 2.515627e-01 -1.583857e-01 -1.878381e-01 1.168811e-01 6.797992e-01 -4.905251e-02 3.014961e-01 3.012455e-01 -1.387423e-01 9.776195e-01 -7.396234e-01 -3.715853e-02 7.960981e-02 -1.218301e-01 3.064832e-01 4.082106e-01 3.359687e-01 2.767337e-01 8.035934e-02 -1.142220e-01 -3.050757e-02 1.584682e-01 3.905899e-02 -2.910450e-01
<VARIANCE> 39
 7.225670e+00 2.260951e+01 1.061577e+01 1.232242e+01 8.781773e+00 7.352611e+00 1.770656e+01 5.953083e+01 4.973600e+01 6.956732e+00 2.454379e+01 1.668167e+01 1.849879e+01 3.599128e-01 9.081276e-01 2.856942e-01 1.037862e+00 1.918835e+00 1.206236e+00 9.688285e-01 1.246508e+00 1.561576e+00 7.632093e-01 8.897703e-01 9.032695e-01 7.247381e-01 9.732053e-02 2.002490e-01 6.068965e-02 1.357982e-01 1.096290e-01 3.491439e-01 2.876782e-01 1.759351e-01 3.120196e-01 2.504799e-01 1.406891e-01 2.237931e-01 1.023769e-01
<GCONST> 8.261366e+01
<MIXTURE> 2 3.294417e-01
<MEAN> 39
 -1.603732e+01 -9.887585e+00 -1.948569e+00 1.506121e+00 4.629057e+00 -1.648684e+01 -5.275112e+00 -2.374080e+00 7.733143e+00 6.216303e+00 -4.607791e+00 5.380028e+00 6.065519e+01 3.839586e-01 1.982148e-01 7.013876e-01 4.266908e-01 -3.712799e-01 1.764409e-01 2.879412e-01 5.286752e-01 1.662710e-01 -2.697708e-02 2.334359e-02 -2.253822e-01 -8.581809e-01 2.160071e-01 1.073807e-01 -1.520997e-01 -5.932998e-02 -7.294980e-02 1.642231e-01 4.681655e-02 -6.099391e-02 -9.521123e-02 -1.201772e-01 -5.989363e-02 -6.725571e-02 -1.617584e-01
<VARIANCE> 39
 3.125187e+00 5.555409e+00 9.079556e+00 5.436691e+00 3.131363e+01 1.499053e+01 2.019761e+01 2.453658e+01 1.780943e+01 9.815872e+00 1.304229e+01 4.271492e+00 7.411836e+00 4.942701e-01 2.384512e-01 2.696294e-01 3.960707e-01 8.276040e-01 1.081460e+00 1.805410e+00 1.120371e+00 8.131587e-01 8.172159e-01 6.160963e-01 9.406916e-01 3.452265e-01 2.811312e-02 2.629526e-02 7.785686e-02 8.203878e-02 1.378430e-01 2.131773e-01 3.584324e-01 1.492743e-01 1.340897e-01 1.674693e-01 1.377576e-01 1.749396e-01 1.143903e-02
<GCONST> 6.546442e+01
<MIXTURE> 3 2.612182e-01
<MEAN> 39
 -4.468619e+00 -1.497606e+00 -2.025361e+00 7.316203e-01 -1.307531e+01 -6.602963e+00 -2.243524e+01 -1.191801e+01 -4.119493e+00 -1.183277e+01 4.625998e+00 -9.667391e+00 7.252045e+01 8.890231e-02 -2.442251e-01 1.105463e-01 -2.928177e-01 3.438193e-02 -6.179002e-01 3.228971e-01 7.711946e-01 2.935804e-02 -4.259818e-01 5.461960e-01 5.736637e-01 -7.435113e-01 2.197633e-03 1.306880e-01 5.453693e-02 7.281204e-02 1.640048e-01 -4.892664e-02 1.780195e-01 4.671378e-02 -1.411073e-01 5.423337e-01 -3.038029e-03 4.884364e-02 -4.519254e-01
<VARIANCE> 39
 1.840372e+01 3.627346e+01 2.247602e+01 1.600896e+01 5.194649e+00 1.875797e+01 1.209877e+01 1.220552e+01 3.213284e+01 3.399549e+01 7.801319e+00 2.306290e+01 7.664588e+00 6.427935e-01 4.876174e-01 4.645150e-01 2.189210e-01 3.398180e-01 3.430522e-01 6.537752e-01 1.063416e+00 1.692506e+00 3.567143e+00 1.088078e+00 6.414868e-01 1.419626e+00 1.091820e-01 7.774006e-02 1.078878e-01 5.329741e-02 2.050514e-01 5.566320e-02 1.001252e-01 3.967840e-01 3.832071e-01 2.886388e-01 2.318871e-01 2.686715e-01 4.041764e-02
<GCONST> 7.788376e+01
<STATE> 8
<NUMMIXES> 3
<MIXTURE> 1 4.476180e-01
<MEAN> 39
 -6.450692e+00 1.963357e+00 1.289385e+00 -2.344783e-01 -2.672539e+00 -7.050349e+00 -4.931823e+00 -7.514131e-01 1.100661e+00 1.507759e+00 1.310354e+00 3.109666e+00 6.337970e+01 -5.285084e-01 -7.119988e-02 -4.223265e-01 8.305522e-01 1.430116e+00 2.599053e+00 2.056734e+00 6.515964e-01 7.706190e-02 -8.539410e-01 6.011956e-01 -3.161031e-01 -1.499087e+00 -2.261258e-02 -2.287969e-01 -2.877778e-02 -8.149792e-02 -4.222361e-02 5.427125e-03 3.296703e-02 3.688691e-02 1.877656e-02 1.472346e-01 -6.681690e-02 -2.020461e-01 2.846905e-01
<VARIANCE> 39
 6.677627e+00 1.584073e+01 4.925890e+00 5.374765e+00 1.421001e+01 4.161254e+01 1.869969e+01 1.375127e+01 1.594293e+01 1.186584e+01 2.370932e+01 9.959962e+00 2.000842e+01 3.757747e-01 9.841515e-01 6.012981e-01 7.638276e-01 1.056721e+00 1.926440e+00 9.396296e-01 1.598752e+00 1.973028e+00 8.905841e-01 1.593558e+00 1.010955e+00 1.047857e+00 4.141460e-02 1.228482e-01 9.117429e-02 1.662483e-01 2.125731e-01 4.175670e-01 1.390593e-01 1.373748e-01 3.693947e-01 2.295767e-01 2.714168e-01 1.599957e-01 9.221166e-02
<GCONST> 8.184467e+01
<MIXTURE> 2 2.414737e-01
<MEAN> 39
 -9.497451e+00 -4.975775e+00 -2.828126e-01 3.691046e+00 1.198540e+00 -9.874580e+00 -4.060794e+00 -3.929660e-01 6.601115e+00 1.423556e+00 -5.380050e+00 1.227014e+00 5.069011e+01 7.896479e-01 1.389002e+00 -5.672697e-01 9.776174e-03 -7.947800e-01 2.245020e+00 1.197683e+00 7.050369e-01 -9.752450e-02 -7.458106e-01 7.382974e-01 8.470932e-02 -1.590147e+00 -1.797544e-01 1.951711e-01 -6.232777e-02 -3.225861e-01 -1.144088e-01 9.382136e-02 1.614135e-01 -3.969282e-03 -1.760723e-01 -2.219340e-02 3.544511e-01 1.928519e-01 1.871454e-01
<VARIANCE> 39
 4.851040e+00 1.345875e+01 6.248010e+00 8.072900e+00 3.270324e+01 2.105330e+01 2.557714e+01 1.054590e+01 8.828894e+00 4.445031e+01 2.710367e+01 1.667885e+01 5.372083e+00 3.350060e-01 8.479356e-01 1.626250e-01 3.001299e+00 1.585669e+00 1.374327e+00 1.251331e+00 1.291941e+00 1.244100e+00 5.866041e+00 1.572411e+00 1.972908e+00 4.739323e-01 2.779286e-02 1.152573e-01 7.072782e-02 3.232975e-01 2.932786e-01 2.641651e-01 1.987844e-01 3.136684e-01 2.819287e-01 1.150464e+00 1.450337e-01 2.129554e-01 3.391023e-02
<GCONST> 8.449088e+01
<MIXTURE> 3 3.109083e-01
<MEAN> 39
 -6.188367e+00 4.570400e-01 2.313475e-02 1.075225e+00 -1.042805e+01 -7.484812e+00 -1.700119e+01 -9.677735e+00 -4.073092e+00 -5.028850e+00 6.883307e+00 -4.714301e+00 5.919520e+01 -7.275254e-01 1.224642e-01 4.485675e-01 2.916598e-01 1.034620e+00 7.569025e-01 1.416364e+00 -5.040775e-02 4.276496e-01 1.702518e+00 -3.046634e-01 6.143652e-01 -2.413833e+00 -6.198857e-02 -1.265168e-01 -1.685641e-01 1.262180e-01 2.506934e-01 3.048837e-01 1.687516e-01 1.494318e-01 -1.003759e-02 -1.314486e-01 -1.061857e-01 1.255903e-01 1.691628e-01
<VARIANCE> 39
 5.882946e+00 1.024706e+01 8.640168e+00 1.410062e+01 1.273464e+01 3.385610e+01 1.806521e+01 2.352954e+01 2.440387e+01 1.549844e+01 8.804817e+00 1.932437e+01 1.919497e+01 7.792401e-01 2.422509e-01 6.811799e-01 5.762788e-01 1.491790e+00 2.121980e+00 1.049262e+00 2.983640e+00 1.491395e+00 1.013061e+00 7.433653e-01 9.691772e-01 6.054885e-01 1.347971e-01 1.929000e-02 1.146862e-01 8.140694e-02 2.604224e-01 5.417778e-01 2.494744e-01 4.086390e-01 2.256797e-01 1.842631e-01 2.279170e-01 2.738367e-01 5.843494e-02
<GCONST> 8.233719e+01
<TRANSP> 9
 0.000000e+00 1.000000e+00 0.000000e+00 0.000000e+00 0.000000e+00 0.000000e+00 0.000000e+00 0.000000e+00 0.000000e+00
 0.000000e+00 8.533252e-01 1.466748e-01 0.000000e+00 0.000000e+00 0.000000e+00 0.000000e+00 0.000000e+00 0.000000e+00
 0.000000e+00 0.000000e+00 7.923448e-01 2.076552e-01 0.000000e+00 0.000000e+00 0.000000e+00 0.000000e+00 0.000000e+00
 0.000000e+00 0.000000e+00 0.000000e+00 8.828329e-01 1.171672e-01 0.000000e+00 0.000000e+00 0.000000e+00 0.000000e+00
 0.000000e+00 0.000000e+00 0.000000e+00 0.000000e+00 8.108320e-01 1.891680e-01 0.000000e+00 0.000000e+00 0.000000e+00
 0.000000e+00 0.000000e+00 0.000000e+00 0.000000e+00 0.000000e+00 8.069317e-01 1.930683e-01 0.000000e+00 0.000000e+00
 0.000000e+00 0.000000e+00 0.000000e+00 0.000000e+00 0.000000e+00 0.000000e+00 8.751377e-01 1.248623e-01 0.000000e+00
 0.000000e+00 0.000000e+00 0.000000e+00 0.000000e+00 0.000000e+00 0.000000e+00 0.000000e+00 8.101037e-01 1.898964e-01
 0.000000e+00 0.000000e+00 0.000000e+00 0.000000e+00 0.000000e+00 0.000000e+00 0.000000e+00 0.000000e+00 0.000000e+00
<ENDHMM>
~o
<STREAMINFO> 1 39
<VECSIZE> 39<NULLD><MFCC_D_A_0><DIAGC>
~h "san"
<BEGINHMM>
<NUMSTATES> 8
<STATE> 2
<NUMMIXES> 3
<MIXTURE> 1 4.355408e-01
<MEAN> 39
 -1.593299e+01 2.113779e+00 -4.962882e+00 4.284592e+00 8.109533e-01 3.168428e+00 3.280457e+00 3.310640e+00 2.829704e+00 6.178389e-01 3.958110e+00 -6.746055e-01 6.651368e+01 -8.861082e-01 -1.520559e-01 -3.778783e-01 2.008317e-01 -5.008288e-01 -1.954895e-01 2.639034e-01 4.724430e-01 1.887974e-01 -1.070278e-01 8.745699e-02 -2.088162e-01 7.941076e-01 2.458856e-01 -2.618813e-01 -1.789429e-02 -1.488784e-01 5.048620e-02 -3.972410e-02 -3.799077e-02 -3.916425e-02 -5.899304e-02 -5.865600e-02 -5.699730e-02 1.096682e-01 -2.651197e-02
<VARIANCE> 39
 4.035232e+01 3.485925e+00 1.431890e+01 1.877398e+01 1.504059e+01 1.358531e+01 2.261967e+01 1.855956e+01 1.459748e+01 9.918958e+00 1.445540e+01 8.330630e+00 1.061653e+01 9.981707e-01 9.931616e-01 6.534977e-01 5.601387e-01 1.419855e+00 1.189224e+00 1.538653e+00 1.773968e+00 1.368862e+00 1.196766e+00 1.122998e+00 1.211804e+00 2.617786e-01 1.999630e-01 1.219441e-01 1.093986e-01 1.514888e-01 3.507924e-01 1.919767e-01 4.134361e-01 3.465993e-01 2.496292e-01 3.335730e-01 2.379552e-01 3.286146e-01 5.944395e-02
<GCONST> 8.537012e+01
<MIXTURE> 2 2.451694e-01
<MEAN> 39
 -2.629782e+01 6.724603e+00 -5.235186e+00 1.178002e+00 3.578406e+00 -1.128215e+01 4.946795e+00 -4.629432e+00 2.078151e+00 -2.393211e+00 -5.653552e+00 4.105711e+00 6.099859e+01 -7.694273e-01 2.087278e-01 -3.816450e-01 3.980435e-01 -4.314340e-01 -8.846643e-02 4.174100e-01 -5.138000e-01 5.286157e-01 -1.125574e-02 3.460807e-01 2.205101e-01 7.247766e-01 3.683228e-01 -1.994019e-01 -6.154862e-02 -1.173576e-01 -1.479811e-01 1.651294e-01 -3.801558e-02 1.563010e-03 9.381393e-02 9.223760e-02 5.856396e-02 -8.867065e-02 -1.056066e-01
<VARIANCE> 39
