~o
<STREAMINFO> 1 26
<VECSIZE> 26<NULLD><MFCC_E_D_Z><DIAGC>
~h "go"
<BEGINHMM>
<NUMSTATES> 5
<STATE> 2
<MEAN> 26
 6.512890e+00 2.211442e+00 -8.166554e+00 -1.173326e+01 -4.042197e+00 6.561014e-01 -2.880459e+00 -2.352716e+00 -6.864423e+00 -4.283608e+00 1.152070e-01 -1.437069e+00 7.174651e-01 1.563856e+00 1.112719e+00 7.563115e-01 -2.523812e+00 -2.150569e+00 4.264407e-01 -1.484335e+00 -9.763620e-01 3.752695e-02 -1.299301e+00 8.712056e-01 -4.998693e-01 6.537847e-02
<VARIANCE> 26
 2.070318e+01 3.034560e+01 3.759645e+01 3.137287e+01 3.485934e+01 2.633125e+01 2.859035e+01 2.676573e+01 2.726293e+01 6.456891e+01 2.604850e+01 2.511731e+01 1.494829e-02 5.397556e-01 1.896392e+00 8.536155e+00 4.491004e+00 2.259984e+00 2.892279e+00 2.079436e+00 2.872758e+00 6.089373e+00 3.686033e+00 3.199345e+00 2.555695e+00 1.938290e-03
<GCONST> 9.081739e+01
<STATE> 3
<MEAN> 26
 1.079055e+01 4.021637e+00 -3.872439e+00 -2.109630e+01 -1.082914e+01 1.617274e+00 -6.328061e+00 -4.399740e+00 -1.130036e+00 -6.790304e+00 -5.245199e-01 -3.414349e-01 9.412351e-01 9.127199e-03 -1.757642e-01 -1.810298e-01 -5.373700e-01 -2.663898e-01 -2.603005e-01 1.411783e-01 2.149683e-01 2.351384e-01 1.620382e-01 -3.633618e-01 4.866870e-01 -4.699068e-03
<VARIANCE> 26
 1.210089e+01 1.266593e+01 6.744914e+00 4.183387e+01 2.598146e+01 3.461480e+01 3.843792e+01 5.552715e+01 2.987800e+01 4.107824e+01 1.891270e+01 2.844581e+01 2.951380e-03 1.573606e-01 6.726864e-01 4.784382e-01 1.229928e+00 8.564375e-01 1.094853e+00 9.400419e-01 1.196485e+00 1.329455e+00 1.216923e+00 8.156235e-01 1.252979e+00 6.468669e-04
<GCONST> 7.093872e+01
<STATE> 4
<MEAN> 26
 5.436978e+00 1.765083e+00 -3.507010e+00 -1.333030e+01 -1.000968e+01 -2.484438e+00 -1.703219e+00 8.563461e-01 6.086201e-01 -2.278267e+00 -1.000967e+00 1.932055e+00 5.651693e-01 -1.208801e+00 -4.697075e-01 4.579692e-01 2.830983e+00 1.158225e+00 -2.646276e-01 9.106894e-01 5.834363e-01 2.727952e-01 9.117392e-01 2.126053e-01 -2.713074e-01 -6.133124e-02
<VARIANCE> 26
 1.319404e+01 4.990382e+00 1.020414e+01 9.939733e+01 3.701993e+01 1.622503e+01 2.788738e+01 2.165939e+01 3.781896e+01 2.500181e+01 2.107835e+01 2.011096e+01 3.477234e-02 4.023252e-01 4.433644e-01 8.489264e-01 2.347933e+00 1.163582e+00 1.527050e+00 1.746558e+00 2.441787e+00 1.952929e+00 2.015224e+00 1.204451e+00 1.305536e+00 2.155550e-03
<GCONST> 7.791209e+01
<TRANSP> 5
 0.000000e+00 1.000000e+00 0.000000e+00 0.000000e+00 0.000000e+00
 0.000000e+00 8.029260e-01 1.970740e-01 0.000000e+00 0.000000e+00
 0.000000e+00 0.000000e+00 9.180192e-01 8.198079e-02 0.000000e+00
 0.000000e+00 0.000000e+00 0.000000e+00 8.647639e-01 1.352362e-01
 0.000000e+00 0.000000e+00 0.000000e+00 0.000000e+00 0.000000e+00
<ENDHMM>
