~o
<STREAMINFO> 1 26
<VECSIZE> 26<NULLD><MFCC_E_D_Z><DIAGC>
~h "kyuu"
<BEGINHMM>
<NUMSTATES> 5
<STATE> 2
<MEAN> 26
 -6.783140e+00 -7.075055e-01 6.498271e+00 -5.889934e+00 -8.521647e+00 1.938827e-01 -2.103770e+00 -7.147197e+00 6.580371e-01 -1.624934e+00 -1.749135e+00 -1.115006e+00 6.893406e-01 1.146601e+00 3.422980e-01 1.448215e+00 -4.086501e-02 -2.338932e+00 -1.449268e+00 -4.786401e-01 -1.245660e+00 -1.678952e+00 -4.736532e-01 -1.519598e-01 -9.059624e-01 5.720722e-02
<VARIANCE> 26
 3.904306e+01 3.503555e+01 3.506496e+01 1.635308e+01 5.030947e+01 3.611549e+01 2.420533e+01 6.507983e+01 5.925163e+01 2.224974e+01 2.376640e+01 2.516002e+01 2.978189e-02 5.368092e+00 1.508194e+00 1.893394e+00 2.770268e+00 3.326833e+00 4.101912e+00 2.795097e+00 3.810881e+00 4.857801e+00 2.800820e+00 4.051389e+00 3.077853e+00 1.350041e-03
<GCONST> 9.354243e+01
<STATE> 3
<MEAN> 26
 4.740228e+00 -8.478369e-01 8.709783e+00 -2.453032e+00 -1.657752e+01 -1.380766e+01 -8.748621e+00 -5.209025e+00 -6.971435e+00 -7.667429e+00 2.193682e+00 -2.396282e+00 9.456136e-01 3.506772e-01 5.936791e-02 -5.283844e-01 2.949261e-01 6.403669e-01 -5.771013e-01 -3.531027e-01 5.935961e-01 3.951275e-01 -6.654734e-02 7.733842e-02 8.000272e-01 -5.221369e-03
<VARIANCE> 26
 2.069299e+01 4.257891e+01 1.599656e+01 1.118225e+01 4.277115e+01 1.054024e+01 3.655144e+01 4.170111e+01 2.011388e+01 4.631153e+01 4.189191e+01 2.989213e+01 2.406756e-03 1.404277e-01 7.535588e-01 4.085479e-01 5.824222e-01 9.225674e-01 1.129385e+00 1.204488e+00 1.128142e+00 1.147559e+00 1.683134e+00 2.027992e+00 1.693789e+00 2.365277e-04
<GCONST> 7.134186e+01
<STATE> 4
<MEAN> 26
 5.661193e+00 2.317398e+00 4.038116e+00 1.148836e+00 -5.640670e+00 -1.171323e+01 -6.895503e+00 -2.366843e+00 -3.550599e+00 -2.725884e+00 -3.412591e-01 2.679118e+00 6.250814e-01 -5.340532e-01 1.760849e-02 -3.779052e-01 2.170919e-01 1.142353e+00 1.373505e+00 8.128722e-01 1.568102e-01 7.839606e-02 4.570684e-01 -6.947775e-02 -3.437126e-01 -4.705796e-02
<VARIANCE> 26
 1.256235e+01 8.848046e+00 1.572718e+01 1.060762e+01 3.106613e+01 3.744645e+01 5.089315e+01 1.587451e+01 8.481964e+00 1.678280e+01 2.489546e+01 1.380242e+01 3.799704e-02 4.792815e-01 1.041093e+00 7.924274e-01 8.170792e-01 1.075254e+00 2.070976e+00 1.879218e+00 1.646932e+00 9.549342e-01 1.068868e+00 1.686358e+00 1.145296e+00 5.763148e-04
<GCONST> 7.291406e+01
<TRANSP> 5
 0.000000e+00 1.000000e+00 0.000000e+00 0.000000e+00 0.000000e+00
 0.000000e+00 8.796798e-01 1.203202e-01 0.000000e+00 0.000000e+00
 0.000000e+00 0.000000e+00 9.291103e-01 7.088969e-02 0.000000e+00
 0.000000e+00 0.000000e+00 0.000000e+00 9.083888e-01 9.161119e-02
 0.000000e+00 0.000000e+00 0.000000e+00 0.000000e+00 0.000000e+00
<ENDHMM>
