~o
<STREAMINFO> 1 26
<VECSIZE> 26<NULLD><MFCC_E_D_Z><DIAGC>
~h "roku"
<BEGINHMM>
<NUMSTATES> 9
<STATE> 2
<MEAN> 26
 8.199932e+00 -2.039941e+00 2.301174e+00 5.320744e+00 -3.557290e+00 -6.749242e+00 -8.377234e+00 -2.866181e+00 2.076257e+00 -3.622215e+00 -2.365901e+00 -1.827985e+00 7.850608e-01 9.205791e-01 1.675812e-01 -9.738327e-01 -2.279899e+00 -1.095626e+00 6.356505e-01 -1.378601e+00 -1.608510e+00 6.008197e-01 8.541647e-01 8.645222e-01 -8.409466e-01 5.555285e-02
<VARIANCE> 26
 1.887018e+01 1.174551e+01 2.508767e+01 7.515290e+01 3.716043e+01 8.501214e+01 5.088312e+01 3.435852e+01 2.443033e+01 5.359906e+01 3.551394e+01 3.726798e+01 1.324869e-02 2.474402e+00 2.905899e+00 2.136370e+00 1.171464e+01 3.054235e+00 1.206761e+01 4.691041e+00 3.498114e+00 3.099028e+00 7.088696e+00 3.338920e+00 2.512803e+00 2.008344e-03
<GCONST> 9.689755e+01
<STATE> 3
<MEAN> 26
 1.074658e+01 4.345265e+00 -5.188805e+00 -1.582384e+01 -6.811012e+00 6.366953e+00 -5.743627e+00 -9.400661e+00 -1.609683e+00 -4.378628e+00 4.494282e+00 -2.775365e+00 9.028789e-01 9.540706e-02 9.368478e-01 -2.182950e-01 -5.544178e-01 4.806524e-01 9.014480e-01 1.438552e+00 5.444450e-01 -1.944608e+00 -1.083763e+00 -6.502404e-03 8.191903e-01 -2.130106e-02
<VARIANCE> 26
 1.178850e+01 1.445836e+01 9.443274e+00 3.918156e+01 4.661247e+01 3.585588e+01 2.860667e+01 5.552594e+01 5.099950e+01 5.150308e+01 1.838683e+01 4.873153e+01 4.324332e-03 8.755215e-01 9.710212e-01 1.850588e+00 6.564538e+00 3.358444e+00 2.795830e+00 3.374375e+00 3.525394e+00 3.071437e+00 5.418580e+00 2.960087e+00 4.331510e+00 2.129561e-03
<GCONST> 8.911845e+01
<STATE> 4
<MEAN> 26
 3.239459e+00 2.897112e+00 -1.115871e+00 -3.750687e+00 3.450256e-01 3.055920e+00 1.668862e+00 -2.420673e+00 -4.838513e+00 -3.004876e+00 -6.047738e-01 2.047307e+00 5.122557e-01 -1.334028e+00 -7.797308e-01 1.973813e-01 1.142867e+00 5.520372e-01 -8.299469e-01 6.050563e-01 5.506419e-01 1.146378e+00 1.012604e+00 -2.730234e-01 3.927265e-01 -5.231763e-02
<VARIANCE> 26
 1.659027e+01 8.740024e+00 9.805590e+00 3.199720e+01 1.583932e+01 2.741161e+01 1.704881e+01 1.294238e+01 3.267008e+01 2.842944e+01 1.702028e+01 2.432456e+01 3.265160e-02 8.146417e-01 5.771045e-01 1.410102e+00 2.022529e+00 2.123837e+00 3.868843e+00 1.195882e+00 1.838489e+00 2.297812e+00 3.950872e+00 2.048253e+00 2.089873e+00 2.020848e-03
<GCONST> 8.006113e+01
<STATE> 5
<MEAN> 26
 -1.044778e-01 -3.766546e+00 -7.807150e+00 -3.686133e+00 3.058925e+00 -3.534595e+00 -1.728530e+00 -2.642678e+00 -1.930982e+00 3.829461e+00 -1.728396e+00 1.978371e-01 5.015599e-01 3.295868e-01 -6.351723e-01 -9.947934e-01 1.262408e-01 3.376598e-01 -1.603488e+00 -2.275730e+00 -8.542994e-01 -6.089528e-01 2.589034e-01 -7.021632e-01 -1.365922e+00 6.928078e-02
<VARIANCE> 26
 8.324643e+00 2.687011e+01 3.111095e+01 2.329997e+01 2.052990e+01 5.042818e+01 4.097964e+01 1.776146e+01 2.106554e+01 2.786584e+01 3.752401e+01 2.399202e+01 4.815804e-02 1.418469e+00 5.688298e+00 5.544305e+00 2.461895e+00 3.853373e+00 3.338987e+00 2.898660e+00 1.500755e+00 2.617775e+00 2.710236e+00 3.813365e+00 3.857527e+00 4.218178e-03
<GCONST> 9.136413e+01
<STATE> 6
<MEAN> 26
 5.075280e+00 2.048250e+00 -1.179119e+00 -1.478202e-01 -2.480783e+00 -1.005706e+01 -1.191309e+01 -7.889599e+00 -6.334131e+00 7.367099e-01 -2.215793e+00 -6.529700e+00 8.368321e-01 1.542237e+00 1.163870e+00 2.659446e+00 7.217767e-01 -3.383210e+00 -1.252511e+00 -2.296410e+00 -8.873209e-01 -4.096254e-01 -1.422281e+00 1.503555e+00 -1.321355e+00 6.531572e-02
<VARIANCE> 26
 1.883756e+01 2.649553e+01 1.475451e+01 2.209992e+01 5.347103e+01 3.371383e+01 3.119113e+01 2.640771e+01 3.254534e+01 1.061428e+01 2.434377e+01 4.096594e+01 1.666103e-02 8.747595e-01 4.131826e+00 2.288142e+00 2.129116e+00 3.122260e+00 2.798919e+00 9.554507e-01 3.740840e+00 4.381892e+00 2.373723e+00 3.834346e+00 2.256505e+00 7.013762e-04
<GCONST> 8.619795e+01
<STATE> 7
<MEAN> 26
 5.737983e+00 1.030433e-01 1.961889e+00 -1.723696e+00 -1.084284e+01 -1.259819e+01 -1.540243e+01 -4.731705e+00 -2.395680e+00 -2.614303e+00 1.188225e+00 -6.362219e+00 9.396807e-01 -2.557273e-01 -1.860325e-01 3.085967e-01 -4.938745e-01 -5.053362e-01 -3.487506e-01 1.047382e-02 4.863552e-01 2.206182e-01 7.832105e-02 1.701522e-01 5.946613e-01 -1.653360e-02
<VARIANCE> 26
 1.469403e+01 3.539427e+01 1.439450e+01 2.454683e+01 1.973439e+01 3.262687e+01 2.754133e+01 4.852709e+01 2.297610e+01 3.176524e+01 2.546043e+01 3.187052e+01 6.209956e-03 4.605393e-01 8.492120e-01 4.184906e-01 5.831289e-01 1.054406e+00 8.213654e-01 1.014659e+00 1.194343e+00 1.635610e+00 1.759823e+00 1.135714e+00 9.863313e-01 1.005340e-03
<GCONST> 7.374896e+01
<STATE> 8
<MEAN> 26
 1.138498e+00 -6.563403e-01 3.259252e+00 -1.852952e+00 -6.998380e+00 -1.072272e+01 -7.298476e+00 -2.161445e+00 -1.678406e+00 8.664708e-01 1.020342e+00 4.590656e-01 5.235509e-01 -5.211080e-01 1.014508e-01 -5.624192e-02 7.445860e-01 1.249880e+00 1.635056e+00 1.747161e+00 1.850082e-01 3.566324e-01 1.342318e-01 -8.518647e-03 5.842073e-01 -5.475822e-02
<VARIANCE> 26
 7.346722e+00 2.596891e+01 7.208937e+00 1.012611e+01 2.323055e+01 3.289898e+01 3.960464e+01 1.797225e+01 1.615593e+01 1.624555e+01 2.625171e+01 2.514865e+01 4.134763e-02 5.478218e-01 8.310203e-01 7.365829e-01 7.192853e-01 1.376853e+00 2.397969e+00 1.764294e+00 2.130520e+00 1.651165e+00 2.156074e+00 1.521971e+00 2.154412e+00 1.647090e-03
<GCONST> 7.655493e+01
<TRANSP> 9
 0.000000e+00 1.000000e+00 0.000000e+00 0.000000e+00 0.000000e+00 0.000000e+00 0.000000e+00 0.000000e+00 0.000000e+00
 0.000000e+00 8.071662e-01 1.928338e-01 0.000000e+00 0.000000e+00 0.000000e+00 0.000000e+00 0.000000e+00 0.000000e+00
 0.000000e+00 0.000000e+00 8.374726e-01 1.625274e-01 0.000000e+00 0.000000e+00 0.000000e+00 0.000000e+00 0.000000e+00
 0.000000e+00 0.000000e+00 0.000000e+00 8.572199e-01 1.427801e-01 0.000000e+00 0.000000e+00 0.000000e+00 0.000000e+00
 0.000000e+00 0.000000e+00 0.000000e+00 0.000000e+00 7.968084e-01 2.031916e-01 0.000000e+00 0.000000e+00 0.000000e+00
 0.000000e+00 0.000000e+00 0.000000e+00 0.000000e+00 0.000000e+00 6.445877e-01 3.554123e-01 0.000000e+00 0.000000e+00
 0.000000e+00 0.000000e+00 0.000000e+00 0.000000e+00 0.000000e+00 0.000000e+00 8.842856e-01 1.157145e-01 0.000000e+00
 0.000000e+00 0.000000e+00 0.000000e+00 0.000000e+00 0.000000e+00 0.000000e+00 0.000000e+00 8.477045e-01 1.522955e-01
 0.000000e+00 0.000000e+00 0.000000e+00 0.000000e+00 0.000000e+00 0.000000e+00 0.000000e+00 0.000000e+00 0.000000e+00
<ENDHMM>
