~o
<STREAMINFO> 1 26
<VECSIZE> 26<NULLD><MFCC_E_D_Z><DIAGC>
~h "san"
<BEGINHMM>
<NUMSTATES> 8
<STATE> 2
<MEAN> 26
 -9.513373e+00 4.164058e+00 -2.992723e+00 4.065192e+00 -2.882153e+00 4.430387e-01 3.971182e-01 2.092785e+00 -3.425377e-01 1.170182e-01 1.516232e+00 1.929891e+00 4.270872e-01 -5.877368e-01 -9.403098e-02 -3.407824e-01 -2.485268e-02 -2.920207e-01 -1.146231e-01 -5.632226e-02 2.305370e-01 -3.794124e-02 -1.605960e-01 -7.750705e-02 -3.611043e-02 1.079742e-02
<VARIANCE> 26
 1.650493e+01 9.252375e+00 1.063097e+01 1.854588e+01 1.564691e+01 1.789886e+01 1.945527e+01 1.987550e+01 1.344324e+01 1.093816e+01 2.166878e+01 1.492479e+01 4.867044e-02 7.846724e-01 7.012681e-01 7.611244e-01 1.121134e+00 1.062397e+00 1.299342e+00 1.337294e+00 1.532554e+00 1.205343e+00 1.051486e+00 1.063614e+00 1.229690e+00 6.263279e-04
<GCONST> 7.085071e+01
<STATE> 3
<MEAN> 26
 -5.367502e+00 -9.550757e-01 -2.270859e+00 -1.041375e+00 -1.803872e+00 -2.386991e+00 9.880257e-01 4.627218e+00 5.410001e-01 -2.908650e+00 1.281364e+00 3.129515e+00 6.810210e-01 3.338162e+00 -1.257475e+00 5.468477e-02 -1.237665e+00 9.783251e-01 -1.233524e+00 -1.422239e-01 -9.070799e-01 7.472502e-02 -1.430512e+00 -2.046181e+00 -4.820413e-01 6.375992e-02
<VARIANCE> 26
 3.167823e+01 2.072888e+01 1.628590e+01 1.365755e+01 3.097864e+01 1.973963e+01 2.588582e+01 2.398545e+01 1.544841e+01 2.588697e+01 4.112857e+01 1.452227e+01 4.485423e-02 2.340224e+00 1.813361e+00 1.994859e+00 1.999631e+00 4.482618e+00 1.813216e+00 7.714507e+00 3.533256e+00 2.387758e+00 4.189945e+00 2.735523e+00 3.848080e+00 2.542333e-03
<GCONST> 8.871478e+01
<STATE> 4
<MEAN> 26
 7.693501e+00 -8.966507e+00 -4.844687e+00 -8.653107e+00 1.513032e+00 -6.968138e+00 -2.927717e+00 -3.684436e+00 1.981606e+00 -8.671474e+00 -8.518971e+00 -5.503026e+00 9.035895e-01 1.688034e+00 -2.587032e+00 -5.707440e-01 -2.336324e+00 1.966064e+00 1.184851e-01 -4.119265e-01 -1.864499e+00 8.929690e-01 3.125412e-02 -5.566554e-01 -1.549521e+00 5.776630e-02
<VARIANCE> 26
 5.145963e+00 3.634578e+01 1.627591e+01 2.109554e+01 4.294529e+01 2.277326e+01 7.220684e+01 1.892964e+01 4.367858e+01 4.510322e+01 1.698307e+01 4.089904e+01 5.750434e-03 2.429814e+00 3.173633e+00 7.777038e-01 1.555956e+00 1.505638e+00 2.171799e+00 5.903243e+00 3.088460e+00 3.365850e+00 3.312286e+00 4.138999e+00 5.603858e+00 2.242796e-03
<GCONST> 8.770780e+01
<STATE> 5
<MEAN> 26
 9.768213e+00 -9.740614e+00 -5.755199e+00 -1.024589e+01 8.652265e+00 -6.193340e+00 -4.627724e+00 -5.921907e+00 3.494344e-01 -3.877609e+00 -4.818130e+00 -4.333877e+00 9.036286e-01 3.456848e-01 4.361287e-01 -2.436281e-01 2.084325e-01 -4.461159e-02 1.188427e-01 -4.253646e-01 1.996109e-01 -3.004878e-01 2.945592e-01 3.951529e-01 -2.397541e-01 -9.307447e-03
<VARIANCE> 26
 1.197852e+01 2.857036e+01 1.920731e+01 2.053187e+01 2.429049e+01 2.666140e+01 1.071274e+02 3.118286e+01 3.101731e+01 4.274611e+01 6.019165e+01 4.810962e+01 8.232786e-03 1.496140e-01 6.586771e-01 6.133217e-01 9.990726e-01 1.185502e+00 6.681781e-01 1.132950e+00 1.682846e+00 1.265023e+00 7.672520e-01 9.828236e-01 6.470539e-01 1.567617e-04
<GCONST> 7.290794e+01
<STATE> 6
<MEAN> 26
 1.192696e+01 -2.756473e+00 -2.202882e+00 -3.395869e+00 -5.248134e-01 -3.130083e+00 -5.031207e+00 -6.849135e+00 -3.369981e+00 -1.905637e+00 -4.383161e+00 -7.264091e+00 8.019006e-01 -2.094098e-01 1.005847e+00 1.369433e+00 1.193566e+00 -1.223116e+00 1.231535e-01 5.871962e-02 -5.426638e-01 -6.493141e-01 6.818562e-01 -4.404216e-01 2.153359e-01 -1.945828e-02
<VARIANCE> 26
 2.191952e+01 8.320024e+00 1.936143e+01 3.121883e+01 4.983216e+01 1.747354e+01 4.345607e+01 5.921312e+01 2.108763e+01 4.522379e+01 5.425656e+01 3.080131e+01 9.730357e-03 2.077125e-01 8.225936e-01 1.084959e+00 1.402852e+00 1.627178e+00 9.361001e-01 1.482346e+00 1.734846e+00 1.103499e+00 1.835344e+00 3.523501e+00 2.732951e+00 1.991600e-04
<GCONST> 7.813415e+01
<STATE> 7
<MEAN> 26
 6.392498e+00 7.572384e-01 4.013819e+00 1.319749e-01 -1.781318e+00 -1.701161e+00 -3.487084e+00 -5.014470e+00 -3.840316e+00 1.876667e+00 -5.229164e+00 -4.840726e+00 5.860419e-01 -1.230338e+00 2.001503e-01 -2.597495e-02 3.939914e-01 8.290572e-02 4.562002e-01 5.977483e-01 6.496888e-01 4.967138e-01 1.094698e-01 9.101683e-01 5.784488e-01 -4.829992e-02
<VARIANCE> 26
 1.779869e+01 8.077988e+00 1.653319e+01 1.564036e+01 2.875285e+01 1.794583e+01 2.681488e+01 4.501603e+01 1.430527e+01 2.013551e+01 4.002122e+01 2.846612e+01 3.020679e-02 5.975701e-01 6.700013e-01 1.609448e+00 9.089328e-01 1.452952e+00 1.461935e+00 2.038207e+00 2.090757e+00 1.266833e+00 1.352529e+00 1.974000e+00 1.916782e+00 9.593845e-04
<GCONST> 7.743991e+01
<TRANSP> 8
 0.000000e+00 1.000000e+00 0.000000e+00 0.000000e+00 0.000000e+00 0.000000e+00 0.000000e+00 0.000000e+00
 0.000000e+00 9.032884e-01 9.671165e-02 0.000000e+00 0.000000e+00 0.000000e+00 0.000000e+00 0.000000e+00
 0.000000e+00 0.000000e+00 7.527709e-01 2.472291e-01 0.000000e+00 0.000000e+00 0.000000e+00 0.000000e+00
 0.000000e+00 0.000000e+00 0.000000e+00 6.541060e-01 3.458940e-01 0.000000e+00 0.000000e+00 0.000000e+00
 0.000000e+00 0.000000e+00 0.000000e+00 0.000000e+00 9.001004e-01 9.989958e-02 0.000000e+00 0.000000e+00
 0.000000e+00 0.000000e+00 0.000000e+00 0.000000e+00 0.000000e+00 8.432565e-01 1.567435e-01 0.000000e+00
 0.000000e+00 0.000000e+00 0.000000e+00 0.000000e+00 0.000000e+00 0.000000e+00 8.369789e-01 1.630211e-01
 0.000000e+00 0.000000e+00 0.000000e+00 0.000000e+00 0.000000e+00 0.000000e+00 0.000000e+00 0.000000e+00
<ENDHMM>
