~o
<STREAMINFO> 1 26
<VECSIZE> 26<NULLD><MFCC_E_D_Z><DIAGC>
~h "zero"
<BEGINHMM>
<NUMSTATES> 9
<STATE> 2
<MEAN> 26
 -7.340594e+00 2.207566e+00 -1.956197e+00 1.872971e+00 -4.032553e-01 -2.995103e+00 2.002131e+00 7.971458e-01 -2.059922e+00 1.362726e+00 7.030789e-02 1.227316e+00 5.741788e-01 3.367949e-01 6.657807e-01 6.038175e-01 2.938275e-01 -8.493617e-01 -1.672017e+00 9.660503e-02 -4.582047e-01 -8.278540e-01 -4.170152e-01 -1.201711e-01 2.741837e-01 4.661316e-02
<VARIANCE> 26
 2.004947e+01 1.406830e+01 1.622711e+01 1.496729e+01 1.923279e+01 4.452217e+01 2.935913e+01 3.320103e+01 1.864722e+01 2.500460e+01 1.776904e+01 2.027822e+01 3.032881e-02 5.323026e+00 1.239149e+00 3.071531e+00 1.472136e+00 3.135283e+00 3.477195e+00 2.565284e+00 2.278620e+00 1.734154e+00 3.420180e+00 1.730967e+00 1.761637e+00 2.286666e-03
<GCONST> 8.545480e+01
<STATE> 3
<MEAN> 26
 4.299166e+00 1.103714e+00 7.007394e+00 1.890451e+00 -1.260329e+01 -1.467463e+01 -4.915417e+00 -1.914773e+00 -8.133095e+00 -3.285202e+00 1.737422e-01 1.096952e+00 8.574949e-01 2.965390e+00 -1.960319e+00 1.748839e+00 -1.852370e+00 -3.845108e+00 -1.720580e+00 -1.886614e+00 3.595271e-01 -1.032381e-01 -9.029723e-02 9.801123e-01 -4.639496e-01 7.036942e-02
<VARIANCE> 26
 1.751530e+01 2.820481e+01 8.588644e+00 3.335176e+01 4.839331e+01 2.994933e+01 2.807643e+01 2.958932e+01 1.916158e+01 3.938508e+01 2.962399e+01 1.666523e+01 8.568448e-03 3.009270e+00 2.185321e+00 2.026290e+00 1.450101e+00 2.609447e+00 3.178215e+00 3.150727e+00 3.311065e+00 2.787844e+00 2.368936e+00 2.596401e+00 2.643992e+00 1.772951e-03
<GCONST> 8.661536e+01
<STATE> 4
<MEAN> 26
 5.059883e+00 -4.992108e+00 6.875797e+00 -4.632885e+00 -1.538189e+01 -1.367623e+01 -4.528862e+00 3.845421e+00 -3.551227e+00 -2.366745e+00 2.842166e+00 -4.149497e+00 9.469543e-01 9.095530e-02 -6.560744e-01 -3.545926e-01 -3.980883e-02 1.177095e-01 2.315851e-01 -1.314298e-01 6.541407e-01 5.325670e-01 -2.380802e-01 -2.226118e-01 -2.994595e-01 -4.071489e-03
<VARIANCE> 26
 1.216115e+01 2.346295e+01 1.215359e+01 1.490977e+01 5.993941e+01 2.099804e+01 4.946289e+01 4.044515e+01 1.418686e+01 5.474842e+01 3.262669e+01 2.537103e+01 2.769393e-03 4.001641e-01 6.392297e-01 6.918105e-01 2.096033e+00 8.020018e-01 8.879821e-01 1.090703e+00 9.449530e-01 1.038802e+00 1.364015e+00 1.332203e+00 2.361847e+00 3.629063e-04
<GCONST> 7.313411e+01
<STATE> 5
<MEAN> 26
 9.958510e+00 -7.833200e+00 2.213505e+00 1.104725e+00 -1.309613e+01 -1.063743e+01 -9.758508e+00 8.730682e-01 3.566503e+00 -3.394775e+00 -2.530498e+00 -3.408597e-01 8.518089e-01 8.149693e-01 9.171451e-02 -1.707234e+00 4.351230e-01 1.172551e+00 1.501487e+00 -1.084732e+00 -1.719570e+00 1.426376e+00 7.381167e-01 -3.605199e-01 -4.584825e-01 -4.060174e-03
<VARIANCE> 26
 1.902138e+01 7.775212e+00 2.516236e+01 5.792957e+01 3.324586e+01 2.968462e+01 3.418376e+01 2.192562e+01 2.708013e+01 3.839160e+01 4.128949e+01 2.453077e+01 9.237094e-03 4.902363e-01 1.071543e+00 2.166799e+00 6.507261e+00 3.237465e+00 4.295760e+00 2.091069e+00 1.515821e+00 2.760115e+00 3.218761e+00 2.213447e+00 5.312041e+00 8.861565e-04
<GCONST> 8.617113e+01
<STATE> 6
<MEAN> 26
 1.074511e+01 -2.349798e+00 -6.560729e+00 -7.482040e+00 -5.882643e+00 2.921721e+00 -9.690763e+00 -9.012707e+00 2.485053e+00 2.688396e+00 8.570433e-01 -5.965046e+00 8.855098e-01 -2.479852e-01 1.777102e+00 -4.206307e-01 -3.094183e+00 5.619313e-01 2.523530e+00 1.195560e+00 -8.963701e-01 -1.807742e+00 8.873761e-02 1.091556e+00 8.227580e-01 -9.434361e-03
<VARIANCE> 26
 1.527802e+01 1.779243e+01 1.114364e+01 5.914786e+01 2.131983e+01 5.182653e+01 3.147492e+01 1.402882e+01 3.203812e+01 1.675034e+01 1.831200e+01 3.006741e+01 6.469835e-03 2.549964e-01 2.665048e-01 1.044405e+00 3.831875e+00 1.689073e+00 2.222658e+00 2.591506e+00 2.216579e+00 1.876964e+00 3.253818e+00 1.353492e+00 2.887173e+00 1.643635e-04
<GCONST> 7.676253e+01
<STATE> 7
<MEAN> 26
 9.805483e+00 3.391529e+00 -4.648618e+00 -1.703751e+01 -7.068493e+00 6.864038e+00 -4.118489e+00 -3.817922e+00 -2.470321e+00 -1.720327e+00 1.819060e+00 8.637420e-01 7.460858e-01 -5.387882e-01 4.299615e-01 2.567448e-01 3.003694e-01 -2.932810e-02 -8.123747e-01 7.984523e-01 1.174848e+00 8.009161e-02 -4.409212e-02 -7.185464e-03 5.716034e-01 -4.157504e-02
<VARIANCE> 26
 1.717251e+01 1.489944e+01 6.317516e+00 2.681790e+01 2.286635e+01 4.115563e+01 9.629625e+00 2.754070e+01 2.905914e+01 3.831627e+01 2.808007e+01 2.246442e+01 1.529233e-02 1.131653e+00 5.419334e-01 1.258088e+00 2.999847e+00 1.084328e+00 1.976459e+00 1.097362e+00 1.308541e+00 1.256161e+00 3.795228e+00 2.435077e+00 1.283965e+00 8.000014e-04
<GCONST> 7.770532e+01
<STATE> 8
<MEAN> 26
 2.781326e+00 2.122163e+00 -2.238914e+00 -4.481207e+00 -1.994302e+00 2.047014e-01 -6.748263e-01 -5.402333e-01 -1.686415e-01 4.669664e-01 2.093743e+00 1.602940e+00 5.229339e-01 -1.058694e+00 -5.260388e-01 3.665156e-01 1.651492e+00 1.176352e+00 -4.163454e-02 4.386160e-01 1.464965e-01 1.884484e-01 -6.115929e-02 -2.062374e-01 -1.127166e-01 -3.208397e-02
<VARIANCE> 26
 1.002684e+01 3.889269e+00 7.502766e+00 2.714596e+01 2.012168e+01 1.709636e+01 9.996556e+00 9.403573e+00 1.170203e+01 8.677796e+00 1.460010e+01 1.106981e+01 1.683827e-02 7.329126e-01 3.940771e-01 6.439430e-01 1.665092e+00 1.469976e+00 1.725121e+00 8.539831e-01 1.543400e+00 1.798992e+00 1.357047e+00 1.856854e+00 1.287653e+00 9.851233e-04
<GCONST> 6.764645e+01
<TRANSP> 9
 0.000000e+00 1.000000e+00 0.000000e+00 0.000000e+00 0.000000e+00 0.000000e+00 0.000000e+00 0.000000e+00 0.000000e+00
 0.000000e+00 8.256281e-01 1.743719e-01 0.000000e+00 0.000000e+00 0.000000e+00 0.000000e+00 0.000000e+00 0.000000e+00
 0.000000e+00 0.000000e+00 6.755012e-01 3.244988e-01 0.000000e+00 0.000000e+00 0.000000e+00 0.000000e+00 0.000000e+00
 0.000000e+00 0.000000e+00 0.000000e+00 8.722918e-01 1.277082e-01 0.000000e+00 0.000000e+00 0.000000e+00 0.000000e+00
 0.000000e+00 0.000000e+00 0.000000e+00 0.000000e+00 8.257245e-01 1.742754e-01 0.000000e+00 0.000000e+00 0.000000e+00
 0.000000e+00 0.000000e+00 0.000000e+00 0.000000e+00 0.000000e+00 7.697102e-01 2.302898e-01 0.000000e+00 0.000000e+00
 0.000000e+00 0.000000e+00 0.000000e+00 0.000000e+00 0.000000e+00 0.000000e+00 8.474307e-01 1.525693e-01 0.000000e+00
 0.000000e+00 0.000000e+00 0.000000e+00 0.000000e+00 0.000000e+00 0.000000e+00 0.000000e+00 8.209521e-01 1.790479e-01
 0.000000e+00 0.000000e+00 0.000000e+00 0.000000e+00 0.000000e+00 0.000000e+00 0.000000e+00 0.000000e+00 0.000000e+00
<ENDHMM>
