~o
<STREAMINFO> 1 26
<VECSIZE> 26<NULLD><MFCC_E_D_Z><DIAGC>
~h "go"
<BEGINHMM>
<NUMSTATES> 5
<STATE> 2
<MEAN> 26
 5.862942e+00 4.147119e+00 -2.219507e+00 -4.434056e+00 -5.425918e-01 -7.937438e-01 -1.676095e+00 -3.124346e+00 -5.832899e+00 -3.818660e+00 -1.146979e+00 -2.126863e+00 6.059195e-01 1.062668e+00 5.530933e-01 -4.073515e-01 -2.471504e+00 -1.056094e+00 4.506453e-01 -4.716422e-01 -5.846635e-01 -2.444066e-01 -1.117962e+00 3.955500e-01 -3.599325e-01 6.521671e-02
<VARIANCE> 26
 1.833237e+01 2.908216e+01 7.723660e+01 1.096092e+02 4.013146e+01 2.850492e+01 2.149946e+01 2.873900e+01 2.429643e+01 4.551923e+01 2.165472e+01 1.979431e+01 4.934168e-02 1.450134e+00 3.245861e+00 1.031899e+01 5.342981e+00 3.979401e+00 2.521080e+00 2.302689e+00 3.317734e+00 5.143721e+00 2.953536e+00 2.987255e+00 1.598732e+00 2.309640e-03
<GCONST> 9.474768e+01
<STATE> 3
<MEAN> 26
 8.854139e+00 3.689408e+00 -2.843996e+00 -2.185935e+01 -6.875127e+00 7.429996e-01 -3.051846e+00 -5.087976e+00 6.155147e-02 -7.020084e+00 2.099201e-01 -8.621931e-01 9.605249e-01 -1.016264e-03 -1.001909e-01 -8.939111e-02 -5.398566e-01 -2.408399e-01 -2.506742e-01 2.838111e-03 2.331174e-01 2.175697e-01 1.780647e-01 -3.495785e-01 2.862937e-01 -4.369686e-03
<VARIANCE> 26
 2.386926e+01 1.341817e+01 1.013808e+01 3.997588e+01 5.109521e+01 3.691097e+01 3.729628e+01 5.669910e+01 3.381047e+01 3.724473e+01 2.537972e+01 1.624180e+01 1.853378e-03 1.561751e-01 5.371947e-01 4.088934e-01 9.588190e-01 7.348967e-01 9.052803e-01 7.357210e-01 1.011882e+00 9.114373e-01 9.577506e-01 7.168567e-01 1.139336e+00 5.537954e-04
<GCONST> 6.967229e+01
<STATE> 4
<MEAN> 26
 2.924442e+00 1.202025e+00 -1.634785e+00 -8.636192e+00 -6.738592e+00 -2.832869e+00 -6.919389e-01 1.532161e+00 1.464910e+00 -5.011504e-01 -2.654781e-01 1.280699e+00 4.239075e-01 -8.673226e-01 -4.184103e-01 2.629575e-01 2.236142e+00 7.294410e-01 -3.244653e-02 4.502045e-01 4.193997e-01 1.138599e-01 7.997201e-01 2.997621e-01 8.312553e-02 -5.439812e-02
<VARIANCE> 26
 2.029287e+01 8.347052e+00 1.307470e+01 1.276652e+02 4.608926e+01 1.576074e+01 2.081033e+01 1.816098e+01 3.275364e+01 3.057193e+01 2.034075e+01 1.272763e+01 6.104520e-02 5.331704e-01 4.632802e-01 8.499614e-01 3.308516e+00 1.749171e+00 1.396626e+00 1.484311e+00 2.138892e+00 1.839383e+00 2.721637e+00 1.786257e+00 1.150971e+00 2.483361e-03
<GCONST> 8.054655e+01
<TRANSP> 5
 0.000000e+00 1.000000e+00 0.000000e+00 0.000000e+00 0.000000e+00
 0.000000e+00 8.765108e-01 1.234892e-01 0.000000e+00 0.000000e+00
 0.000000e+00 0.000000e+00 9.186959e-01 8.130405e-02 0.000000e+00
 0.000000e+00 0.000000e+00 0.000000e+00 9.020594e-01 9.794065e-02
 0.000000e+00 0.000000e+00 0.000000e+00 0.000000e+00 0.000000e+00
<ENDHMM>
~h "ni"
<BEGINHMM>
<NUMSTATES> 5
<STATE> 2
<MEAN> 26
 6.815822e+00 5.913764e+00 5.471789e+00 2.431276e-02 -4.488045e+00 -3.971134e+00 -2.842330e+00 -8.148220e+00 -2.662321e+00 -1.414680e+00 -1.717621e+00 -2.765768e+00 7.892303e-01 1.170312e-01 5.248575e-01 1.249855e+00 -2.153520e+00 -7.003842e-01 -2.366403e-02 -1.328285e+00 -9.662379e-01 -2.050769e-01 -1.767055e-01 -6.546435e-02 -5.930741e-01 5.212401e-02
<VARIANCE> 26
 2.591841e+01 9.221257e+00 2.181255e+01 5.401448e+01 3.958345e+01 1.693654e+01 2.379482e+01 5.147666e+01 5.766882e+01 2.315495e+01 1.565050e+01 2.609894e+01 1.831457e-02 2.996841e+00 1.236336e+00 1.481817e+00 4.932377e+00 2.678333e+00 3.003371e+00 2.611841e+00 4.370382e+00 3.369781e+00 2.025506e+00 2.392896e+00 2.091793e+00 1.392029e-03
<GCONST> 8.793360e+01
<STATE> 3
<MEAN> 26
 1.687134e+00 4.335362e+00 1.257773e+01 -1.605376e+01 -4.718513e+00 -5.606130e-01 -1.250310e+01 -8.088692e+00 -2.325056e+00 -4.716805e+00 5.205410e-01 -5.774353e+00 9.484279e-01 -7.295258e-02 -8.553449e-02 2.851856e-02 -2.808727e-01 -1.075396e-01 -1.819769e-03 -2.883095e-01 1.471217e-01 -6.144567e-02 -1.619927e-01 1.789946e-01 -1.170553e-01 -7.309723e-03
<VARIANCE> 26
 2.749352e+01 1.233642e+01 2.145600e+01 2.201999e+01 5.193905e+01 3.124334e+01 1.940952e+01 3.051712e+01 4.319881e+01 3.589376e+01 3.593157e+01 1.953853e+01 3.381868e-03 1.912683e-01 4.545776e-01 5.111152e-01 8.293399e-01 4.440754e-01 9.697422e-01 1.043928e+00 7.714052e-01 6.763580e-01 1.010612e+00 9.197313e-01 7.619438e-01 4.219807e-04
<GCONST> 6.888991e+01
<STATE> 4
<MEAN> 26
 3.138086e-01 2.658885e+00 6.390301e+00 -8.812723e+00 -3.154233e+00 -1.464064e+00 -8.174061e+00 -2.817790e+00 -2.672153e+00 -2.577136e+00 3.522552e-01 -3.689232e+00 5.591380e-01 -2.825829e-01 -7.127925e-01 -1.410875e+00 2.070935e+00 7.584394e-01 1.557005e-01 1.509157e+00 1.040473e+00 2.047541e-01 4.808657e-01 9.427041e-02 8.591635e-01 -6.014163e-02
<VARIANCE> 26
 7.247862e+00 1.219187e+01 2.841490e+01 6.446075e+01 3.285362e+01 2.407893e+01 3.535571e+01 2.754090e+01 2.569151e+01 3.417458e+01 3.608129e+01 1.938207e+01 4.135459e-02 6.921489e-01 6.167343e-01 2.139387e+00 2.198849e+00 1.646303e+00 2.537164e+00 1.681631e+00 2.177055e+00 2.386156e+00 2.412728e+00 2.009817e+00 1.635784e+00 1.185782e-03
<GCONST> 8.310374e+01
<TRANSP> 5
 0.000000e+00 1.000000e+00 0.000000e+00 0.000000e+00 0.000000e+00
 0.000000e+00 8.736494e-01 1.263507e-01 0.000000e+00 0.000000e+00
 0.000000e+00 0.000000e+00 9.253107e-01 7.468927e-02 0.000000e+00
 0.000000e+00 0.000000e+00 0.000000e+00 8.719423e-01 1.280577e-01
 0.000000e+00 0.000000e+00 0.000000e+00 0.000000e+00 0.000000e+00
<ENDHMM>
~h "roku"
<BEGINHMM>
<NUMSTATES> 9
<STATE> 2
<MEAN> 26
 7.574437e+00 -1.076156e+00 2.482182e+00 5.441381e+00 -1.536168e+00 -6.332691e+00 -9.695673e+00 -3.966551e+00 3.286102e+00 -5.425056e+00 -1.853580e+00 -2.901433e+00 6.805485e-01 1.226323e+00 -5.427505e-02 -6.200514e-01 -1.721571e+00 -8.607461e-01 -1.473430e-01 -1.743439e+00 -1.755154e+00 6.241879e-01 1.204949e-01 7.693304e-01 -9.740157e-01 8.089993e-02
<VARIANCE> 26
 1.926804e+01 1.675839e+01 2.307865e+01 6.068213e+01 4.823892e+01 6.974870e+01 5.751978e+01 4.392003e+01 4.442484e+01 4.009550e+01 3.990244e+01 2.926479e+01 3.741520e-02 3.241507e+00 2.508018e+00 2.794391e+00 1.306186e+01 4.012582e+00 1.276012e+01 9.342697e+00 3.614616e+00 5.157282e+00 7.690866e+00 3.874581e+00 2.453974e+00 1.715161e-03
<GCONST> 1.007370e+02
<STATE> 3
<MEAN> 26
 8.646714e+00 3.861941e+00 -4.314429e+00 -1.787584e+01 -4.895811e+00 4.658779e+00 -4.014230e+00 -1.062548e+01 6.240795e-01 -5.098634e+00 6.377243e+00 -2.249380e+00 9.311017e-01 1.177837e-01 1.111860e+00 -2.122932e-01 -1.060306e+00 2.351074e-01 8.237390e-01 1.422054e+00 6.355515e-01 -1.750900e+00 -9.090301e-01 -1.576308e-01 8.833506e-01 -1.162595e-02
<VARIANCE> 26
 2.183204e+01 1.350602e+01 9.921177e+00 3.830950e+01 5.253121e+01 4.034121e+01 4.070938e+01 4.527310e+01 4.736552e+01 4.442120e+01 2.870424e+01 4.996662e+01 3.254166e-03 7.686925e-01 6.134239e-01 1.668315e+00 6.699293e+00 2.800695e+00 2.424828e+00 3.167111e+00 3.029270e+00 2.757969e+00 5.161280e+00 2.973597e+00 3.716610e+00 1.610304e-03
<GCONST> 8.824758e+01
<STATE> 4
<MEAN> 26
 3.206022e+00 4.121192e+00 -1.523392e+00 -5.800928e+00 6.466619e-01 2.033210e+00 2.739208e+00 -2.367339e+00 -5.125012e+00 -2.852758e+00 8.237726e-02 2.408876e+00 4.631077e-01 -1.170133e+00 -7.484638e-01 1.946919e-01 1.589152e+00 4.212765e-01 -6.585280e-01 4.286052e-01 5.440555e-01 7.416168e-01 9.554476e-01 -3.068866e-01 3.265318e-01 -6.456910e-02
<VARIANCE> 26
 2.018123e+01 1.042022e+01 9.965357e+00 4.534058e+01 2.369532e+01 3.895371e+01 1.948299e+01 1.597283e+01 3.223673e+01 3.077592e+01 1.821631e+01 2.379693e+01 4.264378e-02 8.405827e-01 5.023125e-01 1.014731e+00 2.073233e+00 2.644556e+00 3.698907e+00 1.763860e+00 2.008189e+00 2.802492e+00 3.832325e+00 1.999820e+00 2.570509e+00 2.126033e-03
<GCONST> 8.291603e+01
<STATE> 5
<MEAN> 26
 -8.278931e-01 -3.086795e+00 -6.006761e+00 -3.159369e+00 2.888529e+00 -5.663111e-01 -5.520782e-01 -2.302594e+00 -1.646063e+00 3.422561e+00 -7.010967e-01 1.463794e+00 4.162820e-01 -7.891826e-02 -1.967171e+00 -2.507362e+00 -5.812151e-01 1.267192e+00 -1.265649e+00 -2.295453e+00 -9.842387e-01 7.951979e-02 9.887002e-01 -7.921598e-01 -9.323061e-01 8.404841e-02
<VARIANCE> 26
 1.153365e+01 2.342306e+01 3.394160e+01 1.778098e+01 2.792026e+01 2.512261e+01 2.855165e+01 1.965300e+01 1.801468e+01 2.186718e+01 3.076344e+01 1.959433e+01 4.425207e-02 1.655087e+00 2.988962e+00 2.182945e+00 2.118862e+00 3.946029e+00 2.885267e+00 3.001864e+00 1.521746e+00 3.326259e+00 2.262972e+00 4.327218e+00 4.918167e+00 2.198020e-03
<GCONST> 8.796748e+01
<STATE> 6
<MEAN> 26
 9.271842e-01 -2.955320e+00 -5.922717e+00 -1.082771e+00 2.778947e+00 -9.242904e+00 -8.337193e+00 -6.117032e+00 -1.870467e+00 2.946364e+00 -4.183871e+00 -3.209548e+00 7.277854e-01 8.647293e-01 1.335946e+00 2.368589e+00 1.225771e+00 -1.962783e+00 -1.598262e+00 -1.885302e+00 -7.417400e-01 -1.424025e-01 -1.034286e+00 2.983395e-01 -1.283657e+00 5.298084e-02
<VARIANCE> 26
 3.927699e+01 4.699181e+01 4.036935e+01 2.632407e+01 4.436787e+01 2.754803e+01 4.130632e+01 2.489042e+01 4.923223e+01 2.263914e+01 2.537904e+01 5.433525e+01 3.041029e-02 1.593573e+00 3.095881e+00 2.217042e+00 1.458707e+00 4.723494e+00 2.515317e+00 2.597382e+00 3.281218e+00 3.543302e+00 1.729004e+00 3.418541e+00 2.057250e+00 3.140150e-03
<GCONST> 9.245744e+01
<STATE> 7
<MEAN> 26
 4.814948e+00 9.097900e-01 1.665428e+00 -1.700288e+00 -9.867534e+00 -1.152919e+01 -1.508545e+01 -5.347562e+00 -1.583261e+00 -2.573850e+00 6.170808e-01 -6.135525e+00 8.929319e-01 -3.461001e-01 -1.373814e-01 3.708724e-01 -2.614296e-01 -2.579415e-01 -2.033544e-01 2.782708e-01 3.845721e-01 1.966460e-01 1.863798e-01 1.923091e-01 6.758963e-01 -2.854568e-02
<VARIANCE> 26
 1.947289e+01 3.158598e+01 1.372199e+01 2.280004e+01 1.944178e+01 1.633173e+01 2.900454e+01 3.995914e+01 2.092441e+01 3.087325e+01 2.274800e+01 3.474840e+01 2.001373e-02 6.372478e-01 7.698522e-01 4.749821e-01 7.777476e-01 1.370346e+00 9.445118e-01 1.628690e+00 1.475739e+00 1.714426e+00 2.171059e+00 1.195975e+00 1.124123e+00 1.803744e-03
<GCONST> 7.671954e+01
<STATE> 8
<MEAN> 26
 -1.547586e+00 -2.748696e+00 2.026046e+00 2.043948e+00 -7.948180e-01 -7.033757e+00 -2.912820e+00 -4.978503e-01 1.650588e+00 2.737046e+00 -1.314965e+00 1.556877e+00 3.206153e-01 -2.381662e-02 1.906707e-01 -1.144323e-01 2.798432e-01 5.256119e-01 1.353391e+00 1.216085e+00 5.080310e-01 1.959428e-02 -1.473237e-01 4.305272e-03 1.052977e-01 -2.776290e-02
<VARIANCE> 26
 1.151664e+01 2.647500e+01 6.709567e+00 1.593814e+01 2.879342e+01 3.889222e+01 2.617376e+01 1.960893e+01 2.303381e+01 1.686890e+01 2.281526e+01 1.570005e+01 3.068546e-02 6.553159e-01 9.455858e-01 6.434122e-01 1.147014e+00 1.897159e+00 2.571354e+00 2.076934e+00 1.539708e+00 1.313679e+00 1.766591e+00 1.201996e+00 1.744579e+00 1.108223e-03
<GCONST> 7.654055e+01
<TRANSP> 9
 0.000000e+00 1.000000e+00 0.000000e+00 0.000000e+00 0.000000e+00 0.000000e+00 0.000000e+00 0.000000e+00 0.000000e+00
 0.000000e+00 8.371362e-01 1.628637e-01 0.000000e+00 0.000000e+00 0.000000e+00 0.000000e+00 0.000000e+00 0.000000e+00
 0.000000e+00 0.000000e+00 8.516812e-01 1.483188e-01 0.000000e+00 0.000000e+00 0.000000e+00 0.000000e+00 0.000000e+00
 0.000000e+00 0.000000e+00 0.000000e+00 8.730599e-01 1.269400e-01 0.000000e+00 0.000000e+00 0.000000e+00 0.000000e+00
 0.000000e+00 0.000000e+00 0.000000e+00 0.000000e+00 7.242416e-01 2.757584e-01 0.000000e+00 0.000000e+00 0.000000e+00
 0.000000e+00 0.000000e+00 0.000000e+00 0.000000e+00 0.000000e+00 7.578299e-01 2.421701e-01 0.000000e+00 0.000000e+00
 0.000000e+00 0.000000e+00 0.000000e+00 0.000000e+00 0.000000e+00 0.000000e+00 8.891526e-01 1.108473e-01 0.000000e+00
 0.000000e+00 0.000000e+00 0.000000e+00 0.000000e+00 0.000000e+00 0.000000e+00 0.000000e+00 8.977849e-01 1.022150e-01
 0.000000e+00 0.000000e+00 0.000000e+00 0.000000e+00 0.000000e+00 0.000000e+00 0.000000e+00 0.000000e+00 0.000000e+00
<ENDHMM>
~h "hachi"
<BEGINHMM>
<NUMSTATES> 9
<STATE> 2
<MEAN> 26
 -2.225348e+00 -9.653656e+00 -2.274897e+00 -1.899201e+00 8.154959e+00 2.407435e+00 -2.803131e+00 3.484055e-01 2.914824e+00 -1.612296e+00 3.647386e-02 -7.122275e-01 4.757363e-01 9.877471e-02 -3.979634e-01 -3.641714e-02 -5.776803e-01 5.429339e-01 -1.383031e-01 6.649032e-01 -8.211449e-01 1.616409e-01 -9.644848e-01 -3.920693e-01 -5.831822e-02 4.651435e-02
<VARIANCE> 26
 2.262501e+01 2.005381e+01 1.294400e+01 3.949055e+01 1.402888e+01 1.735155e+01 2.898789e+01 4.566687e+01 2.395125e+01 2.497987e+01 2.224218e+01 1.373580e+01 2.752813e-02 3.233029e+00 3.245977e+00 1.854526e+00 2.103008e+00 1.839427e+00 1.537578e+00 2.666995e+00 2.615658e+00 1.661502e+00 1.862055e+00 1.464561e+00 1.593174e+00 1.048831e-03
<GCONST> 8.315612e+01
<STATE> 3
<MEAN> 26
 7.795541e+00 -6.554509e+00 -3.245310e+00 -8.268396e+00 3.301661e+00 -3.890836e+00 3.012797e+00 -7.690242e+00 6.664230e+00 -7.562041e+00 -4.995474e+00 -3.658045e+00 9.288880e-01 6.748229e-01 5.244330e-01 1.119644e-01 -6.281079e-02 -1.038723e+00 -1.199606e+00 -2.226382e-01 2.192991e-01 2.738165e-01 2.627346e-03 -5.104467e-01 -5.231730e-02 1.277269e-02
<VARIANCE> 26
 1.469369e+01 3.235919e+01 6.276622e+01 3.844300e+01 8.022511e+01 5.324249e+01 6.800143e+01 4.227694e+01 5.461209e+01 2.082575e+01 2.926081e+01 2.449391e+01 5.556839e-03 2.033190e+00 2.970509e+00 3.419521e+00 3.901712e+00 4.075670e+00 4.307909e+00 3.437601e+00 3.871596e+00 3.487554e+00 2.141731e+00 1.637986e+00 2.438482e+00 3.695465e-03
<GCONST> 9.411774e+01
<STATE> 4
<MEAN> 26
 4.988671e+00 -6.831368e-01 -1.881148e+00 -4.904617e-01 5.778962e-01 -5.259118e-01 1.219388e+00 -2.417873e-01 1.828757e+00 -1.278860e+00 -5.338053e+00 -1.028707e+00 5.117306e-01 -6.926844e-01 1.601957e-01 -1.548391e-01 4.755098e-01 -5.671730e-02 9.535732e-01 -1.475006e-02 4.529042e-01 -3.854090e-01 9.565153e-01 6.108744e-01 1.023972e-01 -4.906063e-02
<VARIANCE> 26
 9.982425e+00 1.296419e+01 2.612007e+01 1.609323e+01 1.106906e+01 3.194809e+01 2.406417e+01 1.494923e+01 4.548234e+01 2.325730e+01 3.399665e+01 1.827283e+01 5.425834e-02 6.864986e-01 9.570619e-01 1.001320e+00 1.121469e+00 1.818619e+00 2.936377e+00 2.044432e+00 1.428379e+00 2.384437e+00 1.459477e+00 2.381561e+00 1.468240e+00 2.632548e-03
<GCONST> 7.992609e+01
<STATE> 5
<MEAN> 26
 -8.916586e+00 3.500621e+00 -3.525639e+00 -3.808440e-04 7.421376e-01 -3.252715e+00 1.521629e+00 -3.025137e-01 7.618566e-01 1.432079e+00 6.348118e-01 9.059305e-01 5.097048e-01 -3.221962e+00 1.481259e+00 2.926550e-01 -5.602927e-01 8.909780e-01 -1.292775e+00 3.431344e-01 -3.423891e-01 -4.015109e-01 -3.859325e-01 2.081554e-01 3.177052e-01 6.815374e-02
<VARIANCE> 26
 5.514230e+01 2.192913e+01 1.471978e+01 8.333749e+00 1.708628e+01 2.257922e+01 1.253493e+01 2.135356e+01 1.396929e+01 2.278987e+01 1.871657e+01 9.553130e+00 4.884941e-02 2.479117e+00 1.018121e+00 1.817459e+00 1.005315e+00 1.710614e+00 2.436462e+00 1.356951e+00 1.664210e+00 2.006049e+00 2.269934e+00 1.224590e+00 1.100434e+00 1.740432e-03
<GCONST> 7.839874e+01
<STATE> 6
<MEAN> 26
 -1.483046e+01 4.571394e+00 2.736055e+00 -4.873644e+00 2.268672e+00 -3.354258e+00 6.164420e-01 8.312011e-01 9.277327e-02 1.105092e+00 1.837880e+00 1.066530e+00 6.719619e-01 6.512966e-01 -2.457937e-01 3.684857e-01 -1.854236e-01 -1.613435e-01 1.174317e-01 -3.008958e-01 6.132330e-02 -9.870725e-02 -1.399047e-01 6.677033e-02 -5.534302e-02 -1.698999e-02
<VARIANCE> 26
 2.091401e+01 8.308571e+00 1.472373e+01 7.479543e+00 1.214942e+01 1.418910e+01 1.445603e+01 1.160041e+01 1.190843e+01 1.657286e+01 1.296004e+01 8.452340e+00 3.182353e-02 7.751871e-01 3.863044e-01 9.640256e-01 5.528213e-01 9.513866e-01 9.538664e-01 1.145687e+00 9.747508e-01 1.304123e+00 1.494440e+00 1.247558e+00 9.635460e-01 5.806169e-04
<GCONST> 6.602798e+01
<STATE> 7
<MEAN> 26
 -2.757735e-02 4.856632e+00 1.145511e+01 -7.138085e+00 -8.922100e+00 -9.623306e+00 -5.609662e+00 -6.687107e+00 -9.716272e+00 -4.168980e+00 6.671212e-01 -3.578642e+00 7.668195e-01 1.425983e+00 -3.080224e-01 1.155085e+00 -5.053296e-01 -1.680709e+00 -7.874013e-02 -1.048580e+00 -6.875401e-01 -4.835206e-01 -2.560736e-01 3.073561e-01 -6.165243e-01 1.048780e-03
<VARIANCE> 26
 2.566114e+01 1.458262e+01 4.111477e+01 1.727477e+01 4.522869e+01 2.326031e+01 2.634100e+01 4.810124e+01 3.238519e+01 3.847024e+01 1.927075e+01 1.458129e+01 3.350250e-02 2.458875e+00 9.998786e-01 2.210024e+00 1.278358e+00 3.232886e+00 2.980716e+00 1.597702e+00 1.784746e+00 3.337866e+00 2.762818e+00 2.336748e+00 1.137105e+00 1.071169e-03
<GCONST> 8.535930e+01
<STATE> 8
<MEAN> 26
 1.261024e+00 1.822945e+00 7.612133e+00 -3.079977e+00 -6.538957e+00 -3.288859e+00 -5.954220e+00 -4.854174e+00 -5.264981e+00 4.051280e-01 3.050929e+00 -1.921779e+00 4.321451e-01 1.048531e-01 -1.445067e-01 -1.537506e+00 1.501312e+00 1.241972e+00 1.000696e+00 1.182055e+00 7.776973e-01 4.870436e-01 6.379802e-01 -3.366457e-01 5.834397e-01 -3.803133e-02
<VARIANCE> 26
 3.398015e+00 5.710039e+00 4.421169e+01 3.187809e+01 3.173499e+01 1.652589e+01 2.527585e+01 3.792937e+01 2.712066e+01 2.007493e+01 1.888750e+01 2.413795e+01 6.831148e-02 9.630717e-01 4.526746e-01 1.937345e+00 1.415085e+00 2.216752e+00 1.180888e+00 2.265681e+00 2.127666e+00 2.027509e+00 2.400983e+00 1.576218e+00 1.166757e+00 1.667345e-03
<GCONST> 7.937637e+01
<TRANSP> 9
 0.000000e+00 1.000000e+00 0.000000e+00 0.000000e+00 0.000000e+00 0.000000e+00 0.000000e+00 0.000000e+00 0.000000e+00
 0.000000e+00 8.745918e-01 1.254082e-01 0.000000e+00 0.000000e+00 0.000000e+00 0.000000e+00 0.000000e+00 0.000000e+00
 0.000000e+00 0.000000e+00 8.746830e-01 1.253171e-01 0.000000e+00 0.000000e+00 0.000000e+00 0.000000e+00 0.000000e+00
 0.000000e+00 0.000000e+00 0.000000e+00 8.941330e-01 1.058671e-01 0.000000e+00 0.000000e+00 0.000000e+00 0.000000e+00
 0.000000e+00 0.000000e+00 0.000000e+00 0.000000e+00 8.019041e-01 1.980959e-01 0.000000e+00 0.000000e+00 0.000000e+00
 0.000000e+00 0.000000e+00 0.000000e+00 0.000000e+00 0.000000e+00 9.101154e-01 8.988468e-02 0.000000e+00 0.000000e+00
 0.000000e+00 0.000000e+00 0.000000e+00 0.000000e+00 0.000000e+00 0.000000e+00 8.316219e-01 1.683780e-01 0.000000e+00
 0.000000e+00 0.000000e+00 0.000000e+00 0.000000e+00 0.000000e+00 0.000000e+00 0.000000e+00 8.141480e-01 1.858520e-01
 0.000000e+00 0.000000e+00 0.000000e+00 0.000000e+00 0.000000e+00 0.000000e+00 0.000000e+00 0.000000e+00 0.000000e+00
<ENDHMM>
~h "kyuu"
<BEGINHMM>
<NUMSTATES> 5
<STATE> 2
<MEAN> 26
 -7.864705e+00 -1.213534e+00 6.601512e+00 -4.151384e+00 -6.651205e+00 4.740497e-01 -5.735613e-01 -6.652349e+00 2.294322e+00 -1.450858e+00 -1.373650e+00 -4.964355e-01 6.420083e-01 5.940960e-01 4.890158e-02 1.269973e+00 -1.758037e-01 -1.898361e+00 -1.467989e+00 -5.786839e-01 -1.131393e+00 -9.994368e-01 -5.311917e-01 1.213716e-01 -5.086232e-01 5.649052e-02
<VARIANCE> 26
 4.189251e+01 3.019539e+01 3.390435e+01 2.145356e+01 5.408264e+01 3.735017e+01 2.594162e+01 5.867533e+01 5.184415e+01 2.009727e+01 2.238170e+01 2.120617e+01 4.034773e-02 6.800767e+00 2.352277e+00 1.991473e+00 2.965427e+00 3.764680e+00 3.756653e+00 2.566926e+00 3.675862e+00 5.221158e+00 3.010368e+00 3.897358e+00 2.850181e+00 1.551475e-03
<GCONST> 9.449283e+01
<STATE> 3
<MEAN> 26
 4.229850e+00 -1.486961e+00 8.656471e+00 -1.911009e+00 -1.382015e+01 -1.453549e+01 -8.998391e+00 -4.882681e+00 -4.477571e+00 -8.555478e+00 3.177137e+00 -1.111194e+00 9.421419e-01 3.762887e-01 6.502364e-02 -5.131840e-01 1.483399e-01 6.371527e-01 -4.631878e-01 -4.859426e-01 5.640620e-01 3.287402e-01 -1.778862e-03 1.445542e-02 5.998285e-01 -5.675768e-03
<VARIANCE> 26
 1.976720e+01 3.639166e+01 1.380445e+01 1.136267e+01 6.334794e+01 1.165108e+01 3.587109e+01 3.743515e+01 4.247918e+01 4.176677e+01 4.112554e+01 3.016490e+01 2.916642e-03 1.502306e-01 6.900134e-01 3.975390e-01 6.170458e-01 7.846518e-01 1.095600e+00 1.130340e+00 1.084529e+00 1.065481e+00 1.656739e+00 1.840246e+00 1.558983e+00 2.625524e-04
<GCONST> 7.174988e+01
<STATE> 4
<MEAN> 26
 4.930589e+00 1.871885e+00 3.436445e+00 7.276825e-01 -2.858933e+00 -1.061779e+01 -7.949564e+00 -2.291360e+00 -2.430962e+00 -2.054080e+00 9.068630e-01 1.351718e+00 5.825037e-01 -5.199863e-01 6.053458e-03 -5.130122e-01 1.363234e-01 8.389958e-01 1.382610e+00 9.585582e-01 2.041691e-01 3.440462e-02 5.267536e-01 -8.637518e-02 -2.711869e-01 -4.644151e-02
<VARIANCE> 26
 9.925008e+00 9.624285e+00 1.383967e+01 1.259155e+01 3.693053e+01 4.140731e+01 5.173605e+01 1.405207e+01 1.235647e+01 1.683814e+01 2.746363e+01 1.606497e+01 4.756266e-02 4.175332e-01 9.240963e-01 7.298301e-01 8.301711e-01 1.278314e+00 1.977453e+00 1.831121e+00 1.576233e+00 1.089580e+00 1.082443e+00 1.740297e+00 1.167644e+00 5.606349e-04
<GCONST> 7.372931e+01
<TRANSP> 5
 0.000000e+00 1.000000e+00 0.000000e+00 0.000000e+00 0.000000e+00
 0.000000e+00 9.013775e-01 9.862252e-02 0.000000e+00 0.000000e+00
 0.000000e+00 0.000000e+00 9.311939e-01 6.880611e-02 0.000000e+00
 0.000000e+00 0.000000e+00 0.000000e+00 9.173900e-01 8.261001e-02
 0.000000e+00 0.000000e+00 0.000000e+00 0.000000e+00 0.000000e+00
<ENDHMM>
~h "seven"
<BEGINHMM>
<NUMSTATES> 9
<STATE> 2
<MEAN> 26
 4.141238e+00 4.045704e+00 6.876818e+00 3.593813e-01 -4.825735e+00 -6.333414e+00 -4.037342e+00 -2.337611e+00 1.195132e+00 -5.350899e+00 -3.516540e+00 1.083827e+00 7.029312e-01 7.079306e-01 -1.424553e+00 -7.870447e-01 -1.605725e+00 2.550824e-01 -1.039162e+00 -4.186967e-01 7.680287e-01 9.739965e-01 -1.700152e+00 -9.832878e-01 -4.850769e-01 6.820451e-02
<VARIANCE> 26
 1.609181e+01 3.257918e+01 2.330843e+01 4.004200e+01 3.598703e+01 3.034911e+01 3.365978e+01 5.798143e+01 6.848965e+01 4.037051e+01 2.474976e+01 1.762896e+01 2.715784e-02 2.043234e+00 4.470127e+00 4.728666e+00 2.998557e+00 5.564864e+00 4.178096e+00 3.568253e+00 7.601742e+00 4.413094e+00 3.199893e+00 1.825081e+00 2.406249e+00 1.086961e-03
<GCONST> 9.446844e+01
<STATE> 3
<MEAN> 26
 3.360249e+00 -8.388748e+00 -3.162843e+00 -1.022167e+01 5.380607e+00 -5.084610e+00 -8.483641e-01 -1.046721e+00 6.303387e+00 -1.031768e+01 -7.234964e+00 -5.077602e+00 9.729072e-01 9.770214e-04 -2.049626e-01 -5.147229e-01 -2.641994e-01 4.524606e-01 4.997346e-02 -2.247723e-01 -4.971303e-01 3.071759e-02 2.879299e-01 -8.497893e-02 -3.294050e-01 8.583266e-03
<VARIANCE> 26
 1.804040e+01 1.785460e+01 7.651664e+00 1.545669e+01 5.663730e+01 1.902157e+01 2.852702e+01 6.326617e+01 2.267465e+01 2.033990e+01 1.102289e+01 1.912073e+01 1.136240e-03 1.130797e-01 1.179264e+00 7.100371e-01 7.986390e-01 1.855443e+00 2.115394e+00 1.452158e+00 2.795512e+00 8.502631e-01 1.112908e+00 8.601202e-01 2.649038e+00 2.546367e-04
<GCONST> 7.019663e+01
<STATE> 4
<MEAN> 26
 5.668264e+00 -3.455963e-01 2.673329e+00 -3.284001e+00 -3.226432e+00 -9.478273e+00 -6.987405e+00 -5.254126e+00 5.110741e+00 -8.541420e+00 -6.799227e+00 -2.245128e+00 8.898537e-01 3.480493e-01 1.570176e+00 1.784344e+00 1.585323e+00 -1.394939e+00 -3.817479e-01 -5.676693e-01 -1.818387e+00 -1.115648e-01 7.584154e-01 2.546699e-02 3.613302e-01 -1.625207e-02
<VARIANCE> 26
 1.714424e+01 2.651526e+01 4.309483e+01 2.585013e+01 5.145219e+01 2.063531e+01 3.479252e+01 8.383295e+01 6.239477e+01 6.507561e+01 1.793568e+01 1.939257e+01 4.590132e-03 2.528046e-01 1.509271e+00 1.932397e+00 1.618149e+00 1.106735e+00 1.834498e+00 2.449161e+00 4.179824e+00 1.771413e+00 3.127818e+00 1.539790e+00 1.480667e+00 4.562943e-04
<GCONST> 8.269728e+01
<STATE> 5
<MEAN> 26
 6.313208e+00 -3.672989e-01 2.075679e+00 -3.420902e+00 -1.589759e+00 -8.936082e+00 -8.337245e+00 -4.079526e+00 3.638262e+00 -5.323311e+00 -7.512228e+00 -3.642503e+00 8.724598e-01 -2.527721e-01 -2.300475e+00 -2.894753e+00 -2.340458e+00 2.655733e+00 9.348429e-01 1.844919e-01 3.132905e+00 -2.059128e-01 -7.058411e-01 1.287502e-01 -1.105070e+00 1.462486e-02
<VARIANCE> 26
 2.237454e+01 2.255425e+01 4.763340e+01 2.684970e+01 5.659614e+01 2.109010e+01 2.671499e+01 9.137830e+01 4.831073e+01 4.632462e+01 1.374901e+01 1.768344e+01 5.742664e-03 2.568203e-01 1.754056e+00 1.536026e+00 1.131913e+00 1.665061e+00 1.625441e+00 2.211286e+00 1.925599e+00 3.298883e+00 4.465456e+00 1.756453e+00 2.143849e+00 4.000619e-04
<GCONST> 8.248658e+01
<STATE> 6
<MEAN> 26
 6.269351e+00 -8.648070e+00 -5.903917e+00 -1.005871e+01 8.620561e+00 -3.811573e+00 -4.699728e+00 -9.360480e-01 1.714882e+00 -7.771208e+00 -5.347143e+00 -8.316459e+00 9.301078e-01 1.489004e-01 -5.881143e-01 -3.855053e-01 -6.080826e-01 1.158748e+00 1.076485e+00 9.818694e-01 -1.726015e+00 -2.661775e-02 5.935426e-01 6.508270e-01 -5.876852e-01 -5.121183e-03
<VARIANCE> 26
 1.327481e+01 1.294233e+01 1.144306e+01 7.227585e+00 3.378242e+01 1.075173e+01 3.194666e+01 3.593240e+01 5.366985e+01 1.475017e+01 1.791880e+01 1.876618e+01 2.572960e-03 2.939099e-01 1.061228e+00 5.712222e-01 8.842707e-01 1.253355e+00 9.507160e-01 9.957396e-01 2.146348e+00 1.481134e+00 1.961403e+00 4.699353e-01 1.107920e+00 1.995177e-04
<GCONST> 6.779744e+01
<STATE> 7
<MEAN> 26
 5.583166e+00 -7.277643e+00 -6.249043e+00 -1.154550e+01 1.021939e+01 2.784460e+00 -1.788611e+00 -6.251351e+00 2.082031e+00 -3.471781e+00 -2.154005e+00 -8.348257e+00 7.710798e-01 -2.511657e-01 7.059224e-01 -2.138459e-01 4.316146e-01 -1.531029e-01 8.231186e-01 5.848499e-03 3.311716e-01 -3.043621e-01 6.486492e-01 1.579941e-01 2.512893e-01 -3.876357e-02
<VARIANCE> 26
 1.924578e+01 1.258577e+01 1.196674e+01 2.342381e+01 2.138549e+01 2.353007e+01 3.471944e+01 3.490574e+01 2.883228e+01 9.916828e+00 1.407784e+01 9.888122e+00 1.073940e-02 6.060072e-01 6.185288e-01 6.012568e-01 8.297973e-01 8.297942e-01 8.277773e-01 9.019160e-01 1.198030e+00 1.206557e+00 1.137155e+00 7.463290e-01 7.290998e-01 6.260108e-04
<GCONST> 6.864622e+01
<STATE> 8
<MEAN> 26
 1.080415e+00 -7.943546e-01 -4.855676e+00 -2.513651e+00 4.496961e+00 4.657193e+00 3.242693e-01 -4.137125e-01 -2.826881e-01 2.793742e+00 -1.828355e+00 -4.266904e+00 3.630541e-01 -7.898840e-01 6.060947e-01 8.483106e-01 1.267583e+00 -1.007855e+00 -2.661345e-01 5.528131e-01 4.441760e-01 -2.866599e-01 4.293026e-01 4.497176e-01 9.267684e-01 -3.864329e-02
<VARIANCE> 26
 8.586658e+00 8.375369e+00 1.479505e+01 1.831260e+01 1.545599e+01 1.341111e+01 1.646305e+01 2.297105e+01 1.713959e+01 1.710078e+01 1.588289e+01 2.149765e+01 4.173531e-02 6.707794e-01 6.601946e-01 1.126961e+00 1.595090e+00 1.983444e+00 1.593114e+00 2.006541e+00 1.804737e+00 1.517089e+00 1.795635e+00 1.520113e+00 1.328407e+00 1.419431e-03
<GCONST> 7.462562e+01
<TRANSP> 9
 0.000000e+00 1.000000e+00 0.000000e+00 0.000000e+00 0.000000e+00 0.000000e+00 0.000000e+00 0.000000e+00 0.000000e+00
 0.000000e+00 8.566236e-01 1.433764e-01 0.000000e+00 0.000000e+00 0.000000e+00 0.000000e+00 0.000000e+00 0.000000e+00
 0.000000e+00 0.000000e+00 8.314591e-01 1.685409e-01 0.000000e+00 0.000000e+00 0.000000e+00 0.000000e+00 0.000000e+00
 0.000000e+00 0.000000e+00 0.000000e+00 8.409730e-01 1.590270e-01 0.000000e+00 0.000000e+00 0.000000e+00 0.000000e+00
 0.000000e+00 0.000000e+00 0.000000e+00 0.000000e+00 7.536812e-01 2.463188e-01 0.000000e+00 0.000000e+00 0.000000e+00
 0.000000e+00 0.000000e+00 0.000000e+00 0.000000e+00 0.000000e+00 7.871127e-01 2.128873e-01 0.000000e+00 0.000000e+00
 0.000000e+00 0.000000e+00 0.000000e+00 0.000000e+00 0.000000e+00 0.000000e+00 8.671374e-01 1.328626e-01 0.000000e+00
 0.000000e+00 0.000000e+00 0.000000e+00 0.000000e+00 0.000000e+00 0.000000e+00 0.000000e+00 8.707835e-01 1.292165e-01
 0.000000e+00 0.000000e+00 0.000000e+00 0.000000e+00 0.000000e+00 0.000000e+00 0.000000e+00 0.000000e+00 0.000000e+00
<ENDHMM>
~h "san"
<BEGINHMM>
<NUMSTATES> 8
<STATE> 2
<MEAN> 26
 -1.198013e+01 4.764534e+00 -3.155359e+00 4.129432e+00 -1.665169e+00 -1.105989e+00 2.799674e-01 2.677834e+00 5.927198e-02 8.163523e-03 1.012121e+00 2.938567e+00 3.781890e-01 -6.920635e-01 -5.093476e-02 -4.088509e-01 -9.167969e-03 -2.342673e-01 -9.942940e-04 1.128756e-02 1.405253e-02 8.697599e-02 -1.001406e-01 3.292274e-02 3.818781e-02 1.720557e-02
<VARIANCE> 26
 1.766905e+01 8.120625e+00 1.091324e+01 1.781834e+01 1.816605e+01 2.960455e+01 1.517093e+01 1.590845e+01 1.831879e+01 1.294093e+01 2.217731e+01 1.429889e+01 5.337384e-02 1.345408e+00 7.052387e-01 7.890021e-01 1.216058e+00 9.383698e-01 1.485535e+00 1.298895e+00 1.604121e+00 1.658587e+00 1.132119e+00 1.148692e+00 1.123432e+00 6.826796e-04
<GCONST> 7.266003e+01
<STATE> 3
<MEAN> 26
 -7.009230e+00 -5.526984e-01 -3.588499e+00 -1.040713e+00 -2.709398e+00 -2.290188e+00 2.581098e-01 4.366516e+00 1.733886e+00 -2.134319e+00 2.200872e+00 3.210623e+00 6.707184e-01 3.420132e+00 -1.264655e+00 1.743224e-01 -1.110529e+00 9.357322e-01 -8.367587e-01 3.195138e-01 -6.936976e-01 1.822782e-01 -1.419383e+00 -1.871627e+00 -5.264218e-01 6.127876e-02
<VARIANCE> 26
 3.119141e+01 2.067554e+01 1.946211e+01 1.347908e+01 2.194078e+01 1.993818e+01 2.013060e+01 2.958706e+01 1.783187e+01 2.582451e+01 3.659961e+01 1.685611e+01 3.757742e-02 2.669814e+00 1.582379e+00 1.972117e+00 1.706874e+00 4.479575e+00 1.986188e+00 3.754713e+00 3.368966e+00 2.326204e+00 4.723010e+00 2.865424e+00 3.985159e+00 2.688214e-03
<GCONST> 8.786096e+01
<STATE> 4
<MEAN> 26
 6.085843e+00 -7.557842e+00 -4.010232e+00 -7.778928e+00 4.569529e+00 -4.928196e+00 1.899235e+00 -5.168146e+00 3.550441e+00 -9.087855e+00 -7.348501e+00 -5.123837e+00 9.251018e-01 1.566016e+00 -2.229622e+00 -5.655681e-02 -2.164179e+00 2.335101e+00 1.827338e-01 5.987698e-01 -2.405396e+00 5.068702e-01 -2.095228e-01 -6.671621e-01 -1.776958e+00 5.716204e-02
<VARIANCE> 26
 1.192984e+01 3.333227e+01 1.991425e+01 2.424120e+01 4.023321e+01 1.109078e+01 4.024943e+01 2.952065e+01 3.965525e+01 4.492856e+01 2.427915e+01 3.846178e+01 4.392757e-03 2.400831e+00 2.693455e+00 1.384505e+00 1.263790e+00 1.459457e+00 2.233340e+00 2.984256e+00 1.461356e+00 4.242574e+00 3.968323e+00 4.084840e+00 4.524483e+00 1.990472e-03
<GCONST> 8.662894e+01
<STATE> 5
<MEAN> 26
 7.773064e+00 -9.879474e+00 -3.835473e+00 -1.128577e+01 1.136072e+01 -2.951150e+00 1.348724e+00 -8.712582e+00 1.180905e+00 -4.282378e+00 -6.045844e+00 -6.892055e+00 9.618217e-01 3.447473e-01 1.138726e-01 -1.811328e-01 9.121208e-03 2.482828e-02 1.111369e-01 -4.775310e-01 -1.180563e-02 -1.356533e-01 2.044276e-01 8.888953e-02 -4.319776e-01 -6.748837e-03
<VARIANCE> 26
 1.923398e+01 3.058786e+01 2.328205e+01 1.428471e+01 1.497451e+01 1.821819e+01 4.048188e+01 2.389905e+01 2.901092e+01 3.250733e+01 3.227038e+01 3.093979e+01 1.381270e-03 1.596832e-01 4.343632e-01 5.555285e-01 6.928843e-01 6.535530e-01 6.155561e-01 6.829194e-01 1.407516e+00 1.026699e+00 8.938727e-01 6.131694e-01 6.165588e-01 1.177738e-04
<GCONST> 6.494443e+01
<STATE> 6
<MEAN> 26
 1.076407e+01 -4.527868e+00 -9.551463e-01 -5.601048e+00 1.331914e+00 -2.139757e+00 -3.489279e+00 -8.153896e+00 -7.690442e-01 -3.194839e+00 -5.178554e+00 -7.590118e+00 8.145788e-01 -1.195236e-01 1.000675e+00 1.255683e+00 9.810901e-01 -1.264458e+00 8.037688e-04 -3.732307e-01 -9.542972e-02 -5.769073e-01 6.298169e-01 -1.282011e-01 4.120915e-01 -2.420701e-02
<VARIANCE> 26
 2.923956e+01 1.727893e+01 3.508887e+01 4.069715e+01 4.824804e+01 1.305630e+01 2.957511e+01 6.732954e+01 4.331485e+01 5.118866e+01 4.911557e+01 3.197969e+01 8.582843e-03 2.080664e-01 7.245421e-01 1.152883e+00 1.153041e+00 1.282524e+00 1.088718e+00 1.654278e+00 2.148171e+00 1.570430e+00 1.791602e+00 3.029728e+00 2.865322e+00 2.187891e-04
<GCONST> 8.038390e+01
<STATE> 7
<MEAN> 26
 4.803565e+00 6.568285e-01 5.144758e+00 -9.374539e-01 -1.575187e+00 -1.902461e+00 -3.815754e+00 -5.853480e+00 -1.436093e+00 1.063378e+00 -4.140782e+00 -4.210628e+00 5.094444e-01 -1.099739e+00 3.333894e-01 -5.127754e-01 5.031409e-01 6.659840e-02 4.615825e-01 4.742623e-01 1.073539e+00 2.313866e-01 1.392940e-01 1.074743e+00 8.670686e-01 -5.894007e-02
<VARIANCE> 26
 2.375353e+01 8.295904e+00 2.266313e+01 1.513070e+01 3.139249e+01 1.885771e+01 2.383683e+01 5.045327e+01 3.797026e+01 2.365490e+01 3.923968e+01 2.617970e+01 4.292772e-02 9.585202e-01 6.916678e-01 1.869757e+00 7.660894e-01 1.723559e+00 1.586471e+00 2.083951e+00 2.974600e+00 2.450958e+00 2.129436e+00 1.686357e+00 2.115020e+00 7.859005e-04
<GCONST> 8.152223e+01
<TRANSP> 8
 0.000000e+00 1.000000e+00 0.000000e+00 0.000000e+00 0.000000e+00 0.000000e+00 0.000000e+00 0.000000e+00
 0.000000e+00 9.152988e-01 8.470120e-02 0.000000e+00 0.000000e+00 0.000000e+00 0.000000e+00 0.000000e+00
 0.000000e+00 0.000000e+00 7.540966e-01 2.459035e-01 0.000000e+00 0.000000e+00 0.000000e+00 0.000000e+00
 0.000000e+00 0.000000e+00 0.000000e+00 6.982711e-01 3.017289e-01 0.000000e+00 0.000000e+00 0.000000e+00
 0.000000e+00 0.000000e+00 0.000000e+00 0.000000e+00 8.915789e-01 1.084210e-01 0.000000e+00 0.000000e+00
 0.000000e+00 0.000000e+00 0.000000e+00 0.000000e+00 0.000000e+00 8.767383e-01 1.232617e-01 0.000000e+00
 0.000000e+00 0.000000e+00 0.000000e+00 0.000000e+00 0.000000e+00 0.000000e+00 8.535395e-01 1.464605e-01
 0.000000e+00 0.000000e+00 0.000000e+00 0.000000e+00 0.000000e+00 0.000000e+00 0.000000e+00 0.000000e+00
<ENDHMM>
~h "sil"
<BEGINHMM>
<NUMSTATES> 5
<STATE> 2
<MEAN> 26
 9.588962e-01 7.775231e-02 -1.321785e+00 2.791917e+00 -5.355168e-01 2.082176e+00 1.014477e+00 1.746153e+00 -1.148337e+00 1.403236e+00 1.618678e-02 4.782493e-01 2.398536e-01 -1.330754e-02 -1.467271e-02 -2.493737e-02 3.114546e-02 1.332159e-02 3.419644e-02 3.045867e-02 2.037697e-02 1.445989e-02 -9.305585e-04 -1.246404e-03 1.219349e-02 -7.489934e-04
<VARIANCE> 26
 4.622345e+00 4.193198e+00 5.937677e+00 5.949091e+00 1.074848e+01 8.832868e+00 1.012810e+01 1.143549e+01 1.161387e+01 9.528608e+00 1.026583e+01 7.986139e+00 7.646205e-03 9.767552e-02 2.000669e-01 3.491407e-01 4.836904e-01 6.421773e-01 7.925266e-01 8.008752e-01 1.016253e+00 1.051014e+00 8.843274e-01 9.448436e-01 8.412196e-01 2.977210e-04
<GCONST> 5.284117e+01
<STATE> 3
<MEAN> 26
 -2.091527e+00 -4.321792e-02 -3.545324e-01 2.452166e+00 1.961402e+00 1.370660e+00 2.300933e+00 1.782585e+00 9.860832e-01 1.423148e+00 7.429234e-01 1.406753e+00 2.804716e-01 -1.696596e-02 -1.110107e-02 5.234249e-03 1.391158e-02 9.604392e-03 7.830420e-03 1.021500e-02 7.593109e-03 -1.789287e-03 4.040990e-03 1.202012e-02 5.453894e-03 -3.568641e-04
<VARIANCE> 26
 2.102483e+00 3.694590e+00 5.798028e+00 6.321844e+00 9.498277e+00 9.588867e+00 1.043636e+01 1.205142e+01 1.131261e+01 1.194022e+01 1.177721e+01 9.778525e+00 5.817479e-02 8.729928e-02 1.863618e-01 3.189247e-01 5.049441e-01 6.571249e-01 8.693951e-01 9.527600e-01 1.079761e+00 1.133232e+00 1.125074e+00 1.086608e+00 1.003414e+00 5.882030e-04
<GCONST> 5.600525e+01
<STATE> 4
<MEAN> 26
 -1.340753e+00 -6.468162e-01 -5.118321e-01 2.853849e+00 1.775631e+00 1.735446e+00 1.568964e+00 1.057562e+00 3.870780e-01 1.419962e+00 3.916861e-01 8.533078e-01 2.773055e-01 1.700683e-02 2.409126e-01 3.137862e-01 -1.198012e-01 -4.770994e-02 -1.500125e-01 -3.773757e-01 -2.176541e-01 -1.808426e-02 -2.441936e-01 -1.438061e-01 -1.764568e-01 1.775959e-02
<VARIANCE> 26
 7.842192e+00 5.639113e+00 1.040629e+01 1.016332e+01 1.275684e+01 1.294824e+01 1.436848e+01 1.382696e+01 1.450589e+01 1.334698e+01 1.178753e+01 1.009398e+01 3.322108e-02 1.115633e+00 1.174925e+00 1.593762e+00 1.140403e+00 1.441856e+00 1.585643e+00 1.789508e+00 1.995860e+00 1.964099e+00 1.933500e+00 1.405507e+00 1.394540e+00 1.238891e-03
<GCONST> 7.155600e+01
<TRANSP> 5
 0.000000e+00 1.000000e+00 0.000000e+00 0.000000e+00 0.000000e+00
 0.000000e+00 9.276952e-01 7.230482e-02 0.000000e+00 0.000000e+00
 0.000000e+00 0.000000e+00 9.586207e-01 4.137934e-02 0.000000e+00
 0.000000e+00 0.000000e+00 0.000000e+00 6.482517e-01 3.517483e-01
 0.000000e+00 0.000000e+00 0.000000e+00 0.000000e+00 0.000000e+00
<ENDHMM>
~h "yon"
<BEGINHMM>
<NUMSTATES> 8
<STATE> 2
<MEAN> 26
 1.112119e+00 2.866106e+00 1.519222e+01 -2.201224e+00 -1.108131e+01 -3.064214e+00 -8.196027e+00 -4.807398e+00 -3.097388e+00 -6.928956e+00 4.414970e+00 -1.993489e+00 7.131210e-01 1.060542e+00 -8.559815e-01 8.854644e-01 -9.345894e-01 -2.365010e+00 -1.897910e+00 -1.578812e+00 -2.896802e-01 -9.141954e-03 -7.032735e-01 5.161808e-01 -6.915175e-01 8.769258e-02
<VARIANCE> 26
 1.910285e+01 2.124222e+01 7.472630e+01 4.307093e+01 9.843715e+01 3.009292e+01 3.649195e+01 2.986094e+01 5.101178e+01 4.066124e+01 3.132826e+01 1.773087e+01 4.673662e-02 8.237676e-01 3.949021e+00 2.017800e+01 3.344545e+00 9.580394e+00 1.721460e+00 5.678864e+00 5.707161e+00 5.638333e+00 4.932853e+00 3.632902e+00 1.829054e+00 2.174271e-03
<GCONST> 9.850976e+01
<STATE> 3
<MEAN> 26
 6.594483e+00 -5.681470e+00 -2.662390e+00 -7.925087e+00 -4.777822e+00 -6.188877e+00 -1.256864e+01 -3.908366e+00 6.172566e+00 -3.547617e+00 8.024257e-02 -7.890764e+00 9.576477e-01 6.664997e-01 -4.012912e-01 -3.468868e+00 -2.080798e+00 2.888515e+00 2.153001e+00 2.236202e-01 -1.470389e+00 1.005269e+00 2.866673e-01 -5.597813e-01 -7.688639e-01 1.066513e-02
<VARIANCE> 26
 2.575267e+01 1.685910e+01 4.450561e+01 3.121127e+01 4.782012e+01 3.869165e+01 4.218193e+01 4.123260e+01 3.431156e+01 2.720473e+01 2.411664e+01 2.300477e+01 8.343910e-04 1.979831e-01 1.145996e+00 2.801939e+00 2.710575e+00 2.614225e+00 3.715497e+00 4.517083e+00 3.179338e+00 7.521322e+00 4.625371e+00 2.962157e+00 4.847075e+00 1.191558e-04
<GCONST> 8.480829e+01
<STATE> 4
<MEAN> 26
 7.294883e+00 -3.277509e+00 -6.655815e+00 -1.529438e+01 6.820439e-01 1.453592e+00 -1.577203e+00 -7.523420e+00 -1.195406e+00 -6.290989e+00 6.224720e-01 -5.244562e+00 9.800317e-01 1.983869e-01 3.948007e-01 3.041969e-01 -4.810409e-01 -5.338891e-01 3.069848e-01 1.148257e+00 7.020774e-01 -1.130327e+00 -8.043264e-01 -4.731200e-01 4.343651e-01 -3.855674e-03
<VARIANCE> 26
 1.908248e+01 1.346031e+01 1.678223e+01 2.824329e+01 2.429012e+01 4.049693e+01 5.174970e+01 2.792716e+01 5.227494e+01 3.741000e+01 3.142313e+01 1.058800e+01 3.055822e-04 1.440546e-01 2.829110e-01 4.585569e-01 1.265282e+00 7.266367e-01 1.176886e+00 1.901928e+00 7.350676e-01 1.678854e+00 1.908217e+00 2.182302e+00 9.424310e-01 9.416694e-05
<GCONST> 6.800323e+01
<STATE> 5
<MEAN> 26
 9.282584e+00 -7.225848e-01 -3.140249e+00 -1.107454e+01 -4.669328e+00 1.262563e+00 -3.444952e+00 -3.362156e+00 -3.052131e+00 -5.893890e+00 -3.970957e+00 -6.067137e+00 8.621743e-01 -1.587949e-01 7.284209e-01 1.178178e+00 1.868248e+00 2.373475e-03 -7.093592e-01 -4.810200e-01 -2.586231e-01 -3.138240e-01 1.131396e+00 -6.554180e-01 -1.231087e-01 -2.464698e-02
<VARIANCE> 26
 1.991979e+01 1.338073e+01 1.778075e+01 4.251930e+01 2.409138e+01 2.820389e+01 2.887809e+01 4.612405e+01 4.924768e+01 3.989437e+01 4.724994e+01 8.988886e+00 4.506506e-03 2.766480e-01 4.786675e-01 8.665527e-01 9.637803e-01 1.319165e+00 1.095840e+00 1.631992e+00 2.838512e+00 1.396329e+00 2.585265e+00 1.555240e+00 1.597348e+00 2.148637e-04
<GCONST> 7.539432e+01
<STATE> 6
<MEAN> 26
 6.026489e+00 2.573617e+00 4.020145e+00 -1.392249e+00 -1.775420e+00 -3.301932e+00 -3.966739e+00 -8.797050e+00 -5.162971e+00 -8.672303e-01 -5.107814e+00 -3.926525e+00 7.087579e-01 -6.634545e-01 7.870420e-02 7.110728e-01 8.074914e-01 3.008728e-01 -1.070396e-01 5.491275e-01 -5.116596e-02 -2.783549e-02 6.421924e-01 4.059955e-02 1.839165e-01 -3.454247e-02
<VARIANCE> 26
 2.393281e+01 8.995302e+00 6.884245e+00 2.309580e+01 2.986409e+01 1.440811e+01 1.448420e+01 5.028281e+01 3.168449e+01 5.645566e+01 3.743313e+01 2.988381e+01 1.233507e-02 3.221932e-01 8.041089e-01 7.317268e-01 7.706639e-01 1.133785e+00 1.103075e+00 1.235297e+00 1.252451e+00 1.404329e+00 2.142847e+00 1.135671e+00 1.584499e+00 2.765523e-04
<GCONST> 7.322735e+01
<STATE> 7
<MEAN> 26
 1.548632e+00 1.800404e+00 2.557649e+00 6.385771e-01 -8.603154e-02 -2.028047e+00 2.677532e-01 -3.990813e+00 -1.802955e+00 1.700303e+00 -4.291719e+00 -1.024614e+00 3.752370e-01 -9.396531e-01 -2.943142e-01 -9.781225e-01 4.167040e-01 4.433667e-01 4.936011e-01 5.917776e-01 1.569278e+00 8.713372e-01 -5.072677e-01 6.869144e-01 9.849862e-01 -6.180870e-02
<VARIANCE> 26
 1.056638e+01 4.883644e+00 1.531612e+01 2.167081e+01 2.563886e+01 9.993042e+00 1.742800e+01 5.169088e+01 1.924147e+01 2.004184e+01 3.269973e+01 2.057050e+01 4.681375e-02 8.562594e-01 6.952363e-01 8.230202e-01 1.227464e+00 1.753804e+00 1.162717e+00 1.433492e+00 3.746246e+00 1.994317e+00 2.632490e+00 2.227465e+00 1.894221e+00 1.117568e-03
<GCONST> 7.747337e+01
<TRANSP> 8
 0.000000e+00 1.000000e+00 0.000000e+00 0.000000e+00 0.000000e+00 0.000000e+00 0.000000e+00 0.000000e+00
 0.000000e+00 8.388854e-01 1.611145e-01 0.000000e+00 0.000000e+00 0.000000e+00 0.000000e+00 0.000000e+00
 0.000000e+00 0.000000e+00 7.975026e-01 2.024974e-01 0.000000e+00 0.000000e+00 0.000000e+00 0.000000e+00
 0.000000e+00 0.000000e+00 0.000000e+00 8.375191e-01 1.624809e-01 0.000000e+00 0.000000e+00 0.000000e+00
 0.000000e+00 0.000000e+00 0.000000e+00 0.000000e+00 8.440805e-01 1.559195e-01 0.000000e+00 0.000000e+00
 0.000000e+00 0.000000e+00 0.000000e+00 0.000000e+00 0.000000e+00 8.314146e-01 1.685854e-01 0.000000e+00
 0.000000e+00 0.000000e+00 0.000000e+00 0.000000e+00 0.000000e+00 0.000000e+00 7.817552e-01 2.182448e-01
 0.000000e+00 0.000000e+00 0.000000e+00 0.000000e+00 0.000000e+00 0.000000e+00 0.000000e+00 0.000000e+00
<ENDHMM>
~h "ichi"
<BEGINHMM>
<NUMSTATES> 7
<STATE> 2
<MEAN> 26
 3.559608e+00 6.602872e+00 1.283287e+01 -5.999500e+00 -5.819524e+00 -2.359367e+00 -9.542128e+00 -5.614496e+00 -2.397009e+00 -7.096773e+00 -6.743674e-01 -3.574617e+00 8.200051e-01 1.323448e-01 3.256638e-01 3.176613e-01 5.750363e-02 -3.741021e-02 -2.392724e-01 -1.607313e-01 -2.332659e-01 -3.047149e-01 -1.976652e-01 -1.359255e-01 -2.872573e-01 7.069571e-03
<VARIANCE> 26
 1.346288e+01 2.845150e+01 4.691658e+01 3.805905e+01 4.549497e+01 4.330546e+01 4.016394e+01 3.438699e+01 4.658915e+01 3.244811e+01 5.584505e+01 2.678460e+01 3.169104e-02 8.393186e-01 2.640238e+00 6.844538e+00 5.075264e+00 3.533657e+00 3.140919e+00 4.972696e+00 2.809820e+00 3.028924e+00 3.286841e+00 2.726893e+00 2.151024e+00 6.651161e-03
<GCONST> 9.565845e+01
<STATE> 3
<MEAN> 26
 -1.515290e-01 6.171296e-01 -1.455385e+00 2.388296e+00 9.391641e-01 3.457577e-01 -7.432406e-01 -2.678794e-01 -2.969405e-02 -1.080094e+00 -3.749645e-01 -3.508514e-01 4.481946e-01 -1.417954e+00 -1.957312e-01 -9.287977e-01 -1.792948e-01 2.239273e-01 -2.224788e-01 5.356942e-01 2.507792e-01 5.454563e-01 2.420762e-01 1.840047e-01 2.710831e-01 9.294758e-03
<VARIANCE> 26
 3.475821e+01 1.023174e+01 1.909293e+01 1.312606e+01 1.134239e+01 1.257445e+01 1.378183e+01 1.915627e+01 1.270283e+01 1.512808e+01 1.387408e+01 1.017749e+01 3.141693e-02 2.984198e+00 1.785415e+00 1.516558e+00 1.292931e+00 1.389079e+00 2.083278e+00 1.589255e+00 1.943112e+00 1.271708e+00 1.624008e+00 1.248511e+00 1.014946e+00 3.973774e-03
<GCONST> 7.643747e+01
<STATE> 4
<MEAN> 26
 -1.405189e+01 2.934539e+00 -1.579890e+00 -4.126408e+00 3.296872e+00 -3.326309e+00 3.309150e+00 -6.957728e-01 2.077782e+00 1.555297e+00 5.954856e-01 8.354594e-01 7.741017e-01 3.256191e-01 -8.837053e-02 4.218424e-01 -2.357276e-01 9.470367e-03 -5.747578e-02 -2.999474e-02 -9.869491e-02 -3.469200e-01 4.965322e-02 -1.550189e-01 -1.228024e-01 -3.000889e-03
<VARIANCE> 26
 2.396404e+01 1.160694e+01 1.917562e+01 9.771008e+00 1.672159e+01 1.258965e+01 1.720749e+01 1.616093e+01 1.194830e+01 1.607298e+01 1.489943e+01 1.013479e+01 1.715695e-02 1.026977e+00 6.157029e-01 9.034062e-01 6.996154e-01 1.104772e+00 1.248093e+00 1.422852e+00 1.354089e+00 1.391894e+00 1.391322e+00 1.405035e+00 9.991818e-01 1.007526e-03
<GCONST> 6.999299e+01
<STATE> 5
<MEAN> 26
 7.562876e-01 1.344828e+00 9.911891e+00 -8.800334e+00 -9.235276e+00 -7.598056e+00 -8.015872e+00 -8.173004e+00 -7.148846e+00 -3.626780e+00 -3.388491e+00 -5.270720e+00 8.134568e-01 7.441574e-01 -2.130734e-01 3.098928e-01 1.116696e-01 -4.638652e-01 1.960658e-01 -3.342179e-01 -1.729794e-01 -1.670678e-01 4.642374e-02 1.833686e-01 -5.081838e-02 -2.266733e-02
<VARIANCE> 26
 2.373629e+01 8.595258e+00 3.553647e+01 2.680065e+01 5.954774e+01 1.359703e+01 3.922630e+01 2.500062e+01 1.807390e+01 2.171486e+01 1.971148e+01 1.331390e+01 4.170548e-02 2.365634e+00 6.449314e-01 4.137117e+00 3.084818e+00 5.041700e+00 1.798231e+00 3.681252e+00 2.161179e+00 2.081519e+00 1.960836e+00 1.674118e+00 2.196941e+00 2.590364e-03
<GCONST> 8.591248e+01
<STATE> 6
<MEAN> 26
 2.059041e+00 -2.706498e+00 -1.029675e+00 7.303599e-01 7.215636e-01 7.715469e-01 1.145593e+00 3.738007e-01 2.541396e-01 1.656515e+00 5.757113e-01 -1.660542e-01 3.495654e-01 2.069071e-01 -8.287019e-02 -2.981491e-01 2.835646e-01 1.971028e-01 2.079003e-01 1.847569e-01 2.662788e-01 2.553131e-01 8.701339e-02 5.662673e-03 1.754710e-01 -4.446912e-03
<VARIANCE> 26
 7.674911e+00 3.514083e+00 8.283362e+00 1.286883e+01 1.266257e+01 1.318470e+01 1.423407e+01 1.611769e+01 1.214676e+01 1.388530e+01 1.253385e+01 1.140612e+01 1.401925e-02 6.516414e-01 1.957605e-01 6.626632e-01 1.206408e+00 1.177986e+00 1.264462e+00 1.568106e+00 1.695713e+00 1.413211e+00 1.231768e+00 1.173023e+00 1.034339e+00 8.506659e-04
<GCONST> 6.489664e+01
<TRANSP> 7
 0.000000e+00 1.000000e+00 0.000000e+00 0.000000e+00 0.000000e+00 0.000000e+00 0.000000e+00
 0.000000e+00 9.222955e-01 7.770456e-02 0.000000e+00 0.000000e+00 0.000000e+00 0.000000e+00
 0.000000e+00 0.000000e+00 9.158456e-01 8.415446e-02 0.000000e+00 0.000000e+00 0.000000e+00
 0.000000e+00 0.000000e+00 0.000000e+00 9.306146e-01 6.938544e-02 0.000000e+00 0.000000e+00
 0.000000e+00 0.000000e+00 0.000000e+00 0.000000e+00 8.852113e-01 1.147887e-01 0.000000e+00
 0.000000e+00 0.000000e+00 0.000000e+00 0.000000e+00 0.000000e+00 9.474630e-01 5.253696e-02
 0.000000e+00 0.000000e+00 0.000000e+00 0.000000e+00 0.000000e+00 0.000000e+00 0.000000e+00
<ENDHMM>
~h "zero"
<BEGINHMM>
<NUMSTATES> 9
<STATE> 2
<MEAN> 26
 -8.656762e+00 3.851696e+00 -1.384902e+00 4.524770e+00 9.168151e-01 -1.661950e+00 9.776279e-01 1.059832e+00 -9.202186e-01 -3.672301e-01 -7.741753e-01 -6.637970e-01 5.309972e-01 -1.491533e-01 8.086898e-01 5.089284e-01 3.593105e-01 -6.776489e-01 -1.691305e+00 1.085188e-01 -3.636793e-01 -5.060312e-01 -7.153107e-01 -2.599955e-01 2.173476e-01 6.102031e-02
<VARIANCE> 26
 2.843267e+01 2.611813e+01 1.761810e+01 2.615132e+01 2.516400e+01 2.155038e+01 2.208815e+01 3.010528e+01 2.501070e+01 2.287759e+01 1.778935e+01 1.428424e+01 3.049695e-02 7.160763e+00 1.567544e+00 3.010333e+00 1.711856e+00 3.220354e+00 3.455433e+00 2.346661e+00 2.547369e+00 2.077447e+00 3.096047e+00 1.571497e+00 1.546638e+00 1.526332e-03
<GCONST> 8.624018e+01
<STATE> 3
<MEAN> 26
 1.609680e+00 2.960324e+00 6.538898e+00 3.053832e+00 -8.977285e+00 -1.340030e+01 -3.623523e+00 -2.284477e+00 -4.953224e+00 -5.324139e+00 -7.603818e-01 1.734928e+00 8.514313e-01 3.147075e+00 -1.804985e+00 1.387601e+00 -2.014819e+00 -3.195289e+00 -1.895688e+00 -1.703456e+00 8.269762e-02 3.220719e-01 -6.475211e-01 9.659606e-01 -3.187624e-01 7.197039e-02
<VARIANCE> 26
 3.892999e+01 1.694376e+01 6.752792e+00 3.523663e+01 5.492422e+01 1.490683e+01 3.636090e+01 2.627054e+01 3.844618e+01 2.084632e+01 1.788318e+01 1.820017e+01 8.523742e-03 2.205894e+00 1.744231e+00 1.693925e+00 1.249698e+00 3.137042e+00 2.674184e+00 2.528038e+00 2.664188e+00 1.945254e+00 2.189378e+00 2.515325e+00 2.913715e+00 1.724425e-03
<GCONST> 8.423467e+01
<STATE> 4
<MEAN> 26
 3.435224e+00 -3.703941e+00 6.240834e+00 -4.475050e+00 -1.133721e+01 -1.270967e+01 -3.436056e+00 2.751073e+00 3.628491e-01 -6.220339e+00 2.957215e+00 -4.686030e+00 9.703762e-01 1.189149e-01 -7.520548e-01 -1.843084e-01 -3.241221e-01 3.765965e-02 2.898094e-01 -2.096637e-01 6.674674e-01 4.910013e-01 -2.673425e-01 -1.302701e-01 -4.847629e-01 -2.656122e-04
<VARIANCE> 26
 1.806774e+01 1.278670e+01 5.863846e+00 1.590824e+01 4.823977e+01 9.500632e+00 4.889095e+01 4.110442e+01 3.369555e+01 1.730371e+01 3.398804e+01 2.489944e+01 9.720984e-04 4.448119e-01 5.351486e-01 6.863273e-01 1.990154e+00 5.082417e-01 7.324382e-01 1.331988e+00 9.334773e-01 9.042680e-01 9.486258e-01 1.364829e+00 2.075931e+00 3.970707e-04
<GCONST> 6.883213e+01
<STATE> 5
<MEAN> 26
 8.725651e+00 -7.761715e+00 2.490554e+00 1.275110e+00 -9.996884e+00 -9.218282e+00 -1.048033e+01 1.133786e+00 4.167476e+00 -5.415387e+00 -3.575850e+00 -1.469616e+00 8.695329e-01 8.914030e-01 -1.506745e-01 -1.585420e+00 5.774381e-01 8.316376e-01 1.448814e+00 -1.282568e+00 -1.375984e+00 8.604838e-01 1.085836e+00 -3.914583e-01 -1.518874e-01 -3.711513e-03
<VARIANCE> 26
 2.741860e+01 9.248176e+00 2.610123e+01 5.483210e+01 3.858155e+01 3.008671e+01 4.556073e+01 2.286560e+01 3.386299e+01 2.218667e+01 2.759902e+01 2.494300e+01 7.319717e-03 4.762933e-01 1.069097e+00 2.121228e+00 7.419039e+00 3.105306e+00 4.256007e+00 1.905594e+00 2.044324e+00 3.905551e+00 2.807025e+00 3.827920e+00 4.937939e+00 1.590958e-03
<GCONST> 8.774407e+01
<STATE> 6
<MEAN> 26
 1.022513e+01 -2.614563e+00 -5.764359e+00 -8.887740e+00 -4.806178e+00 3.751964e+00 -9.978712e+00 -7.996494e+00 1.333926e+00 2.503497e+00 1.219792e+00 -5.289226e+00 9.118432e-01 -2.546369e-01 1.848160e+00 -3.323615e-01 -3.508452e+00 6.404669e-01 2.033440e+00 1.608470e+00 -8.858562e-01 -1.965321e+00 5.649032e-02 9.184645e-01 8.402362e-01 -8.731198e-03
<VARIANCE> 26
 1.548610e+01 1.991279e+01 1.584019e+01 7.288290e+01 2.395072e+01 5.045757e+01 3.905064e+01 2.095798e+01 3.743716e+01 1.747323e+01 2.134819e+01 3.498895e+01 2.260731e-03 2.602116e-01 2.801322e-01 9.995408e-01 3.546937e+00 1.450866e+00 4.088297e+00 3.901410e+00 1.894033e+00 1.980849e+00 3.308160e+00 2.534925e+00 2.670256e+00 1.817277e-04
<GCONST> 7.898576e+01
<STATE> 7
<MEAN> 26
 9.473201e+00 3.283073e+00 -4.006724e+00 -1.904242e+01 -5.220116e+00 6.330562e+00 -3.739684e+00 -4.178404e+00 -3.967751e+00 -2.166635e+00 5.677463e-01 8.105417e-01 7.895244e-01 -3.036754e-01 4.558847e-01 3.770643e-01 -2.028176e-01 -2.696148e-01 -5.800180e-01 8.182545e-01 1.147080e+00 4.252468e-02 -1.112594e-01 -1.917243e-01 5.534824e-01 -3.403790e-02
<VARIANCE> 26
 1.888500e+01 1.426853e+01 9.285060e+00 3.682620e+01 2.886752e+01 4.777951e+01 1.002004e+01 2.584653e+01 2.522569e+01 4.341626e+01 1.830206e+01 2.258027e+01 9.481330e-03 7.940602e-01 4.444562e-01 1.018918e+00 2.128948e+00 7.041211e-01 1.558707e+00 1.140559e+00 1.175725e+00 1.216346e+00 3.476492e+00 2.419249e+00 8.637156e-01 5.739447e-04
<GCONST> 7.520144e+01
<STATE> 8
<MEAN> 26
 3.443334e+00 2.458855e+00 -2.814924e+00 -1.033278e+01 -2.049152e+00 8.136740e-02 5.947078e-01 6.945925e-01 3.913401e-01 1.655678e+00 2.075496e+00 2.072864e+00 4.310613e-01 -1.044042e+00 -4.322375e-01 2.514121e-01 2.093765e+00 8.821168e-01 -6.582841e-02 2.603149e-01 1.524656e-01 2.532597e-01 2.713593e-01 -2.910187e-03 2.312515e-02 -4.716930e-02
<VARIANCE> 26
 1.170777e+01 5.514939e+00 1.087893e+01 9.518757e+01 1.973901e+01 2.154119e+01 9.830459e+00 1.538242e+01 1.610643e+01 2.062852e+01 1.653339e+01 1.288240e+01 6.388824e-02 7.655823e-01 5.342621e-01 8.324929e-01 2.673848e+00 1.629097e+00 2.248378e+00 1.151903e+00 2.162991e+00 1.636712e+00 1.999839e+00 1.590699e+00 1.246026e+00 1.282049e-03
<GCONST> 7.571092e+01
<TRANSP> 9
 0.000000e+00 1.000000e+00 0.000000e+00 0.000000e+00 0.000000e+00 0.000000e+00 0.000000e+00 0.000000e+00 0.000000e+00
 0.000000e+00 8.239317e-01 1.760683e-01 0.000000e+00 0.000000e+00 0.000000e+00 0.000000e+00 0.000000e+00 0.000000e+00
 0.000000e+00 0.000000e+00 6.686667e-01 3.313333e-01 0.000000e+00 0.000000e+00 0.000000e+00 0.000000e+00 0.000000e+00
 0.000000e+00 0.000000e+00 0.000000e+00 8.714875e-01 1.285125e-01 0.000000e+00 0.000000e+00 0.000000e+00 0.000000e+00
 0.000000e+00 0.000000e+00 0.000000e+00 0.000000e+00 8.369811e-01 1.630190e-01 0.000000e+00 0.000000e+00 0.000000e+00
 0.000000e+00 0.000000e+00 0.000000e+00 0.000000e+00 0.000000e+00 7.761266e-01 2.238733e-01 0.000000e+00 0.000000e+00
 0.000000e+00 0.000000e+00 0.000000e+00 0.000000e+00 0.000000e+00 0.000000e+00 8.360298e-01 1.639702e-01 0.000000e+00
 0.000000e+00 0.000000e+00 0.000000e+00 0.000000e+00 0.000000e+00 0.000000e+00 0.000000e+00 8.736132e-01 1.263868e-01
 0.000000e+00 0.000000e+00 0.000000e+00 0.000000e+00 0.000000e+00 0.000000e+00 0.000000e+00 0.000000e+00 0.000000e+00
<ENDHMM>
