~o
<STREAMINFO> 1 26
<VECSIZE> 26<NULLD><MFCC_E_D_Z><DIAGC>
~h "go"
<BEGINHMM>
<NUMSTATES> 5
<STATE> 2
<MEAN> 26
 6.806116e+00 1.573649e+00 -6.626904e+00 -1.042437e+01 -2.545742e+00 -1.521632e+00 -1.483104e+00 -3.913816e+00 -6.413331e+00 -1.362319e+00 3.227001e-01 -2.083431e-01 7.093807e-01 1.158859e+00 7.753468e-01 3.020607e-01 -2.263205e+00 -1.245707e+00 1.482714e-01 -7.421834e-01 -1.025981e+00 3.920436e-02 -9.124607e-01 7.780229e-01 -2.730390e-01 6.369122e-02
<VARIANCE> 26
 2.104100e+01 2.181686e+01 3.765595e+01 5.201892e+01 5.100052e+01 3.047776e+01 2.752939e+01 3.536218e+01 2.646784e+01 4.045743e+01 2.931129e+01 3.154873e+01 2.201960e-02 1.120970e+00 2.147104e+00 7.071308e+00 3.941974e+00 4.658853e+00 2.630320e+00 2.598331e+00 3.081895e+00 6.012288e+00 2.916916e+00 3.487293e+00 2.777585e+00 1.679818e-03
<GCONST> 9.325197e+01
<STATE> 3
<MEAN> 26
 9.130055e+00 2.859126e+00 -3.118560e+00 -2.100771e+01 -7.403228e+00 -3.972281e-01 -3.290421e+00 -6.188977e+00 -2.500787e-01 -5.600861e+00 1.212561e+00 7.304244e-01 9.436018e-01 -2.201665e-02 -7.931598e-02 -1.154625e-01 -4.071301e-01 -2.379674e-01 -4.713610e-02 1.031113e-01 1.668633e-01 2.028413e-01 -8.424908e-02 -3.259121e-01 2.268095e-01 -5.860167e-03
<VARIANCE> 26
 2.273013e+01 1.200155e+01 9.901176e+00 3.407835e+01 5.583472e+01 3.059176e+01 4.114948e+01 3.636921e+01 3.169217e+01 2.251009e+01 2.785976e+01 2.486818e+01 5.572158e-03 1.560615e-01 5.152110e-01 4.214127e-01 9.547923e-01 7.415304e-01 8.508358e-01 8.690717e-01 7.340488e-01 8.747379e-01 9.558789e-01 6.725800e-01 9.369502e-01 4.949192e-04
<GCONST> 6.929673e+01
<STATE> 4
<MEAN> 26
 2.734287e+00 9.387609e-01 -2.208281e+00 -7.060232e+00 -5.337656e+00 -8.324864e-01 -1.403128e-01 5.073330e-01 -6.475430e-01 -1.937866e+00 -7.613125e-01 6.788653e-01 4.470672e-01 -8.652080e-01 -3.105006e-01 3.384843e-01 2.095864e+00 7.242923e-01 -4.833227e-03 3.871191e-01 6.593070e-01 3.294835e-02 4.769197e-01 4.339766e-02 -1.547617e-01 -4.660364e-02
<VARIANCE> 26
 1.916532e+01 7.186054e+00 1.216730e+01 1.381833e+02 4.487072e+01 1.586480e+01 1.764133e+01 1.415788e+01 2.184514e+01 1.648638e+01 1.769926e+01 1.703364e+01 5.617407e-02 6.549399e-01 4.368115e-01 8.383451e-01 3.939110e+00 1.784727e+00 1.458300e+00 1.538495e+00 1.915306e+00 1.537202e+00 1.632023e+00 1.267843e+00 1.358546e+00 2.704188e-03
<GCONST> 7.847266e+01
<TRANSP> 5
 0.000000e+00 1.000000e+00 0.000000e+00 0.000000e+00 0.000000e+00
 0.000000e+00 8.247420e-01 1.752580e-01 0.000000e+00 0.000000e+00
 0.000000e+00 0.000000e+00 9.216970e-01 7.830299e-02 0.000000e+00
 0.000000e+00 0.000000e+00 0.000000e+00 8.942996e-01 1.057004e-01
 0.000000e+00 0.000000e+00 0.000000e+00 0.000000e+00 0.000000e+00
<ENDHMM>
