~o
<STREAMINFO> 1 26
<VECSIZE> 26<NULLD><MFCC_E_D_Z><DIAGC>
~h "hachi"
<BEGINHMM>
<NUMSTATES> 9
<STATE> 2
<MEAN> 26
 4.092404e-02 -9.834768e+00 -2.077159e+00 -1.423325e+00 6.790688e+00 7.925568e-01 -7.119004e-01 -4.577127e+00 3.071724e+00 -1.902246e+00 -1.351804e+00 -4.546497e-01 5.918857e-01 6.428912e-01 -7.650864e-02 1.825944e-03 -6.378111e-01 2.573386e-01 -5.435667e-01 7.806986e-01 -1.216572e+00 -7.268717e-02 -1.137660e+00 -4.124306e-01 -2.234424e-01 5.548970e-02
<VARIANCE> 26
 2.399487e+01 2.723171e+01 2.243351e+01 4.665516e+01 1.588853e+01 1.699072e+01 3.814236e+01 2.696511e+01 2.799477e+01 2.567863e+01 2.801818e+01 1.312789e+01 2.665069e-02 3.641574e+00 3.313471e+00 3.040852e+00 2.526785e+00 2.481277e+00 2.197810e+00 3.509608e+00 1.904084e+00 1.753744e+00 2.080414e+00 1.933381e+00 1.906343e+00 1.137949e-03
<GCONST> 8.656033e+01
<STATE> 3
<MEAN> 26
 7.165028e+00 -6.459771e+00 -2.227278e+00 -1.061320e+01 2.173110e+00 -5.128817e+00 5.365984e-01 -8.028779e+00 7.252112e+00 -7.370847e+00 -4.393266e+00 -4.004659e+00 9.339496e-01 2.030503e-01 5.073330e-01 2.030482e-01 3.204129e-02 -8.868836e-01 -9.168577e-01 -5.248755e-01 7.200356e-01 1.777504e-01 2.531844e-01 -3.081370e-01 3.178690e-02 1.630182e-04
<VARIANCE> 26
 2.439485e+01 3.200303e+01 6.383268e+01 3.182002e+01 6.908078e+01 4.895861e+01 9.971548e+01 3.565393e+01 4.913887e+01 1.743379e+01 3.335764e+01 1.911724e+01 5.139382e-03 7.473419e-01 2.665766e+00 3.185646e+00 4.010019e+00 3.300042e+00 3.096272e+00 3.315958e+00 2.334490e+00 2.757127e+00 1.539777e+00 1.394847e+00 1.647318e+00 2.259840e-03
<GCONST> 9.009660e+01
<STATE> 4
<MEAN> 26
 4.327536e+00 -5.969450e-01 -1.127382e+00 -3.120977e-01 1.965495e-01 -2.128433e+00 -1.003718e+00 -1.010483e+00 1.048673e+00 -1.343583e+00 -3.468924e+00 -7.148256e-01 5.146304e-01 -7.415006e-01 2.240317e-01 -2.320217e-01 5.703459e-01 -1.028895e-01 1.152154e+00 1.221482e-01 3.888580e-01 -4.640135e-01 9.383827e-01 8.508273e-01 1.102680e-01 -4.727493e-02
<VARIANCE> 26
 8.060329e+00 1.150552e+01 1.723630e+01 1.402419e+01 9.963126e+00 2.843706e+01 2.177053e+01 1.524672e+01 3.535004e+01 2.228559e+01 2.422678e+01 1.869809e+01 4.983503e-02 6.626725e-01 1.006480e+00 9.983872e-01 1.200339e+00 2.091178e+00 2.762642e+00 2.033251e+00 1.470573e+00 2.661532e+00 1.670634e+00 2.048331e+00 1.692693e+00 3.126335e-03
<GCONST> 7.863272e+01
<STATE> 5
<MEAN> 26
 -8.022285e+00 3.214876e+00 -2.906892e+00 -6.660885e-01 4.441085e-01 -3.879023e+00 5.681846e-01 -1.332497e+00 -4.036483e-01 2.009708e+00 1.114274e+00 3.359253e-01 5.544419e-01 -2.960207e+00 1.184078e+00 1.320800e-01 -7.402766e-01 7.575224e-01 -1.128574e+00 3.468442e-01 -1.993693e-01 -2.612093e-01 -7.937901e-02 1.369850e-01 1.137662e-01 6.298734e-02
<VARIANCE> 26
 5.274360e+01 1.857907e+01 1.244813e+01 9.899108e+00 1.700519e+01 1.981874e+01 1.313651e+01 1.654179e+01 1.459758e+01 2.124733e+01 1.464543e+01 6.826848e+00 5.133685e-02 2.120894e+00 9.517151e-01 1.413662e+00 7.870878e-01 1.545069e+00 1.950105e+00 1.693035e+00 1.803217e+00 1.922100e+00 2.358496e+00 9.805877e-01 9.043645e-01 1.996090e-03
<GCONST> 7.626337e+01
<STATE> 6
<MEAN> 26
 -1.492968e+01 4.650085e+00 2.856704e+00 -5.222075e+00 2.359581e+00 -3.279052e+00 3.799239e-01 1.187407e+00 -5.844726e-01 1.521805e+00 1.725346e+00 1.505390e-01 7.030697e-01 4.568657e-01 -2.351427e-01 3.738751e-01 -1.450478e-01 -1.063423e-01 2.140722e-01 -1.584674e-01 8.481953e-02 2.661032e-02 -1.679751e-01 4.858352e-02 -2.435653e-02 -1.422960e-02
<VARIANCE> 26
 1.615079e+01 5.886968e+00 1.358627e+01 6.547288e+00 1.093944e+01 1.386486e+01 1.479272e+01 1.326642e+01 1.440513e+01 1.735758e+01 1.174142e+01 9.651395e+00 2.212632e-02 5.612560e-01 3.743713e-01 6.399503e-01 5.316595e-01 9.659392e-01 8.672602e-01 1.143809e+00 1.018265e+00 1.120512e+00 1.385391e+00 1.186942e+00 8.404569e-01 5.229083e-04
<GCONST> 6.378799e+01
<STATE> 7
<MEAN> 26
 6.814088e-01 2.972790e+00 1.123066e+01 -8.611771e+00 -8.777041e+00 -8.137605e+00 -6.758979e+00 -9.240746e+00 -7.497974e+00 -3.596169e-01 1.759189e+00 -4.329817e+00 7.537619e-01 8.659782e-01 -8.226762e-02 3.541389e-01 4.716460e-02 -5.434105e-01 1.193132e-01 -3.989266e-01 -1.608816e-01 -6.386891e-02 -3.381359e-02 -1.685645e-01 -8.982038e-02 -1.567579e-02
<VARIANCE> 26
 2.838663e+01 8.170036e+00 4.956349e+01 2.091139e+01 4.787276e+01 3.212664e+01 3.167603e+01 3.641486e+01 3.237463e+01 1.532697e+01 2.223273e+01 2.507753e+01 4.784015e-02 2.773142e+00 9.376696e-01 4.276447e+00 2.931646e+00 4.277382e+00 2.758101e+00 3.101728e+00 2.876188e+00 2.876580e+00 1.744537e+00 2.230166e+00 1.609227e+00 1.434306e-03
<GCONST> 8.853862e+01
<STATE> 8
<MEAN> 26
 -1.655530e-01 6.874973e-01 2.769874e+00 -2.872870e+00 -2.217432e+00 -1.512896e+00 -1.808138e+00 -8.127383e-02 -6.222610e-01 2.323884e-02 1.175900e+00 -5.145347e-01 4.804502e-01 8.818607e-01 -2.985103e-01 -1.026907e+00 1.162386e+00 3.352432e-01 8.486019e-01 7.475904e-01 5.144807e-01 8.171019e-02 2.013508e-01 -1.300284e-01 2.039094e-02 -2.518806e-02
<VARIANCE> 26
 6.708164e+00 5.210491e+00 5.702202e+00 1.347435e+01 7.294957e+00 1.322974e+01 1.472535e+01 2.542065e+01 1.397933e+01 1.095303e+01 1.578252e+01 1.016977e+01 6.310944e-02 1.493996e+00 3.489015e-01 1.122608e+00 9.556239e-01 1.676493e+00 1.142761e+00 2.397213e+00 2.239210e+00 2.027187e+00 1.374580e+00 1.575100e+00 1.585870e+00 9.205778e-04
<GCONST> 7.022092e+01
<TRANSP> 9
 0.000000e+00 1.000000e+00 0.000000e+00 0.000000e+00 0.000000e+00 0.000000e+00 0.000000e+00 0.000000e+00 0.000000e+00
 0.000000e+00 8.539212e-01 1.460788e-01 0.000000e+00 0.000000e+00 0.000000e+00 0.000000e+00 0.000000e+00 0.000000e+00
 0.000000e+00 0.000000e+00 8.645404e-01 1.354596e-01 0.000000e+00 0.000000e+00 0.000000e+00 0.000000e+00 0.000000e+00
 0.000000e+00 0.000000e+00 0.000000e+00 8.726634e-01 1.273366e-01 0.000000e+00 0.000000e+00 0.000000e+00 0.000000e+00
 0.000000e+00 0.000000e+00 0.000000e+00 0.000000e+00 8.029060e-01 1.970940e-01 0.000000e+00 0.000000e+00 0.000000e+00
 0.000000e+00 0.000000e+00 0.000000e+00 0.000000e+00 0.000000e+00 9.195310e-01 8.046905e-02 0.000000e+00 0.000000e+00
 0.000000e+00 0.000000e+00 0.000000e+00 0.000000e+00 0.000000e+00 0.000000e+00 8.333468e-01 1.666532e-01 0.000000e+00
 0.000000e+00 0.000000e+00 0.000000e+00 0.000000e+00 0.000000e+00 0.000000e+00 0.000000e+00 7.425383e-01 2.574618e-01
 0.000000e+00 0.000000e+00 0.000000e+00 0.000000e+00 0.000000e+00 0.000000e+00 0.000000e+00 0.000000e+00 0.000000e+00
<ENDHMM>
