~o
<STREAMINFO> 1 26
<VECSIZE> 26<NULLD><MFCC_E_D_Z><DIAGC>
~h "ni"
<BEGINHMM>
<NUMSTATES> 5
<STATE> 2
<MEAN> 26
 6.735874e+00 4.655336e+00 7.312954e+00 -1.972929e+00 -4.825838e+00 -5.174552e+00 -4.794590e+00 -1.097756e+01 -3.552956e+00 1.129507e-01 7.734857e-01 -3.371646e+00 8.003260e-01 2.720508e-01 3.973231e-02 1.531380e+00 -2.529084e+00 -8.228576e-01 -7.641746e-02 -1.483698e+00 -9.903911e-01 -6.789817e-01 3.383814e-01 4.941646e-01 -5.430566e-01 5.016114e-02
<VARIANCE> 26
 2.639482e+01 1.272138e+01 1.840807e+01 6.316456e+01 4.737511e+01 3.116174e+01 2.926178e+01 4.618174e+01 9.286457e+01 2.780543e+01 2.874350e+01 3.250045e+01 1.226320e-02 2.210959e+00 1.443165e+00 9.108284e-01 4.283979e+00 2.689281e+00 3.873977e+00 2.513196e+00 5.041531e+00 4.297174e+00 2.260504e+00 3.545240e+00 2.155908e+00 1.095363e-03
<GCONST> 9.035609e+01
<STATE> 3
<MEAN> 26
 2.857852e+00 1.463673e+00 1.273709e+01 -1.528306e+01 -6.721609e+00 -2.430365e+00 -1.305796e+01 -8.698456e+00 -5.483239e+00 -2.415495e+00 3.544544e+00 -4.581318e+00 9.230680e-01 -8.687442e-02 -6.502027e-02 4.448698e-02 -2.471029e-01 -1.608971e-01 9.203766e-02 -2.456906e-01 1.777473e-02 3.004557e-02 -1.038310e-01 1.745733e-01 -2.360591e-02 -5.421718e-03
<VARIANCE> 26
 2.648054e+01 2.236790e+01 1.873517e+01 2.267153e+01 6.343394e+01 3.257339e+01 1.989599e+01 2.565543e+01 7.084960e+01 3.681218e+01 4.155305e+01 1.793592e+01 5.147906e-03 1.483241e-01 4.423888e-01 5.296170e-01 6.083236e-01 4.877494e-01 9.276925e-01 1.004000e+00 7.853864e-01 8.410506e-01 7.964888e-01 7.564036e-01 5.903461e-01 3.212917e-04
<GCONST> 6.916292e+01
<STATE> 4
<MEAN> 26
 9.181353e-01 1.766257e+00 6.603440e+00 -8.238133e+00 -3.592990e+00 -1.794134e+00 -8.503424e+00 -4.622412e+00 -3.720375e+00 -1.261850e+00 1.634428e+00 -2.424959e+00 6.072164e-01 -4.040210e-01 -2.816086e-01 -1.578647e+00 2.037872e+00 9.576584e-01 2.482987e-01 1.535960e+00 1.312095e+00 5.562013e-01 6.052398e-02 -3.568549e-01 7.209824e-01 -5.117345e-02
<VARIANCE> 26
 9.237997e+00 1.372740e+01 3.056205e+01 6.014093e+01 4.180501e+01 2.130296e+01 3.874570e+01 4.713092e+01 2.624766e+01 2.720180e+01 3.827688e+01 2.924749e+01 4.099810e-02 6.367618e-01 1.076979e+00 1.615612e+00 1.972355e+00 1.441693e+00 2.292579e+00 1.704048e+00 2.011035e+00 2.573737e+00 1.960446e+00 2.311298e+00 1.601478e+00 1.427445e-03
<GCONST> 8.442732e+01
<TRANSP> 5
 0.000000e+00 1.000000e+00 0.000000e+00 0.000000e+00 0.000000e+00
 0.000000e+00 8.386936e-01 1.613064e-01 0.000000e+00 0.000000e+00
 0.000000e+00 0.000000e+00 9.285280e-01 7.147200e-02 0.000000e+00
 0.000000e+00 0.000000e+00 0.000000e+00 8.719457e-01 1.280543e-01
 0.000000e+00 0.000000e+00 0.000000e+00 0.000000e+00 0.000000e+00
<ENDHMM>
