~o
<STREAMINFO> 1 26
<VECSIZE> 26<NULLD><MFCC_E_D_Z><DIAGC>
~h "roku"
<BEGINHMM>
<NUMSTATES> 9
<STATE> 2
<MEAN> 26
 7.378165e+00 -5.302242e-01 1.765797e+00 1.348810e+00 -1.827806e+00 -3.432375e+00 -9.504423e+00 -5.387104e+00 4.670635e+00 -3.097039e+00 1.632654e+00 -4.498446e+00 7.731926e-01 8.914311e-01 1.773276e-01 -8.971267e-01 -2.445456e+00 -5.185477e-01 2.285651e-01 -7.546922e-01 -1.876849e+00 3.541131e-01 5.936425e-01 1.185456e+00 -9.826638e-01 5.981627e-02
<VARIANCE> 26
 1.870685e+01 1.090290e+01 2.729467e+01 6.062954e+01 5.299216e+01 5.995308e+01 6.579219e+01 4.639748e+01 4.259629e+01 3.820364e+01 3.857187e+01 3.241099e+01 2.001457e-02 2.140834e+00 2.378764e+00 2.653597e+00 7.882485e+00 4.646019e+00 7.126745e+00 8.499299e+00 3.553075e+00 5.863849e+00 4.551587e+00 2.944565e+00 2.470779e+00 1.975874e-03
<GCONST> 9.783410e+01
<STATE> 3
<MEAN> 26
 8.611692e+00 4.163991e+00 -4.400723e+00 -1.812831e+01 -4.005334e+00 3.934209e+00 -2.559265e+00 -1.114835e+01 -1.622755e+00 -3.842397e+00 7.242998e+00 -3.164012e+00 9.210990e-01 -1.147978e-01 9.058625e-01 -9.135128e-02 -2.789601e-01 4.921470e-01 5.487956e-01 1.198450e+00 9.020052e-01 -2.165608e+00 -8.190871e-01 -4.330394e-01 1.304682e+00 -2.372511e-02
<VARIANCE> 26
 2.404673e+01 1.567937e+01 1.194521e+01 3.851235e+01 5.519553e+01 4.224259e+01 3.400301e+01 4.818636e+01 5.602488e+01 3.225651e+01 2.603303e+01 3.232258e+01 4.853117e-03 5.640332e-01 7.539278e-01 1.269762e+00 4.859026e+00 2.671949e+00 2.313999e+00 3.251778e+00 2.674844e+00 2.074335e+00 2.894857e+00 2.558922e+00 2.607628e+00 1.994838e-03
<GCONST> 8.633368e+01
<STATE> 4
<MEAN> 26
 1.825181e+00 3.605048e+00 -1.101990e+00 -3.789099e+00 1.270102e+00 9.415318e-01 1.622493e+00 -2.775263e+00 -5.255690e+00 -1.987711e+00 1.945409e-01 1.806267e+00 4.717670e-01 -1.181110e+00 -7.207457e-01 2.630701e-01 1.475877e+00 2.427589e-01 -3.937995e-01 3.965644e-01 5.542023e-01 1.056461e+00 6.924570e-01 -4.389644e-01 1.556946e-01 -5.337360e-02
<VARIANCE> 26
 1.219001e+01 1.004936e+01 1.031347e+01 3.941059e+01 1.406103e+01 2.874280e+01 1.761204e+01 1.348642e+01 2.951637e+01 2.854315e+01 1.723689e+01 2.370809e+01 4.347456e-02 9.558535e-01 4.930580e-01 1.162464e+00 2.117164e+00 2.153002e+00 3.618234e+00 1.490153e+00 1.950047e+00 2.366024e+00 3.869437e+00 1.977799e+00 2.187230e+00 2.459875e-03
<GCONST> 8.062536e+01
<STATE> 5
<MEAN> 26
 -1.169855e+00 -3.727453e+00 -6.113677e+00 -2.098243e+00 3.652423e+00 -1.982137e+00 -6.248078e-01 -3.130516e+00 -1.595412e+00 3.401845e+00 -1.412824e+00 1.605083e+00 4.576956e-01 2.920519e-01 -2.206099e+00 -2.352869e+00 -6.611012e-01 9.354439e-01 -1.801569e+00 -1.831285e+00 -9.703183e-01 2.435132e-01 1.225698e+00 -6.729088e-01 -1.442292e-01 7.098782e-02
<VARIANCE> 26
 1.123001e+01 2.538257e+01 3.222430e+01 1.979223e+01 2.983389e+01 3.086419e+01 2.822087e+01 2.022683e+01 2.225857e+01 2.753134e+01 3.433834e+01 1.302708e+01 4.617334e-02 9.756450e-01 2.299895e+00 2.290653e+00 1.937094e+00 3.816117e+00 3.010273e+00 2.051494e+00 1.485994e+00 3.079990e+00 2.391926e+00 4.506162e+00 3.187068e+00 3.149595e-03
<GCONST> 8.726901e+01
<STATE> 6
<MEAN> 26
 2.141661e+00 -3.991735e+00 -4.811283e+00 -1.382167e+00 1.446178e+00 -1.190986e+01 -8.092152e+00 -5.589286e+00 -2.129755e+00 3.294111e+00 -3.156920e+00 -8.255048e-01 7.177536e-01 9.223819e-01 1.016268e+00 2.414842e+00 8.542391e-01 -1.834896e+00 -1.690596e+00 -1.620130e+00 -2.329363e-01 -1.778474e-01 -9.832931e-01 6.261387e-01 -1.173492e+00 4.181822e-02
<VARIANCE> 26
 3.910871e+01 3.534725e+01 4.125014e+01 2.325888e+01 5.259706e+01 3.404648e+01 3.654677e+01 2.919229e+01 5.201484e+01 2.095776e+01 3.416730e+01 3.452444e+01 3.308752e-02 1.772502e+00 3.821749e+00 2.019227e+00 1.780897e+00 3.644830e+00 2.658455e+00 2.321507e+00 3.366868e+00 3.663923e+00 1.898224e+00 4.051435e+00 1.749632e+00 2.462294e-03
<GCONST> 9.241541e+01
<STATE> 7
<MEAN> 26
 3.251907e+00 -3.390514e+00 2.331647e+00 -2.946938e-02 -6.246522e+00 -1.422618e+01 -1.147321e+01 -3.183217e+00 4.188733e-01 1.064688e+00 -1.092673e+00 -2.959931e+00 7.882250e-01 -1.950610e-01 -3.410121e-02 3.513726e-01 -2.428928e-01 -4.749036e-01 -6.927987e-02 2.496489e-02 3.573399e-01 1.463282e-01 1.067277e-01 -9.307198e-03 3.855866e-01 -1.874195e-02
<VARIANCE> 26
 4.602663e+01 4.274575e+01 1.205703e+01 3.226983e+01 6.767034e+01 1.876825e+01 4.161324e+01 4.638791e+01 3.645111e+01 2.897573e+01 2.778623e+01 4.684398e+01 6.529524e-02 5.135989e-01 7.578334e-01 3.919284e-01 7.340747e-01 1.016983e+00 8.652294e-01 1.090263e+00 9.981162e-01 1.605236e+00 9.863811e-01 9.789135e-01 9.611876e-01 6.507541e-04
<GCONST> 7.827877e+01
<STATE> 8
<MEAN> 26
 1.261712e+00 -1.310367e+00 3.059183e+00 -2.620007e-01 -5.215064e+00 -9.973013e+00 -6.742126e+00 -1.340262e+00 -3.160133e-01 1.049445e+00 -6.026391e-01 9.267510e-01 4.856840e-01 -3.226783e-01 5.435107e-01 -3.687453e-01 6.409886e-01 1.055971e+00 2.250872e+00 1.819501e+00 4.268270e-01 1.753330e-01 -2.934647e-01 1.770491e-01 3.035910e-01 -4.619274e-02
<VARIANCE> 26
 5.579095e+00 1.803429e+01 7.652239e+00 2.446252e+01 3.593275e+01 4.143791e+01 3.566535e+01 1.492462e+01 2.097412e+01 1.832747e+01 3.241953e+01 2.283226e+01 5.120105e-02 9.816467e-01 1.204892e+00 5.887079e-01 1.550399e+00 2.404647e+00 2.002107e+00 1.437030e+00 1.814532e+00 1.961832e+00 3.006804e+00 1.870182e+00 2.436291e+00 1.964870e-03
<GCONST> 8.046342e+01
<TRANSP> 9
 0.000000e+00 1.000000e+00 0.000000e+00 0.000000e+00 0.000000e+00 0.000000e+00 0.000000e+00 0.000000e+00 0.000000e+00
 0.000000e+00 8.240761e-01 1.759239e-01 0.000000e+00 0.000000e+00 0.000000e+00 0.000000e+00 0.000000e+00 0.000000e+00
 0.000000e+00 0.000000e+00 8.336383e-01 1.663618e-01 0.000000e+00 0.000000e+00 0.000000e+00 0.000000e+00 0.000000e+00
 0.000000e+00 0.000000e+00 0.000000e+00 8.684762e-01 1.315238e-01 0.000000e+00 0.000000e+00 0.000000e+00 0.000000e+00
 0.000000e+00 0.000000e+00 0.000000e+00 0.000000e+00 7.410898e-01 2.589102e-01 0.000000e+00 0.000000e+00 0.000000e+00
 0.000000e+00 0.000000e+00 0.000000e+00 0.000000e+00 0.000000e+00 7.781214e-01 2.218787e-01 0.000000e+00 0.000000e+00
 0.000000e+00 0.000000e+00 0.000000e+00 0.000000e+00 0.000000e+00 0.000000e+00 8.950703e-01 1.049298e-01 0.000000e+00
 0.000000e+00 0.000000e+00 0.000000e+00 0.000000e+00 0.000000e+00 0.000000e+00 0.000000e+00 8.163408e-01 1.836592e-01
 0.000000e+00 0.000000e+00 0.000000e+00 0.000000e+00 0.000000e+00 0.000000e+00 0.000000e+00 0.000000e+00 0.000000e+00
<ENDHMM>
