~o
<STREAMINFO> 1 26
<VECSIZE> 26<NULLD><MFCC_E_D_Z><DIAGC>
~h "san"
<BEGINHMM>
<NUMSTATES> 8
<STATE> 2
<MEAN> 26
 -1.108093e+01 3.530951e+00 -2.788962e+00 3.048778e+00 -2.094070e+00 -1.200644e+00 1.208605e+00 9.816766e-01 1.057777e+00 -6.059892e-01 1.646464e+00 1.416672e+00 5.094167e-01 -6.045559e-01 -7.154117e-02 -2.863912e-01 1.946481e-02 -3.282256e-01 -2.006434e-01 3.520526e-02 3.180245e-02 1.323690e-01 -8.283553e-02 5.216524e-02 -1.812201e-03 1.494416e-02
<VARIANCE> 26
 2.949799e+01 5.441645e+00 1.075745e+01 1.198948e+01 2.050658e+01 3.113231e+01 2.142573e+01 1.621061e+01 1.704546e+01 1.200769e+01 2.270317e+01 1.175212e+01 4.792615e-02 1.537467e+00 6.857663e-01 7.880279e-01 9.501284e-01 1.172707e+00 1.372698e+00 1.367145e+00 1.441180e+00 1.907328e+00 1.151588e+00 9.425930e-01 1.082275e+00 9.013641e-04
<GCONST> 7.261498e+01
<STATE> 3
<MEAN> 26
 -5.011584e+00 -1.118004e+00 -2.338796e+00 -1.022316e+00 -1.894245e+00 -2.846596e+00 1.467685e+00 2.685619e+00 1.927530e+00 -2.261742e+00 1.355937e+00 2.550460e+00 7.105790e-01 3.579359e+00 -1.431531e+00 5.045033e-02 -1.132821e+00 1.354144e+00 -6.570409e-01 6.023668e-03 -9.535049e-01 -1.085378e-02 -1.367868e+00 -2.162176e+00 -4.726324e-01 6.022136e-02
<VARIANCE> 26
 3.047565e+01 2.065155e+01 1.319174e+01 1.510254e+01 1.861112e+01 1.753955e+01 1.924165e+01 3.156664e+01 1.954654e+01 3.060136e+01 4.180766e+01 1.510358e+01 3.220882e-02 1.835796e+00 1.807305e+00 2.033220e+00 1.755515e+00 4.326852e+00 1.720556e+00 7.548780e+00 3.220089e+00 2.283550e+00 4.172646e+00 2.916662e+00 2.833596e+00 2.619193e-03
<GCONST> 8.721907e+01
<STATE> 4
<MEAN> 26
 6.577231e+00 -8.612587e+00 -2.892969e+00 -8.160604e+00 5.008799e+00 -6.300194e+00 3.329528e-01 -5.629704e+00 9.752918e-01 -5.847917e+00 -7.965261e+00 -1.821122e+00 9.214272e-01 1.292587e+00 -2.154347e+00 -9.465330e-02 -2.266221e+00 1.882102e+00 -7.304534e-02 -3.889921e-01 -1.388469e+00 -2.477488e-01 4.552543e-01 -6.130821e-01 -6.339988e-01 4.059339e-02
<VARIANCE> 26
 1.265846e+01 3.627660e+01 1.664227e+01 2.081931e+01 4.545759e+01 2.419917e+01 8.775263e+01 2.790027e+01 2.605962e+01 2.665990e+01 2.563031e+01 1.262278e+01 4.821244e-03 1.744352e+00 2.995076e+00 1.725811e+00 1.515454e+00 1.326642e+00 1.868164e+00 5.644246e+00 2.772627e+00 1.398369e+00 2.338008e+00 3.344574e+00 2.190729e+00 1.387508e-03
<GCONST> 8.442521e+01
<STATE> 5
<MEAN> 26
 8.094001e+00 -1.015387e+01 -3.955113e+00 -1.002246e+01 9.886178e+00 -5.472334e+00 -3.344350e+00 -6.985939e+00 -7.269394e-01 -1.916357e+00 -4.212074e+00 -3.834748e+00 9.131528e-01 3.104709e-01 2.826235e-01 -2.935388e-01 2.449617e-01 2.916318e-02 -1.181290e-02 -3.271586e-01 -4.184530e-02 -2.882690e-02 2.440033e-01 2.387255e-01 -3.602878e-01 -6.828684e-03
<VARIANCE> 26
 1.674459e+01 2.690840e+01 2.124503e+01 1.479339e+01 2.235713e+01 3.127942e+01 1.075720e+02 3.171418e+01 1.545881e+01 1.607647e+01 5.042372e+01 3.477613e+01 7.900900e-03 1.428062e-01 4.302066e-01 4.585097e-01 7.887329e-01 7.321185e-01 6.042952e-01 1.013819e+00 1.100098e+00 1.114686e+00 8.028751e-01 9.434711e-01 6.460402e-01 9.129463e-05
<GCONST> 6.805408e+01
<STATE> 6
<MEAN> 26
 1.100935e+01 -3.749418e+00 -1.596306e+00 -4.303588e+00 1.493326e+00 -4.026277e+00 -3.025536e+00 -9.908154e+00 -1.243341e+00 -1.044136e+00 -4.909908e+00 -6.029044e+00 8.244033e-01 -2.158770e-01 1.100188e+00 1.302948e+00 1.027779e+00 -1.424043e+00 2.000857e-01 -2.595286e-01 -3.511950e-01 -3.299341e-01 2.230626e-01 8.238783e-02 1.388149e-01 -1.963094e-02
<VARIANCE> 26
 3.355844e+01 1.481170e+01 3.275443e+01 3.367903e+01 5.777803e+01 1.399055e+01 3.937551e+01 5.710715e+01 4.402839e+01 3.691073e+01 5.446587e+01 3.259314e+01 8.296025e-03 2.098384e-01 7.066168e-01 8.347239e-01 1.025142e+00 1.295149e+00 1.034363e+00 1.555255e+00 1.895652e+00 1.327097e+00 1.362542e+00 2.661887e+00 2.624446e+00 1.998400e-04
<GCONST> 7.882289e+01
<STATE> 7
<MEAN> 26
 4.712025e+00 1.348013e+00 5.026704e+00 3.396361e-01 -1.541067e+00 -2.862504e+00 -4.526310e+00 -6.522275e+00 -1.556759e+00 5.065374e-01 -3.076449e+00 -4.084091e+00 5.853172e-01 -1.057796e+00 3.603323e-01 -1.012426e-01 4.174694e-01 -9.669545e-02 4.756845e-01 4.636664e-01 1.018156e+00 -9.981844e-03 8.886436e-02 6.579483e-01 5.160074e-01 -4.766870e-02
<VARIANCE> 26
 2.377797e+01 6.913625e+00 2.281059e+01 1.408643e+01 3.347346e+01 1.926087e+01 2.713346e+01 5.103151e+01 3.910493e+01 2.398976e+01 3.578869e+01 2.915744e+01 3.032792e-02 8.640377e-01 7.399331e-01 1.862431e+00 8.975871e-01 1.456916e+00 1.491221e+00 2.513859e+00 2.232136e+00 1.979738e+00 1.799156e+00 1.860912e+00 1.663287e+00 9.574356e-04
<GCONST> 8.067613e+01
<TRANSP> 8
 0.000000e+00 1.000000e+00 0.000000e+00 0.000000e+00 0.000000e+00 0.000000e+00 0.000000e+00 0.000000e+00
 0.000000e+00 9.061217e-01 9.387839e-02 0.000000e+00 0.000000e+00 0.000000e+00 0.000000e+00 0.000000e+00
 0.000000e+00 0.000000e+00 7.328739e-01 2.671261e-01 0.000000e+00 0.000000e+00 0.000000e+00 0.000000e+00
 0.000000e+00 0.000000e+00 0.000000e+00 6.877139e-01 3.122861e-01 0.000000e+00 0.000000e+00 0.000000e+00
 0.000000e+00 0.000000e+00 0.000000e+00 0.000000e+00 9.049845e-01 9.501557e-02 0.000000e+00 0.000000e+00
 0.000000e+00 0.000000e+00 0.000000e+00 0.000000e+00 0.000000e+00 8.523424e-01 1.476576e-01 0.000000e+00
 0.000000e+00 0.000000e+00 0.000000e+00 0.000000e+00 0.000000e+00 0.000000e+00 8.462791e-01 1.537209e-01
 0.000000e+00 0.000000e+00 0.000000e+00 0.000000e+00 0.000000e+00 0.000000e+00 0.000000e+00 0.000000e+00
<ENDHMM>
