~o
<STREAMINFO> 1 26
<VECSIZE> 26<NULLD><MFCC_E_D_Z><DIAGC>
~h "sil"
<BEGINHMM>
<NUMSTATES> 5
<STATE> 2
<MEAN> 26
 -4.127690e+00 2.297250e-01 -1.624535e+00 -2.673933e-01 -1.297562e+00 -1.747938e+00 -7.236677e-02 -2.368544e-02 -9.157646e-02 3.292582e-01 -6.521739e-01 5.702252e-01 2.657769e-01 3.039304e-01 3.126805e-03 6.389804e-02 4.812631e-01 5.515596e-01 5.980831e-01 4.841402e-01 4.848263e-01 2.955333e-01 9.564108e-02 1.953906e-01 2.155676e-01 1.853659e-02
<VARIANCE> 26
 5.171043e+01 5.726768e+00 1.424877e+01 1.990411e+01 1.842948e+01 2.260954e+01 1.401883e+01 1.792783e+01 1.437780e+01 1.221272e+01 1.535286e+01 1.039302e+01 1.336968e-01 2.102454e+00 5.518238e-01 1.409662e+00 1.495901e+00 1.419368e+00 1.610279e+00 1.402468e+00 1.651230e+00 1.342041e+00 1.294788e+00 1.545413e+00 1.247667e+00 1.014336e-02
<GCONST> 7.808990e+01
<STATE> 3
<MEAN> 26
 -5.487428e-01 2.294344e-01 -5.628721e-01 2.192850e+00 1.026511e+00 1.803707e+00 1.639329e+00 1.660407e+00 5.289238e-01 6.731423e-01 1.782209e-01 6.324308e-01 4.104127e-01 -1.124248e-02 -1.173720e-02 -7.626051e-03 3.963404e-04 -7.256779e-03 -3.369199e-03 -3.077727e-03 -3.747051e-03 -5.395785e-03 -6.987517e-03 -8.471226e-03 -7.041392e-03 -9.107362e-04
<VARIANCE> 26
 4.619032e+00 3.463612e+00 6.022363e+00 6.814113e+00 1.065215e+01 9.932867e+00 1.105687e+01 1.215452e+01 1.320616e+01 1.170413e+01 1.209711e+01 1.062804e+01 7.991509e-02 8.563851e-02 1.911846e-01 3.313266e-01 4.910768e-01 6.386300e-01 8.264946e-01 8.787157e-01 9.974731e-01 1.073014e+00 1.017704e+00 9.946963e-01 8.919085e-01 4.206324e-04
<GCONST> 5.670023e+01
<STATE> 4
<MEAN> 26
 -6.342778e-01 3.105461e-01 6.642485e-01 1.771927e+00 6.012499e-01 4.866972e-01 -1.098800e-01 -1.228801e-02 -4.909266e-01 -1.803696e-01 -4.210586e-01 -1.856880e-01 3.596312e-01 1.916762e-01 2.140368e-01 5.813013e-01 -6.391596e-01 -4.211158e-01 -5.847646e-01 -8.213327e-01 -7.998403e-01 -1.981944e-01 -4.565347e-01 -3.869939e-02 -3.036250e-01 4.137127e-02
<VARIANCE> 26
 1.754531e+01 1.607632e+01 2.607981e+01 2.153020e+01 1.645478e+01 2.046709e+01 2.154988e+01 1.999655e+01 2.266992e+01 1.939551e+01 1.654421e+01 1.255610e+01 5.369356e-02 2.515575e+00 2.056380e+00 4.609326e+00 3.193463e+00 2.877990e+00 2.685645e+00 3.203935e+00 2.966207e+00 3.190147e+00 2.412739e+00 2.032913e+00 1.838604e+00 2.713777e-03
<GCONST> 8.621999e+01
<TRANSP> 5
 0.000000e+00 1.000000e+00 0.000000e+00 0.000000e+00 0.000000e+00
 0.000000e+00 7.141653e-01 2.858346e-01 0.000000e+00 0.000000e+00
 0.000000e+00 0.000000e+00 9.791000e-01 2.089998e-02 0.000000e+00
 0.000000e+00 0.000000e+00 0.000000e+00 6.213610e-01 3.786390e-01
 0.000000e+00 0.000000e+00 0.000000e+00 0.000000e+00 0.000000e+00
<ENDHMM>
