~o
<STREAMINFO> 1 39
<VECSIZE> 39<NULLD><MFCC_D_A_0><DIAGC>
~h "ichi"
<BEGINHMM>
<NUMSTATES> 5
<STATE> 2
<MEAN> 39
 -9.778956e+00 9.527733e+00 1.457722e+01 -6.217139e+00 -4.608099e+00 -1.765951e+00 -9.989478e+00 -7.465437e+00 -2.496868e+00 -8.031057e+00 9.375650e-01 -3.102243e+00 6.396588e+01 1.437672e-01 1.497316e-01 -1.068532e-01 3.432209e-01 1.492135e-01 -9.321989e-02 1.049363e-01 -6.022812e-02 -2.424502e-01 -3.850783e-03 -2.021496e-01 -1.211967e-01 -1.593911e-01 -4.569614e-02 -2.836573e-01 -4.599146e-01 2.842839e-01 2.123522e-01 1.130607e-01 3.172618e-01 2.260392e-01 9.254613e-02 2.288219e-01 2.199396e-02 1.461741e-01 -3.927169e-01
<VARIANCE> 39
 8.743090e+00 2.634515e+01 4.287694e+01 6.668791e+01 5.193342e+01 5.472784e+01 3.743967e+01 3.302406e+01 4.055551e+01 5.247029e+01 5.653726e+01 2.720979e+01 4.129273e+01 7.803730e-01 2.529139e+00 5.201318e+00 3.848289e+00 3.336987e+00 2.755005e+00 3.951628e+00 2.581177e+00 2.534395e+00 2.562373e+00 2.197145e+00 1.760824e+00 6.054688e+00 1.280322e-01 2.676384e-01 3.433416e-01 5.249640e-01 3.682848e-01 4.209622e-01 5.270576e-01 3.710512e-01 4.889383e-01 3.522364e-01 3.330935e-01 3.298682e-01 3.791649e-01
<GCONST> 1.185913e+02
<STATE> 3
<MEAN> 39
 -2.186439e+01 3.906409e+00 -6.350975e-01 -2.523696e+00 3.385253e+00 -1.648443e+00 1.049993e+00 -1.685333e+00 1.754505e+00 -8.046652e-02 2.024384e+00 7.891428e-01 6.212326e+01 -3.718523e-01 -1.037186e-01 -1.315247e-01 -1.983863e-01 8.431649e-02 -1.366189e-01 1.982444e-01 3.938214e-02 7.429498e-02 9.842051e-02 -5.239898e-02 3.393789e-02 3.160279e-01 1.070039e-01 7.788946e-02 1.302562e-01 -3.196677e-02 -6.308611e-02 -4.577434e-02 -7.839467e-02 -8.555533e-02 -7.247908e-02 -4.742225e-02 -5.728571e-02 -5.734028e-02 5.990095e-02
<VARIANCE> 39
 7.522604e+01 1.309772e+01 2.394261e+01 4.289075e+01 1.435658e+01 2.150810e+01 2.065126e+01 1.896739e+01 1.565325e+01 2.647048e+01 1.460749e+01 1.088186e+01 7.032684e+01 2.870276e+00 1.067744e+00 1.551695e+00 9.905282e-01 1.173595e+00 1.586116e+00 1.529847e+00 1.620139e+00 1.555699e+00 1.480665e+00 1.353800e+00 9.998887e-01 1.979847e+00 3.743373e-01 1.564729e-01 2.285106e-01 1.567827e-01 2.796466e-01 3.118501e-01 2.940147e-01 2.851504e-01 2.663114e-01 2.566489e-01 2.054801e-01 1.765596e-01 2.133164e-01
<GCONST> 9.882568e+01
<STATE> 4
<MEAN> 39
 -1.168979e+01 3.350316e+00 9.655586e+00 -5.541350e+00 -6.068916e+00 -4.642951e+00 -6.642798e+00 -8.043096e+00 -6.413289e+00 -2.709750e+00 -6.737797e-01 -3.389434e+00 6.227909e+01 7.058076e-01 -2.404250e-01 -3.917255e-02 2.781864e-01 -3.135214e-01 2.086172e-01 -2.125270e-01 1.122876e-01 4.602928e-02 2.353521e-01 3.712758e-01 1.781248e-01 -9.266769e-01 -1.779820e-01 -5.814107e-02 -2.156267e-01 1.036570e-01 1.430019e-01 1.035797e-01 1.723136e-01 1.471334e-01 1.645191e-01 7.976017e-02 1.087647e-01 1.111146e-01 -4.594555e-02
<VARIANCE> 39
 1.503356e+01 1.593424e+01 5.199571e+01 4.355697e+01 7.193301e+01 1.637078e+01 5.221592e+01 3.725752e+01 3.392139e+01 4.168802e+01 2.256057e+01 1.809062e+01 6.299233e+01 1.930064e+00 5.036166e-01 3.529877e+00 2.697832e+00 4.129898e+00 1.630139e+00 3.406749e+00 2.095782e+00 2.039422e+00 1.871707e+00 1.727244e+00 2.056491e+00 1.316161e+00 1.386592e-01 1.029179e-01 2.682059e-01 2.961149e-01 4.315598e-01 3.126402e-01 3.864217e-01 2.684845e-01 3.417012e-01 3.346910e-01 3.713357e-01 3.544776e-01 1.179734e-01
<GCONST> 1.085294e+02
<TRANSP> 5
 0.000000e+00 1.000000e+00 0.000000e+00 0.000000e+00 0.000000e+00
 0.000000e+00 9.219831e-01 7.801685e-02 0.000000e+00 0.000000e+00
 0.000000e+00 0.000000e+00 9.622816e-01 3.771839e-02 0.000000e+00
 0.000000e+00 0.000000e+00 0.000000e+00 9.143072e-01 8.569282e-02
 0.000000e+00 0.000000e+00 0.000000e+00 0.000000e+00 0.000000e+00
<ENDHMM>
