~o
<STREAMINFO> 1 39
<VECSIZE> 39<NULLD><MFCC_D_A_0><DIAGC>
~h "roku"
<BEGINHMM>
<NUMSTATES> 5
<STATE> 2
<MEAN> 39
 -3.783616e-02 1.917022e+00 -3.827945e+00 -7.565372e+00 -3.181998e+00 -3.114350e-01 -9.133964e+00 -1.060497e+01 2.215896e+00 -6.303334e+00 4.663309e+00 -1.975018e+00 6.784268e+01 3.542809e-01 5.450066e-01 -4.665013e-01 -1.413664e+00 -8.978263e-02 7.062258e-01 3.946891e-01 -3.363624e-01 -7.044485e-01 -1.554500e-01 3.602144e-01 1.444974e-01 5.357380e-01 -2.916552e-01 -2.851013e-02 2.495515e-02 1.491697e-01 1.674638e-01 1.534955e-01 3.762243e-01 2.030866e-01 -1.331871e-01 1.868902e-01 -5.277197e-02 2.130017e-01 -4.555354e-01
<VARIANCE> 39
 1.209512e+01 2.592624e+01 2.950797e+01 2.131579e+02 5.771875e+01 8.709323e+01 6.476358e+01 5.004504e+01 5.944867e+01 6.534777e+01 4.222898e+01 4.904015e+01 3.818309e+01 1.650891e+00 1.892054e+00 2.044190e+00 1.009612e+01 3.998766e+00 5.910316e+00 7.070040e+00 4.888392e+00 5.299261e+00 6.604010e+00 3.433703e+00 3.942503e+00 5.318372e+00 2.758589e-01 3.470542e-01 3.941803e-01 1.715098e+00 6.094326e-01 1.154668e+00 1.026027e+00 6.575081e-01 8.147783e-01 1.591968e+00 5.544427e-01 6.733011e-01 2.175604e-01
<GCONST> 1.352914e+02
<STATE> 3
<MEAN> 39
 -7.368320e+00 1.140848e+00 -6.023382e+00 -3.017695e+00 2.597814e+00 -1.957615e+00 -3.094203e+00 -5.529974e+00 -2.914264e+00 6.394978e-02 7.138978e-01 1.210582e+00 5.970082e+01 -3.776837e-01 -4.841345e-01 9.645751e-02 9.246849e-01 -5.686494e-02 -1.090236e+00 -8.937885e-01 -2.209922e-01 4.225156e-01 4.191618e-01 -2.750655e-01 -4.409190e-01 3.788942e-01 1.005985e-01 2.395340e-02 6.635279e-02 -1.462925e-01 -2.435830e-01 -1.104908e-02 -1.655517e-01 -8.641464e-02 1.104523e-01 -1.014884e-01 1.149318e-01 -1.314000e-01 2.216595e-01
<VARIANCE> 39
 1.960502e+01 3.291681e+01 3.089153e+01 4.056050e+01 2.719643e+01 6.689926e+01 5.001951e+01 2.219840e+01 3.822569e+01 4.620665e+01 2.751604e+01 3.738275e+01 6.576255e+01 2.070496e+00 3.301755e+00 4.753962e+00 2.664068e+00 4.799416e+00 3.429697e+00 3.709552e+00 2.730344e+00 3.209167e+00 3.735182e+00 3.089471e+00 3.492956e+00 6.618015e+00 2.205643e-01 6.581798e-01 8.845935e-01 4.307110e-01 8.176557e-01 6.295570e-01 4.917509e-01 4.355453e-01 7.024733e-01 5.883276e-01 5.680314e-01 5.421747e-01 8.359551e-01
<GCONST> 1.273870e+02
<STATE> 4
<MEAN> 39
 -6.887837e+00 -1.081947e+00 -4.688701e-01 7.905743e-01 -5.132726e+00 -1.128895e+01 -1.318216e+01 -5.720561e+00 4.338524e-01 -4.626721e-01 1.109196e+00 -2.453718e+00 6.542898e+01 -1.541010e-01 1.974498e-02 2.322800e-01 1.593876e-02 -5.458752e-02 4.630132e-01 5.944548e-01 3.923697e-01 1.222057e-01 2.365814e-02 2.187945e-01 4.492114e-01 -9.993414e-01 -4.473965e-02 8.433565e-03 -1.181908e-01 -9.270841e-03 1.858485e-01 1.545652e-01 1.995305e-01 6.362578e-02 -4.169487e-02 5.269882e-02 -1.406837e-02 7.569312e-02 -9.792072e-02
<VARIANCE> 39
 2.843448e+01 3.836908e+01 1.339616e+01 1.935637e+01 5.110123e+01 3.438969e+01 6.110938e+01 3.956312e+01 4.722347e+01 5.221469e+01 3.697683e+01 4.612429e+01 6.827356e+01 7.278432e-01 9.539770e-01 5.996446e-01 1.075814e+00 1.829424e+00 2.149173e+00 2.137440e+00 1.459438e+00 1.636926e+00 2.219487e+00 1.284300e+00 1.526201e+00 1.339413e+00 1.027599e-01 1.677625e-01 1.222407e-01 1.699677e-01 2.473706e-01 2.794932e-01 2.707073e-01 2.612377e-01 2.785412e-01 3.402020e-01 2.406783e-01 2.426328e-01 1.251379e-01
<GCONST> 1.023961e+02
<TRANSP> 5
 0.000000e+00 1.000000e+00 0.000000e+00 0.000000e+00 0.000000e+00
 0.000000e+00 9.192855e-01 8.071452e-02 0.000000e+00 0.000000e+00
 0.000000e+00 0.000000e+00 9.318425e-01 6.815752e-02 0.000000e+00
 0.000000e+00 0.000000e+00 0.000000e+00 9.356447e-01 6.435535e-02
 0.000000e+00 0.000000e+00 0.000000e+00 0.000000e+00 0.000000e+00
<ENDHMM>
