~o
<STREAMINFO> 1 39
<VECSIZE> 39<NULLD><MFCC_D_A_0><DIAGC>
~h "san"
<BEGINHMM>
<NUMSTATES> 5
<STATE> 2
<MEAN> 39
 -1.858098e+01 1.535603e+00 -6.506122e+00 1.887604e+00 2.124223e+00 -1.042236e+00 1.468261e+00 6.412253e-01 1.823171e+00 -2.938033e+00 1.774646e-01 1.903223e+00 6.283054e+01 6.396954e-01 -6.807653e-01 -2.308868e-01 -5.994492e-01 4.007776e-01 -1.878103e-01 1.571224e-01 -5.010828e-01 2.350548e-01 -4.620862e-01 -5.230163e-01 -4.430999e-01 1.232007e+00 1.405245e-01 -1.382667e-01 1.855213e-02 -1.173650e-01 1.023871e-01 6.352703e-02 1.692801e-02 -1.132977e-01 -5.103069e-03 3.243903e-02 -8.979663e-03 -5.426066e-02 -2.748585e-02
<VARIANCE> 39
 5.619533e+01 2.976712e+01 2.115913e+01 4.809671e+01 2.505849e+01 4.037617e+01 2.195016e+01 4.417469e+01 2.687235e+01 4.091045e+01 3.855305e+01 2.812503e+01 6.830070e+01 4.911309e+00 2.030336e+00 1.212978e+00 2.050771e+00 2.840706e+00 1.869056e+00 2.277865e+00 2.798340e+00 2.333467e+00 2.733655e+00 2.671162e+00 2.915925e+00 1.384944e+00 5.565735e-01 1.919308e-01 1.740552e-01 2.078806e-01 4.003381e-01 3.541844e-01 3.958140e-01 4.160611e-01 4.209607e-01 5.294423e-01 4.572422e-01 5.090526e-01 2.097544e-01
<GCONST> 1.151668e+02
<STATE> 3
<MEAN> 39
 -2.052331e+00 -1.000744e+01 -6.493194e+00 -1.142059e+01 1.390369e+01 -2.381240e+00 2.434037e+00 -9.515846e+00 2.813005e+00 -5.300402e+00 -6.330896e+00 -7.509008e+00 7.480621e+01 3.174350e-01 2.104740e-01 4.692502e-03 5.625901e-02 -1.385624e-01 1.783912e-01 -4.276818e-01 1.544874e-04 -2.390316e-01 3.384601e-01 4.938250e-02 -3.080084e-01 -4.249659e-01 -6.748258e-02 2.452173e-01 1.062910e-01 2.340749e-01 -3.020302e-01 -8.988382e-03 -7.009739e-02 1.651383e-01 -7.618520e-02 1.583402e-02 7.248280e-03 1.225346e-01 -1.674912e-01
<VARIANCE> 39
 1.557442e+01 2.469165e+01 2.631388e+01 2.784182e+01 2.618547e+01 2.380211e+01 4.880419e+01 5.667793e+01 2.985318e+01 6.846306e+01 3.574400e+01 3.215475e+01 8.288830e+00 1.795560e-01 8.053682e-01 7.503518e-01 9.785647e-01 1.286014e+00 6.939956e-01 9.280365e-01 1.745845e+00 1.292197e+00 1.125608e+00 7.182537e-01 9.194499e-01 2.501595e-01 2.960447e-02 1.160686e-01 1.106689e-01 1.342751e-01 1.138444e-01 1.093819e-01 2.039847e-01 3.012631e-01 2.106007e-01 2.253344e-01 1.586666e-01 1.468941e-01 5.363255e-02
<GCONST> 8.528052e+01
<STATE> 4
<MEAN> 39
 -2.600108e+00 -1.607363e+00 1.087833e-01 -1.613188e+00 1.955573e+00 -8.946403e-01 -3.096191e+00 -8.561511e+00 -7.312499e-01 -1.384213e+00 -4.578634e+00 -5.600728e+00 6.241418e+01 -6.417244e-01 6.277100e-01 4.516564e-01 7.966569e-01 -5.996652e-01 1.646430e-01 4.790740e-02 2.857547e-01 -1.634931e-01 3.936729e-01 4.948360e-01 5.947734e-01 -1.390231e+00 -6.464952e-02 -1.117285e-01 -1.653294e-01 -6.824662e-02 1.738238e-01 3.448549e-02 1.005733e-01 1.078236e-01 8.127654e-02 -5.111310e-02 9.087835e-02 3.831043e-02 -2.195074e-03
<VARIANCE> 39
 3.082604e+01 1.418377e+01 3.727397e+01 3.482075e+01 5.573529e+01 2.652898e+01 3.267524e+01 8.507999e+01 4.456058e+01 6.610622e+01 4.151443e+01 2.997212e+01 3.431134e+01 7.251900e-01 8.368514e-01 2.484760e+00 1.066101e+00 1.755482e+00 1.467175e+00 2.012183e+00 2.510017e+00 2.018787e+00 1.941552e+00 3.104492e+00 2.439795e+00 6.230475e-01 7.567436e-02 1.278967e-01 2.767606e-01 1.678402e-01 1.719210e-01 2.395368e-01 3.214397e-01 4.139694e-01 3.037385e-01 3.238834e-01 4.235354e-01 4.468856e-01 8.713458e-02
<GCONST> 1.054254e+02
<TRANSP> 5
 0.000000e+00 1.000000e+00 0.000000e+00 0.000000e+00 0.000000e+00
 0.000000e+00 9.433588e-01 5.664127e-02 0.000000e+00 0.000000e+00
 0.000000e+00 0.000000e+00 9.180928e-01 8.190718e-02 0.000000e+00
 0.000000e+00 0.000000e+00 0.000000e+00 9.189376e-01 8.106236e-02
 0.000000e+00 0.000000e+00 0.000000e+00 0.000000e+00 0.000000e+00
<ENDHMM>
