~o
<STREAMINFO> 1 39
<VECSIZE> 39<NULLD><MFCC_D_A_0><DIAGC>
~h "yon"
<BEGINHMM>
<NUMSTATES> 5
<STATE> 2
<MEAN> 39
 -4.858255e+00 4.311435e-02 9.839292e+00 -3.916446e+00 -1.076957e+01 -3.891091e+00 -1.029318e+01 -4.913426e+00 -1.205850e+00 -6.658017e+00 3.496908e+00 -4.088309e+00 6.914622e+01 1.043985e+00 -1.213212e+00 -1.935552e+00 -1.188014e+00 1.882300e-01 -5.807962e-01 -8.106652e-01 -2.817962e-01 9.921165e-01 4.245571e-01 -3.853329e-01 -1.028649e+00 2.175681e+00 -6.500470e-02 -8.927216e-02 -8.284392e-01 -1.493361e-01 7.173288e-01 4.768174e-01 4.125475e-01 -3.556151e-02 1.295539e-01 2.244830e-01 -9.512618e-02 9.300300e-02 -3.695700e-01
<VARIANCE> 39
 1.523882e+01 3.881271e+01 1.199705e+02 5.546663e+01 8.547354e+01 3.751217e+01 5.314010e+01 4.275977e+01 7.947997e+01 6.861160e+01 3.586467e+01 2.975384e+01 4.309610e+01 3.975810e-01 2.426445e+00 1.349691e+01 3.274583e+00 1.567170e+01 6.470670e+00 3.669233e+00 4.799548e+00 6.633872e+00 3.536689e+00 3.223311e+00 2.254736e+00 2.097672e+00 6.032072e-02 7.274608e-01 1.873571e+00 6.149311e-01 1.820691e+00 1.016121e+00 7.197735e-01 1.100555e+00 1.659030e+00 9.072258e-01 6.861607e-01 6.628802e-01 1.580362e-01
<GCONST> 1.342980e+02
<STATE> 3
<MEAN> 39
 3.145668e-01 -2.550277e+00 -7.240113e+00 -1.427829e+01 -1.363968e+00 4.002075e+00 -4.262153e+00 -6.714736e+00 -1.286474e+00 -6.561909e+00 -2.821990e-01 -6.411344e+00 7.261002e+01 1.510598e-01 4.690354e-01 2.390487e-01 1.224244e-01 -1.269776e-01 3.293386e-01 8.040500e-01 1.545606e-01 -9.786859e-01 -3.272062e-02 -4.980876e-01 2.712898e-01 -6.148670e-01 -7.726242e-02 6.016205e-02 3.347057e-01 3.431040e-01 -1.495098e-01 -3.081433e-01 -7.247385e-02 1.253479e-01 -1.688099e-02 5.226142e-02 -9.207164e-02 4.845924e-02 -1.183922e-01
<VARIANCE> 39
 1.284834e+01 1.424664e+01 2.018874e+01 4.015207e+01 4.067234e+01 4.924022e+01 5.885929e+01 5.300932e+01 5.663825e+01 7.595766e+01 4.727605e+01 1.676045e+01 1.734743e+01 1.952144e-01 3.573312e-01 1.464368e+00 3.249694e+00 1.429801e+00 2.659477e+00 2.142977e+00 2.497269e+00 1.818399e+00 3.910259e+00 2.265572e+00 1.832855e+00 2.439369e-01 2.921164e-02 5.898300e-02 2.337941e-01 2.262422e-01 3.612015e-01 2.395405e-01 3.800571e-01 5.002493e-01 3.918279e-01 6.056814e-01 3.754560e-01 4.301980e-01 1.750918e-02
<GCONST> 1.002956e+02
<STATE> 4
<MEAN> 39
 -3.822053e+00 2.559517e+00 2.111156e+00 -1.075389e+00 7.667248e-01 -5.110894e-01 -1.636595e+00 -6.262528e+00 -5.254569e+00 -7.330660e-01 -6.000570e+00 -3.724896e+00 6.109288e+01 -7.229962e-01 1.328055e-01 3.059538e-01 8.143317e-01 3.100216e-01 -4.392952e-02 2.462752e-01 1.872689e-01 3.374746e-01 2.021540e-01 3.994509e-01 4.919779e-01 -1.156987e+00 -2.679608e-02 -8.868004e-02 -1.636065e-01 -1.231494e-01 -4.301069e-02 1.120016e-01 2.499753e-02 1.519016e-01 8.099479e-02 -1.085029e-01 1.433840e-01 3.754546e-02 1.693387e-02
<VARIANCE> 39
 1.782424e+01 1.145083e+01 1.585369e+01 2.971035e+01 4.067825e+01 2.110115e+01 2.645692e+01 7.748794e+01 2.665293e+01 5.800676e+01 5.014065e+01 2.897397e+01 2.808102e+01 4.534867e-01 9.489262e-01 1.757278e+00 1.126676e+00 1.317908e+00 1.352983e+00 1.673454e+00 2.644892e+00 1.668500e+00 2.627452e+00 1.843089e+00 1.776297e+00 5.349195e-01 6.385530e-02 1.628880e-01 1.888860e-01 1.518378e-01 2.144987e-01 1.924571e-01 2.811645e-01 3.946369e-01 3.032104e-01 3.920881e-01 3.174249e-01 3.145186e-01 7.818954e-02
<GCONST> 9.894941e+01
<TRANSP> 5
 0.000000e+00 1.000000e+00 0.000000e+00 0.000000e+00 0.000000e+00
 0.000000e+00 8.794110e-01 1.205890e-01 0.000000e+00 0.000000e+00
 0.000000e+00 0.000000e+00 9.155837e-01 8.441634e-02 0.000000e+00
 0.000000e+00 0.000000e+00 0.000000e+00 9.186320e-01 8.136795e-02
 0.000000e+00 0.000000e+00 0.000000e+00 0.000000e+00 0.000000e+00
<ENDHMM>
