~o
<STREAMINFO> 1 26
<VECSIZE> 26<NULLD><MFCC_E_D_Z><DIAGC>
~h "go"
<BEGINHMM>
<NUMSTATES> 5
<STATE> 2
<MEAN> 26
 6.626874e+00 2.253092e+00 -8.105235e+00 -1.184521e+01 -4.226176e+00 7.795976e-01 -2.869064e+00 -2.500854e+00 -6.791004e+00 -4.496243e+00 2.311461e-01 -1.610672e+00 7.190717e-01 1.537794e+00 1.119415e+00 7.461357e-01 -2.517911e+00 -2.151299e+00 4.074162e-01 -1.434289e+00 -1.002387e+00 1.005781e-01 -1.300458e+00 8.642929e-01 -4.814698e-01 6.508006e-02
<VARIANCE> 26
 2.146890e+01 3.016173e+01 3.749372e+01 3.188493e+01 3.697427e+01 2.678318e+01 2.820133e+01 2.807702e+01 2.740386e+01 6.727202e+01 2.657763e+01 2.685576e+01 1.498563e-02 5.929038e-01 1.871891e+00 8.446291e+00 4.433674e+00 2.236841e+00 2.888096e+00 2.223013e+00 2.888972e+00 6.366908e+00 3.635877e+00 3.165738e+00 2.550362e+00 1.000000e-02
<GCONST> 9.288395e+01
<STATE> 3
<MEAN> 26
 1.074695e+01 4.005348e+00 -3.918160e+00 -2.113752e+01 -1.080653e+01 1.502015e+00 -6.313170e+00 -4.295658e+00 -1.202918e+00 -6.712823e+00 -6.514904e-01 -1.557192e-01 9.372343e-01 -2.327354e-02 -1.848675e-01 -1.760125e-01 -5.034452e-01 -2.267261e-01 -2.609032e-01 1.672410e-01 2.705470e-01 1.999045e-01 1.621361e-01 -3.629102e-01 4.851838e-01 -6.917635e-03
<VARIANCE> 26
 1.183686e+01 1.280348e+01 6.678390e+00 4.272303e+01 2.560593e+01 3.406727e+01 3.759331e+01 5.496838e+01 3.025633e+01 3.959384e+01 1.861101e+01 2.846394e+01 1.000000e-02 1.970734e-01 6.651518e-01 4.780811e-01 1.260093e+00 8.523481e-01 1.086544e+00 9.670083e-01 1.189877e+00 1.180653e+00 1.199807e+00 8.088377e-01 1.235474e+00 1.000000e-02
<GCONST> 7.488689e+01
<STATE> 4
<MEAN> 26
 5.165885e+00 1.651825e+00 -3.413345e+00 -1.281568e+01 -9.926161e+00 -2.591665e+00 -1.506655e+00 1.057561e+00 8.314053e-01 -2.027746e+00 -8.909580e-01 1.864092e+00 5.518552e-01 -1.213436e+00 -4.857577e-01 4.845481e-01 2.972514e+00 1.183941e+00 -2.556311e-01 8.844083e-01 5.338256e-01 2.934231e-01 9.669840e-01 2.388961e-01 -3.165003e-01 -6.092319e-02
<VARIANCE> 26
 1.228032e+01 4.141264e+00 1.048738e+01 9.668679e+01 3.799940e+01 1.609572e+01 2.836421e+01 1.980711e+01 3.717970e+01 2.408061e+01 2.124668e+01 1.858480e+01 3.322414e-02 4.117512e-01 4.198835e-01 8.630871e-01 2.019061e+00 1.198900e+00 1.569091e+00 1.795922e+00 2.476001e+00 2.021670e+00 2.031957e+00 1.230327e+00 1.312698e+00 1.000000e-02
<GCONST> 7.896543e+01
<TRANSP> 5
 0.000000e+00 1.000000e+00 0.000000e+00 0.000000e+00 0.000000e+00
 0.000000e+00 8.051948e-01 1.948052e-01 0.000000e+00 0.000000e+00
 0.000000e+00 0.000000e+00 9.202127e-01 7.978722e-02 0.000000e+00
 0.000000e+00 0.000000e+00 0.000000e+00 8.571429e-01 1.428571e-01
 0.000000e+00 0.000000e+00 0.000000e+00 0.000000e+00 0.000000e+00
<ENDHMM>
