~o
<STREAMINFO> 1 26
<VECSIZE> 26<NULLD><MFCC_E_D_Z><DIAGC>
~h "hachi"
<BEGINHMM>
<NUMSTATES> 9
<STATE> 2
<MEAN> 26
 -3.083423e+00 -8.867823e+00 -2.885807e+00 -3.634694e+00 7.749050e+00 2.659156e+00 -3.884243e+00 1.078503e+00 2.133769e+00 -1.681562e+00 -8.355624e-01 -5.565618e-01 4.989755e-01 1.913189e-01 -2.604691e-01 -3.045680e-01 -3.439056e-01 2.361343e-01 -1.912569e-01 5.102744e-01 -7.247639e-01 -2.520432e-01 -8.760438e-01 -5.197192e-01 -1.234449e-01 4.107082e-02
<VARIANCE> 26
 2.332606e+01 1.803252e+01 1.156691e+01 3.009558e+01 1.793472e+01 1.360375e+01 2.290467e+01 4.172631e+01 2.510404e+01 2.376199e+01 2.019501e+01 1.446838e+01 2.409293e-02 2.938662e+00 1.872367e+00 1.687033e+00 1.661570e+00 1.688674e+00 1.493871e+00 2.916015e+00 2.342762e+00 1.354212e+00 2.139525e+00 1.218984e+00 1.713796e+00 1.000000e-02
<GCONST> 8.315945e+01
<STATE> 3
<MEAN> 26
 9.155241e+00 -6.003557e+00 -6.206669e+00 -7.629869e+00 2.494180e+00 -5.012977e+00 3.760765e-01 -6.879279e+00 4.879107e+00 -7.948739e+00 -7.130270e+00 -3.384634e+00 9.010678e-01 9.271963e-01 6.375352e-01 2.114986e-01 2.055028e-01 -1.233793e+00 -1.431243e+00 -1.098920e-01 2.109517e-01 3.171499e-01 -1.158451e-01 -5.613369e-01 1.464427e-01 1.404231e-02
<VARIANCE> 26
 1.260364e+01 2.311058e+01 4.191815e+01 4.180542e+01 7.169034e+01 6.211012e+01 9.447273e+01 3.595934e+01 4.696616e+01 2.196065e+01 2.621145e+01 2.182602e+01 1.000000e-02 2.656384e+00 2.843663e+00 3.024399e+00 3.844642e+00 3.434656e+00 4.023612e+00 4.116885e+00 4.620250e+00 3.023045e+00 2.349435e+00 1.941562e+00 2.637433e+00 1.000000e-02
<GCONST> 9.517825e+01
<STATE> 4
<MEAN> 26
 5.283426e+00 -1.045403e+00 -3.011672e+00 1.888857e-01 -1.867393e-01 -6.836886e-01 6.707310e-01 -1.629375e-01 2.117084e+00 -2.365088e+00 -5.055256e+00 -5.140620e-01 5.306713e-01 -8.473836e-01 8.735236e-02 -1.767663e-01 2.981544e-01 4.111587e-02 1.222381e+00 2.148131e-01 4.230072e-01 -1.125787e-01 9.953473e-01 9.270209e-01 -3.181651e-02 -4.539803e-02
<VARIANCE> 26
 9.967657e+00 1.273206e+01 2.365713e+01 9.680502e+00 1.002182e+01 2.547775e+01 3.110074e+01 1.242203e+01 4.186943e+01 2.280264e+01 2.677770e+01 1.636254e+01 4.275025e-02 5.579560e-01 9.712365e-01 1.028489e+00 1.110364e+00 1.922102e+00 3.042179e+00 2.031044e+00 1.383282e+00 1.624906e+00 1.654143e+00 2.011860e+00 1.497226e+00 1.000000e-02
<GCONST> 7.915830e+01
<STATE> 5
<MEAN> 26
 -6.611066e+00 2.159315e+00 -4.950968e+00 -6.326265e-02 -3.319663e-01 -2.179366e+00 1.017079e+00 1.589956e-01 2.527683e-01 9.180695e-01 1.030929e+00 5.827740e-01 4.843062e-01 -3.212168e+00 1.587800e+00 1.406969e-01 -4.809592e-01 7.716154e-01 -1.214591e+00 2.064990e-01 -1.659115e-01 -7.238678e-01 -1.705338e-01 3.538614e-01 2.877361e-01 4.812665e-02
<VARIANCE> 26
 4.589640e+01 1.987964e+01 9.858994e+00 7.531601e+00 1.348988e+01 2.218585e+01 1.253083e+01 2.239715e+01 1.807666e+01 2.389464e+01 1.743021e+01 9.579380e+00 4.859544e-02 1.379730e+00 8.529637e-01 1.789572e+00 1.089231e+00 2.050250e+00 2.586528e+00 1.590038e+00 2.379755e+00 1.842847e+00 2.687171e+00 1.282536e+00 1.446483e+00 1.000000e-02
<GCONST> 7.985071e+01
<STATE> 6
<MEAN> 26
 -1.290396e+01 4.358348e+00 1.715971e+00 -5.272841e+00 2.724823e+00 -3.908156e+00 7.620198e-01 1.929383e+00 -1.613221e+00 2.730804e+00 1.839776e+00 3.287908e-01 6.727154e-01 5.512204e-01 -1.731174e-01 6.307236e-01 -2.301964e-01 -1.431729e-01 -2.464580e-02 -2.535219e-01 -3.947686e-02 -1.968896e-01 -2.193533e-01 -1.718052e-02 -1.334879e-01 -4.406253e-03
<VARIANCE> 26
 1.436388e+01 1.068762e+01 1.836508e+01 8.139042e+00 1.398394e+01 1.445009e+01 1.881729e+01 1.660526e+01 1.401081e+01 1.631165e+01 1.319826e+01 1.303732e+01 2.356174e-02 1.306845e+00 5.047863e-01 1.423237e+00 6.850825e-01 1.219418e+00 1.333997e+00 1.671303e+00 1.181427e+00 1.563678e+00 1.730656e+00 1.224897e+00 1.083795e+00 1.000000e-02
<GCONST> 7.310961e+01
<STATE> 7
<MEAN> 26
 5.861351e-01 4.813851e+00 1.190238e+01 -7.468038e+00 -9.796316e+00 -1.011326e+01 -6.069182e+00 -7.077395e+00 -1.003989e+01 -4.218500e+00 7.462212e-01 -3.907769e+00 7.980621e-01 1.320089e+00 -3.267965e-01 1.096915e+00 -5.074041e-01 -1.601910e+00 -7.133148e-02 -1.006591e+00 -7.227128e-01 -2.799468e-01 -1.219104e-01 3.486117e-01 -5.585397e-01 1.456601e-03
<VARIANCE> 26
 1.810012e+01 1.445787e+01 3.077213e+01 1.596136e+01 3.257545e+01 1.961695e+01 2.061302e+01 4.773880e+01 3.128974e+01 4.007290e+01 1.977259e+01 1.306439e+01 2.228640e-02 2.169460e+00 9.222191e-01 1.864601e+00 1.271941e+00 3.225185e+00 2.842000e+00 1.584028e+00 1.712893e+00 3.379894e+00 2.730224e+00 2.184664e+00 1.210175e+00 1.000000e-02
<GCONST> 8.514481e+01
<STATE> 8
<MEAN> 26
 1.293971e+00 1.515558e+00 8.611129e+00 -4.368282e+00 -7.004900e+00 -3.321073e+00 -6.066957e+00 -4.642488e+00 -5.054378e+00 2.613456e-01 3.004414e+00 -3.229978e+00 5.444450e-01 -9.994452e-02 -1.576329e-01 -1.528766e+00 1.643918e+00 1.517586e+00 1.183101e+00 1.210739e+00 8.133465e-01 5.222136e-01 4.830699e-01 -4.350111e-01 6.134404e-01 -4.592646e-02
<VARIANCE> 26
 4.303550e+00 6.463417e+00 6.133372e+01 2.995817e+01 3.570087e+01 1.824313e+01 3.470890e+01 4.035468e+01 3.553663e+01 2.135960e+01 2.057920e+01 2.560878e+01 6.548631e-02 9.010319e-01 5.473177e-01 2.474947e+00 1.158556e+00 2.082170e+00 9.960523e-01 2.647088e+00 2.745145e+00 2.104740e+00 2.521912e+00 1.549754e+00 1.474636e+00 1.000000e-02
<GCONST> 8.347333e+01
<TRANSP> 9
 0.000000e+00 1.000000e+00 0.000000e+00 0.000000e+00 0.000000e+00 0.000000e+00 0.000000e+00 0.000000e+00 0.000000e+00
 0.000000e+00 8.541667e-01 1.458333e-01 0.000000e+00 0.000000e+00 0.000000e+00 0.000000e+00 0.000000e+00 0.000000e+00
 0.000000e+00 0.000000e+00 8.585858e-01 1.414141e-01 0.000000e+00 0.000000e+00 0.000000e+00 0.000000e+00 0.000000e+00
 0.000000e+00 0.000000e+00 0.000000e+00 8.750000e-01 1.250000e-01 0.000000e+00 0.000000e+00 0.000000e+00 0.000000e+00
 0.000000e+00 0.000000e+00 0.000000e+00 0.000000e+00 7.846154e-01 2.153846e-01 0.000000e+00 0.000000e+00 0.000000e+00
 0.000000e+00 0.000000e+00 0.000000e+00 0.000000e+00 0.000000e+00 9.072848e-01 9.271523e-02 0.000000e+00 0.000000e+00
 0.000000e+00 0.000000e+00 0.000000e+00 0.000000e+00 0.000000e+00 0.000000e+00 8.444445e-01 1.555556e-01 0.000000e+00
 0.000000e+00 0.000000e+00 0.000000e+00 0.000000e+00 0.000000e+00 0.000000e+00 0.000000e+00 7.878788e-01 2.121212e-01
 0.000000e+00 0.000000e+00 0.000000e+00 0.000000e+00 0.000000e+00 0.000000e+00 0.000000e+00 0.000000e+00 0.000000e+00
<ENDHMM>
