~o
<STREAMINFO> 1 26
<VECSIZE> 26<NULLD><MFCC_E_D_Z><DIAGC>
~h "kyuu"
<BEGINHMM>
<NUMSTATES> 5
<STATE> 2
<MEAN> 26
 -6.751009e+00 -6.952108e-01 6.517426e+00 -5.871735e+00 -8.529449e+00 1.827124e-01 -2.097064e+00 -7.118967e+00 6.236404e-01 -1.604099e+00 -1.768966e+00 -1.113266e+00 6.901999e-01 1.147711e+00 3.371423e-01 1.435659e+00 -3.695903e-02 -2.333073e+00 -1.452521e+00 -4.663070e-01 -1.239836e+00 -1.678548e+00 -4.745554e-01 -1.531886e-01 -9.067909e-01 5.707641e-02
<VARIANCE> 26
 3.932399e+01 3.489005e+01 3.509589e+01 1.641952e+01 5.002322e+01 3.602731e+01 2.408089e+01 6.488291e+01 5.953548e+01 2.216243e+01 2.369434e+01 2.501482e+01 2.997743e-02 5.353827e+00 1.513813e+00 1.940393e+00 2.767611e+00 3.327642e+00 4.093719e+00 2.825112e+00 3.813117e+00 4.845647e+00 2.791522e+00 4.028607e+00 3.067560e+00 1.000000e-02
<GCONST> 9.555434e+01
<STATE> 3
<MEAN> 26
 4.813709e+00 -7.992814e-01 8.723233e+00 -2.319327e+00 -1.676786e+01 -1.384014e+01 -8.941560e+00 -5.162746e+00 -6.716156e+00 -7.824883e+00 2.311769e+00 -2.432454e+00 9.410325e-01 3.618446e-01 8.337598e-02 -5.344936e-01 2.943287e-01 6.442570e-01 -5.572701e-01 -3.720025e-01 5.953653e-01 3.287429e-01 -4.256516e-02 6.067438e-02 8.087442e-01 -5.745497e-03
<VARIANCE> 26
 2.184240e+01 4.286465e+01 1.552241e+01 1.190976e+01 3.989212e+01 1.064330e+01 3.515221e+01 4.161208e+01 2.140301e+01 4.501088e+01 4.052851e+01 2.848563e+01 1.000000e-02 1.381447e-01 8.081554e-01 4.242978e-01 5.724375e-01 9.227768e-01 1.146654e+00 1.173076e+00 1.117638e+00 1.169018e+00 1.717373e+00 2.068381e+00 1.670241e+00 1.000000e-02
<GCONST> 7.655345e+01
<STATE> 4
<MEAN> 26
 5.576897e+00 2.291824e+00 3.938092e+00 1.020107e+00 -5.230514e+00 -1.165814e+01 -6.630156e+00 -2.402411e+00 -3.825213e+00 -2.469743e+00 -5.132974e-01 2.801297e+00 6.260729e-01 -5.649944e-01 -1.144349e-02 -3.618225e-01 2.143505e-01 1.146528e+00 1.381598e+00 8.465896e-01 1.470128e-01 1.654737e-01 4.348854e-01 -4.822272e-02 -3.687364e-01 -4.703528e-02
<VARIANCE> 26
 1.111229e+01 8.388245e+00 1.573484e+01 1.073205e+01 2.752661e+01 3.740984e+01 5.188076e+01 1.609838e+01 8.477358e+00 1.564558e+01 2.555940e+01 1.467381e+01 3.988123e-02 4.413341e-01 9.653583e-01 7.635016e-01 8.329344e-01 1.080171e+00 2.083270e+00 1.847696e+00 1.665471e+00 9.610140e-01 1.044262e+00 1.646249e+00 1.127120e+00 1.000000e-02
<GCONST> 7.535217e+01
<TRANSP> 5
 0.000000e+00 1.000000e+00 0.000000e+00 0.000000e+00 0.000000e+00
 0.000000e+00 8.800000e-01 1.200000e-01 0.000000e+00 0.000000e+00
 0.000000e+00 0.000000e+00 9.298246e-01 7.017544e-02 0.000000e+00
 0.000000e+00 0.000000e+00 0.000000e+00 9.069768e-01 9.302325e-02
 0.000000e+00 0.000000e+00 0.000000e+00 0.000000e+00 0.000000e+00
<ENDHMM>
