~o
<STREAMINFO> 1 26
<VECSIZE> 26<NULLD><MFCC_E_D_Z><DIAGC>
~h "sil"
<BEGINHMM>
<NUMSTATES> 5
<STATE> 2
<MEAN> 26
 -3.519928e+00 -3.384068e-01 -1.380458e+00 2.020582e-02 -1.420801e+00 -1.972673e+00 -3.337070e-01 -6.601151e-01 -2.108814e-01 3.663101e-01 -5.643182e-01 4.185331e-01 2.403276e-01 2.073769e-01 9.971556e-03 8.636852e-02 4.832490e-01 6.989090e-01 5.701145e-01 5.065032e-01 4.896671e-01 3.860216e-01 1.118315e-01 1.668633e-01 2.505652e-01 2.163182e-02
<VARIANCE> 26
 5.250525e+01 6.122372e+00 1.516632e+01 1.350022e+01 1.867230e+01 2.135545e+01 1.449344e+01 1.767725e+01 1.403131e+01 1.384922e+01 1.656634e+01 1.051341e+01 1.083293e-01 1.949481e+00 4.819153e-01 1.335147e+00 1.224628e+00 1.319463e+00 1.529500e+00 1.487670e+00 1.606149e+00 1.274532e+00 1.400545e+00 1.662134e+00 1.256198e+00 1.000000e-02
<GCONST> 7.733366e+01
<STATE> 3
<MEAN> 26
 -9.812348e-01 1.126687e-02 -2.984355e-01 2.070623e+00 1.711951e+00 1.716800e+00 1.997434e+00 1.331965e+00 9.717167e-01 9.406519e-01 4.511778e-01 8.497984e-01 4.239947e-01 -1.614029e-02 -1.531778e-02 -1.021406e-02 -1.467124e-03 1.708427e-03 2.719579e-03 -3.609109e-03 -2.452592e-03 -7.100023e-03 -8.743607e-03 -9.009346e-03 -9.553031e-03 -1.295330e-03
<VARIANCE> 26
 3.558337e+00 3.768732e+00 5.941669e+00 7.009814e+00 1.030098e+01 1.015136e+01 1.138188e+01 1.263233e+01 1.230805e+01 1.332832e+01 1.260631e+01 1.137638e+01 8.231334e-02 8.637042e-02 1.961843e-01 3.412918e-01 5.080439e-01 6.459385e-01 8.536173e-01 9.213594e-01 1.032062e+00 1.098965e+00 1.086497e+00 1.045535e+00 9.575855e-01 1.000000e-02
<GCONST> 6.039458e+01
<STATE> 4
<MEAN> 26
 -7.210077e-01 6.756281e-01 8.858017e-01 2.043688e+00 1.124509e+00 4.590865e-01 -2.406186e-01 -6.943834e-02 -8.194759e-01 -3.279370e-01 -3.254917e-01 -1.572746e-01 3.740822e-01 3.141662e-01 3.596192e-01 3.786244e-01 -6.198146e-01 -7.474341e-01 -5.691586e-01 -9.703743e-01 -5.695066e-01 -4.866167e-01 -6.076912e-01 -2.554508e-01 -3.765574e-01 4.010410e-02
<VARIANCE> 26
 1.832874e+01 1.691017e+01 2.462825e+01 1.996261e+01 1.869590e+01 2.045398e+01 2.128896e+01 2.087612e+01 2.264334e+01 2.121097e+01 1.644944e+01 1.407591e+01 5.588004e-02 2.531518e+00 2.215125e+00 4.162516e+00 3.046259e+00 2.859072e+00 2.528790e+00 3.088000e+00 2.981757e+00 2.559329e+00 2.823842e+00 2.024014e+00 1.912263e+00 1.000000e-02
<GCONST> 8.768530e+01
<TRANSP> 5
 0.000000e+00 1.000000e+00 0.000000e+00 0.000000e+00 0.000000e+00
 0.000000e+00 7.358657e-01 2.641343e-01 0.000000e+00 0.000000e+00
 0.000000e+00 0.000000e+00 9.779629e-01 2.203715e-02 0.000000e+00
 0.000000e+00 0.000000e+00 0.000000e+00 6.151866e-01 3.848134e-01
 0.000000e+00 0.000000e+00 0.000000e+00 0.000000e+00 0.000000e+00
<ENDHMM>
