~o
<STREAMINFO> 1 26
<VECSIZE> 26<NULLD><MFCC_E_D_Z><DIAGC>
~h "yon"
<BEGINHMM>
<NUMSTATES> 8
<STATE> 2
<MEAN> 26
 3.219407e+00 2.775778e+00 1.424814e+01 -1.982346e+00 -1.549827e+01 -5.245811e+00 -7.715062e+00 -4.588487e+00 -6.732431e+00 -4.324615e+00 3.289722e+00 -2.902035e+00 7.888414e-01 1.233508e+00 -1.440756e+00 -3.903030e-01 -8.697765e-01 -2.048199e+00 -2.242411e+00 -1.164642e+00 3.881995e-01 8.790469e-02 1.502401e-01 9.629935e-02 -5.949399e-01 6.678046e-02
<VARIANCE> 26
 1.210204e+01 2.127364e+01 6.239734e+01 3.030607e+01 7.168885e+01 4.725986e+01 3.266762e+01 3.128046e+01 2.482856e+01 5.758229e+01 2.324903e+01 1.976723e+01 1.607714e-02 4.374147e-01 3.205214e+00 1.531327e+01 2.085705e+00 1.424446e+01 2.462553e+00 4.023656e+00 3.873547e+00 6.918286e+00 3.498425e+00 3.292924e+00 1.396022e+00 1.000000e-02
<GCONST> 9.541540e+01
<STATE> 3
<MEAN> 26
 8.061795e+00 -6.060871e+00 -2.857621e+00 -7.730151e+00 -5.831734e+00 -7.647542e+00 -1.311127e+01 -2.587773e+00 3.842429e+00 -4.762618e-01 -2.473799e+00 -7.477953e+00 9.409586e-01 6.984533e-01 -3.916278e-01 -3.639374e+00 -2.324264e+00 3.500914e+00 2.721951e+00 -9.927435e-01 -1.598884e+00 1.269965e+00 5.849192e-01 -5.433112e-01 -8.513981e-01 1.009937e-02
<VARIANCE> 26
 1.415523e+01 1.413848e+01 2.322257e+01 2.189291e+01 4.525354e+01 3.340696e+01 4.998487e+01 3.396438e+01 1.885453e+01 3.210603e+01 1.470315e+01 2.440571e+01 1.000000e-02 1.504781e-01 9.278717e-01 1.609824e+00 2.009630e+00 2.368953e+00 3.134122e+00 3.183930e+00 1.665971e+00 6.594059e+00 3.064131e+00 3.610911e+00 3.083453e+00 1.000000e-02
<GCONST> 8.544605e+01
<STATE> 4
<MEAN> 26
 9.819277e+00 -4.263788e+00 -8.477667e+00 -1.642807e+01 -1.432527e+00 2.054840e+00 -9.173911e+00 -5.844861e+00 -3.181965e+00 -6.066654e+00 2.413899e+00 -3.613074e+00 9.454859e-01 3.065222e-01 3.987412e-01 1.415789e-01 -3.360681e-01 -3.419439e-01 3.884709e-01 1.345821e+00 8.162333e-01 -1.450842e+00 -1.002027e+00 3.112610e-01 5.378850e-01 -7.843378e-03
<VARIANCE> 26
 1.284591e+01 1.778470e+01 6.526284e+00 3.150167e+01 2.011833e+01 4.416992e+01 5.663338e+01 3.642830e+01 5.384398e+01 5.658680e+01 4.194061e+01 2.237719e+01 1.000000e-02 1.551858e-01 2.629703e-01 7.621487e-01 2.511464e+00 1.086269e+00 2.092785e+00 2.288846e+00 1.845224e+00 1.913835e+00 3.250922e+00 3.368926e+00 2.421333e+00 1.000000e-02
<GCONST> 8.225874e+01
<STATE> 5
<MEAN> 26
 1.016784e+01 -4.803841e-01 -4.111564e+00 -9.608468e+00 -3.778167e+00 -1.654880e-01 -4.378669e+00 -1.812215e+00 -6.666670e+00 -3.028062e+00 -2.820985e+00 -4.438195e+00 8.274834e-01 -2.377039e-01 7.963887e-01 1.189370e+00 1.743880e+00 1.052766e-01 -6.792060e-01 2.243769e-01 -6.448461e-01 -2.223451e-01 9.706048e-01 -1.040859e+00 6.552998e-02 -2.384092e-02
<VARIANCE> 26
 1.038822e+01 9.793997e+00 1.377536e+01 1.911650e+01 2.236735e+01 4.320572e+01 3.713607e+01 3.831638e+01 3.238244e+01 2.029530e+01 8.561483e+01 2.789680e+01 1.000000e-02 2.043648e-01 6.492715e-01 9.477310e-01 1.141375e+00 1.160894e+00 1.363988e+00 1.325235e+00 1.568497e+00 1.147116e+00 2.319415e+00 1.468224e+00 1.184861e+00 1.000000e-02
<GCONST> 7.795310e+01
<STATE> 6
<MEAN> 26
 7.864998e+00 2.485820e+00 2.510863e+00 3.221538e-01 -2.584958e+00 -3.465469e+00 -4.810028e+00 -8.885363e+00 -8.677009e+00 -1.103749e+00 -3.267461e+00 -4.093169e+00 7.101252e-01 -8.715902e-01 1.848451e-01 8.617471e-01 1.065111e+00 4.464557e-01 1.865837e-01 3.001224e-01 9.602989e-03 2.635011e-01 1.662099e-01 -3.370522e-01 -1.874971e-01 -2.581683e-02
<VARIANCE> 26
 1.635983e+01 9.962076e+00 8.417426e+00 1.077093e+01 2.680939e+01 1.638389e+01 1.666758e+01 5.396543e+01 1.424278e+01 5.699349e+01 4.946190e+01 3.508922e+01 1.216829e-02 2.570895e-01 6.646311e-01 6.623479e-01 8.227993e-01 9.374495e-01 1.499702e+00 1.847968e+00 1.562447e+00 1.805295e+00 2.414926e+00 1.750086e+00 1.463716e+00 1.000000e-02
<GCONST> 7.685681e+01
<STATE> 7
<MEAN> 26
 2.056525e+00 1.783987e+00 3.915874e+00 1.179114e+00 1.870712e+00 -1.715967e+00 5.945246e-01 -2.218692e+00 -2.765756e+00 1.266353e+00 -6.498547e+00 -1.909498e+00 5.149044e-01 -8.957882e-01 -3.052858e-01 -6.660105e-01 1.618178e-01 2.514068e-01 3.082219e-01 6.396589e-01 7.611586e-01 1.070900e+00 -4.872505e-02 1.044918e+00 9.074922e-01 -4.557961e-02
<VARIANCE> 26
 9.561484e+00 4.666810e+00 1.282736e+01 2.045984e+01 1.940309e+01 7.752492e+00 1.449380e+01 4.053144e+01 1.565726e+01 2.764531e+01 3.529490e+01 1.700215e+01 2.497490e-02 6.117607e-01 7.872949e-01 1.108153e+00 7.318004e-01 1.274154e+00 1.024799e+00 1.405266e+00 3.043185e+00 1.569381e+00 3.043894e+00 1.904448e+00 1.690707e+00 1.000000e-02
<GCONST> 7.622768e+01
<TRANSP> 8
 0.000000e+00 1.000000e+00 0.000000e+00 0.000000e+00 0.000000e+00 0.000000e+00 0.000000e+00 0.000000e+00
 0.000000e+00 8.170732e-01 1.829268e-01 0.000000e+00 0.000000e+00 0.000000e+00 0.000000e+00 0.000000e+00
 0.000000e+00 0.000000e+00 7.368421e-01 2.631579e-01 0.000000e+00 0.000000e+00 0.000000e+00 0.000000e+00
 0.000000e+00 0.000000e+00 0.000000e+00 8.404256e-01 1.595744e-01 0.000000e+00 0.000000e+00 0.000000e+00
 0.000000e+00 0.000000e+00 0.000000e+00 0.000000e+00 8.351648e-01 1.648352e-01 0.000000e+00 0.000000e+00
 0.000000e+00 0.000000e+00 0.000000e+00 0.000000e+00 0.000000e+00 7.945206e-01 2.054794e-01 0.000000e+00
 0.000000e+00 0.000000e+00 0.000000e+00 0.000000e+00 0.000000e+00 0.000000e+00 7.887324e-01 2.112676e-01
 0.000000e+00 0.000000e+00 0.000000e+00 0.000000e+00 0.000000e+00 0.000000e+00 0.000000e+00 0.000000e+00
<ENDHMM>
