~o
<STREAMINFO> 1 26
<VECSIZE> 26<NULLD><MFCC_E_D_Z><DIAGC>
~h "ni"
<BEGINHMM>
<NUMSTATES> 5
<STATE> 2
<MEAN> 26
 6.819436e+00 6.318267e+00 6.505263e+00 -2.222672e+00 -5.324744e+00 -3.735587e+00 -3.771330e+00 -9.085966e+00 -2.696039e+00 -1.090826e+00 -1.607356e+00 -3.481762e+00 8.328351e-01 -1.278050e-01 2.819676e-01 1.314853e+00 -2.311722e+00 -5.558718e-01 2.615111e-01 -1.334264e+00 -6.841578e-01 -1.013812e-01 -9.925823e-02 1.989776e-02 -6.119395e-01 4.714156e-02
<VARIANCE> 26
 2.906362e+01 9.502625e+00 2.486131e+01 7.110937e+01 4.283031e+01 1.839676e+01 2.724368e+01 4.930564e+01 6.420913e+01 2.586283e+01 1.532881e+01 2.885633e+01 1.339572e-02 2.509305e+00 1.278694e+00 1.328651e+00 4.780717e+00 2.523498e+00 2.678508e+00 2.257975e+00 4.120947e+00 3.178569e+00 1.435679e+00 2.189248e+00 2.033369e+00 1.000000e-02
<GCONST> 8.951210e+01
<STATE> 3
<MEAN> 26
 1.526680e+00 4.167260e+00 1.260287e+01 -1.622480e+01 -4.707099e+00 -5.284616e-01 -1.280379e+01 -8.003918e+00 -2.152964e+00 -5.008224e+00 5.920341e-01 -5.716517e+00 9.444923e-01 -6.521878e-02 -4.121427e-02 -7.054988e-02 -1.779603e-01 -9.541580e-02 -5.828328e-02 -2.226941e-01 1.301230e-01 -3.473545e-02 -9.858475e-02 2.155501e-01 -3.446211e-02 -1.088824e-02
<VARIANCE> 26
 2.656554e+01 1.190833e+01 2.205649e+01 2.266941e+01 5.260608e+01 3.248672e+01 1.830333e+01 3.142234e+01 4.285818e+01 3.677740e+01 3.851850e+01 1.981273e+01 1.000000e-02 2.317390e-01 3.869831e-01 4.847512e-01 6.271776e-01 3.964834e-01 9.022997e-01 1.055003e+00 7.525357e-01 6.506054e-01 1.167518e+00 9.494690e-01 7.311346e-01 1.000000e-02
<GCONST> 7.284361e+01
<STATE> 4
<MEAN> 26
 1.997330e-01 2.538098e+00 6.027827e+00 -8.158445e+00 -2.746866e+00 -1.466949e+00 -7.744687e+00 -2.470791e+00 -2.696444e+00 -2.296317e+00 4.916595e-01 -3.537951e+00 5.445276e-01 -2.671033e-01 -7.098982e-01 -1.441261e+00 2.195034e+00 7.710422e-01 1.518881e-01 1.533267e+00 1.026988e+00 2.260643e-01 4.451257e-01 9.036505e-02 8.440227e-01 -5.939456e-02
<VARIANCE> 26
 6.449963e+00 1.221273e+01 2.758821e+01 5.881971e+01 2.926423e+01 2.410056e+01 3.526721e+01 2.639167e+01 2.324546e+01 3.064633e+01 3.365690e+01 1.796529e+01 3.836915e-02 6.588422e-01 6.369601e-01 2.205065e+00 2.013077e+00 1.603963e+00 2.570039e+00 1.637577e+00 2.158651e+00 2.420176e+00 2.396408e+00 1.926581e+00 1.663393e+00 1.000000e-02
<GCONST> 8.426907e+01
<TRANSP> 5
 0.000000e+00 1.000000e+00 0.000000e+00 0.000000e+00 0.000000e+00
 0.000000e+00 8.684211e-01 1.315790e-01 0.000000e+00 0.000000e+00
 0.000000e+00 0.000000e+00 9.234694e-01 7.653061e-02 0.000000e+00
 0.000000e+00 0.000000e+00 0.000000e+00 8.648649e-01 1.351351e-01
 0.000000e+00 0.000000e+00 0.000000e+00 0.000000e+00 0.000000e+00
<ENDHMM>
