~o
<STREAMINFO> 1 26
<VECSIZE> 26<NULLD><MFCC_E_D_Z><DIAGC>
~h "san"
<BEGINHMM>
<NUMSTATES> 8
<STATE> 2
<MEAN> 26
 -1.168100e+01 4.982783e+00 -2.952446e+00 4.167836e+00 -1.609053e+00 -1.450986e+00 4.522714e-01 2.576955e+00 1.485584e-01 1.125063e-01 1.016048e+00 2.793063e+00 4.062653e-01 -8.454775e-01 5.654213e-02 -3.715115e-01 2.309950e-01 -3.032840e-01 7.312618e-02 8.099377e-03 6.560630e-02 2.096347e-01 -4.232905e-02 8.629976e-02 -1.442937e-02 2.045272e-02
<VARIANCE> 26
 2.049451e+01 8.543851e+00 9.242559e+00 1.976752e+01 1.831358e+01 2.938465e+01 1.409874e+01 1.415423e+01 1.717488e+01 1.220885e+01 2.189723e+01 1.516155e+01 4.597841e-02 1.170345e+00 5.978994e-01 7.337622e-01 7.135181e-01 9.230202e-01 1.498285e+00 1.193067e+00 1.445601e+00 1.751108e+00 1.108038e+00 1.131570e+00 1.241715e+00 1.000000e-02
<GCONST> 7.407627e+01
<STATE> 3
<MEAN> 26
 -1.025593e+01 4.269722e-01 -4.637099e+00 4.619199e-01 -3.625467e+00 -1.466869e+00 -2.020982e-01 4.157194e+00 1.789664e+00 -1.571624e+00 3.171928e+00 3.311596e+00 6.200763e-01 2.652247e+00 -1.177038e+00 -1.914610e-01 -1.261773e+00 4.122357e-01 -8.090152e-01 2.914861e-02 -2.820448e-01 7.017767e-02 -1.183113e+00 -1.216964e+00 -2.263580e-01 4.642852e-02
<VARIANCE> 26
 2.651063e+01 2.058520e+01 1.770232e+01 1.807522e+01 1.639856e+01 2.797135e+01 2.154771e+01 3.071915e+01 1.778561e+01 1.914392e+01 2.931957e+01 1.768035e+01 3.528239e-02 3.640719e+00 1.266802e+00 1.706107e+00 1.684325e+00 3.021687e+00 1.880785e+00 3.177998e+00 2.986431e+00 1.935902e+00 4.249445e+00 2.635889e+00 2.953220e+00 1.000000e-02
<GCONST> 8.734180e+01
<STATE> 4
<MEAN> 26
 5.198375e+00 -5.607961e+00 -3.133857e+00 -6.580302e+00 4.373417e+00 -4.512773e+00 2.328628e+00 -3.664808e+00 2.810166e+00 -8.415059e+00 -7.036751e+00 -3.456154e+00 9.060237e-01 1.948789e+00 -2.072035e+00 1.336302e-01 -2.122045e+00 2.402216e+00 9.238541e-02 6.826280e-01 -2.443162e+00 4.641654e-01 -4.423181e-01 -1.112067e+00 -1.827494e+00 6.039396e-02
<VARIANCE> 26
 1.183751e+01 3.636231e+01 2.182052e+01 2.516414e+01 4.401242e+01 1.258701e+01 4.046769e+01 3.397439e+01 3.342122e+01 3.808521e+01 1.983224e+01 3.482976e+01 1.000000e-02 2.923141e+00 2.870333e+00 1.698982e+00 1.428742e+00 2.175564e+00 2.053382e+00 3.419328e+00 1.384650e+00 4.189478e+00 3.964442e+00 4.542564e+00 4.433462e+00 1.000000e-02
<GCONST> 9.005579e+01
<STATE> 5
<MEAN> 26
 8.021288e+00 -1.042941e+01 -4.237020e+00 -1.161913e+01 1.083605e+01 -2.786267e+00 7.167513e-01 -8.877980e+00 1.784167e+00 -4.665197e+00 -5.823453e+00 -7.417035e+00 9.557935e-01 3.508394e-01 1.830088e-01 -1.499605e-01 2.938936e-02 -1.434016e-02 1.640081e-01 -4.931006e-01 8.563992e-02 -1.741775e-01 2.344865e-01 1.537221e-01 -3.244866e-01 -8.216391e-03
<VARIANCE> 26
 2.085811e+01 2.695635e+01 2.242767e+01 1.545553e+01 1.597787e+01 1.956993e+01 3.904224e+01 2.451737e+01 3.081857e+01 4.103216e+01 3.709760e+01 3.364378e+01 1.000000e-02 1.487763e-01 6.099786e-01 5.456703e-01 6.345987e-01 8.534827e-01 6.724296e-01 7.439281e-01 1.631292e+00 1.241928e+00 9.484209e-01 5.735754e-01 6.772341e-01 1.000000e-02
<GCONST> 7.303199e+01
<STATE> 6
<MEAN> 26
 1.091112e+01 -3.764783e+00 -7.239423e-01 -4.814760e+00 1.033561e+00 -2.194432e+00 -3.058080e+00 -7.923870e+00 -1.448824e+00 -2.884957e+00 -5.241986e+00 -7.340059e+00 8.160146e-01 -1.583967e-01 9.636126e-01 1.363146e+00 1.066142e+00 -1.305647e+00 -4.165462e-02 -3.620055e-01 -2.456220e-01 -5.941987e-01 6.396020e-01 -2.083781e-01 3.641598e-01 -2.253364e-02
<VARIANCE> 26
 2.838878e+01 1.226808e+01 3.130567e+01 3.381760e+01 5.254319e+01 1.053742e+01 3.217679e+01 6.999112e+01 4.029544e+01 4.493122e+01 4.677871e+01 2.954351e+01 1.000000e-02 1.750109e-01 7.401614e-01 1.145000e+00 1.185384e+00 1.379099e+00 1.046013e+00 1.635820e+00 1.877143e+00 1.378787e+00 1.794028e+00 3.328783e+00 3.229971e+00 1.000000e-02
<GCONST> 8.319180e+01
<STATE> 7
<MEAN> 26
 5.071214e+00 3.713280e-01 5.473011e+00 -1.069710e+00 -1.422760e+00 -2.008133e+00 -3.812614e+00 -6.190035e+00 -1.233606e+00 9.162872e-01 -4.924139e+00 -4.368900e+00 5.431462e-01 -1.004751e+00 3.608042e-01 -4.059012e-01 5.547969e-01 -8.582661e-02 3.453683e-01 4.212856e-01 8.278686e-01 1.592929e-01 2.364172e-01 9.782859e-01 6.701567e-01 -5.529159e-02
<VARIANCE> 26
 2.434950e+01 9.053319e+00 2.310777e+01 1.712724e+01 3.230965e+01 1.976944e+01 2.455434e+01 5.222792e+01 4.056188e+01 2.427125e+01 3.654413e+01 2.644107e+01 3.378069e-02 8.763046e-01 6.883547e-01 1.929749e+00 7.200849e-01 1.341717e+00 1.641229e+00 2.055701e+00 2.319259e+00 2.240245e+00 1.990894e+00 1.906929e+00 1.611954e+00 1.000000e-02
<GCONST> 8.334270e+01
<TRANSP> 8
 0.000000e+00 1.000000e+00 0.000000e+00 0.000000e+00 0.000000e+00 0.000000e+00 0.000000e+00 0.000000e+00
 0.000000e+00 8.979592e-01 1.020408e-01 0.000000e+00 0.000000e+00 0.000000e+00 0.000000e+00 0.000000e+00
 0.000000e+00 0.000000e+00 7.887324e-01 2.112676e-01 0.000000e+00 0.000000e+00 0.000000e+00 0.000000e+00
 0.000000e+00 0.000000e+00 0.000000e+00 7.368421e-01 2.631579e-01 0.000000e+00 0.000000e+00 0.000000e+00
 0.000000e+00 0.000000e+00 0.000000e+00 0.000000e+00 8.993289e-01 1.006711e-01 0.000000e+00 0.000000e+00
 0.000000e+00 0.000000e+00 0.000000e+00 0.000000e+00 0.000000e+00 8.611111e-01 1.388889e-01 0.000000e+00
 0.000000e+00 0.000000e+00 0.000000e+00 0.000000e+00 0.000000e+00 0.000000e+00 8.514851e-01 1.485149e-01
 0.000000e+00 0.000000e+00 0.000000e+00 0.000000e+00 0.000000e+00 0.000000e+00 0.000000e+00 0.000000e+00
<ENDHMM>
