~o
<STREAMINFO> 1 26
<VECSIZE> 26<NULLD><MFCC_E_D_Z><DIAGC>
~h "sil"
<BEGINHMM>
<NUMSTATES> 5
<STATE> 2
<MEAN> 26
 9.068533e-01 -1.069425e-01 -1.277318e+00 2.494909e+00 -5.186384e-01 1.763348e+00 8.897877e-01 1.435470e+00 -8.659334e-01 1.457791e+00 3.171218e-01 6.146695e-01 2.450127e-01 -4.885933e-02 -2.095586e-02 -4.670595e-02 9.167137e-02 7.476882e-02 8.083613e-02 8.139797e-02 6.258707e-02 2.763639e-02 4.784884e-03 -3.118107e-03 4.120745e-02 -2.514363e-03
<VARIANCE> 26
 5.036036e+00 4.739922e+00 7.136703e+00 7.771060e+00 1.209105e+01 1.042038e+01 1.145650e+01 1.305760e+01 1.248114e+01 1.068194e+01 1.170350e+01 8.926498e+00 1.000000e-02 1.976382e-01 2.493128e-01 4.855596e-01 6.742859e-01 8.175495e-01 9.369616e-01 1.008719e+00 1.196870e+00 1.156389e+00 1.031904e+00 1.054176e+00 9.325444e-01 1.000000e-02
<GCONST> 6.110314e+01
<STATE> 3
<MEAN> 26
 -2.126067e+00 -3.504782e-02 -3.290141e-01 2.490578e+00 2.111833e+00 1.386476e+00 2.346083e+00 1.821292e+00 1.004397e+00 1.436921e+00 6.468452e-01 1.353928e+00 2.813700e-01 -1.447805e-02 -7.186461e-03 8.885572e-03 1.278665e-02 8.968746e-03 9.403085e-03 9.971148e-03 1.301315e-02 4.069009e-03 2.126033e-03 1.074011e-02 5.577025e-03 -5.591345e-05
<VARIANCE> 26
 2.121488e+00 3.741353e+00 5.920922e+00 6.608739e+00 8.862540e+00 9.664062e+00 1.035965e+01 1.211681e+01 1.138685e+01 1.201057e+01 1.135104e+01 9.712050e+00 5.939003e-02 9.071992e-02 1.944393e-01 3.267833e-01 5.009221e-01 6.514869e-01 8.787275e-01 9.452862e-01 1.093784e+00 1.130379e+00 1.145130e+00 1.085742e+00 1.013083e+00 1.000000e-02
<GCONST> 5.897968e+01
<STATE> 4
<MEAN> 26
 -5.285974e-01 7.309358e-01 9.008436e-01 1.999771e+00 9.837403e-01 7.257742e-01 4.917343e-02 1.107582e-01 -6.694268e-01 -1.025383e-01 -2.318482e-01 1.708331e-02 3.453799e-01 1.469647e-01 3.142456e-01 5.259943e-01 -5.854650e-01 -5.034938e-01 -5.469533e-01 -9.005079e-01 -5.967261e-01 -1.779207e-01 -6.869954e-01 -1.281158e-01 -3.132734e-01 4.211809e-02
<VARIANCE> 26
 1.930588e+01 1.819787e+01 2.741493e+01 2.852093e+01 1.774645e+01 2.131401e+01 2.261502e+01 2.134625e+01 2.235472e+01 2.091076e+01 1.696858e+01 1.317038e+01 4.696243e-02 2.595385e+00 2.326990e+00 4.641197e+00 3.369035e+00 2.894624e+00 2.546246e+00 3.207128e+00 2.955870e+00 2.929029e+00 2.793627e+00 2.087548e+00 1.764120e+00 1.000000e-02
<GCONST> 8.851657e+01
<TRANSP> 5
 0.000000e+00 1.000000e+00 0.000000e+00 0.000000e+00 0.000000e+00
 0.000000e+00 9.400561e-01 5.994386e-02 0.000000e+00 0.000000e+00
 0.000000e+00 0.000000e+00 9.584549e-01 4.154509e-02 0.000000e+00
 0.000000e+00 0.000000e+00 0.000000e+00 6.613817e-01 3.386183e-01
 0.000000e+00 0.000000e+00 0.000000e+00 0.000000e+00 0.000000e+00
<ENDHMM>
