~o
<STREAMINFO> 1 39
<VECSIZE> 39<NULLD><MFCC_D_A_0><DIAGC>
~h "go"
<BEGINHMM>
<NUMSTATES> 5
<STATE> 2
<MEAN> 39
 -2.539784e-01 5.448766e-01 -5.870401e+00 -4.963882e+00 2.419619e+00 8.142620e+00 6.659269e-01 -4.321345e+00 -4.532552e+00 2.543687e+00 5.614280e+00 6.023663e+00 6.962255e+01 7.987598e-01 5.401619e-02 2.474511e-02 -1.974839e+00 -1.507653e+00 1.788041e-01 -1.409255e+00 -6.102003e-01 -2.609342e-01 -2.853850e-01 6.374449e-01 6.986617e-01 1.005403e+00 -4.388332e-02 -7.319487e-02 2.540438e-01 -1.100782e-01 -1.752402e-01 1.844795e-01 -1.617182e-01 1.354116e-01 1.671681e-01 -2.389410e-01 1.059917e-03 -1.646645e-02 2.886530e-02
<VARIANCE> 39
 1.155876e+01 1.347929e+01 2.928114e+01 5.220219e+01 4.796601e+01 1.794236e+01 3.866389e+01 1.535526e+01 3.107170e+01 4.964290e+01 2.690935e+01 3.108346e+01 1.513020e+01 5.277289e-01 1.682953e+00 4.916309e+00 2.466960e+00 5.584363e+00 1.389478e+00 4.619976e+00 2.100233e+00 4.050579e+00 3.792212e+00 1.928976e+00 2.277778e+00 5.275777e-01 1.198699e-01 3.551895e-01 8.662848e-01 4.431666e-01 9.919334e-01 2.250485e-01 7.591286e-01 3.765568e-01 7.825277e-01 7.403421e-01 4.162384e-01 5.320725e-01 9.883148e-02
<GCONST> 1.130264e+02
<STATE> 3
<MEAN> 39
 3.527928e+00 -5.767986e-01 -2.725943e+00 -2.063086e+01 -9.326901e+00 1.145710e+01 -9.347391e+00 -3.598430e+00 -7.903571e-01 -5.626041e+00 7.176866e+00 1.030546e+01 7.509948e+01 -1.728446e-01 1.101626e-01 -1.553687e-01 -3.127237e-01 1.932993e-01 1.549141e-03 4.202136e-01 4.962252e-01 2.887991e-01 -4.347841e-01 -5.555853e-01 7.469399e-02 -3.364461e-01 -9.466274e-02 8.111130e-02 -8.413292e-02 4.005603e-01 2.648192e-01 -1.689390e-01 2.853994e-01 7.070481e-02 -1.925488e-02 2.388753e-01 -9.046630e-02 -1.832287e-01 -1.968848e-01
<VARIANCE> 39
 3.410749e+00 1.134817e+01 1.553368e+01 1.566002e+01 2.179015e+01 1.727790e+01 1.167861e+01 2.062243e+01 3.708273e+01 3.269102e+01 1.846074e+01 8.128240e+00 6.769376e+00 2.269816e-01 5.423079e-01 9.784411e-01 1.504282e+00 9.724219e-01 8.695573e-01 1.098578e+00 9.064739e-01 9.549258e-01 1.841031e+00 1.080348e+00 1.194578e+00 3.883563e-01 4.166313e-02 6.236400e-02 1.891952e-01 2.383751e-01 1.977855e-01 1.295341e-01 1.975425e-01 2.307985e-01 2.235142e-01 2.334271e-01 2.447376e-01 2.637875e-01 2.814472e-02
<GCONST> 7.919132e+01
<STATE> 4
<MEAN> 39
 -1.900176e+00 1.981082e+00 -2.916051e+00 -5.905137e+00 -1.655612e-01 8.398222e+00 -3.706336e-02 5.596131e-01 1.629324e+00 -7.180201e-01 2.779608e+00 3.715185e+00 6.728508e+01 -6.277350e-01 -1.134926e-01 2.575877e-01 2.350976e+00 1.104898e+00 -1.334999e-01 7.972137e-01 8.984371e-02 -1.201568e-01 5.720024e-01 -1.754288e-01 -9.770036e-01 -6.533179e-01 6.792483e-02 -2.852530e-02 3.948789e-03 -1.514553e-01 -6.534607e-02 1.306253e-01 -1.072630e-01 -1.074384e-01 -9.306012e-02 -1.579358e-01 1.750193e-02 4.494744e-02 1.229934e-01
<VARIANCE> 39
 5.376701e+00 7.496258e+00 8.726571e+00 6.633816e+01 2.877826e+01 1.348740e+01 1.439730e+01 1.902348e+01 1.753979e+01 1.518158e+01 2.252095e+01 2.517963e+01 5.946596e+00 2.856193e-01 3.312315e-01 4.552522e-01 2.139596e+00 9.684904e-01 1.405694e+00 1.282009e+00 1.366115e+00 1.469778e+00 1.437727e+00 1.785287e+00 1.025906e+00 2.327306e-01 3.375420e-02 5.113525e-02 9.607983e-02 4.035545e-01 1.593816e-01 2.219379e-01 1.838993e-01 2.457795e-01 2.605167e-01 2.260655e-01 4.136654e-01 1.836008e-01 1.469215e-02
<GCONST> 7.971623e+01
<TRANSP> 5
 0.000000e+00 1.000000e+00 0.000000e+00 0.000000e+00 0.000000e+00
 0.000000e+00 8.924731e-01 1.075269e-01 0.000000e+00 0.000000e+00
 0.000000e+00 0.000000e+00 9.090909e-01 9.090909e-02 0.000000e+00
 0.000000e+00 0.000000e+00 0.000000e+00 8.913044e-01 1.086957e-01
 0.000000e+00 0.000000e+00 0.000000e+00 0.000000e+00 0.000000e+00
<ENDHMM>
