~o
<STREAMINFO> 1 39
<VECSIZE> 39<NULLD><MFCC_D_A_0><DIAGC>
~h "hachi"
<BEGINHMM>
<NUMSTATES> 5
<STATE> 2
<MEAN> 39
 -2.139687e+00 -7.198938e+00 -4.458323e+00 -8.550240e-01 6.691582e+00 4.402627e+00 -4.417133e+00 -3.258983e+00 -2.796808e+00 1.123053e+00 -1.796899e+00 -4.856121e+00 7.385202e+01 1.989027e-01 -5.622595e-01 -4.158610e-01 -3.797095e-01 -2.079755e-01 -4.835800e-01 6.791199e-03 1.983474e-01 2.117362e-01 4.413033e-01 7.566301e-03 9.536339e-02 5.296173e-01 -6.753097e-02 1.724205e-01 6.686202e-02 1.172548e-01 5.222118e-03 1.287675e-01 1.038100e-01 6.463370e-02 8.187959e-02 -7.013684e-02 -3.622702e-02 -2.846955e-02 -1.640694e-01
<VARIANCE> 39
 1.121018e+01 3.997271e+01 1.866521e+01 4.140728e+01 1.580798e+01 3.134198e+01 1.334092e+01 1.253107e+01 1.132593e+01 2.558921e+01 1.015351e+01 1.357234e+01 2.988711e+01 1.218665e+00 2.921008e+00 1.773806e+00 3.282725e+00 1.540615e+00 2.252293e+00 2.071330e+00 1.462363e+00 1.425075e+00 2.019155e+00 1.050400e+00 9.332827e-01 2.020603e+00 2.235682e-01 4.716388e-01 3.838663e-01 4.920455e-01 2.718277e-01 4.789412e-01 3.304074e-01 2.722561e-01 2.702627e-01 3.788472e-01 1.751348e-01 1.986761e-01 2.673405e-01
<GCONST> 1.015538e+02
<STATE> 3
<MEAN> 39
 -4.224024e+00 -1.232357e+00 -2.321979e+00 2.050528e+00 4.451150e+00 5.310421e+00 1.033454e+00 -6.593006e-03 -1.673618e+00 -1.273407e+00 -3.234792e+00 -5.494613e+00 6.943530e+01 -8.893140e-01 1.018730e+00 7.911681e-01 4.664612e-01 2.661514e-01 4.605308e-01 3.760609e-01 -1.259524e-01 -8.401857e-01 -3.123003e-01 1.805097e-01 -2.453555e-01 -3.951943e-01 -1.695303e-01 -1.108169e-01 1.693166e-02 -2.465953e-01 5.832579e-02 -2.164062e-01 -6.840619e-02 7.108424e-03 -1.555143e-01 1.799060e-01 7.402019e-02 7.459502e-02 3.229938e-01
<VARIANCE> 39
 4.939327e+00 1.287192e+01 8.313978e+00 8.606266e+00 7.627712e+00 9.213757e+00 1.262212e+01 9.444610e+00 2.313296e+01 1.050487e+01 8.758489e+00 1.139616e+01 4.537717e+00 8.189123e-01 7.516834e-01 3.066688e-01 7.407895e-01 1.079304e+00 1.872658e+00 1.119558e+00 1.008330e+00 2.084934e+00 1.637564e+00 7.601608e-01 1.259696e+00 1.275795e+00 9.027080e-02 1.246533e-01 5.029031e-02 8.829656e-02 2.335100e-01 2.146486e-01 2.248196e-01 1.910816e-01 4.228799e-01 2.105982e-01 1.688110e-01 2.077701e-01 3.111590e-02
<GCONST> 7.574418e+01
<STATE> 4
<MEAN> 39
 -1.421575e+01 3.169253e+00 5.777578e+00 -1.035434e+00 8.104407e+00 6.210959e+00 8.900036e-01 1.002255e+00 -8.077191e+00 -5.868976e-01 -1.539479e+00 -5.710001e+00 7.253690e+01 2.247718e-01 -2.974150e-02 -2.523388e-02 7.477225e-03 3.426994e-04 1.613908e-01 -1.248921e-01 -3.258471e-02 2.360684e-01 -7.459990e-02 -6.209761e-02 3.586655e-02 -1.556220e-01 1.133673e-01 -4.567422e-02 -5.586151e-02 6.231738e-02 -4.721662e-02 3.209915e-02 1.062049e-02 -1.133903e-02 4.895214e-02 -5.846889e-02 -2.018825e-02 -1.224060e-03 -6.253041e-02
<VARIANCE> 39
 3.235675e+01 9.157628e+00 1.305725e+01 1.050055e+01 8.028502e+00 1.143674e+01 1.138447e+01 2.487800e+01 2.366253e+01 1.556971e+01 1.536382e+01 1.343167e+01 1.203253e+01 1.499741e+00 6.320667e-01 1.020289e+00 8.875465e-01 9.304205e-01 8.021175e-01 1.064660e+00 1.297802e+00 1.442099e+00 1.146791e+00 1.195732e+00 1.017276e+00 4.958146e-01 7.775721e-02 1.100473e-01 1.360299e-01 1.431195e-01 1.749529e-01 1.699236e-01 2.192196e-01 2.562576e-01 3.099005e-01 2.394469e-01 2.419817e-01 2.087504e-01 2.383477e-02
<GCONST> 8.163943e+01
<TRANSP> 5
 0.000000e+00 1.000000e+00 0.000000e+00 0.000000e+00 0.000000e+00
 0.000000e+00 9.338235e-01 6.617647e-02 0.000000e+00 0.000000e+00
 0.000000e+00 0.000000e+00 9.042553e-01 9.574470e-02 0.000000e+00
 0.000000e+00 0.000000e+00 0.000000e+00 9.589041e-01 4.109589e-02
 0.000000e+00 0.000000e+00 0.000000e+00 0.000000e+00 0.000000e+00
<ENDHMM>
