~o
<STREAMINFO> 1 26
<VECSIZE> 26<NULLD><MFCC_E_D_Z><DIAGC>
~h "ichi"
<BEGINHMM>
<NUMSTATES> 7
<STATE> 2
<MEAN> 26
 2.820381e+00 5.972569e+00 1.223517e+01 -7.388697e+00 -6.233850e+00 -4.208212e+00 -1.048593e+01 -5.604573e+00 -2.616105e+00 -7.641383e+00 3.736331e-01 -3.968129e+00 8.331580e-01 2.736164e-01 4.769300e-01 2.486280e-01 1.608804e-01 -4.035092e-02 -3.150789e-01 -2.127515e-03 -1.914539e-01 -1.785911e-01 -9.709826e-02 -3.776061e-01 -2.638589e-01 4.997452e-03
<VARIANCE> 26
 1.392916e+01 2.715271e+01 4.771662e+01 2.891704e+01 5.231321e+01 4.026960e+01 3.943107e+01 4.083185e+01 5.249762e+01 3.441443e+01 5.946560e+01 2.921005e+01 1.826775e-02 7.676745e-01 1.627051e+00 4.935485e+00 4.038365e+00 4.032766e+00 3.414193e+00 4.974779e+00 2.471392e+00 2.821402e+00 2.998233e+00 2.681337e+00 1.940405e+00 1.000000e-02
<GCONST> 9.446890e+01
<STATE> 3
<MEAN> 26
 2.296083e+00 1.365908e+00 1.776091e-01 1.859055e+00 7.199704e-01 4.255975e-01 -1.215253e+00 -6.403090e-01 -9.986162e-01 -1.438261e+00 -1.092681e+00 -1.550214e+00 4.469824e-01 -7.146399e-01 -8.511432e-01 -1.214448e+00 3.475955e-01 1.961129e-01 3.057030e-01 5.681768e-01 3.962647e-01 3.132464e-01 5.903843e-01 3.085798e-01 5.169152e-01 -2.362895e-02
<VARIANCE> 26
 4.832062e+00 1.106355e+01 1.452642e+01 1.211777e+01 1.364746e+01 9.904818e+00 1.173176e+01 1.705942e+01 1.357016e+01 1.729951e+01 1.855493e+01 1.207779e+01 4.114928e-02 1.097463e+00 1.248108e+00 1.202721e+00 1.013655e+00 1.611623e+00 1.914491e+00 1.561642e+00 2.160469e+00 1.834194e+00 1.479351e+00 1.468309e+00 9.645926e-01 1.000000e-02
<GCONST> 7.441669e+01
<STATE> 4
<MEAN> 26
 -1.267243e+01 1.823195e+00 -5.673332e-01 -3.015752e+00 4.224050e+00 -3.892120e+00 2.651089e+00 -1.471092e+00 1.186508e+00 4.863075e-01 -5.552112e-01 4.237845e-01 6.999268e-01 -2.202382e-01 3.056386e-01 6.980511e-01 -5.158949e-01 -1.105688e-01 -4.747389e-01 -4.101754e-02 -3.142581e-01 -3.574032e-01 -1.007601e-01 -2.104088e-01 -2.361079e-01 1.750304e-02
<VARIANCE> 26
 4.256624e+01 1.139993e+01 2.534219e+01 1.230284e+01 1.767706e+01 1.973502e+01 1.975651e+01 2.182170e+01 2.213906e+01 2.106318e+01 1.758542e+01 1.197425e+01 2.523015e-02 5.461188e+00 9.061432e-01 2.289736e+00 9.169474e-01 2.809331e+00 1.895704e+00 2.240678e+00 2.068614e+00 1.761416e+00 1.453541e+00 1.545352e+00 1.110544e+00 1.000000e-02
<GCONST> 8.186988e+01
<STATE> 5
<MEAN> 26
 2.401962e+00 -2.148618e-01 1.305234e+01 -1.096884e+01 -1.467539e+01 -8.929016e+00 -1.026375e+01 -9.168058e+00 -7.909170e+00 -1.562454e+00 -1.729655e+00 -4.811403e+00 8.643408e-01 5.613091e-01 -3.501801e-01 3.415436e-01 -2.910886e-01 -7.772766e-01 2.052387e-01 -7.704085e-01 -2.778474e-01 -5.760950e-02 8.911028e-03 1.374058e-01 -2.919167e-02 -9.489476e-03
<VARIANCE> 26
 1.668583e+01 1.451861e+01 2.420189e+01 1.488837e+01 4.760974e+01 1.275609e+01 2.163951e+01 1.984363e+01 1.401799e+01 2.568173e+01 2.072082e+01 9.086369e+00 1.633914e-02 1.559098e+00 1.142465e+00 1.682561e+00 1.667124e+00 4.260571e+00 1.503846e+00 1.832465e+00 1.441611e+00 1.538674e+00 1.224076e+00 1.241984e+00 1.129397e+00 1.000000e-02
<GCONST> 7.944700e+01
<STATE> 6
<MEAN> 26
 6.547667e-01 -4.103377e-01 4.793112e+00 -3.583886e+00 -4.893333e+00 -2.230910e+00 -4.144896e+00 -5.205420e+00 -2.590203e+00 6.022736e-01 -2.037960e-01 -1.244979e+00 5.080584e-01 2.552979e-01 -2.206043e-01 -1.667922e+00 1.488926e+00 1.558815e+00 8.187290e-01 1.244190e+00 1.092307e+00 8.775185e-01 5.138539e-01 4.999567e-01 6.053866e-01 -3.501285e-02
<VARIANCE> 26
 7.348696e+00 2.770565e+00 2.740280e+01 2.076242e+01 3.041785e+01 1.769984e+01 3.884837e+01 2.807370e+01 2.494088e+01 1.870832e+01 1.422670e+01 1.958552e+01 3.418500e-02 1.158454e+00 2.863392e-01 1.955361e+00 1.823063e+00 1.768626e+00 1.516516e+00 3.048122e+00 1.414279e+00 1.883075e+00 1.917160e+00 1.932009e+00 1.749629e+00 1.000000e-02
<GCONST> 7.933658e+01
<TRANSP> 7
 0.000000e+00 1.000000e+00 0.000000e+00 0.000000e+00 0.000000e+00 0.000000e+00 0.000000e+00
 0.000000e+00 9.074074e-01 9.259259e-02 0.000000e+00 0.000000e+00 0.000000e+00 0.000000e+00
 0.000000e+00 0.000000e+00 8.854962e-01 1.145038e-01 0.000000e+00 0.000000e+00 0.000000e+00
 0.000000e+00 0.000000e+00 0.000000e+00 9.261084e-01 7.389163e-02 0.000000e+00 0.000000e+00
 0.000000e+00 0.000000e+00 0.000000e+00 0.000000e+00 8.905110e-01 1.094890e-01 0.000000e+00
 0.000000e+00 0.000000e+00 0.000000e+00 0.000000e+00 0.000000e+00 8.051948e-01 1.948052e-01
 0.000000e+00 0.000000e+00 0.000000e+00 0.000000e+00 0.000000e+00 0.000000e+00 0.000000e+00
<ENDHMM>
