~o
<STREAMINFO> 1 26
<VECSIZE> 26<NULLD><MFCC_E_D_Z><DIAGC>
~h "roku"
<BEGINHMM>
<NUMSTATES> 9
<STATE> 2
<MEAN> 26
 7.890437e+00 -1.500318e+00 1.619719e+00 4.711583e+00 -1.881143e+00 -7.303531e+00 -1.102926e+01 -5.181221e+00 3.378561e+00 -4.778760e+00 -3.680606e-01 -2.405057e+00 7.541884e-01 6.947359e-01 -1.160949e-01 -7.806746e-01 -2.196077e+00 -8.593459e-01 5.397869e-01 -1.006447e+00 -1.869101e+00 5.631427e-01 6.544876e-01 1.204401e+00 -4.969418e-01 5.741027e-02
<VARIANCE> 26
 1.741056e+01 1.404333e+01 1.998277e+01 6.634520e+01 4.961666e+01 5.961447e+01 4.915960e+01 4.411871e+01 3.949117e+01 5.158009e+01 4.693737e+01 3.152645e+01 2.043393e-02 2.248859e+00 2.529963e+00 1.907390e+00 1.165455e+01 3.554616e+00 1.075248e+01 8.020310e+00 4.004551e+00 5.240376e+00 7.245444e+00 3.173294e+00 1.622303e+00 1.000000e-02
<GCONST> 9.979932e+01
<STATE> 3
<MEAN> 26
 8.938047e+00 3.434936e+00 -4.395419e+00 -1.885150e+01 -6.125341e+00 3.700349e+00 -4.243741e+00 -1.182471e+01 3.553910e-01 -6.119089e+00 6.668292e+00 -3.454216e-01 9.219534e-01 1.606258e-01 9.681533e-01 -1.186616e-01 -7.418364e-01 1.748826e-01 7.267270e-01 1.661724e+00 7.537230e-01 -1.361620e+00 -1.041600e+00 -4.907128e-01 7.837218e-01 -1.645185e-02
<VARIANCE> 26
 2.408135e+01 1.378278e+01 1.127550e+01 3.071003e+01 4.538375e+01 4.096165e+01 4.384697e+01 3.378924e+01 4.921436e+01 3.954615e+01 3.054890e+01 3.639542e+01 1.000000e-02 7.723228e-01 5.998681e-01 1.503335e+00 7.172468e+00 2.922273e+00 2.465328e+00 3.140368e+00 2.700135e+00 1.844022e+00 5.260537e+00 2.833887e+00 3.175601e+00 1.000000e-02
<GCONST> 8.983281e+01
<STATE> 4
<MEAN> 26
 3.318378e+00 3.707618e+00 -1.149379e+00 -5.434398e+00 -7.296093e-01 1.492527e+00 2.792809e+00 -2.045129e+00 -3.880775e+00 -2.775302e+00 -5.632835e-01 2.027541e+00 4.926514e-01 -1.205908e+00 -6.878244e-01 1.726028e-01 1.437663e+00 6.121665e-01 -4.039490e-01 3.120622e-01 7.554742e-01 5.886723e-01 1.137886e+00 -2.914577e-01 1.580654e-01 -5.499184e-02
<VARIANCE> 26
 1.837312e+01 9.040460e+00 8.715746e+00 4.225689e+01 1.211961e+01 3.153646e+01 1.878875e+01 1.405065e+01 2.533722e+01 2.706684e+01 1.591673e+01 2.349120e+01 4.168314e-02 8.789100e-01 3.655410e-01 1.150142e+00 2.102931e+00 2.070784e+00 3.612164e+00 1.793189e+00 1.392136e+00 2.628470e+00 3.517105e+00 1.763728e+00 2.273326e+00 1.000000e-02
<GCONST> 8.128749e+01
<STATE> 5
<MEAN> 26
 -9.500858e-01 -4.737915e+00 -7.503942e+00 -3.918215e+00 4.329779e+00 -3.679581e+00 -2.392931e+00 -2.945183e+00 -1.503004e+00 5.260417e+00 -1.639657e+00 2.219770e+00 4.645088e-01 -1.501884e-01 -1.183690e+00 -1.095150e+00 -3.381548e-02 8.200479e-01 -1.576532e+00 -2.094503e+00 -6.999510e-01 -2.356290e-01 6.305248e-01 -5.369544e-01 -7.446805e-01 5.117955e-02
<VARIANCE> 26
 1.377250e+01 2.975155e+01 2.758921e+01 2.105756e+01 2.651091e+01 4.212140e+01 3.230949e+01 1.507149e+01 2.572179e+01 2.384030e+01 3.175736e+01 2.684313e+01 4.408431e-02 1.461015e+00 4.461953e+00 5.399980e+00 2.342037e+00 3.532058e+00 2.749318e+00 3.305504e+00 2.200667e+00 3.146423e+00 2.941357e+00 3.811050e+00 4.773632e+00 1.000000e-02
<GCONST> 9.260722e+01
<STATE> 6
<MEAN> 26
 4.284960e+00 -6.216598e-02 -2.360996e+00 -2.265424e+00 -2.371052e+00 -1.097580e+01 -1.354974e+01 -8.192057e+00 -6.362226e+00 1.891777e+00 -1.998405e+00 -5.394341e+00 7.982244e-01 1.041216e+00 6.681452e-01 2.069885e+00 4.772430e-01 -3.152418e+00 -1.484649e+00 -1.979216e+00 -8.625847e-01 2.782378e-01 -1.109690e+00 9.438635e-01 -1.127781e+00 5.625554e-02
<VARIANCE> 26
 3.240367e+01 3.174532e+01 2.276066e+01 1.311435e+01 5.914690e+01 4.686997e+01 2.657079e+01 4.350505e+01 2.648958e+01 1.021418e+01 3.319191e+01 4.956899e+01 2.582476e-02 1.352745e+00 4.444564e+00 1.833884e+00 2.184487e+00 3.392976e+00 2.266720e+00 1.661346e+00 3.545968e+00 4.246851e+00 2.923712e+00 3.778079e+00 2.839252e+00 1.000000e-02
<GCONST> 9.203117e+01
<STATE> 7
<MEAN> 26
 1.592229e+00 -4.629176e+00 1.060462e+00 -1.630970e+00 -7.267425e+00 -1.349472e+01 -1.375535e+01 -4.819593e+00 4.309499e-01 -3.515208e-01 3.362583e-01 -3.291631e+00 7.552096e-01 -1.025783e-01 -3.460521e-02 2.968832e-01 -6.039140e-02 -2.330583e-01 -1.531215e-01 2.658104e-01 4.742130e-01 2.941396e-01 1.860405e-02 1.842745e-01 4.155006e-01 -2.511806e-02
<VARIANCE> 26
 5.019949e+01 3.890693e+01 1.188856e+01 2.735020e+01 8.700241e+01 3.432509e+01 5.236427e+01 3.532898e+01 4.263627e+01 5.208819e+01 3.382704e+01 5.649668e+01 6.871890e-02 6.665430e-01 6.232480e-01 4.738423e-01 6.667682e-01 9.798498e-01 9.451526e-01 1.227942e+00 1.216251e+00 1.368126e+00 1.931165e+00 1.138510e+00 1.047753e+00 1.000000e-02
<GCONST> 8.409084e+01
<STATE> 8
<MEAN> 26
 1.129510e+00 -1.009233e+00 2.220609e+00 1.097100e-02 -5.316476e+00 -8.624566e+00 -7.253050e+00 -2.065768e+00 1.366927e-01 7.742621e-01 8.786136e-01 -3.562197e-01 4.526371e-01 -3.130580e-01 5.837152e-01 -7.087395e-02 5.935992e-01 9.750285e-01 2.233768e+00 1.890911e+00 4.586454e-01 1.361837e-02 -3.055976e-02 -7.586512e-03 4.291659e-01 -4.459975e-02
<VARIANCE> 26
 4.316267e+00 1.847933e+01 4.516371e+00 2.278364e+01 3.410035e+01 3.464299e+01 3.069602e+01 1.953760e+01 2.072165e+01 1.900484e+01 3.100818e+01 2.386037e+01 4.946233e-02 8.834921e-01 1.057616e+00 7.762648e-01 1.561240e+00 2.525432e+00 2.155656e+00 1.860298e+00 1.883398e+00 1.764033e+00 3.182238e+00 1.621770e+00 2.635374e+00 1.000000e-02
<GCONST> 8.148952e+01
<TRANSP> 9
 0.000000e+00 1.000000e+00 0.000000e+00 0.000000e+00 0.000000e+00 0.000000e+00 0.000000e+00 0.000000e+00 0.000000e+00
 0.000000e+00 8.313253e-01 1.686747e-01 0.000000e+00 0.000000e+00 0.000000e+00 0.000000e+00 0.000000e+00 0.000000e+00
 0.000000e+00 0.000000e+00 8.494624e-01 1.505376e-01 0.000000e+00 0.000000e+00 0.000000e+00 0.000000e+00 0.000000e+00
 0.000000e+00 0.000000e+00 0.000000e+00 8.666667e-01 1.333333e-01 0.000000e+00 0.000000e+00 0.000000e+00 0.000000e+00
 0.000000e+00 0.000000e+00 0.000000e+00 0.000000e+00 8.055556e-01 1.944444e-01 0.000000e+00 0.000000e+00 0.000000e+00
 0.000000e+00 0.000000e+00 0.000000e+00 0.000000e+00 0.000000e+00 7.021276e-01 2.978723e-01 0.000000e+00 0.000000e+00
 0.000000e+00 0.000000e+00 0.000000e+00 0.000000e+00 0.000000e+00 0.000000e+00 8.852459e-01 1.147541e-01 0.000000e+00
 0.000000e+00 0.000000e+00 0.000000e+00 0.000000e+00 0.000000e+00 0.000000e+00 0.000000e+00 7.971014e-01 2.028986e-01
 0.000000e+00 0.000000e+00 0.000000e+00 0.000000e+00 0.000000e+00 0.000000e+00 0.000000e+00 0.000000e+00 0.000000e+00
<ENDHMM>
