~o
<STREAMINFO> 1 26
<VECSIZE> 26<NULLD><MFCC_E_D_Z><DIAGC>
~h "seven"
<BEGINHMM>
<NUMSTATES> 9
<STATE> 2
<MEAN> 26
 5.313435e+00 2.351282e+00 5.917684e+00 -6.710731e-01 -6.910439e+00 -8.667253e+00 -7.821774e+00 -3.887650e+00 1.939069e+00 -6.314557e+00 -2.095350e+00 7.853805e-01 7.288585e-01 4.318740e-01 -2.014063e+00 -8.040377e-01 -1.736317e+00 5.365480e-01 -1.110755e+00 -8.095959e-01 1.115014e+00 1.259488e+00 -1.381967e+00 -6.410702e-01 -1.414863e-01 6.166645e-02
<VARIANCE> 26
 1.686851e+01 3.522391e+01 2.495897e+01 3.531332e+01 2.667519e+01 3.791537e+01 2.259824e+01 5.912869e+01 7.152914e+01 3.355064e+01 2.497276e+01 2.117990e+01 1.829776e-02 1.928963e+00 3.614379e+00 4.565215e+00 2.783021e+00 6.189299e+00 4.992275e+00 4.479186e+00 9.280103e+00 4.441781e+00 3.846215e+00 1.899725e+00 2.924225e+00 1.000000e-02
<GCONST> 9.671283e+01
<STATE> 3
<MEAN> 26
 3.815144e+00 -1.038681e+01 -3.193936e+00 -1.087971e+01 4.144150e+00 -7.419694e+00 -4.733367e+00 -3.977013e-01 5.438689e+00 -9.505934e+00 -4.924431e+00 -4.432088e+00 9.439026e-01 4.253816e-03 -2.819339e-01 -6.154755e-01 -3.708908e-01 5.338541e-01 1.029506e-01 -1.500238e-01 -1.620226e-01 -3.636667e-02 1.306725e-01 -1.406635e-01 -3.173164e-01 8.434991e-03
<VARIANCE> 26
 2.033209e+01 8.081362e+00 1.006255e+01 1.250535e+01 4.836949e+01 3.868559e+01 7.380419e+01 7.085662e+01 3.326860e+01 2.666407e+01 1.459620e+01 2.841876e+01 1.000000e-02 1.460379e-01 1.438643e+00 9.341218e-01 9.573474e-01 1.896340e+00 2.039306e+00 1.731241e+00 2.915576e+00 7.554797e-01 7.832946e-01 8.612403e-01 2.886043e+00 1.000000e-02
<GCONST> 7.910872e+01
<STATE> 4
<MEAN> 26
 6.438824e+00 -1.275358e+00 1.469752e+00 -3.894083e+00 -4.081161e+00 -1.010078e+01 -9.843395e+00 -4.227065e+00 4.280117e+00 -9.613813e+00 -4.728862e+00 -1.148886e+00 8.671547e-01 3.853244e-01 1.701773e+00 1.334506e+00 1.453271e+00 -1.408410e+00 -8.822063e-02 -3.508800e-01 -1.647660e+00 -7.235751e-02 4.591703e-01 1.480849e-01 3.900015e-01 -1.494696e-02
<VARIANCE> 26
 1.696571e+01 3.216665e+01 3.438722e+01 2.203835e+01 4.062441e+01 2.271482e+01 3.297910e+01 8.496650e+01 7.177126e+01 4.374377e+01 2.353610e+01 2.437641e+01 1.000000e-02 2.510261e-01 1.370661e+00 1.697518e+00 1.479948e+00 1.211894e+00 1.744549e+00 2.560197e+00 3.777812e+00 1.925257e+00 2.307777e+00 1.646107e+00 1.428642e+00 1.000000e-02
<GCONST> 8.589523e+01
<STATE> 5
<MEAN> 26
 7.166705e+00 -1.302202e+00 2.843736e-01 -4.114488e+00 -2.411817e+00 -9.023942e+00 -1.148213e+01 -2.649834e+00 2.825869e+00 -6.612571e+00 -4.904760e+00 -2.827718e+00 8.513449e-01 -2.831352e-01 -2.422368e+00 -2.332381e+00 -2.051052e+00 2.897991e+00 8.141525e-01 3.665106e-02 2.814441e+00 -2.933115e-01 -1.654495e-01 -3.816459e-02 -1.240575e+00 1.328337e-02
<VARIANCE> 26
 2.228483e+01 2.778462e+01 3.278303e+01 2.125555e+01 5.094663e+01 2.017448e+01 2.189189e+01 9.462521e+01 5.826908e+01 3.029726e+01 2.904496e+01 2.366192e+01 1.000000e-02 2.732804e-01 1.462754e+00 2.093396e+00 8.545102e-01 1.206864e+00 1.494720e+00 2.479337e+00 2.028874e+00 3.367334e+00 2.886249e+00 1.912126e+00 1.992548e+00 1.000000e-02
<GCONST> 8.561121e+01
<STATE> 6
<MEAN> 26
 7.064695e+00 -9.919162e+00 -6.738299e+00 -1.098949e+01 7.829545e+00 -3.299798e+00 -6.789705e+00 -2.159432e+00 1.257504e+00 -6.946578e+00 -3.062218e+00 -8.382915e+00 8.944686e-01 9.433788e-02 -2.741551e-01 -3.242266e-01 -6.360838e-01 7.791896e-01 1.350162e+00 1.066495e+00 -1.735385e+00 6.386332e-02 7.134270e-01 4.419562e-01 -2.400777e-01 -1.039056e-02
<VARIANCE> 26
 1.339475e+01 7.425385e+00 1.064681e+01 1.358879e+01 2.915250e+01 1.325097e+01 4.020366e+01 3.955323e+01 5.871741e+01 1.610940e+01 1.947155e+01 2.689948e+01 1.000000e-02 3.111825e-01 1.219679e+00 7.398784e-01 9.351882e-01 1.986351e+00 1.134720e+00 1.186347e+00 2.380620e+00 2.133072e+00 1.954805e+00 6.539204e-01 1.191376e+00 1.000000e-02
<GCONST> 7.628222e+01
<STATE> 7
<MEAN> 26
 5.399989e+00 -7.040587e+00 -6.389853e+00 -1.075109e+01 8.273509e+00 3.537023e+00 -3.763520e+00 -6.548857e+00 2.464164e+00 -2.269178e+00 -1.035872e+00 -6.272043e+00 7.259471e-01 -4.406241e-01 7.194098e-01 -2.048341e-01 7.660102e-01 -1.335376e-01 6.795890e-01 2.828251e-01 1.281665e-01 -2.198820e-01 6.667534e-01 1.795533e-01 2.263859e-01 -3.742438e-02
<VARIANCE> 26
 1.879845e+01 7.907801e+00 1.195524e+01 2.500404e+01 3.294772e+01 2.681811e+01 4.100563e+01 3.284345e+01 2.629084e+01 1.680073e+01 1.507298e+01 2.383050e+01 1.000585e-02 5.472054e-01 5.886970e-01 7.005169e-01 9.498180e-01 9.719422e-01 9.708520e-01 1.306927e+00 1.642637e+00 1.049115e+00 1.319385e+00 7.613977e-01 8.499715e-01 1.000000e-02
<GCONST> 7.429656e+01
<STATE> 8
<MEAN> 26
 8.784868e-01 -8.663021e-01 -3.852396e+00 -1.614027e+00 3.474665e+00 3.932226e+00 -2.160500e-01 -2.298973e+00 -1.954007e-01 2.303869e+00 -9.382222e-01 -2.960715e+00 4.892515e-01 -8.994745e-01 6.143594e-01 9.373499e-01 1.233124e+00 -8.946717e-01 -1.939230e-01 8.306519e-01 8.606484e-01 -1.078719e-01 5.991753e-01 3.904754e-01 7.428699e-01 -3.333976e-02
<VARIANCE> 26
 5.668977e+00 5.620544e+00 1.423953e+01 1.231215e+01 1.489509e+01 1.445948e+01 1.926713e+01 2.090927e+01 1.523536e+01 1.777153e+01 1.548746e+01 1.302419e+01 4.740698e-02 5.391687e-01 4.424864e-01 9.526825e-01 1.521239e+00 1.602298e+00 1.732162e+00 2.113483e+00 1.461517e+00 1.514048e+00 1.324170e+00 1.632887e+00 1.249330e+00 1.000000e-02
<GCONST> 7.353284e+01
<TRANSP> 9
 0.000000e+00 1.000000e+00 0.000000e+00 0.000000e+00 0.000000e+00 0.000000e+00 0.000000e+00 0.000000e+00 0.000000e+00
 0.000000e+00 8.255814e-01 1.744186e-01 0.000000e+00 0.000000e+00 0.000000e+00 0.000000e+00 0.000000e+00 0.000000e+00
 0.000000e+00 0.000000e+00 8.314607e-01 1.685393e-01 0.000000e+00 0.000000e+00 0.000000e+00 0.000000e+00 0.000000e+00
 0.000000e+00 0.000000e+00 0.000000e+00 8.404256e-01 1.595744e-01 0.000000e+00 0.000000e+00 0.000000e+00 0.000000e+00
 0.000000e+00 0.000000e+00 0.000000e+00 0.000000e+00 7.457627e-01 2.542373e-01 0.000000e+00 0.000000e+00 0.000000e+00
 0.000000e+00 0.000000e+00 0.000000e+00 0.000000e+00 0.000000e+00 7.972973e-01 2.027027e-01 0.000000e+00 0.000000e+00
 0.000000e+00 0.000000e+00 0.000000e+00 0.000000e+00 0.000000e+00 0.000000e+00 8.557692e-01 1.442308e-01 0.000000e+00
 0.000000e+00 0.000000e+00 0.000000e+00 0.000000e+00 0.000000e+00 0.000000e+00 0.000000e+00 8.026316e-01 1.973684e-01
 0.000000e+00 0.000000e+00 0.000000e+00 0.000000e+00 0.000000e+00 0.000000e+00 0.000000e+00 0.000000e+00 0.000000e+00
<ENDHMM>
