~o
<STREAMINFO> 1 26
<VECSIZE> 26<NULLD><MFCC_E_D_Z><DIAGC>
~h "sil"
<BEGINHMM>
<NUMSTATES> 5
<STATE> 2
<MEAN> 26
 -1.919316e+00 -3.249416e-03 -1.731167e+00 2.998507e-01 -1.517610e+00 -1.055984e+00 -5.634075e-03 -1.959726e-02 -5.545370e-01 9.821483e-01 -6.537164e-01 5.513248e-01 2.356102e-01 1.968823e-01 1.371876e-02 5.784972e-02 4.299681e-01 5.147188e-01 4.740933e-01 4.325221e-01 4.121348e-01 2.139420e-01 7.228057e-02 9.478302e-02 1.794266e-01 1.588173e-02
<VARIANCE> 26
 5.293854e+01 5.075397e+00 1.304107e+01 1.826142e+01 1.668222e+01 2.174052e+01 1.381818e+01 1.761960e+01 1.364380e+01 1.243644e+01 1.470904e+01 9.712560e+00 8.835464e-02 1.616165e+00 4.775629e-01 1.146879e+00 1.245226e+00 1.379787e+00 1.446715e+00 1.395716e+00 1.570780e+00 1.333834e+00 1.235378e+00 1.416888e+00 1.127609e+00 1.000000e-02
<GCONST> 7.584554e+01
<STATE> 3
<MEAN> 26
 -7.099748e-01 2.940595e-01 -4.081215e-01 2.207588e+00 1.482066e+00 1.876388e+00 2.078941e+00 1.648186e+00 4.731371e-01 1.095744e+00 9.081057e-02 6.335623e-01 4.061063e-01 -1.213680e-02 -1.210135e-02 -8.710299e-03 1.377648e-03 -1.048502e-03 -1.363728e-03 -1.420244e-03 5.164733e-04 -1.121071e-02 -9.311813e-03 -1.193733e-02 -1.232746e-02 -1.264470e-03
<VARIANCE> 26
 3.435033e+00 3.423901e+00 5.927619e+00 6.891651e+00 1.043463e+01 9.619042e+00 1.070008e+01 1.236746e+01 1.317154e+01 1.253651e+01 1.142249e+01 1.062597e+01 8.187902e-02 8.371130e-02 1.911395e-01 3.282549e-01 4.900835e-01 6.310776e-01 8.183907e-01 8.752673e-01 9.898567e-01 1.061384e+00 1.014231e+00 9.849058e-01 9.008042e-01 1.000000e-02
<GCONST> 5.943922e+01
<STATE> 4
<MEAN> 26
 -4.261605e-01 8.157406e-01 9.944209e-01 2.161619e+00 8.624565e-01 3.172438e-01 -1.686811e-01 1.552294e-01 -1.015013e+00 -3.805289e-01 -5.121014e-01 -1.794980e-01 3.514387e-01 2.016475e-01 2.143727e-01 5.605181e-01 -5.657691e-01 -5.988537e-01 -7.256469e-01 -1.070740e+00 -7.664535e-01 -2.459201e-01 -7.758443e-01 -5.913393e-02 -2.670738e-01 3.882083e-02
<VARIANCE> 26
 1.875363e+01 1.872624e+01 2.676157e+01 2.035404e+01 1.765075e+01 2.059737e+01 2.247780e+01 2.220029e+01 2.239180e+01 2.183166e+01 1.748561e+01 1.350585e+01 5.420703e-02 2.656801e+00 2.266328e+00 4.412543e+00 2.981198e+00 2.903649e+00 2.772885e+00 3.275150e+00 3.096818e+00 3.053452e+00 2.753891e+00 2.277261e+00 1.866356e+00 1.000000e-02
<GCONST> 8.854229e+01
<TRANSP> 5
 0.000000e+00 1.000000e+00 0.000000e+00 0.000000e+00 0.000000e+00
 0.000000e+00 7.916084e-01 2.083916e-01 0.000000e+00 0.000000e+00
 0.000000e+00 0.000000e+00 9.790598e-01 2.094020e-02 0.000000e+00
 0.000000e+00 0.000000e+00 0.000000e+00 6.260979e-01 3.739021e-01
 0.000000e+00 0.000000e+00 0.000000e+00 0.000000e+00 0.000000e+00
<ENDHMM>
