~o
<STREAMINFO> 1 26
<VECSIZE> 26<NULLD><MFCC_E_D_Z><DIAGC>
~h "go"
<BEGINHMM>
<NUMSTATES> 5
<STATE> 2
<MEAN> 26
 6.207690e+00 2.760713e+00 -6.665171e+00 -1.048064e+01 -2.205052e+00 -6.886544e-01 -2.159459e+00 -3.518505e+00 -5.708887e+00 -3.083169e+00 6.992319e-01 -3.005252e-01 7.007906e-01 1.107282e+00 7.983626e-01 7.027580e-01 -2.537674e+00 -1.601851e+00 5.012271e-01 -8.161677e-01 -6.958197e-01 5.272359e-01 -1.113425e+00 1.129588e+00 -2.665177e-01 6.780649e-02
<VARIANCE> 26
 2.028931e+01 2.807326e+01 4.325411e+01 5.077123e+01 5.283377e+01 3.554845e+01 3.107312e+01 3.466631e+01 2.979143e+01 7.149711e+01 2.923306e+01 3.150680e+01 2.119530e-02 1.066965e+00 2.343396e+00 7.978106e+00 4.502025e+00 5.283700e+00 2.524943e+00 2.663897e+00 3.203015e+00 5.288371e+00 3.672248e+00 2.890455e+00 2.662350e+00 1.854863e-03
<GCONST> 9.492907e+01
<STATE> 3
<MEAN> 26
 8.932903e+00 3.668264e+00 -2.165792e+00 -2.355330e+01 -8.043957e+00 1.515580e+00 -3.415896e+00 -4.173808e+00 1.631595e+00 -8.005718e+00 1.207365e+00 8.913231e-01 9.410776e-01 1.869269e-02 -1.290689e-01 -1.503774e-01 -5.661656e-01 -2.828595e-01 -2.519181e-01 4.543520e-02 2.409654e-01 1.520934e-01 5.010078e-02 -4.700557e-01 3.881030e-01 -6.651560e-03
<VARIANCE> 26
 2.514377e+01 1.482824e+01 8.178490e+00 3.179633e+01 6.160399e+01 3.168194e+01 4.982482e+01 5.604876e+01 2.005742e+01 3.255503e+01 3.075891e+01 2.669698e+01 5.924452e-03 1.792634e-01 6.405129e-01 4.588775e-01 1.303592e+00 8.251786e-01 1.037671e+00 8.032704e-01 1.082679e+00 9.378966e-01 1.198608e+00 7.403759e-01 1.038219e+00 7.291859e-04
<GCONST> 7.249895e+01
<STATE> 4
<MEAN> 26
 2.961795e+00 8.704509e-01 -1.871896e+00 -8.062764e+00 -6.660424e+00 -1.554346e+00 -1.171808e+00 1.355424e+00 1.004444e+00 -1.079858e+00 -3.074998e-01 1.026135e+00 4.161232e-01 -7.682098e-01 -3.628017e-01 2.005627e-01 2.189090e+00 6.769425e-01 -1.691244e-01 4.736395e-01 3.415565e-01 4.487941e-02 7.203534e-01 1.505433e-01 -2.178238e-01 -4.883923e-02
<VARIANCE> 26
 1.810040e+01 6.414657e+00 1.086064e+01 1.413601e+02 5.110531e+01 1.991423e+01 2.175381e+01 1.370270e+01 2.700467e+01 2.088515e+01 1.760180e+01 1.642816e+01 4.743082e-02 5.790175e-01 3.854230e-01 7.206486e-01 3.786399e+00 1.811115e+00 1.628611e+00 1.582110e+00 2.014618e+00 1.565568e+00 2.107307e+00 1.257216e+00 1.399382e+00 2.735515e-03
<GCONST> 7.905402e+01
<TRANSP> 5
 0.000000e+00 1.000000e+00 0.000000e+00 0.000000e+00 0.000000e+00
 0.000000e+00 8.159367e-01 1.840633e-01 0.000000e+00 0.000000e+00
 0.000000e+00 0.000000e+00 9.167830e-01 8.321705e-02 0.000000e+00
 0.000000e+00 0.000000e+00 0.000000e+00 8.979607e-01 1.020393e-01
 0.000000e+00 0.000000e+00 0.000000e+00 0.000000e+00 0.000000e+00
<ENDHMM>
