~o
<STREAMINFO> 1 26
<VECSIZE> 26<NULLD><MFCC_E_D_Z><DIAGC>
~h "hachi"
<BEGINHMM>
<NUMSTATES> 9
<STATE> 2
<MEAN> 26
 -2.223217e+00 -8.975971e+00 -1.649138e+00 -3.583712e+00 8.093684e+00 2.152301e+00 -2.725882e+00 -1.314916e+00 2.668930e+00 -2.257932e+00 -3.607213e-01 -1.582158e+00 5.049127e-01 5.184133e-01 1.034138e-01 -2.668528e-01 -8.117244e-01 4.868500e-01 -1.561483e-01 7.869626e-01 -1.038402e+00 7.964852e-02 -9.037114e-01 -4.457433e-01 -2.691964e-01 5.442224e-02
<VARIANCE> 26
 2.721421e+01 2.730424e+01 1.764418e+01 3.381401e+01 1.824144e+01 1.734418e+01 3.798196e+01 5.600721e+01 2.645449e+01 2.468354e+01 2.604436e+01 1.144617e+01 2.680991e-02 4.409925e+00 2.504930e+00 2.700507e+00 1.984878e+00 1.418047e+00 1.642330e+00 3.178011e+00 2.907937e+00 1.532535e+00 1.963496e+00 1.767310e+00 1.428307e+00 1.386473e-03
<GCONST> 8.536327e+01
<STATE> 3
<MEAN> 26
 7.279367e+00 -6.669631e+00 -3.899256e+00 -1.107940e+01 3.850270e+00 -4.372634e+00 1.758575e+00 -8.387268e+00 8.417163e+00 -7.609926e+00 -4.791129e+00 -3.950006e+00 9.353995e-01 3.519187e-01 1.724816e-01 8.616260e-02 2.192510e-01 -9.925478e-01 -1.229582e+00 -2.230902e-01 5.112274e-01 5.331711e-01 2.043379e-01 -5.079752e-01 1.957562e-01 4.205745e-03
<VARIANCE> 26
 2.185275e+01 2.932120e+01 6.928718e+01 1.894054e+01 6.304882e+01 4.417888e+01 9.208720e+01 3.297311e+01 3.644335e+01 1.548953e+01 3.262571e+01 1.880126e+01 4.874807e-03 1.288276e+00 2.415215e+00 3.190433e+00 3.763212e+00 3.075244e+00 3.297283e+00 3.629972e+00 3.269544e+00 2.823607e+00 1.956646e+00 1.576355e+00 1.590842e+00 2.910031e-03
<GCONST> 9.000877e+01
<STATE> 4
<MEAN> 26
 5.529967e+00 -1.860183e+00 -3.343123e+00 -1.052756e+00 1.178198e-01 -1.995034e+00 4.528259e-01 -8.320531e-01 3.993275e+00 -1.036325e+00 -5.177183e+00 -4.363478e-01 4.459307e-01 -6.773755e-01 4.019921e-01 -5.910675e-02 6.173207e-01 -1.721353e-01 1.253219e+00 6.228014e-02 4.674629e-01 -7.322480e-01 7.058931e-01 7.023879e-01 5.456553e-02 -5.329291e-02
<VARIANCE> 26
 7.909768e+00 1.109220e+01 2.264561e+01 1.338540e+01 1.044041e+01 3.974155e+01 2.874899e+01 1.686126e+01 3.158301e+01 1.986055e+01 2.230160e+01 1.549905e+01 3.940788e-02 8.590318e-01 6.529766e-01 9.858312e-01 1.191480e+00 1.628852e+00 2.793658e+00 2.139182e+00 1.550957e+00 1.990474e+00 1.384817e+00 1.814774e+00 1.390084e+00 3.054537e-03
<GCONST> 7.768341e+01
<STATE> 5
<MEAN> 26
 -8.277196e+00 3.909108e+00 -3.491138e+00 -4.279458e-01 1.021765e+00 -3.557334e+00 1.239173e+00 -4.194013e-01 2.947020e-01 8.914390e-01 -1.775311e-01 1.015771e+00 4.971610e-01 -3.273896e+00 1.396952e+00 1.334353e-01 -6.052100e-01 8.376390e-01 -1.473983e+00 2.001599e-01 -1.263616e-01 -3.507599e-01 -6.193835e-02 2.380133e-01 3.519881e-01 6.778950e-02
<VARIANCE> 26
 5.637399e+01 1.639613e+01 1.210217e+01 1.006435e+01 1.319734e+01 2.162817e+01 1.212764e+01 2.250899e+01 1.710192e+01 1.912971e+01 7.858995e+00 8.489491e+00 4.323989e-02 2.171130e+00 9.204775e-01 1.460372e+00 1.016209e+00 1.470160e+00 1.828726e+00 1.445459e+00 1.941188e+00 1.867802e+00 2.242961e+00 1.170357e+00 1.037599e+00 1.761950e-03
<GCONST> 7.592291e+01
<STATE> 6
<MEAN> 26
 -1.589352e+01 5.214988e+00 2.252775e+00 -5.104727e+00 2.700236e+00 -3.723683e+00 7.946501e-01 1.200818e+00 -8.630522e-01 1.907131e+00 1.387685e+00 2.545893e-01 7.423101e-01 2.564206e-01 -2.020919e-01 4.968896e-01 -1.688849e-01 -6.876474e-02 3.242295e-01 -8.259503e-02 1.150656e-01 4.675900e-02 -9.153190e-02 1.825674e-01 -1.647678e-02 -8.233368e-03
<VARIANCE> 26
 1.387714e+01 5.509353e+00 1.208192e+01 6.784581e+00 1.164167e+01 1.280293e+01 1.369388e+01 1.449417e+01 1.498082e+01 1.646414e+01 9.389620e+00 9.474189e+00 1.184607e-02 3.388744e-01 3.990146e-01 7.432474e-01 6.307690e-01 9.090139e-01 7.960743e-01 1.178975e+00 1.082992e+00 9.810789e-01 1.293179e+00 9.862947e-01 7.930948e-01 4.019593e-04
<GCONST> 6.171889e+01
<STATE> 7
<MEAN> 26
 -7.315791e+00 2.690889e+00 4.399333e+00 -5.423408e+00 6.223556e-01 -3.112547e+00 -1.303895e+00 1.109825e+00 -5.801759e-01 -6.088850e-01 1.788406e+00 3.581768e-01 4.865389e-01 1.884967e+00 -2.781190e-01 1.751020e-01 1.543247e-01 -8.001282e-01 -1.925909e-01 -3.449176e-01 -2.400621e-01 -5.387672e-01 -3.734455e-01 -3.916383e-01 -3.491948e-01 -2.272061e-02
<VARIANCE> 26
 3.356602e+01 1.844979e+01 1.391501e+01 6.019734e+00 1.958661e+01 2.040677e+01 1.976834e+01 1.785314e+01 1.919440e+01 1.482128e+01 1.653811e+01 1.447584e+01 3.653779e-02 1.414724e+00 4.793824e-01 2.287960e+00 9.256532e-01 2.807651e+00 1.711771e+00 1.608878e+00 9.171712e-01 2.314900e+00 1.943732e+00 1.299157e+00 1.177120e+00 1.003203e-03
<GCONST> 7.566302e+01
<STATE> 8
<MEAN> 26
 1.535667e+00 3.949218e+00 1.375732e+01 -5.823442e+00 -1.044319e+01 -7.600099e+00 -6.318227e+00 -5.891988e+00 -1.025420e+01 -3.695815e+00 2.939050e+00 -4.297230e+00 6.118781e-01 5.043777e-01 -3.896648e-01 -9.860241e-02 6.308925e-01 -1.605566e-01 6.713518e-01 -1.303021e-01 -9.032827e-02 8.879919e-02 3.708711e-01 3.322202e-01 -3.370918e-02 -3.127332e-02
<VARIANCE> 26
 1.123279e+01 1.199316e+01 4.699065e+01 2.863875e+01 3.589911e+01 3.437567e+01 2.717123e+01 4.611985e+01 3.954205e+01 5.174398e+01 2.295171e+01 1.805270e+01 5.228781e-02 2.102243e+00 8.409671e-01 4.891994e+00 2.556863e+00 5.289700e+00 1.633746e+00 3.341202e+00 2.336202e+00 3.169448e+00 3.145750e+00 1.953304e+00 1.871511e+00 2.413458e-03
<GCONST> 8.972040e+01
<TRANSP> 9
 0.000000e+00 1.000000e+00 0.000000e+00 0.000000e+00 0.000000e+00 0.000000e+00 0.000000e+00 0.000000e+00 0.000000e+00
 0.000000e+00 8.695803e-01 1.304197e-01 0.000000e+00 0.000000e+00 0.000000e+00 0.000000e+00 0.000000e+00 0.000000e+00
 0.000000e+00 0.000000e+00 8.796754e-01 1.203246e-01 0.000000e+00 0.000000e+00 0.000000e+00 0.000000e+00 0.000000e+00
 0.000000e+00 0.000000e+00 0.000000e+00 8.836468e-01 1.163532e-01 0.000000e+00 0.000000e+00 0.000000e+00 0.000000e+00
 0.000000e+00 0.000000e+00 0.000000e+00 0.000000e+00 8.101418e-01 1.898582e-01 0.000000e+00 0.000000e+00 0.000000e+00
 0.000000e+00 0.000000e+00 0.000000e+00 0.000000e+00 0.000000e+00 9.035642e-01 9.643583e-02 0.000000e+00 0.000000e+00
 0.000000e+00 0.000000e+00 0.000000e+00 0.000000e+00 0.000000e+00 0.000000e+00 8.218715e-01 1.781286e-01 0.000000e+00
 0.000000e+00 0.000000e+00 0.000000e+00 0.000000e+00 0.000000e+00 0.000000e+00 0.000000e+00 8.307854e-01 1.692146e-01
 0.000000e+00 0.000000e+00 0.000000e+00 0.000000e+00 0.000000e+00 0.000000e+00 0.000000e+00 0.000000e+00 0.000000e+00
<ENDHMM>
