~o
<STREAMINFO> 1 26
<VECSIZE> 26<NULLD><MFCC_E_D_Z><DIAGC>
~h "roku"
<BEGINHMM>
<NUMSTATES> 9
<STATE> 2
<MEAN> 26
 8.067447e+00 -1.787038e+00 2.140384e+00 5.500700e+00 -1.714449e+00 -6.169573e+00 -1.007792e+01 -4.482460e+00 4.335472e+00 -5.162681e+00 -6.629810e-01 -2.468842e+00 7.562481e-01 6.403809e-01 -2.228919e-01 -8.251869e-01 -2.251885e+00 -9.037187e-01 5.811652e-01 -9.286962e-01 -1.452739e+00 9.218356e-01 8.438056e-01 1.398927e+00 -7.209637e-01 6.231036e-02
<VARIANCE> 26
 1.642695e+01 1.209455e+01 2.338350e+01 6.461874e+01 4.940322e+01 7.443446e+01 5.894361e+01 4.624700e+01 3.890727e+01 4.545023e+01 4.772234e+01 3.438343e+01 2.049754e-02 2.340814e+00 2.303405e+00 2.244091e+00 1.217542e+01 3.901855e+00 1.027347e+01 7.702574e+00 2.911235e+00 3.969807e+00 6.985989e+00 2.702806e+00 2.184601e+00 1.884051e-03
<GCONST> 9.812865e+01
<STATE> 3
<MEAN> 26
 8.564608e+00 3.678122e+00 -4.287162e+00 -1.763090e+01 -4.924858e+00 5.207185e+00 -3.553180e+00 -1.015131e+01 1.371020e+00 -4.510581e+00 7.037775e+00 -1.684323e+00 9.289377e-01 1.927478e-01 1.193328e+00 -2.293044e-01 -1.115386e+00 2.639928e-01 7.099302e-01 1.320331e+00 6.577164e-01 -1.681447e+00 -9.358555e-01 -2.902294e-01 8.658679e-01 -1.292969e-02
<VARIANCE> 26
 2.399696e+01 1.454718e+01 1.145452e+01 4.995980e+01 5.506483e+01 3.590483e+01 3.944833e+01 4.561998e+01 3.556704e+01 5.360732e+01 2.412937e+01 5.084445e+01 3.984515e-03 7.268848e-01 6.923614e-01 1.510525e+00 5.783417e+00 2.936438e+00 2.650954e+00 3.269595e+00 2.462324e+00 2.740707e+00 5.139321e+00 3.050067e+00 3.802999e+00 1.414104e-03
<GCONST> 8.836799e+01
<STATE> 4
<MEAN> 26
 3.426899e+00 3.848468e+00 -1.584845e+00 -6.218411e+00 3.424636e-01 2.471539e+00 2.540492e+00 -2.162173e+00 -4.380554e+00 -2.136510e+00 7.609662e-01 2.630040e+00 4.735403e-01 -1.119936e+00 -7.368644e-01 9.516423e-02 1.493333e+00 4.331918e-01 -7.183838e-01 2.901658e-01 4.091251e-01 5.366613e-01 8.416474e-01 -3.973396e-01 2.449749e-01 -5.932196e-02
<VARIANCE> 26
 1.826231e+01 1.177090e+01 8.651864e+00 4.139296e+01 1.792695e+01 3.289067e+01 1.914002e+01 1.494806e+01 3.090006e+01 2.634803e+01 1.513347e+01 2.123739e+01 4.775609e-02 8.481370e-01 5.759481e-01 1.047554e+00 1.804241e+00 2.609070e+00 3.695256e+00 1.919411e+00 1.759859e+00 3.065407e+00 4.026504e+00 1.740689e+00 2.615078e+00 2.568601e-03
<GCONST> 8.197290e+01
<STATE> 5
<MEAN> 26
 -2.691158e+00 -4.749232e+00 -7.498371e+00 -2.395616e+00 4.816891e+00 -5.786448e+00 -1.933283e+00 -3.050637e+00 4.902478e-01 4.011877e+00 -3.628117e+00 2.165989e+00 4.581339e-01 -2.787631e-01 -9.332622e-01 -7.489200e-01 3.550674e-01 6.266955e-01 -1.824034e+00 -1.687764e+00 -3.937260e-01 2.598262e-01 3.972903e-01 -1.054859e+00 -8.904644e-01 5.966276e-02
<VARIANCE> 26
 1.325887e+01 3.013901e+01 2.831544e+01 2.105581e+01 2.822988e+01 4.761634e+01 3.479986e+01 1.721444e+01 2.910885e+01 2.699711e+01 2.507016e+01 2.603711e+01 3.819221e-02 1.240318e+00 4.395336e+00 5.403910e+00 1.877836e+00 3.885857e+00 2.859118e+00 3.604521e+00 2.075246e+00 3.101687e+00 2.035480e+00 2.294057e+00 4.619715e+00 4.953076e-03
<GCONST> 9.097652e+01
<STATE> 6
<MEAN> 26
 3.109068e+00 2.409913e-01 -9.363890e-01 8.733760e-01 -2.645024e+00 -1.238917e+01 -1.022098e+01 -4.794444e+00 -4.135160e+00 1.743457e+00 -2.825398e+00 -5.726913e+00 7.875338e-01 1.358092e+00 7.154877e-01 2.640115e+00 9.893242e-01 -3.338890e+00 -9.808385e-01 -1.954030e+00 -2.419913e-01 -7.647705e-01 -1.141999e+00 1.866108e+00 -1.348120e+00 6.079353e-02
<VARIANCE> 26
 3.319233e+01 3.972711e+01 2.123974e+01 2.188191e+01 6.699241e+01 3.859183e+01 3.371563e+01 2.334239e+01 4.563298e+01 1.530801e+01 3.165240e+01 5.633301e+01 2.685983e-02 1.282073e+00 4.245107e+00 2.472574e+00 2.172174e+00 3.724432e+00 2.508586e+00 1.422350e+00 2.811778e+00 2.712677e+00 2.413636e+00 2.006439e+00 2.444976e+00 1.139755e-03
<GCONST> 8.974302e+01
<STATE> 7
<MEAN> 26
 2.213545e+00 -2.195139e+00 2.380225e+00 7.092245e-01 -7.556287e+00 -1.252520e+01 -1.192271e+01 -2.058937e+00 -1.321855e+00 -1.380814e+00 -1.494301e-01 -4.523158e+00 7.940141e-01 -5.807437e-02 -4.273595e-02 2.942658e-01 -3.602445e-01 -3.188829e-01 -7.126497e-02 7.572534e-02 3.074760e-01 -3.564290e-03 -3.915036e-02 1.104814e-01 4.335030e-01 -2.093036e-02
<VARIANCE> 26
 3.947653e+01 5.228226e+01 1.132702e+01 2.369876e+01 6.738748e+01 2.884319e+01 4.548260e+01 2.985275e+01 3.217159e+01 4.212725e+01 2.553505e+01 4.707084e+01 6.368039e-02 6.290306e-01 6.959758e-01 4.189295e-01 6.046342e-01 8.404084e-01 8.516447e-01 1.075850e+00 1.175269e+00 1.063473e+00 1.810037e+00 1.004866e+00 9.575829e-01 8.327145e-04
<GCONST> 7.857187e+01
<STATE> 8
<MEAN> 26
 1.038767e+00 -9.576420e-01 3.378025e+00 -9.165732e-02 -5.551849e+00 -9.319135e+00 -6.783525e+00 -1.676135e+00 -1.045177e+00 6.122178e-01 4.025384e-02 -3.880353e-01 4.586411e-01 -1.938325e-01 3.739579e-01 -2.891103e-01 4.310661e-01 1.007336e+00 1.921243e+00 1.572869e+00 -5.068010e-02 4.186880e-01 1.848960e-01 5.565071e-02 3.932924e-01 -4.986883e-02
<VARIANCE> 26
 4.271153e+00 1.888907e+01 7.222820e+00 2.122381e+01 3.527399e+01 4.041259e+01 3.373830e+01 1.617100e+01 2.155824e+01 1.805058e+01 3.335074e+01 2.361018e+01 4.633276e-02 8.066389e-01 1.210859e+00 6.929161e-01 1.393071e+00 2.320487e+00 2.347661e+00 1.426391e+00 1.573411e+00 1.709900e+00 2.673436e+00 1.628466e+00 2.340692e+00 1.972270e-03
<GCONST> 7.940659e+01
<TRANSP> 9
 0.000000e+00 1.000000e+00 0.000000e+00 0.000000e+00 0.000000e+00 0.000000e+00 0.000000e+00 0.000000e+00 0.000000e+00
 0.000000e+00 8.352532e-01 1.647467e-01 0.000000e+00 0.000000e+00 0.000000e+00 0.000000e+00 0.000000e+00 0.000000e+00
 0.000000e+00 0.000000e+00 8.543216e-01 1.456784e-01 0.000000e+00 0.000000e+00 0.000000e+00 0.000000e+00 0.000000e+00
 0.000000e+00 0.000000e+00 0.000000e+00 8.813624e-01 1.186376e-01 0.000000e+00 0.000000e+00 0.000000e+00 0.000000e+00
 0.000000e+00 0.000000e+00 0.000000e+00 0.000000e+00 8.167040e-01 1.832960e-01 0.000000e+00 0.000000e+00 0.000000e+00
 0.000000e+00 0.000000e+00 0.000000e+00 0.000000e+00 0.000000e+00 6.531472e-01 3.468528e-01 0.000000e+00 0.000000e+00
 0.000000e+00 0.000000e+00 0.000000e+00 0.000000e+00 0.000000e+00 0.000000e+00 8.940440e-01 1.059560e-01 0.000000e+00
 0.000000e+00 0.000000e+00 0.000000e+00 0.000000e+00 0.000000e+00 0.000000e+00 0.000000e+00 8.250864e-01 1.749136e-01
 0.000000e+00 0.000000e+00 0.000000e+00 0.000000e+00 0.000000e+00 0.000000e+00 0.000000e+00 0.000000e+00 0.000000e+00
<ENDHMM>
