~o
<STREAMINFO> 1 26
<VECSIZE> 26<NULLD><MFCC_E_D_Z><DIAGC>
~h "san"
<BEGINHMM>
<NUMSTATES> 8
<STATE> 2
<MEAN> 26
 -1.101969e+01 4.885685e+00 -3.320414e+00 4.801117e+00 -1.969644e+00 -1.933076e+00 1.399952e+00 1.515776e+00 9.358869e-02 3.734688e-02 2.284884e-01 2.665650e+00 4.358581e-01 -6.875618e-01 2.625562e-02 -3.944258e-01 1.876549e-01 -3.659962e-01 -1.075344e-02 1.065464e-01 4.016473e-02 1.068880e-01 -1.163246e-01 -6.779256e-02 1.148953e-02 1.479581e-02
<VARIANCE> 26
 2.454828e+01 7.586776e+00 6.776418e+00 1.608055e+01 1.700879e+01 2.658521e+01 1.649582e+01 1.713108e+01 1.780455e+01 1.214005e+01 1.826246e+01 1.467972e+01 4.651364e-02 1.127345e+00 5.519257e-01 7.208303e-01 9.418089e-01 9.750504e-01 1.463539e+00 1.108703e+00 1.389479e+00 1.769678e+00 1.128404e+00 9.810334e-01 1.126714e+00 7.262363e-04
<GCONST> 7.085032e+01
<STATE> 3
<MEAN> 26
 -9.722506e+00 1.651280e+00 -4.803095e+00 2.804678e-01 -3.899616e+00 -1.864979e+00 -3.387922e-01 2.496163e+00 1.064170e+00 -1.805029e+00 1.157838e+00 2.807243e+00 5.978609e-01 3.083223e+00 -1.124131e+00 2.432899e-01 -1.650344e+00 7.501507e-01 -1.058678e+00 -4.930933e-01 -3.689145e-01 1.279312e-01 -8.325120e-01 -1.260371e+00 -5.328095e-01 5.514474e-02
<VARIANCE> 26
 2.834114e+01 6.964628e+00 1.606578e+01 1.679666e+01 1.753406e+01 3.414915e+01 2.798470e+01 3.266185e+01 2.090123e+01 1.424273e+01 2.339617e+01 1.293331e+01 4.039567e-02 3.788444e+00 1.419024e+00 1.474651e+00 1.440979e+00 3.622180e+00 1.748437e+00 6.258728e+00 2.442578e+00 1.576947e+00 2.809685e+00 2.052350e+00 2.257516e+00 2.536060e-03
<GCONST> 8.413316e+01
<STATE> 4
<MEAN> 26
 5.805302e+00 -6.892666e+00 -3.601116e+00 -8.134315e+00 3.043479e+00 -5.754570e+00 -7.542710e-02 -3.651763e+00 3.558635e+00 -7.070326e+00 -7.352555e+00 -3.219106e+00 8.820888e-01 1.878203e+00 -2.871185e+00 1.931767e-01 -2.526249e+00 2.364497e+00 3.502499e-01 4.041626e-01 -1.867314e+00 7.643698e-01 -6.321329e-01 -5.541116e-01 -1.253482e+00 6.280128e-02
<VARIANCE> 26
 1.194513e+01 4.553388e+01 1.953865e+01 2.103207e+01 5.059148e+01 2.232429e+01 7.386065e+01 3.247507e+01 2.820677e+01 3.521488e+01 1.969283e+01 3.654986e+01 8.484166e-03 3.282559e+00 2.465027e+00 1.471702e+00 1.492617e+00 1.981951e+00 1.742236e+00 5.563200e+00 2.793984e+00 3.581703e+00 2.962616e+00 3.917068e+00 5.332515e+00 2.588837e-03
<GCONST> 8.992975e+01
<STATE> 5
<MEAN> 26
 7.937941e+00 -1.044650e+01 -2.728036e+00 -1.275446e+01 1.173839e+01 -2.421352e+00 3.050582e+00 -8.846587e+00 2.604460e+00 -3.701309e+00 -6.461167e+00 -6.267637e+00 9.533703e-01 4.105232e-01 4.943022e-02 -1.138808e-01 -3.491832e-02 1.246654e-02 8.545210e-02 -5.666466e-01 -4.185436e-02 -6.337803e-02 2.558796e-01 7.948090e-03 -3.179457e-01 -7.607501e-03
<VARIANCE> 26
 2.281935e+01 3.655382e+01 2.129107e+01 5.103409e+00 1.559485e+01 1.809777e+01 3.119395e+01 2.984339e+01 2.671626e+01 3.766377e+01 3.648687e+01 3.505690e+01 1.926238e-03 1.557262e-01 5.546602e-01 6.658837e-01 7.349950e-01 8.999371e-01 6.582292e-01 7.554485e-01 1.533614e+00 1.006875e+00 7.965378e-01 6.394956e-01 7.169791e-01 1.521268e-04
<GCONST> 6.616277e+01
<STATE> 6
<MEAN> 26
 1.123546e+01 -7.384181e+00 -3.328344e+00 -6.879982e+00 1.560308e+00 -5.396493e+00 -8.585860e+00 -5.864534e+00 -1.044772e-01 -1.630651e+00 -1.327510e+00 -3.814732e+00 7.865466e-01 6.211865e-02 1.074021e+00 7.495502e-01 1.019566e+00 -9.988532e-01 7.214941e-02 -9.049584e-02 -2.407985e-01 -5.719197e-01 5.781655e-01 1.651059e-01 2.082656e-01 -1.821352e-02
<VARIANCE> 26
 2.038907e+01 2.299949e+01 2.731101e+01 3.231288e+01 3.898431e+01 3.723019e+01 7.276344e+01 6.194546e+01 2.268983e+01 3.850766e+01 6.008040e+01 5.044602e+01 4.370057e-03 1.529095e-01 5.729171e-01 1.659810e+00 1.403313e+00 1.811741e+00 8.683057e-01 1.644951e+00 2.075197e+00 1.752957e+00 1.306924e+00 3.186430e+00 2.040148e+00 2.058221e-04
<GCONST> 8.007204e+01
<STATE> 7
<MEAN> 26
 6.091801e+00 6.490041e-02 5.185865e+00 -1.642535e+00 -1.224433e+00 -2.391472e+00 -4.033309e+00 -6.590221e+00 -8.345287e-01 1.701376e+00 -4.177196e+00 -4.173573e+00 5.536495e-01 -1.017098e+00 4.110096e-01 -8.676849e-02 6.032768e-01 -1.510810e-01 3.230199e-01 3.156288e-01 7.681908e-01 -6.999534e-02 9.664033e-02 6.195632e-01 3.608419e-01 -4.949271e-02
<VARIANCE> 26
 2.666114e+01 9.006449e+00 2.631162e+01 1.646253e+01 3.563499e+01 1.928656e+01 2.780649e+01 5.738303e+01 3.761066e+01 1.969449e+01 4.355735e+01 2.951284e+01 2.913304e-02 8.175985e-01 7.069076e-01 2.488137e+00 7.478350e-01 1.511825e+00 1.752875e+00 2.568328e+00 2.310041e+00 1.823363e+00 1.875227e+00 2.106955e+00 1.728417e+00 8.821560e-04
<GCONST> 8.179200e+01
<TRANSP> 8
 0.000000e+00 1.000000e+00 0.000000e+00 0.000000e+00 0.000000e+00 0.000000e+00 0.000000e+00 0.000000e+00
 0.000000e+00 9.114920e-01 8.850794e-02 0.000000e+00 0.000000e+00 0.000000e+00 0.000000e+00 0.000000e+00
 0.000000e+00 0.000000e+00 7.535442e-01 2.464558e-01 0.000000e+00 0.000000e+00 0.000000e+00 0.000000e+00
 0.000000e+00 0.000000e+00 0.000000e+00 7.137309e-01 2.862691e-01 0.000000e+00 0.000000e+00 0.000000e+00
 0.000000e+00 0.000000e+00 0.000000e+00 0.000000e+00 8.790076e-01 1.209924e-01 0.000000e+00 0.000000e+00
 0.000000e+00 0.000000e+00 0.000000e+00 0.000000e+00 0.000000e+00 8.777073e-01 1.222927e-01 0.000000e+00
 0.000000e+00 0.000000e+00 0.000000e+00 0.000000e+00 0.000000e+00 0.000000e+00 8.702762e-01 1.297239e-01
 0.000000e+00 0.000000e+00 0.000000e+00 0.000000e+00 0.000000e+00 0.000000e+00 0.000000e+00 0.000000e+00
<ENDHMM>
