~o
<STREAMINFO> 1 26
<VECSIZE> 26<NULLD><MFCC_E_D_Z><DIAGC>
~h "seven"
<BEGINHMM>
<NUMSTATES> 9
<STATE> 2
<MEAN> 26
 4.762033e+00 2.374436e+00 6.078354e+00 -7.770940e-01 -5.014419e+00 -8.476075e+00 -5.628098e+00 -2.735553e+00 1.835140e+00 -4.770324e+00 -3.107142e+00 1.131956e+00 7.504000e-01 3.135853e-01 -1.888008e+00 -8.916932e-01 -1.803537e+00 8.519580e-01 -9.049025e-01 -3.995507e-01 1.093763e+00 1.294651e+00 -1.214100e+00 -6.882181e-01 -1.748903e-01 6.125502e-02
<VARIANCE> 26
 1.658636e+01 4.024250e+01 2.635505e+01 4.231358e+01 4.591317e+01 3.759903e+01 4.774760e+01 6.488738e+01 6.795895e+01 3.720926e+01 2.828749e+01 1.819817e+01 2.017481e-02 1.639387e+00 4.027797e+00 4.761763e+00 3.061326e+00 5.882750e+00 4.963314e+00 4.377509e+00 8.998767e+00 3.837524e+00 2.646393e+00 1.919535e+00 2.804832e+00 1.050601e-03
<GCONST> 9.573101e+01
<STATE> 3
<MEAN> 26
 3.735460e+00 -8.997113e+00 -2.871146e+00 -1.036494e+01 5.707158e+00 -6.564353e+00 -3.452188e+00 -1.457977e-01 5.552981e+00 -8.917593e+00 -6.172656e+00 -3.729588e+00 9.580784e-01 2.640395e-02 -7.445648e-02 -4.606747e-01 -2.258732e-01 3.610088e-01 5.666947e-02 -2.789782e-01 -3.590109e-01 -2.230083e-03 1.352819e-01 -1.913887e-01 -1.691705e-01 6.532542e-03
<VARIANCE> 26
 1.735982e+01 1.807103e+01 9.351151e+00 1.319817e+01 4.508032e+01 3.380895e+01 6.579859e+01 6.428786e+01 2.498289e+01 2.222380e+01 1.801886e+01 2.865721e+01 3.431797e-03 9.579319e-02 8.839452e-01 5.466105e-01 6.232635e-01 1.433263e+00 1.823025e+00 1.005762e+00 2.595040e+00 8.574537e-01 1.035571e+00 7.339997e-01 2.204452e+00 2.245205e-04
<GCONST> 7.125443e+01
<STATE> 4
<MEAN> 26
 5.705535e+00 -1.464408e+00 2.508589e+00 -4.150831e+00 -1.575953e+00 -9.337441e+00 -8.261716e+00 -4.924044e+00 6.066988e+00 -7.127740e+00 -5.820117e+00 -5.194240e-01 8.659375e-01 3.888417e-01 1.526571e+00 1.716678e+00 1.710639e+00 -1.443910e+00 -1.217920e-01 -4.997958e-01 -1.912417e+00 -5.068541e-02 8.260340e-01 4.546631e-01 1.961647e-01 -2.179443e-02
<VARIANCE> 26
 1.826887e+01 3.005325e+01 4.565034e+01 2.734221e+01 5.070897e+01 2.030878e+01 5.217292e+01 8.960073e+01 5.006218e+01 6.551882e+01 2.510365e+01 1.921432e+01 5.053194e-03 2.530998e-01 1.328986e+00 2.240178e+00 1.709379e+00 1.304010e+00 1.876579e+00 2.585333e+00 3.953336e+00 1.954741e+00 2.714515e+00 8.187053e-01 1.455684e+00 2.660000e-04
<GCONST> 8.268077e+01
<STATE> 5
<MEAN> 26
 6.319999e+00 -8.930327e-01 2.119092e+00 -3.961298e+00 -4.388065e-01 -8.495513e+00 -9.076819e+00 -3.697034e+00 4.293510e+00 -3.511678e+00 -5.332635e+00 -2.654199e+00 8.410093e-01 -3.356138e-01 -1.884421e+00 -2.559378e+00 -2.292627e+00 2.442530e+00 7.670863e-01 3.306153e-01 3.309961e+00 -2.278871e-01 -8.210070e-01 -3.343476e-01 -9.467614e-01 1.683368e-02
<VARIANCE> 26
 2.318344e+01 2.278904e+01 4.526036e+01 2.698146e+01 5.341291e+01 1.575130e+01 3.878841e+01 1.007767e+02 4.005578e+01 3.274826e+01 3.071464e+01 2.229453e+01 3.688061e-03 1.959073e-01 1.624848e+00 2.393154e+00 1.163964e+00 1.288481e+00 1.237628e+00 2.105887e+00 1.601649e+00 3.364356e+00 4.438529e+00 1.024648e+00 2.185865e+00 2.974310e-04
<GCONST> 8.122542e+01
<STATE> 6
<MEAN> 26
 6.322326e+00 -7.558658e+00 -4.731248e+00 -1.088558e+01 8.535882e+00 -3.349898e+00 -3.633689e+00 -1.427401e+00 3.927495e+00 -6.381772e+00 -5.407500e+00 -7.217734e+00 9.044341e-01 3.082898e-01 -3.334182e-01 -3.535841e-01 -5.698165e-01 5.074257e-01 1.249728e+00 9.231398e-01 -1.660055e+00 1.851646e-02 4.016334e-01 5.076354e-01 -3.725430e-01 -8.018026e-03
<VARIANCE> 26
 1.398902e+01 1.441724e+01 7.747883e+00 1.051244e+01 3.222418e+01 1.331927e+01 3.679342e+01 4.194720e+01 2.138892e+01 1.122916e+01 1.868741e+01 2.771742e+01 3.893548e-03 2.220777e-01 1.212333e+00 6.544312e-01 9.514107e-01 2.084065e+00 9.870757e-01 1.220083e+00 2.311854e+00 1.557484e+00 1.564484e+00 5.767633e-01 1.236111e+00 2.162234e-04
<GCONST> 6.916337e+01
<STATE> 7
<MEAN> 26
 5.810859e+00 -6.817828e+00 -5.759276e+00 -1.155194e+01 8.085440e+00 3.454629e+00 -1.833668e+00 -6.176307e+00 3.041868e+00 -2.301592e+00 -1.542483e+00 -6.102107e+00 7.384145e-01 -4.516764e-01 6.376443e-01 -3.489244e-01 5.900338e-01 -3.804535e-02 6.306061e-01 1.507892e-01 4.685932e-01 -4.071054e-01 8.935494e-01 2.811295e-01 1.901580e-01 -3.896774e-02
<VARIANCE> 26
 2.097049e+01 1.226751e+01 9.981100e+00 2.316389e+01 3.231731e+01 2.591243e+01 3.724754e+01 3.687101e+01 2.313382e+01 1.397858e+01 1.568824e+01 2.245268e+01 9.257100e-03 6.540816e-01 5.596942e-01 5.989321e-01 9.279698e-01 7.318308e-01 8.862638e-01 1.119306e+00 1.388231e+00 1.029361e+00 1.346026e+00 6.172441e-01 6.720559e-01 8.319392e-04
<GCONST> 7.046427e+01
<STATE> 8
<MEAN> 26
 1.380389e+00 -5.706202e-01 -3.845415e+00 -2.711868e+00 3.736657e+00 4.049755e+00 4.112635e-01 1.484529e-01 -2.642157e-01 2.951889e+00 -1.321718e+00 -4.365982e+00 4.747265e-01 -8.301556e-01 5.281712e-01 8.000801e-01 1.372093e+00 -9.871243e-01 -7.767246e-02 5.588290e-01 4.859180e-01 -2.266415e-01 3.050392e-01 3.972987e-01 6.046306e-01 -3.880518e-02
<VARIANCE> 26
 7.213477e+00 8.330750e+00 1.543069e+01 1.723807e+01 2.039419e+01 1.470155e+01 1.833936e+01 1.959096e+01 1.576657e+01 1.486941e+01 1.561552e+01 1.993688e+01 4.069327e-02 5.508455e-01 5.694231e-01 6.882070e-01 1.456933e+00 2.135651e+00 1.643082e+00 2.016797e+00 1.934435e+00 1.280596e+00 1.559282e+00 1.343830e+00 1.599806e+00 1.512098e-03
<GCONST> 7.347044e+01
<TRANSP> 9
 0.000000e+00 1.000000e+00 0.000000e+00 0.000000e+00 0.000000e+00 0.000000e+00 0.000000e+00 0.000000e+00 0.000000e+00
 0.000000e+00 8.501161e-01 1.498839e-01 0.000000e+00 0.000000e+00 0.000000e+00 0.000000e+00 0.000000e+00 0.000000e+00
 0.000000e+00 0.000000e+00 8.446158e-01 1.553842e-01 0.000000e+00 0.000000e+00 0.000000e+00 0.000000e+00 0.000000e+00
 0.000000e+00 0.000000e+00 0.000000e+00 8.336658e-01 1.663342e-01 0.000000e+00 0.000000e+00 0.000000e+00 0.000000e+00
 0.000000e+00 0.000000e+00 0.000000e+00 0.000000e+00 7.463454e-01 2.536547e-01 0.000000e+00 0.000000e+00 0.000000e+00
 0.000000e+00 0.000000e+00 0.000000e+00 0.000000e+00 0.000000e+00 8.080111e-01 1.919889e-01 0.000000e+00 0.000000e+00
 0.000000e+00 0.000000e+00 0.000000e+00 0.000000e+00 0.000000e+00 0.000000e+00 8.437030e-01 1.562971e-01 0.000000e+00
 0.000000e+00 0.000000e+00 0.000000e+00 0.000000e+00 0.000000e+00 0.000000e+00 0.000000e+00 8.294907e-01 1.705093e-01
 0.000000e+00 0.000000e+00 0.000000e+00 0.000000e+00 0.000000e+00 0.000000e+00 0.000000e+00 0.000000e+00 0.000000e+00
<ENDHMM>
