~o
<STREAMINFO> 1 26
<VECSIZE> 26<NULLD><MFCC_E_D_Z><DIAGC>
~h "sil"
<BEGINHMM>
<NUMSTATES> 5
<STATE> 2
<MEAN> 26
 -3.817681e+00 1.254883e-01 -1.420275e+00 -2.971370e-01 -1.491850e+00 -2.061769e+00 -3.093565e-01 -3.858511e-01 -2.288815e-01 6.042908e-01 -4.956043e-01 5.864829e-01 2.360234e-01 2.835325e-01 -3.870554e-03 3.736131e-02 5.194424e-01 6.032715e-01 5.907407e-01 5.020790e-01 4.501131e-01 2.756244e-01 9.267194e-02 1.530301e-01 2.305436e-01 1.734731e-02
<VARIANCE> 26
 5.186292e+01 6.016435e+00 1.512331e+01 2.024816e+01 1.963869e+01 2.162173e+01 1.564754e+01 1.931766e+01 1.497180e+01 1.335870e+01 1.656767e+01 1.042536e+01 1.161302e-01 2.038202e+00 5.646554e-01 1.395154e+00 1.452172e+00 1.460890e+00 1.615811e+00 1.448258e+00 1.694033e+00 1.337476e+00 1.397686e+00 1.637471e+00 1.268393e+00 9.795294e-03
<GCONST> 7.864534e+01
<STATE> 3
<MEAN> 26
 -4.693278e-01 5.957965e-02 -5.877150e-01 2.292210e+00 1.230423e+00 1.706169e+00 1.677222e+00 1.347671e+00 2.902707e-01 8.992098e-01 2.288456e-01 6.546183e-01 3.613993e-01 -1.404599e-02 -1.122935e-02 -9.838554e-03 5.582213e-03 1.788297e-03 2.527406e-03 -2.292202e-03 -4.631707e-03 -1.093355e-02 -1.162200e-02 -1.413908e-02 -1.128120e-02 -1.030895e-03
<VARIANCE> 26
 4.814485e+00 3.968713e+00 6.257905e+00 7.137083e+00 1.159657e+01 1.027728e+01 1.137980e+01 1.282303e+01 1.330309e+01 1.261932e+01 1.243839e+01 1.095279e+01 7.766711e-02 8.964630e-02 1.974049e-01 3.468761e-01 5.037940e-01 6.587340e-01 8.465871e-01 8.862897e-01 1.026187e+00 1.073460e+00 1.030063e+00 1.014500e+00 9.070675e-01 4.694602e-04
<GCONST> 5.767589e+01
<STATE> 4
<MEAN> 26
 -4.624652e-01 7.652733e-01 8.660310e-01 2.301026e+00 1.087728e+00 5.672451e-01 -1.135129e-01 -1.620740e-01 -9.630786e-01 -2.589370e-01 -4.901215e-01 -1.728657e-01 3.260685e-01 1.406945e-01 4.074962e-01 5.829020e-01 -5.021191e-01 -4.703349e-01 -5.300333e-01 -8.396809e-01 -6.075322e-01 -1.636173e-01 -6.125854e-01 -6.038760e-02 -2.434756e-01 4.324966e-02
<VARIANCE> 26
 2.012495e+01 1.825765e+01 2.789624e+01 2.160838e+01 1.751031e+01 2.176443e+01 2.179306e+01 2.074280e+01 2.249207e+01 2.142160e+01 1.749545e+01 1.338898e+01 4.393664e-02 2.724728e+00 2.257244e+00 4.663156e+00 3.179435e+00 2.942993e+00 2.726522e+00 3.061374e+00 2.934992e+00 2.959040e+00 2.611523e+00 2.135675e+00 1.801035e+00 2.896659e-03
<GCONST> 8.699737e+01
<TRANSP> 5
 0.000000e+00 1.000000e+00 0.000000e+00 0.000000e+00 0.000000e+00
 0.000000e+00 7.259461e-01 2.740539e-01 0.000000e+00 0.000000e+00
 0.000000e+00 0.000000e+00 9.789485e-01 2.105149e-02 0.000000e+00
 0.000000e+00 0.000000e+00 0.000000e+00 6.413324e-01 3.586676e-01
 0.000000e+00 0.000000e+00 0.000000e+00 0.000000e+00 0.000000e+00
<ENDHMM>
