~o
<STREAMINFO> 1 39
<VECSIZE> 39<NULLD><MFCC_D_A_0><DIAGC>
~h "go"
<BEGINHMM>
<NUMSTATES> 5
<STATE> 2
<NUMMIXES> 3
<MIXTURE> 1 4.743893e-01
<MEAN> 39
 -2.361155e+00 3.288253e+00 -1.260947e+01 -1.556742e+01 -1.546116e+00 1.107837e+00 -4.895970e-02 -1.234375e+00 -7.717373e+00 -3.565900e+00 3.250033e-01 1.756290e-01 6.722157e+01 1.499216e+00 1.078934e+00 7.280120e-01 -2.720444e+00 -1.813105e+00 5.230094e-01 -1.185364e+00 -1.020221e+00 -2.710071e-01 -1.842465e+00 1.074276e+00 -7.414357e-01 2.216463e+00 -1.126240e-01 2.718940e-01 1.317984e+00 6.579949e-01 -1.295227e-01 1.574649e-01 -1.762684e-01 -2.393248e-01 8.720053e-01 -6.950120e-02 2.368989e-01 -1.496550e-01 -5.935066e-01
<VARIANCE> 39
 9.133035e+00 2.299026e+01 3.731998e+01 2.414878e+01 1.864228e+01 3.189951e+01 2.970170e+01 5.097032e+01 1.837525e+01 4.972285e+01 2.417788e+01 2.007253e+01 1.369165e+01 1.088743e+00 2.447130e+00 7.683816e+00 5.075630e+00 2.671214e+00 2.562618e+00 1.723661e+00 2.886008e+00 5.588975e+00 2.819105e+00 3.817420e+00 1.802460e+00 2.912679e+00 1.692225e-01 6.663116e-01 1.541561e+00 6.080866e-01 4.326914e-01 3.749952e-01 3.157316e-01 6.262692e-01 6.200519e-01 5.112802e-01 6.861103e-01 2.777829e-01 2.429978e-01
<GCONST> 1.171762e+02
<MIXTURE> 2 2.551163e-01
<MEAN> 39
 -4.677192e+00 5.171957e+00 -3.235041e+00 -6.551591e+00 1.073585e-01 -4.942723e+00 6.039211e-01 -6.051588e+00 -1.992430e+00 -5.347624e-01 -1.934972e+00 1.365098e+00 5.384107e+01 2.565145e-02 -8.327167e-02 -6.482772e-01 -9.057185e-01 8.924935e-01 -2.790630e-01 4.187780e-01 -5.331173e-01 -4.455753e-01 1.576256e-01 1.309924e-01 1.946906e-01 1.271280e+00 -7.068828e-02 -1.304964e-01 4.626139e-02 -3.486838e-01 -2.975566e-01 8.816868e-02 4.016373e-02 8.479147e-02 1.047888e-01 -5.372569e-02 3.058011e-01 -6.506858e-02 8.815626e-02
<VARIANCE> 39
 1.458905e+01 1.470837e+01 2.341129e+01 2.874953e+01 4.586177e+01 1.768385e+01 2.117169e+01 1.585073e+01 1.606219e+01 1.631034e+01 1.768716e+01 1.495788e+01 3.544656e+01 5.729006e-01 1.096664e+00 2.670637e+00 4.793264e+00 5.404484e+00 2.935375e+00 1.379957e+00 2.649400e+00 2.169280e+00 1.612365e+00 2.242424e+00 1.394815e+00 2.501897e+00 1.312019e-01 2.077022e-01 7.136549e-01 5.222741e-01 1.310504e+00 5.691822e-01 3.477188e-01 2.414335e-01 5.547874e-01 3.538651e-01 5.498012e-01 2.110536e-01 7.733761e-02
<GCONST> 1.065393e+02
<MIXTURE> 3 2.704945e-01
<MEAN> 39
 1.990160e+00 8.628031e+00 -4.593704e+00 -2.074279e+01 -1.132821e+01 1.119900e+01 -6.102160e+00 -3.353676e+00 -1.835235e-01 -1.504255e+01 5.787169e+00 -4.086843e+00 7.079104e+01 5.782298e-01 2.284360e-01 1.039739e+00 -2.331022e+00 -1.310002e+00 7.047949e-01 -3.042921e-01 -3.517025e-01 2.238856e+00 -3.581426e-01 -6.671421e-02 -1.161346e-01 1.179372e+00 -3.140779e-01 -5.830469e-01 -9.184651e-01 1.691596e-01 8.811517e-01 -5.650033e-01 4.541233e-01 4.779758e-01 -3.728672e-01 7.296436e-01 -8.229911e-01 5.360152e-01 -3.128619e-01
<VARIANCE> 39
 1.011779e+01 8.885420e+00 9.704529e+00 3.060160e+01 2.712890e+01 4.189470e+00 5.591367e+01 3.601092e+01 2.536032e+01 7.767933e+01 1.211225e+01 2.479029e+01 1.095485e+01 3.203253e-01 1.502041e+00 4.189122e+00 2.194293e+00 3.239566e+00 1.713115e+00 2.285498e+00 4.470382e+00 2.429703e+00 1.565973e+00 2.125516e+00 2.456484e+00 2.847688e-01 7.319029e-02 1.288627e-01 3.663882e-01 4.348904e-01 2.538373e-01 2.496741e-01 1.311275e-01 1.812894e-01 4.176781e-01 3.293836e-01 2.703882e-01 5.429049e-01 1.193275e-01
<GCONST> 9.812556e+01
<STATE> 3
<NUMMIXES> 3
<MIXTURE> 1 4.865248e-01
<MEAN> 39
 -2.351726e+00 4.792636e+00 -3.856901e+00 -2.516594e+01 -2.512296e+00 -3.741613e+00 -9.440720e-01 -8.992187e+00 1.419347e-01 -6.213953e+00 4.203194e+00 8.992642e-01 7.089445e+01 -5.901888e-02 -1.049565e-01 6.400922e-02 -4.334103e-01 -7.407220e-02 1.983708e-01 1.526845e-04 1.602893e-01 3.045870e-01 -1.469251e-01 -1.845186e-02 -1.035191e-01 8.058220e-02 8.826590e-03 3.340047e-02 -6.803775e-02 1.703896e-01 -4.516952e-02 9.300338e-03 7.415843e-02 8.804716e-02 -1.093166e-01 5.758137e-02 -1.004065e-01 3.494058e-02 -1.706717e-01
<VARIANCE> 39
 4.754455e+00 1.131962e+01 1.256318e+01 5.449421e+01 2.557647e+01 1.758899e+01 4.026060e+01 2.616654e+01 3.158562e+01 3.711204e+01 2.225521e+01 1.528618e+01 9.153620e+00 8.590230e-02 1.635585e-01 1.803108e-01 7.110903e-01 2.506799e-01 4.121261e-01 4.652673e-01 5.423779e-01 5.333278e-01 6.021047e-01 4.342108e-01 8.840333e-01 2.052425e-01 2.048071e-02 3.200168e-02 3.372801e-02 1.198647e-01 5.314361e-02 7.464617e-02 1.074749e-01 1.053301e-01 8.313361e-02 1.048806e-01 1.124577e-01 1.422286e-01 4.669746e-02
<GCONST> 6.193394e+01
<MIXTURE> 2 2.855676e-01
<MEAN> 39
 3.918950e+00 6.790650e+00 -5.117763e+00 -3.006912e+01 -1.574000e+01 6.835841e+00 -4.555068e+00 -5.639168e+00 6.242239e+00 -1.440775e+01 -1.810704e+00 2.493804e+00 7.017738e+01 6.388035e-02 -2.890016e-01 -4.761209e-02 -7.434317e-01 -5.578247e-01 -9.238963e-01 4.943956e-02 2.989317e-01 2.119910e-01 5.281522e-01 -6.454906e-01 7.589390e-01 -4.009137e-01 -8.052780e-02 -6.954106e-02 1.753091e-02 2.347406e-01 -9.155463e-02 -8.314832e-02 -4.157181e-02 4.636883e-03 -1.338659e-01 1.940096e-01 1.947421e-01 2.421939e-02 -3.391274e-01
<VARIANCE> 39
 1.339864e+01 1.273001e+01 5.765413e+00 4.973161e+00 2.030626e+01 1.660836e+01 8.230709e+01 1.145018e+02 2.485388e+01 4.992964e+01 1.187557e+01 8.640866e+00 4.756606e+00 1.624652e-01 5.845259e-01 6.102081e-01 6.648696e-01 1.150833e+00 5.792090e-01 7.646570e-01 1.140697e+00 8.120045e-01 9.274117e-01 8.344835e-01 1.359699e+00 5.503080e-01 4.144072e-02 1.598044e-01 1.709076e-01 1.703491e-01 2.263809e-01 1.073505e-01 1.987801e-01 3.441624e-01 1.416704e-01 1.664577e-01 1.312263e-01 2.690953e-01 4.053988e-02
<GCONST> 7.865559e+01
<MIXTURE> 3 2.279077e-01
<MEAN> 39
 -7.514127e+00 2.742862e+00 -2.433391e+00 -1.633980e+00 -2.161565e+00 -5.881702e-01 2.399697e+00 -2.882111e+00 3.977970e-01 -1.207608e+00 -5.382231e-02 -1.061519e-01 4.746247e+01 -1.384302e-02 -2.941178e-02 -4.400398e-02 -6.306290e-03 9.365737e-03 -3.215276e-02 4.492398e-02 -1.872523e-01 1.355462e-02 -1.076473e-01 8.095079e-02 5.932967e-02 1.156968e-02 -1.364644e-02 3.145108e-03 3.151245e-02 -2.451084e-02 -2.962564e-02 -6.955680e-02 -1.274533e-02 -1.498369e-02 9.480691e-03 -6.142016e-02 -2.256538e-02 5.966122e-03 8.735906e-03
<VARIANCE> 39
 5.464112e-01 1.384494e+00 2.433809e+00 4.661436e+00 3.774416e+00 4.733633e+00 9.673199e+00 4.185484e+00 6.486334e+00 7.931977e+00 7.864861e+00 9.865650e+00 1.347280e-01 6.474002e-02 1.061159e-01 3.673831e-01 5.853303e-01 5.345063e-01 6.408706e-01 8.059661e-01 7.061565e-01 7.530560e-01 9.141694e-01 1.216041e+00 1.081720e+00 1.145514e-02 1.333258e-02 1.632726e-02 6.500109e-02 1.139002e-01 1.014532e-01 1.380576e-01 1.382240e-01 1.333773e-01 1.470910e-01 1.866765e-01 2.792536e-01 2.091252e-01 3.471183e-03
<GCONST> 4.027868e+01
<STATE> 4
<NUMMIXES> 3
<MIXTURE> 1 3.922267e-01
<MEAN> 39
 1.560985e+00 6.262014e+00 -9.529085e+00 -1.940922e+01 -6.541537e+00 6.891036e+00 -4.054089e-01 1.317883e+00 -5.387062e+00 -1.533409e+00 -4.168650e-01 -2.288315e+00 7.231052e+01 -3.908569e-01 1.628907e-02 6.235816e-02 6.137804e-01 8.746607e-02 -1.666256e-01 4.807811e-01 2.541503e-01 -1.120864e-01 -1.033051e-01 -4.329636e-01 3.375516e-01 -8.060735e-01 -1.401124e-01 -3.466455e-02 1.393418e-01 3.391767e-01 1.556435e-01 -7.105228e-02 5.244489e-02 1.222914e-03 7.199609e-02 -1.440015e-02 4.565383e-02 -3.323068e-02 -1.889751e-01
<VARIANCE> 39
 9.895986e+00 8.440660e+00 4.967122e+00 1.731764e+01 7.726379e+00 3.057524e+01 1.071521e+01 1.951961e+01 8.867718e+00 6.868357e+00 1.090685e+01 1.278176e+01 2.636865e+01 4.661733e-01 8.931144e-01 5.809329e-01 2.025245e+00 8.372974e-01 9.604982e-01 1.049337e+00 6.986843e-01 1.017521e+00 8.192035e-01 5.018123e-01 5.153717e-01 6.156455e-01 4.809059e-02 1.390577e-01 9.220334e-02 2.682221e-01 1.480717e-01 1.561743e-01 1.097345e-01 1.438144e-01 2.169169e-01 1.160431e-01 6.918740e-02 1.300307e-01 3.152163e-02
<GCONST> 7.194929e+01
<MIXTURE> 2 2.310965e-01
<MEAN> 39
 2.232364e-02 4.846367e+00 -5.115848e+00 -3.125699e+01 -1.354945e+01 -1.827787e+00 -2.154528e+00 -2.613867e+00 4.674062e+00 -8.289892e+00 -5.828777e-01 4.789132e+00 6.185961e+01 -9.157761e-01 -3.611757e-01 -2.456311e-01 2.365954e+00 -3.388352e-01 -6.484559e-01 4.636155e-01 1.682088e+00 -4.657654e-01 1.665842e+00 2.803496e-03 7.967889e-02 -3.280370e+00 -2.721693e-01 -1.245112e-02 1.374073e-01 1.069268e+00 3.495290e-01 1.644327e-01 1.634723e-01 1.461972e-01 4.623897e-02 1.173562e-01 1.549900e-01 -3.229506e-01 -1.774148e-01
<VARIANCE> 39
 9.453380e+00 6.401988e+00 1.237064e+01 1.975372e+01 7.588816e+01 3.190787e+01 7.451633e+01 4.113559e+01 4.074380e+01 2.613529e+01 2.094822e+01 1.639070e+01 3.690062e+01 1.181282e+00 8.107365e-01 6.245244e-01 4.477622e+00 3.273763e+00 1.546227e+00 2.623266e+00 2.747647e+00 2.322061e+00 1.919935e+00 1.208783e+00 1.384323e+00 5.029753e-01 6.049662e-02 8.797768e-02 1.031671e-01 2.076858e-01 3.311718e-01 2.920208e-01 3.622637e-01 2.236069e-01 4.023481e-01 2.462239e-01 1.628277e-01 2.653779e-01 2.773443e-01
<GCONST> 9.875646e+01
<MIXTURE> 3 3.766769e-01
<MEAN> 39
 -5.156805e+00 3.092834e+00 -3.778796e+00 -9.923340e+00 -8.139233e+00 -1.179091e+00 -8.154053e-01 2.370668e+00 1.888992e+00 -2.232776e+00 1.080633e+00 2.386607e+00 5.502950e+01 -9.629437e-01 -5.489173e-01 4.333190e-01 3.102900e+00 1.157066e+00 -7.046173e-02 2.776635e-01 6.377885e-02 4.790572e-01 9.615608e-01 4.103900e-01 5.346325e-02 -1.281326e+00 1.044194e-01 4.471012e-02 -2.677715e-02 -4.186578e-01 7.682449e-02 7.273754e-02 -2.711626e-01 -2.292929e-01 -2.499232e-02 -2.043592e-02 1.426289e-01 1.404703e-01 3.741842e-01
<VARIANCE> 39
 7.141289e+00 4.275160e+00 7.214049e+00 4.138049e+01 3.605074e+01 1.793122e+01 3.328354e+01 1.511829e+01 3.321087e+01 1.675735e+01 1.838084e+01 1.705715e+01 2.504105e+01 3.027001e-01 3.026594e-01 9.420563e-01 2.194921e+00 1.141332e+00 1.765067e+00 1.310219e+00 1.782942e+00 1.496532e+00 1.676086e+00 1.466195e+00 1.559743e+00 5.848223e-01 2.603998e-02 6.041997e-02 1.323133e-01 1.695026e-01 2.218972e-01 1.895591e-01 1.934082e-01 2.443831e-01 2.897308e-01 4.738611e-01 3.231055e-01 2.588130e-01 6.976817e-02
<GCONST> 8.627058e+01
<TRANSP> 5
 0.000000e+00 1.000000e+00 0.000000e+00 0.000000e+00 0.000000e+00
 0.000000e+00 8.505729e-01 1.494271e-01 0.000000e+00 0.000000e+00
 0.000000e+00 0.000000e+00 9.014408e-01 9.855923e-02 0.000000e+00
 0.000000e+00 0.000000e+00 0.000000e+00 9.045261e-01 9.547392e-02
 0.000000e+00 0.000000e+00 0.000000e+00 0.000000e+00 0.000000e+00
<ENDHMM>
