~o
<STREAMINFO> 1 39
<VECSIZE> 39<NULLD><MFCC_D_A_0><DIAGC>
~h "hachi"
<BEGINHMM>
<NUMSTATES> 9
<STATE> 2
<NUMMIXES> 3
<MIXTURE> 1 1.948805e-01
<MEAN> 39
 -9.895349e+00 -7.835503e+00 -7.242438e-01 -4.225754e+00 1.324010e+01 6.036285e-01 1.050448e+01 -8.664559e+00 7.130904e+00 -4.760838e+00 -1.498607e+00 -2.243276e+00 7.044707e+01 2.520551e+00 1.856082e+00 -2.456105e-01 -2.026066e+00 7.446518e-01 -6.374484e-01 1.731888e+00 -9.811605e-01 3.987511e-01 -1.074613e+00 -1.209198e+00 -3.864004e-01 2.138821e+00 1.200705e-01 -2.481942e-01 -4.591172e-01 -5.707129e-01 -3.605735e-01 -7.186197e-01 -6.455401e-01 -8.651357e-02 3.296407e-02 4.266365e-02 -1.267160e-01 1.082831e-01 2.067618e-02
<VARIANCE> 39
 2.291595e+01 1.902465e+01 8.185719e+00 1.584356e+01 1.731624e+01 9.735200e+00 2.435405e+01 2.774298e+01 1.353189e+01 2.548896e+01 2.771375e+01 1.580717e+01 2.572855e+01 9.718196e-01 1.050009e+00 2.266667e+00 2.994662e+00 4.723332e-01 2.499168e+00 2.321921e+00 1.683103e+00 1.524998e+00 1.207714e+00 1.667411e+00 7.540969e-01 3.730523e-01 5.161957e-01 7.204816e-01 1.113927e-01 2.415660e-01 9.198715e-02 2.038180e-01 2.946217e-01 1.811556e-01 3.637113e-01 2.214221e-01 2.525848e-01 1.513471e-01 8.756937e-02
<GCONST> 9.302418e+01
<MIXTURE> 2 6.726571e-01
<MEAN> 39
 -1.488808e+01 -1.048637e+01 -4.917997e+00 -2.419796e+00 1.116323e+01 3.777582e+00 -3.680695e+00 1.001258e+00 2.895326e+00 -3.409693e+00 6.913242e-01 -1.396267e-01 6.247165e+01 -5.796757e-01 -9.011038e-01 -1.276106e-01 -2.609370e-01 4.260569e-01 1.066780e-02 5.230184e-01 -3.798792e-01 -7.515613e-02 -8.754548e-01 -3.607036e-01 2.514906e-01 1.643641e+00 3.106951e-01 4.161748e-01 1.259818e-01 1.434036e-01 -2.068558e-01 -2.953482e-02 3.769487e-01 -1.301318e-01 -3.190263e-02 -3.192209e-02 -6.893692e-02 -1.183825e-01 -5.411946e-02
<VARIANCE> 39
 1.794008e+01 1.512604e+01 1.432720e+01 3.455435e+01 1.780184e+01 1.730043e+01 2.623063e+01 2.250578e+01 4.722226e+01 5.577502e+01 1.939989e+01 1.460086e+01 2.177744e+01 6.862780e-01 1.338024e+00 1.198385e+00 1.768381e+00 1.591780e+00 1.074850e+00 2.377634e+00 1.707486e+00 1.276853e+00 1.899053e+00 1.114653e+00 1.472906e+00 8.285366e-01 2.535295e-01 1.873011e-01 2.567606e-01 2.210497e-01 2.668795e-01 2.326743e-01 4.355287e-01 3.386092e-01 2.341896e-01 3.381455e-01 2.745746e-01 3.505972e-01 6.593765e-02
<GCONST> 9.779179e+01
<MIXTURE> 3 1.324623e-01
<MEAN> 39
 -1.297664e+01 -8.870436e+00 6.851326e+00 -4.323211e+00 3.179535e+00 -6.966918e+00 -3.253101e+00 -1.259243e+01 7.505698e+00 -7.652169e+00 5.759759e+00 -7.670689e-01 6.204263e+01 -4.932120e-01 -6.478440e-01 8.601295e-01 -4.796991e-01 2.807848e-01 -1.038035e-01 9.747186e-01 -9.882004e-01 9.306460e-01 -1.102242e+00 6.052661e-01 -5.514297e-01 2.504650e+00 7.131585e-01 6.757831e-01 -8.886600e-01 -2.473076e-02 1.407185e-01 4.917059e-01 4.667310e-01 7.296945e-01 -1.917217e-01 2.057714e-01 -6.437555e-01 -2.615458e-01 -3.176936e-01
<VARIANCE> 39
 5.380149e+00 8.993273e+01 1.472940e+02 6.216223e+01 6.124263e+01 8.169188e+00 5.065429e+01 6.686868e+00 1.541839e+01 2.128697e+01 1.410594e+01 1.332211e+01 1.751450e+01 1.724238e+00 2.984437e+00 8.897286e+00 8.339632e-01 2.967544e+00 2.272366e+00 3.840691e+00 4.304543e+00 2.092651e+00 1.365883e+00 3.610189e+00 6.856127e-01 9.565890e-01 2.342520e-01 8.909110e-01 1.416232e+00 4.815783e-01 4.883976e-01 2.401342e-01 4.166655e-01 2.006903e-01 2.651291e-01 3.268492e-01 3.508543e-01 1.561556e-01 7.951523e-02
<GCONST> 1.087266e+02
<STATE> 3
<NUMMIXES> 3
<MIXTURE> 1 5.758883e-01
<MEAN> 39
 -3.222634e+00 -7.929827e+00 -8.818581e+00 -1.502004e+01 8.182751e+00 -9.036808e-03 4.601922e+00 -1.382953e+01 1.064913e+01 -1.120870e+01 -3.523393e+00 -5.538607e+00 7.495033e+01 3.925952e-01 -4.848408e-01 -1.205048e-04 -5.485856e-01 -1.237412e+00 -1.171570e+00 4.221742e-01 -1.185260e-01 9.970672e-01 -4.117530e-01 -9.040307e-01 -2.348643e-01 9.520792e-01 -4.525235e-01 1.052243e-01 4.740924e-01 4.800166e-01 -3.171987e-01 -1.435205e-01 -4.324389e-01 6.873956e-01 -2.086775e-02 2.631809e-01 1.414241e-01 2.315691e-01 -5.178072e-01
<VARIANCE> 39
 1.155909e+01 3.346645e+01 4.387184e+01 4.353337e+01 4.227870e+01 4.294524e+01 5.900285e+01 2.000002e+01 3.600997e+01 1.675983e+01 1.731449e+01 1.256831e+01 9.764379e+00 1.890767e+00 1.599131e+00 1.546010e+00 2.089308e+00 1.988984e+00 3.149971e+00 3.032594e+00 3.325351e+00 2.303371e+00 1.425474e+00 1.128798e+00 1.097599e+00 1.569003e+00 3.834383e-01 4.731412e-01 3.177101e-01 2.047626e-01 3.538549e-01 4.130768e-01 3.756314e-01 4.895562e-01 3.282913e-01 2.510460e-01 1.730184e-01 2.090146e-01 1.842711e-01
<GCONST> 1.065475e+02
<MIXTURE> 2 1.447359e-01
<MEAN> 39
 -5.045998e+00 -1.067769e-01 -1.520236e-01 -9.961107e+00 9.288714e+00 -1.002532e+01 7.317028e+00 -6.736892e-02 7.269924e+00 -5.766211e+00 -9.048022e+00 1.748892e+00 7.792513e+01 -2.551700e-01 7.852551e-01 -1.015381e+00 1.416619e+00 -7.290036e-01 -1.507028e-01 -1.062675e+00 1.559977e+00 -3.521819e-01 5.541166e-02 -9.205939e-02 9.175952e-02 -1.555728e+00 -2.947617e-01 -3.784816e-02 3.575633e-02 4.711004e-01 1.030166e-01 1.014664e+00 -1.758372e-01 -3.875517e-01 -4.475370e-01 2.205427e-03 6.590605e-01 -1.810723e-01 -1.000046e+00
<VARIANCE> 39
 3.637576e+00 9.134446e+00 2.651815e+01 1.587614e+01 5.507369e+01 2.580381e+01 1.086923e+02 1.877434e+01 4.233892e+01 1.036239e+01 2.621021e+01 2.514702e+01 1.034886e+01 9.308456e-01 1.411285e+00 5.431856e+00 3.272289e+00 6.161613e+00 4.081081e+00 2.577186e+00 2.145808e+00 3.968589e+00 4.931825e-01 2.441273e+00 2.331698e+00 4.944371e+00 1.082437e-01 3.348096e-01 1.435231e-01 9.564230e-01 4.496402e-01 3.168336e-01 4.421477e-01 6.437557e-01 6.406017e-01 8.116136e-02 1.418466e-01 2.172903e-01 2.903824e-01
<GCONST> 1.069281e+02
<MIXTURE> 3 2.793757e-01
<MEAN> 39
 -1.074086e+01 -5.925858e+00 -2.803128e+00 2.111536e-01 5.398375e+00 4.726591e-01 -2.046312e+00 4.186217e-02 -9.219758e-01 -8.628113e+00 -6.575637e-01 -2.076461e+00 6.671392e+01 2.192029e+00 2.077685e+00 -2.564339e-01 -8.542738e-01 -8.240435e-01 -1.042490e+00 3.695610e-01 -1.871001e+00 -6.837859e-01 -8.860630e-01 -6.008100e-01 -1.472107e+00 8.676599e-01 1.175226e-01 -1.973318e-02 -2.519534e-01 -7.971981e-02 1.812201e-01 1.534331e-01 1.884253e-01 -3.092334e-01 3.171298e-01 1.273019e-01 -1.258969e-01 1.152092e-01 -3.130837e-02
<VARIANCE> 39
 2.500813e+01 3.440400e+01 3.976913e+01 9.082550e+01 7.683962e+01 8.254890e+01 3.289640e+01 1.925297e+01 4.175149e+01 2.874630e+01 2.919001e+01 2.017312e+01 1.282214e+01 4.726238e+00 1.001420e+00 4.893813e+00 1.425026e+00 3.136972e+00 4.680598e+00 4.254603e+00 4.127776e+00 1.958891e+00 1.578449e+00 1.535152e+00 2.319967e+00 2.122964e+00 6.553293e-01 7.069173e-01 4.240915e-01 6.159472e-01 7.759152e-01 1.133712e+00 6.935725e-01 5.817017e-01 4.730277e-01 2.062350e-01 2.647789e-01 6.899568e-01 3.002399e-01
<GCONST> 1.216750e+02
<STATE> 4
<NUMMIXES> 3
<MIXTURE> 1 2.118260e-01
<MEAN> 39
 -3.636126e+00 -9.304745e+00 -5.950346e+00 -9.197351e+00 1.106056e+00 -9.549837e+00 1.267971e+00 -9.307463e+00 1.418707e+01 -1.146050e+01 -5.918723e+00 -3.585441e+00 7.523581e+01 3.111507e-01 1.806097e+00 1.327729e+00 2.246080e+00 -9.609855e-01 -9.395823e-01 -1.518790e+00 1.251904e+00 -4.213435e-01 1.528120e+00 4.005266e-01 1.382884e+00 -2.805801e+00 -5.478435e-03 2.048482e-01 -3.353680e-01 1.084032e-01 6.984887e-01 1.145678e+00 7.160319e-02 -3.006089e-02 -6.733724e-01 5.051769e-01 1.248073e-01 -1.738665e-02 -1.160797e+00
<VARIANCE> 39
 1.012924e+01 1.522186e+01 3.509704e+01 5.858206e+01 7.585099e+01 3.399055e+01 7.830916e+01 2.412174e+01 3.476083e+01 1.449722e+01 2.251404e+01 2.964697e+01 9.487043e+00 2.906823e-01 6.689319e-01 1.260801e+00 1.002066e+00 4.461597e+00 6.124548e+00 2.644688e+00 1.729659e+00 2.330064e+00 1.756272e+00 9.633311e-01 1.152795e+00 2.651694e+00 1.043538e-01 2.351506e-01 3.670691e-01 4.238886e-01 9.711335e-01 6.558957e-01 8.246810e-01 2.179856e-01 3.500239e-01 4.377268e-01 3.806568e-01 3.288369e-01 1.644369e-01
<GCONST> 1.071377e+02
<MIXTURE> 2 3.183026e-01
<MEAN> 39
 -9.611914e+00 1.867624e+00 -8.565657e-01 8.696695e-01 2.989505e+00 8.687480e-01 2.448310e+00 -6.170754e-01 1.843212e-02 -1.242896e+00 5.926670e-01 1.189661e+00 5.602326e+01 -2.826653e-01 -3.682663e-01 -6.692038e-02 3.539980e-01 -4.510748e-01 4.608293e-01 1.009621e-01 3.998225e-01 1.089653e-01 1.067687e+00 1.393255e+00 4.475363e-01 -4.179016e-01 -1.785193e-01 -9.628724e-02 -1.225936e-02 -1.631449e-01 -1.898333e-01 -4.799939e-01 -5.731075e-02 1.963588e-02 2.165909e-01 -4.645282e-02 -1.247454e-01 -2.847631e-01 5.559747e-01
<VARIANCE> 39
 3.757692e+00 6.772919e+00 6.990962e+00 1.678078e+01 8.368291e+00 6.824815e+00 8.675963e+00 2.129335e+01 1.398501e+01 1.204905e+01 1.393568e+01 1.053944e+01 2.038097e+01 2.947925e-01 9.553851e-01 5.092133e-01 1.155355e+00 9.509861e-01 1.268049e+00 1.053707e+00 7.984142e-01 2.901763e+00 1.555552e+00 2.062751e+00 1.744601e+00 9.137591e-01 1.337357e-01 1.664481e-01 1.191946e-01 1.127185e-01 2.378966e-01 2.196434e-01 2.046775e-01 1.505045e-01 4.026773e-01 1.723642e-01 3.433281e-01 2.740284e-01 6.786410e-02
<GCONST> 8.072007e+01
<MIXTURE> 3 4.698715e-01
<MEAN> 39
 -5.277888e+00 -3.603280e+00 -6.244681e+00 -1.915815e+00 3.665674e+00 -1.732666e+00 1.679736e+00 -3.472152e+00 6.313771e+00 -6.027488e+00 -6.750977e+00 -1.129256e+00 5.957426e+01 -5.452059e-01 3.262248e-01 -5.749283e-01 4.411363e-01 5.138253e-02 1.943681e+00 -1.162766e-01 7.287386e-01 -7.521684e-01 1.131388e+00 3.764519e-01 7.728318e-02 -2.828155e+00 -1.060702e-01 -2.047879e-01 -7.430173e-02 -2.087872e-01 9.180779e-02 -9.975013e-02 2.364269e-01 -1.550762e-01 6.226665e-02 -5.615953e-02 2.507658e-01 -3.092629e-02 5.278815e-01
<VARIANCE> 39
 1.137148e+01 2.125444e+01 3.900030e+01 3.145591e+01 1.330068e+01 5.183979e+01 2.912373e+01 2.744139e+01 3.626316e+01 2.962095e+01 1.040738e+01 1.920197e+01 2.271637e+01 4.242926e-01 7.208338e-01 7.585261e-01 1.038986e+00 2.384472e+00 2.707424e+00 2.529804e+00 1.540071e+00 1.728127e+00 1.397418e+00 1.883752e+00 9.629793e-01 2.710074e+00 1.404218e-01 1.872164e-01 2.358773e-01 2.607150e-01 2.863127e-01 5.500661e-01 4.340766e-01 3.763587e-01 4.319131e-01 2.740807e-01 2.640349e-01 3.384371e-01 1.714171e-01
<GCONST> 1.007727e+02
<STATE> 5
<NUMMIXES> 3
<MIXTURE> 1 3.470398e-01
<MEAN> 39
 -2.256223e+01 2.751771e+00 -7.178892e+00 8.861098e-02 1.049918e+00 -3.826057e+00 1.388356e+00 4.646677e-01 6.533412e-01 7.877414e-01 3.897450e+00 6.333149e-01 6.751696e+01 -2.845717e+00 1.593289e+00 -4.096042e-02 -5.941498e-01 8.945163e-01 -1.025947e+00 2.246889e-01 -2.826105e-01 -4.622381e-01 -1.591056e-01 1.848016e-01 1.188908e-01 1.817004e+00 5.555234e-01 6.105259e-02 6.665725e-01 -6.708415e-02 4.486449e-01 4.170553e-01 1.201810e-01 -2.813126e-03 -1.806825e-01 -2.266771e-01 -3.422709e-01 6.590979e-03 -4.991218e-01
<VARIANCE> 39
 2.721722e+01 1.982376e+01 2.467825e+01 1.730841e+01 1.893899e+01 1.703577e+01 1.111544e+01 8.810627e+00 5.323289e+00 4.673409e+01 1.980618e+01 1.072195e+01 1.187805e+01 1.535075e+00 1.535894e+00 2.249313e+00 4.387493e-01 1.959459e+00 2.892992e+00 1.480864e+00 1.384508e+00 1.268027e+00 2.224158e+00 1.435430e+00 1.112992e+00 1.270943e+00 3.645808e-01 5.091159e-01 2.385475e-01 1.487002e-01 2.799373e-01 3.631914e-01 2.518854e-01 2.695336e-01 2.262832e-01 8.120518e-01 2.988371e-01 2.070248e-01 7.330627e-02
<GCONST> 9.568898e+01
<MIXTURE> 2 4.476702e-01
<MEAN> 39
 -9.803833e+00 -1.733687e+00 -6.471598e+00 -4.037166e-01 2.021563e+00 2.222249e+00 1.869670e+00 8.976092e-02 3.489145e+00 9.768514e-01 -7.056801e-01 -2.274432e-02 5.251524e+01 -2.965382e+00 1.106828e+00 1.801991e-01 1.003661e-01 2.868425e-01 -9.171805e-01 2.292845e-01 -1.891092e-01 -4.511552e-01 -1.054342e-01 7.131025e-01 1.226925e-01 1.319627e+00 -8.112442e-01 3.479302e-01 -2.425514e-02 -1.495715e-01 1.107614e-01 -5.874212e-01 -3.869550e-02 -3.254409e-01 8.005371e-02 -3.818902e-01 -8.853743e-02 3.133585e-01 9.357820e-01
<VARIANCE> 39
 2.020145e+01 1.293714e+01 2.141132e+01 1.743699e+01 1.290991e+01 1.719066e+01 8.665656e+00 2.053724e+01 2.401325e+01 3.324219e+01 1.570638e+01 1.445481e+01 1.944465e+01 2.313020e+00 6.245553e-01 1.452822e+00 1.190589e+00 1.494270e+00 2.229178e+00 1.892800e+00 2.302670e+00 2.466496e+00 2.015819e+00 1.227270e+00 2.135134e+00 2.803347e+00 3.498914e-01 8.101369e-02 2.730682e-01 2.675788e-01 3.654581e-01 3.247446e-01 1.938023e-01 3.485081e-01 3.962411e-01 2.022944e-01 2.987281e-01 2.435595e-01 1.411944e-01
<GCONST> 9.790582e+01
<MIXTURE> 3 2.052900e-01
<MEAN> 39
 -2.723768e+01 7.160766e+00 -2.492698e+00 -4.478407e+00 5.593567e+00 -5.910694e+00 4.291523e+00 -6.415143e+00 5.454802e+00 -2.031459e+00 -2.658728e-01 1.393839e+00 6.018648e+01 -3.504326e+00 1.185056e+00 3.011974e-01 -8.430194e-01 8.428343e-01 -1.413861e+00 6.089594e-01 -1.785624e-01 -2.969650e-01 -2.747691e-01 -2.941716e-01 1.041979e-01 2.709587e+00 9.346396e-01 -3.742211e-01 1.787733e-02 -1.091229e-01 -2.182290e-01 1.528932e-01 -2.230858e-01 4.010680e-01 -4.042549e-01 4.225789e-01 -8.391618e-02 -2.309806e-01 -3.797200e-01
<VARIANCE> 39
 1.909483e+01 1.359096e+01 1.080065e+01 1.450208e+01 7.953192e+00 1.535945e+01 7.101471e+00 5.720411e+00 1.121236e+01 2.562700e+01 8.884863e+00 7.077100e+00 1.064949e+01 3.121356e+00 7.145435e-01 4.445253e-01 9.228240e-01 8.110857e-01 1.831159e+00 1.314004e+00 1.126045e+00 2.146818e+00 2.085949e+00 4.691630e-01 7.065428e-01 1.122169e+00 3.636265e-01 1.912816e-01 9.582530e-02 2.899322e-01 1.598009e-01 3.641013e-01 1.504186e-01 9.875534e-02 3.524610e-01 2.729665e-01 1.578621e-01 1.500966e-01 1.595841e-01
<GCONST> 8.295423e+01
<STATE> 6
<NUMMIXES> 3
<MIXTURE> 1 2.176903e-01
<MEAN> 39
 -1.349081e+01 7.980610e+00 7.633061e+00 -4.358278e+00 -3.307608e+00 -1.092051e+01 -4.055371e+00 -6.380913e+00 -9.773196e+00 -4.599641e+00 -1.695764e+00 -3.002611e+00 6.871448e+01 3.163369e+00 -2.318011e-01 2.435756e+00 -1.135202e+00 -3.767430e+00 -1.501049e+00 -1.174326e+00 -1.139618e+00 -1.554448e+00 -3.904554e-01 -3.370977e-01 -5.778378e-01 7.152877e-01 -5.088746e-01 -6.168357e-01 -5.097926e-01 1.586174e-01 2.375625e-01 8.420464e-01 5.846921e-01 2.261085e-01 7.536132e-01 3.342867e-01 6.658643e-01 2.346195e-01 -2.179103e-01
<VARIANCE> 39
 1.469722e+01 5.165528e+00 9.389854e+00 2.517118e+01 3.294186e+01 2.450321e+01 1.896879e+01 2.359136e+01 2.727067e+01 3.744611e+01 2.080140e+01 1.542478e+01 3.445512e+00 1.691814e+00 1.207893e+00 2.121818e+00 1.151852e+00 2.437077e+00 2.561944e+00 1.651725e+00 1.990419e+00 3.071503e+00 4.390665e+00 2.534154e+00 1.368962e+00 8.250467e-01 2.649422e-01 7.376191e-02 1.083854e-01 1.549713e-01 7.021054e-01 3.235311e-01 5.764982e-02 1.390904e-01 5.264574e-01 5.418401e-01 3.767765e-01 1.959746e-01 3.748492e-02
<GCONST> 9.501560e+01
<MIXTURE> 2 5.150345e-01
<MEAN> 39
 -2.759723e+01 3.907959e+00 -4.350560e+00 -6.969689e+00 5.262658e+00 -4.928274e+00 3.741041e+00 3.689542e+00 3.097425e+00 4.851484e+00 3.876655e+00 2.351587e+00 7.416784e+01 3.537477e-01 -4.067657e-01 2.770993e-01 -2.666055e-01 -1.093118e-01 1.734039e-01 -2.679892e-01 1.726119e-01 1.201624e-01 1.552671e-01 2.078922e-01 1.699694e-01 -7.571252e-02 7.989926e-02 -1.058344e-02 -4.041305e-02 3.149591e-02 -5.246370e-02 -3.754018e-02 -2.704892e-02 5.169117e-03 2.403125e-03 -2.551026e-02 7.060612e-02 1.322298e-02 -8.463727e-02
<VARIANCE> 39
 3.978707e+00 5.949206e+00 2.623244e+00 7.877448e+00 5.651348e+00 5.498031e+00 1.816270e+01 9.730082e+00 7.185709e+00 1.538702e+01 7.829494e+00 6.697307e+00 2.065536e+00 1.003577e-01 1.431706e-01 4.586270e-01 3.618015e-01 4.832989e-01 4.514908e-01 1.279955e+00 1.177135e+00 5.445145e-01 1.599053e+00 8.301938e-01 1.025428e+00 2.374936e-01 4.216827e-02 3.499469e-02 9.713372e-02 6.332631e-02 9.508248e-02 1.037674e-01 2.156897e-01 2.172391e-01 1.241511e-01 2.868090e-01 1.721702e-01 1.825272e-01 1.101366e-02
<GCONST> 5.638996e+01
<MIXTURE> 3 2.672752e-01
<MEAN> 39
 -2.732272e+01 6.076605e+00 -2.122998e+00 -1.103938e+00 8.485463e+00 -3.602741e+00 3.759459e+00 -9.042039e-01 -1.003953e+00 -1.786254e+00 2.350885e+00 2.120388e+00 6.548504e+01 1.210885e+00 7.650272e-01 2.410311e+00 -9.863951e-01 -2.501403e-01 -1.426061e+00 -1.272198e+00 -9.205986e-01 -1.983471e+00 -7.544088e-01 -9.891995e-01 -7.089982e-01 8.999191e-01 1.489471e+00 -3.370018e-01 5.149339e-01 -3.770049e-02 -1.434973e+00 -3.438814e-01 -5.989096e-01 -2.655712e-01 -3.830840e-01 -2.669678e-01 -2.209530e-01 -3.443379e-01 -7.705218e-02
<VARIANCE> 39
 1.261903e+01 8.936427e+00 2.653037e+01 1.906252e+01 2.324837e+01 3.091746e+01 2.296367e+01 2.625345e+01 1.952174e+01 4.256658e+01 2.853228e+01 2.346641e+01 1.813141e+00 4.351928e+00 9.400713e-01 1.673605e+00 8.943408e-01 5.511339e+00 2.691440e+00 2.071204e+00 2.035565e+00 1.971724e+00 3.432232e+00 1.910738e+00 1.152897e+00 4.187432e-01 3.080686e-01 1.673325e-01 3.420216e-01 1.827940e-01 4.475063e-01 6.398749e-01 3.890226e-01 3.196896e-01 3.518960e-01 5.858933e-01 2.924148e-01 1.928129e-01 1.210767e-01
<GCONST> 1.015729e+02
<STATE> 7
<NUMMIXES> 3
<MIXTURE> 1 1.000775e-01
<MEAN> 39
 -1.236107e+01 3.267166e+00 1.019162e+01 -5.155858e-01 -5.444512e+00 -7.295497e+00 -5.392283e+00 -3.665395e+00 -1.896461e+01 -2.134830e+01 -1.146039e-01 -1.306705e+00 7.227407e+01 5.795671e-01 -6.913674e-01 1.131186e+00 -6.953865e-02 -8.846453e-01 1.128606e+00 -1.358663e+00 -1.473373e+00 -1.142202e+00 -8.982698e-01 1.111661e+00 -1.086166e+00 -1.842538e-01 -2.815953e-01 3.007329e-01 -4.104998e-01 -8.486506e-02 4.036064e-01 2.055992e-02 -3.657750e-01 -1.296558e-01 7.880847e-01 8.600991e-01 2.991197e-01 1.954327e-04 -4.295546e-01
<VARIANCE> 39
 3.850448e-01 7.060074e-01 4.344113e+00 1.640649e+00 3.325114e+00 7.628982e+00 7.855206e+00 1.151723e+01 1.230491e+01 5.774107e+00 7.716918e+00 1.102876e+01 5.682633e-01 3.298253e-01 8.031778e-01 5.059078e-01 4.001056e-01 1.512419e+00 7.103941e-01 1.578685e+00 4.619979e-01 2.703625e+00 3.296635e+00 1.096696e+00 3.399081e-01 2.073077e-01 4.033057e-01 5.523841e-02 1.343966e-01 7.732419e-02 8.996780e-01 5.574493e-01 1.613730e-01 1.568913e-01 1.915765e-01 1.123970e-01 1.680186e-01 6.923082e-02 3.150648e-02
<GCONST> 6.018981e+01
<MIXTURE> 2 5.675272e-01
<MEAN> 39
 -2.913230e+01 5.950710e+00 3.765768e+00 -9.064372e+00 4.333424e+00 -3.048746e+00 1.877524e+00 -2.956726e+00 3.037118e+00 -1.921970e+00 1.424577e+00 -5.564023e-02 6.251322e+01 5.502089e-01 -2.079431e-01 2.426205e-01 -8.926763e-02 -1.432398e-01 3.367324e-01 -2.055684e-01 1.399559e-01 1.356279e-01 -7.733966e-02 2.249950e-01 8.357765e-03 -5.086852e-01 1.299039e-01 -1.984716e-02 -9.009488e-02 1.710024e-02 2.508616e-02 2.303377e-03 -1.404455e-02 -1.165992e-02 9.148788e-03 -1.190531e-02 -4.218614e-02 8.760498e-03 -9.710363e-02
<VARIANCE> 39
 9.971057e+00 4.262463e+00 1.049873e+01 3.800531e+00 1.929446e+01 2.120878e+01 9.718521e+00 1.546379e+01 1.098435e+01 2.825703e+01 1.138418e+01 7.198799e+00 1.784912e+01 4.777240e-01 3.770073e-01 6.862114e-01 5.835406e-01 1.106871e+00 7.953036e-01 7.786198e-01 7.037810e-01 9.367962e-01 1.206024e+00 1.240052e+00 7.073209e-01 2.219222e-01 5.100842e-02 6.472591e-02 1.175116e-01 1.204633e-01 2.028779e-01 1.337365e-01 1.420702e-01 1.211752e-01 1.876716e-01 2.048841e-01 2.011780e-01 1.330877e-01 3.523776e-02
<GCONST> 7.042857e+01
<MIXTURE> 3 3.323953e-01
<MEAN> 39
 -7.454497e+00 4.527097e+00 1.239479e+01 -9.445859e+00 -1.066711e+01 -8.293210e+00 -5.859787e+00 -1.207117e+01 -4.143784e+00 3.529074e-01 2.514750e+00 -4.667899e+00 6.572103e+01 1.640571e-01 -1.421295e-01 3.469290e-01 1.203594e-01 -3.096581e-01 5.213853e-01 -6.691274e-01 -1.569837e-01 3.284455e-01 -8.762005e-02 3.858053e-01 -1.984158e-02 -7.896429e-01 -2.472745e-01 4.545839e-02 -2.088665e-01 2.304428e-01 3.118817e-01 1.474379e-01 1.301571e-01 2.515001e-01 -2.781785e-02 -1.113402e-01 -1.351425e-01 4.337723e-02 -1.685264e-01
<VARIANCE> 39
 9.237185e+00 1.094494e+01 3.209728e+01 1.337686e+01 1.321848e+01 1.305995e+01 1.443067e+01 1.699211e+01 3.576057e+01 1.046496e+01 1.029268e+01 1.147249e+01 8.173992e+00 2.381154e-01 8.658338e-01 9.949626e-01 2.129230e+00 1.417203e+00 1.269919e+00 1.463314e+00 1.493573e+00 1.160608e+00 7.915249e-01 1.266970e+00 1.454288e+00 4.735673e-01 5.357803e-02 1.597145e-01 8.961492e-02 2.083288e-01 2.732307e-01 1.384154e-01 3.453006e-01 3.228681e-01 1.751121e-01 1.894211e-01 1.434589e-01 1.403348e-01 4.362823e-02
<GCONST> 8.147189e+01
<STATE> 8
<NUMMIXES> 3
<MIXTURE> 1 1.329777e-01
<MEAN> 39
 -8.601468e+00 2.831832e+00 1.234342e+01 -2.002840e+00 -1.107359e+01 -6.497413e+00 -1.366556e+01 -9.833694e+00 -1.529146e+01 -1.668824e+01 6.828726e+00 -5.569353e+00 6.687819e+01 5.689071e-01 -3.626776e-01 -5.129055e-01 4.112477e-01 -3.462476e-01 -1.474508e-01 6.100324e-02 -7.449631e-01 1.201133e+00 2.038555e+00 9.428838e-01 2.160950e-01 -2.350637e+00 -2.694461e-01 -2.040441e-01 -4.557690e-01 4.903492e-01 8.824816e-01 2.898489e-01 8.203638e-01 1.014386e-01 -2.233114e-01 2.570515e-01 -3.416815e-01 5.023748e-01 -3.609846e-01
<VARIANCE> 39
 2.905809e+00 7.072069e-01 1.034007e+00 1.013402e+00 9.481354e+00 2.084809e+00 2.781998e+00 4.609074e+00 9.660810e+00 5.981725e+00 2.656708e+00 5.970474e+00 1.260227e+01 7.230629e-01 2.480949e-01 8.660913e-01 8.265162e-01 4.009325e+00 6.344714e-01 2.574958e+00 2.490402e-01 1.087762e+00 8.109804e-01 5.959350e-01 9.895796e-01 5.516907e-01 8.319309e-02 2.372032e-02 4.509829e-02 5.338618e-02 4.810442e-01 2.184051e-01 1.260195e-01 6.128871e-02 2.231989e-01 1.501001e-01 6.996766e-02 5.936488e-02 9.820675e-02
<GCONST> 5.394822e+01
<MIXTURE> 2 5.519798e-01
<MEAN> 39
 -1.571883e+01 4.007861e-01 4.440712e-01 -6.780278e+00 2.111929e+00 -2.664649e+00 -3.910065e-01 1.625221e+00 2.430542e+00 5.035872e-01 4.960239e+00 1.685730e+00 5.993774e+01 1.301947e+00 -3.417775e-01 -4.055335e-01 7.128565e-01 -1.107510e-01 5.141362e-01 2.930453e-01 2.612750e-01 -3.000091e-01 -1.053686e-02 -1.693969e-01 -3.340870e-01 -1.283138e+00 -6.368390e-02 9.563617e-02 -4.185445e-03 1.883100e-01 -2.623391e-02 5.786965e-02 2.380819e-02 -8.351000e-02 7.760624e-03 -7.034973e-03 -6.315394e-02 -1.450179e-02 2.390524e-02
<VARIANCE> 39
 1.859751e+01 1.057408e+01 6.186552e+00 2.135768e+01 9.794020e+00 2.068509e+01 1.434634e+01 2.110071e+01 1.549314e+01 1.754772e+01 2.163144e+01 1.335732e+01 4.662824e+01 1.074000e+00 2.447466e-01 4.541433e-01 1.066421e+00 1.220172e+00 1.258364e+00 1.930913e+00 1.500736e+00 1.601805e+00 1.541165e+00 1.308716e+00 1.045597e+00 5.474210e-01 8.780763e-02 3.664437e-02 7.724006e-02 1.835872e-01 2.223483e-01 2.140006e-01 4.070525e-01 1.815760e-01 2.778183e-01 3.456655e-01 2.622750e-01 2.256110e-01 1.225917e-01
<GCONST> 8.511202e+01
<MIXTURE> 3 3.150426e-01
<MEAN> 39
 -1.005718e+01 2.077373e+00 1.132433e+01 -3.552567e+00 -6.764134e+00 -2.189439e+00 -6.489127e+00 -7.392641e+00 -6.576789e+00 7.607417e-02 3.837956e+00 -4.895169e+00 5.574997e+01 -6.181073e-01 -2.919279e-01 -2.241564e+00 1.837324e+00 2.102625e+00 1.125715e+00 1.851768e+00 1.462195e+00 9.932129e-01 7.995508e-01 -6.725789e-01 1.044583e+00 -1.804720e+00 8.374733e-02 7.510744e-03 -2.797320e-01 -8.751936e-02 -5.159047e-03 -3.372037e-02 2.040448e-01 1.965564e-01 2.250280e-01 -1.421158e-01 -3.210421e-02 9.483291e-02 2.321269e-01
<VARIANCE> 39
 8.903625e+00 1.397852e+01 7.044436e+01 5.512934e+01 2.895061e+01 1.422441e+01 2.686780e+01 3.377111e+01 5.076762e+01 3.318548e+01 2.586349e+01 3.699889e+01 3.088281e+01 9.375567e-01 7.320510e-01 3.515466e+00 1.529416e+00 2.151462e+00 1.387749e+00 2.419780e+00 2.466646e+00 2.767976e+00 2.470165e+00 1.682310e+00 1.179209e+00 7.411132e-01 1.488188e-01 1.012260e-01 6.762317e-01 3.972807e-01 5.655025e-01 2.672675e-01 6.623194e-01 3.604981e-01 5.046060e-01 4.955170e-01 3.320773e-01 2.147268e-01 1.555408e-01
<GCONST> 1.070946e+02
<TRANSP> 9
 0.000000e+00 1.000000e+00 0.000000e+00 0.000000e+00 0.000000e+00 0.000000e+00 0.000000e+00 0.000000e+00 0.000000e+00
 0.000000e+00 8.579729e-01 1.420272e-01 0.000000e+00 0.000000e+00 0.000000e+00 0.000000e+00 0.000000e+00 0.000000e+00
 0.000000e+00 0.000000e+00 8.548382e-01 1.451618e-01 0.000000e+00 0.000000e+00 0.000000e+00 0.000000e+00 0.000000e+00
 0.000000e+00 0.000000e+00 0.000000e+00 8.819721e-01 1.180280e-01 0.000000e+00 0.000000e+00 0.000000e+00 0.000000e+00
 0.000000e+00 0.000000e+00 0.000000e+00 0.000000e+00 8.356259e-01 1.643741e-01 0.000000e+00 0.000000e+00 0.000000e+00
 0.000000e+00 0.000000e+00 0.000000e+00 0.000000e+00 0.000000e+00 8.416802e-01 1.583198e-01 0.000000e+00 0.000000e+00
 0.000000e+00 0.000000e+00 0.000000e+00 0.000000e+00 0.000000e+00 0.000000e+00 8.932498e-01 1.067502e-01 0.000000e+00
 0.000000e+00 0.000000e+00 0.000000e+00 0.000000e+00 0.000000e+00 0.000000e+00 0.000000e+00 8.480248e-01 1.519752e-01
 0.000000e+00 0.000000e+00 0.000000e+00 0.000000e+00 0.000000e+00 0.000000e+00 0.000000e+00 0.000000e+00 0.000000e+00
<ENDHMM>
