~o
<STREAMINFO> 1 39
<VECSIZE> 39<NULLD><MFCC_D_A_0><DIAGC>
~h "kyuu"
<BEGINHMM>
<NUMSTATES> 5
<STATE> 2
<NUMMIXES> 3
<MIXTURE> 1 1.503146e-01
<MEAN> 39
 -9.908857e+00 2.173576e+00 1.530882e+01 8.368101e-01 -1.097645e+01 -1.031055e+01 -1.261793e+00 -9.328953e+00 -1.247754e+00 -2.618895e+00 1.610949e+00 3.011337e+00 7.287769e+01 2.706259e+00 -4.587409e-01 2.233765e-01 6.036201e-01 -4.777487e-01 -3.627322e+00 -8.333632e-01 8.419167e-01 -1.936140e+00 -1.583465e+00 1.132712e+00 2.932180e-02 1.711920e+00 -7.674329e-01 -4.753665e-01 -6.294757e-01 -3.820544e-01 2.150678e-01 2.211249e-01 9.360249e-02 1.963889e-01 6.554253e-01 -3.791428e-01 4.979162e-02 -6.276911e-02 -9.842187e-02
<VARIANCE> 39
 1.875893e+01 1.128910e+01 3.421366e+00 5.171855e+00 9.744036e+00 5.843316e+01 1.410551e+01 2.885360e+01 5.122834e+01 6.804499e+01 3.807828e+01 4.814692e+00 2.104871e+01 3.141521e+00 1.298512e+00 1.404450e+00 1.203878e+00 1.443318e+00 1.103410e+00 2.229143e+00 6.561945e-01 6.887474e+00 5.158417e+00 5.528092e+00 1.301963e+00 3.494140e-01 2.860052e-01 1.193015e-01 2.001920e-01 6.027569e-02 1.488380e-01 7.901821e-01 3.395659e-01 7.098916e-02 5.622372e-01 5.627317e-01 5.329887e-01 1.244207e-01 1.602600e-01
<GCONST> 9.658736e+01
<MIXTURE> 2 6.536085e-01
<MEAN> 39
 -2.099841e+01 -2.258856e+00 5.547418e+00 -4.240344e+00 -6.296284e+00 1.301114e+00 -9.464734e-01 -7.173662e+00 5.097654e+00 -2.562633e+00 4.042909e-01 1.938887e+00 6.542054e+01 8.706032e-02 4.180100e-01 1.414275e+00 -7.216650e-02 -1.572945e+00 -6.846998e-01 -9.935344e-02 -1.367088e+00 -9.071836e-01 -8.607617e-02 -5.365416e-01 -3.791888e-01 1.275706e+00 8.502036e-01 1.966213e-01 1.135156e-01 3.928579e-01 -1.383812e-01 -3.816991e-01 -5.197903e-02 -3.073524e-02 -5.943303e-01 -6.155841e-02 6.620844e-02 -2.960806e-01 -3.074045e-01
<VARIANCE> 39
 1.217198e+01 2.331959e+01 3.005468e+01 2.044259e+01 2.966429e+01 2.080919e+01 2.808422e+01 3.468493e+01 3.529713e+01 2.821822e+01 1.935819e+01 1.613069e+01 3.257515e+01 5.029759e+00 1.960270e+00 1.896505e+00 2.750252e+00 2.475839e+00 2.683664e+00 2.085269e+00 3.445403e+00 4.666470e+00 1.823484e+00 1.570575e+00 3.001908e+00 2.461899e+00 4.412869e-01 4.108918e-01 4.029424e-01 4.294983e-01 6.196116e-01 5.983467e-01 5.356964e-01 6.690162e-01 5.196258e-01 4.487797e-01 5.063898e-01 4.533036e-01 5.034997e-01
<GCONST> 1.164893e+02
<MIXTURE> 3 1.960768e-01
<MEAN> 39
 -9.244575e+00 -4.297554e-01 1.273924e+01 -2.294203e+00 -2.217819e+01 -8.466051e+00 -8.261387e+00 -1.718748e+01 -1.018035e+01 -8.892170e+00 1.347863e+00 -7.968894e+00 7.061191e+01 2.238382e+00 -4.255162e-01 5.446248e-01 -2.633878e-02 -3.526688e+00 -2.640220e+00 -1.447441e+00 -3.408082e-01 -9.827737e-01 -1.603688e+00 2.173565e+00 -1.289978e+00 8.293638e-01 -6.931545e-01 -3.601390e-01 -6.773574e-01 -1.197609e-01 8.534996e-01 5.610787e-01 2.897955e-01 1.173501e+00 8.929070e-01 3.931766e-01 4.346950e-01 9.245465e-01 -3.200135e-01
<VARIANCE> 39
 1.072952e+01 3.236417e+01 2.038368e+01 1.382297e+01 3.392228e+01 1.326145e+01 1.759763e+01 2.402577e+01 1.101787e+01 3.837215e+01 3.865660e+01 9.537689e+00 7.814586e+00 2.022022e+00 9.735152e-01 1.911774e+00 1.086688e+00 4.616620e+00 2.397233e+00 1.979350e+00 3.759150e+00 3.280769e+00 3.278506e+00 5.178431e+00 2.349010e+00 4.982727e-01 1.365538e-01 1.644699e-01 1.142943e-01 2.073740e-01 6.552393e-01 2.907342e-01 1.706511e-01 2.888958e-01 3.032933e-01 3.363589e-01 7.542313e-01 1.558231e-01 9.809420e-02
<GCONST> 1.003819e+02
<STATE> 3
<NUMMIXES> 3
<MIXTURE> 1 2.149168e-01
<MEAN> 39
 -3.875290e+00 -7.482658e-01 1.148143e+01 2.000282e-01 -9.407966e+00 -1.667297e+01 2.139257e+00 7.000542e-01 -9.918490e+00 3.348407e+00 -3.578581e+00 4.551348e+00 7.877164e+01 2.294533e-01 -6.019313e-02 -4.922231e-01 -2.856882e-01 6.522972e-01 -8.390077e-01 1.159097e-02 2.251970e-01 4.995741e-01 -2.145177e-01 -4.630795e-02 5.291490e-01 -3.108413e-01 -5.527316e-02 1.857653e-01 3.949888e-02 -5.513380e-02 6.763837e-02 1.473870e-01 1.132509e-02 -1.585717e-01 1.838815e-01 1.224415e-02 -3.106611e-02 5.672441e-02 -1.737206e-01
<VARIANCE> 39
 2.861705e+00 3.287981e+00 8.916989e+00 7.427044e+00 8.251882e+00 1.381666e+01 3.713266e+00 3.474041e+00 7.787872e+00 3.683596e+00 2.564193e+00 8.634912e+00 1.959522e+00 1.042941e-01 5.708891e-01 3.286310e-01 2.121419e-01 3.057728e-01 5.060189e-01 5.997476e-01 5.243716e-01 5.423353e-01 4.613947e-01 1.892150e-01 4.553478e-01 2.681183e-01 4.087033e-02 3.641262e-02 5.213653e-02 5.223995e-02 1.174068e-01 1.342395e-01 1.589842e-01 8.560206e-02 1.319716e-01 7.664797e-02 5.660108e-02 1.241811e-01 1.776458e-02
<GCONST> 4.442634e+01
<MIXTURE> 2 4.418067e-01
<MEAN> 39
 -1.012572e+01 6.755007e-01 6.675466e+00 2.130898e+00 -1.502245e+01 -1.486593e+01 -1.293921e+01 -6.610620e+00 -6.080445e+00 -1.746325e+01 7.300058e+00 8.397217e-01 7.461282e+01 3.396174e-01 -8.396669e-02 -3.326859e-01 2.348613e-01 8.383491e-01 -1.759921e-01 -5.709144e-01 6.180936e-01 2.096061e-01 9.878542e-02 -1.456559e-01 4.951985e-01 -2.432695e-01 1.032746e-02 5.446600e-02 -3.055098e-02 1.929258e-02 1.282219e-01 1.085021e-01 -3.538922e-02 -9.218941e-02 9.425614e-03 1.834988e-01 -1.625303e-01 1.514739e-02 -1.464116e-01
<VARIANCE> 39
 4.977901e+00 1.466758e+01 1.352949e+01 1.438227e+01 6.107032e+01 3.307352e+01 1.328358e+01 2.209045e+01 1.057593e+02 8.183798e+00 2.026215e+01 2.409158e+01 3.152617e+00 1.428886e-01 1.565206e-01 4.818860e-01 6.144340e-01 7.095897e-01 1.209353e+00 1.193637e+00 1.138472e+00 9.357774e-01 1.184715e+00 2.382765e+00 1.738196e+00 3.601810e-01 3.310120e-02 3.561474e-02 1.025364e-01 1.155506e-01 2.665911e-01 3.027256e-01 2.616450e-01 2.305982e-01 1.824821e-01 2.769904e-01 5.606658e-01 3.472965e-01 4.216463e-02
<GCONST> 7.998190e+01
<MIXTURE> 3 3.432765e-01
<MEAN> 39
 -3.257077e+00 -6.910386e+00 1.133379e+01 -3.041302e+00 -2.145646e+01 -1.402305e+01 -1.184229e+01 -9.650887e+00 -5.208082e+00 -1.099709e+01 7.799563e+00 -4.099311e+00 6.941254e+01 4.026129e-01 9.691893e-02 -7.452512e-01 2.436817e-01 8.690397e-01 -5.235422e-01 -5.408713e-01 1.050008e+00 8.566975e-01 -1.432249e-01 -1.076827e-01 7.718934e-01 -2.110509e-01 -4.165482e-02 1.957892e-01 -1.611506e-02 5.634460e-02 1.120703e-01 1.000257e-01 2.060745e-02 -1.591004e-01 -2.651392e-02 1.488959e-01 -1.600747e-01 1.638420e-01 -1.173818e-01
<VARIANCE> 39
 5.220555e+00 3.470560e+01 1.282101e+01 6.587994e+00 2.475626e+01 5.126599e+00 1.504122e+01 1.927787e+01 1.966154e+01 6.153981e+01 4.426266e+01 1.118932e+01 9.668826e-01 8.815691e-02 6.676155e-01 3.039727e-01 6.027722e-01 6.244997e-01 9.593195e-01 1.227360e+00 9.626410e-01 9.019673e-01 9.528037e-01 1.933921e+00 2.054423e+00 1.738858e-01 3.177017e-02 8.132597e-02 5.138603e-02 1.088805e-01 2.337029e-01 1.187024e-01 2.275349e-01 1.551777e-01 1.855129e-01 2.787485e-01 2.775704e-01 3.201292e-01 2.186607e-02
<GCONST> 7.242097e+01
<STATE> 4
<NUMMIXES> 3
<MIXTURE> 1 3.670428e-01
<MEAN> 39
 -4.729054e+00 3.231785e+00 3.717024e+00 2.315921e+00 -7.579186e+00 -1.621007e+01 -8.963092e+00 -4.772526e+00 -5.862061e+00 -3.900318e+00 1.495611e+00 7.112031e+00 6.701774e+01 -2.442312e-01 4.813069e-02 -3.115720e-01 1.527249e-01 7.321092e-01 8.324106e-01 4.034635e-01 -5.573103e-02 1.570585e-01 4.129661e-01 1.578536e-02 1.241144e-01 -1.159339e+00 -1.218098e-01 -8.710790e-02 1.931460e-02 1.099169e-02 1.149224e-01 3.531510e-01 1.071851e-01 2.607338e-02 -2.390366e-02 5.378687e-02 7.357810e-02 -2.574464e-01 -6.235841e-02
<VARIANCE> 39
 3.728702e+00 4.774994e+00 1.407525e+01 2.152972e+01 9.099910e+00 2.206854e+01 7.135210e+01 2.350879e+01 1.550916e+01 4.115998e+01 3.293021e+01 9.008290e+00 1.467255e+01 3.729734e-01 4.814842e-01 4.130683e-01 7.935542e-01 8.891842e-01 1.447325e+00 1.488350e+00 1.377787e+00 9.664117e-01 1.422366e+00 1.451893e+00 1.814823e+00 5.962197e-01 3.377271e-02 6.654704e-02 9.092202e-02 1.630448e-01 1.581254e-01 2.216700e-01 2.558071e-01 2.713970e-01 1.860472e-01 2.564653e-01 2.636773e-01 2.130445e-01 4.522708e-02
<GCONST> 8.139738e+01
<MIXTURE> 2 3.659831e-01
<MEAN> 39
 -1.619499e+00 -1.704441e+00 7.666981e+00 -6.147292e-01 -7.673315e+00 -1.678544e+01 -1.636514e+01 -4.607071e+00 2.703605e+00 -8.331314e+00 6.447808e+00 -2.522863e-01 6.198021e+01 -1.352020e-01 5.740713e-01 -4.012386e-01 2.005797e-01 7.263868e-01 2.636878e-01 6.703283e-02 -3.188788e-02 -4.748539e-01 1.069752e+00 -7.561629e-02 -9.128939e-02 -1.148221e+00 -1.437756e-01 1.517666e-02 -5.356259e-02 9.553595e-03 2.036583e-02 1.248199e-01 2.509299e-01 1.165239e-02 -1.070378e-01 -5.997146e-02 -9.674399e-02 -3.198027e-02 -8.917174e-02
<VARIANCE> 39
 9.005642e+00 1.203416e+01 9.236809e+00 2.495178e+01 7.034659e+01 1.515264e+01 1.378690e+01 1.012077e+01 1.445794e+01 2.137696e+01 8.203731e+00 5.739872e+00 2.085213e+01 6.394675e-01 1.303042e+00 7.140059e-01 7.395583e-01 6.484895e-01 7.957388e-01 1.209821e+00 8.365823e-01 6.354591e-01 1.175390e+00 6.747425e-01 6.599036e-01 5.122725e-01 6.455110e-02 2.774629e-01 1.324527e-01 9.868905e-02 1.438562e-01 2.165182e-01 1.587906e-01 1.448542e-01 1.527968e-01 2.161436e-01 1.396743e-01 1.273787e-01 8.934854e-02
<GCONST> 7.763997e+01
<MIXTURE> 3 2.669741e-01
<MEAN> 39
 -7.557697e+00 2.571848e+00 1.762716e+00 2.289091e+00 -1.024045e+00 -6.126160e+00 -4.860559e+00 -3.625728e+00 -2.953206e+00 -9.512342e-01 2.263205e+00 1.340560e+00 5.584106e+01 -6.470726e-01 -1.321694e-01 -7.210907e-01 3.794131e-01 9.872901e-01 2.564200e+00 1.513627e+00 4.983464e-01 2.361436e-01 1.345044e-01 -4.205792e-01 -3.319466e-01 -1.396726e+00 7.878556e-02 -1.570688e-01 3.397284e-03 -3.466497e-02 -1.561345e-01 -1.190563e-01 6.548848e-03 1.671249e-01 2.064914e-01 -1.691228e-01 -8.049811e-02 1.172671e-01 2.805763e-01
<VARIANCE> 39
 4.217104e+00 9.259951e+00 1.130028e+01 1.797139e+01 2.085724e+01 3.425217e+01 3.415678e+01 1.820935e+01 1.992035e+01 1.706026e+01 2.063697e+01 2.415206e+01 2.893347e+01 4.707066e-01 9.456010e-01 6.669077e-01 7.172682e-01 2.191184e+00 1.513700e+00 2.628653e+00 2.432858e+00 9.443238e-01 1.320695e+00 2.334383e+00 1.861552e+00 1.087984e+00 3.825564e-02 9.931483e-02 7.248359e-02 1.642062e-01 1.959688e-01 5.121106e-01 3.220991e-01 3.602373e-01 1.463560e-01 2.451164e-01 2.963534e-01 2.487915e-01 1.112754e-01
<GCONST> 8.975932e+01
<TRANSP> 5
 0.000000e+00 1.000000e+00 0.000000e+00 0.000000e+00 0.000000e+00
 0.000000e+00 9.019610e-01 9.803896e-02 0.000000e+00 0.000000e+00
 0.000000e+00 0.000000e+00 9.078774e-01 9.212262e-02 0.000000e+00
 0.000000e+00 0.000000e+00 0.000000e+00 9.272456e-01 7.275448e-02
 0.000000e+00 0.000000e+00 0.000000e+00 0.000000e+00 0.000000e+00
<ENDHMM>
