~o
<STREAMINFO> 1 39
<VECSIZE> 39<NULLD><MFCC_D_A_0><DIAGC>
~h "ni"
<BEGINHMM>
<NUMSTATES> 5
<STATE> 2
<NUMMIXES> 3
<MIXTURE> 1 3.211974e-01
<MEAN> 39
 -8.615337e+00 8.541613e+00 1.230292e+01 -1.261931e+01 7.825322e-01 2.106362e+00 -1.248617e+01 -7.475924e+00 -7.060912e-01 -2.888811e+00 -6.330393e-01 -6.139859e+00 7.162955e+01 -7.200822e-01 -3.774934e-01 1.306612e+00 -2.657368e+00 -2.439237e-02 1.520767e+00 -1.625752e+00 -9.330059e-02 1.576673e-01 -3.462984e-01 3.132055e-01 -1.144736e+00 1.360942e+00 2.081771e-01 -1.090364e-01 -4.568017e-01 8.321273e-01 -7.803629e-02 -9.022527e-02 4.924465e-01 2.236715e-01 8.920580e-02 -7.486945e-02 -1.110256e-02 2.701098e-01 -4.958758e-01
<VARIANCE> 39
 5.103864e+00 2.037739e+01 2.413654e+01 4.303138e+01 6.723094e+00 3.372448e+01 1.473484e+01 2.276143e+01 3.396923e+01 6.938187e+01 1.212594e+01 3.633572e+01 8.818098e+00 6.755477e-01 3.391974e-01 6.543297e-01 2.774633e+00 1.074089e+00 1.481494e+00 8.280950e-01 1.210923e+00 1.124766e+00 5.746883e-01 1.053580e+00 1.374876e+00 6.018604e-01 1.124806e-01 1.694599e-01 7.732550e-02 3.099617e-01 1.880136e-01 2.174630e-01 1.228777e-01 4.153365e-01 2.837096e-01 1.853508e-01 2.065104e-01 1.924769e-01 1.721875e-02
<GCONST> 8.545749e+01
<MIXTURE> 2 4.648087e-01
<MEAN> 39
 -2.909079e+00 9.122615e+00 4.320611e+00 2.538074e+00 -1.611140e+00 -3.174556e+00 -3.757143e+00 -8.227325e+00 -1.499150e+00 -5.311953e+00 -2.451014e+00 -3.392117e-01 5.994265e+01 1.583871e-01 9.429840e-01 1.294088e+00 -1.711747e+00 -5.654855e-01 -4.209043e-01 -1.668790e+00 -1.117172e+00 -1.814241e-01 4.830475e-02 -9.495362e-03 -5.573177e-01 2.265005e+00 -4.734975e-01 -3.209037e-01 6.643914e-02 -6.207765e-01 1.125140e-01 4.228336e-01 -1.963619e-01 2.522877e-01 6.075429e-02 1.753628e-01 2.344525e-01 -1.524694e-01 5.156547e-02
<VARIANCE> 39
 1.403624e+01 1.097473e+01 2.321102e+01 2.936635e+01 2.515185e+01 3.206855e+01 2.362441e+01 4.709069e+01 1.168586e+02 3.373124e+01 9.595657e+00 1.968637e+01 3.022780e+01 3.551536e+00 1.101572e+00 1.983669e+00 5.076264e+00 2.417280e+00 2.258011e+00 2.239165e+00 5.022503e+00 4.644615e+00 1.874445e+00 2.011687e+00 1.555067e+00 5.484501e-01 2.165562e-01 1.930481e-01 2.279056e-01 5.280945e-01 3.259884e-01 4.900680e-01 3.776028e-01 5.519303e-01 6.969395e-01 3.217261e-01 2.544909e-01 3.107004e-01 9.199855e-02
<GCONST> 1.092572e+02
<MIXTURE> 3 2.139939e-01
<MEAN> 39
 8.999432e-01 7.805079e+00 1.192764e+01 -4.560238e+00 -1.360149e+01 7.128423e-01 -1.828680e+00 -1.841780e+01 -7.195843e+00 5.796247e+00 5.439894e+00 -7.067615e+00 5.597812e+01 1.699504e-03 -1.383818e-01 9.046500e-01 -2.725103e+00 -9.757183e-01 4.245864e-01 -1.013589e-01 -4.632071e-01 -1.164536e-02 -2.401065e-01 -9.410658e-02 8.206363e-02 1.410064e+00 -3.526342e-01 -1.519537e-01 -9.991410e-02 -1.318618e-01 2.887321e-01 1.097231e-01 -3.087740e-02 6.553022e-01 9.062324e-02 -3.006333e-01 -2.713538e-01 9.975991e-02 -1.440671e-01
<VARIANCE> 39
 3.726052e+00 1.538464e+00 8.158104e+00 8.772247e+01 1.089268e+01 1.309236e+01 9.266695e+00 6.695379e+00 9.680017e+00 7.051818e+00 1.400455e+01 1.130569e+01 1.148673e+01 1.359516e+00 2.608612e-01 7.394899e-01 4.418160e+00 3.239397e+00 1.736723e+00 1.895333e+00 3.599885e+00 1.425356e+00 1.415360e+00 3.622182e+00 2.631648e+00 2.698577e-01 2.204990e-01 1.150884e-01 2.004421e-01 1.171795e+00 5.626561e-01 2.775635e-01 4.578938e-01 7.882584e-01 4.059928e-01 2.123485e-01 7.566183e-01 6.220435e-01 9.415163e-02
<GCONST> 9.268944e+01
<STATE> 3
<NUMMIXES> 3
<MIXTURE> 1 5.358152e-01
<MEAN> 39
 -8.431697e+00 9.633371e+00 9.492118e+00 -1.226783e+01 -1.712395e-01 2.525506e+00 -1.444190e+01 -6.160556e+00 -2.787742e+00 -8.848544e+00 -3.620791e+00 -6.937679e+00 6.935361e+01 3.147651e-02 -6.790587e-02 -2.770302e-01 1.467830e-01 1.333043e-02 -1.958745e-01 1.146383e-01 3.610313e-01 3.000366e-02 -2.507522e-01 1.668804e-02 3.447447e-01 -6.389198e-01 -2.002096e-02 -9.329417e-02 -5.694805e-02 2.846926e-01 3.320193e-02 -5.751768e-02 2.147898e-01 3.684479e-02 -2.823113e-02 1.336076e-01 3.487561e-02 1.166323e-01 -2.010428e-01
<VARIANCE> 39
 4.786228e+00 8.127288e+00 1.209243e+01 1.032580e+01 1.315693e+01 5.111747e+01 1.281801e+01 1.254831e+01 1.203702e+01 7.935602e+01 2.118430e+01 2.549377e+01 1.523647e+01 3.037405e-01 3.830258e-01 5.241657e-01 8.682585e-01 4.849558e-01 1.068041e+00 1.036950e+00 1.225254e+00 7.514575e-01 2.147494e+00 9.440429e-01 1.011105e+00 7.321814e-01 5.718732e-02 9.570733e-02 1.399940e-01 1.070689e-01 7.803188e-02 1.628947e-01 1.786585e-01 2.258985e-01 1.562290e-01 2.855948e-01 1.506168e-01 1.798049e-01 4.208589e-02
<GCONST> 7.752753e+01
<MIXTURE> 2 2.828577e-01
<MEAN> 39
 -1.192705e+01 6.192972e+00 1.924453e+01 -2.293455e+01 -1.174676e+00 -3.402332e+00 -1.601405e+01 -1.030104e+01 5.648985e+00 -8.739244e+00 8.174693e+00 -2.506465e+00 7.054885e+01 -2.788086e-02 1.829685e-01 1.140689e-01 -3.542970e-02 -1.559520e-01 -4.757307e-01 3.004312e-01 -1.165742e-01 -4.473670e-02 8.176960e-03 3.193397e-01 -1.417275e-01 -3.645404e-01 2.883792e-02 -2.310147e-02 -4.102419e-02 2.940407e-02 1.310684e-02 -1.165472e-01 5.566301e-02 3.356696e-02 5.168833e-03 1.859345e-02 -6.698425e-02 3.764960e-02 -1.039008e-01
<VARIANCE> 39
 1.213218e+00 4.615352e+00 4.440048e+00 9.751222e+00 3.781661e+00 2.295045e+01 2.893061e+01 4.943132e+01 2.837235e+01 5.273694e+00 1.850015e+01 7.159762e+00 5.584069e+00 8.857419e-02 3.101640e-01 2.190507e-01 2.786185e-01 1.418594e-01 7.857105e-01 7.924013e-01 5.448193e-01 4.083592e-01 2.650717e-01 4.626359e-01 4.581147e-01 2.113168e-01 1.678769e-02 6.661698e-02 3.869644e-02 6.880106e-02 2.440825e-02 1.483402e-01 1.848474e-01 1.303361e-01 7.223451e-02 5.736564e-02 1.144239e-01 1.022324e-01 1.346604e-02
<GCONST> 4.944353e+01
<MIXTURE> 3 1.813272e-01
<MEAN> 39
 -1.794608e+00 2.077874e+00 1.842551e+01 -2.193301e+01 -1.893229e+01 4.947992e+00 -9.293620e+00 -1.555973e+01 -1.057198e+01 1.752544e+00 2.749972e+00 -7.288686e+00 6.398314e+01 -8.752879e-02 -5.371807e-01 2.919275e-02 -4.247551e-01 -3.469919e-01 -4.534051e-02 -1.088767e+00 7.742396e-02 -4.869455e-01 2.028220e-01 2.394686e-01 -3.059669e-01 -5.601493e-02 -7.391188e-02 1.026984e-01 -7.963797e-02 8.362502e-02 1.102592e-01 -2.195346e-02 -1.208017e-02 -5.730776e-02 1.236588e-01 1.782499e-01 1.395526e-01 1.145178e-02 -2.399491e-01
<VARIANCE> 39
 9.915813e-01 7.204443e+00 6.391179e+00 5.617388e+00 7.783547e+00 7.791259e+00 1.732654e+01 8.243628e+00 1.032003e+01 5.242870e+00 5.424214e+00 5.386097e+00 2.984717e+00 1.045550e-01 7.792664e-01 8.695730e-01 2.927915e-01 9.888797e-01 3.775756e-01 4.077409e-01 8.645466e-01 7.088102e-01 9.465633e-01 1.148844e+00 5.270378e-01 5.550115e-01 5.686102e-02 7.968239e-02 1.441031e-01 1.444103e-01 1.484855e-01 1.092717e-01 7.081092e-02 1.999655e-01 1.153154e-01 1.432613e-01 1.887979e-01 1.347203e-01 1.090879e-02
<GCONST> 5.741647e+01
<STATE> 4
<NUMMIXES> 3
<MIXTURE> 1 6.769704e-01
<MEAN> 39
 -9.871758e+00 4.748082e+00 5.158209e+00 -4.462043e+00 6.399499e-01 1.636359e+00 -6.923360e+00 -2.161188e+00 -2.883058e+00 -4.136105e+00 3.920597e-01 -2.397740e+00 5.563758e+01 -1.361308e-01 -8.722220e-01 -1.479064e+00 2.232296e+00 7.033761e-01 4.614300e-01 1.735191e+00 7.549697e-01 3.428728e-01 6.145642e-01 3.713241e-01 7.859974e-01 -1.487782e+00 3.139044e-02 5.643999e-02 7.421473e-02 -2.585210e-01 -9.708019e-02 4.294731e-02 -7.205023e-02 -1.575956e-01 1.254081e-01 -1.088339e-02 2.531753e-02 -5.671254e-02 3.182248e-01
<VARIANCE> 39
 3.266453e+00 8.964391e+00 1.296129e+01 3.517900e+01 1.798010e+01 1.574104e+01 2.119214e+01 2.572580e+01 1.583731e+01 2.976619e+01 3.635799e+01 1.189275e+01 4.058942e+01 3.547335e-01 6.640375e-01 2.174075e+00 1.471888e+00 1.231478e+00 2.440793e+00 1.656494e+00 1.777590e+00 2.612371e+00 2.352394e+00 1.783332e+00 1.754718e+00 7.358935e-01 5.084454e-02 9.789790e-02 3.447501e-01 3.015434e-01 1.861839e-01 3.794311e-01 2.654466e-01 3.460483e-01 3.714529e-01 3.813332e-01 3.540484e-01 2.732199e-01 6.587736e-02
<GCONST> 9.398510e+01
<MIXTURE> 2 1.751797e-01
<MEAN> 39
 -1.217095e+01 6.789919e+00 1.672382e+01 -2.011595e+01 -3.541753e+00 -1.100746e+01 -1.222367e+01 -5.954933e+00 2.403685e+00 -6.629715e+00 8.524201e+00 -1.930977e+00 6.292503e+01 7.478715e-02 -6.194168e-01 -1.063297e+00 1.153940e+00 -8.865280e-03 3.616788e-01 4.058340e-01 9.295404e-01 -1.019863e+00 2.971190e-01 -1.168496e+00 3.005298e-01 -1.562842e+00 1.154122e-01 -4.440236e-02 -4.993165e-01 4.609660e-01 2.390163e-01 6.255530e-01 2.518397e-01 2.404361e-01 -2.683395e-01 -7.090353e-02 -1.587743e-01 -1.748274e-02 -2.976449e-01
<VARIANCE> 39
 2.370904e+00 1.017401e+01 1.142786e+01 2.445903e+01 7.170210e+00 1.112710e+01 2.370818e+01 6.676801e+01 4.173098e+01 1.338303e+01 5.320730e+01 1.088460e+01 9.575661e+00 2.449237e-01 3.178901e-01 1.263138e+00 1.973433e+00 1.007101e+00 1.489217e+00 5.750265e-01 1.217394e+00 8.088903e-01 5.589883e-01 2.034248e+00 6.163086e-01 1.074188e+00 6.040901e-02 1.023126e-01 8.963782e-02 2.514546e-01 1.783217e-01 3.145289e-01 7.701755e-02 2.745540e-01 1.607042e-01 1.810832e-01 4.514212e-01 1.606834e-01 8.664850e-02
<GCONST> 8.087637e+01
<MIXTURE> 3 1.478498e-01
<MEAN> 39
 -7.808785e+00 1.415382e+00 1.572121e+01 -2.264532e+01 -1.538141e+01 4.623897e+00 -1.773377e+01 -1.184005e+01 -1.018617e+01 7.651917e+00 9.509365e+00 -8.614889e+00 5.506774e+01 -1.715418e+00 1.744920e-02 -1.675120e+00 2.566531e+00 1.934608e+00 -4.392705e-01 9.067365e-01 2.317713e+00 1.336858e+00 2.211168e-01 8.257983e-01 8.433296e-01 -2.719823e+00 2.844947e-02 -2.250576e-02 -6.854268e-01 1.007432e+00 4.413958e-01 -3.315279e-01 8.855552e-01 4.255325e-01 4.720247e-01 -4.178559e-01 -4.984923e-01 5.191169e-01 -1.773123e-01
<VARIANCE> 39
 1.194993e+01 1.070979e+00 8.934609e+00 2.762934e+01 2.281633e+01 7.075402e+00 7.144389e+00 1.791148e+01 7.156009e+00 1.288335e+01 8.142789e+00 1.128686e+01 2.109086e+01 2.567874e-01 2.299153e-01 3.622974e+00 6.299038e+00 1.920165e+00 1.667744e+00 3.791971e+00 1.335401e+00 9.742758e-01 1.501470e+00 1.050388e+00 2.233497e+00 3.572600e-01 1.407374e-01 5.032467e-02 2.641827e-01 4.091306e-01 2.329588e-01 2.059974e-01 1.345753e-01 2.159348e-01 8.902683e-02 1.712355e-01 7.501145e-02 2.302455e-01 1.248542e-01
<GCONST> 8.097963e+01
<TRANSP> 5
 0.000000e+00 1.000000e+00 0.000000e+00 0.000000e+00 0.000000e+00
 0.000000e+00 8.802695e-01 1.197305e-01 0.000000e+00 0.000000e+00
 0.000000e+00 0.000000e+00 9.200019e-01 7.999813e-02 0.000000e+00
 0.000000e+00 0.000000e+00 0.000000e+00 8.613883e-01 1.386118e-01
 0.000000e+00 0.000000e+00 0.000000e+00 0.000000e+00 0.000000e+00
<ENDHMM>
