~o
<STREAMINFO> 1 39
<VECSIZE> 39<NULLD><MFCC_D_A_0><DIAGC>
~h "yon"
<BEGINHMM>
<NUMSTATES> 8
<STATE> 2
<NUMMIXES> 3
<MIXTURE> 1 4.362148e-01
<MEAN> 39
 -4.490883e+00 -8.806344e-01 1.190535e+01 -2.801174e+00 -1.666995e+01 -6.669795e+00 -8.015148e+00 -3.864534e+00 -6.086427e+00 -5.996834e+00 5.957040e+00 -2.238370e+00 7.127010e+01 1.224627e+00 -2.815600e+00 -4.278536e+00 -2.247659e-01 1.837173e+00 -2.139028e+00 -5.467840e-01 1.991809e+00 2.465542e+00 5.083943e-01 -1.002148e+00 -9.382601e-01 2.138003e+00 -8.290590e-02 1.461395e-01 -1.154325e+00 -2.743560e-01 1.976153e+00 9.107705e-01 -2.744727e-01 -2.298477e-01 1.220031e+00 2.405424e-01 -6.431839e-01 -5.744186e-01 -5.784212e-01
<VARIANCE> 39
 1.049663e+01 1.451465e+01 3.960166e+01 4.718436e+01 4.069787e+01 1.786041e+01 3.818629e+01 4.216204e+01 6.232976e+01 7.570596e+01 2.813194e+01 2.063157e+01 1.569780e+01 2.169198e-01 2.896181e-01 1.943837e+00 1.975870e+00 4.550744e+00 1.857495e+00 2.628680e+00 1.218140e+00 3.522962e+00 2.300883e+00 1.830515e+00 1.130537e+00 4.275425e-01 3.403596e-02 2.256471e-01 6.897988e-01 5.043522e-01 5.121613e-01 6.357927e-01 4.064288e-01 7.381982e-01 6.240888e-01 6.592167e-01 4.642700e-01 3.385941e-01 6.858800e-02
<GCONST> 1.059635e+02
<MIXTURE> 2 1.025547e-01
<MEAN> 39
 -9.520042e+00 4.188748e+00 2.217783e+01 -1.870336e+01 -5.626269e+00 -6.322931e+00 -1.206765e+01 -1.146233e+01 7.359669e+00 -1.499430e+01 8.267043e+00 4.820974e-01 6.505482e+01 5.221886e-01 -1.434048e+00 9.864327e-01 -1.944966e-01 -1.576544e+00 -1.699642e+00 -3.451090e-01 -1.187531e+00 3.612016e-01 1.491604e-01 -7.532173e-01 9.555093e-01 2.795315e+00 3.444749e-01 -7.199639e-01 -1.793716e+00 1.395912e+00 1.233847e-01 2.195887e-01 9.325583e-01 1.042859e+00 -1.292383e-01 8.608308e-01 -7.241539e-01 2.872129e-02 -5.617396e-01
<VARIANCE> 39
 8.573400e-01 1.558744e+01 7.264557e+00 9.593352e+00 9.793662e+00 1.656932e+01 8.559485e+00 3.068871e+01 4.951653e+01 4.672713e+00 2.700730e+01 9.457128e+00 6.775065e+00 3.398677e-01 1.187915e+00 7.713400e+00 7.838617e+00 1.103383e-01 1.199013e+00 4.656735e+00 3.807147e+00 1.840447e+00 3.394586e+00 1.790308e+00 5.553724e-01 1.618385e+00 3.421953e-02 1.208177e-01 1.970275e-01 6.830048e-01 2.232953e-01 2.844956e-01 9.326393e-01 2.371106e-01 5.152019e-01 4.313257e-01 4.518666e-01 3.282716e-01 8.954065e-02
<GCONST> 9.084484e+01
<MIXTURE> 3 4.612305e-01
<MEAN> 39
 -7.299198e+00 6.257815e+00 1.763401e+01 5.973071e-01 -1.249780e+01 2.418025e+00 -9.255305e+00 -6.895881e+00 -6.093530e+00 -7.527798e+00 3.787731e+00 -2.760919e+00 6.236510e+01 1.303815e+00 -3.557626e-01 2.059897e+00 -1.138220e+00 -4.720222e+00 -1.938230e+00 -1.299010e+00 -5.936233e-01 -1.622429e+00 -4.516858e-01 1.108431e+00 -5.163922e-01 3.658703e+00 -7.244036e-03 -1.057695e+00 -1.937224e+00 -4.469106e-02 8.881886e-01 -5.436265e-01 6.622659e-01 8.598552e-01 6.109259e-01 6.035177e-01 -1.670098e-01 2.584281e-01 -4.832323e-02
<VARIANCE> 39
 4.183455e+00 1.153901e+01 6.958356e+01 2.829943e+01 1.034251e+02 1.551328e+01 4.252039e+01 2.617544e+01 3.285226e+01 7.688446e+01 3.037508e+01 2.454420e+01 2.554795e+01 5.572448e-01 2.890266e+00 1.017655e+01 1.933841e+00 4.013812e+00 1.926696e+00 5.432192e+00 2.972692e+00 1.615170e+00 4.452817e+00 2.618994e+00 1.473492e+00 1.138758e+00 6.660648e-02 2.356103e-01 1.015709e+00 4.709375e-01 1.873496e+00 2.754211e-01 5.398707e-01 3.218159e-01 7.917360e-01 6.877007e-01 5.187688e-01 3.404970e-01 2.470765e-01
<GCONST> 1.159172e+02
<STATE> 3
<NUMMIXES> 3
<MIXTURE> 1 1.853808e-01
<MEAN> 39
 1.391945e+00 -3.127287e+00 -8.210253e+00 -9.280666e+00 5.395886e+00 1.392754e+00 -2.646739e+00 -1.305176e-01 3.203354e+00 6.829458e+00 -4.827001e+00 -7.007071e+00 8.056177e+01 3.211994e-01 8.494748e-01 -2.310020e+00 -1.531126e+00 1.404726e+00 2.559706e+00 6.012990e-01 -1.436686e+00 -1.277750e+00 -1.476012e-01 9.823430e-01 3.000159e-01 -1.115595e-01 -8.446535e-02 4.985027e-02 8.449224e-01 1.713380e-01 -8.991894e-01 -4.818779e-02 5.946606e-01 4.644742e-01 -1.038173e+00 -5.995821e-01 3.400510e-01 4.775434e-01 -2.261021e-01
<VARIANCE> 39
 3.248421e-01 4.212053e+00 1.363041e+01 8.601096e+00 1.536052e+01 1.991787e+01 6.605573e+00 1.152573e+01 8.260480e+00 8.179777e+00 1.232477e+01 4.792995e+00 2.045480e-01 8.158265e-02 1.226065e-01 1.648055e+00 3.733697e-01 2.743891e+00 1.433604e+00 1.057325e+00 1.634336e+00 2.303204e+00 2.024171e+00 9.675292e-01 1.024855e+00 1.060972e-01 1.552259e-02 1.260653e-01 2.632343e-02 7.061068e-02 2.143999e-01 3.966166e-01 7.417374e-02 3.420003e-01 4.595014e-01 1.369951e-01 6.565026e-01 2.146592e-01 1.668043e-02
<GCONST> 6.214771e+01
<MIXTURE> 2 3.289199e-01
<MEAN> 39
 -3.988545e+00 -2.667950e+00 -9.188201e+00 -1.091284e+01 2.816218e+00 -6.370240e-01 -1.245127e+01 -1.095966e+01 2.483824e+00 -6.732447e+00 3.019261e+00 -9.535542e+00 7.416559e+01 4.898815e-01 3.613388e-01 -1.415118e+00 -2.305937e+00 9.518667e-01 2.116579e+00 2.477741e+00 -1.703283e+00 -2.319984e+00 -5.968068e-01 8.208615e-01 7.697288e-01 -5.925343e-02 -7.353420e-03 1.507021e-01 1.008247e+00 2.341831e-01 -9.878041e-01 -4.246371e-01 7.194963e-01 6.600326e-01 -6.829266e-01 -6.065996e-01 -2.027347e-02 7.088616e-01 -2.426574e-01
<VARIANCE> 39
 2.998094e+00 5.593072e+00 2.023147e+01 2.313807e+01 1.920526e+01 4.255066e+01 8.668456e+01 3.214880e+01 3.200822e+01 2.891321e+01 4.036694e+01 1.688569e+01 6.754353e+00 1.291842e-01 1.827984e-01 1.219617e+00 1.974294e+00 1.080962e+00 1.995043e+00 1.249835e+00 2.087561e+00 1.842296e+00 4.892006e+00 8.488142e-01 4.563504e+00 8.795067e-02 2.694659e-02 3.911560e-02 6.729598e-02 1.736926e-01 1.720414e-01 2.220983e-01 6.189310e-01 4.707674e-01 6.099824e-01 6.931440e-01 4.399514e-01 3.694516e-01 2.082459e-02
<GCONST> 8.817979e+01
<MIXTURE> 3 4.856993e-01
<MEAN> 39
 -1.013045e+00 -6.866247e+00 -1.576117e+00 -6.647229e+00 -6.980524e+00 -6.449401e+00 -1.302197e+01 -3.109130e+00 6.739163e+00 -4.648607e+00 3.787363e-01 -8.157904e+00 7.388293e+01 7.846972e-01 -6.685414e-01 -4.252565e+00 -2.344826e+00 3.809008e+00 2.502774e+00 -8.894019e-01 -1.689035e+00 2.660963e+00 1.016547e+00 -1.386734e+00 -1.918983e+00 6.942120e-01 -2.358443e-01 7.576088e-01 7.168081e-01 -4.594033e-01 -3.171639e-01 1.119204e+00 5.360937e-01 -9.236585e-01 -1.171063e+00 -3.514093e-01 6.050358e-01 5.766827e-01 -4.348058e-01
<VARIANCE> 39
 1.778375e+01 1.678883e+01 3.070732e+01 3.934029e+01 3.805076e+01 3.436238e+01 6.213288e+01 4.749927e+01 3.778078e+01 4.650734e+01 1.857678e+01 2.772501e+01 9.808675e+00 1.564317e-01 6.472875e-01 1.456112e+00 2.512097e+00 1.498957e+00 3.755175e+00 2.002300e+00 2.469636e+00 3.880425e+00 3.286798e+00 1.898740e+00 2.804424e+00 2.328004e-01 2.691633e-02 5.906349e-02 3.192907e-01 2.649589e-01 3.091224e-01 8.306847e-01 4.189515e-01 7.267838e-01 4.511968e-01 9.898872e-01 2.675820e-01 8.124991e-01 2.569656e-02
<GCONST> 1.032754e+02
<STATE> 4
<NUMMIXES> 3
<MIXTURE> 1 5.002106e-01
<MEAN> 39
 -5.957518e-01 -9.830164e-01 -8.133187e+00 -1.346532e+01 4.191445e+00 -1.002397e+00 1.647808e+00 -5.574295e+00 -8.363050e+00 -3.283735e+00 -8.498267e-02 -7.733648e+00 7.379939e+01 1.365267e-01 2.896479e-01 3.264412e-01 2.715630e-02 -7.788523e-01 3.542656e-02 7.580065e-01 1.070273e+00 -1.090461e+00 -4.004175e-01 -1.199299e+00 2.228223e-01 -4.506097e-01 -7.508990e-02 7.039654e-03 1.733764e-01 2.670282e-01 -1.017155e-01 -8.638228e-02 -2.882118e-01 1.523449e-01 4.649720e-01 8.210730e-02 -3.501977e-01 -6.809824e-02 -9.330892e-02
<VARIANCE> 39
 7.050822e+00 4.121523e+00 1.040011e+01 4.505558e+01 9.346425e+00 4.831498e+01 3.482439e+01 2.743700e+01 9.630969e+00 4.325112e+01 3.869765e+01 7.366544e+00 1.481655e+01 6.235276e-02 1.638295e-01 1.358016e-01 5.073701e-01 7.087643e-01 6.281255e-01 7.664717e-01 4.129561e-01 1.442171e+00 1.076219e+00 1.014309e+00 2.000666e-01 1.149463e-01 1.507202e-02 3.296179e-02 6.691275e-02 9.401754e-02 1.303261e-01 1.283872e-01 9.388493e-02 1.336845e-01 1.316952e-01 1.986770e-01 2.522161e-01 8.717337e-02 9.324673e-03
<GCONST> 6.273446e+01
<MIXTURE> 2 2.871506e-01
<MEAN> 39
 -2.575733e+00 -1.205776e+00 -6.957547e+00 -1.941786e+01 -4.256652e+00 9.438614e+00 -5.052160e+00 -9.266674e+00 3.141754e+00 -2.026865e+01 9.123044e-01 -9.868419e-01 7.399835e+01 4.879313e-01 2.788268e-01 9.949140e-01 -2.979697e-01 -8.556080e-01 8.692066e-03 1.195421e+00 1.772645e+00 7.143828e-02 -2.946293e-01 -1.178900e+00 -2.873333e-01 -6.658843e-01 -2.369492e-02 -3.264416e-02 2.187471e-01 7.613785e-01 -4.529210e-02 -5.209301e-01 -7.669024e-01 3.107585e-01 1.675944e-01 1.034676e+00 -9.684850e-02 -5.983384e-01 -6.981248e-02
<VARIANCE> 39
 3.039977e+00 2.730972e+00 4.183550e+01 5.318211e+00 8.299443e+00 1.144508e+01 2.175903e+01 6.077583e+01 2.827412e+01 4.032615e+01 1.064412e+01 1.140046e+01 1.573050e+00 2.947782e-01 3.356125e-01 6.552700e-01 2.674857e+00 6.325359e-01 8.822820e-01 4.791764e+00 1.461005e+00 9.358090e-01 6.456234e+00 1.018450e+00 2.750458e+00 2.023247e-01 3.599082e-02 6.358495e-02 1.591581e-01 2.764708e-01 1.740261e-01 8.784463e-02 4.246719e-01 5.908008e-01 3.261907e-01 5.976575e-01 2.747914e-01 4.716523e-01 1.655039e-02
<GCONST> 8.152524e+01
<MIXTURE> 3 2.126389e-01
<MEAN> 39
 4.967735e+00 -1.005088e+01 -8.675162e+00 -2.200153e+01 -6.707649e+00 1.034769e+01 -1.253095e+01 -1.291696e+01 6.448031e+00 -7.647925e+00 5.387793e+00 -5.952859e+00 7.085043e+01 -1.988734e-02 6.599715e-01 -1.741932e-02 -3.176548e-01 -2.457447e-01 6.675624e-01 8.256610e-01 4.760030e-01 -1.739296e+00 -1.751988e+00 1.474118e+00 9.407093e-01 -4.725293e-01 -4.472101e-03 2.208015e-01 2.368755e-01 8.389268e-01 -5.232431e-01 -9.401599e-01 2.469393e-01 3.872849e-01 -2.628827e-01 4.875154e-01 -8.257180e-02 -5.012811e-01 -2.039678e-01
<VARIANCE> 39
 3.233804e-01 7.972970e+00 5.856282e+00 5.833526e+00 6.871441e+00 1.981693e+01 8.060879e+00 1.898826e+01 1.231401e+01 1.740280e+01 2.378452e+01 1.138842e+01 7.442521e-01 9.951343e-02 3.085360e-01 5.846148e-01 2.483745e+00 1.283290e+00 3.527583e+00 1.182208e+00 1.636003e+00 2.567900e-01 1.921958e+00 1.087767e+00 3.574524e+00 1.847357e-01 3.126103e-02 1.742190e-02 2.357632e-01 3.606846e-02 2.013953e-01 1.494409e-01 1.455584e-01 4.022693e-01 1.170085e-01 5.179378e-01 4.785611e-01 4.201480e-01 1.134600e-02
<GCONST> 6.728584e+01
<STATE> 5
<NUMMIXES> 3
<MIXTURE> 1 2.246992e-01
<MEAN> 39
 2.415048e+00 -4.768484e-01 -5.513991e+00 -1.000755e+01 7.153414e-01 1.029974e+01 6.521219e+00 5.334486e+00 -9.727134e+00 1.724225e+00 -1.492797e+01 -6.143824e+00 7.460006e+01 -4.109535e-01 6.718301e-01 1.397099e+00 1.364497e+00 1.131633e-01 -7.055321e-01 1.748617e-01 4.639089e-01 -1.067469e-01 -2.454270e-01 -2.247379e+00 -7.757456e-01 -1.242045e+00 -1.064057e-01 1.924151e-01 1.277980e-01 2.140643e-01 4.629814e-01 -4.977649e-01 -2.883660e-01 -3.082475e-01 2.270075e-01 -9.471980e-02 5.042298e-01 -9.201588e-02 -1.562691e-01
<VARIANCE> 39
 2.974392e+00 1.903076e+00 1.154531e+01 4.032215e+00 2.551210e+00 6.286745e+00 7.249465e+00 3.999968e+00 2.469027e+00 1.531085e+00 2.659306e+01 4.855559e+00 2.921108e+00 1.519816e-01 4.470577e-01 5.029764e-01 3.511296e-01 1.373355e+00 2.228053e+00 9.187817e-01 6.226625e-01 3.242597e-01 4.031814e-01 1.574071e+00 3.798760e-01 1.993534e-01 5.957098e-02 5.992606e-02 1.251123e-01 4.839832e-02 8.869604e-02 1.847080e-01 2.683784e-01 5.868809e-02 3.596191e-02 5.726923e-02 4.386813e-01 8.320480e-02 1.450146e-02
<GCONST> 4.989793e+01
<MIXTURE> 2 5.781707e-01
<MEAN> 39
 -1.801040e+00 1.140695e+00 -3.583138e+00 -1.014491e+01 -2.401965e+00 3.684932e-01 -4.872674e+00 -3.435817e+00 -2.714967e+00 -7.830673e+00 -4.764920e+00 -5.714318e+00 6.850197e+01 -2.508906e-01 6.535318e-01 8.838736e-01 1.642042e+00 4.337755e-01 -3.942465e-01 -5.254495e-01 -6.671235e-01 -3.261023e-01 1.088651e+00 -4.575259e-01 5.779779e-01 -9.181567e-01 -1.079700e-01 6.324138e-02 5.128223e-02 4.319953e-02 2.462633e-01 4.135436e-03 6.670652e-02 -4.984389e-01 -1.744748e-01 -2.702844e-01 8.109567e-02 3.246314e-01 -4.756698e-02
<VARIANCE> 39
 3.448607e+00 3.895798e+00 1.469660e+01 4.604712e+01 1.756471e+01 4.328092e+01 2.932755e+01 3.092604e+01 6.724454e+01 3.166134e+01 5.646246e+00 8.940249e+00 5.082019e+00 1.114731e-01 5.212385e-01 6.898271e-01 1.003355e+00 1.218851e+00 1.068776e+00 1.082391e+00 1.648602e+00 1.412837e+00 2.838555e+00 1.012301e+00 1.161244e+00 9.657364e-02 1.333505e-02 8.280628e-02 8.843599e-02 2.027680e-01 2.014594e-01 9.165842e-02 1.909628e-01 2.405076e-01 2.296436e-01 2.385218e-01 2.405637e-01 1.161929e-01 1.896532e-02
<GCONST> 7.594073e+01
<MIXTURE> 3 1.971301e-01
<MEAN> 39
 5.739727e+00 -4.916142e+00 -6.672727e+00 -1.318207e+01 -1.118406e+01 5.301982e+00 -6.925634e+00 -1.077571e+01 -2.639799e+00 -5.290383e+00 7.720679e+00 -8.851296e+00 6.566502e+01 1.345678e-01 9.039359e-01 1.420402e+00 2.909685e+00 -4.095456e-01 -1.132525e+00 5.011069e-01 -1.353141e+00 -1.081124e+00 2.133152e+00 -6.319468e-01 -3.649904e-01 -1.378081e+00 -9.767673e-02 -8.396690e-02 4.095221e-01 5.046565e-02 1.671140e-01 1.779327e-01 -2.894325e-01 -5.619273e-01 2.353252e-01 2.720464e-01 -2.855875e-01 2.628074e-01 -3.586808e-02
<VARIANCE> 39
 1.200187e+00 3.598942e+00 1.373785e+01 2.753848e+01 1.877111e+01 6.740190e+00 5.476071e+00 9.886255e+00 1.373248e+01 1.408697e+01 4.928694e+00 4.631263e+00 4.062459e+00 2.204094e-01 7.683493e-01 1.389293e+00 9.759732e-01 9.139693e-01 6.687146e-01 1.099249e+00 1.952313e+00 9.268260e-01 6.421025e-01 6.645244e-01 1.086701e+00 2.431258e-01 5.074582e-02 8.190501e-02 2.630909e-01 3.149123e-01 1.734025e-01 4.740588e-02 2.009912e-01 2.403225e-01 1.089221e-01 1.074846e-01 7.657252e-02 1.498176e-01 2.254400e-02
<GCONST> 6.573104e+01
<STATE> 6
<NUMMIXES> 3
<MIXTURE> 1 3.735302e-01
<MEAN> 39
 -1.669205e+00 2.819255e+00 2.114137e+00 -2.497618e+00 4.182492e+00 1.695576e+00 -1.289857e+00 8.505796e-01 -7.386024e+00 -5.732698e-01 -1.430387e+01 -5.099946e+00 6.508963e+01 -7.851094e-01 -1.274025e-01 1.097435e+00 7.581005e-01 6.273235e-01 -8.746142e-01 6.156266e-01 -2.763860e-01 4.384261e-01 9.570421e-01 3.307019e-01 9.833331e-01 -1.289588e+00 -8.229326e-02 -2.044935e-01 -2.951876e-01 -1.599330e-01 -2.248105e-01 3.201336e-01 3.384471e-01 2.062765e-01 3.212113e-01 -1.334017e-02 4.283233e-01 1.943668e-01 2.881505e-03
<VARIANCE> 39
 5.876513e+00 3.268432e+00 1.574220e+01 7.524748e+00 1.632571e+01 9.456881e+00 3.682772e+01 1.994325e+01 6.698062e+00 1.247817e+01 1.799021e+01 1.492947e+01 7.660629e+00 4.233157e-01 6.977077e-01 1.039763e+00 7.590410e-01 8.499829e-01 1.159573e+00 3.183503e+00 6.094738e-01 1.322196e+00 1.308168e+00 1.405795e+00 1.055934e+00 2.738072e-01 6.962818e-02 1.364903e-01 2.942996e-01 1.084411e-01 1.827882e-01 2.308481e-01 3.344448e-01 1.296268e-01 1.891142e-01 3.159870e-01 1.923838e-01 1.872670e-01 4.915628e-02
<GCONST> 7.838210e+01
<MIXTURE> 2 2.272671e-01
<MEAN> 39
 3.977395e+00 -1.427310e+00 3.235762e+00 -2.218128e+00 -1.155661e+01 5.091124e-01 -5.580111e+00 -1.780991e+01 -6.530251e+00 6.128990e+00 3.207396e+00 -1.064170e+01 5.898587e+01 -7.689726e-01 9.939949e-02 1.114631e+00 1.334529e+00 3.077377e-01 -6.446242e-01 1.996926e-01 -4.668394e-01 -6.580895e-01 1.631268e+00 -3.538850e-01 -4.666720e-01 -9.133931e-01 -1.832023e-01 -3.801492e-02 -3.910693e-01 -2.143485e-01 2.084390e-01 7.925002e-02 7.370421e-02 2.493137e-01 1.093193e-01 -1.884933e-01 1.776593e-01 1.023537e-01 -4.841966e-02
<VARIANCE> 39
 4.464867e+00 1.170404e+01 1.060764e+01 8.610193e+00 1.638317e+01 1.359298e+01 1.173890e+01 1.939358e+01 1.367189e+01 2.857374e+01 9.330097e+00 1.052448e+01 4.402020e+00 3.064442e-01 1.388704e+00 1.058769e+00 9.898142e-01 1.711320e+00 1.002574e+00 6.723806e-01 1.241838e+00 6.181694e-01 8.085223e-01 1.079281e+00 1.043355e+00 1.982708e-01 4.668086e-02 3.879420e-01 1.678640e-01 2.166974e-01 2.794928e-01 1.424366e-01 1.502977e-01 3.193421e-01 2.012279e-01 1.864412e-01 1.112955e-01 3.627128e-01 1.244328e-01
<GCONST> 7.821538e+01
<MIXTURE> 3 3.992027e-01
<MEAN> 39
 -5.920162e+00 6.082104e+00 2.368142e+00 -2.365920e-01 1.127260e+00 -2.536931e+00 -3.829131e+00 -1.046436e+01 -6.045478e+00 -9.250365e+00 -5.946722e+00 -9.231346e-01 6.329288e+01 -7.164218e-01 2.898292e-01 8.227127e-01 9.019564e-01 5.753044e-01 3.356203e-01 1.250620e-01 1.863968e-01 1.788628e-01 -6.239429e-02 4.150156e-02 8.563874e-04 -6.515617e-01 -2.590415e-02 -2.262418e-01 -1.672757e-01 -2.264884e-01 -6.446835e-03 5.275168e-02 9.600686e-02 3.756794e-01 2.492975e-01 3.832649e-01 1.355067e-01 -1.518935e-01 4.187853e-02
<VARIANCE> 39
 3.279253e+00 4.503443e+00 7.490890e+00 4.738864e+01 8.303713e+00 1.586931e+01 9.266170e+00 3.313922e+01 5.085187e+01 2.390159e+01 1.499551e+01 1.878547e+01 2.544563e+00 1.646253e-01 4.655055e-01 2.282274e-01 8.255084e-01 6.513510e-01 1.093594e+00 1.168277e+00 2.025451e+00 2.054677e+00 3.087760e+00 1.808882e+00 1.770738e+00 1.067219e-01 3.044499e-02 3.196752e-02 4.548968e-02 5.802232e-02 1.061615e-01 2.176214e-01 2.205625e-01 3.540600e-01 4.184389e-01 3.236926e-01 4.861666e-01 4.267012e-01 2.292565e-02
<GCONST> 7.504865e+01
<STATE> 7
<NUMMIXES> 3
<MIXTURE> 1 6.566805e-01
<MEAN> 39
 -7.418841e+00 1.882744e+00 3.421362e+00 2.517160e+00 5.521874e+00 -1.356746e+00 1.854802e+00 -1.641404e+00 -2.358378e+00 1.833394e+00 -5.916033e+00 -1.013843e+00 5.878810e+01 -4.389642e-01 -3.209993e-01 -7.934433e-01 3.343160e-01 -3.485798e-01 4.042371e-01 2.549801e-01 4.060283e-01 8.607895e-01 -1.253591e-01 1.419950e+00 5.000814e-01 -9.896671e-01 9.070975e-02 2.407653e-02 -1.557379e-01 -7.850996e-02 -1.318932e-01 1.453680e-01 -1.599811e-01 -6.566628e-03 -1.868215e-01 -2.653079e-01 -1.394311e-02 -8.175838e-03 5.710683e-02
<VARIANCE> 39
 6.364401e+00 1.110453e+01 7.618221e+00 9.700409e+00 1.344052e+01 1.895424e+01 1.020181e+01 3.075712e+01 8.015002e+00 2.043121e+01 2.183323e+01 9.424897e+00 8.905936e+00 3.518284e-01 7.492132e-01 6.416631e-01 6.922040e-01 7.215517e-01 8.121102e-01 1.206768e+00 1.604007e+00 1.723230e+00 2.302828e+00 1.642725e+00 8.170575e-01 4.061020e-01 5.875609e-02 1.567069e-01 1.225220e-01 9.449314e-02 1.382893e-01 1.353743e-01 1.846762e-01 1.550605e-01 2.320459e-01 4.024768e-01 2.267125e-01 2.194369e-01 3.948070e-02
<GCONST> 7.761013e+01
<MIXTURE> 2 1.641861e-01
<MEAN> 39
 -1.975763e+00 8.101440e-01 3.949850e+00 3.279786e+00 -6.852612e+00 -1.558132e+00 -2.664834e+00 -1.981634e+01 -8.570784e+00 1.220980e+01 3.359437e+00 -1.072628e+01 5.222035e+01 -1.942516e+00 1.175937e+00 -1.363860e+00 -1.918593e-01 1.447087e+00 2.427590e-01 1.028492e+00 2.101228e+00 1.109267e+00 -1.085375e+00 -5.300409e-01 1.758083e+00 -2.388651e+00 -2.502078e-01 -4.004499e-02 -2.178724e-01 -4.626892e-01 1.459818e-01 1.930366e-01 1.033565e-01 1.234903e+00 4.599653e-01 -9.088726e-01 -1.423061e-01 4.733672e-01 -1.842295e-01
<VARIANCE> 39
 5.162985e+00 1.134003e+01 7.570273e+00 9.405822e+00 2.771714e+01 2.134671e+01 2.485059e+01 1.975370e+01 6.934941e+00 1.820652e+01 1.682178e+01 6.076181e+00 7.801274e+00 6.779053e-01 7.128956e-01 7.304946e-01 5.682061e-01 1.338997e+00 9.527936e-01 1.193731e+00 5.967166e+00 7.408628e-01 2.413076e+00 9.044989e-01 2.794094e+00 5.365743e-01 8.428251e-02 2.570425e-01 1.505068e-01 8.567526e-02 4.460679e-01 1.301502e-01 1.905086e-01 3.122920e-01 4.288170e-02 1.875907e-01 1.716202e-01 2.705064e-01 9.784135e-02
<GCONST> 8.152910e+01
<MIXTURE> 3 1.791334e-01
<MEAN> 39
 -7.050652e+00 2.275162e+00 7.804680e-01 -6.609337e+00 -4.846249e-01 2.019376e+00 -2.070925e+00 -6.860437e+00 1.851031e+00 -5.593255e+00 -3.601239e+00 3.837402e+00 5.366594e+01 -6.123964e-01 -2.463619e-01 -1.085694e+00 8.938968e-01 -1.767492e-01 6.968282e-01 3.243703e-01 1.813329e+00 5.161405e-01 -4.173078e-01 7.243032e-01 6.500370e-01 -2.038258e+00 1.502525e-01 2.843802e-02 2.265310e-01 3.235269e-01 -1.731965e-01 -2.600992e-01 -2.924364e-01 -2.746981e-01 -2.760341e-01 -9.348227e-02 -2.029676e-01 -4.442185e-01 1.888076e-01
<VARIANCE> 39
 1.482857e+00 4.848088e+00 3.931880e+01 2.310872e+01 7.172287e+00 1.825039e+01 1.832314e+01 6.053083e+01 9.416460e+00 5.039820e+01 2.369080e+01 5.979617e+00 2.898618e+01 7.466203e-01 4.668137e-01 9.230460e-01 1.169672e+00 2.512863e+00 4.154857e-01 1.064656e+00 4.690541e+00 7.339045e-01 3.199334e+00 9.659820e-01 2.978085e+00 7.662567e-01 3.812585e-02 1.370004e-01 3.877484e-01 2.951246e-01 3.268214e-01 2.090929e-01 3.365067e-01 6.189088e-01 1.911996e-01 1.672249e-01 3.968070e-01 2.797091e-01 3.555060e-01
<GCONST> 9.079801e+01
<TRANSP> 8
 0.000000e+00 1.000000e+00 0.000000e+00 0.000000e+00 0.000000e+00 0.000000e+00 0.000000e+00 0.000000e+00
 0.000000e+00 8.205201e-01 1.794799e-01 0.000000e+00 0.000000e+00 0.000000e+00 0.000000e+00 0.000000e+00
 0.000000e+00 0.000000e+00 8.000710e-01 1.999290e-01 0.000000e+00 0.000000e+00 0.000000e+00 0.000000e+00
 0.000000e+00 0.000000e+00 0.000000e+00 8.249027e-01 1.750973e-01 0.000000e+00 0.000000e+00 0.000000e+00
 0.000000e+00 0.000000e+00 0.000000e+00 0.000000e+00 8.028615e-01 1.971385e-01 0.000000e+00 0.000000e+00
 0.000000e+00 0.000000e+00 0.000000e+00 0.000000e+00 0.000000e+00 8.408856e-01 1.591144e-01 0.000000e+00
 0.000000e+00 0.000000e+00 0.000000e+00 0.000000e+00 0.000000e+00 0.000000e+00 7.910889e-01 2.089112e-01
 0.000000e+00 0.000000e+00 0.000000e+00 0.000000e+00 0.000000e+00 0.000000e+00 0.000000e+00 0.000000e+00
<ENDHMM>
