~o
<STREAMINFO> 1 39
<VECSIZE> 39<NULLD><MFCC_D_A_0><DIAGC>
~h "zero"
<BEGINHMM>
<NUMSTATES> 9
<STATE> 2
<NUMMIXES> 3
<MIXTURE> 1 2.722686e-01
<MEAN> 39
 -1.678436e+01 1.909265e+00 -2.050222e+00 2.483418e-03 -2.119509e+00 -2.425300e+00 1.426638e+00 2.273716e+00 1.653013e-01 3.376991e+00 5.206768e+00 -1.473823e+00 6.955389e+01 5.798872e-01 1.051795e+00 1.568743e+00 -5.801261e-03 -8.911889e-01 -1.980269e+00 4.330946e-01 -1.748759e-01 -8.541117e-01 -4.406078e-01 -2.669933e-01 2.380198e-01 1.542618e+00 9.533772e-01 -1.094233e-01 5.425885e-01 -8.435552e-02 -1.989391e-01 -2.957539e-01 -1.877050e-01 -1.381207e-01 6.389146e-02 -2.665049e-01 -4.081802e-01 1.355504e-01 -4.196377e-01
<VARIANCE> 39
 2.168103e+01 9.721471e+00 1.905917e+01 1.393873e+01 2.557661e+01 2.089275e+01 3.368186e+01 2.276183e+01 1.382866e+01 1.719045e+01 1.166852e+01 1.685223e+01 1.215829e+01 8.991259e+00 4.985225e-01 1.988799e+00 1.575661e+00 5.351312e+00 4.603374e+00 3.377363e+00 2.837584e+00 2.042652e+00 4.140242e+00 1.826811e+00 2.061297e+00 1.511634e+00 9.062589e-01 2.062196e-01 3.935376e-01 6.081947e-01 1.025893e+00 5.306814e-01 9.149024e-01 5.838476e-01 2.061855e-01 6.505579e-01 9.991012e-02 6.342260e-01 1.334833e-01
<GCONST> 1.096408e+02
<MIXTURE> 2 5.238841e-01
<MEAN> 39
 -1.803800e+01 5.758263e+00 -4.348627e+00 4.580088e+00 5.802392e-01 -1.217114e+00 6.885031e-01 -1.263274e+00 -3.903776e-01 -3.628927e+00 -4.810744e-01 1.954726e+00 5.769002e+01 -2.447787e-01 5.669386e-01 9.695980e-02 3.906784e-01 -3.606972e-01 -1.119225e+00 1.124625e-01 -4.071728e-01 -3.160163e-01 -6.181781e-01 -2.952137e-01 2.283505e-01 1.815908e+00 7.951908e-01 -1.101332e-01 4.349360e-01 -1.164173e-01 -3.241761e-01 -4.103333e-01 -1.496150e-01 -2.038074e-01 -1.701614e-02 -1.401815e-01 8.153798e-02 5.108440e-02 1.531525e-02
<VARIANCE> 39
 3.233582e+01 3.497034e+01 2.600930e+01 1.939407e+01 1.471812e+01 3.684033e+01 2.521403e+01 5.599884e+01 4.065342e+01 2.509246e+01 9.495961e+00 1.131865e+01 3.237498e+01 5.430755e+00 2.048367e+00 2.274307e+00 1.436222e+00 1.696342e+00 3.470897e+00 1.283113e+00 1.879610e+00 2.413733e+00 2.542335e+00 1.225182e+00 1.150660e+00 1.867807e+00 6.365418e-01 3.661423e-01 4.333232e-01 2.370476e-01 3.899614e-01 5.585232e-01 3.642791e-01 4.290527e-01 4.694321e-01 5.127839e-01 2.498495e-01 2.457924e-01 2.658431e-01
<GCONST> 1.099390e+02
<MIXTURE> 3 2.038474e-01
<MEAN> 39
 -8.084214e+00 5.058888e+00 3.650906e+00 5.547164e+00 -1.019669e+01 -1.177556e+01 -7.088224e+00 -2.638361e+00 -9.130818e+00 -8.331535e+00 -4.985147e-01 2.848820e+00 6.748662e+01 4.143987e+00 -9.633050e-01 2.415288e+00 -1.294573e+00 -4.489717e+00 -2.736927e+00 -2.736480e+00 -1.215855e+00 -2.682638e-02 -1.306576e+00 5.759165e-01 1.493634e-01 1.832380e+00 -3.686258e-01 -9.464123e-01 -6.227410e-01 -7.180452e-01 2.405768e-02 9.971569e-01 2.151283e-01 6.362476e-01 7.957295e-01 9.344454e-01 5.335420e-01 -2.112487e-01 -1.847833e-01
<VARIANCE> 39
 1.790384e+01 7.843612e+00 2.506130e+01 5.724903e+01 3.490598e+01 1.843694e+01 1.782299e+01 3.238567e+01 1.767318e+01 3.196464e+01 2.107974e+01 2.657783e+01 8.014362e+00 1.485828e+00 1.567942e+00 1.364087e+00 2.532938e+00 1.856922e+00 2.102825e+00 1.230871e+00 2.408894e+00 2.606157e+00 1.391339e+00 1.129552e+00 2.707237e+00 1.307938e+00 5.202642e-01 1.157618e-01 2.060093e-01 1.269911e-01 6.803515e-01 1.558177e-01 3.071620e-01 2.392523e-01 2.433506e-01 1.397301e-01 2.397029e-01 2.540038e-01 1.273211e-01
<GCONST> 9.912217e+01
<STATE> 3
<NUMMIXES> 3
<MIXTURE> 1 4.997303e-01
<MEAN> 39
 -4.181595e+00 -3.034735e-01 4.174504e+00 -4.708835e+00 -2.739197e+00 -1.332737e+01 5.670260e+00 5.282980e+00 3.121416e+00 -2.634921e+00 -1.631179e+00 -2.445097e+00 7.676023e+01 1.050486e+00 -1.292621e+00 -2.523052e-01 -6.889939e-01 -3.247523e-01 -2.755061e-01 1.201873e-02 8.182685e-01 3.811761e-01 -5.373852e-01 -2.855364e-03 -8.756554e-01 5.591577e-01 -4.374329e-01 1.086314e-01 -1.958449e-01 4.599052e-01 2.017763e-02 4.633505e-01 -1.028892e-01 -2.105909e-01 7.707504e-02 9.351333e-02 6.690721e-02 1.163970e-01 -2.890339e-01
<VARIANCE> 39
 1.111297e+01 1.863463e+01 4.236511e+00 2.782697e+00 8.904806e+00 3.038856e+01 2.243897e+01 3.406431e+01 1.143059e+01 2.065932e+01 2.451183e+01 1.486416e+01 8.163963e+00 8.468539e-01 6.585463e-01 5.690183e-01 2.275205e+00 8.525688e-01 1.283238e+00 2.027601e+00 7.493587e-01 1.114079e+00 1.791584e+00 1.894481e+00 1.780849e+00 4.939491e-01 2.188448e-01 2.417026e-01 1.989955e-01 1.416125e-01 3.713328e-01 2.777013e-01 3.795264e-01 2.009106e-01 1.465135e-01 2.421753e-01 2.242586e-01 3.347004e-01 3.612719e-02
<GCONST> 8.596075e+01
<MIXTURE> 2 3.712462e-01
<MEAN> 39
 -2.136717e+00 -1.998079e+00 5.081203e+00 -8.600467e-01 -2.062318e+01 -1.091278e+01 -9.949421e+00 -1.138024e+00 -5.583689e+00 -5.860111e+00 4.592085e+00 2.052744e+00 7.152472e+01 6.770474e-01 -2.041686e+00 -9.055073e-02 -2.432423e+00 -1.377580e+00 2.672620e-01 -1.994905e-01 1.003201e+00 1.365014e+00 8.850060e-01 1.134417e+00 -1.482052e+00 1.322969e+00 -9.740379e-01 2.197188e-01 -6.014421e-01 1.789570e-01 1.321319e+00 6.053512e-01 6.260487e-01 4.828331e-01 9.157194e-02 4.109005e-02 -3.786169e-01 -3.552650e-01 -3.371537e-01
<VARIANCE> 39
 7.673566e+00 1.267161e+01 1.097509e+01 8.946355e+01 1.299917e+01 9.532331e+00 1.372429e+01 2.987239e+01 2.652013e+01 4.926243e+01 1.291301e+01 4.036422e+01 5.070839e+00 1.011896e+00 7.225164e-01 8.588525e-01 5.440998e-01 2.627870e+00 7.656778e-01 3.152457e-01 1.109908e+00 5.096134e-01 6.999372e-01 2.257445e+00 1.027970e+00 2.025984e-01 1.716083e-01 1.579848e-01 1.794312e-01 3.642153e-01 2.009524e-01 2.484049e-01 1.735635e-01 3.012066e-01 2.604811e-01 3.254786e-01 1.438442e-01 4.733763e-01 7.265119e-02
<GCONST> 8.576276e+01
<MIXTURE> 3 1.290236e-01
<MEAN> 39
 -1.544580e+01 8.973614e+00 3.878314e+00 2.565004e+00 -1.926239e+00 -1.724792e+01 4.627894e+00 -7.303144e+00 4.722484e+00 -4.649128e+00 -4.828233e-01 4.950366e+00 6.839698e+01 3.117935e+00 -2.729530e+00 1.100438e+00 -2.110019e+00 -1.898010e+00 -2.544703e+00 -2.333114e+00 1.072161e+00 -3.583666e-01 -1.206531e+00 1.489229e+00 3.993742e-01 2.019333e+00 7.003396e-02 -4.712195e-01 -3.275302e-01 -6.746845e-01 2.315219e-01 6.521320e-01 -2.332480e-01 2.978292e-01 5.764511e-01 -9.434242e-02 3.788815e-01 -7.580572e-01 2.628214e-02
<VARIANCE> 39
 1.022438e+01 1.394121e+01 9.322661e-01 5.990959e+00 3.254768e+00 9.025194e+00 1.539074e+01 1.137769e+01 6.363428e+00 2.436415e+01 3.232769e+00 4.421479e+00 1.569002e+01 3.748910e-01 4.940881e-01 1.809587e-01 1.064274e+00 5.798877e-01 6.857308e-01 1.361250e+00 2.679110e-01 1.264319e+00 1.510808e+00 1.744517e+00 2.469703e+00 1.840807e-01 1.692177e-01 2.453678e-01 1.827244e-02 1.040931e-01 1.017916e-02 9.624296e-02 6.442296e-01 1.356687e-01 9.712698e-02 3.914974e-02 1.700474e-01 7.621397e-02 9.284570e-02
<GCONST> 6.140346e+01
<STATE> 4
<NUMMIXES> 3
<MIXTURE> 1 6.517325e-01
<MEAN> 39
 -6.659511e+00 -3.263787e+00 3.245948e+00 -1.615241e+00 -1.485636e+01 -1.140130e+01 -7.499464e+00 3.756227e+00 -2.785247e+00 -8.940011e+00 7.420905e+00 -5.396048e+00 7.540887e+01 -1.810690e-01 -5.014176e-01 -1.232688e-01 2.661938e-01 1.630366e-02 2.149495e-01 -1.434923e-01 5.913905e-01 3.048224e-01 -4.310585e-01 -1.199145e-01 -1.307700e-01 1.701089e-02 6.032592e-02 4.258763e-02 -4.469304e-02 4.222381e-01 9.664632e-02 -3.054696e-02 -1.162223e-01 -1.301614e-01 1.233121e-02 -8.166865e-02 -1.829916e-01 3.765359e-01 -2.096877e-01
<VARIANCE> 39
 5.002521e+00 5.787814e+00 1.231266e+01 1.930252e+01 1.876056e+01 1.690585e+01 3.459243e+01 5.256898e+01 1.154041e+01 2.847058e+01 2.931816e+01 2.457245e+01 8.711478e+00 4.835558e-01 5.297379e-01 6.105822e-01 1.841826e+00 6.991895e-01 8.308687e-01 8.326741e-01 1.032332e+00 7.752451e-01 4.763149e-01 1.585343e+00 2.884404e+00 3.273823e-01 1.005441e-01 8.765198e-02 1.140349e-01 2.000190e-01 1.007374e-01 1.360029e-01 1.282621e-01 2.651324e-01 1.735776e-01 1.611885e-01 2.472288e-01 2.556421e-01 6.753213e-02
<GCONST> 8.056989e+01
<MIXTURE> 2 1.909807e-01
<MEAN> 39
 2.149387e+00 -1.008554e+01 1.598563e+00 -1.368033e+01 -2.131721e+01 -6.428723e+00 -8.017057e+00 3.265781e+00 4.652748e+00 -2.728499e+00 -2.312589e+00 -2.312420e+00 7.218357e+01 3.672518e-01 -3.598270e-01 -8.482167e-01 9.343400e-01 9.162148e-01 6.579292e-01 -7.505857e-01 -4.179208e-01 1.655283e+00 -8.547647e-01 -1.543058e+00 5.868911e-01 -3.837438e-01 -5.078858e-02 3.060516e-01 2.484889e-01 8.460807e-01 1.842711e-01 -3.280547e-01 -2.040205e-01 -5.205155e-01 -3.394864e-01 1.843909e-01 7.794532e-03 4.798467e-01 -3.529028e-01
<VARIANCE> 39
 8.210366e-01 2.953270e+00 1.007686e+01 6.536770e+00 3.879627e+00 6.009006e+00 1.363262e+01 1.138188e+01 1.556991e+01 9.646796e+00 1.502371e+01 2.544618e+00 6.095025e-01 1.432109e-01 2.595546e-01 8.506258e-01 2.949255e+00 2.802067e-01 7.364375e-01 1.194001e+00 2.261113e+00 9.816256e-01 8.935568e-01 6.435155e-01 1.882993e+00 4.819746e-01 1.919508e-02 6.356946e-02 1.005543e-01 1.066167e-01 7.802903e-02 2.034723e-01 2.477406e-01 2.686450e-01 3.913633e-01 4.802714e-01 2.186492e-01 1.271956e-01 1.683128e-02
<GCONST> 6.204293e+01
<MIXTURE> 3 1.572868e-01
<MEAN> 39
 -9.331226e+00 -1.183467e+00 6.274183e+00 -1.128508e+01 -5.073230e+00 -1.873271e+01 -1.107845e+00 -7.248546e+00 1.500056e+01 -1.462899e+01 5.581566e+00 1.572021e+00 7.475625e+01 2.420954e-01 -6.174071e-01 5.473325e-01 -8.692123e-01 -2.717246e-01 4.920262e-01 -7.938891e-01 3.267741e-01 3.777448e-01 1.129960e-01 -3.431253e-01 -4.359241e-01 7.696587e-02 2.095279e-02 2.103581e-01 9.053905e-02 3.869691e-01 9.766792e-02 9.589627e-02 -4.233015e-01 1.979263e-01 -3.721902e-01 3.289966e-01 -1.770760e-01 -9.558418e-03 -4.800997e-01
<VARIANCE> 39
 2.593288e-01 1.325119e+00 1.324526e+00 3.240004e+00 3.088798e-01 1.031981e+00 1.852134e+00 1.162073e+00 9.288496e-01 1.849701e+00 6.588026e-01 8.083807e-01 1.679001e-01 7.850035e-02 5.642151e-02 9.483724e-02 2.290589e-01 7.719080e-03 3.532914e-02 1.676023e+00 4.842329e-01 2.619037e-01 5.928611e-01 3.295088e-02 1.152936e-01 3.209616e-01 5.783633e-02 7.852987e-02 1.969519e-03 3.560799e-02 1.986962e-02 3.324099e-02 1.159012e-01 2.218805e-02 3.957208e-02 4.114243e-02 3.307527e-02 5.919429e-02 1.245671e-01
<GCONST> 5.943708e-01
<STATE> 5
<NUMMIXES> 3
<MIXTURE> 1 2.967788e-01
<MEAN> 39
 4.158547e+00 -9.613847e+00 -4.467966e+00 -2.541527e+00 -1.089298e+01 1.617068e+00 -1.206300e+01 -2.739755e+00 1.164270e+01 1.268441e+00 -2.384015e+00 -6.201819e+00 7.242580e+01 5.821770e-01 6.304229e-01 -1.651007e+00 -3.839103e+00 5.207069e-01 4.094207e+00 -1.093512e+00 -1.905353e+00 2.752975e-01 1.718053e+00 1.819563e+00 -2.229218e+00 5.395666e-01 -3.822096e-01 7.705287e-01 5.004237e-01 -9.794669e-01 4.316128e-01 -7.956647e-02 5.837606e-01 6.073151e-03 -9.997968e-01 -2.269839e-01 3.389914e-01 5.515097e-01 -3.257054e-01
<VARIANCE> 39
 1.145951e+01 9.688808e+00 1.264961e+01 2.857511e+01 4.174250e+01 4.720555e+01 7.320915e+01 2.187303e+01 2.466643e+01 1.384749e+01 1.917547e+01 2.277868e+01 1.399194e+01 1.125489e+00 1.579849e+00 1.724214e+00 1.918277e+00 2.241284e+00 9.677117e-01 2.887078e+00 1.336495e+00 5.741723e+00 1.580401e+00 2.150327e+00 2.055059e+00 5.026979e-01 2.865931e-02 9.577719e-02 1.673438e-01 5.657695e-01 2.105250e-01 6.261720e-01 5.879787e-01 4.903528e-01 4.433723e-01 2.125559e-01 3.697439e-01 6.570045e-01 1.023487e-01
<GCONST> 1.011116e+02
<MIXTURE> 2 2.847133e-01
<MEAN> 39
 -6.331047e+00 -4.545502e+00 5.952348e+00 -2.382072e+00 -1.081063e+01 -1.259281e+01 -1.078967e+01 1.663469e+00 2.488686e+00 -9.917620e+00 4.905776e+00 -3.282023e+00 7.042961e+01 9.879669e-01 1.246616e-01 -9.318399e-01 2.160798e+00 1.333546e+00 5.023162e-01 -1.609122e+00 -2.938317e-01 1.794868e-01 4.555846e-01 -1.836156e+00 1.083253e+00 -1.944547e+00 1.920662e-01 8.562899e-02 -6.813247e-01 -1.588374e-01 4.878961e-01 2.567020e-01 -5.378026e-02 -5.457930e-01 3.306181e-01 4.150884e-01 -2.003759e-01 1.124835e-01 2.005360e-01
<VARIANCE> 39
 3.710516e+00 1.236603e+01 2.880655e+01 5.363486e+01 3.097142e+01 1.106250e+01 1.050294e+01 2.815956e+01 5.796513e+01 1.808582e+01 2.350806e+01 2.047710e+01 3.005419e+01 4.066266e-01 7.535791e-01 1.607470e+00 2.457498e+00 7.112174e-01 2.082854e+00 1.525008e+00 2.141601e+00 2.878559e+00 5.343859e-01 1.474367e+00 3.048988e+00 2.145756e+00 6.610116e-02 3.883088e-01 1.730741e-01 8.456505e-01 3.344102e-01 1.786019e-01 3.027869e-01 1.304295e-01 3.741591e-01 2.196223e-01 4.928596e-01 3.679333e-01 7.912019e-01
<GCONST> 9.929732e+01
<MIXTURE> 3 4.185079e-01
<MEAN> 39
 -2.220479e-01 -7.097188e+00 2.355556e-01 5.916062e+00 -9.478861e+00 -1.023162e+01 -9.016760e+00 1.283447e+00 4.808054e+00 -6.956388e+00 -4.533941e+00 3.775606e+00 6.962592e+01 9.259235e-01 -4.795564e-01 -1.728122e+00 1.287537e+00 9.939080e-01 8.908782e-01 -1.199045e+00 -1.602925e+00 9.773757e-01 1.246726e+00 -3.146546e-01 -2.247388e-02 -1.311535e-01 4.266465e-02 1.551082e-01 -5.270219e-01 -1.395573e+00 -2.444290e-01 8.851149e-01 1.637405e-01 -1.822182e-01 -2.353470e-02 5.605162e-01 6.802635e-01 -1.102282e+00 5.926660e-01
<VARIANCE> 39
 1.158205e+01 6.935657e+00 1.640047e+01 5.839605e+01 2.385468e+01 1.523674e+01 4.824047e+01 2.223086e+01 2.361487e+01 4.355835e+01 1.164753e+01 2.474479e+01 1.179889e+01 3.669315e-01 1.168689e+00 2.735924e+00 3.777713e+00 4.738830e+00 3.325152e+00 2.070268e+00 1.592608e+00 3.662961e+00 3.405323e+00 1.967745e+00 3.697956e+00 1.664397e+00 1.132063e-01 1.487121e-01 2.910660e-01 4.482791e-01 7.097234e-01 4.276536e-01 3.766015e-01 2.194986e-01 1.084673e+00 3.540370e-01 5.441249e-01 2.888799e-01 1.367973e-01
<GCONST> 1.067231e+02
<STATE> 6
<NUMMIXES> 3
<MIXTURE> 1 4.550505e-01
<MEAN> 39
 -1.279583e+00 1.196739e+00 -9.879622e+00 -7.303145e+00 -4.955412e+00 6.608557e+00 -7.978961e+00 -9.402650e+00 -1.841205e+00 -6.564859e-01 3.523122e+00 3.128085e-01 7.201688e+01 -2.064058e-01 1.471102e+00 5.249477e-01 -3.646312e+00 4.225079e-01 1.757032e+00 7.817661e-01 3.327003e-01 -1.599904e+00 -1.389742e+00 5.399570e-01 1.357597e+00 -6.366925e-01 1.915768e-01 -2.225260e-01 3.852927e-01 5.405869e-01 -8.561390e-02 -9.051550e-01 -1.113933e-01 8.745033e-01 2.880091e-01 -7.647988e-01 -5.528288e-01 9.331630e-02 -2.046078e-01
<VARIANCE> 39
 4.437490e+00 6.986451e+00 1.946383e+01 3.491865e+01 1.616606e+01 5.349494e+01 1.312989e+01 1.711947e+01 3.577894e+01 4.776476e+01 1.374280e+01 5.919871e+01 1.366511e+01 5.520908e-01 5.503125e-01 9.785705e-01 4.339694e+00 1.047656e+00 1.684803e+00 2.539881e+00 2.122431e+00 1.903280e+00 4.745989e+00 1.618597e+00 1.761537e+00 1.879843e-01 7.598320e-02 3.387765e-02 1.863113e-01 4.068260e-01 2.529618e-01 2.007606e-01 5.309927e-01 1.654966e-01 4.349794e-01 9.900759e-01 2.339127e-01 4.852550e-01 7.038762e-02
<GCONST> 9.502933e+01
<MIXTURE> 2 2.647348e-01
<MEAN> 39
 -1.266160e+00 -2.725280e+00 -9.757822e+00 4.396324e+00 -4.124164e+00 -6.511863e+00 -1.544370e+01 -7.035709e+00 2.440350e+00 -1.003140e+00 1.278733e+00 -2.473317e+00 7.112669e+01 1.625348e-02 1.550024e+00 -2.012310e+00 -3.073671e+00 3.138562e-01 3.660839e+00 1.301270e+00 -2.740238e+00 -1.813295e+00 2.879420e+00 1.687957e+00 -6.193140e-01 1.975299e-01 -3.911333e-01 2.079561e-01 8.756524e-01 -7.719980e-01 -5.371168e-01 3.137809e-01 1.054044e+00 3.587324e-01 -9.341447e-01 -7.378668e-01 3.966863e-01 6.725305e-01 -3.054731e-01
<VARIANCE> 39
 2.710139e+00 8.039312e+00 3.316646e+01 1.127237e+02 1.070522e+01 1.425599e+01 1.286144e+01 5.555124e+00 1.644727e+01 4.391687e+01 1.408177e+01 4.272441e+01 5.247843e+00 2.621914e-01 9.607804e-02 8.952858e-01 2.684139e+00 2.828324e+00 1.092061e+00 3.166171e+00 4.866648e-01 5.330261e+00 7.371362e-01 1.626431e+00 2.471604e+00 9.779608e-01 2.668644e-02 1.017656e-01 9.322715e-02 8.704817e-01 3.118373e-01 5.205916e-01 3.184464e-01 1.633567e-01 3.825383e-01 6.058339e-01 5.463633e-01 4.176490e-01 8.368745e-02
<GCONST> 8.980013e+01
<MIXTURE> 3 2.802147e-01
<MEAN> 39
 3.705226e+00 -5.018018e+00 -5.960666e+00 -2.045558e+01 -7.650661e+00 6.160914e+00 -1.449611e+01 -8.987941e+00 4.030582e+00 3.938693e+00 7.341341e+00 -4.861878e+00 6.802554e+01 9.594364e-02 2.211599e+00 -3.297052e-01 -4.144483e+00 9.568698e-01 9.809055e-01 3.050919e+00 -9.391867e-01 -2.120514e+00 -5.745575e-01 1.116719e+00 1.750334e+00 -1.194468e+00 -2.139401e-01 1.598245e-01 4.140021e-01 8.616701e-01 -2.805599e-01 -9.314644e-01 7.615986e-01 5.597731e-01 2.864146e-01 -9.234354e-01 -1.057131e+00 7.836252e-01 -4.123447e-01
<VARIANCE> 39
 1.078892e+01 1.013295e+01 1.522277e+01 1.439610e+01 2.588719e+01 2.349513e+01 3.508474e+01 1.206063e+01 4.912225e+01 2.426794e+01 2.068690e+01 2.606909e+01 3.322901e+00 1.522421e-01 2.386325e-01 5.674769e-01 1.431706e+00 1.004325e+00 3.723627e+00 3.163245e+00 5.214977e-01 1.423497e+00 1.148147e+00 4.254062e+00 1.243162e+00 1.988234e-01 8.137382e-02 2.169131e-01 1.080104e-01 2.823797e-01 2.158530e-01 3.453792e-01 1.275062e+00 2.012873e-01 6.128902e-01 1.743948e-01 5.666155e-01 3.629311e-01 6.925868e-02
<GCONST> 8.966148e+01
<STATE> 7
<NUMMIXES> 3
<MIXTURE> 1 4.969599e-01
<MEAN> 39
 -2.171000e+00 5.538011e+00 -6.154030e+00 -1.292932e+01 -1.163298e+00 9.851451e+00 -4.538027e+00 -1.107919e+00 -4.035670e+00 2.749124e+00 2.303076e+00 -2.999676e+00 6.964795e+01 -3.900622e-01 4.871915e-01 7.714412e-02 1.057844e-02 -4.187600e-02 -3.694608e-01 7.736233e-01 6.514960e-01 -7.167470e-01 -2.650310e-01 3.499115e-01 9.094003e-01 -9.519779e-01 -3.854359e-02 -3.342281e-01 1.110652e-01 4.778831e-01 -2.904038e-02 -2.034283e-01 -3.452302e-02 -4.058147e-03 3.559224e-01 -6.667467e-02 -9.354832e-02 -3.336666e-02 -1.030689e-01
<VARIANCE> 39
 3.765103e+00 3.593723e+00 3.227030e+00 2.555162e+01 7.411295e+00 3.315800e+01 7.216323e+00 2.989467e+01 1.699389e+01 1.103714e+01 1.264236e+01 1.235474e+01 1.583353e+01 2.532229e-01 7.142315e-01 5.877843e-01 1.516463e+00 5.151421e-01 1.869841e+00 7.792789e-01 6.097683e-01 1.414662e+00 5.496578e-01 7.367551e-01 7.004674e-01 3.488340e-01 6.406488e-02 2.996925e-02 1.310767e-01 1.017893e-01 1.690953e-01 2.410221e-01 1.049834e-01 1.150288e-01 9.735345e-02 1.315840e-01 1.966974e-01 1.724322e-01 1.704173e-02
<GCONST> 6.804491e+01
<MIXTURE> 2 2.708992e-01
<MEAN> 39
 2.489115e+00 4.629877e+00 -8.684865e+00 -1.674486e+01 -1.044627e+01 4.855042e+00 -5.355136e+00 -5.737764e-01 -4.714569e+00 -1.167638e+01 -1.642987e+00 8.548649e+00 6.470794e+01 3.509583e-01 4.057062e-01 3.428599e-01 2.813895e-01 -5.433380e-01 -1.133508e+00 4.955496e-01 1.194120e+00 9.232253e-01 1.584379e+00 -6.964824e-01 -3.211622e-01 -1.681902e+00 -2.829217e-01 -7.929984e-02 -1.368414e-01 7.095740e-01 1.212399e-01 -2.521085e-01 -1.441423e-02 -4.517232e-01 1.385583e-01 5.889601e-01 4.664231e-01 -1.917258e-01 -3.793128e-02
<VARIANCE> 39
 2.255394e+00 2.245783e+00 2.755491e+00 3.392573e+00 1.078533e+01 1.204895e+01 1.215330e+01 1.585402e+01 1.405653e+01 3.054329e+01 1.941520e+01 4.398022e+00 1.228901e+01 7.202284e-01 2.148351e-01 4.133321e-01 1.621351e+00 9.903513e-01 6.473390e-01 1.484680e+00 1.927128e+00 1.310588e+00 3.715550e+00 5.550730e+00 6.732045e-01 6.284130e-02 4.695352e-02 5.356673e-02 1.435748e-01 1.693729e-01 2.365331e-01 1.983870e-01 3.856761e-01 1.647472e-01 1.845991e-01 1.123952e+00 8.807644e-01 1.510996e-01 1.819889e-02
<GCONST> 7.404235e+01
<MIXTURE> 3 2.321410e-01
<MEAN> 39
 4.541172e+00 -1.173004e+00 -6.129579e+00 -2.396813e+01 -1.147643e+01 1.208875e+01 -5.052603e+00 -7.723233e+00 2.002733e+00 -2.032657e+00 5.566550e+00 -5.927136e-01 6.291542e+01 -6.270115e-01 6.592727e-01 9.243666e-01 -6.431642e-01 -2.650820e-01 -4.218613e-02 1.777171e+00 1.014930e+00 -7.762560e-01 -1.239502e+00 -4.514224e-01 1.162247e+00 -1.367832e+00 -3.738226e-01 -1.710832e-01 -4.888147e-02 7.357659e-01 8.354234e-02 -6.737187e-01 -3.230641e-01 3.097270e-01 4.499043e-01 4.498755e-01 -8.623097e-02 -2.611074e-01 -1.349030e-01
<VARIANCE> 39
 1.338596e+01 1.606306e+01 1.766845e+01 1.980551e+01 3.709857e+01 7.280958e+01 1.186331e+01 1.179181e+01 3.909007e+01 2.086016e+01 4.936944e+00 1.352477e+01 7.829280e+00 3.114733e-01 1.095790e+00 9.927580e-01 1.538307e+00 6.988931e-01 3.184774e+00 2.175629e+00 9.319990e-01 4.355391e-01 1.274632e+00 2.152143e+00 7.898234e-01 2.330880e-01 1.138419e-01 2.287556e-01 4.655282e-01 2.510774e-01 2.588528e-01 2.054984e-01 2.261823e-01 2.122860e-01 1.719686e-01 4.232826e-01 1.740978e-01 9.932420e-02 4.535963e-02
<GCONST> 8.651649e+01
<STATE> 8
<NUMMIXES> 3
<MIXTURE> 1 5.813174e-01
<MEAN> 39
 -5.381695e+00 3.411941e+00 -4.459595e+00 -5.289330e+00 -2.631591e+00 9.229729e-01 -1.402017e+00 2.177127e-01 -5.335242e-01 2.666285e-01 3.577273e+00 3.090819e+00 5.762478e+01 -1.287910e+00 -7.707540e-01 5.298093e-01 2.350937e+00 1.086008e+00 -2.123197e-02 4.343463e-01 1.969270e-01 4.953317e-01 2.331842e-02 -1.052220e-02 -1.074343e-02 -1.313024e+00 7.020623e-03 -3.333281e-02 -3.376297e-02 -2.405000e-01 5.194074e-02 2.875275e-01 5.470410e-02 -1.232536e-01 -1.097593e-01 -9.378807e-02 -1.353565e-01 2.476461e-02 2.052672e-01
<VARIANCE> 39
 1.509011e+01 7.941384e+00 9.161152e+00 2.618349e+01 2.710223e+01 2.231842e+01 1.088404e+01 2.077649e+01 1.418909e+01 1.128327e+01 1.554937e+01 1.072310e+01 2.372362e+01 4.167259e-01 3.806193e-01 7.787057e-01 1.828088e+00 1.556791e+00 2.388263e+00 1.120155e+00 2.016033e+00 1.744708e+00 1.435989e+00 2.029057e+00 1.404287e+00 4.805457e-01 1.056800e-01 5.985996e-02 1.245539e-01 2.024596e-01 2.627834e-01 2.851481e-01 1.928445e-01 3.576134e-01 2.544945e-01 2.830301e-01 3.078810e-01 2.292377e-01 6.523877e-02
<GCONST> 8.698057e+01
<MIXTURE> 2 3.117032e-01
<MEAN> 39
 -1.872888e+00 5.664103e+00 -1.332973e+00 -3.248124e+01 -1.751443e+00 -7.368856e+00 8.922366e-01 -4.646044e+00 -1.039445e+00 6.940923e-02 8.437249e-01 4.799655e+00 6.261587e+01 -3.252876e-01 4.370436e-01 -2.074496e-02 3.757936e-01 -3.174728e-01 -3.633938e-01 6.744990e-01 8.651707e-01 3.457437e-01 -1.222940e-01 -1.979451e-01 2.015972e-02 -9.286336e-01 -1.090921e-02 -2.299277e-01 -2.396206e-02 5.729768e-01 -3.693264e-02 2.544838e-01 -4.273403e-01 1.367462e-01 -2.241522e-02 1.770092e-01 2.108724e-01 -1.738945e-01 -9.648678e-02
<VARIANCE> 39
 3.653708e+00 3.575842e+00 2.026330e+00 7.326805e+00 7.877695e+00 7.406035e+00 9.669010e+00 1.459413e+01 6.116444e+01 6.319549e+01 6.306853e+00 1.050476e+01 8.355009e+00 1.248101e-01 5.198376e-01 2.562714e-01 4.298282e+00 8.009561e-01 7.300853e-01 1.530325e+00 1.338644e+00 8.661981e-01 1.990612e+00 9.320167e-01 6.427329e-01 8.545753e-01 2.412152e-02 4.916883e-02 4.412272e-02 1.920150e-01 2.256055e-01 8.555963e-02 2.692883e-01 3.239824e-01 1.528356e-01 2.680272e-01 1.109566e-01 1.679564e-01 1.171955e-01
<GCONST> 7.073795e+01
<MIXTURE> 3 1.069794e-01
<MEAN> 39
 2.019299e-02 -1.147741e+00 -8.416144e+00 -2.213239e+01 -1.263450e+01 1.216875e+01 -2.114245e+00 -2.692428e+00 2.977669e+00 -5.336124e-01 7.176855e+00 7.152323e-01 5.347041e+01 -3.018377e+00 5.268606e-01 -1.689578e+00 3.147899e+00 2.144863e+00 -3.000587e+00 1.014977e+00 2.008516e+00 1.056442e+00 2.359881e+00 1.064588e+00 6.943284e-01 -3.184393e+00 -2.084558e-01 -1.353575e-01 -2.784562e-02 9.838055e-01 6.739989e-01 -2.747091e-01 8.779165e-02 9.498890e-03 2.686476e-01 4.943631e-01 -1.514904e-01 -3.250085e-01 -4.315920e-02
<VARIANCE> 39
 1.499147e+01 5.488343e+00 1.541505e+01 1.873170e+01 1.093508e+01 1.897517e+01 1.842406e+01 1.759336e+01 1.714281e+01 3.279833e+01 3.781389e+01 6.710993e+00 1.554549e+01 3.395834e-01 6.544759e-01 8.828499e-01 2.659636e+00 1.596380e+00 1.122112e+00 8.275561e-01 4.949991e-01 4.105975e-01 8.787611e-01 1.364602e+00 9.658409e-01 1.423156e-01 2.380724e-01 1.046813e-01 8.106180e-01 3.715566e-01 2.017566e-01 6.801735e-01 1.742526e-01 1.937347e-01 2.250696e-01 7.143052e-01 6.719162e-01 1.252344e-01 2.017412e-01
<GCONST> 8.765802e+01
<TRANSP> 9
 0.000000e+00 1.000000e+00 0.000000e+00 0.000000e+00 0.000000e+00 0.000000e+00 0.000000e+00 0.000000e+00 0.000000e+00
 0.000000e+00 8.543627e-01 1.456373e-01 0.000000e+00 0.000000e+00 0.000000e+00 0.000000e+00 0.000000e+00 0.000000e+00
 0.000000e+00 0.000000e+00 7.580932e-01 2.419068e-01 0.000000e+00 0.000000e+00 0.000000e+00 0.000000e+00 0.000000e+00
 0.000000e+00 0.000000e+00 0.000000e+00 8.314798e-01 1.685202e-01 0.000000e+00 0.000000e+00 0.000000e+00 0.000000e+00
 0.000000e+00 0.000000e+00 0.000000e+00 0.000000e+00 8.295202e-01 1.704799e-01 0.000000e+00 0.000000e+00 0.000000e+00
 0.000000e+00 0.000000e+00 0.000000e+00 0.000000e+00 0.000000e+00 7.354012e-01 2.645988e-01 0.000000e+00 0.000000e+00
 0.000000e+00 0.000000e+00 0.000000e+00 0.000000e+00 0.000000e+00 0.000000e+00 8.083673e-01 1.916327e-01 0.000000e+00
 0.000000e+00 0.000000e+00 0.000000e+00 0.000000e+00 0.000000e+00 0.000000e+00 0.000000e+00 8.387756e-01 1.612244e-01
 0.000000e+00 0.000000e+00 0.000000e+00 0.000000e+00 0.000000e+00 0.000000e+00 0.000000e+00 0.000000e+00 0.000000e+00
<ENDHMM>
