~o
<STREAMINFO> 1 26
<VECSIZE> 26<NULLD><MFCC_E_D_Z><DIAGC>
~h "go"
<BEGINHMM>
<NUMSTATES> 5
<STATE> 2
<MEAN> 26
 4.967129e+00 3.202401e+00 -6.633605e+00 -9.141593e+00 -1.952476e+00 -1.851649e+00 -1.941876e+00 -3.605895e+00 -5.033153e+00 -2.337398e+00 8.858038e-01 3.202458e-01 7.152514e-01 1.044210e+00 8.080917e-01 5.219329e-01 -2.378975e+00 -1.226299e+00 8.765122e-02 -1.099646e+00 -5.486125e-01 2.843557e-02 -9.471127e-01 7.678595e-01 -1.366456e-01 6.128544e-02
<VARIANCE> 26
 8.800261e+00 2.289880e+01 3.485356e+01 3.952591e+01 4.216605e+01 3.005845e+01 3.293353e+01 3.050679e+01 2.382326e+01 6.243374e+01 2.389641e+01 2.508748e+01 2.019825e-02 7.513993e-01 1.738026e+00 6.780995e+00 3.552231e+00 4.500769e+00 2.622184e+00 2.619360e+00 2.574512e+00 4.767900e+00 2.973837e+00 2.761162e+00 2.172579e+00 1.314018e-03
<GCONST> 8.980882e+01
<STATE> 3
<MEAN> 26
 7.501339e+00 3.359957e+00 -2.550620e+00 -2.098449e+01 -6.355297e+00 3.144073e-02 -5.049273e+00 -3.113760e+00 -9.385907e-01 -6.219694e+00 1.817186e+00 3.385418e-01 9.402333e-01 4.366972e-03 -1.327749e-01 -1.123183e-01 -4.228311e-01 -1.515613e-01 -5.357727e-02 9.409351e-02 2.585669e-01 4.258599e-02 -2.215009e-03 -2.890318e-01 2.291403e-01 -6.857740e-03
<VARIANCE> 26
 1.011709e+01 1.307481e+01 9.630266e+00 3.718601e+01 4.044181e+01 3.496670e+01 4.963493e+01 3.894323e+01 2.645569e+01 3.279933e+01 2.283087e+01 2.701525e+01 5.906558e-03 1.468560e-01 5.099223e-01 2.850410e-01 1.236368e+00 5.890761e-01 9.923331e-01 8.091663e-01 9.329774e-01 8.869605e-01 1.148506e+00 7.279585e-01 9.995633e-01 5.847143e-04
<GCONST> 6.923373e+01
<STATE> 4
<MEAN> 26
 2.368299e+00 8.956800e-01 -1.488865e+00 -6.252500e+00 -5.264908e+00 -1.493206e+00 -1.242108e+00 1.364370e+00 1.463250e-03 -9.933627e-01 8.847727e-02 6.093023e-01 4.434439e-01 -7.026858e-01 -3.692877e-01 3.340558e-01 2.069850e+00 5.731423e-01 -5.118082e-02 4.792090e-01 1.745333e-01 2.699955e-01 6.411031e-01 6.047303e-02 -1.487321e-01 -3.967410e-02
<VARIANCE> 26
 1.302346e+01 6.475320e+00 8.475694e+00 1.078683e+02 3.391606e+01 1.940881e+01 2.046705e+01 1.155601e+01 2.549600e+01 2.009171e+01 1.562747e+01 1.556526e+01 4.882849e-02 4.357685e-01 4.065681e-01 6.556087e-01 3.184276e+00 1.513588e+00 1.587486e+00 1.529295e+00 1.313307e+00 1.550964e+00 2.073577e+00 1.183438e+00 1.336518e+00 1.890853e-03
<GCONST> 7.564207e+01
<TRANSP> 5
 0.000000e+00 1.000000e+00 0.000000e+00 0.000000e+00 0.000000e+00
 0.000000e+00 8.101625e-01 1.898374e-01 0.000000e+00 0.000000e+00
 0.000000e+00 0.000000e+00 9.201080e-01 7.989200e-02 0.000000e+00
 0.000000e+00 0.000000e+00 0.000000e+00 8.996534e-01 1.003465e-01
 0.000000e+00 0.000000e+00 0.000000e+00 0.000000e+00 0.000000e+00
<ENDHMM>
