~o
<STREAMINFO> 1 26
<VECSIZE> 26<NULLD><MFCC_E_D_Z><DIAGC>
~h "ichi"
<BEGINHMM>
<NUMSTATES> 7
<STATE> 2
<MEAN> 26
 2.497029e+00 7.256359e+00 1.130283e+01 -5.488673e+00 -3.510443e+00 -3.454267e+00 -7.934848e+00 -3.650899e+00 -1.589568e+00 -6.407051e+00 -6.627041e-01 -2.166604e+00 8.222251e-01 1.732005e-01 2.345595e-01 6.842433e-02 1.939021e-01 1.013560e-01 -2.336946e-01 -1.082851e-01 -1.764338e-01 -4.825643e-01 -1.677015e-01 -2.313790e-01 -2.586043e-01 -8.242979e-04
<VARIANCE> 26
 9.726758e+00 2.578077e+01 4.864077e+01 3.102328e+01 2.730591e+01 4.743465e+01 2.549176e+01 2.583628e+01 3.814472e+01 3.800451e+01 6.191509e+01 1.517695e+01 1.986330e-02 7.144120e-01 2.726391e+00 4.995709e+00 3.639161e+00 3.820141e+00 3.745269e+00 4.144948e+00 1.936725e+00 2.003613e+00 2.512249e+00 2.643132e+00 1.255668e+00 4.311534e-03
<GCONST> 9.017084e+01
<STATE> 3
<MEAN> 26
 2.564149e+00 -9.652743e-02 -7.237435e-01 2.784523e+00 1.292984e+00 1.049389e+00 -8.331753e-01 -3.385031e-01 -9.645387e-01 -9.835751e-01 -3.202399e-01 -6.629788e-01 4.666369e-01 -7.697041e-01 -5.069933e-01 -9.385218e-01 1.155509e-01 -1.581821e-02 2.527891e-02 4.588107e-01 4.303571e-01 5.029067e-01 5.460151e-01 2.368250e-01 3.679071e-01 -1.165066e-02
<VARIANCE> 26
 7.250566e+00 6.526444e+00 1.029613e+01 1.224612e+01 7.778825e+00 1.025419e+01 1.230127e+01 1.498691e+01 1.112779e+01 1.698448e+01 1.459292e+01 1.197298e+01 2.717552e-02 1.896133e+00 1.335098e+00 1.522239e+00 1.066589e+00 1.112262e+00 1.918166e+00 1.414947e+00 2.029101e+00 1.455239e+00 1.785087e+00 1.395176e+00 1.053341e+00 1.483212e-03
<GCONST> 7.092619e+01
<STATE> 4
<MEAN> 26
 -1.397214e+01 3.254555e+00 -2.190238e+00 -3.695485e+00 2.716150e+00 -3.339059e+00 2.119310e+00 2.339157e-01 1.334823e+00 1.403158e+00 6.756807e-01 5.839722e-01 7.580628e-01 -2.837581e-01 1.900931e-01 4.048128e-01 -4.197354e-01 -7.616337e-02 -2.994088e-01 -2.491591e-02 -2.034455e-01 -2.416308e-01 -5.176804e-02 -8.653145e-02 -1.427069e-01 8.866847e-03
<VARIANCE> 26
 2.113867e+01 1.118572e+01 2.025847e+01 1.298322e+01 1.218036e+01 1.418466e+01 1.322255e+01 1.547590e+01 1.688912e+01 2.055323e+01 1.525876e+01 1.083653e+01 1.953160e-02 3.467629e+00 9.208378e-01 1.361468e+00 7.481313e-01 1.588502e+00 1.554615e+00 1.484894e+00 1.494994e+00 1.474491e+00 1.544761e+00 1.283687e+00 1.141691e+00 2.094200e-03
<GCONST> 7.423570e+01
<STATE> 5
<MEAN> 26
 6.586469e-01 4.646756e-01 1.116138e+01 -9.922037e+00 -1.433444e+01 -9.086862e+00 -9.311459e+00 -7.587385e+00 -7.035390e+00 -1.852438e+00 -1.443224e+00 -4.373860e+00 8.359806e-01 8.418898e-01 -3.079271e-01 3.320132e-01 -7.704586e-02 -7.160183e-01 1.138249e-01 -5.917301e-01 -4.560782e-01 -3.074351e-02 1.441173e-02 1.029357e-01 -1.911921e-02 -6.185032e-03
<VARIANCE> 26
 1.410945e+01 1.734527e+01 2.510453e+01 1.212642e+01 5.663859e+01 1.289300e+01 2.022254e+01 1.535297e+01 1.106802e+01 3.039085e+01 2.291517e+01 8.794002e+00 1.582685e-02 1.645627e+00 1.193385e+00 2.378314e+00 2.076104e+00 5.575716e+00 1.669116e+00 2.156646e+00 1.487665e+00 1.739261e+00 1.256004e+00 1.284155e+00 1.281530e+00 1.210673e-03
<GCONST> 7.854416e+01
<STATE> 6
<MEAN> 26
 9.322912e-01 -1.288874e+00 2.911384e+00 -2.855522e+00 -2.977895e+00 -1.740107e+00 -2.236418e+00 -3.161274e+00 -1.728888e+00 6.487182e-01 1.894658e-04 -2.015007e+00 5.029347e-01 6.214657e-01 -3.502863e-01 -9.234551e-01 1.049682e+00 8.789409e-01 6.905562e-01 7.591338e-01 9.585725e-01 6.265052e-01 2.385411e-01 1.900285e-01 3.525305e-01 -2.424459e-02
<VARIANCE> 26
 9.649090e+00 4.294315e+00 1.387101e+01 1.064554e+01 2.111151e+01 1.466206e+01 1.536959e+01 3.132457e+01 1.975220e+01 1.290175e+01 1.481893e+01 1.817341e+01 2.421492e-02 1.127682e+00 2.089714e-01 1.176417e+00 1.192401e+00 1.823835e+00 1.408868e+00 2.403131e+00 1.638739e+00 1.754548e+00 1.955191e+00 1.796853e+00 1.533032e+00 9.361664e-04
<GCONST> 7.231123e+01
<TRANSP> 7
 0.000000e+00 1.000000e+00 0.000000e+00 0.000000e+00 0.000000e+00 0.000000e+00 0.000000e+00
 0.000000e+00 9.135662e-01 8.643384e-02 0.000000e+00 0.000000e+00 0.000000e+00 0.000000e+00
 0.000000e+00 0.000000e+00 8.889400e-01 1.110600e-01 0.000000e+00 0.000000e+00 0.000000e+00
 0.000000e+00 0.000000e+00 0.000000e+00 9.378972e-01 6.210284e-02 0.000000e+00 0.000000e+00
 0.000000e+00 0.000000e+00 0.000000e+00 0.000000e+00 8.766565e-01 1.233435e-01 0.000000e+00
 0.000000e+00 0.000000e+00 0.000000e+00 0.000000e+00 0.000000e+00 8.260832e-01 1.739169e-01
 0.000000e+00 0.000000e+00 0.000000e+00 0.000000e+00 0.000000e+00 0.000000e+00 0.000000e+00
<ENDHMM>
