~o
<STREAMINFO> 1 26
<VECSIZE> 26<NULLD><MFCC_E_D_Z><DIAGC>
~h "kyuu"
<BEGINHMM>
<NUMSTATES> 5
<STATE> 2
<MEAN> 26
 -8.329117e+00 1.881254e-01 7.273820e+00 -3.827476e+00 -6.315197e+00 7.859774e-01 -1.355596e+00 -5.467514e+00 2.803371e+00 -2.033689e+00 -1.183161e+00 -4.231744e-02 6.783250e-01 8.339359e-01 3.656703e-01 1.139612e+00 4.451566e-03 -1.714411e+00 -1.433809e+00 -2.560927e-01 -9.183515e-01 -9.936423e-01 -2.970624e-01 -1.656215e-01 -4.761858e-01 5.136903e-02
<VARIANCE> 26
 4.385592e+01 2.823206e+01 2.990933e+01 2.250866e+01 4.406583e+01 3.492035e+01 2.600340e+01 3.938665e+01 4.911459e+01 1.510882e+01 2.064761e+01 2.112508e+01 3.558075e-02 6.213580e+00 1.750333e+00 1.941123e+00 2.580551e+00 3.273936e+00 4.470101e+00 2.420974e+00 3.231055e+00 4.999639e+00 2.901438e+00 3.127909e+00 3.111743e+00 1.324845e-03
<GCONST> 9.210206e+01
<STATE> 3
<MEAN> 26
 2.927820e+00 9.012462e-01 7.866130e+00 -1.310614e+00 -1.122298e+01 -1.476491e+01 -7.372209e+00 -3.242521e+00 -4.495260e+00 -6.809553e+00 1.325703e+00 -5.039315e-01 9.451951e-01 3.222305e-01 -9.025405e-03 -4.830280e-01 1.311328e-01 6.455741e-01 -4.862155e-01 -5.140178e-01 4.229083e-01 1.823992e-01 -5.559246e-02 5.735043e-02 5.885963e-01 -5.632926e-03
<VARIANCE> 26
 1.444394e+01 2.047834e+01 1.168367e+01 1.047122e+01 5.309307e+01 1.358714e+01 3.743406e+01 2.886750e+01 4.381964e+01 3.937859e+01 3.377363e+01 3.445338e+01 2.332740e-03 1.418480e-01 3.733501e-01 4.045980e-01 5.665110e-01 8.209684e-01 1.213148e+00 1.029072e+00 1.042618e+00 9.392180e-01 1.299270e+00 1.509556e+00 1.574367e+00 2.241198e-04
<GCONST> 6.861604e+01
<STATE> 4
<MEAN> 26
 4.003016e+00 2.179850e+00 2.392818e+00 -1.326139e-01 -1.658948e+00 -1.079754e+01 -7.454693e+00 -2.095766e+00 -1.907441e+00 -1.551421e+00 1.026488e+00 1.603935e+00 6.337951e-01 -4.030581e-01 -7.183990e-02 -4.406257e-01 1.569774e-01 7.131891e-01 1.505964e+00 9.200973e-01 1.396916e-01 1.356413e-01 6.006170e-01 -7.420657e-04 -3.646801e-01 -4.367053e-02
<VARIANCE> 26
 4.638368e+00 7.028192e+00 1.152745e+01 8.762494e+00 2.691485e+01 4.215731e+01 5.387532e+01 1.615081e+01 1.318584e+01 1.810995e+01 3.109394e+01 1.787961e+01 2.963291e-02 3.577191e-01 5.762005e-01 5.087549e-01 7.369945e-01 1.217599e+00 2.056359e+00 1.681403e+00 1.907739e+00 9.217146e-01 1.216207e+00 1.697448e+00 1.222526e+00 4.945648e-04
<GCONST> 7.071998e+01
<TRANSP> 5
 0.000000e+00 1.000000e+00 0.000000e+00 0.000000e+00 0.000000e+00
 0.000000e+00 8.910371e-01 1.089629e-01 0.000000e+00 0.000000e+00
 0.000000e+00 0.000000e+00 9.310362e-01 6.896385e-02 0.000000e+00
 0.000000e+00 0.000000e+00 0.000000e+00 9.068804e-01 9.311958e-02
 0.000000e+00 0.000000e+00 0.000000e+00 0.000000e+00 0.000000e+00
<ENDHMM>
