~o
<STREAMINFO> 1 26
<VECSIZE> 26<NULLD><MFCC_E_D_Z><DIAGC>
~h "roku"
<BEGINHMM>
<NUMSTATES> 9
<STATE> 2
<MEAN> 26
 6.522532e+00 -1.125828e+00 -6.225431e-02 3.153561e+00 -4.119528e-01 -3.824643e+00 -8.613117e+00 -4.605484e+00 4.444882e+00 -3.191524e+00 2.919733e-01 -1.991776e+00 7.792516e-01 6.569663e-01 3.256126e-01 -8.967285e-01 -2.197859e+00 -3.194868e-01 3.987742e-01 -8.963502e-01 -1.501636e+00 8.810107e-02 2.932344e-01 1.124854e+00 -5.243626e-01 5.314787e-02
<VARIANCE> 26
 1.036419e+01 1.332844e+01 1.654499e+01 7.640833e+01 3.203249e+01 5.988306e+01 5.602951e+01 4.743595e+01 3.174837e+01 4.710477e+01 4.932012e+01 3.229885e+01 1.967330e-02 2.052725e+00 2.454920e+00 1.328009e+00 9.892355e+00 3.223603e+00 6.500805e+00 7.209976e+00 3.929669e+00 4.408448e+00 6.872242e+00 3.128758e+00 2.575643e+00 1.686812e-03
<GCONST> 9.574670e+01
<STATE> 3
<MEAN> 26
 6.966266e+00 5.220554e+00 -4.162480e+00 -1.675047e+01 -2.137694e+00 3.046485e+00 -2.031327e+00 -7.408141e+00 -7.506373e-01 -5.350801e+00 5.921812e+00 9.687905e-02 9.172242e-01 7.451381e-02 9.179155e-01 2.139893e-01 -2.655322e-01 1.093712e-01 4.133427e-01 1.553803e+00 8.781964e-01 -1.679630e+00 -7.541391e-01 -7.097697e-01 8.926671e-01 -2.313844e-02
<VARIANCE> 26
 1.294239e+01 1.172884e+01 6.423872e+00 3.477154e+01 3.589589e+01 3.524112e+01 3.795568e+01 3.357529e+01 4.797441e+01 4.709341e+01 2.981688e+01 4.895230e+01 4.034341e-03 8.051986e-01 6.865059e-01 7.414657e-01 4.963822e+00 2.136623e+00 1.366773e+00 2.173753e+00 1.118259e+00 2.563718e+00 5.426276e+00 1.767222e+00 3.620389e+00 1.395098e-03
<GCONST> 8.258911e+01
<STATE> 4
<MEAN> 26
 2.303531e+00 2.989855e+00 -5.744828e-01 -3.606923e+00 2.876076e-01 1.757700e+00 2.034767e+00 -1.973293e+00 -4.134641e+00 -2.969811e+00 -5.040300e-01 1.061179e+00 4.960384e-01 -9.893917e-01 -7.864392e-01 2.800285e-01 1.380064e+00 2.034856e-01 -2.469266e-01 2.529514e-01 5.783697e-01 7.709039e-01 4.864174e-01 -2.652868e-01 -1.064082e-02 -4.782159e-02
<VARIANCE> 26
 1.212464e+01 7.975120e+00 6.311280e+00 3.322769e+01 1.511361e+01 2.701210e+01 1.903987e+01 1.349733e+01 2.535770e+01 1.740812e+01 1.532802e+01 1.485001e+01 3.532314e-02 4.993193e-01 4.339291e-01 1.110017e+00 2.075676e+00 1.839143e+00 2.835322e+00 1.554879e+00 1.879455e+00 2.269559e+00 2.202317e+00 1.625844e+00 1.370045e+00 1.791201e-03
<GCONST> 7.555170e+01
<STATE> 5
<MEAN> 26
 -1.488774e+00 -2.742005e+00 -5.627660e+00 -1.783051e+00 3.435235e+00 -4.673541e-01 -4.644192e-01 -2.297922e+00 -9.559228e-01 1.958387e+00 -6.992224e-01 8.881822e-01 4.812636e-01 -2.045765e-01 -1.472082e+00 -2.733377e+00 -6.076690e-01 1.101305e+00 -1.451044e+00 -2.033191e+00 -1.151992e+00 -1.021437e-01 1.192448e+00 -2.722530e-01 -3.474670e-01 6.336410e-02
<VARIANCE> 26
 1.157807e+01 1.917271e+01 3.478889e+01 1.603709e+01 3.081664e+01 2.499025e+01 3.067972e+01 2.078862e+01 2.154451e+01 1.872171e+01 2.604603e+01 2.031324e+01 2.823321e-02 1.759511e+00 1.896103e+00 1.765126e+00 1.971021e+00 3.840327e+00 2.710456e+00 3.275612e+00 1.299172e+00 3.657573e+00 2.511772e+00 3.143142e+00 5.047113e+00 2.468029e-03
<GCONST> 8.653987e+01
<STATE> 6
<MEAN> 26
 3.371902e-01 -1.977793e+00 -5.573215e+00 -4.291974e-01 7.543555e-01 -1.040975e+01 -8.616033e+00 -4.718862e+00 -1.839853e+00 2.669418e+00 -1.967650e+00 -2.110387e+00 7.340428e-01 7.682494e-01 1.297827e+00 2.295348e+00 8.316593e-01 -1.914238e+00 -2.028463e+00 -1.860252e+00 -3.902007e-01 -2.164264e-01 -7.108167e-01 3.894530e-01 -9.528973e-01 5.056339e-02
<VARIANCE> 26
 3.309816e+01 4.491741e+01 3.780899e+01 2.150909e+01 5.086559e+01 4.547969e+01 4.492164e+01 2.776096e+01 5.395898e+01 2.160543e+01 2.496537e+01 5.847595e+01 2.852814e-02 1.222106e+00 2.630049e+00 2.144062e+00 1.772116e+00 3.336227e+00 2.138606e+00 2.573716e+00 3.670288e+00 3.228245e+00 1.837911e+00 3.344883e+00 2.208051e+00 2.499620e-03
<GCONST> 9.195712e+01
<STATE> 7
<MEAN> 26
 1.969496e+00 -2.479971e-01 1.276094e+00 2.771505e-01 -6.549543e+00 -1.306390e+01 -1.279361e+01 -3.017166e+00 -2.674573e-01 1.593408e-02 -4.976131e-01 -2.749462e+00 8.232428e-01 -7.248785e-03 -1.522511e-01 3.564287e-01 -3.096940e-01 -4.395921e-01 -1.041992e-01 1.187058e-01 3.340347e-01 1.679187e-01 9.811212e-02 -3.995620e-02 4.880505e-01 -1.912131e-02
<VARIANCE> 26
 3.396213e+01 3.897289e+01 1.321869e+01 3.203639e+01 6.225209e+01 3.025775e+01 4.264260e+01 4.042045e+01 4.016935e+01 3.827507e+01 2.971088e+01 2.963999e+01 5.236437e-02 5.345608e-01 7.269686e-01 3.598962e-01 7.265358e-01 1.092679e+00 8.586763e-01 1.019361e+00 1.164437e+00 1.413078e+00 1.710734e+00 7.592874e-01 1.027848e+00 7.261037e-04
<GCONST> 7.841161e+01
<STATE> 8
<MEAN> 26
 1.544673e+00 4.796411e-01 3.037789e+00 -5.649803e-01 -5.580268e+00 -8.705544e+00 -6.748227e+00 -2.158833e+00 -4.567516e-01 4.739137e-01 -5.432165e-01 9.780039e-01 5.272977e-01 -2.587417e-01 2.947042e-01 -1.338352e-01 4.415983e-01 1.038368e+00 2.165712e+00 1.710171e+00 1.244641e-01 9.436209e-02 -2.435357e-01 1.583846e-01 1.723159e-01 -4.464925e-02
<VARIANCE> 26
 4.152411e+00 1.416107e+01 8.029140e+00 2.159009e+01 3.559378e+01 3.971741e+01 2.244064e+01 1.888574e+01 2.262953e+01 1.558511e+01 2.861387e+01 1.574270e+01 3.760529e-02 7.025650e-01 1.330079e+00 7.443948e-01 1.510097e+00 2.158815e+00 2.100244e+00 1.497354e+00 2.016212e+00 2.022652e+00 2.424481e+00 1.834721e+00 1.284586e+00 1.329578e-03
<GCONST> 7.750298e+01
<TRANSP> 9
 0.000000e+00 1.000000e+00 0.000000e+00 0.000000e+00 0.000000e+00 0.000000e+00 0.000000e+00 0.000000e+00 0.000000e+00
 0.000000e+00 8.386669e-01 1.613331e-01 0.000000e+00 0.000000e+00 0.000000e+00 0.000000e+00 0.000000e+00 0.000000e+00
 0.000000e+00 0.000000e+00 8.127254e-01 1.872746e-01 0.000000e+00 0.000000e+00 0.000000e+00 0.000000e+00 0.000000e+00
 0.000000e+00 0.000000e+00 0.000000e+00 8.741778e-01 1.258222e-01 0.000000e+00 0.000000e+00 0.000000e+00 0.000000e+00
 0.000000e+00 0.000000e+00 0.000000e+00 0.000000e+00 7.231817e-01 2.768183e-01 0.000000e+00 0.000000e+00 0.000000e+00
 0.000000e+00 0.000000e+00 0.000000e+00 0.000000e+00 0.000000e+00 7.734553e-01 2.265448e-01 0.000000e+00 0.000000e+00
 0.000000e+00 0.000000e+00 0.000000e+00 0.000000e+00 0.000000e+00 0.000000e+00 8.912235e-01 1.087765e-01 0.000000e+00
 0.000000e+00 0.000000e+00 0.000000e+00 0.000000e+00 0.000000e+00 0.000000e+00 0.000000e+00 8.207945e-01 1.792055e-01
 0.000000e+00 0.000000e+00 0.000000e+00 0.000000e+00 0.000000e+00 0.000000e+00 0.000000e+00 0.000000e+00 0.000000e+00
<ENDHMM>
