~o
<STREAMINFO> 1 26
<VECSIZE> 26<NULLD><MFCC_E_D_Z><DIAGC>
~h "seven"
<BEGINHMM>
<NUMSTATES> 9
<STATE> 2
<MEAN> 26
 3.732924e+00 2.252669e+00 5.290918e+00 5.701692e-01 -3.775198e+00 -8.739060e+00 -5.292405e+00 -2.201010e+00 1.445414e+00 -5.376651e+00 -2.484069e+00 1.592922e+00 7.531687e-01 3.997531e-01 -1.643911e+00 -8.898422e-01 -1.572693e+00 1.118274e+00 -1.332442e+00 -6.414338e-01 1.121243e+00 8.243924e-01 -1.321763e+00 -5.814846e-01 -3.287788e-01 5.944973e-02
<VARIANCE> 26
 1.231629e+01 3.576291e+01 2.927973e+01 2.357806e+01 3.458234e+01 3.241724e+01 4.970048e+01 5.918291e+01 6.546936e+01 4.071412e+01 2.336548e+01 1.477968e+01 1.892037e-02 1.795250e+00 3.705221e+00 4.800348e+00 2.434038e+00 5.006939e+00 2.783575e+00 4.750331e+00 7.005378e+00 3.769372e+00 3.011279e+00 1.762937e+00 2.752234e+00 9.731578e-04
<GCONST> 9.274996e+01
<STATE> 3
<MEAN> 26
 2.602466e+00 -8.201442e+00 -2.627914e+00 -9.006630e+00 7.550952e+00 -7.988024e+00 -2.965296e+00 1.158435e+00 4.027054e+00 -8.051723e+00 -5.458254e+00 -2.959854e+00 9.493345e-01 1.706797e-02 -1.143106e-01 -3.908846e-01 -3.324691e-01 3.995979e-01 1.901406e-01 -2.122687e-01 -3.489339e-01 6.659049e-02 1.861443e-01 -1.250319e-01 -3.332569e-01 6.869181e-03
<VARIANCE> 26
 7.534422e+00 1.773375e+01 8.394702e+00 6.020411e+00 2.450956e+01 2.272873e+01 7.292788e+01 5.608572e+01 2.572730e+01 2.079039e+01 1.962239e+01 2.821092e+01 4.015659e-03 8.324957e-02 7.265671e-01 3.952059e-01 5.582466e-01 8.107375e-01 1.426930e+00 7.558524e-01 1.845523e+00 9.678721e-01 1.258041e+00 7.482643e-01 2.088720e+00 2.095857e-04
<GCONST> 6.665742e+01
<STATE> 4
<MEAN> 26
 4.768865e+00 -6.756261e-01 2.075110e+00 -3.181432e+00 -1.270985e+00 -1.036908e+01 -7.509581e+00 -3.643598e+00 3.920243e+00 -8.033477e+00 -5.270516e+00 -1.046732e+00 8.796636e-01 2.811830e-01 1.348324e+00 1.530612e+00 1.318154e+00 -1.434211e+00 -1.423447e-01 -4.808828e-01 -1.680148e+00 1.191374e-01 4.548189e-01 6.195556e-02 4.115250e-01 -1.187893e-02
<VARIANCE> 26
 8.485413e+00 2.531935e+01 4.562789e+01 1.852523e+01 4.213551e+01 2.004682e+01 4.035467e+01 8.923654e+01 6.756211e+01 6.355926e+01 2.284467e+01 2.279180e+01 4.880517e-03 1.967983e-01 1.051029e+00 2.275144e+00 1.005578e+00 1.138159e+00 1.556042e+00 2.000229e+00 3.805686e+00 1.404856e+00 2.627546e+00 1.604267e+00 1.610576e+00 3.226190e-04
<GCONST> 8.018928e+01
<STATE> 5
<MEAN> 26
 5.229189e+00 -1.366926e+00 1.157704e+00 -3.466027e+00 9.149094e-01 -9.324895e+00 -9.516884e+00 -1.913765e+00 1.824086e+00 -5.785710e+00 -5.036350e+00 -2.478693e+00 8.722259e-01 -1.698232e-01 -1.954530e+00 -2.573704e+00 -2.028278e+00 2.816597e+00 9.547023e-01 6.444698e-02 2.720000e+00 -6.467434e-01 -5.068222e-01 1.364130e-01 -1.243328e+00 9.728888e-03
<VARIANCE> 26
 9.775395e+00 2.631146e+01 4.875367e+01 2.049025e+01 4.096507e+01 2.031973e+01 3.949014e+01 9.130614e+01 5.232364e+01 4.610030e+01 3.000857e+01 2.056198e+01 5.875529e-03 1.973148e-01 1.788346e+00 2.330960e+00 8.844670e-01 1.445671e+00 1.171456e+00 2.135631e+00 2.741230e+00 1.814310e+00 3.894757e+00 1.855645e+00 1.893734e+00 3.354822e-04
<GCONST> 8.142024e+01
<STATE> 6
<MEAN> 26
 4.513457e+00 -7.940063e+00 -5.580373e+00 -1.072068e+01 1.135884e+01 -1.118402e+00 -4.482963e+00 -2.524164e+00 8.696526e-01 -5.962881e+00 -2.652987e+00 -8.479478e+00 8.775482e-01 1.507787e-01 -8.017513e-03 -2.269737e-01 -2.601977e-01 2.980747e-01 1.069417e+00 3.359254e-01 -7.632410e-01 -8.389963e-02 5.205681e-01 4.811867e-01 -2.209100e-01 -1.334539e-02
<VARIANCE> 26
 9.248792e+00 9.701851e+00 1.175208e+01 1.386273e+01 7.122551e+00 2.362106e+01 3.322489e+01 3.326233e+01 3.475328e+01 9.940166e+00 1.763768e+01 1.841057e+01 7.167945e-03 2.748276e-01 9.453983e-01 4.705816e-01 7.888582e-01 1.176772e+00 8.126289e-01 7.564258e-01 1.963426e+00 1.194981e+00 1.043302e+00 5.985990e-01 9.484806e-01 2.088896e-04
<GCONST> 6.539055e+01
<STATE> 7
<MEAN> 26
 5.054163e+00 -3.459434e+00 -6.845642e+00 -7.651692e+00 7.437602e+00 3.040935e+00 -5.414401e+00 -3.215432e+00 1.194405e-01 -4.167080e-01 -8.010253e-01 -5.394615e+00 7.006490e-01 -6.463110e-01 9.524308e-01 2.077808e-01 1.145479e+00 -6.809232e-01 5.776177e-01 7.117488e-01 -2.666391e-02 -2.550299e-02 7.643414e-01 -2.848783e-01 1.934198e-01 -4.053020e-02
<VARIANCE> 26
 8.282362e+00 9.473543e+00 6.747626e+00 2.060955e+01 2.246435e+01 1.751641e+01 2.657791e+01 2.268662e+01 1.182527e+01 1.506675e+01 1.486069e+01 2.973391e+01 1.047456e-02 2.633625e-01 5.305495e-01 1.281238e+00 1.111959e+00 1.238633e+00 8.579861e-01 1.301153e+00 1.331747e+00 9.802595e-01 1.330722e+00 8.186608e-01 1.086005e+00 8.464144e-04
<GCONST> 6.824440e+01
<STATE> 8
<MEAN> 26
 3.188654e-01 4.220104e-01 -2.086415e+00 -6.647961e-01 2.421044e+00 4.099134e+00 1.218532e+00 9.222258e-02 -9.670619e-01 2.559559e+00 -1.457544e+00 -3.503109e+00 4.652745e-01 -7.461003e-01 3.365904e-01 8.700333e-01 1.072801e+00 -1.088859e+00 -2.341374e-01 5.498552e-01 5.369416e-01 -7.104957e-02 3.665941e-01 7.605128e-01 1.122878e+00 -2.735138e-02
<VARIANCE> 26
 5.627151e+00 4.369910e+00 9.805380e+00 8.783596e+00 1.521823e+01 1.351180e+01 1.144391e+01 2.255326e+01 1.372362e+01 1.446194e+01 1.617816e+01 1.809434e+01 3.673315e-02 4.621279e-01 4.227667e-01 6.792158e-01 1.289450e+00 1.971377e+00 1.441396e+00 2.199704e+00 1.877698e+00 1.332900e+00 1.660793e+00 1.353184e+00 1.175667e+00 7.474428e-04
<GCONST> 6.874555e+01
<TRANSP> 9
 0.000000e+00 1.000000e+00 0.000000e+00 0.000000e+00 0.000000e+00 0.000000e+00 0.000000e+00 0.000000e+00 0.000000e+00
 0.000000e+00 8.318071e-01 1.681928e-01 0.000000e+00 0.000000e+00 0.000000e+00 0.000000e+00 0.000000e+00 0.000000e+00
 0.000000e+00 0.000000e+00 8.227665e-01 1.772335e-01 0.000000e+00 0.000000e+00 0.000000e+00 0.000000e+00 0.000000e+00
 0.000000e+00 0.000000e+00 0.000000e+00 8.466089e-01 1.533911e-01 0.000000e+00 0.000000e+00 0.000000e+00 0.000000e+00
 0.000000e+00 0.000000e+00 0.000000e+00 0.000000e+00 7.628011e-01 2.371989e-01 0.000000e+00 0.000000e+00 0.000000e+00
 0.000000e+00 0.000000e+00 0.000000e+00 0.000000e+00 0.000000e+00 8.705363e-01 1.294636e-01 0.000000e+00 0.000000e+00
 0.000000e+00 0.000000e+00 0.000000e+00 0.000000e+00 0.000000e+00 0.000000e+00 8.197036e-01 1.802964e-01 0.000000e+00
 0.000000e+00 0.000000e+00 0.000000e+00 0.000000e+00 0.000000e+00 0.000000e+00 0.000000e+00 7.860015e-01 2.139985e-01
 0.000000e+00 0.000000e+00 0.000000e+00 0.000000e+00 0.000000e+00 0.000000e+00 0.000000e+00 0.000000e+00 0.000000e+00
<ENDHMM>
