~o
<STREAMINFO> 1 26
<VECSIZE> 26<NULLD><MFCC_E_D_Z><DIAGC>
~h "zero"
<BEGINHMM>
<NUMSTATES> 9
<STATE> 2
<MEAN> 26
 -7.309427e+00 3.385204e+00 -1.633061e+00 3.816376e+00 1.028740e+00 -2.742226e+00 2.744066e+00 -7.077522e-02 -4.896755e-01 5.269306e-01 -2.588294e-01 6.296042e-01 5.882023e-01 -3.206912e-01 5.961764e-01 4.294541e-01 4.240006e-01 -4.507518e-01 -1.441292e+00 3.634765e-01 -3.259030e-01 -3.402427e-01 -1.357049e-01 -1.187138e-01 4.229616e-01 3.595336e-02
<VARIANCE> 26
 2.900493e+01 2.050099e+01 1.377708e+01 2.432278e+01 2.250893e+01 3.784688e+01 2.423015e+01 3.030911e+01 2.113643e+01 2.711340e+01 1.721710e+01 1.705809e+01 1.915428e-02 4.687061e+00 1.436751e+00 2.424941e+00 1.280590e+00 2.611030e+00 3.689967e+00 2.170077e+00 1.828540e+00 2.128067e+00 2.966512e+00 1.683268e+00 1.475250e+00 1.150138e-03
<GCONST> 8.408023e+01
<STATE> 3
<MEAN> 26
 6.076291e-01 1.755650e+00 5.803347e+00 4.032621e+00 -8.474148e+00 -1.506956e+01 -2.065496e+00 -1.608152e+00 -4.752428e+00 -2.952933e+00 9.812124e-01 1.835420e+00 8.550383e-01 2.688466e+00 -1.983507e+00 1.539869e+00 -1.806732e+00 -3.087435e+00 -1.662294e+00 -1.893566e+00 5.644543e-01 -2.637388e-01 -5.080625e-01 1.256913e+00 -4.976673e-01 5.163907e-02
<VARIANCE> 26
 2.839242e+01 2.656427e+01 5.825089e+00 2.515361e+01 4.879452e+01 2.559719e+01 4.257582e+01 2.681526e+01 3.946090e+01 3.760695e+01 2.626271e+01 2.039859e+01 7.380789e-03 1.806126e+00 1.979247e+00 1.254776e+00 1.385708e+00 2.661341e+00 2.634515e+00 3.367017e+00 2.719637e+00 2.558726e+00 2.373233e+00 2.668011e+00 3.282617e+00 6.179705e-04
<GCONST> 8.481905e+01
<STATE> 4
<MEAN> 26
 3.060465e+00 -4.933863e+00 7.283254e+00 -4.206974e+00 -1.284058e+01 -1.413658e+01 -3.730784e+00 3.251915e+00 -9.053868e-01 -3.791623e+00 4.288176e+00 -3.988418e+00 9.501998e-01 7.259916e-02 -5.934856e-01 -7.210470e-02 -1.783566e-01 -4.583297e-03 2.003498e-01 -3.064004e-01 6.134776e-01 3.657520e-01 -1.209867e-01 -1.274190e-01 -3.437751e-01 -3.404748e-03
<VARIANCE> 26
 1.039489e+01 2.080589e+01 1.078549e+01 8.473830e+00 6.466174e+01 1.934253e+01 4.407883e+01 3.768823e+01 4.252207e+01 5.597757e+01 3.414451e+01 2.788761e+01 2.520938e-03 3.834864e-01 5.079207e-01 6.492540e-01 1.611242e+00 5.342902e-01 7.037184e-01 1.309453e+00 7.789240e-01 9.556122e-01 1.106569e+00 1.226870e+00 2.087329e+00 3.275135e-04
<GCONST> 7.129698e+01
<STATE> 5
<MEAN> 26
 6.584929e+00 -7.138819e+00 3.918801e+00 2.670532e+00 -9.885851e+00 -1.079735e+01 -9.719581e+00 2.648316e+00 3.271578e+00 -3.237630e+00 -2.420217e-02 -5.387390e-01 8.326133e-01 9.399292e-01 2.925099e-02 -1.774072e+00 2.861998e-01 1.199182e+00 1.843037e+00 -1.431694e+00 -1.514840e+00 9.357716e-01 9.730179e-01 -3.615040e-01 -1.516997e-01 -5.247120e-03
<VARIANCE> 26
 9.969972e+00 9.111444e+00 2.627923e+01 3.745055e+01 4.359831e+01 3.437910e+01 5.133659e+01 1.690822e+01 3.169119e+01 4.423041e+01 3.963846e+01 2.160537e+01 1.093784e-02 4.253213e-01 1.353931e+00 1.858718e+00 7.234882e+00 3.049929e+00 3.076907e+00 2.378464e+00 1.639565e+00 2.884300e+00 3.991676e+00 3.533881e+00 3.625496e+00 1.644519e-03
<GCONST> 8.697745e+01
<STATE> 6
<MEAN> 26
 9.004495e+00 -2.017080e+00 -5.190440e+00 -8.081617e+00 -4.020625e+00 2.827008e+00 -1.045276e+01 -7.038135e+00 5.882484e-01 3.709856e+00 2.254577e+00 -3.996010e+00 8.817046e-01 -2.724257e-01 1.834537e+00 -3.508142e-01 -3.020137e+00 5.113266e-01 1.768765e+00 1.636428e+00 -8.104705e-01 -1.690382e+00 2.151218e-02 5.960888e-01 1.051517e+00 -8.153838e-03
<VARIANCE> 26
 3.231995e+00 1.625742e+01 1.509357e+01 6.291806e+01 1.552326e+01 5.064687e+01 4.447972e+01 1.658706e+01 2.929971e+01 2.287358e+01 2.452183e+01 3.281055e+01 6.374723e-03 2.406600e-01 2.868273e-01 9.863466e-01 3.501133e+00 1.341738e+00 4.196068e+00 4.214077e+00 2.107051e+00 2.106100e+00 3.435092e+00 2.127256e+00 2.744966e+00 1.260041e-04
<GCONST> 7.725812e+01
<STATE> 7
<MEAN> 26
 7.632472e+00 4.123312e+00 -3.536660e+00 -1.835682e+01 -3.850258e+00 3.208092e+00 -3.257883e+00 -2.880757e+00 -3.499880e+00 -5.645746e-01 8.421872e-01 2.454115e+00 7.907707e-01 -2.269087e-01 4.965823e-01 2.364606e-01 -1.064939e-01 -2.480101e-01 -7.082306e-01 8.475499e-01 1.037220e+00 2.135264e-01 -2.106193e-01 -2.493223e-01 3.795103e-01 -2.525078e-02
<VARIANCE> 26
 5.661096e+00 7.388302e+00 7.979077e+00 4.387528e+01 2.024575e+01 4.061209e+01 1.097657e+01 1.999305e+01 3.096507e+01 5.065322e+01 2.332552e+01 2.087285e+01 7.162551e-03 5.543541e-01 3.870607e-01 6.407675e-01 2.059601e+00 6.916670e-01 9.219885e-01 1.140417e+00 1.309508e+00 1.202370e+00 3.290592e+00 2.155858e+00 1.076096e+00 2.037994e-04
<GCONST> 7.049462e+01
<STATE> 8
<MEAN> 26
 3.205354e+00 2.611385e+00 -1.888275e+00 -6.571304e+00 -2.233177e+00 -2.756091e-01 -4.650796e-01 2.180685e-01 -3.049065e-01 8.926456e-01 1.531559e+00 1.986730e+00 5.497898e-01 -8.743469e-01 -5.439190e-01 3.653556e-01 1.821820e+00 8.163944e-01 8.131214e-02 2.375867e-01 1.599753e-01 1.695080e-01 -5.656158e-02 -6.742157e-02 -1.600637e-01 -3.584723e-02
<VARIANCE> 26
 1.208289e+01 4.891569e+00 4.323654e+00 5.763009e+01 2.173927e+01 1.897901e+01 9.130278e+00 1.333419e+01 1.239222e+01 1.115010e+01 1.349338e+01 1.196255e+01 1.404051e-02 5.068665e-01 3.475969e-01 5.735353e-01 2.123203e+00 1.306501e+00 1.752998e+00 9.937293e-01 1.618640e+00 1.669241e+00 1.287067e+00 1.776007e+00 1.308109e+00 9.965451e-04
<GCONST> 6.841452e+01
<TRANSP> 9
 0.000000e+00 1.000000e+00 0.000000e+00 0.000000e+00 0.000000e+00 0.000000e+00 0.000000e+00 0.000000e+00 0.000000e+00
 0.000000e+00 8.532614e-01 1.467386e-01 0.000000e+00 0.000000e+00 0.000000e+00 0.000000e+00 0.000000e+00 0.000000e+00
 0.000000e+00 0.000000e+00 7.025701e-01 2.974299e-01 0.000000e+00 0.000000e+00 0.000000e+00 0.000000e+00 0.000000e+00
 0.000000e+00 0.000000e+00 0.000000e+00 8.831424e-01 1.168577e-01 0.000000e+00 0.000000e+00 0.000000e+00 0.000000e+00
 0.000000e+00 0.000000e+00 0.000000e+00 0.000000e+00 8.190090e-01 1.809910e-01 0.000000e+00 0.000000e+00 0.000000e+00
 0.000000e+00 0.000000e+00 0.000000e+00 0.000000e+00 0.000000e+00 7.800869e-01 2.199131e-01 0.000000e+00 0.000000e+00
 0.000000e+00 0.000000e+00 0.000000e+00 0.000000e+00 0.000000e+00 0.000000e+00 8.346379e-01 1.653621e-01 0.000000e+00
 0.000000e+00 0.000000e+00 0.000000e+00 0.000000e+00 0.000000e+00 0.000000e+00 0.000000e+00 8.456585e-01 1.543414e-01
 0.000000e+00 0.000000e+00 0.000000e+00 0.000000e+00 0.000000e+00 0.000000e+00 0.000000e+00 0.000000e+00 0.000000e+00
<ENDHMM>
