~o
<STREAMINFO> 1 39
<VECSIZE> 39<NULLD><MFCC_D_A_0><DIAGC>
~h "go"
<BEGINHMM>
<NUMSTATES> 5
<STATE> 2
<NUMMIXES> 2
<MIXTURE> 1 5.494506e-01
<MEAN> 39
 2.999928e-01 7.338987e+00 -7.565282e+00 -1.727367e+01 -6.765865e+00 6.058671e+00 -3.712891e+00 -3.863190e+00 -4.186182e+00 -1.106937e+01 3.939898e+00 -2.674320e+00 6.929087e+01 8.870038e-01 9.115647e-01 1.599126e+00 -2.383081e+00 -1.719830e+00 6.395449e-01 -1.020871e+00 -9.267740e-01 1.807993e+00 -1.300064e+00 7.111873e-01 -3.449968e-01 1.471202e+00 -2.929612e-01 -4.392270e-01 -1.226372e-01 1.905041e-01 5.000129e-01 -2.263534e-01 2.521120e-01 3.397453e-01 2.356071e-01 6.330959e-01 -5.015590e-01 3.456663e-01 -3.887873e-01
<VARIANCE> 39
 1.335625e+01 1.215073e+01 2.711752e+01 2.669196e+01 4.350778e+01 4.571049e+01 4.377894e+01 4.201558e+01 3.121786e+01 7.569553e+01 2.213099e+01 2.823265e+01 1.061913e+01 7.279243e-01 1.606465e+00 4.060353e+00 3.342382e+00 3.166322e+00 2.684911e+00 2.563737e+00 3.478841e+00 3.000988e+00 3.487159e+00 3.136350e+00 2.249612e+00 1.127409e+00 1.279895e-01 2.688363e-01 1.625090e+00 3.211511e-01 5.281155e-01 4.328648e-01 2.222648e-01 3.342086e-01 7.427908e-01 3.238978e-01 5.185323e-01 4.377341e-01 1.632677e-01
<GCONST> 1.137307e+02
<MIXTURE> 2 4.505495e-01
<MEAN> 39
 -2.806534e+00 2.849902e+00 -1.112641e+01 -1.286504e+01 1.243757e-01 -2.091786e+00 1.829815e+00 -2.021059e+00 -6.228676e+00 8.109738e-01 -1.499645e+00 2.047168e+00 6.277728e+01 1.191453e+00 4.365126e-01 -7.428001e-01 -2.616147e+00 -5.627972e-01 1.425526e-01 -2.508081e-01 -9.957775e-01 -1.276538e+00 -8.275757e-01 7.598832e-01 -2.864903e-01 2.569099e+00 -5.976634e-02 3.973273e-01 1.264697e+00 4.215907e-01 -3.250878e-01 1.930942e-01 -2.214567e-01 -3.463530e-01 6.690847e-01 -4.580199e-01 5.255395e-01 -2.943126e-01 -3.890986e-01
<VARIANCE> 39
 7.060581e+00 2.660181e+01 5.697386e+01 4.569168e+01 3.562553e+01 3.187622e+01 2.072316e+01 4.673136e+01 2.400096e+01 1.218491e+01 1.928359e+01 1.103018e+01 3.793120e+01 1.579997e+00 2.940671e+00 6.942507e+00 5.050069e+00 6.437568e+00 2.380796e+00 1.835248e+00 2.821887e+00 3.895036e+00 2.442057e+00 3.542713e+00 2.073638e+00 2.893627e+00 1.567887e-01 6.370863e-01 1.679488e+00 1.101852e+00 1.056688e+00 4.180612e-01 4.293427e-01 5.420266e-01 8.727311e-01 3.101683e-01 7.117730e-01 2.320430e-01 3.967435e-01
<GCONST> 1.201431e+02
<STATE> 3
<NUMMIXES> 2
<MIXTURE> 1 6.071429e-01
<MEAN> 39
 -6.335677e-01 5.058472e+00 -5.730159e+00 -2.308665e+01 -3.946441e+00 4.118484e-01 -8.711074e-01 -5.455925e+00 -1.536885e+00 -4.323243e+00 2.973501e+00 -3.930106e-01 7.206651e+01 -5.922957e-02 -1.186293e-02 -5.873054e-02 -3.352675e-01 -7.602596e-02 1.130779e-01 8.531993e-02 1.037707e-01 1.317846e-01 -7.245797e-02 -2.109254e-01 4.515187e-02 -3.504878e-02 -1.935599e-02 6.289731e-02 -3.296217e-02 1.434924e-01 2.664838e-03 -1.731148e-02 4.785425e-02 4.255154e-02 -9.912703e-02 2.184477e-02 -5.406979e-02 -1.666609e-02 -1.517090e-01
<VARIANCE> 39
 1.125967e+01 9.827939e+00 1.595736e+01 4.861599e+01 2.392370e+01 5.523514e+01 3.058082e+01 4.595485e+01 2.716247e+01 3.223513e+01 2.207628e+01 1.921299e+01 2.195924e+01 1.019922e-01 3.920639e-01 2.415408e-01 7.436984e-01 4.839174e-01 5.881040e-01 5.755968e-01 5.508262e-01 7.014195e-01 7.566564e-01 4.781131e-01 7.899145e-01 2.489397e-01 2.695301e-02 4.735187e-02 5.136874e-02 1.213675e-01 9.149201e-02 1.060482e-01 1.016564e-01 9.584793e-02 1.193841e-01 1.144884e-01 9.591321e-02 1.432032e-01 3.075691e-02
<GCONST> 6.997691e+01
<MIXTURE> 2 3.928571e-01
<MEAN> 39
 2.693194e+00 6.311723e+00 -4.605560e+00 -3.093578e+01 -1.448759e+01 4.164510e+00 -4.824879e+00 -4.862681e+00 6.012748e+00 -1.331142e+01 -1.000379e+00 3.017223e+00 6.857085e+01 -8.935897e-02 -3.268071e-01 -1.569474e-01 -1.644466e-01 -5.872962e-01 -8.438557e-01 1.256825e-01 7.040256e-01 1.665888e-01 9.630308e-01 -4.645334e-01 6.084302e-01 -1.221736e+00 -1.698461e-01 -4.616446e-02 -1.507512e-02 5.596428e-01 6.348991e-03 -3.210101e-02 1.099949e-01 1.305609e-01 -1.399331e-01 1.871776e-01 1.244879e-01 -5.976134e-02 -3.891691e-01
<VARIANCE> 39
 1.391364e+01 1.139797e+01 7.354998e+00 7.969016e+00 4.616204e+01 3.752942e+01 8.240456e+01 9.242049e+01 2.558936e+01 4.630052e+01 1.634178e+01 1.269109e+01 1.426676e+01 5.580617e-01 7.140870e-01 6.399867e-01 2.467456e+00 1.221655e+00 8.898587e-01 1.291024e+00 2.127549e+00 1.178830e+00 1.614166e+00 1.034511e+00 1.322803e+00 2.103422e+00 5.880769e-02 1.314674e-01 1.495108e-01 3.344220e-01 2.645161e-01 1.534136e-01 2.812827e-01 2.906020e-01 2.643943e-01 1.805315e-01 1.368227e-01 2.931957e-01 7.607455e-02
<GCONST> 9.220990e+01
<STATE> 4
<NUMMIXES> 2
<MIXTURE> 1 2.733333e-01
<MEAN> 39
 -1.470342e+00 6.764519e+00 -7.987270e+00 -1.827339e+01 -6.182158e+00 2.195902e+00 8.100866e-01 8.075658e-01 -5.278974e+00 -3.625392e+00 -1.309775e+00 -7.254429e-01 6.533695e+01 -1.090593e+00 -4.545530e-01 7.188072e-01 2.662926e+00 3.128134e-01 -1.686835e-01 6.510753e-01 7.263106e-01 -3.058501e-02 -8.451740e-02 -2.669899e-01 1.911145e-01 -1.996477e+00 -2.044093e-01 -2.809313e-01 2.103071e-01 5.602904e-01 3.495134e-01 4.321161e-02 3.746236e-02 -4.445538e-02 2.883959e-01 9.758214e-02 1.403781e-01 9.291157e-03 -5.131686e-02
<VARIANCE> 39
 1.103116e+01 9.062112e+00 1.403900e+01 5.734584e+01 8.335651e+00 4.282221e+01 1.422240e+01 1.950509e+01 1.860772e+01 1.077660e+01 1.086670e+01 9.578713e+00 2.766078e+01 4.178171e-01 9.055235e-01 7.654776e-01 2.551470e+00 1.775085e+00 1.433851e+00 1.531736e+00 1.064529e+00 1.888559e+00 1.309504e+00 7.705910e-01 9.045449e-01 1.197798e+00 4.817781e-02 1.260560e-01 1.080811e-01 3.505847e-01 1.460910e-01 2.723570e-01 2.101199e-01 2.377865e-01 2.305084e-01 1.291873e-01 1.796986e-01 1.695207e-01 1.397732e-01
<GCONST> 8.601741e+01
<MIXTURE> 2 7.266667e-01
<MEAN> 39
 -6.108567e+00 2.738255e+00 -3.288283e+00 -7.848936e+00 -6.500021e+00 -1.136560e+00 2.873864e-01 -1.606851e-02 1.933527e+00 -1.736712e+00 3.386798e-01 1.745151e+00 5.131964e+01 -5.973458e-01 -2.702699e-01 1.160303e-01 1.819004e+00 7.261798e-01 -8.161023e-02 2.593428e-01 1.809295e-01 1.175331e-01 5.920496e-01 2.796709e-01 -8.181737e-02 -8.259249e-01 6.800398e-02 5.697431e-02 1.600706e-02 -1.875446e-01 3.407815e-02 7.331038e-03 -1.633956e-01 -1.302271e-01 -1.516087e-02 -3.830939e-02 8.664222e-02 4.965134e-02 2.216946e-01
<VARIANCE> 39
 7.353199e+00 2.233509e+00 8.140586e+00 7.090643e+01 4.636010e+01 1.286339e+01 2.721596e+01 1.857836e+01 2.372368e+01 1.220828e+01 1.618946e+01 1.861604e+01 2.247332e+01 5.338938e-01 2.469860e-01 6.852918e-01 4.246137e+00 1.563314e+00 1.471530e+00 1.271011e+00 1.927023e+00 1.490718e+00 1.686102e+00 1.433688e+00 1.411440e+00 1.111811e+00 2.586183e-02 3.588208e-02 1.331989e-01 3.802369e-01 2.222789e-01 2.350035e-01 1.754995e-01 2.227950e-01 2.428234e-01 3.664649e-01 3.000141e-01 2.678102e-01 7.793792e-02
<GCONST> 8.679212e+01
<TRANSP> 5
 0.000000e+00 1.000000e+00 0.000000e+00 0.000000e+00 0.000000e+00
 0.000000e+00 8.241758e-01 1.758242e-01 0.000000e+00 0.000000e+00
 0.000000e+00 0.000000e+00 9.183673e-01 8.163264e-02 0.000000e+00
 0.000000e+00 0.000000e+00 0.000000e+00 8.933333e-01 1.066667e-01
 0.000000e+00 0.000000e+00 0.000000e+00 0.000000e+00 0.000000e+00
<ENDHMM>
