~o
<STREAMINFO> 1 39
<VECSIZE> 39<NULLD><MFCC_D_A_0><DIAGC>
~h "ichi"
<BEGINHMM>
<NUMSTATES> 7
<STATE> 2
<NUMMIXES> 2
<MIXTURE> 1 6.792453e-01
<MEAN> 39
 -1.136220e+01 1.080018e+01 1.401394e+01 -6.867869e+00 -2.006421e+00 -4.222064e+00 -9.261944e+00 -6.603679e+00 -2.431309e-01 -1.104979e+01 2.057474e+00 -1.146295e+00 6.608395e+01 1.738526e-01 6.447904e-01 2.908652e-01 1.691410e-01 -6.486695e-02 -3.162272e-01 -6.649529e-02 -2.184757e-01 -3.954780e-01 -2.583981e-01 -4.220728e-01 -3.022774e-01 2.077516e-01 6.373163e-02 -3.897823e-01 -4.961329e-01 3.267670e-01 1.389151e-01 2.779106e-01 3.613056e-01 2.197434e-01 -1.429538e-02 3.346830e-01 1.022294e-02 5.401537e-02 -4.982902e-01
<VARIANCE> 39
 5.918823e+00 2.962374e+01 3.626894e+01 6.624542e+01 1.643898e+01 7.498456e+01 2.338081e+01 3.072035e+01 3.576013e+01 5.254374e+01 8.593813e+01 1.877880e+01 1.930068e+01 7.998824e-01 2.483011e+00 4.903281e+00 3.913142e+00 2.592978e+00 3.496081e+00 4.005556e+00 2.084502e+00 1.801150e+00 3.056213e+00 2.923012e+00 1.441496e+00 5.627470e+00 1.367009e-01 2.951410e-01 2.504041e-01 4.340076e-01 2.773565e-01 5.480401e-01 4.928330e-01 3.913106e-01 3.970054e-01 3.349456e-01 4.698938e-01 2.596310e-01 2.390041e-01
<GCONST> 1.145337e+02
<MIXTURE> 2 3.207547e-01
<MEAN> 39
 -7.188638e+00 7.053144e+00 2.018449e+01 -1.021465e+01 -1.346882e+01 1.997622e+00 -1.541878e+01 -9.940353e+00 -7.092312e+00 -2.923045e+00 -3.045382e-02 -7.231934e+00 6.516060e+01 2.707859e-01 2.807032e-01 3.120263e-01 2.120203e-01 -2.762154e-01 -3.165808e-01 -2.682292e-02 -3.353637e-01 1.212431e-01 2.353257e-01 -2.439254e-01 -8.901475e-02 5.336770e-01 -1.635771e-01 -1.188437e-01 -7.230850e-01 6.571273e-01 6.540108e-01 -9.626141e-02 5.353488e-01 2.511992e-01 2.849259e-01 1.808196e-01 8.814236e-03 2.851305e-01 -7.306674e-01
<VARIANCE> 39
 4.523759e+00 1.462558e+01 8.725217e+00 1.371958e+01 3.184792e+01 6.830209e+00 2.994181e+01 3.866086e+01 2.732349e+01 2.156412e+01 8.341660e+00 2.940987e+01 3.636440e+01 5.986580e-01 7.019331e-01 5.488638e+00 4.947136e+00 4.131280e+00 1.091589e+00 5.011277e+00 3.127309e+00 3.809967e+00 1.716397e+00 7.828041e-01 2.401326e+00 5.939960e+00 6.835594e-02 1.993501e-01 4.173365e-01 3.389671e-01 3.376900e-01 1.515335e-01 5.259897e-01 3.408673e-01 5.834855e-01 3.546241e-01 1.443659e-01 5.055522e-01 2.243353e-01
<GCONST> 1.029187e+02
<STATE> 3
<NUMMIXES> 2
<MIXTURE> 1 4.407895e-01
<MEAN> 39
 -1.097922e+01 3.607389e+00 1.680751e+00 4.374686e+00 2.992079e+00 1.337920e+00 -1.453741e+00 -1.392604e+00 -9.665851e-02 -2.206338e+00 -7.687787e-01 -2.969915e-01 5.897301e+01 -2.675004e-01 -9.921123e-01 -9.156476e-01 1.146530e-01 2.414110e-01 4.528807e-01 6.367584e-01 4.807211e-01 5.117849e-01 6.246638e-01 7.065182e-01 2.676308e-01 -4.892496e-01 -2.094508e-01 9.724803e-02 1.255905e-01 -2.996179e-01 -1.080408e-01 -1.174796e-01 -1.461408e-01 -1.019612e-01 -6.945760e-02 -3.418738e-02 3.091483e-02 1.609587e-02 3.459854e-01
<VARIANCE> 39
 6.069632e+00 3.022009e+01 1.253913e+01 8.091685e+00 5.229633e+00 1.142603e+01 1.480075e+01 2.371279e+01 1.786862e+01 2.436840e+01 1.790154e+01 1.160477e+01 3.882300e+00 1.429223e+00 1.243873e+00 1.437641e+00 1.138379e+00 8.455116e-01 1.551802e+00 1.388269e+00 2.500447e+00 1.801615e+00 1.922720e+00 1.005677e+00 9.937783e-01 2.158280e+00 3.103767e-01 1.864988e-01 2.760603e-01 2.142419e-01 9.899956e-02 3.478632e-01 1.845807e-01 3.994677e-01 3.635466e-01 3.380718e-01 1.552673e-01 1.920588e-01 1.079885e-01
<GCONST> 8.933638e+01
<MIXTURE> 2 5.592105e-01
<MEAN> 39
 -9.668153e+00 4.563837e+00 2.594154e+00 1.966935e+00 1.116942e+00 1.491003e+00 -2.668778e+00 -3.582809e+00 -2.071441e+00 -2.945118e+00 1.803900e+00 -6.368641e-01 4.911262e+01 -7.465202e-01 -6.657768e-01 -1.518864e+00 5.226054e-01 3.002509e-01 2.843763e-01 4.847328e-01 5.557021e-01 1.875078e-01 3.653158e-01 -7.008319e-02 5.276889e-01 -5.772867e-01 -3.610686e-01 2.094188e-01 1.390757e-01 -1.908946e-01 -1.269549e-01 -2.098795e-01 -5.906533e-02 -8.548507e-02 1.357931e-01 -1.358165e-01 -2.789976e-02 -2.169015e-02 6.457477e-01
<VARIANCE> 39
 4.383210e+00 8.811238e+00 2.920834e+01 5.484390e+01 2.597193e+01 1.883234e+01 1.374279e+01 1.640031e+01 1.508334e+01 1.794875e+01 1.594219e+01 1.573518e+01 1.283823e+01 1.212528e+00 1.373710e+00 1.294104e+00 1.099367e+00 2.312561e+00 1.528556e+00 1.534935e+00 1.262672e+00 1.556327e+00 1.395469e+00 1.179981e+00 1.041221e+00 2.649295e+00 2.112998e-01 1.628457e-01 1.706612e-01 1.877090e-01 3.205149e-01 2.858224e-01 2.912230e-01 2.368684e-01 2.699022e-01 2.072388e-01 2.086313e-01 1.845674e-01 1.440747e-01
<GCONST> 9.278929e+01
<STATE> 4
<NUMMIXES> 2
<MIXTURE> 1 4.748201e-01
<MEAN> 39
 -2.916311e+01 6.098340e+00 -4.431221e+00 -4.114821e+00 4.570048e+00 -4.234565e+00 3.952473e+00 -2.160056e+00 4.685482e+00 1.075280e+00 2.787439e+00 9.289311e-01 6.743731e+01 -6.776956e-01 1.681790e-01 2.938589e-01 -6.517858e-01 4.063264e-01 -1.178516e-01 5.048983e-01 7.119838e-02 3.836074e-02 3.571532e-01 5.595359e-02 3.498969e-01 9.822851e-01 5.675790e-01 -1.207239e-01 2.583472e-01 1.342386e-01 -8.158237e-02 1.705699e-01 -1.442482e-01 -2.494243e-02 -2.644621e-01 -8.953432e-02 -1.083705e-01 -4.602813e-03 -3.472214e-01
<VARIANCE> 39
 1.037819e+01 1.965339e+01 1.686150e+01 1.607570e+01 8.103803e+00 1.298576e+01 1.530494e+01 2.319024e+01 5.996889e+00 2.086667e+01 1.655353e+01 7.650181e+00 2.140858e+01 1.667848e+00 1.315170e+00 5.675076e-01 1.011096e+00 9.503949e-01 1.155441e+00 1.088518e+00 1.367607e+00 8.360565e-01 1.253803e+00 1.170372e+00 7.590694e-01 6.225601e-01 2.509376e-01 2.331026e-01 2.235531e-01 1.958672e-01 1.715388e-01 2.178577e-01 2.131488e-01 2.950136e-01 2.294752e-01 2.417146e-01 2.342731e-01 1.581835e-01 9.826308e-02
<GCONST> 8.550854e+01
<MIXTURE> 2 5.251799e-01
<MEAN> 39
 -2.117850e+01 4.503798e+00 -9.837879e-01 3.594792e-01 2.878396e+00 -2.067821e+00 6.207365e-01 -2.574245e+00 -6.853339e-02 -2.584660e+00 -3.189613e-01 1.373127e-01 6.203320e+01 -9.670419e-01 9.621358e-01 9.691734e-01 -9.465640e-01 -1.561617e-01 -1.376886e+00 -2.751764e-01 -1.003060e+00 -3.823115e-01 -5.334666e-01 -5.650986e-01 -6.153831e-01 2.101965e+00 3.080981e-01 -3.467789e-02 2.790479e-01 -1.452750e-01 -2.699977e-01 -4.125195e-02 -1.133348e-01 -8.408709e-02 -7.308039e-02 7.792039e-02 6.825357e-02 -5.198440e-02 -1.177598e-01
<VARIANCE> 39
 2.913468e+01 1.880183e+01 4.458932e+01 2.743576e+01 2.215204e+01 2.857863e+01 2.183866e+01 3.069776e+01 2.743030e+01 3.906165e+01 2.132943e+01 1.520535e+01 4.372979e+01 1.140939e+01 9.459441e-01 4.961973e+00 1.003829e+00 4.427313e+00 1.765334e+00 3.948452e+00 2.689600e+00 3.529590e+00 1.306861e+00 2.219798e+00 1.323807e+00 2.210535e+00 7.932566e-01 3.360230e-01 4.144720e-01 1.469046e-01 7.124799e-01 4.729041e-01 6.271972e-01 5.379456e-01 3.987741e-01 2.624854e-01 4.369826e-01 2.385190e-01 2.224996e-01
<GCONST> 1.140746e+02
<STATE> 5
<NUMMIXES> 2
<MIXTURE> 1 3.604651e-01
<MEAN> 39
 -9.855662e+00 4.103923e+00 1.433339e+01 -8.033038e+00 -1.061633e+01 -6.821455e+00 -1.004928e+01 -1.138088e+01 -9.522017e+00 -4.831706e+00 -2.007026e+00 -4.796230e+00 6.838100e+01 5.747836e-01 -5.383940e-01 7.010800e-01 -8.126712e-01 -1.506954e+00 6.708209e-02 -1.127084e+00 -1.742667e-01 1.564890e-02 1.633204e-01 4.568103e-01 -8.519562e-02 -1.699930e-01 -3.293906e-01 3.940012e-02 -3.506110e-01 1.435336e-01 3.040846e-01 1.030039e-01 2.616973e-01 2.231226e-01 2.402456e-01 8.104306e-02 -1.524508e-02 8.124349e-02 -2.136479e-01
<VARIANCE> 39
 1.558872e+01 1.342841e+01 2.673914e+01 2.487647e+01 2.106956e+01 7.449448e+00 1.723271e+01 2.084484e+01 1.951714e+01 4.533691e+01 1.531224e+01 8.740501e+00 1.572383e+01 6.944652e-01 4.278109e-01 8.040894e-01 9.836048e-01 1.282032e+00 9.859951e-01 9.655945e-01 9.820540e-01 1.954107e+00 1.264919e+00 1.209236e+00 9.351779e-01 2.576946e-01 1.170979e-01 1.062278e-01 1.483151e-01 1.937484e-01 1.963008e-01 2.402202e-01 2.545843e-01 1.817525e-01 3.317929e-01 2.166629e-01 2.943363e-01 2.565342e-01 3.542669e-02
<GCONST> 8.468261e+01
<MIXTURE> 2 6.395349e-01
<MEAN> 39
 -2.969442e+01 4.812197e+00 -4.601809e-01 -8.167459e+00 3.821100e+00 -4.373972e+00 1.263860e+00 -1.680170e+00 2.580278e+00 1.291235e+00 2.811463e+00 1.167093e+00 6.951810e+01 3.046372e-01 -3.056463e-01 2.390924e-01 -1.118874e-01 -2.811615e-01 -5.358198e-02 -1.770138e-01 2.294779e-02 -2.458941e-01 -6.034696e-02 2.955242e-02 -1.622614e-01 -3.469563e-01 6.692209e-02 -5.994069e-03 -3.953909e-02 7.430863e-03 -7.399827e-03 4.089381e-03 -2.222428e-03 6.462898e-03 2.621321e-02 -1.198940e-02 -5.006227e-03 -4.451478e-03 -5.438206e-02
<VARIANCE> 39
 1.036257e+01 6.751890e+00 1.962635e+01 7.794674e+00 9.282652e+00 7.935176e+00 9.552608e+00 1.918068e+01 1.173671e+01 3.012565e+01 1.090820e+01 9.788239e+00 1.234404e+01 1.576046e-01 2.342016e-01 4.299882e-01 5.364811e-01 8.923854e-01 1.042478e+00 8.379957e-01 9.963921e-01 1.062082e+00 1.265218e+00 9.213166e-01 7.850109e-01 9.424149e-02 2.161972e-02 4.731927e-02 8.236338e-02 9.867868e-02 1.950689e-01 2.159262e-01 1.799319e-01 1.779765e-01 2.221597e-01 2.516875e-01 1.433174e-01 1.570437e-01 1.000000e-02
<GCONST> 6.651968e+01
<STATE> 6
<NUMMIXES> 2
<MIXTURE> 1 5.874126e-01
<MEAN> 39
 -1.754121e+01 1.354276e+00 3.331407e+00 -5.700252e+00 3.396541e+00 -1.827369e+00 2.089250e+00 -1.194263e+00 1.546777e+00 1.483242e+00 1.779134e+00 -7.514938e-04 5.930367e+01 1.262013e+00 -2.530563e-01 -2.358591e-01 4.648646e-01 -3.459821e-02 3.061713e-01 -1.496179e-01 2.981167e-01 5.209063e-02 1.151000e-01 8.729725e-04 -2.188744e-02 -1.116793e+00 2.062440e-02 3.227345e-02 -7.706283e-02 1.571327e-01 7.601713e-02 4.135928e-02 -1.895611e-02 -4.394694e-02 -2.217189e-02 1.701454e-02 9.787291e-03 -4.562579e-02 4.210654e-02
<VARIANCE> 39
 2.672251e+01 1.301377e+01 1.709767e+01 2.030390e+01 2.619155e+01 1.850582e+01 3.690026e+01 1.543739e+01 1.454854e+01 2.328643e+01 1.696742e+01 1.618180e+01 3.494636e+01 9.601617e-01 2.951052e-01 9.779150e-01 1.149103e+00 1.071525e+00 1.120997e+00 1.524445e+00 1.431630e+00 1.450321e+00 1.565323e+00 1.691132e+00 1.481390e+00 5.792412e-01 1.172305e-01 4.940078e-02 1.617587e-01 1.442891e-01 1.679406e-01 2.493279e-01 3.333886e-01 1.659115e-01 2.642669e-01 2.926491e-01 3.264646e-01 2.539356e-01 7.268160e-02
<GCONST> 8.926470e+01
<MIXTURE> 2 4.125874e-01
<MEAN> 39
 -1.099844e+01 3.173972e+00 1.034672e+01 -4.168628e+00 -9.370591e+00 -3.086259e+00 -9.364332e+00 -9.730379e+00 -7.829532e+00 -2.696023e+00 8.474560e-01 -3.584680e+00 5.885788e+01 -1.310723e-01 -1.442827e-01 -1.299672e+00 1.531620e+00 1.670892e+00 7.517250e-01 1.274220e+00 6.230267e-01 4.129978e-01 4.205130e-01 4.719170e-01 7.215741e-01 -1.876926e+00 2.942573e-03 -6.599422e-02 -1.526256e-01 1.087219e-01 1.883482e-01 6.295303e-02 2.013030e-01 1.639893e-01 8.073447e-02 4.490581e-02 3.518357e-02 1.444664e-01 8.275893e-03
<VARIANCE> 39
 6.256193e+00 7.472771e+00 4.692475e+01 7.403172e+01 6.127673e+01 1.668031e+01 4.560125e+01 1.745559e+01 1.978821e+01 3.159747e+01 2.204011e+01 2.298965e+01 6.108666e+01 8.898181e-01 4.055020e-01 2.844086e+00 2.286523e+00 1.950288e+00 1.739691e+00 3.193009e+00 1.955913e+00 1.634045e+00 2.374213e+00 1.855242e+00 2.502997e+00 7.010353e-01 1.020648e-01 5.010791e-02 4.321159e-01 5.149251e-01 6.633916e-01 4.284682e-01 5.569987e-01 3.906030e-01 3.671543e-01 4.772657e-01 3.020529e-01 5.420954e-01 1.897392e-01
<GCONST> 1.057302e+02
<TRANSP> 7
 0.000000e+00 1.000000e+00 0.000000e+00 0.000000e+00 0.000000e+00 0.000000e+00 0.000000e+00
 0.000000e+00 9.056604e-01 9.433963e-02 0.000000e+00 0.000000e+00 0.000000e+00 0.000000e+00
 0.000000e+00 0.000000e+00 9.013158e-01 9.868422e-02 0.000000e+00 0.000000e+00 0.000000e+00
 0.000000e+00 0.000000e+00 0.000000e+00 8.920863e-01 1.079137e-01 0.000000e+00 0.000000e+00
 0.000000e+00 0.000000e+00 0.000000e+00 0.000000e+00 9.127907e-01 8.720930e-02 0.000000e+00
 0.000000e+00 0.000000e+00 0.000000e+00 0.000000e+00 0.000000e+00 8.951049e-01 1.048951e-01
 0.000000e+00 0.000000e+00 0.000000e+00 0.000000e+00 0.000000e+00 0.000000e+00 0.000000e+00
<ENDHMM>
