~o
<STREAMINFO> 1 39
<VECSIZE> 39<NULLD><MFCC_D_A_0><DIAGC>
~h "san"
<BEGINHMM>
<NUMSTATES> 8
<STATE> 2
<NUMMIXES> 2
<MIXTURE> 1 3.435115e-01
<MEAN> 39
 -1.991680e+01 2.349369e+00 -3.930434e+00 1.249521e+00 9.360921e-01 2.560276e+00 7.790030e-01 5.752372e+00 2.586632e+00 1.410305e+00 7.132988e+00 -1.186664e+00 6.478303e+01 -1.107948e+00 -2.212392e-01 -3.226587e-01 1.415033e-01 -4.849562e-01 1.268573e-01 -3.763640e-02 7.049751e-01 4.723589e-01 -1.043776e-01 4.498604e-01 -1.484585e-01 1.063590e+00 3.020981e-01 -3.031978e-01 -5.935925e-02 1.269015e-02 4.032584e-02 -6.117883e-02 6.867442e-02 -7.814445e-02 -1.972789e-02 -1.233734e-01 -1.538743e-01 2.227055e-01 -6.541094e-02
<VARIANCE> 39
 1.970421e+01 4.489545e+00 2.970879e+01 1.267035e+01 1.715336e+01 1.740539e+01 1.405998e+01 1.351598e+01 1.391282e+01 1.129396e+01 1.900577e+01 1.224032e+01 1.150927e+01 1.417101e+00 1.471783e+00 7.612640e-01 4.501618e-01 1.575755e+00 1.912603e+00 2.244768e+00 1.243244e+00 1.183758e+00 1.239376e+00 1.344934e+00 2.123862e+00 3.411696e-01 2.750549e-01 1.708765e-01 1.523068e-01 1.188227e-01 3.939302e-01 3.260969e-01 4.168656e-01 2.565863e-01 2.740262e-01 3.009640e-01 3.675961e-01 5.264940e-01 8.279569e-02
<GCONST> 9.015163e+01
<MIXTURE> 2 6.564885e-01
<MEAN> 39
 -2.251809e+01 5.397424e+00 -6.563727e+00 5.390933e+00 2.237626e+00 -2.339341e+00 1.595895e+00 -1.029163e+00 2.862512e-01 -2.313601e+00 -9.428979e-01 4.508247e+00 5.514981e+01 -7.675095e-01 1.885338e-01 -3.971998e-01 4.108208e-01 -3.224778e-01 2.801366e-02 9.205966e-02 -2.190253e-01 2.667486e-02 3.281023e-02 -5.664512e-02 9.130950e-02 6.586187e-01 1.980774e-01 -1.024547e-01 5.684051e-02 -5.264444e-02 -7.066397e-02 1.434118e-01 -8.555504e-03 3.335748e-02 1.660946e-02 1.826963e-02 4.406331e-02 -6.309675e-02 -9.604971e-02
<VARIANCE> 39
 1.633636e+01 1.006188e+01 1.237224e+01 4.429334e+01 1.782674e+01 5.644080e+01 1.351132e+01 2.092159e+01 2.705124e+01 2.108007e+01 1.785085e+01 1.419175e+01 2.440989e+01 1.258125e+00 5.045551e-01 6.473383e-01 6.005245e-01 7.803733e-01 1.310174e+00 9.639731e-01 1.148604e+00 1.950384e+00 1.135391e+00 1.059302e+00 1.075092e+00 5.363364e-01 1.348879e-01 9.031305e-02 1.157430e-01 1.164278e-01 1.973235e-01 3.316770e-01 1.889548e-01 2.814419e-01 3.861944e-01 2.062236e-01 2.472434e-01 2.218332e-01 5.069022e-02
<GCONST> 8.695570e+01
<STATE> 3
<NUMMIXES> 2
<MIXTURE> 1 6.021506e-01
<MEAN> 39
 -1.769779e+01 -1.590145e+00 -6.843479e+00 -3.752271e-01 9.206234e-01 -4.741487e-02 1.330958e+00 4.273695e+00 2.440516e+00 -3.079485e+00 2.726423e+00 3.329327e+00 6.836063e+01 3.195511e+00 -9.025764e-01 1.893914e-01 -9.769198e-01 1.204682e+00 -9.152203e-01 2.617244e-01 -8.411721e-01 -9.531850e-02 -1.525190e+00 -1.957494e+00 -4.365155e-01 1.521078e+00 4.096814e-01 -4.020045e-02 1.961640e-01 -1.511434e-01 5.166743e-01 -1.607177e-02 1.251085e-01 -5.947466e-01 6.221344e-02 -1.288453e-01 -4.470079e-01 -5.834504e-01 1.153744e-01
<VARIANCE> 39
 2.692519e+01 1.434375e+01 2.288259e+01 2.194372e+01 2.604969e+01 2.636967e+01 2.433102e+01 4.256303e+01 2.002384e+01 3.512451e+01 2.682169e+01 1.789075e+01 2.699598e+01 2.965991e+00 1.370034e+00 2.152585e+00 1.358361e+00 3.965660e+00 2.040065e+00 4.018952e+00 3.400627e+00 2.342875e+00 4.511587e+00 2.642014e+00 3.470286e+00 2.266052e+00 4.793138e-01 3.021590e-01 1.576892e-01 2.052812e-01 4.860097e-01 3.295597e-01 6.965328e-01 6.243047e-01 5.297931e-01 1.025587e+00 5.112915e-01 5.928231e-01 2.469413e-01
<GCONST> 1.146956e+02
<MIXTURE> 2 3.978495e-01
<MEAN> 39
 -2.444831e+01 4.543490e+00 -8.104292e+00 6.171079e+00 9.928877e-01 -1.799296e-01 1.810099e+00 -4.943840e-01 1.690758e+00 -1.533799e+00 -9.356091e-01 4.225188e+00 5.810835e+01 4.118718e-01 -8.134099e-01 -5.220734e-01 -1.164625e+00 -2.206008e-01 -1.808159e-01 -2.564124e-01 2.247777e-01 2.383657e-01 -2.719841e-01 -4.377961e-02 -1.786928e-02 1.191802e+00 7.006351e-01 -3.056453e-01 -8.303707e-02 -5.623931e-01 -1.949336e-02 -2.374951e-01 -1.820060e-01 -1.141011e-01 -7.821617e-02 -2.308829e-01 -1.646474e-01 -1.346573e-01 4.600702e-01
<VARIANCE> 39
 5.036374e+00 9.927445e+00 1.532917e+01 4.163699e+01 9.064200e+00 4.678771e+01 1.536697e+01 3.380781e+01 3.247331e+01 2.029774e+01 1.151088e+01 1.668617e+01 2.493983e+01 1.077245e+00 3.145655e-01 9.669291e-01 1.919998e+00 6.693806e-01 1.376469e+00 9.289247e-01 1.843678e+00 1.534863e+00 9.755930e-01 5.783199e-01 3.277831e-01 9.813881e-01 4.044829e-01 3.477689e-02 2.900063e-01 1.618332e-01 1.132585e-01 3.191465e-01 1.874682e-01 2.170448e-01 2.367097e-01 2.701553e-01 1.330217e-01 1.615109e-01 9.134530e-02
<GCONST> 8.520248e+01
<STATE> 4
<NUMMIXES> 2
<MIXTURE> 1 5.081967e-01
<MEAN> 39
 -4.192486e+00 -8.198466e+00 -2.904262e+00 -1.219782e+01 1.298763e+01 -3.477735e+00 1.016415e+01 -8.539833e+00 4.513346e+00 -3.343469e+00 -8.713941e+00 -1.057178e+00 7.631053e+01 8.449560e-01 -1.528764e+00 2.590645e-01 -1.760281e+00 1.671834e+00 1.740713e-01 4.903145e-01 -1.550331e+00 -4.487219e-01 4.140672e-01 -5.620807e-01 -3.570034e-01 6.830861e-01 -4.679580e-01 4.470383e-01 -3.132319e-01 3.957713e-01 -5.760866e-01 4.452515e-02 -7.295824e-01 4.365650e-01 -1.141480e-01 2.419290e-01 4.442940e-01 7.555863e-02 -4.826619e-01
<VARIANCE> 39
 1.224333e+01 3.744910e+01 1.794751e+01 1.321189e+01 3.723355e+01 8.800906e+00 1.140757e+01 6.965248e+01 1.399247e+01 3.747716e+01 2.529909e+01 6.385711e+00 4.161902e+00 8.217514e-01 1.582875e+00 1.502828e+00 1.106270e+00 9.523647e-01 1.125561e+00 1.800425e+00 1.973235e+00 1.061507e+00 1.369805e+00 1.585383e+00 8.353157e-01 7.877434e-01 2.321189e-01 2.366415e-01 1.422364e-01 3.377730e-01 2.406655e-01 1.449153e-01 1.407830e-01 2.435758e-01 2.565148e-01 4.657198e-01 3.060159e-01 1.221474e-01 2.073858e-01
<GCONST> 9.139103e+01
<MIXTURE> 2 4.918033e-01
<MEAN> 39
 -4.682261e+00 -5.784468e+00 -9.105668e+00 -3.410407e+00 3.666749e+00 -4.748043e+00 -2.178599e+00 -4.812108e+00 2.472306e+00 -1.243843e+01 -7.516225e+00 -5.768008e+00 7.243524e+01 2.555035e+00 -2.625346e+00 -5.141234e-01 -2.453137e+00 2.349265e+00 3.299527e-02 3.220702e-01 -2.688174e+00 1.358725e+00 -8.170220e-01 -9.557878e-01 -2.971552e+00 2.499776e+00 -1.081910e+00 -1.230758e-01 -3.571255e-02 8.292632e-02 3.802666e-01 5.521789e-01 4.480602e-01 1.670956e-01 4.145863e-02 7.096246e-01 8.483976e-01 5.731422e-01 -4.694246e-01
<VARIANCE> 39
 6.970723e+00 2.900123e+01 1.385506e+01 2.202815e+01 2.374827e+01 1.511762e+01 2.730197e+01 2.984880e+01 4.073269e+01 6.172924e+01 1.529418e+01 3.166220e+01 1.306616e+01 3.959990e+00 3.041837e+00 9.730257e-01 1.475012e+00 2.264220e+00 2.298553e+00 3.817913e+00 1.175943e+00 4.993174e+00 5.714317e+00 5.335691e+00 4.645442e+00 1.707353e+00 1.926652e-01 3.454171e-01 1.064933e-01 2.296912e-01 4.242196e-01 2.444351e-01 2.028000e-01 2.923504e-01 7.285373e-01 5.154440e-01 2.704236e-01 6.608497e-01 2.573305e-01
<GCONST> 1.094027e+02
<STATE> 5
<NUMMIXES> 2
<MIXTURE> 1 5.174825e-01
<MEAN> 39
 -1.173048e+00 -1.002163e+01 -5.200089e+00 -1.364672e+01 1.566775e+01 -3.972011e+00 6.610395e+00 -1.025142e+01 2.443757e+00 -1.303719e+00 -9.518591e+00 -4.115378e+00 7.575899e+01 4.417191e-01 7.633740e-02 -3.404728e-01 2.904688e-01 -1.318796e-01 -1.429327e-01 -6.307920e-01 5.380592e-02 1.870908e-01 2.012686e-01 -7.630879e-02 -5.031468e-01 -3.693152e-01 -5.807167e-02 1.502929e-01 1.206380e-01 1.443933e-01 -2.292384e-01 1.968256e-02 -2.203124e-02 1.306510e-01 6.759309e-02 -2.095779e-02 4.491858e-02 8.691938e-04 -8.478864e-02
<VARIANCE> 39
 1.962909e+01 2.593245e+01 2.166244e+01 8.121461e+00 3.462369e+01 1.210145e+01 1.541486e+01 6.178660e+01 1.705231e+01 2.355561e+01 1.789311e+01 8.811325e+00 6.489548e+00 1.371040e-01 4.042621e-01 6.470300e-01 6.099997e-01 5.949608e-01 6.579790e-01 7.697960e-01 1.192315e+00 6.571217e-01 6.257423e-01 4.950649e-01 7.525389e-01 1.972370e-01 1.733713e-02 5.391726e-02 1.060364e-01 9.221063e-02 6.277109e-02 9.745462e-02 1.690279e-01 2.311460e-01 1.151041e-01 1.266737e-01 7.369862e-02 7.484610e-02 1.532083e-02
<GCONST> 6.700905e+01
<MIXTURE> 2 4.825175e-01
<MEAN> 39
 -3.705565e+00 -1.117189e+01 -8.953607e+00 -9.186238e+00 1.256336e+01 2.839999e-01 -4.565959e+00 -1.018869e+01 3.083271e+00 -1.195953e+01 -5.687996e-01 -1.282831e+01 7.399495e+01 1.745460e-01 4.686900e-01 1.756371e-01 -2.193850e-02 -1.441768e-01 4.210299e-01 -2.718413e-01 2.223733e-01 -5.018439e-01 6.466731e-02 4.393415e-01 -9.665661e-02 -4.746336e-01 -1.571400e-02 2.926967e-01 1.592905e-01 2.260077e-01 -3.647965e-01 -1.034556e-01 -1.039093e-02 2.455051e-01 -1.989724e-01 5.373188e-03 -1.789826e-01 2.777821e-01 -1.576188e-01
<VARIANCE> 39
 3.404797e+00 1.739668e+01 2.258489e+01 4.467056e+01 5.987650e+00 3.289570e+01 1.582591e+01 3.887894e+01 4.674309e+01 5.638369e+01 8.821833e+00 1.376934e+01 7.668108e+00 1.001571e-01 7.113642e-01 3.365023e-01 7.032874e-01 1.291820e+00 5.159458e-01 7.042689e-01 1.993223e+00 1.899321e+00 1.423332e+00 5.599826e-01 7.473421e-01 1.303318e-01 1.639520e-02 1.244929e-01 6.377089e-02 1.070345e-01 1.144122e-01 8.553655e-02 1.278771e-01 3.285481e-01 3.065833e-01 2.797052e-01 8.229457e-02 1.825404e-01 5.045597e-02
<GCONST> 7.441145e+01
<STATE> 6
<NUMMIXES> 2
<MIXTURE> 1 5.392157e-01
<MEAN> 39
 -3.565675e-01 -4.073176e+00 -3.906991e+00 -3.297895e+00 9.261834e+00 7.423077e-01 -2.018338e+00 -8.577892e-01 -4.050434e+00 -4.271122e+00 -7.643761e+00 -9.487218e+00 6.999844e+01 -2.504387e-01 8.667251e-01 1.608504e+00 9.177880e-01 -1.054262e+00 8.068199e-02 8.329765e-02 -1.480581e-01 -7.502353e-01 1.210931e+00 -1.113523e+00 8.755050e-01 -1.156587e+00 -1.439978e-01 -5.451350e-02 5.029297e-02 -5.714644e-02 1.220910e-01 2.423231e-02 7.688512e-02 -1.703631e-01 1.545302e-01 7.314804e-03 6.035870e-02 1.776802e-01 -9.202415e-02
<VARIANCE> 39
 5.263757e+00 6.144571e+00 2.297366e+01 1.598754e+01 2.872981e+01 2.399673e+01 7.506435e+01 1.139755e+01 1.596821e+01 9.003596e+01 5.437032e+01 2.650797e+01 1.096856e+01 2.471808e-01 6.706394e-01 1.416232e+00 1.360675e+00 9.722734e-01 1.045175e+00 1.859781e+00 9.290665e-01 6.285882e-01 1.818560e+00 1.854765e+00 3.341430e+00 1.187307e-01 2.317762e-02 8.873241e-02 3.431714e-01 2.587165e-01 1.145196e-01 1.582233e-01 3.477626e-01 2.376399e-01 1.388150e-01 2.887214e-01 4.371619e-01 4.012183e-01 1.699167e-02
<GCONST> 8.639039e+01
<MIXTURE> 2 4.607843e-01
<MEAN> 39
 3.722147e+00 -5.107646e+00 -3.442992e+00 -6.281071e+00 -2.278366e+00 -2.884325e+00 -1.122347e+00 -1.753746e+01 4.399496e+00 1.809842e+00 -4.326820e+00 -4.915080e+00 6.455245e+01 -1.024654e-01 9.467167e-01 1.100958e+00 8.941545e-01 -1.640443e+00 1.547616e-01 -7.152423e-01 -3.273277e-01 -5.282294e-01 2.888892e-01 1.187510e+00 -4.826777e-02 -1.139604e+00 -1.576196e-01 -1.017226e-01 4.935923e-02 5.500555e-02 8.525982e-02 -1.325843e-01 -2.299977e-02 -1.174438e-02 -5.177737e-02 1.027167e-01 1.017914e-01 -2.144723e-01 -3.891386e-02
<VARIANCE> 39
 2.762585e+01 1.251442e+01 4.200520e+01 5.502916e+01 7.298112e+01 1.086369e+01 8.325051e+00 4.092918e+01 2.146476e+01 5.602761e+01 4.950961e+01 2.344165e+01 2.012329e+01 2.729438e-01 8.946686e-01 8.683804e-01 1.012670e+00 1.716033e+00 1.325491e+00 1.158621e+00 3.152680e+00 1.775296e+00 9.265749e-01 2.592155e+00 2.535493e+00 5.360367e-01 4.425820e-02 1.217115e-01 1.318972e-01 1.719417e-01 2.712054e-01 1.286046e-01 2.371907e-01 6.113217e-01 4.089146e-01 1.982459e-01 4.244924e-01 2.825112e-01 7.221373e-02
<GCONST> 9.570346e+01
<STATE> 7
<NUMMIXES> 2
<MIXTURE> 1 6.116505e-01
<MEAN> 39
 -5.629827e+00 6.859582e-01 1.782355e+00 2.963988e+00 4.905166e+00 1.099233e+00 -1.417036e+00 -2.502252e+00 -4.612037e+00 -8.060457e-01 -6.809016e+00 -4.407123e+00 6.135732e+01 -8.547530e-01 2.612609e-01 -2.166907e-01 6.958874e-01 -1.682550e-01 2.853669e-01 4.588857e-01 1.648256e-01 8.106678e-01 1.624134e-01 1.192690e+00 6.457704e-01 -1.251789e+00 9.271754e-03 -1.561500e-01 -2.751660e-01 -9.005728e-02 9.821986e-02 1.345478e-02 3.430437e-02 1.213276e-01 9.947164e-02 -1.159268e-01 1.776962e-01 -2.349909e-02 9.580752e-02
<VARIANCE> 39
 8.933156e+00 1.256692e+01 1.680460e+01 1.631009e+01 9.194089e+00 2.189948e+01 2.938288e+01 2.467965e+01 1.689720e+01 3.721329e+01 2.729757e+01 2.405705e+01 1.396754e+01 2.080467e-01 7.047119e-01 1.614234e+00 1.057875e+00 6.141478e-01 1.443799e+00 1.590554e+00 1.248135e+00 1.094617e+00 1.625937e+00 2.295628e+00 1.585000e+00 4.107749e-01 5.206931e-02 1.646833e-01 1.869656e-01 1.905522e-01 1.269049e-01 2.803911e-01 2.391767e-01 2.376476e-01 2.310128e-01 2.562094e-01 3.964320e-01 4.119218e-01 5.143831e-02
<GCONST> 8.772614e+01
<MIXTURE> 2 3.883495e-01
<MEAN> 39
 -5.921743e+00 -2.853562e-01 4.067624e+00 -5.081909e+00 -2.561149e+00 -5.806773e+00 -5.572731e+00 -1.621502e+01 5.531833e+00 -1.022411e+00 -6.411481e-01 -3.966305e+00 5.629137e+01 -1.116669e+00 7.084135e-01 -6.353052e-01 6.727101e-01 7.852991e-02 2.167846e-01 3.643602e-02 1.715787e+00 -7.466022e-01 2.928772e-01 2.422377e-01 4.447252e-01 -2.066131e+00 1.217341e-02 -5.882248e-03 -3.307938e-01 -6.046584e-02 2.923262e-01 3.363113e-01 3.460735e-01 3.872410e-01 -6.759934e-02 -9.411483e-02 1.317516e-02 2.810425e-01 -8.970948e-02
<VARIANCE> 39
 2.638586e+01 1.009703e+01 3.950263e+01 1.508146e+01 6.342437e+01 1.625205e+01 1.472279e+01 4.261860e+01 4.627518e+01 5.954538e+01 1.284488e+01 2.710400e+01 3.188960e+01 1.839399e+00 6.285253e-01 2.183132e+00 4.504587e-01 2.244475e+00 1.970562e+00 2.996977e+00 2.618405e+00 2.444112e+00 2.427003e+00 1.406015e+00 1.999734e+00 9.257480e-01 1.577663e-01 1.052581e-01 3.390984e-01 5.446491e-02 2.383422e-01 2.308552e-01 4.082598e-01 4.882852e-01 4.357499e-01 5.331004e-01 3.709025e-01 4.615648e-01 2.031404e-01
<GCONST> 1.032595e+02
<TRANSP> 8
 0.000000e+00 1.000000e+00 0.000000e+00 0.000000e+00 0.000000e+00 0.000000e+00 0.000000e+00 0.000000e+00
 0.000000e+00 8.854962e-01 1.145038e-01 0.000000e+00 0.000000e+00 0.000000e+00 0.000000e+00 0.000000e+00
 0.000000e+00 0.000000e+00 8.387097e-01 1.612903e-01 0.000000e+00 0.000000e+00 0.000000e+00 0.000000e+00
 0.000000e+00 0.000000e+00 0.000000e+00 7.540984e-01 2.459016e-01 0.000000e+00 0.000000e+00 0.000000e+00
 0.000000e+00 0.000000e+00 0.000000e+00 0.000000e+00 8.951049e-01 1.048951e-01 0.000000e+00 0.000000e+00
 0.000000e+00 0.000000e+00 0.000000e+00 0.000000e+00 0.000000e+00 8.529412e-01 1.470588e-01 0.000000e+00
 0.000000e+00 0.000000e+00 0.000000e+00 0.000000e+00 0.000000e+00 0.000000e+00 8.543689e-01 1.456311e-01
 0.000000e+00 0.000000e+00 0.000000e+00 0.000000e+00 0.000000e+00 0.000000e+00 0.000000e+00 0.000000e+00
<ENDHMM>
