~o
<STREAMINFO> 1 39
<VECSIZE> 39<NULLD><MFCC_D_A_0><DIAGC>
~h "seven"
<BEGINHMM>
<NUMSTATES> 9
<STATE> 2
<NUMMIXES> 2
<MIXTURE> 1 4.086021e-01
<MEAN> 39
 -3.743560e+00 -5.523303e+00 -2.059268e+00 -7.322756e+00 2.577695e+00 -8.147780e+00 -2.822395e+00 5.475209e+00 4.963350e+00 -1.233964e+01 -8.483919e+00 -1.123744e+00 7.369666e+01 -2.987733e-02 -2.929974e+00 -2.539365e+00 -2.702968e+00 2.091534e+00 7.737351e-01 1.846290e-01 1.161322e+00 6.561429e-01 -2.286307e+00 -5.899414e-01 -1.805038e+00 3.133039e+00 -7.857008e-02 4.299856e-01 2.026204e-01 5.444143e-01 1.361866e-01 7.086065e-01 9.768786e-02 -1.325799e+00 -1.792769e-01 5.692985e-01 6.598076e-01 -2.177828e-01 -7.758217e-01
<VARIANCE> 39
 5.476783e+00 1.332205e+01 2.154900e+01 3.745876e+01 1.124730e+02 2.190406e+01 4.360840e+01 5.893201e+01 4.703992e+01 6.793333e+01 1.794374e+01 1.081535e+01 2.122969e+01 1.522937e+00 1.244323e+00 1.328963e+00 1.498965e+00 2.552951e+00 4.429175e+00 4.531012e+00 6.757199e+00 3.293465e+00 2.953663e+00 1.530606e+00 2.001494e+00 1.421291e+00 1.652461e-01 1.966313e-01 2.877204e-01 3.123018e-01 8.036714e-01 6.128203e-01 3.530262e-01 9.196174e-01 5.829796e-01 6.522132e-01 2.290410e-01 2.115290e-01 1.401699e-01
<GCONST> 1.120077e+02
<MIXTURE> 2 5.913978e-01
<MEAN> 39
 -3.932511e+00 4.864088e+00 6.785342e+00 1.443268e+00 -2.444390e+00 -4.833621e+00 -4.740616e+00 -8.908812e+00 4.135690e+00 -6.794665e+00 -2.263046e+00 1.540800e+00 6.041514e+01 6.272100e-01 -1.139313e+00 -5.983048e-02 -1.290734e+00 -2.110021e-01 -1.731293e+00 -5.222751e-01 8.211035e-01 1.551629e+00 -1.356940e+00 -1.176186e+00 1.547217e-01 3.047483e+00 -3.310816e-01 -8.436623e-01 -8.271996e-01 -5.709992e-01 6.347808e-01 2.046233e-01 3.081371e-01 8.363550e-01 1.137827e-01 -2.297481e-01 -1.583316e-01 -2.755609e-01 3.215858e-01
<VARIANCE> 39
 1.254465e+01 8.631510e+00 1.625230e+01 2.850192e+01 3.072042e+01 3.374371e+01 5.410287e+01 4.456862e+01 9.790414e+01 5.959674e+01 1.519346e+01 1.619431e+01 2.803780e+01 1.447554e+00 3.792494e+00 4.673096e+00 2.681663e+00 5.201744e+00 2.753063e+00 3.545108e+00 8.060107e+00 4.944714e+00 2.930483e+00 1.639533e+00 1.634270e+00 1.415877e+00 2.089200e-01 2.273048e-01 3.064660e-01 3.662251e-01 4.547834e-01 7.874094e-01 5.116970e-01 7.559255e-01 7.835963e-01 3.737782e-01 2.669525e-01 4.664063e-01 1.956531e-01
<GCONST> 1.168407e+02
<STATE> 3
<NUMMIXES> 2
<MIXTURE> 1 6.739131e-01
<MEAN> 39
 -5.582042e+00 -9.864851e+00 -6.647034e+00 -1.103045e+01 1.373780e+01 -5.259774e+00 1.072619e+00 -3.344453e+00 8.240282e+00 -1.216315e+01 -8.258689e+00 -6.013719e+00 7.955782e+01 3.525672e-02 1.307512e-01 -2.641120e-01 -6.133550e-02 9.495647e-02 5.414050e-02 -1.504174e-01 -5.092415e-01 -3.160559e-02 4.802392e-01 -3.061554e-01 -8.036336e-02 4.172964e-02 1.006877e-01 4.782437e-01 4.812655e-01 3.938147e-01 -4.705514e-01 -2.993549e-01 -2.284095e-01 -5.338344e-02 1.043664e-02 2.208332e-01 -5.380699e-02 4.737422e-01 -4.397908e-01
<VARIANCE> 39
 5.557494e+00 1.110806e+01 1.643820e+01 2.062045e+01 2.226841e+01 8.312035e+00 3.513213e+01 1.066605e+02 1.782825e+01 3.662804e+01 1.229178e+01 2.334167e+01 4.446532e+00 7.726529e-02 7.344661e-01 4.278870e-01 4.962662e-01 8.453399e-01 1.369377e+00 7.675778e-01 1.766028e+00 7.798559e-01 1.159786e+00 4.902115e-01 2.575767e+00 2.917463e-01 2.362471e-02 9.854190e-02 1.830788e-01 1.056011e-01 1.339730e-01 1.593847e-01 3.184089e-01 5.650724e-01 1.765791e-01 2.621562e-01 1.014758e-01 3.900503e-01 7.021847e-02
<GCONST> 7.911250e+01
<MIXTURE> 2 3.260870e-01
<MEAN> 39
 -1.281056e+00 -1.080846e+01 -4.453266e+00 -1.230316e+01 -2.222550e+00 -1.162297e+00 -7.691594e+00 -1.904619e+00 8.412911e+00 -1.384333e+01 -6.412734e+00 -7.013107e+00 7.271967e+01 1.804645e-01 -4.984729e-02 -4.211975e-01 3.302705e-01 2.227531e-01 -1.030455e+00 -9.181461e-01 -1.562867e-01 1.695750e-01 5.464211e-01 3.197425e-01 -2.728778e-01 1.442368e-01 -2.169928e-02 8.510225e-01 6.009857e-01 6.364279e-01 -6.677221e-01 -4.796460e-01 -2.027184e-02 -4.773705e-02 -2.834857e-01 6.008258e-01 -1.038696e-01 3.486255e-01 -6.566598e-01
<VARIANCE> 39
 6.492487e+00 1.648474e+01 5.272118e+00 4.479507e+01 2.149492e+01 4.957005e+01 1.388718e+01 4.788519e+01 1.096038e+02 7.889443e+00 2.736745e+01 1.543510e+01 5.313097e+00 1.750839e-01 1.794635e+00 1.372866e+00 1.464450e+00 4.211644e+00 2.854225e+00 1.880778e+00 5.438492e+00 8.883936e-01 1.722220e+00 1.338401e+00 1.292383e+00 7.435386e-01 9.752825e-02 6.344030e-02 6.930484e-02 2.164128e-01 4.256831e-01 5.018809e-01 3.884532e-01 1.229584e+00 2.972209e-01 4.126979e-01 3.594157e-01 1.280854e-01 9.773248e-02
<GCONST> 9.572417e+01
<STATE> 4
<NUMMIXES> 2
<MIXTURE> 1 3.636364e-01
<MEAN> 39
 -3.095050e+00 -3.948999e+00 1.941222e+00 -7.801245e+00 1.239255e+01 -1.058808e+01 3.083027e+00 -9.282762e+00 6.551292e+00 -4.510432e-03 -1.154540e+01 -1.878972e+00 7.595231e+01 1.543175e-01 1.293939e+00 3.486738e+00 2.228956e+00 -1.876723e+00 -8.313572e-01 -1.699887e+00 -3.068159e+00 4.823595e-01 1.641527e+00 1.877222e-01 4.647422e-01 -1.842220e+00 -9.211734e-02 -3.942668e-02 -1.870517e-02 3.427901e-02 2.250938e-02 2.817527e-01 -3.516184e-01 2.197387e-02 1.761211e-01 -5.147135e-01 2.137200e-01 -1.994376e-02 1.077670e-01
<VARIANCE> 39
 3.657305e+00 8.916777e+00 3.504805e+01 5.488023e+01 8.329219e+00 1.217844e+01 1.756679e+01 8.088645e+01 3.433305e+01 4.381556e+01 3.479851e+00 8.993144e+00 1.130555e+01 7.777514e-02 1.235138e+00 1.195060e+00 1.027869e+00 9.834450e-01 1.006104e+00 2.631794e+00 1.487293e+00 2.098600e+00 3.129722e+00 7.889909e-01 1.680742e+00 3.521045e-01 1.153911e-02 1.099717e-01 1.486201e+00 9.234505e-01 3.888330e-01 2.079559e-01 3.568581e-01 1.559664e+00 9.466378e-02 5.392483e-01 1.183017e-01 2.198296e-01 2.994954e-01
<GCONST> 9.084064e+01
<MIXTURE> 2 6.363636e-01
<MEAN> 39
 -2.380556e+00 -2.548035e+00 -5.338393e+00 -7.677936e-01 -2.028660e+00 -6.272951e+00 -1.158799e+01 1.699708e-01 5.598803e+00 -1.816237e+01 -5.596906e+00 -4.668710e+00 7.042057e+01 6.963259e-01 2.243845e+00 1.714875e+00 1.611429e+00 -1.628758e+00 1.846158e-02 1.612701e-01 -2.368380e+00 -2.865734e-01 1.425263e-01 -1.695443e-01 6.597382e-01 -1.910360e+00 -7.965330e-02 -1.437581e-01 2.038762e-02 -1.323807e-01 1.991968e-01 2.715695e-01 2.657511e-01 -1.060857e-01 -1.845328e-01 4.658477e-02 -1.111751e-03 -2.472068e-01 6.835147e-02
<VARIANCE> 39
 7.146549e+00 2.531708e+01 2.392554e+01 2.672444e+01 2.365427e+01 4.146431e+01 1.973296e+01 4.203255e+01 5.333646e+01 6.662505e+01 1.324366e+01 1.266694e+01 1.558053e+01 2.684250e-01 1.163347e+00 5.759319e-01 2.035571e+00 3.550321e-01 2.383996e+00 1.010776e+00 4.086111e+00 1.906386e+00 3.037060e+00 1.933908e+00 1.391218e+00 1.246279e+00 4.792994e-02 2.566799e-01 2.637634e-01 1.233109e-01 1.946938e-01 4.437175e-01 4.158751e-01 1.657615e+00 2.177030e-01 5.943526e-01 2.480714e-01 3.334914e-01 2.478472e-01
<GCONST> 9.962525e+01
<STATE> 5
<NUMMIXES> 2
<MIXTURE> 1 3.762376e-01
<MEAN> 39
 -2.840912e+00 -7.208471e+00 -8.008532e+00 -6.631552e+00 1.093282e+01 -5.930495e+00 -8.119780e+00 5.812879e+00 8.413771e-01 -1.179114e+01 -6.225591e+00 -7.227627e+00 7.684435e+01 -1.407053e-01 -2.145849e+00 -1.891958e+00 -1.854146e+00 2.713723e+00 1.390195e+00 4.165255e-01 1.072313e+00 -2.555701e-01 -6.372924e-01 7.418926e-01 -1.119960e+00 1.254630e+00 1.094183e-01 3.675570e-01 6.201544e-01 4.298469e-01 -3.549351e-01 2.890736e-02 3.438197e-01 -1.303743e+00 -2.406543e-02 4.447033e-01 -2.583786e-02 7.137270e-02 -5.658382e-01
<VARIANCE> 39
 3.267293e+00 1.358021e+01 1.990057e+01 1.660482e+01 4.336570e+01 1.864303e+01 6.349520e+01 1.551830e+01 3.369935e+01 4.031985e+01 2.348862e+01 2.198192e+01 1.437494e+01 3.018631e-01 1.749028e+00 2.152159e+00 1.486707e+00 1.531156e+00 9.445643e-01 1.205835e+00 6.559052e+00 1.207181e+00 4.246103e+00 1.151461e+00 1.446397e+00 1.330558e+00 5.678385e-02 2.621736e-01 1.417756e-01 2.469878e-01 2.196216e-01 1.983257e-01 1.862176e-01 5.332057e-01 3.075781e-01 4.721959e-01 1.653330e-01 2.242631e-01 9.636708e-02
<GCONST> 9.580996e+01
<MIXTURE> 2 6.237624e-01
<MEAN> 39
 -2.042683e+00 1.123629e+00 5.024736e+00 -1.592911e+00 -2.334964e+00 -8.598891e+00 -8.631311e+00 -1.280247e+01 7.667107e+00 -7.775428e+00 -7.533572e+00 -2.418607e+00 6.667648e+01 -9.930876e-02 -4.984115e-01 -8.973842e-01 -5.753471e-01 7.479162e-01 2.876492e-01 -3.154745e-01 1.244157e+00 -4.967204e-02 1.861601e-01 -2.126985e-02 -3.639536e-01 5.028847e-01 -9.982039e-02 -9.284003e-01 -1.084020e+00 -8.789837e-01 9.021222e-01 3.252204e-01 2.332134e-01 1.062480e+00 1.424615e-02 -3.415558e-01 3.475256e-02 -3.491221e-01 7.628805e-01
<VARIANCE> 39
 1.454298e+01 9.877236e+00 3.275624e+01 3.360698e+01 5.011106e+01 2.746178e+01 1.741219e+01 9.184040e+01 9.537527e+01 8.446588e+01 1.668263e+01 1.949353e+01 1.836307e+01 2.249337e-01 3.696170e+00 5.031238e+00 4.044089e+00 3.566635e+00 1.275161e+00 2.414035e+00 6.778283e+00 2.679915e+00 3.487406e+00 1.617599e+00 1.540047e+00 2.942718e+00 4.635882e-02 2.418699e-01 2.215417e-01 3.914517e-01 1.814216e-01 2.492551e-01 4.381405e-01 6.784137e-01 5.720426e-01 6.275479e-01 3.892316e-01 3.000937e-01 2.159881e-01
<GCONST> 1.113572e+02
<STATE> 6
<NUMMIXES> 2
<MIXTURE> 1 6.976744e-01
<MEAN> 39
 -1.750437e+00 -1.023034e+01 -1.053272e+01 -9.675908e+00 1.756472e+01 -4.411554e-02 -5.170648e+00 -8.034109e-01 -6.075470e-01 -8.101391e+00 -2.709517e+00 -1.084024e+01 7.531420e+01 3.085756e-01 1.778740e-01 -1.708179e-01 -2.021213e-01 2.108150e-01 9.508942e-01 3.297046e-01 -8.803080e-01 -1.109119e-01 7.121589e-01 3.621382e-01 -1.193093e-01 -8.081389e-01 -3.871720e-02 2.805547e-01 5.072194e-02 2.140372e-01 -3.049365e-01 -3.125732e-02 -1.346478e-01 2.614790e-01 -1.417397e-02 -2.492021e-02 -1.167199e-01 1.739952e-01 -1.783344e-01
<VARIANCE> 39
 7.797377e+00 1.540241e+01 7.546327e+00 1.151567e+01 1.009179e+01 1.738156e+01 5.140870e+01 1.307364e+01 3.220699e+01 1.261814e+01 2.259494e+01 1.514015e+01 1.387590e+01 3.304038e-01 8.527753e-01 4.791452e-01 9.741539e-01 9.222000e-01 6.839746e-01 5.133353e-01 1.659751e+00 1.255234e+00 6.967632e-01 6.402195e-01 9.340870e-01 2.100020e-01 4.364636e-02 1.074759e-01 8.691814e-02 7.996764e-02 1.204959e-01 1.323663e-01 8.471694e-02 2.628031e-01 2.171367e-01 1.325935e-01 1.093150e-01 1.801403e-01 1.928488e-02
<GCONST> 7.252419e+01
<MIXTURE> 2 3.023256e-01
<MEAN> 39
 -2.478661e+00 -9.713829e+00 -5.278343e+00 -1.387718e+01 5.877825e+00 -1.472955e+00 -2.498695e+00 -9.371357e+00 1.268009e+01 -7.960225e+00 -9.186322e+00 -7.104226e+00 7.156966e+01 -1.218294e-01 -1.346816e+00 -1.317642e+00 -1.001482e+00 1.760155e+00 1.271163e+00 1.730330e+00 -9.087067e-01 -3.652015e-01 -3.852671e-01 4.206015e-01 -1.196406e+00 4.241706e-01 8.024088e-02 6.036981e-01 7.086721e-01 3.565398e-01 -4.372426e-01 -6.149324e-02 -2.003610e-01 -8.650429e-01 8.889335e-02 2.870810e-01 3.724102e-01 3.015924e-01 -5.759590e-01
<VARIANCE> 39
 1.673731e+01 1.863897e+01 9.553835e+00 8.205236e+00 6.336013e+01 1.918689e+01 2.601954e+01 4.259409e+01 2.563791e+01 1.710486e+01 6.444203e+00 1.360807e+01 9.336893e+00 1.159737e-01 1.527322e+00 3.322441e+00 1.218738e+00 1.874000e+00 1.451837e+00 1.548478e+00 8.603388e+00 3.888654e+00 2.585081e+00 8.872417e-01 2.667965e+00 1.125002e+00 3.045565e-02 1.617163e-01 2.554275e-01 1.343240e-01 2.163238e-01 1.910565e-01 2.672138e-01 1.064769e+00 5.524525e-01 6.583092e-01 1.492546e-01 3.840472e-01 1.439271e-01
<GCONST> 9.629411e+01
<STATE> 7
<NUMMIXES> 2
<MIXTURE> 1 4.948454e-01
<MEAN> 39
 -2.335350e+00 -5.982768e+00 -1.113976e+01 -6.911077e+00 1.506400e+01 5.627928e+00 -5.392240e+00 -1.373891e+00 -1.394983e+00 -3.626167e+00 -3.357025e+00 -9.821599e+00 6.703068e+01 -7.391894e-01 1.107416e+00 4.018531e-01 1.239609e+00 -8.025913e-01 6.681694e-01 8.265086e-01 1.070491e-02 -1.847270e-01 1.058089e+00 -6.364237e-01 3.849232e-01 -1.777479e+00 -1.410896e-01 -7.060919e-02 2.260166e-01 1.692604e-01 -1.814015e-01 -7.892007e-02 3.348819e-01 5.922741e-02 8.553720e-03 -4.700455e-02 2.873673e-02 8.849046e-02 -3.376251e-02
<VARIANCE> 39
 9.829179e+00 2.570815e+01 8.038974e+00 2.929239e+01 1.402785e+01 3.088235e+01 4.183957e+01 2.279265e+01 1.024412e+01 1.768180e+01 9.025314e+00 8.945430e+00 1.906627e+01 2.424777e-01 3.894875e-01 1.267846e+00 1.344645e+00 1.072207e+00 8.861346e-01 1.613461e+00 1.216969e+00 1.148730e+00 9.587196e-01 6.238178e-01 1.126396e+00 2.567583e-01 5.931786e-02 1.039056e-01 1.406749e-01 2.732181e-01 1.989388e-01 2.053926e-01 1.498304e-01 2.016907e-01 2.759556e-01 2.691930e-01 1.852030e-01 2.411544e-01 6.496265e-02
<GCONST> 8.183493e+01
<MIXTURE> 2 5.051546e-01
<MEAN> 39
 -4.219665e+00 -9.188082e+00 -5.452320e+00 -1.631239e+01 1.118989e+01 4.248495e+00 1.767865e+00 -1.471099e+01 9.564046e+00 -6.553491e+00 -3.699531e+00 -7.961209e+00 6.788264e+01 -6.311175e-02 4.159063e-01 -3.106091e-01 1.846076e-01 2.771088e-01 6.396611e-01 2.089249e-01 2.187962e-01 -5.365720e-01 5.381151e-01 4.220153e-01 2.757757e-01 -1.105491e+00 -8.576704e-02 1.285375e-01 -6.709549e-02 1.784275e-01 -4.897503e-02 -1.147562e-01 -1.885388e-01 3.797334e-01 -6.337497e-02 1.075540e-02 -6.587629e-02 2.746366e-02 -2.011822e-01
<VARIANCE> 39
 1.715276e+01 6.606561e+00 8.120078e+00 1.755039e+01 4.134672e+01 3.100201e+01 2.520230e+01 6.942539e+00 2.928606e+01 2.127575e+01 1.515653e+01 1.120910e+01 1.451623e+01 1.531707e-01 4.244672e-01 5.727973e-01 7.850518e-01 6.393955e-01 5.924947e-01 1.042292e+00 9.255743e-01 9.475217e-01 1.426804e+00 5.153413e-01 3.348456e-01 3.884660e-01 5.182909e-02 8.690275e-02 9.427715e-02 7.853851e-02 1.721830e-01 9.342796e-02 1.887844e-01 2.934007e-01 2.089559e-01 2.586599e-01 7.155493e-02 8.909675e-02 7.425692e-02
<GCONST> 7.308764e+01
<STATE> 8
<NUMMIXES> 2
<MIXTURE> 1 3.552631e-01
<MEAN> 39
 -4.332023e+00 -4.675290e+00 -9.012571e+00 -9.670358e+00 1.303873e+01 4.523128e+00 4.680711e+00 -2.893723e+00 2.283506e+00 -8.905513e-01 -5.461945e+00 -7.441867e+00 6.043718e+01 -1.165874e+00 6.748806e-01 5.424048e-01 1.645471e+00 -1.389773e+00 6.442608e-01 -5.876617e-01 1.497214e+00 2.021086e-04 3.559853e-01 7.401560e-01 4.551165e-01 -2.609789e+00 -1.264982e-01 -5.584834e-02 2.634505e-01 2.566425e-01 -3.168144e-01 -2.591785e-01 -1.322959e-01 -8.530565e-02 3.717918e-02 3.197391e-01 2.976407e-01 3.440673e-01 -4.996001e-02
<VARIANCE> 39
 1.671248e+01 2.387879e+01 1.718848e+01 3.598336e+01 9.166495e+00 1.512508e+01 2.128200e+01 6.790401e+01 2.164718e+01 2.571554e+01 1.106910e+01 1.047319e+01 2.654574e+01 1.289277e+00 1.157253e+00 9.627693e-01 1.293766e+00 2.396751e+00 1.523129e+00 1.108871e+00 1.203483e+00 1.200533e+00 1.947597e+00 4.633689e-01 1.521080e+00 1.694414e+00 2.156339e-01 1.592133e-01 1.293312e-01 2.063798e-01 4.435765e-01 2.156686e-01 1.830845e-01 3.481437e-01 1.685526e-01 2.923951e-01 6.810515e-02 1.773075e-01 2.828682e-01
<GCONST> 9.310096e+01
<MIXTURE> 2 6.447368e-01
<MEAN> 39
 -7.790648e+00 -2.429797e+00 -5.918480e+00 -8.719294e-01 6.613332e+00 6.853432e+00 1.718344e-01 -2.081958e+00 8.833430e-01 1.304362e-01 -1.548480e+00 -4.177075e+00 5.537355e+01 -9.117733e-01 4.894452e-01 6.848911e-01 1.211798e+00 -8.529439e-01 -6.115525e-01 5.652506e-01 5.562798e-01 -1.663429e-01 7.374873e-01 1.226983e+00 1.314782e+00 -1.240909e+00 1.310033e-01 -8.785272e-02 -1.397603e-01 -2.492354e-01 2.104237e-01 -3.980205e-02 -1.206181e-01 -1.419513e-01 5.528168e-02 -2.825006e-01 8.583112e-02 -2.838165e-02 2.822883e-01
<VARIANCE> 39
 9.040256e+00 1.714458e+01 2.148764e+01 2.105111e+01 1.401955e+01 2.908016e+01 1.060597e+01 2.504849e+01 3.449683e+01 1.775587e+01 1.086983e+01 1.071826e+01 2.136155e+01 6.129789e-01 4.472474e-01 9.828310e-01 1.308681e+00 2.243718e+00 2.112420e+00 1.489432e+00 2.583068e+00 1.540449e+00 1.886578e+00 9.859216e-01 9.000734e-01 8.386508e-01 1.010138e-01 4.746938e-02 1.098029e-01 2.527708e-01 2.769220e-01 4.107544e-01 2.999829e-01 2.575078e-01 3.192940e-01 2.652120e-01 2.304156e-01 1.848759e-01 1.185945e-01
<GCONST> 8.988139e+01
<TRANSP> 9
 0.000000e+00 1.000000e+00 0.000000e+00 0.000000e+00 0.000000e+00 0.000000e+00 0.000000e+00 0.000000e+00 0.000000e+00
 0.000000e+00 8.387097e-01 1.612903e-01 0.000000e+00 0.000000e+00 0.000000e+00 0.000000e+00 0.000000e+00 0.000000e+00
 0.000000e+00 0.000000e+00 8.369565e-01 1.630435e-01 0.000000e+00 0.000000e+00 0.000000e+00 0.000000e+00 0.000000e+00
 0.000000e+00 0.000000e+00 0.000000e+00 7.272727e-01 2.727273e-01 0.000000e+00 0.000000e+00 0.000000e+00 0.000000e+00
 0.000000e+00 0.000000e+00 0.000000e+00 0.000000e+00 8.514851e-01 1.485149e-01 0.000000e+00 0.000000e+00 0.000000e+00
 0.000000e+00 0.000000e+00 0.000000e+00 0.000000e+00 0.000000e+00 8.255814e-01 1.744186e-01 0.000000e+00 0.000000e+00
 0.000000e+00 0.000000e+00 0.000000e+00 0.000000e+00 0.000000e+00 0.000000e+00 8.453608e-01 1.546392e-01 0.000000e+00
 0.000000e+00 0.000000e+00 0.000000e+00 0.000000e+00 0.000000e+00 0.000000e+00 0.000000e+00 8.026316e-01 1.973684e-01
 0.000000e+00 0.000000e+00 0.000000e+00 0.000000e+00 0.000000e+00 0.000000e+00 0.000000e+00 0.000000e+00 0.000000e+00
<ENDHMM>
