~o
<STREAMINFO> 1 39
<VECSIZE> 39<NULLD><MFCC_D_A_0><DIAGC>
~h "yon"
<BEGINHMM>
<NUMSTATES> 8
<STATE> 2
<NUMMIXES> 2
<MIXTURE> 1 4.318182e-01
<MEAN> 39
 -3.737296e+00 -3.138888e+00 9.251278e+00 -3.694616e+00 -1.400456e+01 -9.059953e+00 -8.244019e+00 -2.268450e+00 -2.017987e+00 -6.689930e+00 4.754071e+00 -2.149736e+00 7.220918e+01 1.156690e+00 -2.425342e+00 -4.748968e+00 -3.418635e-01 2.958620e+00 -1.287809e+00 -8.138249e-01 1.500332e+00 3.190014e+00 5.141895e-01 -1.513159e+00 -1.403571e+00 1.736183e+00 -1.086927e-01 4.417708e-01 -6.212918e-01 -5.021014e-01 1.397552e+00 1.282118e+00 -2.143381e-01 -7.219903e-01 6.099491e-01 2.414210e-01 -3.835322e-01 -6.172835e-01 -5.346953e-01
<VARIANCE> 39
 1.225338e+01 1.617525e+01 4.348114e+01 4.462502e+01 4.965779e+01 1.161936e+01 4.066945e+01 4.483855e+01 6.807767e+01 5.399618e+01 2.533596e+01 2.132742e+01 1.308423e+01 1.895036e-01 5.722741e-01 1.350190e+00 2.462936e+00 3.443429e+00 2.826782e+00 2.345448e+00 1.975634e+00 2.908913e+00 3.240104e+00 1.749469e+00 1.880200e+00 3.470209e-01 3.245918e-02 2.003097e-01 6.181017e-01 3.494647e-01 8.058594e-01 6.094503e-01 3.633510e-01 8.083650e-01 9.427356e-01 4.682412e-01 4.460628e-01 2.641439e-01 5.204890e-02
<GCONST> 1.062253e+02
<MIXTURE> 2 5.681818e-01
<MEAN> 39
 -7.394418e+00 5.613520e+00 1.806978e+01 -2.442687e+00 -1.242799e+01 7.170200e-01 -9.548086e+00 -7.557199e+00 -5.071910e+00 -8.302548e+00 4.998435e+00 -2.493598e+00 6.361179e+01 1.184167e+00 -8.590072e-01 1.276325e+00 -9.897658e-01 -3.762240e+00 -2.043487e+00 -9.744815e-01 -4.417786e-01 -1.054121e+00 -2.052558e-01 7.381513e-01 -3.077301e-01 3.449168e+00 4.153668e-02 -9.364097e-01 -1.958222e+00 2.290632e-01 1.002674e+00 -3.409570e-01 6.181044e-01 8.687943e-01 6.881578e-01 6.288244e-01 -3.758245e-01 1.828928e-01 -2.160899e-01
<VARIANCE> 39
 5.818027e+00 1.222669e+01 5.812932e+01 7.479021e+01 9.457480e+01 2.403712e+01 3.701175e+01 2.954424e+01 6.262601e+01 8.273381e+01 3.482155e+01 2.178403e+01 2.708017e+01 5.747418e-01 3.140268e+00 1.149170e+01 2.631793e+00 5.419192e+00 1.728894e+00 5.243914e+00 3.503680e+00 2.555202e+00 4.074751e+00 2.630879e+00 1.522606e+00 1.201649e+00 7.479030e-02 2.300280e-01 8.057284e-01 8.001061e-01 1.895133e+00 4.180938e-01 6.791433e-01 3.036940e-01 1.008520e+00 7.200056e-01 5.890397e-01 3.372737e-01 2.722311e-01
<GCONST> 1.210405e+02
<STATE> 3
<NUMMIXES> 2
<MIXTURE> 1 2.727273e-01
<MEAN> 39
 1.182438e+00 -3.935606e+00 -6.155981e+00 -7.752906e+00 3.527508e+00 -3.004128e-01 -2.344536e+00 9.309800e-01 3.686719e+00 6.197726e+00 -5.116240e+00 -6.996139e+00 8.058755e+01 4.008226e-01 6.847320e-01 -2.868121e+00 -1.643911e+00 2.090477e+00 2.446617e+00 -1.119317e-02 -1.619594e+00 -2.129747e-01 3.916817e-01 3.755183e-01 -2.910635e-01 9.932486e-02 -1.372342e-01 2.583496e-01 7.692633e-01 3.891923e-02 -8.169056e-01 2.283783e-01 5.652650e-01 1.424318e-01 -1.132634e+00 -4.684312e-01 4.963624e-01 5.501162e-01 -2.903669e-01
<VARIANCE> 39
 6.866833e-01 4.513293e+00 2.336654e+01 9.621928e+00 2.131909e+01 2.441359e+01 7.627032e+00 1.494563e+01 6.554618e+00 1.031526e+01 1.118742e+01 6.567282e+00 1.938355e-01 9.410074e-02 2.610307e-01 1.577343e+00 3.156797e-01 3.509764e+00 1.785104e+00 1.632057e+00 1.494588e+00 5.794835e+00 1.745540e+00 2.662870e+00 2.000802e+00 2.074218e-01 1.445680e-02 2.157122e-01 5.371450e-02 1.126790e-01 2.757618e-01 5.921919e-01 7.533943e-02 6.740274e-01 3.805114e-01 2.502495e-01 4.433736e-01 1.409316e-01 2.968272e-02
<GCONST> 7.250979e+01
<MIXTURE> 2 7.272727e-01
<MEAN> 39
 -1.574574e+00 -5.564242e+00 -6.679131e+00 -9.664044e+00 -2.660067e+00 -2.469553e+00 -1.505595e+01 -8.581846e+00 6.591514e+00 -4.660093e+00 1.116036e+00 -1.069786e+01 7.327318e+01 5.597081e-01 -4.270247e-02 -2.747867e+00 -2.634090e+00 2.452680e+00 3.005285e+00 5.789906e-01 -2.200570e+00 3.491498e-02 3.708851e-01 -1.275010e-02 -5.241433e-01 2.584407e-01 -1.683142e-01 4.599432e-01 1.043184e+00 -7.413927e-02 -8.419397e-01 2.074483e-01 7.943154e-01 -4.203885e-02 -1.260627e+00 -7.417808e-01 6.019060e-01 9.846296e-01 -3.119349e-01
<VARIANCE> 39
 1.897146e+01 2.042499e+01 2.263065e+01 3.612266e+01 4.700111e+01 3.977542e+01 5.777174e+01 3.701284e+01 3.827909e+01 3.198746e+01 2.520543e+01 1.510257e+01 5.932048e+00 1.634904e-01 4.184337e-01 2.285197e+00 2.158796e+00 2.328207e+00 2.611735e+00 3.333267e+00 1.995978e+00 6.453612e+00 3.741531e+00 2.136079e+00 5.182127e+00 1.576276e-01 3.649723e-02 9.012956e-02 1.097540e-01 2.870612e-01 2.155506e-01 8.253639e-01 4.991028e-01 9.128126e-01 3.138087e-01 8.590266e-01 3.326096e-01 4.078736e-01 2.909816e-02
<GCONST> 1.021988e+02
<STATE> 4
<NUMMIXES> 2
<MIXTURE> 1 5.529412e-01
<MEAN> 39
 -5.007414e-01 -1.040597e+00 -8.412472e+00 -1.296803e+01 4.124250e+00 -6.661619e-01 8.982264e-01 -5.184717e+00 -8.286786e+00 -2.783830e+00 -7.739268e-01 -7.752583e+00 7.381207e+01 1.133421e-01 2.553228e-01 2.849720e-01 7.785954e-02 -7.048298e-01 1.628547e-01 8.138016e-01 1.009610e+00 -1.103278e+00 -3.268552e-01 -1.035534e+00 2.518227e-01 -4.527477e-01 -7.840700e-02 -4.241689e-03 2.205193e-01 2.885717e-01 -1.104925e-01 -1.068892e-01 -2.294921e-01 1.190657e-01 4.380592e-01 6.623621e-02 -3.282086e-01 -3.079492e-02 -9.716412e-02
<VARIANCE> 39
 7.154420e+00 4.245995e+00 9.578001e+00 4.101311e+01 1.034375e+01 5.252800e+01 3.685393e+01 2.982424e+01 1.093137e+01 4.169016e+01 3.733339e+01 7.978094e+00 1.472652e+01 8.345065e-02 1.689459e-01 1.932487e-01 5.338557e-01 7.491328e-01 7.721306e-01 8.680090e-01 4.776793e-01 1.906211e+00 1.177614e+00 1.356687e+00 2.763120e-01 1.077452e-01 1.453228e-02 3.539076e-02 7.950886e-02 9.538674e-02 1.683420e-01 1.404668e-01 1.182365e-01 1.635898e-01 1.397176e-01 2.043611e-01 2.531161e-01 1.085029e-01 1.000000e-02
<GCONST> 6.661053e+01
<MIXTURE> 2 4.470588e-01
<MEAN> 39
 -2.172154e-01 -4.606462e+00 -7.968083e+00 -2.015306e+01 -4.358917e+00 9.573291e+00 -8.470350e+00 -1.162819e+01 4.062304e+00 -1.522338e+01 3.970192e+00 -2.663459e+00 7.322194e+01 2.955663e-01 5.046634e-01 4.603350e-01 -7.271856e-01 -6.684545e-01 4.576634e-01 1.624743e+00 1.032070e+00 -9.322380e-01 -1.479481e+00 -8.528432e-03 5.553855e-01 -5.740072e-01 4.119985e-02 4.032154e-02 2.887236e-01 7.932601e-01 -3.006213e-01 -7.515439e-01 -2.843117e-01 5.227612e-01 8.463734e-02 7.710705e-01 -2.754663e-01 -6.594222e-01 -1.599321e-01
<VARIANCE> 39
 1.694978e+01 2.209510e+01 2.989114e+01 1.210242e+01 1.549734e+01 1.846761e+01 4.387742e+01 4.256556e+01 2.446529e+01 5.595665e+01 2.248898e+01 1.387791e+01 4.681425e+00 2.842920e-01 3.416396e-01 8.291194e-01 2.801942e+00 6.555845e-01 1.781733e+00 3.432529e+00 1.971738e+00 1.685131e+00 4.117853e+00 2.658729e+00 3.353617e+00 1.677141e-01 2.802424e-02 6.068428e-02 1.933215e-01 1.871288e-01 1.760414e-01 1.223430e-01 6.276606e-01 4.872759e-01 2.327019e-01 6.939609e-01 3.006351e-01 3.323335e-01 1.894760e-02
<GCONST> 9.129831e+01
<STATE> 5
<NUMMIXES> 2
<MIXTURE> 1 2.428571e-01
<MEAN> 39
 2.168738e+00 3.368304e-01 -4.467778e+00 -8.817475e+00 1.460542e+00 8.905809e+00 6.870419e+00 5.292899e+00 -9.844750e+00 1.531770e+00 -1.661386e+01 -6.907616e+00 7.329332e+01 -4.500188e-01 8.316557e-01 1.526036e+00 1.556477e+00 4.726727e-01 -1.049114e+00 -2.924006e-01 2.399615e-01 8.638729e-02 -4.048087e-01 -1.605530e+00 -8.080640e-01 -1.392109e+00 -1.133163e-01 1.190977e-01 9.548772e-02 1.683635e-01 3.642020e-01 -3.240819e-01 -3.865973e-01 -2.321272e-01 1.902638e-01 -5.154233e-02 6.214266e-01 3.781329e-02 -1.016947e-01
<VARIANCE> 39
 2.611115e+00 4.033983e+00 1.281044e+01 7.664236e+00 3.191169e+00 1.188255e+01 7.251766e+00 5.044011e+00 2.790552e+00 2.501114e+00 1.707469e+01 6.148696e+00 6.595040e+00 2.446919e-01 3.974407e-01 5.769442e-01 4.474654e-01 1.303815e+00 1.857504e+00 1.624010e+00 6.638749e-01 3.550755e-01 3.423631e-01 3.374456e+00 3.796724e-01 1.683257e-01 5.844077e-02 1.069522e-01 1.524245e-01 6.968375e-02 1.125514e-01 3.436905e-01 1.803056e-01 5.452792e-02 6.291178e-02 7.833566e-02 3.186036e-01 1.590658e-01 3.271638e-02
<GCONST> 5.876097e+01
<MIXTURE> 2 7.571428e-01
<MEAN> 39
 -1.855914e-02 -4.134995e-01 -4.479969e+00 -1.206708e+01 -4.929956e+00 2.624861e+00 -5.464701e+00 -4.791718e+00 -1.536630e+00 -8.632457e+00 -1.500378e+00 -6.091487e+00 6.832497e+01 -9.424673e-02 7.088158e-01 1.030638e+00 1.977545e+00 1.715065e-01 -6.613799e-01 -3.353700e-01 -5.722922e-01 -5.268582e-01 1.536929e+00 -5.917119e-01 1.462386e-01 -1.047065e+00 -1.127025e-01 2.662385e-02 1.353389e-01 8.820090e-02 2.392877e-01 3.919658e-02 -5.211918e-02 -5.853614e-01 -1.261512e-01 -9.159602e-02 -1.170050e-02 3.030754e-01 -3.952618e-02
<VARIANCE> 39
 1.257308e+01 9.419545e+00 1.698171e+01 4.483824e+01 2.744980e+01 3.953311e+01 2.511339e+01 3.763785e+01 5.089957e+01 3.516241e+01 3.111912e+01 9.871059e+00 6.757569e+00 1.905590e-01 5.772324e-01 9.180577e-01 1.382570e+00 1.360624e+00 1.084863e+00 1.369795e+00 2.146455e+00 1.342523e+00 2.420485e+00 9.480293e-01 1.698359e+00 1.793698e-01 2.482152e-02 8.461268e-02 1.565032e-01 2.486298e-01 1.905023e-01 8.827354e-02 2.289665e-01 2.157665e-01 2.226565e-01 3.079230e-01 2.248781e-01 1.278543e-01 2.102028e-02
<GCONST> 8.489442e+01
<STATE> 6
<NUMMIXES> 2
<MIXTURE> 1 7.441860e-01
<MEAN> 39
 -4.094710e+00 4.736162e+00 2.113563e+00 -1.495831e+00 2.218797e+00 -8.362296e-01 -3.558804e+00 -6.114330e+00 -6.491266e+00 -5.852670e+00 -9.095245e+00 -2.750464e+00 6.396071e+01 -7.280637e-01 1.193395e-01 1.020370e+00 7.916718e-01 4.945722e-01 -1.602926e-01 3.781530e-01 -1.320455e-01 1.858624e-01 4.484603e-01 4.728882e-02 4.589210e-01 -8.947223e-01 -6.139226e-02 -2.221325e-01 -1.883312e-01 -2.081190e-01 -8.983475e-02 1.429367e-01 2.973920e-01 3.150237e-01 2.800449e-01 2.080343e-01 2.398099e-01 3.126910e-02 1.964313e-02
<VARIANCE> 39
 7.926187e+00 5.799366e+00 9.935957e+00 3.328641e+01 1.287908e+01 1.764347e+01 1.717775e+01 5.384011e+01 3.381556e+01 3.547792e+01 2.806463e+01 2.130061e+01 4.786889e+00 2.724352e-01 5.949512e-01 4.604370e-01 8.193748e-01 7.065255e-01 1.363067e+00 1.956866e+00 1.641927e+00 1.839506e+00 2.675922e+00 1.516614e+00 1.541812e+00 2.586830e-01 4.462970e-02 7.390863e-02 1.208493e-01 8.195028e-02 1.534271e-01 2.394457e-01 2.431530e-01 2.584893e-01 3.161314e-01 3.583722e-01 3.682631e-01 3.325503e-01 4.101793e-02
<GCONST> 8.416571e+01
<MIXTURE> 2 2.558140e-01
<MEAN> 39
 4.168697e+00 -1.766202e+00 2.763582e+00 -2.668925e+00 -1.179447e+01 8.310627e-01 -5.648522e+00 -1.740167e+01 -6.389782e+00 5.482497e+00 3.536416e+00 -1.051049e+01 5.942765e+01 -6.949235e-01 1.221384e-01 1.163644e+00 1.396582e+00 2.728912e-01 -6.434181e-01 2.090822e-01 -6.309514e-01 -6.488804e-01 1.751180e+00 -4.407800e-01 -3.604108e-01 -9.171543e-01 -1.773770e-01 -5.387796e-03 -3.796575e-01 -2.320436e-01 2.159477e-01 5.962408e-02 5.794896e-02 2.527159e-01 1.051775e-01 -1.669029e-01 1.263589e-01 9.872147e-02 -4.632713e-02
<VARIANCE> 39
 4.509299e+00 1.186063e+01 1.193813e+01 1.007846e+01 1.547345e+01 1.360144e+01 1.072196e+01 1.937502e+01 1.430986e+01 3.154619e+01 9.650645e+00 1.042359e+01 5.999539e+00 3.360859e-01 1.330121e+00 9.958584e-01 9.475070e-01 1.582239e+00 9.165918e-01 6.708396e-01 1.400408e+00 5.891209e-01 8.996181e-01 1.070974e+00 1.083428e+00 1.868035e-01 4.787676e-02 3.702720e-01 1.695019e-01 2.001572e-01 2.714897e-01 1.338204e-01 1.414565e-01 2.910138e-01 2.009614e-01 1.877762e-01 1.287240e-01 3.357105e-01 1.132051e-01
<GCONST> 7.841096e+01
<STATE> 7
<NUMMIXES> 2
<MIXTURE> 1 8.428571e-01
<MEAN> 39
 -7.194905e+00 1.857645e+00 3.073915e+00 6.915998e-01 4.468137e+00 -5.908533e-01 1.330128e+00 -2.144650e+00 -1.896176e+00 6.081948e-01 -6.049391e+00 -1.440570e-01 5.801374e+01 -5.146076e-01 -3.357406e-01 -8.508000e-01 4.817590e-01 -2.002289e-01 3.968694e-01 3.543013e-01 7.003688e-01 8.157287e-01 -1.629070e-01 1.305169e+00 6.191483e-01 -1.232914e+00 1.097775e-01 3.601868e-02 -1.338711e-01 1.108162e-02 -1.540976e-01 7.723166e-02 -2.263150e-01 -5.865564e-02 -1.634724e-01 -2.404272e-01 -7.009941e-03 -1.290110e-01 7.768984e-02
<VARIANCE> 39
 5.523735e+00 9.599329e+00 1.607435e+01 2.287092e+01 1.884722e+01 1.974529e+01 1.420511e+01 3.884643e+01 1.157670e+01 3.178481e+01 3.043618e+01 1.221132e+01 1.909941e+01 4.446042e-01 6.780296e-01 7.125508e-01 8.087516e-01 1.271099e+00 8.784320e-01 1.279227e+00 2.486836e+00 1.460650e+00 2.407807e+00 1.514481e+00 1.377611e+00 6.428664e-01 5.705170e-02 1.507966e-01 2.574977e-01 1.571288e-01 1.893630e-01 1.844021e-01 2.286023e-01 2.558450e-01 2.444804e-01 3.464526e-01 2.986855e-01 2.578705e-01 1.006253e-01
<GCONST> 8.814622e+01
<MIXTURE> 2 1.571429e-01
<MEAN> 39
 -1.976276e+00 8.114656e-01 3.949094e+00 3.279140e+00 -6.853864e+00 -1.560030e+00 -2.662117e+00 -1.981537e+01 -8.571412e+00 1.221057e+01 3.358250e+00 -1.072626e+01 5.221889e+01 -1.942881e+00 1.176274e+00 -1.364074e+00 -1.925409e-01 1.446934e+00 2.430406e-01 1.028520e+00 2.102134e+00 1.109564e+00 -1.086383e+00 -5.299385e-01 1.758797e+00 -2.389076e+00 -2.502186e-01 -4.027560e-02 -2.176435e-01 -4.626067e-01 1.460871e-01 1.932144e-01 1.030732e-01 1.235062e+00 4.599608e-01 -9.088644e-01 -1.421693e-01 4.733723e-01 -1.840971e-01
<VARIANCE> 39
 5.163697e+00 1.133704e+01 7.570790e+00 9.407835e+00 2.772225e+01 2.134174e+01 2.483106e+01 1.975618e+01 6.935498e+00 1.820960e+01 1.682284e+01 6.078121e+00 7.796264e+00 6.776748e-01 7.127550e-01 7.305243e-01 5.667083e-01 1.339308e+00 9.528128e-01 1.194023e+00 5.965752e+00 7.407547e-01 2.410162e+00 9.047212e-01 2.793309e+00 5.361682e-01 8.430780e-02 2.569353e-01 1.503524e-01 8.567625e-02 4.461847e-01 1.300823e-01 1.902625e-01 3.122756e-01 4.289535e-02 1.876394e-01 1.716080e-01 2.705879e-01 9.781449e-02
<GCONST> 8.152128e+01
<TRANSP> 8
 0.000000e+00 1.000000e+00 0.000000e+00 0.000000e+00 0.000000e+00 0.000000e+00 0.000000e+00 0.000000e+00
 0.000000e+00 8.409091e-01 1.590909e-01 0.000000e+00 0.000000e+00 0.000000e+00 0.000000e+00 0.000000e+00
 0.000000e+00 0.000000e+00 7.454545e-01 2.545455e-01 0.000000e+00 0.000000e+00 0.000000e+00 0.000000e+00
 0.000000e+00 0.000000e+00 0.000000e+00 8.352941e-01 1.647059e-01 0.000000e+00 0.000000e+00 0.000000e+00
 0.000000e+00 0.000000e+00 0.000000e+00 0.000000e+00 8.000000e-01 2.000000e-01 0.000000e+00 0.000000e+00
 0.000000e+00 0.000000e+00 0.000000e+00 0.000000e+00 0.000000e+00 8.372093e-01 1.627907e-01 0.000000e+00
 0.000000e+00 0.000000e+00 0.000000e+00 0.000000e+00 0.000000e+00 0.000000e+00 8.000000e-01 2.000000e-01
 0.000000e+00 0.000000e+00 0.000000e+00 0.000000e+00 0.000000e+00 0.000000e+00 0.000000e+00 0.000000e+00
<ENDHMM>
