~o
<STREAMINFO> 1 39
<VECSIZE> 39<NULLD><MFCC_D_A_0><DIAGC>
~h "zero"
<BEGINHMM>
<NUMSTATES> 9
<STATE> 2
<NUMMIXES> 2
<MIXTURE> 1 2.935780e-01
<MEAN> 39
 -1.037898e+01 6.393420e+00 3.656956e+00 4.466849e+00 -6.679060e+00 -1.164511e+01 -1.776383e+00 -2.787380e+00 -4.791934e+00 -5.102273e+00 -3.296466e-01 2.636903e+00 6.833794e+01 3.933257e+00 -9.978067e-01 2.133477e+00 -1.297576e+00 -3.455713e+00 -3.009882e+00 -2.094684e+00 -7.167934e-01 -4.720011e-01 -1.260754e+00 1.758827e-01 9.289184e-02 1.758194e+00 -1.499830e-01 -8.634611e-01 -5.338179e-01 -7.368851e-01 -8.017204e-02 7.504460e-01 -6.107183e-02 5.706861e-01 6.318498e-01 4.770151e-01 4.305412e-01 -4.279585e-01 -1.024123e-01
<VARIANCE> 39
 3.035991e+01 1.151712e+01 1.766053e+01 4.279438e+01 4.054802e+01 2.033085e+01 5.052335e+01 3.642389e+01 5.066869e+01 4.392942e+01 2.242903e+01 1.899486e+01 1.309987e+01 1.230672e+00 2.091020e+00 1.198837e+00 2.002923e+00 3.600827e+00 2.015164e+00 2.559093e+00 2.519289e+00 1.806590e+00 1.690886e+00 1.829897e+00 3.381748e+00 1.132294e+00 6.815565e-01 1.408093e-01 2.163198e-01 1.276477e-01 5.093340e-01 2.736704e-01 4.564652e-01 2.841379e-01 2.346462e-01 4.458985e-01 3.247844e-01 3.190967e-01 1.078723e-01
<GCONST> 1.067622e+02
<MIXTURE> 2 7.064220e-01
<MEAN> 39
 -1.786554e+01 4.358685e+00 -3.923631e+00 2.975841e+00 -2.749215e-01 -1.215163e+00 7.015867e-01 -3.202979e-02 -2.333059e-01 -1.417438e+00 1.304047e+00 7.057438e-01 6.114007e+01 -2.095635e-01 7.805520e-01 5.049051e-01 3.376512e-01 -4.599911e-01 -1.275674e+00 2.700325e-01 -3.068872e-01 -4.692622e-01 -5.312566e-01 -2.342695e-01 2.629478e-01 1.741670e+00 8.758018e-01 -7.831874e-02 5.193172e-01 -5.582841e-02 -2.630841e-01 -4.030560e-01 -1.433982e-01 -2.146978e-01 3.851862e-05 -1.740547e-01 -8.542743e-02 1.401699e-01 -1.432568e-01
<VARIANCE> 39
 2.806831e+01 3.092265e+01 2.387167e+01 2.333119e+01 2.055981e+01 3.055867e+01 2.814546e+01 4.809776e+01 3.289011e+01 3.288607e+01 1.618019e+01 1.639103e+01 5.429834e+01 6.212082e+00 1.455181e+00 2.655868e+00 1.445101e+00 2.878805e+00 3.679813e+00 2.046721e+00 2.273854e+00 2.377630e+00 3.106426e+00 1.390304e+00 1.303840e+00 1.793268e+00 7.019265e-01 3.096374e-01 3.990736e-01 3.434708e-01 6.367863e-01 5.628213e-01 5.434838e-01 4.491698e-01 3.971184e-01 5.898628e-01 2.347911e-01 3.164119e-01 2.775837e-01
<GCONST> 1.143211e+02
<STATE> 3
<NUMMIXES> 2
<MIXTURE> 1 5.428572e-01
<MEAN> 39
 -4.120674e+00 -1.931985e+00 4.866407e+00 -5.724346e+00 -6.464352e+00 -1.383875e+01 4.165430e+00 3.727614e+00 1.153153e+00 -2.362466e+00 1.317133e+00 -6.301959e+00 7.657872e+01 3.094290e-01 -1.007213e+00 -2.239555e-01 -6.730998e-02 -3.505962e-02 1.106675e-02 -2.082700e-01 8.494727e-01 1.195327e-01 -4.391498e-01 -1.413523e-01 -2.396573e-01 2.751392e-01 -2.285909e-01 1.565255e-02 -2.862643e-02 5.361923e-01 -2.824894e-03 2.692160e-01 -3.072433e-01 -1.312379e-01 -7.759343e-02 1.355043e-03 1.359809e-01 3.327940e-01 -2.490170e-01
<VARIANCE> 39
 7.215178e+00 1.521146e+01 1.013338e+01 5.721126e+00 3.957640e+01 1.916293e+01 3.081217e+01 4.200395e+01 8.428466e+00 1.119193e+01 6.455811e+01 1.556237e+01 1.029817e+01 3.514164e-01 3.174018e-01 6.819251e-01 1.356311e+00 5.574756e-01 7.535419e-01 1.597249e+00 8.117148e-01 5.078672e-01 1.200849e+00 1.443208e+00 1.229190e+00 2.297537e-01 1.546172e-01 9.630158e-02 1.979423e-01 1.819929e-01 2.494492e-01 1.871165e-01 1.628029e-01 2.341231e-01 1.380182e-01 3.116662e-01 2.205177e-01 2.778534e-01 7.286603e-02
<GCONST> 8.133234e+01
<MIXTURE> 2 4.571429e-01
<MEAN> 39
 -4.816333e+00 -2.047652e-01 4.795613e+00 -4.622236e-01 -1.540464e+01 -1.352926e+01 -7.573581e+00 -1.851517e+00 -2.474251e+00 -7.332293e+00 4.514659e+00 2.750431e+00 7.185563e+01 1.225850e+00 -2.207543e+00 2.414249e-01 -2.507946e+00 -1.552874e+00 -1.350148e-01 -5.182594e-01 9.294814e-01 1.378043e+00 2.999679e-01 1.421659e+00 -1.400585e+00 1.459983e+00 -9.339528e-01 2.147969e-01 -5.288415e-01 8.577771e-02 1.081490e+00 7.291084e-01 6.818269e-01 2.646009e-01 2.119204e-01 1.508016e-01 -2.768349e-01 -3.798381e-01 -3.270827e-01
<VARIANCE> 39
 1.899061e+01 1.194433e+01 9.283176e+00 6.025504e+01 5.880676e+01 2.726805e+01 3.144761e+01 2.915425e+01 5.078550e+01 4.107853e+01 1.294732e+01 3.291326e+01 6.605515e+00 1.488792e+00 7.049984e-01 7.222877e-01 4.793279e-01 2.255320e+00 7.899843e-01 1.119760e+00 1.089294e+00 8.565491e-01 1.931564e+00 2.176715e+00 1.275665e+00 2.212274e-01 1.259514e-01 1.971854e-01 1.580875e-01 2.829823e-01 3.310350e-01 2.431787e-01 1.765724e-01 3.883538e-01 2.856176e-01 2.175648e-01 1.741455e-01 3.730848e-01 8.281108e-02
<GCONST> 9.298981e+01
<STATE> 4
<NUMMIXES> 2
<MIXTURE> 1 4.024390e-01
<MEAN> 39
 -7.511313e+00 -3.408043e+00 5.991216e-01 1.997192e+00 -1.756088e+01 -8.584496e+00 -1.134405e+01 9.045799e+00 -3.994524e+00 -1.364498e+01 7.368927e+00 -4.488999e+00 7.692054e+01 -6.564881e-02 -1.898898e-01 -3.146183e-01 1.253356e-01 4.455345e-02 -1.575999e-01 7.740549e-02 1.945890e-01 7.278544e-01 -3.036307e-01 -5.230853e-01 -1.212919e-01 -1.072999e-01 2.024744e-01 4.644133e-02 -7.362662e-02 4.814557e-01 1.840306e-01 -1.172206e-01 -8.162430e-02 -2.883901e-01 3.103482e-02 -7.204718e-02 -2.979373e-01 5.237834e-01 -2.481006e-01
<VARIANCE> 39
 2.664857e+00 1.820138e+00 2.771988e+00 1.253794e+00 1.908280e+00 3.220242e+00 4.324525e+00 8.607028e+00 9.247933e+00 5.957316e+00 1.184888e+01 1.955027e+01 6.203262e-01 9.540051e-01 1.737164e-01 2.126781e-01 1.752625e+00 9.747352e-02 7.616701e-01 7.257807e-01 9.738752e-01 6.588911e-01 4.411025e-01 1.402062e+00 4.792599e+00 4.951162e-01 5.296742e-02 3.989165e-02 2.387646e-02 1.783569e-01 1.405373e-01 7.776716e-02 1.108829e-01 1.618192e-01 9.688086e-02 1.244399e-01 1.687138e-01 1.550839e-01 3.150054e-02
<GCONST> 5.147131e+01
<MIXTURE> 2 5.975610e-01
<MEAN> 39
 -3.572368e+00 -5.571698e+00 4.466196e+00 -1.042541e+01 -1.322828e+01 -1.236301e+01 -5.268291e+00 -1.345328e+00 6.230553e+00 -6.749456e+00 2.924393e+00 -1.242046e+00 7.340204e+01 2.820784e-01 -5.059871e-01 -1.756296e-01 6.162302e-01 3.453676e-01 7.871993e-01 -9.301669e-01 2.023359e-01 6.218570e-01 -4.094639e-01 -6.041791e-01 1.735093e-01 -4.962891e-01 -1.016251e-02 2.306968e-01 5.089080e-02 5.932100e-01 1.579241e-01 -4.407804e-02 -1.978416e-01 -1.342015e-01 -1.965126e-01 1.275368e-01 -1.951809e-01 1.627779e-01 -3.855611e-01
<VARIANCE> 39
 2.553083e+01 1.768232e+01 1.185167e+01 2.012284e+01 5.928107e+01 2.952275e+01 2.631165e+01 3.978434e+01 5.147881e+01 3.610822e+01 3.497171e+01 1.168189e+01 4.579187e+00 2.142050e-01 5.377464e-01 1.031937e+00 3.109102e+00 1.070545e+00 6.211806e-01 1.738634e+00 1.731052e+00 1.436227e+00 8.159679e-01 1.211837e+00 1.542542e+00 1.145270e+00 3.861739e-02 1.173350e-01 1.187512e-01 1.501473e-01 1.232518e-01 1.782185e-01 2.069879e-01 2.883095e-01 3.251427e-01 2.942394e-01 2.322298e-01 1.929804e-01 9.780844e-02
<GCONST> 8.952749e+01
<STATE> 5
<NUMMIXES> 2
<MIXTURE> 1 4.130435e-01
<MEAN> 39
 2.726141e+00 -7.929165e+00 -5.975156e+00 1.888647e-01 -9.058364e+00 -1.207157e+00 -1.282181e+01 -3.662172e+00 9.060942e+00 2.847560e-01 -1.570066e+00 -4.605599e+00 7.229166e+01 4.560165e-01 8.315986e-01 -1.831155e+00 -3.589408e+00 4.179729e-01 3.988842e+00 -4.640760e-01 -2.225059e+00 -2.274241e-01 2.137865e+00 1.760918e+00 -1.870520e+00 5.325824e-01 -3.993400e-01 6.157584e-01 5.926754e-01 -1.007691e+00 1.659905e-01 1.192244e-01 7.179111e-01 6.737739e-02 -9.971560e-01 -3.191600e-01 4.057533e-01 5.117984e-01 -3.066282e-01
<VARIANCE> 39
 1.400310e+01 1.647497e+01 2.602914e+01 7.055559e+01 3.887053e+01 5.347353e+01 5.890209e+01 2.099837e+01 3.821239e+01 2.753021e+01 1.902436e+01 3.474672e+01 1.141039e+01 9.118115e-01 1.343797e+00 1.468865e+00 2.123950e+00 2.623546e+00 9.760795e-01 3.885736e+00 1.223509e+00 6.331915e+00 1.724289e+00 2.125432e+00 2.109272e+00 5.943268e-01 2.687924e-02 1.521802e-01 1.761710e-01 6.334872e-01 4.309951e-01 6.381755e-01 5.501872e-01 3.904673e-01 4.301990e-01 3.700281e-01 3.975758e-01 6.325312e-01 1.117522e-01
<GCONST> 1.065610e+02
<MIXTURE> 2 5.869565e-01
<MEAN> 39
 -2.340527e+00 -6.115181e+00 2.481333e+00 3.551572e+00 -9.691895e+00 -1.091957e+01 -1.026015e+01 9.812998e-01 3.499153e+00 -7.869091e+00 -1.501435e+00 1.583080e+00 6.891697e+01 8.850630e-01 -2.706116e-01 -1.633348e+00 1.578947e+00 1.211136e+00 7.848538e-01 -1.211940e+00 -1.104643e+00 6.853543e-01 1.070610e+00 -9.317624e-01 2.673668e-01 -6.406304e-01 1.098849e-01 1.361396e-01 -6.596218e-01 -1.121578e+00 -4.527597e-02 6.651385e-01 7.481177e-02 -3.228684e-01 1.628156e-01 5.721112e-01 4.269818e-01 -7.091936e-01 5.842049e-01
<VARIANCE> 39
 1.568907e+01 1.089478e+01 2.805192e+01 6.660181e+01 2.633666e+01 1.418200e+01 3.051619e+01 2.121567e+01 3.842017e+01 3.257721e+01 3.038424e+01 3.462870e+01 1.439232e+01 4.207867e-01 1.196885e+00 2.256101e+00 3.577291e+00 3.473473e+00 2.856322e+00 1.827661e+00 2.296286e+00 3.805454e+00 2.412642e+00 2.406721e+00 3.686624e+00 2.470155e+00 1.078475e-01 2.778548e-01 2.438444e-01 6.229281e-01 6.883510e-01 4.703832e-01 3.816772e-01 2.458903e-01 8.824397e-01 2.752733e-01 6.662225e-01 6.706681e-01 2.983256e-01
<GCONST> 1.116243e+02
<STATE> 6
<NUMMIXES> 2
<MIXTURE> 1 5.686275e-01
<MEAN> 39
 -1.332867e+00 9.565232e-01 -9.963814e+00 -6.452086e+00 -4.707880e+00 5.295102e+00 -9.142509e+00 -9.251966e+00 -1.444158e+00 -5.672289e-01 3.348022e+00 -5.896621e-01 7.193307e+01 -1.926200e-01 1.531093e+00 2.884961e-01 -3.595341e+00 4.652521e-01 2.005471e+00 9.524687e-01 -3.655182e-02 -1.740083e+00 -9.624172e-01 6.425239e-01 1.228628e+00 -6.323733e-01 1.302409e-01 -1.861575e-01 4.687034e-01 4.668662e-01 -1.598129e-01 -8.156291e-01 6.310366e-02 8.590699e-01 1.629797e-01 -8.235324e-01 -4.717161e-01 2.209611e-01 -2.255093e-01
<VARIANCE> 39
 3.896385e+00 6.432692e+00 1.908923e+01 4.513855e+01 1.671967e+01 6.123175e+01 1.910454e+01 1.576877e+01 3.415768e+01 4.223063e+01 1.315605e+01 5.962781e+01 1.216233e+01 4.952768e-01 5.009466e-01 1.342998e+00 4.388132e+00 9.908327e-01 1.802657e+00 2.621045e+00 2.621484e+00 2.350995e+00 5.545347e+00 1.550041e+00 2.166378e+00 2.087837e-01 9.459271e-02 3.933430e-02 2.078775e-01 4.579549e-01 2.889347e-01 2.490308e-01 6.464344e-01 1.605846e-01 5.232447e-01 9.258365e-01 3.041225e-01 5.705397e-01 6.301747e-02
<GCONST> 9.775100e+01
<MIXTURE> 2 4.313726e-01
<MEAN> 39
 3.894093e+00 -3.833201e+00 -5.944937e+00 -2.212915e+01 -7.622175e+00 6.095528e+00 -1.227882e+01 -9.109019e+00 3.125226e+00 3.055538e+00 6.775924e+00 -3.275488e+00 6.722292e+01 9.790270e-03 2.023347e+00 -7.924425e-02 -3.512522e+00 6.488677e-01 6.806278e-01 3.017152e+00 -5.673763e-01 -1.685173e+00 -8.974277e-01 5.108021e-01 1.807668e+00 -1.251659e+00 -2.115550e-01 -4.004724e-02 4.202000e-01 9.052074e-01 -3.263513e-01 -7.368143e-01 3.834291e-01 5.717800e-01 3.641034e-01 -7.006800e-01 -8.673018e-01 4.380521e-01 -2.842385e-01
<VARIANCE> 39
 1.261385e+01 1.334365e+01 1.928667e+01 2.044684e+01 3.257578e+01 4.056850e+01 3.858251e+01 1.116061e+01 5.124027e+01 2.854346e+01 1.853626e+01 3.255431e+01 5.056638e+00 1.496204e-01 3.636882e-01 6.213799e-01 2.287010e+00 1.193543e+00 4.275041e+00 3.168325e+00 9.442560e-01 1.643548e+00 1.230015e+00 4.785989e+00 1.133283e+00 2.018433e-01 8.120216e-02 2.830943e-01 1.284318e-01 2.620619e-01 1.827412e-01 3.760693e-01 1.360071e+00 1.572801e-01 4.839863e-01 2.694590e-01 5.685677e-01 5.907067e-01 9.389865e-02
<GCONST> 9.542583e+01
<STATE> 7
<NUMMIXES> 2
<MIXTURE> 1 4.315789e-01
<MEAN> 39
 -2.296432e+00 5.500157e+00 -6.116176e+00 -1.254768e+01 -1.278350e+00 9.421519e+00 -4.568620e+00 -1.583431e+00 -3.897533e+00 2.760858e+00 2.481616e+00 -2.828082e+00 6.935158e+01 -4.317478e-01 4.784387e-01 1.065920e-01 2.365114e-02 -3.027174e-02 -3.417353e-01 8.283846e-01 7.166556e-01 -6.851286e-01 -2.998067e-01 3.385878e-01 9.038359e-01 -9.457340e-01 -4.786517e-02 -3.312018e-01 1.159963e-01 4.742616e-01 -6.869416e-03 -1.972623e-01 -4.439507e-02 2.723036e-02 3.399608e-01 -7.367440e-02 -1.100819e-01 -3.657469e-02 -9.640370e-02
<VARIANCE> 39
 3.848963e+00 3.586367e+00 3.148949e+00 2.704110e+01 7.366536e+00 3.510074e+01 7.060434e+00 3.250983e+01 1.681793e+01 1.103071e+01 1.270855e+01 1.238788e+01 1.654340e+01 2.803563e-01 6.860904e-01 5.856681e-01 1.494644e+00 4.912416e-01 1.817659e+00 8.322518e-01 6.704919e-01 1.386549e+00 5.710937e-01 8.386212e-01 6.967283e-01 3.326802e-01 6.640428e-02 2.971228e-02 1.249985e-01 9.965440e-02 1.764625e-01 2.818316e-01 1.125469e-01 1.277872e-01 9.724622e-02 1.365189e-01 2.071471e-01 1.673707e-01 1.901148e-02
<GCONST> 6.897346e+01
<MIXTURE> 2 5.684211e-01
<MEAN> 39
 1.432040e+00 3.816642e+00 -5.128916e+00 -2.461030e+01 -7.357225e+00 1.992915e+00 -2.843528e+00 -3.863572e+00 -2.086053e+00 -5.156071e+00 7.444139e-01 5.124013e+00 6.372970e+01 -1.587044e-01 4.729930e-01 3.357951e-01 -1.133618e-01 -3.563551e-01 -6.956961e-01 8.279774e-01 9.387571e-01 4.198122e-01 1.848776e-01 -4.700294e-01 -5.899881e-02 -1.154627e+00 -2.140714e-01 -1.357921e-01 -1.309354e-01 5.612047e-01 8.809067e-02 -1.842479e-01 -2.007742e-01 -8.559877e-02 1.330276e-01 4.437347e-01 2.935843e-01 -1.784899e-01 -4.980673e-02
<VARIANCE> 39
 9.191113e+00 1.204511e+01 1.633591e+01 6.100690e+01 3.592163e+01 8.449014e+01 1.760843e+01 2.074322e+01 4.841721e+01 7.368614e+01 1.763925e+01 1.810103e+01 8.370060e+00 5.737917e-01 4.847262e-01 7.535949e-01 1.155686e+00 8.473045e-01 1.066125e+00 1.226029e+00 1.455410e+00 1.353329e+00 3.498824e+00 2.884043e+00 6.892480e-01 3.978052e-01 6.990879e-02 9.200168e-02 1.633708e-01 1.618567e-01 2.213858e-01 2.673885e-01 3.447176e-01 3.087728e-01 1.977790e-01 6.659871e-01 4.399991e-01 1.425028e-01 4.180000e-02
<GCONST> 9.193953e+01
<STATE> 8
<NUMMIXES> 2
<MIXTURE> 1 7.042254e-01
<MEAN> 39
 -5.325702e+00 3.409588e+00 -4.231822e+00 -5.086699e+00 -2.567054e+00 1.024932e+00 -1.258648e+00 5.693278e-01 -6.218135e-01 1.836956e-01 3.241929e+00 3.190404e+00 5.781367e+01 -1.209131e+00 -8.478777e-01 5.098988e-01 2.260403e+00 9.923686e-01 9.565513e-02 3.918191e-01 3.796184e-02 4.915199e-01 -8.469395e-02 4.177253e-02 -1.315245e-02 -1.278704e+00 -4.012649e-03 -2.571953e-02 -7.494379e-02 -2.552474e-01 5.329214e-02 2.370408e-01 5.705437e-02 -1.229225e-01 -1.278626e-01 -1.047638e-01 -1.116509e-01 4.440655e-02 1.991604e-01
<VARIANCE> 39
 1.618316e+01 7.615835e+00 8.977428e+00 2.761067e+01 2.906185e+01 2.273962e+01 9.219302e+00 1.854166e+01 1.052289e+01 1.133988e+01 1.494363e+01 1.045860e+01 1.782568e+01 3.336129e-01 3.153500e-01 7.114868e-01 1.632985e+00 1.225456e+00 2.253568e+00 1.096769e+00 1.838521e+00 1.821404e+00 1.080276e+00 2.015851e+00 1.453233e+00 4.481011e-01 7.973810e-02 5.761505e-02 1.094056e-01 1.764212e-01 2.345900e-01 2.603139e-01 1.758993e-01 3.582548e-01 2.556629e-01 2.948270e-01 3.143547e-01 2.317179e-01 5.049197e-02
<GCONST> 8.383631e+01
<MIXTURE> 2 2.957746e-01
<MEAN> 39
 -1.991329e+00 1.638033e+00 -6.094512e+00 -2.310995e+01 -8.150004e+00 4.029007e+00 -6.255313e-01 -2.430914e+00 2.314794e+00 -4.588297e-01 5.501676e+00 1.938871e+00 5.556660e+01 -1.947069e+00 2.044188e-01 -6.175846e-01 3.181526e+00 1.181493e+00 -1.589871e+00 5.448834e-01 1.981920e+00 4.028650e-01 1.853570e+00 5.989298e-01 6.108029e-01 -2.584755e+00 -5.804273e-02 -1.065695e-01 6.288443e-02 8.225480e-01 3.300085e-01 6.173370e-02 -1.545326e-01 -1.686455e-02 1.390919e-01 3.609740e-01 -1.072116e-01 -2.497899e-01 -1.321357e-01
<VARIANCE> 39
 1.762246e+01 2.002894e+01 1.639495e+01 6.299437e+01 3.542186e+01 1.138106e+02 2.482144e+01 1.591498e+01 2.712114e+01 2.753288e+01 2.857268e+01 1.733337e+01 3.276226e+01 1.829779e+00 5.246549e-01 1.856462e+00 3.939687e+00 3.784769e+00 3.470522e+00 1.471044e+00 5.068911e-01 1.042142e+00 1.984538e+00 1.526868e+00 8.503179e-01 9.072688e-01 2.483467e-01 8.484893e-02 4.860087e-01 5.308223e-01 4.175898e-01 7.262567e-01 2.695609e-01 3.156567e-01 2.271513e-01 5.422732e-01 3.846974e-01 1.548057e-01 2.734664e-01
<GCONST> 1.051122e+02
<TRANSP> 9
 0.000000e+00 1.000000e+00 0.000000e+00 0.000000e+00 0.000000e+00 0.000000e+00 0.000000e+00 0.000000e+00 0.000000e+00
 0.000000e+00 8.623853e-01 1.376147e-01 0.000000e+00 0.000000e+00 0.000000e+00 0.000000e+00 0.000000e+00 0.000000e+00
 0.000000e+00 0.000000e+00 7.857143e-01 2.142857e-01 0.000000e+00 0.000000e+00 0.000000e+00 0.000000e+00 0.000000e+00
 0.000000e+00 0.000000e+00 0.000000e+00 8.170732e-01 1.829268e-01 0.000000e+00 0.000000e+00 0.000000e+00 0.000000e+00
 0.000000e+00 0.000000e+00 0.000000e+00 0.000000e+00 8.369565e-01 1.630435e-01 0.000000e+00 0.000000e+00 0.000000e+00
 0.000000e+00 0.000000e+00 0.000000e+00 0.000000e+00 0.000000e+00 7.058824e-01 2.941177e-01 0.000000e+00 0.000000e+00
 0.000000e+00 0.000000e+00 0.000000e+00 0.000000e+00 0.000000e+00 0.000000e+00 8.421053e-01 1.578947e-01 0.000000e+00
 0.000000e+00 0.000000e+00 0.000000e+00 0.000000e+00 0.000000e+00 0.000000e+00 0.000000e+00 7.887324e-01 2.112676e-01
 0.000000e+00 0.000000e+00 0.000000e+00 0.000000e+00 0.000000e+00 0.000000e+00 0.000000e+00 0.000000e+00 0.000000e+00
<ENDHMM>
