~o
<STREAMINFO> 1 26
<VECSIZE> 26<NULLD><MFCC_E_D_Z><DIAGC>
~h "go"
<BEGINHMM>
<NUMSTATES> 5
<STATE> 2
<MEAN> 26
 4.943819e+00 3.205077e+00 -6.646768e+00 -9.110240e+00 -1.907209e+00 -1.860572e+00 -1.893010e+00 -3.610908e+00 -5.042903e+00 -2.340551e+00 8.773412e-01 3.110638e-01 7.146550e-01 1.045132e+00 8.167250e-01 5.212345e-01 -2.374620e+00 -1.224842e+00 8.517896e-02 -1.097619e+00 -5.562645e-01 2.159510e-02 -9.504638e-01 7.711185e-01 -1.455784e-01 6.133049e-02
<VARIANCE> 26
 8.720680e+00 2.294468e+01 3.491916e+01 3.936143e+01 4.181839e+01 3.014064e+01 3.241712e+01 3.057598e+01 2.380766e+01 6.263897e+01 2.398567e+01 2.498816e+01 2.016043e-02 7.552468e-01 1.725592e+00 6.803396e+00 3.557956e+00 4.518186e+00 2.628510e+00 2.632164e+00 2.567326e+00 4.769419e+00 2.985770e+00 2.767476e+00 2.160242e+00 1.000000e-02
<GCONST> 9.182247e+01
<STATE> 3
<MEAN> 26
 7.527209e+00 3.380540e+00 -2.564411e+00 -2.104338e+01 -6.409993e+00 -2.414711e-02 -5.095170e+00 -3.025753e+00 -9.967921e-01 -6.223567e+00 1.744140e+00 3.707253e-01 9.366918e-01 -1.549771e-02 -1.411728e-01 -1.138090e-01 -3.637778e-01 -1.708490e-01 -7.754280e-02 1.056318e-01 2.699221e-01 3.568891e-02 1.555472e-02 -2.925740e-01 2.214336e-01 -8.959979e-03
<VARIANCE> 26
 1.001694e+01 1.302658e+01 9.617639e+00 3.742906e+01 4.002634e+01 3.496240e+01 4.913249e+01 3.880228e+01 2.648770e+01 3.219578e+01 2.289486e+01 2.692173e+01 1.000000e-02 1.668029e-01 5.231306e-01 2.858945e-01 1.385686e+00 6.467373e-01 9.994965e-01 8.507040e-01 9.403359e-01 8.983551e-01 1.172815e+00 7.163603e-01 1.011272e+00 1.000000e-02
<GCONST> 7.300647e+01
<STATE> 4
<MEAN> 26
 2.160180e+00 7.792662e-01 -1.433185e+00 -5.648005e+00 -5.169807e+00 -1.471297e+00 -1.067019e+00 1.407018e+00 1.103776e-01 -7.945063e-01 1.279056e-01 5.807386e-01 4.305200e-01 -6.997189e-01 -3.694053e-01 3.533880e-01 2.073065e+00 6.218107e-01 -1.743206e-02 4.741038e-01 1.590638e-01 2.909745e-01 6.401875e-01 7.773846e-02 -1.475832e-01 -3.792243e-02
<VARIANCE> 26
 1.199958e+01 5.926948e+00 8.352489e+00 9.948580e+01 3.407217e+01 1.894322e+01 1.935512e+01 1.103559e+01 2.522036e+01 1.928148e+01 1.546639e+01 1.535148e+01 4.548519e-02 4.405975e-01 3.888375e-01 6.579180e-01 3.269975e+00 1.415832e+00 1.596851e+00 1.509765e+00 1.315506e+00 1.557167e+00 2.084204e+00 1.205562e+00 1.344125e+00 1.000000e-02
<GCONST> 7.673067e+01
<TRANSP> 5
 0.000000e+00 1.000000e+00 0.000000e+00 0.000000e+00 0.000000e+00
 0.000000e+00 8.095238e-01 1.904762e-01 0.000000e+00 0.000000e+00
 0.000000e+00 0.000000e+00 9.223301e-01 7.766991e-02 0.000000e+00
 0.000000e+00 0.000000e+00 0.000000e+00 8.961039e-01 1.038961e-01
 0.000000e+00 0.000000e+00 0.000000e+00 0.000000e+00 0.000000e+00
<ENDHMM>
