~o
<STREAMINFO> 1 26
<VECSIZE> 26<NULLD><MFCC_E_D_Z><DIAGC>
~h "hachi"
<BEGINHMM>
<NUMSTATES> 9
<STATE> 2
<MEAN> 26
 -1.383993e+00 -8.275587e+00 -2.315571e+00 -6.770566e-01 7.651102e+00 1.562951e+00 -2.157313e+00 -1.590716e-01 7.731760e-01 -3.314679e+00 9.348428e-01 -8.887355e-01 5.159238e-01 3.539241e-01 -1.227940e-01 -5.587180e-02 -4.642074e-01 4.562186e-01 -2.317413e-01 6.838167e-01 -8.914558e-01 2.493298e-03 -9.642082e-01 -3.484895e-01 -2.307276e-01 4.679708e-02
<VARIANCE> 26
 1.881571e+01 2.256244e+01 1.732129e+01 3.220696e+01 1.860334e+01 1.724439e+01 3.129513e+01 5.552481e+01 1.792075e+01 2.062634e+01 2.061710e+01 1.535207e+01 2.530158e-02 3.168160e+00 3.025349e+00 2.801564e+00 1.646098e+00 2.154450e+00 2.117438e+00 3.680079e+00 2.709511e+00 1.617760e+00 1.789183e+00 1.902261e+00 2.256629e+00 1.000000e-02
<GCONST> 8.690477e+01
<STATE> 3
<MEAN> 26
 5.924113e+00 -5.487926e+00 -2.015654e+00 -9.165649e+00 5.837145e+00 -5.887951e+00 3.440808e+00 -6.977133e+00 6.766477e+00 -6.764146e+00 -4.413765e+00 -3.816511e+00 9.183977e-01 3.990448e-01 4.302898e-01 5.191714e-02 -1.983710e-01 -8.005278e-01 -1.149187e+00 -1.502043e-01 3.055785e-01 3.142368e-01 2.001510e-01 -5.983400e-01 3.436345e-02 6.602172e-03
<VARIANCE> 26
 1.292919e+01 2.611397e+01 6.186647e+01 3.276250e+01 4.101294e+01 4.200289e+01 6.807389e+01 2.862516e+01 4.876519e+01 1.496335e+01 3.444137e+01 1.452085e+01 1.000000e-02 1.236111e+00 2.645444e+00 2.811266e+00 4.373895e+00 1.798620e+00 3.492134e+00 3.622689e+00 2.723455e+00 3.281471e+00 1.171775e+00 1.737172e+00 1.474651e+00 1.000000e-02
<GCONST> 8.995290e+01
<STATE> 4
<MEAN> 26
 4.432130e+00 -8.445405e-01 -2.038715e+00 -4.797467e-01 2.120975e-01 -1.242831e+00 8.412958e-01 -5.956470e-01 2.029936e+00 -1.778505e+00 -4.725167e+00 -9.247451e-01 4.974650e-01 -5.783982e-01 1.839165e-01 -4.411343e-02 4.748483e-01 -2.671723e-01 1.255998e+00 6.288403e-02 4.771704e-01 -3.043243e-01 7.597140e-01 7.257789e-01 1.500592e-01 -3.809453e-02
<VARIANCE> 26
 6.873940e+00 1.059124e+01 1.866037e+01 1.337000e+01 9.304220e+00 2.891717e+01 2.232758e+01 1.286393e+01 4.021880e+01 2.061994e+01 2.360223e+01 1.171630e+01 4.290651e-02 4.931246e-01 8.669408e-01 7.117200e-01 1.036668e+00 1.276458e+00 2.926601e+00 1.709585e+00 1.214651e+00 2.273582e+00 1.314952e+00 1.935152e+00 1.367627e+00 1.000000e-02
<GCONST> 7.639938e+01
<STATE> 5
<MEAN> 26
 -7.301059e+00 3.144713e+00 -2.912647e+00 -3.447203e-01 6.853769e-01 -2.850355e+00 1.128211e+00 9.371740e-01 4.056306e-01 7.231266e-01 1.001175e+00 7.286527e-01 5.657994e-01 -3.148180e+00 1.519693e+00 8.045058e-02 -6.431830e-01 9.785766e-01 -1.289041e+00 -1.381529e-01 -8.786776e-02 -4.280349e-01 -1.437810e-01 2.418272e-01 3.019668e-01 5.821197e-02
<VARIANCE> 26
 5.345625e+01 2.265079e+01 1.452712e+01 8.520312e+00 1.791213e+01 2.406508e+01 1.513453e+01 1.708057e+01 1.652828e+01 2.143277e+01 1.773334e+01 1.002117e+01 3.496443e-02 2.628232e+00 1.071023e+00 2.072641e+00 8.622867e-01 1.545042e+00 2.289638e+00 1.370583e+00 1.605690e+00 1.570474e+00 2.406198e+00 1.425749e+00 9.013671e-01 1.000000e-02
<GCONST> 7.966312e+01
<STATE> 6
<MEAN> 26
 -1.575186e+01 5.189668e+00 2.034549e+00 -4.846913e+00 2.432326e+00 -3.328864e+00 4.622135e-01 1.363429e+00 -4.767664e-01 1.408219e+00 1.587294e+00 3.945930e-01 7.551190e-01 3.007156e-01 -1.780573e-01 5.132644e-01 -1.728590e-01 -1.977027e-01 1.666853e-01 -2.132739e-01 9.541820e-02 -5.360082e-02 -1.609491e-01 1.178320e-01 -1.044731e-01 -7.441781e-03
<VARIANCE> 26
 1.493388e+01 6.888058e+00 9.433245e+00 6.971107e+00 1.217395e+01 1.111137e+01 1.224921e+01 1.404063e+01 1.372049e+01 1.679979e+01 1.214507e+01 1.085371e+01 1.090988e-02 5.895890e-01 3.808948e-01 7.392508e-01 5.395495e-01 1.006698e+00 9.678447e-01 1.290030e+00 1.036662e+00 1.239918e+00 1.333022e+00 1.173465e+00 9.031494e-01 1.000000e-02
<GCONST> 6.626988e+01
<STATE> 7
<MEAN> 26
 -8.254024e-01 5.359688e+00 1.039877e+01 -6.454854e+00 -8.881596e+00 -8.644163e+00 -7.259605e+00 -5.351761e+00 -8.168053e+00 -5.046675e+00 1.337038e+00 -3.783382e+00 8.034033e-01 9.959872e-01 -2.568564e-01 4.249483e-01 -1.562637e-02 -8.777887e-01 -1.953634e-01 -5.222986e-01 -8.178297e-01 -1.925918e-01 -8.419137e-02 9.184476e-02 -4.803460e-02 -1.307301e-02
<VARIANCE> 26
 2.463101e+01 1.057304e+01 2.096696e+01 1.213849e+01 3.329652e+01 1.281816e+01 1.753659e+01 4.017649e+01 4.158406e+01 3.493451e+01 1.742861e+01 1.304728e+01 2.090590e-02 1.857141e+00 7.446240e-01 1.891890e+00 1.633777e+00 4.897916e+00 2.295274e+00 1.763216e+00 1.160732e+00 3.063421e+00 3.277461e+00 1.933565e+00 1.506245e+00 1.000000e-02
<GCONST> 8.369939e+01
<STATE> 8
<MEAN> 26
 -1.938925e+00 1.405264e+00 3.558499e+00 -3.375725e+00 -1.839703e+00 -1.994145e+00 -2.739584e+00 -8.911400e-01 -7.719504e-01 -5.034027e-02 1.516654e+00 -6.465571e-02 5.188842e-01 9.834020e-01 -4.244496e-01 -7.904872e-01 8.343865e-01 3.630783e-01 8.123105e-01 6.891559e-01 3.310959e-01 1.195849e-01 2.674791e-01 -2.133625e-01 7.324643e-02 -3.012481e-02
<VARIANCE> 26
 1.905958e+01 6.140421e+00 8.248148e+00 1.103124e+01 1.459450e+01 1.551441e+01 1.780544e+01 3.515232e+01 2.125813e+01 1.117450e+01 1.440247e+01 1.091606e+01 4.314029e-02 1.528720e+00 3.273337e-01 6.711858e-01 8.292143e-01 1.564071e+00 1.055849e+00 2.176892e+00 1.992989e+00 1.839599e+00 1.535750e+00 1.268550e+00 1.364224e+00 1.000000e-02
<GCONST> 7.397700e+01
<TRANSP> 9
 0.000000e+00 1.000000e+00 0.000000e+00 0.000000e+00 0.000000e+00 0.000000e+00 0.000000e+00 0.000000e+00 0.000000e+00
 0.000000e+00 8.500000e-01 1.500000e-01 0.000000e+00 0.000000e+00 0.000000e+00 0.000000e+00 0.000000e+00 0.000000e+00
 0.000000e+00 0.000000e+00 8.717949e-01 1.282051e-01 0.000000e+00 0.000000e+00 0.000000e+00 0.000000e+00 0.000000e+00
 0.000000e+00 0.000000e+00 0.000000e+00 8.828125e-01 1.171875e-01 0.000000e+00 0.000000e+00 0.000000e+00 0.000000e+00
 0.000000e+00 0.000000e+00 0.000000e+00 0.000000e+00 7.887324e-01 2.112676e-01 0.000000e+00 0.000000e+00 0.000000e+00
 0.000000e+00 0.000000e+00 0.000000e+00 0.000000e+00 0.000000e+00 9.019608e-01 9.803922e-02 0.000000e+00 0.000000e+00
 0.000000e+00 0.000000e+00 0.000000e+00 0.000000e+00 0.000000e+00 0.000000e+00 8.295454e-01 1.704545e-01 0.000000e+00
 0.000000e+00 0.000000e+00 0.000000e+00 0.000000e+00 0.000000e+00 0.000000e+00 0.000000e+00 8.148148e-01 1.851852e-01
 0.000000e+00 0.000000e+00 0.000000e+00 0.000000e+00 0.000000e+00 0.000000e+00 0.000000e+00 0.000000e+00 0.000000e+00
<ENDHMM>
