~o
<STREAMINFO> 1 26
<VECSIZE> 26<NULLD><MFCC_E_D_Z><DIAGC>
~h "ni"
<BEGINHMM>
<NUMSTATES> 5
<STATE> 2
<MEAN> 26
 4.767146e+00 5.295631e+00 4.769448e+00 -1.210040e+00 -3.359907e+00 -5.520727e+00 -4.847034e+00 -6.504489e+00 -2.484797e+00 -1.914897e+00 -1.276139e+00 -1.971112e+00 8.332852e-01 -1.766912e-01 2.234436e-01 1.341829e+00 -2.255822e+00 -4.262091e-01 4.721937e-02 -1.733061e+00 -6.062642e-01 -4.043043e-01 1.566279e-01 3.477117e-01 -7.567945e-01 4.657975e-02
<VARIANCE> 26
 1.781590e+01 1.737514e+01 2.304219e+01 5.112294e+01 2.687365e+01 2.869793e+01 3.334428e+01 2.792345e+01 8.603902e+01 2.751645e+01 2.825490e+01 2.435349e+01 1.290009e-02 2.334141e+00 1.613746e+00 1.395256e+00 4.541828e+00 1.868107e+00 3.696394e+00 1.780598e+00 3.104471e+00 4.386667e+00 1.940439e+00 2.523775e+00 1.660396e+00 1.000000e-02
<GCONST> 8.981264e+01
<STATE> 3
<MEAN> 26
 9.512354e-01 2.752687e+00 1.123815e+01 -1.410674e+01 -4.433376e+00 -2.313447e+00 -1.349090e+01 -6.627312e+00 -3.529837e+00 -3.887009e+00 2.741040e+00 -4.645911e+00 9.184649e-01 -3.900724e-02 6.764153e-03 -1.914836e-02 -1.734902e-01 -1.228238e-01 6.916668e-02 -6.278382e-02 1.944330e-02 1.240765e-01 -2.239973e-01 1.076267e-01 1.261704e-01 -8.878705e-03
<VARIANCE> 26
 1.565368e+01 2.898700e+01 1.903228e+01 1.447967e+01 3.847524e+01 3.601727e+01 1.583604e+01 1.839953e+01 6.565031e+01 4.959027e+01 5.525731e+01 1.974833e+01 1.000000e-02 1.935719e-01 3.611026e-01 5.080993e-01 6.245794e-01 4.274437e-01 1.087528e+00 9.041321e-01 8.646292e-01 8.419820e-01 1.017510e+00 7.311911e-01 7.132913e-01 1.000000e-02
<GCONST> 7.267644e+01
<STATE> 4
<MEAN> 26
 4.165884e-01 2.285640e+00 5.543452e+00 -6.775273e+00 -2.644847e+00 -1.893478e+00 -7.111455e+00 -3.814300e+00 -2.234725e+00 -2.537080e+00 4.081308e-01 -1.609767e+00 5.993243e-01 -1.698525e-01 -5.616134e-01 -1.192476e+00 1.866415e+00 6.953140e-01 2.922722e-01 1.439151e+00 8.643614e-01 1.633584e-01 4.662265e-01 -1.532207e-01 4.966868e-01 -4.392158e-02
<VARIANCE> 26
 6.317729e+00 1.293613e+01 2.255038e+01 4.135857e+01 2.484870e+01 2.093040e+01 2.793196e+01 3.944877e+01 2.025484e+01 2.244861e+01 3.264006e+01 1.902683e+01 2.641926e-02 3.482278e-01 9.768227e-01 1.525903e+00 1.165513e+00 1.142205e+00 2.053880e+00 1.334681e+00 1.970750e+00 2.162543e+00 2.168406e+00 2.438329e+00 1.405027e+00 1.000000e-02
<GCONST> 8.069102e+01
<TRANSP> 5
 0.000000e+00 1.000000e+00 0.000000e+00 0.000000e+00 0.000000e+00
 0.000000e+00 8.437500e-01 1.562500e-01 0.000000e+00 0.000000e+00
 0.000000e+00 0.000000e+00 9.268293e-01 7.317074e-02 0.000000e+00
 0.000000e+00 0.000000e+00 0.000000e+00 8.695652e-01 1.304348e-01
 0.000000e+00 0.000000e+00 0.000000e+00 0.000000e+00 0.000000e+00
<ENDHMM>
