~o
<STREAMINFO> 1 26
<VECSIZE> 26<NULLD><MFCC_E_D_Z><DIAGC>
~h "san"
<BEGINHMM>
<NUMSTATES> 8
<STATE> 2
<MEAN> 26
 -1.044830e+01 5.234714e+00 -3.177717e+00 5.239049e+00 -1.953368e+00 -2.442488e+00 1.785906e+00 1.964987e+00 3.840455e-01 9.982191e-02 7.842298e-01 2.590507e+00 5.158197e-01 -8.256406e-01 7.582466e-02 -3.763910e-01 2.014127e-01 -3.740888e-01 -5.781290e-02 9.340569e-02 8.941991e-02 1.586958e-01 -1.152804e-01 5.290937e-02 -5.000892e-02 1.280500e-02
<VARIANCE> 26
 2.951262e+01 6.580513e+00 8.854245e+00 1.572077e+01 1.875986e+01 2.659950e+01 1.664909e+01 1.823646e+01 1.906835e+01 1.197146e+01 2.212746e+01 1.597651e+01 3.143333e-02 1.150449e+00 6.070278e-01 6.974503e-01 9.414499e-01 1.029262e+00 1.565767e+00 1.212586e+00 1.431126e+00 1.762099e+00 1.180968e+00 1.087848e+00 1.095540e+00 1.000000e-02
<GCONST> 7.430848e+01
<STATE> 3
<MEAN> 26
 -8.921474e+00 3.714507e-01 -4.156084e+00 8.633728e-01 -3.806963e+00 -1.606710e+00 6.898796e-01 3.906973e+00 1.735290e+00 -1.868832e+00 2.879604e+00 2.814004e+00 6.667606e-01 2.783109e+00 -1.338988e+00 4.463916e-02 -1.198050e+00 6.493649e-01 -9.353319e-01 -4.724510e-01 -4.359460e-01 -9.972175e-02 -1.266923e+00 -1.363215e+00 -2.475678e-01 3.970185e-02
<VARIANCE> 26
 3.096741e+01 1.905949e+01 2.105424e+01 1.015052e+01 1.792959e+01 3.233489e+01 2.716533e+01 3.562363e+01 1.631899e+01 2.028572e+01 3.506306e+01 1.753274e+01 2.937503e-02 3.202853e+00 1.752057e+00 1.831714e+00 1.905399e+00 3.986402e+00 1.908654e+00 6.166128e+00 2.939768e+00 1.580477e+00 4.296259e+00 2.357868e+00 2.981131e+00 1.000000e-02
<GCONST> 8.862516e+01
<STATE> 4
<MEAN> 26
 5.233325e+00 -7.097471e+00 -3.253052e+00 -6.413625e+00 3.203564e+00 -6.718078e+00 -1.557293e+00 -3.485526e+00 1.848767e+00 -9.090487e+00 -6.025300e+00 -3.256276e+00 8.964740e-01 1.482008e+00 -2.328704e+00 1.712127e-01 -2.495414e+00 2.329731e+00 1.372921e-01 -4.467467e-01 -1.759485e+00 4.409496e-01 -6.174915e-01 -3.992934e-01 -1.574596e+00 5.054982e-02
<VARIANCE> 26
 7.326977e+00 4.415591e+01 1.975739e+01 2.342080e+01 5.579122e+01 2.184615e+01 7.731694e+01 2.721058e+01 3.725047e+01 3.563660e+01 9.687915e+00 3.759539e+01 1.000000e-02 2.328064e+00 3.484882e+00 1.489332e+00 1.538233e+00 2.053602e+00 2.390963e+00 5.351948e+00 2.775435e+00 4.285146e+00 3.706604e+00 3.735258e+00 5.751317e+00 1.000000e-02
<GCONST> 9.138139e+01
<STATE> 5
<MEAN> 26
 6.754827e+00 -1.031247e+01 -3.581128e+00 -1.119037e+01 1.033810e+01 -3.828538e+00 -2.234482e+00 -7.117745e+00 1.246117e+00 -5.361398e+00 -3.630483e+00 -6.571829e+00 9.408798e-01 2.706463e-01 1.396408e-01 -1.689259e-01 5.840413e-02 6.517005e-02 1.851213e-01 -4.299381e-01 8.370039e-02 -1.777382e-01 3.072281e-01 3.170199e-01 -4.248951e-01 -6.351430e-03
<VARIANCE> 26
 8.189980e+00 2.988633e+01 2.170124e+01 1.634857e+01 2.204749e+01 3.156374e+01 7.943210e+01 1.929822e+01 3.263065e+01 3.553684e+01 2.034090e+01 4.151136e+01 1.000000e-02 1.187651e-01 4.707073e-01 5.210913e-01 7.092124e-01 7.798645e-01 5.810544e-01 7.703485e-01 1.495994e+00 1.086688e+00 8.446650e-01 7.693063e-01 6.040173e-01 1.000000e-02
<GCONST> 7.223952e+01
<STATE> 6
<MEAN> 26
 8.443373e+00 -5.844870e+00 -1.109635e+00 -6.320328e+00 3.645315e+00 -4.152861e+00 -6.896230e+00 -4.515509e+00 -1.455671e+00 -2.837206e+00 -2.457241e+00 -4.791269e+00 7.930578e-01 -8.478347e-02 1.138417e+00 1.113432e+00 9.928288e-01 -9.770404e-01 -1.147026e-01 8.597289e-02 -2.003169e-01 -4.701988e-01 6.341742e-01 -6.231041e-01 6.477230e-01 -2.126002e-02
<VARIANCE> 26
 7.299178e+00 1.774809e+01 4.040368e+01 1.988355e+01 2.305082e+01 2.777747e+01 7.186728e+01 4.756275e+01 3.868804e+01 3.946386e+01 6.500275e+01 5.281614e+01 1.025259e-02 1.736656e-01 4.789076e-01 1.681068e+00 1.418063e+00 1.070244e+00 9.613560e-01 1.837168e+00 1.021458e+00 1.582939e+00 1.841110e+00 1.897793e+00 2.773246e+00 1.000000e-02
<GCONST> 8.199337e+01
<STATE> 7
<MEAN> 26
 3.913918e+00 1.298300e+00 5.138288e+00 2.810549e-01 3.686736e-01 -2.421650e+00 -3.913943e+00 -4.435652e+00 -1.835703e+00 -2.162782e-01 -4.926938e+00 -2.904428e+00 5.950224e-01 -8.427939e-01 3.390896e-01 -2.012748e-01 5.646199e-01 -2.259717e-01 6.487863e-01 6.426453e-01 6.957807e-01 1.803807e-01 8.044428e-02 7.761919e-01 4.085712e-01 -4.123561e-02
<VARIANCE> 26
 1.115809e+01 6.917971e+00 2.177499e+01 1.587709e+01 1.165824e+01 2.230766e+01 2.742368e+01 2.882677e+01 4.091590e+01 2.472111e+01 3.632641e+01 2.385643e+01 3.372920e-02 4.311538e-01 6.990613e-01 2.350476e+00 8.886383e-01 8.059774e-01 1.484322e+00 2.312229e+00 1.777996e+00 2.018019e+00 1.860455e+00 2.354578e+00 1.319317e+00 1.000000e-02
<GCONST> 7.948621e+01
<TRANSP> 8
 0.000000e+00 1.000000e+00 0.000000e+00 0.000000e+00 0.000000e+00 0.000000e+00 0.000000e+00 0.000000e+00
 0.000000e+00 9.025974e-01 9.740259e-02 0.000000e+00 0.000000e+00 0.000000e+00 0.000000e+00 0.000000e+00
 0.000000e+00 0.000000e+00 7.761194e-01 2.238806e-01 0.000000e+00 0.000000e+00 0.000000e+00 0.000000e+00
 0.000000e+00 0.000000e+00 0.000000e+00 7.115384e-01 2.884615e-01 0.000000e+00 0.000000e+00 0.000000e+00
 0.000000e+00 0.000000e+00 0.000000e+00 0.000000e+00 8.936170e-01 1.063830e-01 0.000000e+00 0.000000e+00
 0.000000e+00 0.000000e+00 0.000000e+00 0.000000e+00 0.000000e+00 8.636364e-01 1.363636e-01 0.000000e+00
 0.000000e+00 0.000000e+00 0.000000e+00 0.000000e+00 0.000000e+00 0.000000e+00 8.543689e-01 1.456311e-01
 0.000000e+00 0.000000e+00 0.000000e+00 0.000000e+00 0.000000e+00 0.000000e+00 0.000000e+00 0.000000e+00
<ENDHMM>
