~o
<STREAMINFO> 1 26
<VECSIZE> 26<NULLD><MFCC_E_D_Z><DIAGC>
~h "seven"
<BEGINHMM>
<NUMSTATES> 9
<STATE> 2
<MEAN> 26
 3.857675e+00 3.051082e+00 5.943775e+00 1.352315e+00 -4.863523e+00 -8.522126e+00 -5.852400e+00 -2.926337e+00 1.168591e+00 -5.131680e+00 -2.007783e+00 1.696208e+00 7.364393e-01 4.854637e-01 -1.548378e+00 -7.356951e-01 -1.473433e+00 9.411415e-01 -1.527303e+00 -8.350505e-01 1.189265e+00 8.710830e-01 -1.283990e+00 -6.198407e-01 -2.200530e-01 6.189934e-02
<VARIANCE> 26
 1.264129e+01 3.055856e+01 2.714229e+01 1.870318e+01 2.310865e+01 3.389669e+01 4.531327e+01 5.659867e+01 6.818208e+01 4.168284e+01 2.065634e+01 1.562646e+01 1.766061e-02 1.866212e+00 3.913439e+00 4.943151e+00 2.519428e+00 5.096821e+00 2.598295e+00 4.317244e+00 7.539831e+00 4.029186e+00 3.093124e+00 1.870686e+00 2.601906e+00 1.000000e-02
<GCONST> 9.425393e+01
<STATE> 3
<MEAN> 26
 2.606627e+00 -7.858641e+00 -2.733675e+00 -8.796822e+00 7.340384e+00 -8.409843e+00 -2.926950e+00 1.817470e+00 3.980350e+00 -8.168547e+00 -5.614160e+00 -2.718811e+00 9.469581e-01 -4.358552e-03 -1.972816e-01 -4.946026e-01 -4.130004e-01 4.966002e-01 1.580608e-01 -1.412620e-01 -2.329813e-01 1.076965e-01 4.077259e-02 -1.583325e-01 -2.901678e-01 7.236014e-03
<VARIANCE> 26
 7.731946e+00 1.785077e+01 8.864492e+00 5.970026e+00 2.491185e+01 2.249069e+01 7.261887e+01 5.531297e+01 2.664269e+01 2.125698e+01 2.040931e+01 2.706110e+01 1.000000e-02 1.174811e-01 1.391444e+00 8.549657e-01 1.082623e+00 1.425459e+00 1.399005e+00 1.343047e+00 1.850773e+00 1.012048e+00 1.638546e+00 7.351162e-01 2.560018e+00 1.000000e-02
<GCONST> 7.560107e+01
<STATE> 4
<MEAN> 26
 4.927521e+00 -2.213438e-01 2.818631e+00 -2.728145e+00 -1.708598e+00 -1.040313e+01 -7.579923e+00 -4.492851e+00 3.888343e+00 -7.701068e+00 -5.270080e+00 -8.344749e-01 8.738002e-01 2.767432e-01 1.319947e+00 1.551015e+00 1.308116e+00 -1.450555e+00 -6.669625e-02 -4.360027e-01 -1.783864e+00 9.796516e-02 4.445778e-01 9.872146e-02 3.228638e-01 -1.099173e-02
<VARIANCE> 26
 7.964344e+00 2.355003e+01 4.448905e+01 1.783199e+01 3.961522e+01 2.016506e+01 3.831573e+01 8.423495e+01 6.978627e+01 6.797961e+01 2.324001e+01 2.182437e+01 1.000000e-02 2.123127e-01 1.094703e+00 2.539968e+00 1.090795e+00 1.177891e+00 1.615443e+00 2.027842e+00 3.807258e+00 1.380218e+00 2.714995e+00 1.637953e+00 1.385422e+00 1.000000e-02
<GCONST> 8.432851e+01
<STATE> 5
<MEAN> 26
 5.282035e+00 -1.586263e+00 7.995050e-01 -3.638443e+00 9.527440e-01 -9.235046e+00 -9.676926e+00 -1.685876e+00 1.719999e+00 -6.127284e+00 -4.972076e+00 -2.618272e+00 8.738177e-01 -1.827128e-01 -1.991561e+00 -2.548714e+00 -2.043539e+00 2.894685e+00 9.553208e-01 7.489648e-02 2.682433e+00 -6.460151e-01 -4.558885e-01 1.675719e-01 -1.255257e+00 9.296978e-03
<VARIANCE> 26
 9.738633e+00 2.806253e+01 4.684402e+01 2.023828e+01 4.096853e+01 1.988613e+01 3.871527e+01 9.005889e+01 5.392514e+01 4.545652e+01 2.963643e+01 2.082517e+01 1.000000e-02 2.024980e-01 1.672229e+00 2.318992e+00 8.550639e-01 1.173006e+00 1.171113e+00 2.157436e+00 2.857776e+00 1.839261e+00 3.921026e+00 1.863569e+00 1.866836e+00 1.000000e-02
<GCONST> 8.508908e+01
<STATE> 6
<MEAN> 26
 4.781158e+00 -7.814672e+00 -5.754086e+00 -1.059359e+01 1.121506e+01 -1.498525e+00 -4.719595e+00 -2.265457e+00 7.166156e-01 -6.060084e+00 -2.787038e+00 -8.660354e+00 8.851452e-01 1.673549e-01 6.207737e-03 -2.226192e-01 -2.682011e-01 2.691041e-01 1.109964e+00 3.348587e-01 -8.011784e-01 -9.976781e-02 5.400187e-01 4.685368e-01 -2.485813e-01 -1.346845e-02
<VARIANCE> 26
 8.806627e+00 1.010002e+01 1.184010e+01 1.408022e+01 6.766102e+00 2.019427e+01 3.388900e+01 3.394962e+01 3.524183e+01 8.536738e+00 1.760480e+01 1.867841e+01 1.000000e-02 2.662842e-01 9.890366e-01 4.879241e-01 8.047485e-01 1.137714e+00 7.874948e-01 7.772295e-01 2.056378e+00 1.203655e+00 1.037833e+00 6.039808e-01 9.770363e-01 1.000000e-02
<GCONST> 6.943128e+01
<STATE> 7
<MEAN> 26
 4.625914e+00 -3.742878e+00 -6.523540e+00 -7.941194e+00 7.912909e+00 3.496356e+00 -4.995151e+00 -3.599333e+00 4.512707e-01 -5.191762e-01 -7.242296e-01 -5.347316e+00 6.990489e-01 -6.255606e-01 9.010723e-01 2.033316e-01 1.103498e+00 -6.286824e-01 5.542271e-01 6.894978e-01 -1.860202e-02 2.028782e-02 7.351781e-01 -2.346904e-01 2.027577e-01 -3.908435e-02
<VARIANCE> 26
 9.138957e+00 1.082167e+01 7.569047e+00 2.219781e+01 2.415761e+01 1.700766e+01 2.593051e+01 2.187421e+01 1.190909e+01 1.441393e+01 1.476885e+01 2.822956e+01 1.000000e-02 2.846979e-01 5.448130e-01 1.215660e+00 1.088022e+00 1.243443e+00 8.540747e-01 1.258036e+00 1.214844e+00 9.843308e-01 1.378149e+00 8.413858e-01 1.002402e+00 1.000000e-02
<GCONST> 7.086498e+01
<STATE> 8
<MEAN> 26
 3.367056e-01 4.025421e-01 -2.117891e+00 -7.133290e-01 2.347250e+00 4.057015e+00 1.266521e+00 1.482552e-01 -9.452587e-01 2.661571e+00 -1.415931e+00 -3.452467e+00 4.631518e-01 -7.390547e-01 3.423730e-01 8.628471e-01 1.077138e+00 -1.100030e+00 -2.614809e-01 5.508777e-01 5.399734e-01 -1.035162e-01 3.391997e-01 7.487767e-01 1.135206e+00 -2.735875e-02
<VARIANCE> 26
 5.732037e+00 4.435030e+00 1.003677e+01 8.760640e+00 1.478079e+01 1.347399e+01 1.114445e+01 2.218874e+01 1.384092e+01 1.403426e+01 1.575506e+01 1.784820e+01 3.632062e-02 4.585980e-01 4.220142e-01 6.953688e-01 1.306828e+00 1.973926e+00 1.355092e+00 2.208113e+00 1.895330e+00 1.319092e+00 1.602762e+00 1.373841e+00 1.190331e+00 1.000000e-02
<GCONST> 7.120715e+01
<TRANSP> 9
 0.000000e+00 1.000000e+00 0.000000e+00 0.000000e+00 0.000000e+00 0.000000e+00 0.000000e+00 0.000000e+00 0.000000e+00
 0.000000e+00 8.148148e-01 1.851852e-01 0.000000e+00 0.000000e+00 0.000000e+00 0.000000e+00 0.000000e+00 0.000000e+00
 0.000000e+00 0.000000e+00 8.500000e-01 1.500000e-01 0.000000e+00 0.000000e+00 0.000000e+00 0.000000e+00 0.000000e+00
 0.000000e+00 0.000000e+00 0.000000e+00 8.369565e-01 1.630435e-01 0.000000e+00 0.000000e+00 0.000000e+00 0.000000e+00
 0.000000e+00 0.000000e+00 0.000000e+00 0.000000e+00 7.619048e-01 2.380952e-01 0.000000e+00 0.000000e+00 0.000000e+00
 0.000000e+00 0.000000e+00 0.000000e+00 0.000000e+00 0.000000e+00 8.648649e-01 1.351351e-01 0.000000e+00 0.000000e+00
 0.000000e+00 0.000000e+00 0.000000e+00 0.000000e+00 0.000000e+00 0.000000e+00 8.275862e-01 1.724138e-01 0.000000e+00
 0.000000e+00 0.000000e+00 0.000000e+00 0.000000e+00 0.000000e+00 0.000000e+00 0.000000e+00 7.857143e-01 2.142857e-01
 0.000000e+00 0.000000e+00 0.000000e+00 0.000000e+00 0.000000e+00 0.000000e+00 0.000000e+00 0.000000e+00 0.000000e+00
<ENDHMM>
