~o
<STREAMINFO> 1 26
<VECSIZE> 26<NULLD><MFCC_E_D_Z><DIAGC>
~h "sil"
<BEGINHMM>
<NUMSTATES> 5
<STATE> 2
<MEAN> 26
 -1.389639e+00 -5.959258e-01 -1.351449e+00 9.126246e-01 -1.539634e+00 -9.789270e-01 -2.032420e-01 -2.625680e-01 -5.500341e-01 4.424937e-01 -7.986426e-01 6.147132e-01 2.728987e-01 2.609470e-01 -1.582637e-02 5.144278e-02 3.452687e-01 3.945867e-01 4.259522e-01 3.261224e-01 2.931168e-01 1.787022e-01 9.429294e-02 1.669619e-01 1.502391e-01 1.849743e-02
<VARIANCE> 26
 5.562023e+01 5.736234e+00 1.140356e+01 1.693845e+01 1.482397e+01 2.102500e+01 1.231210e+01 1.538414e+01 1.286769e+01 1.249565e+01 1.464107e+01 8.605636e+00 8.186179e-02 1.391733e+00 4.014542e-01 9.414192e-01 9.870659e-01 1.206672e+00 1.408470e+00 1.267999e+00 1.356266e+00 1.195635e+00 1.269364e+00 1.515003e+00 1.034369e+00 1.000000e-02
<GCONST> 7.389147e+01
<STATE> 3
<MEAN> 26
 -3.780202e-01 -3.252140e-02 -3.716437e-01 2.068409e+00 9.871951e-01 1.976867e+00 1.864313e+00 1.178703e+00 5.207850e-01 1.076821e+00 2.902997e-01 6.086266e-01 4.769395e-01 -1.376950e-02 -1.652212e-02 -1.557285e-02 -3.727148e-03 -4.518935e-03 8.934339e-04 1.010709e-03 -3.055640e-03 -1.622638e-03 -2.176824e-03 -9.132229e-03 -1.389394e-02 -1.294193e-03
<VARIANCE> 26
 3.099843e+00 3.654047e+00 5.926136e+00 7.000322e+00 1.094022e+01 9.894369e+00 1.133261e+01 1.214238e+01 1.321862e+01 1.274829e+01 1.234461e+01 1.097910e+01 5.755098e-02 8.293997e-02 1.912799e-01 3.375688e-01 4.857570e-01 6.289167e-01 8.293852e-01 8.479305e-01 9.632712e-01 1.041891e+00 9.931548e-01 9.771536e-01 9.033845e-01 1.000000e-02
<GCONST> 5.922665e+01
<STATE> 4
<MEAN> 26
 -3.305580e-01 2.281701e-01 3.093083e-01 1.801064e+00 6.334369e-01 6.727350e-01 1.354037e-01 -2.160032e-02 -2.532208e-01 5.044461e-03 -1.188048e-01 -3.976168e-02 4.261996e-01 9.871688e-02 4.333323e-01 4.399332e-01 -5.542130e-01 -4.202230e-01 -6.600894e-01 -9.135773e-01 -5.371616e-01 -1.599614e-01 -7.258562e-01 -4.698893e-02 -1.968519e-01 3.871573e-02
<VARIANCE> 26
 1.424638e+01 1.404385e+01 2.300973e+01 2.016829e+01 1.644227e+01 2.106577e+01 2.022359e+01 1.917298e+01 1.992358e+01 2.164652e+01 1.776130e+01 1.184060e+01 3.375640e-02 2.327945e+00 1.925885e+00 3.873909e+00 2.930514e+00 2.525005e+00 2.643991e+00 3.062315e+00 2.679560e+00 2.804342e+00 2.868202e+00 2.276860e+00 1.474742e+00 1.000000e-02
<GCONST> 8.568224e+01
<TRANSP> 5
 0.000000e+00 1.000000e+00 0.000000e+00 0.000000e+00 0.000000e+00
 0.000000e+00 7.961696e-01 2.038304e-01 0.000000e+00 0.000000e+00
 0.000000e+00 0.000000e+00 9.762550e-01 2.374502e-02 0.000000e+00
 0.000000e+00 0.000000e+00 0.000000e+00 6.021362e-01 3.978638e-01
 0.000000e+00 0.000000e+00 0.000000e+00 0.000000e+00 0.000000e+00
<ENDHMM>
