~o
<STREAMINFO> 1 26
<VECSIZE> 26<NULLD><MFCC_E_D_Z><DIAGC>
~h "zero"
<BEGINHMM>
<NUMSTATES> 9
<STATE> 2
<MEAN> 26
 -7.388280e+00 3.572066e+00 -1.480882e+00 3.942068e+00 1.011423e+00 -2.961043e+00 2.834779e+00 -1.452247e-01 -4.248923e-01 4.528937e-01 -2.492085e-01 6.901336e-01 5.923983e-01 -2.335332e-01 5.514041e-01 4.559274e-01 3.919106e-01 -5.032950e-01 -1.490447e+00 3.039228e-01 -3.115474e-01 -3.624752e-01 -1.630999e-01 -1.044786e-01 4.608389e-01 3.622297e-02
<VARIANCE> 26
 2.861439e+01 2.129433e+01 1.430469e+01 2.482326e+01 2.198317e+01 3.862410e+01 2.438064e+01 2.993395e+01 2.088229e+01 2.680847e+01 1.751108e+01 1.688711e+01 1.931645e-02 4.846312e+00 1.496909e+00 2.390210e+00 1.294745e+00 2.656859e+00 3.680173e+00 2.249625e+00 1.793763e+00 2.095314e+00 2.967981e+00 1.658353e+00 1.510437e+00 1.000000e-02
<GCONST> 8.640380e+01
<STATE> 3
<MEAN> 26
 1.225735e+00 1.560537e+00 5.811948e+00 3.943652e+00 -8.866233e+00 -1.507068e+01 -2.617843e+00 -1.531641e+00 -5.083916e+00 -3.341309e+00 9.003552e-01 1.938685e+00 8.622129e-01 2.705715e+00 -2.006881e+00 1.512013e+00 -1.896338e+00 -3.102878e+00 -1.638870e+00 -1.943951e+00 5.919328e-01 -2.188987e-01 -4.657396e-01 1.350111e+00 -7.095144e-01 5.231234e-02
<VARIANCE> 26
 2.249882e+01 1.935616e+01 5.580237e+00 2.353202e+01 4.448252e+01 2.595695e+01 4.155691e+01 2.837271e+01 3.642220e+01 3.684352e+01 2.578058e+01 2.167129e+01 1.000000e-02 1.838373e+00 2.021892e+00 1.346452e+00 1.410023e+00 2.830032e+00 2.360240e+00 3.444873e+00 2.883513e+00 2.664092e+00 2.391025e+00 2.790242e+00 3.070560e+00 1.000000e-02
<GCONST> 8.732854e+01
<STATE> 4
<MEAN> 26
 3.230386e+00 -5.249028e+00 7.317996e+00 -4.045285e+00 -1.307864e+01 -1.433005e+01 -3.832193e+00 3.401868e+00 -1.176034e+00 -3.387743e+00 4.410033e+00 -3.802796e+00 9.443910e-01 8.765355e-02 -5.580214e-01 -7.631964e-02 4.434493e-03 4.453712e-02 2.790003e-01 -3.539678e-01 5.383143e-01 4.089079e-01 -2.383587e-01 -1.433681e-01 -2.271198e-01 -6.189245e-03
<VARIANCE> 26
 1.064333e+01 2.181794e+01 1.141026e+01 8.419142e+00 6.536514e+01 1.928206e+01 4.409951e+01 3.727578e+01 4.241991e+01 5.825481e+01 3.534545e+01 2.797400e+01 1.000000e-02 3.842640e-01 6.324714e-01 7.181852e-01 1.997929e+00 8.804137e-01 8.111519e-01 1.365091e+00 9.423923e-01 1.016060e+00 1.446866e+00 1.226056e+00 2.157229e+00 1.000000e-02
<GCONST> 7.805972e+01
<STATE> 5
<MEAN> 26
 6.802069e+00 -6.897560e+00 3.155321e+00 3.301018e+00 -8.888699e+00 -1.012316e+01 -1.039243e+01 1.982875e+00 4.433986e+00 -3.722057e+00 -8.988324e-01 -4.877085e-01 8.278461e-01 1.006258e+00 5.209239e-02 -1.975195e+00 -5.935718e-02 1.201236e+00 1.974105e+00 -1.420797e+00 -1.702024e+00 8.435594e-01 1.404701e+00 -3.319785e-01 -3.202354e-01 2.625355e-04
<VARIANCE> 26
 9.885681e+00 7.195131e+00 2.754375e+01 3.881579e+01 3.608735e+01 3.314347e+01 4.885143e+01 1.584972e+01 2.522565e+01 3.908486e+01 3.286271e+01 2.073674e+01 1.114111e-02 3.757686e-01 1.375159e+00 1.665185e+00 7.303926e+00 3.088006e+00 3.202234e+00 2.712477e+00 1.388462e+00 3.311412e+00 3.011220e+00 3.753449e+00 3.630119e+00 1.000000e-02
<GCONST> 8.744541e+01
<STATE> 6
<MEAN> 26
 8.904899e+00 -1.669784e+00 -5.228972e+00 -8.700143e+00 -4.058562e+00 3.355753e+00 -1.005645e+01 -7.014106e+00 1.035469e-01 3.804256e+00 2.585465e+00 -3.802441e+00 8.764173e-01 -3.062275e-01 1.798201e+00 -2.213600e-01 -2.930924e+00 4.747363e-01 1.667572e+00 1.633308e+00 -6.063103e-01 -1.582375e+00 -2.056844e-01 5.904949e-01 1.162504e+00 -9.420705e-03
<VARIANCE> 26
 3.592112e+00 1.716861e+01 1.484760e+01 5.567144e+01 1.601181e+01 4.522189e+01 4.291643e+01 1.696843e+01 2.761887e+01 2.230678e+01 2.369317e+01 3.342973e+01 1.000000e-02 2.484815e-01 3.128065e-01 8.901681e-01 3.751222e+00 1.178581e+00 4.113831e+00 3.956803e+00 2.199307e+00 2.192888e+00 3.359827e+00 2.077887e+00 2.580264e+00 1.000000e-02
<GCONST> 8.175689e+01
<STATE> 7
<MEAN> 26
 7.794753e+00 4.409609e+00 -3.400400e+00 -1.842187e+01 -4.175049e+00 2.993609e+00 -2.878319e+00 -2.209622e+00 -3.178053e+00 -4.420334e-01 4.278331e-01 2.683353e+00 7.769459e-01 -2.560309e-01 3.740568e-01 2.303616e-01 1.717586e-01 -2.191592e-01 -8.782318e-01 7.521689e-01 8.848627e-01 3.251990e-01 -7.470074e-02 -1.676644e-01 2.110875e-01 -2.859819e-02
<VARIANCE> 26
 5.843748e+00 7.176661e+00 7.333505e+00 4.132139e+01 2.132254e+01 4.017876e+01 1.063640e+01 2.071224e+01 3.296621e+01 4.811263e+01 2.199040e+01 1.986990e+01 1.000000e-02 5.633875e-01 4.534082e-01 6.493265e-01 2.142878e+00 7.245125e-01 7.962772e-01 1.131224e+00 1.473128e+00 1.100216e+00 2.971394e+00 2.301782e+00 1.112870e+00 1.000000e-02
<GCONST> 7.467284e+01
<STATE> 8
<MEAN> 26
 2.630764e+00 2.274301e+00 -1.725636e+00 -5.791210e+00 -1.737570e+00 -4.723493e-01 -4.461278e-01 -2.963892e-03 -4.039044e-01 7.817133e-01 1.853887e+00 1.829039e+00 5.413786e-01 -8.832901e-01 -5.424798e-01 3.615216e-01 1.777698e+00 8.767583e-01 2.521644e-01 2.675396e-01 2.280334e-01 7.851403e-02 -1.022291e-01 -1.954577e-01 -1.101559e-01 -3.356560e-02
<VARIANCE> 26
 8.849826e+00 3.634801e+00 3.913448e+00 5.464419e+01 1.907063e+01 1.776659e+01 9.582290e+00 1.314678e+01 1.043555e+01 1.149060e+01 1.262537e+01 1.123296e+01 1.439366e-02 5.287026e-01 3.543912e-01 5.626349e-01 2.291345e+00 1.329358e+00 1.552001e+00 1.013568e+00 1.661842e+00 1.744920e+00 1.248459e+00 1.626327e+00 1.243673e+00 1.000000e-02
<GCONST> 6.948573e+01
<TRANSP> 9
 0.000000e+00 1.000000e+00 0.000000e+00 0.000000e+00 0.000000e+00 0.000000e+00 0.000000e+00 0.000000e+00 0.000000e+00
 0.000000e+00 8.571429e-01 1.428571e-01 0.000000e+00 0.000000e+00 0.000000e+00 0.000000e+00 0.000000e+00 0.000000e+00
 0.000000e+00 0.000000e+00 6.808511e-01 3.191489e-01 0.000000e+00 0.000000e+00 0.000000e+00 0.000000e+00 0.000000e+00
 0.000000e+00 0.000000e+00 0.000000e+00 8.920863e-01 1.079137e-01 0.000000e+00 0.000000e+00 0.000000e+00 0.000000e+00
 0.000000e+00 0.000000e+00 0.000000e+00 0.000000e+00 8.000000e-01 2.000000e-01 0.000000e+00 0.000000e+00 0.000000e+00
 0.000000e+00 0.000000e+00 0.000000e+00 0.000000e+00 0.000000e+00 7.887324e-01 2.112676e-01 0.000000e+00 0.000000e+00
 0.000000e+00 0.000000e+00 0.000000e+00 0.000000e+00 0.000000e+00 0.000000e+00 8.404256e-01 1.595744e-01 0.000000e+00
 0.000000e+00 0.000000e+00 0.000000e+00 0.000000e+00 0.000000e+00 0.000000e+00 0.000000e+00 8.314607e-01 1.685393e-01
 0.000000e+00 0.000000e+00 0.000000e+00 0.000000e+00 0.000000e+00 0.000000e+00 0.000000e+00 0.000000e+00 0.000000e+00
<ENDHMM>
