~o
<STREAMINFO> 1 39
<VECSIZE> 39<NULLD><MFCC_D_A_0><DIAGC>
~h "go"
<BEGINHMM>
<NUMSTATES> 5
<STATE> 2
<MEAN> 39
 -1.098164e+00 5.352355e+00 -9.047385e+00 -1.554309e+01 -3.848628e+00 2.583447e+00 -1.377908e+00 -3.113713e+00 -4.859499e+00 -6.003904e+00 1.437068e+00 -4.078989e-01 6.629533e+01 1.037346e+00 7.106769e-01 5.443773e-01 -2.499932e+00 -1.199321e+00 4.246359e-01 -6.705699e-01 -9.312376e-01 4.203703e-01 -1.086483e+00 7.254621e-01 -3.195291e-01 1.953334e+00 -1.816652e-01 -6.675393e-02 4.946464e-01 3.055024e-01 1.382781e-01 -5.741616e-02 4.060347e-02 2.270717e-02 4.218666e-01 1.357085e-01 -3.763089e-02 4.365220e-02 -3.870494e-01
<VARIANCE> 39
 1.303485e+01 2.392415e+01 4.440966e+01 4.462159e+01 5.341119e+01 5.664072e+01 4.357602e+01 4.673030e+01 3.091884e+01 8.558510e+01 2.786624e+01 2.548714e+01 3.260728e+01 1.114689e+00 2.234678e+00 6.802079e+00 4.144706e+00 4.978266e+00 2.586501e+00 2.392207e+00 3.341000e+00 5.799891e+00 3.066200e+00 3.281274e+00 2.164084e+00 2.244962e+00 1.537963e-01 6.109212e-01 2.148943e+00 6.994962e-01 9.372252e-01 4.651119e-01 3.767994e-01 5.412332e-01 8.601235e-01 6.085985e-01 8.648053e-01 4.424532e-01 2.683313e-01
<GCONST> 1.258078e+02
<STATE> 3
<MEAN> 39
 6.611620e-01 5.839971e+00 -5.648866e+00 -2.514854e+01 -7.146206e+00 2.342521e+00 -1.914538e+00 -5.141376e+00 4.469416e-01 -7.290316e+00 1.467384e+00 3.007539e-01 7.149663e+01 -1.148815e-02 -1.167618e-01 -7.281922e-02 -4.048464e-01 -2.171325e-01 -2.235599e-01 4.777327e-02 2.076367e-01 1.063858e-01 8.444118e-02 -3.605712e-01 2.643479e-01 -2.397907e-01 -5.376978e-02 -1.175389e-02 -2.342220e-02 2.154766e-01 -1.785192e-02 -3.508940e-02 4.099769e-02 5.661103e-02 -1.084242e-01 7.995532e-02 1.501518e-02 1.107034e-02 -2.303949e-01
<VARIANCE> 39
 1.525389e+01 1.203405e+01 1.400076e+01 4.566998e+01 4.862785e+01 5.278098e+01 4.733974e+01 6.477630e+01 4.001591e+01 5.755404e+01 2.384337e+01 1.768010e+01 1.666004e+01 1.437580e-01 5.104818e-01 3.301663e-01 9.054138e-01 7.079377e-01 8.446853e-01 6.657395e-01 7.909955e-01 7.445159e-01 8.780191e-01 6.805688e-01 1.040390e+00 5.477834e-01 3.624919e-02 1.065987e-01 8.802935e-02 1.549609e-01 1.360945e-01 1.171303e-01 1.396576e-01 1.733780e-01 1.455021e-01 1.403553e-01 1.165022e-01 1.752351e-01 5.272117e-02
<GCONST> 8.104488e+01
<STATE> 4
<MEAN> 39
 -4.419294e+00 3.616989e+00 -4.284948e+00 -1.286115e+01 -7.501286e+00 -6.982908e-01 -2.691138e-01 -2.406468e-01 1.047539e+00 -3.147116e+00 -3.228183e-02 1.716260e+00 5.542397e+01 -7.582650e-01 -3.357042e-01 2.247309e-01 2.039886e+00 4.798423e-01 -1.667723e-01 4.055431e-01 4.656213e-01 1.253069e-01 6.851732e-01 1.587097e-01 1.593203e-02 -1.388053e+00 -4.335286e-02 7.336551e-03 6.359046e-02 1.361707e-01 1.310126e-01 3.900881e-02 -6.063285e-02 -6.541102e-02 5.168985e-02 1.637082e-02 9.556516e-02 -9.782380e-03 1.003893e-01
<VARIANCE> 39
 1.459888e+01 4.933686e+00 1.222295e+01 1.314754e+02 5.087085e+01 2.073993e+01 3.569707e+01 2.347670e+01 3.480394e+01 2.040089e+01 1.583867e+01 1.895186e+01 5.571779e+01 6.102454e-01 4.728535e-01 8.107418e-01 3.918396e+00 1.892316e+00 1.531923e+00 1.518458e+00 2.156785e+00 1.693931e+00 2.000308e+00 1.290701e+00 1.321146e+00 1.812246e+00 6.033011e-02 5.614312e-02 1.249005e-01 6.013123e-01 2.362220e-01 2.446669e-01 2.378793e-01 2.371202e-01 2.889667e-01 3.056864e-01 2.618104e-01 2.749839e-01 1.398369e-01
<GCONST> 9.680325e+01
<TRANSP> 5
 0.000000e+00 1.000000e+00 0.000000e+00 0.000000e+00 0.000000e+00
 0.000000e+00 8.241758e-01 1.758242e-01 0.000000e+00 0.000000e+00
 0.000000e+00 0.000000e+00 9.130435e-01 8.695652e-02 0.000000e+00
 0.000000e+00 0.000000e+00 0.000000e+00 9.012346e-01 9.876543e-02
 0.000000e+00 0.000000e+00 0.000000e+00 0.000000e+00 0.000000e+00
<ENDHMM>
