~o
<STREAMINFO> 1 39
<VECSIZE> 39<NULLD><MFCC_D_A_0><DIAGC>
~h "roku"
<BEGINHMM>
<NUMSTATES> 5
<STATE> 2
<MEAN> 39
 -5.573950e-02 2.030303e+00 -3.848683e+00 -7.648680e+00 -3.112537e+00 -2.982640e-01 -9.042099e+00 -1.051044e+01 2.111995e+00 -6.259243e+00 4.649771e+00 -1.956671e+00 6.784548e+01 3.427204e-01 5.344840e-01 -4.563570e-01 -1.368542e+00 -8.258587e-02 6.897392e-01 3.981676e-01 -3.217059e-01 -7.156056e-01 -1.655251e-01 3.427149e-01 1.594226e-01 4.906484e-01 -2.938775e-01 -3.703697e-02 2.601572e-02 1.582347e-01 1.629224e-01 1.473169e-01 3.702684e-01 1.922533e-01 -1.196117e-01 1.872741e-01 -5.358014e-02 2.045071e-01 -4.557458e-01
<VARIANCE> 39
 1.201187e+01 2.675304e+01 2.922839e+01 2.116383e+02 5.782682e+01 8.648048e+01 6.487663e+01 5.066589e+01 6.002942e+01 6.496324e+01 4.220669e+01 4.905335e+01 3.791513e+01 1.645382e+00 1.883227e+00 2.029515e+00 1.016953e+01 3.963649e+00 5.882809e+00 7.017519e+00 4.875442e+00 5.262135e+00 6.595678e+00 3.419077e+00 4.000580e+00 5.441358e+00 2.743398e-01 3.513317e-01 3.927331e-01 1.703169e+00 6.061131e-01 1.144898e+00 1.018307e+00 6.675068e-01 8.227096e-01 1.575812e+00 5.516931e-01 6.756386e-01 2.154355e-01
<GCONST> 1.352758e+02
<STATE> 3
<MEAN> 39
 -7.423378e+00 1.006876e+00 -6.009700e+00 -2.864962e+00 2.521384e+00 -2.041551e+00 -3.264072e+00 -5.615521e+00 -2.903512e+00 5.505693e-02 6.722498e-01 1.153215e+00 5.968951e+01 -3.696095e-01 -4.857694e-01 9.877227e-02 8.964010e-01 -8.687256e-02 -1.082450e+00 -9.204571e-01 -2.282204e-01 4.489919e-01 4.103054e-01 -2.471489e-01 -4.625546e-01 4.194308e-01 1.019606e-01 2.760416e-02 5.803565e-02 -1.606089e-01 -2.321547e-01 -4.691756e-03 -1.604325e-01 -7.723424e-02 1.071329e-01 -1.006914e-01 1.179885e-01 -1.200542e-01 2.261726e-01
<VARIANCE> 39
 1.983026e+01 3.249974e+01 3.110153e+01 3.915217e+01 2.823314e+01 6.740414e+01 5.301797e+01 2.214451e+01 3.860799e+01 4.637008e+01 2.733317e+01 3.804676e+01 6.560458e+01 2.076703e+00 3.312765e+00 4.764301e+00 2.658697e+00 4.881359e+00 3.452732e+00 3.687484e+00 2.705928e+00 3.186460e+00 3.774740e+00 3.141193e+00 3.431026e+00 6.476545e+00 2.210295e-01 6.556929e-01 8.903263e-01 4.209011e-01 8.386833e-01 6.320503e-01 4.965821e-01 4.268436e-01 6.978041e-01 5.887803e-01 5.678404e-01 5.446757e-01 8.322228e-01
<GCONST> 1.274701e+02
<STATE> 4
<MEAN> 39
 -6.885004e+00 -1.074016e+00 -4.355224e-01 7.896169e-01 -5.132325e+00 -1.131896e+01 -1.312981e+01 -5.670504e+00 4.903028e-01 -4.355769e-01 1.126602e+00 -2.417226e+00 6.541273e+01 -1.572129e-01 2.477792e-02 2.283041e-01 1.982448e-02 -3.154582e-02 4.662245e-01 6.183865e-01 3.939361e-01 1.139037e-01 4.210609e-02 2.049654e-01 4.602204e-01 -1.015133e+00 -4.187020e-02 1.224848e-02 -1.124092e-01 -4.542555e-03 1.786872e-01 1.534952e-01 1.977254e-01 6.234482e-02 -4.867314e-02 5.032204e-02 -1.591554e-02 7.044843e-02 -9.859522e-02
<VARIANCE> 39
 2.814660e+01 3.811220e+01 1.321319e+01 1.943268e+01 5.083613e+01 3.408167e+01 6.062643e+01 3.954874e+01 4.660162e+01 5.235793e+01 3.704495e+01 4.583635e+01 6.874469e+01 7.286891e-01 9.475274e-01 5.970501e-01 1.070203e+00 1.759694e+00 2.144558e+00 2.080383e+00 1.465458e+00 1.617672e+00 2.151331e+00 1.256550e+00 1.485400e+00 1.320075e+00 1.001301e-01 1.644198e-01 1.180548e-01 1.680860e-01 2.359658e-01 2.789643e-01 2.703814e-01 2.624681e-01 2.743681e-01 3.413263e-01 2.394673e-01 2.404353e-01 1.257518e-01
<GCONST> 1.019945e+02
<TRANSP> 5
 0.000000e+00 1.000000e+00 0.000000e+00 0.000000e+00 0.000000e+00
 0.000000e+00 9.202127e-01 7.978722e-02 0.000000e+00 0.000000e+00
 0.000000e+00 0.000000e+00 9.318182e-01 6.818181e-02 0.000000e+00
 0.000000e+00 0.000000e+00 0.000000e+00 9.350649e-01 6.493506e-02
 0.000000e+00 0.000000e+00 0.000000e+00 0.000000e+00 0.000000e+00
<ENDHMM>
