~o
<STREAMINFO> 1 39
<VECSIZE> 39<NULLD><MFCC_D_A_0><DIAGC>
~h "seven"
<BEGINHMM>
<NUMSTATES> 5
<STATE> 2
<MEAN> 39
 -2.895366e+00 3.148681e-01 2.009690e+00 -1.213474e+00 -2.896398e+00 -7.456251e+00 -6.457497e+00 -3.071737e+00 2.000412e+00 -9.525588e+00 -5.206965e+00 -1.345182e+00 6.577473e+01 3.718165e-01 -1.075386e+00 -5.407262e-01 -1.037332e+00 3.064449e-01 -8.091509e-01 -5.146979e-01 6.633231e-01 8.972544e-01 -1.022936e+00 -7.843783e-01 -2.410328e-01 2.014492e+00 -2.143769e-01 -3.679360e-01 -3.985980e-01 -2.086445e-01 4.659566e-01 3.091731e-01 2.463875e-01 1.740348e-01 -1.945081e-02 4.938364e-02 9.669887e-02 -1.577913e-01 2.020010e-02
<VARIANCE> 39
 1.021190e+01 4.286139e+01 3.312949e+01 4.407772e+01 3.718443e+01 3.500002e+01 3.824145e+01 7.440160e+01 7.886115e+01 5.552147e+01 2.933001e+01 2.447832e+01 4.398423e+01 1.186801e+00 5.366323e+00 4.076497e+00 4.464646e+00 5.207992e+00 3.999521e+00 2.453485e+00 7.503288e+00 4.080082e+00 3.992682e+00 2.273212e+00 2.111943e+00 4.350660e+00 1.642583e-01 7.271320e-01 4.850442e-01 6.718853e-01 6.539942e-01 7.048546e-01 4.262712e-01 1.570407e+00 6.940805e-01 6.955934e-01 4.493351e-01 4.220057e-01 4.728514e-01
<GCONST> 1.278844e+02
<STATE> 3
<MEAN> 39
 -3.373460e+00 -6.492544e+00 -3.418543e+00 -8.336333e+00 7.370267e+00 -5.000533e+00 -4.116187e+00 -4.632933e+00 8.617328e+00 -1.074874e+01 -7.679555e+00 -5.070403e+00 7.443864e+01 4.867005e-02 -3.345146e-01 -3.670414e-01 -3.154954e-01 6.010808e-01 4.134389e-01 1.076350e-01 -3.949735e-01 -8.476007e-02 1.702491e-01 1.538360e-01 -4.357894e-01 8.562933e-02 3.233302e-02 1.554703e-01 1.411490e-01 1.077658e-01 -1.354304e-01 1.546397e-02 -6.523452e-03 -1.474455e-01 -3.589605e-02 1.185338e-01 5.169441e-02 7.353425e-02 -1.898174e-01
<VARIANCE> 39
 1.037693e+01 2.765011e+01 5.088692e+01 4.332610e+01 8.118477e+01 2.929282e+01 5.777496e+01 1.191943e+02 4.808115e+01 7.339468e+01 1.523011e+01 2.481701e+01 3.276899e+01 2.665373e-01 3.105719e+00 4.665153e+00 3.026038e+00 3.657602e+00 1.933757e+00 2.630120e+00 6.951949e+00 1.782282e+00 3.193788e+00 9.190331e-01 2.390300e+00 2.390757e+00 4.855791e-02 4.304697e-01 7.515934e-01 4.982429e-01 4.769164e-01 3.399927e-01 3.949110e-01 1.567161e+00 3.136604e-01 5.679963e-01 2.076461e-01 3.946355e-01 4.130860e-01
<GCONST> 1.176975e+02
<STATE> 4
<MEAN> 39
 -4.028892e+00 -6.761568e+00 -8.391139e+00 -8.597493e+00 1.276581e+01 4.159698e+00 -1.356738e+00 -4.577787e+00 1.911668e+00 -4.095946e+00 -3.078914e+00 -8.161607e+00 6.576125e+01 -4.490512e-01 5.926307e-01 1.745667e-01 7.513742e-01 -4.309252e-01 4.511538e-01 3.260609e-01 1.980084e-01 -2.270395e-01 6.737660e-01 4.060000e-01 4.536728e-01 -1.389587e+00 -5.123694e-02 5.401259e-02 4.511921e-02 1.020461e-01 -9.950510e-02 -1.002884e-01 -4.179185e-02 1.107278e-01 1.091361e-02 -4.052246e-02 1.515061e-02 9.506302e-02 -3.448843e-02
<VARIANCE> 39
 1.675054e+01 2.575508e+01 1.755555e+01 4.852782e+01 3.185468e+01 3.053928e+01 4.531534e+01 5.090787e+01 4.183675e+01 2.760590e+01 1.553019e+01 1.585299e+01 6.575561e+01 7.222879e-01 6.363943e-01 1.002345e+00 1.491562e+00 1.709998e+00 1.460352e+00 1.312989e+00 1.824499e+00 1.290293e+00 1.362033e+00 1.064450e+00 1.161326e+00 8.802812e-01 9.097904e-02 1.185276e-01 1.347880e-01 2.091053e-01 2.527170e-01 2.121664e-01 2.206843e-01 2.888321e-01 2.415710e-01 2.663865e-01 1.554902e-01 1.753093e-01 1.256170e-01
<GCONST> 9.572373e+01
<TRANSP> 5
 0.000000e+00 1.000000e+00 0.000000e+00 0.000000e+00 0.000000e+00
 0.000000e+00 8.809524e-01 1.190476e-01 0.000000e+00 0.000000e+00
 0.000000e+00 0.000000e+00 9.395161e-01 6.048386e-02 0.000000e+00
 0.000000e+00 0.000000e+00 0.000000e+00 9.336283e-01 6.637168e-02
 0.000000e+00 0.000000e+00 0.000000e+00 0.000000e+00 0.000000e+00
<ENDHMM>
