~o
<STREAMINFO> 1 39
<VECSIZE> 39<NULLD><MFCC_D_A_0><DIAGC>
~h "sil"
<BEGINHMM>
<NUMSTATES> 5
<STATE> 2
<MEAN> 39
 -9.794200e+00 -9.877802e-01 -2.768476e+00 2.497032e+00 2.435964e+00 2.675890e+00 1.817700e-01 -2.216695e+00 -1.025486e+00 -5.733006e-01 2.337948e+00 1.961490e+00 5.112478e+01 -1.321842e-01 -4.013126e-02 -8.751937e-02 2.638796e-01 1.951773e-01 2.110204e-01 2.410947e-01 1.881801e-01 6.287426e-02 3.354733e-02 2.847403e-02 1.162837e-01 -2.257616e-01 2.970718e-02 8.290298e-03 4.406443e-02 -7.308587e-02 -3.863076e-02 -3.300939e-02 -3.351287e-02 -2.589479e-02 2.921964e-03 -1.049748e-02 -3.435466e-02 -3.331753e-02 8.110871e-02
<VARIANCE> 39
 5.358760e+00 1.359355e+01 1.075314e+01 2.718174e+01 1.883492e+01 2.101389e+01 1.548003e+01 2.464979e+01 2.287754e+01 1.795703e+01 1.584489e+01 1.408199e+01 2.205959e+01 3.655556e-01 3.810292e-01 7.595747e-01 1.099197e+00 1.197884e+00 1.271626e+00 1.422252e+00 1.636163e+00 1.421737e+00 1.476664e+00 1.423562e+00 1.300424e+00 3.118884e-01 5.603021e-02 6.737800e-02 1.319290e-01 1.760790e-01 1.980935e-01 2.229589e-01 2.430121e-01 2.961795e-01 2.563575e-01 2.817839e-01 2.611637e-01 2.478771e-01 5.508873e-02
<GCONST> 8.403748e+01
<STATE> 3
<MEAN> 39
 -1.124216e+01 1.040412e+00 -1.426280e+00 1.970685e+00 1.735939e+00 2.400733e+00 1.821730e+00 1.150808e+00 1.386613e+00 8.081377e-01 1.504612e+00 1.328182e+00 4.940033e+01 -7.185532e-03 -8.519034e-03 -2.837892e-03 3.394665e-03 1.551821e-03 4.109422e-03 4.647863e-04 4.004494e-04 1.606397e-04 2.695398e-03 4.588646e-03 4.489102e-03 -5.749724e-03 1.812843e-03 1.715382e-03 4.063489e-03 -6.294419e-03 -2.865460e-03 -6.186352e-03 -1.009871e-02 -8.627325e-03 -6.210179e-03 -2.476138e-03 -2.778054e-04 -3.759948e-03 8.125483e-03
<VARIANCE> 39
 8.168257e+00 5.514280e+00 4.494759e+00 9.941741e+00 9.943003e+00 1.018153e+01 9.708673e+00 1.461221e+01 1.376101e+01 1.287850e+01 1.117385e+01 9.333796e+00 4.593348e+01 7.888144e-02 1.774767e-01 3.093970e-01 4.630312e-01 6.120611e-01 8.172517e-01 8.661895e-01 1.027659e+00 1.076280e+00 1.010773e+00 9.940166e-01 9.093466e-01 2.834285e-02 1.711879e-02 3.800735e-02 6.508710e-02 9.639660e-02 1.278069e-01 1.698781e-01 1.790331e-01 2.135200e-01 2.226041e-01 2.085398e-01 2.057223e-01 1.891568e-01 1.000000e-02
<GCONST> 6.148294e+01
<STATE> 4
<MEAN> 39
 -1.056787e+01 1.139520e+00 -3.383000e-01 1.873317e+00 1.799883e+00 1.854151e+00 -1.023685e-02 -5.984445e-01 3.002496e-01 -7.646937e-01 1.102212e+00 8.795536e-01 5.201524e+01 1.149422e-01 2.656640e-01 4.639405e-01 -5.008271e-01 -3.902232e-01 -4.482150e-01 -7.531766e-01 -4.714907e-01 -1.112511e-01 -6.111684e-01 -1.432529e-01 -2.897315e-01 1.229044e+00 3.083268e-02 2.866991e-02 6.978962e-02 -1.529620e-01 -1.677425e-01 -1.127767e-01 -1.410162e-01 -1.110414e-01 -4.193461e-03 -9.521968e-02 1.769187e-02 -2.623390e-02 3.124425e-01
<VARIANCE> 39
 1.941976e+01 1.996222e+01 2.629342e+01 2.588658e+01 1.899414e+01 2.071565e+01 2.135554e+01 2.435782e+01 2.480586e+01 2.774207e+01 1.624129e+01 1.275932e+01 4.985372e+01 2.191840e+00 1.992667e+00 3.913581e+00 2.782136e+00 2.574998e+00 2.311058e+00 2.912260e+00 2.681040e+00 2.666738e+00 2.576577e+00 1.947691e+00 1.637514e+00 2.479261e+00 2.650697e-01 2.950657e-01 5.391651e-01 3.568732e-01 3.681946e-01 3.648781e-01 4.301718e-01 4.161763e-01 4.238326e-01 3.857293e-01 3.128503e-01 2.543628e-01 2.896073e-01
<GCONST> 1.103569e+02
<TRANSP> 5
 0.000000e+00 1.000000e+00 0.000000e+00 0.000000e+00 0.000000e+00
 0.000000e+00 8.544304e-01 1.455696e-01 0.000000e+00 0.000000e+00
 0.000000e+00 0.000000e+00 9.698862e-01 3.011381e-02 0.000000e+00
 0.000000e+00 0.000000e+00 0.000000e+00 7.244240e-01 2.755760e-01
 0.000000e+00 0.000000e+00 0.000000e+00 0.000000e+00 0.000000e+00
<ENDHMM>
